SVM-light Version V5.01-TK-1.5
11 # kernel type
3 # kernel parameter -d 
1 # kernel parameter -g 
1 # kernel parameter -s 
1 # kernel parameter -r 
empty# kernel parameter -u 
0.5 # kernel parameter -L 
1 # kernel parameter -T 
T # kernel parameter -C 
-1 # kernel parameter -F 
1 # kernel parameter -S 
0.400000 # kernel parameter -M 
0 # kernel parameter -N 
S # kernel parameter -V 
A # kernel parameter -W 
0 # kernel parameter -U 
10 # highest feature index 
8544 # number of training documents 
3605 # number of support vectors plus 1 
1.00105 # threshold b, each following line is a SV (starting with alpha*y)
-0.00084788982408106987592039116563569  |BT| (ROOT (2 (2 (The))(2 (Rock)))(4 (3 (2 (is))(4 (2 (destined))(2 (2 (2 (2 (2 (to))(2 (2 (be))(2 (2 (the))(2 (2 (21st))(2 (2 (2 (Century))(2 ('s)))(2 (3 (new))(2 (2 (``))(2 (Conan)))))))))(2 ('')))(2 (and)))(3 (2 (that))(3 (2 (he))(3 (2 ('s))(3 (2 (going))(3 (2 (to))(4 (3 (2 (make))(3 (3 (2 (a))(3 (splash)))(2 (2 (even))(3 (greater)))))(2 (2 (than))(2 (2 (2 (2 (1 (2 (Arnold))(2 (Schwarzenegger)))(2 (,)))(2 (2 (Jean-Claud))(2 (2 (Van))(2 (Damme)))))(2 (or)))(2 (2 (Steven))(2 (Segal))))))))))))))(2 (.)))) |BT| (ROOT (S (NP (DT (The))(NNP (Rock)))(VP (VP (VBZ (is))(VP (VBN (destined))(S (VP (TO (to))(VP (VB (be))(NP (NP (DT (the))(NNP (21st))(NNP (Century))(POS ('s)))(JJ (new))(`` (``))(NNP (Conan))('' (''))))))))(CC (and))(VP (SBAR (IN (that))(S (NP (PRP (he)))(VP (VBZ ('s))(VP (VBG (going))(S (VP (TO (to))(VP (VB (make))(NP (NP (DT (a))(NN (splash)))(ADJP (RB (even))(JJR (greater))))(PP (IN (than))(NP (NP (NNP (Arnold))(NNP (Schwarzenegger)))(, (,))(NP (NNP (Jean))(HYPH (-))(NNP (Claud))(NNP (Van))(NNP (Damme)))(CC (or))(NP (NNP (Steven))(NNP (Segal))))))))))))))(. (.)))) |ET| 
-0.0024902507200445060664417695761585  |BT| (ROOT (2 (2 (Everything))(2 (2 (about))(2 (2 (The))(2 (1 (Quiet))(2 (American))))))(3 (3 (4 (3 (2 (is))(3 (good)))(2 (,)))(2 (2 (except))(2 (2 (its))(2 (timing)))))(2 (.)))) |BT| (ROOT (S (NP (NP (NN (Everything)))(PP (IN (about))(NP (DT (The))(ADJP (JJ (Quiet)))(NNP (American)))))(VP (VBZ (is))(ADJP (JJ (good)))(, (,))(PP (IN (except))(NP (PRP$ (its))(NN (timing)))))(. (.)))) |ET| 
-0.0015605842591952074575184505889069  |BT| (ROOT (2 (2 (You))(2 (2 ('d))(2 (2 (think))(2 (2 (by))(2 (now))))))(2 (2 (America))(2 (2 (2 (would))(1 (2 (have))(2 (2 (2 (had))(1 (2 (enough))(2 (2 (of))(2 (2 (plucky))(2 (2 (British))(1 (eccentrics)))))))(4 (2 (with))(4 (3 (hearts))(3 (2 (of))(3 (gold))))))))(2 (.))))) |BT| (ROOT (S (NP (PRP (You)))(VP (MD ('d))(VP (VB (think))(PP (IN (by))(NP (NP (ADVP (RB (now)))(NP (NNP (America)))(SBAR (S (VP (MD (would))(VP (VB (have))(VP (VBN (had))(ADVP (RB (enough)))))))))(PP (IN (of))(NP (NP (JJ (plucky))(JJ (British))(NNS (eccentrics)))(PP (IN (with))(NP (NP (NNS (hearts)))(PP (IN (of))(NP (NN (gold))))))))))))(. (.)))) |ET| 
-0.0033003615034174356955565254878593  |BT| (ROOT (2 (Yet))(3 (2 (2 (the))(2 (act)))(3 (4 (3 (2 (is))(3 (2 (still))(4 (charming))))(2 (here)))(2 (.))))) |BT| (ROOT (S (CC (Yet))(NP (DT (the))(NN (act)))(VP (VBZ (is))(ADJP (RB (still))(JJ (charming)))(ADVP (RB (here))))(. (.)))) |ET| 
-0.0033003615034174356955565254878593  |BT| (ROOT (3 (2 (Part))(3 (2 (of))(4 (2 (2 (the))(3 (charm)))(2 (2 (of))(2 (2 (Satin))(2 (Rouge)))))))(3 (3 (2 (is))(3 (2 (that))(3 (2 (it))(2 (1 (2 (avoids))(2 (2 (the))(1 (obvious))))(3 (2 (with))(3 (3 (3 (humour))(2 (and)))(2 (lightness))))))))(2 (.)))) |BT| (ROOT (S (NP (NP (NN (Part)))(PP (IN (of))(NP (NP (DT (the))(NN (charm)))(PP (IN (of))(NP (NNP (Satin))(NNP (Rouge)))))))(VP (VBZ (is))(SBAR (IN (that))(S (NP (PRP (it)))(VP (VBZ (avoids))(NP (DT (the))(JJ (obvious)))(PP (IN (with))(NP (NN (humour))(CC (and))(NN (lightness))))))))(. (.)))) |ET| 
0.00072284523119565079456866341089949  |BT| (ROOT (4 (4 (2 (The))(4 (3 (gorgeously))(3 (2 (elaborate))(2 (continuation)))))(2 (2 (2 (of))(2 (``)))(2 (2 (The))(2 (2 (2 (Lord))(2 (2 (of))(2 (2 (the))(2 (Rings)))))(2 (2 (''))(2 (trilogy)))))))(2 (3 (2 (2 (is))(2 (2 (so))(2 (huge))))(2 (2 (that))(3 (2 (2 (2 (a))(2 (column)))(2 (2 (of))(2 (words))))(2 (2 (2 (2 (can))(1 (not)))(3 (adequately)))(2 (2 (describe))(2 (3 (2 (2 (co-writer\/director))(2 (2 (Peter))(3 (2 (Jackson))(2 ('s)))))(3 (2 (expanded))(2 (vision))))(2 (2 (of))(2 (2 (2 (J.R.R.))(2 (2 (Tolkien))(2 ('s))))(2 (Middle-earth))))))))))(2 (.)))) |BT| (ROOT (S (NP (NP (DT (The))(ADJP (RB (gorgeously))(JJ (elaborate)))(NN (continuation)))(PP (IN (of))(`` (``))(NP (NP (DT (The))(NNP (Lord)))(PP (IN (of))(NP (DT (the))(NNPS (Rings))('' (''))(NN (trilogy)))))))(VP (VBZ (is))(ADJP (RB (so))(JJ (huge)))(SBAR (IN (that))(S (NP (NP (DT (a))(NN (column)))(PP (IN (of))(NP (NNS (words)))))(VP (MD (can))(RB (not))(ADVP (RB (adequately)))(VP (VB (describe))(NP (NP (NP (NML (NN (co))(HYPH (-))(NN (writer\))(HYPH (/))(NN (director)))(NNP (Peter))(NNP (Jackson))(POS ('s)))(VBN (expanded))(NN (vision)))(PP (IN (of))(NP (NP (NNP (J.R.R.))(NNP (Tolkien))(POS ('s)))(NML (NNP (Middle))(HYPH (-))(NN (earth)))))))))))(. (.)))) |ET| 
0.0014549581838560175523628048566138  |BT| (ROOT (2 (2 (Whether))(2 (2 (2 (2 (or))(1 (not)))(3 (2 (you))(2 (2 ('re))(3 (3 (enlightened))(2 (2 (by))(2 (2 (any))(2 (2 (of))(2 (2 (Derrida))(2 ('s))))))))))(2 (2 (lectures))(2 (2 (on))(2 (2 (``))(2 (2 (2 (2 (2 (2 (the))(2 (other)))(2 ('')))(2 (and)))(2 (``)))(2 (2 (the))(2 (self)))))))))(3 (2 (,))(3 (2 (''))(3 (2 (Derrida))(3 (3 (2 (is))(4 (2 (an))(4 (4 (2 (undeniably))(3 (4 (3 (fascinating))(2 (and)))(4 (playful))))(2 (fellow)))))(2 (.))))))) |BT| (ROOT (S (SBAR (IN (Whether))(CC (or))(RB (not))(S (NP (PRP (you)))(VP (VBP ('re))(VP (VBN (enlightened))(PP (IN (by))(NP (NP (DT (any)))(PP (IN (of))(NP (NP (NNP (Derrida))(POS ('s)))(NNS (lectures))))))(PP (IN (on))(NP (`` (``))(NP (DT (the))(JJ (other)))('' (''))(CC (and))(`` (``))(NP (DT (the))(NN (self)))))))))(, (,))('' (''))(NP (NNP (Derrida)))(VP (VBZ (is))(NP (DT (an))(ADJP (RB (undeniably))(JJ (fascinating))(CC (and))(JJ (playful)))(NN (fellow))))(. (.)))) |ET| 
0.0033003615034174356955565254878593  |BT| (ROOT (3 (2 (2 (Just))(2 (2 (the))(2 (labour))))(3 (2 (involved))(3 (2 (in))(4 (2 (creating))(3 (3 (2 (the))(3 (3 (layered))(2 (richness))))(3 (2 (of))(3 (2 (2 (the))(2 (imagery)))(2 (2 (in))(3 (2 (2 (this))(2 (chiaroscuro)))(2 (2 (of))(2 (2 (2 (madness))(2 (and)))(2 (light)))))))))))))(3 (3 (2 (is))(4 (astonishing)))(2 (.)))) |BT| (ROOT (S (NP (NP (RB (Just))(DT (the))(NN (labour)))(VP (VBN (involved))(PP (IN (in))(S (VP (VBG (creating))(NP (NP (DT (the))(ADJP (JJ (layered)))(NN (richness)))(PP (IN (of))(NP (NP (DT (the))(NN (imagery)))(PP (IN (in))(NP (NP (DT (this))(NN (chiaroscuro)))(PP (IN (of))(NP (NN (madness))(CC (and))(NN (light))))))))))))))(VP (VBZ (is))(ADJP (JJ (astonishing))))(. (.)))) |ET| 
0.0033003615034174356955565254878593  |BT| (ROOT (2 (2 (a))(2 (2 (screenplay))(2 (more))))(3 (4 (ingeniously))(2 (2 (constructed))(2 (2 (2 (2 (than))(2 (``)))(2 (Memento)))(2 ('')))))) |BT| (ROOT (S (NP (NP (DT (a))(NN (screenplay)))(ADVP (RBR (more))))(ADJP (RB (ingeniously))(VBN (constructed))(PP (IN (than))(`` (``))(NP (NNP (Memento)))('' ('')))))) |ET| 
0.00024189534536649015430791187508675  |BT| (ROOT (3 (3 (Good))(4 (fun)))(4 (2 (,))(4 (4 (4 (4 (4 (4 (4 (4 (4 (3 (3 (good))(2 (action)))(2 (,)))(3 (3 (good))(2 (acting))))(2 (,)))(3 (3 (good))(2 (dialogue))))(2 (,)))(4 (3 (good))(2 (pace))))(2 (,)))(3 (3 (good))(2 (cinematography))))(2 (.))))) |BT| (ROOT (FRAG (NP (JJ (Good))(NN (fun)))(, (,))(NP (JJ (good))(NN (action)))(, (,))(NP (JJ (good))(NN (acting)))(, (,))(NP (JJ (good))(NN (dialogue)))(, (,))(NP (JJ (good))(NN (pace)))(, (,))(NP (JJ (good))(NN (cinematography)))(. (.)))) |ET| 
0.0033003615034174356955565254878593  |BT| (ROOT (2 (It))(4 (4 (2 ('s))(4 (2 (a))(4 (masterpiece))))(2 (.)))) |BT| (ROOT (S (NP (PRP (It)))(VP (VBZ ('s))(NP (DT (a))(NN (masterpiece))))(. (.)))) |ET| 
0.0033003615034174356955565254878593  |BT| (ROOT (2 (It))(4 (2 (2 ('s))(4 (2 (a))(4 (masterpeice))))(2 (.)))) |BT| (ROOT (S (NP (PRP (It)))(VP (VBZ ('s))(NP (DT (a))(NN (masterpeice))))(. (.)))) |ET| 
-0.0033003615034174356955565254878593  |BT| (ROOT (3 (2 (Mildly))(4 (entertaining)))(2 (.))) |BT| (ROOT (ADJP (RB (Mildly))(JJ (entertaining))(. (.)))) |ET| 
0.0033003615034174356955565254878593  |BT| (ROOT (2 (He))(3 (3 (2 (makes))(3 (2 (you))(3 (2 (realize))(3 (2 (that))(3 (3 (2 (deep))(3 (2 (inside))(2 (righteousness))))(2 (2 (can))(3 (2 (be))(3 (2 (found))(2 (2 (a))(3 (2 (tough))(3 (beauty))))))))))))(2 (.)))) |BT| (ROOT (S (NP (PRP (He)))(VP (VBZ (makes))(S (NP (PRP (you)))(VP (VB (realize))(SBAR (IN (that))(S (NP (NP (JJ (deep)))(PP (IN (inside))(NP (NN (righteousness)))))(VP (MD (can))(VP (VB (be))(VP (VBN (found))(NP (DT (a))(JJ (tough))(NN (beauty)))))))))))(. (.)))) |ET| 
0.0033003615034174356955565254878593  |BT| (ROOT (4 (2 (This))(3 (2 (comic))(3 (gem))))(3 (4 (3 (2 (is))(3 (2 (as))(4 (delightful))))(2 (2 (as))(1 (2 (it))(1 (2 (is))(3 (derivative))))))(2 (.)))) |BT| (ROOT (S (NP (DT (This))(JJ (comic))(NN (gem)))(VP (VBZ (is))(ADJP (IN (as))(JJ (delightful)))(SBAR (IN (as))(S (NP (PRP (it)))(VP (VBZ (is))(NP (JJ (derivative)))))))(. (.)))) |ET| 
0.0033003615034174356955565254878593  |BT| (ROOT (2 (It))(4 (3 (2 ('s))(3 (3 (2 (a))(4 (4 (perfect))(2 (show))))(3 (2 (of))(3 (3 (respect))(2 (2 (to))(3 (2 (2 (just))(2 (one)))(3 (2 (of))(3 (2 (2 (those))(3 (2 (underrated))(3 (professionals))))(3 (2 (who))(1 (2 (2 (deserve))(2 (but)))(2 (2 (rarely))(2 (3 (receive))(2 (it))))))))))))))(2 (.)))) |BT| (ROOT (S (NP (PRP (It)))(VP (VBZ ('s))(NP (NP (DT (a))(JJ (perfect))(NN (show)))(PP (IN (of))(NP (NP (NN (respect)))(PP (IN (to))(NP (NP (RB (just))(CD (one)))(PP (IN (of))(NP (NP (DT (those))(JJ (underrated))(NNS (professionals)))(SBAR (WHNP (WP (who)))(S (VP (VP (VBP (deserve)))(CC (but))(ADVP (RB (rarely)))(VP (VBP (receive))(NP (PRP (it)))))))))))))))(. (.)))) |ET| 
-0.0033003615034174356955565254878593  |BT| (ROOT (2 (This))(3 (3 (2 (is))(3 (2 (a))(3 (3 (2 (dark))(3 (2 (,))(3 (3 (gritty))(3 (2 (,))(3 (2 (sometimes))(3 (funny)))))))(4 (2 (little))(3 (gem))))))(2 (.)))) |BT| (ROOT (S (NP (DT (This)))(VP (VBZ (is))(NP (NP (DT (a))(NN (dark)))(, (,))(NP (JJ (gritty)))(, (,))(NP (ADJP (RB (sometimes))(JJ (funny)))(JJ (little))(NN (gem)))))(. (.)))) |ET| 
-0.0024580311260545034852953438786471  |BT| (ROOT (2 (Fubar))(3 (3 (3 (2 (is))(3 (3 (4 (4 (2 (very))(3 (funny)))(2 (,)))(2 (but)))(2 (1 (not))(2 (always)))))(3 (2 (in))(3 (2 (a))(3 (3 (laugh-out-loud))(2 (way))))))(2 (.)))) |BT| (ROOT (S (NP (NNP (Fubar)))(VP (VP (VBZ (is))(ADJP (RB (very))(JJ (funny))))(, (,))(CC (but))(RB (not))(ADVP (RB (always)))(PP (IN (in))(NP (DT (a))(ADJP (NP (NN (laugh))(HYPH (-))(NN (out)))(HYPH (-))(JJ (loud)))(NN (way)))))(. (.)))) |ET| 
-0.0033003615034174356955565254878593  |BT| (ROOT (4 (2 (What))(3 (2 (makes))(2 (2 (the))(3 (2 (movie))(3 (special))))))(3 (4 (2 (is))(3 (2 (its))(3 (2 (utter))(3 (sincerity)))))(2 (.)))) |BT| (ROOT (S (SBAR (WHNP (WP (What)))(S (VP (VBZ (makes))(S (NP (DT (the))(NN (movie)))(ADJP (JJ (special)))))))(VP (VBZ (is))(NP (PRP$ (its))(JJ (utter))(NN (sincerity))))(. (.)))) |ET| 
0.0033003615034174356955565254878593  |BT| (ROOT (2 (I))(1 (2 (2 (2 (am))(2 (2 (highly))(2 (3 (3 (amused))(2 (2 (by))(2 (2 (the))(2 (idea)))))(2 (2 (that))(2 (2 (we))(2 (2 (have))(2 (2 (come))(2 (2 (to))(2 (2 (2 (a))(2 (point)))(2 (2 (in))(2 (society))))))))))))(2 (2 (where))(3 (2 (it))(2 (2 (has))(3 (2 (been))(3 (2 (deemed))(2 (2 (2 (important))(2 (enough)))(1 (2 (to))(1 (2 (make))(2 (2 (2 (a))(2 (film)))(2 (2 (2 (in))(2 (which)))(2 (2 (someone))(2 (2 (has))(2 (2 (to))(2 (2 (be))(2 (2 (hired))(2 (2 (to))(2 (2 (portray))(2 (2 (Richard))(2 (Dawson)))))))))))))))))))))(2 (.)))) |BT| (ROOT (S (NP (PRP (I)))(VP (VBP (am))(ADJP (RB (highly))(JJ (amused))(PP (IN (by))(NP (DT (the))(NN (idea)))))(SBAR (IN (that))(S (NP (PRP (we)))(VP (VBP (have))(VP (VBN (come))(PP (IN (to))(NP (NP (DT (a))(NN (point)))(PP (IN (in))(NP (NN (society))))))(SBAR (WHADVP (WRB (where)))(S (NP (PRP (it)))(VP (VBZ (has))(VP (VBN (been))(VP (VBN (deemed))(NP (ADJP (JJ (important))(JJ (enough))))(S (VP (TO (to))(VP (VB (make))(NP (NP (DT (a))(NN (film)))(SBAR (WHPP (IN (in))(WHNP (WDT (which))))(S (NP (NN (someone)))(VP (VBZ (has))(S (VP (TO (to))(VP (VB (be))(VP (VBN (hired))(S (VP (TO (to))(VP (VB (portray))(NP (NNP (Richard))(NNP (Dawson)))))))))))))))))))))))))))(. (.)))) |ET| 
0.00020101329135082104059527308148603  |BT| (ROOT (2 (It))(4 (3 (2 (cuts))(3 (3 (3 (3 (2 (3 (2 (2 (to))(2 (2 (2 (the))(2 (core)))(3 (2 (of))(2 (2 (what))(2 (2 (it))(3 (2 (actually))(3 (2 (means))(2 (2 (to))(2 (2 (face))(2 (2 (your))(1 (fears))))))))))))(2 (2 (,))(2 (2 (to))(2 (2 (be))(2 (2 (2 (a))(2 (girl)))(2 (2 (in))(2 (2 (2 (a))(2 (world)))(2 (2 (of))(2 (boys))))))))))(2 (,)))(3 (2 (to))(2 (2 (2 (be))(2 (2 (a))(2 (boy))))(3 (3 (truly))(3 (2 (in))(2 (4 (love))(2 (2 (with))(2 (2 (a))(2 (girl))))))))))(2 (,)))(2 (and)))(3 (2 (to))(3 (2 (ride))(3 (2 (2 (the))(2 (2 (big))(2 (2 (metaphorical))(2 (wave)))))(2 (2 (that))(2 (2 (2 (2 (is))(3 (life)))(2 (--)))(2 (2 (wherever))(2 (2 (it))(2 (2 (takes))(2 (you))))))))))))(2 (.)))) |BT| (ROOT (S (NP (PRP (It)))(VP (VBZ (cuts))(PP (IN (to))(NP (NP (DT (the))(NN (core)))(PP (IN (of))(SBAR (WHNP (WP (what)))(S (NP (PRP (it)))(ADVP (RB (actually)))(VP (VBZ (means))(S (VP (VP (TO (to))(VP (VB (face))(NP (PRP$ (your))(NNS (fears)))))(, (,))(VP (TO (to))(VP (VB (be))(NP (NP (DT (a))(NN (girl)))(PP (IN (in))(NP (NP (DT (a))(NN (world)))(PP (IN (of))(NP (NNS (boys)))))))))(, (,))(VP (TO (to))(VP (VB (be))(NP (NP (DT (a))(NN (boy)))(PP (ADVP (RB (truly)))(IN (in))(NP (NP (NN (love)))(PP (IN (with))(NP (DT (a))(NN (girl)))))))))(, (,))(CC (and))(VP (TO (to))(VP (VB (ride))(NP (NP (DT (the))(JJ (big))(JJ (metaphorical))(NN (wave)))(SBAR (WHNP (WDT (that)))(S (VP (VBZ (is))(NP (NN (life)))(: (--))(SBAR (WHADVP (WRB (wherever)))(S (NP (PRP (it)))(VP (VBZ (takes))(NP (PRP (you)))))))))))))))))))))(. (.)))) |ET| 
0.0016789545047129208425046309471895  |BT| (ROOT (4 (2 (3 (2 (1 (1 (Leave))(2 (it)))(2 (2 (to))(2 (2 (John))(2 (Sayles)))))(2 (2 (to))(2 (2 (take))(2 (2 (on))(2 (2 (2 (developers))(2 (,)))(2 (2 (2 (the))(2 (Chamber)))(2 (2 (of))(2 (2 (2 (2 (Commerce))(2 (,)))(2 (2 (2 (tourism))(2 (,)))(2 (2 (historical))(2 (pageants)))))(2 (,))))))))))(2 (and)))(3 (2 (1 (2 (commercialism))(2 (2 (all))(2 (2 (in))(2 (2 (the))(2 (2 (same))(2 (movie)))))))(2 (...)))(3 (2 (without))(2 (0 (2 (neglecting))(2 (2 (character))(2 (development))))(2 (2 (for))(2 (2 (even))(2 (2 (one))(2 (minute)))))))))(2 (.))) |BT| (ROOT (S (VP (VB (Leave))(NP (PRP (it)))(PP (IN (to))(NP (NNP (John))(NNP (Sayles))))(S (VP (TO (to))(VP (VB (take))(PP (IN (on))(NP (NP (NNS (developers)))(, (,))(NP (NP (DT (the))(NNP (Chamber)))(PP (IN (of))(NP (NP (NNP (Commerce)))(, (,))(NP (NN (tourism)))(, (,))(NP (JJ (historical))(NNS (pageants)))(, (,))(CC (and))(NP (NN (commercialism))))))))(ADVP (RB (all))(PP (IN (in))(NP (NP (DT (the))(JJ (same))(NN (movie)))(NFP (...))(PP (IN (without))(S (VP (VBG (neglecting))(NP (NN (character))(NN (development)))(PP (IN (for))(NP (RB (even))(CD (one))(NN (minute))))))))))))))(. (.)))) |ET| 
0.0033003615034174356955565254878593  |BT| (ROOT (2 (3 (Sex))(2 (2 (With))(2 (Strangers))))(3 (4 (2 (is))(3 (fascinating)))(2 (...)))) |BT| (ROOT (S (NP (NP (NN (Sex)))(PP (IN (With))(NP (NNS (Strangers)))))(VP (VBZ (is))(ADJP (JJ (fascinating))))(. (...)))) |ET| 
-0.00079102119745182370488117973295061  |BT| (ROOT (2 (Surprisingly))(3 (insightful))) |BT| (ROOT (FRAG (ADVP (RB (Surprisingly)))(ADJP (JJ (insightful))))) |ET| 
-0.0033003615034174356955565254878593  |BT| (ROOT (3 (2 (Old-fashioned))(4 (2 (but))(4 (4 (2 (thoroughly))(4 (satisfying)))(3 (entertainment)))))(2 (.))) |BT| (ROOT (S (NP (ADJP (ADJP (JJ (Old))(HYPH (-))(JJ (fashioned)))(CC (but))(ADJP (RB (thoroughly))(VBG (satisfying))))(NN (entertainment)))(. (.)))) |ET| 
0.0033003615034174356955565254878593  |BT| (ROOT (2 (2 (One))(3 (2 (of))(3 (2 (the))(3 (4 (best))(2 (inside-show-biz))))))(2 (3 (2 (yarns))(2 (ever)))(2 (.)))) |BT| (ROOT (NP (NP (CD (One)))(PP (IN (of))(NP (DT (the))(JJS (best))(NML (PP (IN (inside))(HYPH (-))(NP (NN (show))))(HYPH (-))(NP (NN (biz))))(NNS (yarns))))(ADVP (RB (ever)))(. (.)))) |ET| 
0.0033003615034174356955565254878593  |BT| (ROOT (4 (3 (2 (Offers))(3 (2 (a))(3 (3 (guilt-free))(2 (trip)))))(3 (2 (into))(3 (3 (feel-good))(2 (territory)))))(2 (.))) |BT| (ROOT (S (VP (VBZ (Offers))(NP (DT (a))(ADJP (NN (guilt))(HYPH (-))(JJ (free)))(NN (trip)))(PP (IN (into))(NP (NN (feel))(HYPH (-))(JJ (good))(NN (territory)))))(. (.)))) |ET| 
0.0033003615034174356955565254878593  |BT| (ROOT (3 (4 (Remarkable))(3 (2 (for))(3 (2 (its))(3 (3 (3 (intelligence))(2 (and)))(2 (intensity))))))(2 (.))) |BT| (ROOT (ADJP (JJ (Remarkable))(PP (IN (for))(NP (PRP$ (its))(NN (intelligence))(CC (and))(NN (intensity))))(. (.)))) |ET| 
-0.0033003615034174356955565254878593  |BT| (ROOT (2 (Everyone))(3 (3 (2 (should))(4 (2 (be))(4 (3 (able))(4 (2 (to))(4 (3 (appreciate))(4 (4 (4 (2 (the))(3 (3 (wonderful))(2 (cinematography))))(2 (and)))(3 (3 (naturalistic))(2 (acting)))))))))(2 (.)))) |BT| (ROOT (S (NP (NN (Everyone)))(VP (MD (should))(VP (VB (be))(ADJP (JJ (able))(S (VP (TO (to))(VP (VB (appreciate))(NP (NP (DT (the))(JJ (wonderful))(NN (cinematography)))(CC (and))(NP (JJ (naturalistic))(NN (acting))))))))))(. (.)))) |ET| 
-0.0016210209367635021980580400935423  |BT| (ROOT (2 (2 (Swims))(2 (2 (in))(1 (mediocrity))))(3 (2 (,))(2 (2 (2 (2 (2 (sticking))(2 (2 (its))(2 (head))))(2 (up)))(3 (2 (for))(3 (3 (2 (a))(2 (breath)))(2 (2 (of))(3 (3 (4 (fresh))(2 (air)))(2 (2 (2 (now))(2 (and)))(2 (then))))))))(2 (.))))) |BT| (ROOT (S (VP (VBZ (Swims))(PP (IN (in))(NP (NN (mediocrity))))(, (,))(S (VP (VBG (sticking))(NP (PRP$ (its))(NN (head)))(PRT (RP (up)))(PP (IN (for))(NP (NP (DT (a))(NN (breath)))(PP (IN (of))(NP (NP (JJ (fresh))(NN (air)))(ADVP (RB (now))(CC (and))(RB (then))))))))))(. (.)))) |ET| 
-8.5413930204583313069224836944215e-05  |BT| (ROOT (0 (0 (2 (An))(0 (1 (2 (unremittingly))(1 (ugly)))(2 (movie))))(3 (2 (to))(2 (2 (2 (2 (2 (2 (2 (look))(2 (at)))(2 (,)))(2 (2 (listen))(2 (to))))(2 (,)))(2 (and)))(2 (2 (think))(2 (about))))))(0 (2 (,))(1 (2 (it))(1 (2 (2 (is))(0 (4 (2 (quite))(4 (2 (possibly))(3 (2 (the))(3 (2 (sturdiest))(2 (2 (example))(2 (yet)))))))(1 (2 (of))(2 (2 (why))(1 (2 (2 (the))(2 (2 (DV))(2 (revolution))))(1 (2 (has))(1 (1 (cheapened))(3 (2 (2 (the))(3 (artistry)))(2 (2 (of))(2 (2 (making))(2 (2 (a))(2 (film)))))))))))))(2 (.)))))) |BT| (ROOT (S (S (NP (DT (An))(ADJP (RB (unremittingly))(JJ (ugly)))(NN (movie)))(VP (TO (to))(VP (VP (VB (look))(PP (IN (at))))(, (,))(VP (VB (listen))(PP (IN (to))))(, (,))(CC (and))(VP (VB (think))(ADVP (RB (about)))))))(, (,))(NP (PRP (it)))(VP (VBZ (is))(NP (NP (RB (quite))(RB (possibly))(DT (the))(JJS (sturdiest))(NN (example)))(PP (ADVP (RB (yet)))(IN (of))(SBAR (WHADVP (WRB (why)))(S (NP (DT (the))(NNP (DV))(NN (revolution)))(VP (VBZ (has))(VP (VBN (cheapened))(NP (NP (DT (the))(NN (artistry)))(PP (IN (of))(S (VP (VBG (making))(NP (DT (a))(NN (film))))))))))))))(. (.)))) |ET| 
0.0022657675863981927184831466348669  |BT| (ROOT (3 (2 (The))(2 (way)))(3 (2 (2 (2 (2 (2 (2 (2 (2 (the))(2 (roundelay)))(2 (2 (of))(2 (2 (partners))(2 (functions)))))(2 (,)))(2 (and)))(2 (2 (2 (the))(2 (interplay)))(2 (2 (2 (2 (within))(2 (partnerships)))(2 (and)))(2 (2 (among))(2 (partnerships))))))(2 (and)))(2 (2 (2 (the))(2 (2 (general))(2 (air))))(2 (2 (of))(2 (Gator-bashing)))))(3 (4 (2 (2 (are))(2 (consistently)))(4 (delightful)))(2 (.))))) |BT| (ROOT (S (NP (NP (DT (The))(NN (way)))(NP (NP (DT (the))(NN (roundelay)))(PP (IN (of))(NP (NNS (partners))(NNS (functions)))))(, (,))(CC (and))(NP (NP (DT (the))(NN (interplay)))(PP (PP (IN (within))(NP (NNS (partnerships))))(CC (and))(PP (IN (among))(NP (NP (NNS (partnerships)))(CC (and))(NP (DT (the))(ADJP (NML (NML (JJ (general))(NN (air)))(PP (IN (of))(NP (NNP (Gator)))))(HYPH (-))(VBG (bashing)))))))))(VP (VBP (are))(ADJP (RB (consistently))(JJ (delightful))))(. (.)))) |ET| 
0.00076069362390092083812259682318313  |BT| (ROOT (3 (3 (Flamboyant))(2 (2 (in))(3 (2 (2 (2 (some))(2 (movies)))(2 (and)))(3 (2 (4 (artfully))(2 (2 (restrained))(2 (2 (in))(2 (others)))))(2 (2 (,))(2 (2 (65-year-old))(2 (2 (Jack))(2 (Nicholson)))))))))(3 (4 (2 (could))(4 (2 (be))(3 (3 (2 (looking))(3 (2 (at))(2 (2 (his))(4 (2 (12th))(3 (3 (Oscar))(2 (nomination)))))))(3 (2 (by))(3 (2 (proving))(3 (2 (that))(3 (2 (he))(3 (2 (2 (2 (2 (2 ('s))(2 (now)))(2 (,)))(2 (2 (more))(2 (2 (than))(2 (ever)))))(2 (,)))(3 (2 (2 (choosing))(2 (2 (his))(2 (roles))))(3 (2 (with))(3 (2 (2 (the))(3 (precision)))(3 (2 (of))(2 (2 (the))(2 (3 (insurance))(2 (actuary))))))))))))))))(2 (.)))) |BT| (ROOT (S (S (UCP (ADJP (JJ (Flamboyant))(PP (IN (in))(NP (DT (some))(NNS (movies)))))(CC (and))(VP (ADVP (RB (artfully)))(VBN (restrained))(PP (IN (in))(NP (NNS (others)))))))(, (,))(NP (ADJP (NP (CD (65))(HYPH (-))(NN (year)))(HYPH (-))(JJ (old)))(NNP (Jack))(NNP (Nicholson)))(VP (MD (could))(VP (VB (be))(VP (VBG (looking))(PP (IN (at))(NP (PRP$ (his))(JJ (12th))(NNP (Oscar))(NN (nomination))))(PP (IN (by))(S (VP (VBG (proving))(SBAR (IN (that))(S (NP (PRP (he)))(VP (VBZ ('s))(ADVP (RB (now)))(, (,))(ADJP (ADJP (JJR (more)))(PP (IN (than))(S (ADVP (RB (ever)))(, (,))(VP (VBG (choosing))(NP (PRP$ (his))(NNS (roles)))(PP (IN (with))(NP (NP (DT (the))(NN (precision)))(PP (IN (of))(NP (DT (the))(NN (insurance))(NN (actuary)))))))))))))))))))(. (.)))) |ET| 
0.0011575620574546389204145802054313  |BT| (ROOT (2 (It))(4 (3 (2 (2 ('s))(2 (2 (2 (the))(3 (kind)))(2 (2 (of))(2 (movie)))))(2 (2 (that))(2 (2 (2 (,))(2 (2 (aside))(2 (2 (2 (from))(2 (2 (2 (2 (2 (2 (2 (2 (Robert))(2 (Altman)))(2 (,)))(2 (2 (Spike))(2 (Lee))))(2 (,)))(2 (2 (the))(3 (2 (Coen))(2 (Brothers)))))(2 (and)))(2 (2 (a))(2 (2 (few))(2 (others))))))(2 (,)))))(2 (3 (2 (our))(2 (moviemakers)))(2 (2 (2 (do))(2 (n't)))(2 (2 (make))(2 (2 (often))(2 (enough)))))))))(2 (.)))) |BT| (ROOT (S (NP (PRP (It)))(VP (VBZ ('s))(NP (NP (DT (the))(NN (kind)))(PP (IN (of))(NP (NP (NN (movie)))(SBAR (WHNP (WDT (that)))(, (,))(S (ADVP (RB (aside))(PP (IN (from))(NP (NP (NNP (Robert))(NNP (Altman)))(, (,))(NP (NNP (Spike))(NNP (Lee)))(, (,))(NP (DT (the))(NNP (Coen))(NNPS (Brothers)))(CC (and))(NP (NP (DT (a))(JJ (few))(NNS (others)))(, (,))(NP (PRP$ (our))(NNS (moviemakers)))))))(VP (VBP (do))(RB (n't))(VP (VB (make))(ADJP (RB (often))(JJ (enough)))))))))))(. (.)))) |ET| 
0.0033003615034174356955565254878593  |BT| (ROOT (3 (3 (3 (2 (2 (2 (Often))(2 (shocking)))(2 (but)))(3 (2 (ultimately))(3 (worthwhile))))(2 (exploration)))(1 (2 (of))(2 (2 (2 (3 (motherhood))(2 (and)))(1 (desperate)))(3 (mothers)))))(2 (.))) |BT| (ROOT (FRAG (ADVP (RB (Often)))(NP (NP (ADJP (ADJP (JJ (shocking)))(CC (but))(ADJP (RB (ultimately))(JJ (worthwhile))))(NN (exploration)))(PP (IN (of))(NP (NP (NN (motherhood)))(CC (and))(NP (JJ (desperate))(NNS (mothers))))))(. (.)))) |ET| 
-0.0033003615034174356955565254878593  |BT| (ROOT (2 (2 (A))(3 (tasty)))(3 (4 (2 (appetizer))(3 (2 (that))(3 (2 (leaves))(3 (2 (you))(3 (2 (wanting))(2 (more)))))))(2 (.)))) |BT| (ROOT (NP (NP (DT (A))(JJ (tasty))(NN (appetizer)))(SBAR (WHNP (WDT (that)))(S (VP (VBZ (leaves))(S (NP (PRP (you)))(VP (VBG (wanting))(NP (JJR (more))))))))(. (.)))) |ET| 
-0.001825801126674712979852666094871  |BT| (ROOT (3 (2 (1 (-LRB-))(2 (1 (Reaches))(3 (-RRB-))))(3 (3 (3 (3 (wholly))(3 (3 (3 (believable))(2 (and)))(2 (heart-wrenching))))(2 (depths)))(1 (2 (of))(1 (despair)))))(2 (.))) |BT| (ROOT (S (NP (NNP (-LRB-)))(VP (VBZ (Reaches))(NP (NP (JJ (-RRB-))(ADJP (ADJP (RB (wholly))(JJ (believable)))(CC (and))(ADJP (NN (heart))(HYPH (-))(VBG (wrenching))))(NNS (depths)))(PP (IN (of))(NP (NN (despair))))))(. (.)))) |ET| 
0.0033003615034174356955565254878593  |BT| (ROOT (2 (There))(4 (3 (4 (2 (is))(3 (greatness)))(2 (here)))(2 (.)))) |BT| (ROOT (S (NP (EX (There)))(VP (VBZ (is))(NP (NN (greatness)))(ADVP (RB (here))))(. (.)))) |ET| 
0.0033003615034174356955565254878593  |BT| (ROOT (2 (Charlotte))(3 (2 (Sometimes))(4 (4 (2 (is))(4 (2 (a))(4 (4 (brilliant))(2 (movie)))))(2 (.))))) |BT| (ROOT (S (NP (NNP (Charlotte)))(ADVP (RB (Sometimes)))(VP (VBZ (is))(NP (DT (a))(JJ (brilliant))(NN (movie))))(. (.)))) |ET| 
0.0033003615034174356955565254878593  |BT| (ROOT (3 (Promises))(4 (3 (2 (is))(4 (3 (2 (one))(2 (film)))(4 (2 (that))(3 (2 ('s))(4 (3 (truly))(4 (2 (deserving))(3 (2 (of))(3 (2 (its))(3 (3 (Oscar))(2 (nomination)))))))))))(2 (.)))) |BT| (ROOT (S (S (VP (VBZ (Promises))))(VP (VBZ (is))(NP (NP (CD (one))(NN (film)))(SBAR (WHNP (WDT (that)))(S (VP (VBZ ('s))(ADJP (RB (truly))(JJ (deserving))(PP (IN (of))(NP (PRP$ (its))(NNP (Oscar))(NN (nomination))))))))))(. (.)))) |ET| 
-0.0033003615034174356955565254878593  |BT| (ROOT (2 (Oh))(2 (2 (,))(3 (3 (2 (and))(3 (3 (3 (2 (more))(4 (entertaining)))(2 (,)))(2 (too))))(2 (.))))) |BT| (ROOT (FRAG (NP (NP (UH (Oh)))(UCP (NP (, (,)))(CC (and))(ADJP (RBR (more))(JJ (entertaining)))))(, (,))(ADVP (RB (too)))(. (.)))) |ET| 
-0.0029377594843122811080204925815451  |BT| (ROOT (2 (2 (The))(2 (film)))(2 (3 (2 (is))(4 (2 (predictable))(3 (2 (in))(3 (2 (2 (the))(3 (2 (reassuring))(2 (manner))))(3 (2 (of))(3 (2 (a))(3 (3 (3 (beautifully))(2 (sung)))(3 (2 (holiday))(2 (carol))))))))))(2 (.)))) |BT| (ROOT (S (NP (DT (The))(NN (film)))(VP (VBZ (is))(ADJP (JJ (predictable))(PP (IN (in))(NP (NP (DT (the))(JJ (reassuring))(NN (manner)))(PP (IN (of))(NP (DT (a))(ADJP (ADVP (RB (beautifully)))(VBN (sung)))(NN (holiday))(NN (carol))))))))(. (.)))) |ET| 
-1.2166308441262368780235413046054e-05  |BT| (ROOT (2 (2 (Blade))(2 (II)))(2 (3 (2 (2 (merges))(2 (2 (2 (bits))(2 (and)))(2 (pieces))))(3 (2 (from))(3 (2 (2 (fighting))(2 (2 (2 (2 (2 (2 (2 (2 (2 (2 (2 (2 (2 (2 (2 (games))(2 (,)))(2 (2 (wire))(1 (fu))))(2 (,)))(2 (1 (horror))(2 (movies))))(2 (,)))(2 (mystery)))(2 (,)))(2 (2 (James))(2 (Bond))))(2 (,)))(2 (wrestling)))(2 (,)))(2 (sci-fi)))(2 (and)))(2 (anime))))(2 (2 (into))(2 (2 (one))(1 (2 (big))(2 (1 (bloody))(2 (stew)))))))))(2 (.)))) |BT| (ROOT (S (NP (NN (Blade))(CD (II)))(VP (VBZ (merges))(NP (NNS (bits))(CC (and))(NNS (pieces)))(PP (IN (from))(S (VP (VBG (fighting))(NP (NP (NNS (games)))(, (,))(NP (NN (wire))(NN (fu)))(, (,))(NP (NN (horror))(NNS (movies)))(, (,))(NP (NN (mystery)))(, (,))(NP (NNP (James))(NNP (Bond)))(, (,))(NP (NN (wrestling)))(, (,))(NP (NN (sci))(HYPH (-))(NN (fi)))(CC (and))(NP (NN (anime))))(PP (IN (into))(NP (CD (one))(JJ (big))(JJ (bloody))(NN (stew))))))))(. (.)))) |ET| 
0.0033003615034174356955565254878593  |BT| (ROOT (2 (2 (What))(2 (2 (makes))(3 (3 (How))(3 (2 (I))(2 (2 (Killed))(2 (2 (2 (My))(2 (Father)))(3 (compelling))))))))(3 (2 (,))(4 (4 (2 (besides))(4 (2 (its))(3 (4 (terrific))(2 (performances)))))(2 (2 (,))(3 (3 (2 (is))(3 (2 (2 (Fontaine))(2 ('s)))(3 (2 (willingness))(3 (2 (to))(1 (1 (2 (wander))(2 (2 (into))(1 (2 (2 (the))(1 (2 (dark))(2 (areas))))(2 (2 (of))(2 (2 (parent-child))(2 (relationships)))))))(2 (2 (without))(1 (flinching))))))))(2 (.))))))) |BT| (ROOT (S (SBAR (WHNP (WP (What)))(S (VP (VBZ (makes))(SBAR (WHADVP (WRB (How)))(S (NP (PRP (I)))(VP (VBD (Killed))(S (NP (PRP$ (My))(NNP (Father)))(ADJP (JJ (compelling))))))))))(, (,))(PP (IN (besides))(NP (PRP$ (its))(JJ (terrific))(NNS (performances))))(, (,))(VP (VBZ (is))(NP (NP (NNP (Fontaine))(POS ('s)))(NN (willingness))(S (VP (TO (to))(VP (VB (wander))(PP (IN (into))(NP (NP (DT (the))(JJ (dark))(NNS (areas)))(PP (IN (of))(NP (NML (NN (parent))(HYPH (-))(NN (child)))(NNS (relationships))))))(PP (IN (without))(S (VP (VBG (flinching))))))))))(. (.)))) |ET| 
0.00015775253548499373890123820274312  |BT| (ROOT (2 (It))(3 (3 (3 (2 (2 (1 (2 (2 (2 (2 (2 (3 (2 (is))(3 (sentimental)))(2 (but)))(1 (2 (feels))(2 (3 (free))(1 (2 (to))(1 (offend))))))(2 (,)))(3 (2 (is))(2 (analytical))))(2 (and)))(2 (2 (then))(2 (2 (surrenders))(1 (2 (to))(1 (2 (2 (the))(1 (illogic)))(2 (2 (of))(2 (2 (its))(2 (characters)))))))))(2 (,)))(1 (2 (is))(2 (2 (about))(2 (grief)))))(2 (and)))(3 (2 (yet))(3 (2 (permits))(4 (laughter)))))(2 (.)))) |BT| (ROOT (S (NP (PRP (It)))(VP (VP (VBZ (is))(ADJP (JJ (sentimental))))(CC (but))(VP (VBZ (feels))(ADJP (JJ (free))(S (VP (TO (to))(VP (VB (offend)))))))(, (,))(VP (VBZ (is))(ADJP (JJ (analytical))))(CC (and))(ADVP (RB (then)))(VP (VBZ (surrenders))(PP (IN (to))(NP (NP (DT (the))(NN (illogic)))(PP (IN (of))(NP (PRP$ (its))(NNS (characters)))))))(, (,))(VP (VBZ (is))(PP (IN (about))(NP (NN (grief)))))(CC (and))(ADVP (RB (yet)))(VP (VBZ (permits))(NP (NN (laughter)))))(. (.)))) |ET| 
0.0015519703761465676247754963412717  |BT| (ROOT (2 (2 (The))(2 (film)))(4 (4 (3 (3 (3 (2 (is))(3 (2 (a))(2 (hoot))))(2 (,)))(2 (and)))(3 (2 (2 (is))(2 (just)))(3 (3 (3 (3 (3 (2 (as))(3 (good)))(2 (,)))(2 (2 (if))(1 (not))))(4 (better)))(1 (2 (than))(1 (2 (much))(0 (2 (of))(1 (2 (what))(1 (2 (2 ('s))(2 (2 (on))(2 (2 (Saturday))(2 (2 (morning))(3 (TV))))))(1 (2 (2 (especially))(1 (2 (the))(2 (2 (pseudo-educational))(2 (stuff)))))(1 (2 (we))(1 (2 (all))(1 (2 (2 (ca))(2 (n't)))(2 (stand))))))))))))))(2 (.)))) |BT| (ROOT (S (NP (DT (The))(NN (film)))(VP (VP (VBZ (is))(NP (DT (a))(NN (hoot))))(, (,))(CC (and))(VP (VBZ (is))(ADVP (RB (just)))(ADJP (ADJP (RB (as))(JJ (good)))(, (,))(CONJP (IN (if))(RB (not)))(ADJP (JJR (better)))(PP (IN (than))(NP (NP (JJ (much)))(PP (IN (of))(SBAR (WHNP (WP (what)))(S (VP (VBZ ('s))(PP (IN (on))(NP (NNP (Saturday))(NN (morning))(NN (TV))))(ADVP (RB (especially)))(NP (NP (DT (the))(JJ (pseudo-educational))(NN (stuff)))(SBAR (S (NP (PRP (we)))(ADVP (DT (all)))(VP (MD (ca))(RB (n't))(VP (VB (stand))))))))))))))))(. (.)))) |ET| 
0.0033003615034174356955565254878593  |BT| (ROOT (2 (2 (The))(2 (film)))(3 (3 (3 (3 (3 (2 (does))(2 (2 (a))(3 (3 (solid))(2 (job)))))(2 (2 (of))(2 (slowly))))(2 (,)))(2 (2 (steadily))(3 (2 (2 (building))(2 (up)))(3 (2 (to))(1 (2 (2 (the))(3 (3 (climactic))(2 (burst))))(2 (2 (of))(0 (violence))))))))(2 (.)))) |BT| (ROOT (S (NP (DT (The))(NN (film)))(VP (VBZ (does))(NP (NP (DT (a))(JJ (solid))(NN (job)))(PP (IN (of))(ADVP (RB (slowly)))))(, (,))(S (ADVP (RB (steadily)))(VP (VBG (building))(PRT (RP (up)))(PP (IN (to))(NP (NP (DT (the))(JJ (climactic))(NN (burst)))(PP (IN (of))(NP (NN (violence)))))))))(. (.)))) |ET| 
-0.00017870647369623942593737375705842  |BT| (ROOT (2 (2 (2 (The))(2 (2 (film))(2 ('s))))(2 (stagecrafts)))(2 (1 (3 (2 (are))(4 (2 (2 (2 (intimate))(2 (and)))(2 (therefore)))(3 (bolder))))(2 (2 (than))(1 (2 (2 (the))(2 (3 (2 (otherwise))(2 (calculated)))(2 (artifice))))(2 (2 (that))(2 (2 (2 (2 (defines))(2 (and)))(2 (overwhelms)))(2 (2 (2 (the))(2 (2 (film))(2 ('s))))(2 (2 (production))(2 (design)))))))))(2 (.)))) |BT| (ROOT (S (NP (NP (DT (The))(NN (film))(POS ('s)))(NNS (stagecrafts)))(VP (VBP (are))(ADJP (ADJP (JJ (intimate)))(CC (and))(ADJP (ADVP (RB (therefore)))(JJR (bolder))))(PP (IN (than))(NP (NP (DT (the))(ADJP (RB (otherwise))(VBN (calculated)))(NN (artifice)))(SBAR (WHNP (WDT (that)))(S (VP (VBZ (defines))(CC (and))(VBZ (overwhelms))(NP (NP (DT (the))(NN (film))(POS ('s)))(NN (production))(NN (design)))))))))(. (.)))) |ET| 
-3.0711589209181212683195949519899e-05  |BT| (ROOT (2 (It))(3 (3 (3 (2 (2 ('s))(2 (...)))(3 (2 (worth))(3 (2 (the))(3 (2 (extra))(3 (2 (effort))(2 (2 (to))(3 (2 (4 (2 (2 (2 (see))(2 (2 (an))(2 (artist))))(2 (,)))(3 (2 (still))(3 (3 (committed))(2 (2 (to))(2 (3 (growth))(2 (2 (in))(3 (2 (his))(2 (2 (ninth))(2 (decade))))))))))(2 (,)))(2 (2 (change))(3 (2 (while))(2 (2 (remaining))(3 (3 (true))(2 (2 (to))(2 (2 (his))(2 (principles)))))))))))))))(2 (2 (with))(2 (2 (2 (a))(2 (film)))(2 (2 (whose))(2 (2 (2 (very))(2 (subject)))(2 (3 (2 (2 (2 (is))(2 (,)))(2 (2 (quite))(2 (pointedly))))(2 (,)))(2 (2 (about))(2 (2 (2 (the))(3 (peril)))(2 (2 (of))(2 (2 (such))(2 (efforts))))))))))))(2 (.)))) |BT| (ROOT (S (NP (PRP (It)))(VP (VBZ ('s))(, (...))(SBAR (PP (IN (worth))(NP (DT (the))(JJ (extra))(NN (effort))))(S (VP (TO (to))(VP (VB (see))(NP (DT (an))(NN (artist)))))))(, (,))(ADVP (RB (still)))(VP (VBN (committed))(PP (IN (to))(NP (NN (growth))))(PP (IN (in))(NP (NP (PRP$ (his))(JJ (ninth))(NN (decade)))(, (,))(NP (NN (change)))))(PP (IN (while))(S (VP (VBG (remaining))(ADJP (JJ (true)))(PP (IN (to))(NP (PRP$ (his))(NNS (principles)))))))(PP (IN (with))(NP (NP (DT (a))(NN (film)))(SBAR (WHNP (WHNP (WP$ (whose)))(ADJP (RB (very))(JJ (subject))))(S (VP (VBZ (is))(, (,))(ADVP (RB (quite))(ADVP (RB (pointedly))))(, (,))(PP (IN (about))(NP (NP (DT (the))(NN (peril)))(PP (IN (of))(NP (JJ (such))(NNS (efforts)))))))))))))(. (.)))) |ET| 
0.0033003615034174356955565254878593  |BT| (ROOT (4 (2 (may))(4 (2 (prove))(4 (2 (to))(2 (2 (be))(4 (2 (1 (-LRB-))(2 (2 (2 (Tsai))(2 ('s)))(3 (-RRB-))))(4 (masterpiece)))))))(2 (.))) |BT| (ROOT (S (VP (MD (may))(VP (VB (prove))(S (VP (TO (to))(VP (VB (be))(NP (NP (JJ (-LRB-))(NNP (Tsai))(POS ('s)))(JJ (-RRB-))(NN (masterpiece))))))))(. (.)))) |ET| 
0.0033003615034174356955565254878593  |BT| (ROOT (2 (You))(3 (3 (2 (have))(2 (2 (to))(3 (2 (see))(2 (it)))))(2 (.)))) |BT| (ROOT (S (NP (PRP (You)))(VP (VBP (have))(S (VP (TO (to))(VP (VB (see))(NP (PRP (it)))))))(. (.)))) |ET| 
0.0033003615034174356955565254878593  |BT| (ROOT (2 (2 (This))(2 (movie)))(3 (4 (2 (is))(3 (2 (to))(3 (2 (be))(3 (cherished)))))(2 (.)))) |BT| (ROOT (S (NP (DT (This))(NN (movie)))(VP (VBZ (is))(S (VP (TO (to))(VP (VB (be))(ADJP (VBN (cherished)))))))(. (.)))) |ET| 
-0.0033003615034174356955565254878593  |BT| (ROOT (2 (...))(4 (3 (4 (2 (quite))(3 (good)))(2 (2 (at))(3 (2 (providing))(2 (2 (some))(3 (3 (good))(2 (2 (old))(2 (2 (fashioned))(1 (spooks)))))))))(2 (.)))) |BT| (ROOT (S (NFP (...))(S (ADJP (RB (quite))(JJ (good))(PP (IN (at))(S (VP (VBG (providing))(NP (DT (some))(ADJP (JJ (good))(JJ (old)))))))))(ADJP (JJ (fashioned)))(NP (NNS (spooks)))(. (.)))) |ET| 
-0.00028304447018823495436576354045144  |BT| (ROOT (1 (2 (Just))(2 (offbeat)))(3 (3 (2 (enough))(2 (2 (to))(3 (2 (keep))(2 (2 (you))(2 (3 (interested))(2 (2 (without))(3 (2 (coming))(2 (2 (close))(3 (2 (to))(3 (2 (2 (bowling))(2 (you)))(2 (over))))))))))))(2 (.)))) |BT| (ROOT (ADVP (RB (Just))(FRAG (ADJP (NP (JJ (offbeat)))(JJ (enough)))(S (VP (TO (to))(VP (VB (keep))(S (NP (PRP (you)))(ADJP (JJ (interested)))))))(PP (IN (without))(S (VP (VBG (coming))(ADVP (RB (close))(PP (IN (to))(NP (NN (bowling)))))(NP (PRP (you))))))(ADVP (RB (over))))(. (.)))) |ET| 
-0.0033003615034174356955565254878593  |BT| (ROOT (2 (It))(3 (3 (2 ('s))(3 (4 (2 (a))(4 (3 (solid))(2 (movie))))(2 (2 (about))(2 (2 (people))(2 (2 (2 (whose))(2 (lives)))(2 (2 (2 (are))(2 (anything)))(2 (but))))))))(2 (.)))) |BT| (ROOT (S (NP (PRP (It)))(VP (VBZ ('s))(NP (NP (DT (a))(JJ (solid))(NN (movie)))(PP (IN (about))(NP (NP (NNS (people)))(SBAR (WHNP (WP$ (whose))(NNS (lives)))(S (VP (VBP (are))(NP (NN (anything))(RB (but))))))))))(. (.)))) |ET| 
0.00061984865317259857375731257889129  |BT| (ROOT (2 (Others))(2 (2 (,))(3 (2 (2 (2 (3 (2 (more))(2 (3 (attuned))(2 (2 (to))(1 (2 (2 (the))(1 (2 (anarchist))(2 (maxim))))(2 (2 (2 (2 (that))(2 (`)))(2 (2 (the))(2 (2 (urge))(2 (2 (to))(1 (1 (destroy))(3 (2 (2 (is))(2 (also)))(3 (2 (a))(3 (4 (creative))(2 (urge))))))))))(2 (')))))))(2 (,)))(2 (or)))(2 (2 (more))(2 (2 (willing))(2 (2 (to))(2 (2 (see))(2 (2 (with))(2 (2 (their))(2 (2 (own))(2 (eyes))))))))))(3 (2 (,))(3 (4 (2 (will))(4 (3 (2 (find))(2 (2 (2 (2 (Morrison))(2 ('s)))(3 (2 (iconoclastic))(2 (uses))))(2 (2 (of))(2 (technology)))))(3 (2 (to))(3 (2 (be))(3 (liberating))))))(2 (.))))))) |BT| (ROOT (S (NP (NNS (Others)))(, (,))(S (ADJP (ADJP (JJR (more))(JJ (attuned))(PP (IN (to))(NP (NP (DT (the))(NN (anarchist))(NN (maxim)))(SBAR (WHNP (WDT (that)))(S (`` (`))(NP (DT (the))(NN (urge))(S (VP (TO (to))(VP (VB (destroy))))))(VP (VBZ (is))(ADVP (RB (also)))(NP (DT (a))(JJ (creative))(NN (urge))))('' (')))))))(, (,))(CC (or))(ADJP (RBR (more))(JJ (willing))(S (VP (TO (to))(VP (VB (see))(PP (IN (with))(NP (PRP$ (their))(JJ (own))(NNS (eyes))))))))))(, (,))(VP (MD (will))(VP (VB (find))(NP (NP (NP (NNP (Morrison))(POS ('s)))(JJ (iconoclastic))(NNS (uses)))(PP (IN (of))(NP (NN (technology)))))(S (VP (TO (to))(VP (VB (be))(VP (VBG (liberating))))))))(. (.)))) |ET| 
0.0033003615034174356955565254878593  |BT| (ROOT (3 (3 (2 (3 (2 (It))(3 (2 ('s))(3 (2 (a))(3 (3 (4 (3 (compelling))(2 (and)))(1 (horrifying)))(2 (story))))))(2 (,)))(2 (and)))(3 (2 (2 (The))(2 (2 (Laramie))(2 (Project))))(3 (2 (is))(3 (3 (worthwhile))(2 (2 (for))(2 (2 (2 (reminding))(3 (us)))(2 (2 (that))(2 (2 (2 (2 (this))(2 (sort)))(2 (2 (of))(2 (thing))))(2 (2 (2 (2 (2 (does))(2 (,)))(2 (2 (in))(2 (fact))))(2 (,)))(2 (2 (still))(2 (2 (happen))(2 (2 (in))(2 (America))))))))))))))(2 (.))) |BT| (ROOT (S (S (NP (PRP (It)))(VP (VBZ ('s))(NP (DT (a))(ADJP (JJ (compelling))(CC (and))(JJ (horrifying)))(NN (story)))))(, (,))(CC (and))(S (NP (DT (The))(NNP (Laramie))(NNP (Project)))(VP (VBZ (is))(ADJP (JJ (worthwhile))(PP (IN (for))(S (VP (VBG (reminding))(NP (PRP (us)))(SBAR (IN (that))(S (NP (NP (DT (this))(NN (sort)))(PP (IN (of))(NP (NN (thing)))))(VP (VBZ (does))(, (,))(PP (IN (in))(NP (NN (fact))))(, (,))(S (ADVP (RB (still)))(VP (VB (happen))(PP (IN (in))(NP (NNP (America)))))))))))))))(. (.)))) |ET| 
-0.00022574419060572347784168756312795  |BT| (ROOT (2 (3 (4 (4 (2 (Quaid))(2 (3 (2 (is))(2 (2 (utterly))(2 (3 (fearless))(2 (2 (as))(1 (2 (the))(1 (0 (tortured))(2 (husband))))))))(2 (2 (living))(1 (2 (a))(1 (1 (painful))(1 (lie)))))))(2 (,)))(2 (and)))(3 (3 (2 (Moore))(3 (wonderfully)))(2 (2 (2 (underplays))(2 (2 (the))(2 (1 (long-suffering))(3 (heroine)))))(3 (2 (with))(2 (2 (2 (an))(2 (3 (unflappable))(2 (2 ('50s))(2 (dignity)))))(2 (2 (somewhere))(2 (2 (between))(2 (3 (2 (2 (Jane))(2 (Wyman)))(2 (and)))(2 (2 (June))(3 (Cleaver)))))))))))(2 (.))) |BT| (ROOT (S (S (NP (NNP (Quaid)))(VP (VBZ (is))(ADJP (RB (utterly))(JJ (fearless))(PP (IN (as))(NP (NP (DT (the))(VBN (tortured))(NN (husband)))(VP (VBG (living))(NP (DT (a))(JJ (painful))(NN (lie)))))))))(, (,))(CC (and))(S (NP (NNP (Moore)))(ADVP (RB (wonderfully)))(VP (VBZ (underplays))(NP (DT (the))(JJ (long))(HYPH (-))(NN (suffering))(NN (heroine)))(PP (IN (with))(NP (NP (DT (an))(JJ (unflappable))(NNS ('50s))(NN (dignity)))(PP (RB (somewhere))(IN (between))(NP (NP (NNP (Jane))(NNP (Wyman)))(CC (and))(NP (NNP (June))(NNP (Cleaver)))))))))(. (.)))) |ET| 
0.0022783422812445754124244245986119  |BT| (ROOT (3 (3 (Visually))(4 (breathtaking)))(4 (2 (,))(4 (4 (4 (2 (viscerally))(4 (exciting)))(4 (3 (2 (,))(2 (and)))(4 (2 (dramatically))(3 (moving)))))(3 (2 (,))(4 (2 (it))(3 (3 (2 ('s))(4 (2 (2 (the))(2 (2 (very))(2 (definition))))(3 (2 (of))(4 (3 (epic))(3 (adventure))))))(2 (.)))))))) |BT| (ROOT (S (S (ADJP (ADJP (RB (Visually))(JJ (breathtaking)))(, (,))(ADJP (RB (viscerally))(JJ (exciting)))(, (,))(CC (and))(ADJP (RB (dramatically))(VBG (moving)))))(, (,))(NP (PRP (it)))(VP (VBZ ('s))(NP (NP (DT (the))(RB (very))(NN (definition)))(PP (IN (of))(NP (JJ (epic))(NN (adventure))))))(. (.)))) |ET| 
-0.0033003615034174356955565254878593  |BT| (ROOT (4 (2 (An))(3 (3 (3 (4 (elegant))(2 (and)))(2 (sly)))(2 (deadpan))))(2 (3 (comedy))(2 (.)))) |BT| (ROOT (NP (DT (An))(ADJP (JJ (elegant))(CC (and))(JJ (sly)))(JJ (deadpan))(NN (comedy))(. (.)))) |ET| 
0.0033003615034174356955565254878593  |BT| (ROOT (2 (Highly))(3 (3 (3 (watchable))(2 (stuff)))(2 (.)))) |BT| (ROOT (NP (ADJP (RB (Highly))(JJ (watchable)))(NN (stuff))(. (.)))) |ET| 
0.0033003615034174356955565254878593  |BT| (ROOT (3 (3 (3 (2 (Darkly))(3 (funny)))(2 (and)))(2 (2 (frequently))(3 (insightful))))(2 (.))) |BT| (ROOT (FRAG (ADJP (ADJP (RB (Darkly))(JJ (funny)))(CC (and))(ADJP (RB (frequently))(JJ (insightful))))(. (.)))) |ET| 
0.0033003615034174356955565254878593  |BT| (ROOT (3 (2 (A))(3 (3 (3 (surprisingly))(3 (funny)))(2 (movie))))(2 (.))) |BT| (ROOT (NP (DT (A))(ADJP (RB (surprisingly))(JJ (funny)))(NN (movie))(. (.)))) |ET| 
-0.00064314025446217425781986198884965  |BT| (ROOT (3 (3 (2 (2 (2 (A))(2 (tone)))(2 (2 (of))(2 (2 (rueful))(2 (compassion)))))(2 (...)))(3 (2 (reverberates))(2 (2 (throughout))(3 (2 (2 (2 (this))(2 (film)))(2 (,)))(2 (2 (3 (2 (2 (whose))(2 (meaning)))(2 (and)))(2 (impact)))(3 (1 (2 (is))(1 (sadly)))(2 (2 (heightened))(2 (2 (by))(2 (2 (current))(2 (2 (world))(2 (events))))))))))))(2 (.))) |BT| (ROOT (S (NP (NP (DT (A))(NN (tone)))(PP (IN (of))(NP (JJ (rueful))(NN (compassion)))))(, (...))(VP (VBZ (reverberates))(PP (IN (throughout))(NP (NP (DT (this))(NN (film)))(, (,))(SBAR (WHNP (WP$ (whose))(NP (NP (NN (meaning)))(CC (and))(NP (NN (impact)))))(S (VP (VBZ (is))(ADVP (RB (sadly)))(VP (VBN (heightened))(PP (IN (by))(NP (JJ (current))(NN (world))(NNS (events)))))))))))(. (.)))) |ET| 
-0.0032049724150545813583512710920331  |BT| (ROOT (3 (3 (3 (3 (2 (Buy))(3 (2 (is))(3 (2 (an))(4 (3 (accomplished))(2 (actress))))))(2 (,)))(2 (and)))(3 (2 (this))(3 (2 (is))(3 (2 (a))(3 (2 (big))(2 (2 (,))(3 (3 (juicy))(2 (role)))))))))(2 (.))) |BT| (ROOT (S (S (S (VP (VB (Buy))))(VP (VBZ (is))(NP (DT (an))(JJ (accomplished))(NN (actress)))))(, (,))(CC (and))(S (NP (DT (this)))(VP (VBZ (is))(NP (DT (a))(JJ (big))(, (,))(JJ (juicy))(NN (role)))))(. (.)))) |ET| 
-0.0033003615034174356955565254878593  |BT| (ROOT (3 (2 (This))(3 (3 (2 (4 (charming))(2 (but)))(2 (slight)))(2 (tale))))(4 (4 (2 (has))(3 (3 (4 (warmth))(3 (2 (,))(3 (2 (wit))(3 (2 (and))(3 (3 (interesting))(2 (characters)))))))(3 (3 (compassionately))(2 (portrayed)))))(2 (.)))) |BT| (ROOT (S (S (NP (DT (This))(ADJP (JJ (charming))(CC (but))(JJ (slight)))(NN (tale)))(VP (VBZ (has))(NP (NN (warmth)))))(, (,))(NP (NP (NN (wit)))(CC (and))(NP (JJ (interesting))(NNS (characters))))(ADVP (RB (compassionately)))(VP (VBD (portrayed)))(. (.)))) |ET| 
-0.00074549518351489923052161090666345  |BT| (ROOT (2 (You))(3 (4 (2 (may))(4 (3 (4 (3 (4 (3 (4 (2 (be))(4 (captivated)))(2 (,)))(3 (2 (as))(2 (2 (I))(3 (3 (2 (2 (was))(2 (,)))(2 (2 (2 (by))(2 (2 (its))(2 (moods))))(2 (3 (2 (,))(2 (and)))(2 (2 (by))(2 (2 (its))(2 (subtly)))))))(3 (2 (transformed))(2 (star)))))))(2 (,)))(2 (and)))(2 (still)))(3 (3 (wonder))(4 (2 (why))(3 (2 (2 (Paul))(2 (2 (Thomas))(2 (Anderson))))(3 (2 (ever))(3 (2 (had))(3 (2 (the))(3 (2 (inclination))(4 (2 (to))(4 (2 (make))(2 (4 (2 (the))(4 (3 (2 (most))(3 (2 (3 (sincere))(2 (and)))(3 (artful))))(2 (movie))))(2 (2 (2 (in))(2 (which)))(2 (3 (2 (Adam))(3 (Sandler)))(2 (2 (will))(2 (2 (probably))(2 (2 (ever))(2 (appear)))))))))))))))))))(2 (.)))) |BT| (ROOT (S (NP (PRP (You)))(VP (VP (MD (may))(VP (VB (be))(VP (VBN (captivated))(, (,))(SBAR (IN (as))(S (NP (PRP (I)))(VP (VBD (was)))))(, (,))(PP (PP (IN (by))(NP (PRP$ (its))(NNS (moods))))(, (,))(CC (and))(PP (IN (by))(NP (PRP$ (its))(ADJP (RB (subtly))(VBN (transformed)))(NN (star))))))))(, (,))(CC (and))(ADVP (RB (still)))(VP (VBP (wonder))(SBAR (WHADVP (WRB (why)))(S (NP (NNP (Paul))(NNP (Thomas))(NNP (Anderson)))(ADVP (RB (ever)))(VP (VBD (had))(NP (DT (the))(NN (inclination))(S (VP (TO (to))(VP (VB (make))(NP (NP (DT (the))(ADJP (RBS (most))(JJ (sincere))(CC (and))(JJ (artful)))(NN (movie)))(SBAR (WHPP (IN (in))(WHNP (WDT (which))))(S (NP (NNP (Adam))(NNP (Sandler)))(VP (MD (will))(ADVP (RB (probably)))(ADVP (RB (ever)))(VP (VB (appear))))))))))))))))(. (.)))) |ET| 
-0.00073872964295552652827514528155461  |BT| (ROOT (2 (2 (As))(2 (2 (2 (2 (broad))(2 (and)))(2 (2 (cartoonish))(2 (2 (as))(2 (2 (the))(2 (screenplay))))))(2 (is))))(3 (2 (,))(3 (2 (there))(3 (3 (2 (is))(3 (3 (2 (an))(3 (accuracy)))(3 (2 (of))(3 (2 (observation))(3 (2 (in))(3 (2 (2 (the))(2 (work)))(3 (2 (of))(3 (2 (2 (2 (2 (2 (the))(2 (director)))(2 (,)))(2 (2 (Frank))(2 (Novak))))(2 (,)))(3 (2 (that))(3 (2 (keeps))(3 (2 (2 (the))(2 (film)))(3 (3 (grounded))(2 (2 (in))(2 (2 (an))(3 (2 (undeniable))(2 (2 (social))(2 (realism))))))))))))))))))(2 (.)))))) |BT| (ROOT (S (SBAR (IN (As))(S (NP (NP (ADJP (JJ (broad))(CC (and))(JJ (cartoonish))))(PP (IN (as))(NP (DT (the))(NN (screenplay)))))(VP (VBZ (is))(, (,))(SBAR (S (NP (EX (there)))(VP (VBZ (is))(NP (NP (DT (an))(NN (accuracy)))(PP (IN (of))(NP (NP (NN (observation)))(PP (IN (in))(NP (NP (DT (the))(NN (work)))(PP (IN (of))(NP (NP (DT (the))(NN (director)))(, (,))(NP (NNP (Frank))(NNP (Novak))))))))))))))))(, (,))(NP (DT (that)))(VP (VBZ (keeps))(NP (NP (DT (the))(NN (film)))(VP (VBN (grounded))(PP (IN (in))(NP (DT (an))(JJ (undeniable))(JJ (social))(NN (realism)))))))(. (.)))) |ET| 
-0.00029471419481788237778457917315222  |BT| (ROOT (3 (3 (3 (2 (There))(2 (2 (are))(2 (1 (1 (1 (flaws))(2 (,)))(2 (2 (but))(2 (also))))(4 (3 (2 (stretches))(3 (2 (of))(2 (2 (2 (impact))(2 (and)))(2 (moments)))))(3 (2 (of))(2 (awe)))))))(2 (;)))(3 (2 (we))(3 (2 ('re))(3 (2 (3 (2 (2 (wrapped))(2 (up)))(2 (2 (in))(2 (2 (the))(2 (characters)))))(2 (,)))(2 (3 (2 (2 (2 (how))(2 (2 (they))(2 (2 (make))(2 (2 (their))(2 (choices))))))(2 (,)))(2 (and)))(2 (why)))))))(2 (.))) |BT| (ROOT (S (S (NP (EX (There)))(VP (VBP (are))(NP (NP (NNS (flaws)))(, (,))(CONJP (CC (but))(RB (also)))(NP (NP (NNS (stretches)))(PP (IN (of))(NP (NN (impact))(CC (and))(NNS (moments))))(PP (IN (of))(NP (NN (awe))))))))(: (;))(S (NP (PRP (we)))(VP (VBP ('re))(VP (VBN (wrapped))(PRT (RP (up)))(PP (IN (in))(NP (DT (the))(NNS (characters))))(, (,))(SBAR (SBAR (WHADVP (WRB (how)))(S (NP (PRP (they)))(VP (VBP (make))(NP (PRP$ (their))(NNS (choices))))))(, (,))(CC (and))(FRAG (WHADVP (WRB (why))))))))(. (.)))) |ET| 
0.0030677461482449810623029939904427  |BT| (ROOT (3 (1 (1 (Leave))(2 (it)))(4 (2 (to))(3 (2 (the))(4 (2 (2 (French))(3 (2 (to))(4 (3 (truly))(4 (2 (2 (capture))(2 (2 (2 (the))(1 (2 (terrifying))(2 (angst))))(2 (2 (of))(2 (2 (the))(2 (2 (modern))(2 (2 (working))(2 (man))))))))(2 (2 (without))(2 (2 (2 (turning))(2 (2 (the))(2 (film))))(0 (2 (into))(2 (1 (1 (2 (1 (2 (a))(2 (0 (cheap))(3 (thriller))))(2 (,)))(0 (2 (a))(1 (1 (dumb))(3 (comedy)))))(2 (or)))(2 (2 (a))(1 (sappy)))))))))))(2 (melodrama))))))(2 (.))) |BT| (ROOT (S (VP (VB (Leave))(NP (PRP (it)))(PP (IN (to))(NP (DT (the))(JJ (French))))(S (VP (TO (to))(ADVP (RB (truly)))(VP (VB (capture))(NP (NP (DT (the))(JJ (terrifying))(NN (angst)))(PP (IN (of))(NP (DT (the))(JJ (modern))(VBG (working))(NN (man)))))(PP (IN (without))(S (VP (VBG (turning))(NP (DT (the))(NN (film)))(PP (IN (into))(NP (NP (DT (a))(JJ (cheap))(NN (thriller)))(, (,))(NP (DT (a))(JJ (dumb))(NN (comedy)))(CC (or))(NP (DT (a))(JJ (sappy))(NN (melodrama))))))))))))(. (.)))) |ET| 
0.0033003615034174356955565254878593  |BT| (ROOT (2 (But))(3 (2 (2 (what))(3 (2 ('s))(3 (nice))))(3 (3 (2 (is))(3 (2 (that))(3 (2 (there))(2 (2 ('s))(3 (3 (2 (a))(2 (2 (casual))(3 (intelligence))))(2 (2 (that))(2 (2 (permeates))(2 (2 (the))(2 (script))))))))))(2 (.))))) |BT| (ROOT (S (CC (But))(SBAR (WHNP (WP (what)))(S (VP (VBZ ('s))(ADJP (JJ (nice))))))(VP (VBZ (is))(SBAR (IN (that))(S (NP (EX (there)))(VP (VBZ ('s))(NP (NP (DT (a))(JJ (casual))(NN (intelligence)))(SBAR (WHNP (WDT (that)))(S (VP (VBZ (permeates))(NP (DT (the))(NN (script)))))))))))(. (.)))) |ET| 
0.0033003615034174356955565254878593  |BT| (ROOT (2 (2 (The))(2 (Son)))(4 (2 (2 (Of))(2 (2 (2 (The))(2 (2 (Bride))(2 ('s))))(3 (humour))))(3 (3 (2 (is))(3 (2 (2 (born))(1 (out)))(3 (2 (of))(4 (4 (3 (2 (an))(4 (4 (engaging))(2 (storyline))))(2 (,)))(3 (2 (which))(3 (2 (also))(3 (1 (2 (is))(2 (n't)))(2 (1 (embarrassed))(2 (2 (to))(3 (2 (make))(2 (2 (you))(2 (2 (reach))(2 (2 (for))(2 (2 (the))(2 (tissues))))))))))))))))(2 (.))))) |BT| (ROOT (S (NP (NP (DT (The))(NNP (Son)))(PP (IN (Of))(NP (NP (DT (The))(NNP (Bride))(POS ('s)))(NN (humour)))))(VP (VBZ (is))(VP (VBN (born))(PP (IN (out))(IN (of))(NP (NP (DT (an))(JJ (engaging))(NN (storyline)))(, (,))(SBAR (WHNP (WDT (which)))(S (ADVP (RB (also)))(VP (VBZ (is))(RB (n't))(ADJP (JJ (embarrassed))(S (VP (TO (to))(VP (VB (make))(S (NP (PRP (you)))(VP (VB (reach))(PP (IN (for))(NP (DT (the))(NNS (tissues)))))))))))))))))(. (.)))) |ET| 
-0.0001586603990761031120117902082356  |BT| (ROOT (2 (2 (If))(3 (2 (you))(2 (2 ('re))(2 (2 (in))(3 (2 (2 (the))(2 (3 (right))(2 (1 (B-movie))(2 (frame)))))(2 (2 (of))(2 (mind))))))))(3 (2 (,))(2 (2 (it))(3 (2 (2 (2 (may))(2 (just)))(3 (3 (1 (scare))(2 (2 (the))(2 (pants))))(2 (1 (off))(2 (you)))))(2 (.)))))) |BT| (ROOT (S (SBAR (IN (If))(S (NP (PRP (you)))(VP (VBP ('re))(PP (IN (in))(NP (NP (DT (the))(JJ (right))(NML (NN (B))(HYPH (-))(NN (movie)))(NN (frame)))(PP (IN (of))(NP (NN (mind)))))))))(, (,))(NP (PRP (it)))(VP (MD (may))(ADVP (RB (just)))(VP (VB (scare))(NP (DT (the))(NNS (pants)))(PP (IN (off))(NP (PRP (you))))))(. (.)))) |ET| 
-0.00046587858632763886647387696626765  |BT| (ROOT (2 (2 (2 (A))(2 (movie)))(2 (2 (that))(2 (feels))))(2 (2 (2 (like))(2 (2 (2 (the))(3 (2 (pilot))(2 (episode))))(3 (2 (of))(2 (2 (a))(2 (3 (new))(3 (2 (teen-targeted))(2 (2 (action))(2 (3 (TV))(2 (series))))))))))(2 (.)))) |BT| (ROOT (NP (NP (DT (A))(NN (movie)))(SBAR (WHNP (WDT (that)))(S (VP (VBZ (feels))(PP (IN (like))(NP (NP (DT (the))(NN (pilot))(NN (episode)))(PP (IN (of))(NP (DT (a))(JJ (new))(ADJP (NN (teen))(HYPH (-))(VBN (targeted)))(NML (NN (action))(NN (TV)))(NN (series)))))))))(. (.)))) |ET| 
-0.0024083625813102432604295710660836  |BT| (ROOT (2 (This))(0 (0 (2 (is))(1 (2 (one))(0 (2 (of))(1 (1 (2 (the))(0 (3 (biggest))(0 (disappointments))))(2 (2 (of))(2 (2 (the))(2 (year))))))))(2 (.)))) |BT| (ROOT (S (NP (DT (This)))(VP (VBZ (is))(NP (NP (CD (one)))(PP (IN (of))(NP (NP (DT (the))(JJS (biggest))(NNS (disappointments)))(PP (IN (of))(NP (DT (the))(NN (year))))))))(. (.)))) |ET| 
0.0022988835001025264941076908797868  |BT| (ROOT (2 (2 (2 (See))(2 (Scratch)))(2 (2 (for))(2 (2 (the))(2 (history)))))(4 (2 (,))(4 (2 (2 (see))(2 (2 (Scratch))(2 (2 (for))(2 (2 (the))(2 (music))))))(2 (2 (,))(3 (2 (2 (2 (2 (2 (2 (2 (2 (see))(1 (2 (Scratch))(2 (2 (for))(2 (2 (2 (a))(2 (lesson)))(2 (2 (in))(2 (scratching)))))))(2 (,)))(2 (but)))(2 (,)))(2 (2 (most))(2 (2 (of))(2 (all)))))(2 (,)))(3 (3 (2 (see))(2 (it)))(2 (2 (for))(2 (2 (the))(2 (passion))))))(2 (.))))))) |BT| (ROOT (S (INTJ (UH (See)))(VP (VP (VB (Scratch))(SBAR (IN (for))(S (NP (NP (DT (the))(NN (history)))(, (,))(SBAR (S (VP (VBP (see))(VP (VB (Scratch))(PP (IN (for))(NP (DT (the))(NN (music))))))))(, (,)))(VP (VBP (see))(VP (VB (Scratch))(PP (IN (for))(NP (NP (DT (a))(NN (lesson)))(PP (IN (in))(NP (NN (scratching))))))(, (,))(NP (CC (but))(, (,))(NP (JJS (most)))(PP (IN (of))(NP (DT (all))))))))))(, (,))(VP (VB (see))(NP (PRP (it)))(PP (IN (for))(NP (DT (the))(NN (passion))))))(. (.)))) |ET| 
0.0029543684601107335525871366854744  |BT| (ROOT (4 (2 (3 (3 (2 (2 (Every))(2 (individual)))(2 (2 (will))(3 (3 (2 (see))(2 (2 (the))(2 (movie))))(2 (2 (through))(2 (2 (2 (the))(2 (prism)))(2 (2 (of))(2 (2 (2 (2 (2 (2 (his))(2 (or)))(2 (her)))(2 (2 (own))(2 (beliefs))))(2 (and)))(1 (prejudices)))))))))(2 (,)))(2 (but)))(3 (2 (2 (2 (the))(2 (2 (one))(2 (thing))))(2 (2 (most))(2 (2 (will))(2 (2 (take))(2 (away))))))(3 (2 (2 (is))(2 (2 (the))(2 (sense))))(3 (2 (that))(3 (2 (peace))(2 (2 (is))(2 (possible))))))))(2 (.))) |BT| (ROOT (S (S (NP (DT (Every))(NN (individual)))(VP (MD (will))(VP (VB (see))(NP (DT (the))(NN (movie)))(PP (IN (through))(NP (NP (DT (the))(NN (prism)))(PP (IN (of))(NP (ADJP (PRP$ (his))(CC (or))(PRP$ (her)))(JJ (own))(NNS (beliefs))(CC (and))(NNS (prejudices)))))))))(, (,))(CC (but))(S (NP (DT (the))(CD (one))(NN (thing)))(ADVP (RBS (most)))(VP (MD (will))(VP (VB (take))(ADVP (RB (away))(S (VP (VBZ (is))(NP (DT (the))(NN (sense)))(SBAR (IN (that))(S (NP (NN (peace)))(VP (VBZ (is))(ADJP (JJ (possible))))))))))))(. (.)))) |ET| 
0.0007517420911749929162901096013627  |BT| (ROOT (2 (...))(4 (4 (4 (3 (1 (2 (2 (2 (by))(2 (2 (the))(2 (time))))(2 (2 (it))(2 (2 ('s))(2 (2 (done))(3 (2 (with))(3 (us)))))))(2 (,)))(3 (2 (2 (2 (Mira))(2 (2 (Nair))(2 ('s))))(2 (3 (new))(2 (movie))))(3 (2 (has))(3 (3 (2 (its))(2 (2 (audience))(2 (giddy))))(3 (2 (with))(3 (2 (2 (the))(4 (delight)))(3 (2 (of))(2 (discovery)))))))))(2 (,)))(2 (2 (of))(2 (2 (having))(3 (2 (been))(2 (3 (3 (immersed))(2 (2 (in))(2 (2 (a))(1 (2 (foreign))(2 (2 (culture))(2 (only)))))))(2 (2 (to))(2 (2 (find))(2 (2 (that))(2 (3 (2 (human))(2 (nature)))(1 (2 (2 (is))(2 (4 (pretty))(2 (much))))(2 (2 (2 (the))(2 (same)))(2 (2 (all))(2 (over))))))))))))))(2 (.)))) |BT| (ROOT (S (NFP (...))(S (PP (IN (by))(NP (DT (the))(NN (time))))(NP (PRP (it)))(VP (VBZ ('s))(VP (VBN (done))(PP (IN (with))(NP (PRP (us)))))))(, (,))(S (NP (NP (NNP (Mira))(NNP (Nair))(POS ('s)))(JJ (new))(NN (movie)))(VP (VBZ (has))(S (NP (PRP$ (its))(NN (audience)))(ADJP (JJ (giddy))(PP (IN (with))(NP (NP (DT (the))(NN (delight)))(PP (IN (of))(NP (NN (discovery))))(, (,))(PP (IN (of))(S (VP (VBG (having))(VP (VBN (been))(VP (VBN (immersed))(PP (IN (in))(NP (DT (a))(JJ (foreign))(NN (culture))(RB (only))))(S (VP (TO (to))(VP (VB (find))(SBAR (IN (that))(S (NP (JJ (human))(NN (nature)))(VP (VBZ (is))(ADVP (RB (pretty))(RB (much)))(NP (DT (the))(JJ (same))))))))))))))))))(ADVP (RB (all))(RB (over)))))(. (.)))) |ET| 
-0.0033003615034174356955565254878593  |BT| (ROOT (2 (...))(3 (2 (quite))(4 (3 (endearing))(2 (.))))) |BT| (ROOT (FRAG (NFP (...))(NP (NP (PDT (quite)))(ADJP (JJ (endearing))))(. (.)))) |ET| 
-0.0026449101187318298060435761698272  |BT| (ROOT (3 (Deliciously))(1 (1 (1 (1 (mean-spirited))(2 (and)))(3 (wryly)))(3 (2 (observant))(2 (.))))) |BT| (ROOT (FRAG (ADVP (RB (Deliciously)))(ADJP (ADJP (JJ (mean))(HYPH (-))(JJ (spirited)))(CC (and))(ADJP (ADVP (RB (wryly)))(JJ (observant))))(. (.)))) |ET| 
0.0033003615034174356955565254878593  |BT| (ROOT (2 (It))(3 (3 (2 ('s))(3 (2 (that))(3 (good))))(2 (.)))) |BT| (ROOT (S (NP (PRP (It)))(VP (VBZ ('s))(SBAR (IN (that))(FRAG (ADJP (JJ (good))))))(. (.)))) |ET| 
0.0033003615034174356955565254878593  |BT| (ROOT (2 (Hartley))(3 (3 (3 (2 (adds))(3 (2 (enough))(3 (2 (quirky))(3 (2 (and))(3 (2 (satirical))(2 (touches)))))))(3 (2 (in))(3 (2 (the))(3 (2 (screenplay))(3 (2 (to))(3 (2 (keep))(2 (2 (2 (the))(2 (film)))(4 (entertaining)))))))))(2 (.)))) |BT| (ROOT (S (NP (NNP (Hartley)))(VP (VBZ (adds))(NP (NP (JJ (enough))(JJ (quirky))(CC (and))(JJ (satirical))(NNS (touches)))(PP (IN (in))(NP (DT (the))(NN (screenplay))(S (VP (TO (to))(VP (VB (keep))(S (NP (DT (the))(NN (film)))(ADJP (JJ (entertaining)))))))))))(. (.)))) |ET| 
0.0033003615034174356955565254878593  |BT| (ROOT (2 (This))(4 (4 (2 (is))(4 (3 (3 (2 (a))(4 (3 (finely))(3 (written))))(2 (,)))(4 (3 (superbly))(3 (2 (acted))(3 (2 (offbeat))(3 (thriller)))))))(2 (.)))) |BT| (ROOT (S (NP (DT (This)))(VP (VP (VBZ (is))(NP (DT (a))(ADJP (RB (finely))(VBN (written)))))(, (,))(ADVP (RB (superbly)))(VP (VBD (acted))(NP (JJ (offbeat))(NN (thriller)))))(. (.)))) |ET| 
-0.0033003615034174356955565254878593  |BT| (ROOT (4 (2 (Something))(3 (2 (for))(2 (everyone))))(2 (.))) |BT| (ROOT (NP (NP (NN (Something)))(PP (IN (for))(NP (NN (everyone))))(. (.)))) |ET| 
-0.00066962236157151863637920774507961  |BT| (ROOT (3 (1 (Audacious-impossible))(3 (2 (yet))(3 (compelling))))(2 (...))) |BT| (ROOT (FRAG (ADJP (ADJP (JJ (Audacious))(HYPH (-))(JJ (impossible)))(CC (yet))(ADJP (JJ (compelling))))(. (...)))) |ET| 
-0.0020612999854720094952686970657396  |BT| (ROOT (2 (A))(1 (0 (less-than-thrilling))(2 (3 (thriller))(2 (.))))) |BT| (ROOT (NP (DT (A))(ADJP (ADJP (RBR (less)))(HYPH (-))(PP (IN (than))(HYPH (-))(NP (NN (thrilling)))))(NN (thriller))(. (.)))) |ET| 
0.00014722799931849244966554357549882  |BT| (ROOT (2 (2 (The))(2 (film)))(4 (4 (2 (is))(4 (4 (4 (3 (4 (3 (enriched))(3 (2 (by))(3 (3 (2 (an))(4 (3 (3 (imaginatively))(2 (mixed)))(2 (cast))))(2 (2 (of))(1 (2 (antic))(2 (spirits)))))))(2 (,)))(4 (2 (2 (headed))(2 (2 (by))(2 (2 (Christopher))(2 (Plummer)))))(2 (2 (as))(4 (3 (2 (the))(1 (2 (2 (2 (subtlest))(2 (and)))(2 (2 (most))(2 (2 (complexly))(1 (evil)))))(3 (2 (Uncle))(2 (Ralph)))))(2 (2 (I))(2 (2 (2 ('ve))(2 (ever)))(2 (2 (seen))(2 (2 (in))(2 (2 (the))(2 (2 (many))(2 (film))))))))))))(2 (and)))(2 (2 (stage))(2 (2 (adaptations))(2 (2 (of))(2 (2 (the))(2 (work))))))))(2 (.)))) |BT| (ROOT (S (S (NP (DT (The))(NN (film)))(VP (VBZ (is))(VP (VBN (enriched))(PP (IN (by))(NP (NP (NP (DT (an))(ADJP (RB (imaginatively))(JJ (mixed)))(NN (cast)))(PP (IN (of))(NP (JJ (antic))(NNS (spirits)))))(, (,))(VP (VBN (headed))(PP (IN (by))(NP (NP (NNP (Christopher))(NNP (Plummer)))(PP (IN (as))(NP (NP (DT (the))(JJS (subtlest)))(CC (and))(NP (ADJP (RBS (most))(RB (complexly))(JJ (evil)))(NNP (Uncle))(NNP (Ralph)))))))))))))(NP (PRP (I)))(VP (VBP ('ve))(ADVP (RB (ever)))(VP (VBN (seen))(PP (IN (in))(NP (NP (DT (the))(JJ (many))(NN (film)))(CC (and))(NP (NP (NN (stage))(NNS (adaptations)))(PP (IN (of))(NP (DT (the))(NN (work)))))))))(. (.)))) |ET| 
0.0011110958860932062825660482374701  |BT| (ROOT (3 (3 (2 (A))(3 (3 (stirring))(3 (tribute))))(3 (2 (to))(2 (2 (3 (2 (the))(3 (2 (3 (bravery))(2 (and)))(3 (dedication))))(2 (2 (of))(2 (2 (2 (the))(2 (2 (world))(2 ('s))))(2 (reporters)))))(3 (2 (who))(2 (2 (willingly))(2 (2 (2 (walk))(2 (2 (into))(1 (1 (2 (the))(0 (nightmare)))(1 (2 (of))(1 (war))))))(3 (1 (not))(2 (3 (2 (2 (2 (only))(2 (2 (to))(2 (2 (2 (record))(2 (2 (the))(2 (events))))(2 (2 (for))(2 (posterity))))))(2 (,)))(2 (but)))(2 (2 (to))(2 (2 (help))(3 (us))))))))))))(3 (2 (clearly))(2 (2 (2 (see))(2 (2 (2 (the))(2 (world)))(3 (2 (of))(2 (2 (our))(2 (making))))))(2 (.))))) |BT| (ROOT (S (NP (NP (DT (A))(NN (stirring))(NN (tribute)))(PP (IN (to))(NP (NP (NP (DT (the))(NN (bravery))(CC (and))(NN (dedication)))(PP (IN (of))(NP (NP (DT (the))(NN (world))(POS ('s)))(NNS (reporters)))))(SBAR (WHNP (WP (who)))(S (ADVP (RB (willingly)))(VP (VBP (walk))(PP (IN (into))(NP (NP (DT (the))(NN (nightmare)))(PP (IN (of))(NP (NN (war))))))(S (VP (CONJP (RB (not))(RB (only)))(VP (TO (to))(VP (VB (record))(NP (DT (the))(NNS (events)))(PP (IN (for))(NP (NN (posterity))))))(, (,))(CC (but))(VP (TO (to))(VP (VB (help))(NP (PRP (us)))(ADVP (RB (clearly)))))))))))))(VP (VBP (see))(NP (NP (DT (the))(NN (world)))(PP (IN (of))(NP (PRP$ (our))(NN (making))))))(. (.)))) |ET| 
0.0016762479187333132347320630017862  |BT| (ROOT (2 (2 (Nicole))(2 (Holofcener)))(3 (4 (4 (4 (2 ('s))(3 (3 (3 (Lovely))(2 (and)))(4 (Amazing))))(2 (,)))(3 (2 (from))(4 (2 (2 (2 (her))(2 (2 (own))(2 (screenplay))))(2 (,)))(3 (4 (2 (jumps))(4 (2 (to))(4 (2 (2 (the))(2 (head)))(2 (2 (of))(2 (2 (2 (the))(2 (class)))(2 (2 (of))(2 (2 (2 (women))(2 ('s)))(2 (films)))))))))(3 (2 (that))(2 (2 (manage))(2 (2 (to))(1 (1 (0 (avoid))(2 (2 (2 (the))(1 (ghetto)))(2 (2 (of))(3 (3 (sentimental))(2 (chick-flicks))))))(2 (2 (by))(2 (3 (2 (treating))(2 (2 (female))(2 (follies))))(2 (2 (with))(2 (2 (a))(2 (2 (satirical))(2 (style)))))))))))))))(2 (.)))) |BT| (ROOT (S (NP (NP (NP (NNP (Nicole))(NNP (Holofcener))(POS ('s)))(ADJP (JJ (Lovely))(CC (and))(JJ (Amazing))))(, (,))(PP (IN (from))(NP (PRP$ (her))(JJ (own))(NN (screenplay))))(, (,)))(VP (VBZ (jumps))(PP (IN (to))(NP (NP (NP (DT (the))(NN (head)))(PP (IN (of))(NP (NP (DT (the))(NN (class)))(PP (IN (of))(NP (NP (NNS (women))(POS ('s)))(NNS (films)))))))(SBAR (WHNP (WDT (that)))(S (VP (VBP (manage))(S (VP (TO (to))(VP (VB (avoid))(NP (NP (DT (the))(NN (ghetto)))(PP (IN (of))(NP (JJ (sentimental))(NN (chick))(HYPH (-))(NNS (flicks)))))(PP (IN (by))(S (VP (VBG (treating))(NP (JJ (female))(NNS (follies)))(PP (IN (with))(NP (DT (a))(JJ (satirical))(NN (style))))))))))))))))(. (.)))) |ET| 
-0.00028488422262499472469715611211427  |BT| (ROOT (3 (3 (2 (Bolstered))(4 (2 (by))(3 (3 (2 (3 (3 (3 (4 (2 (an))(3 (4 (astonishing))(2 (2 (voice))(2 (cast)))))(2 (1 (-LRB-))(2 (2 (2 (excepting))(2 (4 (Love))(2 (Hewitt))))(3 (-RRB-)))))(2 (,)))(3 (2 (an))(2 (3 (interesting))(1 (2 (racial))(2 (tension))))))(2 (,)))(2 (and)))(2 (2 (a))(2 (storyline))))))(2 (2 (that))(2 (2 (I))(2 (2 (2 (have))(2 (n't)))(2 (2 (encountered))(2 (2 (since))(2 (2 (2 (2 (at))(1 (least)))(2 (2 (Pete))(2 ('s))))(3 (Dragon)))))))))(2 (.))) |BT| (ROOT (SINV (VP (VBN (Bolstered))(PP (IN (by))(NP (DT (an))(JJ (astonishing))(NN (voice)))))(VP (VBD (cast))(NP (JJ (-LRB-))(NN (excepting))(NN (Love))))(NP (NP (NP (NNP (Hewitt))(NNP (-RRB-)))(, (,))(NP (DT (an))(JJ (interesting))(JJ (racial))(NN (tension)))(, (,))(CC (and))(NP (DT (a))(NN (storyline))))(SBAR (WHNP (WDT (that)))(S (NP (PRP (I)))(VP (VBP (have))(RB (n't))(VP (VBN (encountered))(PP (IN (since))(ADVP (RB (at))(RBS (least)))(NP (NP (NNP (Pete))(POS ('s)))(NNP (Dragon)))))))))(. (.)))) |ET| 
-0.00073346907907838679047812791012007  |BT| (ROOT (4 (2 (Though))(3 (2 (2 (her))(3 (fans)))(4 (3 (2 (will))(3 (assuredly)))(3 (2 (have))(3 (2 (their))(3 (3 (funny))(3 (2 (bones))(3 (tickled)))))))))(0 (2 (,))(1 (2 (others))(2 (0 (2 (will))(1 (2 (2 (find))(2 (2 (their))(2 (2 (humor-seeking))(3 (dollars)))))(1 (4 (best))(1 (2 (spent))(2 (elsewhere))))))(2 (.)))))) |BT| (ROOT (S (SBAR (IN (Though))(S (NP (PRP$ (her))(NNS (fans)))(VP (MD (will))(ADVP (RB (assuredly)))(VP (VB (have))(S (NP (PRP$ (their))(JJ (funny))(NNS (bones)))(ADJP (JJ (tickled))))))))(, (,))(NP (NNS (others)))(VP (MD (will))(VP (VB (find))(NP (NP (ADJP (NP (PRP$ (their))(NN (humor)))(HYPH (-))(VBG (seeking)))(NNS (dollars)))(NP (NP (JJS (best)))(VP (VBN (spent))(ADVP (RB (elsewhere))))))))(. (.)))) |ET| 
-0.0033003615034174356955565254878593  |BT| (ROOT (3 (2 (2 (Strange))(2 (and)))(4 (4 (beautiful))(2 (film))))(2 (.))) |BT| (ROOT (NP (ADJP (JJ (Strange))(CC (and))(JJ (beautiful)))(NN (film))(. (.)))) |ET| 
0.0033003615034174356955565254878593  |BT| (ROOT (2 (...))(4 (4 (2 (very))(3 (funny)))(4 (2 (,))(3 (2 (very))(3 (3 (enjoyable))(2 (...))))))) |BT| (ROOT (FRAG (NFP (...))(NP (RB (very))(JJ (funny)))(, (,))(NP (RB (very))(JJ (enjoyable)))(. (...)))) |ET| 
0.0033003615034174356955565254878593  |BT| (ROOT (2 (Spiderman))(3 (ROCKS))) |BT| (ROOT (NP (NNP (Spiderman))(NNP (ROCKS)))) |ET| 
0.0033003615034174356955565254878593  |BT| (ROOT (4 (2 (A))(4 (3 (2 (1 (weird))(2 (and)))(3 (wonderful)))(3 (comedy))))(2 (.))) |BT| (ROOT (NP (DT (A))(ADJP (JJ (weird))(CC (and))(JJ (wonderful)))(NN (comedy))(. (.)))) |ET| 
-0.0033003615034174356955565254878593  |BT| (ROOT (2 (A))(4 (4 (2 (film))(4 (2 (that))(4 (2 (will))(4 (3 (enthrall))(2 (2 (the))(3 (2 (whole))(3 (family))))))))(2 (.)))) |BT| (ROOT (NP (NP (DT (A))(NN (film)))(SBAR (WHNP (WDT (that)))(S (VP (MD (will))(VP (VB (enthrall))(NP (DT (the))(JJ (whole))(NN (family)))))))(. (.)))) |ET| 
-0.0033003615034174356955565254878593  |BT| (ROOT (3 (4 (2 (Demonstrates))(4 (3 (3 (2 (a))(4 (3 (vivid))(3 (imagination))))(2 (and)))(4 (2 (an))(3 (4 (impressive))(2 (style))))))(2 (2 (2 (that))(2 (result)))(3 (2 (in))(3 (2 (some))(4 (4 (terrific))(2 (setpieces)))))))(2 (.))) |BT| (ROOT (S (VP (VBZ (Demonstrates))(NP (NP (NP (DT (a))(JJ (vivid))(NN (imagination)))(CC (and))(NP (DT (an))(JJ (impressive))(NN (style))))(SBAR (WHNP (WDT (that)))(S (VP (VBP (result))(PP (IN (in))(NP (DT (some))(JJ (terrific))(NNS (setpieces)))))))))(. (.)))) |ET| 
-0.0033003615034174356955565254878593  |BT| (ROOT (2 (Familiar))(3 (2 (but))(4 (2 (utterly))(4 (4 (delightful))(2 (.)))))) |BT| (ROOT (FRAG (ADJP (ADJP (JJ (Familiar)))(CC (but))(ADJP (RB (utterly))(JJ (delightful))))(. (.)))) |ET| 
0.0015452656590406186123964893397442  |BT| (ROOT (2 (2 (Most))(2 (2 (haunting))(2 (2 (2 (2 (about))(2 (``)))(2 (Fence)))(2 ('')))))(2 (2 (2 (is))(3 (2 (2 (2 (its))(2 (conclusion)))(2 (,)))(3 (2 (when))(2 (2 (we))(2 (2 (2 (2 (hear))(2 (2 (2 (the))(2 (3 (ultimate))(2 (fate))))(2 (2 (of))(2 (2 (these))(2 (girls))))))(2 (and)))(1 (1 (1 (2 (2 (realize))(2 (,)))(1 (2 (much))(1 (2 (to))(1 (2 (our))(1 (dismay))))))(2 (,)))(2 (2 (that))(2 (2 (this))(2 (2 (really))(2 (2 (did))(2 (happen))))))))))))(2 (.)))) |BT| (ROOT (S (NP (NP (JJS (Most))(NN (haunting)))(PP (IN (about))(`` (``))(NP (NN (Fence)))('' (''))))(VP (VBZ (is))(NP (PRP$ (its))(NN (conclusion)))(, (,))(SBAR (WHADVP (WRB (when)))(S (NP (PRP (we)))(VP (VP (VBP (hear))(NP (NP (DT (the))(JJ (ultimate))(NN (fate)))(PP (IN (of))(NP (DT (these))(NNS (girls))))))(CC (and))(VP (VB (realize))(, (,))(ADVP (RB (much))(PP (IN (to))(NP (PRP$ (our))(NN (dismay)))))(, (,))(SBAR (IN (that))(S (NP (DT (this)))(ADVP (RB (really)))(VP (VBD (did))(VP (VB (happen)))))))))))(. (.)))) |ET| 
0.0033003615034174356955565254878593  |BT| (ROOT (4 (4 (Spectacular))(2 (2 (in))(2 (2 (2 (every))(2 (sense)))(2 (2 (of))(2 (2 (2 (2 (2 (the))(2 (word)))(2 (,)))(2 (2 (even))(2 (2 (if))(2 (you)))))(2 (2 (2 (don))(2 (')))(2 (t))))))))(2 (2 (2 (2 (know))(2 (2 (an))(2 (Orc))))(2 (2 (from))(2 (2 (a))(2 (Uruk-Hai)))))(2 (.)))) |BT| (ROOT (S (NP (NP (NNP (Spectacular)))(PP (IN (in))(NP (NP (DT (every))(NN (sense)))(PP (IN (of))(NP (DT (the))(NN (word)))))))(, (,))(ADVP (RB (even)))(SBAR (IN (if))(S (NP (PRP (you)))(VP (VBP (don))('' ('))(NP (NN (t))))))(VP (VBP (know))(NP (DT (an))(NN (Orc)))(PP (IN (from))(NP (DT (a))(NNP (Uruk))(HYPH (-))(NNP (Hai)))))(. (.)))) |ET| 
0.00017596327727270054982859626147018  |BT| (ROOT (3 (2 (Director))(2 (2 (Juan))(2 (2 (Jose))(2 (Campanella)))))(3 (4 (2 (2 (2 (2 (1 (2 (2 (could))(2 (2 (have))(2 (3 (2 (turned))(2 (this)))(1 (2 (into))(2 (1 (2 (an))(1 (2 (Argentine))(2 (retread))))(2 (2 (of))(2 (2 (``))(2 (2 (2 (2 (2 (Iris))(2 ('')))(2 (or)))(2 (``)))(2 (2 (American))(3 (Beauty)))))))))))(2 (,)))(2 ('')))(2 (but)))(2 (2 (instead))(2 (2 (2 (pulls))(2 (2 (a))(2 (little))))(3 (2 (from))(2 (2 (each))(2 (film)))))))(2 (and)))(3 (2 (creates))(3 (2 (something))(4 (2 (more))(3 (4 (beautiful))(1 (2 (than))(2 (2 (either))(2 (2 (of))(2 (2 (those))(2 (films)))))))))))(2 (.)))) |BT| (ROOT (S (NP (NNP (Director))(NNP (Juan))(NNP (Jose))(NNP (Campanella)))(VP (VP (MD (could))(VP (VB (have))(VP (VBN (turned))(NP (DT (this)))(PP (IN (into))(NP (NP (DT (an))(NNP (Argentine))(NN (retread)))(PP (IN (of))(NP (`` (``))(NP (NNP (Iris)))('' (''))(CC (or))(`` (``))(NP (JJ (American))(NN (Beauty))))))))))(, (,))('' (''))(CC (but))(ADVP (RB (instead)))(VP (VBZ (pulls))(NP (DT (a))(JJ (little)))(PP (IN (from))(NP (DT (each))(NN (film)))))(CC (and))(VP (VBZ (creates))(NP (NP (NN (something)))(ADJP (JJR (more))(JJ (beautiful))))(PP (IN (than))(NP (NP (DT (either)))(PP (IN (of))(NP (DT (those))(NNS (films))))))))(. (.)))) |ET| 
-0.0033003615034174356955565254878593  |BT| (ROOT (2 (By))(3 (4 (2 (turns))(3 (3 (3 (fanciful))(2 (,)))(3 (2 (1 (grisly))(2 (and)))(2 (3 (engagingly))(2 (quixotic))))))(2 (.)))) |BT| (ROOT (S (PP (IN (By))(NP (NP (NNS (turns)))(ADJP (ADJP (JJ (fanciful)))(, (,))(ADJP (JJ (grisly)))(CC (and))(ADJP (RB (engagingly))(JJ (quixotic))))))(. (.)))) |ET| 
-0.00014208352525074907863125717177866  |BT| (ROOT (3 (2 (2 (3 (2 (2 (Some))(2 (people)))(2 (2 (march))(2 (2 (to))(3 (2 (2 (the))(2 (beat)))(2 (2 (of))(2 (2 (a))(2 (2 (different))(2 (drum)))))))))(2 (,)))(2 (and)))(2 (2 (2 (if))(2 (2 (you))(2 (2 (ever))(2 (2 (wondered))(2 (2 (2 (2 (what))(3 (kind)))(2 (2 (of))(2 (houses))))(2 (2 (2 (those))(2 (people)))(2 (2 (live))(2 (in)))))))))(2 (2 (,))(2 (2 (2 (this))(2 (documentary)))(1 (2 (takes))(2 (2 (2 (a))(2 (look)))(2 (2 (at))(2 (2 (5))(3 (2 (alternative))(2 (2 (housing))(2 (options))))))))))))(2 (.))) |BT| (ROOT (S (S (NP (DT (Some))(NNS (people)))(VP (VB (march))(PP (IN (to))(NP (NP (DT (the))(NN (beat)))(PP (IN (of))(NP (DT (a))(JJ (different))(NN (drum))))))))(, (,))(CC (and))(S (SBAR (IN (if))(S (NP (PRP (you)))(ADVP (RB (ever)))(VP (VBD (wondered))(SBAR (WHNP (WHNP (WDT (what))(NN (kind)))(PP (IN (of))(NP (NNS (houses)))))(S (NP (DT (those))(NNS (people)))(VP (VBP (live))(PP (IN (in)))))))))(, (,))(NP (DT (this))(NN (documentary)))(VP (VBZ (takes))(NP (NP (DT (a))(NN (look)))(PP (IN (at))(NP (CD (5))(JJ (alternative))(NN (housing))(NNS (options)))))))(. (.)))) |ET| 
-0.0016725744111707346352402314693109  |BT| (ROOT (1 (0 (2 (Violent))(2 (2 (,))(1 (2 (0 (vulgar))(2 (and)))(1 (forgettably)))))(4 (entertaining)))(2 (.))) |BT| (ROOT (FRAG (ADJP (JJ (Violent)))(, (,))(ADJP (ADJP (JJ (vulgar)))(CC (and))(ADJP (RB (forgettably))(JJ (entertaining))))(. (.)))) |ET| 
0.0033003615034174356955565254878593  |BT| (ROOT (3 (2 (If))(3 (2 (2 (the))(3 (2 (real-life))(2 (story))))(4 (2 (is))(4 (3 (genuinely))(4 (inspirational))))))(3 (2 (,))(3 (2 (2 (the))(2 (movie)))(3 (3 (3 (2 (stirs))(3 (us)))(2 (2 (as))(3 (well))))(2 (.)))))) |BT| (ROOT (S (SBAR (IN (If))(S (NP (DT (the))(NML (JJ (real))(HYPH (-))(NN (life)))(NN (story)))(VP (VBZ (is))(ADJP (RB (genuinely))(JJ (inspirational))))))(, (,))(NP (DT (the))(NN (movie)))(VP (VBZ (stirs))(NP (PRP (us)))(ADVP (RB (as))(RB (well))))(. (.)))) |ET| 
0.0033003615034174356955565254878593  |BT| (ROOT (2 (Goofy))(3 (2 (,))(3 (2 (nutty))(4 (2 (,))(4 (3 (2 (consistently))(3 (funny)))(2 (.))))))) |BT| (ROOT (ADJP (JJ (Goofy))(, (,))(JJ (nutty))(, (,))(RB (consistently))(JJ (funny))(. (.)))) |ET| 
0.0033003615034174356955565254878593  |BT| (ROOT (3 (2 (Works))(3 (2 (as))(3 (2 (4 (pretty))(2 (contagious)))(4 (fun)))))(2 (.))) |BT| (ROOT (NP (NP (NNS (Works)))(PP (IN (as))(NP (ADJP (RB (pretty))(JJ (contagious)))(NN (fun))))(. (.)))) |ET| 
-0.0033003615034174356955565254878593  |BT| (ROOT (2 (``))(3 (2 (Frailty))(4 (2 (''))(3 (4 (3 (2 (has))(3 (2 (been))(3 (4 (3 (3 (written))(3 (2 (so))(3 (well))))(2 (,)))(2 (2 (2 (that))(2 (even)))(1 (2 (2 (a))(2 (simple)))(1 (2 (``))(0 (Goddammit))))))))(2 (!)))(2 ('')))))) |BT| (ROOT (S (`` (``))(NP (NNP (Frailty)))('' (''))(VP (VBZ (has))(VP (VBN (been))(VP (VBN (written))(PP (RB (so))(RB (well)))(, (,))(SBAR (IN (that))(NP (NP (RB (even))(DT (a))(JJ (simple)))(`` (``))(NP (NNP (Goddammit))))))))(. (!))('' ('')))) |ET| 
-0.0033003615034174356955565254878593  |BT| (ROOT (2 (It))(3 (4 (2 ('s))(3 (3 (refreshing))(4 (2 (to))(3 (2 (see))(3 (2 (2 (a))(3 (romance)))(3 (2 (this))(4 (smart))))))))(2 (.)))) |BT| (ROOT (S (NP (PRP (It)))(VP (VBZ ('s))(VP (VBG (refreshing))(S (VP (TO (to))(VP (VB (see))(S (NP (DT (a))(NN (romance)))(ADJP (DT (this))(JJ (smart)))))))))(. (.)))) |ET| 
-0.0033003615034174356955565254878593  |BT| (ROOT (3 (3 (2 (The))(4 (3 (4 (humor))(2 (and)))(2 (humanity))))(2 (2 (of))(3 (2 (Monsoon))(3 (Wedding)))))(4 (4 (2 (are))(3 (2 (in))(3 (4 (perfect))(2 (balance)))))(2 (.)))) |BT| (ROOT (S (NP (NP (DT (The))(NN (humor))(CC (and))(NN (humanity)))(PP (IN (of))(NP (NNP (Monsoon))(NNP (Wedding)))))(VP (VBP (are))(PP (IN (in))(NP (JJ (perfect))(NN (balance)))))(. (.)))) |ET| 
0.0033003615034174356955565254878593  |BT| (ROOT (2 (2 (2 (2 (You))(2 (2 (can))(3 (2 (2 (2 (sip))(2 (2 (your))(2 (2 (vintage))(2 (wines)))))(2 (and)))(3 (2 (watch))(2 (2 (your))(3 (2 (Merchant))(2 (2 (Ivory))(2 (productions)))))))))(2 (;)))(3 (3 (2 (2 (I))(2 (2 ('ll))(2 (2 (settle))(2 (2 (for))(3 (2 (2 (a))(2 (3 (nice))(2 (3 (cool))(2 (glass)))))(2 (2 (of))(2 (2 (iced))(2 (tea)))))))))(2 (and)))(3 (2 (2 (a))(2 (2 (Jerry))(2 (Bruckheimer))))(2 (2 (flick))(2 (2 (2 (any))(2 (day)))(2 (2 (of))(2 (2 (the))(2 (week)))))))))(2 (.))) |BT| (ROOT (S (S (NP (PRP (You)))(VP (MD (can))(VP (VP (VB (sip))(NP (PRP$ (your))(NN (vintage))(NNS (wines))))(CC (and))(VP (VB (watch))(NP (PRP$ (your))(NML (NNP (Merchant))(NNP (Ivory)))(NNS (productions)))))))(: (;))(S (NP (PRP (I)))(VP (MD ('ll))(VP (VB (settle))(PP (IN (for))(NP (NP (DT (a))(ADJP (JJ (nice))(JJ (cool)))(NN (glass)))(PP (IN (of))(NP (NP (VBN (iced))(NN (tea)))(CC (and))(NP (NP (DT (a))(NML (NNP (Jerry))(NNP (Bruckheimer)))(NN (flick)))(NP (DT (any))(NN (day)))(PP (IN (of))(NP (DT (the))(NN (week))))))))))))(. (.)))) |ET| 
0.00040439909546546685958912092928585  |BT| (ROOT (2 (2 (While))(2 (2 (centered))(2 (2 (on))(2 (2 (2 (the))(2 (3 (life))(2 (experiences))))(3 (2 (of))(2 (2 (a))(2 (2 (particular))(2 (2 (theatrical))(3 (family))))))))))(4 (2 (,))(4 (2 (this))(4 (3 (3 (4 (4 (marvelous))(2 (2 (documentary))(2 (touches))))(3 (2 (--))(3 (3 (2 (ever))(4 (2 (so))(3 (gracefully))))(2 (--)))))(2 (2 (2 (on))(2 (2 (2 (the))(2 (2 (entire))(2 (history))))(2 (2 (of))(2 (2 (the))(2 (2 (Yiddish))(3 (theater)))))))(2 (2 (2 (,))(2 (both)))(2 (2 (in))(2 (2 (2 (America))(2 (and)))(2 (Israel)))))))(2 (.)))))) |BT| (ROOT (S (SBAR (IN (While))(S (VP (VBN (centered))(PP (IN (on))(NP (NP (DT (the))(NN (life))(NNS (experiences)))(PP (IN (of))(NP (DT (a))(JJ (particular))(JJ (theatrical))(NN (family)))))))))(, (,))(NP (DT (this))(JJ (marvelous))(NN (documentary)))(VP (VP (VBZ (touches)))(: (--))(ADVP (ADVP (RB (ever))(RB (so))(RB (gracefully)))(: (--))(PP (IN (on))(NP (DT (the))(JJ (entire))(NN (history)))))(PP (PP (IN (of))(NP (DT (the))(JJ (Yiddish))(NN (theater))))(, (,))(CC (both))(PP (IN (in))(NP (NNP (America))(CC (and))(NNP (Israel))))))(. (.)))) |ET| 
0.0003470796733432091811348552123917  |BT| (ROOT (3 (2 (While))(3 (3 (2 (3 (2 (2 (Parker))(2 (2 (and))(2 (2 (co-writer))(2 (2 (Catherine))(2 (2 (di))(2 (Napoli)))))))(3 (2 (2 (2 (are))(3 (3 (faithful))(2 (2 (to))(2 (2 (2 (Melville))(2 ('s)))(2 (plotline))))))(2 (,)))(2 (they))))(2 (and)))(3 (2 (a))(3 (2 (2 (fully))(3 (engaged)))(2 (3 (supporting))(2 (cast))))))(3 (2 (...))(3 (2 (have))(3 (2 (made))(3 (2 (2 (2 (the))(2 (2 (old))(2 (2 (boy))(2 ('s)))))(2 (characters)))(3 (2 (more))(3 (3 (quick-witted))(2 (2 (than))(2 (2 (any))(2 (2 (English))(2 (Lit)))))))))))))(2 (2 (major))(2 (2 (2 (would))(3 (2 (have))(2 (2 (thought))(2 (possible)))))(2 (.))))) |BT| (ROOT (S (SBAR (IN (While))(S (NP (NNP (Parker))(CC (and))(NN (co-writer))(NNP (Catherine))(NNP (di))(NNP (Napoli)))(VP (VBP (are))(ADJP (JJ (faithful))(PP (IN (to))(NP (NP (NNP (Melville))(POS ('s)))(NN (plotline))))))))(, (,))(NP (NP (PRP (they)))(CC (and))(NP (DT (a))(ADJP (RB (fully))(JJ (engaged)))(VBG (supporting))(NN (cast))))(, (...))(VP (VBP (have))(VP (VBN (made))(NP (NP (NP (DT (the))(JJ (old))(NN (boy))(POS ('s)))(NNS (characters)))(ADJP (RBR (more))(JJ (quick))(HYPH (-))(JJ (witted))))(SBAR (IN (than))(S (NP (DT (any))(JJ (English))(NN (Lit))(NN (major)))(VP (MD (would))(VP (VB (have))(VP (VBN (thought))(S (ADJP (JJ (possible)))))))))))(. (.)))) |ET| 
-0.00010559297165606680536306671847058  |BT| (ROOT (2 (2 (Watching))(2 (2 (this))(2 (film))))(2 (2 (,))(2 (2 (one))(2 (3 (2 (is))(2 (2 (2 (left))(3 (2 (with))(2 (2 (the))(2 (2 (inescapable))(2 (conclusion))))))(3 (2 (that))(3 (2 (2 (2 (2 (Hitchens))(2 (')))(2 (obsession)))(2 (2 (with))(2 (Kissinger))))(3 (2 (2 (2 (2 (is))(2 (,)))(2 (2 (at))(1 (bottom))))(2 (,)))(2 (3 (2 (a))(2 (3 (sophisticated))(2 (2 (flower))(2 (2 (child))(2 ('s))))))(2 (2 (desire))(2 (2 (to))(2 (2 (purge))(2 (2 (2 (the))(2 (world)))(3 (2 (of))(3 (2 (2 (the))(2 (2 (2 (tooth))(2 (and)))(2 (claw))))(2 (2 (of))(3 (2 (human))(2 (power))))))))))))))))(2 (.)))))) |BT| (ROOT (S (S (VP (VBG (Watching))(NP (DT (this))(NN (film)))))(, (,))(NP (CD (one)))(VP (VBZ (is))(VP (VBN (left))(PP (IN (with))(NP (DT (the))(JJ (inescapable))(NN (conclusion))))(SBAR (IN (that))(S (NP (NP (NP (NNP (Hitchens))(POS (')))(NN (obsession)))(PP (IN (with))(NP (NNP (Kissinger)))))(VP (VBZ (is))(, (,))(PP (IN (at))(NP (NN (bottom))))(, (,))(NP (NP (DT (a))(JJ (sophisticated))(NN (flower))(NN (child))(POS ('s)))(NN (desire))(S (VP (TO (to))(VP (VB (purge))(NP (NP (DT (the))(NN (world)))(PP (IN (of))(NP (NP (DT (the))(NN (tooth))(CC (and))(NN (claw)))(PP (IN (of))(NP (JJ (human))(NN (power))))))))))))))))(. (.)))) |ET| 
0.0033003615034174356955565254878593  |BT| (ROOT (2 (Jeffs))(3 (4 (2 (has))(4 (2 (created))(3 (4 (2 (a))(4 (4 (4 (breathtakingly))(3 (2 (2 (assured))(2 (and)))(3 (stylish))))(2 (work))))(3 (2 (of))(3 (3 (1 (2 (spare))(2 (dialogue)))(2 (and)))(3 (2 (acute))(2 (expressiveness))))))))(2 (.)))) |BT| (ROOT (S (NP (NNP (Jeffs)))(VP (VBZ (has))(VP (VBN (created))(NP (NP (DT (a))(ADJP (ADJP (RB (breathtakingly))(VBN (assured)))(CC (and))(ADJP (JJ (stylish))))(NN (work)))(PP (IN (of))(NP (NP (JJ (spare))(NN (dialogue)))(CC (and))(NP (JJ (acute))(NN (expressiveness))))))))(. (.)))) |ET| 
-9.806170556544032050161167901603e-06  |BT| (ROOT (3 (2 (For))(4 (2 (95))(3 (4 (2 (often))(4 (hilarious)))(2 (minutes)))))(2 (2 (,))(2 (2 (1 (-LRB-))(2 (2 (Cho))(3 (-RRB-))))(2 (2 (2 (2 (2 (riffs))(2 (2 (on))(2 (2 (2 (the))(2 (diciness)))(2 (2 (of))(2 (colonics))))))(2 (,)))(3 (2 (on))(2 (2 (2 (2 (straight))(2 (2 (versus))(1 (2 (gay))(2 (3 (personal))(2 (ads))))))(2 (,)))(2 (2 (2 (on))(2 (2 (how))(2 (2 (men))(2 (2 (would))(2 (2 (act))(3 (2 (if))(2 (2 (they))(2 (2 (had))(2 (periods))))))))))(2 (3 (2 (,))(2 (and)))(2 (2 (on))(2 (2 (2 (the))(2 (perils)))(3 (2 (of))(2 (2 (a))(2 (3 (certain))(2 (2 (outr))(2 (2 (sexual))(2 (practice))))))))))))))(2 (.)))))) |BT| (ROOT (FRAG (PP (IN (For))(NP (CD (95))))(NP (ADJP (RB (often))(JJ (hilarious)))(NNS (minutes)))(, (,))(NP (NNP (-LRB-))(NNP (Cho))(NNP (-RRB-)))(NP (NNS (riffs)))(PP (IN (on))(NP (NP (DT (the))(NN (diciness)))(PP (IN (of))(NP (NNS (colonics))))))(, (,))(PP (PP (IN (on))(NP (ADJP (JJ (straight))(CC (versus))(JJ (gay)))(JJ (personal))(NNS (ads))))(, (,))(PP (IN (on))(SBAR (WHADVP (WRB (how)))(S (NP (NNS (men)))(VP (MD (would))(VP (VB (act))(SBAR (IN (if))(S (NP (PRP (they)))(VP (VBD (had))(NP (NNS (periods)))))))))))(, (,))(CC (and))(PP (IN (on))(NP (NP (DT (the))(NNS (perils)))(PP (IN (of))(NP (DT (a))(JJ (certain))(JJ (outr))(JJ (sexual))(NN (practice)))))))(. (.)))) |ET| 
0.0033003615034174356955565254878593  |BT| (ROOT (2 (It))(4 (3 (2 ('s))(3 (3 (3 (3 (3 (technically))(3 (sumptuous)))(2 (but)))(2 (also)))(3 (2 (almost))(4 (2 (wildly))(3 (alive))))))(2 (.)))) |BT| (ROOT (S (NP (PRP (It)))(VP (VBZ ('s))(ADJP (ADJP (RB (technically))(JJ (sumptuous)))(CONJP (CC (but))(RB (also)))(ADJP (RB (almost))(RB (wildly))(JJ (alive)))))(. (.)))) |ET| 
0.0033003615034174356955565254878593  |BT| (ROOT (4 (2 (Enormously))(3 (enjoyable)))(3 (2 (,))(3 (4 (2 (high-adrenaline))(2 (documentary)))(2 (.))))) |BT| (ROOT (FRAG (ADVP (RB (Enormously)))(ADJP (JJ (enjoyable)))(, (,))(NP (NP (JJ (high))(HYPH (-))(NN (adrenaline)))(NP (NN (documentary))))(. (.)))) |ET| 
0.0033003615034174356955565254878593  |BT| (ROOT (2 (Morvern))(3 (2 (rocks))(2 (.)))) |BT| (ROOT (FRAG (NP (NNP (Morvern)))(NP (NNS (rocks)))(. (.)))) |ET| 
-0.00082861813473669948624383829738349  |BT| (ROOT (3 (3 (3 (3 (2 (It))(3 (3 (3 (2 ('s))(3 (3 (2 (more))(3 (enjoyable)))(2 (2 (than))(2 (2 (I))(1 (expected))))))(2 (,)))(2 (though))))(2 (,)))(2 (and)))(2 (2 (that))(3 (2 ('s))(2 (2 (because))(2 (3 (2 (the))(3 (laughs)))(2 (2 (come))(2 (2 (from))(3 (2 (2 (fairly))(2 (basic)))(2 (3 (comedic))(3 (constructs)))))))))))(2 (.))) |BT| (ROOT (S (S (NP (PRP (It)))(VP (VBZ ('s))(ADJP (ADJP (RBR (more))(JJ (enjoyable)))(SBAR (IN (than))(S (NP (PRP (I)))(VP (VBD (expected))))))(, (,))(ADVP (RB (though)))))(, (,))(CC (and))(S (NP (DT (that)))(VP (VBZ ('s))(SBAR (IN (because))(S (NP (DT (the))(NNS (laughs)))(VP (VBP (come))(PP (IN (from))(NP (ADJP (RB (fairly))(JJ (basic)))(JJ (comedic))(NNS (constructs)))))))))(. (.)))) |ET| 
-6.3523500379175317875728168370841e-05  |BT| (ROOT (3 (2 (As))(3 (2 (much))(3 (2 (as))(4 (2 (I))(3 (3 (laughed))(2 (2 (throughout))(2 (2 (the))(2 (movie)))))))))(3 (2 (,))(2 (2 (I))(1 (1 (2 (2 (can))(1 (not)))(1 (2 (2 (mount))(2 (2 (2 (2 (2 (2 (2 (2 (a))(2 (2 (cogent))(2 (defense))))(2 (2 (of))(2 (2 (2 (the))(2 (film)))(3 (2 (as))(3 (entertainment))))))(2 (,)))(2 (or)))(2 (even)))(2 (2 (performance))(2 (art))))(2 (,))))(2 (2 (although))(3 (2 (2 (the))(2 (movie)))(3 (2 (does))(3 (1 (leave))(2 (2 (you))(3 (3 (3 (marveling))(2 (2 (at))(3 (2 (2 (these))(2 (2 (guys))(2 ('))))(2 (2 (superhuman))(2 (capacity))))))(2 (2 (to))(2 (2 (withstand))(2 (pain))))))))))))(2 (.)))))) |BT| (ROOT (S (ADVP (ADVP (RB (As))(RB (much)))(SBAR (IN (as))(S (NP (PRP (I)))(VP (VBD (laughed))(PP (IN (throughout))(NP (DT (the))(NN (movie))))))))(, (,))(NP (PRP (I)))(VP (MD (can))(RB (not))(VP (VB (mount))(NP (NP (NP (DT (a))(JJ (cogent))(NN (defense)))(PP (IN (of))(NP (NP (DT (the))(NN (film)))(PP (IN (as))(NP (NN (entertainment)))))))(, (,))(CC (or))(RB (even))(NP (NN (performance))(NN (art)))(, (,)))(SBAR (IN (although))(S (NP (DT (the))(NN (movie)))(VP (VBZ (does))(S (VP (VB (leave))(S (NP (PRP (you)))(VP (VBG (marveling))(PP (IN (at))(NP (NP (DT (these))(NNS (guys))(POS (')))(JJ (superhuman))(NN (capacity))))(S (VP (TO (to))(VP (VB (withstand))(NP (NN (pain)))))))))))))))(. (.)))) |ET| 
-0.0001798692882377125965703834609144  |BT| (ROOT (4 (2 (3 (3 (3 (2 (2 (The))(2 (2 (color))(2 (sense))))(2 (2 (of))(2 (2 (Stuart))(2 (2 (Little))(2 (2))))))(3 (2 (is))(3 (2 (its))(3 (1 (2 (2 (2 (most))(2 (immediate)))(2 (and)))(2 (2 (most))(1 (obvious))))(4 (pleasure))))))(2 (,)))(2 (but)))(4 (2 (it))(3 (2 (would))(3 (2 (2 (count))(2 (2 (for))(2 (2 (very))(2 (little)))))(3 (2 (if))(2 (2 (2 (the))(2 (movie)))(3 (1 (2 (2 (were))(2 (n't)))(4 (3 (3 (2 (as))(3 (3 (beautifully))(2 (shaped))))(2 (and)))(3 (2 (as))(3 (2 (delicately))(2 (2 (calibrated))(2 (2 (in))(2 (tone))))))))(2 (2 (as))(3 (2 (it))(2 (is)))))))))))(2 (.))) |BT| (ROOT (S (S (NP (NP (DT (The))(NN (color))(NN (sense)))(PP (IN (of))(NP (NNP (Stuart))(NNP (Little))(CD (2)))))(VP (VBZ (is))(NP (PRP$ (its))(ADJP (ADJP (RBS (most))(JJ (immediate)))(CC (and))(ADJP (RBS (most))(JJ (obvious))))(NN (pleasure)))))(, (,))(CC (but))(S (NP (PRP (it)))(VP (MD (would))(VP (VB (count))(PP (IN (for))(ADJP (RB (very))(JJ (little))))(SBAR (IN (if))(S (NP (DT (the))(NN (movie)))(VP (VBD (were))(RB (n't))(ADJP (ADJP (ADVP (RB (as))(RB (beautifully)))(VBN (shaped)))(CONJP (CC (and))(IN (as)))(ADJP (RB (delicately))(VBN (calibrated))(PP (IN (in))(NP (NN (tone))))))(SBAR (IN (as))(S (NP (PRP (it)))(VP (VBZ (is)))))))))))(. (.)))) |ET| 
0.0026839481561775611374864869418388  |BT| (ROOT (4 (3 (3 (3 (Funny))(2 (,)))(2 (1 (1 (1 (2 (somber))(1 (2 (,))(1 (1 (absurd))(2 (,)))))(2 (and)))(2 (2 (,))(2 (2 (finally))(2 (,)))))(1 (2 (achingly))(1 (sad)))))(2 (,)))(3 (2 (Bartleby))(3 (2 (2 (is))(4 (2 (3 (2 (a))(3 (fine)))(2 (,)))(3 (3 (2 (understated))(2 (piece)))(2 (2 (of))(2 (filmmaking))))))(2 (.))))) |BT| (ROOT (S (NP (NP (NP (NP (JJ (Funny)))(, (,))(NP (JJ (somber))(, (,))(JJ (absurd)))(, (,)))(CC (and))(, (,))(ADVP (RB (finally)))(, (,))(ADJP (RB (achingly))(JJ (sad))))(, (,))(NP (NNP (Bartleby))))(VP (VBZ (is))(NP (NP (DT (a))(JJ (fine))(, (,))(VBN (understated))(NN (piece)))(PP (IN (of))(NP (NN (filmmaking))))))(. (.)))) |ET| 
0.0033003615034174356955565254878593  |BT| (ROOT (3 (2 (2 (Because))(2 (2 (2 (the))(2 (genre)))(3 (2 (is))(3 (3 (well))(2 (established))))))(3 (2 (,))(3 (2 (what))(3 (2 (makes))(2 (2 (2 (the))(2 (movie)))(4 (fresh)))))))(4 (4 (3 (2 (is))(4 (smart)))(1 (2 (1 (1 (2 (2 (writing))(2 (,)))(2 (2 (skewed))(2 (characters))))(2 (,)))(2 (and)))(2 (2 (2 (the))(3 (2 (title))(2 (performance))))(2 (2 (by))(2 (2 (Kieran))(2 (Culkin)))))))(2 (.)))) |BT| (ROOT (S (SBAR (IN (Because))(S (NP (DT (the))(NN (genre)))(VP (VBZ (is))(ADJP (RB (well))(VBN (established)))(, (,))(SBAR (WHNP (WP (what)))(S (VP (VBZ (makes))(S (NP (DT (the))(NN (movie)))(ADJP (JJ (fresh))))))))))(VP (VBZ (is))(NP (NP (NP (JJ (smart))(NN (writing)))(, (,))(VP (VBN (skewed))(NP (NNS (characters)))))(, (,))(CC (and))(NP (NP (DT (the))(NN (title))(NN (performance)))(PP (IN (by))(NP (NNP (Kieran))(NNP (Culkin)))))))(. (.)))) |ET| 
0.0033003615034174356955565254878593  |BT| (ROOT (2 (2 (Whatever))(3 (3 (heartwarming))(1 (2 (scene))(2 (3 (2 (the))(3 (3 (impressively))(3 (2 (discreet))(2 (filmmakers)))))(3 (2 (may))(2 (2 (have))(2 (1 (expected))(2 (2 (to))(2 (2 (record))(2 (2 (with))(2 (2 (their))(2 (2 (mini))(2 (DV))))))))))))))(3 (2 (,))(3 (2 (they))(3 (4 (2 (show))(4 (2 (a))(3 (4 (remarkable))(2 (2 (ability))(2 (2 (to))(1 (3 (document))(1 (2 (2 (both))(2 (sides)))(1 (2 (of))(1 (2 (this))(1 (2 (emotional))(0 (car-wreck))))))))))))(2 (.)))))) |BT| (ROOT (S (SBAR (WHNP (WDT (Whatever)))(S (NP (NP (JJ (heartwarming))(NN (scene)))(NP (DT (the))(ADJP (ADVP (RB (impressively)))(JJ (discreet)))(NNS (filmmakers))))(VP (MD (may))(VP (VB (have))(VP (VBN (expected))(S (VP (TO (to))(VP (VB (record))(PP (IN (with))(NP (PRP$ (their))(JJ (mini))(NN (DV))))))))))))(, (,))(NP (PRP (they)))(VP (VBP (show))(NP (DT (a))(JJ (remarkable))(NN (ability)))(S (VP (TO (to))(VP (VB (document))(NP (NP (DT (both))(NNS (sides)))(PP (IN (of))(NP (DT (this))(JJ (emotional))(NN (car))(HYPH (-))(NN (wreck)))))))))(. (.)))) |ET| 
-0.0013697143379053360479763457036029  |BT| (ROOT (2 (...))(4 (4 (4 (4 (4 (4 (4 (4 (4 (3 (3 (4 (4 (2 (flat-out))(4 (amusing)))(2 (,)))(3 (2 (sometimes))(3 (endearing))))(2 (and)))(2 (2 (often))(4 (fabulous))))(3 (2 (,))(3 (2 (2 (with))(4 (2 (a))(3 (3 (solid))(2 (cast)))))(2 (,)))))(3 (3 (noteworthy))(2 (characters))))(2 (,)))(3 (3 (delicious))(2 (dialogue))))(2 (and)))(2 (2 (a))(2 (2 (wide))(2 (supply)))))(2 (2 (of))(2 (3 (effective))(1 (2 (sight))(2 (gags))))))(2 (.)))) |BT| (ROOT (FRAG (NFP (...))(NP (NP (ADJP (ADJP (ADJP (ADVP (RB (flat))(HYPH (-))(RB (out)))(JJ (amusing)))(, (,))(ADJP (RB (sometimes))(JJ (endearing)))(CC (and))(ADJP (RB (often))(JJ (fabulous))))(, (,))(PP (IN (with))(NP (NP (DT (a))(JJ (solid))(NN (cast)))(, (,))(NP (JJ (noteworthy))(NNS (characters)))))(, (,))(ADJP (JJ (delicious))))(NN (dialogue)))(CC (and))(NP (DT (a))(JJ (wide))(NN (supply))))(PP (IN (of))(NP (JJ (effective))(NN (sight))(NNS (gags))))(. (.)))) |ET| 
-0.0022328669699173500119704360855621  |BT| (ROOT (4 (2 (2 (3 (2 (Bogdanovich))(3 (2 (puts))(3 (2 (history))(2 (2 (in))(2 (perspective))))))(2 (and)))(2 (,)))(3 (4 (2 (via))(3 (2 (2 (Kirsten))(2 (2 (Dunst))(2 ('s))))(4 (4 (remarkable))(2 (performance)))))(4 (2 (,))(3 (2 (he))(4 (1 (showcases))(3 (2 (Davies))(3 (2 (as))(4 (2 (2 (a))(2 (2 (young))(2 (woman))))(3 (2 (of))(3 (4 (great))(3 (3 (charm))(3 (2 (,))(3 (2 (3 (generosity))(2 (and)))(2 (diplomacy)))))))))))))))(2 (.))) |BT| (ROOT (S (S (NP (NNP (Bogdanovich)))(VP (VBZ (puts))(NP (NP (NN (history)))(PP (IN (in))(NP (NN (perspective)))))))(CC (and))(, (,))(S (PP (IN (via))(NP (NP (NNP (Kirsten))(NNP (Dunst))(POS ('s)))(JJ (remarkable))(NN (performance))))(, (,))(NP (PRP (he)))(VP (VBZ (showcases))(NP (NP (NNP (Davies)))(PP (IN (as))(NP (NP (DT (a))(JJ (young))(NN (woman)))(PP (IN (of))(NP (JJ (great))(NN (charm))(, (,))(NN (generosity))(CC (and))(NN (diplomacy)))))))))(. (.)))) |ET| 
-0.00020157956417358151171917435284797  |BT| (ROOT (1 (2 (By))(1 (3 (2 (surrounding))(3 (us)))(2 (2 (with))(1 (hyper-artificiality)))))(2 (2 (,))(3 (2 (Haynes))(3 (3 (2 (makes))(3 (3 (us))(3 (2 (see))(2 (2 (2 (2 (2 (2 (familiar))(2 (issues)))(2 (,)))(2 (2 (like))(1 (1 (0 (racism))(2 (and)))(2 (homophobia)))))(2 (,)))(3 (2 (in))(3 (2 (a))(2 (4 (fresh))(2 (way)))))))))(2 (.)))))) |BT| (ROOT (S (PP (IN (By))(S (VP (VBG (surrounding))(NP (PRP (us)))(PP (IN (with))(NP (JJ (hyper))(HYPH (-))(NN (artificiality)))))))(, (,))(NP (NNP (Haynes)))(VP (VBZ (makes))(S (NP (PRP (us)))(VP (VB (see))(NP (NP (JJ (familiar))(NNS (issues)))(, (,))(PP (IN (like))(NP (NN (racism))(CC (and))(NN (homophobia))))(, (,)))(PP (IN (in))(NP (DT (a))(JJ (fresh))(NN (way)))))))(. (.)))) |ET| 
0.00092418150713836899872583030557394  |BT| (ROOT (2 (2 (2 (2 (3 (3 (2 (Writer-director))(2 (2 (David))(2 (Jacobson))))(2 (and)))(2 (2 (his))(2 (star))))(2 (,)))(2 (2 (Jeremy))(2 (Renner))))(2 (,)))(4 (4 (2 (have))(4 (2 (made))(4 (4 (2 (a))(4 (4 (remarkable))(2 (film))))(3 (2 (that))(2 (2 (explores))(2 (2 (2 (the))(2 (2 (monster))(2 ('s))))(2 (2 (psychology))(1 (2 (1 (not))(2 (2 (in))(2 (order))))(2 (2 (2 (2 (to))(2 (2 (excuse))(2 (him))))(2 (2 (but))(2 (rather))))(2 (2 (to))(1 (2 (demonstrate))(2 (2 (that))(2 (2 (2 (his))(2 (pathology)))(2 (2 (evolved))(1 (2 (from))(1 (2 (2 (human))(2 (impulses)))(0 (2 (that))(1 (2 (grew))(1 (0 (hideously))(1 (twisted)))))))))))))))))))))(2 (.)))) |BT| (ROOT (S (NP (NP (NML (NN (Writer))(HYPH (-))(NN (director)))(NNP (David))(NNP (Jacobson)))(CC (and))(NP (NP (PRP$ (his))(NN (star)))(, (,))(NP (NNP (Jeremy))(NNP (Renner)))(, (,))))(VP (VBP (have))(VP (VBN (made))(NP (NP (DT (a))(JJ (remarkable))(NN (film)))(SBAR (WHNP (WDT (that)))(S (VP (VBZ (explores))(NP (NP (DT (the))(NN (monster))(POS ('s)))(NN (psychology))(S (VP (RB (not))(VP (PP (IN (in))(NP (NN (order))))(TO (to))(VP (VB (excuse))(NP (PRP (him)))))(CONJP (CC (but))(RB (rather)))(VP (TO (to))(VP (VB (demonstrate))(SBAR (IN (that))(S (NP (PRP$ (his))(NN (pathology)))(VP (VBD (evolved))(PP (IN (from))(NP (NP (JJ (human))(NNS (impulses)))(SBAR (WHNP (WDT (that)))(S (VP (VBD (grew))(S (ADVP (RB (hideously)))(VP (VBN (twisted)))))))))))))))))))))))(. (.)))) |ET| 
-0.0004287607222256519315384259982693  |BT| (ROOT (2 (Aniston))(3 (3 (2 (2 (has))(3 (2 (at))(2 (last))))(2 (2 (decisively))(3 (2 (2 (broken))(2 (2 (with))(2 (2 (her))(2 (2 (Friends))(2 (image))))))(3 (2 (in))(2 (2 (2 (an))(3 (2 (independent))(2 (film))))(2 (2 (of))(2 (2 (2 (2 (satiric))(2 (fire)))(2 (and)))(2 (2 (emotional))(1 (turmoil))))))))))(2 (.)))) |BT| (ROOT (S (NP (NNP (Aniston)))(VP (VBZ (has))(ADVP (IN (at))(JJ (last)))(ADVP (RB (decisively)))(VP (VBN (broken))(PP (IN (with))(NP (PRP$ (her))(NNS (Friends))(NN (image))))(PP (IN (in))(NP (NP (DT (an))(JJ (independent))(NN (film)))(PP (IN (of))(NP (NP (JJ (satiric))(NN (fire)))(CC (and))(NP (JJ (emotional))(NN (turmoil)))))))))(. (.)))) |ET| 
-0.0010002057447208497625856793433741  |BT| (ROOT (1 (2 (1 (Black-and-white))(2 (and)))(1 (unrealistic)))(2 (.))) |BT| (ROOT (NP (NP (ADJP (JJ (Black))(HYPH (-))(CC (and))(HYPH (-))(JJ (white))))(CC (and))(NP (JJ (unrealistic)))(. (.)))) |ET| 
-0.00075687900685022070981777808640345  |BT| (ROOT (2 (2 (2 (The))(2 (2 (pain))(2 (2 (,))(1 (2 (1 (loneliness))(2 (and)))(2 (insecurity))))))(2 (2 (of))(2 (2 (the))(2 (2 (screenwriting))(2 (process))))))(4 (4 (2 (2 (are))(2 (3 (3 (vividly))(2 (and)))(0 (painfully))))(2 (2 (brought))(3 (2 (to))(4 (1 (2 (slovenly))(3 (life)))(2 (2 (in))(2 (3 (2 (this))(1 (1 (self-deprecating))(3 (2 (,))(3 (2 (biting))(3 (2 (and))(3 (3 (witty))(2 (feature))))))))(2 (2 (2 (3 (written))(2 (2 (by))(2 (2 (2 (2 (Charlie))(2 (Kaufman)))(2 (and)))(2 (2 (2 (2 (2 (his))(2 (2 (twin))(2 (brother))))(2 (,)))(2 (Donald)))(2 (,))))))(2 (and)))(2 (2 (directed))(2 (2 (by))(2 (2 (Spike))(2 (Jonze))))))))))))(2 (.)))) |BT| (ROOT (S (NP (NP (DT (The))(NN (pain))(, (,))(NN (loneliness))(CC (and))(NN (insecurity)))(PP (IN (of))(NP (DT (the))(VBG (screenwriting))(NN (process)))))(VP (VP (VBP (are))(ADVP (RB (vividly))))(CC (and))(ADVP (RB (painfully)))(VP (VBD (brought))(S (VP (TO (to))(VP (VB (slovenly))(NP (NN (life)))(PP (IN (in))(NP (NP (NP (DT (this)))(VP (VP (NN (self))(HYPH (-))(VBG (deprecating)))(, (,))(VP (VBG (biting)))))(CC (and))(NP (NP (JJ (witty))(NN (feature)))(VP (VP (VBN (written))(PP (IN (by))(NP (NP (NNP (Charlie))(NNP (Kaufman)))(CC (and))(NP (NP (PRP$ (his))(JJ (twin))(NN (brother)))(, (,))(NP (NNP (Donald)))(, (,))))))(CC (and))(VP (VBN (directed))(PP (IN (by))(NP (NNP (Spike))(NNP (Jonze))))))))))))))(. (.)))) |ET| 
0.0033003615034174356955565254878593  |BT| (ROOT (2 (A))(3 (3 (stylish))(2 (3 (thriller))(2 (.))))) |BT| (ROOT (NP (DT (A))(ADJP (JJ (stylish)))(NN (thriller))(. (.)))) |ET| 
0.0033003615034174356955565254878593  |BT| (ROOT (2 (A))(4 (3 (gripping))(3 (1 (drama))(2 (.))))) |BT| (ROOT (NP (DT (A))(JJ (gripping))(NN (drama))(. (.)))) |ET| 
0.0033003615034174356955565254878593  |BT| (ROOT (3 (2 (1 (-LRB-))(2 (2 (A))(3 (-RRB-))))(3 (3 (3 (real))(4 (pleasure)))(3 (2 (in))(3 (2 (its))(2 (3 (laid-back))(2 (way)))))))(2 (.))) |BT| (ROOT (PP (IN (-LRB-))(NP (NP (DT (A))(JJ (-RRB-))(JJ (real))(NN (pleasure)))(PP (IN (in))(NP (PRP$ (its))(ADJP (VBN (laid))(HYPH (-))(RP (back)))(NN (way)))))(. (.)))) |ET| 
-0.0033003615034174356955565254878593  |BT| (ROOT (2 (Charlotte))(4 (2 (Sometimes))(4 (3 (2 (is))(4 (2 (a))(3 (gem))))(2 (.))))) |BT| (ROOT (S (NP (NNP (Charlotte)))(ADVP (RB (Sometimes)))(VP (VBZ (is))(NP (DT (a))(NN (gem))))(. (.)))) |ET| 
-0.0016475796737505951725794028916994  |BT| (ROOT (2 (...))(3 (3 (3 (2 (a))(2 (2 (guiltless))(2 (film))))(3 (2 (for))(3 (3 (nice))(2 (2 (evening))(1 (out))))))(2 (.)))) |BT| (ROOT (FRAG (NFP (...))(NP (DT (a))(ADJP (JJ (guiltless)))(NN (film)))(PP (IN (for))(NP (JJ (nice))(NN (evening))(RP (out))))(. (.)))) |ET| 
-0.0033003615034174356955565254878593  |BT| (ROOT (2 (2 (By))(1 (no)))(3 (3 (2 (means))(4 (2 (a))(4 (4 (great))(2 (movie)))))(3 (3 (2 (2 (,))(2 (but)))(4 (2 (it))(3 (2 (is))(4 (2 (a))(3 (3 (3 (refreshingly))(2 (forthright)))(2 (one)))))))(2 (.))))) |BT| (ROOT (S (S (ADVP (IN (By))(DT (no)))(VP (VBZ (means))(NP (DT (a))(JJ (great))(NN (movie)))))(, (,))(CC (but))(S (NP (PRP (it)))(VP (VBZ (is))(NP (DT (a))(ADJP (RB (refreshingly))(JJ (forthright)))(NN (one)))))(. (.)))) |ET| 
0.0029098668167564880650266534445336  |BT| (ROOT (1 (2 (Impossible))(2 (2 (as))(2 (2 (it))(2 (2 (may))(2 (sound))))))(3 (2 (,))(3 (2 (2 (2 (this))(2 (2 (film))(2 ('s))))(2 (heart)))(3 (3 (3 (2 (2 (2 (is))(2 (2 (even))(2 (more))))(3 (4 (embracing))(2 (2 (than))(2 (Monty)))))(2 (,)))(1 (2 (if))(2 (2 (only))(2 (2 (because))(1 (2 (it))(2 (2 (accepts))(2 (2 (0 (nasty))(0 (2 (behavior))(2 (2 (and))(0 (2 (severe))(1 (flaws))))))(2 (2 (as))(2 (2 (part))(2 (2 (of))(2 (2 (the))(2 (2 (human))(2 (condition))))))))))))))(2 (.)))))) |BT| (ROOT (S (S (ADJP (JJ (Impossible))(SBAR (IN (as))(S (NP (PRP (it)))(VP (MD (may))(VP (VB (sound))))))))(, (,))(NP (NP (DT (this))(NN (film))(POS ('s)))(NN (heart)))(VP (VBZ (is))(ADVP (RB (even))(RBR (more)))(VP (VBG (embracing))(PP (IN (than))(NP (NP (NNP (Monty)))(, (,))(CONJP (IN (if))(RB (only)))(SBAR (IN (because))(S (NP (PRP (it)))(VP (VBZ (accepts))(NP (NP (JJ (nasty))(NN (behavior)))(CC (and))(NP (JJ (severe))(NNS (flaws))))(PP (IN (as))(NP (NP (NN (part)))(PP (IN (of))(NP (DT (the))(JJ (human))(NN (condition)))))))))))))(. (.)))) |ET| 
0.00040351229664137278334984371142014  |BT| (ROOT (4 (3 (4 (4 (2 (2 (The))(2 (2 (art))(2 (direction))))(4 (2 (is))(3 (2 (often))(4 (exquisite)))))(2 (,)))(2 (and)))(3 (2 (2 (the))(2 (3 (anthropomorphic))(2 (3 (animal))(2 (characters)))))(3 (3 (2 (are))(3 (beautifully)))(2 (3 (3 (2 (realized))(3 (2 (through))(3 (4 (clever))(2 (2 (makeup))(2 (design))))))(2 (,)))(2 (2 (2 (leaving))(2 (one)))(2 (2 (to))(2 (4 (hope))(2 (2 (that))(2 (2 (2 (the))(2 (2 (eventual))(2 (2 (DVD))(2 (release)))))(2 (2 (will))(2 (2 (offer))(2 (2 (2 (subtitles))(2 (and)))(2 (2 (the))(2 (3 (original))(2 (2 (Italian-language))(2 (soundtrack)))))))))))))))))(2 (.))) |BT| (ROOT (S (S (NP (DT (The))(NN (art))(NN (direction)))(VP (VBZ (is))(ADJP (RB (often))(JJ (exquisite)))))(, (,))(CC (and))(S (NP (DT (the))(JJ (anthropomorphic))(NN (animal))(NNS (characters)))(VP (VBP (are))(ADVP (RB (beautifully)))(VP (VBN (realized))(PP (IN (through))(NP (JJ (clever))(NN (makeup))(NN (design))))(, (,))(S (VP (VBG (leaving))(NP (CD (one)))(PP (IN (to))(NP (NN (hope))))(SBAR (IN (that))(S (NP (DT (the))(JJ (eventual))(NN (DVD))(NN (release)))(VP (MD (will))(VP (VB (offer))(NP (NP (NNS (subtitles)))(CC (and))(NP (DT (the))(JJ (original))(NML (JJ (Italian))(HYPH (-))(NN (language)))(NN (soundtrack)))))))))))))(. (.)))) |ET| 
0.0033003615034174356955565254878593  |BT| (ROOT (2 (A))(3 (3 (2 (must))(3 (2 (2 (for))(2 (2 (2 (3 (fans))(2 (2 (of))(2 (2 (British))(2 (cinema)))))(2 (,)))(2 (2 (if))(2 (only)))))(2 (2 (because))(2 (2 (2 (2 (2 (so))(2 (many)))(2 (titans)))(2 (2 (of))(2 (2 (the))(2 (industry)))))(2 (2 (2 (are))(2 (along)))(2 (2 (for))(2 (2 (the))(2 (ride)))))))))(2 (.)))) |BT| (ROOT (S (NP (NP (DT (A))(MD (must)))(PP (PP (IN (for))(NP (NP (NNS (fans)))(PP (IN (of))(NP (JJ (British))(NN (cinema))))))(, (,))(CONJP (IN (if))(RB (only)))(PP (IN (because))(NP (NP (ADJP (RB (so))(JJ (many)))(NNS (titans)))(PP (IN (of))(NP (DT (the))(NN (industry))))))))(VP (VBP (are))(PP (IN (along))(PP (IN (for))(NP (DT (the))(NN (ride))))))(. (.)))) |ET| 
-0.0017162560640606465325180840508779  |BT| (ROOT (1 (0 (1 (1 (Stuffy))(2 (,)))(1 (3 (full))(2 (2 (of))(2 (itself)))))(2 (,)))(1 (1 (3 (morally))(2 (3 (2 (3 (ambiguous))(2 (and)))(1 (nothing)))(2 (2 (to))(2 (2 (shout))(2 (about))))))(2 (.)))) |BT| (ROOT (NP (NP (NP (NP (JJ (Stuffy))(, (,))(JJ (full)))(PP (IN (of))(NP (PRP (itself)))))(, (,))(ADJP (RB (morally))(JJ (ambiguous))))(CC (and))(NP (NN (nothing))(S (VP (TO (to))(VP (VB (shout))(ADVP (RB (about)))))))(. (.)))) |ET| 
-0.00095857429525031802395457214416297  |BT| (ROOT (1 (2 (2 (Were))(2 (it)))(1 (1 (not))(2 (2 (for))(2 (2 (2 (a))(2 (3 (sentimental))(2 (resolution))))(2 (2 (that))(2 (2 (2 (explains))(2 (2 (2 (way))(2 (more)))(2 (2 (about))(2 (Cal)))))(2 (2 (than))(2 (2 (does))(2 (2 (2 (2 (2 (the))(2 (movie)))(2 (or)))(2 (2 (the))(2 (character))))(2 (2 (any))(3 (good))))))))))))(3 (2 (,))(3 (3 (2 (2 (Freundlich))(2 ('s)))(2 (2 (World))(2 (Traveler))))(4 (4 (2 (might))(4 (2 (have))(4 (2 (been))(3 (2 (one))(3 (2 (of))(3 (3 (2 (the))(3 (3 (2 (more))(3 (2 (2 (daring))(2 (and)))(2 (surprising))))(2 (2 (American))(2 (movies)))))(2 (2 (of))(2 (2 (the))(2 (year))))))))))(2 (.)))))) |BT| (ROOT (SQ (VBD (Were))(NP (PRP (it)))(SBAR (RB (not))(IN (for))(S (NP (NP (DT (a))(JJ (sentimental))(NN (resolution)))(SBAR (WHNP (WDT (that)))(S (VP (VBZ (explains))(ADJP (ADJP (RB (way))(JJR (more)))(PP (IN (about))(NP (NNP (Cal)))))(SBAR (IN (than))(SINV (VP (VBZ (does))(NP (NP (DT (the))(NN (movie)))(CC (or))(NP (DT (the))(NN (character)))))(NP (NP (DT (any))(JJ (good)))(, (,))(NP (NP (NNP (Freundlich))(POS ('s)))(NNP (World))(NN (Traveler))))))))))(VP (MD (might))(VP (VB (have))(VP (VBN (been))(NP (NP (NP (CD (one)))(PP (IN (of))(NP (DT (the))(JJR (more))(NN (daring)))))(CC (and))(NP (NP (JJ (surprising))(JJ (American))(NNS (movies)))(PP (IN (of))(NP (DT (the))(NN (year)))))))))))(. (.)))) |ET| 
-0.0033003615034174356955565254878593  |BT| (ROOT (0 (1 (under-rehearsed))(2 (and)))(2 (lifeless))) |BT| (ROOT (FRAG (SBAR (IN (under))(HYPH (-))(FRAG (UCP (VP (VBN (rehearsed)))(CC (and))(ADJP (JJ (lifeless)))))))) |ET| 
0.0033003615034174356955565254878593  |BT| (ROOT (3 (3 (3 (2 (Brutally))(4 (honest)))(2 (and)))(4 (2 (told))(3 (2 (with))(3 (3 (4 (humor))(2 (and)))(1 (poignancy))))))(2 (2 (,))(3 (2 (which))(3 (3 (2 (makes))(2 (2 (its))(3 (2 (message))(2 (resonate)))))(2 (.)))))) |BT| (ROOT (SINV (ADVP (RB (Brutally)))(ADJP (JJ (honest)))(VP (CC (and))(VP (VBD (told))(PP (IN (with)))))(NP (NP (NN (humor))(CC (and))(NN (poignancy)))(, (,))(SBAR (WHNP (WDT (which)))(S (VP (VBZ (makes))(S (NP (PRP$ (its))(NN (message)))(VP (VB (resonate))))))))(. (.)))) |ET| 
0.0033003615034174356955565254878593  |BT| (ROOT (2 (This))(4 (4 (2 (is))(3 (2 (a))(4 (3 (superior))(2 (1 (horror))(2 (flick))))))(2 (.)))) |BT| (ROOT (S (NP (DT (This)))(VP (VBZ (is))(NP (DT (a))(JJ (superior))(NN (horror))(NN (flick))))(. (.)))) |ET| 
0.0016260114708250726286986598267958  |BT| (ROOT (4 (3 (2 (A))(3 (3 (slam-bang))(3 (extravaganza))))(2 (that)))(4 (3 (2 (is))(3 (2 (all))(4 (2 (about))(4 (2 (a))(3 (3 (wild-and-woolly))(4 (2 (,))(4 (2 (wall-to-wall))(3 (3 (good))(2 (time))))))))))(2 (.)))) |BT| (ROOT (NP (NP (DT (A))(NML (NN (slam))(HYPH (-))(NN (bang)))(NN (extravaganza)))(SBAR (WHNP (WDT (that)))(S (VP (VBZ (is))(RB (all))(ADVP (IN (about)))(NP (DT (a))(ADJP (JJ (wild))(HYPH (-))(CC (and))(HYPH (-))(JJ (woolly)))(, (,))(NML (NML (NN (wall)))(HYPH (-))(PP (IN (to))(HYPH (-))(NP (NN (wall)))))(JJ (good))(NN (time))))))(. (.)))) |ET| 
-0.0020895250105632092244012376625051  |BT| (ROOT (3 (2 (A))(3 (3 (3 (4 (4 (perfectly))(4 (pleasant)))(2 (if)))(1 (2 (slightly))(1 (pokey))))(3 (comedy))))(2 (.))) |BT| (ROOT (NP (DT (A))(ADJP (ADJP (RB (perfectly))(JJ (pleasant)))(IN (if))(ADJP (RB (slightly))(JJ (pokey))))(NN (comedy))(. (.)))) |ET| 
-0.0027469691095416103043813649264848  |BT| (ROOT (3 (2 (1 (-LRB-))(2 (2 (A))(3 (-RRB-))))(3 (4 (satisfying))(2 (niblet))))(2 (.))) |BT| (ROOT (S (PP (IN (-LRB-))(NP (DT (A))(ADJP (JJ (-RRB-))(JJ (satisfying)))(NN (niblet))))(. (.)))) |ET| 
-0.0033003615034174356955565254878593  |BT| (ROOT (4 (2 (A))(4 (4 (great))(2 (script))))(0 (1 (1 (2 (brought))(2 (down)))(1 (2 (by))(1 (0 (lousy))(2 (direction)))))(2 (.)))) |BT| (ROOT (S (NP (DT (A))(JJ (great))(NN (script)))(VP (VBD (brought))(PRT (RP (down)))(PP (IN (by))(NP (JJ (lousy))(NN (direction)))))(. (.)))) |ET| 
