SVM-light Version V5.01-TK-1.5
5 # kernel type
3 # kernel parameter -d 
1 # kernel parameter -g 
1 # kernel parameter -s 
1 # kernel parameter -r 
empty# kernel parameter -u 
0.2 # kernel parameter -L 
1 # kernel parameter -T 
T # kernel parameter -C 
-1 # kernel parameter -F 
1 # kernel parameter -S 
0.400000 # kernel parameter -M 
1 # kernel parameter -N 
S # kernel parameter -V 
A # kernel parameter -W 
0 # kernel parameter -U 
10 # highest feature index 
8544 # number of training documents 
2486 # number of support vectors plus 1 
0.95156116 # threshold b, each following line is a SV (starting with alpha*y)
1  |BT| (ROOT (2 (Crush))(0 (0 (2 (could))(0 (2 (be))(0 (0 (2 (the))(0 (0 (worst))(2 (film))))(3 (2 (2 (a))(2 (man)))(2 (2 (has))(2 (2 (made))(2 (2 (about))(2 (2 (women))(2 (2 (since))(3 (2 (Valley))(2 (2 (of))(2 (2 (the))(2 (Dolls))))))))))))))(2 (.)))) |ET| 
-0.2645487256405820719606936108903  |BT| (ROOT (1 (2 (2 (The))(2 (2 (movie))(2 ('s))))(2 (1 (heavy-handed))(2 (screenplay))))(1 (1 (2 (2 (navigates))(1 (2 (a))(1 (2 (fast))(2 (fade)))))(1 (2 (into))(0 (3 (1 (pomposity))(2 (and)))(1 (pretentiousness)))))(2 (.)))) |ET| 
-0.027969211086607059096875715908936  |BT| (ROOT (2 (2 (At))(2 (2 (some))(2 (point))))(1 (2 (,))(0 (2 (2 (all))(1 (2 (this))(2 (2 (visual))(1 (trickery)))))(1 (1 (2 (stops))(2 (2 (2 (being))(2 (3 (4 (clever))(2 (and)))(1 (devolves))))(2 (2 (into))(2 (3 (flashy))(1 (2 (,))(1 (2 (vaguely))(1 (3 (silly))(2 (overkill)))))))))(2 (.)))))) |ET| 
-0.19461781529526916978412032221968  |BT| (ROOT (1 (2 (An))(1 (inconsequential)))(2 (2 (,))(2 (2 (barely))(2 (2 (there))(1 (2 (2 (bit))(1 (2 (of))(1 (piffle))))(2 (.))))))) |ET| 
-1  |BT| (ROOT (0 (1 (1 (1 (2 (2 (Trying))(2 (2 (to))(2 (2 (make))(2 (2 (2 (2 (head))(2 (or)))(2 (tail)))(2 (2 (of))(2 (2 (2 (the))(2 (story)))(2 (2 (in))(2 (2 (the))(3 (2 (hip-hop))(2 (2 (indie))(2 (Snipes))))))))))))(1 (2 (is))(1 (2 (enough))(1 (2 (to))(2 (3 (3 (give))(2 (you)))(1 (2 (brain))(1 (strain))))))))(2 (--)))(2 (and)))(1 (2 (2 (the))(2 (pay-off)))(2 (2 (is))(1 (negligible)))))(2 (.))) |ET| 
1  |BT| (ROOT (1 (0 (1 (2 (1 (0 (2 (...))(0 (0 (2 (a))(1 (1 (sour))(2 (2 (little))(2 (movie)))))(2 (2 (at))(2 (2 (3 (2 (its))(2 (core)))(2 (;)))(2 (2 (2 (2 (an))(2 (exploration)))(2 (2 (of))(2 (2 (the))(1 (emptiness)))))(2 (2 (that))(2 (2 (underlay))(1 (2 (the))(2 (2 (relentless))(2 (gaiety)))))))))))(2 (2 (of))(2 (2 (the))(2 (1920)))))(2 ('s)))(2 (...)))(1 (2 (2 (2 (The))(2 (2 (film))(2 ('s))))(2 (ending)))(1 (2 (has))(2 (2 (2 (a))(2 (``)))(2 (2 (What))(2 (2 (2 (was))(2 (it)))(2 (2 (all))(2 (for)))))))))(2 (?)))(2 (''))) |ET| 
-0.16075600200916984050536484573968  |BT| (ROOT (2 (2 (Would))(3 (1 (2 (be))(2 (0 (2 (an))(0 (0 (unendurable))(2 (2 (viewing))(2 (experience)))))(2 (2 (for))(2 (2 (this))(2 (2 (ultra-provincial))(2 (3 (New))(2 (Yorker))))))))(2 (2 (if))(2 (2 (2 (26-year-old))(2 (2 (Reese))(2 (Witherspoon))))(2 (2 (2 (2 (were))(1 (not)))(2 (2 (on))(2 (hand))))(4 (2 (to))(4 (2 (inject))(3 (2 (2 (3 (3 (2 (her))(2 (4 (pure))(2 (3 (fantasy))(2 (character)))))(2 (,)))(2 (2 (Melanie))(3 (Carmichael))))(2 (,)))(3 (2 (with))(3 (1 (2 (a))(2 (2 (massive))(2 (infusion))))(3 (2 (of))(4 (2 (old-fashioned))(4 (2 (Hollywood))(2 (magic)))))))))))))))(2 (.))) |ET| 
1  |BT| (ROOT (2 (A))(2 (0 (1 (2 (decided))(1 (2 (lack))(3 (2 (of))(2 (3 (3 (2 (spontaneity))(2 (2 (in))(2 (2 (its))(2 (execution)))))(2 (and)))(2 (3 (2 (a))(2 (dearth)))(2 (2 (of))(3 (3 (real))(1 (poignancy)))))))))(2 (2 (in))(2 (2 (its))(3 (epiphanies)))))(2 (.)))) |ET| 
1  |BT| (ROOT (0 (1 (1 (1 (2 (You))(1 (2 ('ll))(1 (2 (1 (1 (1 (forget))(2 (2 (about))(2 (it))))(2 (2 (by))(2 (Monday))))(2 (,)))(2 (though)))))(2 (,)))(2 (and)))(2 (2 (2 (if))(2 (2 (they))(2 (2 ('re))(3 (2 (2 (old))(2 (enough)))(2 (2 (to))(3 (2 (have))(2 (3 (developed))(2 (2 (some))(2 (taste))))))))))(2 (2 (,))(2 (2 (so))(2 (2 (will))(3 (2 (your))(2 (kids))))))))(2 (.))) |ET| 
1  |BT| (ROOT (1 (2 (2 (2 (2 (2 (2 (The))(3 (2 (Ya-Ya))(2 ('s))))(2 (2 (have))(2 (2 (many))(2 (secrets)))))(2 (and)))(2 (2 (one))(2 (is))))(2 (-)))(1 (2 (2 (the))(2 (books)))(2 (2 (are))(4 (better)))))(2 (.))) |ET| 
-1  |BT| (ROOT (1 (2 (After))(2 (2 (a))(2 (while))))(0 (2 (,))(1 (0 (2 (2 (the))(2 (2 (only))(2 (way))))(1 (2 (for))(2 (2 (a))(2 (3 (2 (reasonably))(3 (intelligent)))(2 (2 (person))(2 (2 (to))(2 (2 (get))(2 (2 (through))(2 (2 (The))(2 (3 (Country))(2 (Bears))))))))))))(1 (1 (2 (is))(1 (2 (to))(2 (2 (ponder))(2 (2 (how))(1 (2 (2 (2 (a))(2 (2 (whole))(2 (segment))))(2 (2 (of))(2 (2 (pop-music))(2 (history)))))(1 (2 (has))(1 (2 (been))(2 (2 (allowed))(2 (2 (to))(2 (2 (get))(2 (2 (wet))(2 (2 (,))(2 (2 (3 (fuzzy))(2 (and)))(2 (sticky)))))))))))))))(2 (.)))))) |ET| 
-1  |BT| (ROOT (2 (1 (0 (0 (2 (There))(0 (2 ('s))(1 (1 (no))(3 (3 (real))(3 (2 (reason))(2 (2 (to))(3 (2 (see))(2 (it)))))))))(2 (,)))(2 (and)))(2 (3 (1 (no))(2 (3 (real))(2 (reason))))(2 (1 (not))(2 (to)))))(2 (.))) |ET| 
-1  |BT| (ROOT (2 (It))(0 (0 (2 ('s))(0 (2 (just))(0 (2 (that))(0 (2 (it))(0 (2 ('s))(0 (2 (so))(0 (not-at-all-good))))))))(2 (.)))) |ET| 
1  |BT| (ROOT (2 (1 (Devoid))(2 (2 (of))(2 (2 (any))(3 (2 (of))(3 (3 (2 (the))(3 (qualities)))(3 (2 (that))(3 (2 (made))(3 (2 (2 (the))(2 (2 (first))(2 (film))))(3 (2 (so))(3 (special)))))))))))(2 (.))) |ET| 
1  |BT| (ROOT (2 (2 (What))(2 (2 (might))(2 (2 (have))(2 (2 (been))(2 (3 (acceptable))(2 (2 (on))(2 (2 (2 (the))(2 (2 (printed))(2 (page))))(2 (2 (of))(2 (2 (3 (Iles))(2 (')))(2 (book)))))))))))(2 (1 (2 (2 (does))(1 (not)))(3 (3 (2 (translate))(3 (well)))(2 (2 (to))(2 (2 (the))(2 (screen))))))(2 (.)))) |ET| 
1  |BT| (ROOT (2 (2 (2 (A))(2 (2 (period))(2 (story))))(2 (2 (about))(2 (2 (2 (a))(2 (2 (Catholic))(2 (boy))))(2 (2 (who))(2 (2 (tries))(2 (2 (to))(2 (2 (help))(2 (2 (a))(2 (2 (Jewish))(3 (friend)))))))))))(2 (1 (3 (2 (get))(3 (2 (into))(3 (heaven))))(1 (2 (by))(0 (3 (2 (sending))(2 (2 (the))(2 (audience))))(2 (2 (straight))(1 (2 (to))(0 (hell)))))))(2 (.)))) |ET| 
-0.065804067968129834054202831339353  |BT| (ROOT (3 (2 (3 (Wise))(2 (and)))(2 (deadpan)))(3 (3 (humorous))(2 (.)))) |ET| 
-0.41079404251234313827367827798298  |BT| (ROOT (1 (0 (1 (2 (Exhibits))(1 (1 (2 (the))(2 (2 (shallow))(2 (2 (sensationalism))(2 (characteristic)))))(2 (2 (of))(1 (2 (soap))(2 (opera))))))(2 (...)))(1 (2 (2 (2 (more))(2 (salacious)))(2 (telenovela)))(2 (2 (than))(2 (2 (serious))(1 (drama))))))(2 (.))) |ET| 
-1  |BT| (ROOT (2 (There))(2 (2 (2 (is))(2 (3 (2 (a))(3 (freedom)))(2 (2 (to))(2 (2 (watching))(2 (2 (stunts))(1 (2 (that))(2 (2 (are))(1 (2 (2 (0 (0 (2 (this))(1 (crude)))(2 (,)))(3 (2 (this))(3 (fast-paced))))(2 (and)))(1 (2 (this))(1 (insane)))))))))))(2 (.)))) |ET| 
1  |BT| (ROOT (2 (There))(1 (1 (2 ('s))(1 (1 (no))(3 (energy))))(2 (.)))) |ET| 
1  |BT| (ROOT (2 (It))(1 (1 (2 ('s))(2 (2 (that))(1 (painful))))(2 (.)))) |ET| 
1  |BT| (ROOT (1 (2 (Whether))(0 (2 (2 (Jason))(2 (X)))(0 (2 (is))(0 (2 (this))(2 (0 (bad))(2 (2 (on))(3 (purpose))))))))(1 (1 (2 (2 (is))(2 (never)))(2 (clear)))(2 (.)))) |ET| 
-0.79653914750193288707436067852541  |BT| (ROOT (2 (It))(1 (1 (2 ('s))(0 (drab)))(2 (.)))) |ET| 
-0.80996117652951737930777653673431  |BT| (ROOT (2 (It))(1 (1 (1 (2 (is))(2 (n't)))(2 (scary)))(2 (.)))) |ET| 
-1  |BT| (ROOT (2 (A))(1 (1 (mess))(2 (.)))) |ET| 
1  |BT| (ROOT (2 (2 (2 (2 (2 (What))(2 (2 (you))(2 (expect))))(2 (2 (is))(2 (2 (2 (just))(2 (what)))(2 (2 (you))(2 (get))))))(2 (...)))(1 (2 (2 (assuming))(2 (2 (2 (the))(2 (bar)))(2 (2 (of))(2 (expectations)))))(2 (2 (2 (has))(2 (n't)))(2 (2 (been))(2 (2 (raised))(2 (2 (above))(2 (2 (sixth-grade))(2 (height)))))))))(2 (.))) |ET| 
1  |BT| (ROOT (3 (2 (2 (The))(1 (problem)))(2 (2 (with))(2 (2 (ANTWONE))(2 (FISHER)))))(3 (2 (2 (is))(2 (2 (that))(2 (2 (it))(2 (2 (has))(2 (2 (2 (a))(2 (screenplay)))(2 (3 (written))(2 (2 (by))(2 (2 (2 (Antwone))(2 (Fisher)))(2 (2 (2 (based))(2 (2 (on))(2 (2 (the))(2 (book)))))(2 (2 (by))(2 (2 (Antwone))(2 (Fisher)))))))))))))(2 (.)))) |ET| 
1  |BT| (ROOT (2 (2 (2 (1 (Unspeakable))(2 (,)))(2 (2 (of))(2 (course))))(2 (,)))(2 (2 (barely))(2 (2 (2 (begins))(2 (2 (to))(2 (2 (describe))(2 (2 (2 (2 (the))(2 (plot)))(2 (and)))(2 (2 (its))(1 (complications)))))))(2 (.))))) |ET| 
-0.093407975016267644208234344205266  |BT| (ROOT (2 (2 (The))(2 (3 (Country))(2 (Bears))))(2 (3 (2 (has))(3 (2 (1 (no))(2 (scenes)))(1 (2 (that))(1 (2 (will))(2 (2 (2 (2 (upset))(2 (or)))(2 (frighten)))(2 (2 (young))(2 (viewers))))))))(2 (.)))) |ET| 
-1  |BT| (ROOT (2 (2 (The))(2 (film)))(1 (0 (0 (0 (1 (0 (2 (2 (2 (2 (was))(2 (2 (2 (2 (produced))(2 (2 (by))(2 (2 (Jerry))(2 (Bruckheimer)))))(2 (and)))(2 (2 (directed))(2 (2 (by))(2 (2 (Joel))(2 (Schumacher)))))))(2 (,)))(2 (and)))(1 (2 (reflects))(1 (0 (2 (the))(0 (worst)))(2 (2 (of))(1 (2 (their))(1 (2 (shallow))(2 (styles))))))))(2 (:)))(0 (0 (2 (1 (1 (2 (wildly))(1 (overproduced)))(2 (,)))(1 (1 (inadequately))(3 (motivated))))(2 (2 (every))(2 (step))))(2 (2 (of))(2 (2 (the))(2 (way))))))(2 (and)))(2 (2 (demographically))(2 (2 (targeted))(2 (2 (to))(2 (2 (please))(1 (2 (2 (every))(2 (one)))(2 (1 (-LRB-))(3 (2 (2 (and))(2 (1 (no))(2 (one))))(3 (-RRB-))))))))))(2 (.)))) |ET| 
-1  |BT| (ROOT (2 (2 (The))(2 (narrative)))(0 (0 (1 (2 (is))(1 (2 (so))(1 (2 (consistently))(1 (unimaginative)))))(1 (2 (that))(1 (2 (2 (probably))(2 (2 (the))(2 (2 (only))(2 (way)))))(3 (2 (to))(1 (2 (have))(3 (2 (saved))(2 (2 (2 (the))(2 (film)))(2 (2 (is))(2 (2 (with))(2 (2 (2 (the))(2 (aid)))(2 (2 (of))(2 (2 (those))(3 (2 (wisecracking))(2 (2 (Mystery))(2 (2 (Science))(2 (2 (Theater))(2 (3 (3000))(2 (guys)))))))))))))))))))(2 (.)))) |ET| 
1  |BT| (ROOT (2 (Generic))(1 (1 (3 (thriller))(2 (junk)))(2 (.)))) |ET| 
1  |BT| (ROOT (2 (It))(1 (1 (2 ('s))(1 (uninteresting)))(2 (.)))) |ET| 
1  |BT| (ROOT (0 (1 (1 (1 (1 (1 (2 (Weighted))(2 (down)))(2 (2 (with))(1 (slow))))(2 (,)))(1 (1 (uninvolving))(2 (storytelling))))(2 (and)))(1 (1 (flat))(2 (acting))))(2 (.))) |ET| 
-0.74579059701986427644015975602088  |BT| (ROOT (1 (2 (An))(1 (1 (1 (1 (2 (imponderably))(1 (stilted)))(2 (and)))(1 (1 (self-consciously))(2 (arty))))(2 (movie))))(2 (.))) |ET| 
-1  |BT| (ROOT (1 (2 (as))(1 (2 (in))(1 (1 (1 (1 (1 (1 (aimless))(2 (,)))(1 (arduous)))(2 (,)))(2 (and)))(2 (arbitrary)))))(2 (.))) |ET| 
-0.7076638163276263160383905415074  |BT| (ROOT (2 (`))(2 (2 (2 (2 (1 (Linklater))(2 (3 (fans))(2 (,))))(2 (or)))(1 (1 (1 (pretentious))(2 (types)))(2 (2 (who))(2 (2 (want))(2 (2 (to))(3 (2 (appear))(2 (avant-garde))))))))(2 (2 (2 (2 (will))(2 (1 (1 (suck))(2 (up)))(2 (2 (to))(2 (2 (this))(2 (project))))))(2 (...)))(2 ('))))) |ET| 
1  |BT| (ROOT (0 (2 (2 (2 (2 (2 (2 (Build))(2 (2 (some))(2 (robots))))(2 (,)))(2 (3 (2 (2 (haul))(2 ('em)))(2 (2 (to))(2 (2 (the))(2 (theatre)))))(2 (2 (with))(2 (2 (you))(2 (2 (for))(2 (2 (the))(2 (2 (late))(2 (show)))))))))(2 (,)))(2 (and)))(0 (2 (2 (2 (put))(2 (on)))(3 (2 (your))(3 (2 (own))(2 (2 (Mystery))(2 (2 (Science))(2 (2 (Theatre))(2 (3 (3000))(3 (tribute)))))))))(0 (2 (to))(0 (2 (what))(0 (3 (2 (is))(2 (2 (almost))(3 (certainly))))(1 (2 (going))(0 (2 (to))(0 (2 (2 (go))(2 (down)))(0 (2 (as))(2 (1 (2 (the))(0 (0 (0 (worst))(2 (2 (2 (2 (--))(2 (and)))(2 (only)))(2 (--))))(3 (1 (killer))(2 (2 (website))(2 (movie))))))(2 (2 (of))(2 (2 (2 (this))(2 (or)))(2 (2 (any))(2 (2 (other))(2 (year))))))))))))))))(2 (.))) |ET| 
1  |BT| (ROOT (2 (3 (Like))(2 (2 (Rudy))(2 (2 (Yellow))(2 (Lodge)))))(0 (2 (,))(1 (2 (Eyre))(1 (2 (2 (needs))(2 (2 (to))(2 (2 (2 (take))(2 (2 (a))(3 (3 (good))(2 (sweat)))))(2 (2 (to))(2 (2 (2 (2 (2 (clarify))(3 (2 (his))(2 (3 (cinematic))(2 (vision)))))(2 (2 (before))(2 (2 (his))(2 (2 (next))(2 (creation))))))(2 (and)))(2 (2 (remember))(2 (2 (2 (the))(2 (lessons)))(2 (2 (of))(2 (2 (the))(2 (2 (trickster))(2 (spider))))))))))))(2 (.)))))) |ET| 
1  |BT| (ROOT (0 (3 (2 (2 (2 (There))(2 (2 (must))(2 (2 (be))(2 (2 (2 (an))(2 (audience)))(2 (2 (that))(3 (3 (enjoys))(2 (2 (the))(2 (2 (Friday))(2 (series))))))))))(2 (,)))(2 (but)))(2 (2 (I))(2 (2 (2 (would))(2 (n't)))(3 (2 (be))(2 (3 (interested))(2 (2 (in))(2 (2 (2 (knowing))(2 (2 (any))(2 (2 (of))(2 (them)))))(2 (personally)))))))))(2 (.))) |ET| 
-1  |BT| (ROOT (0 (1 (2 (A))(0 (0 (wretched))(2 (movie))))(2 (2 (that))(2 (2 (reduces))(2 (2 (2 (the))(2 (2 (Second))(2 (2 (World))(1 (War)))))(2 (2 (to))(2 (2 (one))(2 (man))))))))(2 (2 (2 ('s))(2 (2 (quest))(3 (2 (to))(2 (2 (find))(2 (2 (an))(2 (2 (old))(2 (flame))))))))(2 (.)))) |ET| 
-0.38931736789892884553765384225699  |BT| (ROOT (2 (2 (In))(2 (2 (this))(2 (film))))(2 (2 (,))(1 (2 (2 (Aussie))(2 (2 (David))(2 (Caesar))))(2 (2 (2 (channels))(2 (2 (2 (the))(2 (2 (not-quite-dead))(3 (career))))(3 (2 (of))(2 (2 (Guy))(2 (Ritchie))))))(2 (.)))))) |ET| 
-0.14071377479243993291468939332844  |BT| (ROOT (1 (1 (1 (1 (2 (2 (The))(2 (1 (darker))(2 (elements))))(1 (2 (of))(1 (1 (2 (1 (misogyny))(2 (and)))(2 (unprovoked)))(0 (violence)))))(1 (1 (suffocate))(2 (2 (2 (the))(2 (illumination)))(2 (2 (created))(2 (2 (by))(2 (2 (the))(2 (2 (two))(2 (daughters)))))))))(2 (and)))(2 (1 (2 (2 (the))(1 (2 (sparse))(2 (instances))))(2 (2 (of))(4 (humor))))(2 (2 (meant))(1 (2 (to))(3 (4 (shine))(1 (2 (through))(1 (2 (the))(1 (2 (gloomy))(2 (2 (film))(1 (2 (noir))(2 (veil))))))))))))(2 (.))) |ET| 
1  |BT| (ROOT (2 (And))(1 (2 (it))(1 (1 (1 (1 (2 ('s))(1 (1 (not))(2 (2 (that))(3 (funny)))))(2 (--)))(2 (2 (which))(1 (2 (2 (is))(2 (just)))(1 (2 (generally))(1 (insulting))))))(2 (.))))) |ET| 
1  |BT| (ROOT (1 (1 (1 (1 (Depressingly))(2 (thin)))(2 (and)))(1 (1 (exhaustingly))(2 (contrived))))(2 (.))) |ET| 
1  |BT| (ROOT (2 (...))(1 (1 (2 (a))(1 (1 (bland))(2 (murder-on-campus))))(1 (1 (yawner))(2 (.))))) |ET| 
-1  |BT| (ROOT (2 (2 (The))(2 (film)))(0 (1 (2 (3 (2 (is))(2 (ultimately)))(1 (2 (about))(3 (2 (as))(3 (inspiring)))))(2 (2 (as))(2 (2 (a))(2 (2 (Hallmark))(2 (card))))))(2 (.)))) |ET| 
-0.37567721343265209066331067333522  |BT| (ROOT (2 (...))(1 (1 (0 (1 (2 (2 (a))(1 (pretentious)))(2 (and)))(1 (1 (2 (ultimately))(1 (empty)))(2 (examination))))(3 (2 (of))(1 (2 (a))(1 (2 (1 (1 (sick))(2 (and)))(1 (evil)))(2 (woman))))))(2 (.)))) |ET| 
-1  |BT| (ROOT (0 (2 (Suffers))(1 (2 (from))(1 (1 (1 (2 (a))(2 (1 (flat))(2 (script))))(2 (and)))(2 (2 (a))(1 (2 (low))(2 (budget)))))))(2 (.))) |ET| 
1  |BT| (ROOT (1 (2 (A))(0 (1 (mean-spirited))(2 (film))))(2 (2 (made))(2 (2 (by))(1 (2 (someone))(1 (2 (who))(1 (2 (surely))(2 (2 (2 (2 (2 (read))(2 (2 (The))(2 (Catcher))))(2 (2 (in))(2 (2 (the))(2 (Rye)))))(2 (but)))(2 (2 (clearly))(2 (2 (suffers))(2 (2 (from))(2 (dyslexia)))))))))))) |ET| 
1  |BT| (ROOT (1 (0 (1 (1 (2 (2 (2 (2 (2 (1 (No))(2 (one)))(2 (involved)))(2 (,)))(2 (2 (save))(2 (Dash))))(2 (,)))(2 (2 (shows))(2 (2 (2 (the))(2 (2 (slightest))(2 (aptitude))))(2 (2 (for))(2 (acting))))))(2 (,)))(2 (and)))(1 (2 (2 (2 (2 (2 (the))(2 (script)))(2 (,)))(3 (2 (credited))(2 (2 (to))(2 (2 (2 (2 (director))(2 (2 (Abdul))(2 (2 (Malik))(2 (Abbott)))))(2 (and)))(2 (2 (Ernest))(2 (2 (`))(2 (2 (Tron))(2 (2 ('))(2 (Anderson))))))))))(2 (,)))(2 (2 (seems))(1 (2 (entirely))(2 (improvised))))))(2 (.))) |ET| 
1  |BT| (ROOT (0 (2 (2 (A))(2 (2 (semi-autobiographical))(2 (film))))(1 (2 (that))(0 (2 ('s))(0 (0 (1 (2 (so))(1 (1 (sloppily))(3 (written))))(2 (and)))(2 (2 (cast))(1 (2 (that))(2 (2 (you))(2 (2 (2 (can))(1 (not)))(2 (2 (believe))(2 (2 (anyone))(2 (2 (more))(2 (2 (central))(2 (2 (to))(2 (2 (2 (the))(2 (creation)))(2 (2 (of))(2 (2 (Bugsy))(2 (2 (than))(2 (2 (the))(2 (caterer))))))))))))))))))))(2 (2 (2 (had))(2 (2 (anything))(2 (2 (to))(2 (2 (do))(3 (2 (with))(2 (it)))))))(2 (.)))) |ET| 
-0.14558293482459208623147617345239  |BT| (ROOT (1 (2 (As))(0 (1 (1 (dumb))(2 (and)))(1 (cheesy))))(1 (2 (2 (as))(2 (2 (they))(2 (2 (may))(2 (be)))))(1 (2 (,))(3 (2 (2 (the))(2 (cartoons)))(2 (1 (2 (look))(3 (3 (2 (almost))(3 (2 (Shakespearean))(2 (2 (--))(2 (2 (2 (both))(2 (2 (in))(2 (2 (2 (depth))(2 (and)))(2 (breadth)))))(2 (--))))))(1 (2 (after))(1 (2 (watching))(1 (2 (this))(2 (2 (digital-effects-heavy))(2 (2 (,))(2 (2 (supposed))(3 (3 (family-friendly))(3 (comedy)))))))))))(2 (.))))))) |ET| 
-1  |BT| (ROOT (1 (2 (2 (2 (A))(2 (selection)))(2 (2 (of))(2 (2 (scenes))(2 (2 (in))(2 (search))))))(2 (2 (of))(2 (2 (a))(2 (movie)))))(2 (.))) |ET| 
1  |BT| (ROOT (2 (...))(0 (0 (2 (feels))(1 (2 (as))(2 (2 (if))(2 (2 (1 (-LRB-))(2 (2 (2 (there))(2 ('s)))(3 (-RRB-))))(2 (1 (1 (2 (a))(2 (1 (choke))(2 (leash))))(2 (2 (around))(2 (2 (2 (your))(2 (neck)))(2 (2 (so))(2 (2 (director))(2 (2 (Nick))(2 (Cassavetes))))))))(2 (2 (can))(2 (2 (3 (give))(2 (it)))(2 (3 (2 (a))(2 (3 (good))(2 (2 (,))(2 (2 (hard))(3 (yank))))))(2 (2 (whenever))(3 (2 (he))(2 (3 (wants))(2 (2 (you))(2 (2 (to))(2 (2 (feel))(2 (something))))))))))))))))(2 (.)))) |ET| 
1  |BT| (ROOT (1 (1 (1 (Banal))(2 (and)))(2 (predictable)))(2 (.))) |ET| 
1  |BT| (ROOT (1 (2 (An))(1 (1 (undistinguished))(2 (2 (attempt))(3 (2 (to))(3 (2 (make))(4 (2 (a))(4 (3 (classic))(2 (3 (theater))(2 (piece))))))))))(2 (3 (cinematic))(2 (.)))) |ET| 
1  |BT| (ROOT (3 (2 (Starts))(3 (2 (as))(4 (2 (an))(4 (3 (intense))(3 (2 (2 (2 (political))(2 (and)))(3 (psychological)))(3 (thriller)))))))(1 (2 (but))(1 (1 (2 (is))(1 (1 (sabotaged))(2 (2 (by))(1 (2 (ticking))(2 (1 (1 (2 (time))(1 (bombs)))(2 (and)))(2 (2 (other))(1 (2 (Hollywood-action))(2 (cliches)))))))))(2 (.))))) |ET| 
-0.39914384349057557832551879073435  |BT| (ROOT (1 (1 (2 (Stress))(1 (2 (`))(1 (dumb))))(2 (.)))(2 ('))) |ET| 
-1  |BT| (ROOT (2 (But))(0 (2 (there))(0 (1 (2 ('s))(1 (2 (plenty))(2 (2 (to))(1 (1 (offend))(2 (everyone))))))(2 (...))))) |ET| 
-0.56518460342917398175899279522127  |BT| (ROOT (1 (2 (2 (The))(2 (film)))(1 (2 (1 (2 (does))(2 (n't)))(2 (really)))(2 (3 (care))(1 (2 (about))(1 (2 (2 (2 (the))(2 (thousands)))(2 (2 (of))(3 (Americans))))(1 (2 (who))(0 (0 (die))(0 (hideously)))))))))(2 (2 (,))(2 (2 (it))(2 (2 (3 (cares))(2 (2 (about))(2 (2 (how))(2 (2 (Ryan))(2 (2 (3 (2 (meets))(3 (2 (his))(2 (2 (future))(2 (wife)))))(2 (and)))(2 (2 (2 (makes))(2 (2 (his))(2 (start))))(2 (2 (at))(2 (2 (the))(2 (CIA))))))))))(2 (.)))))) |ET| 
1  |BT| (ROOT (2 (Constantly))(2 (2 (2 (slips))(2 (2 (from))(2 (2 (2 (the))(2 (grasp)))(2 (2 (of))(2 (2 (its))(2 (maker)))))))(2 (.)))) |ET| 
1  |BT| (ROOT (2 (Not))(2 (1 (2 (2 (2 (at))(2 (all)))(2 (clear)))(2 (3 (2 (2 (what))(2 (2 (it))(2 (2 ('s))(2 (2 (trying))(2 (2 (to))(2 (say)))))))(2 (and)))(2 (2 (even))(2 (2 (if))(2 (2 (it))(2 (2 (2 (were))(2 (--)))(2 (2 (I))(1 (2 (doubt))(2 (it))))))))))(2 (2 (2 (would))(2 (2 (be))(2 (2 (2 (all))(2 (that)))(3 (interesting)))))(2 (.))))) |ET| 
1  |BT| (ROOT (0 (2 (The))(1 (1 (2 (most))(1 (horrific)))(2 (2 (movie))(2 (experience)))))(2 (2 (2 (I))(2 (2 ('ve))(2 (2 (had))(2 (since)))))(2 (2 (``))(2 (2 (2 (2 (2 (Ca))(2 (n't)))(2 (2 (Stop))(2 (2 (The))(2 (Music)))))(2 (.)))(2 ('')))))) |ET| 
-0.47725053811210788046182074140233  |BT| (ROOT (1 (1 (1 (1 (2 (It))(1 (2 ('s))(1 (2 (as))(1 (2 (2 (if))(2 (2 (Solondz))(2 (2 (had))(2 (3 (2 (two))(2 (ideas)))(3 (2 (for))(2 (2 (two))(2 (movies))))))))(2 (2 (,))(1 (2 (1 (2 (could))(2 (n't)))(2 (really)))(2 (2 (2 (figure))(1 (out)))(2 (2 (how))(2 (2 (to))(2 (2 (2 (flesh))(2 (either)))(1 (out))))))))))))(2 (,)))(2 (so)))(1 (2 (he))(1 (2 (just))(1 (1 (2 (1 (1 (slopped))(2 (`)))(2 (em)))(2 (together)))(2 (here))))))(2 (.))) |ET| 
-0.29720179914212407901175083679846  |BT| (ROOT (1 (2 (2 (Noyce))(2 ('s)))(0 (3 (greatest))(2 (mistake))))(1 (2 (is))(2 (2 (thinking))(2 (2 (that))(2 (2 (we))(1 (2 (3 (needed))(3 (3 (3 (3 (3 (sweeping))(2 (,)))(3 (dramatic)))(2 (,)))(2 (2 (Hollywood))(2 (moments)))))(2 (2 (to))(2 (2 (keep))(3 (us)))))))))) |ET| 
-0.052752980172154032012521440719865  |BT| (ROOT (2 (3 (2 (A))(3 (4 (brilliant))(1 (gag))))(0 (2 (at))(1 (2 (2 (the))(2 (expense)))(2 (2 (of))(2 (2 (2 (2 (those))(2 (2 (who))(2 (2 (paid))(2 (2 (for))(2 (it))))))(2 (and)))(2 (2 (those))(2 (2 (who))(3 (2 (pay))(2 (2 (to))(3 (2 (see))(2 (it))))))))))))(2 (.))) |ET| 
1  |BT| (ROOT (2 (...))(0 (2 (2 (a))(1 (pretentious)))(1 (1 (mess))(2 (...))))) |ET| 
1  |BT| (ROOT (1 (2 (A))(1 (2 (2 (predictable))(1 (2 (,))(2 (manipulative))))(2 (stinker))))(2 (.))) |ET| 
-1  |BT| (ROOT (2 (...))(0 (2 (2 (a))(1 (confusing)))(1 (1 (drudgery))(2 (.))))) |ET| 
-0.96004164992272056355915310632554  |BT| (ROOT (2 (2 (The))(1 (criticism)))(0 (2 (never))(3 (3 (2 (rises))(1 (2 (above))(1 (1 (2 (2 (easy))(1 (2 (,))(1 (cynical))))(2 (potshots)))(2 (2 (at))(1 (1 (3 (morally))(2 (bankrupt)))(2 (characters)))))))(2 (...))))) |ET| 
-1  |BT| (ROOT (2 (...))(0 (1 (2 (a))(1 (bland)))(0 (2 (,))(0 (1 (1 (pretentious))(1 (mess)))(2 (.)))))) |ET| 
1  |BT| (ROOT (2 (Where))(2 (2 (2 (2 ('s))(2 (2 (the))(2 (movie))))(2 (here)))(2 (?)))) |ET| 
1  |BT| (ROOT (1 (1 (From))(0 (1 (2 (the))(2 (0 (choppy))(2 (editing))))(0 (1 (2 (to))(1 (2 (the))(1 (0 (annoying))(3 (score)))))(2 (2 (2 (2 (2 (to))(2 (`)))(2 (3 (special))(2 (effects))))(2 (')))(2 (2 (by))(2 (2 (way))(2 (2 (of))(2 (2 (2 (replacing))(2 (2 (objects))(2 (2 (in))(2 (2 (2 (a))(2 (2 (character))(2 ('s))))(2 (hands))))))(2 (1 (below))(2 (2 (the))(2 (2 (camera))(2 (line)))))))))))))(2 (2 (,))(1 (2 (2 (``))(2 (2 (Besotted))(2 (''))))(1 (2 (is))(2 (misbegotten)))))) |ET| 
1  |BT| (ROOT (0 (0 (1 (1 (1 (2 (2 (2 (2 (Some))(2 (2 (of))(2 (2 (the))(2 (characters)))))(0 (die)))(2 (and)))(2 (2 (3 (2 (2 (others))(2 (2 (do))(2 (n't))))(2 (,)))(2 (and)))(2 (2 (2 (the))(2 (film)))(2 (2 (pretends))(2 (2 (that))(2 (2 (2 (those))(2 (living)))(2 (2 (have))(2 (2 (learned))(2 (2 (2 (some))(2 (sort)))(2 (2 (of))(2 (lesson))))))))))))(2 (,)))(2 (and)))(2 (2 (,))(2 (2 (really))(2 (,)))))(1 (2 (2 (nobody))(2 (2 (in))(2 (2 (the))(2 (2 (viewing))(2 (audience))))))(3 (cares))))(2 (.))) |ET| 
1  |BT| (ROOT (2 (...))(0 (2 (2 (a))(1 (pretentious)))(1 (1 (mess))(2 (...))))) |ET| 
-0.10082431316680590116519056209654  |BT| (ROOT (2 (2 (2 (Throw))(3 (Smoochy)))(2 (2 (from))(2 (2 (the))(2 (train)))))(2 (!))) |ET| 
-0.93296879475211358379027615228551  |BT| (ROOT (0 (2 (It))(1 (2 ('s))(2 (2 (so))(1 (2 (2 (laddish))(2 (and)))(1 (juvenile))))))(2 (2 (,))(1 (2 (2 (only))(2 (2 (teenage))(2 (boys))))(2 (2 (2 (2 (could))(2 (possibly)))(3 (2 (find))(3 (2 (it))(3 (funny)))))(2 (.)))))) |ET| 
-0.092072871663361408045567202407256  |BT| (ROOT (1 (2 (2 (Laggard))(1 (drama)))(1 (2 (2 (wending))(2 (2 (its))(2 (way))))(2 (2 (to))(1 (2 (an))(2 (1 (1 (uninspired))(3 (philosophical)))(3 (epiphany)))))))(2 (.))) |ET| 
1  |BT| (ROOT (2 (2 (The))(4 (2 (Sweetest))(2 (Thing))))(1 (1 (2 (leaves))(1 (2 (a))(1 (0 (bitter))(2 (taste)))))(2 (.)))) |ET| 
1  |BT| (ROOT (0 (2 (This))(0 (0 (ludicrous))(2 (film))))(1 (1 (2 (is))(1 (2 (predictable))(2 (2 (at))(2 (2 (every))(2 (turn))))))(2 (.)))) |ET| 
0.92144100922289773336615326115862  |BT| (ROOT (2 (Nair))(0 (2 (just))(0 (0 (1 (2 (does))(2 (n't)))(1 (2 (have))(1 (2 (the))(0 (2 (necessary))(0 (2 (self-control))(0 (2 (to))(0 (1 (2 (guide))(1 (2 (a))(1 (1 (1 (loose))(1 (2 (,))(1 (1 (poorly))(2 (structured)))))(2 (film)))))(1 (2 (through))(1 (3 (2 (the))(2 (pitfalls)))(2 (2 (of))(0 (1 (1 (incoherence))(2 (and)))(1 (redundancy)))))))))))))(2 (.))))) |ET| 
-0.70806007056937880772551352492883  |BT| (ROOT (2 (2 (The))(4 (2 (Sweetest))(2 (Thing))))(2 (0 (2 (leaves))(1 (2 (an))(1 (2 (awful))(1 (1 (sour))(2 (taste))))))(2 (.)))) |ET| 
-0.9634223305494259426140502000635  |BT| (ROOT (1 (1 (2 (A))(1 (1 (1 (muddy))(3 (psychological)))(3 (thriller))))(1 (2 (rife))(1 (2 (with))(2 (miscalculations)))))(2 (.))) |ET| 
-0.029576070097587229407176678819269  |BT| (ROOT (2 (...))(1 (1 (2 (a))(1 (2 (rather))(1 (bland))))(2 (1 (affair))(2 (.))))) |ET| 
1  |BT| (ROOT (2 (I))(1 (2 (2 (2 (like))(2 (2 (my))(2 (2 (Christmas))(2 (movies)))))(2 (2 (with))(2 (1 (2 (2 (more))(2 (2 (2 (elves))(2 (and)))(2 (snow))))(2 (and)))(2 (2 (2 (2 (less))(2 (pimps)))(2 (and)))(2 (2 (ho))(2 ('s)))))))(2 (.)))) |ET| 
1  |BT| (ROOT (2 (2 (2 (2 (2 (2 (director))(2 (Hoffman)))(2 (,)))(2 (2 (his))(2 (writer))))(2 (and)))(2 (2 (2 (Kline))(2 ('s)))(2 (agent))))(1 (2 (should))(2 (2 (serve))(1 (detention))))) |ET| 
1  |BT| (ROOT (2 (This))(1 (2 (hastily))(2 (2 (2 (mounted))(1 (2 (production))(2 (2 (2 (exists))(2 (only)))(2 (2 (to))(2 (2 (capitalize))(2 (2 (on))(2 (2 (3 (Hopkins))(2 (')))(2 (2 (inclination))(1 (2 (to))(2 (2 (2 (3 (2 (play))(2 (2 (Hannibal))(2 (Lecter))))(2 (again)))(2 (,)))(2 (2 (even))(2 (2 (though))(2 (2 (Harris))(2 (2 (has))(2 (1 (no))(3 (2 (immediate))(2 (2 (inclination))(2 (2 (to))(2 (2 (provide))(2 (2 (a))(2 (2 (fourth))(2 (book)))))))))))))))))))))))(2 (.))))) |ET| 
-0.0096476790339561028370107820251178  |BT| (ROOT (1 (2 (2 (The))(2 (2 (movie))(2 ('s))))(1 (downfall)))(1 (1 (2 (is))(2 (2 (to))(1 (2 (2 (substitute))(2 (plot)))(2 (2 (for))(3 (personality))))))(2 (.)))) |ET| 
-0.28720143666069680721264489875466  |BT| (ROOT (2 (2 (2 (2 (I))(2 (2 (2 (ca))(2 (n't)))(2 (2 (say))(2 (2 (this))(2 (enough))))))(2 (:)))(1 (2 (2 (This))(2 (movie)))(2 (2 (is))(1 (2 (about))(2 (2 (2 (an))(2 (2 (adult))(2 (male))))(2 (2 (dressed))(2 (2 (in))(2 (2 (pink))(2 (jammies))))))))))(2 (.))) |ET| 
-0.74718652971810373131233973253984  |BT| (ROOT (2 (2 (2 (The))(2 (film)))(2 (...)))(2 (2 (presents))(1 (2 (2 (3 (classic))(2 (2 (moral-condundrum))(1 (drama))))(2 (:)))(2 (2 (What))(2 (2 (2 (2 (would))(2 (you)))(2 (2 (have))(2 (2 (done))(2 (2 (to))(2 (survive))))))(2 (?))))))) |ET| 
1  |BT| (ROOT (2 (Rarely))(2 (1 (2 (has))(1 (3 (sex))(1 (2 (on))(1 (2 (screen))(1 (2 (been))(1 (2 (so))(1 (2 (aggressively))(2 (anti-erotic)))))))))(2 (.)))) |ET| 
1  |BT| (ROOT (1 (0 (2 (A))(1 (2 (loud))(1 (2 (,))(1 (2 (brash))(1 (2 (and))(1 (2 (mainly))(1 (unfunny))))))))(2 (3 (high))(2 (2 (school))(3 (comedy)))))(2 (.))) |ET| 
1  |BT| (ROOT (2 (Diaz))(1 (1 (1 (wears))(1 (out)))(1 (2 (her))(2 (1 (2 (welcome))(1 (2 (in))(1 (2 (her))(1 (2 (most))(1 (charmless))))))(2 (performance)))))) |ET| 
-1  |BT| (ROOT (1 (1 (1 (2 (So))(1 (2 (verbally))(1 (flatfooted))))(2 (and)))(1 (2 (so))(1 (2 (emotionally))(1 (1 (2 (predictable))(2 (or)))(1 (bland))))))(1 (2 (2 (that))(1 (2 (it))(1 (2 (plays))(1 (2 (like))(1 (2 (the))(2 (1 (standard))(1 (1 (made-for-TV))(2 (movie)))))))))(2 (.)))) |ET| 
-1  |BT| (ROOT (2 (2 (A))(2 (3 (2 (relatively))(3 (effective)))(2 (little))))(0 (0 (2 (potboiler))(0 (2 (until))(0 (2 (its))(0 (1 (1 (absurd))(0 (2 (,))(1 (2 (contrived))(1 (2 (,))(1 (1 (overblown))(1 (2 (,))(1 (2 (and))(1 (2 (entirely))(1 (implausible))))))))))(2 (finale))))))(2 (.)))) |ET| 
-0.54349916121287034087572465068661  |BT| (ROOT (1 (2 (1 (3 (3 (Family))(2 (togetherness)))(2 (2 (2 (takes))(2 (2 (a))(2 (2 (back))(3 (seat)))))(2 (2 (to))(2 (2 (inter-family))(2 (2 (rivalry))(2 (2 (and))(3 (2 (workplace))(3 (ambition)))))))))(2 (...)))(1 (2 (2 (whole))(2 (subplots)))(2 (2 (have))(1 (1 (2 (1 (1 (no))(2 (explanation)))(2 (or)))(2 (even)))(2 (2 (plot))(2 (relevance)))))))(2 (.))) |ET| 
1  |BT| (ROOT (2 (3 (Makes))(2 (2 (2 (2 (a))(1 (joke)))(1 (out)))(2 (2 (of))(2 (car)))))(2 (2 (3 (2 (2 (2 (chases))(2 (2 (for))(2 (2 (an))(2 (hour)))))(2 (and)))(2 (then)))(2 (2 (2 (gives))(3 (us)))(2 (2 (2 (half))(2 (2 (an))(2 (hour))))(2 (2 (of))(2 (2 (car))(2 (chases)))))))(2 (.)))) |ET| 
1  |BT| (ROOT (2 (2 (2 (2 (A))(2 (word)))(2 (2 (of))(2 (advice))))(2 (2 (to))(2 (2 (2 (the))(2 (makers)))(2 (2 (of))(2 (2 (The))(2 (2 (Singles))(2 (Ward))))))))(1 (2 (:))(0 (1 (2 (2 (Celebrity))(2 (cameos)))(1 (2 (2 (2 (do))(1 (not)))(2 (automatically)))(3 (2 (equal))(3 (laughs)))))(2 (.))))) |ET| 
1  |BT| (ROOT (2 (2 (1 (No))(2 (amount)))(2 (2 (of))(2 (2 (arty))(2 (theorizing)))))(2 (2 (2 (--))(2 (1 (2 (2 (the))(2 (3 (special))(2 (effects))))(2 (2 (are))(2 (2 (`))(2 (2 (2 (2 (German-Expressionist))(2 (,)))(2 (')))(2 (2 (according))(2 (2 (to))(2 (2 (the))(2 (2 (press))(2 (notes))))))))))(2 (--))))(1 (1 (2 (can))(0 (2 (2 (render))(2 (it)))(0 (2 (2 (anything))(2 (but)))(1 (laughable)))))(2 (.))))) |ET| 
-1  |BT| (ROOT (2 (2 (To))(2 (2 (get))(2 (2 (at))(2 (2 (2 (the))(2 (2 (root))(2 (psychology))))(2 (2 (of))(2 (2 (this))(2 (film))))))))(1 (1 (2 (would))(2 (2 (2 (require))(2 (2 (many))(2 (sessions))))(2 (2 (on))(2 (2 (2 (the))(2 (couch)))(2 (2 (of))(2 (2 (Dr.))(2 (Freud))))))))(2 (.)))) |ET| 
-0.5449613738743706026212976212264  |BT| (ROOT (2 (What))(1 (2 (2 (puzzles))(2 (3 (me))(0 (2 (is))(2 (2 (2 (the))(2 (lack)))(2 (2 (of))(2 (3 (emphasis))(2 (2 (on))(2 (2 (music))(2 (2 (in))(2 (2 (2 (Britney))(2 (2 (Spears))(2 ('))))(2 (2 (first))(2 (movie)))))))))))))(2 (.)))) |ET| 
-0.30824833713763655218542680813698  |BT| (ROOT (2 (2 (With))(2 (2 (2 (the))(2 (3 (dog))(2 (days))))(2 (2 (of))(2 (2 (August))(2 (2 (upon))(3 (us)))))))(2 (2 (,))(1 (1 (0 (2 (think))(1 (2 (of))(1 (2 (2 (this))(3 (dog)))(2 (2 (of))(2 (2 (a))(2 (movie)))))))(1 (2 (as))(1 (2 (2 (the))(2 (3 (cinematic))(2 (equivalent))))(3 (2 (of))(1 (3 (high))(2 (humidity)))))))(2 (.))))) |ET| 
1  |BT| (ROOT (2 (2 (The))(1 (problem)))(0 (1 (2 (is))(1 (2 (that))(1 (2 (it))(1 (2 (is))(1 (2 (one))(1 (2 (that))(1 (2 (allows))(0 (2 (him))(1 (2 (to))(0 (0 (2 (2 (churn))(1 (out)))(1 (2 (one))(1 (1 (mediocre))(2 (movie)))))(2 (2 (after))(2 (another)))))))))))))(2 (.)))) |ET| 
1  |BT| (ROOT (2 (It))(1 (1 (2 ('s))(0 (1 (pretentious))(1 (2 (in))(1 (2 (2 (a))(2 (way)))(1 (2 (that))(1 (2 (verges))(1 (2 (on))(1 (2 (the))(1 (amateurish))))))))))(2 (.)))) |ET| 
1  |BT| (ROOT (0 (2 (2 (A))(3 (2 (movie))(2 (version))))(1 (2 (of))(1 (2 (a))(1 (1 (paint-by-numbers))(2 (picture))))))(2 (.))) |ET| 
-1  |BT| (ROOT (0 (1 (2 (Just))(1 (2 (another))(1 (1 (generic))(1 (drama)))))(1 (2 (that))(0 (2 (has))(0 (1 (nothing))(1 (2 (going))(1 (2 (for))(1 (2 (it))(1 (2 (other))(1 (2 (than))(0 (2 (2 (its))(2 (2 (exploitive))(2 (array))))(1 (2 (of))(1 (2 (obligatory))(0 (cheap))))))))))))))(2 (4 (thrills))(2 (.)))) |ET| 
-0.93246550331130084732222940147039  |BT| (ROOT (2 (It))(1 (0 (2 (2 ('s))(1 (2 (virtually))(0 (impossible))))(1 (2 (to))(1 (2 (like))(1 (2 (any))(1 (2 (of))(2 (2 (these))(1 (1 (despicable))(2 (characters)))))))))(2 (.)))) |ET| 
-0.38234028549899490290187031860114  |BT| (ROOT (1 (1 (2 (An))(1 (1 (awkward))(2 (hybrid))))(1 (2 (of))(0 (2 (genres))(1 (2 (that))(1 (2 (just))(1 (1 (2 (does))(2 (n't)))(2 (work))))))))(2 (.))) |ET| 
1  |BT| (ROOT (2 (McKay))(0 (1 (2 (1 (1 (2 (shows))(2 (2 (crushingly))(2 (2 (little))(2 (2 (curiosity))(2 (about))))))(2 (,)))(2 (or)))(2 (2 (is))(1 (1 (ill-equipped))(0 (2 (to))(2 (1 (2 (2 (2 (2 (examine))(2 (,)))(3 (2 (2 (2 (the))(2 (2 (interior))(2 (lives))))(2 (2 (of))(2 (2 (the))(2 (characters)))))(2 (2 (in))(2 (2 (his))(2 (film))))))(2 (,)))(2 (2 (much))(2 (less))))(2 (2 (2 (incorporate))(2 (them)))(2 (2 (into))(2 (2 (his))(2 (narrative))))))))))(2 (.)))) |ET| 
1  |BT| (ROOT (2 (3 (2 (1 (Seagal))(2 (,)))(2 (2 (who))(2 (2 (2 (looks))(2 (2 (more))(2 (2 (like))(2 (2 (Danny))(2 (Aiello))))))(2 (2 (these))(2 (days))))))(2 (,)))(1 (1 (2 (2 (mumbles))(2 (2 (his))(2 (way))))(2 (2 (through))(2 (2 (the))(2 (movie)))))(2 (.)))) |ET| 
1  |BT| (ROOT (1 (2 (What))(2 (2 ('s))(2 (2 (2 (missing))(2 (2 (in))(2 (Murder))))(2 (2 (by))(2 (Numbers))))))(2 (2 (2 (is))(2 (2 (2 (any))(3 (3 (real))(2 (3 (psychological))(2 (grounding)))))(2 (2 (for))(2 (2 (2 (the))(2 (2 (teens))(2 ('))))(1 (1 (deviant))(2 (behaviour)))))))(2 (.)))) |ET| 
-0.40806782277187697571818603137217  |BT| (ROOT (2 (This))(1 (1 (2 (may))(2 (2 (2 (be))(2 (2 (the))(2 (2 (first))(2 (cartoon)))))(1 (2 (ever))(1 (2 (to))(0 (2 (look))(2 (2 (as))(2 (2 (if))(2 (2 (it))(2 (2 (were))(2 (2 (being))(2 (2 (shown))(2 (2 (on))(2 (2 (2 (the))(2 (2 (projection))(3 (2 (television))(2 (screen)))))(2 (2 (of))(2 (2 (a))(2 (2 (sports))(2 (bar))))))))))))))))))(2 (.)))) |ET| 
-0.5432112663004068364713816663425  |BT| (ROOT (2 (...))(1 (2 (most))(1 (2 (viewers))(1 (1 (1 (2 (will))(1 (2 (wish))(2 (2 (there))(2 (2 (had))(2 (2 (been))(1 (2 (more))(2 (2 (of))(1 (2 (2 (2 (the))(2 (2 (``))(2 (2 (Queen))(2 ('')))))(2 (and)))(2 (2 (less))(2 (2 (of))(2 (2 (the))(2 (2 (``))(1 (Damned))))))))))))))(2 (.)))(2 ('')))))) |ET| 
-0.48051893598272954477579332888126  |BT| (ROOT (1 (1 (Troll))(2 (2 (2 (the))(2 (1 (cult))(2 (section))))(2 (2 (of))(2 (2 (2 (your))(2 (3 (local))(2 (2 (video))(2 (store)))))(2 (2 (for))(3 (2 (the))(2 (3 (real))(2 (deal)))))))))(2 (.))) |ET| 
1  |BT| (ROOT (2 (Not))(1 (2 (even))(2 (2 (Felinni))(1 (1 (2 (would))(1 (2 (know))(1 (2 (what))(1 (2 (to))(2 (2 (make))(2 (2 (of))(1 (2 (this))(1 (2 (Italian))(0 (freakshow))))))))))(2 (.)))))) |ET| 
1  |BT| (ROOT (1 (1 (2 (A))(1 (ragbag)))(1 (2 (of))(2 (cliches))))(2 (.))) |ET| 
1  |BT| (ROOT (0 (1 (0 (1 (2 (Pair))(0 (2 (that))(1 (2 (with))(1 (1 (2 (really))(1 (poor)))(3 (3 (comedic))(2 (writing)))))))(2 (...)))(2 (and)))(1 (2 (you))(1 (2 ('ve))(2 (2 (got))(0 (2 (a))(0 (2 (huge))(1 (mess))))))))(2 (.))) |ET| 
-1  |BT| (ROOT (0 (2 (Aggressive))(0 (1 (2 (self-glorification))(2 (and)))(1 (2 (a))(1 (2 (manipulative))(2 (whitewash))))))(2 (.))) |ET| 
-0.45279251216578453309580254426692  |BT| (ROOT (0 (2 (Rife))(1 (2 (with))(1 (1 (2 (1 (2 (nutty))(2 (cliches)))(2 (and)))(1 (2 (far))(1 (2 (too))(2 (much)))))(2 (dialogue)))))(2 (.))) |ET| 
-1  |BT| (ROOT (1 (2 (2 (Try))(0 (0 (1 (2 (this))(0 (0 (1 (obscenely))(0 (bad)))(3 (2 (dark))(3 (comedy)))))(2 (,)))(1 (2 (so))(2 (crass)))))(1 (2 (that))(2 (2 (it))(1 (2 (makes))(3 (2 (2 (2 (2 (Edward))(2 (2 (Burns))(2 ('))))(2 (Sidewalks)))(2 (2 (of))(2 (3 (New))(2 (York)))))(2 (2 (look))(2 (2 (like))(2 (3 (Oscar))(2 (Wilde))))))))))(2 (.))) |ET| 
1  |BT| (ROOT (2 (2 (An))(2 (2 (awful))(2 (lot))))(0 (0 (2 (2 (2 (2 (like))(2 (2 (one))(2 (2 (of))(2 (2 (1 (-LRB-))(2 (2 (2 (Spears))(2 (')))(3 (-RRB-))))(3 (2 (music))(2 (videos)))))))(2 (2 (in))(3 (content))))(2 (--)))(1 (2 (2 (except))(2 (that)))(0 (2 (it))(2 (2 (2 (2 (2 (goes))(2 (on)))(2 (2 (for))(2 (2 (2 (2 (2 (at))(1 (least)))(2 (90)))(2 (more)))(2 (minutes)))))(2 (and)))(1 (1 (1 (2 (,))(1 (worse)))(2 (,)))(2 (2 (that))(3 (2 (you))(3 (2 (have))(2 (2 (to))(2 (2 (pay))(2 (2 (if))(3 (2 (you))(3 (2 (want))(2 (2 (to))(3 (2 (see))(2 (it)))))))))))))))))(2 (.)))) |ET| 
1  |BT| (ROOT (1 (2 (2 (2 (But))(2 (2 (2 (one))(2 (thing)))(2 (2 ('s))(3 (2 (for))(2 (sure))))))(2 (:)))(0 (2 (It))(0 (2 (never))(2 (3 (comes))(2 (2 (close))(2 (2 (to))(2 (2 (being))(2 (2 (either))(2 (3 (3 (funny))(2 (or)))(2 (scary)))))))))))(2 (.))) |ET| 
-0.024543043374036527942694263515477  |BT| (ROOT (2 (2 (The))(2 (film)))(1 (0 (1 (1 (1 (2 (is))(1 (1 (grossly))(1 (contradictory))))(3 (2 (in))(2 (2 (conveying))(2 (2 (its))(2 (2 (social))(2 (message)))))))(2 (,)))(2 (2 (if))(2 (2 (indeed))(2 (2 (there))(2 (2 (is))(2 (one)))))))(2 (.)))) |ET| 
-1  |BT| (ROOT (2 (2 (While))(2 (2 (Solondz))(3 (2 (2 (2 (tries))(2 (and)))(2 (tries)))(2 (hard)))))(1 (2 (,))(0 (3 (Storytelling))(0 (0 (0 (fails))(2 (2 (to))(1 (3 (2 (provide))(2 (2 (much))(2 (2 (more))(2 (insight)))))(2 (2 (than))(2 (2 (2 (the))(2 (2 (inside))(2 (column))))(2 (2 (of))(3 (2 (a))(3 (2 (torn))(2 (2 (book))(2 (jacket)))))))))))(2 (.)))))) |ET| 
-0.38926872367569942401388516373117  |BT| (ROOT (2 (I))(2 (2 (2 ('ll))(2 (2 (2 (go))(1 (out)))(2 (2 (on))(2 (2 (a))(2 (limb))))))(2 (.)))) |ET| 
1  |BT| (ROOT (2 (It))(0 (1 (2 ('s))(1 (1 (2 (a))(2 (2 (road-trip))(1 (drama))))(2 (2 (with))(1 (1 (2 (too))(2 (many)))(2 (1 (wrong))(2 (turns)))))))(2 (.)))) |ET| 
1  |BT| (ROOT (0 (2 (Glazed))(1 (2 (with))(1 (2 (a))(1 (1 (tawdry))(0 (1 (B-movie))(1 (scum)))))))(2 (.))) |ET| 
1  |BT| (ROOT (1 (2 (Press))(1 (2 (the))(1 (2 (delete))(2 (key)))))(2 (.))) |ET| 
-0.93573288022777134642637975048274  |BT| (ROOT (1 (1 (2 (A))(1 (1 (dopey))(2 (movie))))(1 (2 (clothed))(1 (2 (in))(1 (1 (2 (excess))(3 (layers)))(2 (2 (of))(3 (hipness)))))))(2 (.))) |ET| 
1  |BT| (ROOT (2 (You))(0 (1 (2 ('ll))(0 (2 (2 (cry))(2 (2 (for))(2 (2 (your))(2 (money)))))(2 (back))))(2 (.)))) |ET| 
-1  |BT| (ROOT (2 (That))(0 (1 (2 ('s))(1 (2 (because))(0 (1 (2 (relatively))(1 (nothing)))(2 (happens)))))(2 (.)))) |ET| 
1  |BT| (ROOT (0 (2 (2 (2 (Imagine))(2 (2 (2 (2 (Kevin))(2 (Smith)))(2 (,)))(2 (2 (2 (the))(2 (0 (2 (blasphemous))(0 (bad)))(2 (boy))))(2 (2 (of))(2 (2 (suburban))(2 (Jersey)))))))(2 (,)))(2 (2 (if))(0 (2 (he))(0 (2 (were))(1 (2 (stripped))(2 (2 (of))(2 (2 (1 (2 (most))(2 (2 (of))(2 (2 (his))(2 (budget)))))(2 (and)))(2 (2 (all))(2 (2 (of))(2 (2 (2 (his))(2 (sense)))(2 (2 (of))(4 (humor)))))))))))))(2 (.))) |ET| 
1  |BT| (ROOT (1 (2 (If))(4 (2 (this))(3 (2 (is))(2 (cinema)))))(3 (2 (,))(3 (2 (I))(2 (2 (2 (2 (pledge))(2 (allegiance)))(2 (2 (to))(2 (2 (2 (Cagney))(2 (and)))(2 (Lacey)))))(2 (.)))))) |ET| 
1  |BT| (ROOT (1 (0 (2 (an))(0 (0 (appalling))(1 (2 (`))(0 (2 (2 (Ace))(2 (Ventura)))(0 (2 ('))(0 (rip-off)))))))(1 (2 (that))(3 (2 (somehow))(2 (2 (manages))(2 (2 (to))(2 (2 (3 (bring))(2 (together)))(2 (2 (2 (2 (2 (2 (Kevin))(2 (Pollak)))(2 (,)))(2 (2 (former))(2 (2 (wrestler))(2 (Chyna)))))(2 (and)))(2 (2 (Dolly))(2 (Parton))))))))))(2 (.))) |ET| 
-0.33146275496315624753407291791518  |BT| (ROOT (3 (2 (2 (A))(2 (movie)))(3 (2 (that))(3 (2 (will))(3 (1 (1 (2 (2 (wear))(2 (you)))(1 (out)))(2 (and)))(3 (2 (make))(3 (2 (you))(2 (2 (misty))(2 (2 (even))(2 (2 (when))(2 (2 (you))(2 (2 (do))(2 (n't)))))))))))))(2 (2 (2 (want))(2 (2 (to))(2 (be))))(2 (.)))) |ET| 
-0.67170041664941249059950223454507  |BT| (ROOT (0 (2 (As))(2 (2 (2 (if))(2 (2 (trying))(2 (2 (to))(2 (2 (grab))(3 (2 (2 (a))(2 (lump)))(2 (2 (of))(2 (Play-Doh))))))))(2 (2 (,))(2 (2 (2 (the))(2 (harder)))(2 (2 (2 (that))(2 (Liman)))(2 (2 (tries))(2 (2 (to))(2 (2 (squeeze))(2 (2 (his))(2 (story)))))))))))(1 (2 (,))(2 (2 (2 (the))(2 (2 (more))(2 (details))))(2 (2 (2 (2 (slip))(1 (out)))(2 (2 (between))(2 (2 (his))(2 (fingers)))))(2 (.)))))) |ET| 
-1  |BT| (ROOT (0 (2 (2 (2 (2 (I))(2 (2 (can))(2 (2 (2 (imagine))(2 (2 (this))(2 (movie))))(2 (2 (as))(2 (2 (2 (a))(2 (2 (2 (b))(2 (&)))(2 (2 (2 (2 (2 (2 (w))(3 (2 (British))(3 (comedy))))(2 (,)))(2 (3 (circa))(2 (1960))))(2 (,)))(2 (2 (with))(2 (2 (2 (2 (2 (2 (Peter))(2 (Sellers)))(2 (,)))(2 (2 (Kenneth))(2 (Williams))))(2 (,)))(2 (et)))))))(2 (al.)))))))(2 (,)))(2 (but)))(0 (2 (2 (2 (at))(2 (2 (this))(2 (time))))(2 (2 (,))(2 (2 (with))(2 (2 (this))(2 (cast))))))(0 (2 (,))(1 (2 (2 (this))(2 (movie)))(2 (2 (is))(1 (hopeless)))))))(2 (.))) |ET| 
1  |BT| (ROOT (1 (2 (Marinated))(1 (2 (in))(0 (1 (clichés))(1 (2 (and))(1 (1 (mawkish))(2 (dialogue)))))))(2 (.))) |ET| 
1  |BT| (ROOT (2 (``))(0 (1 (Abandon))(0 (2 (''))(0 (1 (2 (will))(0 (1 (leave))(1 (2 (you))(1 (2 (wanting))(1 (2 (to))(1 (2 (abandon))(2 (2 (the))(3 (theater)))))))))(2 (.)))))) |ET| 
1  |BT| (ROOT (3 (Swiftly))(0 (0 (2 (deteriorates))(0 (2 (into))(0 (1 (2 (a))(0 (0 (0 (terribly))(1 (obvious)))(1 (2 (melodrama))(1 (2 (and))(1 (2 (rough-hewn))(1 (2 (vanity))(2 (project))))))))(2 (2 (for))(3 (2 (lead))(2 (2 (actress))(3 (2 (Andie))(2 (MacDowell)))))))))(2 (.)))) |ET| 
-1  |BT| (ROOT (1 (2 (A))(2 (1 (2 (somewhat))(0 (1 (0 (disappointing))(2 (and)))(1 (meandering))))(2 (saga))))(2 (.))) |ET| 
-1  |BT| (ROOT (1 (2 (A))(1 (0 (1 (1 (listless))(2 (and)))(1 (desultory)))(1 (affair))))(2 (.))) |ET| 
-1  |BT| (ROOT (0 (0 (0 (1 (Excruciatingly))(1 (unfunny)))(2 (and)))(0 (1 (pitifully))(1 (unromantic))))(2 (.))) |ET| 
1  |BT| (ROOT (2 (2 (The))(2 (2 (2 (directing))(2 (and)))(2 (story))))(1 (2 (2 (are))(1 (1 (1 (disjointed))(2 (,)))(2 (1 (flaws))(2 (2 (that))(2 (2 (have))(2 (2 (to))(2 (2 (be))(2 (2 (2 (laid))(2 (squarely)))(2 (2 (on))(2 (2 (2 (Taylor))(2 ('s)))(2 (doorstep))))))))))))(2 (.)))) |ET| 
1  |BT| (ROOT (2 (2 (Madonna))(2 (2 (has))(2 (2 (2 (made))(2 (herself)))(2 (2 (over))(2 (2 (so))(2 (2 (often))(2 (now))))))))(1 (2 (,))(0 (2 (there))(1 (0 (2 (2 ('s))(2 (apparently)))(1 (1 (nothing))(1 (2 (left))(1 (2 (to))(1 (2 (2 (2 (work))(2 (with)))(2 (,)))(2 (2 (2 (sort))(2 (of)))(2 (2 (like))(2 (2 (2 (Michael))(3 (2 (Jackson))(2 ('s))))(2 (nose))))))))))(2 (.)))))) |ET| 
1  |BT| (ROOT (1 (1 (1 (1 (2 (Spreads))(2 (2 (itself))(1 (2 (too))(2 (thin)))))(2 (,)))(2 (2 (leaving))(2 (2 (2 (2 (2 (these))(2 (actors)))(2 (,)))(2 (2 (as))(2 (3 (well))(2 (as)))))(2 (2 (2 (the))(2 (members)))(2 (2 (of))(2 (2 (the))(2 (commune))))))))(2 (,)))(3 (2 (short))(3 (2 (of))(4 (3 (profound))(2 (characterizations)))))) |ET| 
0.62322349166587753810375716057024  |BT| (ROOT (2 (2 (Every))(2 (2 (2 (now))(2 (and)))(2 (again))))(0 (2 (,))(0 (2 (2 (a))(2 (movie)))(0 (0 (2 (3 (comes))(2 (along)))(0 (2 (to))(0 (3 (2 (remind))(3 (us)))(0 (2 (of))(0 (0 (2 (how))(2 (2 (very))(0 (bad))))(2 (2 (2 (a))(2 (2 (motion))(2 (picture))))(3 (2 (2 (can))(3 (truly)))(2 (be)))))))))(2 (.)))))) |ET| 
-0.45103528961748268200082634393766  |BT| (ROOT (2 (`))(2 (1 (Butterfingered))(2 (2 ('))(1 (1 (2 (is))(2 (2 (2 (the))(2 (word)))(1 (2 (for))(1 (2 (2 (the))(2 (3 (big-fisted))(2 (direction))))(1 (2 (of))(2 (2 (2 (2 (Jez))(2 (Butterworth)))(2 (,)))(1 (2 (who))(2 (2 (manages))(1 (2 (to))(2 (1 (3 (blast))(2 (2 (2 (even))(2 (2 (the))(2 (2 (smallest))(2 (sensitivities)))))(2 (2 (from))(2 (2 (the))(3 (romance))))))(2 (2 (with))(1 (2 (his))(2 (2 (clamorous))(2 (approach)))))))))))))))(2 (.)))))) |ET| 
-0.90249868604070981881193347362569  |BT| (ROOT (2 (2 (If))(1 (2 (2 (2 (the))(2 (idea)))(2 (2 (of))(2 (2 (2 (the))(2 (2 (white))(2 (man))))(2 (2 (2 (arriving))(3 (2 (on))(2 (2 (foreign))(2 (shores)))))(2 (2 (to))(2 (2 (2 (show))(1 (2 (wary))(2 (natives))))(2 (2 (the))(3 (3 (true))(2 (light))))))))))(0 (2 (is))(1 (0 (abhorrent))(2 (2 (to))(2 (you)))))))(2 (2 (,))(1 (2 (2 (the))(2 (2 (simplistic))(3 (Heaven))))(1 (1 (2 (2 (will))(2 (2 (quite))(2 (likely))))(0 (2 (2 (be))(2 (more)))(2 (2 (like))(0 (hell)))))(2 (.)))))) |ET| 
1  |BT| (ROOT (0 (1 (1 (Aggravating))(2 (and)))(1 (tedious)))(2 (.))) |ET| 
1  |BT| (ROOT (1 (2 (1 (Black-and-white))(2 (and)))(1 (unrealistic)))(2 (.))) |ET| 
1  |BT| (ROOT (2 (Disgusting))(2 (.))) |ET| 
-1  |BT| (ROOT (0 (2 (1 (Grating))(2 (and)))(1 (tedious)))(2 (.))) |ET| 
-0.019143001502945126285348820260879  |BT| (ROOT (1 (No.))(2 (.))) |ET| 
-0.40051007597329674192465631676896  |BT| (ROOT (1 (Disturbing))(2 (.))) |ET| 
1  |BT| (ROOT (0 (1 (0 (2 (2 (Many))(1 (2 (went))(2 (2 (to))(1 (3 (2 (2 (see))(2 (2 (the))(4 (attraction))))(2 (2 (for))(2 (2 (the))(2 (2 (sole))(2 (reason))))))(2 (2 (that))(2 (2 (2 (2 (it))(2 (2 (was))(2 (4 (hot))(2 (outside)))))(2 (and)))(2 (2 (there))(2 (2 (was))(2 (2 (2 (air))(2 (conditioning)))(2 (inside)))))))))))(2 (,)))(2 (and)))(1 (2 (I))(1 (2 (2 (do))(2 (n't)))(2 (2 (think))(2 (2 (that))(3 (2 (A.C.))(2 (2 (will))(1 (2 (help))(2 (2 (this))(2 (2 (movie))(2 (2 (one))(2 (bit)))))))))))))(2 (.))) |ET| 
1  |BT| (ROOT (1 (2 (Most))(1 (2 (of))(1 (1 (2 (the))(2 (problems)))(2 (2 (with))(2 (2 (the))(2 (film)))))))(1 (2 (2 (do))(2 (n't)))(1 (2 (2 (derive))(1 (2 (from))(2 (3 (2 (2 (2 (the))(2 (screenplay)))(2 (,)))(2 (2 (but))(2 (rather))))(2 (2 (the))(2 (1 (mediocre))(2 (performances)))))))(2 (2 (by))(2 (2 (most))(2 (2 (of))(2 (2 (2 (the))(2 (actors)))(2 (involved))))))))) |ET| 
1  |BT| (ROOT (0 (1 (1 (2 (1 (Contrived))(2 (,)))(1 (awkward)))(2 (and)))(2 (2 (filled))(2 (2 (with))(2 (2 (unintended))(3 (laughs))))))(1 (2 (,))(1 (2 (2 (the))(2 (film)))(2 (2 (2 (2 (shows))(2 (signs)))(1 (2 (that))(1 (1 (2 (2 (someone))(2 (other)))(2 (2 (than))(2 (2 (the))(2 (director)))))(2 (2 (2 (2 (got))(2 (2 (into))(2 (2 (the))(2 (2 (editing))(2 (room))))))(2 (and)))(2 (2 (tried))(2 (2 (to))(2 (2 (2 (improve))(2 (things)))(2 (2 (by))(2 (2 (making))(2 (2 (2 (the))(2 (movie)))(2 (2 (go))(2 (faster)))))))))))))(2 (.)))))) |ET| 
-0.20489631517230494361925252633228  |BT| (ROOT (2 (So))(1 (2 (we))(2 (1 (2 (got))(1 (2 (3 (Ten))(2 (2 (Little))(2 (Indians))))(1 (2 (meets))(2 (1 (2 (2 (2 (3 (2 (2 (Friday))(2 (the)))(2 (13th)))(2 (by)))(2 (way)))(3 (2 (of))(2 (3 (2 (Clean))(2 (and)))(2 (Sober)))))(2 (,)))(1 (2 (2 (2 (filmed))(2 (2 (on))(2 (2 (2 (the))(2 (set)))(2 (2 (of))(2 (2 (Carpenter))(2 (2 ('s))(2 (2 (The))(2 (Thing)))))))))(2 (and)))(1 (2 (loaded))(1 (2 (with))(1 (2 (actors))(2 (2 (you))(1 (2 ('re))(1 (2 (most))(1 (2 (likely))(2 (2 (to))(2 (2 (find))(2 (2 (on))(1 (2 (2 (the))(2 (2 (next))(2 (2 (inevitable))(2 (incarnation)))))(2 (2 (of))(2 (2 (The))(2 (4 (Love))(2 (Boat)))))))))))))))))))))(2 (.))))) |ET| 
-0.35430599086293079746923240236356  |BT| (ROOT (3 (2 (The))(2 (2 (70-year-old))(2 (Godard))))(1 (2 (2 (has))(2 (1 (2 (2 (become))(2 (,)))(1 (2 (2 (to))(2 (judge)))(1 (2 (from))(1 (2 (In))(1 (3 (Praise))(1 (2 (of))(1 (1 (4 (Love))(2 (,)))(1 (1 (2 (2 (the))(2 (sort)))(1 (2 (of))(1 (0 (bitter))(2 (2 (old))(2 (crank))))))(2 (2 (who))(1 (2 (2 (sits))(2 (2 (behind))(2 (2 (2 (2 (his))(2 (2 (light))(2 (meter))))(2 (and)))(2 (harangues)))))(1 (1 (2 (the))(1 (2 (supposed))(2 (injustices))))(2 (2 (of))(2 (2 (the))(2 (3 (artistic))(2 (world-at-large))))))))))))))))(1 (2 (without))(2 (2 (2 (doing))(2 (2 (all))(2 (2 (that))(2 (much)))))(2 (2 (to))(2 (2 (correct))(2 (them))))))))(2 (.)))) |ET| 
-1  |BT| (ROOT (2 (2 (In))(2 (2 (2 (the))(2 (process)))(2 (2 (of))(2 (2 (2 (trimming))(2 (2 (the))(2 (movie))))(2 (2 (to))(2 (2 (an))(2 (2 (expeditious))(2 (2 (84))(2 (minutes))))))))))(1 (2 (,))(1 (2 (2 (director))(2 (2 (Roger))(2 (Kumble))))(1 (1 (2 (seems))(1 (2 (to))(1 (2 (have))(1 (2 (1 (1 (1 (dumped))(2 (3 (2 (a))(2 (2 (whole))(2 (lot))))(2 (2 (of))(2 (plot)))))(2 (2 (in))(2 (2 (favor))(2 (of)))))(2 (...)))(2 (2 (outrageous))(2 (gags)))))))(2 (.)))))) |ET| 
1  |BT| (ROOT (1 (0 (0 (Boring))(2 (and)))(1 (meandering)))(2 (.))) |ET| 
1  |BT| (ROOT (1 (2 (Just))(0 (dreadful)))(2 (.))) |ET| 
1  |BT| (ROOT (0 (2 (1 (-LRB-))(2 (2 (A))(3 (-RRB-))))(1 (2 (crushing))(0 (disappointment))))(2 (.))) |ET| 
-1  |BT| (ROOT (2 (Starts))(0 (3 (promisingly))(1 (1 (2 (but))(0 (1 (disintegrates))(0 (2 (into))(0 (2 (a))(0 (1 (dreary))(1 (2 (,))(0 (0 (humorless))(1 (2 (soap))(2 (opera))))))))))(2 (.))))) |ET| 
-1  |BT| (ROOT (1 (1 (Witless))(1 (2 (and))(0 (2 (utterly))(0 (pointless)))))(2 (.))) |ET| 
-1  |BT| (ROOT (2 (Not))(0 (1 (2 (just))(0 (unlikable)))(2 (.)))) |ET| 
1  |BT| (ROOT (1 (Unfortunately))(1 (2 (,))(1 (2 (2 (2 (the))(2 (experience)))(2 (2 (of))(2 (2 (actually))(2 (2 (watching))(2 (2 (the))(2 (movie)))))))(1 (1 (2 (is))(1 (2 (less))(2 (3 (compelling))(2 (2 (than))(2 (2 (2 (the))(2 (circumstances)))(2 (2 (of))(2 (2 (its))(2 (making)))))))))(2 (.)))))) |ET| 
1  |BT| (ROOT (2 (2 (2 (The))(2 (2 (only))(2 (thing))))(2 (2 (that))(2 (3 (distinguishes))(2 (2 (2 (a))(2 (2 (Randall))(2 (2 (Wallace))(2 (film)))))(2 (2 (from))(2 (2 (any))(2 (other))))))))(1 (0 (2 (2 (is))(2 (2 (the))(2 (fact))))(1 (2 (that))(1 (2 (there))(1 (2 (is))(1 (1 (1 (nothing))(2 (distinguishing)))(2 (2 (in))(2 (2 (a))(2 (2 (Randall))(2 (2 (Wallace))(2 (film)))))))))))(2 (.)))) |ET| 
1  |BT| (ROOT (2 (2 (Feels))(2 (2 (at))(2 (times))))(2 (1 (2 (like))(1 (2 (2 (a))(2 (2 (giant))(2 (commercial))))(2 (2 (for))(2 (2 (2 (2 (Universal))(3 (Studios)))(2 (,)))(2 (2 (where))(3 (2 (2 (much))(2 (2 (of))(2 (2 (the))(2 (action)))))(2 (2 (takes))(2 (place)))))))))(2 (.)))) |ET| 
-1  |BT| (ROOT (0 (0 (0 (0 (2 (We))(1 (0 (hate))(2 (2 (1 (-LRB-))(2 (2 (Madonna))(3 (-RRB-))))(2 (2 (within))(2 (2 (2 (the))(2 (2 (film))(2 ('s))))(2 (2 (first))(2 (2 (five))(2 (minutes)))))))))(2 (,)))(2 (and)))(1 (2 (she))(1 (1 (1 (lacks))(2 (2 (the))(2 (2 (2 (skill))(2 (or)))(2 (presence)))))(2 (2 (to))(2 (2 (regain))(2 (2 (any))(2 (ground))))))))(2 (.))) |ET| 
-1  |BT| (ROOT (2 (2 (If))(2 (2 (you))(2 (2 (recognize))(2 (2 (Zeus))(2 (1 (-LRB-))(1 (2 (2 (2 (the))(3 (dog)))(2 (2 (from))(2 (Snatch))))(3 (-RRB-))))))))(1 (2 (it))(1 (0 (2 (will))(1 (2 (make))(0 (2 (you))(1 (2 (wish))(1 (2 (you))(1 (2 (2 (were))(2 (2 (at))(2 (home))))(2 (2 (2 (watching))(2 (2 (that))(2 (movie))))(2 (2 (instead))(2 (2 (of))(2 (2 (in))(2 (2 (2 (the))(3 (theater)))(2 (2 (watching))(2 (2 (this))(2 (one)))))))))))))))(2 (.))))) |ET| 
-0.35410466388020039874007238722697  |BT| (ROOT (1 (1 (2 (Nothing))(2 (2 (but))(2 (2 (an))(2 (episode)))))(2 (2 (of))(2 (Smackdown))))(2 (!))) |ET| 
1  |BT| (ROOT (1 (1 (Degenerates))(1 (2 (into))(0 (hogwash))))(2 (.))) |ET| 
1  |BT| (ROOT (2 (Cinematic))(0 (1 (poo))(2 (.)))) |ET| 
1  |BT| (ROOT (2 (...))(0 (0 (irritating))(0 (3 (soul-searching))(0 (1 (garbage))(2 (.)))))) |ET| 
-1  |BT| (ROOT (2 (Just))(0 (1 (2 (plain))(3 (silly)))(2 (.)))) |ET| 
1  |BT| (ROOT (2 (2 (2 (All))(2 (2 (2 (the))(2 (2 (Queen))(2 ('s))))(3 (Men))))(0 (2 (is))(2 (3 (2 (a))(2 (2 (throwback))(2 (1 (war))(2 (movie)))))(0 (2 (that))(0 (0 (fails))(2 (2 (on))(2 (2 (2 (so))(2 (many)))(2 (levels)))))))))(0 (2 (,))(0 (2 (it))(1 (1 (2 (should))(0 (2 (2 (pay))(2 (reparations)))(2 (2 (to))(2 (viewers)))))(2 (.)))))) |ET| 
-0.094506705855282702177788678454817  |BT| (ROOT (3 (2 (made))(2 (2 (2 (Eddie))(2 (Murphy)))(2 (2 (3 (2 (a))(2 (2 (movie))(2 (star))))(2 (and)))(3 (2 (the))(2 (man))))))(2 (3 (2 (2 (has))(2 (n't)))(2 (1 (aged))(2 (2 (a))(2 (day)))))(2 (.)))) |ET| 
1  |BT| (ROOT (2 (2 (Quite))(2 (frankly)))(1 (2 (,))(1 (2 (I))(1 (1 (2 (2 (ca))(2 (n't)))(0 (2 (see))(0 (2 (why))(0 (2 (2 (2 (any))(2 (actor)))(2 (2 (of))(3 (talent))))(0 (2 (2 (would))(2 (ever)))(2 (2 (2 (work))(2 (2 (in))(2 (2 (a))(2 (2 (McCulloch))(2 (production))))))(2 (2 (again))(1 (2 (if))(2 (2 (they))(2 (2 (looked))(2 (2 (at))(2 (2 (how))(2 (2 (2 (this))(2 (movie)))(2 (2 (turned))(1 (out))))))))))))))))(2 (.)))))) |ET| 
1  |BT| (ROOT (2 (2 (2 (By))(2 (2 (the))(2 (time))))(3 (2 (you))(2 (2 (reach))(2 (2 (the))(2 (finale))))))(1 (2 (,))(1 (2 (you))(2 (2 (2 (2 ('re))(2 (likely)))(1 (2 (wondering))(2 (2 (why))(2 (2 (you))(2 (2 ('ve))(2 (2 (been))(2 (2 (2 (2 (watching))(2 (2 (all))(2 (2 (this))(2 (strutting)))))(2 (and)))(2 (posturing)))))))))(2 (.)))))) |ET| 
1  |BT| (ROOT (0 (1 (0 (2 (2 (The))(2 (2 (following))(2 (things))))(0 (2 (2 (2 (are))(1 (not)))(2 (2 (at))(2 (all))))(4 (entertaining))))(2 (:)))(0 (1 (0 (1 (1 (2 (The))(1 (0 (bad))(2 (sound))))(2 (,)))(1 (2 (2 (the))(2 (lack)))(2 (2 (of))(1 (2 (2 (3 (climax))(2 (and)))(2 (,)))(2 (0 (worst))(2 (2 (of))(2 (all))))))))(2 (,)))(3 (2 (watching))(2 (2 (2 (Seinfeld))(2 (1 (-LRB-))(2 (2 (2 (who))(2 (2 (2 (is))(2 (also)))(2 (2 (one))(2 (2 (of))(2 (2 (2 (the))(2 (2 (film))(2 ('s))))(2 (producers)))))))(3 (-RRB-)))))(2 (2 (do))(2 (2 (everything))(2 (2 (he))(2 (2 (can))(2 (2 (to))(2 (2 (look))(3 (2 (like))(3 (2 (a))(3 (3 (good))(2 (guy)))))))))))))))(2 (.))) |ET| 
-0.18830611123167287357382804202643  |BT| (ROOT (2 (2 (As))(2 (2 (directed))(2 (2 (by))(2 (2 (2 (Dani))(2 (Kouyate)))(2 (2 (of))(2 (2 (Burkina))(2 (Faso))))))))(1 (2 (,))(1 (3 (Sia))(1 (1 (1 (lacks))(3 (2 (visual))(2 (flair))))(2 (.)))))) |ET| 
-0.12021335292703942687619900198115  |BT| (ROOT (2 (2 (The))(2 (filmmakers)))(2 (1 (2 (1 (3 (needed))(2 (2 (more))(3 (emphasis))))(2 (2 (on))(2 (3 (2 (2 (the))(2 (storytelling)))(2 (and)))(2 (less)))))(1 (2 (on))(1 (2 (2 (the))(3 (3 (glamorous))(2 (machine))))(1 (2 (that))(1 (3 (2 (thrusts))(2 (2 (the))(2 (audience))))(1 (2 (into))(1 (2 (2 (a))(2 (future)))(1 (2 (they))(1 (2 (2 (2 (wo))(2 (n't)))(2 (much)))(2 (3 (care))(2 (about))))))))))))(2 (.)))) |ET| 
-0.34734343562839242736117739696056  |BT| (ROOT (2 (3 (Don))(2 (2 (Michael))(2 (Paul))))(1 (1 (2 (uses))(1 (2 (2 (2 (2 (quick-cuts))(2 (,)))(2 (1 (-LRB-))(2 (2 (very))(3 (-RRB-)))))(1 (2 (2 (2 (large))(2 (shadows)))(2 (and)))(1 (2 (2 (wide-angle))(2 (shots)))(1 (2 (1 (taken))(2 (2 (from))(2 (2 (a))(2 (distance)))))(2 (2 (to))(2 (2 (hide))(2 (2 (2 (the))(2 (2 (liberal))(2 (use))))(2 (2 (of))(2 (2 (a))(2 (2 (body))(2 (double))))))))))))(2 (1 (-LRB-))(2 (2 (2 (for))(1 (Seagal)))(3 (-RRB-))))))(2 (.)))) |ET| 
1  |BT| (ROOT (2 (Just))(0 (1 (2 (plain))(0 (bad)))(2 (.)))) |ET| 
1  |BT| (ROOT (2 (A))(0 (3 (real))(1 (0 (snooze))(2 (.))))) |ET| 
1  |BT| (ROOT (2 (A))(0 (3 (relative))(1 (0 (letdown))(2 (.))))) |ET| 
-1  |BT| (ROOT (2 (A))(0 (3 (high-minded))(0 (0 (snoozer))(2 (.))))) |ET| 
-1  |BT| (ROOT (1 (1 (0 (2 (2 (It))(1 (2 ('s))(0 (1 (1 (leaden))(2 (and)))(2 (predictable)))))(2 (,)))(2 (and)))(1 (3 (laughs))(1 (2 (are))(1 (lacking)))))(2 (.))) |ET| 
-1  |BT| (ROOT (2 (...))(0 (2 (stale))(0 (2 (and))(0 (1 (uninspired))(2 (.)))))) |ET| 
1  |BT| (ROOT (2 (You))(2 (0 (2 (2 ('ll))(2 (just)))(2 (2 (2 (2 (have))(2 (2 (your))(2 (head))))(2 (2 (in))(2 (2 (your))(2 (hands)))))(3 (2 (wondering))(1 (2 (why))(1 (2 (2 (2 (Lee))(2 ('s)))(2 (character)))(1 (2 (2 (2 (did))(2 (n't)))(2 (just)))(1 (2 (2 (2 (go))(2 (2 (to))(2 (2 (a))(2 (2 (bank))(2 (manager))))))(2 (and)))(0 (2 (2 (save))(2 (everyone)))(1 (2 (the))(1 (misery)))))))))))(2 (.)))) |ET| 
1  |BT| (ROOT (2 (`))(2 (1 (2 (2 (Martin))(2 (2 (Lawrence))(2 (2 (Live))(2 (')))))(1 (2 (is))(2 (2 (so))(1 (self-pitying)))))(2 (2 (,))(1 (2 (I))(2 (2 (almost))(2 (1 (1 (expected))(2 (2 (there))(1 (2 (to))(1 (2 (be))(2 (2 (2 (a))(2 (collection)))(2 (1 (taken))(2 (2 (for))(2 (2 (2 (the))(2 (comedian)))(2 (2 (at))(2 (2 (2 (the))(2 (end)))(2 (2 (of))(2 (2 (the))(2 (show))))))))))))))(2 (.)))))))) |ET| 
1  |BT| (ROOT (1 (1 (1 (2 (2 (2 (Tykwer))(2 ('s)))(2 (2 (surface))(2 (flash))))(1 (1 (1 (2 (is))(2 (n't)))(2 (just)))(1 (1 (2 (a))(1 (1 (poor))(3 (fit))))(2 (2 (with))(2 (2 (2 (Kieslowski))(2 ('s)))(2 (2 (lyrical))(1 (pessimism))))))))(2 (;)))(0 (2 (it))(0 (2 (completely))(1 (2 (contradicts))(3 (2 (everything))(2 (2 (2 (2 (Kieslowski))(2 ('s)))(2 (work)))(2 (2 (2 (3 (aspired))(2 (to)))(2 (,)))(2 (2 (including))(3 (2 (2 (the))(2 (condition)))(2 (2 (of))(2 (art))))))))))))(2 (.))) |ET| 
-1  |BT| (ROOT (0 (0 (1 (1 (3 (3 (Watchable))(2 (up)))(2 (2 (until))(2 (2 (the))(2 (point)))))(1 (2 (where))(0 (2 (2 (2 (2 (the))(2 (situations)))(2 (and)))(2 (2 (the))(2 (dialogue))))(1 (1 (2 (spin))(1 (2 (hopelessly))(1 (out))))(2 (2 (of))(2 (2 (2 (control))(2 (--)))(2 (2 (that))(2 (2 (is))(2 (2 (to))(2 (say)))))))))))(2 (,)))(2 (2 (when))(2 (2 (2 (Carol))(2 (Kane)))(2 (2 (appears))(2 (2 (on))(2 (2 (the))(2 (screen))))))))(2 (.))) |ET| 
-0.42455988003522682205925775633659  |BT| (ROOT (3 (2 (This))(2 (picture)))(0 (1 (2 (2 (is))(2 (mostly)))(1 (1 (2 (2 (a))(2 (lump)))(1 (2 (of))(1 (1 (run-of-the-mill))(2 (profanity)))))(1 (1 (2 (2 (sprinkled))(2 (2 (with))(2 (2 (2 (a))(2 (2 (few))(2 (remarks))))(2 (2 (so))(3 (geared))))))(2 (2 (toward))(2 (2 (engendering))(2 (2 (audience))(2 (sympathy))))))(2 (2 (that))(1 (2 (you))(2 (2 (might))(2 (2 (think))(2 (2 (he))(2 (2 (was))(2 (2 (2 (2 (2 (running))(2 (2 (for))(2 (office))))(2 (--)))(2 (or)))(2 (2 (trying))(2 (2 (to))(2 (3 (win))(2 (2 (over))(2 (2 (a))(2 (2 (probation))(2 (officer))))))))))))))))))(2 (.)))) |ET| 
-1  |BT| (ROOT (0 (2 (2 (2 (2 (One))(2 (thing)))(2 (2 ('s))(3 (2 (for))(2 (sure)))))(2 (--)))(1 (2 (2 (if))(2 (2 (2 (George))(2 (Romero)))(2 (2 (had))(2 (2 (directed))(2 (2 (this))(2 (movie)))))))(1 (2 (,))(1 (2 (it))(0 (2 (2 (would))(2 (n't)))(1 (2 (have))(1 (0 (1 (taken))(2 (2 (2 (the))(3 (protagonists)))(2 (2 (a))(2 (3 (full))(2 (hour))))))(2 (2 (to))(2 (2 (determine))(2 (2 (that))(2 (2 (2 (2 (in))(2 (order)))(2 (2 (to))(2 (2 (kill))(2 (2 (a))(2 (zombie))))))(1 (2 (you))(0 (2 (must))(0 (2 (1 (shoot))(2 (it)))(2 (2 (in))(2 (2 (the))(2 (head))))))))))))))))))(2 (.))) |ET| 
1  |BT| (ROOT (2 (It))(1 (0 (2 ('s))(0 (2 (3 (1 (2 (4 (4 (super))(2 (-)))(1 (violent)))(2 (,)))(2 (super-serious)))(2 (and)))(0 (super-stupid))))(2 (.)))) |ET| 
0.54022924331982080659031453251373  |BT| (ROOT (2 (It))(0 (0 (1 (1 (0 (0 (2 ('s))(0 (1 (1 (1 (2 (2 (simply))(0 (stupid)))(2 (,)))(1 (irrelevant)))(2 (and)))(2 (deeply))))(2 (,)))(3 (truly)))(2 (,)))(1 (1 (bottomlessly))(1 (cynical))))(2 (.)))) |ET| 
-0.14177734484968923522885120291903  |BT| (ROOT (2 (You))(2 (2 (2 (can))(3 (2 (3 (thank))(3 (me)))(2 (2 (for))(2 (this)))))(2 (.)))) |ET| 
-1  |BT| (ROOT (2 (Frankly))(0 (2 (,))(0 (2 (it))(0 (0 (2 ('s))(0 (4 (pretty))(0 (stupid))))(2 (.)))))) |ET| 
-1  |BT| (ROOT (2 (This))(1 (0 (2 (is))(0 (2 (a))(1 (0 (3 (truly))(0 (2 (,))(0 (3 (truly))(0 (bad)))))(2 (movie)))))(2 (.)))) |ET| 
-0.21626135119672987294769939126127  |BT| (ROOT (1 (2 (Contains))(0 (4 (2 (the))(4 (4 (humor))(3 (2 (,))(4 (2 (characterization))(3 (2 (,))(3 (1 (poignancy))(3 (3 (2 (,))(2 (and)))(3 (intelligence)))))))))(2 (2 (of))(0 (2 (a))(1 (0 (bad))(2 (sitcom)))))))(2 (.))) |ET| 
1  |BT| (ROOT (0 (2 (What))(0 (1 (2 (2 (a))(1 (4 (great))(1 (shame))))(3 (2 (that))(3 (2 (2 (such))(2 (a)))(3 (4 (3 (talented))(2 (director)))(2 (2 (as))(2 (2 (Chen))(2 (Kaige))))))))(1 (2 (has))(2 (2 (chosen))(2 (2 (to))(2 (2 (2 (make))(2 (2 (his))(2 (2 (English-language))(2 (debut)))))(2 (2 (with))(2 (2 (a))(2 (film))))))))))(0 (1 (2 (so))(1 (poorly)))(2 (2 (2 (2 (plotted))(2 (and)))(1 (scripted)))(2 (.))))) |ET| 
1  |BT| (ROOT (2 (But))(1 (2 (it))(1 (1 (2 ('s))(0 (2 (hard))(2 (2 (to))(2 (2 (imagine))(2 (2 (2 (a))(2 (2 (2 (more))(1 (generic)))(2 (effort))))(2 (2 (in))(2 (2 (the))(2 (genre)))))))))(2 (.))))) |ET| 
1  |BT| (ROOT (2 (2 (2 (A))(2 (movie)))(1 (2 (2 (in))(2 (which)))(0 (1 (2 (two))(1 (2 (1 (not))(2 (very)))(3 (3 (absorbing))(2 (characters)))))(2 (2 (are))(2 (3 (engaged))(2 (2 (in))(2 (2 (a))(3 (romance)))))))))(1 (2 (you))(3 (2 (2 (2 (ca))(2 (n't)))(2 (2 (wait))(2 (2 (to))(2 (2 (see))(2 (end))))))(2 (.))))) |ET| 
-0.85992253263473217295143058436224  |BT| (ROOT (2 (2 (Newcomer))(2 (3 (helmer))(2 (2 (Kevin))(2 (Donovan)))))(0 (2 (2 (is))(1 (1 (hamstrung))(1 (2 (by))(1 (0 (2 (a))(0 (1 (2 (badly))(2 (handled)))(2 (screenplay))))(3 (2 (of))(3 (3 (2 (what))(3 (2 (2 (is))(2 (really)))(3 (2 (an))(3 (4 (amusing))(2 (concept))))))(2 (2 (--))(2 (2 (2 (a))(2 (2 (high-tech))(2 (tux))))(3 (2 (that))(3 (3 (2 (transforms))(2 (2 (its))(2 (wearer))))(2 (2 (into))(2 (2 (a))(2 (superman))))))))))))))(2 (.)))) |ET| 
-1  |BT| (ROOT (0 (1 (1 (1 (2 (It))(0 (1 (1 (2 ('s))(2 (2 (a))(1 (hellish))))(2 (,)))(1 (1 (1 (numbing))(2 (experience)))(2 (2 (to))(2 (watch))))))(2 (,)))(2 (and)))(1 (2 (it))(2 (1 (2 (does))(2 (n't)))(1 (2 (2 (2 (2 (offer))(1 (2 (2 (any))(2 (insights)))(2 (2 (that))(2 (2 (2 (have))(2 (n't)))(2 (2 (been))(2 (2 (thoroughly))(2 (2 (debated))(1 (2 (in))(2 (2 (the))(2 (media)))))))))))(2 (already)))(2 (,)))(2 (2 (back))(2 (2 (in))(2 (2 (2 (the))(2 (1 (Dahmer))(2 (heyday))))(2 (2 (of))(2 (2 (the))(2 (2 (mid))(2 (2 (-))(2 ('90s)))))))))))))(2 (.))) |ET| 
-1  |BT| (ROOT (1 (1 (1 (2 (0 (3 (Like))(1 (1 (2 (the))(0 (0 (excruciating))(2 (End))))(2 (2 (of))(2 (Days)))))(1 (2 (,))(2 (2 (3 (Collateral))(2 (Damage)))(2 (2 (presents))(2 (2 (Schwarzenegger))(1 (2 (as))(2 (2 (a))(2 (2 (tragic))(2 (figure))))))))))(2 (,)))(2 (but)))(1 (2 (sympathy))(1 (2 (really))(2 (2 (belongs))(1 (2 (with))(1 (2 (2 (any))(2 (viewer)))(1 (1 (forced))(2 (2 (to))(2 (2 (watch))(2 (2 (him))(2 (2 (2 (try))(1 (out)))(2 (2 (so))(2 (2 (2 (many))(2 (complicated)))(2 (2 (facial))(2 (expressions))))))))))))))))(2 (.))) |ET| 
1  |BT| (ROOT (2 (I))(0 (0 (2 (2 (ca))(2 (n't)))(0 (2 (begin))(1 (2 (to))(0 (1 (1 (3 (2 (tell))(2 (you)))(1 (2 (how))(1 (tedious))))(2 (,)))(2 (0 (1 (1 (2 (how))(0 (1 (0 (1 (2 (resolutely))(1 (unamusing)))(2 (,)))(0 (2 (how))(0 (2 (thoroughly))(1 (0 (unrewarding))(2 (2 (all))(2 (2 (of))(2 (this))))))))(2 (is))))(2 (,)))(2 (and)))(1 (1 (1 (1 (2 (2 (what))(2 (a)))(2 (reckless)))(2 (squandering)))(3 (2 (of))(2 (2 (four))(3 (fine)))))(2 (2 (acting))(3 (talents)))))))))(2 (...)))) |ET| 
1  |BT| (ROOT (0 (3 (Very))(0 (1 (0 (stupid))(2 (and)))(0 (annoying))))(2 (.))) |ET| 
0.63901246942268219441984911100008  |BT| (ROOT (2 (...))(0 (1 (pitiful))(0 (2 (,))(1 (0 (2 (slapdash))(0 (disaster)))(2 (.)))))) |ET| 
-1  |BT| (ROOT (0 (2 (An))(0 (0 (1 (ugly))(1 (2 (,))(1 (revolting))))(2 (movie))))(2 (.))) |ET| 
-1  |BT| (ROOT (0 (3 (Eckstraordinarily))(1 (1 (0 (lame))(2 (and)))(2 (Severely))))(2 (0 (boring))(2 (.)))) |ET| 
-1  |BT| (ROOT (0 (1 (1 (Flat))(2 (,)))(1 (0 (misguided))(3 (comedy))))(2 (.))) |ET| 
1  |BT| (ROOT (2 (2 (The))(3 (2 (action))(2 (scenes))))(1 (1 (1 (1 (2 (have))(2 (2 (2 (all))(2 (2 (the))(2 (suspense))))(1 (2 (of))(1 (2 (a))(2 (2 (20-car))(2 (pileup)))))))(2 (,)))(1 (2 (while))(1 (1 (2 (the))(1 (2 (plot))(2 (holes))))(2 (2 (2 (2 (are))(2 (2 (2 (big))(2 (enough)))(2 (2 (for))(2 (2 (a))(2 (2 (train))(3 (2 (car))(2 (2 (to))(2 (2 (drive))(2 (through))))))))))(2 (--)))(1 (2 (if))(2 (2 (Kaos))(2 (2 (2 (had))(2 (n't)))(2 (2 (1 (blown))(2 (them)))(2 (2 (all))(2 (up)))))))))))(2 (.)))) |ET| 
1  |BT| (ROOT (1 (1 (2 (1 (1 (1 (2 (Confuses))(2 (2 (its))(2 (message))))(2 (2 (with))(2 (2 (an))(2 (3 (ultimate))(2 (desire))))))(2 (2 (to))(2 (please))))(2 (,)))(2 (and)))(1 (2 (2 (contorting))(2 (itself)))(2 (2 (into))(3 (2 (2 (an))(2 (idea)))(2 (2 (of))(2 (expectation)))))))(1 (1 (2 (is))(2 (2 (2 (the))(2 (2 (last))(2 (thing))))(1 (2 (2 (2 (2 (2 (2 (any))(2 (2 (of))(2 (2 (these))(2 (2 (three))(2 (actresses))))))(2 (,)))(2 (nor)))(2 (2 (their))(2 (characters))))(2 (,)))(2 (deserve)))))(2 (.)))) |ET| 
1  |BT| (ROOT (1 (2 (3 (Does))(2 (n't)))(3 (2 (2 (come))(2 (2 (close))(2 (2 (to))(4 (2 (justifying))(2 (1 (2 (the))(2 (hype)))(2 (2 (that))(2 (2 (2 (surrounded))(2 (2 (its))(2 (debut))))(2 (2 (at))(2 (2 (the))(2 (2 (Sundance))(3 (2 (Film))(3 (Festival)))))))))))))(2 (2 (2 (two))(2 (years)))(2 (ago)))))(2 (.))) |ET| 
-0.20706535056830405183703192051325  |BT| (ROOT (1 (3 (Like))(2 (2 (leafing))(2 (2 (through))(2 (2 (2 (an))(2 (album)))(2 (2 (of))(2 (photos)))))))(1 (2 (2 (accompanied))(1 (2 (by))(2 (1 (2 (the))(1 (sketchiest)))(2 (2 (of))(2 (captions))))))(2 (.)))) |ET| 
-0.69606349488009577886060696982895  |BT| (ROOT (2 (2 (2 (As))(2 (if)))(2 (4 (1 (Drop))(3 (0 (Dead))(4 (Gorgeous))))(1 (2 (2 (was))(2 (n't)))(2 (enough)))))(2 (2 (,))(1 (1 (2 (this))(0 (1 (2 (equally))(1 (derisive)))(1 (clunker))))(2 (2 (2 (is))(2 (2 (fixated))(2 (2 (on))(3 (3 (2 (the))(3 (spectacle)))(3 (2 (of))(2 (2 (small-town))(2 (competition))))))))(2 (.)))))) |ET| 
-0.015482813181068255659056376316585  |BT| (ROOT (2 (2 (The))(2 (plot)))(1 (1 (2 (meanders))(2 (2 (from))(2 (3 (gripping))(1 (2 (to))(2 (1 (1 (plodding))(2 (and)))(2 (back)))))))(2 (.)))) |ET| 
0.59129488509892602632334046575124  |BT| (ROOT (0 (2 (Extremely))(0 (bad)))(2 (.))) |ET| 
0.74330215905715524282726391902543  |BT| (ROOT (2 (Yes))(0 (2 (,))(0 (2 (I))(1 (0 (2 (have))(0 (2 (2 (given))(2 (2 (this))(2 (movie))))(0 (2 (2 (a))(2 (rating)))(2 (2 (of))(1 (zero))))))(2 (.)))))) |ET| 
1  |BT| (ROOT (0 (1 (Shallow))(1 (2 (,))(1 (1 (1 (noisy))(2 (and)))(1 (pretentious)))))(2 (.))) |ET| 
-1  |BT| (ROOT (0 (1 (0 (1 (Smug))(0 (2 (,))(1 (1 (artificial))(1 (2 (,))(0 (0 (ill-constructed))(1 (2 (and))(0 (2 (fatally))(1 (overlong)))))))))(2 (...)))(0 (2 (it))(0 (2 (never))(1 (1 (1 (3 (3 (3 (2 (finds))(3 (2 (a))(2 (3 (consistent))(2 (tone)))))(2 (and)))(1 (lacks)))(1 (bite)))(2 (,)))(0 (1 (degenerating))(1 (2 (into))(1 (2 (a))(0 (2 (pious))(1 (2 (,))(1 (1 (preachy))(1 (2 (soap))(2 (opera)))))))))))))(2 (.))) |ET| 
-1  |BT| (ROOT (2 (Snipes))(0 (0 (2 (is))(2 (2 (both))(0 (1 (1 (2 (a))(1 (snore)))(2 (and)))(0 (2 (utter))(1 (tripe))))))(2 (.)))) |ET| 
-1  |BT| (ROOT (2 (Ah))(1 (2 (,))(1 (1 (2 (what))(1 (2 (the))(0 (hell))))(2 (.))))) |ET| 
1  |BT| (ROOT (2 (There))(2 (2 (2 (2 (are))(2 (now)))(1 (2 (1 (2 (2 (two))(2 (signs)))(2 (2 (that))(1 (2 (2 (2 (M.))(2 (2 (Night))(2 (2 (Shyamalan))(2 ('s)))))(2 (2 (debut))(2 (feature))))(2 (1 (0 (sucked))(2 (2 (up))(2 (all))))(2 (2 (he))(2 (2 (has))(2 (2 (to))(2 (3 (give))(2 (2 (to))(2 (2 (2 (the))(2 (3 (mystic))(2 (genres))))(2 (2 (of))(2 (cinema)))))))))))))(2 (:)))(2 (2 (3 (Unbreakable))(2 (and)))(2 (Signs)))))(2 (.)))) |ET| 
1  |BT| (ROOT (1 (2 (Nothing))(2 (2 (about))(2 (2 (2 (the))(2 (film)))(2 (2 (--))(2 (2 (2 (with))(3 (2 (2 (the))(2 (2 (possible))(2 (exception))))(2 (2 (of))(2 (3 (2 (Elizabeth))(2 (2 (Hurley))(2 ('s))))(2 (breasts))))))(2 (--)))))))(3 (4 (2 (is))(3 (authentic)))(2 (.)))) |ET| 
1  |BT| (ROOT (1 (2 (Has))(1 (1 (no))(2 (2 (reason))(2 (2 (to))(2 (exist))))))(2 (2 (,))(1 (2 (2 (other))(3 (2 (than))(2 (2 (2 (2 (to))(2 (2 (employ))(3 (2 (Hollywood))(2 (kids)))))(2 (and)))(2 (2 (people))(2 (2 (who))(2 (owe)))))))(2 (2 (2 (favors))(2 (2 (to))(2 (2 (their))(2 (2 (famous))(2 (parents))))))(2 (.)))))) |ET| 
0.24201988609062907720215207518777  |BT| (ROOT (0 (1 (0 (2 (A))(0 (1 (sleep-inducingly))(2 (2 (slow-paced))(1 (1 (crime))(1 (drama))))))(1 (2 (with))(0 (0 (0 (0 (1 (1 (1 (clumsy))(2 (dialogue)))(2 (,)))(0 (1 (heavy-handed))(0 (1 (phoney-feeling))(2 (sentiment)))))(2 (,)))(2 (and)))(1 (2 (an))(2 (1 (overly-familiar))(2 (set)))))))(2 (2 (of))(2 (2 (plot))(2 (devices)))))(2 (.))) |ET| 
-1  |BT| (ROOT (2 (It))(2 (2 (2 (2 ('s))(2 (likely)))(2 (2 (that))(1 (2 (1 (whatever))(2 (2 (you))(2 (2 (thought))(2 (2 (of))(2 (2 (2 (the))(2 (2 (first))(2 (production))))(2 (2 (--))(2 (2 (2 (2 (pro))(2 (or)))(1 (con)))(2 (--)))))))))(2 (2 (you))(2 (2 (2 ('ll))(2 (likely)))(2 (2 (think))(2 (2 (of))(2 (2 (this))(2 (one))))))))))(2 (.)))) |ET| 
-0.047737053199725945629161572014709  |BT| (ROOT (3 (2 (As))(3 (2 (much))(3 (2 (as))(4 (2 (I))(3 (3 (laughed))(2 (2 (throughout))(2 (2 (the))(2 (movie)))))))))(3 (2 (,))(2 (2 (I))(1 (1 (2 (2 (can))(1 (not)))(1 (2 (2 (mount))(2 (2 (2 (2 (2 (2 (2 (2 (a))(2 (2 (cogent))(2 (defense))))(2 (2 (of))(2 (2 (2 (the))(2 (film)))(3 (2 (as))(3 (entertainment))))))(2 (,)))(2 (or)))(2 (even)))(2 (2 (performance))(2 (art))))(2 (,))))(2 (2 (although))(3 (2 (2 (the))(2 (movie)))(3 (2 (does))(3 (1 (leave))(2 (2 (you))(3 (3 (3 (marveling))(2 (2 (at))(3 (2 (2 (these))(2 (2 (guys))(2 ('))))(2 (2 (superhuman))(2 (capacity))))))(2 (2 (to))(2 (2 (withstand))(2 (pain))))))))))))(2 (.)))))) |ET| 
1  |BT| (ROOT (2 (2 (is))(0 (2 (a))(1 (mess))))(2 (.))) |ET| 
1  |BT| (ROOT (1 (1 (2 (Brisk))(1 (hack)))(2 (job)))(2 (.))) |ET| 
1  |BT| (ROOT (2 (Kitschy))(1 (2 (,))(1 (1 (3 (flashy))(1 (2 (,))(1 (1 (overlong))(2 (soap)))))(2 (2 (opera))(2 (.)))))) |ET| 
-1  |BT| (ROOT (0 (2 (1 (-LRB-))(2 (2 (A))(3 (-RRB-))))(1 (mess)))(2 (.))) |ET| 
-1  |BT| (ROOT (1 (1 (1 (Anemic))(2 (,)))(1 (pretentious)))(2 (.))) |ET| 
-0.62167026215169107761226996444748  |BT| (ROOT (2 (Time))(1 (0 (2 (2 (stands))(2 (still)))(1 (2 (in))(1 (3 (2 (more))(2 (ways)))(1 (2 (that))(1 (2 (2 (one))(2 (2 (in))(2 (2 (2 (Clockstoppers))(2 (,)))(2 (2 (a))(2 (sci-fi))))))(0 (1 (3 (thriller))(1 (2 (as))(1 (lazy))))(1 (2 (as))(1 (2 (it))(1 (2 (is))(2 (interminable)))))))))))(2 (.)))) |ET| 
1  |BT| (ROOT (2 (4 (2 (2 (What))(2 (2 (might))(3 (2 (have))(3 (3 (2 (emerged))(3 (3 (2 (as))(4 (hilarious)))(1 (lunacy))))(2 (2 (in))(2 (2 (2 (the))(2 (hands)))(2 (2 (of))(2 (2 (Woody))(2 (Allen))))))))))(2 (or)))(2 (2 (1 (Mel))(2 (Brooks)))(2 (1 (-LRB-))(2 (3 (2 (2 (2 (at))(1 (least)))(2 (2 (during))(2 (2 (their))(2 ('70s)))))(2 (heyday)))(3 (-RRB-))))))(1 (0 (0 (3 (comes))(1 (2 (across))(1 (2 (as))(0 (1 (0 (lame))(2 (and)))(1 (sophomoric))))))(2 (2 (in))(2 (2 (this))(2 (2 (debut))(2 (2 (indie))(2 (feature)))))))(2 (.)))) |ET| 
1  |BT| (ROOT (0 (1 (2 (2 (2 (I))(2 (2 (did))(2 (2 (2 (2 (go))(2 (back)))(2 (and)))(2 (3 (check))(2 (1 (out))(2 (2 (the))(2 (2 (last))(2 (3 (10))(2 (minutes))))))))))(2 (,)))(2 (but)))(1 (2 (these))(0 (1 (2 (were))(0 (2 (more))(0 (repulsive))))(3 (2 (than))(2 (2 (the))(2 (2 (first))(2 (2 (2 (2 (30))(2 (or)))(2 (40)))(2 (minutes)))))))))(2 (.))) |ET| 
1  |BT| (ROOT (0 (1 (2 (2 (1 (2 (I))(2 (2 (2 (3 (liked))(2 (2 (2 (the))(2 (3 (original))(2 (2 (short))(2 (story)))))(2 (2 (but))(2 (2 (this))(2 (movie))))))(2 (,)))(2 (2 (even))(2 (2 (at))(2 (2 (2 (2 (an))(2 (hour)))(2 (and)))(2 (2 (twenty-some))(2 (minutes))))))))(2 (,)))(1 (2 (it))(1 (2 ('s))(1 (2 (too))(2 (long))))))(2 (and)))(1 (2 (it))(2 (2 (goes))(2 (nowhere)))))(2 (.))) |ET| 
-1  |BT| (ROOT (1 (2 (2 (First-time))(2 (2 (director))(2 (2 (João))(2 (3 (Pedro))(2 (2 (Rodrigues))(2 (')))))))(1 (2 (unwillingness))(2 (2 (to))(2 (2 (define))(2 (2 (2 (his))(2 (3 (hero))(2 ('s))))(2 (2 (2 (background))(2 (or)))(2 (motivations))))))))(0 (0 (1 (2 (becomes))(1 (2 (2 (more))(2 (and)))(1 (2 (more))(0 (frustrating)))))(2 (2 (as))(2 (2 (2 (the))(2 (film)))(2 (2 (goes))(2 (on))))))(2 (.)))) |ET| 
-1  |BT| (ROOT (1 (2 (After))(2 (2 (2 (2 (an))(2 (hour)))(2 (and)))(2 (2 (2 (a))(2 (half)))(2 (2 (of))(1 (2 (2 (wondering))(2 (2 (--))(2 (2 (sometimes))(2 (2 (2 (3 (3 (amusedly))(2 (,)))(2 (sometimes)))(2 (impatiently)))(2 (--))))))(3 (2 (2 (just))(2 (what)))(2 (1 (2 (this))(2 (2 (2 (strenuously))(2 (unconventional)))(2 (movie))))(2 (2 (is))(2 (2 (supposed))(2 (2 (to))(2 (be))))))))))))(1 (2 (,))(2 (2 (you))(2 (1 (2 (discover))(1 (2 (that))(1 (2 (2 (the))(2 (answer)))(1 (2 (2 (is))(2 (2 (as))(2 (conventional))))(2 (2 (as))(2 (2 (can))(2 (be))))))))(2 (.)))))) |ET| 
-0.41812942615571296878229645699321  |BT| (ROOT (1 (2 (The))(2 (0 (lousy))(3 (2 (lead))(2 (performances)))))(1 (2 (...))(1 (1 (2 (2 (keep))(2 (2 (the))(2 (movie))))(1 (2 (from))(1 (2 (ever))(3 (2 (reaching))(2 (2 (2 (the))(2 (2 (comic))(2 (heights))))(2 (2 (it))(3 (2 (obviously))(2 (desired)))))))))(2 (.))))) |ET| 
1  |BT| (ROOT (2 (1 (-LRB-))(2 (2 (A))(3 (-RRB-))))(2 (2 (rather))(1 (2 (1 (thinly-conceived))(2 (movie)))(2 (.))))) |ET| 
1  |BT| (ROOT (1 (1 (1 (Sluggish))(2 (,)))(0 (2 (tonally))(1 (uneven))))(2 (.))) |ET| 
1  |BT| (ROOT (1 (2 (1 (Dismally))(0 (dull)))(2 (2 (sci-fi))(3 (comedy))))(2 (.))) |ET| 
-0.8045130463413771026992549195711  |BT| (ROOT (1 (Shallow))(2 (.))) |ET| 
-0.62382757429460855558289722466725  |BT| (ROOT (1 (2 (1 (Thin))(2 (period)))(2 (piece)))(2 (.))) |ET| 
-1  |BT| (ROOT (1 (0 (1 (1 (2 (Wewannour))(2 (money)))(2 (back)))(2 (,)))(2 (actually)))(2 (.))) |ET| 
1  |BT| (ROOT (0 (2 (This))(1 (2 (90-minute))(1 (dud))))(2 (2 (2 (could))(2 (2 (pass))(2 (2 (for))(2 (2 (2 (Mike))(2 (2 (Tyson))(2 ('s))))(2 (E))))))(2 (!)))) |ET| 
1  |BT| (ROOT (2 (2 (The))(2 (movie)))(2 (1 (2 (2 (2 (is))(2 (so)))(0 (2 (contrived))(1 (2 (,))(1 (1 (1 (nonsensical))(2 (and)))(1 (formulaic))))))(1 (2 (2 (that))(2 (2 (,))(2 (2 (2 (come))(2 (2 (to))(2 (2 (think))(2 (2 (of))(2 (it))))))(2 (,)))))(1 (1 (2 (the))(2 (2 (day-old))(2 (shelf))))(2 (2 (would))(2 (2 (be))(2 (2 (a))(2 (3 (2 (more))(3 (appropriate)))(2 (2 (location))(2 (2 (to))(2 (2 (store))(2 (it))))))))))))(2 (.)))) |ET| 
1  |BT| (ROOT (0 (0 (1 (2 (2 (2 (2 (Rifkin))(2 (2 (1 (no))(2 (doubt)))(2 (2 (fancies))(2 (2 (himself))(2 (2 (something))(2 (2 (of))(2 (2 (a))(2 (2 (Hubert))(2 (2 (Selby))(2 (Jr.)))))))))))(2 (,)))(2 (but)))(2 (2 (there))(0 (1 (2 (is))(2 (n't)))(2 (3 (2 (2 (an))(2 (ounce)))(3 (2 (of))(3 (4 (honest))(3 (poetry)))))(2 (2 (in))(2 (2 (his))(2 (2 (entire))(2 (script)))))))))(2 (;)))(1 (2 (it))(1 (2 (2 ('s))(2 (simply)))(1 (1 (crude))(1 (2 (and))(1 (2 (unrelentingly))(0 (exploitative))))))))(2 (.))) |ET| 
-0.031265894406342288613931401641821  |BT| (ROOT (2 (Romanek))(1 (1 (2 (keeps))(1 (3 (adding))(2 (3 (3 (flourishes))(2 (2 (--))(3 (2 (3 (artsy))(2 (3 (fantasy))(2 (sequences))))(2 (--)))))(2 (2 (that))(1 (2 (simply))(2 (2 (feel))(1 (wrong))))))))(2 (.)))) |ET| 
-1  |BT| (ROOT (0 (1 (1 (3 (2 (An))(3 (3 (ambitious))(2 (2 (,))(2 (2 (serious))(2 (film))))))(0 (2 (that))(0 (2 (manages))(1 (2 (to))(0 (2 (do))(1 (2 (2 (virtually))(2 (everything)))(1 (wrong))))))))(2 (;)))(0 (2 (2 (sitting))(2 (2 (through))(2 (it))))(2 (2 (is))(2 (2 (something))(1 (2 (akin))(2 (2 (to))(2 (2 (2 (an))(2 (act)))(2 (2 (of))(2 (3 (cinematic))(2 (penance)))))))))))(2 (.))) |ET| 
-1  |BT| (ROOT (1 (No))(0 (2 (,))(0 (2 (I))(0 (0 (2 (2 (do))(2 (n't)))(1 (1 (0 (2 (know))(0 (2 (why))(1 (3 (2 (Steven))(1 (Seagal)))(2 (2 (is))(0 (2 (considered))(1 (2 (2 (a))(2 (star)))(1 (2 (2 (,))(2 (nor)))(1 (2 (why))(0 (2 (he))(0 (2 (keeps))(0 (2 (being))(2 (2 (2 (cast))(2 (2 (in))(2 (2 (action))(2 (films)))))(1 (2 (when))(1 (2 (2 (none))(2 (2 (of))(2 (them))))(2 (2 (2 (are))(2 (ever)))(2 (2 (any))(3 (good))))))))))))))))))(2 (or)))(2 (2 (make))(2 (2 (any))(2 (money))))))(2 (.)))))) |ET| 
1  |BT| (ROOT (1 (1 (3 (Get))(1 (out)))(1 (2 (your))(1 (pooper-scoopers))))(2 (.))) |ET| 
1  |BT| (ROOT (1 (2 (Dramatically))(1 (lackluster)))(2 (.))) |ET| 
1  |BT| (ROOT (1 (0 (1 (Stale))(2 (and)))(1 (1 (clichéd))(2 (2 (to))(1 (2 (a))(2 (fault))))))(2 (.))) |ET| 
-1  |BT| (ROOT (1 (2 (Trades))(1 (0 (1 (run-of-the-mill))(0 (revulsion)))(1 (2 (for))(1 (2 (extreme))(1 (unease))))))(2 (.))) |ET| 
-0.37024944000789344888957543844299  |BT| (ROOT (1 (1 (Collapses))(1 (2 (under))(1 (2 (its))(1 (2 (own))(1 (1 (meager))(2 (weight)))))))(2 (.))) |ET| 
-0.92239062266242444199093597489991  |BT| (ROOT (2 (A))(2 (1 (2 (movie))(1 (2 (that))(1 (1 (1 (falls))(1 (victim)))(2 (2 (to))(1 (1 (2 (2 (frazzled))(3 (wackiness)))(2 (and)))(1 (2 (frayed))(2 (satire))))))))(2 (.)))) |ET| 
1  |BT| (ROOT (0 (0 (0 (1 (1 (2 (This))(0 (2 (1 (2 (is))(2 (2 (rote))(2 (spookiness))))(2 (,)))(0 (2 (with))(0 (2 (0 (2 (nary))(3 (2 (an))(2 (3 (original))(2 (idea)))))(1 (1 (2 (1 (-LRB-))(2 (or)))(3 (2 (2 (2 (2 (role))(2 (,)))(2 (2 (2 (2 (2 (2 (or))(1 (edit)))(2 (,)))(2 (or)))(3 (score)))(2 (,))))(2 (or)))(2 (2 (2 (anything))(2 (,)))(2 (really)))))(3 (-RRB-))))(2 (2 (in))(2 (sight)))))))(2 (,)))(2 (and)))(2 (2 (2 (2 (the))(2 (whole)))(2 (2 (of))(2 (2 (the))(2 (proceedings)))))(1 (2 (2 (2 (beg))(2 (2 (the))(2 (question))))(2 (`)))(2 (Why)))))(2 (?)))(2 ('))) |ET| 
1  |BT| (ROOT (1 (1 (3 (2 (2 (1 (1 (2 (2 (2 (2 (Some))(2 (writer)))(2 (dude)))(2 (,)))(2 (2 (I))(2 (2 (think))(2 (2 (2 (his))(2 (name)))(1 (2 (2 (2 (2 (was))(2 (,)))(2 (uh)))(2 (,)))(1 (2 (2 (2 (Michael))(2 (Zaidan)))(2 (,)))(2 (2 (was))(2 (2 (supposed))(2 (2 (to))(2 (2 (have))(2 (2 (like))(2 (3 (written))(3 (2 (the))(2 (3 (2 (screenplay))(2 (or)))(2 (something))))))))))))))))(2 (,)))(2 (but)))(2 (,)))(2 (dude)))(2 (,)))(2 (2 (2 (2 (the))(2 (2 (only))(2 (thing))))(2 (2 (that))(2 (2 (I))(2 (2 (ever))(1 (2 (saw))(1 (2 (that))(2 (2 (was))(2 (3 (written))(2 (down))))))))))(2 (2 (were))(2 (2 (2 (the))(2 (zeroes)))(2 (2 (on))(2 (2 (my))(2 (paycheck))))))))(2 (.))) |ET| 
1  |BT| (ROOT (0 (0 (1 (3 (2 (2 (This))(2 (2 (2 (is))(2 (2 (2 (the))(3 (kind)))(2 (2 (of))(2 (movie)))))(2 (2 (that))(3 (2 (you))(3 (2 (only))(2 (2 (need))(2 (2 (to))(2 (2 (1 (1 (2 (2 (watch))(2 (2 (for))(2 (2 (about))(2 (2 (thirty))(2 (seconds))))))(2 (2 (before))(2 (2 (you))(2 (2 (say))(2 (2 (to))(2 (yourself)))))))(2 (,)))(2 (`)))(2 (2 (2 (Ah))(2 (,)))(2 (yes)))))))))))(2 (,)))(2 (here)))(0 (2 (we))(1 (2 (have))(0 (2 (a))(1 (0 (bad))(0 (2 (,))(0 (0 (bad))(1 (2 (,))(0 (0 (bad))(2 (movie)))))))))))(2 (.)))(2 ('))) |ET| 
-1  |BT| (ROOT (2 (2 (In))(2 (2 (the))(2 (end))))(1 (2 (,))(1 (2 (2 (2 (The))(2 (Weight)))(2 (2 (of))(2 (Water))))(1 (1 (0 (3 (comes))(1 (2 (to))(2 (2 (resemble))(1 (1 (2 (2 (the))(3 (kind)))(1 (2 (of))(1 (2 (soft-core))(2 (twaddle)))))(2 (2 (you))(3 (2 ('d))(2 (2 (expect))(2 (2 (to))(2 (2 (2 (see))(2 (on)))(2 (2 (2 (Showtime))(2 ('s)))(3 (2 (`))(2 (2 (Red))(2 (2 (Shoe))(2 (Diaries)))))))))))))))(2 (.)))(2 (')))))) |ET| 
-0.33376604125570347170182117224613  |BT| (ROOT (2 (2 (At))(2 (2 (2 (the))(2 (end)))(2 (2 (of))(2 (2 (the))(2 (movie))))))(2 (2 (2 (,))(2 (2 (2 (2 (my))(2 (2 (6-year-old))(2 (nephew))))(2 (said)))(2 (,))))(2 (2 (``))(2 (2 (2 (1 (2 (2 (2 (I))(2 (2 (guess))(2 (2 (I))(2 (2 (come))(2 (2 (from))(2 (2 (a))(2 (2 (broken))(3 (family)))))))))(2 (,)))(2 (and)))(2 (2 (2 (my))(2 (uncles)))(2 (2 (2 (2 (are))(1 (2 (all))(2 (aliens))))(2 (,)))(2 (too)))))(2 (.)))(2 ('')))))) |ET| 
-0.13719789436781676394971896115749  |BT| (ROOT (2 (2 (2 (A))(2 (2 (hard))(2 (look))))(0 (2 (at))(2 (2 (2 (2 (2 (one))(2 (2 (man))(2 ('s))))(2 (2 (occupational))(2 (angst))))(2 (and)))(1 (2 (2 (2 (its))(2 (2 (subsequent))(2 (reinvention))))(2 (,)))(2 (2 (2 (a))(2 (2 (terrifying))(2 (study))))(2 (2 (of))(2 (bourgeois))))))))(2 (2 (1 (1 (desperation))(4 (worthy)))(2 (2 (of))(2 (3 (Claude))(2 (Chabrol)))))(2 (.)))) |ET| 
1  |BT| (ROOT (0 (1 (0 (2 (An))(1 (1 (unholy))(1 (mess))))(2 (,)))(0 (1 (2 (driven))(1 (2 (by))(1 (2 (the))(0 (0 (pathetic))(2 (idea))))))(1 (2 (that))(1 (2 (2 (if))(1 (2 (you))(1 (1 (shoot))(1 (2 (something))(1 (2 (on))(0 (2 (crummy-looking))(2 (videotape))))))))(3 (2 (,))(3 (2 (it))(2 (2 (must))(3 (2 (be))(3 (2 (labelled))(4 (2 (3 (2 (`))(3 (3 (hip))(2 ('))))(2 (,)))(3 (2 (`))(4 (3 (innovative))(3 (2 ('))(2 (2 (and))(3 (2 (`))(3 (2 (realistic))(2 ('))))))))))))))))))(2 (.))) |ET| 
0.66046745598216050066042726029991  |BT| (ROOT (0 (0 (2 (A))(1 (0 (0 (depraved))(0 (2 (,))(0 (1 (incoherent))(1 (2 (,))(1 (2 (instantly))(1 (disposable)))))))(2 (piece))))(1 (2 (of))(1 (hackery))))(2 (.))) |ET| 
1  |BT| (ROOT (0 (2 (Suffers))(0 (2 (from))(1 (1 (1 (2 (a))(2 (lack)))(2 (2 (of))(3 (3 (3 (clarity))(2 (and)))(1 (audacity)))))(1 (2 (that))(2 (2 (a))(1 (2 (1 (2 (subject))(1 (2 (as))(1 (monstrous))))(2 (and)))(1 (0 (pathetic))(1 (2 (as))(1 (Dahmer))))))))))(2 (2 (demands))(2 (.)))) |ET| 
-1  |BT| (ROOT (2 (2 (The))(2 (film)))(0 (0 (0 (0 (2 (1 (1 (1 (2 (has))(1 (1 (2 (the))(1 (1 (thrown-together))(2 (feel))))(1 (2 (of))(1 (2 (2 (2 (a))(1 (2 (summer-camp))(2 (3 (talent))(2 (show)))))(2 (:)))(1 (2 (hastily))(3 (written)))))))(2 (,)))(1 (underrehearsed)))(2 (,)))(1 (2 (arbitrarily))(2 (plotted))))(2 (and)))(1 (2 (filled))(1 (2 (with))(0 (1 (crude))(2 (4 (humor))(1 (2 (and))(1 (0 (vulgar))(1 (innuendo)))))))))(2 (.)))) |ET| 
-0.44736575981517939792908578056085  |BT| (ROOT (3 (1 (1 (2 (2 (The))(2 (movie)))(0 (2 (is))(1 (1 (2 (a))(1 (1 (lumbering))(2 (load))))(2 (2 (of))(1 (2 (hokum))(2 (but)))))))(2 (...)))(1 (2 (it))(2 (2 ('s))(2 (2 (2 (at))(1 (least)))(3 (watchable))))))(2 (.))) |ET| 
-0.18407790773896948177679178115795  |BT| (ROOT (1 (2 (If))(1 (2 (2 (The))(2 (3 (Full))(2 (Monty))))(1 (2 (was))(2 (2 (a))(1 (3 (freshman))(1 (fluke)))))))(2 (2 (,))(1 (2 (2 (Lucky))(1 (Break)))(1 (1 (2 (is))(1 (2 (1 (-LRB-))(2 (2 (Cattaneo))(3 (-RRB-))))(1 (2 (sophomore))(1 (slump)))))(2 (.)))))) |ET| 
1  |BT| (ROOT (2 (2 (For))(2 (2 (the))(2 (future))))(2 (2 (,))(1 (2 (one))(2 (1 (2 (hopes))(2 (2 (2 (Mr.))(2 (Plympton)))(2 (2 (will))(1 (2 (2 (find))(2 (room)))(2 (2 (for))(2 (2 (2 (one))(2 (2 (more))(3 (member))))(2 (2 (of))(2 (2 (2 (2 (his))(2 (2 (little))(2 (band))))(2 (,)))(2 (2 (a))(2 (3 (professional))(2 (screenwriter))))))))))))(2 (.)))))) |ET| 
1  |BT| (ROOT (2 (3 (How))(1 (inept)))(2 (2 (2 (is))(2 (2 (Serving))(2 (Sara))))(2 (?)))) |ET| 
1  |BT| (ROOT (2 (Viewers))(2 (0 (2 (will))(0 (2 (2 (need))(2 (2 (2 (all))(2 (2 (the))(2 (luck))))(2 (2 (they))(2 (2 (can))(2 (2 (2 (muster))(2 (just)))(2 (2 (2 (figuring))(1 (out)))(2 (2 (who))(2 (2 ('s))(2 (who))))))))))(0 (2 (in))(1 (2 (this))(1 (1 (pretentious))(1 (mess)))))))(2 (.)))) |ET| 
-0.018003281223023189644427688449468  |BT| (ROOT (0 (2 (It))(1 (2 ('s))(0 (2 (hard))(2 (2 (to))(2 (2 (say))(3 (2 (who))(3 (2 (might))(3 (4 (enjoy))(2 (this))))))))))(2 (2 (,))(2 (2 (2 (2 (2 (are))(2 (there)))(2 (2 (Tolstoy))(2 (groupies))))(2 (1 (out))(2 (there))))(2 (?))))) |ET| 
-0.011340385604092194371528279361883  |BT| (ROOT (2 (2 (0 (2 (Overly))(2 (long)))(2 (and)))(2 (3 (worshipful))(2 (bio-doc))))(2 (.))) |ET| 
-1  |BT| (ROOT (1 (2 (2 (1 (Rumor))(2 (,)))(2 (2 (2 (a))(1 (1 (muddled))(1 (drama))))(2 (2 (about))(2 (2 (coming))(2 (2 (to))(2 (2 (terms))(2 (2 (with))(2 (death)))))))))(2 (,)))(1 (0 (2 (feels))(1 (1 (impersonal))(1 (2 (,))(1 (2 (almost))(1 (generic))))))(2 (.)))) |ET| 
1  |BT| (ROOT (2 (2 (After))(2 (3 (Collateral))(2 (Damage))))(1 (2 (,))(1 (2 (you))(0 (1 (2 (might))(1 (2 (imagine))(1 (2 (that))(2 (1 (2 (most))(1 (2 (every))(1 (2 (aggrieved))(1 (2 (father))(2 (cliché))))))(2 (2 (has))(2 (2 (been))(1 (unturned))))))))(2 (.)))))) |ET| 
1  |BT| (ROOT (2 (2 (The))(2 (actors)))(0 (1 (1 (1 (2 (try))(2 (hard)))(2 (but)))(1 (2 (2 (come))(1 (off)))(1 (1 (1 (2 (too))(1 (amateurish)))(2 (and)))(1 (awkward)))))(2 (.)))) |ET| 
1  |BT| (ROOT (2 (2 (As))(2 (2 (a))(2 (remake))))(1 (2 (,))(1 (2 (it))(1 (1 (2 ('s))(1 (2 (a))(1 (1 (pale))(1 (imitation)))))(2 (.)))))) |ET| 
-1  |BT| (ROOT (2 (By))(0 (1 (2 (turns))(1 (2 (numbingly))(1 (1 (1 (0 (dull-witted))(2 (and)))(1 (disquietingly)))(1 (creepy)))))(2 (.)))) |ET| 
-0.4891520410620566750026227964554  |BT| (ROOT (2 (It))(2 (2 (3 (3 (2 ('s))(3 (2 (1 (2 (2 (at))(2 (once)))(1 (laughable)))(2 (and)))(3 (2 (compulsively))(3 (watchable)))))(2 (,)))(1 (2 (in))(0 (2 (its))(0 (3 (committed))(1 (dumbness))))))(2 (.)))) |ET| 
-1  |BT| (ROOT (2 (Gets))(0 (1 (1 (2 (bogged))(2 (down)))(1 (2 (by))(1 (1 (1 (2 (an))(1 (2 (2 (overly))(2 (sillified)))(2 (plot))))(2 (and)))(1 (2 (stop-and-start))(2 (pacing))))))(2 (.)))) |ET| 
1  |BT| (ROOT (2 (1 (0 (1 (Derailed))(1 (2 (by))(0 (0 (bad))(2 (writing)))))(2 (and)))(2 (2 (possibly))(2 (2 (2 (also))(2 (2 (by))(2 (2 (some))(2 (2 (of))(2 (2 (that))(3 (2 (extensive))(2 (post-production))))))))(1 (2 (reworking))(2 (2 (to))(2 (2 (2 (aim))(2 (2 (the))(2 (film))))(2 (2 (at))(2 (2 (2 (young))(2 (males)))(2 (2 (in))(3 (2 (2 (the))(2 (throes)))(1 (2 (of))(2 (2 (2 (their))(3 (2 (first))(1 (3 (full))(2 (flush)))))(2 (2 (of))(2 (testosterone)))))))))))))))(2 (.))) |ET| 
1  |BT| (ROOT (1 (Unfortunately))(2 (2 (,))(1 (2 (Kapur))(3 (1 (2 (modernizes))(1 (2 (2 (2 (A.E.W.))(2 (2 (Mason))(2 ('s))))(3 (2 (story))(2 (2 (to))(2 (2 (suit))(2 (2 (2 (the))(2 (sensibilities)))(2 (2 (of))(2 (3 (2 (2 (a))(3 (2 (young))(2 (American))))(2 (,)))(2 (2 (2 (a))(2 (decision)))(2 (2 (that))(2 (3 (plucks))(2 (2 (``))(2 (2 (2 (The))(2 (2 (Four))(2 (Feathers))))(2 (''))))))))))))))(2 (bare))))(2 (.)))))) |ET| 
-0.064412723130545537775226705434761  |BT| (ROOT (0 (3 (3 (2 (3 (Exploring))(3 (2 (value))(2 (choices))))(3 (2 (is))(3 (3 (2 (a))(3 (3 (worthwhile))(3 (topic))))(2 (2 (for))(2 (2 (a))(2 (film)))))))(2 (--)))(1 (2 (but))(1 (2 (here))(0 (3 (2 (the))(2 (choices)))(0 (1 (2 (are))(1 (2 (as))(1 (2 (2 (contrived))(2 (and)))(1 (artificial)))))(2 (2 (as))(2 (2 (2 (Kerrigan))(2 ('s)))(2 (2 (platinum-blonde))(2 (hair))))))))))(2 (.))) |ET| 
-0.68556645002567129232318166032201  |BT| (ROOT (2 (This))(0 (1 (1 (2 (2 (is))(2 (2 (2 (a))(2 (movie)))(2 (so))))(1 (1 (insecure))(2 (2 (about))(2 (2 (its))(2 (capacity))))))(2 (2 (to))(2 (3 (excite))(1 (2 (that))(1 (2 (it))(1 (2 (churns))(1 (1 (2 (up))(2 (1 (not))(1 (2 (2 (one))(2 (but)))(1 (2 (two))(1 (1 (flagrantly))(2 (1 (fake))(2 (thunderstorms))))))))(2 (2 (to))(2 (2 (underscore))(2 (2 (the))(2 (action))))))))))))(2 (.)))) |ET| 
1  |BT| (ROOT (2 (2 (The))(3 (2 (whole))(2 (thing))))(0 (0 (2 (feels))(0 (2 (like))(2 (2 (2 (2 (a))(2 (ruse)))(2 (,)))(0 (2 (a))(0 (2 (tactic))(0 (2 (to))(0 (2 (2 (2 (cover))(2 (up)))(2 (2 (the))(2 (fact))))(2 (2 (that))(1 (2 (2 (the))(2 (picture)))(1 (2 (is))(0 (2 (constructed))(0 (2 (around))(0 (3 (2 (a))(2 (core)))(1 (2 (of))(0 (1 (flimsy))(1 (2 (2 (--))(1 (2 (or))(1 (2 (,))(2 (1 (1 (worse))(2 (yet)))(2 (2 (,))(2 (2 (nonexistent))(2 (--))))))))(2 (ideas))))))))))))))))))(2 (.)))) |ET| 
-0.68422752869719849488916452173726  |BT| (ROOT (2 (2 (2 (2 (Why))(2 (2 (``))(2 (2 (they))(2 (2 (''))(2 (2 (were))(2 (here)))))))(2 (and)))(2 (2 (what))(2 (2 (``))(2 (2 (they))(3 (2 (''))(2 (2 (2 (2 (wanted))(2 (and)))(2 (quite)))(3 (honestly))))))))(1 (2 (,))(1 (2 (I))(1 (1 (2 (2 (did))(2 (n't)))(3 (care)))(2 (.)))))) |ET| 
1  |BT| (ROOT (2 (0 (0 (1 (1 (0 (Soulless))(2 (and)))(1 (2 (--))(1 (2 (even))(2 (3 (2 (more))(2 (damning)))(2 (--))))))(0 (2 (virtually))(0 (joyless))))(2 (,)))(1 (XXX)))(2 (1 (2 (achieves))(0 (2 (2 (near))(3 (virtuosity)))(0 (2 (in))(1 (2 (its))(1 (crapulence))))))(2 (.)))) |ET| 
1  |BT| (ROOT (3 (2 (1 (2 (0 (3 (Talky))(1 (2 (,))(1 (2 (1 (artificial))(2 (and)))(2 (opaque)))))(2 (...)))(3 (2 (an))(3 (3 (3 (interesting))(2 (technical)))(2 (exercise)))))(2 (,)))(1 (2 (but))(0 (2 (a))(2 (1 (tedious))(2 (picture))))))(2 (.))) |ET| 
-1  |BT| (ROOT (2 (Enough))(1 (2 (1 (2 (is))(1 (not)))(0 (0 (0 (2 (a))(0 (0 (bad))(2 (movie))))(2 (,)))(2 (2 (just))(1 (mediocre)))))(2 (.)))) |ET| 
-1  |BT| (ROOT (2 (0 (0 (0 (2 (It))(0 (1 (1 (2 (1 (2 ('s))(1 (1 (not))(3 (life-affirming))))(2 (--)))(1 (2 (its))(0 (vulgar))))(2 (and)))(1 (mean))))(2 (,)))(2 (but)))(3 (2 (I))(3 (3 (liked))(2 (it)))))(2 (.))) |ET| 
-1  |BT| (ROOT (1 (2 (Ever))(1 (2 (see))(0 (2 (one))(1 (2 (of))(1 (2 (2 (those))(2 (comedies)))(0 (2 (that))(1 (2 (just))(0 (2 (seem))(0 (2 (like))(0 (0 (2 (a))(0 (0 (bad))(2 (idea))))(2 (2 (from))(3 (2 (frame))(2 (one))))))))))))))(2 (?))) |ET| 
1  |BT| (ROOT (2 (You))(1 (1 (1 (2 (expect))(2 (2 (more))(2 (2 (from))(2 (2 (2 (2 (2 (2 (director))(2 (2 (Michael))(2 (Apted))))(2 (1 (-LRB-))(2 (2 (Enigma))(3 (-RRB-)))))(2 (and)))(2 (2 (screenwriter))(2 (2 (Nicholas))(2 (Kazan)))))(2 (1 (-LRB-))(2 (2 (2 (Reversal))(2 (2 (of))(2 (Fortune))))(3 (-RRB-))))))))(2 (2 (than))(1 (2 (this))(1 (1 (cliche))(2 (pileup))))))(2 (.)))) |ET| 
1  |BT| (ROOT (1 (2 (To))(1 (2 (2 (call))(2 (2 (this))(2 (film))))(2 (2 (2 (a))(2 (lump)))(2 (2 (of))(2 (coal))))))(2 (2 (2 (2 (would))(2 (only)))(2 (2 (be))(2 (2 (to))(3 (3 (flatter))(2 (it))))))(2 (.)))) |ET| 
1  |BT| (ROOT (1 (2 (2 (A))(2 (film)))(0 (2 (that))(0 (2 (should))(1 (2 (be))(1 (1 (relegated))(2 (2 (to))(2 (2 (a))(2 (2 (dark))(2 (2 (video))(2 (2 (store))(2 (corner))))))))))))(1 (1 (2 (2 (is))(2 (somehow)))(2 (2 (2 (making))(2 (2 (its))(2 (way))))(2 (2 (instead))(2 (2 (to))(2 (theaters))))))(2 (.)))) |ET| 
-0.35012579767353241289029597282934  |BT| (ROOT (2 (3 (2 (Sometimes))(4 (entertaining)))(2 (2 (,))(2 (2 (sometimes))(3 (indulgent)))))(1 (2 (--))(0 (2 (but))(1 (2 (never))(0 (1 (2 (less))(0 (2 (than))(1 (4 (pure))(2 (wankery)))))(2 (.))))))) |ET| 
-0.30652809513646683825527361477725  |BT| (ROOT (2 (2 (2 (2 (2 (The))(2 (director)))(2 (,)))(2 (2 (Mark))(2 (Pellington))))(2 (,)))(2 (1 (2 (does))(2 (4 (2 (a))(3 (4 (terrific))(2 (job))))(0 (2 (2 (2 (conjuring))(2 (up)))(2 (2 (a))(2 (1 (sinister))(2 (2 (,))(1 (1 (menacing))(2 (atmosphere)))))))(1 (2 (though))(0 (1 (unfortunately))(0 (2 (2 (all))(2 (2 (the))(2 (story))))(2 (2 (gives))(2 (3 (us))(2 (2 (is))(2 (2 (flashing))(2 (2 (2 (1 (2 (2 (2 (red))(2 (lights)))(2 (,)))(2 (2 (a))(2 (2 (rattling))(2 (noise)))))(2 (,)))(2 (and)))(1 (2 (2 (a))(2 (bump)))(2 (2 (on))(2 (2 (the))(2 (head))))))))))))))))(2 (.)))) |ET| 
-0.18974553827045251286342875118862  |BT| (ROOT (1 (2 (A))(1 (2 (rather))(1 (tired))))(2 (2 (2 (exercise))(2 (2 (in))(2 (nostalgia))))(2 (.)))) |ET| 
-0.44415706612542416031885750271613  |BT| (ROOT (3 (2 (Count))(3 (2 (on))(2 (2 (his))(2 (2 (movie))(2 (2 (to))(2 (2 (2 (work))(3 (2 (at))(2 (2 (2 (the))(2 (back)))(2 (2 (of))(2 (2 (your))(2 (neck)))))))(3 (2 (long))(2 (2 (after))(2 (2 (you))(1 (1 (leave))(2 (2 (the))(3 (theater)))))))))))))(2 (.))) |ET| 
1  |BT| (ROOT (2 (2 (This))(2 (thing)))(0 (0 (2 (works))(1 (2 (on))(1 (1 (1 (no))(2 (2 (level))(2 (whatsoever))))(2 (2 (for))(3 (me))))))(2 (.)))) |ET| 
1  |BT| (ROOT (1 (2 (A))(2 (DOA)))(0 (0 (1 (dud))(2 (2 (from))(3 (2 (frame))(2 (one)))))(2 (.)))) |ET| 
-1  |BT| (ROOT (0 (1 (1 (Overwrought))(2 (,)))(1 (2 (melodramatic))(2 (bodice-ripper))))(2 (.))) |ET| 
-1  |BT| (ROOT (0 (2 (One))(0 (0 (lousy))(2 (movie))))(2 (.))) |ET| 
-1  |BT| (ROOT (0 (1 (Insufferably))(1 (naive)))(2 (.))) |ET| 
1  |BT| (ROOT (1 (2 (2 (Is))(2 (there)))(1 (2 (2 (a))(2 (group)))(1 (2 (of))(2 (1 (2 (2 (2 (more))(2 (1 (self-absorbed))(2 (women))))(2 (2 (than))(2 (2 (the))(2 (mother)))))(2 (and)))(2 (2 (daughters))(2 (2 (featured))(2 (2 (in))(2 (2 (this))(2 (film))))))))))(2 (?))) |ET| 
1  |BT| (ROOT (2 (2 (The))(2 (2 (main))(2 (characters))))(2 (1 (2 (2 (are))(2 (simply)))(0 (2 (2 (2 (named))(2 (2 (2 (2 (2 (2 (The))(2 (Husband)))(2 (,)))(2 (2 (The))(2 (Wife))))(2 (and)))(2 (2 (The))(2 (Kidnapper)))))(2 (,)))(1 (3 (emphasizing))(1 (1 (2 (the))(1 (0 (0 (disappointingly))(1 (generic)))(2 (nature))))(2 (2 (of))(2 (2 (the))(2 (2 (entire))(2 (effort)))))))))(2 (.)))) |ET| 
1  |BT| (ROOT (1 (1 (1 (0 (0 (2 (2 (Our))(2 (culture)))(0 (2 (is))(0 (0 (2 (headed))(1 (2 (2 (down))(2 (2 (the))(1 (toilet))))(1 (2 (with))(2 (2 (2 (the))(2 (ferocity)))(2 (2 (of))(2 (2 (a))(2 (2 (frozen))(2 (burrito)))))))))(2 (2 (after))(2 (2 (an))(2 (1 (all-night))(3 (2 (tequila))(2 (bender)))))))))(2 (--)))(2 (and)))(2 (2 (I))(2 (2 (2 (know))(2 (this)))(2 (2 (because))(2 (2 (I))(2 (2 ('ve))(2 (2 (seen))(2 (2 (`))(2 (2 (1 (jackass))(2 (:)))(2 (2 (the))(2 (movie))))))))))))(2 (.)))(2 ('))) |ET| 
-1  |BT| (ROOT (2 (2 (The))(2 (2 (whole))(2 (movie))))(0 (0 (2 (2 (is))(2 (simply)))(1 (0 (1 (2 (a))(1 (1 (lazy))(2 (exercise))))(0 (2 (in))(0 (0 (bad))(2 (filmmaking)))))(1 (2 (that))(1 (2 (2 (2 (asks))(2 (2 (you))(2 (2 (to))(2 (2 (1 (not))(2 (only)))(2 (2 (suspend))(2 (2 (your))(1 (disbelief))))))))(2 (but)))(2 (2 (2 (your))(3 (intelligence)))(2 (2 (as))(3 (well))))))))(2 (.)))) |ET| 
-1  |BT| (ROOT (2 (This))(1 (0 (2 (is))(1 (2 (1 (2 (2 (a))(2 (remake)))(2 (2 (by))(2 (2 (the))(2 (numbers)))))(2 (,)))(0 (0 (2 (linking))(1 (2 (a))(0 (1 (halfwit))(2 (plot)))))(3 (2 (to))(2 (2 (2 (2 (a))(2 (series)))(2 (2 (of))(2 (2 (standup))(2 (routines)))))(2 (2 (2 (in))(2 (which)))(4 (3 (2 (2 (Wilson))(2 (and)))(2 (Murphy)))(2 (2 (show))(1 (2 (2 (how))(3 (funny)))(1 (2 (they))(2 (2 (could))(2 (2 (have))(2 (2 (been))(3 (2 (in))(3 (2 (a))(2 (3 (2 (more))(3 (ambitious)))(2 (movie))))))))))))))))))(2 (.)))) |ET| 
-0.31501729061565447720383303931158  |BT| (ROOT (1 (1 (Dreary))(2 (tale)))(2 (2 (of))(2 (2 (middle-class))(2 (angst))))) |ET| 
1  |BT| (ROOT (0 (Horrible))(2 (.))) |ET| 
1  |BT| (ROOT (0 (Execrable))(2 (.))) |ET| 
1  |BT| (ROOT (0 (Terrible))(2 (.))) |ET| 
-1  |BT| (ROOT (0 (2 (3 (Fluffy))(2 (and)))(1 (disposible)))(2 (.))) |ET| 
-1  |BT| (ROOT (0 (2 (Less))(2 (2 (than))(4 (fresh))))(2 (.))) |ET| 
-1  |BT| (ROOT (2 (A))(1 (3 (well-crafted))(1 (0 (letdown))(2 (.))))) |ET| 
1  |BT| (ROOT (1 (2 (I))(1 (1 (2 (2 (2 (do))(2 (n't)))(1 (2 (blame))(2 (2 (Eddie))(2 (Murphy)))))(2 (but)))(2 (2 (should))(2 (n't)))))(1 (2 (2 (Owen))(2 (Wilson)))(2 (2 (2 (know))(2 (2 (2 (a))(2 (movie)))(2 (2 (must))(3 (2 (have))(2 (2 (2 (2 (a))(2 (story)))(2 (and)))(2 (2 (a))(2 (script))))))))(2 (?))))) |ET| 
1  |BT| (ROOT (2 (2 (2 (About))(2 (2 (the))(2 (2 (only))(2 (thing)))))(2 (2 (to))(3 (2 (2 (3 (give))(2 (2 (the))(2 (movie))))(2 (points)))(2 (for)))))(2 (1 (2 (is))(1 (2 (3 (bravado))(2 (--)))(0 (2 (to))(1 (1 (2 (2 (take))(1 (2 (an))(0 (1 (2 (entirely))(2 (stale)))(2 (concept)))))(2 (and)))(1 (2 (2 (2 (push))(2 (it)))(1 (2 (2 (through))(2 (2 (2 (the))(2 (2 (audience))(2 ('s))))(2 (2 (meat))(2 (grinder)))))(2 (2 (one))(2 (more)))))(2 (time)))))))(2 (.)))) |ET| 
1  |BT| (ROOT (2 (But))(1 (2 (2 (the))(2 (2 (movie))(2 (that))))(1 (2 (1 (2 (does))(2 (n't)))(2 (really)))(2 (3 (deliver))(2 (2 (2 (2 (for))(2 (2 (country))(3 (2 (music))(3 (fans)))))(2 (or)))(2 (2 (for))(2 (3 (family))(2 (audiences))))))))) |ET| 
-1  |BT| (ROOT (2 (It))(0 (1 (0 (0 (1 (2 (1 (2 (does))(2 (n't)))(2 (really)))(2 (2 (2 (2 (know))(2 (or)))(3 (care)))(2 (2 (about))(2 (2 (the))(2 (characters))))))(2 (,)))(2 (and)))(2 (2 (2 (uses))(2 (them)))(2 (2 (as))(2 (2 (markers))(2 (2 (for))(2 (2 (2 (a))(2 (series)))(2 (2 (of))(2 (2 (preordained))(2 (events))))))))))(2 (.)))) |ET| 
-1  |BT| (ROOT (1 (2 (2 (1 (2 (2 (Some))(2 (movies)))(2 (2 (were))(1 (2 (made))(2 (2 (for))(2 (2 (2 (2 (the))(2 (2 (big))(2 (screen))))(2 (,)))(2 (2 (some))(2 (2 (for))(1 (2 (the))(2 (2 (small))(2 (screen)))))))))))(2 (,)))(2 (and)))(2 (2 (some))(2 (2 (,))(2 (2 (2 (like))(2 (3 (2 (Ballistic))(2 (:)))(2 (2 (2 (Ecks))(2 (vs.)))(2 (Sever)))))(2 (2 (,))(1 (2 (were))(2 (2 (made))(2 (2 (for))(2 (2 (the))(2 (2 (palm))(2 (screen))))))))))))(2 (.))) |ET| 
-1  |BT| (ROOT (2 (2 (2 (The))(2 (2 (holiday))(2 (message))))(2 (2 (of))(2 (2 (2 (the))(2 (2 (37-minute))(2 (Santa))))(2 (2 (vs.))(2 (2 (the))(2 (Snowman)))))))(0 (1 (2 (leaves))(2 (2 (a))(1 (2 (lot))(2 (2 (to))(2 (2 (be))(2 (desired)))))))(2 (.)))) |ET| 
1  |BT| (ROOT (2 (Predictably))(1 (0 (1 (soulless))(1 (techno-tripe)))(2 (.)))) |ET| 
-1  |BT| (ROOT (2 (2 (2 (2 (2 (2 (Lyne))(2 ('s)))(2 (latest)))(2 (,)))(2 (2 (the))(2 (3 (erotic))(2 (3 (thriller))(2 (Unfaithful))))))(2 (,)))(0 (2 (further))(0 (1 (2 (demonstrates))(2 (2 (2 (just))(2 (2 (how))(2 (far))))(0 (2 (2 (his))(3 (2 (storytelling))(2 (skills))))(2 (2 (have))(2 (eroded))))))(2 (.))))) |ET| 
1  |BT| (ROOT (1 (Hopelessly))(1 (0 (1 (inane))(1 (2 (,))(2 (1 (0 (humorless))(2 (and)))(0 (under-inspired)))))(2 (.)))) |ET| 
-0.39309983830079908706522928696359  |BT| (ROOT (2 (He))(1 (0 (fails))(2 (.)))) |ET| 
-1  |BT| (ROOT (1 (1 (0 (2 (Sad))(1 (nonsense)))(2 (,)))(2 (this)))(2 (.))) |ET| 
-1  |BT| (ROOT (1 (0 (2 (An))(0 (2 (impenetrable))(1 (2 (and))(1 (0 (insufferable))(2 (ball))))))(2 (2 (of))(1 (1 (pseudo-philosophic))(2 (twaddle)))))(2 (.))) |ET| 
1  |BT| (ROOT (1 (2 (2 (2 (2 (Maybe))(2 (2 (you))(2 (2 ('ll))(2 (2 (be))(2 (lucky))))))(2 (,)))(2 (and)))(0 (2 (there))(0 (2 ('ll))(0 (2 (2 (2 (be))(2 (2 (a))(2 (2 (power))(2 (outage)))))(2 (2 (during))(2 (2 (your))(2 (screening)))))(1 (2 (so))(2 (2 (you))(0 (2 (can))(1 (2 (2 (get))(2 (2 (your))(2 (money))))(2 (back))))))))))(2 (.))) |ET| 
1  |BT| (ROOT (1 (2 (There))(0 (2 ('s))(1 (1 (1 (no))(3 (3 (palpable))(2 (chemistry))))(2 (2 (between))(2 (2 (Lopez))(2 (2 (and))(2 (2 (male))(2 (2 (lead))(2 (2 (Ralph))(2 (Fiennes)))))))))))(2 (2 (,))(1 (2 (2 (3 (plus))(2 (2 (the))(2 (script))))(1 (2 (by))(2 (2 (Working))(2 (2 (Girl))(2 (2 (scribe))(2 (2 (Kevin))(2 (Wade))))))))(1 (1 (2 (is))(3 (3 (workmanlike))(2 (2 (in))(2 (2 (the))(2 (extreme))))))(2 (.)))))) |ET| 
1  |BT| (ROOT (1 (1 (1 (1 (2 (Goldmember))(1 (2 (has))(1 (2 (none))(2 (2 (of))(3 (3 (2 (the))(2 (2 (visual))(2 (wit))))(2 (2 (of))(2 (2 (the))(2 (2 (previous))(2 (pictures))))))))))(2 (,)))(2 (and)))(1 (2 (it))(1 (2 (looks))(0 (2 (as))(1 (2 (though))(2 (2 (2 (Jay))(2 (Roach)))(0 (2 (2 (directed))(2 (2 (the))(2 (film))))(2 (2 (from))(2 (2 (2 (the))(2 (back)))(2 (2 (of))(2 (2 (a))(2 (taxicab)))))))))))))(2 (.))) |ET| 
-1  |BT| (ROOT (0 (0 (1 (2 (2 (Each))(2 (scene)))(2 (2 (wreaks))(2 (2 (of))(2 (routine)))))(2 (;)))(1 (2 (2 (the))(2 (film)))(1 (2 (never))(2 (2 (manages))(2 (2 (to))(2 (2 (generate))(2 (2 (2 (a))(2 (2 (single))(2 (threat))))(2 (2 (of))(2 (suspense))))))))))(2 (.))) |ET| 
-1  |BT| (ROOT (1 (2 (If))(1 (2 (2 (any))(2 (2 (of))(2 (them))))(2 (2 (1 (list))(2 (2 (2 (this))(2 (2 (`))(2 (2 (credit))(2 (')))))(2 (2 (on))(2 (2 (their))(2 (resumes))))))(2 (2 (in))(2 (2 (the))(2 (future)))))))(1 (2 (,))(1 (2 (that))(2 (2 (2 ('ll))(1 (3 (2 (be))(3 (2 (much))(4 (3 (funnier))(2 (2 (than))(2 (anything))))))(2 (2 (in))(2 (2 (the))(2 (film))))))(2 (...)))))) |ET| 
-0.26673344459971531916764320158109  |BT| (ROOT (2 (It))(3 (2 (2 (2 (uses))(2 (2 (some))(2 (2 (of))(2 (2 (the))(2 (figures))))))(3 (2 (from))(2 (2 (the))(2 (2 (real-life))(2 (2 (story))(2 (2 (to))(2 (3 (2 (portray))(2 (themselves)))(2 (2 (in))(2 (2 (the))(2 (film)))))))))))(2 (.)))) |ET| 
1  |BT| (ROOT (2 (It))(1 (0 (sucked))(2 (.)))) |ET| 
1  |BT| (ROOT (2 (A))(1 (0 (less-than-thrilling))(2 (3 (thriller))(2 (.))))) |ET| 
1  |BT| (ROOT (2 (2 (A))(1 (3 (surprisingly))(1 (flat))))(1 (0 (1 (2 (retread))(2 (,)))(1 (2 (hobbled))(0 (2 (by))(1 (0 (1 (1 (half-baked))(2 (setups)))(2 (and)))(1 (1 (sluggish))(2 (pacing)))))))(2 (.)))) |ET| 
-0.37229055440297392776116680579435  |BT| (ROOT (1 (2 (2 (2 (2 (It))(3 (2 (has))(2 (2 (1 (no))(2 (affect)))(2 (2 (on))(2 (2 (the))(2 (Kurds)))))))(2 (,)))(2 (but)))(1 (2 (it))(2 (2 (3 (wore))(3 (me)))(2 (down)))))(2 (.))) |ET| 
-1  |BT| (ROOT (2 (Everything))(1 (0 (2 ('s))(2 (2 (serious))(1 (2 (,))(2 (3 (poetic))(1 (2 (,))(2 (2 (earnest))(0 (2 (and))(1 (1 (2 (--))(1 (1 (sadly))(2 (--))))(0 (dull))))))))))(2 (.)))) |ET| 
1  |BT| (ROOT (2 (...))(0 (2 (you))(1 (0 (2 (can))(0 (2 (be))(0 (2 (forgiven))(0 (2 (for))(0 (0 (1 (2 (realizing))(1 (2 (that))(1 (2 (you))(1 (2 ('ve))(0 (2 (spent))(1 (2 (2 (the))(2 (2 (past))(2 (2 (20))(2 (minutes)))))(2 (2 (looking))(2 (2 (at))(2 (2 (your))(2 (watch)))))))))))(2 (and)))(1 (2 (2 (waiting))(2 (2 (for))(2 (Frida))))(1 (2 (to))(0 (2 (just))(2 (0 (die))(2 (already)))))))))))(2 (.))))) |ET| 
1  |BT| (ROOT (0 (2 (is))(0 (0 (2 (significantly))(1 (2 (less))(2 (4 (charming))(2 (2 (than))(2 (2 (listening))(2 (2 (to))(2 (2 (a))(2 (four-year-old)))))))))(1 (2 (with))(2 (2 (2 (a))(2 (taste)))(2 (2 (for))(2 (exaggeration)))))))(2 (2 (2 (2 (recount))(2 (2 (his))(2 (2 (Halloween))(2 (trip)))))(1 (2 (to))(2 (2 (the))(2 (2 (Haunted))(2 (House))))))(2 (.)))) |ET| 
1  |BT| (ROOT (1 (3 (4 (4 (2 (Franco))(3 (2 (is))(2 (3 (2 (an))(3 (4 (excellent))(2 (choice))))(2 (2 (for))(2 (2 (the))(2 (2 (2 (1 (walled-off))(2 (but)))(2 (combustible)))(2 (hustler))))))))(2 (,)))(2 (but)))(1 (2 (he))(2 (2 (2 (does))(1 (not)))(2 (3 (3 (give))(4 (2 (the))(3 (3 (transcendent))(2 (performance)))))(0 (2 (SONNY))(1 (2 (needs))(1 (2 (to))(2 (2 (2 (overcome))(2 (gaps)))(2 (2 (in))(2 (2 (2 (2 (character))(2 (development)))(2 (and)))(2 (2 (story))(2 (logic)))))))))))))(2 (.))) |ET| 
1  |BT| (ROOT (0 (2 (If))(0 (2 (you))(0 (2 ('re))(1 (2 (2 (2 (the))(3 (kind)))(2 (2 (of))(2 (parent))))(1 (2 (who))(0 (3 (enjoys))(0 (2 (intentionally))(0 (2 (2 (introducing))(3 (2 (your))(2 (kids))))(1 (2 (to))(1 (2 (films))(1 (2 (which))(0 (2 (will))(0 (1 (2 (cause))(1 (2 (loads))(1 (2 (of))(2 (1 (irreparable))(1 (damage))))))(1 (2 (that))(0 (2 (2 (2 (2 (years))(2 (and)))(2 (years)))(2 (2 (of))(2 (2 (costly))(2 (analysis)))))(2 (2 (2 (could))(2 (never)))(2 (fix))))))))))))))))))(2 (2 (,))(2 (2 (I))(2 (2 (have))(2 (2 (2 (2 (2 (just))(2 (2 (one))(2 (word))))(2 (2 (2 (for))(2 (you)))(2 (-))))(2 (--)))(2 (Decasia))))))) |ET| 
-0.14070292217663438183450352880755  |BT| (ROOT (2 (2 (None))(1 (2 (of))(1 (2 (this))(1 (2 (so-called))(2 (satire))))))(2 (2 (2 (3 (2 (2 (has))(2 (2 (any))(2 (sting))))(2 (2 (to))(2 (it))))(2 (,)))(2 (2 (as))(2 (2 (if))(2 (2 (Woody))(2 (2 (is))(2 (2 (afraid))(1 (2 (of))(2 (2 (biting))(3 (2 (2 (the))(2 (hand)))(3 (2 (that))(3 (2 (2 (has))(2 (2 (finally))(2 (2 (,))(2 (2 (2 (to))(2 (2 (some))(2 (extent))))(2 (,))))))(3 (2 (2 (warmed))(2 (up)))(2 (2 (to))(2 (him)))))))))))))))(2 (.)))) |ET| 
-1  |BT| (ROOT (2 (I))(0 (0 (2 (2 (ca))(2 (n't)))(0 (2 (remember))(1 (2 (2 (the))(2 (2 (last))(2 (time))))(0 (2 (I))(0 (2 (saw))(0 (0 (1 (1 (1 (worse))(2 (2 (stunt))(2 (editing))))(2 (or)))(2 (2 (cheaper))(2 (2 (action))(2 (2 (movie))(2 (production))))))(2 (2 (values))(2 (2 (than))(2 (2 (in))(2 (2 (Extreme))(2 (Ops))))))))))))(2 (.)))) |ET| 
-1  |BT| (ROOT (2 (This))(0 (1 (2 (is))(0 (2 (2 (a))(2 (movie)))(0 (2 (where))(1 (2 (2 (the))(2 (3 (2 (most))(3 (notable)))(2 (observation))))(2 (2 (is))(2 (2 (2 (how))(2 (long)))(2 (2 (you))(2 (2 ('ve))(2 (2 (been))(2 (2 (sitting))(2 (still))))))))))))(2 (.)))) |ET| 
-0.037828344438084596235150058873842  |BT| (ROOT (1 (2 (A))(2 (sham)))(2 (1 (2 (construct))(3 (2 (based))(1 (2 (on))(2 (2 (2 (2 (2 (2 (theory))(2 (,)))(2 (sleight-of-hand)))(2 (,)))(2 (and)))(1 (2 (ill-wrought))(2 (hypothesis)))))))(2 (.)))) |ET| 
1  |BT| (ROOT (0 (0 (1 (Hate))(2 (it)))(0 (2 (because))(1 (2 (it))(2 (2 ('s))(0 (lousy))))))(2 (.))) |ET| 
1  |BT| (ROOT (2 (It))(1 (1 (2 ('s))(1 (0 (0 (0 (0 (horribly))(0 (depressing)))(2 (and)))(1 (not)))(4 (3 (2 (very))(3 (well)))(2 (done)))))(2 (.)))) |ET| 
1  |BT| (ROOT (0 (2 (Without))(1 (2 (any))(2 (2 (redeeming))(1 (2 (value))(2 (whatsoever))))))(2 (.))) |ET| 
-1  |BT| (ROOT (2 (It))(1 (1 (2 ('s))(0 (2 (hard))(1 (2 (to))(1 (2 (believe))(1 (2 (that))(2 (2 (something))(1 (1 (2 (so))(2 (short)))(1 (2 (could))(2 (2 (be))(1 (2 (so))(1 (flabby))))))))))))(2 (.)))) |ET| 
-1  |BT| (ROOT (0 (2 (2 (A))(1 (2 (prolonged))(2 (extrusion))))(1 (2 (of))(2 (1 (psychopathic))(2 (pulp)))))(2 (.))) |ET| 
-0.79935461937448948344098198504071  |BT| (ROOT (2 (2 (The))(2 (plot)))(1 (0 (2 (is))(0 (1 (2 (plastered))(2 (2 (with))(1 (2 (one))(2 (2 (Hollywood))(1 (cliche))))))(1 (2 (after))(1 (2 (2 (another))(2 (,)))(2 (2 (2 (most))(2 (2 (of))(2 (which))))(2 (2 (involve))(2 (2 (2 (precocious))(2 (kids)))(1 (2 (getting))(1 (2 (2 (the))(4 (better)))(2 (2 (of))(1 (1 (obnoxious))(2 (adults)))))))))))))(2 (.)))) |ET| 
1  |BT| (ROOT (1 (2 (Slap))(3 (me)))(2 (2 (,))(2 (2 (I))(2 (2 (2 (saw))(2 (2 (this))(2 (movie))))(2 (.)))))) |ET| 
1  |BT| (ROOT (1 (1 (0 (1 (1 (Seagal))(2 (2 (2 (ran))(1 (out)))(2 (2 (of))(2 (2 (2 (movies))(2 (years)))(2 (ago))))))(2 (,)))(2 (and)))(2 (2 (this))(2 (2 (2 (is))(2 (just)))(2 (2 (the))(2 (proof))))))(2 (.))) |ET| 
1  |BT| (ROOT (1 (1 (1 (1 (2 (2 (None))(2 (2 (of))(2 (this))))(3 (2 (sounds))(3 (promising))))(2 (and)))(2 (,)))(1 (2 (indeed))(0 (2 (,))(0 (3 (2 (2 (the))(2 (2 (first))(2 (half))))(2 (2 (of))(2 (2 (Sorority))(2 (Boys)))))(0 (2 (2 (is))(0 (2 (as))(0 (0 (appalling))(2 (2 (as))(2 (2 (any))(2 (2 (`))(2 (3 (comedy))(2 (')))))))))(2 (2 (to))(1 (2 (ever))(2 (2 (spill))(2 (2 (from))(2 (2 (2 (a))(3 (2 (projector))(2 ('s))))(2 (lens))))))))))))(2 (.))) |ET| 
-1  |BT| (ROOT (2 (3 (2 (For))(2 (2 (all))(2 (2 (its))(2 (shoot-outs)))))(2 (2 (,))(2 (2 (2 (2 (2 (fistfights))(2 (,)))(2 (and)))(2 (car)))(2 (chases)))))(0 (2 (,))(0 (2 (2 (this))(2 (movie)))(0 (0 (2 (is))(0 (0 (1 (2 (a))(0 (1 (phlegmatic))(0 (bore))))(2 (,)))(0 (2 (so))(1 (1 (tedious))(1 (2 (it))(1 (2 (makes))(3 (2 (2 (2 (the))(2 (3 (silly))(2 (spy))))(2 (2 (vs.))(2 (2 (spy))(2 (film)))))(2 (2 (2 (2 (The))(2 (Sum)))(2 (2 (of))(2 (2 (All))(1 (Fears)))))(3 (2 (,))(2 (2 (2 (starring))(3 (2 (Ben))(2 (Affleck))))(2 (2 (,))(3 (2 (seem))(3 (2 (downright))(3 (Hitchcockian)))))))))))))))(2 (.)))))) |ET| 
