SVM-light Version V5.01-TK-1.5
5 # kernel type
3 # kernel parameter -d 
1 # kernel parameter -g 
1 # kernel parameter -s 
1 # kernel parameter -r 
empty# kernel parameter -u 
0.35 # kernel parameter -L 
1 # kernel parameter -T 
T # kernel parameter -C 
0 # kernel parameter -F 
1 # kernel parameter -S 
0.400000 # kernel parameter -M 
1 # kernel parameter -N 
S # kernel parameter -V 
A # kernel parameter -W 
0 # kernel parameter -U 
10 # highest feature index 
8544 # number of training documents 
5425 # number of support vectors plus 1 
0.84521323 # threshold b, each following line is a SV (starting with alpha*y)
-0.36390504548463403766689339136065  |BT| (ROOT (2 (2 (The))(2 (Rock)))(4 (3 (2 (is))(4 (2 (destined))(2 (2 (2 (2 (2 (to))(2 (2 (be))(2 (2 (the))(2 (2 (21st))(2 (2 (2 (Century))(2 ('s)))(2 (3 (new))(2 (2 (``))(2 (Conan)))))))))(2 ('')))(2 (and)))(3 (2 (that))(3 (2 (he))(3 (2 ('s))(3 (2 (going))(3 (2 (to))(4 (3 (2 (make))(3 (3 (2 (a))(3 (splash)))(2 (2 (even))(3 (greater)))))(2 (2 (than))(2 (2 (2 (2 (1 (2 (Arnold))(2 (Schwarzenegger)))(2 (,)))(2 (2 (Jean-Claud))(2 (2 (Van))(2 (Damme)))))(2 (or)))(2 (2 (Steven))(2 (Segal))))))))))))))(2 (.)))) |ET| 
-0.049078694732698997793551853874305  |BT| (ROOT (2 (Imamura))(2 (3 (2 (has))(3 (2 (said))(3 (2 (that))(2 (2 (3 (Warm))(2 (Water)))(4 (2 (2 (Under))(2 (2 (a))(2 (2 (Red))(2 (Bridge)))))(4 (2 (is))(3 (2 (2 (a))(2 (poem)))(4 (2 (to))(3 (3 (2 (the))(3 (3 (enduring))(2 (strengths))))(2 (2 (of))(2 (women))))))))))))(2 (.)))) |ET| 
-0.8223882428116333631606948983972  |BT| (ROOT (3 (2 (2 (2 (2 (2 (Singer\/composer))(2 (2 (Bryan))(2 (Adams))))(2 (2 (contributes))(2 (2 (2 (a))(2 (slew)))(2 (2 (of))(2 (songs))))))(2 (2 (--))(2 (2 (2 (2 (a))(2 (2 (few))(3 (potential))))(2 (2 (2 (hits))(2 (,)))(2 (2 (2 (a))(2 (few)))(1 (1 (2 (more))(1 (2 (simply))(2 (intrusive))))(2 (2 (to))(2 (2 (the))(2 (story))))))))(2 (--)))))(2 (but)))(3 (4 (2 (the))(3 (2 (whole))(2 (package))))(2 (3 (certainly))(3 (2 (captures))(2 (1 (2 (the))(2 (2 (2 (intended))(2 (2 (,))(2 (2 (er))(2 (,)))))(3 (spirit))))(2 (2 (of))(2 (2 (the))(2 (piece)))))))))(2 (.))) |ET| 
-0.89315622161626284647439888431109  |BT| (ROOT (2 (Yet))(3 (2 (2 (the))(2 (act)))(3 (4 (3 (2 (is))(3 (2 (still))(4 (charming))))(2 (here)))(2 (.))))) |ET| 
-0.075193890350691489077306073340878  |BT| (ROOT (0 (1 (2 (The))(2 (1 (1 (1 (3 (2 (2 (most))(2 (opaque)))(2 (,)))(1 (self-indulgent)))(2 (and)))(1 (2 (just))(2 (plain))))(2 (goofy))))(2 (1 (2 (an))(2 (excuse)))(2 (2 (for))(2 (2 (2 (a))(2 (movie)))(2 (2 (as))(2 (2 (you))(2 (2 (can))(2 (imagine)))))))))(2 (.))) |ET| 
1  |BT| (ROOT (2 (2 (You))(2 (2 ('d))(2 (2 (think))(2 (2 (by))(2 (now))))))(2 (2 (America))(2 (2 (2 (would))(1 (2 (have))(2 (2 (2 (had))(1 (2 (enough))(2 (2 (of))(2 (2 (plucky))(2 (2 (British))(1 (eccentrics)))))))(4 (2 (with))(4 (3 (hearts))(3 (2 (of))(3 (gold))))))))(2 (.))))) |ET| 
1  |BT| (ROOT (2 (You))(2 (1 (2 (Should))(2 (2 (1 (2 (Pay))(2 (2 (2 (Nine))(2 (Bucks)))(2 (2 (for))(2 (This)))))(2 (:)))(1 (2 (Because))(2 (2 (you))(2 (2 (can))(2 (2 (2 (2 (2 (hear))(2 (2 (about))(1 (1 (1 (suffering))(2 (2 (Afghan))(2 (refugees))))(2 (2 (on))(2 (2 (the))(2 (news)))))))(2 (and)))(2 (still)))(1 (2 (be))(2 (unaffected)))))))))(2 (.)))) |ET| 
1  |BT| (ROOT (2 (3 (2 (3 (3 (2 (A))(3 (3 (thunderous))(2 (ride))))(3 (2 (at))(3 (3 (2 (first))(2 (2 (,))(2 (2 (quiet))(2 (cadences)))))(3 (2 (of))(4 (4 (pure))(3 (finesse)))))))(2 (2 (2 (are))(2 (few)))(2 (2 (and))(2 (2 (far))(2 (between))))))(2 (;)))(1 (2 (2 (their))(1 (shortage)))(3 (2 (dilutes))(2 (2 (2 (the))(2 (potency)))(2 (2 (of))(3 (3 (2 (otherwise))(3 (respectable)))(2 (action))))))))(2 (.))) |ET| 
1  |BT| (ROOT (2 (2 (2 (2 (Post))(2 (9\/11)))(2 (2 (the))(2 (3 (philosophical))(2 (message)))))(2 (2 (2 (2 (of))(2 (``)))(2 (2 (Personal))(2 (4 (Freedom))(3 (First)))))(2 (''))))(1 (1 (2 (2 (might))(1 (not)))(2 (2 (be))(2 (2 (as))(2 (2 (palatable))(2 (2 (as))(2 (intended)))))))(2 (.)))) |ET| 
1  |BT| (ROOT (2 (2 (near))(2 (2 (the))(2 (end))))(3 (3 (2 (takes))(2 (2 (on))(2 (2 (a))(2 (2 (whole))(2 (2 (other))(2 (meaning)))))))(2 (.)))) |ET| 
-0.21396445677111550209836821068166  |BT| (ROOT (3 (3 (3 (2 (A))(3 (4 (pretty))(3 (3 (decent))(2 (kid-pleasing)))))(2 (,)))(1 (2 (1 (tolerable-to-adults))(2 (lark)))(2 (2 (of))(2 (2 (a))(2 (movie))))))(2 (.))) |ET| 
-1  |BT| (ROOT (2 (You))(2 (3 (2 ('ll))(2 (2 (2 (end))(2 (up)))(3 (moved))))(2 (.)))) |ET| 
-0.74811203960692307379787280297023  |BT| (ROOT (2 (...))(4 (3 (2 (a))(3 (true)))(3 (4 (delight))(2 (.))))) |ET| 
1  |BT| (ROOT (2 (1 (1 (1 (2 (2 (The))(2 (story)))(1 (1 (2 (is))(1 (2 (virtually))(0 (impossible))))(2 (2 (to))(2 (2 (follow))(2 (here))))))(2 (,)))(2 (but)))(3 (2 (there))(3 (2 ('s))(3 (3 (2 (a))(3 (3 (certain))(3 (3 (2 (style))(2 (and)))(2 (wit)))))(2 (2 (to))(2 (2 (the))(2 (dialogue))))))))(2 (.))) |ET| 
1  |BT| (ROOT (2 (``))(4 (2 (2 (3 (3 (2 (2 (What))(2 (2 (John))(2 (does))))(4 (2 (is))(4 (heroic))))(2 (,)))(2 (but)))(2 (2 (we))(2 (2 (2 (do))(2 (n't)))(2 (2 (condone))(2 (it))))))(2 (2 (,))(0 (2 (''))(0 (2 (2 (one))(2 (2 (of))(2 (2 (2 (the))(2 (2 (film))(2 ('s))))(2 (stars)))))(1 (1 (2 (2 (2 (recently))(2 (said)))(2 (,)))(1 (2 (2 (a))(2 (0 (tortuous))(2 (comment))))(1 (2 (that))(2 (4 (perfectly))(1 (3 (illustrates))(2 (2 (2 (the))(2 (2 (picture))(2 ('s))))(1 (2 (moral))(2 (schizophrenia)))))))))(2 (.)))))))) |ET| 
1  |BT| (ROOT (2 (``))(3 (2 (2 (2 (The))(2 (2 (Kid))(2 (Stays))))(2 (2 (in))(2 (2 (the))(2 (Picture)))))(3 (2 (''))(1 (3 (2 (is))(2 (3 (3 (2 (a))(4 (4 (great))(2 (story))))(2 (,)))(1 (3 (terrifically))(1 (2 (told))(0 (2 (by))(0 (3 (2 (the))(2 (man)))(1 (2 (who))(1 (2 (2 (wrote))(2 (it)))(0 (2 (but))(1 (2 (2 (this))(2 (2 (Cliff))(2 (2 (Notes))(2 (edition)))))(2 (2 (is))(2 (2 (a))(1 (cheat))))))))))))))(2 (.)))))) |ET| 
-0.30458499006574440981509610537614  |BT| (ROOT (4 (2 (2 (wo))(2 (n't)))(3 (2 (be))(3 (3 (2 (placed))(4 (2 (in))(4 (2 (2 (the))(2 (pantheon)))(3 (2 (of))(3 (4 (2 (the))(4 (best)))(2 (2 (of))(2 (2 (the))(2 (swashbucklers)))))))))(4 (2 (but))(4 (4 (4 (2 (it))(4 (2 (is))(4 (3 (2 (a))(2 (2 (whole))(2 (lot))))(3 (2 (of))(4 (fun))))))(2 (and)))(4 (2 (you))(3 (2 (get))(4 (2 (to))(2 (2 (see))(4 (2 (2 (the))(2 (one)))(3 (2 (of))(3 (4 (4 (4 (2 (2 (the))(2 (2 (world))(2 ('s))))(3 (4 (best))(2 (actors))))(2 (,)))(2 (2 (Daniel))(2 (Auteuil))))(2 (,))))))))))))))(3 (3 (2 (have))(3 (2 (2 (a))(2 (whale)))(3 (2 (of))(3 (2 (a))(3 (3 (good))(2 (time)))))))(2 (.)))) |ET| 
-0.98352558831100500569277755857911  |BT| (ROOT (2 (2 (With))(2 (2 (2 (the))(2 (exception)))(2 (2 (of))(2 (McCoist)))))(2 (2 (,))(1 (2 (2 (the))(2 (players)))(1 (1 (2 (2 (do))(2 (n't)))(2 (2 (have))(2 (2 (2 (a))(2 (clue)))(2 (2 (on))(3 (2 (the))(2 (park)))))))(2 (.)))))) |ET| 
-0.098397108755450199413239431578404  |BT| (ROOT (2 (...))(2 (1 (2 (2 (another))(2 (example)))(1 (2 (of))(1 (2 (how))(1 (3 (Sandler))(1 (2 (is))(1 (1 (losing))(2 (2 (his))(3 (touch)))))))))(2 (.)))) |ET| 
1  |BT| (ROOT (3 (2 (2 (Cube))(2 ('s)))(3 (3 (3 (charisma))(2 (and)))(2 (chemistry))))(2 (1 (2 (compensate))(2 (2 (for))(0 (2 (2 (corniness))(2 (and)))(1 (cliche)))))(2 (.)))) |ET| 
1  |BT| (ROOT (2 (2 (A))(2 (chick)))(2 (2 (2 (flick))(2 (2 (for))(2 (guys))))(2 (.)))) |ET| 
1  |BT| (ROOT (3 (Martyr))(2 (1 (1 (1 (2 (gets))(1 (3 (royally))(2 (screwed))))(2 (and)))(2 (2 (3 (comes))(2 (back)))(2 (2 (for))(2 (more)))))(2 (.)))) |ET| 
-0.32975005997285328218637801001023  |BT| (ROOT (3 (4 (Remarkable))(3 (2 (for))(3 (2 (its))(3 (3 (3 (intelligence))(2 (and)))(2 (intensity))))))(2 (.))) |ET| 
-0.26880126234312390343106358159275  |BT| (ROOT (3 (3 (Worth))(2 (2 (2 (seeing))(2 (just)))(2 (2 (for))(2 (2 (2 (Weaver))(2 (and)))(2 (LaPaglia))))))(2 (.))) |ET| 
-0.019820759750196616927331305646476  |BT| (ROOT (2 (Staggeringly))(0 (1 (0 (dreadful))(3 (romance)))(2 (.)))) |ET| 
1  |BT| (ROOT (3 (2 (If))(2 (2 (you))(2 (2 ('re))(2 (2 (a))(2 (2 (Crocodile))(2 (2 (Hunter))(3 (fan))))))))(3 (2 (,))(3 (2 (you))(2 (2 (2 ('ll))(2 (3 (4 (enjoy))(2 (2 (at))(1 (least))))(2 (2 (2 (the))(2 (2 (``))(2 (3 (real))(2 (2 (''))(2 (portions))))))(2 (2 (of))(2 (2 (the))(2 (film)))))))(2 (.)))))) |ET| 
1  |BT| (ROOT (2 (2 (The))(2 (movie)))(2 (2 (1 (strains))(2 (2 (to))(3 (2 (2 (2 (stay))(2 (2 (on))(3 (3 (2 (the))(2 (2 (light))(2 (2 (,))(2 (2 (comic))(2 (side))))))(2 (2 (of))(2 (2 (the))(2 (issue)))))))(2 (,)))(2 (2 (despite))(2 (2 (2 (the))(1 (difficulty)))(2 (2 (of))(2 (2 (doing))(2 (2 (so))(2 (2 (when))(3 (2 (2 (dealing))(3 (2 (2 (with))(1 (2 (2 (the))(1 (destruction)))(2 (2 (of))(2 (property)))))(3 (2 (and))(2 (2 (2 (,))(2 (2 (potentially))(2 (,))))(2 (2 (of))(3 (life)))))))(2 (itself))))))))))))(2 (.)))) |ET| 
1  |BT| (ROOT (2 (2 (In))(3 (3 (capturing))(2 (2 (2 (the))(2 (2 (understated))(1 (3 (comedic))(1 (agony)))))(1 (2 (of))(2 (2 (an))(2 (2 (ever-ruminating))(2 (2 (,))(2 (3 (2 (2 (genteel))(2 (yet)))(2 (decadent)))(2 (2 (aristocracy))(2 (2 (that))(2 (1 (2 (can))(2 (1 (no))(2 (longer))))(2 (2 (pay))(2 (2 (its))(3 (bills)))))))))))))))(2 (2 (,))(3 (2 (2 (the))(2 (film)))(2 (2 (2 (2 (could))(2 (2 (just))(2 (2 (as))(3 (well)))))(2 (2 (be))(3 (2 (2 (addressing))(2 (2 (2 (the))(2 (turn)))(2 (2 (of))(2 (2 (the))(2 (3 (20th))(2 (century)))))))(3 (2 (into))(2 (2 (the))(2 (21st)))))))(2 (.)))))) |ET| 
-0.67377568491493888824805935655604  |BT| (ROOT (2 (2 (In))(2 (2 (the))(2 (1 (book-on-tape))(2 (market)))))(2 (2 (,))(2 (2 (2 (2 (the))(2 (film)))(2 (2 (2 (2 (of))(2 (``)))(2 (2 (2 (The))(2 (2 (Kid))(2 (Stays))))(2 (2 (in))(2 (2 (the))(2 (Picture))))))(2 (''))))(1 (2 (would))(2 (2 (be))(2 (2 (an))(3 (2 (abridged))(2 (edition))))))))) |ET| 
-0.53316982657016331881294490813161  |BT| (ROOT (1 (Clumsy))(1 (2 (,))(0 (1 (obvious))(0 (2 (,))(0 (0 (preposterous))(1 (2 (,))(1 (2 (2 (the))(2 (movie)))(1 (1 (3 (2 (will))(2 (likely)))(1 (2 (2 (set))(2 (2 (2 (the))(2 (cause)))(2 (2 (of))(2 (2 (woman))(2 (warriors))))))(2 (2 (back))(2 (decades)))))(2 (.)))))))))) |ET| 
-0.09321882262250183459606489577709  |BT| (ROOT (1 (1 (1 (1 (2 (Spreads))(2 (2 (itself))(1 (2 (too))(2 (thin)))))(2 (,)))(2 (2 (leaving))(2 (2 (2 (2 (2 (these))(2 (actors)))(2 (,)))(2 (2 (as))(2 (3 (well))(2 (as)))))(2 (2 (2 (the))(2 (members)))(2 (2 (of))(2 (2 (the))(2 (commune))))))))(2 (,)))(3 (2 (short))(3 (2 (of))(4 (3 (profound))(2 (characterizations)))))) |ET| 
1  |BT| (ROOT (1 (1 (0 (2 (2 (2 (2 (Gambling))(2 (and)))(2 (throwing)))(3 (3 (2 (a))(2 (2 (basketball))(2 (game))))(2 (2 (for))(2 (money)))))(1 (1 (2 (is))(2 (n't)))(2 (2 (a))(2 (3 (new))(2 (plot))))))(2 (--)))(2 (2 (2 (in))(2 (2 (fact))(2 (Toback))))(2 (2 (himself))(2 (2 (2 (used))(2 (it)))(2 (2 (in))(2 (2 (2 (Black))(2 (and)))(2 (White))))))))(2 (.))) |ET| 
1  |BT| (ROOT (2 (2 (The))(2 (2 (first))(2 (half))))(3 (3 (3 (2 (bursts))(3 (2 (with))(3 (2 (a))(2 (2 (goofy))(3 (energy))))))(2 (3 (2 (previous))(3 (3 (Disney))(2 (films))))(2 (2 (only))(2 (2 (used))(2 (2 (for))(2 (2 (2 (a))(2 (2 (few))(2 (minutes))))(2 (2 (2 (here))(2 (and)))(2 (there)))))))))(2 (.)))) |ET| 
1  |BT| (ROOT (2 (3 (1 (Dense))(2 (2 (and))(4 (3 (4 (thoughtful))(2 (and)))(3 (brimming)))))(3 (2 (with))(1 (2 (ideas))(3 (2 (that))(1 (2 (are))(1 (2 (too))(2 (3 (complex))(2 (2 (to))(3 (2 (be))(2 (2 (rapidly))(2 (absorbed))))))))))))(2 (.))) |ET| 
-1  |BT| (ROOT (1 (2 (2 (A))(2 (film)))(2 (2 (with))(1 (2 (3 (2 (a))(4 (4 (great))(2 (premise))))(2 (2 (but))(2 (only))))(3 (2 (a))(4 (4 (great))(2 (premise)))))))(2 (.))) |ET| 
-0.061719200133209861647287652886007  |BT| (ROOT (4 (2 (One))(3 (2 (of))(3 (3 (4 (2 (the))(4 (best)))(2 (,)))(2 (most)))))(3 (1 (2 (understated))(3 (2 (performances))(2 (2 (of))(2 (2 (1 (-LRB-))(2 (2 (2 (Jack))(2 (2 (Nicholson))(2 ('s))))(3 (-RRB-))))(3 (career))))))(2 (.)))) |ET| 
-0.0090609846971237296281431738975698  |BT| (ROOT (4 (3 (3 (3 (2 (2 (Coral))(2 (3 (Reef))(2 (Adventure))))(3 (2 (is))(4 (3 (2 (a))(3 (2 (heavyweight))(2 (film))))(3 (2 (that))(3 (3 (1 (fights))(3 (2 (a))(3 (3 (good))(2 (fight)))))(2 (2 (on))(2 (2 (behalf))(2 (2 (of))(2 (2 (2 (the))(2 (2 (world))(2 ('s))))(2 (2 (endangered))(2 (reefs))))))))))))(2 (--)))(2 (and)))(2 (2 (it))(3 (2 (lets))(3 (2 (2 (the))(2 (pictures)))(2 (2 (do))(2 (2 (the))(2 (punching))))))))(2 (.))) |ET| 
1  |BT| (ROOT (2 (2 (After))(2 (2 (all))(2 (2 (the))(2 (2 (big))(2 (build-up))))))(1 (2 (,))(0 (3 (2 (3 (2 (3 (3 (2 (the))(2 (payoff)))(2 (2 (for))(2 (2 (the))(2 (audience)))))(2 (,)))(2 (2 (as))(2 (3 (well))(2 (as)))))(2 (2 (the))(2 (characters))))(2 (,)))(0 (0 (2 (is))(0 (0 (0 (1 (1 (messy))(2 (,)))(1 (murky)))(2 (,)))(0 (unsatisfying))))(2 (.)))))) |ET| 
1  |BT| (ROOT (3 (1 (-LRB-))(2 (2 (Garbus))(3 (-RRB-))))(1 (2 (2 (discards))(2 (2 (2 (2 (2 (2 (2 (the))(3 (potential)))(2 (2 (for))(2 (2 (pathological))(2 (study)))))(2 (,)))(2 (2 (exhuming))(2 (instead))))(2 (,)))(2 (3 (2 (the))(1 (2 (skewed))(2 (melodrama))))(3 (2 (of))(2 (2 (the))(2 (2 (circumstantial))(2 (situation))))))))(2 (.)))) |ET| 
1  |BT| (ROOT (2 (3 (Like))(2 (2 (the))(2 (series))))(4 (2 (,))(4 (2 (2 (the))(2 (movie)))(4 (3 (4 (4 (4 (2 (is))(3 (4 (4 (3 (3 (4 (3 (3 (funny))(2 (,)))(4 (smart)))(2 (,)))(3 (3 (visually))(3 (inventive))))(2 (,)))(2 (and)))(2 (most))))(2 (2 (of))(2 (all))))(2 (,)))(3 (alive)))(2 (.)))))) |ET| 
-0.25404542698578852499835534217709  |BT| (ROOT (4 (3 (3 (Passion))(3 (2 (,))(2 (2 (melodrama))(3 (2 (,))(2 (1 (sorrow))(2 (2 (,))(2 (3 (laugther))(2 (3 (2 (,))(2 (and)))(1 (tears))))))))))(3 (2 (2 (cascade))(2 (2 (over))(2 (2 (the))(2 (screen)))))(3 (effortlessly))))(2 (...))) |ET| 
-0.064217616651588635412473138330824  |BT| (ROOT (1 (2 (2 (The))(1 (2 (fetid))(2 (underbelly))))(2 (2 (of))(2 (fame))))(1 (1 (1 (2 (has))(2 (never)))(1 (2 (looked))(1 (uglier))))(2 (.)))) |ET| 
-0.19902857176068172728733429721615  |BT| (ROOT (2 (2 (Without))(3 (2 (1 (Shakespeare))(2 ('s)))(3 (4 (eloquent))(2 (language)))))(0 (2 (,))(0 (2 (2 (the))(2 (update)))(1 (0 (2 (is))(1 (1 (1 (dreary))(2 (and)))(1 (sluggish))))(2 (.)))))) |ET| 
1  |BT| (ROOT (2 (``))(3 (2 (2 (Me))(2 (2 (Without))(2 (You))))(3 (2 (''))(2 (3 (2 (is))(3 (3 (2 (a))(2 (2 (probing))(2 (examination))))(2 (2 (of))(3 (2 (2 (a))(2 (2 (female))(2 (friendship))))(2 (2 (set))(2 (2 (against))(3 (2 (a))(2 (2 (few))(3 (3 (dynamic))(2 (decades)))))))))))(2 (.)))))) |ET| 
1  |BT| (ROOT (1 (1 (2 (A))(1 (farce)))(1 (2 (of))(2 (2 (2 (a))(2 (parody)))(3 (2 (of))(3 (2 (2 (a))(3 (comedy)))(2 (2 (of))(2 (2 (a))(2 (premise)))))))))(1 (2 (,))(3 (2 (it))(2 (2 (2 (2 (1 (2 (is))(2 (n't)))(2 (2 (a))(2 (comparison))))(2 (2 (to))(2 (reality))))(3 (2 (2 (so))(2 (much)))(2 (2 (as))(2 (2 (it))(3 (2 (is))(1 (1 (2 (a))(2 (commentary)))(2 (2 (about))(2 (2 (2 (our))(2 (knowledge)))(2 (2 (of))(2 (films)))))))))))(2 (.)))))) |ET| 
1  |BT| (ROOT (2 (2 (Whether))(2 (2 (you))(2 (3 (3 (2 (like))(2 (it)))(2 (or)))(1 (not)))))(2 (2 (2 (2 (is))(2 (basically)))(2 (2 (2 (a))(2 (matter)))(2 (2 (of))(2 (taste)))))(2 (.)))) |ET| 
-1  |BT| (ROOT (2 (This))(2 (1 (2 (is))(2 (2 (2 (2 (the))(3 (kind)))(2 (2 (of))(2 (movie))))(1 (2 (where))(2 (2 (2 (the))(2 (2 (big))(2 (scene))))(2 (2 (is))(2 (2 (2 (a))(2 (man)))(1 (2 (2 (2 (shot))(1 (out)))(2 (2 (of))(2 (2 (a))(2 (cannon)))))(2 (2 (into))(2 (2 (2 (a))(2 (vat)))(2 (2 (of))(2 (2 (ice))(2 (cream)))))))))))))(2 (.)))) |ET| 
-0.18859155349221534692105706199072  |BT| (ROOT (2 (Holofcener))(2 (3 (1 (rejects))(3 (2 (2 (patent))(3 (solutions)))(2 (2 (to))(3 (2 (2 (1 (2 (dramatize))(2 (2 (3 (life))(2 ('s)))(1 (messiness))))(2 (2 (from))(2 (2 (inside))(1 (out)))))(2 (,)))(3 (2 (in))(3 (2 (all))(2 (2 (its))(2 (1 (strange))(2 (quirks))))))))))(2 (.)))) |ET| 
-1  |BT| (ROOT (2 (2 (2 (Overall))(2 (tomfoolery)))(2 (2 (like))(2 (this))))(2 (2 (2 (is))(2 (2 (2 (a))(2 (matter)))(2 (2 (of))(2 (taste)))))(2 (.)))) |ET| 
1  |BT| (ROOT (3 (3 (4 (Humorous))(2 (,)))(3 (3 (4 (3 (artsy))(2 (,)))(2 (and)))(3 (2 (even))(3 (cute)))))(3 (2 (,))(1 (1 (2 (in))(1 (2 (an))(2 (2 (off-kilter))(2 (2 (,))(1 (2 (dark))(2 (2 (,))(2 (2 (vaguely))(1 (1 (disturbing))(2 (way))))))))))(2 (.))))) |ET| 
1  |BT| (ROOT (2 (2 (1 (Self-congratulatory))(2 (,)))(1 (1 (1 (2 (1 (2 (0 (misguided))(2 (,)))(2 (and)))(1 (ill-informed)))(2 (,)))(2 (if)))(3 (2 (nonetheless))(3 (2 (compulsively))(3 (watchable))))))(2 (.))) |ET| 
1  |BT| (ROOT (3 (4 (2 (2 (2 (Director-writer))(2 (2 (Bille))(2 (August))))(2 (...)))(3 (4 (2 (2 (2 (depicts))(2 (2 (this))(2 (relationship))))(3 (2 (with))(3 (3 (economical))(3 (grace)))))(2 (,)))(2 (2 (letting))(4 (4 (2 (his))(4 (4 (superb))(2 (actors))))(2 (2 (convey))(3 (2 (2 (2 (2 (2 (2 (2 (2 (Martin))(2 ('s)))(2 (deterioration)))(2 (and)))(2 (2 (2 (Barbara))(2 ('s)))(2 (sadness))))(2 (--)))(2 (and)))(2 (,)))(2 (occasionally))))))))(2 (,)))(1 (1 (anger))(2 (.)))) |ET| 
-0.56388545490473818144749884595512  |BT| (ROOT (2 (It))(3 (2 (2 ('s))(2 (2 (2 (3 (3 (2 (2 (2 (2 (Burns))(2 (')))(2 (visuals)))(2 (,)))(2 (2 (2 (characters))(2 (and)))(2 (2 (his))(3 (2 (punchy))(2 (dialogue))))))(2 (,)))(2 (1 (not))(2 (2 (his))(2 (plot)))))(2 (,)))(2 (2 (that))(2 (2 (carry))(2 (waydowntown))))))(2 (.)))) |ET| 
-0.36104326475535081231171830040694  |BT| (ROOT (1 (4 (3 (2 (2 (2 (The))(2 (2 (Irwins))(2 ('))))(2 (scenes)))(3 (2 (are))(3 (fascinating))))(2 (;)))(0 (3 (2 (2 (the))(2 (movie)))(2 (2 (as))(2 (2 (a))(2 (whole)))))(0 (2 (is))(0 (0 (1 (0 (cheap))(2 (junk)))(2 (and)))(2 (1 (2 (an))(1 (insult)))(2 (2 (to))(2 (2 (their))(2 (2 (death-defying))(2 (efforts))))))))))(2 (.))) |ET| 
-0.42598678899353670246341607708018  |BT| (ROOT (2 (Charly))(0 (2 (2 (3 (comes))(1 (off)))(0 (2 (as))(1 (1 (2 (2 (2 (emotionally))(2 (manipulative)))(2 (and)))(1 (1 (sadly))(1 (1 (imitative))(2 (2 (of))(2 (innumerable))))))(1 (2 (past))(2 (4 (Love))(2 (2 (Story))(2 (derisions))))))))(2 (.)))) |ET| 
1  |BT| (ROOT (2 (This))(2 (2 (1 (2 (2 (is))(2 (more)))(2 (2 (2 (a))(2 (case)))(2 (2 (2 (of))(2 (`)))(2 (2 (Sacre))(2 (bleu))))))(2 (!)))(2 (')))) |ET| 
1  |BT| (ROOT (2 (2 (The))(2 (movie)))(3 (2 (2 (2 (is))(2 (essentially)))(2 (2 (2 (a))(2 (series)))(1 (2 (of))(2 (3 (4 (2 (fleetingly))(3 (interesting)))(2 (2 (actors))(2 ('))))(2 (moments))))))(2 (.)))) |ET| 
1  |BT| (ROOT (2 (2 (This))(2 (one)))(3 (1 (2 (2 (is))(2 (strictly)))(2 (2 (a))(2 (2 (lightweight))(3 (2 (escapist))(2 (film))))))(2 (.)))) |ET| 
-1  |BT| (ROOT (2 (2 (The))(2 (film)))(1 (1 (2 (2 (is))(2 (strictly)))(2 (routine)))(2 (.)))) |ET| 
-1  |BT| (ROOT (2 (But))(2 (1 (2 (what))(2 (2 (is))(1 (2 (missing))(2 (2 (from))(2 (it))))))(2 (2 (all))(2 (2 (2 (is))(3 (2 (a))(2 (moral))))(2 (.)))))) |ET| 
-0.1946399473931312296137718931277  |BT| (ROOT (2 (2 (The))(2 (film)))(2 (2 (2 (is))(2 (3 (2 (a))(2 (3 (fierce))(2 (dance))))(1 (2 (of))(1 (destruction)))))(2 (.)))) |ET| 
1  |BT| (ROOT (2 (3 (2 (2 (It))(1 (2 ('s))(1 (2 (like))(2 (2 (2 (an))(2 (2 (old))(2 (2 (Warner))(2 (2 (Bros.))(2 (costumer))))))(2 (2 (jived))(2 (2 (with))(3 (sex))))))))(2 (--)))(2 (2 (this))(2 (2 (could))(2 (2 (be))(2 (2 (2 (the))(2 (movie)))(2 (2 (2 (Errol))(2 (Flynn)))(2 (2 (always))(1 (2 (2 (2 (wanted))(2 (2 (to))(2 (make))))(2 (,)))(1 (2 (though))(3 (3 (2 (2 (2 (2 (Bette))(3 (Davis)))(2 (,)))(2 (2 (cast))(2 (2 (as))(2 (Joan)))))(2 (,)))(2 (2 (would))(2 (2 (have))(2 (2 (killed))(2 (him)))))))))))))))(2 (.))) |ET| 
1  |BT| (ROOT (2 (It))(3 (3 (2 ('s))(4 (2 (packed))(3 (2 (to))(3 (2 (2 (3 (3 (bursting))(2 (2 (with))(2 (incident))))(2 (,)))(2 (and)))(2 (2 (2 (with))(2 (2 (scores))(2 (2 (of))(2 (2 (2 (characters))(2 (,)))(2 (2 (2 (2 (some))(2 (fictional)))(2 (,)))(2 (some)))))))(2 (2 (from))(2 (history))))))))(2 (.)))) |ET| 
1  |BT| (ROOT (2 (So))(2 (4 (4 (3 (4 (3 (3 (3 (2 (2 (earnest))(2 (and)))(4 (well-meaning)))(2 (,)))(2 (and)))(4 (2 (2 (so))(2 (stocked)))(3 (2 (with))(3 (talent)))))(2 (,)))(2 (2 (that))(2 (2 (you))(1 (2 (almost))(2 (1 (forget))(2 (2 (the))(2 (sheer))))))))(2 (,)))(0 (0 (2 (ponderous))(1 (1 (awfulness))(2 (2 (of))(2 (2 (its))(2 (script))))))(2 (.))))) |ET| 
-0.6348250856646173723163428803673  |BT| (ROOT (1 (2 (2 (Britney))(2 (2 (Spears))(2 ('))))(2 (phoniness)))(0 (0 (2 (is))(0 (1 (nothing))(1 (2 (compared))(0 (2 (to))(0 (0 (0 (2 (2 (the))(2 (2 (movie))(2 ('s))))(1 (2 (contrived))(1 (2 (,))(1 (0 (lame))(2 (screenplay))))))(2 (and)))(1 (1 (listless))(2 (direction))))))))(2 (.)))) |ET| 
-0.084037823287126556248693987072329  |BT| (ROOT (2 (2 (3 (First))(2 (and)))(2 (foremost)))(4 (2 (...))(3 (4 (2 (2 (the))(3 (2 (reason))(2 (2 (to))(2 (go)))))(4 (2 (see))(4 (2 (``))(4 (2 (2 (Blue))(2 (Crush)))(3 (2 (''))(4 (2 (is))(4 (3 (2 (the))(4 (4 (phenomenal))(2 (2 (,))(2 (2 (water-born))(2 (cinematography))))))(2 (2 (by))(2 (2 (David))(2 (Hennings)))))))))))(2 (.))))) |ET| 
-0.069809475122999814500346360546246  |BT| (ROOT (3 (1 (1 (2 (2 (The))(2 (movie)))(0 (2 (is))(1 (1 (2 (a))(1 (1 (lumbering))(2 (load))))(2 (2 (of))(1 (2 (hokum))(2 (but)))))))(2 (...)))(1 (2 (it))(2 (2 ('s))(2 (2 (2 (at))(1 (least)))(3 (watchable))))))(2 (.))) |ET| 
1  |BT| (ROOT (2 (But))(2 (2 (this))(2 (2 (2 (is))(2 (2 (2 (Lohman))(2 ('s)))(2 (film))))(2 (.))))) |ET| 
1  |BT| (ROOT (2 (We))(3 (2 (2 (have))(2 (2 (2 (an))(2 (actor)))(3 (2 (who))(3 (2 (is))(3 (4 (great))(2 (4 (fun))(1 (2 (to))(1 (2 (watch))(1 (2 (performing))(2 (2 (in))(1 (2 (2 (a))(2 (film)))(2 (2 (that))(2 (2 (2 (is))(2 (2 (only))(2 (mildly))))(2 (diverting)))))))))))))))(2 (.)))) |ET| 
1  |BT| (ROOT (2 (2 (That))(2 (death)))(2 (2 (2 (2 (is))(2 (merely)))(2 (2 (2 (a))(2 (transition)))(2 (2 (is))(2 (2 (2 (a))(2 (2 (common))(2 (tenet))))(2 (2 (in))(2 (2 (2 (the))(2 (2 (world))(2 ('s))))(2 (religions))))))))(2 (.)))) |ET| 
-0.018077270010402796129866942465014  |BT| (ROOT (2 (1 (2 (2 (A))(2 (2 (different))(2 (movie))))(1 (2 (--))(1 (1 (2 (sometimes))(1 (tedious)))(2 (--)))))(2 (2 (by))(2 (2 (a))(2 (2 (director))(2 (2 (many))(2 (viewers)))))))(2 (2 (2 (would))(3 (2 (like))(2 (2 (to))(1 (1 (skip))(3 (2 (but))(2 (3 (2 (film))(2 (buffs)))(2 (2 (should))(2 (2 (get))(2 (2 (to))(2 (know)))))))))))(2 (.)))) |ET| 
-0.29529498319293256969331196160056  |BT| (ROOT (2 (2 (What))(1 (2 (should))(2 (2 (have))(2 (2 (been))(3 (2 (a))(3 (2 (cutting))(3 (2 (Hollywood))(2 (satire)))))))))(1 (1 (2 (2 (2 (is))(2 (instead)))(2 (2 (about))(3 (2 (as))(4 (fresh)))))(2 (2 (as))(2 (2 (2 (2 (last))(2 (2 (week))(2 ('s))))(2 (issue)))(2 (2 (of))(2 (Variety))))))(2 (.)))) |ET| 
-0.26762021195118651517574903664354  |BT| (ROOT (2 (2 (Instead))(2 (2 (of))(2 (2 (panoramic))(2 (sweep)))))(1 (2 (,))(1 (2 (Kapur))(1 (1 (2 (2 (gives))(3 (us)))(1 (1 (1 (2 (episodic))(1 (choppiness)))(2 (,)))(3 (2 (undermining))(2 (2 (2 (the))(2 (2 (story))(2 ('s))))(2 (2 (emotional))(2 (thrust)))))))(2 (.)))))) |ET| 
1  |BT| (ROOT (2 (2 (2 (2 (2 (2 (The))(2 (2 (stripped-down))(2 (3 (dramatic))(3 (constructs)))))(2 (,)))(2 (2 (austere))(2 (imagery))))(2 (and)))(3 (2 (abstract))(2 (characters))))(3 (3 (2 (are))(3 (2 (2 (equal))(2 (parts)))(3 (3 (2 (2 (3 (poetry))(2 (and)))(1 (politics)))(2 (,)))(3 (2 (2 (1 (obvious))(2 (2 (at))(2 (times))))(2 (but)))(3 (3 (3 (evocative))(2 (and)))(3 (heartfelt)))))))(2 (.)))) |ET| 
1  |BT| (ROOT (1 (2 (1 (1 (1 (Disappointingly))(1 (2 (,))(1 (2 (2 (the))(2 (characters)))(1 (2 (1 (2 (are))(1 (2 (too))(2 (2 (1 (strange))(2 (and)))(1 (dysfunctional)))))(2 (2 (,))(2 (2 (2 (Tom))(2 (included)))(2 (,)))))(1 (2 (to))(2 (2 (ever))(3 (2 (get))(1 (2 (under))(2 (2 (the))(2 (skin)))))))))))(2 (,)))(2 (but)))(3 (2 (this))(3 (2 (is))(3 (2 (2 (compensated))(2 (2 (in))(2 (2 (large))(2 (part)))))(4 (2 (by))(3 (3 (3 (2 (2 (2 (the))(2 (2 (off-the-wall))(2 (dialogue))))(2 (,)))(3 (2 (visual))(2 (playfulness))))(2 (and)))(3 (2 (2 (the))(2 (outlandishness)))(2 (2 (of))(2 (2 (2 (the))(2 (idea)))(2 (itself)))))))))))(2 (.))) |ET| 
1  |BT| (ROOT (2 (2 (A))(2 (3 (2 (relatively))(3 (effective)))(2 (little))))(0 (0 (2 (potboiler))(0 (2 (until))(0 (2 (its))(0 (1 (1 (absurd))(0 (2 (,))(1 (2 (contrived))(1 (2 (,))(1 (1 (overblown))(1 (2 (,))(1 (2 (and))(1 (2 (entirely))(1 (implausible))))))))))(2 (finale))))))(2 (.)))) |ET| 
-0.72842168292718723066059283155482  |BT| (ROOT (2 (2 (In))(2 (2 (old-fashioned))(2 (2 (screenwriting))(2 (parlance)))))(1 (2 (,))(1 (2 (2 (2 (Ms.))(2 (2 (Shreve))(2 ('s))))(3 (novel)))(1 (1 (1 (2 (proved))(1 (2 (too))(1 (difficult))))(1 (2 (1 (3 (2 (2 (a))(2 (text)))(2 (2 (2 (to))(2 (`)))(2 (lick))))(2 (,)))(2 (')))(1 (2 (despite))(3 (2 (2 (the))(2 (efforts)))(4 (2 (of))(4 (2 (a))(3 (3 (first-rate))(2 (cast)))))))))(2 (.)))))) |ET| 
-0.58622124739693393102868412825046  |BT| (ROOT (1 (1 (2 (An))(1 (0 (unencouraging))(3 (2 (threefold))(2 (expansion)))))(2 (2 (on))(2 (2 (the))(2 (2 (former))(2 (2 (MTV))(2 (series)))))))(1 (2 (,))(1 (1 (1 (2 (accompanying))(1 (2 (the))(1 (2 (stunt-hungry))(0 (dimwits)))))(1 (2 (in))(1 (2 (2 (a))(2 (2 (random))(2 (series))))(2 (2 (of))(2 (2 (collected))(2 (2 (gags))(1 (2 (,))(2 (2 (pranks))(1 (2 (,))(2 (2 (pratfalls))(2 (2 (,))(2 (2 (dares))(2 (2 (,))(2 (2 (2 (injuries))(2 (,)))(2 (etc.))))))))))))))))(2 (.))))) |ET| 
-0.44419541426277436846348223298264  |BT| (ROOT (2 (2 (2 (Kinnear))(2 ('s)))(2 (performance)))(3 (4 (2 (is))(4 (2 (a))(4 (4 (career-defining))(3 (revelation)))))(2 (.)))) |ET| 
1  |BT| (ROOT (2 (It))(1 (1 (2 ('s))(1 (2 (too))(1 (0 (bad))(2 (2 (1 (nothing))(2 (else)))(2 (is))))))(2 (.)))) |ET| 
1  |BT| (ROOT (2 (It))(2 (3 (2 ('s))(2 (2 (been))(2 (2 (2 (made))(3 (2 (with))(2 (2 (an))(2 (3 (2 (3 (innocent))(2 (yet)))(3 (fervid)))(2 (conviction))))))(2 (2 (that))(1 (2 (2 (our))(2 (Hollywood)))(1 (2 (2 (has))(2 (2 (all))(2 (but))))(2 (lost))))))))(2 (.)))) |ET| 
1  |BT| (ROOT (2 (2 (The))(2 (movie)))(2 (2 (2 (should))(1 (2 (be))(2 (2 (credited))(2 (2 (with))(2 (2 (remembering))(1 (2 (his))(1 (victims))))))))(2 (.)))) |ET| 
-0.73818628863581414734085228701588  |BT| (ROOT (2 (It))(1 (1 (2 ('s))(0 (drab)))(2 (.)))) |ET| 
-0.32326771546989185868170579851721  |BT| (ROOT (2 (It))(1 (1 (2 ('s))(1 (uninteresting)))(2 (.)))) |ET| 
-0.53995136802021803656970178053598  |BT| (ROOT (2 (It))(3 (4 (2 (2 ('s))(2 (always)))(4 (enthralling)))(2 (.)))) |ET| 
1  |BT| (ROOT (2 (2 (3 (2 (2 (Critics))(3 (3 (3 (2 (need))(3 (2 (a))(4 (3 (good))(3 (laugh)))))(2 (,)))(2 (too))))(2 (,)))(2 (and)))(2 (2 (2 (2 (this))(2 (1 (too-extreme-for-TV))(2 (rendition))))(2 (2 (of))(1 (2 (the))(2 (2 (notorious))(2 (2 (MTV))(2 (show)))))))(2 (2 (delivers))(2 (3 (2 (the))(3 (2 (2 (outrageous))(2 (2 (,))(1 (2 (sickening))(3 (2 (,))(3 (sidesplitting))))))(2 (goods))))(2 (2 (in))(1 (2 (steaming))(2 (2 (,))(2 (2 (visceral))(3 (heaps))))))))))(2 (.))) |ET| 
1  |BT| (ROOT (2 (2 (When))(3 (2 (in))(2 (doubt))))(0 (2 (,))(2 (2 (2 (the))(2 (film)))(2 (1 (2 (3 (3 (2 (2 (3 (ratchets))(2 (up)))(3 (2 (the))(2 (3 (stirring))(2 (soundtrack)))))(2 (,)))(1 (2 (throws))(2 (2 (in))(1 (2 (a))(1 (2 (fish-out-of-water))(1 (gag)))))))(2 (and)))(1 (2 (lets))(1 (2 (the))(1 (1 (cliched))(2 (2 (dialogue))(2 (rip)))))))(2 (.)))))) |ET| 
1  |BT| (ROOT (0 (1 (0 (1 (Smug))(0 (2 (,))(1 (1 (artificial))(1 (2 (,))(0 (0 (ill-constructed))(1 (2 (and))(0 (2 (fatally))(1 (overlong)))))))))(2 (...)))(0 (2 (it))(0 (2 (never))(1 (1 (1 (3 (3 (3 (2 (finds))(3 (2 (a))(2 (3 (consistent))(2 (tone)))))(2 (and)))(1 (lacks)))(1 (bite)))(2 (,)))(0 (1 (degenerating))(1 (2 (into))(1 (2 (a))(0 (2 (pious))(1 (2 (,))(1 (1 (preachy))(1 (2 (soap))(2 (opera)))))))))))))(2 (.))) |ET| 
-0.37511539477407301879097190067114  |BT| (ROOT (0 (2 (2 (2 (2 (2 (Most))(2 (2 (fish))(2 (stories))))(1 (2 (are))(2 (2 (2 (a))(2 (little)))(2 (peculiar)))))(2 (,)))(2 (but)))(1 (2 (this))(0 (2 (is))(1 (2 (one))(1 (2 (that))(0 (2 (should))(2 (2 (be))(2 (2 (2 (thrown))(2 (back)))(2 (2 (in))(3 (2 (the))(2 (river))))))))))))(2 (.))) |ET| 
-0.12601272407333957703556848173321  |BT| (ROOT (0 (2 (2 (2 (2 (I))(2 (2 (can))(2 (2 (2 (imagine))(2 (2 (this))(2 (movie))))(2 (2 (as))(2 (2 (2 (a))(2 (2 (2 (b))(2 (&)))(2 (2 (2 (2 (2 (2 (w))(3 (2 (British))(3 (comedy))))(2 (,)))(2 (3 (circa))(2 (1960))))(2 (,)))(2 (2 (with))(2 (2 (2 (2 (2 (2 (Peter))(2 (Sellers)))(2 (,)))(2 (2 (Kenneth))(2 (Williams))))(2 (,)))(2 (et)))))))(2 (al.)))))))(2 (,)))(2 (but)))(0 (2 (2 (2 (at))(2 (2 (this))(2 (time))))(2 (2 (,))(2 (2 (with))(2 (2 (this))(2 (cast))))))(0 (2 (,))(1 (2 (2 (this))(2 (movie)))(2 (2 (is))(1 (hopeless)))))))(2 (.))) |ET| 
-0.53004146020290610064051861627377  |BT| (ROOT (1 (2 (One))(2 (long)))(1 (2 (,))(1 (2 (2 (1 (numbing))(2 (2 (action))(2 (sequence))))(2 (2 (2 (2 (made))(2 (up)))(2 (mostly)))(1 (2 (of))(1 (2 (routine))(2 (2 (stuff))(2 (Yuen)))))))(2 (2 (2 (has))(2 (2 (given))(2 (3 (us))(2 (before)))))(2 (.)))))) |ET| 
1  |BT| (ROOT (2 (It))(2 (0 (2 (2 ('s))(2 (just)))(3 (2 (plain))(0 (boring))))(2 (.)))) |ET| 
1  |BT| (ROOT (2 (It))(2 (2 (2 (2 ('s))(1 (not)))(1 (hateful)))(2 (.)))) |ET| 
1  |BT| (ROOT (2 (It))(2 (2 (2 ('s))(2 (2 (about))(2 (time))))(2 (.)))) |ET| 
-0.052522979065177013979770492824173  |BT| (ROOT (1 (0 (1 (Stale))(2 (and)))(1 (1 (clichéd))(2 (2 (to))(1 (2 (a))(2 (fault))))))(2 (.))) |ET| 
-1  |BT| (ROOT (2 (He))(2 (2 (2 (2 ('s))(1 (not)))(2 (3 (good))(2 (2 (with))(2 (people)))))(2 (.)))) |ET| 
-1  |BT| (ROOT (2 (It))(1 (1 (2 (2 ('s))(1 (not)))(2 (3 (original))(2 (enough))))(2 (.)))) |ET| 
1  |BT| (ROOT (1 (2 (Not))(3 (2 (as))(3 (3 (good))(3 (2 (as))(3 (2 (the))(3 (original)))))))(2 (2 (2 (,))(2 (but)))(2 (2 (2 (what))(2 (is)))(2 (...))))) |ET| 
1  |BT| (ROOT (3 (Authentic))(1 (2 (,))(3 (3 (2 (2 (2 (and))(2 (at)))(2 (times)))(3 (endearing)))(1 (2 (,))(3 (3 (humorous))(1 (2 (,))(2 (2 (spooky))(1 (2 (,))(1 (2 (educational))(1 (2 (2 (,))(2 (but)))(1 (1 (2 (at))(1 (2 (2 (other))(2 (times)))(2 (2 (as))(1 (1 (bland))(1 (2 (as))(2 (2 (2 (a))(2 (block)))(2 (2 (of))(2 (snow)))))))))(2 (.))))))))))))) |ET| 
1  |BT| (ROOT (3 (4 (2 (A))(4 (3 (fantastic))(2 (2 (premise))(2 (anchors)))))(1 (2 (2 (this))(2 (movie)))(2 (2 (2 (,))(2 (but)))(2 (2 (what))(1 (2 (it))(2 (needs)))))))(2 (3 (2 (2 (2 (is))(2 (either)))(3 (1 (2 (2 (2 (2 (a))(2 (2 (2 (more))(1 (rigid)))(3 (2 (,))(3 (2 (Blair))(2 (2 (Witch-style))(2 (commitment)))))))(2 (2 (to))(2 (2 (its))(2 (2 (mockumentary))(2 (format))))))(2 (,)))(2 (or)))(3 (3 (2 (2 (a))(3 (3 (2 (more))(3 (straightforward)))(3 (2 (,))(3 (3 (dramatic))(2 (treatment))))))(2 (,)))(1 (2 (with))(2 (2 (all))(2 (2 (the))(3 (grandiosity))))))))(2 (2 (that))(2 (2 (that))(2 (implies)))))(2 (.)))) |ET| 
-0.69555936999209833082602472131839  |BT| (ROOT (1 (1 (1 (1 (2 (2 (With))(1 (2 (2 (nary))(3 (2 (a))(2 (glimmer))))(2 (2 (of))(2 (self-knowledge)))))(2 (2 (,))(2 (1 (-LRB-))(2 (2 (Crane))(1 (3 (-RRB-))(1 (2 (2 (becomes))(2 (2 (more))(2 (specimen))))(2 (2 (than))(2 (character)))))))))(2 (--)))(2 (and)))(2 (2 (2 (Auto))(3 (Focus)))(1 (1 (remains))(2 (2 (a))(1 (2 (chilly))(2 (2 (,))(2 (2 (clinical))(2 (2 (lab))(2 (report))))))))))(2 (.))) |ET| 
-0.16032868739496911048014737843914  |BT| (ROOT (2 (Sure))(1 (2 (,))(1 (2 (I))(1 (0 (0 (1 (hated))(2 (myself)))(2 (2 (in))(2 (2 (the))(2 (morning)))))(2 (.)))))) |ET| 
-0.44836356877065064452381193405017  |BT| (ROOT (2 (2 (Paul))(2 (Cox)))(2 (2 (3 (needed))(2 (2 (to))(2 (2 (show))(2 (it)))))(2 (.)))) |ET| 
1  |BT| (ROOT (2 (3 (2 (2 (It))(2 (2 (2 ('s))(1 (not)))(1 (2 (too))(1 (racy)))))(2 (and)))(2 (2 (it))(2 (2 (2 ('s))(1 (not)))(1 (2 (too))(1 (offensive))))))(2 (.))) |ET| 
1  |BT| (ROOT (2 (2 (Let))(2 ('s)))(2 (2 (4 (hope))(1 (not)))(2 (.)))) |ET| 
1  |BT| (ROOT (2 (It))(2 (2 (3 (2 ('s))(3 (2 (all))(4 (pretty))))(3 (tame)))(2 (.)))) |ET| 
-1  |BT| (ROOT (2 (It))(3 (2 (2 (2 ('s))(1 (not)))(2 (2 (1 (2 (too))(2 (fast)))(2 (and)))(2 (1 (not))(1 (2 (too))(1 (slow))))))(2 (.)))) |ET| 
-1  |BT| (ROOT (1 (2 (3 (2 (Vaguely))(3 (interesting)))(2 (,)))(1 (2 (but))(2 (2 (it))(2 (2 (2 ('s))(2 (just)))(2 (2 (too))(1 (2 (too))(2 (much))))))))(2 (.))) |ET| 
-0.67126577956666977353705760833691  |BT| (ROOT (2 (Often))(1 (2 (0 (3 (silly))(1 (1 (2 (2 (--))(2 (and)))(0 (gross)))(2 (--))))(2 (2 (but))(2 (it))))(2 (1 (2 (2 ('s))(2 (rarely)))(0 (0 (2 (as))(0 (0 (moronic))(2 (2 (as))(2 (2 (some))(2 (campus))))))(2 (2 (gross-out))(2 (films)))))(2 (.))))) |ET| 
1  |BT| (ROOT (1 (2 (4 (4 (2 (2 (The))(2 (filmmaker)))(3 (2 (2 (2 (2 (ascends))(2 (,)))(3 (literally)))(2 (,)))(2 (2 (to))(3 (2 (2 (the))(2 (Olympus)))(2 (2 (of))(2 (2 (the))(2 (2 (art))(2 (world)))))))))(2 (,)))(2 (but)))(1 (2 (he))(0 (2 (would))(2 (2 (have))(0 (3 (2 (done))(3 (well)))(2 (2 (to))(1 (3 (1 (2 (end))(2 (2 (this))(2 (2 (1 (flawed))(3 (2 (,))(4 (dazzling))))(2 (series)))))(2 (2 (with))(2 (2 (2 (the))(2 (raising)))(2 (2 (of))(2 (2 (something))(2 (other)))))))(2 (2 (than))(2 (2 (his))(3 (2 (own))(2 (cremaster))))))))))))(2 (.))) |ET| 
1  |BT| (ROOT (1 (2 (2 (A))(2 (lack)))(2 (2 (of))(2 (thesis))))(1 (1 (2 (makes))(2 (2 (Maryam))(2 (2 (,))(2 (2 (2 (in))(2 (2 (the))(2 (end))))(2 (2 (,))(1 (2 (2 (play))(1 (out)))(1 (2 (with))(2 (3 (2 (the))(3 (3 (3 (2 (intellectual))(2 (and)))(2 (emotional)))(2 (impact))))(2 (2 (of))(2 (2 (an))(2 (2 (after-school))(3 (special)))))))))))))(2 (.)))) |ET| 
1  |BT| (ROOT (2 (2 (The))(2 (film)))(3 (2 (2 (is))(2 (4 (4 (4 (2 (a))(4 (masterpiece)))(3 (2 (of))(2 (2 (2 (nuance))(2 (and)))(2 (characterization)))))(2 (,)))(1 (2 (1 (marred))(2 (only)))(1 (2 (by))(0 (2 (2 (an))(1 (2 (inexplicable))(1 (2 (,))(0 (1 (2 (utterly))(1 (distracting)))(1 (blunder))))))(2 (2 (at))(2 (2 (the))(2 (2 (very))(2 (end))))))))))(2 (.)))) |ET| 
-0.24373381100904600859990978278802  |BT| (ROOT (2 (2 (Although))(2 (2 (2 (the))(2 (sequel)))(3 (2 (has))(3 (2 (2 (all))(2 (2 (the))(2 (2 (outward))(2 (elements)))))(2 (2 (of))(3 (2 (the))(3 (original))))))))(1 (2 (,))(2 (2 (2 (2 (the))(2 (2 (first))(2 (2 (film))(2 ('s)))))(3 (3 (lovely))(1 (flakiness))))(0 (1 (2 (is))(0 (2 (2 (gone))(2 (,)))(0 (2 (replaced))(1 (2 (by))(1 (2 (2 (the))(1 (1 (forced))(3 (funniness))))(2 (2 (found))(1 (2 (in))(0 (2 (the))(0 (1 (dullest))(2 (2 (kiddie))(2 (flicks))))))))))))(2 (.)))))) |ET| 
-0.57376976124880318952392599385348  |BT| (ROOT (3 (3 (3 (3 (2 (2 (The))(3 (fascination)))(4 (3 (comes))(3 (2 (in))(3 (3 (3 (3 (2 (the))(2 (power)))(2 (2 (of))(2 (2 (the))(3 (2 (Huston))(2 (performance))))))(2 (,)))(3 (2 (which))(3 (2 (seems))(2 (3 (3 (2 (so))(3 (2 (larger))(2 (2 (than))(3 (life)))))(2 (and)))(2 (2 (yet))(2 (2 (so))(2 (fragile)))))))))))(2 (,)))(2 (and)))(1 (2 (2 (in))(2 (2 (the))(2 (way))))(2 (2 (2 (the))(2 (2 (Ivan))(2 (character))))(2 (2 (2 (2 (2 (2 (accepts))(2 (2 (2 (the))(2 (news)))(2 (2 (of))(2 (2 (his))(0 (illness))))))(2 (2 (so))(2 (quickly))))(2 (but)))(2 (2 (still))(2 (2 (finds))(2 (himself)))))(2 (1 (unable))(2 (2 (to))(2 (react))))))))(2 (.))) |ET| 
-0.19073533032966660805129777145339  |BT| (ROOT (1 (3 (3 (Evokes))(2 (2 (a))(2 (3 (palpable))(2 (sense)))))(1 (2 (of))(2 (disconnection))))(2 (2 (,))(2 (1 (2 (made))(1 (2 (2 (all))(2 (the)))(2 (2 (more))(2 (4 (poignant))(1 (2 (by))(1 (0 (2 (the))(1 (1 (incessant))(2 (use))))(2 (2 (of))(2 (2 (cell))(2 (phones))))))))))(2 (.))))) |ET| 
1  |BT| (ROOT (2 (It))(2 (2 (2 (2 ('s))(2 (just)))(2 (2 (2 (a))(2 (little)))(1 (2 (too))(2 (self-satisfied)))))(2 (.)))) |ET| 
1  |BT| (ROOT (1 (3 (2 (`))(2 (3 (Sophisticated))(2 (2 ('))(2 (viewers)))))(1 (2 (who))(1 (2 (refuse))(2 (2 (to))(2 (2 (admit))(2 (2 (that))(1 (2 (they))(1 (2 (2 (do))(2 (n't)))(3 (2 (like))(2 (it)))))))))))(2 (2 (3 (2 (will))(2 (likely)))(2 (2 (call))(2 (2 (it))(2 (2 (`))(2 (2 (2 (challenging))(2 (')))(2 (2 (to))(2 (2 (their))(3 (2 (fellow))(2 (sophisticates))))))))))(2 (.)))) |ET| 
1  |BT| (ROOT (2 (Overall))(3 (2 (,))(2 (2 (3 (interesting))(1 (2 (as))(2 (2 (2 (a))(2 (documentary)))(1 (2 (--))(1 (2 (but))(2 (2 (1 (not))(2 (very)))(2 (Imaxy))))))))(2 (.))))) |ET| 
-0.40724637828346427204095903107373  |BT| (ROOT (1 (2 (2 (A))(1 (2 (2 (2 (handsome))(2 (but)))(0 (unfulfilling)))(2 (2 (suspense))(1 (drama)))))(2 (more)))(1 (1 (2 (1 (3 (suited))(2 (2 (to))(2 (2 (2 (a))(2 (2 (quiet))(2 (evening))))(2 (2 (on))(2 (PBS))))))(2 (2 (than))(2 (2 (a))(3 (2 (night))(1 (out))))))(2 (2 (at))(2 (2 (an))(2 (AMC)))))(2 (.)))) |ET| 
-0.82167014142064165316270418770728  |BT| (ROOT (3 (2 (What))(2 (2 (`))(2 (2 (2 (Blade))(2 (Runner)))(2 (2 ('))(2 (would))))))(0 (0 (2 ('ve))(1 (2 (looked))(1 (2 (like))(1 (2 (as))(1 (1 (2 (a))(1 (1 (low-budget))(2 (series))))(2 (2 (on))(2 (2 (a))(2 (2 (UHF))(2 (channel))))))))))(2 (.)))) |ET| 
-0.31790596362767720162167961461819  |BT| (ROOT (2 (2 (2 (The))(3 (truth)))(2 (2 (about))(2 (Charlie))))(0 (1 (2 (is))(0 (2 (that))(1 (2 (it))(1 (2 ('s))(1 (2 (a))(0 (2 (brazenly))(1 (0 (misguided))(2 (project)))))))))(2 (.)))) |ET| 
1  |BT| (ROOT (2 (2 (Despite))(1 (2 (2 (the))(2 (holes)))(1 (2 (in))(1 (2 (2 (2 (the))(2 (story)))(2 (and)))(1 (2 (the))(1 (1 (2 (somewhat))(2 (predictable)))(2 (plot))))))))(3 (2 (,))(3 (2 (2 (moments))(2 (2 (of))(2 (2 (the))(2 (movie)))))(3 (2 (3 (caused))(2 (3 (me))(3 (2 (to))(2 (2 (jump))(2 (2 (in))(2 (2 (my))(2 (chair))))))))(2 (...)))))) |ET| 
1  |BT| (ROOT (2 (There))(1 (1 (2 (are))(1 (2 (2 (more))(2 (shots)))(1 (2 (of))(1 (3 (children))(1 (3 (3 (smiling))(2 (2 (for))(2 (2 (the))(2 (camera)))))(1 (2 (than))(1 (2 (1 (typical))(2 (2 (documentary))(2 (footage))))(1 (2 (which))(1 (1 (hurts))(2 (2 (2 (the))(2 (2 (overall))(2 (impact))))(2 (2 (of))(2 (2 (the))(2 (film))))))))))))))(2 (.)))) |ET| 
1  |BT| (ROOT (1 (2 (2 (3 (2 (2 (A))(2 (2 (few))(3 (3 (energetic))(2 (2 (stunt))(2 (sequences))))))(3 (3 (briefly))(2 (2 (enliven))(2 (2 (the))(2 (film))))))(2 (,)))(2 (but)))(1 (0 (2 (1 (1 (2 (the))(1 (1 (wheezing))(2 (1 (terrorist))(2 (subplot)))))(1 (2 (2 (has))(2 (n't)))(2 (3 (2 (the))(2 (stamina)))(2 (2 (for))(2 (2 (the))(2 (2 (100-minute))(2 (2 (running))(2 (time)))))))))(2 (,)))(2 (and)))(1 (1 (2 (2 (the))(2 (3 (protagonists))(2 ('))))(1 (2 (bohemian))(1 (boorishness))))(2 (2 (mars))(3 (3 (2 (the))(3 (spirit)))(3 (2 (of))(4 (3 (good))(3 (3 (clean))(4 (fun))))))))))(2 (.))) |ET| 
-1  |BT| (ROOT (3 (1 (1 (1 (2 (There))(1 (1 (2 (are))(2 (n't)))(3 (2 (2 (many))(2 (2 (conclusive))(2 (answers))))(2 (2 (in))(2 (2 (the))(2 (film)))))))(2 (,)))(2 (but)))(4 (2 (there))(3 (2 (is))(4 (3 (3 (2 (an))(3 (3 (interesting))(2 (story))))(3 (2 (of))(3 (2 (3 (3 (2 (2 (3 (2 (pointed))(2 (personalities)))(2 (,)))(2 (courage)))(2 (,)))(1 (tragedy)))(2 (and)))(2 (2 (the))(2 (2 (little))(2 (guys)))))))(2 (2 (vs.))(2 (2 (the))(2 (2 (big))(2 (guys)))))))))(2 (.))) |ET| 
-0.069367761163713501093575075628905  |BT| (ROOT (2 (2 (3 (2 (2 (2 (A))(3 (2 (few))(2 (nonbelievers))))(3 (2 (may))(3 (2 (2 (rethink))(2 (2 (their))(2 (attitudes))))(3 (2 (when))(3 (2 (they))(2 (2 (see))(3 (2 (2 (the))(4 (joy)))(2 (2 (2 (the))(2 (characters)))(2 (2 (take))(2 (2 (in))(2 (2 (this))(2 (creed)))))))))))))(2 (,)))(2 (but)))(2 (1 (skeptics))(2 (1 (2 (are))(2 (n't)))(2 (2 (likely))(2 (2 (to))(2 (3 (enter))(2 (2 (the))(3 (theater)))))))))(2 (.))) |ET| 
-0.80857838647449598035166218323866  |BT| (ROOT (1 (1 (1 (2 (2 (2 (The))(2 (kids)))(2 (2 (in))(2 (2 (2 (the))(2 (audience)))(2 (2 (at))(2 (2 (the))(2 (2 (preview))(2 (screening))))))))(1 (2 (1 (2 (seemed))(1 (bored)))(2 (,)))(2 (3 (cheering))(1 (2 (the))(2 (2 (2 (2 (pratfalls))(2 (but)))(2 (little)))(2 (else)))))))(2 (;)))(3 (2 (3 (2 (2 (2 (their))(2 (parents)))(2 (,)))(3 (2 (3 (wise))(2 (folks)))(2 (2 (that))(2 (2 (they))(2 (are))))))(2 (,)))(2 (2 (read))(2 (books)))))(2 (.))) |ET| 
1  |BT| (ROOT (2 (2 (If))(2 (2 (2 (Deuces))(3 (Wild)))(2 (2 (had))(2 (2 (been))(2 (2 (2 (tweaked))(2 (up)))(2 (2 (a))(2 (notch))))))))(3 (2 (it))(2 (2 (2 (would))(2 (2 (have))(2 (2 (become))(1 (2 (2 (2 (a))(2 (2 (camp))(3 (adventure))))(2 (,)))(1 (3 (2 (one))(2 (2 (of))(2 (2 (those))(2 (movies)))))(3 (2 (that))(2 (2 ('s))(2 (2 (so))(2 (0 (bad))(3 (2 (it))(3 (2 (starts))(2 (2 (to))(3 (2 (become))(3 (good)))))))))))))))(2 (.))))) |ET| 
1  |BT| (ROOT (3 (Heaven))(3 (3 (2 (is))(3 (3 (2 (a))(2 (2 (haunting))(2 (dramatization))))(3 (2 (of))(2 (2 (2 (a))(2 (2 (couple))(2 ('s))))(3 (2 (moral))(3 (ascension)))))))(2 (.)))) |ET| 
1  |BT| (ROOT (2 (Nor))(2 (2 (2 (2 (is))(2 (it)))(3 (3 (2 (a))(2 (romantic)))(3 (comedy))))(2 (.)))) |ET| 
-0.30704094919207752800716093588562  |BT| (ROOT (2 (Bielinsky))(3 (4 (2 (is))(3 (2 (2 (a))(2 (filmmaker)))(4 (2 (of))(3 (4 (impressive))(3 (talent))))))(2 (.)))) |ET| 
-0.80858015516676107203863921313314  |BT| (ROOT (4 (4 (3 (2 (a))(4 (4 (delightful))(2 (2 (romantic))(3 (comedy)))))(2 (2 (with))(2 (plenty))))(2 (2 (of))(1 (bite))))(2 (.))) |ET| 
-0.48188223848373923363652693296899  |BT| (ROOT (2 (2 (2 (2 (Spielberg))(2 ('s)))(2 (realization)))(2 (2 (of))(2 (2 (a))(2 (2 (near-future))(2 (America))))))(4 (4 (2 (is))(4 (masterful)))(2 (.)))) |ET| 
1  |BT| (ROOT (2 (I))(2 (2 (2 (would))(3 (2 (be))(3 (2 (shocked))(2 (2 (2 (2 (2 (if))(2 (2 (there))(2 (2 (2 (was))(2 (actually)))(2 (2 (one))(2 (2 (correct))(2 (interpretation)))))))(2 (,)))(2 (but)))(3 (2 (that))(2 (2 (2 (should))(2 (n't)))(3 (2 (make))(2 (2 (2 (2 (2 (the))(2 (movie)))(2 (or)))(2 (2 (the))(2 (discussion))))(1 (2 (any))(1 (2 (less))(3 (enjoyable))))))))))))(2 (.)))) |ET| 
1  |BT| (ROOT (2 (2 (2 (3 (3 (2 (There))(3 (2 (are))(3 (2 (things))(2 (2 (to))(2 (2 (like))(2 (2 (2 (about))(2 (Murder)))(2 (2 (By))(2 (Numbers)))))))))(2 (--)))(2 (but)))(2 (,)))(2 (2 (2 (in))(2 (2 (the))(2 (end))))(0 (2 (,))(1 (2 (2 (the))(1 (2 (disparate))(2 (elements))))(1 (2 (2 (do))(2 (n't)))(2 (gel)))))))(2 (.))) |ET| 
1  |BT| (ROOT (2 (2 (The))(2 (3 (climactic))(2 (events))))(3 (3 (2 (are))(3 (2 (so))(3 (well))))(2 (2 (realized))(2 (2 (that))(1 (2 (you))(2 (2 (may))(2 (2 (2 (1 (forget))(2 (2 (all))(2 (2 (about))(2 (2 (the))(2 (3 (original))(1 (conflict)))))))(2 (,)))(2 (2 (just))(2 (2 (like))(2 (2 (2 (the))(2 (movie)))(2 (does)))))))))))) |ET| 
-1  |BT| (ROOT (2 (2 (2 (The))(2 (more)))(2 (2 (you))(2 (2 (think))(2 (2 (about))(2 (2 (the))(2 (movie)))))))(3 (2 (,))(3 (2 (2 (the))(2 (more)))(4 (2 (you))(3 (2 (3 (2 (will))(2 (probably)))(3 (2 (like))(2 (it))))(2 (.))))))) |ET| 
-1  |BT| (ROOT (2 (If))(2 (2 (2 (only))(2 (2 (it))(2 (2 (had))(2 (2 (the))(2 (2 (story))(2 (2 (to))(2 (match))))))))(2 (.)))) |ET| 
-0.029262103501326762466927533523631  |BT| (ROOT (3 (2 (2 (A))(2 (lot)))(3 (2 (2 (2 (more))(2 (dimensional)))(2 (and)))(3 (3 (complex))(3 (2 (than))(3 (2 (its))(3 (2 (sunny))(2 (disposition))))))))(2 (2 (2 (would))(2 (2 (lead))(2 (2 (you))(2 (2 (to))(2 (believe))))))(2 (.)))) |ET| 
1  |BT| (ROOT (2 (2 (What))(2 (2 ('s))(2 (left))))(3 (3 (2 (is))(3 (3 (2 (a))(3 (3 (rich))(2 (stew))))(2 (2 (of))(2 (longing)))))(2 (.)))) |ET| 
1  |BT| (ROOT (3 (2 (Where))(3 (2 (2 (Bowling))(2 (2 (for))(2 (Columbine))))(3 (2 (2 (is))(2 (2 (at))(2 (2 (its))(2 (most)))))(3 (valuable)))))(3 (2 (2 (2 (is))(2 (2 (in))(2 (2 (2 (its))(2 (examination)))(2 (2 (of))(1 (2 (2 (2 (America))(2 ('s)))(2 (culture)))(2 (2 (of))(2 (fear))))))))(1 (2 (as))(2 (2 (2 (a))(2 (2 (root))(2 (cause))))(1 (2 (of))(2 (2 (gun))(0 (violence)))))))(2 (.)))) |ET| 
1  |BT| (ROOT (1 (2 (What))(2 (2 (might))(3 (2 ('ve))(4 (2 (been))(3 (3 (2 (an))(4 (4 (exhilarating))(2 (exploration))))(2 (2 (of))(2 (2 (an))(2 (2 (odd))(2 (4 (love))(2 (triangle)))))))))))(1 (1 (2 (becomes))(1 (2 (2 (a))(2 (sprawl)))(1 (2 (of))(2 (1 (uncoordinated))(2 (vectors))))))(2 (.)))) |ET| 
-0.94558484767642081436633816338144  |BT| (ROOT (2 (2 (Instead))(3 (2 (of))(3 (2 (building))(2 (2 (to))(3 (2 (a))(3 (3 (laugh))(2 (riot))))))))(2 (2 (we))(1 (2 (2 (are))(2 (2 (left))(2 (2 (with))(2 (3 (2 (a))(2 (handful)))(2 (2 (of))(2 (3 (2 (disparate))(3 (3 (funny))(2 (moments))))(1 (2 (of))(2 (1 (no))(2 (3 (real))(2 (consequence)))))))))))(2 (.))))) |ET| 
-0.55680366850687257329610702072387  |BT| (ROOT (3 (4 (2 (A))(3 (3 (rich))(2 (tale))))(2 (2 (of))(2 (2 (our))(2 (times)))))(3 (2 (,))(2 (3 (2 (very))(3 (well)))(3 (2 (2 (told))(3 (2 (with))(2 (2 (2 (an))(2 (3 (appropriate))(2 (minimum))))(2 (2 (of))(2 (means))))))(2 (.)))))) |ET| 
-1  |BT| (ROOT (4 (4 (3 (2 (One))(3 (2 (of))(4 (4 (2 (the))(4 (best)))(3 (2 (of))(2 (2 (2 (a))(3 (2 (growing))(1 (strain))))(3 (2 (of))(2 (2 (daring))(2 (films)))))))))(2 (...)))(2 (2 (that))(3 (1 (argue))(2 (2 (that))(3 (3 (2 (2 (any))(3 (2 (sexual))(2 (relationship))))(2 (2 (that))(3 (1 (2 (does))(2 (n't)))(2 (2 (1 (hurt))(2 (2 (2 (anyone))(2 (and)))(2 (works))))(2 (2 (for))(2 (2 (its))(2 (participants))))))))(3 (2 (is))(3 (2 (2 (a))(2 (relationship)))(3 (2 (that))(2 (2 (is))(3 (4 (worthy))(3 (2 (of))(3 (2 (our))(3 (respect))))))))))))))(2 (.))) |ET| 
1  |BT| (ROOT (2 (2 (While))(1 (1 (1 (puerile))(2 (men)))(3 (2 (dominate))(2 (2 (the))(2 (story))))))(3 (2 (,))(4 (2 (2 (the))(2 (women)))(2 (4 (shine))(2 (.)))))) |ET| 
1  |BT| (ROOT (2 (2 (If))(3 (2 (you))(2 (2 (2 (1 (ignore))(1 (2 (the))(2 (cliches))))(2 (and)))(2 (2 (2 (concentrate))(2 (2 (on))(2 (City))))(2 (2 (by))(2 (2 (2 (the))(3 (2 (Sea))(2 ('s))))(2 (2 (interpersonal))(1 (drama)))))))))(3 (2 (,))(3 (2 (it))(3 (3 (2 (2 (ai))(2 (n't)))(2 (half-bad)))(2 (.)))))) |ET| 
1  |BT| (ROOT (3 (2 (Both))(3 (2 (2 (2 (the))(2 (1 (crime))(2 (story))))(2 (and)))(2 (2 (the))(2 (4 (love))(2 (story))))))(2 (2 (2 (are))(2 (unusual)))(2 (.)))) |ET| 
-0.53094110152278051195651187299518  |BT| (ROOT (2 (2 (Of))(2 (2 (all))(2 (2 (the))(2 (2 (Halloween))(2 ('s))))))(0 (2 (,))(0 (2 (this))(0 (1 (2 (2 (is))(2 (2 (the))(2 (most))))(0 (3 (visually))(0 (unappealing))))(2 (.)))))) |ET| 
-0.58327967902842425829135208914522  |BT| (ROOT (2 (Jacquot))(4 (4 (2 (has))(4 (2 (2 (2 (filmed))(2 (2 (the))(2 (opera))))(2 (exactly)))(3 (2 (as))(3 (2 (2 (the))(2 (libretto)))(3 (3 (2 (2 (directs))(2 (,)))(3 (ideally)))(3 (3 (capturing))(3 (2 (2 (the))(2 (2 (opera))(2 ('s))))(2 (2 (1 (drama))(2 (and)))(2 (lyricism))))))))))(2 (.)))) |ET| 
-0.99509548886572118941984399498324  |BT| (ROOT (1 (3 (2 (3 (2 (2 (2 (Nelson))(2 ('s)))(2 (intentions)))(3 (2 (are))(3 (good))))(2 (,)))(2 (but)))(1 (2 (2 (the))(2 (2 (end))(2 (result))))(1 (1 (2 (does))(1 (1 (no))(2 (justice))))(2 (2 (to))(2 (2 (2 (the))(2 (story)))(2 (itself)))))))(2 (.))) |ET| 
1  |BT| (ROOT (3 (3 (3 (3 (2 (2 (A))(2 (2 (serviceable))(2 (1 (Euro-trash))(3 (2 (action))(3 (extravaganza))))))(2 (,)))(3 (2 (with))(3 (4 (2 (2 (a))(3 (3 (decent))(2 (sense))))(3 (2 (of))(3 (3 (4 (humor))(2 (and)))(2 (plenty)))))(2 (2 (of))(2 (2 (things))(2 (2 (that))(1 (2 (go))(2 (boom)))))))))(2 (--)))(2 (2 (2 (2 (2 (handguns))(2 (,)))(2 (BMWs)))(2 (and)))(2 (2 (seaside))(2 (chateaus)))))(2 (.))) |ET| 
1  |BT| (ROOT (3 (2 (2 (The))(3 (kind)))(3 (2 (of))(2 (3 (2 (sense))(2 (2 (of))(4 (humor))))(3 (2 (that))(2 (2 (derives))(2 (2 (from))(2 (2 (2 (2 (a))(1 (2 (workman))(2 ('s))))(2 (grasp)))(3 (2 (of))(2 (2 (2 (2 (2 (pun))(2 (and)))(2 (entendre)))(2 (and)))(2 (2 (its))(2 (attendant))))))))))))(3 (2 (2 (need))(2 (2 (to))(2 (2 (constantly))(3 (3 (2 (draw))(2 (attention)))(2 (2 (to))(2 (itself)))))))(2 (.)))) |ET| 
1  |BT| (ROOT (1 (2 (2 (A))(2 (1 (wordy))(2 (wisp))))(2 (2 (of))(2 (2 (a))(3 (comedy)))))(2 (.))) |ET| 
-0.30650509054011143561524477263447  |BT| (ROOT (1 (2 (2 (A))(2 (movie)))(1 (2 (that))(1 (2 (2 (the))(1 (2 (less))(3 (charitable))))(1 (2 (might))(1 (2 (describe))(1 (2 (as))(2 (2 (a))(1 (castrated)))))))))(2 (3 (2 (cross))(2 (2 (between))(2 (2 (3 (Highlander))(2 (and)))(2 (Lolita)))))(2 (.)))) |ET| 
-0.18290127626965915763612713362818  |BT| (ROOT (4 (2 (2 (Nothing))(2 (short)))(3 (2 (of))(4 (4 (4 (4 (2 (a))(4 (masterpiece)))(2 (--)))(2 (and)))(2 (2 (a))(2 (2 (challenging))(2 (one)))))))(2 (.))) |ET| 
-0.33570764161832222782777535030618  |BT| (ROOT (3 (4 (2 (A))(4 (3 (lively))(3 (2 (and))(3 (4 (engaging))(2 (examination))))))(2 (2 (of))(2 (2 (how))(1 (2 (2 (similar))(2 (obsessions)))(2 (2 (can))(1 (2 (dominate))(2 (2 (a))(3 (family)))))))))(2 (.))) |ET| 
1  |BT| (ROOT (2 (1 (1 (2 (2 (They))(1 (2 ('re))(1 (2 (going))(2 (2 (through))(2 (2 (the))(2 (motions)))))))(2 (,)))(2 (but)))(1 (2 (2 (the))(2 (zip)))(2 (2 (is))(2 (gone)))))(2 (.))) |ET| 
1  |BT| (ROOT (2 (2 (2 (Almost))(2 (everything)))(2 (2 (about))(2 (2 (the))(2 (film)))))(2 (0 (2 (1 (2 (is))(2 (unsettling)))(2 (,)))(1 (2 (from))(1 (1 (2 (the))(1 (0 (preposterous))(2 (hairpiece))))(1 (2 (1 (worn))(2 (2 (by))(2 (2 (2 (Lai))(2 ('s)))(1 (1 (villainous))(2 (father))))))(1 (2 (to))(0 (2 (the))(2 (1 (endless))(2 (2 (action))(2 (sequences))))))))))(2 (.)))) |ET| 
1  |BT| (ROOT (2 (2 (If))(1 (2 (2 (2 (the))(2 (idea)))(2 (2 (of))(2 (2 (2 (the))(2 (2 (white))(2 (man))))(2 (2 (2 (arriving))(3 (2 (on))(2 (2 (foreign))(2 (shores)))))(2 (2 (to))(2 (2 (2 (show))(1 (2 (wary))(2 (natives))))(2 (2 (the))(3 (3 (true))(2 (light))))))))))(0 (2 (is))(1 (0 (abhorrent))(2 (2 (to))(2 (you)))))))(2 (2 (,))(1 (2 (2 (the))(2 (2 (simplistic))(3 (Heaven))))(1 (1 (2 (2 (will))(2 (2 (quite))(2 (likely))))(0 (2 (2 (be))(2 (more)))(2 (2 (like))(0 (hell)))))(2 (.)))))) |ET| 
-0.2198108961513830228451382708954  |BT| (ROOT (1 (2 (Aside))(0 (2 (from))(1 (2 (2 (the))(2 (fact)))(0 (2 (that))(0 (2 (2 (the))(2 (film)))(0 (1 (idiotically))(1 (2 (uses))(1 (2 (2 (2 (the))(2 (2 (website))(2 (feardotcom.com))))(2 (or)))(1 (1 (2 (the))(1 (2 (2 (improperly))(2 (hammy)))(2 (performance))))(2 (2 (from))(2 (1 (poor))(2 (2 (Stephen))(2 (Rea))))))))))))))(0 (2 (,))(1 (2 (2 (the))(2 (film)))(0 (1 (1 (2 (2 (gets))(1 (2 (added))(0 (disdain))))(2 (2 (for))(2 (2 (the))(2 (fact)))))(1 (2 (that))(1 (2 (it))(1 (2 (2 (is))(1 (2 (nearly))(0 (impossible))))(3 (2 (to))(2 (2 (2 (2 (look))(2 (at)))(2 (or)))(2 (understand))))))))(2 (.)))))) |ET| 
-0.03580455518775110118623317134734  |BT| (ROOT (3 (3 (2 (A))(3 (4 (2 (very))(3 (funny)))(2 (2 (romantic))(3 (comedy)))))(2 (2 (about))(2 (2 (2 (two))(2 (2 (skittish))(2 (3 (New))(2 (2 (York))(2 (middle-agers))))))(2 (2 (who))(2 (2 (stumble))(2 (2 (into))(2 (2 (2 (2 (a))(2 (relationship)))(2 (and)))(2 (then)))))))))(2 (2 (1 (1 (struggle))(1 (furiously)))(2 (2 (with))(2 (2 (their))(2 (2 (1 (fears))(2 (and)))(2 (foibles))))))(2 (.)))) |ET| 
-0.03067313734606436428919984393815  |BT| (ROOT (2 (2 (None))(2 (2 (of))(2 (2 (the))(2 (2 (2 (characters))(2 (or)))(2 (plot-lines))))))(2 (1 (2 (are))(3 (2 (2 (fleshed-out))(2 (enough)))(2 (2 (to))(2 (2 (build))(2 (2 (any))(2 (interest)))))))(2 (.)))) |ET| 
1  |BT| (ROOT (4 (4 (2 (A))(3 (4 (charming))(3 (2 (and))(3 (3 (funny))(2 (story))))))(2 (2 (of))(2 (1 (2 (2 (clashing))(2 (cultures)))(2 (and)))(1 (2 (a))(2 (2 (clashing))(2 (2 (mother\/daughter))(2 (relationship))))))))(2 (.))) |ET| 
1  |BT| (ROOT (2 (2 (2 (2 (in))(2 (2 (period))(2 (costume))))(2 (and)))(2 (2 (with))(2 (2 (a))(2 (3 (bigger))(2 (budget))))))(2 (.))) |ET| 
1  |BT| (ROOT (2 (2 (2 (A))(2 (lot)))(1 (2 (of))(1 (2 (its))(2 (0 (2 (gags))(2 (and)))(2 (observations))))))(3 (2 (3 (reflect))(3 (2 (2 (a))(2 (2 (woman))(2 ('s))))(2 (point-of-view))))(2 (.)))) |ET| 
-0.10868461161382705904010492758971  |BT| (ROOT (2 (Two))(1 (2 (badly))(2 (1 (2 (interlocked))(1 (2 (stories))(2 (2 (drowned))(2 (2 (by))(3 (2 (all))(2 (3 (2 (too))(4 (clever)))(3 (complexity))))))))(2 (.))))) |ET| 
-0.50485577099642486853525724654901  |BT| (ROOT (2 (I))(1 (2 (2 (2 (like))(2 (2 (my))(2 (2 (Christmas))(2 (movies)))))(2 (2 (with))(2 (1 (2 (2 (more))(2 (2 (2 (elves))(2 (and)))(2 (snow))))(2 (and)))(2 (2 (2 (2 (less))(2 (pimps)))(2 (and)))(2 (2 (ho))(2 ('s)))))))(2 (.)))) |ET| 
-0.22000247720220339475716286870011  |BT| (ROOT (2 (Plays))(0 (2 (2 (like))(0 (1 (2 (a))(1 (0 (bad))(2 (blend))))(1 (2 (of))(0 (1 (0 (2 (2 (an))(1 (2 (overripe))(2 (episode))))(2 (2 (of))(2 (2 (3 (TV))(2 ('s)))(2 (2 (2 (Dawson))(2 ('s)))(2 (Creek))))))(2 (and)))(0 (0 (2 (a))(1 (1 (recycled))(2 (2 (and))(1 (1 (dumbed-down))(2 (version))))))(2 (2 (of))(3 (4 (Love))(2 (Story)))))))))(2 (.)))) |ET| 
1  |BT| (ROOT (2 (2 (The))(2 (film)))(2 (2 (2 (is))(2 (2 (2 (2 (about))(2 (2 (the))(2 (relationships))))(2 (2 (rather))(2 (than))))(2 (2 (about))(2 (2 (the))(2 (outcome))))))(2 (.)))) |ET| 
1  |BT| (ROOT (2 (2 (The))(2 (film)))(3 (2 (2 (favors))(3 (2 (2 (the))(2 (scientific)))(3 (2 (over))(3 (3 (2 (the))(3 (spectacular)))(2 (1 (-LRB-))(2 (3 (3 (visually))(2 (speaking)))(3 (-RRB-))))))))(2 (.)))) |ET| 
1  |BT| (ROOT (2 (2 (The))(2 (narrative)))(0 (0 (1 (2 (is))(1 (2 (so))(1 (2 (consistently))(1 (unimaginative)))))(1 (2 (that))(1 (2 (2 (probably))(2 (2 (the))(2 (2 (only))(2 (way)))))(3 (2 (to))(1 (2 (have))(3 (2 (saved))(2 (2 (2 (the))(2 (film)))(2 (2 (is))(2 (2 (with))(2 (2 (2 (the))(2 (aid)))(2 (2 (of))(2 (2 (those))(3 (2 (wisecracking))(2 (2 (Mystery))(2 (2 (Science))(2 (2 (Theater))(2 (3 (3000))(2 (guys)))))))))))))))))))(2 (.)))) |ET| 
-1  |BT| (ROOT (1 (2 (2 (The))(2 (2 (only))(3 (4 (fun))(2 (part)))))(2 (2 (of))(2 (2 (the))(2 (movie)))))(2 (2 (2 (is))(1 (2 (playing))(2 (2 (the))(2 (1 (obvious))(2 (game))))))(2 (.)))) |ET| 
-0.11615741213190995673176786340264  |BT| (ROOT (2 (A))(3 (3 (2 (film))(3 (2 (that))(2 (3 (2 ('s))(4 (1 (1 (flawed))(2 (and)))(4 (brilliant))))(2 (2 (in))(2 (2 (equal))(2 (measure)))))))(2 (.)))) |ET| 
-0.030743975158921299506431523695937  |BT| (ROOT (2 (2 (The))(2 (2 (overall))(2 (vibe))))(0 (1 (2 (is))(1 (1 (1 (2 (1 (druggy))(2 (and)))(1 (self-indulgent)))(2 (,)))(1 (2 (like))(2 (2 (2 (a))(2 (2 (spring-break))(1 (orgy))))(1 (2 (for))(2 (1 (pretentious))(2 (2 (arts))(2 (majors)))))))))(2 (.)))) |ET| 
1  |BT| (ROOT (3 (2 (With))(4 (3 (3 (2 (three))(4 (4 (excellent))(2 (2 (principal))(2 (singers)))))(2 (,)))(4 (3 (3 (2 (a))(3 (3 (2 (2 (youthful))(2 (and)))(3 (good-looking)))(3 (diva))))(2 (and)))(3 (2 (2 (tenor))(2 (and)))(3 (3 (richly))(3 (2 (handsome))(2 (locations))))))))(1 (2 (,))(1 (2 (it))(1 (1 (2 ('s))(1 (2 (enough))(1 (2 (to))(1 (2 (make))(1 (2 (you))(1 (2 (wish))(1 (2 (Jacquot))(2 (2 (had))(2 (1 (2 (2 (2 (left))(2 (3 (well))(2 (2 (enough))(2 (alone)))))(2 (and)))(2 (just)))(2 (2 (2 (filmed))(2 (2 (the))(2 (opera))))(2 (2 (without))(2 (1 (2 (all))(2 (2 (these))(1 (distortions))))(2 (2 (of))(2 (perspective)))))))))))))))(2 (.)))))) |ET| 
1  |BT| (ROOT (1 (3 (4 (3 (2 (There))(3 (2 (2 ('s))(2 (1 (no))(1 (doubting))))(3 (2 (that))(3 (2 (this))(3 (2 (is))(2 (3 (2 (a))(3 (3 (2 (highly))(3 (3 (3 (ambitious))(2 (and)))(3 (personal))))(2 (project))))(2 (2 (for))(2 (Egoyan)))))))))(2 (,)))(2 (but)))(1 (2 (it))(1 (2 (2 ('s))(2 (also)))(1 (2 (one))(1 (2 (that))(2 (2 (,))(0 (2 (2 (next))(3 (2 (to))(4 (2 (his))(4 (4 (best))(2 (work))))))(1 (2 (,))(0 (2 (feels))(2 (1 (1 (clumsy))(2 (and)))(0 (convoluted))))))))))))(2 (.))) |ET| 
1  |BT| (ROOT (2 (2 (3 (2 (2 (It))(2 (2 (2 ('s))(1 (not)))(3 (2 (a))(2 (3 (classic))(2 (2 (spy-action))(2 (2 (or))(2 (2 (buddy))(2 (movie)))))))))(2 (,)))(2 (but)))(3 (2 (it))(3 (2 ('s))(3 (3 (4 (entertaining))(2 (2 (2 (enough))(2 (and)))(2 (worth))))(2 (2 (a))(2 (look)))))))(2 (.))) |ET| 
-0.04511915528970967398381120005979  |BT| (ROOT (1 (2 (2 (2 (2 (There))(1 (2 ('s))(1 (2 (2 (a))(2 (2 (little))(2 (2 (0 (violence))(2 (and)))(2 (lots)))))(2 (2 (of))(2 (3 (sex))(1 (2 (in))(1 (2 (a))(2 (2 (bid))(2 (2 (to))(3 (2 (hold))(2 (2 (our))(2 (attention)))))))))))))(2 (,)))(2 (but)))(2 (2 (it))(1 (1 (3 (grows))(1 (monotonous)))(2 (2 (after))(1 (2 (2 (2 (a))(2 (while)))(2 (,)))(2 (2 (as))(2 (2 (do))(1 (2 (2 (2 (Joan))(2 (and)))(2 (Philip)))(1 (2 ('s))(0 (1 (repetitive))(2 (2 (2 (2 (2 (arguments))(2 (,)))(2 (schemes)))(2 (and)))(1 (treachery)))))))))))))(2 (.))) |ET| 
-0.24216805410069991433275049530494  |BT| (ROOT (2 (It))(0 (2 (2 ('s))(0 (1 (1 (1 (2 (a))(1 (3 (glorified))(2 (sitcom))))(2 (,)))(2 (and)))(1 (0 (2 (a))(2 (2 (long))(1 (2 (,))(0 (1 (unfunny))(2 (one))))))(2 (2 (at))(2 (that))))))(2 (.)))) |ET| 
-1  |BT| (ROOT (2 (It))(4 (3 (2 ('s))(3 (2 (2 (2 (a))(2 (2 (talking))(2 (2 (head))(2 (documentary)))))(2 (,)))(4 (2 (but))(3 (2 (a))(3 (4 (great))(2 (one)))))))(2 (.)))) |ET| 
1  |BT| (ROOT (3 (2 (Though))(3 (2 (2 (its))(2 (atmosphere)))(3 (2 (is))(3 (intriguing)))))(1 (2 (...))(0 (2 (2 (the))(1 (drama)))(2 (1 (2 (2 (2 (is))(2 (finally)))(0 (2 (too))(2 (predictable))))(2 (2 (to))(2 (1 (leave))(2 (2 (much))(3 (2 (of))(2 (2 (an))(3 (impression))))))))(2 (.)))))) |ET| 
1  |BT| (ROOT (3 (2 (At))(3 (2 (its))(4 (best))))(3 (2 (...))(3 (2 (3 (Festival))(2 (2 (in))(2 (Cannes))))(3 (3 (2 (bubbles))(3 (2 (with))(2 (3 (2 (the))(3 (excitement)))(3 (2 (of))(2 (2 (2 (the))(3 (festival)))(2 (2 (in))(2 (Cannes))))))))(2 (.)))))) |ET| 
1  |BT| (ROOT (2 (This))(2 (0 (2 (is))(1 (2 (2 (the))(2 (2 (first))(2 (film))))(1 (2 (I))(1 (2 (2 ('ve))(2 (ever)))(1 (2 (seen))(1 (2 (that))(1 (1 (2 (had))(1 (1 (no))(1 (1 (obvious))(2 (directing)))))(2 (involved)))))))))(2 (.)))) |ET| 
-0.034331526860888264551796567047859  |BT| (ROOT (2 (This))(1 (1 (2 (is))(2 (2 (2 (2 (the))(3 (kind)))(2 (2 (of))(2 (movie))))(1 (2 (that))(2 (2 (2 (gets))(2 (2 (a))(2 (2 (quick))(2 (release)))))(2 (2 (before))(2 (3 (3 (real))(3 (contenders)))(2 (2 (arrive))(2 (2 (in))(2 (September))))))))))(2 (.)))) |ET| 
-0.075736548717497145788435375379777  |BT| (ROOT (2 (Has))(2 (1 (2 (lost))(3 (2 (some))(3 (2 (of))(3 (2 (2 (the))(2 (3 (dramatic))(2 (conviction))))(3 (2 (that))(2 (2 (underlies))(3 (4 (2 (the))(4 (best)))(2 (2 (of))(2 (comedies))))))))))(2 (...)))) |ET| 
-0.40438264136189250308461851091124  |BT| (ROOT (2 (1 (Murderous))(2 (Maids)))(3 (2 (2 (2 (pulls))(2 (1 (no))(1 (punches))))(2 (2 (in))(2 (2 (2 (2 (2 (its))(2 (depiction)))(2 (2 (of))(2 (2 (2 (the))(2 (lives)))(2 (2 (of))(2 (2 (the))(2 (2 (Papin))(2 (sister))))))))(2 (and)))(2 (2 (2 (the))(2 (events)))(3 (2 (that))(2 (2 (2 (led))(2 (2 (to))(2 (2 (their))(3 (2 (notorious))(2 (rise))))))(1 (2 (to))(1 (infamy)))))))))(2 (...)))) |ET| 
1  |BT| (ROOT (3 (2 (Viewed))(3 (2 (as))(2 (2 (3 (3 (3 (3 (2 (2 (2 (a))(3 (comedy)))(2 (,)))(2 (2 (a))(3 (romance))))(2 (,)))(3 (2 (a))(2 (2 (fairy))(2 (tale)))))(2 (,)))(2 (or)))(2 (2 (a))(1 (drama))))))(0 (2 (,))(0 (2 (there))(0 (2 (2 (2 ('s))(1 (nothing)))(3 (2 (remotely))(3 (3 (triumphant))(2 (2 (about))(2 (2 (this))(2 (2 (motion))(2 (picture))))))))(2 (.)))))) |ET| 
1  |BT| (ROOT (3 (2 (As))(2 (2 (a))(2 (movie))))(2 (2 (,))(1 (2 (it))(1 (2 (never))(4 (4 (2 (seems))(3 (4 (4 (fresh))(2 (and)))(3 (vital))))(2 (.))))))) |ET| 
1  |BT| (ROOT (2 (2 (2 (Brown))(2 ('s)))(2 (saga)))(1 (2 (,))(1 (2 (2 (like))(3 (2 (many))(2 (2 (before))(2 (his)))))(2 (2 (,))(1 (1 (2 (makes))(2 (2 (for))(1 (2 (3 (snappy))(2 (prose)))(1 (2 (but))(2 (0 (2 (a))(2 (stumblebum)))(2 (2 (of))(2 (2 (a))(2 (movie)))))))))(2 (.))))))) |ET| 
-1  |BT| (ROOT (3 (Certainly))(2 (1 (1 (not))(4 (2 (a))(3 (3 (good))(2 (movie)))))(2 (2 (,))(3 (3 (2 (but))(3 (2 (it))(2 (2 (2 (was))(2 (n't)))(2 (0 (horrible))(2 (either))))))(2 (.)))))) |ET| 
-0.6744100558630867769949190915213  |BT| (ROOT (1 (2 (Occasionally))(1 (2 (2 (2 (loud))(2 (and)))(1 (offensive)))(2 (2 (2 (,))(2 (but)))(2 (2 (more))(2 (often))))))(0 (2 (,))(1 (2 (it))(2 (2 (simply))(0 (1 (1 (2 (lulls))(2 (you)))(1 (2 (into))(1 (2 (a))(2 (3 (gentle))(1 (2 (waking))(0 (coma)))))))(2 (.))))))) |ET| 
-0.26496965674770234233648125155014  |BT| (ROOT (2 (2 (Russian))(2 (Ark)))(3 (2 (2 (is))(3 (4 (2 (a))(4 (3 (new))(3 (treasure))))(2 (2 (of))(2 (2 (the))(2 (Hermitage))))))(2 (.)))) |ET| 
1  |BT| (ROOT (2 (2 (2 (The))(2 (problems)))(2 (2 (of))(2 (2 (2 (the))(2 (people)))(2 (2 (in))(3 (4 (Love))(2 (2 (in))(2 (2 (2 (the))(2 (Time)))(2 (2 (of))(2 (Money))))))))))(2 (3 (2 (are))(2 (2 (hardly))(2 (2 (specific))(2 (2 (to))(2 (2 (their))(2 (era)))))))(2 (.)))) |ET| 
1  |BT| (ROOT (1 (3 (Does))(1 (2 (little))(2 (2 (to))(1 (2 (elaborate))(1 (2 (2 (the))(1 (conceit)))(2 (2 (of))(2 (2 (2 (setting))(2 (2 (2 (this))(2 (2 (blood-soaked))(1 (tragedy))))(2 (2 (of))(3 (1 (murderous))(3 (ambition))))))(2 (2 (in))(3 (2 (2 (the))(2 (era)))(3 (2 (of))(2 (2 (Richard))(2 (Nixon)))))))))))))(2 (.))) |ET| 
1  |BT| (ROOT (3 (2 (The))(2 (2 (directive))(2 (2 (to))(2 (2 (2 (2 (protect))(2 (2 (the))(2 (code))))(2 (2 (at))(2 (2 (all))(2 (costs)))))(2 (also))))))(2 (2 (begins))(2 (2 (to))(2 (2 (blur))(2 (2 (as))(3 (2 (2 (2 (the))(2 (importance)))(2 (2 (of))(2 (3 (3 (2 (the))(2 (man)))(2 (and)))(2 (2 (the))(2 (code))))))(2 (merge)))))))) |ET| 
-0.16118058605862850551915244068368  |BT| (ROOT (2 (2 (Blue))(2 (Crush)))(1 (1 (2 (1 (2 (2 (follows))(2 (2 (the))(2 (formula))))(2 (,)))(2 (but)))(1 (2 (2 (throws))(1 (2 (in))(1 (1 (2 (too))(2 (many)))(1 (conflicts)))))(2 (2 (to))(3 (2 (keep))(3 (2 (2 (the))(2 (story)))(3 (compelling)))))))(2 (.)))) |ET| 
-0.51049891779951783732371950463858  |BT| (ROOT (1 (2 (2 (The))(2 (2 (film))(2 ('s))))(2 (2 (desire))(2 (2 (to))(3 (2 (be))(3 (3 (liked))(2 (sometimes)))))))(2 (1 (1 (2 (undermines))(2 (2 (2 (the))(2 (possibility)))(2 (2 (for))(2 (2 (2 (an))(2 (exploration)))(2 (2 (of))(2 (1 (2 (the))(2 (1 (thornier))(2 (aspects))))(2 (2 (of))(2 (2 (2 (the))(2 (2 (nature\/nurture))(2 (argument))))(2 (2 (in))(2 (regards)))))))))))(2 (2 (to))(2 (homosexuality))))(2 (.)))) |ET| 
-1  |BT| (ROOT (2 (2 (Tries))(3 (2 (to))(3 (2 (2 (work))(2 (2 (in))(2 (2 (the))(2 (2 (same))(3 (vein))))))(2 (2 (as))(3 (2 (2 (the))(3 (brilliance)))(3 (2 (of))(2 (2 (Animal))(2 (House)))))))))(2 (2 (but))(0 (1 (2 (instead))(0 (3 (comes))(1 (2 (closer))(1 (2 (to))(1 (2 (2 (the))(0 (failure)))(2 (2 (of))(1 (2 (2 (the))(2 (2 (third))(2 (Revenge))))(2 (2 (of))(2 (2 (the))(2 (3 (Nerds))(2 (sequel))))))))))))(2 (.))))) |ET| 
1  |BT| (ROOT (2 (2 (2 (Schnitzler))(2 ('s)))(2 (film)))(2 (2 (3 (3 (4 (2 (has))(2 (4 (3 (3 (2 (2 (a))(3 (4 (great))(2 (hook))))(2 (,)))(3 (2 (some))(3 (4 (clever))(2 (bits)))))(2 (and)))(3 (2 (2 (well-drawn))(2 (2 (,))(2 (2 (2 (if))(1 (1 (standard))(2 (issue))))(2 (,)))))(2 (characters)))))(2 (,)))(2 (but)))(2 (2 (2 (is))(2 (still)))(2 (2 (only))(3 (2 (partly))(4 (satisfying))))))(2 (.)))) |ET| 
1  |BT| (ROOT (2 (2 (In))(2 (2 (some))(2 (ways))))(2 (2 (,))(3 (3 (Lagaan))(3 (3 (2 (is))(3 (2 (quintessential))(2 (Bollywood))))(2 (.)))))) |ET| 
1  |BT| (ROOT (1 (1 (2 (2 (2 (It))(2 (2 (2 (wo))(2 (n't)))(2 (1 (harm))(2 (anyone)))))(2 (,)))(2 (but)))(0 (2 (neither))(3 (2 (2 (can))(2 (I)))(3 (2 (2 (think))(2 (2 (of))(2 (2 (a))(2 (3 (2 (very))(3 (good)))(2 (reason))))))(3 (2 (to))(4 (3 (2 (1 (rush))(2 (3 (right))(1 (out))))(2 (and)))(3 (2 (see))(2 (it)))))))))(2 (.))) |ET| 
-0.63690605334952909988288638487575  |BT| (ROOT (3 (4 (3 (3 (2 (2 (O))(2 (Fantasma)))(3 (2 (is))(4 (2 (boldly))(3 (2 (,))(3 (4 (3 (confidently))(2 (orchestrated)))(2 (2 (,))(3 (2 (2 (aesthetically))(2 (and)))(2 (sexually)))))))))(2 (,)))(2 (and)))(3 (2 (2 (its))(2 (impact)))(2 (2 (2 (is))(4 (2 (2 (deeply))(2 (and)))(3 (rightly))))(1 (disturbing)))))(2 (.))) |ET| 
-0.21988535443749096520704711110739  |BT| (ROOT (2 (It))(0 (0 (2 (is))(1 (1 (messy))(0 (2 (,))(0 (2 (uncouth))(1 (2 (,))(2 (1 (incomprehensible))(1 (2 (,))(0 (1 (2 (vicious))(2 (and)))(1 (absurd))))))))))(2 (.)))) |ET| 
-0.070291866805353889202656603174546  |BT| (ROOT (2 (3 (Features))(3 (2 (what))(4 (3 (2 (is))(2 (surely)))(3 (3 (2 (the))(4 (4 (3 (4 (funniest))(2 (and)))(2 (2 (most))(3 (accurate))))(2 (depiction))))(2 (2 (of))(2 (writer)))))))(2 (2 (2 ('s))(2 (2 (block))(2 (ever))))(2 (.)))) |ET| 
1  |BT| (ROOT (2 (2 (2 (Represents))(2 (something)))(2 (2 (very))(2 (2 (close))(1 (2 (to))(1 (2 (2 (the))(1 (nadir)))(2 (2 (of))(2 (2 (the))(2 (thriller\/horror)))))))))(2 (2 (genre))(2 (.)))) |ET| 
1  |BT| (ROOT (1 (1 (3 (3 (2 (``))(3 (2 (Feardotcom))(3 (2 (''))(2 (2 (has))(3 (3 (2 (2 (the))(2 (makings)))(3 (2 (of))(3 (4 (2 (an))(3 (3 (interesting))(2 (meditation))))(3 (2 (on))(2 (2 (2 (the))(2 (3 (ethereal))(2 (nature))))(2 (2 (of))(2 (2 (2 (2 (the))(2 (internet)))(2 (and)))(2 (2 (the))(2 (3 (otherworldly))(2 (energies)))))))))))(3 (2 (it))(3 (2 (could))(2 (channel)))))))))(2 (,)))(2 (but)))(2 (2 (it))(1 (2 (simply))(2 (2 (becomes))(1 (2 (a))(2 (2 (routine))(2 (shocker))))))))(2 (.))) |ET| 
1  |BT| (ROOT (2 (It))(2 (2 (2 (2 ('s))(2 (clear)))(2 (2 (that))(2 (2 (Mehta))(1 (2 (simply))(2 (2 (wanted))(2 (2 (to))(3 (2 (2 (update))(2 (2 (her))(3 (3 (beloved))(2 (genre)))))(1 (2 (for))(2 (2 (2 (2 (the))(2 (thousands)))(2 (2 (of))(2 (Indians))))(2 (2 (who))(1 (3 (fancy))(1 (2 (themselves))(2 (2 (too))(3 (3 (sophisticated))(2 (2 (for))(3 (2 (2 (the))(1 (2 (cheese-laced))(2 (spectacles))))(2 (2 (that))(3 (2 (2 (pack))(2 ('em)))(2 (2 (in))(2 (2 (on))(2 (2 (the))(2 (subcontinent)))))))))))))))))))))))(2 (.)))) |ET| 
-0.31574988662812736306406691255688  |BT| (ROOT (2 (They))(3 (4 (2 (are))(3 (2 (what))(3 (2 (2 (makes))(2 (it)))(4 (2 (worth))(2 (2 (2 (the))(2 (trip)))(2 (2 (to))(2 (2 (the))(2 (theatre)))))))))(2 (.)))) |ET| 
-0.60657394997675706527218153496506  |BT| (ROOT (2 (2 (Deepa))(2 (Mehta)))(4 (3 (3 (3 (provides))(4 (3 (3 (2 (an))(2 (3 (accessible))(2 (introduction))))(2 (2 (as))(2 (3 (well))(2 (as)))))(4 (3 (2 (some))(3 (3 (intelligent))(2 (observations))))(3 (2 (on))(2 (2 (2 (the))(3 (success)))(2 (2 (of))(2 (Bollywood))))))))(2 (2 (in))(2 (2 (the))(2 (2 (Western))(2 (world))))))(2 (.)))) |ET| 
-0.54264567276687791785860781601514  |BT| (ROOT (2 (2 (The))(2 (film)))(3 (3 (2 (does))(3 (3 (3 (give))(3 (4 (2 (a))(3 (3 (4 (pretty))(3 (good)))(2 (2 (overall))(2 (picture)))))(2 (2 (of))(2 (2 (the))(2 (situation))))))(1 (2 (in))(2 (2 (Laramie))(2 (2 (following))(2 (1 (2 (the))(1 (murder)))(3 (2 (of))(2 (2 (Matthew))(2 (Shepard))))))))))(2 (.)))) |ET| 
1  |BT| (ROOT (2 (But))(1 (2 (,))(1 (1 (no))(2 (2 (,))(2 (2 (we))(2 (2 (2 (get))(2 (2 (2 (2 (2 (2 (another))(2 (scene)))(2 (,)))(2 (and)))(2 (then)))(2 (another))))(2 (.)))))))) |ET| 
1  |BT| (ROOT (2 (Still))(2 (2 (,))(2 (2 (2 (2 (2 (1 (1 (not))(2 (2 (every))(1 (1 (low-budget))(2 (movie)))))(1 (2 (must))(1 (2 (be))(1 (2 (2 (quirky))(2 (or)))(1 (bleak))))))(2 (,)))(2 (and)))(3 (3 (2 (a))(3 (4 (happy))(2 (ending))))(2 (2 (is))(2 (1 (no))(1 (3 (cinematic))(1 (sin)))))))(2 (.))))) |ET| 
1  |BT| (ROOT (2 (2 (2 (2 (2 (2 (Explosions))(2 (,)))(2 (jokes)))(2 (,)))(2 (and)))(2 (2 (sexual))(2 (innuendoes))))(2 (2 (abound))(2 (.)))) |ET| 
-0.22473496088162966954904220528988  |BT| (ROOT (2 (We))(1 (2 (2 (have))(1 (1 (poignancy))(0 (1 (1 (1 (2 (2 (jostling))(1 (2 (against))(1 (1 (1 (farce))(2 (,)))(1 (2 (2 (2 (3 (4 (thoughtful))(2 (dialogue)))(1 (1 (2 (elbowed))(2 (aside)))(2 (2 (by))(2 (one-liners)))))(2 (,)))(2 (and)))(1 (2 (2 (a))(3 (2 (visual))(2 (style))))(2 (2 (that))(1 (2 (incorporates))(1 (2 (2 (rotoscope))(2 (animation)))(1 (2 (for))(1 (1 (no))(2 (2 (apparent))(2 (2 (reason))(2 (except))))))))))))))(2 (,)))(2 (maybe)))(2 (,)))(3 (2 (that))(3 (2 (it))(3 (2 (looks))(3 (neat))))))))(2 (.)))) |ET| 
-0.43203058709596792175133828095568  |BT| (ROOT (3 (2 (Initially))(3 (gripping)))(2 (2 (,))(1 (2 (2 (eventually))(2 (2 (cloying))(2 (2 (POW))(1 (drama)))))(2 (.))))) |ET| 
-0.41093166307826906047395709720149  |BT| (ROOT (1 (Forgettable))(3 (2 (,))(3 (3 (2 (if))(3 (good-hearted)))(2 (2 (,))(2 (2 (movie))(2 (.))))))) |ET| 
1  |BT| (ROOT (3 (3 (3 (2 (2 (2 (Kaufman))(2 (and)))(2 (Jonze)))(3 (2 (take))(2 (2 (2 (huge))(2 (risks)))(3 (2 (to))(3 (2 (ponder))(2 (2 (2 (the))(2 (2 (whole))(2 (notion))))(3 (2 (of))(2 (passion)))))))))(2 (--)))(2 (2 (2 (2 (our))(2 (desire)))(2 (2 (as))(2 (2 (2 (human))(2 (beings)))(2 (2 (for))(2 (2 (passion))(2 (2 (in))(2 (2 (2 (2 (our))(2 (lives)))(2 (and)))(2 (2 (the))(2 (1 (emptiness))(2 (one)))))))))))(2 (2 (feels))(2 (2 (when))(1 (2 (it))(2 (2 (is))(2 (missing))))))))(2 (.))) |ET| 
1  |BT| (ROOT (1 (1 (2 (To))(2 (2 (2 (2 (2 (show))(2 (2 (these))(2 (characters))))(2 (2 (in))(2 (2 (the))(2 (act)))))(2 (and)))(2 (2 (3 (give))(2 (them)))(2 (1 (1 (no))(2 (feelings)))(2 (2 (of))(2 (remorse)))))))(2 (2 (2 (2 (--))(2 (and)))(1 (2 (to))(2 (2 (2 (cut))(2 (repeatedly)))(2 (2 (to))(1 (2 (2 (the))(2 (flashback)))(2 (2 (of))(2 (2 (the))(1 (3 (original))(2 (rape))))))))))(2 (--))))(0 (0 (2 (is))(0 (2 (overkill))(3 (2 (to))(3 (2 (the))(2 (2 (highest))(2 (degree)))))))(2 (.)))) |ET| 
1  |BT| (ROOT (2 (Ultimately))(2 (1 (1 (3 (2 (feels))(2 (2 (like))(2 (2 (2 (just))(2 (one)))(2 (more)))))(2 (2 (in))(2 (2 (2 (the))(2 (2 (long))(2 (line))))(2 (2 (of))(2 (films))))))(2 (2 (2 (this))(2 (year)))(2 (2 (about))(2 (2 (2 (the))(2 (business)))(2 (2 (of))(2 (2 (making))(2 (movies))))))))(2 (.)))) |ET| 
-0.50220595427077652228575743720285  |BT| (ROOT (2 (It))(1 (1 (2 ('s))(1 (2 (1 (2 (lost))(2 (2 (2 (2 (the))(1 (politics)))(2 (and)))(2 (2 (the))(2 (2 (social))(2 (observation))))))(2 (and)))(0 (2 (2 (become))(1 (2 (just))(2 (2 (another))(2 (2 (situation))(3 (romance))))))(0 (2 (about))(0 (2 (2 (a))(2 (couple)))(1 (2 (of))(1 (2 (saps))(0 (2 (stuck))(1 (2 (in))(1 (2 (an))(2 (1 (inarticulate))(2 (screenplay)))))))))))))(2 (.)))) |ET| 
-0.49609916527087022375397395990149  |BT| (ROOT (3 (2 (2 (Just))(2 (2 (the))(2 (labour))))(3 (2 (involved))(3 (2 (in))(4 (2 (creating))(3 (3 (2 (the))(3 (3 (layered))(2 (richness))))(3 (2 (of))(3 (2 (2 (the))(2 (imagery)))(2 (2 (in))(3 (2 (2 (this))(2 (chiaroscuro)))(2 (2 (of))(2 (2 (2 (madness))(2 (and)))(2 (light)))))))))))))(3 (3 (2 (is))(4 (astonishing)))(2 (.)))) |ET| 
-0.21364176044915061947193635205622  |BT| (ROOT (2 (There))(1 (1 (2 ('s))(1 (1 (1 (no))(2 (point)))(2 (2 (in))(2 (2 (2 (extracting))(2 (2 (2 (the))(2 (2 (bare))(2 (bones))))(2 (2 (of))(2 (2 (2 (Byatt))(2 ('s)))(2 (plot))))))(1 (2 (for))(1 (2 (purposes))(1 (2 (of))(1 (1 (bland))(3 (2 (Hollywood))(3 (romance)))))))))))(2 (.)))) |ET| 
1  |BT| (ROOT (1 (1 (2 (1 (Slow))(2 (,)))(1 (dry)))(2 (,)))(2 (1 (poorly))(3 (3 (3 (2 (2 (2 (cast))(2 (,)))(2 (but)))(3 (beautifully)))(2 (shot)))(2 (.))))) |ET| 
1  |BT| (ROOT (2 (2 (The))(2 (result)))(1 (2 (2 (is))(2 (2 (3 (3 (good))(2 (gossip)))(2 (,)))(2 (3 (entertainingly))(1 (3 (2 (delivered))(2 (,)))(1 (2 (yet))(1 (2 (with))(1 (1 (1 (2 (a))(2 (1 (2 (distinctly))(1 (musty)))(2 (odour))))(2 (,)))(1 (2 (2 (its))(2 (2 (expiry))(2 (date))))(1 (2 (long))(2 (gone)))))))))))(2 (.)))) |ET| 
1  |BT| (ROOT (3 (3 (Impeccably))(2 (filmed)))(1 (2 (,))(2 (2 (sexually))(0 (1 (2 (2 (2 (3 (charged))(2 (,)))(2 (but)))(2 (ultimately)))(1 (1 (0 (1 (lacking))(2 (2 (in))(2 (substance))))(2 (,)))(0 (1 (not))(1 (2 (to))(0 (2 (mention))(1 (1 (2 (dragged))(2 (down)))(2 (2 (by))(2 (2 (a))(3 (1 (leaden))(2 (2 (closing))(2 (act))))))))))))(2 (.)))))) |ET| 
-0.46801394743084995253568081352569  |BT| (ROOT (1 (2 (2 (1 (Rumor))(2 (,)))(2 (2 (2 (a))(1 (1 (muddled))(1 (drama))))(2 (2 (about))(2 (2 (coming))(2 (2 (to))(2 (2 (terms))(2 (2 (with))(2 (death)))))))))(2 (,)))(1 (0 (2 (feels))(1 (1 (impersonal))(1 (2 (,))(1 (2 (almost))(1 (generic))))))(2 (.)))) |ET| 
-0.98867788136798329112764349702047  |BT| (ROOT (2 (2 (That))(2 (2 (Jack))(2 (Nicholson))))(4 (3 (2 (makes))(3 (3 (2 (2 (this))(2 (man)))(3 (2 (so))(3 (watchable))))(3 (3 (2 (is))(3 (2 (a))(3 (tribute))))(3 (2 (1 (not))(2 (only)))(3 (2 (2 (to))(3 (2 (his))(2 (craft))))(3 (2 (2 (,))(2 (but)))(2 (2 (to))(2 (2 (his))(2 (legend))))))))))(2 (.)))) |ET| 
-0.22692999178584177810691357990436  |BT| (ROOT (2 (2 (If))(1 (2 (you))(2 (2 (2 ('re))(1 (not)))(3 (2 (a))(3 (fan))))))(1 (2 (,))(1 (2 (it))(1 (1 (2 (might))(1 (2 (be))(1 (2 (like))(2 (2 (trying))(2 (2 (to))(2 (2 (eat))(2 (3 (Brussels))(2 (sprouts)))))))))(2 (.)))))) |ET| 
1  |BT| (ROOT (2 (3 (Greengrass))(2 (1 (-LRB-))(2 (2 (2 (working))(2 (2 (from))(2 (2 (3 (Don))(2 (2 (Mullan))(2 ('s))))(2 (script)))))(3 (-RRB-)))))(2 (3 (2 (forgoes))(3 (2 (2 (2 (the))(2 (2 (larger))(2 (2 (socio-political))(2 (picture)))))(2 (2 (of))(2 (2 (2 (the))(2 (situation)))(3 (2 (in))(2 (2 (2 (Northern))(2 (Ireland)))(2 (2 (in))(2 (3 (favour))(2 (2 (of))(2 (2 (an))(2 (approach)))))))))))(3 (2 (that))(2 (2 (2 (throws))(2 (one)))(3 (2 (in))(2 (2 (2 (the))(2 (2 (pulsating))(2 (thick))))(1 (2 (of))(1 (2 (a))(3 (2 (3 (truly))(2 (frightening)))(2 (situation)))))))))))(2 (.)))) |ET| 
1  |BT| (ROOT (2 (1 (2 (One))(2 (2 (of))(1 (2 (2 (2 (the))(1 (oddest)))(2 (and)))(1 (2 (most))(2 (2 (inexplicable))(2 (sequels)))))))(2 (2 (in))(2 (2 (movie))(2 (history)))))(2 (.))) |ET| 
1  |BT| (ROOT (2 (2 (Veterans))(2 (2 (of))(2 (2 (the))(2 (2 (dating))(1 (wars))))))(2 (2 (2 (will))(1 (1 (1 (smirk))(1 (uneasily)))(1 (2 (at))(1 (2 (2 (2 (the))(2 (2 (film))(2 ('s))))(2 (0 (nightmare))(2 (versions))))(3 (2 (of))(1 (2 (everyday))(2 (2 (sex-in-the-city))(2 (misadventures)))))))))(2 (.)))) |ET| 
-0.15623401110538756575429886197526  |BT| (ROOT (0 (1 (2 (The))(0 (2 (sheer))(1 (dumbness))))(1 (2 (of))(1 (2 (2 (2 (2 (the))(2 (plot)))(2 (1 (-LRB-))(2 (2 (2 (other))(2 (2 (than))(3 (2 (its))(3 (2 (one))(3 (3 (good))(2 (idea)))))))(3 (-RRB-)))))(2 (and)))(0 (2 (2 (2 (the))(2 (2 (movie))(2 ('s))))(2 (2 (inescapable))(2 (air))))(1 (2 (of))(1 (sleaziness)))))))(2 (1 (3 (2 (get))(2 (you)))(2 (down)))(2 (.)))) |ET| 
-0.29134303761971941382213913129817  |BT| (ROOT (2 (Pap))(2 (2 (1 (0 (2 (invested))(1 (2 (in))(1 (2 (2 (2 (undergraduate))(2 (2 (doubling))(2 (subtexts))))(2 (and)))(2 (1 (ridiculous))(1 (stabs))))))(2 (2 (at))(3 (2 (2 (existentialism))(2 (reminding)))(2 (2 (of))(2 (2 (2 (the))(2 (discovery)))(2 (2 (of))(2 (2 (2 (the))(2 (wizard)))(2 (2 (of))(2 (God))))))))))(2 (2 (in))(2 (2 (the))(2 (2 (fifth))(2 (2 (Trek))(2 (flick)))))))(2 (.)))) |ET| 
-0.14594679865477330760192842262768  |BT| (ROOT (2 (...))(4 (4 (3 (3 (2 (a))(3 (3 (delicious))(1 (1 (crime))(1 (drama)))))(2 (2 (on))(2 (par))))(2 (2 (with))(2 (2 (2 (the))(3 (slickest)))(2 (2 (of))(2 (Mamet))))))(2 (.)))) |ET| 
1  |BT| (ROOT (2 (1 (2 (2 (It))(2 (2 (2 ('s))(1 (not)))(2 (2 (particularly))(3 (subtle)))))(2 (...)))(2 (1 (However))(2 (2 (,))(3 (2 (it))(3 (2 (still))(2 (2 (manages))(2 (2 (to))(2 (2 (build))(2 (2 (to))(2 (2 (a))(2 (2 (2 (terrifying))(2 (2 (,))(2 (2 (if))(2 (1 (obvious))(2 (,))))))(2 (conclusion)))))))))))))(2 (.))) |ET| 
1  |BT| (ROOT (2 (2 (This))(2 (2 (big))(2 (2 (screen))(2 (caper)))))(3 (3 (3 (3 (2 (has))(3 (2 (a))(3 (3 (good))(2 (bark)))))(2 (,)))(3 (2 (far))(2 (2 (from))(2 (2 (being))(1 (2 (a))(2 (bow-wow)))))))(2 (.)))) |ET| 
1  |BT| (ROOT (3 (2 (If))(3 (2 (2 (this))(3 (3 (silly))(2 (2 (little))(2 (cartoon)))))(3 (2 (can))(3 (3 (inspire))(2 (2 (2 (a))(2 (2 (few))(2 (kids))))(3 (1 (not))(2 (2 (to))(2 (2 (2 (grow))(2 (up)))(1 (2 (to))(1 (2 (be))(1 (greedy))))))))))))(3 (2 (1 (2 (bastards))(2 (,)))(2 (3 (2 (more))(2 (power)))(2 (2 (to))(2 (it)))))(2 (.)))) |ET| 
-0.59028827920461868217216760967858  |BT| (ROOT (4 (3 (2 (Yes))(3 (2 (,))(3 (2 (but))(3 (2 (also))(4 (3 (3 (3 (intriguing))(2 (and)))(2 (honorable)))(2 (,)))))))(3 (3 (2 (a))(3 (3 (worthwhile))(2 (addition))))(2 (2 (to))(3 (2 (a))(4 (3 (distinguished))(3 (2 (film))(2 (legacy))))))))(2 (.))) |ET| 
-0.55579919684408052305002456705552  |BT| (ROOT (2 (But))(2 (2 (it))(1 (2 (2 (has))(2 (2 (2 (2 (2 (an))(2 (3 (ambition))(2 (2 (to))(3 (2 (2 (say))(2 (something)))(2 (2 (about))(2 (2 (its))(2 (subjects))))))))(2 (,)))(2 (2 (but))(1 (not))))(2 (2 (a))(2 (willingness)))))(2 (.))))) |ET| 
-0.82206930828964996926799813081743  |BT| (ROOT (3 (2 (2 (2 (Quite))(2 (simply)))(2 (,)))(4 (2 (a))(4 (4 (joy))(2 (2 (to))(3 (2 (2 (2 (watch))(2 (and)))(2 (2 (--))(2 (2 (especially))(2 (--)))))(2 (2 (to))(2 (2 (listen))(2 (to)))))))))(2 (.))) |ET| 
1  |BT| (ROOT (2 (Gone))(3 (2 (2 (are))(3 (3 (2 (the))(3 (2 (flamboyant))(2 (mannerisms))))(2 (2 (that))(2 (2 (are))(3 (2 (2 (the))(2 (trademark)))(2 (2 (of))(2 (2 (several))(2 (2 (of))(2 (2 (his))(2 (performances)))))))))))(2 (.)))) |ET| 
1  |BT| (ROOT (2 (2 (3 (2 (A))(3 (2 (sly))(2 (dissection))))(2 (2 (of))(1 (2 (1 (2 (2 (the))(1 (inanities)))(2 (2 (of))(3 (2 (the))(2 (3 (contemporary))(2 (2 (music))(2 (business)))))))(2 (and)))(1 (1 (2 (a))(2 (1 (2 (rather))(1 (sad)))(2 (story))))(2 (2 (of))(1 (2 (the))(1 (difficulties))))))))(3 (2 (of))(2 (3 (artistic))(2 (collaboration)))))(2 (.))) |ET| 
1  |BT| (ROOT (2 (2 (In))(2 (2 (the))(2 (end))))(2 (2 (,))(1 (2 (2 (all))(2 (2 (you))(2 (2 (can))(2 (do)))))(2 (1 (2 (is))(1 (3 (3 (3 (admire))(2 (2 (the))(2 (2 (ensemble))(2 (players)))))(2 (and)))(1 (3 (wonder))(2 (2 (what))(2 (2 (2 (2 (the))(2 (point)))(2 (2 (of))(2 (it))))(2 (is)))))))(2 (.)))))) |ET| 
-0.66342243936687994576573146332521  |BT| (ROOT (1 (1 (2 (Suffers))(2 (2 (from))(2 (2 (all))(2 (2 (the))(2 (excesses))))))(2 (2 (of))(2 (2 (the))(2 (genre)))))(2 (.))) |ET| 
-0.18927157745090356089079364210193  |BT| (ROOT (2 (Caviezel))(3 (4 (3 (2 (embodies))(2 (2 (2 (the))(2 (transformation)))(3 (2 (of))(2 (2 (his))(2 (character))))))(2 (completely)))(2 (.)))) |ET| 
-0.27927175755562039238810712049599  |BT| (ROOT (1 (1 (2 (An))(1 (2 (awkwardly))(1 (2 (garish))(2 (showcase)))))(2 (2 (that))(3 (2 (diverges))(2 (2 (from))(2 (anything))))))(1 (2 (2 (remotely))(3 (2 (2 (probing))(2 (or)))(3 (penetrating))))(2 (.)))) |ET| 
1  |BT| (ROOT (1 (1 (2 (1 (2 (It))(2 (2 (2 (ca))(2 (n't)))(2 (3 (escape))(2 (2 (its))(2 (past))))))(2 (,)))(2 (and)))(2 (2 (it))(1 (1 (2 (does))(2 (n't)))(2 (2 (want))(2 (to))))))(2 (.))) |ET| 
1  |BT| (ROOT (1 (1 (1 (1 (1 (2 (An))(1 (2 (exhausting))(3 (3 (family))(1 (drama)))))(2 (2 (about))(2 (2 (a))(2 (2 (porcelain))(2 (empire))))))(2 (and)))(2 (2 (just))(2 (2 (as))(2 (hard)))))(2 (2 (2 (a))(2 (flick)))(2 (2 (as))(2 (2 (its))(2 (subject))))))(2 (2 (matter))(2 (.)))) |ET| 
1  |BT| (ROOT (3 (1 (1 (1 (2 (2 (The))(2 (3 (dramatic))(2 (crisis))))(1 (2 (1 (2 (does))(2 (n't)))(2 (always)))(3 (3 (succeed))(2 (2 (in))(2 (2 (its))(2 (2 (quest))(3 (2 (to))(2 (2 (be))(3 (1 (taken))(2 (seriously)))))))))))(2 (,)))(2 (but)))(4 (2 (2 (2 (Huppert))(2 ('s)))(3 (1 (volatile))(2 (performance))))(3 (2 (makes))(4 (2 (for))(3 (2 (a))(4 (4 (riveting))(2 (2 (movie))(2 (experience)))))))))(2 (.))) |ET| 
-0.11594170277040043159910709391625  |BT| (ROOT (2 (2 (If))(1 (2 (there))(1 (2 (was))(1 (2 (any))(1 (2 (doubt))(1 (2 (that))(1 (2 (2 (Peter))(2 (O'Fallon)))(0 (2 (2 (did))(2 (n't)))(1 (2 (have))(2 (3 (2 (an))(2 (3 (original))(2 (bone))))(2 (2 (in))(3 (2 (his))(2 (body))))))))))))))(2 (2 (,))(1 (2 (2 (2 (A))(1 (Rumor)))(2 (2 (of))(2 (Angels))))(2 (1 (2 (should))(2 (2 (dispel))(2 (it))))(2 (.)))))) |ET| 
-0.060964481350674920578924798064691  |BT| (ROOT (2 (2 (2 (A))(3 (0 (devastating))(2 (indictment))))(1 (2 (of))(2 (2 (unbridled))(2 (2 (2 (greed))(2 (and)))(2 (materalism))))))(2 (.))) |ET| 
-0.1814957297732219809738296589785  |BT| (ROOT (2 (2 (Taken))(2 (2 (as))(2 (2 (a))(2 (whole)))))(1 (2 (,))(1 (2 (2 (The))(2 (Tuxedo)))(1 (0 (1 (2 (does))(2 (n't)))(2 (2 (3 (add))(2 (up)))(2 (2 (to))(3 (2 (a))(2 (2 (whole))(2 (lot)))))))(2 (.)))))) |ET| 
1  |BT| (ROOT (2 (2 (Despite))(2 (2 (the))(2 (pyrotechnics))))(2 (2 (,))(2 (1 (Narc))(2 (2 (2 (2 (is))(2 (strictly)))(2 (2 (by))(2 (2 (the))(2 (book)))))(2 (.)))))) |ET| 
1  |BT| (ROOT (2 (2 (Especially))(2 (2 (compared))(2 (2 (with))(3 (2 (2 (the))(2 (2 (television))(2 (series))))(2 (2 (that))(2 (3 (inspired))(2 (2 (the))(2 (movie)))))))))(2 (.))) |ET| 
1  |BT| (ROOT (2 (2 (2 (The))(2 (2 (Emperor))(2 ('s))))(2 (Club)))(2 (3 (2 (is))(3 (2 (one))(2 (2 (of))(2 (2 (2 (those))(2 (films)))(3 (2 (that))(3 (3 (3 (3 (2 (possesses))(2 (2 (all))(3 (2 (the))(3 (3 (good))(2 (intentions))))))(2 (2 (in))(2 (2 (the))(2 (world)))))(2 (,)))(2 (but))))))))(2 (...)))) |ET| 
-0.92387167205601583575003132864367  |BT| (ROOT (1 (3 (3 (3 (2 (2 (The))(2 (metaphors)))(2 (2 (are))(3 (provocative))))(2 (,)))(2 (but)))(1 (2 (2 (too))(2 (often)))(1 (2 (,))(1 (2 (2 (the))(2 (viewer)))(1 (2 (2 (is))(2 (left)))(1 (2 (puzzled))(2 (2 (by))(2 (2 (2 (the))(2 (mechanics)))(2 (2 (of))(2 (2 (the))(2 (delivery))))))))))))(2 (.))) |ET| 
-0.22410651520693053440069775206211  |BT| (ROOT (2 (2 (If))(2 (2 (you))(2 (2 (are))(1 (2 (into))(2 (1 (splatter))(2 (movies)))))))(3 (2 (,))(3 (2 (then))(3 (2 (you))(3 (3 (3 (2 (will))(2 (probably)))(3 (2 (have))(3 (3 (2 (a))(3 (3 (2 (reasonably))(3 (good)))(2 (time))))(2 (2 (with))(2 (2 (The))(2 (2 (Salton))(2 (Sea))))))))(2 (.))))))) |ET| 
-1  |BT| (ROOT (1 (2 (2 (The))(1 (problem)))(2 (2 (with))(1 (2 (2 (the))(2 (mayhem)))(2 (2 (in))(2 (2 (Formula))(2 (51)))))))(1 (1 (1 (2 (is))(1 (not)))(1 (1 (1 (1 (2 (that))(0 (2 (it))(2 (2 ('s))(1 (offensive)))))(2 (,)))(2 (but)))(1 (2 (that))(0 (2 (it))(0 (2 ('s))(0 (boring)))))))(2 (.)))) |ET| 
1  |BT| (ROOT (2 (2 (2 (Would))(2 (you)))(1 (3 (laugh))(2 (2 (if))(1 (2 (2 (a))(2 (2 (tuba-playing))(2 (dwarf))))(1 (2 (2 (rolled))(2 (down)))(2 (2 (2 (a))(2 (hill)))(1 (2 (in))(2 (2 (a))(1 (0 (trash))(2 (can)))))))))))(2 (?))) |ET| 
1  |BT| (ROOT (2 (2 (2 (More))(2 (2 (of))(2 (2 (a))(2 (3 (career))(2 (curio))))))(2 (2 (than))(3 (2 (a))(2 (2 (major))(2 (work))))))(2 (.))) |ET| 
1  |BT| (ROOT (2 (2 (Neither))(2 (2 (4 (2 (a))(4 (3 (rousing))(3 (success))))(2 (nor)))(2 (2 (a))(1 (blinding)))))(0 (2 (embarrassment))(2 (.)))) |ET| 
-1  |BT| (ROOT (2 (2 (Not))(3 (2 (since))(2 (Ghostbusters))))(3 (2 (2 (2 (has))(2 (2 (a))(2 (film))))(3 (2 (2 (used))(2 (2 (2 (Manhattan))(2 ('s)))(2 (architecture))))(3 (2 (in))(3 (2 (such))(3 (2 (a))(3 (3 (gloriously))(3 (2 (goofy))(2 (way)))))))))(2 (.)))) |ET| 
-0.3967189352333170271336371115467  |BT| (ROOT (2 (2 (2 (2 (Less))(2 (2 (a))(2 (study))))(2 (2 (in))(2 (2 (2 (madness))(2 (or)))(4 (love)))))(2 (2 (than))(1 (2 (2 (a))(2 (study)))(2 (2 (in))(2 (2 (schoolgirl))(2 (obsession)))))))(2 (.))) |ET| 
-0.24637637047892899100354213715036  |BT| (ROOT (1 (3 (Like))(1 (2 (2 (a))(2 (can)))(1 (2 (of))(1 (2 (2-day))(2 (2 (old))(2 (Coke)))))))(2 (.))) |ET| 
1  |BT| (ROOT (3 (3 (3 (3 (2 (2 (The))(2 (animation)))(3 (2 (is))(3 (competent))))(2 (,)))(2 (and)))(2 (2 (2 (some))(2 (2 (of))(2 (2 (the))(2 (gags)))))(2 (3 (3 (2 (3 (3 (2 (are))(4 (2 (quite))(3 (funny))))(2 (,)))(2 (but)))(2 (Jonah)))(2 (...)))(1 (2 (never))(3 (2 (shakes))(3 (1 (2 (the))(3 (2 (1 (oppressive))(2 (2 (,))(2 (3 (morally))(3 (superior)))))(3 (3 (good-for-you))(3 (quality)))))(2 (2 (that))(2 (2 (almost))(2 (2 (automatically))(2 (2 (accompanies))(1 (2 (didactic))(3 (entertainment)))))))))))))(2 (.))) |ET| 
1  |BT| (ROOT (2 (2 (to))(2 (2 (be))(3 (2 (more))(3 (4 (engaging))(3 (3 (3 (2 (on))(3 (3 (2 (2 (2 (an))(2 (2 (emotional))(2 (level))))(2 (,)))(3 (funnier)))(2 (,))))(2 (and)))(1 (2 (on))(2 (2 (2 (the))(2 (whole)))(2 (less)))))))))(1 (1 (detached))(2 (.)))) |ET| 
1  |BT| (ROOT (4 (4 (3 (4 (4 (2 (2 (The))(2 (power)))(2 (2 (of))(3 (2 (this))(2 (script)))))(2 (,)))(2 (and)))(3 (2 (2 (the))(2 (performances)))(2 (2 (that))(2 (2 (come))(3 (2 (with))(2 (it)))))))(2 (,)))(1 (1 (2 (is))(1 (2 (that))(1 (2 (2 (the))(1 (2 (whole))(1 (1 (damned))(2 (thing)))))(2 (2 (2 (did))(2 (n't)))(1 (1 (2 (get))(1 (2 (our))(2 (2 (moral))(2 (hackles)))))(2 (up)))))))(2 (.)))) |ET| 
-0.0039648317659686698258281190021535  |BT| (ROOT (1 (2 (Just))(0 (dreadful)))(2 (.))) |ET| 
-0.70254123094896092638350637571421  |BT| (ROOT (4 (4 (4 (Awesome))(2 (work)))(2 (:)))(4 (2 (3 (ineffable))(3 (2 (,))(3 (2 (2 (2 (elusive))(2 (,)))(2 (yet)))(2 (inexplicably)))))(4 (powerful)))) |ET| 
-0.47704083250769258039980513785849  |BT| (ROOT (2 (It))(1 (1 (2 (3 (2 (feels))(2 (2 (like))(2 (3 (2 (very))(2 (light)))(2 (2 (Errol))(2 (Morris))))))(2 (,)))(1 (2 (2 (2 (focusing))(2 (2 (on))(2 (eccentricity))))(2 (but)))(1 (0 (0 (1 (1 (failing))(2 (,)))(2 (ultimately)))(2 (,)))(2 (2 (to))(2 (2 (2 (2 (make))(2 (2 (something))(3 (bigger))))(1 (out)))(2 (2 (of))(1 (2 (2 (its))(2 (scrapbook)))(2 (2 (of))(1 (oddballs))))))))))(2 (.)))) |ET| 
1  |BT| (ROOT (2 (2 (The))(2 (film)))(3 (2 (2 (has))(2 (2 (2 (a))(2 (2 (childlike))(3 (quality))))(2 (2 (about))(2 (it)))))(2 (.)))) |ET| 
1  |BT| (ROOT (3 (3 (Visually))(4 (exciting)))(1 (1 (2 (sci-fi))(1 (2 (film))(1 (2 (which))(2 (2 (suffers))(1 (2 (from))(0 (2 (a))(1 (1 (lackluster))(2 (screenplay)))))))))(2 (.)))) |ET| 
1  |BT| (ROOT (2 (It))(1 (2 (2 ('s))(1 (2 (2 (almost))(2 (as)))(1 (2 (if))(2 (2 (it))(2 (2 ('s))(2 (2 (2 (2 (an))(2 (2 (elaborate))(2 (dare))))(2 (more)))(2 (2 (than))(3 (2 (a))(2 (3 (full-blooded))(2 (film)))))))))))(2 (.)))) |ET| 
-0.078503586970523273058653046518884  |BT| (ROOT (2 (Falsehoods))(2 (1 (2 (2 (2 (pile))(2 (up)))(2 (,)))(0 (1 (2 (2 (undermining))(2 (2 (2 (the))(2 (2 (movie))(2 ('s))))(2 (reality))))(2 (and)))(2 (2 (stifling))(3 (2 (2 (its))(2 (2 (creator))(2 ('s))))(3 (2 (comic))(2 (voice)))))))(2 (.)))) |ET| 
-0.22157557765474486521917185655184  |BT| (ROOT (2 (2 (The))(2 (film)))(3 (4 (2 (presents))(3 (2 (2 (3 (2 (visceral))(2 (and)))(3 (2 (dangerously))(4 (honest))))(2 (revelations)))(2 (2 (about))(3 (2 (2 (the))(2 (2 (2 (men))(2 (and)))(2 (machines))))(2 (2 (behind))(2 (2 (2 (the))(2 (curtains)))(2 (2 (of))(2 (2 (our))(2 (planet))))))))))(2 (.)))) |ET| 
-0.0096037192183988703136909848012692  |BT| (ROOT (2 (2 (2 (A))(2 (2 (small))(3 (2 (independent))(2 (film)))))(1 (1 (suffering))(1 (2 (from))(1 (2 (2 (a))(2 (2 (severe))(2 (case))))(2 (2 (of))(2 (Hollywood-itis)))))))(2 (.))) |ET| 
1  |BT| (ROOT (3 (2 (2 (2 (2 (A))(2 (2 (different))(3 (kind))))(2 (2 (of))(2 (4 (love))(2 (story)))))(2 (-)))(3 (2 (one))(3 (2 (that))(2 (2 (is))(2 (1 (1 (1 (2 (2 (2 (2 (dark))(2 (,)))(1 (disturbing)))(2 (,)))(0 (1 (painful))(2 (2 (to))(2 (watch)))))(2 (,)))(2 (yet)))(3 (compelling)))))))(2 (.))) |ET| 
1  |BT| (ROOT (2 (fast))(2 (2 (,))(3 (3 (2 (1 (frantic))(2 (and)))(4 (fun)))(1 (2 (2 (,))(2 (2 (but))(2 (also))))(1 (2 (soon))(2 (forgotten))))))) |ET| 
1  |BT| (ROOT (1 (2 (2 (An))(2 (amalgam)))(1 (2 (of))(1 (2 (2 (2 (The))(2 (Fugitive)))(2 (,)))(2 (2 (2 (2 (2 (2 (2 (Blade))(2 (Runner)))(2 (,)))(2 (and)))(2 (2 (Total))(2 (Recall))))(2 (,)))(1 (2 (only))(1 (2 (without))(2 (2 (much))(2 (2 (3 (energy))(2 (or)))(2 (tension))))))))))(2 (.))) |ET| 
-0.059233256740766918047036426742125  |BT| (ROOT (3 (2 (With))(2 (2 (few))(2 (respites))))(3 (2 (,))(3 (4 (3 (3 (2 (2 (Marshall))(3 (2 (keeps))(3 (2 (the))(2 (3 (energy))(2 (humming))))))(2 (,)))(2 (and)))(4 (2 (2 (his))(3 (edits)))(3 (2 (,))(3 (2 (1 (unlike))(2 (2 (those))(2 (2 (in))(3 (2 (Moulin))(2 (Rouge))))))(4 (2 (,))(3 (2 (are))(4 (3 (3 (2 (crisp))(2 (and)))(2 (purposeful)))(3 (2 (without))(1 (1 (overdoing))(2 (it)))))))))))(2 (.))))) |ET| 
-0.73693920648616162427657627631561  |BT| (ROOT (2 (And))(4 (2 (it))(3 (3 (2 (sees))(3 (2 (2 (2 (those))(2 (relationships)))(2 (,)))(3 (2 (including))(4 (3 (3 (2 (2 (2 (2 (2 (2 (2 (that))(2 (2 (between))(2 (2 (2 (2 (the))(2 (son)))(2 (and)))(2 (2 (his))(2 (wife))))))(2 (,)))(2 (and)))(2 (2 (2 (2 (the))(2 (wife)))(2 (and)))(2 (2 (the))(2 (father)))))(2 (,)))(2 (and)))(2 (2 (between))(2 (2 (the))(2 (2 (two))(2 (brothers))))))(2 (,)))(3 (2 (with))(3 (3 (incredible))(3 (2 (2 (subtlety))(2 (and)))(3 (acumen)))))))))(2 (.))))) |ET| 
-0.50869044745658065220794696870144  |BT| (ROOT (2 (2 (2 (The))(2 (2 (4 (2 (2 (3 (3 (3 (2 (2 (most))(2 (audacious)))(2 (,)))(2 (outrageous)))(2 (,)))(1 (2 (sexually))(3 (explicit))))(2 (,)))(3 (3 (psychologically))(2 (probing))))(2 (,)))(2 (4 (pure))(3 (2 (libido))(2 (film))))))(2 (2 (of))(2 (2 (the))(2 (year)))))(2 (2 (2 (has))(2 (2 (arrived))(2 (2 (from))(2 (Portugal)))))(2 (.)))) |ET| 
1  |BT| (ROOT (2 (It))(3 (3 (2 ('s))(4 (2 (a))(2 (2 (sight))(2 (2 (to))(2 (behold))))))(2 (.)))) |ET| 
1  |BT| (ROOT (2 (It))(1 (2 (2 ('s))(2 (2 (2 (exactly))(2 (what)))(2 (2 (you))(2 (2 ('d))(2 (expect))))))(2 (.)))) |ET| 
1  |BT| (ROOT (2 (It))(0 (1 (2 ('s))(1 (2 (2 (the))(2 (2 (movie))(2 (equivalent))))(2 (2 (of))(1 (2 (2 (a))(2 (2 (sweaty))(2 (2 (old))(2 (guy)))))(1 (2 (in))(1 (2 (2 (a))(2 (2 (rain))(2 (2 (coat))(2 (shopping)))))(1 (2 (for))(1 (0 (cheap))(2 (porn))))))))))(2 (.)))) |ET| 
-0.31038974002443003863405124320707  |BT| (ROOT (2 (It))(4 (2 (2 ('s))(4 (2 (a))(4 (masterpeice))))(2 (.)))) |ET| 
-0.31038974002443125987937833087926  |BT| (ROOT (2 (It))(3 (3 (2 ('s))(2 (2 (a))(3 (scorcher))))(2 (.)))) |ET| 
-0.33843855019764335079202055567293  |BT| (ROOT (2 (2 (An))(2 (escapist)))(3 (3 (2 (confection))(4 (2 (that))(3 (2 ('s))(4 (4 (pure))(3 (entertainment))))))(2 (.)))) |ET| 
1  |BT| (ROOT (3 (2 (2 (2 (2 (It))(2 (2 (may))(2 (2 (be))(2 (2 (about))(1 (2 (2 (2 (1 (1 (2 (drug))(2 (dealers)))(2 (,)))(2 (kidnapping)))(2 (,)))(2 (and)))(2 (1 (unsavory))(2 (folks))))))))(2 (,)))(2 (but)))(3 (2 (2 (the))(2 (2 (2 (tone))(2 (and)))(2 (pacing))))(3 (2 (are))(3 (2 (shockingly))(2 (intimate))))))(2 (.))) |ET| 
1  |BT| (ROOT (0 (1 (0 (1 (1 (1 (1 (Far-fetched))(2 (premise)))(2 (,)))(1 (0 (convoluted))(2 (plot))))(2 (,)))(2 (and)))(2 (1 (2 (thematic))(1 (2 (mumbo))(2 (jumbo))))(2 (2 (about))(2 (2 (2 (destiny))(2 (and)))(3 (redemptive))))))(3 (4 (love))(2 (.)))) |ET| 
1  |BT| (ROOT (2 (Oh))(2 (2 (,))(2 (2 (2 (and))(2 (Booty)))(2 (2 (Call))(2 (.)))))) |ET| 
-0.076208888515622838499830038472282  |BT| (ROOT (2 (2 (Follows))(2 (2 (2 (2 (2 (the))(3 (3 (original))(2 (film))))(2 (2 (2 (virtually))(2 (scene)))(2 (2 (for))(2 (scene)))))(2 (and)))(2 (yet))))(0 (0 (2 (manages))(0 (2 (to))(0 (2 (bleed))(1 (2 (it))(0 (2 (almost))(2 (2 (completely))(1 (1 (dry))(3 (2 (of))(3 (4 (humor))(3 (2 (,))(4 (2 (2 (verve))(2 (and)))(4 (fun)))))))))))))(2 (.)))) |ET| 
-1  |BT| (ROOT (0 (1 (2 (2 (2 (As))(2 (plain)))(2 (and)))(2 (3 (pedestrian))(2 (as))))(2 (catsup)))(2 (--))) |ET| 
-0.82012977903226780274081875177217  |BT| (ROOT (2 (2 (The))(2 (movie)))(1 (1 (3 (2 (is))(1 (2 (2 (2 (2 (3 (genial))(2 (but)))(1 (2 (never))(3 (inspired))))(2 (,)))(2 (and)))(2 (little))))(3 (2 (about))(3 (2 (it))(2 (2 (will))(2 (2 (stay))(2 (2 (with))(2 (you))))))))(2 (.)))) |ET| 
1  |BT| (ROOT (2 (It))(3 (2 (2 ('s))(3 (1 (2 (2 (Jagger))(2 ('s)))(0 (2 (bone-dry))(0 (2 (,))(1 (2 (1 (mournfully))(2 (brittle)))(2 (delivery))))))(3 (2 (that))(3 (2 (2 (gives))(2 (2 (the))(2 (film))))(2 (2 (its))(3 (3 (bittersweet))(1 (bite))))))))(2 (.)))) |ET| 
1  |BT| (ROOT (2 (But))(2 (2 (here))(2 (2 (2 ('s))(2 (2 (2 (a))(2 (glimpse)))(2 (2 (at))(2 (2 (his))(3 (life))))))(2 (.))))) |ET| 
1  |BT| (ROOT (3 (2 (1 (2 (2 (2 (My))(2 (2 (Wife))(2 ('s))))(3 (plotting)))(1 (2 (is))(1 (1 (nothing))(3 (special)))))(2 (;)))(3 (2 (it))(2 (2 ('s))(2 (2 (2 (the))(2 (delivery)))(2 (2 (that))(2 (2 (matters))(2 (here))))))))(2 (.))) |ET| 
-0.51785612884763787544528668149724  |BT| (ROOT (1 (2 (Killing))(2 (time)))(2 (2 (,))(1 (2 (that))(2 (2 (2 ('s))(2 (2 (all))(2 (2 (that))(2 (2 ('s))(2 (2 (2 (going))(2 (on)))(2 (here)))))))(2 (.)))))) |ET| 
-1  |BT| (ROOT (2 (What))(2 (2 (2 ('s))(2 (next)))(2 (?)))) |ET| 
1  |BT| (ROOT (3 (2 (Observant))(3 (intelligence)))(2 (2 (constantly))(1 (2 (1 (2 (vies))(1 (2 (with))(2 (2 (pretension))(2 (2 (--))(2 (2 (and))(2 (2 (sometimes))(1 (1 (2 (plain))(1 (2 (wacky))(2 (implausibility))))(2 (--)))))))))(2 (2 (throughout))(2 (Maelstrom))))(2 (.))))) |ET| 
1  |BT| (ROOT (2 (2 (2 (The))(2 (sound)))(2 (2 (of))(2 (2 (GUNFIRE))(2 (2 (and))(2 (2 (cell))(2 (phones)))))))(2 (2 (RINGING))(2 (.)))) |ET| 
1  |BT| (ROOT (2 (Merchant))(2 (1 (2 (2 (has))(2 (n't)))(1 (2 (directed))(1 (2 (2 (2 (2 (this))(2 (movie)))(2 (2 (2 (so))(2 (2 (much))(2 (as))))(2 (2 (produced))(2 (it)))))(2 (--)))(2 (2 (like))(2 (sausage))))))(2 (.)))) |ET| 
-1  |BT| (ROOT (2 (What))(2 (2 (2 ('s))(2 (next)))(2 (?)))) |ET| 
-0.29531549006697060955062283937878  |BT| (ROOT (2 (I))(3 (3 (2 ('d))(4 (2 (be))(3 (1 (lying))(3 (2 (if))(3 (2 (I))(2 (2 (said))(1 (3 (2 (my))(2 (ribcage)))(2 (2 (2 (did))(2 (n't)))(1 (1 (ache))(2 (2 (by))(2 (2 (2 (the))(2 (end)))(2 (2 (of))(2 (2 (Kung))(3 (Pow)))))))))))))))(2 (.)))) |ET| 
-0.035708562160615839320421116553916  |BT| (ROOT (3 (2 (An))(3 (ideal)))(3 (2 (4 (love))(1 (2 (story))(2 (2 (for))(2 (2 (2 (those))(3 (intolerant)))(2 (2 (of))(1 (2 (the))(2 (2 (2 (more))(2 (common)))(1 (2 (saccharine))(2 (genre))))))))))(2 (.)))) |ET| 
-0.27184395940501016042389892390929  |BT| (ROOT (2 (2 (2 (This))(2 (story)))(2 (2 (of))(2 (2 (unrequited))(4 (love)))))(0 (1 (1 (2 (does))(2 (n't)))(2 (3 (2 (sustain))(2 (interest)))(2 (2 (beyond))(2 (2 (the))(2 (2 (first))(2 (half-hour)))))))(2 (.)))) |ET| 
1  |BT| (ROOT (3 (2 (The))(3 (4 (best))(2 (way))))(2 (2 (to))(3 (2 (describe))(2 (2 (it))(2 (2 (is))(2 (2 (as))(2 (3 (2 (a))(2 (cross)))(2 (2 (between))(2 (2 (2 (2 (2 (Paul))(2 (2 (Thomas))(2 (2 (Anderson))(2 ('s)))))(2 (Magnolia)))(2 (and)))(2 (2 (2 (David))(2 (2 (Lynch))(2 ('s))))(2 (2 (Mulholland))(2 (Dr.))))))))))))) |ET| 
1  |BT| (ROOT (2 (It))(2 (3 (2 (2 ('s))(2 (all)))(3 (2 (a))(3 (1 (2 (rather))(1 (shapeless)))(3 (3 (good))(2 (time))))))(2 (...)))) |ET| 
1  |BT| (ROOT (2 (2 (2 (2 (2 (The))(2 (2 (Porky))(2 ('s))))(2 (Revenge)))(2 (:)))(2 (2 (Ultimate))(2 (Edition))))(2 (?))) |ET| 
-0.091322803946743053016277258393529  |BT| (ROOT (3 (2 (1 (2 (2 (Dog))(2 (Soldiers)))(1 (1 (2 (does))(2 (n't)))(3 (3 (transcend))(2 (genre)))))(2 (--)))(3 (2 (it))(3 (3 (3 (2 (2 (2 (embraces))(2 (it)))(2 (,)))(3 (3 (energizes))(2 (it))))(2 (and)))(1 (1 (1 (2 (takes))(1 (2 (big))(2 (1 (bloody))(2 (chomps)))))(1 (out)))(2 (2 (of))(2 (it)))))))(2 (.))) |ET| 
-0.31680110240837078272591043059947  |BT| (ROOT (2 (2 (2 (The))(3 (4 (hot))(2 (topics))))(2 (2 (of))(2 (2 (the))(2 (plot)))))(3 (3 (2 (are))(3 (3 (1 (relegated))(3 (2 (to))(3 (2 (2 (2 (the))(2 (background)))(2 (--)))(3 (2 (a))(3 (2 (welcome))(2 (step)))))))(2 (2 (forward))(2 (2 (from))(3 (1 (2 (the))(2 (2 (Sally))(2 (2 (Jesse))(2 (2 (Raphael))(2 (atmosphere))))))(2 (2 (of))(2 (2 (films))(2 (2 (like))(2 (2 (2 (2 (Philadelphia))(2 (and)))(2 (American)))(3 (Beauty)))))))))))(2 (.)))) |ET| 
-0.023186971786979461429556437224164  |BT| (ROOT (2 (A))(1 (1 (feeble))(1 (3 (Tootsie))(1 (1 (knockoff))(2 (.)))))) |ET| 
1  |BT| (ROOT (2 (3 (Jolting))(2 (2 (into))(2 (2 (Charleston))(2 (rhythms)))))(2 (2 (,))(3 (2 (2 (the))(2 (story)))(2 (4 (2 (has))(3 (1 (2 (2 (the))(2 (sizzle)))(2 (2 (of))(2 (2 (old))(2 (news)))))(3 (2 (that))(3 (2 (2 (has))(2 (finally)))(2 (2 (found))(2 (2 (2 (the))(3 (right)))(2 (1 (2 (vent))(1 (-LRB-)))(3 (accurate)))))))))(2 (?)))))) |ET| 
1  |BT| (ROOT (2 (What))(1 (2 (2 (is))(2 (2 (2 (the))(2 (2 (filmmakers))(2 ('))))(2 (point))))(2 (?)))) |ET| 
1  |BT| (ROOT (2 (2 (What))(2 (2 (you))(2 (2 (2 (end))(2 (up)))(2 (getting)))))(3 (2 (2 (is))(3 (3 (3 (2 (2 (the))(2 (2 (Vertical))(2 (Limit))))(2 (2 (of))(2 (2 (surfing))(2 (movies)))))(2 (-)))(2 (3 (4 (memorable))(2 (stunts)))(1 (2 (with))(2 (2 (lots))(2 (2 (of))(2 (2 (downtime))(2 (2 (in))(2 (between))))))))))(2 (.)))) |ET| 
-0.079789622182533589955788499992195  |BT| (ROOT (2 (1 (1 (2 (A))(1 (1 (sub-formulaic))(1 (slap))))(2 (2 (in))(2 (2 (the))(2 (face)))))(2 (2 (to))(2 (2 (seasonal))(2 (cheer)))))(2 (.))) |ET| 
-0.8851645379580311834288863792608  |BT| (ROOT (2 (2 (The))(2 (soundtrack)))(4 (2 (alone))(4 (3 (2 (is))(4 (2 (worth))(2 (3 (2 (the))(2 (price)))(2 (2 (of))(2 (admission))))))(2 (.))))) |ET| 
-0.55819769915628203449387001455761  |BT| (ROOT (2 (2 (The))(2 (2 (Salton))(2 (Sea))))(2 (2 (3 (3 (2 (has))(3 (2 (moments))(3 (2 (of))(3 (3 (inspired))(3 (humour))))))(2 (,)))(2 (2 (though))(3 (2 (2 (every))(1 (scrap)))(1 (2 (is))(1 (2 (of))(1 (2 (the))(2 (2 (darkest))(2 (variety)))))))))(2 (.)))) |ET| 
1  |BT| (ROOT (2 (2 (Freundlich))(2 ('s)))(2 (2 (2 (made))(2 (2 (3 (2 (2 (1 (-LRB-))(2 (2 (Crudup))(3 (-RRB-))))(3 (2 (a))(2 (2 (suburban))(2 (architect)))))(2 (,)))(2 (and)))(2 (2 (a))(2 (cipher)))))(2 (.)))) |ET| 
1  |BT| (ROOT (1 (3 (2 (An))(2 (2 (enigmatic))(2 (film))))(1 (2 (that))(2 (2 ('s))(1 (2 (too))(2 (4 (clever))(2 (2 (for))(3 (2 (its))(2 (2 (own))(3 (good))))))))))(1 (2 (,))(0 (2 (it))(2 (1 (2 (2 (2 ('s))(2 (2 (2 (a))(2 (conundrum)))(1 (not))))(2 (worth)))(2 (solving)))(2 (.)))))) |ET| 
1  |BT| (ROOT (2 (And))(1 (1 (2 (2 (a))(2 (2 (very))(2 (rainy))))(2 (day)))(2 (.)))) |ET| 
-1  |BT| (ROOT (2 (What))(3 (3 (2 ('s))(3 (1 (not))(2 (2 (to))(2 (2 (like))(2 (2 (about))(1 (2 (2 (2 (a))(2 (movie)))(2 (2 (with))(2 (2 (a))(2 (2 (`))(3 (2 (3 (children))(2 ('s)))(2 (2 ('))(2 (song))))))))(2 (2 (that))(3 (2 (2 (2 (2 (includes))(2 (2 (the))(2 (line))))(2 (`)))(2 (2 (2 (2 (2 (My))(2 (stepdad)))(2 (2 (2 ('s))(1 (not)))(1 (mean))))(2 (,)))(1 (2 (he))(2 (2 (2 ('s))(2 (just)))(2 (adjusting))))))(2 ('))))))))))(2 (?)))) |ET| 
-1  |BT| (ROOT (2 (2 (1 (2 (2 (Call))(2 (3 (me))(2 (2 (a))(2 (cynic)))))(2 (,)))(2 (but)))(1 (2 (there))(1 (2 ('s))(1 (1 (2 (something))(1 (0 (awfully))(2 (deadly))))(2 (2 (about))(3 (2 (2 (any))(2 (movie)))(3 (2 (with))(3 (2 (a))(3 (3 (life-affirming))(2 (message)))))))))))(2 (.))) |ET| 
-0.60315127924108680179671182486345  |BT| (ROOT (1 (2 (plays))(2 (2 (like))(1 (2 (some))(1 (1 (corny))(2 (television))))))(2 (2 (production))(1 (2 (from))(2 (2 (a))(2 (2 (bygone))(2 (era))))))) |ET| 
1  |BT| (ROOT (2 (2 (The))(2 (film)))(3 (2 (3 (3 (2 (will))(2 (3 (appeal))(2 (2 (to))(3 (2 (Discovery))(2 (2 (Channel))(3 (fans)))))))(2 (and)))(3 (2 (2 (will))(2 (surely)))(3 (2 (widen))(2 (2 (2 (2 (the))(2 (perspective)))(2 (2 (of))(2 (2 (those))(2 (2 (of))(3 (us))))))(2 (2 (who))(2 (2 (2 (see))(2 (2 (the))(2 (continent))))(2 (2 (through))(2 (2 (rose-colored))(2 (glasses))))))))))(2 (.)))) |ET| 
1  |BT| (ROOT (2 (I))(2 (2 (2 (have))(2 (2 (2 (two))(2 (words)))(2 (2 (to))(2 (2 (say))(2 (2 (about))(2 (3 (Reign))(2 (2 (of))(1 (Fire)))))))))(2 (.)))) |ET| 
1  |BT| (ROOT (3 (2 (While))(4 (4 (4 (2 (Holm))(4 (2 (is))(3 (4 (terrific))(2 (2 (2 (as))(2 (both)))(2 (men))))))(2 (and)))(3 (2 (Hjejle))(4 (2 (quite))(3 (appealing))))))(1 (2 (,))(2 (2 (2 (the))(2 (film)))(1 (2 (0 (fails))(3 (2 (to))(3 (2 (2 (2 (make))(2 (2 (the))(2 (most))))(1 (out)))(3 (2 (of))(3 (2 (the))(3 (3 (intriguing))(2 (premise))))))))(2 (.)))))) |ET| 
-0.88915647785808671343943387910258  |BT| (ROOT (2 (2 (A))(2 (living)))(2 (2 (2 (testament))(3 (2 (to))(2 (3 (2 (the))(2 (power)))(2 (2 (of))(2 (2 (2 (2 (the))(2 (eccentric)))(2 (and)))(2 (2 (the))(1 (strange))))))))(2 (.)))) |ET| 
-0.18377636777837277892722056549246  |BT| (ROOT (3 (3 (2 (A))(3 (comedy)))(3 (2 (2 (that))(3 (2 (2 (swings))(2 (and)))(2 (jostles))))(2 (2 (to))(2 (2 (2 (the))(2 (rhythms)))(2 (2 (of))(3 (life)))))))(2 (.))) |ET| 
-0.79304077238253223303132699584239  |BT| (ROOT (2 (Little))(2 (3 (2 (is))(2 (2 (done))(2 (2 (to))(1 (3 (2 (support))(2 (2 (2 (the))(2 (premise)))(0 (2 (other))(2 (2 (than))(1 (2 (3 (fling))(2 (gags)))(2 (2 (at))(2 (it))))))))(2 (2 (to))(2 (2 (see))(1 (2 (which))(2 (2 (ones))(1 (shtick))))))))))(2 (.)))) |ET| 
1  |BT| (ROOT (2 (It))(2 (2 (2 (2 (3 (2 ('s))(3 (2 (all))(2 (4 (entertaining))(2 (enough)))))(2 (,)))(2 (but)))(1 (2 (2 (do))(2 (n't)))(1 (2 (look))(1 (2 (for))(2 (2 (2 (any))(3 (2 (hefty))(1 (2 (anti-establishment))(2 (message)))))(2 (2 (in))(1 (2 (what))(3 (2 (2 (is))(2 (essentially)))(1 (4 (2 (2 (a))(2 (whip-crack)))(3 (2 (of))(3 (2 (a))(2 (2 (buddy))(2 (movie))))))(1 (2 (that))(1 (2 (ends))(2 (2 (with))(1 (2 (a))(1 (whimper)))))))))))))))(2 (.)))) |ET| 
1  |BT| (ROOT (2 (3 (3 (2 (2 (This))(3 (2 (1 (2 (is))(2 (n't)))(0 (2 (a))(0 (1 (terrible))(2 (film)))))(2 (2 (by))(2 (2 (any))(2 (means))))))(2 (,)))(2 (but)))(1 (2 (it))(1 (2 (2 ('s))(2 (also)))(1 (2 (far))(2 (2 (from))(3 (2 (being))(3 (2 (a))(2 (2 (realized))(2 (work))))))))))(2 (.))) |ET| 
1  |BT| (ROOT (1 (2 (2 (The))(2 (2 (movie))(2 ('s))))(1 (2 (gloomy))(2 (atmosphere))))(1 (3 (3 (3 (3 (4 (2 (is))(3 (fascinating)))(2 (,)))(2 (though)))(2 (,)))(1 (2 (even))(1 (2 (if))(0 (2 (2 (the))(2 (movie)))(1 (2 (itself))(1 (1 (2 (does))(2 (n't)))(1 (2 (stand))(1 (2 (2 (a))(2 (ghost)))(2 (2 (of))(2 (2 (a))(2 (chance))))))))))))(2 (.)))) |ET| 
-0.0017410506988405642560951980257755  |BT| (ROOT (2 (And))(3 (2 (yet))(3 (2 (,))(3 (2 (it))(3 (2 (still))(2 (2 (works))(2 (.)))))))) |ET| 
-0.055532983988536711861261352396468  |BT| (ROOT (2 (2 (Forages))(2 (2 (for))(2 (2 (audience))(2 (sympathy)))))(1 (0 (2 (like))(1 (2 (2 (a))(1 (1 (temperamental))(2 (child))))(1 (1 (1 (2 (begging))(2 (2 (for))(2 (attention))))(2 (,)))(1 (2 (2 (giving))(2 (audiences)))(0 (1 (no))(2 (2 (reason))(1 (2 (to))(1 (3 (truly))(1 (2 (2 (3 (care))(2 (2 (for))(1 (2 (its))(1 (1 (decrepit))(1 (freaks))))))(2 (2 (beyond))(2 (2 (2 (the))(3 (promise)))(2 (2 (of))(3 (2 (a))(2 (reprieve)))))))(1 (2 (from))(1 (2 (their))(0 (1 (incessant))(2 (whining))))))))))))))(2 (.)))) |ET| 
-0.97340106226640221720458612253424  |BT| (ROOT (3 (4 (3 (3 (2 (2 (The))(2 (filmmakers)))(3 (2 (2 (want))(2 (1 (nothing))(2 (else))))(3 (2 (than))(3 (2 (to))(3 (2 (2 (show))(3 (us)))(3 (2 (a))(3 (3 (good))(2 (time)))))))))(2 (,)))(2 (and)))(3 (1 (2 (in))(1 (2 (their))(1 (0 (cheap))(2 (2 (,))(2 (2 (B))(2 (2 (movie))(2 (way))))))))(3 (2 (,))(3 (2 (they))(3 (succeed))))))(2 (.))) |ET| 
1  |BT| (ROOT (2 (Dolman))(0 (2 (1 (1 (2 (2 (confines))(2 (himself)))(3 (2 (to))(1 (2 (1 (shtick))(2 (and)))(2 (sentimentality)))))(2 (--)))(1 (2 (3 (2 (the))(2 (2 (one))(2 (bald))))(2 (and)))(1 (2 (the))(1 (2 (other))(0 (sloppy))))))(2 (.)))) |ET| 
1  |BT| (ROOT (3 (Succeeds))(3 (2 (2 (only))(2 (2 (because))(2 (2 (2 (Bullock))(2 (and)))(2 (Grant)))))(3 (3 (2 (were))(3 (2 (made))(3 (2 (to))(2 (3 (share))(3 (2 (the))(2 (2 (silver))(2 (screen))))))))(2 (.))))) |ET| 
1  |BT| (ROOT (2 (A))(2 (3 (romance))(2 (?)))) |ET| 
-1  |BT| (ROOT (2 (A))(2 (2 (cartoon))(2 (?)))) |ET| 
-0.51264608550345702742134790241835  |BT| (ROOT (2 (1 (-LRB-))(2 (2 (A))(3 (-RRB-))))(2 (2 (rather))(1 (2 (1 (thinly-conceived))(2 (movie)))(2 (.))))) |ET| 
-0.046526984680054186971354113211419  |BT| (ROOT (3 (3 (4 (Great))(2 (over-the-top)))(2 (2 (moviemaking))(2 (2 (if))(3 (2 (you))(3 (2 ('re))(3 (2 (in))(4 (2 (a))(2 (3 (slap-happy))(2 (mood))))))))))(2 (.))) |ET| 
