SVM-light Version V5.01-TK-1.5
11 # kernel type
3 # kernel parameter -d 
1 # kernel parameter -g 
1 # kernel parameter -s 
1 # kernel parameter -r 
empty# kernel parameter -u 
0.45 # kernel parameter -L 
1 # kernel parameter -T 
T # kernel parameter -C 
0 # kernel parameter -F 
1 # kernel parameter -S 
0.400000 # kernel parameter -M 
0 # kernel parameter -N 
S # kernel parameter -V 
A # kernel parameter -W 
0 # kernel parameter -U 
10 # highest feature index 
8544 # number of training documents 
3948 # number of support vectors plus 1 
1.1091321 # threshold b, each following line is a SV (starting with alpha*y)
-0.0052187215868530175202910648124544  |BT| (ROOT (0 (1 (0 (2 (1 (2 (There))(2 (2 ('s))(1 (2 (a))(2 (2 (scientific))(1 (2 (law))(2 (2 (to))(2 (2 (be))(1 (2 (2 (discerned))(2 (here)))(2 (2 (that))(2 (2 (producers))(2 (2 (would))(2 (2 (2 (be))(3 (well)))(2 (2 (to))(2 (heed)))))))))))))))(2 (:)))(1 (1 (1 (Mediocre))(2 (movies)))(1 (2 (start))(1 (2 (to))(1 (1 (drag))(2 (2 (2 (as))(2 (soon)))(2 (2 (as))(2 (2 (2 (the))(2 (action)))(3 (2 (speeds))(2 (up)))))))))))(2 (;)))(1 (2 (2 (when))(2 (2 (2 (the))(2 (explosions)))(2 (start))))(2 (2 (,))(1 (2 (they))(1 (2 (fall))(2 (2 (to))(2 (pieces))))))))(2 (.))) |BT| (ROOT (S (S (NP (EX (There)))(VP (VBZ ('s))(NP (DT (a))(JJ (scientific))(NN (law))(S (VP (TO (to))(VP (VB (be))(VP (VBN (discerned))(ADVP (RB (here)))(SBAR (IN (that))(S (NP (NNS (producers)))(VP (MD (would))(VP (VB (be))(ADVP (RB (well)))(PP (IN (to))(NP (NN (heed)))))))))))))))(: (:))(S (NP (JJ (Mediocre))(NNS (movies)))(VP (VBP (start))(S (VP (TO (to))(VP (VB (drag))(ADVP (RB (as))(RB (soon))(PP (IN (as))(NP (DT (the))(NN (action))(NNS (speeds))))(RB (up))))))))(: (;))(S (SBAR (WHADVP (WRB (when)))(S (NP (DT (the))(NNS (explosions)))(VP (VBP (start)))))(, (,))(NP (PRP (they)))(VP (VBP (fall))(PP (IN (to))(NP (NNS (pieces))))))(. (.)))) |ET| 
-0.010196178502814663355269253486313  |BT| (ROOT (2 (2 (2 (Spielberg))(2 ('s)))(2 (picture)))(2 (3 (3 (2 (3 (2 (is))(3 (2 (3 (smarter))(2 (and)))(2 (subtler))))(2 (2 (than))(2 (1 (-LRB-))(2 (2 (2 (2 (2 (Total))(2 (Recall)))(2 (and)))(2 (2 (Blade))(2 (Runner))))(3 (-RRB-))))))(2 (,)))(2 (2 (although))(1 (2 (2 (its))(2 (plot)))(1 (2 (may))(1 (1 (2 (prove))(1 (2 (too))(0 (convoluted))))(3 (2 (for))(3 (3 (fun-seeking))(2 (2 (summer))(2 (audiences))))))))))(2 (.)))) |BT| (ROOT (S (NP (NP (NNP (Spielberg))(POS ('s)))(NN (picture)))(VP (VBZ (is))(ADJP (JJR (smarter))(CC (and))(JJR (subtler)))(PP (IN (than))(NP (NNP (-LRB-))(NML (NML (NNP (Total))(NNP (Recall)))(CC (and))(NML (NNP (Blade))(NNP (Runner))))(NNP (-RRB-))))(, (,))(SBAR (IN (although))(S (NP (PRP$ (its))(NN (plot)))(VP (MD (may))(VP (VB (prove))(ADJP (RB (too))(JJ (convoluted)))(PP (IN (for))(NP (ADJP (NN (fun))(HYPH (-))(VBG (seeking)))(NN (summer))(NNS (audiences)))))))))(. (.)))) |ET| 
-3.6552442569115644352244209880354e-05  |BT| (ROOT (1 (1 (1 (2 (2 (1 (1 (1 (1 (2 (2 (2 (2 (The))(2 (narrator)))(2 (and)))(2 (2 (the))(2 (2 (other))(2 (characters)))))(2 (2 (try))(1 (2 (to))(2 (2 (2 (convince))(3 (us)))(3 (2 (that))(2 (2 (2 (acting))(2 (transfigures)))(2 (Esther))))))))(2 (,)))(2 (but)))(2 (2 (she))(2 (2 (2 ('s))(2 (never)))(2 (2 (seen))(2 (2 (speaking))(2 (2 (on))(2 (stage))))))))(2 (;)))(1 (2 (one))(1 (2 (feels))(1 (cheated)))))(2 (,)))(2 (and)))(1 (2 (Esther))(1 (2 (seems))(1 (2 (to))(1 (2 (remain))(1 (2 (an))(1 (2 (unchanged))(1 (dullard)))))))))(2 (.))) |BT| (ROOT (S (S (NP (NP (DT (The))(NN (narrator)))(CC (and))(NP (DT (the))(JJ (other))(NNS (characters))))(VP (VBP (try))(S (VP (TO (to))(VP (VB (convince))(NP (PRP (us)))(SBAR (IN (that))(S (NP (VBG (acting)))(VP (VBZ (transfigures))(NP (NNP (Esther)))))))))))(, (,))(CC (but))(S (NP (PRP (she)))(VP (VBZ ('s))(ADVP (RB (never)))(VP (VBN (seen))(S (VP (VBG (speaking))(PP (IN (on))(NP (NN (stage)))))))))(: (;))(S (NP (CD (one)))(VP (VBZ (feels))(VP (VBN (cheated)))))(, (,))(CC (and))(S (NP (NNP (Esther)))(VP (VBZ (seems))(S (VP (TO (to))(VP (VB (remain))(NP (DT (an))(ADJP (JJ (unchanged)))(NN (dullard))))))))(. (.)))) |ET| 
-0.049504416196302809816121026642577  |BT| (ROOT (2 (Yet))(3 (2 (2 (the))(2 (act)))(3 (4 (3 (2 (is))(3 (2 (still))(4 (charming))))(2 (here)))(2 (.))))) |BT| (ROOT (S (CC (Yet))(NP (DT (the))(NN (act)))(VP (VBZ (is))(ADJP (RB (still))(JJ (charming)))(ADVP (RB (here))))(. (.)))) |ET| 
-0.019182903553644919253384770740922  |BT| (ROOT (3 (2 (Part))(3 (2 (of))(4 (2 (2 (the))(3 (charm)))(2 (2 (of))(2 (2 (Satin))(2 (Rouge)))))))(3 (3 (2 (is))(3 (2 (that))(3 (2 (it))(2 (1 (2 (avoids))(2 (2 (the))(1 (obvious))))(3 (2 (with))(3 (3 (3 (humour))(2 (and)))(2 (lightness))))))))(2 (.)))) |BT| (ROOT (S (NP (NP (NN (Part)))(PP (IN (of))(NP (NP (DT (the))(NN (charm)))(PP (IN (of))(NP (NNP (Satin))(NNP (Rouge)))))))(VP (VBZ (is))(SBAR (IN (that))(S (NP (PRP (it)))(VP (VBZ (avoids))(NP (DT (the))(JJ (obvious)))(PP (IN (with))(NP (NN (humour))(CC (and))(NN (lightness))))))))(. (.)))) |ET| 
0.049504416196302809816121026642577  |BT| (ROOT (4 (4 (2 (The))(4 (3 (gorgeously))(3 (2 (elaborate))(2 (continuation)))))(2 (2 (2 (of))(2 (``)))(2 (2 (The))(2 (2 (2 (Lord))(2 (2 (of))(2 (2 (the))(2 (Rings)))))(2 (2 (''))(2 (trilogy)))))))(2 (3 (2 (2 (is))(2 (2 (so))(2 (huge))))(2 (2 (that))(3 (2 (2 (2 (a))(2 (column)))(2 (2 (of))(2 (words))))(2 (2 (2 (2 (can))(1 (not)))(3 (adequately)))(2 (2 (describe))(2 (3 (2 (2 (co-writer\/director))(2 (2 (Peter))(3 (2 (Jackson))(2 ('s)))))(3 (2 (expanded))(2 (vision))))(2 (2 (of))(2 (2 (2 (J.R.R.))(2 (2 (Tolkien))(2 ('s))))(2 (Middle-earth))))))))))(2 (.)))) |BT| (ROOT (S (NP (NP (DT (The))(ADJP (RB (gorgeously))(JJ (elaborate)))(NN (continuation)))(PP (IN (of))(`` (``))(NP (NP (DT (The))(NNP (Lord)))(PP (IN (of))(NP (DT (the))(NNPS (Rings))('' (''))(NN (trilogy)))))))(VP (VBZ (is))(ADJP (RB (so))(JJ (huge)))(SBAR (IN (that))(S (NP (NP (DT (a))(NN (column)))(PP (IN (of))(NP (NNS (words)))))(VP (MD (can))(RB (not))(ADVP (RB (adequately)))(VP (VB (describe))(NP (NP (NP (NML (NN (co))(HYPH (-))(NN (writer\))(HYPH (/))(NN (director)))(NNP (Peter))(NNP (Jackson))(POS ('s)))(VBN (expanded))(NN (vision)))(PP (IN (of))(NP (NP (NNP (J.R.R.))(NNP (Tolkien))(POS ('s)))(NML (NNP (Middle))(HYPH (-))(NN (earth)))))))))))(. (.)))) |ET| 
0.049504416196302809816121026642577  |BT| (ROOT (2 (2 (Whether))(2 (2 (2 (2 (or))(1 (not)))(3 (2 (you))(2 (2 ('re))(3 (3 (enlightened))(2 (2 (by))(2 (2 (any))(2 (2 (of))(2 (2 (Derrida))(2 ('s))))))))))(2 (2 (lectures))(2 (2 (on))(2 (2 (``))(2 (2 (2 (2 (2 (2 (the))(2 (other)))(2 ('')))(2 (and)))(2 (``)))(2 (2 (the))(2 (self)))))))))(3 (2 (,))(3 (2 (''))(3 (2 (Derrida))(3 (3 (2 (is))(4 (2 (an))(4 (4 (2 (undeniably))(3 (4 (3 (fascinating))(2 (and)))(4 (playful))))(2 (fellow)))))(2 (.))))))) |BT| (ROOT (S (SBAR (IN (Whether))(CC (or))(RB (not))(S (NP (PRP (you)))(VP (VBP ('re))(VP (VBN (enlightened))(PP (IN (by))(NP (NP (DT (any)))(PP (IN (of))(NP (NP (NNP (Derrida))(POS ('s)))(NNS (lectures))))))(PP (IN (on))(NP (`` (``))(NP (DT (the))(JJ (other)))('' (''))(CC (and))(`` (``))(NP (DT (the))(NN (self)))))))))(, (,))('' (''))(NP (NNP (Derrida)))(VP (VBZ (is))(NP (DT (an))(ADJP (RB (undeniably))(JJ (fascinating))(CC (and))(JJ (playful)))(NN (fellow))))(. (.)))) |ET| 
0.049504416196302809816121026642577  |BT| (ROOT (3 (2 (2 (Just))(2 (2 (the))(2 (labour))))(3 (2 (involved))(3 (2 (in))(4 (2 (creating))(3 (3 (2 (the))(3 (3 (layered))(2 (richness))))(3 (2 (of))(3 (2 (2 (the))(2 (imagery)))(2 (2 (in))(3 (2 (2 (this))(2 (chiaroscuro)))(2 (2 (of))(2 (2 (2 (madness))(2 (and)))(2 (light)))))))))))))(3 (3 (2 (is))(4 (astonishing)))(2 (.)))) |BT| (ROOT (S (NP (NP (RB (Just))(DT (the))(NN (labour)))(VP (VBN (involved))(PP (IN (in))(S (VP (VBG (creating))(NP (NP (DT (the))(ADJP (JJ (layered)))(NN (richness)))(PP (IN (of))(NP (NP (DT (the))(NN (imagery)))(PP (IN (in))(NP (NP (DT (this))(NN (chiaroscuro)))(PP (IN (of))(NP (NN (madness))(CC (and))(NN (light))))))))))))))(VP (VBZ (is))(ADJP (JJ (astonishing))))(. (.)))) |ET| 
0.049504416196302809816121026642577  |BT| (ROOT (2 (2 (a))(2 (2 (screenplay))(2 (more))))(3 (4 (ingeniously))(2 (2 (constructed))(2 (2 (2 (2 (than))(2 (``)))(2 (Memento)))(2 ('')))))) |BT| (ROOT (S (NP (NP (DT (a))(NN (screenplay)))(ADVP (RBR (more))))(ADJP (RB (ingeniously))(VBN (constructed))(PP (IN (than))(`` (``))(NP (NNP (Memento)))('' ('')))))) |ET| 
0.049504416196302809816121026642577  |BT| (ROOT (3 (3 (Good))(4 (fun)))(4 (2 (,))(4 (4 (4 (4 (4 (4 (4 (4 (4 (3 (3 (good))(2 (action)))(2 (,)))(3 (3 (good))(2 (acting))))(2 (,)))(3 (3 (good))(2 (dialogue))))(2 (,)))(4 (3 (good))(2 (pace))))(2 (,)))(3 (3 (good))(2 (cinematography))))(2 (.))))) |BT| (ROOT (FRAG (NP (JJ (Good))(NN (fun)))(, (,))(NP (JJ (good))(NN (action)))(, (,))(NP (JJ (good))(NN (acting)))(, (,))(NP (JJ (good))(NN (dialogue)))(, (,))(NP (JJ (good))(NN (pace)))(, (,))(NP (JJ (good))(NN (cinematography)))(. (.)))) |ET| 
-0.003763273915191914578692866655274  |BT| (ROOT (2 (3 (3 (3 (2 (2 (With))(1 (2 (2 (2 (2 (2 (2 (an))(2 (2 (unusual))(1 (protagonist))))(1 (-LRB-)))(2 (2 (a))(1 (2 (kilt-wearing))(2 (Jackson)))))(3 (-RRB-)))(2 (and)))(2 (2 (subject))(2 (matter)))))(3 (2 (,))(3 (2 (2 (2 (2 (2 (the))(1 (improbable)))(2 (``)))(2 (2 (Formula))(2 (51))))(2 ('')))(3 (2 (is))(2 (2 (somewhat))(4 (entertaining)))))))(2 (,)))(2 (but)))(2 (2 (it))(1 (2 (could))(2 (2 (have))(2 (2 (been))(3 (2 (much))(3 (stronger))))))))(2 (.))) |BT| (ROOT (S (S (SBAR (IN (With))(S (NP (DT (an))(JJ (unusual))(NN (protagonist)))(VP (VBZ (-LRB-))(NP (NP (ADJP (NP (DT (a))(NN (kilt)))(HYPH (-))(VBG (wearing)))(NNP (Jackson))(NNP (-RRB-)))(CC (and))(NP (ADJP (JJ (subject)))(NN (matter)))))))(, (,))(NP (DT (the))(JJ (improbable))(`` (``))(NML (NNP (Formula))(CD (51)))('' ('')))(VP (VBZ (is))(ADJP (RB (somewhat))(JJ (entertaining)))))(, (,))(CC (but))(S (NP (PRP (it)))(VP (MD (could))(VP (VB (have))(VP (VBN (been))(ADJP (RB (much))(JJR (stronger)))))))(. (.)))) |ET| 
-0.022726778099454374854060390021004  |BT| (ROOT (2 (1 (2 (2 (The))(2 (star)))(2 (2 (who))(0 (3 (helped))(1 (1 (1 (0 (2 (2 (3 (3 (give))(2 (2 (a))(2 (spark))))(2 (2 (to))(2 (2 (``))(2 (2 (2 (2 (2 (2 (Chasing))(2 (Amy)))(2 ('')))(2 (and)))(2 (``)))(2 (2 (Changing))(2 (Lanes)))))))(2 ('')))(0 (0 (1 (1 (falls))(1 (1 (flat))(2 (2 (as))(3 (2 (thinking))(2 (man))))))(2 (2 (CIA))(2 (2 (agent))(2 (2 (Jack))(2 (Ryan))))))(3 (2 (in))(2 (2 (2 (this))(2 (2 (summer))(2 ('s))))(2 (3 (new))(2 (2 (action))(2 (film))))))))(2 (,)))(2 (``)))(2 (2 (2 (The))(2 (Sum)))(2 (2 (of))(2 (2 (All))(1 (Fears)))))))))(2 (.)))(2 (''))) |BT| (ROOT (S (NP (NP (DT (The))(NN (star)))(SBAR (WHNP (WP (who)))(S (VP (VBD (helped))(S (VP (VB (give))(NP (DT (a))(NN (spark)))(S (VP (TO (to))))))(S (`` (``))(S (VP (VBG (Chasing))(NP (NNP (Amy)))))('' (''))(CC (and))(`` (``))(S (VP (VBG (Changing))(NP (NNPS (Lanes))))))))))('' (''))(VP (VBZ (falls))(ADJP (JJ (flat))(PP (IN (as))(S (VP (VBG (thinking))(NP (NN (man)))(S (NP (NML (NNP (CIA))(NN (agent)))(NNP (Jack))(NNP (Ryan))))(PP (IN (in))(NP (NP (NP (DT (this))(NN (summer))(POS ('s)))(JJ (new))(NN (action))(NN (film)))(, (,))(NP (NP (`` (``))(DT (The))(NNP (Sum)))(PP (IN (of))(NP (DT (All))(NNS (Fears))))))))))))(. (.))('' ('')))) |ET| 
-0.011506749781644830601945450609946  |BT| (ROOT (0 (2 (If))(1 (2 (you))(1 (2 (2 ('re))(2 (really)))(1 (3 (renting))(2 (2 (this))(1 (2 (you))(1 (2 (2 (2 ('re))(1 (not)))(2 (3 (interested))(2 (2 (in))(2 (discretion)))))(2 (2 (in))(3 (2 (your))(2 (3 (entertainment))(2 (choices))))))))))))(2 (2 (,))(2 (2 (you))(2 (2 (2 ('re))(4 (3 (interested))(2 (2 (in))(1 (2 (2 (2 (2 (2 (2 (Anne))(2 (Geddes)))(2 (,)))(2 (2 (John))(2 (Grisham))))(2 (,)))(2 (and)))(2 (2 (Thomas))(2 (Kincaid)))))))(2 (.)))))) |BT| (ROOT (S (SBAR (IN (If))(S (NP (PRP (you)))(VP (VBP ('re))(ADVP (RB (really)))(VP (VBG (renting))(NP (NP (DT (this)))(SBAR (S (NP (PRP (you)))(VP (VBP ('re))(RB (not))(ADJP (JJ (interested))(PP (IN (in))(NP (NP (NN (discretion)))(PP (IN (in))(NP (PRP$ (your))(NN (entertainment))(NNS (choices)))))))))))))))(, (,))(NP (PRP (you)))(VP (VBP ('re))(ADJP (JJ (interested))(PP (IN (in))(NP (NP (NNP (Anne))(NNP (Geddes)))(, (,))(NP (NNP (John))(NNP (Grisham)))(, (,))(CC (and))(NP (NNP (Thomas))(NNP (Kincaid)))))))(. (.)))) |ET| 
0.049504416196302809816121026642577  |BT| (ROOT (2 (I))(1 (2 (2 (2 (am))(2 (2 (highly))(2 (3 (3 (amused))(2 (2 (by))(2 (2 (the))(2 (idea)))))(2 (2 (that))(2 (2 (we))(2 (2 (have))(2 (2 (come))(2 (2 (to))(2 (2 (2 (a))(2 (point)))(2 (2 (in))(2 (society))))))))))))(2 (2 (where))(3 (2 (it))(2 (2 (has))(3 (2 (been))(3 (2 (deemed))(2 (2 (2 (important))(2 (enough)))(1 (2 (to))(1 (2 (make))(2 (2 (2 (a))(2 (film)))(2 (2 (2 (in))(2 (which)))(2 (2 (someone))(2 (2 (has))(2 (2 (to))(2 (2 (be))(2 (2 (hired))(2 (2 (to))(2 (2 (portray))(2 (2 (Richard))(2 (Dawson)))))))))))))))))))))(2 (.)))) |BT| (ROOT (S (NP (PRP (I)))(VP (VBP (am))(ADJP (RB (highly))(JJ (amused))(PP (IN (by))(NP (DT (the))(NN (idea)))))(SBAR (IN (that))(S (NP (PRP (we)))(VP (VBP (have))(VP (VBN (come))(PP (IN (to))(NP (NP (DT (a))(NN (point)))(PP (IN (in))(NP (NN (society))))))(SBAR (WHADVP (WRB (where)))(S (NP (PRP (it)))(VP (VBZ (has))(VP (VBN (been))(VP (VBN (deemed))(NP (ADJP (JJ (important))(JJ (enough))))(S (VP (TO (to))(VP (VB (make))(NP (NP (DT (a))(NN (film)))(SBAR (WHPP (IN (in))(WHNP (WDT (which))))(S (NP (NN (someone)))(VP (VBZ (has))(S (VP (TO (to))(VP (VB (be))(VP (VBN (hired))(S (VP (TO (to))(VP (VB (portray))(NP (NNP (Richard))(NNP (Dawson)))))))))))))))))))))))))))(. (.)))) |ET| 
0.049504416196302809816121026642577  |BT| (ROOT (2 (It))(4 (3 (2 (cuts))(3 (3 (3 (3 (2 (3 (2 (2 (to))(2 (2 (2 (the))(2 (core)))(3 (2 (of))(2 (2 (what))(2 (2 (it))(3 (2 (actually))(3 (2 (means))(2 (2 (to))(2 (2 (face))(2 (2 (your))(1 (fears))))))))))))(2 (2 (,))(2 (2 (to))(2 (2 (be))(2 (2 (2 (a))(2 (girl)))(2 (2 (in))(2 (2 (2 (a))(2 (world)))(2 (2 (of))(2 (boys))))))))))(2 (,)))(3 (2 (to))(2 (2 (2 (be))(2 (2 (a))(2 (boy))))(3 (3 (truly))(3 (2 (in))(2 (4 (love))(2 (2 (with))(2 (2 (a))(2 (girl))))))))))(2 (,)))(2 (and)))(3 (2 (to))(3 (2 (ride))(3 (2 (2 (the))(2 (2 (big))(2 (2 (metaphorical))(2 (wave)))))(2 (2 (that))(2 (2 (2 (2 (is))(3 (life)))(2 (--)))(2 (2 (wherever))(2 (2 (it))(2 (2 (takes))(2 (you))))))))))))(2 (.)))) |BT| (ROOT (S (NP (PRP (It)))(VP (VBZ (cuts))(PP (IN (to))(NP (NP (DT (the))(NN (core)))(PP (IN (of))(SBAR (WHNP (WP (what)))(S (NP (PRP (it)))(ADVP (RB (actually)))(VP (VBZ (means))(S (VP (VP (TO (to))(VP (VB (face))(NP (PRP$ (your))(NNS (fears)))))(, (,))(VP (TO (to))(VP (VB (be))(NP (NP (DT (a))(NN (girl)))(PP (IN (in))(NP (NP (DT (a))(NN (world)))(PP (IN (of))(NP (NNS (boys)))))))))(, (,))(VP (TO (to))(VP (VB (be))(NP (NP (DT (a))(NN (boy)))(PP (ADVP (RB (truly)))(IN (in))(NP (NP (NN (love)))(PP (IN (with))(NP (DT (a))(NN (girl)))))))))(, (,))(CC (and))(VP (TO (to))(VP (VB (ride))(NP (NP (DT (the))(JJ (big))(JJ (metaphorical))(NN (wave)))(SBAR (WHNP (WDT (that)))(S (VP (VBZ (is))(NP (NN (life)))(: (--))(SBAR (WHADVP (WRB (wherever)))(S (NP (PRP (it)))(VP (VBZ (takes))(NP (PRP (you)))))))))))))))))))))(. (.)))) |ET| 
0.049504416196302809816121026642577  |BT| (ROOT (3 (2 (That))(3 (2 (2 (the))(2 (3 (real))(2 (2 (Antwone))(2 (Fisher)))))(3 (2 (was))(4 (3 (able))(3 (2 (to))(3 (3 (2 (2 (overcome))(3 (2 (his))(2 (3 (personal))(1 (obstacles)))))(2 (and)))(2 (2 (become))(2 (2 (a))(3 (3 (good))(2 (man)))))))))))(3 (3 (3 (3 (2 (is))(4 (2 (a))(4 (3 (wonderful))(2 (thing)))))(2 (;)))(4 (2 (that))(4 (2 (he))(2 (2 (has))(3 (2 (been))(4 (3 (able))(3 (2 (to))(3 (3 (share))(3 (2 (2 (his))(2 (story)))(3 (3 (2 (so))(3 (compellingly)))(3 (2 (with))(3 (3 (us))(2 (2 (is))(3 (2 (a))(3 (2 (minor))(3 (miracle)))))))))))))))))(2 (.)))) |BT| (ROOT (S (SBAR (IN (That))(S (NP (DT (the))(JJ (real))(NNP (Antwone))(NNP (Fisher)))(VP (VBD (was))(ADJP (JJ (able))(S (VP (TO (to))(VP (VP (VB (overcome))(NP (PRP$ (his))(JJ (personal))(NNS (obstacles))))(CC (and))(VP (VB (become))(NP (DT (a))(JJ (good))(NN (man)))))))))))(VP (VBZ (is))(NP (DT (a))(JJ (wonderful))(NN (thing)))(: (;))(SBAR (IN (that))(S (NP (PRP (he)))(VP (VBZ (has))(VP (VBN (been))(ADJP (JJ (able))(S (VP (TO (to))(VP (VB (share))(NP (PRP$ (his))(NN (story)))(ADVP (RB (so)))))))(SBAR (ADVP (RB (compellingly)))(IN (with))(S (NP (PRP (us)))(VP (VBZ (is))(NP (DT (a))(JJ (minor))(NN (miracle)))))))))))(. (.)))) |ET| 
-0.02651737055471378723403574895201  |BT| (ROOT (3 (3 (3 (3 (2 (This))(3 (2 (is))(3 (3 (2 (a))(3 (3 (2 (very))(3 (ambitious)))(2 (project))))(1 (2 (for))(1 (2 (a))(2 (2 (2 (fairly))(1 (inexperienced)))(2 (filmmaker))))))))(2 (,)))(2 (but)))(3 (4 (4 (3 (3 (3 (3 (good))(2 (actors)))(2 (,)))(3 (3 (good))(3 (poetry))))(2 (and)))(3 (3 (good))(2 (music))))(3 (2 (help))(2 (2 (sustain))(2 (it))))))(2 (.))) |BT| (ROOT (S (S (NP (DT (This)))(VP (VBZ (is))(NP (NP (DT (a))(ADJP (RB (very))(JJ (ambitious)))(NN (project)))(PP (IN (for))(NP (DT (a))(ADJP (RB (fairly))(JJ (inexperienced)))(NN (filmmaker)))))))(, (,))(CC (but))(S (NP (NP (JJ (good))(NNS (actors)))(, (,))(NP (JJ (good))(NN (poetry)))(CC (and))(NP (JJ (good))(NN (music))(NN (help))))(VP (VB (sustain))(NP (PRP (it)))))(. (.)))) |ET| 
0.049504416196302809816121026642577  |BT| (ROOT (3 (2 (A))(3 (4 (3 (3 (3 (genuinely))(3 (moving)))(2 (and)))(2 (3 (wisely))(1 (unsentimental))))(1 (drama))))(2 (.))) |BT| (ROOT (S (NP (DT (A))(ADJP (ADJP (RB (genuinely))(VBG (moving)))(CC (and))(ADJP (ADVP (RB (wisely)))(JJ (unsentimental))))(NN (drama)))(. (.)))) |ET| 
-0.015345990806348292281868772590769  |BT| (ROOT (2 (This))(0 (2 (1 (1 (2 (is))(1 (2 (a))(1 (1 (fragmented))(2 (film)))))(2 (,)))(1 (2 (once))(1 (2 (3 (2 (a))(3 (3 (good))(2 (idea))))(1 (2 (that))(1 (2 (was))(1 (2 (followed))(2 (2 (by))(2 (2 (the))(0 (0 (bad))(2 (idea)))))))))(2 (2 (to))(2 (2 (2 (turn))(2 (it)))(2 (2 (into))(2 (2 (a))(2 (movie)))))))))(2 (.)))) |BT| (ROOT (S (NP (DT (This)))(VP (VBZ (is))(NP (DT (a))(ADJP (JJ (fragmented)))(NN (film)))(, (,))(SBAR (IN (once))(S (NP (NP (DT (a))(JJ (good))(NN (idea)))(SBAR (WHNP (WDT (that)))(S (VP (VBD (was))(VP (VBN (followed))(PP (IN (by))(NP (DT (the))(JJ (bad))(NN (idea)))))))))(VP (TO (to))(VP (VB (turn))(NP (PRP (it)))(PP (IN (into))(NP (DT (a))(NN (movie)))))))))(. (.)))) |ET| 
0.049504416196302809816121026642577  |BT| (ROOT (3 (2 (If))(2 (2 (you))(3 (2 ('re))(3 (2 (1 (2 (looking))(3 (2 (for))(3 (2 (something))(3 (new)))))(2 (and)))(2 (2 (hoping))(3 (2 (for))(3 (2 (something))(4 (entertaining)))))))))(3 (2 (,))(3 (2 (you))(3 (3 (2 ('re))(3 (2 (in))(2 (luck))))(2 (.)))))) |BT| (ROOT (S (SBAR (IN (If))(S (NP (PRP (you)))(VP (VBP ('re))(VP (VP (VBG (looking))(PP (IN (for))(NP (NN (something))(JJ (new)))))(CC (and))(VP (VBG (hoping))(PP (IN (for))(NP (NP (NN (something)))(ADJP (JJ (entertaining))))))))))(, (,))(NP (PRP (you)))(VP (VBP ('re))(PP (IN (in))(NP (NN (luck)))))(. (.)))) |ET| 
0.049504416196302809816121026642577  |BT| (ROOT (4 (4 (4 (2 (A))(3 (3 (2 (much))(4 (better)))(2 (documentary))))(4 (2 (--))(3 (4 (3 (3 (2 (2 (2 (more))(2 (revealing)))(2 (,)))(3 (2 (more))(2 (emotional))))(2 (and)))(2 (2 (more))(2 (surprising))))(2 (--)))))(2 (2 (than))(2 (2 (its))(2 (3 (pedestrian))(2 (2 (English))(2 (title)))))))(2 (2 (2 (would))(2 (2 (have))(2 (2 (you))(2 (believe)))))(2 (.)))) |BT| (ROOT (S (NP (NP (NP (DT (A))(ADJP (RB (much))(JJR (better)))(NN (documentary)))(: (--))(ADJP (ADJP (RBR (more))(JJ (revealing)))(, (,))(ADJP (RBR (more))(JJ (emotional)))(CC (and))(ADJP (RBR (more))(JJ (surprising))))(: (--)))(PP (IN (than))(NP (PRP$ (its))(NML (NML (NN (pedestrian)))(NNP (English)))(NN (title)))))(VP (MD (would))(VP (VB (have))(S (NP (PRP (you)))(VP (VB (believe))))))(. (.)))) |ET| 
0.049504416196302809816121026642577  |BT| (ROOT (2 (I))(3 (4 (0 (1 (2 (walked))(2 (away)))(2 (2 (from))(2 (2 (2 (this))(2 (3 (new))(2 (version))))(2 (2 (of))(2 (E.T.))))))(3 (2 (just))(2 (2 (as))(2 (2 (I))(3 (2 (hoped))(2 (2 (I))(3 (2 (2 (would))(2 (--)))(2 (2 (with))(2 (2 (moist))(2 (eyes)))))))))))(2 (.)))) |BT| (ROOT (S (NP (PRP (I)))(VP (VBD (walked))(ADVP (RB (away)))(PP (IN (from))(NP (NP (DT (this))(JJ (new))(NN (version)))(PP (IN (of))(NP (NNP (E.T.))))))(SBAR (RB (just))(IN (as))(S (NP (PRP (I)))(VP (VBD (hoped))(SBAR (S (NP (PRP (I)))(VP (MD (would))(VP (: (--))(PP (IN (with))(NP (ADJP (JJ (moist)))(NNS (eyes))))))))))))(. (.)))) |ET| 
-0.020153499965714749553313822616474  |BT| (ROOT (2 (3 (3 (2 (2 (The))(2 (action)))(3 (2 (is))(3 (2 (reasonably))(3 (well-done)))))(2 (...)))(0 (2 (yet))(1 (3 (2 (story))(3 (2 (,))(2 (2 (character))(3 (2 (and))(2 (3 (comedy))(2 (bits)))))))(0 (2 (are))(1 (2 (too))(2 (2 (ragged))(2 (2 (to))(3 (2 (ever))(3 (3 (3 (fit))(3 (smoothly)))(2 (together)))))))))))(2 (.))) |BT| (ROOT (S (S (NP (DT (The))(NN (action)))(VP (VBZ (is))(ADJP (RB (reasonably))(RB (well))(HYPH (-))(VBN (done)))))(: (...))(CC (yet))(S (NP (NN (story))(, (,))(NN (character))(CC (and))(NN (comedy))(NNS (bits)))(VP (VBP (are))(ADJP (RB (too))(JJ (ragged))(S (VP (TO (to))(VP (ADVP (RB (ever)))(VB (fit))(ADVP (RB (smoothly)))(ADVP (RB (together)))))))))(. (.)))) |ET| 
-0.039813353120409740448781832355962  |BT| (ROOT (0 (1 (1 (2 (I))(1 (2 (was))(1 (2 (trying))(0 (2 (to))(1 (2 (decide))(1 (2 (what))(1 (1 (annoyed))(2 (3 (me))(2 (2 (2 (most))(2 (2 (about))(2 (God))))(3 (2 (is))(4 (Great))))))))))))(2 (...)))(1 (2 (2 (2 (1 (2 (I))(2 (2 ('m))(2 (Not))))(2 (,)))(2 (and)))(2 (then)))(1 (2 (I))(1 (2 (realized))(1 (2 (that))(1 (2 (I))(1 (2 (just))(1 (2 (2 (did))(2 (n't)))(3 (care))))))))))(2 (.))) |BT| (ROOT (S (S (NP (PRP (I)))(VP (VBD (was))(VP (VBG (trying))(S (VP (TO (to))(VP (VB (decide))(SBAR (WHNP (WP (what)))(S (VP (VBD (annoyed))(SBAR (S (NP (PRP (me)))(ADVP (RBS (most))(PP (IN (about))(NP (NNP (God)))))(VP (VBZ (is))(ADJP (JJ (Great)))))))))))))))(, (...))(S (NP (PRP (I)))(VP (VBP ('m))(RB (Not))))(, (,))(CC (and))(S (ADVP (RB (then)))(NP (PRP (I)))(VP (VBD (realized))(SBAR (IN (that))(S (NP (PRP (I)))(ADVP (RB (just)))(VP (VBD (did))(RB (n't))(VP (VB (care))))))))(. (.)))) |ET| 
-0.049504416196302809816121026642577  |BT| (ROOT (0 (2 (If))(0 (2 (you))(0 (2 ('re))(1 (2 (2 (2 (the))(3 (kind)))(2 (2 (of))(2 (parent))))(1 (2 (who))(0 (3 (enjoys))(0 (2 (intentionally))(0 (2 (2 (introducing))(3 (2 (your))(2 (kids))))(1 (2 (to))(1 (2 (films))(1 (2 (which))(0 (2 (will))(0 (1 (2 (cause))(1 (2 (loads))(1 (2 (of))(2 (1 (irreparable))(1 (damage))))))(1 (2 (that))(0 (2 (2 (2 (2 (years))(2 (and)))(2 (years)))(2 (2 (of))(2 (2 (costly))(2 (analysis)))))(2 (2 (2 (could))(2 (never)))(2 (fix))))))))))))))))))(2 (2 (,))(2 (2 (I))(2 (2 (have))(2 (2 (2 (2 (2 (just))(2 (2 (one))(2 (word))))(2 (2 (2 (for))(2 (you)))(2 (-))))(2 (--)))(2 (Decasia))))))) |BT| (ROOT (S (SBAR (IN (If))(S (NP (PRP (you)))(VP (VBP ('re))(NP (NP (DT (the))(NN (kind)))(PP (IN (of))(NP (NP (NN (parent)))(SBAR (WHNP (WP (who)))(S (VP (VBZ (enjoys))(S (ADVP (RB (intentionally)))(VP (VBG (introducing))(NP (PRP$ (your))(NNS (kids)))(PP (IN (to))(NP (NP (NNS (films)))(SBAR (WHNP (WDT (which)))(S (VP (MD (will))(VP (VB (cause))(NP (NP (NNS (loads)))(PP (IN (of))(NP (NP (JJ (irreparable))(NN (damage)))(SBAR (WHNP (WDT (that)))(S (NP (NP (NNS (years))(CC (and))(NNS (years)))(PP (IN (of))(NP (JJ (costly))(NN (analysis)))))(VP (MD (could))(ADVP (RB (never)))(VP (VB (fix))))))))))))))))))))))))))(, (,))(NP (PRP (I)))(VP (VBP (have))(NP (NP (RB (just))(CD (one))(NN (word)))(PP (IN (for))(NP (ADJP (NP (PRP (you)))(HYPH (-))(: (--)))(NNP (Decasia)))))))) |ET| 
0.049504416196302809816121026642577  |BT| (ROOT (4 (2 (3 (3 (3 (3 (3 (2 (2 (This))(3 (2 (odd))(2 (2 (,))(3 (3 (poetic))(2 (1 (road))(2 (movie)))))))(2 (,)))(3 (2 (spiked))(2 (2 (by))(2 (2 (jolts))(2 (2 (of))(2 (2 (pop))(2 (music))))))))(2 (,)))(2 (2 (4 (pretty))(2 (much)))(3 (2 (takes))(2 (2 (place))(2 (2 (in))(2 (2 (2 (Morton))(2 ('s)))(2 (3 (ever-watchful))(2 (gaze)))))))))(2 (--)))(2 (and)))(4 (2 (it))(4 (3 (3 (2 ('s))(3 (3 (2 (a))(3 (tribute)))(3 (2 (2 (to))(2 (2 (the))(2 (actress))))(3 (3 (2 (,))(2 (and)))(3 (2 (to))(3 (2 (her))(4 (3 (inventive))(2 (director)))))))))(2 (,)))(4 (2 (that))(4 (2 (2 (the))(2 (journey)))(3 (2 (is))(4 (2 (such))(4 (2 (a))(4 (4 (mesmerizing))(2 (one)))))))))))(2 (.))) |BT| (ROOT (S (S (NP (NP (DT (This))(JJ (odd))(, (,))(JJ (poetic))(NN (road))(NN (movie)))(, (,))(VP (VBN (spiked))(PP (IN (by))(NP (NP (NNS (jolts)))(PP (IN (of))(NP (NN (pop))(NN (music)))))))(, (,)))(ADVP (RB (pretty))(RB (much)))(VP (VBZ (takes))(NP (NP (NN (place)))(PP (IN (in))(NP (NP (NNP (Morton))(POS ('s)))(ADJP (RB (ever))(HYPH (-))(JJ (watchful)))(NN (gaze)))))))(: (--))(CC (and))(S (NP (PRP (it)))(VP (VBZ ('s))(NP (NP (DT (a))(NN (tribute)))(PP (PP (IN (to))(NP (DT (the))(NN (actress))))(, (,))(CC (and))(PP (IN (to))(NP (PRP$ (her))(JJ (inventive))(NN (director))))))(, (,))(SBAR (IN (that))(S (NP (DT (the))(NN (journey)))(VP (VBZ (is))(NP (PDT (such))(DT (a))(JJ (mesmerizing))(NN (one))))))))(. (.)))) |ET| 
0.045327577537493675408075688437748  |BT| (ROOT (3 (2 (A))(3 (rollicking)))(4 (4 (3 (2 (2 (ride))(2 (,)))(4 (2 (with))(4 (4 (4 (4 (4 (4 (4 (4 (4 (3 (4 (3 (jaw-dropping))(2 (2 (action))(2 (sequences))))(2 (,)))(3 (3 (striking))(1 (villains))))(2 (,)))(4 (2 (a))(3 (3 (gorgeous))(2 (2 (color))(2 (palette))))))(2 (,)))(2 (3 (astounding))(2 (technology))))(2 (,)))(3 (3 (stirring))(2 (music))))(2 (and)))(2 (2 (a))(3 (2 (boffo))(2 (2 (last))(2 (hour))))))))(3 (2 (that))(3 (2 (2 (leads))(2 (up)))(3 (2 (to))(3 (2 (a))(3 (1 (strangely))(3 (1 (sinister))(3 (4 (happy))(2 (ending))))))))))(2 (.)))) |BT| (ROOT (NP (NP (DT (A))(JJ (rollicking))(NN (ride))(, (,)))(PP (IN (with))(NP (ADJP (NN (jaw))(HYPH (-))(VBG (dropping)))(NN (action))(NNS (sequences))))(, (,))(NP (VBG (striking))(NNS (villains)))(, (,))(NP (NP (DT (a))(JJ (gorgeous))(NN (color))(NN (palette)))(, (,))(NP (ADJP (JJ (astounding)))(NN (technology))))(, (,))(VP (VBG (stirring))(NP (NP (NP (NN (music)))(CC (and))(NP (DT (a))(JJ (boffo))(JJ (last))(NN (hour))))(SBAR (WHNP (WDT (that)))(S (VP (VBZ (leads))(PRT (RP (up)))(PP (IN (to))(NP (DT (a))(ADJP (RB (strangely))(JJ (sinister)))(JJ (happy))(NN (ending)))))))))(. (.)))) |ET| 
0.049504416196302809816121026642577  |BT| (ROOT (4 (3 (3 (3 (Funny))(2 (,)))(2 (1 (1 (1 (2 (somber))(1 (2 (,))(1 (1 (absurd))(2 (,)))))(2 (and)))(2 (2 (,))(2 (2 (finally))(2 (,)))))(1 (2 (achingly))(1 (sad)))))(2 (,)))(3 (2 (Bartleby))(3 (2 (2 (is))(4 (2 (3 (2 (a))(3 (fine)))(2 (,)))(3 (3 (2 (understated))(2 (piece)))(2 (2 (of))(2 (filmmaking))))))(2 (.))))) |BT| (ROOT (S (NP (NP (NP (NP (JJ (Funny)))(, (,))(NP (JJ (somber))(, (,))(JJ (absurd)))(, (,)))(CC (and))(, (,))(ADVP (RB (finally)))(, (,))(ADJP (RB (achingly))(JJ (sad))))(, (,))(NP (NNP (Bartleby))))(VP (VBZ (is))(NP (NP (DT (a))(JJ (fine))(, (,))(VBN (understated))(NN (piece)))(PP (IN (of))(NP (NN (filmmaking))))))(. (.)))) |ET| 
0.049504416196302809816121026642577  |BT| (ROOT (4 (4 (2 (2 (2 (The))(2 (2 (two))(2 (leads))))(2 (,)))(4 (2 (nearly))(4 (4 (perfect))(2 (2 (in))(2 (2 (their))(2 (roles)))))))(2 (,)))(3 (3 (3 (bring))(4 (2 (2 (a))(2 (2 (2 (heart))(2 (and)))(2 (reality))))(3 (2 (that))(3 (2 (buoy))(4 (2 (2 (2 (2 (2 (2 (2 (the))(2 (film)))(2 (,)))(2 (and)))(2 (at)))(2 (times)))(2 (,)))(2 (2 (3 (elevate))(2 (it)))(3 (2 (to))(4 (2 (a))(3 (3 (superior))(2 (1 (crime))(2 (movie))))))))))))(2 (.)))) |BT| (ROOT (S (NP (NP (DT (The))(CD (two))(NNS (leads)))(, (,))(ADJP (RB (nearly))(JJ (perfect))(PP (IN (in))(NP (PRP$ (their))(NNS (roles)))))(, (,)))(VP (VP (VB (bring))(NP (NP (DT (a))(NN (heart))(CC (and))(NN (reality)))(SBAR (WHNP (WDT (that)))(S (VP (VBP (buoy))(NP (DT (the))(NN (film))))))))(, (,))(CC (and))(VP (PP (IN (at))(NP (NNS (times))))(, (,))(VB (elevate))(NP (PRP (it)))(PP (IN (to))(NP (DT (a))(JJ (superior))(NN (crime))(NN (movie))))))(. (.)))) |ET| 
-0.010771406041879308043696106267362  |BT| (ROOT (2 (2 (A))(2 (2 (3 (3 (3 (well-acted))(2 (,)))(2 (but)))(2 (one-note)))(2 (film))))(2 (.))) |BT| (ROOT (NP (NP (DT (A))(ADJP (RB (well))(HYPH (-))(VBN (acted))))(, (,))(PP (CC (but))(NP (NML (CD (one))(HYPH (-))(NN (note)))(NN (film))))(. (.)))) |ET| 
0.049504416196302809816121026642577  |BT| (ROOT (2 (2 (One))(2 (2 (of))(2 (2 (the))(2 (year)))))(2 (3 (2 (2 ('s))(2 (most)))(3 (1 (weirdly))(3 (4 (engaging))(2 (2 (and))(2 (2 (unpredictable))(2 (2 (character))(2 (pieces))))))))(2 (.)))) |BT| (ROOT (NP (NP (CD (One)))(PP (IN (of))(NP (NP (NP (DT (the))(NN (year))(POS ('s)))(ADJP (RBS (most))(ADJP (ADJP (RB (weirdly))(VBG (engaging)))(CC (and))(ADJP (JJ (unpredictable)))))(NN (character)))(NP (NNS (pieces)))))(. (.)))) |ET| 
0.049504416196302809816121026642577  |BT| (ROOT (4 (2 (This))(3 (2 (comic))(3 (gem))))(3 (4 (3 (2 (is))(3 (2 (as))(4 (delightful))))(2 (2 (as))(1 (2 (it))(1 (2 (is))(3 (derivative))))))(2 (.)))) |BT| (ROOT (S (NP (DT (This))(JJ (comic))(NN (gem)))(VP (VBZ (is))(ADJP (IN (as))(JJ (delightful)))(SBAR (IN (as))(S (NP (PRP (it)))(VP (VBZ (is))(NP (JJ (derivative)))))))(. (.)))) |ET| 
0.049504416196302809816121026642577  |BT| (ROOT (3 (2 (As))(3 (2 (2 (giddy))(2 (and)))(3 (3 (whimsical))(2 (2 (and))(3 (2 (relevant))(2 (today)))))))(2 (2 (2 (as))(2 (it)))(2 (2 (2 (was))(2 (2 (2 (270))(2 (years)))(2 (ago))))(2 (.))))) |BT| (ROOT (S (PP (IN (As))(ADJP (JJ (giddy))(CC (and))(JJ (whimsical))(CC (and))(JJ (relevant))))(NP-TMP (NN (today)))(PP (IN (as))(NP (PRP (it))))(VP (VBD (was))(ADVP (NP (CD (270))(NNS (years)))(RB (ago))))(. (.)))) |ET| 
0.049504416196302809816121026642577  |BT| (ROOT (2 (2 (Those))(2 (2 (who))(2 (1 (2 (are))(2 (n't)))(1 (2 (2 (put))(1 (off)))(2 (2 (by))(2 (2 (2 (the))(2 (2 (film))(2 ('s))))(2 (austerity))))))))(3 (3 (2 (will))(3 (2 (2 (find))(2 (it)))(3 (3 (2 (more))(2 (2 (than))(3 (capable))))(2 (2 (of))(2 (3 (rewarding))(2 (them)))))))(2 (.)))) |BT| (ROOT (S (NP (NP (DT (Those)))(SBAR (WHNP (WP (who)))(S (VP (VBP (are))(RB (n't))(VP (VB (put))(PRT (RP (off)))(PP (IN (by))(NP (NP (DT (the))(NN (film))(POS ('s)))(NN (austerity)))))))))(VP (MD (will))(VP (VB (find))(S (NP (PRP (it)))(ADJP (ADVP (JJR (more))(IN (than)))(JJ (capable))))(PP (IN (of))(S (VP (VBG (rewarding))(NP (PRP (them))))))))(. (.)))) |ET| 
-0.010013073718145096280274231048679  |BT| (ROOT (2 (2 (2 (Mark))(2 (2 (Pellington))(2 ('s))))(2 (2 (latest))(2 (2 (pop))(3 (thriller)))))(2 (2 (2 (is))(3 (2 (as))(3 (1 (2 (2 (kooky))(2 (and)))(1 (overeager)))(3 (2 (as))(3 (2 (it))(3 (3 (2 (is))(3 (2 (2 (spooky))(2 (and)))(2 (subtly))))(3 (2 (in))(2 (4 (love))(2 (2 (with))(2 (myth)))))))))))(2 (.)))) |BT| (ROOT (S (NP (NP (NNP (Mark))(NNP (Pellington))(POS ('s)))(JJS (latest))(NN (pop))(NN (thriller)))(VP (VBZ (is))(ADVP (IN (as)))(ADJP (JJ (kooky))(CC (and))(JJ (overeager)))(SBAR (IN (as))(S (NP (PRP (it)))(VP (VBZ (is))(UCP (ADJP (JJ (spooky)))(CC (and))(ADVP (RB (subtly))(PP (IN (in))(NP (NN (love)))))(PP (IN (with))(NP (NN (myth)))))))))(. (.)))) |ET| 
-0.00010467975973346085340458938572894  |BT| (ROOT (2 (2 (2 (Irwin))(2 (and)))(2 (2 (his))(2 (director))))(2 (1 (2 (never))(1 (2 (2 (come))(2 (up)))(1 (2 (with))(2 (2 (2 (an))(2 (2 (adequate))(2 (reason))))(2 (2 (why))(2 (2 (we))(1 (2 (should))(1 (2 (2 (pay))(2 (money)))(1 (2 (for))(2 (2 (what))(2 (2 (we))(1 (2 (can))(2 (3 (2 (get))(2 (2 (on))(2 (television))))(2 (2 (for))(3 (free))))))))))))))))(2 (.)))) |BT| (ROOT (S (NP (NP (NNP (Irwin)))(CC (and))(NP (PRP$ (his))(NN (director))))(ADVP (RB (never)))(VP (VB (come))(PRT (RP (up)))(PP (IN (with))(NP (DT (an))(JJ (adequate))(NN (reason))))(SBAR (WHADVP (WRB (why)))(S (NP (PRP (we)))(VP (MD (should))(VP (VB (pay))(NP (NN (money)))(PP (IN (for))(SBAR (WHNP (WP (what)))(S (NP (PRP (we)))(VP (MD (can))(VP (VB (get))(PP (IN (on))(NP (NN (television))))(PP (IN (for))(ADJP (JJ (free))))))))))))))(. (.)))) |ET| 
-0.0058894075153323715426934015226834  |BT| (ROOT (0 (2 (2 (3 (2 (1 (-LRB-))(2 (3 (Davis))(3 (-RRB-))))(2 (3 (wants))(2 (2 (to))(2 (2 (cause))(3 (2 (2 (his))(2 (audience)))(4 (2 (an))(3 (epiphany))))))))(2 (,)))(2 (yet)))(1 (2 (he))(2 (1 (refuses))(2 (2 (to))(3 (2 (3 (give))(3 (us)))(3 (3 (real))(2 (2 (2 (situations))(2 (and)))(2 (characters)))))))))(2 (.))) |BT| (ROOT (S (S (NP (JJ (-LRB-))(NNP (Davis))(NNP (-RRB-)))(VP (VBZ (wants))(S (VP (TO (to))(VP (VB (cause))(NP (PRP$ (his))(NN (audience)))(NP (DT (an))(NN (epiphany))))))))(, (,))(CC (yet))(S (NP (PRP (he)))(VP (VBZ (refuses))(S (VP (TO (to))(VP (VB (give))(NP (PRP (us)))(NP (JJ (real))(NNS (situations))(CC (and))(NNS (characters))))))))(. (.)))) |ET| 
0.049504416196302809816121026642577  |BT| (ROOT (4 (3 (2 (Combines))(4 (3 (3 (3 (4 (3 (3 (sharp))(3 (comedy)))(2 (,)))(2 (2 (old-fashioned))(2 (2 (monster))(2 (2 (movie))(2 (atmospherics))))))(2 (,)))(2 (and)))(3 (4 (genuine))(2 (heart)))))(3 (2 (to))(3 (2 (2 (3 (3 (3 (create))(3 (2 (2 (a))(2 (film)))(2 (2 (that))(2 (2 (2 (2 ('s))(1 (not)))(2 (merely)))(3 (2 (about))(1 (2 (kicking))(2 (2 (undead))(2 (\*\*\*)))))))))(2 (,)))(2 (but)))(2 (also)))(3 (2 (about))(2 (2 (dealing))(1 (2 (with))(3 (1 (1 (1 (regret))(2 (and)))(2 (2 (,))(2 (2 (ultimately))(2 (,)))))(2 (2 (finding))(3 (redemption))))))))))(2 (.))) |BT| (ROOT (S (VP (VBZ (Combines))(NP (NP (JJ (sharp))(NN (comedy)))(, (,))(NP (ADJP (JJ (old))(HYPH (-))(JJ (fashioned)))(NN (monster))(NN (movie))(NNS (atmospherics)))(, (,))(CC (and))(NP (JJ (genuine))(NN (heart))))(S (VP (TO (to))(VP (VP (VB (create))(NP (NP (DT (a))(NN (film)))(SBAR (WHNP (WDT (that)))(S (VP (VBZ ('s))(RB (not))(ADVP (RB (merely)))(PP (IN (about))(S (VP (VP (VBG (kicking))(NP (NN (undead))(SYM (\*\*\*))))(, (,))(CONJP (CC (but))(RB (also)))(ADVP (RB (about)))(VP (VBG (dealing))(PP (IN (with))(NP (NN (regret)))))))))))))(CC (and))(VP (, (,))(ADVP (RB (ultimately)))))))(, (,))(S (VP (VBG (finding))(NP (NN (redemption))))))(. (.)))) |ET| 
0.049504416196302809816121026642577  |BT| (ROOT (4 (4 (3 (4 (2 (There))(3 (1 (2 (are))(2 (n't)))(3 (1 (2 (too))(2 (2 (many))(2 (films))))(3 (2 (that))(2 (2 (can))(4 (4 (2 (be))(4 (4 (3 (3 (4 (2 (2 (as))(2 (simultaneously)))(3 (funny)))(2 (,)))(2 (offbeat)))(2 (and)))(3 (heartwarming))))(2 (1 (-LRB-))(2 (2 (2 (without))(2 (2 (2 (a))(2 (2 (thick))(2 (shmear))))(2 (2 (of))(2 (2 (1 (2 (the))(2 (goo)))(2 (,)))(2 (2 (at))(1 (least)))))))(3 (-RRB-))))))))))(2 (,)))(2 (but)))(4 (2 (``))(4 (2 (Elling))(4 (2 (''))(4 (2 (manages))(4 (2 (to))(4 (3 (3 (2 (2 (do))(2 (2 (all))(2 (three))))(2 (2 (quite))(3 (well))))(2 (,)))(4 (2 (making))(4 (2 (it))(4 (2 (one))(4 (2 (of))(3 (2 (2 (the))(2 (2 (year))(2 ('s))))(4 (4 (2 (most))(3 (enjoyable)))(2 (releases)))))))))))))))(2 (.))) |BT| (ROOT (S (S (NP (EX (There)))(VP (VBP (are))(RB (n't))(ADJP (RB (too))(ADJP (JJ (many))(NP (NP (NNS (films)))(SBAR (WHNP (WDT (that)))(S (VP (MD (can))(VP (VB (be))(SBAR (IN (as))(S (ADVP (RB (simultaneously)))(NP (NP (JJ (funny))(, (,))(JJ (offbeat)))(CC (and))(NP (JJ (heartwarming))(NN (-LRB-))))(PP (IN (without))(NP (NP (DT (a))(JJ (thick))(NN (shmear)))(PP (IN (of))(NP (DT (the))(NN (goo))))))))))))))(, (,))(ADJP (ADVP (IN (at))(RBS (least)))(JJ (-RRB-))))))(, (,))(CC (but))(S (`` (``))(NP (NNP (Elling)))('' (''))(VP (VBZ (manages))(S (VP (TO (to))(VP (VB (do))(NP (QP (DT (all))(CD (three))))(ADVP (RB (quite))(RB (well)))(, (,))(S (VP (VBG (making))(S (NP (PRP (it)))(NP (NP (CD (one)))(PP (IN (of))(NP (NP (DT (the))(NN (year))(POS ('s)))(ADJP (RBS (most))(JJ (enjoyable)))(NNS (releases)))))))))))))(. (.)))) |ET| 
0.049504416196302809816121026642577  |BT| (ROOT (2 (It))(4 (3 (2 (2 ('s))(2 (2 (2 (the))(3 (kind)))(2 (2 (of))(2 (movie)))))(2 (2 (that))(2 (2 (2 (,))(2 (2 (aside))(2 (2 (2 (from))(2 (2 (2 (2 (2 (2 (2 (2 (Robert))(2 (Altman)))(2 (,)))(2 (2 (Spike))(2 (Lee))))(2 (,)))(2 (2 (the))(3 (2 (Coen))(2 (Brothers)))))(2 (and)))(2 (2 (a))(2 (2 (few))(2 (others))))))(2 (,)))))(2 (3 (2 (our))(2 (moviemakers)))(2 (2 (2 (do))(2 (n't)))(2 (2 (make))(2 (2 (often))(2 (enough)))))))))(2 (.)))) |BT| (ROOT (S (NP (PRP (It)))(VP (VBZ ('s))(NP (NP (DT (the))(NN (kind)))(PP (IN (of))(NP (NP (NN (movie)))(SBAR (WHNP (WDT (that)))(, (,))(S (ADVP (RB (aside))(PP (IN (from))(NP (NP (NNP (Robert))(NNP (Altman)))(, (,))(NP (NNP (Spike))(NNP (Lee)))(, (,))(NP (DT (the))(NNP (Coen))(NNPS (Brothers)))(CC (and))(NP (NP (DT (a))(JJ (few))(NNS (others)))(, (,))(NP (PRP$ (our))(NNS (moviemakers)))))))(VP (VBP (do))(RB (n't))(VP (VB (make))(ADJP (RB (often))(JJ (enough)))))))))))(. (.)))) |ET| 
0.049504416196302809816121026642577  |BT| (ROOT (3 (2 (Miyazaki))(3 (2 (has))(4 (2 (created))(4 (2 (such))(4 (2 (a))(3 (3 (vibrant))(2 (2 (,))(3 (3 (colorful))(2 (world))))))))))(4 (2 (,))(4 (2 (it))(4 (4 (2 (2 ('s))(1 (2 (almost))(0 (impossible))))(3 (1 (not))(3 (2 (to))(3 (2 (be))(4 (4 (2 (swept))(2 (away)))(3 (2 (by))(3 (3 (2 (the))(3 (2 (sheer))(3 (beauty))))(2 (2 (of))(2 (2 (his))(2 (images)))))))))))(2 (.)))))) |BT| (ROOT (S (S (NP (NNP (Miyazaki)))(VP (VBZ (has))(VP (VBN (created))(NP (PDT (such))(DT (a))(JJ (vibrant))(, (,))(JJ (colorful))(NN (world))))))(, (,))(NP (PRP (it)))(VP (VBZ ('s))(ADJP (RB (almost))(JJ (impossible))(S (RB (not))(VP (TO (to))(VP (VB (be))(VP (VBN (swept))(ADVP (RB (away)))(PP (IN (by))(NP (NP (DT (the))(JJ (sheer))(NN (beauty)))(PP (IN (of))(NP (PRP$ (his))(NNS (images))))))))))))(. (.)))) |ET| 
-0.00072646626752765534971306715661399  |BT| (ROOT (1 (1 (2 (An))(1 (0 (unencouraging))(3 (2 (threefold))(2 (expansion)))))(2 (2 (on))(2 (2 (the))(2 (2 (former))(2 (2 (MTV))(2 (series)))))))(1 (2 (,))(1 (1 (1 (2 (accompanying))(1 (2 (the))(1 (2 (stunt-hungry))(0 (dimwits)))))(1 (2 (in))(1 (2 (2 (a))(2 (2 (random))(2 (series))))(2 (2 (of))(2 (2 (collected))(2 (2 (gags))(1 (2 (,))(2 (2 (pranks))(1 (2 (,))(2 (2 (pratfalls))(2 (2 (,))(2 (2 (dares))(2 (2 (,))(2 (2 (2 (injuries))(2 (,)))(2 (etc.))))))))))))))))(2 (.))))) |BT| (ROOT (S (NP (NP (DT (An))(JJ (unencouraging))(JJ (threefold))(NN (expansion)))(PP (IN (on))(NP (DT (the))(NML (JJ (former))(NNP (MTV)))(NN (series)))))(, (,))(S (VP (VBG (accompanying))(NP (ADJP (NP (DT (the))(NN (stunt)))(HYPH (-))(JJ (hungry)))(NNS (dimwits)))(PP (IN (in))(NP (NP (DT (a))(JJ (random))(NN (series)))(PP (IN (of))(S (VP (VBN (collected))(NP (NNS (gags))(, (,))(NNS (pranks))(, (,))(NNS (pratfalls))))))))))(, (,))(VP (VP (VBZ (dares)))(, (,))(NP (NP (NNS (injuries)))(, (,))(ADVP (FW (etc.)))))(. (.)))) |ET| 
-0.0075869751491117569386357644134478  |BT| (ROOT (2 (2 (The))(2 (movie)))(2 (2 (1 (strains))(2 (2 (to))(3 (2 (2 (2 (stay))(2 (2 (on))(3 (3 (2 (the))(2 (2 (light))(2 (2 (,))(2 (2 (comic))(2 (side))))))(2 (2 (of))(2 (2 (the))(2 (issue)))))))(2 (,)))(2 (2 (despite))(2 (2 (2 (the))(1 (difficulty)))(2 (2 (of))(2 (2 (doing))(2 (2 (so))(2 (2 (when))(3 (2 (2 (dealing))(3 (2 (2 (with))(1 (2 (2 (the))(1 (destruction)))(2 (2 (of))(2 (property)))))(3 (2 (and))(2 (2 (2 (,))(2 (2 (potentially))(2 (,))))(2 (2 (of))(3 (life)))))))(2 (itself))))))))))))(2 (.)))) |BT| (ROOT (S (NP (DT (The))(NN (movie))(NNS (strains)))(VP (TO (to))(VP (VB (stay))(PP (IN (on))(NP (NP (DT (the))(NN (light)))(, (,))(NP (NP (JJ (comic))(NN (side)))(PP (IN (of))(NP (DT (the))(NN (issue)))))(, (,))))(PP (IN (despite))(NP (NP (DT (the))(NN (difficulty)))(PP (IN (of))(S (VP (VBG (doing))(ADVP (RB (so)))(SBAR (WHADVP (WRB (when)))(S (VP (VBG (dealing))(PP (IN (with))(NP (NP (NP (DT (the))(NN (destruction)))(PP (IN (of))(NP (NN (property)))))(CC (and))(, (,))(ADVP (RB (potentially)))(, (,))(PP (IN (of))(NP (NN (life))))))(NP (PRP (itself)))))))))))))(. (.)))) |ET| 
0.049504416196302809816121026642577  |BT| (ROOT (4 (2 (This))(4 (3 (beautifully))(3 (2 (animated))(3 (epic)))))(2 (3 (2 (2 (is))(2 (never)))(0 (dull)))(2 (.)))) |BT| (ROOT (S (NP (DT (This)))(ADVP (RB (beautifully)))(NP (VBN (animated))(NN (epic)))(VP (VBZ (is))(ADVP (RB (never)))(ADJP (JJ (dull))))(. (.)))) |ET| 
0.049504416196302809816121026642577  |BT| (ROOT (4 (1 (0 (1 (Forget))(2 (2 (about))(3 (4 (2 (one))(3 (3 (Oscar))(2 (nomination))))(2 (2 (for))(2 (2 (2 (Julianne))(2 (Moore)))(2 (2 (this))(2 (year))))))))(2 (-)))(2 (2 (she))(3 (2 (should))(3 (2 (get))(2 (2 (all))(2 (five)))))))(2 (.))) |BT| (ROOT (S (S (VP (VB (Forget))(PP (IN (about))(NP (NP (CD (one))(NNP (Oscar))(NN (nomination)))(PP (IN (for))(NP (NNP (Julianne))(NNP (Moore))))))(NP (DT (this))(NN (year)))(HYPH (-))(NP (PRP (she)))))(VP (MD (should))(VP (VB (get))(NP (QP (DT (all))(CD (five))))))(. (.)))) |ET| 
0.049504416196302809816121026642577  |BT| (ROOT (2 (Begins))(3 (3 (2 (2 (2 (like))(2 (2 (a))(2 (docu-drama))))(2 (but)))(4 (3 (2 (builds))(2 (2 (its))(3 (2 (multi-character))(2 (story)))))(3 (2 (with))(3 (2 (a))(3 (flourish))))))(2 (.)))) |BT| (ROOT (S (VP (VP (VBZ (Begins))(PP (IN (like))(NP (DT (a))(NN (docu))(HYPH (-))(NN (drama)))))(CC (but))(VP (VBZ (builds))(NP (PRP$ (its))(JJ (multi-character))(NN (story)))(PP (IN (with))(NP (DT (a))(NML (S (VP (VB (flourish)))))))))(. (.)))) |ET| 
-0.021180609209308427776097261130417  |BT| (ROOT (2 (2 (Sunshine))(2 (State)))(3 (2 (2 (2 (2 (surveys))(2 (2 (the))(2 (landscape))))(2 (and)))(3 (2 (1 (assesses))(2 (2 (the))(2 (issues))))(3 (2 (with))(2 (2 (2 (a))(3 (2 (clear))(2 (passion))))(2 (2 (for))(2 (sociology)))))))(2 (.)))) |BT| (ROOT (S (NP (NNP (Sunshine))(NNP (State)))(VP (VP (VBZ (surveys))(NP (DT (the))(NN (landscape))))(CC (and))(VP (VBZ (assesses))(NP (DT (the))(NNS (issues)))(PP (IN (with))(NP (NP (DT (a))(JJ (clear))(NN (passion)))(PP (IN (for))(NP (NN (sociology))))))))(. (.)))) |ET| 
-0.022556951249710872203779743472296  |BT| (ROOT (2 (2 (2 (The))(2 (people)))(2 (2 (in))(2 (Jessica))))(2 (2 (2 (are))(3 (2 (so))(3 (3 (2 (3 (recognizable))(2 (and)))(3 (true)))(2 (2 (that))(2 (2 (2 (,))(2 (2 (2 (as))(2 (2 (in))(2 (3 (real))(3 (life)))))(2 (,))))(2 (2 (we))(2 (2 (2 ('re))(2 (never)))(2 (2 (sure))(2 (2 (how))(2 (2 (things))(2 (2 (will))(2 (2 (work))(1 (out))))))))))))))(2 (.)))) |BT| (ROOT (S (NP (NP (DT (The))(NNS (people)))(PP (IN (in))(NP (NNP (Jessica)))))(VP (VBP (are))(ADJP (RB (so))(JJ (recognizable))(CC (and))(JJ (true))(SBAR (IN (that))(S (, (,))(SBAR (IN (as))(FRAG (PP (IN (in))(NP (JJ (real))(NN (life))))))(, (,))(NP (PRP (we)))(VP (VBP ('re))(ADVP (RB (never)))(ADJP (JJ (sure)))))))(SBAR (WHADVP (WRB (how)))(S (NP (NNS (things)))(VP (MD (will))(VP (VB (work))(PRT (RP (out))))))))(. (.)))) |ET| 
0.049504416196302809816121026642577  |BT| (ROOT (4 (4 (2 (2 (Easily))(2 (one)))(4 (2 (of))(3 (2 (the))(4 (4 (4 (4 (best))(2 (and)))(4 (2 (most))(4 (exciting))))(2 (movies))))))(2 (2 (of))(2 (2 (the))(2 (year)))))(2 (.))) |BT| (ROOT (FRAG (ADVP (RB (Easily)))(NP (NP (CD (one)))(PP (IN (of))(NP (NP (DT (the))(ADJP (JJS (best))(CC (and))(RBS (most))(JJ (exciting)))(NNS (movies)))(PP (IN (of))(NP (DT (the))(NN (year)))))))(. (.)))) |ET| 
0.049504416196302809816121026642577  |BT| (ROOT (4 (2 (2 (wo))(2 (n't)))(3 (2 (be))(3 (3 (2 (placed))(4 (2 (in))(4 (2 (2 (the))(2 (pantheon)))(3 (2 (of))(3 (4 (2 (the))(4 (best)))(2 (2 (of))(2 (2 (the))(2 (swashbucklers)))))))))(4 (2 (but))(4 (4 (4 (2 (it))(4 (2 (is))(4 (3 (2 (a))(2 (2 (whole))(2 (lot))))(3 (2 (of))(4 (fun))))))(2 (and)))(4 (2 (you))(3 (2 (get))(4 (2 (to))(2 (2 (see))(4 (2 (2 (the))(2 (one)))(3 (2 (of))(3 (4 (4 (4 (2 (2 (the))(2 (2 (world))(2 ('s))))(3 (4 (best))(2 (actors))))(2 (,)))(2 (2 (Daniel))(2 (Auteuil))))(2 (,))))))))))))))(3 (3 (2 (have))(3 (2 (2 (a))(2 (whale)))(3 (2 (of))(3 (2 (a))(3 (3 (good))(2 (time)))))))(2 (.)))) |BT| (ROOT (S (S (S (VP (MD (wo))(RB (n't))(VP (VB (be))(VP (VBN (placed))(PP (IN (in))(NP (NP (DT (the))(NN (pantheon)))(PP (IN (of))(NP (NP (DT (the))(JJS (best)))(PP (IN (of))(NP (DT (the))(NNS (swashbucklers))))))))))))(CC (but))(S (NP (PRP (it)))(VP (VBZ (is))(NP (NP (DT (a))(JJ (whole))(NN (lot)))(PP (IN (of))(NP (NN (fun))))))))(CC (and))(S (NP (PRP (you)))(VP (VBP (get))(S (VP (TO (to))(VP (VB (see))(SBAR (S (NP (NP (NP (DT (the))(CD (one)))(PP (IN (of))(NP (NP (DT (the))(NN (world))(POS ('s)))(JJS (best))(NNS (actors)))))(, (,))(NP (NNP (Daniel))(NNP (Auteuil)))(, (,)))(VP (VBP (have))(NP (NP (DT (a))(NN (whale)))(PP (IN (of))(NP (DT (a))(JJ (good))(NN (time)))))))))))))(. (.)))) |ET| 
0.020609920466806565947370799563032  |BT| (ROOT (4 (4 (2 (One))(4 (2 (of))(4 (3 (2 (the))(4 (4 (best))(2 (films))))(4 (2 (of))(4 (2 (2 (the))(2 (year)))(4 (2 (with))(4 (4 (4 (4 (4 (4 (4 (3 (2 (its))(4 (4 (exquisite))(2 (acting))))(2 (,)))(3 (3 (inventive))(2 (screenplay))))(2 (,)))(4 (4 (mesmerizing))(2 (music))))(2 (,)))(2 (and)))(3 (2 (many))(3 (3 (inimitable))(2 (scenes)))))))))))(2 (2 (of))(2 (2 (3 (tenderness))(2 (,)))(2 (1 (loss))(1 (2 (,))(2 (2 (discontent))(2 (3 (2 (,))(2 (and)))(2 (yearning)))))))))(2 (.))) |BT| (ROOT (NP (NP (CD (One)))(PP (IN (of))(NP (NP (DT (the))(JJS (best))(NNS (films)))(PP (IN (of))(NP (NP (DT (the))(NN (year)))(PP (IN (with))(NP (NP (PRP$ (its))(JJ (exquisite))(NN (acting)))(, (,))(NP (JJ (inventive))(NN (screenplay)))(, (,))(NP (JJ (mesmerizing))(NN (music)))(, (,))(CC (and))(NP (JJ (many))(JJ (inimitable))(NNS (scenes)))))))))(PP (IN (of))(NP (NN (tenderness))(, (,))(NN (loss))(, (,))(NN (discontent))(, (,))(CC (and))(NN (yearning))))(. (.)))) |ET| 
0.049504416196302809816121026642577  |BT| (ROOT (2 (2 (2 (See))(2 (Scratch)))(2 (2 (for))(2 (2 (the))(2 (history)))))(4 (2 (,))(4 (2 (2 (see))(2 (2 (Scratch))(2 (2 (for))(2 (2 (the))(2 (music))))))(2 (2 (,))(3 (2 (2 (2 (2 (2 (2 (2 (2 (see))(1 (2 (Scratch))(2 (2 (for))(2 (2 (2 (a))(2 (lesson)))(2 (2 (in))(2 (scratching)))))))(2 (,)))(2 (but)))(2 (,)))(2 (2 (most))(2 (2 (of))(2 (all)))))(2 (,)))(3 (3 (2 (see))(2 (it)))(2 (2 (for))(2 (2 (the))(2 (passion))))))(2 (.))))))) |BT| (ROOT (S (INTJ (UH (See)))(VP (VP (VB (Scratch))(SBAR (IN (for))(S (NP (NP (DT (the))(NN (history)))(, (,))(SBAR (S (VP (VBP (see))(VP (VB (Scratch))(PP (IN (for))(NP (DT (the))(NN (music))))))))(, (,)))(VP (VBP (see))(VP (VB (Scratch))(PP (IN (for))(NP (NP (DT (a))(NN (lesson)))(PP (IN (in))(NP (NN (scratching))))))(, (,))(NP (CC (but))(, (,))(NP (JJS (most)))(PP (IN (of))(NP (DT (all))))))))))(, (,))(VP (VB (see))(NP (PRP (it)))(PP (IN (for))(NP (DT (the))(NN (passion))))))(. (.)))) |ET| 
-0.012390442572803186602192759835361  |BT| (ROOT (1 (2 (2 (This))(1 (rush)))(2 (2 (to))(3 (profits))))(3 (3 (2 (has))(3 (2 (created))(3 (2 (3 (3 (2 (a))(3 (3 (1 (predictably))(3 (efficient)))(2 (piece))))(1 (2 (of))(1 (2 (business))(2 (3 (2 (3 (notable))(2 (largely)))(2 (1 (2 (for))(2 (2 (its))(2 (1 (overwhelming))(1 (creepiness)))))(2 (2 (,))(3 (2 (for))(2 (2 (an))(2 (eagerness)))))))(0 (2 (to))(1 (3 (create))(1 (2 (images))(0 (2 (you))(1 (2 (wish))(2 (2 (you))(2 (2 (2 (had))(2 (n't)))(2 (seen)))))))))))))(2 (,)))(2 (2 (which))(2 (2 (,))(2 (2 (2 (in))(2 (2 (this))(2 (2 (2 (day))(2 (and)))(2 (age)))))(2 (2 (,))(2 (2 (is))(2 (2 (of))(2 (2 (course))(2 (2 (the))(2 (point)))))))))))))(2 (.)))) |BT| (ROOT (S (NP (NP (DT (This))(NN (rush)))(PP (IN (to))(NP (NNS (profits)))))(VP (VBZ (has))(VP (VBN (created))(NP (NP (DT (a))(ADJP (ADVP (RB (predictably)))(JJ (efficient)))(NN (piece)))(PP (IN (of))(NP (NN (business)))))(S (ADJP (JJ (notable))(RB (largely))(PP (PP (IN (for))(NP (PRP$ (its))(JJ (overwhelming))(NN (creepiness))))(, (,))(PP (IN (for))(NP (DT (an))(NN (eagerness)))))(S (VP (TO (to))(VP (VB (create))(NP (NP (NP (NNS (images)))(SBAR (S (NP (PRP (you)))(VP (VBP (wish))(SBAR (S (NP (PRP (you)))(VP (VBD (had))(RB (n't))(VP (VBN (seen))))))))))(, (,))(SBAR (WHNP (WDT (which)))(S (, (,))(PP (IN (in))(NP (DT (this))(NN (day))(CC (and))(NN (age))))(, (,))(VP (VBZ (is))(PP (IN (of))(NP (NP (NN (course)))(NP (DT (the))(NN (point))))))))))))))))(. (.)))) |ET| 
0.049504416196302809816121026642577  |BT| (ROOT (2 (Ferrara))(4 (4 (2 ('s))(4 (3 (3 (strongest))(2 (and)))(4 (3 (2 (most))(3 (3 (touching))(2 (movie))))(2 (2 (of))(2 (2 (recent))(2 (years)))))))(2 (.)))) |BT| (ROOT (NP (NP (NP (NNP (Ferrara))(POS ('s)))(ADJP (JJS (strongest))(CC (and))(RBS (most))(JJ (touching)))(NN (movie)))(PP (IN (of))(NP (JJ (recent))(NNS (years))))(. (.)))) |ET| 
0.049504416196302809816121026642577  |BT| (ROOT (4 (4 (2 (A))(3 (4 (tremendous))(2 (piece))))(2 (2 (of))(2 (work))))(2 (.))) |BT| (ROOT (NP (NP (DT (A))(JJ (tremendous))(NN (piece)))(PP (IN (of))(NP (NN (work))))(. (.)))) |ET| 
0.049504416196302809816121026642577  |BT| (ROOT (4 (2 (2 (Could))(2 (I)))(2 (2 (have))(4 (2 (been))(2 (2 (2 (more))(2 (geeked)))(2 (2 (when))(3 (2 (I))(2 (2 (heard))(2 (2 (that))(2 (2 (2 (Apollo))(2 (13)))(2 (2 (was))(2 (2 (going))(3 (2 (to))(2 (2 (be))(3 (2 (released))(2 (2 (in))(2 (2 (IMAX))(2 (format))))))))))))))))))(2 (?))) |BT| (ROOT (SQ (MD (Could))(NP (PRP (I)))(VP (VB (have))(VP (VBN (been))(ADVP (RBR (more)))(VP (VBN (geeked))(SBAR (WHADVP (WRB (when)))(S (NP (PRP (I)))(VP (VBD (heard))(SBAR (IN (that))(S (NP (NNP (Apollo))(CD (13)))(VP (VBD (was))(VP (VBG (going))(S (VP (TO (to))(VP (VB (be))(VP (VBN (released))(PP (IN (in))(NP (NN (IMAX))(NN (format))))))))))))))))))(. (?)))) |ET| 
0.049504416196302809816121026642577  |BT| (ROOT (2 (2 (An))(2 (escapist)))(3 (3 (2 (confection))(4 (2 (that))(3 (2 ('s))(4 (4 (pure))(3 (entertainment))))))(2 (.)))) |BT| (ROOT (NP (NP (DT (An))(JJ (escapist))(NN (confection)))(SBAR (WHNP (WDT (that)))(S (VP (VBZ ('s))(NP (JJ (pure))(NN (entertainment))))))(. (.)))) |ET| 
0.049504416196302809816121026642577  |BT| (ROOT (3 (3 (3 (2 (The))(3 (3 (rare))(2 (movie))))(3 (2 (that))(3 (2 ('s))(4 (3 (2 (2 (as))(2 (crisp)))(2 (and)))(2 (2 (to))(2 (2 (the))(2 (point))))))))(3 (2 (as))(2 (3 (2 (the))(3 (novel)))(2 (2 (2 (on))(2 (which)))(2 (2 (it))(2 (2 ('s))(2 (based))))))))(2 (.))) |BT| (ROOT (NP (NP (DT (The))(JJ (rare))(NN (movie)))(SBAR (WHNP (WDT (that)))(S (VP (VBZ ('s))(PP (PP (IN (as))(ADJP (JJ (crisp))))(CC (and))(PP (IN (to))(NP (NP (DT (the))(NN (point)))(PP (IN (as))(NP (NP (DT (the))(NN (novel)))(SBAR (WHPP (IN (on))(WHNP (WDT (which))))(S (NP (PRP (it)))(VP (VBZ ('s))(VP (VBN (based))))))))))))))(. (.)))) |ET| 
-0.011714522022196851777642301328797  |BT| (ROOT (3 (4 (3 (2 (2 (2 (2 (Roman))(2 (2 (Polanski))(2 ('s))))(2 (2 (autobiographical))(2 (gesture))))(2 (2 (at))(3 (redemption))))(4 (2 (is))(4 (4 (better))(2 (2 (than))(2 (2 (`))(2 (2 (3 (Shindler))(2 ('s)))(2 (2 (List))(2 (')))))))))(2 (-)))(3 (2 (it))(3 (2 (is))(3 (2 (2 (more))(2 (2 (than))(2 (merely))))(2 (2 (a))(2 (2 (Holocaust))(2 (movie))))))))(2 (.))) |BT| (ROOT (S (S (NP (NP (NP (JJ (Roman))(NNP (Polanski))(POS ('s)))(JJ (autobiographical))(NN (gesture)))(PP (IN (at))(NP (NN (redemption)))))(VP (VBZ (is))(ADJP (ADJP (JJR (better)))(PP (IN (than))(NP (`` (`))(NP (NNP (Shindler))(POS ('s)))(NN (List))('' (')))))))(: (-))(S (NP (PRP (it)))(VP (VBZ (is))(ADJP (ADJP (JJR (more)))(PP (IN (than))(NP (RB (merely))(DT (a))(NNP (Holocaust))(NN (movie)))))))(. (.)))) |ET| 
-0.015016857528586240524970385479264  |BT| (ROOT (1 (1 (2 (An))(0 (1 (incoherent))(2 (jumble))))(1 (2 (of))(1 (2 (2 (a))(2 (film)))(2 (2 (that))(1 (2 (2 (2 ('s))(2 (rarely)))(2 (2 (as))(4 (entertaining))))(2 (2 (as))(2 (2 (it))(2 (2 (could))(2 (2 (have))(2 (been)))))))))))(2 (.))) |BT| (ROOT (NP (NP (DT (An))(JJ (incoherent))(NN (jumble)))(PP (IN (of))(NP (NP (DT (a))(NN (film)))(SBAR (WHNP (WDT (that)))(S (VP (VBZ ('s))(ADVP (RB (rarely)))(ADJP (IN (as))(JJ (entertaining)))(SBAR (IN (as))(S (NP (PRP (it)))(VP (MD (could))(VP (VB (have))(VP (VBN (been))))))))))))(. (.)))) |ET| 
0.049504416196302809816121026642577  |BT| (ROOT (2 (This))(4 (4 (2 (is))(4 (4 (2 (2 (DiCaprio))(2 ('s)))(3 (4 (best))(2 (performance))))(3 (2 (in))(4 (2 (2 (2 (2 (2 (anything))(2 (ever)))(2 (,)))(2 (and)))(3 (easily)))(4 (4 (2 (the))(4 (3 (2 (most))(3 (watchable)))(2 (film))))(2 (2 (of))(2 (2 (the))(2 (year)))))))))(2 (.)))) |BT| (ROOT (S (NP (DT (This)))(VP (VBZ (is))(NP (NP (NP (NP (NNP (DiCaprio))(POS ('s)))(JJS (best))(NN (performance)))(PP (IN (in))(NP (NP (NN (anything)))(ADVP (RB (ever))))))(, (,))(CC (and))(NP (ADVP (RB (easily)))(NP (DT (the))(ADJP (RBS (most))(JJ (watchable)))(NN (film)))(PP (IN (of))(NP (DT (the))(NN (year)))))))(. (.)))) |ET| 
0.049504416196302809816121026642577  |BT| (ROOT (4 (2 (By))(3 (2 (turns))(3 (3 (3 (2 (3 (4 (3 (3 (3 (touching))(2 (,)))(4 (3 (raucously))(4 (amusing))))(2 (,)))(1 (uncomfortable)))(2 (,)))(2 (and)))(2 (2 (,))(2 (2 (yes))(2 (,)))))(3 (2 (even))(4 (sexy))))))(4 (2 (,))(3 (2 (1 (Never))(2 (Again)))(3 (3 (2 (is))(4 (4 (2 (a))(3 (3 (2 (2 (welcome))(2 (and)))(3 (heartwarming)))(2 (addition))))(2 (2 (to))(2 (2 (the))(3 (2 (romantic))(3 (3 (comedy))(2 (genre))))))))(2 (.)))))) |BT| (ROOT (S (PP (IN (By))(NP (NP (NNS (turns)))(SBAR (FRAG (S (VP (VBG (touching))))(, (,))(ADJP (ADJP (RB (raucously))(JJ (amusing)))(, (,))(ADJP (JJ (uncomfortable))))))))(, (,))(CC (and))(, (,))(INTJ (UH (yes)))(, (,))(NP (NP (RB (even))(JJ (sexy)))(, (,))(ADVP (RB (Never))))(ADVP (RB (Again)))(VP (VBZ (is))(NP (NP (DT (a))(ADJP (JJ (welcome))(CC (and))(JJ (heartwarming)))(NN (addition)))(PP (IN (to))(NP (DT (the))(JJ (romantic))(NN (comedy))(NN (genre))))))(. (.)))) |ET| 
0.049504416196302809816121026642577  |BT| (ROOT (4 (2 (3 (2 (3 (3 (3 (4 (2 (You))(3 (2 (feel))(3 (good))))(2 (,)))(2 (2 (you))(1 (2 (feel))(1 (sad)))))(2 (,)))(1 (2 (you))(1 (2 (feel))(1 (0 (pissed))(1 (off))))))(2 (,)))(2 (but)))(3 (2 (2 (in))(2 (2 (the))(2 (end))))(3 (2 (,))(4 (2 (you))(3 (3 (2 (2 (feel))(3 (alive)))(2 (-)))(2 (2 (which))(2 (2 (is))(2 (2 (what))(2 (2 (they))(2 (did)))))))))))(2 (.))) |BT| (ROOT (S (S (NP (PRP (You)))(VP (VBP (feel))(ADJP (JJ (good)))))(, (,))(S (NP (PRP (you)))(VP (VBP (feel))(ADJP (JJ (sad)))))(, (,))(S (NP (PRP (you)))(VP (VBP (feel))(ADJP (JJ (pissed)))(ADVP (RB (off)))))(, (,))(CC (but))(S (PP (IN (in))(NP (DT (the))(NN (end))))(, (,))(NP (PRP (you)))(VP (VBP (feel))(NP (NP (ADJP (JJ (alive))(HYPH (-))))(SBAR (WHNP (WDT (which)))(S (VP (VBZ (is))(SBAR (WHNP (WP (what)))(S (NP (PRP (they)))(VP (VBD (did)))))))))))(. (.)))) |ET| 
0.049504416196302809816121026642577  |BT| (ROOT (4 (2 (3 (2 (1 (1 (Leave))(2 (it)))(2 (2 (to))(2 (2 (John))(2 (Sayles)))))(2 (2 (to))(2 (2 (take))(2 (2 (on))(2 (2 (2 (developers))(2 (,)))(2 (2 (2 (the))(2 (Chamber)))(2 (2 (of))(2 (2 (2 (2 (Commerce))(2 (,)))(2 (2 (2 (tourism))(2 (,)))(2 (2 (historical))(2 (pageants)))))(2 (,))))))))))(2 (and)))(3 (2 (1 (2 (commercialism))(2 (2 (all))(2 (2 (in))(2 (2 (the))(2 (2 (same))(2 (movie)))))))(2 (...)))(3 (2 (without))(2 (0 (2 (neglecting))(2 (2 (character))(2 (development))))(2 (2 (for))(2 (2 (even))(2 (2 (one))(2 (minute)))))))))(2 (.))) |BT| (ROOT (S (VP (VB (Leave))(NP (PRP (it)))(PP (IN (to))(NP (NNP (John))(NNP (Sayles))))(S (VP (TO (to))(VP (VB (take))(PP (IN (on))(NP (NP (NNS (developers)))(, (,))(NP (NP (DT (the))(NNP (Chamber)))(PP (IN (of))(NP (NP (NNP (Commerce)))(, (,))(NP (NN (tourism)))(, (,))(NP (JJ (historical))(NNS (pageants)))(, (,))(CC (and))(NP (NN (commercialism))))))))(ADVP (RB (all))(PP (IN (in))(NP (NP (DT (the))(JJ (same))(NN (movie)))(NFP (...))(PP (IN (without))(S (VP (VBG (neglecting))(NP (NN (character))(NN (development)))(PP (IN (for))(NP (RB (even))(CD (one))(NN (minute))))))))))))))(. (.)))) |ET| 
-0.0057156932219691496468993996415975  |BT| (ROOT (3 (2 (A))(3 (thriller)))(1 (1 (2 (made))(1 (2 (2 (2 (from))(2 (2 (2 (a))(2 (2 (completist))(2 ('s))))(2 (checklist))))(2 (2 (rather))(2 (than))))(3 (2 (with))(2 (2 (2 (a))(2 (2 (cultist))(2 ('s))))(2 (passion))))))(2 (.)))) |BT| (ROOT (S (NP (DT (A))(NN (thriller)))(VP (VBN (made))(PP (PP (IN (from))(NP (NP (DT (a))(NN (completist))(POS ('s)))(NN (checklist))))(CONJP (RB (rather))(IN (than)))(PP (IN (with))(NP (NP (DT (a))(NN (cultist))(POS ('s)))(NN (passion))))))(. (.)))) |ET| 
-0.032858428912465577342860711951289  |BT| (ROOT (2 (2 (Blade))(2 (II)))(2 (3 (2 (2 (merges))(2 (2 (2 (bits))(2 (and)))(2 (pieces))))(3 (2 (from))(3 (2 (2 (fighting))(2 (2 (2 (2 (2 (2 (2 (2 (2 (2 (2 (2 (2 (2 (2 (games))(2 (,)))(2 (2 (wire))(1 (fu))))(2 (,)))(2 (1 (horror))(2 (movies))))(2 (,)))(2 (mystery)))(2 (,)))(2 (2 (James))(2 (Bond))))(2 (,)))(2 (wrestling)))(2 (,)))(2 (sci-fi)))(2 (and)))(2 (anime))))(2 (2 (into))(2 (2 (one))(1 (2 (big))(2 (1 (bloody))(2 (stew)))))))))(2 (.)))) |BT| (ROOT (S (NP (NN (Blade))(CD (II)))(VP (VBZ (merges))(NP (NNS (bits))(CC (and))(NNS (pieces)))(PP (IN (from))(S (VP (VBG (fighting))(NP (NP (NNS (games)))(, (,))(NP (NN (wire))(NN (fu)))(, (,))(NP (NN (horror))(NNS (movies)))(, (,))(NP (NN (mystery)))(, (,))(NP (NNP (James))(NNP (Bond)))(, (,))(NP (NN (wrestling)))(, (,))(NP (NN (sci))(HYPH (-))(NN (fi)))(CC (and))(NP (NN (anime))))(PP (IN (into))(NP (CD (one))(JJ (big))(JJ (bloody))(NN (stew))))))))(. (.)))) |ET| 
-0.022483720944574406980231984221064  |BT| (ROOT (2 (2 (After))(2 (2 (all))(2 (2 (the))(2 (2 (big))(2 (build-up))))))(1 (2 (,))(0 (3 (2 (3 (2 (3 (3 (2 (the))(2 (payoff)))(2 (2 (for))(2 (2 (the))(2 (audience)))))(2 (,)))(2 (2 (as))(2 (3 (well))(2 (as)))))(2 (2 (the))(2 (characters))))(2 (,)))(0 (0 (2 (is))(0 (0 (0 (1 (1 (messy))(2 (,)))(1 (murky)))(2 (,)))(0 (unsatisfying))))(2 (.)))))) |BT| (ROOT (S (PP (IN (After))(NP (PDT (all))(DT (the))(JJ (big))(NN (build))(HYPH (-))(NN (up))))(, (,))(NP (NP (NP (DT (the))(NN (payoff)))(PP (IN (for))(NP (DT (the))(NN (audience)))))(, (,))(CONJP (RB (as))(RB (well))(IN (as)))(NP (DT (the))(NNS (characters)))(, (,)))(VP (VBZ (is))(ADJP (JJ (messy))(, (,))(JJ (murky))(, (,))(JJ (unsatisfying))))(. (.)))) |ET| 
0.049504416196302809816121026642577  |BT| (ROOT (2 (It))(4 (4 (2 ('s))(4 (3 (2 (anchored))(4 (2 (by))(4 (4 (splendid))(2 (performances)))))(4 (2 (from))(4 (2 (3 (2 (an))(3 (2 (honored))(2 (2 (screen))(3 (veteran)))))(2 (and)))(4 (3 (2 (a))(3 (3 (sparkling))(2 (newcomer))))(3 (2 (who))(4 (2 (instantly))(3 (2 (2 (transform))(2 (themselves)))(3 (2 (into))(3 (2 (a))(3 (3 (believable))(2 (2 (mother\/daughter))(2 (pair))))))))))))))(2 (.)))) |BT| (ROOT (S (NP (PRP (It)))(VP (VBZ ('s))(VP (VBN (anchored))(PP (IN (by))(NP (JJ (splendid))(NNS (performances))))(PP (IN (from))(NP (NP (DT (an))(VBN (honored))(NN (screen))(NN (veteran)))(CC (and))(NP (NP (DT (a))(JJ (sparkling))(NN (newcomer)))(SBAR (WHNP (WP (who)))(S (ADVP (RB (instantly)))(VP (VBP (transform))(NP (PRP (themselves)))(PP (IN (into))(NP (DT (a))(JJ (believable))(NML (NN (mother\))(HYPH (/))(NN (daughter)))(NN (pair))))))))))))(. (.)))) |ET| 
0.049504416196302809816121026642577  |BT| (ROOT (3 (2 (Director))(2 (2 (Juan))(2 (2 (Jose))(2 (Campanella)))))(3 (4 (2 (2 (2 (2 (1 (2 (2 (could))(2 (2 (have))(2 (3 (2 (turned))(2 (this)))(1 (2 (into))(2 (1 (2 (an))(1 (2 (Argentine))(2 (retread))))(2 (2 (of))(2 (2 (``))(2 (2 (2 (2 (2 (Iris))(2 ('')))(2 (or)))(2 (``)))(2 (2 (American))(3 (Beauty)))))))))))(2 (,)))(2 ('')))(2 (but)))(2 (2 (instead))(2 (2 (2 (pulls))(2 (2 (a))(2 (little))))(3 (2 (from))(2 (2 (each))(2 (film)))))))(2 (and)))(3 (2 (creates))(3 (2 (something))(4 (2 (more))(3 (4 (beautiful))(1 (2 (than))(2 (2 (either))(2 (2 (of))(2 (2 (those))(2 (films)))))))))))(2 (.)))) |BT| (ROOT (S (NP (NNP (Director))(NNP (Juan))(NNP (Jose))(NNP (Campanella)))(VP (VP (MD (could))(VP (VB (have))(VP (VBN (turned))(NP (DT (this)))(PP (IN (into))(NP (NP (DT (an))(NNP (Argentine))(NN (retread)))(PP (IN (of))(NP (`` (``))(NP (NNP (Iris)))('' (''))(CC (or))(`` (``))(NP (JJ (American))(NN (Beauty))))))))))(, (,))('' (''))(CC (but))(ADVP (RB (instead)))(VP (VBZ (pulls))(NP (DT (a))(JJ (little)))(PP (IN (from))(NP (DT (each))(NN (film)))))(CC (and))(VP (VBZ (creates))(NP (NP (NN (something)))(ADJP (JJR (more))(JJ (beautiful))))(PP (IN (than))(NP (NP (DT (either)))(PP (IN (of))(NP (DT (those))(NNS (films))))))))(. (.)))) |ET| 
0.049504416196302809816121026642577  |BT| (ROOT (3 (2 (2 (2 (Director))(2 (2 (Nancy))(2 (2 (Savoca))(2 ('s)))))(2 (2 (no-frills))(2 (record))))(2 (2 (of))(4 (2 (2 (a))(2 (show)))(3 (2 (forged))(2 (2 (in))(3 (2 (still-raw))(2 (emotions))))))))(3 (3 (3 (2 (captures))(3 (2 (1 (2 (the))(2 (1 (unsettled))(2 (tenor))))(2 (2 (of))(2 (2 (that))(2 (2 (post))(2 (2 (9-11))(2 (period)))))))(3 (2 (far))(4 (better)))))(3 (2 (than))(3 (3 (2 (a))(3 (2 (2 (more))(3 (2 (2 (measured))(2 (or)))(4 (polished))))(2 (production))))(2 (2 (ever))(2 (could))))))(2 (.)))) |BT| (ROOT (S (NP (NP (NP (NNP (Director))(NNP (Nancy))(NNP (Savoca))(POS ('s)))(NML (DT (no))(HYPH (-))(NNS (frills)))(NN (record)))(PP (IN (of))(NP (NP (DT (a))(NN (show)))(VP (VBN (forged))(PP (IN (in))(NP (ADJP (RB (still))(HYPH (-))(JJ (raw)))(NNS (emotions))))))))(VP (VBZ (captures))(SBAR (S (NP (NP (DT (the))(JJ (unsettled))(NN (tenor)))(PP (IN (of))(NP (NP (DT (that))(NN (post))(NML (CD (9))(HYPH (-))(CD (11)))(NN (period)))(NP (ADVP (RB (far))(NP (QP (JJR (better))(IN (than))(DT (a)))))(ADVP (RBR (more)))(JJ (measured))(CC (or))(JJ (polished))(NN (production))(RB (ever))))))(VP (MD (could))))))(. (.)))) |ET| 
-0.0085767516540930059665281959269123  |BT| (ROOT (2 (3 (2 (Just))(4 (entertaining)))(3 (2 (enough))(2 (1 (not))(1 (2 (to))(0 (hate))))))(0 (2 (,))(1 (1 (2 (too))(1 (mediocre)))(3 (2 (2 (to))(4 (love)))(2 (.)))))) |BT| (ROOT (FRAG (FRAG (ADVP (RB (Just)))(ADJP (JJ (entertaining))(RB (enough))(S (VP (RB (not))(TO (to))(VP (VB (hate)))))))(, (,))(FRAG (ADJP (RB (too))(JJ (mediocre)))(S (VP (TO (to))(VP (VB (love))))))(. (.)))) |ET| 
-0.0070552443066244892658223086812086  |BT| (ROOT (3 (3 (2 (A))(3 (3 (feel-good))(2 (movie))))(2 (that)))(1 (1 (1 (2 (does))(2 (n't)))(3 (3 (give))(3 (2 (you))(3 (2 (enough))(3 (2 (to))(3 (2 (feel))(2 (3 (good))(2 (about)))))))))(2 (.)))) |BT| (ROOT (NP (NP (DT (A))(ADJP (NP (NN (feel)))(HYPH (-))(JJ (good)))(NN (movie)))(SBAR (WHNP (WDT (that)))(S (VP (VBZ (does))(RB (n't))(VP (VB (give))(S (NP (PRP (you)))(ADJP (JJ (enough))(S (VP (TO (to))(VP (VB (feel))(NP (JJ (good))(RB (about))))))))))))(. (.)))) |ET| 
-0.01542051435939714547351808704434  |BT| (ROOT (2 (It))(0 (1 (2 ('s))(1 (3 (rare))(0 (2 (to))(0 (1 (3 (0 (2 (see))(1 (2 (2 (a))(2 (movie)))(1 (2 (that))(1 (3 (2 (takes))(2 (2 (such))(1 (2 (a))(2 (2 (speedy))(2 (2 (swan))(2 (dive)))))))(3 (3 (2 (2 (from))(2 (``)))(3 (promising)))(2 ('')))))))(3 (2 (to))(3 (2 (``))(3 (3 (interesting))(2 (''))))))(2 (2 (to))(2 (2 (``))(2 (2 (familiar))(2 (''))))))(0 (2 (before))(1 (2 (2 (landing))(2 (squarely)))(1 (1 (2 (2 (on))(2 (``)))(0 (stupid)))(2 ('')))))))))(2 (.)))) |BT| (ROOT (S (NP (PRP (It)))(VP (VBZ ('s))(ADJP (JJ (rare))(S (VP (TO (to))(VP (VB (see))(NP (NP (DT (a))(NN (movie)))(SBAR (WHNP (WDT (that)))(S (VP (VBZ (takes))(NP (PDT (such))(DT (a))(JJ (speedy))(NN (swan))(NN (dive)))(PP (IN (from))(`` (``))(ADJP (JJ (promising)))('' ('')))(PP (IN (to))(`` (``))(ADJP (JJ (interesting)))('' ('')))))))))))(PP (TO (to)))(ADJP (`` (``))(JJ (familiar))('' (''))(PP (IN (before))(S (VP (VBG (landing))(ADVP (RB (squarely)))(PP (IN (on))(`` (``))(ADJP (JJ (stupid)))('' (''))))))))(. (.)))) |ET| 
0.049504416196302809816121026642577  |BT| (ROOT (3 (1 (2 (3 (3 (2 (2 (2 (Light))(2 (2 (the))(2 (candles))))(2 (,)))(3 (2 (3 (bring))(1 (out)))(2 (2 (the))(2 (cake)))))(2 (and)))(1 (2 (2 (do))(2 (n't)))(2 (2 (1 (fret))(2 (2 (about))(2 (2 (the))(2 (calories)))))(1 (2 (because))(2 (2 (there))(2 (2 ('s))(1 (1 (3 (precious))(1 (2 (little))(2 (substance))))(2 (2 (in))(2 (2 (Birthday))(2 (Girl)))))))))))(2 (--)))(2 (2 (it))(4 (2 (2 ('s))(3 (2 (simply))(2 (2 (3 (2 (,))(2 (and)))(3 (surprisingly)))(2 (,)))))(3 (2 (a))(3 (3 (nice))(3 (2 (,))(3 (2 (light))(3 (treat)))))))))(2 (.))) |BT| (ROOT (S (NP (NP (NN (Light)))(NP (DT (the))(NNS (candles))))(, (,))(S (VP (VP (VB (bring))(PRT (RP (out)))(NP (DT (the))(NN (cake))))(CC (and))(VP (VB (do))(RB (n't))(VP (VB (fret))(PP (IN (about))(NP (DT (the))(NNS (calories))))(SBAR (IN (because))(S (NP (EX (there)))(VP (VBZ ('s))(NP (NP (JJ (precious))(JJ (little))(NN (substance)))(PP (IN (in))(NP (NN (Birthday))(NN (Girl))))))))))))(: (--))(NP (PRP (it)))(VP (VBZ ('s))(ADVP (ADVP (RB (simply)))(, (,))(CC (and))(ADVP (RB (surprisingly)))(, (,)))(NP (DT (a))(JJ (nice))(, (,))(JJ (light))(NN (treat))))(. (.)))) |ET| 
0.049504416196302809816121026642577  |BT| (ROOT (3 (4 (3 (3 (2 (2 (Arliss))(2 (2 (Howard))(2 ('s))))(4 (3 (ambitious))(4 (2 (,))(3 (4 (3 (moving))(2 (3 (2 (,))(2 (and)))(3 (adventurous))))(2 (2 (directorial))(2 (debut)))))))(2 (,)))(3 (2 (Big))(3 (0 (Bad))(4 (Love)))))(2 (,)))(3 (3 (2 (meets))(3 (2 (2 (2 (so))(2 (many)))(2 (2 (of))(2 (2 (the))(1 (challenges)))))(2 (2 (it))(3 (2 (2 (poses))(2 (2 (for))(2 (itself))))(2 (2 (that))(2 (2 (one))(2 (2 (can))(2 (2 (forgive))(1 (2 (2 (the))(2 (film)))(1 (2 (its))(1 (flaws))))))))))))(2 (.)))) |BT| (ROOT (S (NP (NP (NP (NNP (Arliss))(NNP (Howard))(POS ('s)))(ADJP (JJ (ambitious))(PRN (, (,))(S (UCP (VP (VBG (moving)))(, (,))(CC (and))(ADJP (JJ (adventurous)))))))(JJ (directorial))(NN (debut)))(, (,))(NP (NNP (Big))(NNP (Bad))(NNP (Love)))(, (,)))(VP (VBZ (meets))(ADJP (RB (so))(JJ (many))(PP (IN (of))(NP (NP (DT (the))(NNS (challenges)))(SBAR (S (NP (PRP (it)))(VP (VBZ (poses))(PP (IN (for))(NP (PRP (itself))))(SBAR (WHNP (WDT (that)))(S (NP (PRP (one)))(VP (MD (can))(VP (VB (forgive))(NP (DT (the))(NN (film)))(NP (PRP$ (its))(NNS (flaws))))))))))))))(. (.)))) |ET| 
0.049504416196302809816121026642577  |BT| (ROOT (4 (3 (3 (2 (3 (Assured))(2 (,)))(3 (vital)))(2 (and)))(3 (3 (well))(2 (wrought))))(4 (2 (,))(4 (2 (2 (the))(2 (film)))(3 (4 (2 (2 (2 (2 (is))(2 (,)))(2 (arguably)))(2 (,)))(4 (3 (2 (the))(4 (2 (most))(3 (3 (accomplished))(2 (work)))))(2 (2 (to))(2 (2 (date))(2 (2 (from))(2 (2 (2 (Hong))(2 (2 (Kong))(2 ('s))))(3 (2 (versatile))(2 (2 (Stanley))(2 (Kwan))))))))))(2 (.)))))) |BT| (ROOT (S (UCP (ADJP (JJ (Assured))(, (,))(JJ (vital)))(CC (and))(VP (ADVP (RB (well)))(VBN (wrought))))(, (,))(NP (DT (the))(NN (film)))(VP (VBZ (is))(, (,))(ADVP (RB (arguably)))(, (,))(NP (NP (DT (the))(ADJP (RBS (most))(JJ (accomplished)))(NN (work)))(PP (IN (to))(NP (NP (NN (date)))(PP (IN (from))(NP (NP (NNP (Hong))(NNP (Kong))(POS ('s)))(JJ (versatile))(NNP (Stanley))(NNP (Kwan))))))))(. (.)))) |ET| 
-0.043439925808561451192613134253406  |BT| (ROOT (2 (Broomfield))(2 (2 (2 (2 (reminds))(3 (us)))(1 (2 (2 (that))(2 (2 (beneath))(3 (2 (2 (2 (2 (3 (2 (2 (1 (2 (the))(2 (hype)))(2 (,)))(2 (2 (the))(2 (celebrity))))(2 (,)))(2 (2 (the))(2 (3 (high))(3 (life)))))(2 (,)))(2 (2 (the))(2 (conspiracies))))(2 (and)))(2 (2 (the))(2 (mystery))))))(2 (2 (there))(2 (2 (were))(2 (2 (2 (2 (once))(2 (2 (a))(2 (couple))))(3 (2 (of))(3 (2 (2 (3 (bright))(2 (2 (young))(2 (men))))(2 (--)))(4 (3 (promising))(3 (2 (,))(3 (3 (talented))(3 (2 (,))(3 (2 (3 (charismatic))(2 (and)))(1 (tragically))))))))))(0 (doomed)))))))(2 (.)))) |BT| (ROOT (S (NP (NNP (Broomfield)))(VP (VBZ (reminds))(NP (PRP (us)))(ADVP (IN (that))(PP (IN (beneath))(NP (NP (DT (the))(NN (hype)))(, (,))(NP (DT (the))(NN (celebrity)))(, (,))(NP (DT (the))(JJ (high))(NN (life)))(, (,))(NP (DT (the))(NNS (conspiracies)))(CC (and))(NP (DT (the))(NN (mystery))))))(SBAR (S (NP (EX (there)))(VP (VBD (were))(ADVP (RB (once)))(NP (NP (NP (DT (a))(NN (couple)))(PP (IN (of))(NP (JJ (bright))(JJ (young))(NNS (men)))))(: (--))(UCP (ADJP (JJ (promising))(, (,))(JJ (talented))(, (,))(JJ (charismatic)))(CC (and))(VP (ADVP (RB (tragically)))(VBN (doomed)))))))))(. (.)))) |ET| 
0.049504416196302809816121026642577  |BT| (ROOT (2 (2 (The))(2 (actors)))(3 (4 (2 (are))(3 (fantastic)))(2 (.)))) |BT| (ROOT (S (NP (DT (The))(NNS (actors)))(VP (VBP (are))(ADJP (JJ (fantastic))))(. (.)))) |ET| 
0.049504416196302809816121026642577  |BT| (ROOT (4 (3 (3 (Fast-paced))(2 (and)))(4 (3 (wonderfully))(2 (edited))))(3 (2 (,))(3 (2 (2 (the))(2 (film)))(3 (3 (2 (is))(3 (2 (extremely))(2 (thorough))))(2 (.)))))) |BT| (ROOT (S (S (ADJP (ADJP (JJ (Fast))(HYPH (-))(JJ (paced)))(CC (and))(ADJP (RB (wonderfully))(VBN (edited)))))(, (,))(NP (DT (the))(NN (film)))(VP (VBZ (is))(ADJP (RB (extremely))(JJ (thorough))))(. (.)))) |ET| 
0.049504416196302809816121026642577  |BT| (ROOT (4 (3 (2 (A))(4 (4 (powerful))(2 (performance))))(3 (2 (from))(2 (2 (2 (1 (Mel))(2 (Gibson)))(2 (and)))(3 (3 (2 (a))(1 (2 (brutal))(2 (2 (90-minute))(2 (2 (battle))(2 (sequence))))))(3 (2 (that))(2 (2 (3 (2 (does))(2 (everything)))(2 (but)))(1 (2 (issue))(2 (2 (you))(2 (2 (2 (2 (a))(2 (dog-tag)))(2 (and)))(2 (2 (an))(2 (M-16))))))))))))(2 (.))) |BT| (ROOT (NP (NP (DT (A))(JJ (powerful))(NN (performance)))(PP (IN (from))(NP (NP (NNP (Mel))(NNP (Gibson)))(CC (and))(NP (NP (NP (DT (a))(JJ (brutal))(NML (CD (90))(HYPH (-))(NN (minute)))(NN (battle))(NN (sequence)))(SBAR (WHNP (WDT (that)))(S (VP (VBZ (does))(NP (NP (NN (everything)))(PP (IN (but))(NP (NN (issue)))))))))(S (NP (PRP (you)))(NP (NP (DT (a))(NN (dog))(HYPH (-))(NN (tag)))(CC (and))(NP (DT (an))(NML (NN (M))(HYPH (-))(CD (16)))))))))(. (.)))) |ET| 
0.049504416196302809816121026642577  |BT| (ROOT (2 (It))(3 (3 (2 (2 (2 ('s))(2 (2 (as))(2 (raw))))(2 (and)))(3 (3 (3 (3 (action-packed))(2 (2 (an))(2 (experience))))(2 (2 (as))(2 (2 (a))(3 (2 (ringside))(3 (seat))))))(1 (2 (at))(2 (2 (a))(2 (2 (tough-man))(2 (contest)))))))(2 (.)))) |BT| (ROOT (S (NP (PRP (It)))(VP (VBZ ('s))(ADJP (ADJP (IN (as))(JJ (raw)))(CC (and))(ADJP (NN (action))(HYPH (-))(VBN (packed)))(NP (DT (an))(NN (experience))))(PP (IN (as))(NP (NP (DT (a))(JJ (ringside))(NN (seat)))(PP (IN (at))(NP (DT (a))(NML (JJ (tough))(HYPH (-))(NN (man)))(NN (contest)))))))(. (.)))) |ET| 
0.049504416196302809816121026642577  |BT| (ROOT (4 (3 (2 (Offers))(3 (2 (a))(3 (3 (guilt-free))(2 (trip)))))(3 (2 (into))(3 (3 (feel-good))(2 (territory)))))(2 (.))) |BT| (ROOT (S (VP (VBZ (Offers))(NP (DT (a))(ADJP (NN (guilt))(HYPH (-))(JJ (free)))(NN (trip)))(PP (IN (into))(NP (NN (feel))(HYPH (-))(JJ (good))(NN (territory)))))(. (.)))) |ET| 
-0.0024590090919736234433001786925388  |BT| (ROOT (3 (3 (3 (2 (Adaptation))(2 (2 (is))(3 (3 (intricately))(2 (constructed)))))(2 (and)))(2 (2 (2 (in))(2 (2 (a))(2 (1 (strange))(2 (way)))))(3 (3 (2 (nails))(2 (2 (all))(2 (2 (of))(2 (2 (2 (Orlean))(2 ('s)))(2 (themes))))))(2 (2 (without))(3 (2 (being))(3 (3 (2 (a))(2 (3 (true))(2 (adaptation))))(2 (2 (of))(2 (2 (her))(2 (book))))))))))(2 (.))) |BT| (ROOT (S (NP (NN (Adaptation)))(VP (VBZ (is))(ADVP (RB (intricately)))(VP (VP (VBN (constructed)))(CC (and))(VP (PP (IN (in))(NP (NP (DT (a))(JJ (strange))(NN (way))(NNS (nails)))(PP (ADVP (DT (all)))(IN (of))(NP (NP (NNP (Orlean))(POS ('s)))(NNS (themes))))))(PP (IN (without))(S (VP (VBG (being))(NP (NP (DT (a))(JJ (true))(NN (adaptation)))(PP (IN (of))(NP (PRP$ (her))(NN (book)))))))))))(. (.)))) |ET| 
-0.041364555524120313889646638472186  |BT| (ROOT (2 (3 (2 (2 (Graham))(2 (2 (Greene))(2 ('s))))(3 (novel)))(2 (2 (of))(2 (2 (2 (colonialism))(2 (and)))(2 (empire)))))(3 (3 (2 (is))(4 (3 (2 (elevated))(2 (2 (by))(2 (2 (2 (Michael))(2 (2 (Caine))(2 ('s))))(2 (performance)))))(2 (2 (as))(2 (1 (2 (a))(2 (1 (weary))(2 (journalist))))(2 (2 (in))(3 (2 (a))(2 (2 (changing))(2 (world)))))))))(2 (.)))) |BT| (ROOT (S (NP (NP (NP (NNP (Graham))(NNP (Greene))(POS ('s)))(NN (novel)))(PP (IN (of))(NP (NN (colonialism))(CC (and))(NN (empire)))))(VP (VBZ (is))(VP (VBN (elevated))(PP (IN (by))(NP (NP (NNP (Michael))(NNP (Caine))(POS ('s)))(NN (performance))))(PP (IN (as))(NP (NP (DT (a))(JJ (weary))(NN (journalist)))(PP (IN (in))(NP (DT (a))(VBG (changing))(NN (world))))))))(. (.)))) |ET| 
0.049504416196302809816121026642577  |BT| (ROOT (4 (3 (Intriguing))(2 (2 (and))(4 (2 (downright))(3 (intoxicating)))))(2 (.))) |BT| (ROOT (FRAG (ADJP (JJ (Intriguing))(CC (and))(JJ (downright)))(ADJP (JJ (intoxicating)))(. (.)))) |ET| 
0.049504416196302809816121026642577  |BT| (ROOT (3 (1 (1 (1 (2 (2 (This))(2 (movie)))(1 (1 (2 (may))(1 (not)))(4 (2 (have))(4 (4 (2 (the))(4 (2 (highest))(2 (2 (production))(2 (values)))))(3 (2 (you))(2 (2 (2 ('ve))(2 (ever)))(2 (seen))))))))(2 (,)))(2 (but)))(4 (2 (it))(3 (2 ('s))(3 (2 (2 (the))(2 (work)))(3 (2 (of))(3 (2 (2 (2 (an))(2 (artist)))(2 (,)))(3 (2 (one))(3 (2 (2 (whose))(2 (2 (view))(3 (2 (of))(2 (2 (3 (2 (2 (America))(2 (,)))(2 (history)))(2 (and)))(2 (2 (2 (the))(2 (awkwardness)))(2 (2 (of))(2 (2 (human))(3 (life)))))))))(4 (2 (is))(3 (3 (3 (generous))(2 (and)))(2 (deep))))))))))))(2 (.))) |BT| (ROOT (S (S (NP (DT (This))(NN (movie)))(VP (MD (may))(RB (not))(VP (VB (have))(NP (NP (DT (the))(JJS (highest))(NN (production))(NNS (values)))(SBAR (S (NP (PRP (you)))(VP (VBP ('ve))(ADVP (RB (ever)))(VP (VBN (seen))))))))))(, (,))(CC (but))(S (NP (PRP (it)))(VP (VBZ ('s))(NP (NP (DT (the))(NN (work)))(PP (IN (of))(NP (NP (DT (an))(NN (artist)))(, (,))(NP (NP (CD (one)))(SBAR (WHNP (WP$ (whose))(NP (NN (view))(PP (IN (of))(NP (NP (NNP (America)))(, (,))(NP (NN (history)))(CC (and))(NP (NP (DT (the))(NN (awkwardness)))(PP (IN (of))(NP (JJ (human))(NN (life)))))))))(S (VP (VBZ (is))(ADJP (JJ (generous))(CC (and))(JJ (deep))))))))))))(. (.)))) |ET| 
0.049504416196302809816121026642577  |BT| (ROOT (3 (2 (2 (2 (Daily))(1 (struggles)))(2 (and)))(3 (3 (2 (simple))(3 (pleasures)))(3 (2 (2 (usurp))(1 (2 (the))(1 (2 (preaching))(2 (message)))))(4 (2 (so))(4 (2 (that))(4 (2 (,))(3 (1 (2 (by))(2 (2 (2 (the))(2 (time)))(1 (2 (2 (the))(2 (credits)))(2 (2 (roll))(2 (2 (across))(2 (2 (2 (the))(2 (pat)))(2 (ending))))))))(4 (2 (,))(3 (3 (2 (a))(3 (4 (3 (warm))(2 (2 (,))(3 (fuzzy))))(2 (feeling))))(3 (prevails)))))))))))(2 (.))) |BT| (ROOT (S (NP (NP (JJ (Daily))(NNS (struggles)))(CC (and))(NP (JJ (simple))(NNS (pleasures))))(VP (VBP (usurp))(NP (DT (the))(VBG (preaching))(NN (message)))(SBAR (IN (so))(IN (that))(S (, (,))(PP (IN (by))(NP (NP (DT (the))(NN (time)))(SBAR (S (NP (DT (the))(NNS (credits)))(VP (VBP (roll))(PP (IN (across))(NP (DT (the))(NML (S (VP (VB (pat))(S (VP (VBG (ending))))))))))))))(, (,))(NP (DT (a))(JJ (warm))(, (,))(JJ (fuzzy))(NN (feeling)))(VP (VBZ (prevails))))))(. (.)))) |ET| 
0.049504416196302809816121026642577  |BT| (ROOT (3 (4 (4 (2 (A))(4 (4 (2 (fiercely))(4 (3 (4 (clever))(2 (and)))(3 (subtle))))(2 (film))))(2 (,)))(3 (3 (capturing))(3 (2 (2 (the))(2 (1 (precarious))(2 (balance))))(2 (2 (between))(2 (2 (3 (3 (2 (the))(3 (4 (extravagant))(3 (confidence))))(2 (2 (of))(2 (2 (the))(2 (2 (exiled))(2 (aristocracy))))))(2 (and)))(3 (2 (2 (the))(2 (1 (cruel))(3 (earnestness))))(3 (2 (of))(2 (2 (the))(3 (3 (victorious))(2 (revolutionaries)))))))))))(2 (.))) |BT| (ROOT (FRAG (NP (DT (A))(ADJP (RB (fiercely))(JJ (clever))(CC (and))(JJ (subtle)))(NN (film)))(, (,))(VP (VBG (capturing))(NP (NP (DT (the))(JJ (precarious))(NN (balance)))(PP (IN (between))(NP (NP (DT (the))(JJ (extravagant))(NN (confidence)))(PP (IN (of))(NP (NP (DT (the))(VBN (exiled))(NN (aristocracy)))(CC (and))(NP (NP (DT (the))(JJ (cruel))(NN (earnestness)))(PP (IN (of))(NP (DT (the))(JJ (victorious))(NNS (revolutionaries)))))))))))(. (.)))) |ET| 
-0.049504416196302809816121026642577  |BT| (ROOT (3 (3 (2 (Nice))(2 (piece)))(2 (2 (of))(2 (work))))(2 (.))) |BT| (ROOT (NP (NP (JJ (Nice))(NN (piece)))(PP (IN (of))(NP (NN (work))))(. (.)))) |ET| 
-0.0011385230660700051616429639977923  |BT| (ROOT (3 (2 (2 (Close))(2 (2 (enough))(2 (2 (2 (in))(3 (spirit)))(2 (2 (to))(2 (2 (its))(1 (2 (freewheeling))(1 (0 (trash-cinema))(2 (roots)))))))))(3 (2 (to))(3 (2 (be))(3 (3 (2 (a))(2 (breath)))(3 (2 (of))(3 (4 (fresh))(2 (air))))))))(2 (.))) |BT| (ROOT (ADVP (RB (Close))(RB (enough))(PP (IN (in))(NP (NP (NN (spirit)))(PP (IN (to))(NP (PRP$ (its))(JJ (freewheeling))(NML (NN (trash))(HYPH (-))(NN (cinema)))(NNS (roots))))(S (VP (TO (to))(VP (VB (be))(NP (NP (DT (a))(NN (breath)))(PP (IN (of))(NP (JJ (fresh))(NN (air))))))))))(. (.)))) |ET| 
0.049504416196302809816121026642577  |BT| (ROOT (3 (2 (3 (2 (2 (Neil))(2 (Burger)))(2 (2 (here))(4 (3 (succeeded))(2 (in)))))(2 (...)))(2 (2 (making))(3 (2 (2 (the))(2 (mystery)))(2 (2 (of))(2 (2 (2 (four))(2 (decades)))(3 (2 (2 (back))(2 (2 (the))(2 (springboard))))(2 (2 (for))(2 (2 (2 (a))(2 (2 (2 (more))(2 (immediate)))(2 (mystery))))(3 (2 (in))(2 (2 (the))(2 (present))))))))))))(2 (.))) |BT| (ROOT (S (NP (NNP (Neil))(NNP (Burger)))(ADVP (RB (here)))(VP (VBD (succeeded))(PP (IN (in)))(NFP (...))(S (VP (VBG (making))(NP (NP (DT (the))(NN (mystery)))(PP (IN (of))(NP (NP (CD (four))(NNS (decades)))(ADVP (RB (back))(NP (DT (the))(NN (springboard)))(PP (IN (for))(NP (NP (DT (a))(JJR (more))(JJ (immediate))(NN (mystery)))(PP (IN (in))(NP (DT (the))(JJ (present)))))))))))))(. (.)))) |ET| 
0.049504416196302809816121026642577  |BT| (ROOT (2 (1 (From))(3 (2 (a))(2 (2 (2 (deceptively))(2 (simple)))(2 (premise)))))(3 (2 (,))(3 (3 (2 (this))(3 (3 (2 (deeply))(3 (moving)))(2 (2 (French))(1 (drama)))))(3 (3 (2 (develops))(3 (2 (2 (a))(3 (2 (startling))(2 (story))))(3 (2 (that))(3 (2 (works))(2 (2 (both))(3 (2 (3 (2 (as))(3 (2 (a))(3 (3 (detailed))(2 (3 (personal))(2 (portrait))))))(2 (and)))(2 (2 (as))(2 (2 (2 (a))(2 (1 (2 (rather))(2 (frightening)))(2 (examination))))(2 (2 (of))(2 (2 (modern))(2 (times))))))))))))(2 (.)))))) |BT| (ROOT (S (PP (IN (From))(NP (DT (a))(ADJP (RB (deceptively))(JJ (simple)))(NN (premise))))(, (,))(NP (DT (this))(ADJP (RB (deeply))(VBG (moving)))(JJ (French))(NN (drama)))(VP (VBZ (develops))(NP (NP (DT (a))(JJ (startling))(NN (story)))(SBAR (WHNP (WDT (that)))(S (VP (VBZ (works))(PP (DT (both))(PP (IN (as))(NP (DT (a))(JJ (detailed))(JJ (personal))(NN (portrait))))(CC (and))(PP (IN (as))(NP (NP (DT (a))(ADJP (RB (rather))(JJ (frightening)))(NN (examination)))(PP (IN (of))(NP (JJ (modern))(NNS (times))))))))))))(. (.)))) |ET| 
0.049504416196302809816121026642577  |BT| (ROOT (2 (Brosnan))(4 (4 (2 (2 (gives))(2 (2 (a))(2 (portrayal))))(3 (3 (2 (2 (2 (as))(3 (solid)))(2 (and)))(4 (2 (as))(4 (4 (perfect))(3 (2 (as))(4 (4 (2 (his))(4 (4 (outstanding))(2 (performance))))(2 (2 (as))(2 (2 (Bond))(2 (2 (in))(1 (Die))))))))))(2 (2 (Another))(2 (Day)))))(2 (.)))) |BT| (ROOT (S (S (NP (NNP (Brosnan)))(VP (VBZ (gives))(NP (DT (a))(NN (portrayal)))(PP (IN (as))(ADJP (JJ (solid))))))(CC (and))(S (SBAR (IN (as))(S (ADJP (JJ (perfect))(PP (IN (as))(NP (PRP$ (his))(JJ (outstanding))(NN (performance)))))(PP (IN (as))(PP (NP (NN (Bond)))(IN (in))))))(VP (VB (Die))(NP (DT (Another))(NN (Day)))))(. (.)))) |ET| 
0.049504416196302809816121026642577  |BT| (ROOT (2 (There))(3 (4 (2 ('s))(4 (1 (no))(3 (1 (denying))(3 (2 (that))(4 (2 (Burns))(4 (2 (is))(3 (2 (2 (a))(2 (filmmaker)))(3 (2 (with))(3 (4 (2 (a))(3 (3 (bright))(2 (future))))(2 (2 (ahead))(2 (2 (of))(2 (him)))))))))))))(2 (.)))) |BT| (ROOT (S (NP (EX (There)))(VP (VBZ ('s))(NP (DT (no))(VP (VBG (denying))(SBAR (S (NP (DT (that))(NNP (Burns)))(VP (VBZ (is))(NP (NP (DT (a))(NN (filmmaker)))(PP (IN (with))(NP (NP (DT (a))(JJ (bright))(NN (future)))(PP (RB (ahead))(IN (of))(NP (PRP (him)))))))))))))(. (.)))) |ET| 
-0.014300640876396444878260183486418  |BT| (ROOT (2 (2 (2 (Each))(2 (punch)))(2 (2 (seen))(2 (2 (through))(2 (2 (prison))(2 (bars))))))(2 (2 (,))(2 (2 (2 (the))(1 (fights)))(2 (2 (2 (become))(2 (1 (not))(2 (2 (2 (so))(2 (much)))(2 (2 (2 (2 (2 (a))(1 (struggle)))(2 (2 (of))(2 (man))))(2 (vs.)))(2 (2 (man))(2 (2 (as))(2 (2 (Brother-Man))(2 (2 (vs.))(2 (2 (The))(2 (Man)))))))))))(2 (.)))))) |BT| (ROOT (S (S (NP (DT (Each))(NN (punch)))(VP (VBN (seen))(PP (IN (through))(NP (NN (prison))(NNS (bars))))))(, (,))(NP (DT (the))(NNS (fights)))(VP (VBP (become))(ADVP (RB (not))(RB (so))(RB (much)))(NP (NP (DT (a))(NN (struggle)))(PP (IN (of))(NP (NN (man))(FW (vs.))))(INTJ (UH (man)))(PP (IN (as))(NP (NP (NNP (Brother))(HYPH (-))(NNP (Man)))(PP (FW (vs.))(NP (DT (The))(NNP (Man))))))))(. (.)))) |ET| 
-0.0029285773780384927872377787139158  |BT| (ROOT (3 (2 (2 (An))(2 (3 (indispensable))(2 (peek))))(2 (2 (at))(2 (2 (2 (2 (the))(2 (art)))(2 (and)))(2 (2 (2 (the))(1 (agony)))(2 (2 (of))(2 (2 (making))(2 (people))))))))(2 (3 (laugh))(2 (.)))) |BT| (ROOT (S (NP (NP (DT (An))(JJ (indispensable))(NN (peek)))(PP (IN (at))(NP (NP (DT (the))(NN (art)))(CC (and))(NP (NP (DT (the))(NN (agony)))(PP (IN (of))(S (VP (VBG (making))(NP (NNS (people))))))))))(VP (VB (laugh)))(. (.)))) |ET| 
-0.040075963841887739247393795949392  |BT| (ROOT (2 (Romanek))(1 (1 (2 (keeps))(1 (3 (adding))(2 (3 (3 (flourishes))(2 (2 (--))(3 (2 (3 (artsy))(2 (3 (fantasy))(2 (sequences))))(2 (--)))))(2 (2 (that))(1 (2 (simply))(2 (2 (feel))(1 (wrong))))))))(2 (.)))) |BT| (ROOT (S (NP (NNP (Romanek)))(VP (VBZ (keeps))(S (VP (VBG (adding))(NP (NP (NP (NNS (flourishes)))(: (--))(NP (ADJP (JJ (artsy)))(NN (fantasy))(NNS (sequences)))(: (--)))(SBAR (WHNP (WDT (that)))(S (ADVP (RB (simply)))(VP (VBP (feel))(ADJP (JJ (wrong))))))))))(. (.)))) |ET| 
0.049504416196302809816121026642577  |BT| (ROOT (3 (3 (2 (A))(3 (3 (stirring))(3 (tribute))))(3 (2 (to))(2 (2 (3 (2 (the))(3 (2 (3 (bravery))(2 (and)))(3 (dedication))))(2 (2 (of))(2 (2 (2 (the))(2 (2 (world))(2 ('s))))(2 (reporters)))))(3 (2 (who))(2 (2 (willingly))(2 (2 (2 (walk))(2 (2 (into))(1 (1 (2 (the))(0 (nightmare)))(1 (2 (of))(1 (war))))))(3 (1 (not))(2 (3 (2 (2 (2 (only))(2 (2 (to))(2 (2 (2 (record))(2 (2 (the))(2 (events))))(2 (2 (for))(2 (posterity))))))(2 (,)))(2 (but)))(2 (2 (to))(2 (2 (help))(3 (us))))))))))))(3 (2 (clearly))(2 (2 (2 (see))(2 (2 (2 (the))(2 (world)))(3 (2 (of))(2 (2 (our))(2 (making))))))(2 (.))))) |BT| (ROOT (S (NP (NP (DT (A))(NN (stirring))(NN (tribute)))(PP (IN (to))(NP (NP (NP (DT (the))(NN (bravery))(CC (and))(NN (dedication)))(PP (IN (of))(NP (NP (DT (the))(NN (world))(POS ('s)))(NNS (reporters)))))(SBAR (WHNP (WP (who)))(S (ADVP (RB (willingly)))(VP (VBP (walk))(PP (IN (into))(NP (NP (DT (the))(NN (nightmare)))(PP (IN (of))(NP (NN (war))))))(S (VP (CONJP (RB (not))(RB (only)))(VP (TO (to))(VP (VB (record))(NP (DT (the))(NNS (events)))(PP (IN (for))(NP (NN (posterity))))))(, (,))(CC (but))(VP (TO (to))(VP (VB (help))(NP (PRP (us)))(ADVP (RB (clearly)))))))))))))(VP (VBP (see))(NP (NP (DT (the))(NN (world)))(PP (IN (of))(NP (PRP$ (our))(NN (making))))))(. (.)))) |ET| 
0.049504416196302809816121026642577  |BT| (ROOT (4 (4 (Beautifully))(2 (2 (shot))(3 (2 (against))(2 (2 (2 (the))(2 (2 (frozen))(3 (2 (winter))(2 (landscapes)))))(2 (2 (of))(2 (2 (2 (Grenoble))(2 (and)))(2 (Geneva))))))))(3 (2 (,))(3 (2 (2 (the))(2 (film)))(3 (2 (4 (4 (2 (unfolds))(3 (2 (with))(3 (2 (2 (all))(2 (2 (the))(2 (2 (mounting))(2 (tension)))))(3 (2 (of))(4 (2 (an))(4 (2 (expert))(3 (thriller))))))))(2 (,)))(2 (2 (until))(2 (3 (2 (2 (the))(1 (tragedy)))(1 (2 (beneath))(2 (it))))(2 (2 (2 (all))(2 (gradually)))(3 (2 (reveals))(2 (itself)))))))(2 (.)))))) |BT| (ROOT (S (S (ADVP (RB (Beautifully)))(VP (VBN (shot))(PP (IN (against))(NP (NP (DT (the))(JJ (frozen))(NN (winter))(NNS (landscapes)))(PP (IN (of))(NP (NNP (Grenoble))(CC (and))(NNP (Geneva))))))))(, (,))(S (NP (DT (the))(NN (film)))(VP (VBZ (unfolds))(PP (IN (with))(NP (NP (PDT (all))(DT (the))(VBG (mounting))(NN (tension)))(PP (IN (of))(NP (DT (an))(NN (expert))(NN (thriller))))))))(, (,))(S (PP (IN (until))(NP (NP (DT (the))(NN (tragedy)))(PP (IN (beneath))(NP (PRP (it))))))(NP (DT (all)))(ADVP (RB (gradually)))(VP (VBZ (reveals))(NP (PRP (itself)))))(. (.)))) |ET| 
0.049504416196302809816121026642577  |BT| (ROOT (2 (2 (At))(3 (2 (once))(3 (3 (3 (subtle))(2 (and)))(2 (visceral)))))(3 (2 (,))(3 (2 (2 (the))(2 (film)))(3 (2 (never))(2 (2 (2 (1 (2 (succumbs))(2 (2 (to))(1 (2 (2 (the))(2 (trap)))(2 (2 (of))(2 (2 (the))(2 (1 (2 (maudlin))(2 (or)))(2 (tearful))))))))(2 (,)))(3 (2 (2 (offering))(2 (instead)))(3 (2 (with))(3 (2 (2 (its))(2 (unflinching)))(2 (2 (gaze))(3 (2 (2 (a))(2 (measure)))(3 (2 (of))(3 (2 (faith))(2 (2 (in))(2 (2 (the))(2 (future))))))))))))(2 (.))))))) |BT| (ROOT (S (PP (IN (At))(ADJP (RB (once))(JJ (subtle))(CC (and))(JJ (visceral))))(, (,))(NP (DT (the))(NN (film)))(ADVP (RB (never)))(VP (VBZ (succumbs))(PP (IN (to))(NP (NP (DT (the))(NN (trap)))(PP (IN (of))(NP (DT (the))(ADJP (JJ (maudlin))(CC (or))(JJ (tearful)))))))(, (,))(S (VP (VBG (offering))(PP (RB (instead))(IN (with))(NP (PRP$ (its))(JJ (unflinching))(NN (gaze))))(NP (NP (DT (a))(NN (measure)))(PP (IN (of))(NP (NP (NN (faith)))(PP (IN (in))(NP (DT (the))(NN (future))))))))))(. (.)))) |ET| 
-0.030893910168785752856646098507554  |BT| (ROOT (2 (Feels))(1 (1 (2 (like))(2 (2 (2 (the))(2 (work)))(1 (2 (of))(1 (2 (2 (2 (2 (1 (1 (2 (2 (an))(2 (artist)))(1 (2 (who))(1 (2 (2 (is))(2 (simply)))(1 (tired)))))(2 (--)))(2 (2 (of))(1 (2 (fighting))(2 (2 (the))(2 (2 (same))(1 (fights)))))))(2 (,)))(2 (2 (of))(2 (2 (putting))(2 (2 (2 (the))(2 (weight)))(2 (2 (of))(2 (2 (2 (the))(2 (world)))(2 (2 (on))(2 (2 (his))(2 (shoulders))))))))))(2 (,)))(3 (2 (of))(2 (2 (playing))(2 (2 (with))(2 (2 (narrative))(2 (form))))))))))(2 (.)))) |BT| (ROOT (NP (NP (NNS (Feels)))(PP (IN (like))(NP (NP (DT (the))(NN (work)))(PP (IN (of))(NP (DT (an))(NN (artist))))(SBAR (WHNP (WP (who)))(S (VP (VBZ (is))(ADVP (RB (simply)))(ADJP (JJ (tired))))))(: (--))(PP (IN (of))(S (VP (VBG (fighting))(NP (DT (the))(JJ (same))(NNS (fights))))))(, (,))(PP (IN (of))(S (VP (VBG (putting))(NP (NP (DT (the))(NN (weight)))(PP (IN (of))(NP (NP (DT (the))(NN (world)))(PP (IN (on))(NP (PRP$ (his))(NNS (shoulders))))))(, (,))(PP (IN (of))(S (VP (VBG (playing))(PP (IN (with))(NP (NN (narrative))(NN (form)))))))))))))(. (.)))) |ET| 
0.049504416196302809816121026642577  |BT| (ROOT (3 (3 (2 (2 (2 (A))(2 (sensitive)))(2 (,)))(3 (moving)))(2 (,)))(3 (4 (4 (brilliantly))(2 (2 (constructed))(2 (work))))(2 (.)))) |BT| (ROOT (S (NP (NP (DT (A))(JJ (sensitive)))(, (,))(VP (VBG (moving)))(, (,)))(ADVP (RB (brilliantly)))(VP (VBN (constructed))(NP (NN (work))))(. (.)))) |ET| 
0.049504416196302809816121026642577  |BT| (ROOT (2 (Charlotte))(3 (2 (Sometimes))(4 (4 (2 (is))(4 (2 (a))(4 (4 (brilliant))(2 (movie)))))(2 (.))))) |BT| (ROOT (S (NP (NNP (Charlotte)))(ADVP (RB (Sometimes)))(VP (VBZ (is))(NP (DT (a))(JJ (brilliant))(NN (movie))))(. (.)))) |ET| 
0.049504416196302809816121026642577  |BT| (ROOT (4 (3 (2 (A))(2 (4 (fun))(3 (3 (family))(2 (movie)))))(4 (2 (that))(3 (2 ('s))(3 (3 (suitable))(3 (2 (for))(4 (2 (2 (2 (all))(2 (ages)))(2 (--)))(3 (2 (2 (a))(2 (movie)))(2 (2 (that))(3 (2 (will))(3 (2 (make))(3 (2 (you))(3 (laugh)))))))))))))(3 (1 (2 (,))(2 (2 (2 (2 (cry))(2 (and)))(2 (realize)))(2 (,))))(2 (2 (`))(3 (2 (It))(2 (3 (2 (2 (2 (2 ('s))(2 (never)))(1 (2 (too))(2 (late))))(3 (2 (to))(2 (2 (believe))(2 (2 (in))(2 (2 (your))(2 (dreams)))))))(2 (.)))(2 ('))))))) |BT| (ROOT (S (NP (NP (DT (A))(JJ (fun))(NN (family))(NN (movie)))(SBAR (WHNP (WDT (that)))(S (VP (VBZ ('s))(ADJP (JJ (suitable))(PP (IN (for))(NP (NP (DT (all))(NNS (ages)))(: (--))(NP (NP (DT (a))(NN (movie)))(SBAR (WHNP (WDT (that)))(S (VP (MD (will))(VP (VB (make))(S (NP (PRP (you)))(VP (VB (laugh))))))))))))))))(, (,))(PRN (S (VP (VB (cry))(CC (and))(VB (realize)))))(, (,))(`` (`))(NP (PRP (It)))(VP (VBZ ('s))(ADVP (RB (never)))(ADJP (RB (too))(JJ (late)))(S (VP (TO (to))(VP (VB (believe))(PP (IN (in))(NP (PRP$ (your))(NNS (dreams))))))))(. (.))('' (')))) |ET| 
0.049504416196302809816121026642577  |BT| (ROOT (3 (2 (If))(1 (2 (you))(2 (2 (2 ('re))(1 (not)))(4 (2 (deeply))(3 (3 (touched))(2 (2 (by))(2 (2 (this))(2 (movie)))))))))(2 (2 (,))(1 (2 (3 (check))(2 (2 (your))(1 (pulse))))(2 (.))))) |BT| (ROOT (S (SBAR (IN (If))(S (NP (PRP (you)))(VP (VBP ('re))(RB (not))(ADVP (RB (deeply)))(VP (VBN (touched))(PP (IN (by))(NP (DT (this))(NN (movie))))))))(, (,))(VP (VB (check))(NP (PRP$ (your))(NN (pulse))))(. (.)))) |ET| 
0.049504416196302809816121026642577  |BT| (ROOT (2 (This))(3 (3 (2 (is))(3 (2 (2 (a))(2 (movie)))(2 (2 (you))(3 (2 (can))(2 (trust))))))(2 (.)))) |BT| (ROOT (S (NP (DT (This)))(VP (VBZ (is))(NP (NP (DT (a))(NN (movie)))(SBAR (S (NP (PRP (you)))(VP (MD (can))(VP (VB (trust))))))))(. (.)))) |ET| 
-0.049504416196302809816121026642577  |BT| (ROOT (2 (It))(4 (3 (4 (2 (2 ('s))(4 (4 (3 (3 (3 (3 (funny))(2 (and)))(2 (human)))(2 (and)))(2 (really)))(3 (4 (pretty))(4 (1 (damned))(3 (wonderful))))))(2 (,)))(2 (2 (all))(2 (2 (at))(2 (once)))))(2 (.)))) |BT| (ROOT (S (NP (PRP (It)))(VP (VBZ ('s))(ADJP (ADJP (JJ (funny))(CC (and))(JJ (human)))(CC (and))(RB (really))(ADJP (RB (pretty))(RB (damned))(JJ (wonderful))))(, (,))(ADVP (DT (all))(IN (at))(RB (once))))(. (.)))) |ET| 
-0.049504416196302809816121026642577  |BT| (ROOT (2 (Elling))(3 (4 (2 (2 (builds))(2 (gradually)))(3 (2 (until))(3 (2 (you))(4 (3 (2 (feel))(2 (fully)))(4 (3 (embraced))(3 (2 (by))(3 (2 (this))(3 (3 (gentle))(3 (comedy))))))))))(2 (.)))) |BT| (ROOT (S (NP (NNP (Elling)))(VP (VBZ (builds))(SBAR (ADVP (RB (gradually)))(IN (until))(S (NP (PRP (you)))(VP (VBP (feel))(ADVP (RB (fully)))(VP (VBN (embraced))(PP (IN (by))(NP (DT (this))(JJ (gentle))(NN (comedy)))))))))(. (.)))) |ET| 
-0.018351648331952269410649591918627  |BT| (ROOT (3 (3 (2 (See))(2 (it)))(2 (2 (for))(2 (2 (2 (his))(2 (performance)))(2 (2 (if))(2 (1 (nothing))(2 (else)))))))(2 (.))) |BT| (ROOT (S (VP (VB (See))(NP (PRP (it)))(PP (IN (for))(NP (PRP$ (his))(NN (performance))))(PP (IN (if))(NP (NN (nothing))(RB (else)))))(. (.)))) |ET| 
0.049504416196302809816121026642577  |BT| (ROOT (2 (2 (The))(2 (camera)))(3 (2 (4 (soars))(4 (2 (above))(4 (2 (2 (the))(2 (globe)))(4 (2 (in))(4 (4 (4 (dazzling))(2 (2 (panoramic))(2 (shots))))(4 (2 (that))(3 (3 (3 (2 (make))(2 (2 (2 (the))(2 (most)))(2 (2 (of))(2 (2 (the))(2 (2 (large-screen))(2 (format)))))))(2 (,)))(4 (2 (before))(4 (3 (3 (2 (2 (swooping))(2 (down)))(3 (2 (on))(3 (2 (2 (a))(3 (string)))(2 (2 (of))(2 (2 (exotic))(1 (locales)))))))(2 (,)))(3 (2 (2 (2 (scooping))(2 (2 (the))(2 (2 (whole))(2 (world)))))(2 (up)))(4 (2 (in))(4 (3 (2 (a))(3 (3 (joyous))(2 (2 (communal))(3 (festival)))))(2 (2 (of))(2 (rhythm)))))))))))))))(2 (.)))) |BT| (ROOT (S (NP (DT (The))(NN (camera)))(VP (VBZ (soars))(PP (IN (above))(NP (NP (DT (the))(NN (globe)))(PP (IN (in))(NP (NP (VBG (dazzling))(JJ (panoramic))(NNS (shots)))(SBAR (WHNP (WDT (that)))(S (VP (VBP (make))(NP (NP (DT (the))(JJS (most)))(PP (IN (of))(NP (DT (the))(NML (JJ (large))(HYPH (-))(NN (screen)))(NN (format)))))(, (,))(PP (IN (before))(S (VP (VBG (swooping))(PRT (RP (down)))(PP (IN (on))(NP (NP (DT (a))(NN (string)))(PP (IN (of))(NP (JJ (exotic))(NNS (locales)))))))))(, (,))(S (VP (VBG (scooping))(NP (DT (the))(JJ (whole))(NN (world)))(PRT (RP (up)))(PP (IN (in))(NP (NP (DT (a))(JJ (joyous))(JJ (communal))(NN (festival)))(PP (IN (of))(NP (NN (rhythm))))))))))))))))(. (.)))) |ET| 
0.049504416196302809816121026642577  |BT| (ROOT (3 (2 (When))(3 (2 (2 (compared))(2 (2 (to))(2 (2 (2 (2 (the))(2 (usual)))(2 (,)))(2 (2 (more))(2 (2 (somber))(2 (3 (festival))(2 (entries))))))))(3 (2 (,))(4 (3 (2 (2 (3 (Davis))(2 (')))(2 (2 (2 (highly))(3 (personal)))(2 (brand))))(2 (2 (of))(2 (2 (romantic))(3 (comedy)))))(3 (2 (is))(3 (2 (2 (a))(2 (3 (tart))(2 (2 (,))(2 (4 (smart))(2 (breath))))))(3 (2 (of))(3 (4 (fresh))(2 (air))))))))))(2 (2 (that))(3 (2 (3 (3 (2 (stands))(1 (out)))(2 (2 (from))(2 (2 (the))(2 (pack)))))(1 (2 (even))(2 (2 (if))(1 (2 (2 (the))(2 (picture)))(2 (2 (itself))(3 (2 (is))(1 (2 (somewhat))(1 (problematic)))))))))(2 (.))))) |BT| (ROOT (S (SBAR (WHADVP (WRB (When)))(S (PP (VBN (compared))(PP (IN (to))(NP (DT (the))(JJ (usual))(, (,))(ADJP (RBR (more))(JJ (somber)))(NN (festival))(NNS (entries)))))(, (,))(NP (NP (NP (NNP (Davis))(POS (')))(ADJP (RB (highly))(JJ (personal)))(NN (brand)))(PP (IN (of))(NP (JJ (romantic))(NN (comedy)))))(VP (VBZ (is))(NP (NP (NP (DT (a))(NN (tart)))(, (,))(NP (NP (JJ (smart))(NN (breath)))(PP (IN (of))(NP (JJ (fresh))(NN (air))))))(SBAR (WHNP (WDT (that)))(S (VP (VBZ (stands))(PRT (RP (out)))(PP (IN (from))(NP (NP (DT (the))(NN (pack)))(CONJP (RB (even))(IN (if)))(NP (DT (the))(NN (picture))))))))))))(NP (PRP (itself)))(VP (VBZ (is))(ADJP (RB (somewhat))(JJ (problematic))))(. (.)))) |ET| 
0.049504416196302809816121026642577  |BT| (ROOT (2 (2 (Nicole))(2 (Holofcener)))(3 (4 (4 (4 (2 ('s))(3 (3 (3 (Lovely))(2 (and)))(4 (Amazing))))(2 (,)))(3 (2 (from))(4 (2 (2 (2 (her))(2 (2 (own))(2 (screenplay))))(2 (,)))(3 (4 (2 (jumps))(4 (2 (to))(4 (2 (2 (the))(2 (head)))(2 (2 (of))(2 (2 (2 (the))(2 (class)))(2 (2 (of))(2 (2 (2 (women))(2 ('s)))(2 (films)))))))))(3 (2 (that))(2 (2 (manage))(2 (2 (to))(1 (1 (0 (avoid))(2 (2 (2 (the))(1 (ghetto)))(2 (2 (of))(3 (3 (sentimental))(2 (chick-flicks))))))(2 (2 (by))(2 (3 (2 (treating))(2 (2 (female))(2 (follies))))(2 (2 (with))(2 (2 (a))(2 (2 (satirical))(2 (style)))))))))))))))(2 (.)))) |BT| (ROOT (S (NP (NP (NP (NNP (Nicole))(NNP (Holofcener))(POS ('s)))(ADJP (JJ (Lovely))(CC (and))(JJ (Amazing))))(, (,))(PP (IN (from))(NP (PRP$ (her))(JJ (own))(NN (screenplay))))(, (,)))(VP (VBZ (jumps))(PP (IN (to))(NP (NP (NP (DT (the))(NN (head)))(PP (IN (of))(NP (NP (DT (the))(NN (class)))(PP (IN (of))(NP (NP (NNS (women))(POS ('s)))(NNS (films)))))))(SBAR (WHNP (WDT (that)))(S (VP (VBP (manage))(S (VP (TO (to))(VP (VB (avoid))(NP (NP (DT (the))(NN (ghetto)))(PP (IN (of))(NP (JJ (sentimental))(NN (chick))(HYPH (-))(NNS (flicks)))))(PP (IN (by))(S (VP (VBG (treating))(NP (JJ (female))(NNS (follies)))(PP (IN (with))(NP (DT (a))(JJ (satirical))(NN (style))))))))))))))))(. (.)))) |ET| 
0.049504416196302809816121026642577  |BT| (ROOT (2 (2 (2 (Gay))(2 (or)))(2 (straight)))(4 (2 (,))(4 (2 (3 (Kissing))(2 (2 (Jessica))(2 (Stein))))(4 (4 (2 (is))(4 (2 (one))(4 (2 (of))(4 (3 (2 (the))(4 (3 (greatest))(2 (2 (date))(2 (movies)))))(2 (2 (in))(2 (years)))))))(2 (.)))))) |BT| (ROOT (S (S (UCP (NP (NNS (Gay)))(CC (or))(ADVP (RB (straight)))))(, (,))(S (VP (VBG (Kissing))(NP (NNP (Jessica)))(NP (NNP (Stein)))))(VP (VBZ (is))(NP (NP (CD (one)))(PP (IN (of))(NP (NP (DT (the))(JJS (greatest))(NN (date))(NNS (movies)))(PP (IN (in))(NP (NNS (years))))))))(. (.)))) |ET| 
0.049504416196302809816121026642577  |BT| (ROOT (2 (2 (Their))(2 (work)))(4 (3 (2 (is))(3 (fantastic)))(2 (.)))) |BT| (ROOT (S (NP (PRP$ (Their))(NN (work)))(VP (VBZ (is))(ADJP (JJ (fantastic))))(. (.)))) |ET| 
0.049504416196302809816121026642577  |BT| (ROOT (2 (Miyazaki))(4 (4 (4 (4 (2 (is))(4 (2 (one))(3 (2 (of))(4 (2 (2 (world))(2 (2 (cinema))(2 ('s))))(4 (4 (2 (most))(3 (wondrously)))(3 (3 (gifted))(2 (artists))))))))(2 (and)))(3 (storytellers)))(2 (.)))) |BT| (ROOT (S (NP (NNP (Miyazaki)))(VP (VBZ (is))(NP (NP (CD (one)))(PP (IN (of))(NP (NP (NN (world))(NN (cinema))(POS ('s)))(ADJP (RBS (most))(RB (wondrously))(JJ (gifted)))(NNS (artists))(CC (and))(NNS (storytellers))))))(. (.)))) |ET| 
0.049504416196302809816121026642577  |BT| (ROOT (3 (2 (2 (2 (2 (The))(2 (Bard)))(2 (2 (as))(2 (2 (black))(3 (comedy)))))(2 (--)))(3 (2 (Willie))(2 (2 (would))(4 (2 (have))(4 (4 (loved))(2 (it)))))))(2 (.))) |BT| (ROOT (NP (NP (NP (DT (The))(NNP (Bard)))(PP (IN (as))(NP (JJ (black))(NN (comedy)))))(: (--))(S (NP (NNP (Willie)))(VP (MD (would))(VP (VB (have))(VP (VBN (loved))(NP (PRP (it)))))))(. (.)))) |ET| 
0.049504416196302809816121026642577  |BT| (ROOT (1 (2 (These))(2 (people)))(3 (3 (2 (2 (are))(2 (really)))(4 (2 (going))(3 (2 (to))(3 (4 (love))(3 (2 (The))(2 (2 (Piano))(2 (Teacher))))))))(2 (.)))) |BT| (ROOT (S (NP (DT (These))(NNS (people)))(VP (VBP (are))(ADVP (RB (really)))(VP (VBG (going))(S (VP (TO (to))(VP (VB (love))(NP (DT (The))(NN (Piano))(NN (Teacher))))))))(. (.)))) |ET| 
0.049504416196302809816121026642577  |BT| (ROOT (2 (2 (Woody))(2 (Allen)))(3 (4 (2 (2 (has))(2 (really)))(3 (3 (2 (found))(2 (2 (his))(2 (groove))))(2 (2 (these))(2 (days)))))(2 (.)))) |BT| (ROOT (S (NP (NNP (Woody))(NNP (Allen)))(VP (VBZ (has))(ADVP (RB (really)))(VP (VBN (found))(NP (PRP$ (his))(NN (groove)))(NP-TMP (DT (these))(NNS (days)))))(. (.)))) |ET| 
-0.012672206407723778445739704068274  |BT| (ROOT (1 (However))(3 (2 (,))(3 (3 (3 (3 (2 (it))(3 (2 ('s))(3 (4 (pleasant))(2 (enough)))))(2 (and)))(3 (2 (2 (its))(2 (3 (ecological))(2 (2 (,))(2 (2 (pro-wildlife))(2 (sentiments))))))(3 (3 (2 (are))(3 (certainly)))(2 (welcome)))))(2 (.))))) |BT| (ROOT (S (ADVP (RB (However)))(, (,))(S (NP (PRP (it)))(VP (VBZ ('s))(ADJP (JJ (pleasant))(JJ (enough)))))(CC (and))(S (NP (PRP$ (its))(JJ (ecological))(, (,))(JJ (pro-wildlife))(NNS (sentiments)))(VP (VBP (are))(ADVP (RB (certainly)))(ADJP (JJ (welcome)))))(. (.)))) |ET| 
-0.0066681630599926700747603902641458  |BT| (ROOT (2 (It))(1 (0 (2 (finds))(1 (1 (no))(3 (2 (way))(3 (2 (to))(3 (2 (3 (3 (entertain))(2 (or)))(3 (inspire)))(2 (2 (its))(2 (viewers))))))))(2 (.)))) |BT| (ROOT (S (NP (PRP (It)))(VP (VBZ (finds))(NP (DT (no))(NN (way))(S (VP (TO (to))(VP (VB (entertain))(CC (or))(VB (inspire))(NP (PRP$ (its))(NNS (viewers))))))))(. (.)))) |ET| 
-0.049504416196302809816121026642577  |BT| (ROOT (2 (Diaz))(1 (1 (1 (wears))(1 (out)))(1 (2 (her))(2 (1 (2 (welcome))(1 (2 (in))(1 (2 (her))(1 (2 (most))(1 (charmless))))))(2 (performance)))))) |BT| (ROOT (S (NP (NNP (Diaz)))(VP (VBZ (wears))(PRT (RP (out)))(NP (PRP$ (her))(NN (welcome)))(PP (IN (in))(NP (PRP$ (her))(ADJP (RBS (most))(JJ (charmless)))(NN (performance))))))) |ET| 
0.049504416196302809816121026642577  |BT| (ROOT (2 (I))(4 (4 (2 (was))(4 (3 (4 (4 (3 (2 (3 (amused))(2 (and)))(3 (4 (entertained))(2 (2 (by))(2 (2 (2 (the))(2 (unfolding)))(2 (2 (of))(2 (2 (Bielinsky))(2 ('s))))))))(3 (3 (3 (cleverly))(2 (constructed)))(2 (scenario))))(2 (,)))(2 (and)))(4 (3 (greatly))(4 (4 (impressed))(2 (2 (by))(2 (2 (2 (the))(2 (skill)))(2 (2 (of))(3 (2 (2 (the))(2 (actors)))(2 (2 (involved))(2 (2 (in))(3 (2 (the))(2 (enterprise)))))))))))))(2 (.)))) |BT| (ROOT (S (NP (PRP (I)))(VP (VP (VBD (was))(ADJP (JJ (amused))(CC (and))(JJ (entertained))(PP (IN (by))(NP (NP (DT (the))(NN (unfolding)))(PP (IN (of))(NP (NP (NNP (Bielinsky))(POS ('s)))(ADJP (ADVP (RB (cleverly)))(VBN (constructed)))(NN (scenario))))))))(, (,))(CC (and))(ADVP (RB (greatly)))(VP (JJ (impressed))(PP (IN (by))(NP (NP (DT (the))(NN (skill)))(PP (IN (of))(NP (NP (DT (the))(NNS (actors)))(VP (VBN (involved))(PP (IN (in))(NP (DT (the))(NN (enterprise)))))))))))(. (.)))) |ET| 
0.049504416196302809816121026642577  |BT| (ROOT (2 (...))(4 (4 (4 (3 (1 (2 (2 (2 (by))(2 (2 (the))(2 (time))))(2 (2 (it))(2 (2 ('s))(2 (2 (done))(3 (2 (with))(3 (us)))))))(2 (,)))(3 (2 (2 (2 (Mira))(2 (2 (Nair))(2 ('s))))(2 (3 (new))(2 (movie))))(3 (2 (has))(3 (3 (2 (its))(2 (2 (audience))(2 (giddy))))(3 (2 (with))(3 (2 (2 (the))(4 (delight)))(3 (2 (of))(2 (discovery)))))))))(2 (,)))(2 (2 (of))(2 (2 (having))(3 (2 (been))(2 (3 (3 (immersed))(2 (2 (in))(2 (2 (a))(1 (2 (foreign))(2 (2 (culture))(2 (only)))))))(2 (2 (to))(2 (2 (find))(2 (2 (that))(2 (3 (2 (human))(2 (nature)))(1 (2 (2 (is))(2 (4 (pretty))(2 (much))))(2 (2 (2 (the))(2 (same)))(2 (2 (all))(2 (over))))))))))))))(2 (.)))) |BT| (ROOT (S (NFP (...))(S (PP (IN (by))(NP (DT (the))(NN (time))))(NP (PRP (it)))(VP (VBZ ('s))(VP (VBN (done))(PP (IN (with))(NP (PRP (us)))))))(, (,))(S (NP (NP (NNP (Mira))(NNP (Nair))(POS ('s)))(JJ (new))(NN (movie)))(VP (VBZ (has))(S (NP (PRP$ (its))(NN (audience)))(ADJP (JJ (giddy))(PP (IN (with))(NP (NP (DT (the))(NN (delight)))(PP (IN (of))(NP (NN (discovery))))(, (,))(PP (IN (of))(S (VP (VBG (having))(VP (VBN (been))(VP (VBN (immersed))(PP (IN (in))(NP (DT (a))(JJ (foreign))(NN (culture))(RB (only))))(S (VP (TO (to))(VP (VB (find))(SBAR (IN (that))(S (NP (JJ (human))(NN (nature)))(VP (VBZ (is))(ADVP (RB (pretty))(RB (much)))(NP (DT (the))(JJ (same))))))))))))))))))(ADVP (RB (all))(RB (over)))))(. (.)))) |ET| 
0.049504416196302809816121026642577  |BT| (ROOT (2 (2 (While))(2 (2 (centered))(2 (2 (on))(2 (2 (2 (the))(2 (3 (life))(2 (experiences))))(3 (2 (of))(2 (2 (a))(2 (2 (particular))(2 (2 (theatrical))(3 (family))))))))))(4 (2 (,))(4 (2 (this))(4 (3 (3 (4 (4 (marvelous))(2 (2 (documentary))(2 (touches))))(3 (2 (--))(3 (3 (2 (ever))(4 (2 (so))(3 (gracefully))))(2 (--)))))(2 (2 (2 (on))(2 (2 (2 (the))(2 (2 (entire))(2 (history))))(2 (2 (of))(2 (2 (the))(2 (2 (Yiddish))(3 (theater)))))))(2 (2 (2 (,))(2 (both)))(2 (2 (in))(2 (2 (2 (America))(2 (and)))(2 (Israel)))))))(2 (.)))))) |BT| (ROOT (S (SBAR (IN (While))(S (VP (VBN (centered))(PP (IN (on))(NP (NP (DT (the))(NN (life))(NNS (experiences)))(PP (IN (of))(NP (DT (a))(JJ (particular))(JJ (theatrical))(NN (family)))))))))(, (,))(NP (DT (this))(JJ (marvelous))(NN (documentary)))(VP (VP (VBZ (touches)))(: (--))(ADVP (ADVP (RB (ever))(RB (so))(RB (gracefully)))(: (--))(PP (IN (on))(NP (DT (the))(JJ (entire))(NN (history)))))(PP (PP (IN (of))(NP (DT (the))(JJ (Yiddish))(NN (theater))))(, (,))(CC (both))(PP (IN (in))(NP (NNP (America))(CC (and))(NNP (Israel))))))(. (.)))) |ET| 
0.049504416196302809816121026642577  |BT| (ROOT (3 (3 (Like))(2 (2 (2 (Brosnan))(2 ('s)))(2 (performance))))(3 (2 (,))(3 (2 (Evelyn))(3 (3 (3 (comes))(2 (2 (from))(2 (2 (the))(2 (heart)))))(2 (.)))))) |BT| (ROOT (S (PP (IN (Like))(NP (NP (NNP (Brosnan))(POS ('s)))(NN (performance))))(, (,))(NP (NNP (Evelyn)))(VP (VBZ (comes))(PP (IN (from))(NP (DT (the))(NN (heart)))))(. (.)))) |ET| 
