SVM-light Version V5.01-TK-1.5
5 # kernel type
3 # kernel parameter -d 
1 # kernel parameter -g 
1 # kernel parameter -s 
1 # kernel parameter -r 
empty# kernel parameter -u 
0.4 # kernel parameter -L 
1 # kernel parameter -T 
T # kernel parameter -C 
0 # kernel parameter -F 
1 # kernel parameter -S 
0.400000 # kernel parameter -M 
0 # kernel parameter -N 
S # kernel parameter -V 
A # kernel parameter -W 
0 # kernel parameter -U 
10 # highest feature index 
8544 # number of training documents 
5457 # number of support vectors plus 1 
0.97087871 # threshold b, each following line is a SV (starting with alpha*y)
-0.01602052037319983898711051040209  |BT| (ROOT (2 (2 (The))(2 (Rock)))(4 (3 (2 (is))(4 (2 (destined))(2 (2 (2 (2 (2 (to))(2 (2 (be))(2 (2 (the))(2 (2 (21st))(2 (2 (2 (Century))(2 ('s)))(2 (3 (new))(2 (2 (``))(2 (Conan)))))))))(2 ('')))(2 (and)))(3 (2 (that))(3 (2 (he))(3 (2 ('s))(3 (2 (going))(3 (2 (to))(4 (3 (2 (make))(3 (3 (2 (a))(3 (splash)))(2 (2 (even))(3 (greater)))))(2 (2 (than))(2 (2 (2 (2 (1 (2 (Arnold))(2 (Schwarzenegger)))(2 (,)))(2 (2 (Jean-Claud))(2 (2 (Van))(2 (Damme)))))(2 (or)))(2 (2 (Steven))(2 (Segal))))))))))))))(2 (.)))) |ET| 
-0.033906734949948974522371258899511  |BT| (ROOT (4 (4 (4 (3 (Colorful))(4 (2 (,))(3 (3 (3 (3 (energetic))(2 (and)))(2 (sweetly)))(3 (whimsical)))))(2 (...)))(4 (3 (2 (the))(3 (3 (rare))(2 (sequel))))(3 (2 (that))(3 (2 ('s))(4 (4 (better))(2 (2 (than))(2 (2 (its))(2 (predecessor)))))))))(2 (.))) |ET| 
-0.061768768636727214293991039539833  |BT| (ROOT (3 (2 (2 (2 (2 (2 (Singer\/composer))(2 (2 (Bryan))(2 (Adams))))(2 (2 (contributes))(2 (2 (2 (a))(2 (slew)))(2 (2 (of))(2 (songs))))))(2 (2 (--))(2 (2 (2 (2 (a))(2 (2 (few))(3 (potential))))(2 (2 (2 (hits))(2 (,)))(2 (2 (2 (a))(2 (few)))(1 (1 (2 (more))(1 (2 (simply))(2 (intrusive))))(2 (2 (to))(2 (2 (the))(2 (story))))))))(2 (--)))))(2 (but)))(3 (4 (2 (the))(3 (2 (whole))(2 (package))))(2 (3 (certainly))(3 (2 (captures))(2 (1 (2 (the))(2 (2 (2 (intended))(2 (2 (,))(2 (2 (er))(2 (,)))))(3 (spirit))))(2 (2 (of))(2 (2 (the))(2 (piece)))))))))(2 (.))) |ET| 
-0.1165075662293364178179189138973  |BT| (ROOT (2 (Yet))(3 (2 (2 (the))(2 (act)))(3 (4 (3 (2 (is))(3 (2 (still))(4 (charming))))(2 (here)))(2 (.))))) |ET| 
-0.0027921473556117939497644986346359  |BT| (ROOT (1 (No))(2 (3 (thanks))(2 (.)))) |ET| 
0.1165075662293364178179189138973  |BT| (ROOT (2 (2 (You))(2 (2 ('d))(2 (2 (think))(2 (2 (by))(2 (now))))))(2 (2 (America))(2 (2 (2 (would))(1 (2 (have))(2 (2 (2 (had))(1 (2 (enough))(2 (2 (of))(2 (2 (plucky))(2 (2 (British))(1 (eccentrics)))))))(4 (2 (with))(4 (3 (hearts))(3 (2 (of))(3 (gold))))))))(2 (.))))) |ET| 
0.1165075662293364178179189138973  |BT| (ROOT (2 (You))(2 (1 (2 (Should))(2 (2 (1 (2 (Pay))(2 (2 (2 (Nine))(2 (Bucks)))(2 (2 (for))(2 (This)))))(2 (:)))(1 (2 (Because))(2 (2 (you))(2 (2 (can))(2 (2 (2 (2 (2 (hear))(2 (2 (about))(1 (1 (1 (suffering))(2 (2 (Afghan))(2 (refugees))))(2 (2 (on))(2 (2 (the))(2 (news)))))))(2 (and)))(2 (still)))(1 (2 (be))(2 (unaffected)))))))))(2 (.)))) |ET| 
0.1165075662293364178179189138973  |BT| (ROOT (2 (3 (2 (3 (3 (2 (A))(3 (3 (thunderous))(2 (ride))))(3 (2 (at))(3 (3 (2 (first))(2 (2 (,))(2 (2 (quiet))(2 (cadences)))))(3 (2 (of))(4 (4 (pure))(3 (finesse)))))))(2 (2 (2 (are))(2 (few)))(2 (2 (and))(2 (2 (far))(2 (between))))))(2 (;)))(1 (2 (2 (their))(1 (shortage)))(3 (2 (dilutes))(2 (2 (2 (the))(2 (potency)))(2 (2 (of))(3 (3 (2 (otherwise))(3 (respectable)))(2 (action))))))))(2 (.))) |ET| 
0.1165075662293364178179189138973  |BT| (ROOT (2 (2 (2 (2 (Post))(2 (9\/11)))(2 (2 (the))(2 (3 (philosophical))(2 (message)))))(2 (2 (2 (2 (of))(2 (``)))(2 (2 (Personal))(2 (4 (Freedom))(3 (First)))))(2 (''))))(1 (1 (2 (2 (might))(1 (not)))(2 (2 (be))(2 (2 (as))(2 (2 (palatable))(2 (2 (as))(2 (intended)))))))(2 (.)))) |ET| 
0.1165075662293364178179189138973  |BT| (ROOT (2 (2 (near))(2 (2 (the))(2 (end))))(3 (3 (2 (takes))(2 (2 (on))(2 (2 (a))(2 (2 (whole))(2 (2 (other))(2 (meaning)))))))(2 (.)))) |ET| 
-0.065287404308511293171690681447217  |BT| (ROOT (2 (They))(1 (2 (just))(1 (1 (2 (2 (do))(2 (n't)))(3 (2 (work))(2 (2 (in))(2 (concert)))))(2 (.))))) |ET| 
-0.0051768918854756644509773622075954  |BT| (ROOT (2 (2 (What))(3 (2 (2 ('s))(2 (really)))(3 (2 (so))(3 (3 (appealing))(2 (2 (about))(2 (2 (the))(2 (characters))))))))(3 (2 (2 (is))(2 (2 (2 (their))(2 (resemblance)))(2 (2 (to))(2 (2 (everyday))(3 (children))))))(2 (.)))) |ET| 
-0.0049067499202219777912348241954987  |BT| (ROOT (2 (2 (Featherweight))(2 (2 (romantic))(3 (comedy))))(3 (3 (2 (has))(3 (3 (3 (3 (2 (a))(3 (2 (few))(3 (3 (nice))(2 (twists)))))(1 (2 (in))(2 (2 (a))(2 (1 (standard))(2 (plot))))))(2 (and)))(3 (3 (2 (the))(3 (charisma)))(2 (2 (of))(2 (2 (2 (2 (Hugh))(2 (Grant)))(2 (and)))(2 (2 (Sandra))(2 (Bullock))))))))(2 (.)))) |ET| 
0.1165075662293364178179189138973  |BT| (ROOT (1 (2 (1 (1 (1 (Disappointingly))(1 (2 (,))(1 (2 (2 (the))(2 (characters)))(1 (2 (1 (2 (are))(1 (2 (too))(2 (2 (1 (strange))(2 (and)))(1 (dysfunctional)))))(2 (2 (,))(2 (2 (2 (Tom))(2 (included)))(2 (,)))))(1 (2 (to))(2 (2 (ever))(3 (2 (get))(1 (2 (under))(2 (2 (the))(2 (skin)))))))))))(2 (,)))(2 (but)))(3 (2 (this))(3 (2 (is))(3 (2 (2 (compensated))(2 (2 (in))(2 (2 (large))(2 (part)))))(4 (2 (by))(3 (3 (3 (2 (2 (2 (the))(2 (2 (off-the-wall))(2 (dialogue))))(2 (,)))(3 (2 (visual))(2 (playfulness))))(2 (and)))(3 (2 (2 (the))(2 (outlandishness)))(2 (2 (of))(2 (2 (2 (the))(2 (idea)))(2 (itself)))))))))))(2 (.))) |ET| 
0.1165075662293364178179189138973  |BT| (ROOT (1 (1 (0 (2 (LaBute))(2 (2 (2 (ca))(2 (n't)))(2 (2 (0 (avoid))(1 (2 (a))(1 (2 (fatal))(2 (mistake)))))(2 (2 (in))(2 (2 (the))(2 (2 (modern))(2 (era))))))))(2 (:)))(1 (2 (He))(1 (2 ('s))(1 (2 (2 (2 (changed))(2 (2 (the))(2 (2 (male))(3 (academic)))))(2 (2 (from))(2 (2 (a))(2 (2 (lower-class))(2 (Brit))))))(2 (2 (to))(1 (3 (3 (2 (an))(2 (American)))(2 (,)))(1 (2 (2 (a))(2 (choice)))(1 (2 (that))(2 (1 (2 (1 (upsets))(2 (2 (2 (the))(2 (3 (novel))(2 ('s))))(3 (4 (exquisite))(2 (balance)))))(2 (and)))(1 (2 (shreds))(3 (2 (2 (the))(2 (fabric)))(2 (2 (of))(2 (2 (the))(2 (film)))))))))))))))(2 (.))) |ET| 
0.1165075662293364178179189138973  |BT| (ROOT (2 (You))(2 (1 (2 (2 (come))(2 (away)))(1 (3 (2 (2 (2 (wishing))(2 (,)))(2 (though)))(2 (,)))(1 (2 (that))(1 (2 (2 (the))(2 (movie)))(2 (2 (spent))(2 (2 (2 (a))(3 (2 (2 (lot))(2 (less)))(2 (time))))(2 (2 (trying))(2 (2 (to))(3 (2 (2 (make))(3 (3 (2 (a))(3 (3 (credible))(2 (case))))(2 (2 (for))(2 (reports)))))(2 (2 (from))(2 (2 (2 (the))(2 (2 (1 (3 (afterlife))(2 (and)))(3 (2 (2 (a))(2 (lot)))(2 (more))))(2 (time))))(2 (2 (on))(2 (2 (2 (the))(3 (2 (romantic))(2 (urgency))))(2 (2 (that))(2 (2 ('s))(2 (2 (at))(2 (2 (2 (the))(2 (center)))(2 (2 (of))(2 (2 (the))(2 (story)))))))))))))))))))))(2 (.)))) |ET| 
0.1165075662293364178179189138973  |BT| (ROOT (2 (2 (When))(2 (2 (2 (2 (the))(2 (3 (precise))(2 (nature))))(2 (2 (of))(3 (2 (2 (Matthew))(2 ('s)))(1 (predicament)))))(3 (2 (finally))(3 (3 (comes))(2 (2 (into))(3 (3 (sharp))(2 (focus))))))))(2 (2 (,))(1 (2 (2 (the))(3 (revelation)))(1 (1 (0 (fails))(2 (2 (to))(3 (2 (justify))(2 (2 (the))(2 (build-up))))))(2 (.)))))) |ET| 
0.1165075662293364178179189138973  |BT| (ROOT (2 (They))(2 (2 (2 (should))(2 (2 (have))(2 (2 (found))(2 (2 (2 (Orson))(2 (2 (Welles))(2 ('))))(2 (great-grandson))))))(2 (.)))) |ET| 
0.1165075662293364178179189138973  |BT| (ROOT (2 (2 (For))(3 (free)))(2 (.))) |ET| 
0.1165075662293364178179189138973  |BT| (ROOT (2 (2 (The))(2 (movie)))(3 (2 (2 (2 (is))(2 (2 (our))(2 (story))))(2 (2 (2 (as))(2 (much)))(3 (2 (as))(3 (2 (it))(2 (2 (is))(2 (2 (2 (2 (Schmidt))(2 ('s)))(2 (,)))(2 (2 (1 (no))(2 (matter)))(2 (2 (if))(2 (2 (it))(3 (2 ('s))(3 (2 (viewed))(2 (2 (as))(2 (2 (a))(2 (2 (self-reflection))(2 (2 (or))(2 (2 (cautionary))(2 (tale))))))))))))))))))(2 (.)))) |ET| 
0.1165075662293364178179189138973  |BT| (ROOT (1 (0 (3 (4 (2 (2 (2 (The))(2 (Master)))(2 (2 (of))(2 (Disguise))))(3 (2 (is))(3 (funny))))(2 (--)))(1 (not)))(2 (2 (2 (``))(2 (3 (ha))(2 (3 (ha))(2 ('')))))(3 (3 (funny))(1 (2 (,))(2 (2 (``))(2 (1 (dead))(2 (2 (circus))(3 (2 (performer))(4 (2 (''))(3 (funny)))))))))))(2 (.))) |ET| 
0.1165075662293364178179189138973  |BT| (ROOT (2 (2 (Despite))(2 (2 (its))(2 (2 (raucous))(2 (intent)))))(3 (2 (,))(2 (1 (XXX))(2 (2 (2 (2 (is))(2 (2 (1 (2 (as))(1 (2 (conventional))(2 (2 (as))(2 (2 (a))(2 (2 (Nike))(2 (ad)))))))(2 (and)))(1 (2 (as))(1 (rebellious)))))(2 (2 (as))(2 (2 (spring))(2 (break)))))(2 (.)))))) |ET| 
-0.0025826218772146258134680962825769  |BT| (ROOT (1 (1 (2 (2 (2 (Human))(2 (Nature)))(1 (2 (,))(1 (1 (2 (in))(2 (short)))(0 (2 (,))(1 (1 (1 (2 (is))(2 (n't)))(2 (2 (nearly))(3 (2 (as))(3 (funny)))))(2 (2 (as))(2 (2 (it))(2 (2 (thinks))(3 (2 (it))(2 (is)))))))))))(2 (;)))(1 (2 (neither))(3 (2 (2 (is))(2 (it)))(2 (2 (as))(4 (smart))))))(2 (.))) |ET| 
-0.062657909338758033257477109145839  |BT| (ROOT (0 (1 (2 (1 (2 (Less))(3 (funny)))(2 (2 (than))(2 (2 (it))(2 (2 (should))(2 (be))))))(2 (and)))(1 (1 (2 (less))(3 (funny)))(2 (2 (than))(2 (2 (it))(2 (2 (thinks))(3 (2 (it))(2 (is))))))))(2 (.))) |ET| 
-0.038756263579256412799001196844983  |BT| (ROOT (2 (You))(1 (0 (2 (2 (ca))(2 (n't)))(0 (2 (believe))(2 (2 (anyone))(2 (2 (2 (would))(2 (really)))(3 (2 (buy))(2 (2 (this))(2 (stuff))))))))(2 (.)))) |ET| 
0.1165075662293364178179189138973  |BT| (ROOT (1 (1 (2 (To))(2 (2 (2 (2 (2 (show))(2 (2 (these))(2 (characters))))(2 (2 (in))(2 (2 (the))(2 (act)))))(2 (and)))(2 (2 (3 (give))(2 (them)))(2 (1 (1 (no))(2 (feelings)))(2 (2 (of))(2 (remorse)))))))(2 (2 (2 (2 (--))(2 (and)))(1 (2 (to))(2 (2 (2 (cut))(2 (repeatedly)))(2 (2 (to))(1 (2 (2 (the))(2 (flashback)))(2 (2 (of))(2 (2 (the))(1 (3 (original))(2 (rape))))))))))(2 (--))))(0 (0 (2 (is))(0 (2 (overkill))(3 (2 (to))(3 (2 (the))(2 (2 (highest))(2 (degree)))))))(2 (.)))) |ET| 
0.1165075662293364178179189138973  |BT| (ROOT (1 (2 (2 (3 (2 (2 (A))(2 (2 (few))(3 (3 (energetic))(2 (2 (stunt))(2 (sequences))))))(3 (3 (briefly))(2 (2 (enliven))(2 (2 (the))(2 (film))))))(2 (,)))(2 (but)))(1 (0 (2 (1 (1 (2 (the))(1 (1 (wheezing))(2 (1 (terrorist))(2 (subplot)))))(1 (2 (2 (has))(2 (n't)))(2 (3 (2 (the))(2 (stamina)))(2 (2 (for))(2 (2 (the))(2 (2 (100-minute))(2 (2 (running))(2 (time)))))))))(2 (,)))(2 (and)))(1 (1 (2 (2 (the))(2 (3 (protagonists))(2 ('))))(1 (2 (bohemian))(1 (boorishness))))(2 (2 (mars))(3 (3 (2 (the))(3 (spirit)))(3 (2 (of))(4 (3 (good))(3 (3 (clean))(4 (fun))))))))))(2 (.))) |ET| 
0.1165075662293364178179189138973  |BT| (ROOT (2 (2 (The))(2 (movie)))(2 (2 (1 (strains))(2 (2 (to))(3 (2 (2 (2 (stay))(2 (2 (on))(3 (3 (2 (the))(2 (2 (light))(2 (2 (,))(2 (2 (comic))(2 (side))))))(2 (2 (of))(2 (2 (the))(2 (issue)))))))(2 (,)))(2 (2 (despite))(2 (2 (2 (the))(1 (difficulty)))(2 (2 (of))(2 (2 (doing))(2 (2 (so))(2 (2 (when))(3 (2 (2 (dealing))(3 (2 (2 (with))(1 (2 (2 (the))(1 (destruction)))(2 (2 (of))(2 (property)))))(3 (2 (and))(2 (2 (2 (,))(2 (2 (potentially))(2 (,))))(2 (2 (of))(3 (life)))))))(2 (itself))))))))))))(2 (.)))) |ET| 
0.1165075662293364178179189138973  |BT| (ROOT (2 (2 (A))(1 (2 (2 (decidedly))(2 (mixed)))(2 (bag))))(2 (.))) |ET| 
0.1165075662293364178179189138973  |BT| (ROOT (2 (2 (Rabbit-Proof))(2 (Fence)))(2 (1 (3 (2 (will))(2 (probably)))(1 (2 (make))(1 (2 (you))(1 (angry)))))(2 (.)))) |ET| 
-0.019408537734005474467702256902157  |BT| (ROOT (2 (2 (Although))(2 (2 (2 (the))(2 (sequel)))(3 (2 (has))(3 (2 (2 (all))(2 (2 (the))(2 (2 (outward))(2 (elements)))))(2 (2 (of))(3 (2 (the))(3 (original))))))))(1 (2 (,))(2 (2 (2 (2 (the))(2 (2 (first))(2 (2 (film))(2 ('s)))))(3 (3 (lovely))(1 (flakiness))))(0 (1 (2 (is))(0 (2 (2 (gone))(2 (,)))(0 (2 (replaced))(1 (2 (by))(1 (2 (2 (the))(1 (1 (forced))(3 (funniness))))(2 (2 (found))(1 (2 (in))(0 (2 (the))(0 (1 (dullest))(2 (2 (kiddie))(2 (flicks))))))))))))(2 (.)))))) |ET| 
0.1165075662293364178179189138973  |BT| (ROOT (2 (It))(1 (2 (2 ('s))(1 (2 (2 (almost))(2 (as)))(1 (2 (if))(2 (2 (it))(2 (2 ('s))(2 (2 (2 (2 (an))(2 (2 (elaborate))(2 (dare))))(2 (more)))(2 (2 (than))(3 (2 (a))(2 (3 (full-blooded))(2 (film)))))))))))(2 (.)))) |ET| 
0.1165075662293364178179189138973  |BT| (ROOT (3 (3 (2 (A))(3 (2 (1 (0 (frustrating))(2 (yet)))(4 (2 (deeply))(3 (watchable))))(2 (melodrama))))(2 (2 (that))(2 (2 (makes))(2 (you)))))(1 (1 (2 (think))(2 (2 (it))(2 (2 (2 ('s))(3 (2 (a))(2 (2 (tougher))(2 (picture)))))(2 (2 (than))(3 (2 (it))(2 (is)))))))(2 (.)))) |ET| 
0.1165075662293364178179189138973  |BT| (ROOT (3 (2 (2 (2 (But))(2 (2 (this))(2 (1 (2 (is))(1 (not)))(2 (2 (2 (a))(2 (movie)))(2 (2 (about))(1 (2 (an))(1 (1 (inhuman))(2 (monster)))))))))(2 (;)))(3 (2 (it))(3 (2 ('s))(2 (2 (about))(2 (2 (a))(2 (2 (2 (very))(2 (human)))(2 (one))))))))(2 (.))) |ET| 
-0.0043426179809330509376530393694793  |BT| (ROOT (2 (1 (1 (2 (Neither))(3 (2 (as))(2 (3 (scary-funny))(2 (2 (as))(2 (Tremors))))))(2 (nor)))(2 (2 (demented-funny))(2 (2 (as))(2 (2 (Starship))(2 (Troopers))))))(2 (2 (,))(2 (2 (2 (the))(2 (movie)))(2 (1 (1 (2 (is))(2 (n't)))(1 (2 (tough))(2 (2 (to))(1 (2 (take))(2 (2 (2 (as))(2 (long)))(2 (2 (as))(2 (2 (you))(2 (2 ('ve))(2 (2 (paid))(3 (2 (a))(3 (2 (matinee))(2 (price)))))))))))))(2 (.)))))) |ET| 
-0.10276533844608053136493452939249  |BT| (ROOT (1 (2 (1 (2 (It))(1 (2 ('s))(1 (2 (supposed))(2 (2 (to))(2 (2 (be))(3 (2 (a))(2 (2 (romantic))(3 (comedy)))))))))(2 (-)))(1 (2 (it))(1 (2 (suffers))(1 (2 (from))(1 (2 (1 (1 (2 (too))(2 (much)))(2 (2 (Norma))(3 (Rae))))(2 (and)))(2 (1 (not))(2 (2 (enough))(2 (3 (Pretty))(2 (Woman))))))))))(2 (.))) |ET| 
-0.057542657094618032687094455468468  |BT| (ROOT (0 (1 (0 (2 (3 (Like))(2 (2 (a))(2 (2 (soft))(2 (drink)))))(2 (2 (that))(2 (2 ('s))(2 (2 (been))(1 (2 (2 (sitting))(3 (open)))(1 (2 (too))(2 (long))))))))(2 (:)))(1 (2 (it))(1 (2 ('s))(2 (2 (1 (2 (too))(2 (2 (much))(2 (syrup))))(2 (and)))(1 (1 (not))(2 (2 (enough))(2 (fizz))))))))(2 (.))) |ET| 
0.1165075662293364178179189138973  |BT| (ROOT (2 (2 (After))(2 (2 (all))(2 (2 (the))(2 (2 (big))(2 (build-up))))))(1 (2 (,))(0 (3 (2 (3 (2 (3 (3 (2 (the))(2 (payoff)))(2 (2 (for))(2 (2 (the))(2 (audience)))))(2 (,)))(2 (2 (as))(2 (3 (well))(2 (as)))))(2 (2 (the))(2 (characters))))(2 (,)))(0 (0 (2 (is))(0 (0 (0 (1 (1 (messy))(2 (,)))(1 (murky)))(2 (,)))(0 (unsatisfying))))(2 (.)))))) |ET| 
0.1165075662293364178179189138973  |BT| (ROOT (1 (2 (4 (4 (2 (2 (The))(2 (filmmaker)))(3 (2 (2 (2 (2 (ascends))(2 (,)))(3 (literally)))(2 (,)))(2 (2 (to))(3 (2 (2 (the))(2 (Olympus)))(2 (2 (of))(2 (2 (the))(2 (2 (art))(2 (world)))))))))(2 (,)))(2 (but)))(1 (2 (he))(0 (2 (would))(2 (2 (have))(0 (3 (2 (done))(3 (well)))(2 (2 (to))(1 (3 (1 (2 (end))(2 (2 (this))(2 (2 (1 (flawed))(3 (2 (,))(4 (dazzling))))(2 (series)))))(2 (2 (with))(2 (2 (2 (the))(2 (raising)))(2 (2 (of))(2 (2 (something))(2 (other)))))))(2 (2 (than))(2 (2 (his))(3 (2 (own))(2 (cremaster))))))))))))(2 (.))) |ET| 
0.1165075662293364178179189138973  |BT| (ROOT (2 (3 (Like))(2 (2 (the))(2 (series))))(4 (2 (,))(4 (2 (2 (the))(2 (movie)))(4 (3 (4 (4 (4 (2 (is))(3 (4 (4 (3 (3 (4 (3 (3 (funny))(2 (,)))(4 (smart)))(2 (,)))(3 (3 (visually))(3 (inventive))))(2 (,)))(2 (and)))(2 (most))))(2 (2 (of))(2 (all))))(2 (,)))(3 (alive)))(2 (.)))))) |ET| 
0.1165075662293364178179189138973  |BT| (ROOT (4 (2 (At))(3 (3 (2 (2 (2 (once))(2 (emotional)))(2 (and)))(3 (richly)))(2 (analytical))))(1 (2 (,))(2 (2 (2 (the))(2 (2 (Cosby-Seinfeld))(2 (encounter))))(2 (2 (alone))(2 (2 (2 (confirms))(2 (3 (2 (the))(2 (2 (serious))(2 (weight))))(1 (2 (behind))(1 (2 (this))(1 (1 (2 (superficially))(1 (loose)))(2 (2 (,))(2 (2 (larky))(2 (documentary)))))))))(2 (.))))))) |ET| 
0.1165075662293364178179189138973  |BT| (ROOT (2 (3 (3 (2 (2 (2 (The))(2 (film)))(3 (2 (affords))(3 (3 (us))(2 (3 (3 (intriguing))(2 (glimpses)))(2 (2 (of))(3 (2 (2 (the))(2 (insights)))(3 (2 (gleaned))(2 (2 (from))(2 (3 (2 (a))(2 (lifetime)))(2 (2 (of))(3 (3 (spiritual))(2 (inquiry)))))))))))))(2 (,)))(2 (but)))(1 (2 (2 (2 (2 (Ram))(2 (Dass)))(2 (:)))(3 (2 (Fierce))(2 (Grace))))(1 (1 (2 (does))(2 (n't)))(2 (2 (2 (organize))(2 (it)))(2 (2 (with))(2 (2 (any))(2 (2 (particular))(2 (insight)))))))))(2 (.))) |ET| 
0.1165075662293364178179189138973  |BT| (ROOT (2 (2 (The))(2 (film)))(3 (2 (2 (has))(2 (2 (2 (a))(2 (2 (childlike))(3 (quality))))(2 (2 (about))(2 (it)))))(2 (.)))) |ET| 
0.1165075662293364178179189138973  |BT| (ROOT (1 (1 (0 (2 (2 (2 (2 (Gambling))(2 (and)))(2 (throwing)))(3 (3 (2 (a))(2 (2 (basketball))(2 (game))))(2 (2 (for))(2 (money)))))(1 (1 (2 (is))(2 (n't)))(2 (2 (a))(2 (3 (new))(2 (plot))))))(2 (--)))(2 (2 (2 (in))(2 (2 (fact))(2 (Toback))))(2 (2 (himself))(2 (2 (2 (used))(2 (it)))(2 (2 (in))(2 (2 (2 (Black))(2 (and)))(2 (White))))))))(2 (.))) |ET| 
0.1165075662293364178179189138973  |BT| (ROOT (2 (2 (The))(2 (2 (first))(2 (half))))(3 (3 (3 (2 (bursts))(3 (2 (with))(3 (2 (a))(2 (2 (goofy))(3 (energy))))))(2 (3 (2 (previous))(3 (3 (Disney))(2 (films))))(2 (2 (only))(2 (2 (used))(2 (2 (for))(2 (2 (2 (a))(2 (2 (few))(2 (minutes))))(2 (2 (2 (here))(2 (and)))(2 (there)))))))))(2 (.)))) |ET| 
0.1165075662293364178179189138973  |BT| (ROOT (3 (3 (2 (2 (2 (1 (Die))(2 (2 (Another))(2 (Day))))(3 (1 (2 (2 (is))(2 (only)))(2 (2 (intermittently))(4 (entertaining))))(2 (2 (but))(3 (2 (it))(3 (2 (2 ('s))(2 (hard)))(1 (1 (not))(2 (2 (to))(2 (2 (be))(2 (1 (2 (a))(0 (sucker)))(2 (2 (for))(3 (2 (its))(3 (charms)))))))))))))(2 (,)))(2 (or)))(2 (2 (perhaps))(2 (2 (it))(3 (2 (2 ('s))(1 (2 (just))(0 (impossible))))(2 (1 (not))(2 (2 (to))(3 (2 (2 (feel))(2 (nostalgia)))(2 (2 (for))(2 (2 (movies))(2 (2 (you))(2 (2 (2 (grew))(2 (up)))(2 (with)))))))))))))(2 (.))) |ET| 
-0.0054895043139283365360436839353042  |BT| (ROOT (2 (Caviezel))(3 (4 (3 (2 (embodies))(2 (2 (2 (the))(2 (transformation)))(3 (2 (of))(2 (2 (his))(2 (character))))))(2 (completely)))(2 (.)))) |ET| 
-0.040234385879781370265462214774743  |BT| (ROOT (1 (2 (2 (A))(1 (2 (2 (2 (handsome))(2 (but)))(0 (unfulfilling)))(2 (2 (suspense))(1 (drama)))))(2 (more)))(1 (1 (2 (1 (3 (suited))(2 (2 (to))(2 (2 (2 (a))(2 (2 (quiet))(2 (evening))))(2 (2 (on))(2 (PBS))))))(2 (2 (than))(2 (2 (a))(3 (2 (night))(1 (out))))))(2 (2 (at))(2 (2 (an))(2 (AMC)))))(2 (.)))) |ET| 
-0.1165075662293364178179189138973  |BT| (ROOT (2 (A))(3 (3 (3 (3 (treat))(2 (2 (for))(2 (2 (its))(2 (depiction)))))(2 (2 (on))(2 (1 (not))(2 (1 (2 (giving))(2 (up)))(2 (2 (on))(2 (2 (dreams))(1 (2 (when))(1 (2 (you))(2 (2 ('re))(1 (2 (a))(1 (1 (struggling))(2 (nobody)))))))))))))(2 (.)))) |ET| 
0.1165075662293364178179189138973  |BT| (ROOT (2 (2 (2 (2 (A))(2 (2 (very))(2 (2 (familiar))(2 (tale)))))(2 (,)))(2 (2 (2 (1 (2 (3 (2 (2 (one))(2 (2 (that))(2 (2 ('s))(2 (2 (been))(1 (2 (told))(2 (2 (by))(2 (2 (countless))(2 (filmmakers)))))))))(2 (2 (2 (2 (2 (2 (about))(2 (Italian)))(2 (2 (-))(2 (2 (2 (2 (,))(2 (Chinese)))(3 (2 (-))(2 (2 (,))(2 (Irish)))))(2 (-)))))(2 (,)))(2 (Latin)))(2 (-))))(2 (,)))(2 (2 (2 (2 (Indian))(2 (-)))(2 (,)))(2 (Russian))))(2 (-)))(2 (and)))(1 (2 (2 (other))(2 (2 (hyphenate))(2 (2 (American))(2 (2 (young))(2 (men))))))(1 (1 (struggling))(2 (2 (to))(2 (2 (balance))(2 (1 (conflicting))(2 (3 (cultural))(2 (messages))))))))))(2 (.))) |ET| 
0.1165075662293364178179189138973  |BT| (ROOT (2 (2 (3 (2 (2 (Critics))(3 (3 (3 (2 (need))(3 (2 (a))(4 (3 (good))(3 (laugh)))))(2 (,)))(2 (too))))(2 (,)))(2 (and)))(2 (2 (2 (2 (this))(2 (1 (too-extreme-for-TV))(2 (rendition))))(2 (2 (of))(1 (2 (the))(2 (2 (notorious))(2 (2 (MTV))(2 (show)))))))(2 (2 (delivers))(2 (3 (2 (the))(3 (2 (2 (outrageous))(2 (2 (,))(1 (2 (sickening))(3 (2 (,))(3 (sidesplitting))))))(2 (goods))))(2 (2 (in))(1 (2 (steaming))(2 (2 (,))(2 (2 (visceral))(3 (heaps))))))))))(2 (.))) |ET| 
0.1165075662293364178179189138973  |BT| (ROOT (3 (4 (2 (A))(4 (3 (fantastic))(2 (2 (premise))(2 (anchors)))))(1 (2 (2 (this))(2 (movie)))(2 (2 (2 (,))(2 (but)))(2 (2 (what))(1 (2 (it))(2 (needs)))))))(2 (3 (2 (2 (2 (is))(2 (either)))(3 (1 (2 (2 (2 (2 (a))(2 (2 (2 (more))(1 (rigid)))(3 (2 (,))(3 (2 (Blair))(2 (2 (Witch-style))(2 (commitment)))))))(2 (2 (to))(2 (2 (its))(2 (2 (mockumentary))(2 (format))))))(2 (,)))(2 (or)))(3 (3 (2 (2 (a))(3 (3 (2 (more))(3 (straightforward)))(3 (2 (,))(3 (3 (dramatic))(2 (treatment))))))(2 (,)))(1 (2 (with))(2 (2 (all))(2 (2 (the))(3 (grandiosity))))))))(2 (2 (that))(2 (2 (that))(2 (implies)))))(2 (.)))) |ET| 
0.1165075662293364178179189138973  |BT| (ROOT (2 (Nachtwey))(3 (3 (2 (clears))(3 (2 (2 (the))(1 (cynicism)))(2 (3 (right))(2 (1 (out))(2 (2 (of))(2 (you)))))))(2 (.)))) |ET| 
-0.025392539470533135453900186462306  |BT| (ROOT (1 (1 (2 (An))(1 (0 (unencouraging))(3 (2 (threefold))(2 (expansion)))))(2 (2 (on))(2 (2 (the))(2 (2 (former))(2 (2 (MTV))(2 (series)))))))(1 (2 (,))(1 (1 (1 (2 (accompanying))(1 (2 (the))(1 (2 (stunt-hungry))(0 (dimwits)))))(1 (2 (in))(1 (2 (2 (a))(2 (2 (random))(2 (series))))(2 (2 (of))(2 (2 (collected))(2 (2 (gags))(1 (2 (,))(2 (2 (pranks))(1 (2 (,))(2 (2 (pratfalls))(2 (2 (,))(2 (2 (dares))(2 (2 (,))(2 (2 (2 (injuries))(2 (,)))(2 (etc.))))))))))))))))(2 (.))))) |ET| 
0.1165075662293364178179189138973  |BT| (ROOT (3 (Vividly))(3 (2 (2 (conveys))(2 (2 (2 (the))(2 (2 (shadow))(2 (side))))(2 (2 (of))(3 (2 (2 (the))(2 (2 (30-year))(2 (friendship))))(2 (2 (between))(2 (2 (two))(2 (2 (English))(2 (women)))))))))(2 (.)))) |ET| 
0.1165075662293364178179189138973  |BT| (ROOT (3 (2 (2 (A))(2 (movie)))(3 (2 (that))(3 (2 (will))(3 (1 (1 (2 (2 (wear))(2 (you)))(1 (out)))(2 (and)))(3 (2 (make))(3 (2 (you))(2 (2 (misty))(2 (2 (even))(2 (2 (when))(2 (2 (you))(2 (2 (do))(2 (n't)))))))))))))(2 (2 (2 (want))(2 (2 (to))(2 (be))))(2 (.)))) |ET| 
0.1165075662293364178179189138973  |BT| (ROOT (1 (2 (Although))(2 (2 (it))(1 (2 (1 (2 (does))(2 (n't)))(2 (always)))(2 (2 (hang))(2 (together))))))(3 (1 (2 (--))(2 (1 (2 (2 (0 (violence))(2 (and)))(3 (whimsy)))(1 (2 (2 (do))(2 (n't)))(2 (2 (combine))(3 (easily)))))(2 (--))))(3 (2 (``))(3 (3 (Cherish))(3 (2 (''))(3 (3 (certainly))(3 (2 (1 (2 (is))(2 (n't)))(0 (dull)))(2 (.))))))))) |ET| 
0.1165075662293364178179189138973  |BT| (ROOT (2 (There))(1 (2 (2 (2 (ai))(2 (n't)))(0 (2 (2 (2 (a))(2 (lot)))(1 (2 (more))(1 (painful))))(1 (2 (than))(1 (0 (2 (an))(1 (1 (unfunny))(2 (movie))))(2 (2 (that))(3 (2 (thinks))(3 (2 (it))(4 (2 ('s))(4 (hilarious))))))))))(2 (.)))) |ET| 
-0.032713421053556630824221684861186  |BT| (ROOT (2 (2 (2 (About))(2 (2 (the))(2 (2 (only))(2 (thing)))))(2 (2 (to))(3 (2 (2 (3 (give))(2 (2 (the))(2 (movie))))(2 (points)))(2 (for)))))(2 (1 (2 (is))(1 (2 (3 (bravado))(2 (--)))(0 (2 (to))(1 (1 (2 (2 (take))(1 (2 (an))(0 (1 (2 (entirely))(2 (stale)))(2 (concept)))))(2 (and)))(1 (2 (2 (2 (push))(2 (it)))(1 (2 (2 (through))(2 (2 (2 (the))(2 (2 (audience))(2 ('s))))(2 (2 (meat))(2 (grinder)))))(2 (2 (one))(2 (more)))))(2 (time)))))))(2 (.)))) |ET| 
-0.017637066226164520993391349179547  |BT| (ROOT (1 (2 (2 (PC))(2 (stability)))(2 (notwithstanding)))(1 (2 (,))(1 (2 (2 (the))(2 (film)))(2 (0 (2 (suffers))(2 (2 (from))(2 (3 (2 (2 (a))(2 (2 (simplistic))(2 (narrative))))(2 (and)))(2 (2 (a))(3 (2 (pat))(2 (2 (,))(3 (2 (fairy-tale))(2 (conclusion)))))))))(2 (.)))))) |ET| 
-0.020012932062355378443063713689298  |BT| (ROOT (2 (2 (2 (Left))(3 (me)))(3 (2 (with))(2 (3 (2 (the))(3 (2 (visceral))(3 (sensation))))(3 (2 (of))(2 (2 (2 (longing))(2 (,)))(2 (3 (3 (2 (lasting))(2 (traces)))(2 (2 (of))(2 (2 (2 (Charlotte))(2 ('s)))(2 (web)))))(2 (2 (of))(2 (2 (2 (desire))(2 (and)))(1 (desperation))))))))))(2 (.))) |ET| 
0.1165075662293364178179189138973  |BT| (ROOT (3 (Authentic))(1 (2 (,))(3 (3 (2 (2 (2 (and))(2 (at)))(2 (times)))(3 (endearing)))(1 (2 (,))(3 (3 (humorous))(1 (2 (,))(2 (2 (spooky))(1 (2 (,))(1 (2 (educational))(1 (2 (2 (,))(2 (but)))(1 (1 (2 (at))(1 (2 (2 (other))(2 (times)))(2 (2 (as))(1 (1 (bland))(1 (2 (as))(2 (2 (2 (a))(2 (block)))(2 (2 (of))(2 (snow)))))))))(2 (.))))))))))))) |ET| 
0.1165075662293364178179189138973  |BT| (ROOT (3 (3 (4 (Humorous))(2 (,)))(3 (3 (4 (3 (artsy))(2 (,)))(2 (and)))(3 (2 (even))(3 (cute)))))(3 (2 (,))(1 (1 (2 (in))(1 (2 (an))(2 (2 (off-kilter))(2 (2 (,))(1 (2 (dark))(2 (2 (,))(2 (2 (vaguely))(1 (1 (disturbing))(2 (way))))))))))(2 (.))))) |ET| 
0.1165075662293364178179189138973  |BT| (ROOT (3 (2 (Viewed))(3 (2 (as))(2 (2 (3 (3 (3 (3 (2 (2 (2 (a))(3 (comedy)))(2 (,)))(2 (2 (a))(3 (romance))))(2 (,)))(3 (2 (a))(2 (2 (fairy))(2 (tale)))))(2 (,)))(2 (or)))(2 (2 (a))(1 (drama))))))(0 (2 (,))(0 (2 (there))(0 (2 (2 (2 ('s))(1 (nothing)))(3 (2 (remotely))(3 (3 (triumphant))(2 (2 (about))(2 (2 (this))(2 (2 (motion))(2 (picture))))))))(2 (.)))))) |ET| 
0.1165075662293364178179189138973  |BT| (ROOT (2 (2 (In))(2 (2 (a))(2 (1 (strange))(2 (way)))))(1 (2 (,))(1 (2 (Egoyan))(2 (1 (2 (has))(2 (2 (done))(1 (2 (too))(2 (much)))))(2 (.)))))) |ET| 
-0.0058414933858053118623243626927888  |BT| (ROOT (2 (2 (Blade))(2 (II)))(2 (3 (2 (2 (merges))(2 (2 (2 (bits))(2 (and)))(2 (pieces))))(3 (2 (from))(3 (2 (2 (fighting))(2 (2 (2 (2 (2 (2 (2 (2 (2 (2 (2 (2 (2 (2 (2 (games))(2 (,)))(2 (2 (wire))(1 (fu))))(2 (,)))(2 (1 (horror))(2 (movies))))(2 (,)))(2 (mystery)))(2 (,)))(2 (2 (James))(2 (Bond))))(2 (,)))(2 (wrestling)))(2 (,)))(2 (sci-fi)))(2 (and)))(2 (anime))))(2 (2 (into))(2 (2 (one))(1 (2 (big))(2 (1 (bloody))(2 (stew)))))))))(2 (.)))) |ET| 
-0.037896815514399530278044636588675  |BT| (ROOT (3 (3 (2 (A))(3 (marvel)))(2 (2 (of))(2 (2 (production))(2 (design)))))(2 (.))) |ET| 
0.1165075662293364178179189138973  |BT| (ROOT (2 (2 (2 (All))(2 (Analyze)))(2 (2 (That))(2 (proves))))(1 (2 (2 (is))(2 (2 (that))(1 (2 (there))(1 (3 (2 (2 (is))(2 (really)))(2 (2 (2 (2 (only))(2 (2 (one))(2 (2 (movie))(2 ('s)))))(2 (worth)))(3 (2 (of))(3 (3 (decent))(2 (gags))))))(2 (2 (to))(2 (2 (be))(2 (2 (gleaned))(2 (2 (from))(2 (2 (the))(2 (premise)))))))))))(2 (.)))) |ET| 
0.1165075662293364178179189138973  |BT| (ROOT (2 (1 (-LRB-))(3 (2 (2 (2 (Crystal))(2 (and)))(2 (2 (De))(2 (Niro))))(3 (-RRB-))))(2 (2 (2 (manage))(1 (2 (to))(2 (2 (2 (2 (squeeze))(1 (out)))(2 (2 (3 (2 (some))(3 (3 (good))(3 (laughs))))(2 (2 (but))(1 (not))))(2 (enough))))(2 (2 (to))(3 (2 (make))(2 (1 (2 (this))(1 (3 (silly))(1 (1 (con))(2 (job)))))(2 (sing))))))))(2 (.)))) |ET| 
0.1165075662293364178179189138973  |BT| (ROOT (2 (2 (3 (2 (The))(3 (3 (good))(2 (thing))))(1 (2 (--))(2 (2 (2 (the))(2 (2 (2 (only))(3 (good)))(2 (thing))))(2 (--)))))(2 (2 (about))(2 (2 (Extreme))(2 (Ops)))))(1 (2 (2 (is))(2 (2 (that))(1 (2 (it))(0 (2 (2 ('s))(1 (2 (so))(1 (inane))))(2 (2 (that))(1 (2 (it))(1 (2 (2 (gave))(3 (me)))(1 (2 (2 (plenty))(2 (2 (of))(2 (time))))(2 (2 (to))(2 (2 (ponder))(2 (2 (my))(2 (2 (Thanksgiving))(2 (2 (to-do))(1 (list)))))))))))))))(2 (.)))) |ET| 
-0.11296688536720270179536385057872  |BT| (ROOT (2 (It))(0 (1 (0 (2 ('s))(0 (2 (as))(0 (2 (if))(0 (1 (2 (a))(1 (1 (bored))(2 (Cage))))(1 (1 (1 (0 (2 (spent))(1 (2 (2 (the))(2 (duration)))(1 (2 (of))(2 (2 (2 (2 (the))(2 (2 (film))(2 ('s))))(2 (1 (shooting))(2 (schedule))))(2 (2 (waiting))(2 (2 (to))(1 (scream))))))))(2 (:)))(2 (``)))(2 (1 (3 (Got))(1 (AIDS)))(2 (yet))))))))(2 (?)))(2 ('')))) |ET| 
-0.1165075662293364178179189138973  |BT| (ROOT (3 (2 (1 (1 (3 (2 (A))(2 (journey)))(1 (2 (that))(1 (1 (2 (is))(2 (2 (as))(1 (1 (difficult))(2 (2 (for))(2 (2 (the))(2 (audience)))))))(2 (2 (to))(2 (2 (take))(2 (2 (as))(2 (it))))))))(2 (2 (is))(2 (2 (for))(2 (2 (the))(1 (protagonist))))))(2 (--)))(3 (2 (yet))(3 (2 (it))(3 (2 ('s))(3 (2 (potentially))(3 (2 (just))(3 (2 (as))(3 (rewarding)))))))))(2 (.))) |ET| 
-0.046423075205733618786574368186848  |BT| (ROOT (3 (2 (With))(3 (2 (2 (the))(2 (2 (same))(2 (sort))))(3 (2 (of))(4 (3 (3 (good-natured))(4 (fun)))(2 (2 (found))(2 (2 (in))(2 (2 (films))(2 (2 (like))(2 (Tremors))))))))))(3 (2 (,))(2 (2 (2 (Eight))(1 (2 (Legged))(2 (Freaks))))(3 (3 (2 (is))(2 (3 (prime))(2 (2 (escapist))(2 (fare)))))(2 (.)))))) |ET| 
0.1165075662293364178179189138973  |BT| (ROOT (0 (1 (0 (1 (Smug))(0 (2 (,))(1 (1 (artificial))(1 (2 (,))(0 (0 (ill-constructed))(1 (2 (and))(0 (2 (fatally))(1 (overlong)))))))))(2 (...)))(0 (2 (it))(0 (2 (never))(1 (1 (1 (3 (3 (3 (2 (finds))(3 (2 (a))(2 (3 (consistent))(2 (tone)))))(2 (and)))(1 (lacks)))(1 (bite)))(2 (,)))(0 (1 (degenerating))(1 (2 (into))(1 (2 (a))(0 (2 (pious))(1 (2 (,))(1 (1 (preachy))(1 (2 (soap))(2 (opera)))))))))))))(2 (.))) |ET| 
0.1165075662293364178179189138973  |BT| (ROOT (2 (2 (At))(2 (2 (2 (the))(2 (end)))(2 (2 (of))(2 (2 (the))(2 (movie))))))(2 (2 (2 (,))(2 (2 (2 (2 (my))(2 (2 (6-year-old))(2 (nephew))))(2 (said)))(2 (,))))(2 (2 (``))(2 (2 (2 (1 (2 (2 (2 (I))(2 (2 (guess))(2 (2 (I))(2 (2 (come))(2 (2 (from))(2 (2 (a))(2 (2 (broken))(3 (family)))))))))(2 (,)))(2 (and)))(2 (2 (2 (my))(2 (uncles)))(2 (2 (2 (2 (are))(1 (2 (all))(2 (aliens))))(2 (,)))(2 (too)))))(2 (.)))(2 ('')))))) |ET| 
0.1165075662293364178179189138973  |BT| (ROOT (3 (2 (If))(2 (2 (I))(2 (2 (have))(2 (2 (to))(2 (2 (choose))(2 (2 (between))(2 (2 (1 (2 (3 (3 (3 (gorgeous))(2 (animation)))(2 (and)))(1 (2 (a))(0 (0 (lame))(2 (story)))))(2 (1 (-LRB-))(2 (2 (2 (2 (2 (2 (like))(2 (,)))(2 (say)))(2 (,)))(2 (3 (Treasure))(2 (Planet))))(3 (-RRB-)))))(2 (or)))(3 (2 (1 (2 (so-so))(2 (animation)))(2 (and)))(3 (4 (2 (an))(3 (4 (4 (exciting))(3 (2 (,))(4 (clever))))(2 (story))))(3 (2 (with))(3 (2 (2 (a))(3 (batch)))(3 (2 (of))(3 (3 (appealing))(2 (characters)))))))))))))))(2 (2 (,))(2 (2 (I))(2 (3 (2 ('ll))(2 (2 (2 (take))(2 (2 (the))(2 (latter))))(2 (2 (every))(2 (time)))))(2 (.)))))) |ET| 
-0.0054584351908263635880236286368472  |BT| (ROOT (2 (2 (2 (The))(3 (4 (best))(2 (part))))(2 (2 (about))(2 (2 (``))(2 (2 (Gangs))(2 (''))))))(3 (2 (2 (was))(2 (2 (Daniel))(2 (Day-Lewis))))(2 (.)))) |ET| 
0.1165075662293364178179189138973  |BT| (ROOT (2 (and))(2 (2 (``))(2 (2 (They))(2 (2 (2 (2 ('re))(2 (coming)))(2 (!)))(2 ('')))))) |ET| 
-6.2663148032821995884675270183095e-05  |BT| (ROOT (2 (1 (2 (The))(2 (2 (wanton))(2 (slipperiness))))(2 (2 (of))(3 (2 (1 (2 (2 (2 (\*))(2 (Corpus)))(2 (and)))(1 (2 (its))(2 (3 (amiable))(2 (jerking)))))(2 (and)))(2 (2 (reshaping))(2 (2 (of))(2 (2 (physical))(2 (2 (2 (time))(2 (and)))(2 (space)))))))))(4 (3 (2 (would))(4 (2 (2 (make))(2 (it)))(4 (2 (a))(4 (4 (great))(4 (2 (piece))(3 (2 (to))(3 (2 (2 (2 (watch))(2 (2 (with))(2 (kids))))(2 (and)))(2 (2 (use))(2 (2 (to))(3 (2 (2 (introduce))(2 (video)))(2 (2 (as))(2 (art)))))))))))))(2 (.)))) |ET| 
0.1165075662293364178179189138973  |BT| (ROOT (2 (It))(2 (2 (2 (2 ('s))(2 (clear)))(2 (2 (that))(2 (2 (Mehta))(1 (2 (simply))(2 (2 (wanted))(2 (2 (to))(3 (2 (2 (update))(2 (2 (her))(3 (3 (beloved))(2 (genre)))))(1 (2 (for))(2 (2 (2 (2 (the))(2 (thousands)))(2 (2 (of))(2 (Indians))))(2 (2 (who))(1 (3 (fancy))(1 (2 (themselves))(2 (2 (too))(3 (3 (sophisticated))(2 (2 (for))(3 (2 (2 (the))(1 (2 (cheese-laced))(2 (spectacles))))(2 (2 (that))(3 (2 (2 (pack))(2 ('em)))(2 (2 (in))(2 (2 (on))(2 (2 (the))(2 (subcontinent)))))))))))))))))))))))(2 (.)))) |ET| 
0.1165075662293364178179189138973  |BT| (ROOT (2 (...))(2 (2 (2 (the))(2 (implication)))(2 (2 (2 (is))(2 (2 (Kissinger))(2 (2 (may))(2 (2 (have))(2 (2 (decided))(2 (2 (2 (that))(2 (2 (--))(1 (2 (2 (when))(2 (2 (it))(2 (3 (comes))(2 (2 (to))(2 (truncheoning))))))(2 (--)))))(2 (2 (it))(2 (3 (2 ('s))(4 (better)))(2 (2 (to))(2 (3 (give))(2 (2 (than))(2 (2 (to))(3 (receive))))))))))))))(2 (.))))) |ET| 
0.1165075662293364178179189138973  |BT| (ROOT (2 (There))(2 (2 (2 (are))(2 (3 (2 (moments))(3 (2 (of))(3 (3 (real))(4 (pleasure)))))(2 (2 (to))(1 (2 (be))(2 (2 (2 (found))(2 (2 (in))(3 (3 (3 (3 (2 (2 (Sara))(2 (2 (Sugarman))(2 ('s))))(3 (3 (whimsical))(3 (comedy))))(2 (3 (Very))(2 (Annie-Mary))))(2 (2 (but))(1 (not))))(2 (enough)))))(2 (2 (to))(2 (2 (sustain))(2 (2 (the))(2 (film))))))))))(2 (.)))) |ET| 
-0.0516002597294581491493836722384  |BT| (ROOT (4 (4 (Best))(2 (2 (of))(2 (all))))(3 (2 (2 (is))(4 (2 (2 (Garcia))(2 (,)))(3 (2 (who))(3 (4 (perfectly))(2 (2 (portrays))(1 (2 (2 (the))(1 (desperation)))(2 (2 (of))(2 (2 (a))(2 (0 (2 (very))(1 (insecure)))(2 (man)))))))))))(2 (.)))) |ET| 
-0.067578127724093717265674285954447  |BT| (ROOT (2 (This))(1 (1 (2 (may))(2 (2 (2 (be))(2 (2 (the))(2 (2 (first))(2 (cartoon)))))(1 (2 (ever))(1 (2 (to))(0 (2 (look))(2 (2 (as))(2 (2 (if))(2 (2 (it))(2 (2 (were))(2 (2 (being))(2 (2 (shown))(2 (2 (on))(2 (2 (2 (the))(2 (2 (projection))(3 (2 (television))(2 (screen)))))(2 (2 (of))(2 (2 (a))(2 (2 (sports))(2 (bar))))))))))))))))))(2 (.)))) |ET| 
-0.017053783325275073678994885995053  |BT| (ROOT (2 (I))(3 (3 (2 ('d))(4 (2 (be))(3 (1 (lying))(3 (2 (if))(3 (2 (I))(2 (2 (said))(1 (3 (2 (my))(2 (ribcage)))(2 (2 (2 (did))(2 (n't)))(1 (1 (ache))(2 (2 (by))(2 (2 (2 (the))(2 (end)))(2 (2 (of))(2 (2 (Kung))(3 (Pow)))))))))))))))(2 (.)))) |ET| 
0.1165075662293364178179189138973  |BT| (ROOT (2 (2 (Though))(0 (2 (excessively))(1 (tiresome))))(2 (2 (,))(2 (2 (1 (2 (2 (2 (The))(1 (2 (Uncertainty))(2 (Principle))))(2 (,)))(2 (2 (as))(1 (2 (verbally))(1 (1 (pretentious))(2 (2 (as))(2 (2 (2 (the))(2 (title)))(2 (2 (may))(2 (be)))))))))(2 (,)))(1 (2 (2 (2 (2 (has))(3 (2 (2 (its))(2 (handful)))(2 (2 (of))(3 (2 (redeeming))(2 (features))))))(2 (,)))(2 (2 (2 (as))(2 (long)))(1 (2 (as))(1 (2 (you))(2 (2 (2 (discount))(2 (2 (its))(2 (ability))))(1 (2 (to))(0 (bore))))))))(2 (.)))))) |ET| 
0.1165075662293364178179189138973  |BT| (ROOT (3 (2 (For))(4 (2 (95))(3 (4 (2 (often))(4 (hilarious)))(2 (minutes)))))(2 (2 (,))(2 (2 (1 (-LRB-))(2 (2 (Cho))(3 (-RRB-))))(2 (2 (2 (2 (2 (riffs))(2 (2 (on))(2 (2 (2 (the))(2 (diciness)))(2 (2 (of))(2 (colonics))))))(2 (,)))(3 (2 (on))(2 (2 (2 (2 (straight))(2 (2 (versus))(1 (2 (gay))(2 (3 (personal))(2 (ads))))))(2 (,)))(2 (2 (2 (on))(2 (2 (how))(2 (2 (men))(2 (2 (would))(2 (2 (act))(3 (2 (if))(2 (2 (they))(2 (2 (had))(2 (periods))))))))))(2 (3 (2 (,))(2 (and)))(2 (2 (on))(2 (2 (2 (the))(2 (perils)))(3 (2 (of))(2 (2 (a))(2 (3 (certain))(2 (2 (outré))(2 (2 (sexual))(2 (practice))))))))))))))(2 (.)))))) |ET| 
0.1165075662293364178179189138973  |BT| (ROOT (2 (2 (For))(2 (2 (2 (2 (2 (all))(3 (2 (its))(2 (2 (plot))(2 (twists)))))(2 (,)))(2 (and)))(2 (2 (some))(1 (2 (of))(2 (2 (2 (them))(2 (verge)))(2 (2 (on))(2 (2 (2 (the))(2 (2 (1 (bizarre))(2 (2 (as))(2 (2 (the))(2 (film)))))(2 (winds))))(2 (down)))))))))(4 (2 (,))(4 (2 (2 (Blood))(2 (Work)))(3 (4 (2 (is))(4 (2 (a))(3 (3 (strong))(3 (2 (,))(3 (3 (character-oriented))(2 (piece)))))))(2 (.)))))) |ET| 
0.1165075662293364178179189138973  |BT| (ROOT (1 (2 (3 (2 (Curling))(2 (2 (may))(2 (2 (be))(2 (2 (a))(2 (3 (unique))(2 (sport)))))))(2 (but)))(1 (2 (3 (Men))(2 (2 (with))(2 (Brooms))))(2 (2 (is))(2 (2 (distinctly))(1 (ordinary))))))(2 (.))) |ET| 
0.1165075662293364178179189138973  |BT| (ROOT (2 (That))(2 (2 (2 (2 (is))(2 (2 (because))(2 (2 (-))(1 (damn)))))(2 (it)))(2 (!)))) |ET| 
-0.041910834174239068594669532785701  |BT| (ROOT (2 (2 (2 (See))(2 (Scratch)))(2 (2 (for))(2 (2 (the))(2 (history)))))(4 (2 (,))(4 (2 (2 (see))(2 (2 (Scratch))(2 (2 (for))(2 (2 (the))(2 (music))))))(2 (2 (,))(3 (2 (2 (2 (2 (2 (2 (2 (2 (see))(1 (2 (Scratch))(2 (2 (for))(2 (2 (2 (a))(2 (lesson)))(2 (2 (in))(2 (scratching)))))))(2 (,)))(2 (but)))(2 (,)))(2 (2 (most))(2 (2 (of))(2 (all)))))(2 (,)))(3 (3 (2 (see))(2 (it)))(2 (2 (for))(2 (2 (the))(2 (passion))))))(2 (.))))))) |ET| 
0.1165075662293364178179189138973  |BT| (ROOT (1 (3 (2 (`))(2 (3 (Sophisticated))(2 (2 ('))(2 (viewers)))))(1 (2 (who))(1 (2 (refuse))(2 (2 (to))(2 (2 (admit))(2 (2 (that))(1 (2 (they))(1 (2 (2 (do))(2 (n't)))(3 (2 (like))(2 (it)))))))))))(2 (2 (3 (2 (will))(2 (likely)))(2 (2 (call))(2 (2 (it))(2 (2 (`))(2 (2 (2 (challenging))(2 (')))(2 (2 (to))(2 (2 (their))(3 (2 (fellow))(2 (sophisticates))))))))))(2 (.)))) |ET| 
0.1165075662293364178179189138973  |BT| (ROOT (2 (2 (Wiser))(2 (souls)))(1 (2 (would))(2 (2 (2 (have))(3 (tactfully)))(2 (1 (1 (1 (pretended))(1 (1 (not))(2 (2 (to))(3 (2 (see))(2 (it))))))(2 (and)))(2 (2 (left))(2 (2 (it))(2 (1 (lying))(2 (there))))))))) |ET| 
0.1165075662293364178179189138973  |BT| (ROOT (2 (2 (2 (Would))(2 (I)))(4 (3 (2 (see))(2 (it)))(2 (again))))(2 (?))) |ET| 
-0.023275437451820153722525930106713  |BT| (ROOT (2 (2 (At))(2 (times)))(1 (2 (2 (Auto))(3 (Focus)))(2 (0 (2 (feels))(1 (1 (2 (so))(1 (distant)))(1 (2 (you))(1 (2 (2 (might))(2 (2 (as))(3 (well))))(2 (2 (be))(2 (2 (2 (watching))(2 (it)))(2 (2 (through))(2 (2 (a))(2 (telescope))))))))))(2 (.))))) |ET| 
-0.02091941942107733432010263641132  |BT| (ROOT (2 (Not))(1 (2 (even))(2 (2 (Felinni))(1 (1 (2 (would))(1 (2 (know))(1 (2 (what))(1 (2 (to))(2 (2 (make))(2 (2 (of))(1 (2 (this))(1 (2 (Italian))(0 (freakshow))))))))))(2 (.)))))) |ET| 
-0.034731215365141399065151972536114  |BT| (ROOT (1 (-LRB-))(3 (2 (2 (The))(2 (Cockettes)))(2 (3 (-RRB-))(3 (3 (3 (2 (3 (provides))(2 (2 (a))(2 (window))))(2 (2 (into))(3 (2 (2 (a))(2 (2 (subculture))(1 (hell-bent))))(3 (2 (on))(3 (2 (2 (expressing))(2 (itself)))(2 (2 (in))(2 (2 (every))(2 (2 (way))(3 (imaginable))))))))))(2 (.)))(2 (')))))) |ET| 
0.1165075662293364178179189138973  |BT| (ROOT (2 (It))(3 (2 (1 (2 (may))(1 (not)))(2 (2 (3 (2 (be))(3 (2 (3 (3 (2 (2 (2 (as))(2 (cutting)))(2 (,)))(3 (2 (as))(3 (witty))))(2 (or)))(2 (2 (as))(3 (true))))(2 (2 (as))(2 (back)))))(2 (2 (in))(3 (2 (2 (2 (2 (the))(3 (2 (glory))(2 (days))))(2 (2 (of))(3 (Weekend))))(2 (and)))(2 (2 (2 (Two))(2 (or)))(2 (2 (Three))(2 (Things)))))))(1 (2 (2 (2 (2 (I))(2 (2 (Know))(2 (2 (About))(2 (Her)))))(2 (,)))(2 (but)))(2 (2 (who))(2 (2 (else))(2 (3 (engaged))(2 (2 (in))(2 (2 (filmmaking))(2 (2 (today))(3 (2 (is))(3 (2 (so))(2 (2 (cognizant))(2 (2 (of))(2 (2 (2 (the))(2 (2 (2 (3 (cultural))(2 (and)))(2 (moral)))(2 (issues))))(2 (2 (involved))(2 (2 (in))(2 (2 (the))(2 (process)))))))))))))))))))(2 (?)))) |ET| 
0.1165075662293364178179189138973  |BT| (ROOT (4 (2 (While))(4 (3 (2 (2 (2 (Glover))(2 (,)))(3 (2 (2 (the))(2 (2 (irrepressible))(2 (eccentric))))(2 (2 (2 (of))(2 (2 (2 (River))(2 ('s)))(2 (2 (Edge))(2 (2 (,))(1 (0 (Dead))(2 (Man)))))))(2 (2 (and))(2 (2 (Back))(2 (2 (to))(2 (2 (the))(2 (Future)))))))))(2 (,)))(3 (3 (2 (is))(4 (perfect)))(3 (2 (casting))(2 (2 (for))(2 (2 (the))(2 (role))))))))(2 (2 (,))(2 (2 (he))(1 (2 (2 (represents))(2 (2 (2 (Bartleby))(2 ('s)))(2 (2 (main))(1 (2 (overall))(2 (flaw))))))(2 (.)))))) |ET| 
0.1165075662293364178179189138973  |BT| (ROOT (2 (2 (2 (Alain))(2 (2 (Choquart))(2 ('s))))(2 (camera)))(3 (2 (barely))(3 (2 (2 (stops))(2 (3 (3 (2 (3 (moving))(2 (,)))(2 (2 (portraying))(2 (2 (2 (both))(1 (2 (the))(1 (turmoil))))(2 (2 (of))(2 (2 (the))(2 (time)))))))(2 (and)))(2 (2 (2 (giving))(2 (Conduct)))(3 (2 (2 (a))(3 (2 (perpetual))(2 (sense))))(2 (2 (of))(2 (2 (2 (urgency))(2 (,)))(2 (2 (which))(2 (2 (,))(2 (1 (2 (for))(1 (2 (2 (a))(2 (film)))(1 (2 (that))(1 (2 (2 (takes))(2 (2 (2 (nearly))(2 (three)))(2 (hours))))(2 (2 (to))(2 (unspool)))))))(3 (2 (,))(2 (2 (is))(3 (2 (both))(2 (3 (3 (funny))(2 (and)))(0 (irritating)))))))))))))))(2 (.))))) |ET| 
0.1165075662293364178179189138973  |BT| (ROOT (0 (Flawed))(3 (2 (2 (,))(2 (but)))(3 (3 (2 (worth))(2 (2 (seeing))(2 (2 (for))(2 (2 (2 (Ambrose))(2 ('s)))(2 (performance))))))(2 (.))))) |ET| 
-0.050868162162145451332673218303171  |BT| (ROOT (2 (And))(4 (2 (it))(3 (3 (2 (sees))(3 (2 (2 (2 (those))(2 (relationships)))(2 (,)))(3 (2 (including))(4 (3 (3 (2 (2 (2 (2 (2 (2 (2 (that))(2 (2 (between))(2 (2 (2 (2 (the))(2 (son)))(2 (and)))(2 (2 (his))(2 (wife))))))(2 (,)))(2 (and)))(2 (2 (2 (2 (the))(2 (wife)))(2 (and)))(2 (2 (the))(2 (father)))))(2 (,)))(2 (and)))(2 (2 (between))(2 (2 (the))(2 (2 (two))(2 (brothers))))))(2 (,)))(3 (2 (with))(3 (3 (incredible))(3 (2 (2 (subtlety))(2 (and)))(3 (acumen)))))))))(2 (.))))) |ET| 
0.1165075662293364178179189138973  |BT| (ROOT (2 (2 (2 (More))(3 (2 (of))(4 (2 (an))(3 (3 (intriguing))(2 (curiosity))))))(2 (2 (than))(3 (2 (a))(3 (3 (gripping))(3 (thriller))))))(2 (.))) |ET| 
0.1165075662293364178179189138973  |BT| (ROOT (2 (Now))(2 (2 (I))(2 (1 (2 (can))(1 (2 (see))(2 (2 (why))(1 (2 (people))(2 (2 (thought))(2 (2 (I))(2 (2 (was))(2 (2 (too))(2 (2 (hard))(2 (2 (2 (2 (on))(2 (``)))(2 (2 (The))(2 (2 (Mothman))(2 (Prophecies)))))(2 (''))))))))))))(2 (.))))) |ET| 
0.1165075662293364178179189138973  |BT| (ROOT (2 (Gere))(2 (1 (2 (gives))(1 (4 (2 (a))(3 (3 (good))(2 (performance))))(1 (2 (in))(0 (2 (2 (a))(2 (film)))(1 (2 (that))(1 (1 (2 (does))(2 (n't)))(3 (2 (merit))(2 (it)))))))))(2 (.)))) |ET| 
0.1165075662293364178179189138973  |BT| (ROOT (2 (2 (Feeling))(2 (2 (like))(2 (2 (a))(3 (dope)))))(2 (3 (2 (2 (has))(2 (rarely)))(3 (2 (2 (been))(2 (2 (more))(4 (fun))))(2 (2 (than))(2 (2 (it))(2 (2 (is))(2 (2 (in))(3 (2 (Nine))(2 (Queens)))))))))(2 (.)))) |ET| 
-0.0480479371046847042459049248464  |BT| (ROOT (1 (2 (3 (3 (2 (A))(3 (hit)))(2 (-)))(2 (2 (and-miss))(1 (affair))))(2 (,)))(2 (2 (3 (3 (3 (2 (consistently))(4 (amusing)))(2 (but)))(1 (1 (not))(2 (2 (as))(3 (2 (2 (outrageous))(2 (or)))(3 (funny))))))(2 (2 (2 (2 (as))(2 (2 (Cho))(2 (2 (may))(2 (2 (have))(2 (intended))))))(2 (or)))(3 (2 (as))(3 (2 (4 (imaginative))(2 (2 (as))(2 (one))))(2 (2 (might))(2 (2 (have))(2 (hoped))))))))(2 (.)))) |ET| 
-0.01299655805943080409681211762063  |BT| (ROOT (2 (2 (This))(2 (2 (100-minute))(2 (movie))))(1 (2 (only))(3 (1 (2 (has))(1 (2 (2 (2 (about))(2 (25)))(2 (minutes)))(2 (2 (of))(3 (3 (decent))(2 (material))))))(2 (.))))) |ET| 
-0.0094014281215807470742928941831451  |BT| (ROOT (2 (It))(0 (1 (2 ('s))(1 (3 (rare))(0 (2 (to))(0 (1 (3 (0 (2 (see))(1 (2 (2 (a))(2 (movie)))(1 (2 (that))(1 (3 (2 (takes))(2 (2 (such))(1 (2 (a))(2 (2 (speedy))(2 (2 (swan))(2 (dive)))))))(3 (3 (2 (2 (from))(2 (``)))(3 (promising)))(2 ('')))))))(3 (2 (to))(3 (2 (``))(3 (3 (interesting))(2 (''))))))(2 (2 (to))(2 (2 (``))(2 (2 (familiar))(2 (''))))))(0 (2 (before))(1 (2 (2 (landing))(2 (squarely)))(1 (1 (2 (2 (on))(2 (``)))(0 (stupid)))(2 ('')))))))))(2 (.)))) |ET| 
0.1165075662293364178179189138973  |BT| (ROOT (2 (2 (In))(3 (3 (capturing))(2 (2 (2 (the))(2 (2 (understated))(1 (3 (comedic))(1 (agony)))))(1 (2 (of))(2 (2 (an))(2 (2 (ever-ruminating))(2 (2 (,))(2 (3 (2 (2 (genteel))(2 (yet)))(2 (decadent)))(2 (2 (aristocracy))(2 (2 (that))(2 (1 (2 (can))(2 (1 (no))(2 (longer))))(2 (2 (pay))(2 (2 (its))(3 (bills)))))))))))))))(2 (2 (,))(3 (2 (2 (the))(2 (film)))(2 (2 (2 (2 (could))(2 (2 (just))(2 (2 (as))(3 (well)))))(2 (2 (be))(3 (2 (2 (addressing))(2 (2 (2 (the))(2 (turn)))(2 (2 (of))(2 (2 (the))(2 (3 (20th))(2 (century)))))))(3 (2 (into))(2 (2 (the))(2 (21st)))))))(2 (.)))))) |ET| 
0.1165075662293364178179189138973  |BT| (ROOT (1 (2 (2 (By))(2 (2 (the))(2 (time))))(2 (2 (it))(2 (2 (ends))(2 (2 (in))(1 (3 (2 (a))(1 (rush)))(2 (2 (of))(2 (2 (sequins))(3 (2 (,))(2 (2 (flashbulbs))(2 (2 (,))(2 (2 (blaring))(2 (2 (brass))(2 (2 (and))(3 (1 (back-stabbing))(2 (babes))))))))))))))))(1 (2 (,))(2 (2 (it))(2 (2 (2 (has))(2 (1 (2 (said))(2 (plenty)))(2 (2 (about))(1 (2 (how))(3 (2 (2 (show))(2 (business)))(1 (2 (has))(1 (2 (1 (2 (infiltrated))(2 (2 (every))(2 (corner))))(2 (2 (of))(2 (society))))(1 (2 (--))(1 (2 (and))(1 (1 (not))(3 (2 (always))(3 (2 (for))(2 (2 (the))(4 (better)))))))))))))))(2 (.)))))) |ET| 
0.1165075662293364178179189138973  |BT| (ROOT (2 (2 (2 (Massoud))(2 ('s)))(2 (story)))(3 (3 (2 (is))(3 (3 (2 (3 (2 (an))(3 (epic)))(2 (,)))(2 (2 (but))(2 (also))))(2 (2 (1 (2 (a))(1 (tragedy)))(2 (,)))(3 (2 (2 (the))(2 (record)))(2 (2 (of))(3 (3 (2 (a))(2 (3 (tenacious))(2 (2 (,))(3 (3 (humane))(2 (fighter))))))(2 (2 (who))(2 (2 (2 (was))(2 (also)))(2 (2 (2 (2 (the))(1 (prisoner)))(2 (1 (-LRB-))(1 (2 (and))(2 (2 (ultimately))(1 (2 (2 (the))(1 (victim)))(3 (-RRB-)))))))(2 (2 (of))(2 (history))))))))))))(2 (.)))) |ET| 
0.1165075662293364178179189138973  |BT| (ROOT (2 (It))(2 (2 (2 ('s))(2 (2 (about))(2 (time))))(2 (.)))) |ET| 
-0.021098987877307368715706914485963  |BT| (ROOT (2 (2 (In))(2 (3 (2 (the))(2 (2 (director))(2 ('s))))(2 (cut))))(4 (2 (,))(4 (4 (3 (3 (2 (2 (the))(2 (film)))(3 (2 (1 (2 (is))(1 (not)))(2 (only)))(3 (2 (2 (a))(3 (4 (love))(2 (song))))(2 (2 (to))(2 (2 (the))(2 (movies)))))))(2 (but)))(3 (2 (it))(4 (2 (also))(3 (3 (2 (is))(2 (2 (more))(2 (fully))))(3 (4 (2 (2 (an))(2 (example)))(3 (2 (of))(4 (2 (2 (the))(3 (kind)))(2 (2 (of))(4 (3 (lush))(3 (2 (,))(4 (2 (all-enveloping))(2 (2 (movie))(2 (experience))))))))))(2 (2 (it))(2 (rhapsodizes))))))))(2 (.))))) |ET| 
-0.052346553528827798051903386067352  |BT| (ROOT (2 (2 (As))(2 (2 (it))(2 (stands))))(1 (2 (,))(0 (2 (2 (Crocodile))(2 (Hunter)))(2 (2 (2 (has))(0 (1 (2 (the))(1 (2 (hurried))(1 (2 (,))(1 (1 (2 (badly))(2 (cobbled)))(2 (look))))))(2 (2 (of))(2 (2 (2 (2 (the))(2 (2 (1959))(2 (Godzilla))))(2 (,)))(2 (2 (which))(1 (2 (2 (2 (combined))(2 (scenes)))(2 (2 (of))(2 (2 (a))(2 (2 (Japanese))(2 (monster))))))(2 (2 (flick))(2 (2 (with))(2 (2 (2 (canned))(2 (shots)))(2 (2 (of))(2 (2 (2 (Raymond))(2 (Burr)))(2 (2 (commenting))(1 (2 (on))(2 (2 (2 (2 (the))(2 (2 (monster))(2 ('s))))(2 (path)))(1 (2 (of))(1 (destruction)))))))))))))))))(2 (.)))))) |ET| 
0.1165075662293364178179189138973  |BT| (ROOT (2 (2 (The))(2 (movie)))(2 (2 (2 (should))(1 (2 (be))(2 (2 (credited))(2 (2 (with))(2 (2 (remembering))(1 (2 (his))(1 (victims))))))))(2 (.)))) |ET| 
0.1165075662293364178179189138973  |BT| (ROOT (2 (...))(2 (2 (2 (1 (2 (either))(2 (2 (you))(2 (2 ('re))(1 (2 (willing))(1 (2 (to))(1 (2 (go))(2 (2 (with))(1 (2 (this))(1 (1 (claustrophobic))(2 (concept)))))))))))(2 (or)))(1 (2 (you))(2 (2 ('re))(1 (not)))))(2 (.)))) |ET| 
0.1165075662293364178179189138973  |BT| (ROOT (2 (2 (The))(2 (2 (whole))(1 (affair))))(2 (1 (1 (2 (is))(2 (2 (as))(2 (predictable))))(2 (2 (as))(2 (2 (can))(2 (be)))))(2 (.)))) |ET| 
-0.069706964867827042597880904395424  |BT| (ROOT (1 (2 (2 (2 (We))(2 (2 (started))(2 (2 (to))(2 (3 (wonder))(2 (if))))))(2 (...)))(0 (1 (2 (some))(1 (1 (unpaid))(2 (intern))))(1 (2 (2 (had))(2 (just)))(1 (2 (typed))(2 (2 (`))(1 (2 (1 (2 (2 (2 (3 (Chris))(2 (Rock)))(2 (,)))(2 (')))(2 (2 (`))(2 (2 (2 (Anthony))(3 (Hopkins)))(2 (2 ('))(2 (2 (and))(1 (2 (`))(2 (terrorists))))))))(2 (')))(1 (2 (into))(2 (2 (some))(1 (2 (Univac-like))(2 (2 (script))(2 (machine))))))))))))(2 (.))) |ET| 
-0.028030837168319524405069032013671  |BT| (ROOT (2 (2 (What))(3 (3 (3 (saves))(3 (2 (this))(3 (2 (2 (deeply))(2 (affecting)))(2 (film)))))(2 (2 (from))(2 (2 (being))(2 (merely))))))(3 (2 (2 (2 (a))(2 (collection)))(2 (2 (of))(2 (2 (wrenching))(2 (cases)))))(3 (2 (2 (is))(3 (2 (2 (2 (Corcuera))(2 ('s)))(2 (attention)))(2 (2 (to))(3 (detail)))))(2 (.))))) |ET| 
-0.1165075662293364178179189138973  |BT| (ROOT (2 (But))(1 (1 (1 (1 (2 (they))(1 (2 (2 (do))(2 (n't)))(3 (3 (fit))(3 (3 (well))(2 (together))))))(2 (and)))(1 (2 (neither))(4 (3 (2 (is))(3 (well)))(2 (told)))))(2 (.)))) |ET| 
0.1165075662293364178179189138973  |BT| (ROOT (2 (2 (2 (2 (2 (There))(3 (2 (3 (2 ('s))(3 (2 (2 (a))(2 (bit)))(2 (2 (of))(2 (2 (2 (thematic))(2 (meat)))(2 (2 (on))(3 (2 (2 (the))(2 (bones)))(2 (2 (of))(2 (2 (Queen))(2 (2 (of))(2 (2 (the))(1 (Damned))))))))))))(2 (,)))(3 (2 (as))(2 (2 (2 (2 (its))(2 (origins)))(2 (2 (in))(2 (2 (an))(2 (2 (Anne))(2 (2 (Rice))(3 (novel)))))))(2 (dictate))))))(2 (,)))(2 (but)))(2 (2 (generally))(1 (2 (,))(2 (2 (it))(1 (2 ('s))(2 (2 (2 (a))(2 (movie)))(2 (2 (that))(1 (2 (emphasizes))(1 (2 (style))(2 (2 (over))(2 (2 (2 (character))(2 (and)))(2 (substance)))))))))))))(2 (.))) |ET| 
0.1165075662293364178179189138973  |BT| (ROOT (1 (2 (2 (Were))(2 (it)))(1 (1 (not))(2 (2 (for))(2 (2 (2 (a))(2 (3 (sentimental))(2 (resolution))))(2 (2 (that))(2 (2 (2 (explains))(2 (2 (2 (way))(2 (more)))(2 (2 (about))(2 (Cal)))))(2 (2 (than))(2 (2 (does))(2 (2 (2 (2 (2 (the))(2 (movie)))(2 (or)))(2 (2 (the))(2 (character))))(2 (2 (any))(3 (good))))))))))))(3 (2 (,))(3 (3 (2 (2 (Freundlich))(2 ('s)))(2 (2 (World))(2 (Traveler))))(4 (4 (2 (might))(4 (2 (have))(4 (2 (been))(3 (2 (one))(3 (2 (of))(3 (3 (2 (the))(3 (3 (2 (more))(3 (2 (2 (daring))(2 (and)))(2 (surprising))))(2 (2 (American))(2 (movies)))))(2 (2 (of))(2 (2 (the))(2 (year))))))))))(2 (.)))))) |ET| 
0.1165075662293364178179189138973  |BT| (ROOT (1 (1 (3 (3 (2 (``))(3 (2 (Feardotcom))(3 (2 (''))(2 (2 (has))(3 (3 (2 (2 (the))(2 (makings)))(3 (2 (of))(3 (4 (2 (an))(3 (3 (interesting))(2 (meditation))))(3 (2 (on))(2 (2 (2 (the))(2 (3 (ethereal))(2 (nature))))(2 (2 (of))(2 (2 (2 (2 (the))(2 (internet)))(2 (and)))(2 (2 (the))(2 (3 (otherworldly))(2 (energies)))))))))))(3 (2 (it))(3 (2 (could))(2 (channel)))))))))(2 (,)))(2 (but)))(2 (2 (it))(1 (2 (simply))(2 (2 (becomes))(1 (2 (a))(2 (2 (routine))(2 (shocker))))))))(2 (.))) |ET| 
-0.036227373474588708823773686162895  |BT| (ROOT (3 (3 (3 (3 (2 (2 (Even))(2 (2 (if))(2 (2 (you))(2 (2 (2 (do))(2 (n't)))(3 (2 (2 (know))(2 (2 (2 (2 (the))(2 (band)))(2 (or)))(2 (2 (2 (the))(2 (2 (album))(2 ('s))))(2 (songs)))))(2 (2 (by))(2 (heart))))))))(3 (2 (,))(3 (2 (you))(3 (2 (will))(4 (4 (enjoy))(2 (2 (seeing))(3 (2 (how))(2 (2 (both))(3 (evolve))))))))))(2 (,)))(2 (and)))(3 (2 (you))(2 (2 (2 (will))(2 (also)))(2 (3 (2 (learn))(3 (2 (a))(3 (3 (good))(2 (deal)))))(2 (2 (about))(2 (2 (2 (the))(2 (state)))(2 (2 (of))(2 (2 (2 (the))(2 (2 (music))(2 (business))))(2 (2 (in))(2 (2 (the))(2 (2 (21st))(2 (Century)))))))))))))(2 (.))) |ET| 
0.1165075662293364178179189138973  |BT| (ROOT (2 (2 (A))(2 (2 (Sha-Na-Na))(2 (sketch))))(1 (2 (2 (punctuated))(2 (2 (with))(1 (2 (graphic))(0 (violence)))))(2 (.)))) |ET| 
0.1165075662293364178179189138973  |BT| (ROOT (1 (2 (3 (3 (Blithely))(2 (anachronistic)))(2 (and)))(2 (2 (slyly))(2 (achronological))))(2 (.))) |ET| 
0.1165075662293364178179189138973  |BT| (ROOT (2 (2 (1 (cynical))(2 (and)))(2 (serious)))(3 (2 (2 (2 (look))(2 (2 (at))(2 (2 (teenage))(2 (boys)))))(2 (2 (doing))(2 (2 (what))(3 (2 (they))(2 (3 (2 (2 (do))(4 (best)))(2 (-)))(2 (2 (being))(2 (teenagers))))))))(2 (.)))) |ET| 
0.1165075662293364178179189138973  |BT| (ROOT (2 (2 (Sandra))(2 (Bullock)))(2 (3 (2 ('s))(3 (3 (3 (4 (4 (4 (best))(3 (3 (dramatic))(2 (performance))))(2 (2 (to))(2 (date))))(2 (1 (-LRB-))(2 (2 (is))(3 (-RRB-)))))(2 (2 (almost))(2 (enough))))(1 (2 (to))(1 (2 (2 (3 (lift))(2 (1 (-LRB-))(2 (2 (2 (this))(3 (-RRB-)))(3 (2 (thrill-kill))(2 (cat-and-mouser))))))(2 (...)))(2 (2 (above))(1 (2 (its))(1 (1 (paint-by-numbers))(2 (plot)))))))))(2 (.)))) |ET| 
0.1165075662293364178179189138973  |BT| (ROOT (2 (2 (The))(2 (plot)))(2 (3 (2 (is))(2 (2 (1 (2 (romantic))(2 (3 (comedy))(2 (boilerplate))))(2 (2 (from))(2 (start))))(2 (2 (to))(2 (finish)))))(2 (.)))) |ET| 
-0.1165075662293364178179189138973  |BT| (ROOT (0 (1 (2 (2 (It))(2 (2 (2 ('s))(1 (not)))(2 (2 (a))(2 (2 (motion))(2 (picture))))))(2 (;)))(1 (2 (it))(1 (2 ('s))(2 (2 (an))(1 (1 (2 (utterly))(1 (static)))(2 (picture)))))))(2 (.))) |ET| 
-0.050132036250577688418772481782071  |BT| (ROOT (2 (Often))(1 (2 (0 (3 (silly))(1 (1 (2 (2 (--))(2 (and)))(0 (gross)))(2 (--))))(2 (2 (but))(2 (it))))(2 (1 (2 (2 ('s))(2 (rarely)))(0 (0 (2 (as))(0 (0 (moronic))(2 (2 (as))(2 (2 (some))(2 (campus))))))(2 (2 (gross-out))(2 (films)))))(2 (.))))) |ET| 
-0.099649216178790744891102804103866  |BT| (ROOT (2 (2 (What))(2 (more)))(1 (0 (2 (can))(2 (2 (be))(1 (1 (expected))(0 (2 (from))(0 (2 (2 (a))(2 (3 (college))(3 (comedy))))(1 (2 (that))(2 (2 ('s))(1 (2 (2 (target))(2 (audience)))(1 (2 (2 (has))(2 (n't)))(2 (3 (graduated))(2 (2 (from))(2 (2 (junior))(2 (3 (high))(2 (school)))))))))))))))(2 (?)))) |ET| 
0.1165075662293364178179189138973  |BT| (ROOT (2 (2 (3 (2 (A))(3 (2 (sly))(2 (dissection))))(2 (2 (of))(1 (2 (1 (2 (2 (the))(1 (inanities)))(2 (2 (of))(3 (2 (the))(2 (3 (contemporary))(2 (2 (music))(2 (business)))))))(2 (and)))(1 (1 (2 (a))(2 (1 (2 (rather))(1 (sad)))(2 (story))))(2 (2 (of))(1 (2 (the))(1 (difficulties))))))))(3 (2 (of))(2 (3 (artistic))(2 (collaboration)))))(2 (.))) |ET| 
0.1165075662293364178179189138973  |BT| (ROOT (2 (2 (About))(2 (2 (a))(2 (Boy))))(3 (3 (vividly))(3 (3 (2 (2 (3 (1 (recalls))(2 (2 (2 (the))(2 (2 (Cary))(2 (Grant))))(2 (2 (of))(2 (Room)))))(2 (2 (for))(2 (2 (One))(2 (More)))))(2 (,)))(3 (2 (2 (Houseboat))(2 (2 (and))(2 (2 (Father))(2 (Goose)))))(3 (2 (in))(2 (3 (2 (its))(2 (2 (affectionate))(2 (depiction))))(2 (2 (of))(2 (2 (2 (the))(2 (3 (gentle))(1 (war))))(2 (2 (between))(1 (1 (2 (2 (a))(1 (1 (1 (reluctant))(1 (2 (,))(1 (irresponsible))))(2 (man))))(2 (and)))(2 (2 (2 (the))(2 (kid)))(2 (2 (who))(2 (2 (latches))(2 (2 (onto))(2 (him))))))))))))))(2 (.))))) |ET| 
0.1165075662293364178179189138973  |BT| (ROOT (2 (`))(3 (2 (Enigma))(3 (2 ('))(4 (4 (4 (2 (is))(3 (2 (2 (the))(3 (kind)))(3 (2 (of))(3 (3 (4 (engaging))(2 (2 (historical))(1 (drama))))(2 (2 (that))(2 (2 (Hollywood))(2 (2 (appears))(2 (2 (to))(2 (2 (have))(2 (2 (1 (2 (given))(2 (up)))(2 (2 (on))(3 (2 (in))(3 (2 (favor))(3 (2 (of))(3 (3 (sentimental))(1 (1 (war))(2 (movies)))))))))(2 (2 (in))(2 (2 (2 (the))(3 (vein)))(3 (2 (2 (of))(2 (`)))(3 (2 (We))(2 (2 (Were))(2 (Soldiers)))))))))))))))))(2 (.)))(2 (')))))) |ET| 
0.1165075662293364178179189138973  |BT| (ROOT (2 (2 (2 (Reyes))(2 (')))(2 (word)))(2 (2 (processor))(2 (.)))) |ET| 
0.1165075662293364178179189138973  |BT| (ROOT (2 (Adam))(2 (2 (SANDLER))(2 (!)))) |ET| 
-0.09652615537065740991540252480263  |BT| (ROOT (2 (2 (What))(1 (remains)))(1 (1 (1 (1 (2 (is))(1 (2 (2 (a))(2 (variant)))(1 (2 (of))(2 (2 (the))(1 (1 (nincompoop))(2 (2 (Benigni))(2 (persona))))))))(2 (,)))(1 (1 (2 (here))(1 (1 (2 (0 (2 (a))(0 (2 (more))(0 (annoying))))(2 (,)))(2 (though)))(2 (2 (less))(1 (angry)))))(1 (2 (2 (version))(2 (2 (of))(2 (2 (the))(1 (1 (irresponsible))(2 (Sandlerian))))))(2 (2 (2 (manchild))(2 (,)))(1 (1 (undercut))(2 (2 (by))(2 (2 (2 (the))(2 (voice)))(2 (2 (of))(2 (2 (2 (the))(2 (star)))(2 (2 (of))(3 (2 (Road))(2 (Trip)))))))))))))(2 (.)))) |ET| 
0.1165075662293364178179189138973  |BT| (ROOT (3 (1 (1 (0 (2 (2 (2 (Tony))(2 (2 (Gayton))(2 ('s))))(2 (script)))(1 (1 (2 (does))(2 (n't)))(1 (2 (3 (give))(3 (us)))(3 (2 (anything))(2 (2 (we))(2 (2 (2 (have))(2 (n't)))(2 (2 (seen))(2 (before)))))))))(2 (,)))(2 (but)))(3 (3 (2 (2 (2 (2 (director))(2 (2 (D.J.))(2 (2 (Caruso))(2 ('s)))))(2 (2 (grimy))(3 (2 (visual))(2 (veneer)))))(2 (and)))(3 (2 (2 (Kilmer))(2 ('s)))(3 (3 (absorbing))(2 (performance)))))(2 (3 (2 (increase))(3 (2 (the))(2 (3 (gravitational))(2 (pull)))))(2 (considerably)))))(2 (.))) |ET| 
0.1165075662293364178179189138973  |BT| (ROOT (2 (1 (1 (1 (1 (1 (2 (It))(1 (2 ('s))(1 (2 (got))(1 (2 (some))(1 (1 (pretentious))(1 (2 (eye-rolling))(2 (moments))))))))(2 (and)))(1 (2 (it))(1 (2 (2 (2 (did))(2 (n't)))(2 (entirely)))(3 (2 (grab))(3 (me))))))(2 (,)))(2 (but)))(3 (2 (there))(3 (2 (3 (2 ('s))(2 (stuff)))(2 (here)))(3 (2 (to))(2 (like))))))(2 (.))) |ET| 
0.1165075662293364178179189138973  |BT| (ROOT (3 (1 (0 (2 (2 (Going))(2 (2 (to))(2 (2 (this))(2 (movie)))))(0 (2 (is))(1 (2 (2 (a))(2 (little)))(1 (2 (like))(2 (2 (chewing))(2 (2 (whale))(1 (blubber))))))))(2 (-)))(3 (3 (3 (1 (2 (it))(3 (2 ('s))(2 (2 (2 (an))(2 (2 (acquired))(2 (taste))))(2 (2 (that))(2 (2 (2 (takes))(2 (time)))(3 (2 (to))(4 (enjoy))))))))(2 (,)))(2 (but)))(3 (2 (it))(2 (3 (3 (2 ('s))(2 (2 (worth))(2 (it))))(2 (,)))(2 (2 (even))(2 (2 (if))(2 (2 (it))(2 (2 (does))(1 (2 (2 (take))(2 (2 (3))(2 (hours))))(2 (2 (to))(2 (2 (get))(2 (through)))))))))))))(2 (.))) |ET| 
-0.00033808039389967550671783902416223  |BT| (ROOT (0 (1 (1 (2 (1 (1 (2 (2 (A))(1 (laughable)))(2 (--)))(2 (2 (or))(2 (rather))))(2 (,)))(1 (unlaughable)))(2 (--)))(1 (2 (excuse))(2 (2 (for))(2 (2 (a))(2 (film))))))(2 (.))) |ET| 
-0.0092340675777980631838692815449576  |BT| (ROOT (2 (A))(1 (2 (big))(2 (1 (fat))(2 (2 (pain))(2 (.)))))) |ET| 
-0.1165075662293364178179189138973  |BT| (ROOT (2 (2 (The))(1 (1 (uneven))(2 (movie))))(2 (2 (2 (does))(2 (2 (have))(2 (2 (3 (3 (3 (2 (its))(3 (charms)))(2 (and)))(3 (2 (its))(3 (3 (funny))(2 (moments)))))(2 (2 (but))(1 (not))))(3 (2 (2 (quite))(2 (enough)))(2 (2 (of))(2 (them)))))))(2 (.)))) |ET| 
0.1165075662293364178179189138973  |BT| (ROOT (2 (Hardman))(1 (1 (2 (is))(2 (1 (2 (2 (a))(1 (2 (1 (grating))(2 (2 (,))(3 (mannered))))(2 (2 (onscreen))(2 (presence)))))(2 (,)))(1 (2 (which))(1 (2 (is))(1 (2 (especially))(1 (2 (unfortunate))(2 (2 (in))(2 (2 (light))(3 (2 (of))(3 (3 (2 (the))(4 (3 (fine))(2 (work))))(2 (2 (done))(2 (2 (by))(2 (2 (most))(2 (2 (of))(2 (2 (2 (the))(2 (rest)))(2 (2 (of))(2 (2 (her))(2 (cast)))))))))))))))))))(2 (.)))) |ET| 
0.1165075662293364178179189138973  |BT| (ROOT (2 (2 (2 (The))(2 (path)))(2 (2 (2 (Ice))(2 (Age)))(2 (2 (follows))(3 (2 (most))(2 (closely))))))(2 (2 (,))(2 (2 (though))(2 (2 (,))(2 (2 (2 (is))(2 (2 (2 (the))(2 (one)))(2 (2 (established))(2 (2 (by))(2 (2 (2 (2 (Warner))(2 (2 (Bros.))(3 (2 (giant))(2 (2 (Chuck))(2 (Jones))))))(2 (,)))(1 (2 (who))(1 (1 (1 (died))(2 (2 (2 (a))(2 (matter)))(3 (2 (of))(2 (weeks)))))(2 (2 (before))(2 (2 (2 (the))(2 (2 (movie))(2 ('s))))(2 (release)))))))))))(2 (.))))))) |ET| 
0.1165075662293364178179189138973  |BT| (ROOT (2 (2 (If))(2 (2 (Reno))(2 (2 (is))(2 (2 (to))(2 (2 (2 (the))(2 (left)))(2 (2 (of))(2 (2 (liberal))(2 (2 (on))(2 (2 (the))(2 (2 (political))(2 (spectrum))))))))))))(2 (2 (,))(3 (3 (2 (her))(4 (3 (2 (tough))(3 (2 (,))(3 (3 (funny))(1 (2 (,))(1 (2 (rather))(1 (chaotic)))))))(2 (show))))(2 (1 (2 (1 (2 (is))(2 (n't)))(1 (subversive)))(2 (2 (2 (so))(2 (much)))(2 (2 (as))(1 (2 (it))(2 (2 (is))(2 (1 (nit-picky))(3 (2 (about))(2 (2 (2 (the))(2 (hypocrisies)))(2 (2 (of))(2 (2 (our))(2 (time))))))))))))(2 (.)))))) |ET| 
0.1165075662293364178179189138973  |BT| (ROOT (2 (displays))(1 (2 (2 (the))(3 (potential)))(2 (2 (for))(1 (3 (2 (a))(3 (4 (better))(2 (movie))))(2 (2 (than))(2 (2 (what))(3 (2 (Bailly))(3 (2 (manages))(2 (2 (to))(3 (deliver))))))))))) |ET| 
-0.069417752461056733692679188152397  |BT| (ROOT (3 (2 (Now))(2 (2 (as))(2 (2 (a))(1 (2 (former))(2 (2 (Gong))(2 (2 (Show))(1 (addict))))))))(3 (2 (2 (,))(2 (2 (2 (I))(2 (2 ('ll))(2 (2 (admit))(2 (it)))))(2 (,))))(2 (1 (2 (my))(2 (2 (only))(1 (complaint))))(2 (1 (2 (is))(2 (2 (that))(1 (2 (we))(2 (2 (2 (did))(2 (n't)))(3 (3 (2 (get))(3 (2 (2 (more))(2 (re-creations)))(3 (2 (of))(3 (2 (all))(3 (2 (those))(3 (2 (famous))(2 (moments))))))))(2 (2 (from))(2 (2 (the))(2 (show)))))))))(2 (.)))))) |ET| 
-0.073069043994294535782074717644718  |BT| (ROOT (2 (2 (While))(3 (2 (2 (the))(2 (story)))(3 (2 (2 (is))(2 (3 (better-focused))(2 (2 (than))(1 (2 (the))(2 (1 (incomprehensible))(2 (2 (Anne))(2 (2 (Rice))(3 (novel)))))))))(2 (2 (it))(2 (2 ('s))(2 (2 (based))(2 (upon))))))))(0 (2 (,))(1 (2 (Queen))(0 (2 (2 (Of))(2 (2 (The))(1 (Damned))))(2 (1 (2 (is))(0 (1 (2 (a))(2 (0 (0 (pointless))(1 (2 (,))(1 (meandering))))(3 (celebration))))(1 (2 (of))(2 (2 (the))(1 (2 (2 (goth-vampire))(3 (2 (,))(0 (tortured))))(2 (1 (woe-is-me))(2 (lifestyle))))))))(2 (.))))))) |ET| 
0.1165075662293364178179189138973  |BT| (ROOT (2 (3 (Sex))(2 (2 (With))(2 (Strangers))))(3 (3 (2 (will))(2 (2 (2 (shock))(2 (many)))(2 (2 (with))(2 (2 (its))(2 (2 (unblinking))(2 (frankness)))))))(2 (.)))) |ET| 
0.1165075662293364178179189138973  |BT| (ROOT (4 (2 (A))(3 (4 (2 (really))(3 (funny)))(2 (fifteen-minute))))(1 (2 (short))(1 (1 (2 (2 (stretched))(2 (2 (beyond))(2 (2 (its))(2 (limits)))))(2 (2 (to))(2 (2 (fill))(2 (2 (an))(2 (2 (almost))(2 (3 (feature-length))(2 (film))))))))(2 (.))))) |ET| 
0.1165075662293364178179189138973  |BT| (ROOT (3 (3 (2 (A))(3 (3 (family-friendly))(3 (fantasy))))(2 (that)))(1 (1 (2 (2 (ends))(2 (up)))(1 (1 (2 (doing))(2 (2 (very))(2 (little))))(3 (2 (with))(3 (2 (its))(3 (4 (imaginative))(2 (premise)))))))(2 (.)))) |ET| 
-0.027091842954026668088829410407925  |BT| (ROOT (2 (This))(4 (4 (2 (is))(4 (3 (3 (2 (one))(4 (2 (of))(4 (3 (2 (the))(2 (2 (rarest))(2 (kinds))))(2 (2 (of))(2 (films))))))(2 (:)))(4 (3 (2 (a))(2 (3 (family-oriented))(2 (2 (non-Disney))(2 (film)))))(3 (2 (that))(4 (3 (2 (is))(2 (actually)))(4 (3 (funny))(2 (2 (without))(1 (2 (hitting))(2 (1 (below))(2 (2 (the))(2 (belt))))))))))))(2 (.)))) |ET| 
-0.1165075662293364178179189138973  |BT| (ROOT (1 (1 (1 (1 (1 (1 (Disappointing))(2 (2 (in))(2 (comparison))))(2 (2 (to))(2 (2 (other))(2 (2 (recent))(1 (1 (war))(2 (movies)))))))(2 (...)))(2 (or)))(2 (2 (2 (any))(2 (2 (other))(2 (2 (John))(3 (Woo)))))(2 (2 (flick))(2 (2 (for))(2 (2 (that))(2 (matter)))))))(2 (.))) |ET| 
-0.1165075662293364178179189138973  |BT| (ROOT (2 (There))(3 (3 (2 (are))(3 (3 (2 (moments))(2 (2 (of))(3 (hilarity))))(2 (2 (to))(2 (2 (be))(2 (had))))))(2 (.)))) |ET| 
0.1165075662293364178179189138973  |BT| (ROOT (1 (1 (2 (3 (2 (Jackson))(2 (2 (tries))(2 (2 (to))(2 (2 (keep))(2 (2 (2 (the))(2 (plates)))(2 (2 (spinning))(2 (2 (as))(2 (4 (best))(2 (2 (he))(2 (can)))))))))))(2 (,)))(2 (but)))(1 (1 (2 (all))(2 (2 (the))(2 (bouncing))))(2 (1 (1 (2 (2 (2 (2 (2 (back))(2 (and)))(2 (forth)))(2 (2 (2 (ca))(2 (n't)))(2 (help))))(2 (but)))(2 (2 (become))(1 (2 (2 (a))(2 (bit)))(1 (tedious)))))(2 (--)))(2 (2 (even))(3 (2 (with))(2 (3 (3 (3 (2 (the))(4 (4 (breathtaking))(2 (landscapes))))(2 (and)))(1 (villainous)))(2 (1 (varmints))(2 (2 (there))(1 (2 (to))(1 (1 (1 (distract))(2 (you)))(2 (2 (from))(2 (2 (the))(2 (ricocheting))))))))))))))(2 (.))) |ET| 
0.1165075662293364178179189138973  |BT| (ROOT (2 (2 (Because))(2 (2 (2 (Eight))(1 (2 (Legged))(2 (Freaks))))(2 (2 (2 (is))(2 (partly)))(3 (2 (3 (2 (2 (an))(3 (homage)))(2 (2 (to))(2 (2 (2 (2 (2 (Them))(2 (,)))(2 (Tarantula)))(2 (and)))(2 (2 (other))(2 (low))))))(2 (-)))(2 (2 (2 (budget))(3 (1 (B-movie))(2 (thrillers))))(2 (2 (of))(2 (2 (the))(2 (2 (2 (1950s))(2 (and)))(2 ('60s))))))))))(3 (2 (,))(3 (2 (2 (the))(2 (movie)))(2 (2 (2 (is))(2 (3 (2 (a))(3 (2 (3 (silly))(2 (1 (-LRB-))(3 (2 (2 (but))(3 (1 (not))(1 (sophomoric))))(3 (-RRB-)))))(2 (romp))))(1 (2 (through))(1 (1 (horror))(1 (2 (and))(1 (1 (hellish))(2 (conditions))))))))(2 (.)))))) |ET| 
0.1165075662293364178179189138973  |BT| (ROOT (3 (2 (2 (2 (2 (Quitting))(2 (2 (delivers))(1 (2 (a))(2 (sucker-punch)))))(2 (,)))(2 (and)))(3 (2 (2 (its))(2 (impact)))(3 (2 (2 (is))(2 (all)))(3 (3 (2 (the))(3 (3 (greater))(2 (2 (beause))(2 (director)))))(2 (3 (2 (2 (1 (2 (2 (Zhang))(2 ('s)))(2 (2 (last))(2 (film))))(2 (,)))(3 (2 (the))(2 (3 (cuddly))(2 (Shower)))))(2 (,)))(2 (2 (was))(2 (3 (2 (a))(2 (2 (non-threatening))(2 (2 (multi-character))(2 (piece)))))(2 (2 (centered))(2 (2 (around))(2 (2 (a))(2 (2 (public))(2 (2 (bath))(2 (house))))))))))))))(2 (.))) |ET| 
-0.02718499639154009842045844891345  |BT| (ROOT (3 (1 (3 (2 (shows))(4 (2 (Holmes))(4 (2 (has))(2 (2 (the))(2 (2 (screen))(3 (2 (presence))(3 (2 (to))(3 (2 (3 (2 (become))(3 (2 (a))(2 (3 (major-league))(2 (2 (leading))(3 (lady))))))(2 (,)))(2 (1 (-LRB-))(2 (2 (but))(3 (-RRB-))))))))))))(2 (2 (2 (the))(2 (movie)))(2 (2 (itself))(2 (2 (is))(2 (1 (1 (2 (an))(1 (underachiever)))(2 (,)))(2 (3 (2 (a))(2 (3 (psychological))(2 (mystery))))(1 (2 (that))(1 (2 (2 (takes))(2 (2 (its))(3 (4 (sweet))(2 (2 (time))(2 (building))))))(1 (2 (to))(2 (3 (2 (a))(3 (climax)))(2 (2 (that))(2 (2 (2 ('s))(2 (scarcely)))(2 (2 (2 (a))(2 (surprise)))(2 (2 (by))(2 (2 (the))(2 (time)))))))))))))))))(3 (2 (it))(2 (arrives))))(2 (.))) |ET| 
-0.019828201910424621268180800370828  |BT| (ROOT (2 (2 (2 (2 (2 (The))(2 (director)))(2 (,)))(2 (2 (Mark))(2 (Pellington))))(2 (,)))(2 (1 (2 (does))(2 (4 (2 (a))(3 (4 (terrific))(2 (job))))(0 (2 (2 (2 (conjuring))(2 (up)))(2 (2 (a))(2 (1 (sinister))(2 (2 (,))(1 (1 (menacing))(2 (atmosphere)))))))(1 (2 (though))(0 (1 (unfortunately))(0 (2 (2 (all))(2 (2 (the))(2 (story))))(2 (2 (gives))(2 (3 (us))(2 (2 (is))(2 (2 (flashing))(2 (2 (2 (1 (2 (2 (2 (red))(2 (lights)))(2 (,)))(2 (2 (a))(2 (2 (rattling))(2 (noise)))))(2 (,)))(2 (and)))(1 (2 (2 (a))(2 (bump)))(2 (2 (on))(2 (2 (the))(2 (head))))))))))))))))(2 (.)))) |ET| 
0.1165075662293364178179189138973  |BT| (ROOT (2 (2 (Spare))(2 (2 (yet))(2 (audacious))))(2 (...))) |ET| 
0.1165075662293364178179189138973  |BT| (ROOT (1 (2 (What))(0 (2 (it))(0 (1 (lacks))(2 (2 (in))(3 (originality))))))(1 (2 (it))(2 (2 (2 (2 (makes))(2 (up)))(1 (2 (for))(3 (2 (in))(2 (2 (3 (effective))(1 (1 (2 (if))(0 (cheap)))(2 (moments))))(1 (2 (of))(1 (2 (1 (fright))(2 (and)))(0 (dread))))))))(2 (.))))) |ET| 
0.1165075662293364178179189138973  |BT| (ROOT (3 (2 (2 (The))(2 (1 (isolated))(2 (moments))))(3 (2 (of))(2 (4 (creative))(2 (insanity)))))(2 (2 (finally))(1 (2 (2 (are))(1 (2 (lost))(1 (2 (in))(1 (2 (2 (the))(1 (2 (thin))(2 (soup))))(1 (2 (of))(1 (2 (canned))(4 (humor))))))))(2 (.))))) |ET| 
0.1165075662293364178179189138973  |BT| (ROOT (2 (2 (The))(2 (3 (Country))(2 (Bears))))(2 (3 (2 (has))(3 (2 (1 (no))(2 (scenes)))(1 (2 (that))(1 (2 (will))(2 (2 (2 (2 (upset))(2 (or)))(2 (frighten)))(2 (2 (young))(2 (viewers))))))))(2 (.)))) |ET| 
-0.066243067745005185242845868742734  |BT| (ROOT (2 (2 (2 (Those))(2 (2 (of))(2 (you))))(2 (2 (who))(2 (2 (2 (are))(1 (not)))(2 (2 (an))(2 (2 (eighth))(2 (3 (grade))(2 (girl))))))))(0 (1 (2 (2 (will))(2 (2 (most))(2 (likely))))(0 (1 (2 (doze))(1 (off)))(2 (2 (during))(2 (2 (this))(2 (one))))))(2 (.)))) |ET| 
-0.050129794174763167569075505980436  |BT| (ROOT (2 (You))(0 (1 (2 ('ll))(0 (2 (2 (cry))(2 (2 (for))(2 (2 (your))(2 (money)))))(2 (back))))(2 (.)))) |ET| 
-0.097908927562885453288465953392006  |BT| (ROOT (2 (You))(1 (2 (2 (2 (can))(2 (practically)))(1 (2 (hear))(1 (2 (2 (George))(2 (Orwell)))(2 (2 (turning))(2 (over))))))(2 (.)))) |ET| 
0.1165075662293364178179189138973  |BT| (ROOT (2 (...))(1 (2 (2 (Jones))(1 (2 (,))(1 (3 (2 (despite))(3 (2 (a))(3 (3 (3 (definitely))(3 (distinctive)))(3 (2 (screen))(2 (presence))))))(1 (2 (,))(1 (2 (just))(2 (1 (1 (2 (is))(2 (n't)))(2 (3 (able))(2 (2 (to))(2 (2 (muster))(2 (2 (for))(1 (2 (2 (a))(2 (movie)))(1 (2 (that))(2 (2 (,))(1 (1 (2 (2 (its))(2 (title)))(2 (notwithstanding)))(1 (2 (,))(2 (2 (should))(2 (2 (have))(2 (2 (been))(2 (2 (2 (a))(2 (lot)))(2 (nastier))))))))))))))))(2 (2 (if))(3 (2 (it))(3 (2 (wanted))(3 (2 (to))(3 (2 (fully))(3 (2 (capitalize))(2 (2 (on))(2 (2 (2 (its))(2 (2 (lead))(2 ('s))))(2 (2 (specific))(2 (gifts)))))))))))))))))(2 (.)))) |ET| 
0.1165075662293364178179189138973  |BT| (ROOT (2 (2 (At))(2 (1 (1 (no))(2 (point)))(2 (2 (during))(2 (K-19)))))(2 (2 (:))(2 (2 (2 (The))(2 (Widowmaker)))(2 (1 (2 (did))(2 (3 (2 (this))(2 (viewer)))(2 (2 (feel))(1 (2 (2 (enveloped))(3 (2 (in))(2 (2 (2 (a))(2 (story)))(2 (2 (2 (that))(2 (,)))(1 (2 (though))(3 (2 (meant))(3 (2 (to))(2 (3 (4 (3 (2 (be))(3 (2 (universal))(2 (2 (in))(3 (2 (2 (its))(2 (themes)))(3 (2 (of))(3 (3 (loyalty))(3 (2 (,))(3 (3 (2 (courage))(2 (and)))(3 (dedication))))))))))(2 (2 (to))(2 (2 (a))(2 (2 (common))(3 (goal))))))(2 (,)))(2 (never))))))))))(2 (2 (seems))(2 (2 (to))(2 (1 (leave))(2 (2 (the))(2 (lot))))))))))(2 (.)))))) |ET| 
0.1165075662293364178179189138973  |BT| (ROOT (1 (1 (1 (1 (2 (3 (2 (2 (2 (The))(2 (story)))(2 (,)))(2 (3 (touching))(2 (2 (though))(3 (2 (it))(2 (is))))))(2 (,)))(2 (2 (2 (2 (does))(1 (not)))(2 (quite)))(2 (2 (2 (have))(1 (2 (2 (2 (2 (enough))(2 (emotional)))(3 (resonance)))(2 (or)))(2 (2 (variety))(2 (2 (of))(2 (incident))))))(2 (2 (to))(2 (2 (sustain))(2 (2 (a))(2 (feature))))))))(2 (,)))(2 (and)))(1 (2 (even))(2 (2 (2 (at))(2 (2 (85))(2 (minutes))))(1 (2 (it))(2 (2 (2 (feels))(2 (2 (a))(2 (bit))))(2 (long)))))))(2 (.))) |ET| 
0.1165075662293364178179189138973  |BT| (ROOT (2 (You))(2 (2 (2 (can))(3 (2 (3 (thank))(3 (me)))(2 (2 (for))(2 (this)))))(2 (.)))) |ET| 
0.1165075662293364178179189138973  |BT| (ROOT (1 (2 (A))(2 (1 (2 (somewhat))(0 (1 (0 (disappointing))(2 (and)))(1 (meandering))))(2 (saga))))(2 (.))) |ET| 
-0.038336146321769917766353330534912  |BT| (ROOT (1 (2 (Even))(1 (2 (if))(2 (3 (3 (2 (the))(3 (2 (enticing))(2 (prospect))))(2 (2 (of))(2 (2 (2 (a))(2 (lot)))(2 (2 (of))(2 (3 (2 (nubile))(2 (2 (young))(2 (actors))))(2 (2 (in))(2 (2 (2 (a))(2 (film)))(2 (2 (about))(2 (2 (campus))(2 (depravity)))))))))))(2 (2 (2 (did))(2 (n't)))(1 (2 (fade))(0 (2 (amid))(1 (2 (2 (2 (the))(2 (deliberate)))(2 (,)))(0 (1 (tiresome))(1 (ugliness))))))))))(1 (2 (,))(0 (2 (it))(0 (0 (2 (would))(0 (2 (be))(0 (0 (2 (rendered))(1 (tedious)))(0 (2 (by))(1 (2 (2 (Avary))(2 ('s)))(1 (0 (failure))(1 (2 (to))(1 (3 (2 (construct))(2 (2 (a))(2 (story))))(2 (2 (with))(2 (2 (2 (even))(2 (2 (a))(2 (trace))))(3 (2 (of))(3 (3 (dramatic))(2 (interest))))))))))))))(2 (.)))))) |ET| 
0.1165075662293364178179189138973  |BT| (ROOT (2 (It))(2 (0 (2 (depends))(2 (2 (on))(1 (2 (2 (how))(3 (well)))(2 (2 (1 (flatulence))(2 (gags)))(2 (3 (fit))(2 (2 (into))(2 (2 (your))(3 (2 (holiday))(2 (concept))))))))))(2 (.)))) |ET| 
0.1165075662293364178179189138973  |BT| (ROOT (2 (It))(3 (3 (2 (will))(2 (2 (2 (2 (break))(2 (2 (your))(2 (heart))))(2 (2 (many))(2 (times))))(2 (over))))(2 (.)))) |ET| 
0.1165075662293364178179189138973  |BT| (ROOT (2 (It))(1 (1 (2 ('s))(0 (1 (1 (mindless))(2 (junk)))(2 (2 (like))(2 (2 (this))(2 (2 (that))(2 (2 (makes))(3 (2 (you))(2 (4 (3 (appreciate))(2 (3 (original))(2 (2 (romantic))(2 (comedies)))))(2 (2 (like))(2 (2 (Punch-Drunk))(4 (Love))))))))))))(2 (.)))) |ET| 
-0.034265332944221009447982595474969  |BT| (ROOT (2 (It))(1 (0 (2 (finds))(1 (1 (no))(3 (2 (way))(3 (2 (to))(3 (2 (3 (3 (entertain))(2 (or)))(3 (inspire)))(2 (2 (its))(2 (viewers))))))))(2 (.)))) |ET| 
-0.016979170375784953528341958417514  |BT| (ROOT (2 (It))(3 (2 (2 ('s))(4 (sweet)))(2 (.)))) |ET| 
-0.050702131754982678046861366283338  |BT| (ROOT (2 (It))(0 (2 (never))(2 (2 (3 (2 (plays))(2 (2 (as))(3 (dramatic))))(2 (2 (even))(2 (2 (when))(1 (2 (3 (dramatic))(2 (things)))(2 (2 (happen))(2 (2 (to))(2 (people))))))))(2 (.))))) |ET| 
0.1165075662293364178179189138973  |BT| (ROOT (1 (1 (2 (A))(1 (farce)))(1 (2 (of))(2 (2 (2 (a))(2 (parody)))(3 (2 (of))(3 (2 (2 (a))(3 (comedy)))(2 (2 (of))(2 (2 (a))(2 (premise)))))))))(1 (2 (,))(3 (2 (it))(2 (2 (2 (2 (1 (2 (is))(2 (n't)))(2 (2 (a))(2 (comparison))))(2 (2 (to))(2 (reality))))(3 (2 (2 (so))(2 (much)))(2 (2 (as))(2 (2 (it))(3 (2 (is))(1 (1 (2 (a))(2 (commentary)))(2 (2 (about))(2 (2 (2 (our))(2 (knowledge)))(2 (2 (of))(2 (films)))))))))))(2 (.)))))) |ET| 
0.1165075662293364178179189138973  |BT| (ROOT (2 (It))(2 (2 (2 ('s))(3 (1 (2 (a))(2 (2 (drawling))(2 (2 (,))(2 (1 (slobbering))(2 (2 (,))(2 (3 (lovable))(2 (2 (run-on))(2 (sentence)))))))))(3 (2 (of))(3 (2 (2 (2 (a))(2 (film)))(2 (,)))(3 (2 (2 (a))(2 (2 (Southern))(2 (Gothic))))(2 (2 (with))(3 (2 (2 (the))(2 (2 (emotional))(2 (arc))))(2 (2 (of))(2 (2 (its))(2 (2 (raw))(2 (1 (blues))(2 (soundtrack)))))))))))))(2 (.)))) |ET| 
0.1165075662293364178179189138973  |BT| (ROOT (2 (1 (2 (2 (2 (2 (The))(2 (2 (Trinity))(2 (Assembly))))(1 (2 (2 (approaches))(3 (2 (the))(2 (endeavor))))(1 (2 (with))(2 (1 (2 (a))(1 (2 (shocking))(2 (lack))))(2 (2 (of))(1 (irony)))))))(2 (,)))(2 (and)))(3 (2 (2 (2 (2 (2 (2 (George))(2 (2 (Ratliff))(2 ('s))))(2 (documentary)))(2 (,)))(1 (1 (Hell))(2 (House))))(2 (,)))(3 (2 (reflects))(3 (2 (3 (2 (their))(3 (earnestness)))(2 (--)))(2 (2 (which))(3 (2 (makes))(2 (2 (for))(2 (2 (a))(3 (2 (terrifying))(2 (film)))))))))))(2 (.))) |ET| 
0.1165075662293364178179189138973  |BT| (ROOT (2 (A))(2 (3 (romance))(2 (?)))) |ET| 
-0.015222811319707140256807242906234  |BT| (ROOT (2 (2 (If))(4 (2 (2 (3 (Disney))(2 ('s)))(3 (Cinderella)))(2 (2 (proved))(2 (2 (2 (that))(2 (')))(3 (3 (2 (a))(3 (dream)))(2 (2 (is))(3 (2 (2 (a))(2 (wish)))(2 (2 (2 (your))(2 (heart)))(2 (makes))))))))))(2 (2 (,))(2 (2 ('))(2 (2 (2 (then))(2 (3 (Cinderella))(2 (II))))(1 (2 (2 (proves))(1 (2 (that))(2 (1 (2 (a))(0 (nightmare)))(4 (2 (is))(2 (2 (2 (a))(2 (wish)))(2 (2 (2 (2 (a))(2 (2 (studio))(2 ('s))))(2 (wallet)))(2 (makes))))))))(2 (.))))))) |ET| 
-0.0072232322091983448483776264481548  |BT| (ROOT (1 (1 (2 (The))(2 (3 (biggest))(1 (problem))))(2 (2 (with))(2 (2 (2 (2 (Roger))(2 (2 (Avary))(2 ('s))))(2 (uproar)))(2 (2 (against))(2 (2 (the))(2 (MPAA)))))))(0 (0 (2 (is))(0 (2 (that))(1 (2 (2 (,))(2 (2 (even))(3 (3 (2 (in))(2 (2 (all))(3 (2 (2 (its))(2 (2 (director))(2 ('s))))(2 (2 (cut))(2 (glory))))))(2 (,)))))(0 (2 (he))(1 (2 ('s))(0 (2 (made))(0 (2 (2 (a))(2 (film)))(0 (2 (that))(0 (2 ('s))(1 (1 (1 (1 (0 (2 (1 (1 (1 (2 (barely))(2 (shocking)))(2 (,)))(1 (2 (barely))(3 (interesting))))(2 (and)))(2 (most)))(2 (2 (of))(2 (all))))(2 (,)))(2 (barely)))(2 (anything))))))))))))(2 (.)))) |ET| 
0.1165075662293364178179189138973  |BT| (ROOT (2 (2 (will))(2 (2 (2 (be))(2 (3 (2 (far))(3 (2 (more))(3 (interesting))))(2 (2 (to))(2 (2 (the))(3 (2 (Soderbergh))(3 (faithful)))))))(2 (2 (than))(2 (2 (it))(2 (2 (will))(2 (2 (be))(2 (2 (to))(3 (2 (2 (the))(3 (2 (casual))(2 (moviegoer))))(2 (2 (who))(2 (2 (might))(3 (2 (be))(3 (2 (lured))(2 (2 (in))(3 (2 (by))(2 (2 (Julia))(2 (Roberts)))))))))))))))))(2 (...))) |ET| 
0.1165075662293364178179189138973  |BT| (ROOT (2 (It))(2 (2 (2 (2 (is))(2 (2 (up))(2 (2 (to))(2 (you)))))(2 (2 (to))(1 (2 (decide))(2 (2 (if))(3 (2 (you))(3 (2 (need))(2 (2 (to))(3 (2 (see))(2 (it))))))))))(2 (.)))) |ET| 
0.1165075662293364178179189138973  |BT| (ROOT (2 (2 (2 (Do))(2 (you)))(2 (2 (2 (say))(3 (2 (2 (``))(2 (hi)))(2 (''))))(2 (2 (to))(2 (2 (2 (your))(2 (lover)))(2 (2 (when))(2 (2 (you))(2 (2 (2 (wake))(2 (up)))(2 (2 (in))(2 (2 (the))(2 (morning)))))))))))(2 (?))) |ET| 
-0.00086260084248530649510960932602188  |BT| (ROOT (2 (May))(3 (0 (2 (cause))(3 (2 (you))(2 (2 (to))(1 (1 (bite))(2 (2 (your))(1 (2 (tongue))(1 (2 (to))(1 (2 (keep))(1 (2 (from))(1 (4 (laughing))(1 (2 (at))(1 (1 (1 (2 (the))(0 (1 (ridiculous))(2 (dialog))))(2 (or)))(2 (2 (the))(2 (2 (oh-so))(2 (3 (convenient))(2 (2 (plot))(2 (twists))))))))))))))))))(2 (.)))) |ET| 
-0.017059567849810428064039058426715  |BT| (ROOT (3 (2 (2 (1 (1 (2 (2 (Moonlight))(2 (Mile)))(1 (1 (1 (2 (does))(2 (n't)))(2 (quite)))(3 (2 (go))(3 (2 (the))(2 (distance))))))(2 (but)))(4 (2 (2 (the))(2 (cast)))(3 (2 (is))(4 (impressive)))))(2 (and)))(2 (2 (they))(3 (2 (all))(2 (3 (3 (give))(3 (life)))(1 (2 (to))(1 (2 (2 (these))(1 (2 (broken))(2 (characters))))(1 (2 (who))(2 (2 (are))(2 (2 (trying))(1 (2 (to))(2 (2 (2 (make))(2 (2 (their))(2 (way))))(2 (2 (through))(2 (2 (this))(1 (tragedy)))))))))))))))(2 (.))) |ET| 
-0.075005088097612651609757961068681  |BT| (ROOT (1 (0 (0 (2 (Bean))(1 (0 (2 (drops))(2 (2 (the))(2 (ball))))(2 (2 (too))(2 (2 (many))(2 (times))))))(2 (...)))(1 (2 (2 (hoping))(3 (2 (the))(3 (3 (nifty))(2 (premise)))))(3 (2 (will))(2 (2 (3 (create))(3 (2 (enough))(2 (interest))))(2 (2 (to))(1 (2 (2 (make))(2 (up)))(1 (2 (for))(2 (2 (an))(1 (0 (unfocused))(2 (screenplay)))))))))))(2 (.))) |ET| 
0.1165075662293364178179189138973  |BT| (ROOT (2 (1 (1 (1 (2 (3 (Like))(2 (2 (its))(2 (predecessor))))(1 (2 (,))(1 (2 (it))(1 (2 ('s))(2 (1 (no))(3 (classic)))))))(2 (,)))(2 (but)))(4 (2 (it))(3 (3 (provides))(3 (3 (3 (2 (a))(3 (3 (2 (reasonably))(3 (attractive)))(2 (2 (holiday))(2 (contraption)))))(2 (,)))(3 (2 (one))(3 (2 (that))(3 (3 (2 (families))(2 (2 (looking))(3 (2 (for))(3 (2 (a))(3 (3 (clean))(3 (2 (,))(4 (3 (kid-friendly))(2 (outing)))))))))(2 (2 (should))(2 (investigate))))))))))(2 (.))) |ET| 
0.1165075662293364178179189138973  |BT| (ROOT (1 (3 (4 (3 (2 (There))(3 (2 (2 ('s))(2 (1 (no))(1 (doubting))))(3 (2 (that))(3 (2 (this))(3 (2 (is))(2 (3 (2 (a))(3 (3 (2 (highly))(3 (3 (3 (ambitious))(2 (and)))(3 (personal))))(2 (project))))(2 (2 (for))(2 (Egoyan)))))))))(2 (,)))(2 (but)))(1 (2 (it))(1 (2 (2 ('s))(2 (also)))(1 (2 (one))(1 (2 (that))(2 (2 (,))(0 (2 (2 (next))(3 (2 (to))(4 (2 (his))(4 (4 (best))(2 (work))))))(1 (2 (,))(0 (2 (feels))(2 (1 (1 (clumsy))(2 (and)))(0 (convoluted))))))))))))(2 (.))) |ET| 
0.1165075662293364178179189138973  |BT| (ROOT (2 (1 (-LRB-))(2 (2 (Taylor))(3 (-RRB-))))(2 (2 (2 (2 (takes))(3 (us)))(3 (2 (on))(3 (2 (2 (a))(2 (ride)))(1 (2 (that))(2 (3 (3 (3 (2 ('s))(3 (3 (3 (2 (consistently))(2 (surprising)))(2 (,)))(2 (easy))))(2 (2 (to))(2 (2 (2 (watch))(2 (--)))(2 (but)))))(2 (,)))(2 (2 (oh))(0 (2 (,))(0 (2 (so))(1 (dumb))))))))))(2 (.)))) |ET| 
-0.053097143864657282696928319865037  |BT| (ROOT (3 (3 (1 (2 (1 (-LRB-))(2 (2 (``))(2 (2 (2 (2 (Safe))(2 (Conduct)))(2 ('')))(3 (-RRB-)))))(2 (2 (is))(2 (2 (2 (a))(2 (2 (long))(2 (movie))))(2 (2 (at))(2 (2 (163))(2 (minutes)))))))(2 (but)))(2 (2 (it))(3 (2 (fills))(2 (2 (2 (the))(2 (time)))(3 (2 (with))(3 (1 (drama))(2 (2 (,))(2 (3 (romance))(3 (2 (,))(3 (1 (tragedy))(2 (2 (,))(2 (3 (bravery))(3 (2 (,))(2 (2 (political))(2 (3 (intrigue))(1 (2 (,))(2 (2 (2 (partisans))(2 (and)))(1 (sabotage)))))))))))))))))))(2 (.))) |ET| 
-0.023170841000406477983020181454776  |BT| (ROOT (2 (We))(1 (2 (2 (have))(1 (1 (poignancy))(0 (1 (1 (1 (2 (2 (jostling))(1 (2 (against))(1 (1 (1 (farce))(2 (,)))(1 (2 (2 (2 (3 (4 (thoughtful))(2 (dialogue)))(1 (1 (2 (elbowed))(2 (aside)))(2 (2 (by))(2 (one-liners)))))(2 (,)))(2 (and)))(1 (2 (2 (a))(3 (2 (visual))(2 (style))))(2 (2 (that))(1 (2 (incorporates))(1 (2 (2 (rotoscope))(2 (animation)))(1 (2 (for))(1 (1 (no))(2 (2 (apparent))(2 (2 (reason))(2 (except))))))))))))))(2 (,)))(2 (maybe)))(2 (,)))(3 (2 (that))(3 (2 (it))(3 (2 (looks))(3 (neat))))))))(2 (.)))) |ET| 
-0.1165075662293364178179189138973  |BT| (ROOT (2 (1 (1 (1 (1 (0 (1 (2 (2 (None))(2 (2 (of))(2 (this))))(3 (2 (is))(2 (2 (3 (meaningful))(2 (or)))(4 (memorable)))))(2 (,)))(2 (but)))(2 (3 (frosting))(2 (2 (1 (2 (is))(2 (n't)))(2 (,)))(2 (either)))))(2 (,)))(2 (and)))(4 (2 (you))(4 (2 (2 (would))(2 (n't)))(1 (1 (2 (turn))(2 (down)))(2 (2 (2 (a))(2 (2 (big))(2 (bowl))))(3 (2 (of))(2 (that))))))))(2 (2 (,))(2 (2 (2 (would))(2 (you)))(2 (?))))) |ET| 
0.1165075662293364178179189138973  |BT| (ROOT (2 (...))(2 (1 (1 (2 (tackling))(1 (2 (2 (a))(1 (1 (low-budget))(2 (movie))))(2 (2 (2 (in))(2 (which)))(1 (2 (1 (inexperienced))(3 (children)))(2 (2 (play))(2 (2 (the))(2 (2 (two))(2 (2 (main))(2 (characters))))))))))(1 (2 (2 (might))(1 (not)))(2 (2 (be))(2 (3 (2 (the))(3 (4 (best))(2 (way))))(2 (2 (to))(2 (2 (2 (cut))(2 (2 (your))(2 (teeth))))(2 (2 (in))(2 (2 (the))(2 (2 (film))(2 (industry)))))))))))(2 (.)))) |ET| 
0.1165075662293364178179189138973  |BT| (ROOT (2 (2 (The))(2 (movie)))(2 (2 (obviously))(3 (3 (2 (2 (seeks))(3 (2 (to))(4 (3 (2 (re-create))(3 (3 (2 (the))(3 (excitement)))(2 (2 (of))(2 (2 (such))(2 (2 ('50s))(2 (flicks)))))))(2 (2 (as))(2 (2 (2 (Jules))(2 (2 (Verne))(2 (2 ('s))(2 (')))))(2 (2 (20,000))(2 (2 (2 (Leagues))(2 (2 (Under))(2 (2 (2 (2 (the))(2 (2 (Sea))(2 ('))))(2 (and)))(2 (2 (2 (the))(2 (2 (George))(2 (2 (Pal))(2 (version)))))(2 (2 (of))(2 (2 (2 (H.G.))(2 (2 (Wells))(2 ('))))(2 (2 (`))(2 (2 (The))(2 (Time))))))))))(2 (Machine)))))))))(2 (.)))(2 ('))))) |ET| 
0.1165075662293364178179189138973  |BT| (ROOT (3 (2 (The))(2 (2 (directive))(2 (2 (to))(2 (2 (2 (2 (protect))(2 (2 (the))(2 (code))))(2 (2 (at))(2 (2 (all))(2 (costs)))))(2 (also))))))(2 (2 (begins))(2 (2 (to))(2 (2 (blur))(2 (2 (as))(3 (2 (2 (2 (the))(2 (importance)))(2 (2 (of))(2 (3 (3 (2 (the))(2 (man)))(2 (and)))(2 (2 (the))(2 (code))))))(2 (merge)))))))) |ET| 
-0.1165075662293364178179189138973  |BT| (ROOT (2 (2 (Tries))(3 (2 (to))(3 (2 (2 (work))(2 (2 (in))(2 (2 (the))(2 (2 (same))(3 (vein))))))(2 (2 (as))(3 (2 (2 (the))(3 (brilliance)))(3 (2 (of))(2 (2 (Animal))(2 (House)))))))))(2 (2 (but))(0 (1 (2 (instead))(0 (3 (comes))(1 (2 (closer))(1 (2 (to))(1 (2 (2 (the))(0 (failure)))(2 (2 (of))(1 (2 (2 (the))(2 (2 (third))(2 (Revenge))))(2 (2 (of))(2 (2 (the))(2 (3 (Nerds))(2 (sequel))))))))))))(2 (.))))) |ET| 
-0.090162983279538269631991909136559  |BT| (ROOT (2 (2 (Matthew))(2 (Lillard)))(3 (3 (2 (is))(2 (2 (born))(2 (2 (to))(2 (2 (play))(2 (Shaggy))))))(2 (!)))) |ET| 
-0.043766067874620118161033133219462  |BT| (ROOT (2 (It))(2 (2 (may))(3 (2 (be))(4 (2 (a))(3 (1 (2 (somewhat))(2 (backhanded)))(3 (3 (compliment))(3 (2 (to))(2 (2 (say))(3 (2 (that))(3 (2 (2 (the))(2 (film)))(3 (2 (makes))(2 (2 (2 (1 (2 (2 (the))(2 (viewer)))(1 (2 (feel))(1 (2 (like))(1 (0 (2 (2 (the))(2 (2 (movie))(2 ('s))))(1 (2 (various))(2 (1 (victimized))(2 (2 (audience))(2 (members))))))(2 (2 (after))(2 (2 (a))(2 (while))))))))(2 (,)))(2 (but)))(3 (2 (it))(3 (2 (also))(3 (2 (happens))(3 (2 (to))(2 (2 (be))(3 (2 (2 (the))(2 (2 (movie))(2 ('s))))(4 (2 (most))(3 (4 (admirable))(3 (quality)))))))))))))))))))))) |ET| 
0.1165075662293364178179189138973  |BT| (ROOT (2 (2 (2 (2 (2 (4 (Enchanted))(2 (2 (with))(1 (1 (low-life))(1 (tragedy)))))(2 (and)))(3 (2 (2 (liberally))(2 (seasoned)))(2 (2 (with))(2 (2 (emotional))(2 (outbursts))))))(2 (...)))(1 (1 (2 (What))(1 (2 (2 (is))(2 (sorely)))(2 (missing))))(3 (2 (,))(2 (2 (however))(3 (2 (,))(3 (2 (2 (is))(3 (3 (2 (the))(3 (edge)))(2 (2 (of))(1 (2 (wild))(2 (2 (,))(2 (2 (lunatic))(2 (invention))))))))(3 (2 (that))(3 (2 (we))(3 (2 (associate))(3 (2 (with))(4 (2 (2 (Cage))(2 ('s)))(3 (4 (best))(2 (acting))))))))))))))(2 (.))) |ET| 
0.1165075662293364178179189138973  |BT| (ROOT (2 (2 (2 (2 (2 (Watching))(2 (E.T)))(2 (now)))(2 (,)))(2 (2 (in))(3 (2 (2 (an))(2 (era)))(1 (3 (dominated))(1 (2 (by))(2 (1 (cold))(3 (2 (,))(3 (2 (loud))(3 (2 (special-effects-laden))(2 (extravaganzas)))))))))))(4 (2 (,))(2 (2 (one))(2 (3 (2 (is))(3 (3 (2 (2 (struck))(2 (less)))(3 (2 (by))(4 (2 (its))(3 (3 (lavish))(2 (grandeur))))))(2 (2 (than))(3 (2 (by))(3 (2 (its))(3 (2 (2 (intimacy))(2 (and)))(3 (precision))))))))(2 (.)))))) |ET| 
0.1165075662293364178179189138973  |BT| (ROOT (0 (2 (2 (2 (2 (Takes))(2 (2 (one))(2 (character))))(1 (2 (we))(0 (2 (2 (do))(2 (n't)))(2 (like)))))(2 (and)))(0 (2 (2 (another))(2 (we)))(1 (2 (2 (2 (2 (2 (do))(2 (n't)))(2 (believe)))(2 (,)))(2 (and)))(1 (2 (2 (puts))(2 (them)))(1 (2 (into))(1 (2 (2 (a))(2 (battle)))(2 (2 (of))(1 (2 (wills))(1 (2 (that))(0 (1 (1 (2 (is))(1 (0 (impossible))(3 (2 (to))(2 (3 (care))(2 (about))))))(2 (and)))(1 (1 (2 (is))(2 (n't)))(4 (2 (very))(3 (funny))))))))))))))(2 (.))) |ET| 
0.1165075662293364178179189138973  |BT| (ROOT (2 (2 (Let))(2 ('s)))(2 (2 (4 (hope))(1 (not)))(2 (.)))) |ET| 
-0.1165075662293364178179189138973  |BT| (ROOT (3 (1 (Audacious-impossible))(3 (2 (yet))(3 (compelling))))(2 (...))) |ET| 
-0.016439673211967022192769860566841  |BT| (ROOT (1 (2 (Where))(2 (2 (2 (Janice))(2 (Beard)))(1 (1 (falters))(0 (2 (in))(0 (0 (1 (1 (1 (1 (2 (its))(2 (1 (recycled))(2 (aspects))))(2 (,)))(2 (implausibility)))(2 (,)))(2 (and)))(1 (1 (sags))(2 (2 (in))(2 (pace)))))))))(3 (2 (,))(3 (2 (it))(4 (2 (2 (rises))(3 (2 (in))(3 (3 (4 (4 (2 (its))(3 (courageousness)))(2 (,)))(2 (and)))(3 (3 (comedic))(2 (employment))))))(2 (.)))))) |ET| 
0.1165075662293364178179189138973  |BT| (ROOT (2 (2 (Director))(2 (2 (Roger))(2 (Michell))))(2 (1 (4 (2 (does))(2 (2 (so))(2 (2 (many))(2 (2 (of))(2 (2 (2 (the))(2 (2 (little))(2 (things))))(3 (right)))))))(1 (2 (that))(1 (2 (it))(1 (2 (2 ('s))(1 (difficult)))(2 (1 (not))(1 (2 (to))(1 (2 (2 (2 (2 (cuss))(2 (him)))(1 (out)))(2 (severely)))(1 (2 (for))(1 (1 (bungling))(2 (2 (the))(2 (2 (big))(2 (stuff)))))))))))))(2 (.)))) |ET| 
0.1165075662293364178179189138973  |BT| (ROOT (2 (2 (While))(2 (2 (2 (Serving))(2 (Sara)))(1 (2 (does))(1 (2 (have))(1 (2 (a))(1 (2 (long))(1 (2 (way))(2 (2 (to))(1 (2 (go))(2 (2 (before))(1 (2 (it))(1 (2 (reaches))(2 (2 (2 (the))(2 (level)))(2 (2 (of))(1 (2 (1 (crudity))(3 (2 (in))(2 (2 (the))(2 (latest)))))(3 (2 (Austin))(2 (2 (Powers))(3 (extravaganza)))))))))))))))))))(1 (2 (,))(1 (2 (there))(1 (1 (2 (2 ('s))(1 (nothing)))(2 (2 (here))(3 (2 (to))(3 (2 (match))(3 (2 (2 (2 (that))(2 (2 (movie))(2 ('s))))(2 (2 (intermittent))(2 (moments))))(3 (2 (of))(4 (inspiration))))))))(2 (.)))))) |ET| 
0.1165075662293364178179189138973  |BT| (ROOT (2 (It))(1 (1 (2 (2 (2 (2 ('s))(2 (2 (all))(2 (gratuitous))))(2 (2 (before))(2 (long))))(2 (,)))(1 (2 (as))(1 (2 (if))(1 (2 (Schwentke))(1 (2 (were))(0 (1 (3 (fulfilling))(1 (2 (2 (2 (a))(1 (2 (gross-out))(2 (quota))))(2 (2 (for))(3 (2 (an))(2 (3 (anticipated))(2 (audience))))))(2 (demographic))))(1 (2 (instead))(2 (2 (of))(2 (2 (shaping))(2 (2 (the))(2 (2 (material))(2 (2 (to))(2 (3 (fit))(2 (2 (the))(2 (story))))))))))))))))(2 (.)))) |ET| 
-0.037743990654197263900915260137481  |BT| (ROOT (2 (2 (2 (A))(2 (series)))(2 (2 (of))(2 (2 (escapades))(2 (2 (2 (demonstrating))(2 (2 (the))(2 (adage))))(2 (2 (that))(2 (2 (what))(2 (2 (is))(3 (3 (good))(2 (2 (for))(2 (2 (the))(2 (goose))))))))))))(2 (2 (2 (2 (is))(2 (also)))(2 (3 (good))(2 (2 (for))(1 (2 (2 (2 (the))(2 (gander)))(2 (,)))(2 (2 (2 (some))(2 (2 (of))(2 (which))))(2 (2 (occasionally))(2 (3 (amuses))(1 (2 (but))(1 (2 (none))(2 (2 (of))(2 (2 (which))(2 (2 (amounts))(2 (2 (to))(2 (2 (much))(2 (2 (of))(2 (2 (a))(2 (story))))))))))))))))))(2 (.)))) |ET| 
-0.050208516481797860198099670014926  |BT| (ROOT (1 (2 (2 (The))(2 (fact)))(2 (2 (that))(2 (2 (2 (the))(3 (2 (`))(3 (3 (3 (4 (best))(2 (part)))(2 (')))(2 (2 (of))(2 (2 (the))(2 (movie)))))))(2 (2 (3 (comes))(2 (2 (from))(3 (2 (a))(2 (2 (60-second))(3 (homage))))))(3 (2 (to))(4 (2 (one))(3 (2 (of))(2 (2 (2 (Demme))(2 ('s)))(3 (3 (good))(2 (films)))))))))))(2 (1 (1 (2 (does))(2 (n't)))(2 (2 (2 (bode))(3 (well)))(2 (2 (for))(2 (2 (2 (the))(2 (rest)))(2 (2 (of))(2 (it)))))))(2 (.)))) |ET| 
-0.043973547128001312656042642856846  |BT| (ROOT (3 (2 (2 (2 (Director))(2 (2 (Nancy))(2 (2 (Savoca))(2 ('s)))))(2 (2 (no-frills))(2 (record))))(2 (2 (of))(4 (2 (2 (a))(2 (show)))(3 (2 (forged))(2 (2 (in))(3 (2 (still-raw))(2 (emotions))))))))(3 (3 (3 (2 (captures))(3 (2 (1 (2 (the))(2 (1 (unsettled))(2 (tenor))))(2 (2 (of))(2 (2 (that))(2 (2 (post))(2 (2 (9-11))(2 (period)))))))(3 (2 (far))(4 (better)))))(3 (2 (than))(3 (3 (2 (a))(3 (2 (2 (more))(3 (2 (2 (measured))(2 (or)))(4 (polished))))(2 (production))))(2 (2 (ever))(2 (could))))))(2 (.)))) |ET| 
0.1165075662293364178179189138973  |BT| (ROOT (0 (2 (If))(1 (2 (you))(1 (2 (2 ('re))(2 (really)))(1 (3 (renting))(2 (2 (this))(1 (2 (you))(1 (2 (2 (2 ('re))(1 (not)))(2 (3 (interested))(2 (2 (in))(2 (discretion)))))(2 (2 (in))(3 (2 (your))(2 (3 (entertainment))(2 (choices))))))))))))(2 (2 (,))(2 (2 (you))(2 (2 (2 ('re))(4 (3 (interested))(2 (2 (in))(1 (2 (2 (2 (2 (2 (2 (Anne))(2 (Geddes)))(2 (,)))(2 (2 (John))(2 (Grisham))))(2 (,)))(2 (and)))(2 (2 (Thomas))(2 (Kincaid)))))))(2 (.)))))) |ET| 
0.1165075662293364178179189138973  |BT| (ROOT (3 (2 (2 (2 (2 (It))(2 (2 (may))(2 (2 (be))(2 (2 (about))(1 (2 (2 (2 (1 (1 (2 (drug))(2 (dealers)))(2 (,)))(2 (kidnapping)))(2 (,)))(2 (and)))(2 (1 (unsavory))(2 (folks))))))))(2 (,)))(2 (but)))(3 (2 (2 (the))(2 (2 (2 (tone))(2 (and)))(2 (pacing))))(3 (2 (are))(3 (2 (shockingly))(2 (intimate))))))(2 (.))) |ET| 
0.1165075662293364178179189138973  |BT| (ROOT (2 (2 (In))(2 (4 (gleefully))(1 (2 (,))(2 (3 (thumpingly))(2 (2 (hyperbolic))(2 (terms)))))))(1 (2 (,))(1 (2 (it))(0 (1 (2 (2 (covers))(2 (just)))(1 (2 (about))(1 (1 (2 (every))(1 (cliche)))(1 (2 (in))(1 (2 (2 (the))(2 (compendium)))(2 (2 (about))(0 (1 (1 (1 (2 (crass))(2 (2 (,))(1 (jaded))))(2 (2 (movie))(2 (types))))(2 (and)))(0 (2 (the))(1 (1 (phony))(1 (1 (baloney))(2 (2 (movie))(2 (biz)))))))))))))(2 (.)))))) |ET| 
-0.0045387256307376222519422981349635  |BT| (ROOT (1 (0 (1 (2 (2 (2 (The))(2 (2 (film))(2 ('s))))(3 (hero)))(1 (2 (is))(1 (2 (a))(0 (bore)))))(2 (and)))(1 (2 (2 (his))(2 (innocence)))(1 (2 (soon))(1 (2 (becomes))(1 (2 (2 (a))(1 (1 (questionable))(3 (kind))))(1 (2 (of))(2 (0 (0 (inexcusable))(1 (dumb)))(2 (innocence)))))))))(2 (.))) |ET| 
-0.1165075662293364178179189138973  |BT| (ROOT (2 (This))(4 (4 (2 (is))(4 (4 (2 (the))(3 (4 (best))(2 (3 (Star))(2 (2 (Trek))(2 (movie))))))(2 (2 (in))(2 (2 (a))(2 (2 (long))(2 (time)))))))(2 (.)))) |ET| 
-0.043756426958538395532993803271893  |BT| (ROOT (2 (One))(4 (3 (2 (2 (regards))(2 (3 (Reign))(2 (2 (of))(1 (Fire)))))(3 (2 (with))(2 (awe))))(2 (.)))) |ET| 
0.1165075662293364178179189138973  |BT| (ROOT (3 (2 (Where))(3 (2 (2 (Bowling))(2 (2 (for))(2 (Columbine))))(3 (2 (2 (is))(2 (2 (at))(2 (2 (its))(2 (most)))))(3 (valuable)))))(3 (2 (2 (2 (is))(2 (2 (in))(2 (2 (2 (its))(2 (examination)))(2 (2 (of))(1 (2 (2 (2 (America))(2 ('s)))(2 (culture)))(2 (2 (of))(2 (fear))))))))(1 (2 (as))(2 (2 (2 (a))(2 (2 (root))(2 (cause))))(1 (2 (of))(2 (2 (gun))(0 (violence)))))))(2 (.)))) |ET| 
0.1165075662293364178179189138973  |BT| (ROOT (2 (3 (Greengrass))(2 (1 (-LRB-))(2 (2 (2 (working))(2 (2 (from))(2 (2 (3 (Don))(2 (2 (Mullan))(2 ('s))))(2 (script)))))(3 (-RRB-)))))(2 (3 (2 (forgoes))(3 (2 (2 (2 (the))(2 (2 (larger))(2 (2 (socio-political))(2 (picture)))))(2 (2 (of))(2 (2 (2 (the))(2 (situation)))(3 (2 (in))(2 (2 (2 (Northern))(2 (Ireland)))(2 (2 (in))(2 (3 (favour))(2 (2 (of))(2 (2 (an))(2 (approach)))))))))))(3 (2 (that))(2 (2 (2 (throws))(2 (one)))(3 (2 (in))(2 (2 (2 (the))(2 (2 (pulsating))(2 (thick))))(1 (2 (of))(1 (2 (a))(3 (2 (3 (truly))(2 (frightening)))(2 (situation)))))))))))(2 (.)))) |ET| 
0.1165075662293364178179189138973  |BT| (ROOT (2 (2 (Newcomer))(2 (3 (helmer))(2 (2 (Kevin))(2 (Donovan)))))(0 (2 (2 (is))(1 (1 (hamstrung))(1 (2 (by))(1 (0 (2 (a))(0 (1 (2 (badly))(2 (handled)))(2 (screenplay))))(3 (2 (of))(3 (3 (2 (what))(3 (2 (2 (is))(2 (really)))(3 (2 (an))(3 (4 (amusing))(2 (concept))))))(2 (2 (--))(2 (2 (2 (a))(2 (2 (high-tech))(2 (tux))))(3 (2 (that))(3 (3 (2 (transforms))(2 (2 (its))(2 (wearer))))(2 (2 (into))(2 (2 (a))(2 (superman))))))))))))))(2 (.)))) |ET| 
-0.050284256732723769944826130995352  |BT| (ROOT (1 (0 (2 (2 (The))(2 (thought)))(1 (2 (of))(1 (2 (2 (watching))(2 (2 (this))(2 (film))))(2 (2 (with))(1 (2 (2 (an))(2 (audience)))(1 (3 (full))(2 (2 (of))(1 (2 (teenagers))(1 (3 (fixating))(2 (2 (on))(1 (3 (2 (its))(3 (2 (body))(2 (3 (3 (humour))(2 (and)))(2 (reinforcement)))))(2 (2 (of))(1 (stereotypes))))))))))))))(2 (1 (-LRB-))(2 (2 (2 (2 (of))(2 (which)))(2 (2 (they))(2 (2 ('ll))(2 (2 (get))(2 (plenty))))))(3 (-RRB-)))))(0 (1 (2 (2 (fills))(3 (me)))(1 (2 (with))(0 (revulsion))))(2 (.)))) |ET| 
-0.033384559080703798961131667510926  |BT| (ROOT (3 (3 (3 (2 (Adaptation))(2 (2 (is))(3 (3 (intricately))(2 (constructed)))))(2 (and)))(2 (2 (2 (in))(2 (2 (a))(2 (1 (strange))(2 (way)))))(3 (3 (2 (nails))(2 (2 (all))(2 (2 (of))(2 (2 (2 (Orlean))(2 ('s)))(2 (themes))))))(2 (2 (without))(3 (2 (being))(3 (3 (2 (a))(2 (3 (true))(2 (adaptation))))(2 (2 (of))(2 (2 (her))(2 (book))))))))))(2 (.))) |ET| 
-0.061193581452845521861938493657362  |BT| (ROOT (0 (3 (3 (2 (2 (Watch))(2 (Barbershop)))(2 (2 (again))(2 (2 (if))(2 (2 (you))(2 (2 ('re))(2 (2 (in))(1 (2 (need))(2 (2 (of))(2 (2 (a))(2 (2 (Cube))(2 (fix))))))))))))(2 (--)))(0 (2 (this))(1 (1 (2 (is))(2 (n't)))(3 (2 (worth))(2 (2 (sitting))(2 (through)))))))(2 (.))) |ET| 
0.1165075662293364178179189138973  |BT| (ROOT (4 (2 (As))(4 (3 (3 (well-acted))(2 (and)))(3 (well-intentioned))))(1 (2 (2 (as))(2 (2 (2 (2 (All))(2 (or)))(2 (Nothing)))(2 (is))))(1 (2 (,))(1 (2 (however))(2 (2 (,))(1 (2 (2 (the))(2 (film)))(1 (1 (3 (comes))(0 (1 (perilously))(1 (2 (close))(1 (2 (to))(0 (1 (2 (being))(0 (1 (0 (2 (1 (2 (too))(1 (bleak)))(2 (,)))(1 (2 (too))(2 (pessimistic))))(2 (and)))(1 (2 (too))(2 (unflinching)))))(2 (2 (for))(3 (2 (its))(2 (2 (own))(3 (good))))))))))(2 (.))))))))) |ET| 
0.1165075662293364178179189138973  |BT| (ROOT (2 (1 (1 (0 (2 (2 (The))(2 (movie)))(1 (2 (has))(1 (1 (1 (no))(3 (respect)))(2 (2 (for))(2 (2 (2 (2 (2 (laws))(2 (,)))(2 (2 (political))(2 (correctness))))(2 (or)))(2 (2 (common))(2 (decency))))))))(2 (,)))(2 (but)))(3 (2 (it))(2 (3 (4 (2 (2 (displays))(2 (something)))(2 (2 (more))(2 (important))))(2 (:)))(2 (3 (respect))(2 (2 (for))(1 (2 (its))(1 (1 (1 (flawed))(2 (2 (,))(2 (crazy))))(2 (people)))))))))(2 (.))) |ET| 
0.1165075662293364178179189138973  |BT| (ROOT (2 (You))(1 (2 (2 (2 (have))(2 (2 (once))(2 (again))))(2 (1 (2 (entered))(2 (2 (the))(1 (1 (bizarre))(2 (realm)))))(1 (2 (where))(1 (2 (2 (director))(2 (2 (Adrian))(2 (Lyne))))(2 (2 (holds))(1 (2 (2 (sway))(2 (,)))(2 (2 (where))(1 (2 (2 (all))(2 (relationships)))(2 (2 (2 (are))(2 (simultaneously)))(2 (2 (2 (1 (2 (3 (2 (broadly))(2 (metaphorical)))(2 (,)))(2 (2 (oddly))(2 (abstract))))(2 (,)))(2 (and)))(2 (3 (excruciatingly))(3 (literal)))))))))))))(2 (.)))) |ET| 
-0.1165075662293364178179189138973  |BT| (ROOT (2 (2 (3 (Decent))(2 (but)))(0 (dull)))(2 (.))) |ET| 
-0.045845348734371925425445937207769  |BT| (ROOT (1 (2 (2 (2 (2 (2 (2 (2 (3 (Full))(2 (Frontal)))(2 (,)))(2 (2 (which))(2 (3 (2 (opens))(2 (today)))(2 (nationwide)))))(2 (,)))(2 (2 (2 (could))(2 (almost)))(2 (2 (be))(1 (2 (classified))(2 (2 (as))(3 (2 (a))(2 (2 (movie-industry))(2 (satire)))))))))(2 (,)))(2 (but)))(2 (2 (it))(1 (1 (lacks))(2 (2 (2 (the))(2 (3 (generous))(2 (inclusiveness))))(2 (2 (that))(2 (2 (is))(2 (2 (2 (the))(2 (2 (genre))(2 ('s))))(1 (1 (3 (definitive))(1 (2 (,))(1 (2 (if))(1 (1 (disingenuous))(2 (,))))))(2 (feature))))))))))(2 (.))) |ET| 
0.1165075662293364178179189138973  |BT| (ROOT (3 (2 (A))(3 (thriller)))(1 (1 (2 (made))(1 (2 (2 (2 (from))(2 (2 (2 (a))(2 (2 (completist))(2 ('s))))(2 (checklist))))(2 (2 (rather))(2 (than))))(3 (2 (with))(2 (2 (2 (a))(2 (2 (cultist))(2 ('s))))(2 (passion))))))(2 (.)))) |ET| 
0.1165075662293364178179189138973  |BT| (ROOT (2 (3 (2 (A))(4 (3 (solid))(2 (piece))))(2 (2 (of))(3 (2 (2 (journalistic))(2 (work)))(3 (2 (that))(1 (2 (draws))(2 (2 (2 (a))(2 (picture)))(1 (2 (of))(2 (2 (2 (a))(2 (man)))(2 (2 (for))(1 (2 (whom))(2 (2 (2 (political))(3 (expedience)))(1 (2 (became))(2 (2 (a))(2 (2 (deadly))(2 (2 (foreign))(2 (policy)))))))))))))))))(2 (.))) |ET| 
0.1165075662293364178179189138973  |BT| (ROOT (3 (2 (2 (The))(3 (kind)))(3 (2 (of))(2 (3 (2 (sense))(2 (2 (of))(4 (humor))))(3 (2 (that))(2 (2 (derives))(2 (2 (from))(2 (2 (2 (2 (a))(1 (2 (workman))(2 ('s))))(2 (grasp)))(3 (2 (of))(2 (2 (2 (2 (2 (pun))(2 (and)))(2 (entendre)))(2 (and)))(2 (2 (its))(2 (attendant))))))))))))(3 (2 (2 (need))(2 (2 (to))(2 (2 (constantly))(3 (3 (2 (draw))(2 (attention)))(2 (2 (to))(2 (itself)))))))(2 (.)))) |ET| 
-0.070095360521043759138848372458597  |BT| (ROOT (3 (2 (That))(3 (2 (2 (the))(2 (3 (real))(2 (2 (Antwone))(2 (Fisher)))))(3 (2 (was))(4 (3 (able))(3 (2 (to))(3 (3 (2 (2 (overcome))(3 (2 (his))(2 (3 (personal))(1 (obstacles)))))(2 (and)))(2 (2 (become))(2 (2 (a))(3 (3 (good))(2 (man)))))))))))(3 (3 (3 (3 (2 (is))(4 (2 (a))(4 (3 (wonderful))(2 (thing)))))(2 (;)))(4 (2 (that))(4 (2 (he))(2 (2 (has))(3 (2 (been))(4 (3 (able))(3 (2 (to))(3 (3 (share))(3 (2 (2 (his))(2 (story)))(3 (3 (2 (so))(3 (compellingly)))(3 (2 (with))(3 (3 (us))(2 (2 (is))(3 (2 (a))(3 (2 (minor))(3 (miracle)))))))))))))))))(2 (.)))) |ET| 
-0.036191482696913912509018018681672  |BT| (ROOT (4 (4 (2 (The))(3 (4 (best))(2 (movie))))(2 (2 (in))(3 (2 (2 (many))(2 (2 (a))(2 (moon))))(3 (2 (about))(3 (2 (2 (the))(2 (passions)))(2 (2 (that))(2 (2 (sometimes))(3 (2 (fuel))(3 (3 (3 (2 (our))(3 (4 (best))(2 (achievements))))(2 (and)))(2 (2 (other))(2 (times))))))))))))(1 (1 (1 (leave))(2 (3 (us))(1 (2 (1 (stranded))(2 (2 (with))(1 (nothing))))(2 (2 (more))(2 (2 (than))(2 (2 (our))(2 (2 (lesser))(2 (appetites)))))))))(2 (.)))) |ET| 
-0.0081407493079997447077422734196261  |BT| (ROOT (2 (2 (The))(2 (movie)))(2 (1 (1 (2 (is))(2 (2 (too))(3 (4 (impressed))(3 (2 (with))(2 (2 (its))(3 (2 (own))(3 (2 (solemn))(2 (insights)))))))))(2 (2 (to))(3 (3 (2 (work))(2 (up)))(3 (2 (much))(2 (3 (entertainment))(2 (value)))))))(2 (.)))) |ET| 
0.1165075662293364178179189138973  |BT| (ROOT (2 (2 (2 (Schnitzler))(2 ('s)))(2 (film)))(2 (2 (3 (3 (4 (2 (has))(2 (4 (3 (3 (2 (2 (a))(3 (4 (great))(2 (hook))))(2 (,)))(3 (2 (some))(3 (4 (clever))(2 (bits)))))(2 (and)))(3 (2 (2 (well-drawn))(2 (2 (,))(2 (2 (2 (if))(1 (1 (standard))(2 (issue))))(2 (,)))))(2 (characters)))))(2 (,)))(2 (but)))(2 (2 (2 (is))(2 (still)))(2 (2 (only))(3 (2 (partly))(4 (satisfying))))))(2 (.)))) |ET| 
0.1165075662293364178179189138973  |BT| (ROOT (2 (Cockettes))(2 (3 (2 (has))(3 (3 (3 (2 (2 (the))(4 (4 (glorious))(2 (2 (,))(2 (2 (gaudy))(3 (benefit))))))(2 (2 (of))(2 (2 (2 (much))(1 (2 (stock))(2 (footage))))(2 (2 (of))(2 (2 (Those))(2 (Days)))))))(2 (,)))(2 (2 (featuring))(1 (2 (2 (all))(2 (manner)))(3 (2 (of))(2 (1 (2 (1 (drag))(2 (queen)))(2 (,)))(2 (2 (2 (2 (bearded))(3 (lady)))(2 (and)))(1 (2 (lactating))(2 (hippie))))))))))(2 (.)))) |ET| 
0.1165075662293364178179189138973  |BT| (ROOT (2 (2 (For))(2 (2 (a))(2 (2 (movie))(2 (audience)))))(3 (2 (,))(2 (2 (2 (The))(2 (Hours)))(2 (3 (1 (1 (1 (1 (2 (does))(2 (n't)))(3 (2 (connect))(3 (2 (in))(3 (2 (a))(2 (3 (neat))(2 (way)))))))(2 (,)))(2 (but)))(3 (3 (introduces))(3 (2 (characters))(2 (2 (who))(3 (3 (illuminate))(3 (2 (mysteries))(2 (2 (of))(3 (3 (sex))(2 (2 (,))(3 (2 (2 (duty))(2 (and)))(4 (love))))))))))))(2 (.)))))) |ET| 
-0.09963009427410314533535284908794  |BT| (ROOT (2 (A))(3 (2 (2 (chronicle))(3 (1 (not))(3 (2 (only))(2 (3 (2 (of))(2 (2 (2 (one))(2 (2 (man))(2 ('s))))(2 (2 (quest))(2 (2 (to))(2 (2 (be))(2 (president)))))))(2 (2 (2 (,))(2 (but)))(2 (2 (of))(2 (2 (how))(2 (2 (2 (that))(2 (man)))(3 (2 (single-handedly))(2 (2 (2 (turned))(2 (2 (2 (a))(2 (plane)))(2 (3 (full))(1 (2 (of))(2 (2 (2 (hard-bitten))(1 (2 (,))(1 (cynical))))(2 (journalists)))))))(1 (2 (into))(2 (2 (what))(2 (2 (2 (3 (2 (2 (was))(2 (essentially)))(2 (,)))(2 (2 (by))(2 (2 (2 (campaign))(2 ('s)))(2 (end)))))(2 (,)))(2 (2 (an))(2 (2 (extended))(2 (2 (publicity))(2 (department))))))))))))))))))(2 (.)))) |ET| 
-0.10680111362968806865136883743617  |BT| (ROOT (4 (3 (Prepare))(2 (2 (to))(3 (3 (marvel))(2 (again)))))(2 (.))) |ET| 
-0.052507939101698750117286351724033  |BT| (ROOT (1 (2 (When))(1 (2 (2 (`))(2 (2 (science))(2 (3 (fiction))(2 (')))))(2 (3 (2 (takes))(2 (3 (advantage))(2 (2 (of))(2 (2 (the))(2 (fact))))))(1 (2 (that))(1 (2 (2 (its))(2 (2 (intended))(2 (audience))))(2 (2 (2 (2 (has))(2 (n't)))(2 (yet)))(3 (2 (had))(2 (2 (much))(2 (science))))))))))(0 (2 (,))(1 (2 (it))(0 (1 (1 (2 (does))(1 (2 (a))(1 (disservice))))(2 (2 (2 (2 (to))(2 (2 (the))(2 (audience))))(2 (and)))(2 (2 (to))(2 (2 (the))(2 (genre))))))(2 (.)))))) |ET| 
0.1165075662293364178179189138973  |BT| (ROOT (2 (Adults))(2 (1 (2 (2 (will))(3 (certainly)))(1 (2 (want))(1 (2 (to))(0 (2 (2 (spend))(2 (2 (their))(2 (time))))(1 (2 (in))(1 (2 (2 (the))(3 (theater)))(1 (2 (2 (2 (thinking))(2 (up)))(2 (2 (grocery))(3 (2 (2 (lists))(2 (and)))(2 (ways)))))(3 (2 (to))(2 (2 (2 (tell))(2 (2 (their))(2 (kids))))(2 (2 (2 (how))(1 (not)))(2 (2 (to))(2 (2 (act))(3 (2 (like))(2 (Pinocchio)))))))))))))))(2 (.)))) |ET| 
0.1165075662293364178179189138973  |BT| (ROOT (2 (...))(2 (3 (2 (manages))(3 (2 (to))(2 (2 (2 (2 (fall))(3 (2 (closer))(2 (2 (in))(3 (quality)))))(2 (2 (to))(2 (Silence))))(2 (2 (than))(1 (2 (to))(1 (2 (the))(1 (1 (abysmal))(2 (Hannibal)))))))))(2 (.)))) |ET| 
0.1165075662293364178179189138973  |BT| (ROOT (2 (And))(2 (2 (that))(2 (2 (2 (should))(2 (3 (2 (tell))(2 (you)))(2 (2 (everything))(2 (2 (you))(2 (2 (need))(2 (2 (to))(2 (2 (know))(2 (2 (about))(2 (2 (All))(2 (2 (2 (the))(2 (2 (Queen))(2 ('s))))(3 (Men))))))))))))(2 (.))))) |ET| 
-0.069539600698099321429701547003788  |BT| (ROOT (3 (1 (1 (1 (1 (1 (2 (2 (The))(2 (film)))(2 (2 (2 (runs))(2 (2 (on))(2 (2 (2 (a))(2 (little)))(2 (longer)))))(2 (2 (than))(2 (2 (it))(2 (2 (needs))(2 (to)))))))(2 (--)))(1 (2 (Muccino))(2 (2 (either))(2 (1 (2 (does))(2 (n't)))(2 (2 (notice))(4 (2 (when))(3 (2 (2 (his))(2 (story)))(3 (2 (2 (ends))(2 (or)))(3 (2 (just))(2 (2 (2 (ca))(2 (n't)))(2 (2 (2 (2 (tear))(2 (himself)))(2 (away)))(3 (2 (from))(2 (2 (the))(2 (characters)))))))))))))))(2 (--)))(2 (but)))(3 (2 (it))(3 (2 ('s))(3 (2 (2 (smooth))(2 (and)))(3 (professional))))))(2 (.))) |ET| 
-0.1165075662293364178179189138973  |BT| (ROOT (2 (2 (2 (The))(2 (film)))(2 (...)))(2 (2 (presents))(1 (2 (2 (3 (classic))(2 (2 (moral-condundrum))(1 (drama))))(2 (:)))(2 (2 (What))(2 (2 (2 (2 (would))(2 (you)))(2 (2 (have))(2 (2 (done))(2 (2 (to))(2 (survive))))))(2 (?))))))) |ET| 
-0.076579608948708466353849644292495  |BT| (ROOT (1 (2 (3 (2 (2 (Hard-core))(2 (2 (slasher))(2 (aficionados))))(3 (2 (will))(2 (2 (find))(3 (2 (things))(3 (2 (to))(2 (like)))))))(2 (...)))(1 (2 (but))(1 (2 (overall))(1 (2 (2 (the))(2 (2 (Halloween))(2 (series))))(1 (2 (has))(1 (2 (lost))(2 (2 (its))(3 (edge)))))))))(2 (.))) |ET| 
0.1165075662293364178179189138973  |BT| (ROOT (2 (1 (1 (2 (1 (2 (The))(2 (4 (2 (most))(4 (remarkable)))(2 (2 (1 (2 (1 (-LRB-))(2 (and)))(0 (frustrating)))(3 (-RRB-)))(2 (thing)))))(2 (2 (about))(2 (2 (World))(2 (Traveler)))))(2 (,)))(2 (2 (which))(2 (2 (opens))(2 (2 (today))(2 (2 (in))(2 (Manhattan)))))))(2 (,)))(1 (0 (2 (is))(0 (2 (that))(1 (2 (2 (its))(1 (protagonist)))(1 (2 (,))(1 (2 (2 (after))(2 (2 (being))(2 (2 (2 (an))(2 (object)))(1 (2 (of))(1 (2 (3 (intense))(1 (scrutiny)))(2 (2 (for))(2 (2 (104))(2 (minutes)))))))))(3 (2 (,))(1 (1 (remains))(2 (2 (a))(1 (3 (complete))(2 (blank)))))))))))(2 (.)))) |ET| 
