SVM-light Version V5.01-TK-1.5
5 # kernel type
3 # kernel parameter -d 
1 # kernel parameter -g 
1 # kernel parameter -s 
1 # kernel parameter -r 
empty# kernel parameter -u 
0.4 # kernel parameter -L 
1 # kernel parameter -T 
T # kernel parameter -C 
1 # kernel parameter -F 
1 # kernel parameter -S 
0.400000 # kernel parameter -M 
3 # kernel parameter -N 
S # kernel parameter -V 
S # kernel parameter -W 
0 # kernel parameter -U 
10 # highest feature index 
6920 # number of training documents 
6257 # number of support vectors plus 1 
0.25039301 # threshold b, each following line is a SV (starting with alpha*y)
1  |BT| (ROOT (S (S (VP (VBG (Watching))(SBAR (S (NP (DT (these))(CD (two))(NNS (actors)))(VP (VBP (play))(PP (IN (against))(NP (DT (each))(JJ (other))))(ADVP (RB (so))(RB (intensely)))(, (,))(NAC (CC (but))(PP (IN (with))(NP (NN (restraint))))))))))(, (,))(VP (VBZ (is))(NP (DT (a))(NN (treat))))(. (.)))) |ET| 
-1  |BT| (ROOT (S (NFP (...))(NP (DT (a))(JJ (sour)))(PRN (S (S (NP (JJ (little))(NN (movie)))(PP (IN (at))(NP (PRP$ (its))(NN (core)))))(: (;))(S (NP (NP (DT (an))(NN (exploration)))(PP (IN (of))(NP (NP (NP (DT (the))(NN (emptiness)))(SBAR (WHNP (WDT (that)))(S (VP (VBZ (underlay))(NP (NP (DT (the))(JJ (relentless))(NN (gaiety)))(PP (IN (of))(NP (DT (the))(CD (1920))(POS ('s)))))))))(NFP (...))(NP (NP (DT (The))(NN (film))(POS ('s)))(NN (ending)))))))))(VP (VBZ (has))(NP (NP (DT (a)))(SBARQ (`` (``))(WHNP (WP (What)))(SQ (VBD (was))(NP (PRP (it)))(PP (NP (DT (all)))(IN (for))))(. (?))('' (''))))))) |ET| 
-1  |BT| (ROOT (S (VP (VBD (Made))(NP (PRP (me)))(PP (PP (ADVP (RB (unintentionally)))(ADJP (JJ (famous))))(: (--))(PP (IN (as))(NP (NP (DT (the))(ADJP (JJ (queasy))(HYPH (-))(JJ (stomached)))(NN (critic)))(SBAR (WHNP (WP (who)))(S (VP (VP (VBD (staggered))(PP (IN (from))(NP (DT (the))(NN (theater)))))(CC (and))(VP (VBN (blacked))(PRT (RP (out)))(PP (IN (in))(NP (DT (the))(NN (lobby))))))))))))(. (.)))) |ET| 
-0.85105788401564597123183375515509  |BT| (ROOT (S (NP (DT (The))(NML (JJ (modern))(HYPH (-))(NN (day)))(NNS (royals)))(VP (VBP (have))(NP (NP (NN (nothing)))(PP (IN (on))(NP (NP (DT (these))(NNS (guys)))(SBAR (WHADVP (WRB (when)))(S (NP (PRP (it)))(VP (VBZ (comes))(PP (IN (to))(NP (NNS (scandals)))))))))))(. (.)))) |ET| 
-1  |BT| (ROOT (S (NP (PRP (It)))(VP (VBZ ('s))(ADVP (RB (only)))(PP (IN (in))(NP (NN (fairy))(NNS (tales))))(SBAR (WHNP (WDT (that)))(S (NP (NP (NNS (princesses)))(SBAR (WHNP (WDT (that)))(S (VP (VBP (are))(VP (VBN (married))(PP (IN (for))(NP (JJ (political))(NN (reason)))))))))(VP (VBP (live))(ADVP (RB (happily)))(ADVP (RB (ever))(RB (after)))))))(. (.)))) |ET| 
1  |BT| (ROOT (S (NP (DT (The))(NNP (Rock)))(VP (VP (VBZ (is))(VP (VBN (destined))(S (VP (TO (to))(VP (VB (be))(NP (NP (DT (the))(NNP (21st))(NNP (Century))(POS ('s)))(JJ (new))(`` (``))(NNP (Conan))('' (''))))))))(CC (and))(VP (SBAR (IN (that))(S (NP (PRP (he)))(VP (VBZ ('s))(VP (VBG (going))(S (VP (TO (to))(VP (VB (make))(NP (NP (DT (a))(NN (splash)))(ADJP (RB (even))(JJR (greater))))(PP (IN (than))(NP (NP (NNP (Arnold))(NNP (Schwarzenegger)))(, (,))(NP (NNP (Jean))(HYPH (-))(NNP (Claud))(NNP (Van))(NNP (Damme)))(CC (or))(NP (NNP (Steven))(NNP (Segal))))))))))))))(. (.)))) |ET| 
1  |BT| (ROOT (S (NP (NP (DT (The))(ADJP (RB (gorgeously))(JJ (elaborate)))(NN (continuation)))(PP (IN (of))(`` (``))(NP (NP (DT (The))(NNP (Lord)))(PP (IN (of))(NP (DT (the))(NNPS (Rings))('' (''))(NN (trilogy)))))))(VP (VBZ (is))(ADJP (RB (so))(JJ (huge)))(SBAR (IN (that))(S (NP (NP (DT (a))(NN (column)))(PP (IN (of))(NP (NNS (words)))))(VP (MD (can))(RB (not))(ADVP (RB (adequately)))(VP (VB (describe))(NP (NP (NP (NML (NN (co))(HYPH (-))(NN (writer\))(HYPH (/))(NN (director)))(NNP (Peter))(NNP (Jackson))(POS ('s)))(VBN (expanded))(NN (vision)))(PP (IN (of))(NP (NP (NNP (J.R.R.))(NNP (Tolkien))(POS ('s)))(NML (NNP (Middle))(HYPH (-))(NN (earth)))))))))))(. (.)))) |ET| 
0.83481463364872021681861724573537  |BT| (ROOT (S (S (NP (NP (NN (Singer\))(HYPH (/))(NN (composer)))(NP (NNP (Bryan))(NNP (Adams))))(VP (VBZ (contributes))(NP (NP (DT (a))(NN (slew)))(PP (IN (of))(NP (NP (NNS (songs)))(: (--))(NP (QP (DT (a))(JJ (few)))(JJ (potential))(NNS (hits)))(, (,))(NP (NP (QP (DT (a))(JJ (few))(JJR (more))))(ADJP (RB (simply))(JJ (intrusive))(PP (IN (to))(NP (DT (the))(NN (story))))))(: (--)))))))(CC (but))(S (NP (DT (the))(JJ (whole))(NN (package)))(ADVP (RB (certainly)))(VP (VBZ (captures))(NP (DT (the))(VBN (intended))(, (,))(INTJ (UH (er)))(, (,))(NN (spirit)))(PP (IN (of))(NP (DT (the))(NN (piece))))))(. (.)))) |ET| 
1  |BT| (ROOT (S (CC (Yet))(NP (DT (the))(NN (act)))(VP (VBZ (is))(ADJP (RB (still))(JJ (charming)))(ADVP (RB (here))))(. (.)))) |ET| 
1  |BT| (ROOT (S (SBAR (IN (Whether))(CC (or))(RB (not))(S (NP (PRP (you)))(VP (VBP ('re))(VP (VBN (enlightened))(PP (IN (by))(NP (NP (DT (any)))(PP (IN (of))(NP (NP (NNP (Derrida))(POS ('s)))(NNS (lectures))))))(PP (IN (on))(NP (`` (``))(NP (DT (the))(JJ (other)))('' (''))(CC (and))(`` (``))(NP (DT (the))(NN (self)))))))))(, (,))('' (''))(NP (NNP (Derrida)))(VP (VBZ (is))(NP (DT (an))(ADJP (RB (undeniably))(JJ (fascinating))(CC (and))(JJ (playful)))(NN (fellow))))(. (.)))) |ET| 
-0.56442288578449306690743014769396  |BT| (ROOT (S (VP (VBZ (Tries))(ADJP (RB (so))(JJ (hard)))(S (VP (TO (to))(VP (VB (be))(ADJP (JJ (quirky))(CC (and))(JJ (funny)))(SBAR (IN (that))(S (NP (DT (the))(NN (strain)))(VP (VBZ (is))(RB (all))(ADJP (RB (too))(JJ (evident))))))))))(. (.)))) |ET| 
-1  |BT| (ROOT (S (PP (VBN (Given))(NP (NP (ADJP (RB (too))(JJ (much)))(NN (time)))(SBAR (S (VP (TO (to))(VP (VB (consider))(NP (NP (DT (the))(NN (looseness)))(PP (IN (of))(NP (DT (the))(NN (piece)))))))))))(, (,))(NP (DT (the))(NN (picture)))(VP (VBZ (begins))(S (VP (TO (to))(VP (VB (resemble))(NP (DT (the))(JJ (shapeless))))))(, (,))(S (VP (VBG (grasping))(NP (NP (NNS (actors))(POS (')))(NN (workshop)))(SBAR (IN (that))(S (NP (PRP (it)))(VP (VBZ (is))))))))(. (.)))) |ET| 
-1  |BT| (ROOT (S (CC (But))(NP (DT (the))(NN (cinematography)))(VP (VBZ (is))(ADJP (JJ (cloudy)))(, (,))(NP (NP (DT (the))(NN (picture)))(VP (VBG (making))(S (VP (VBN (becalmed)))))))(. (.)))) |ET| 
1  |BT| (ROOT (S (NP (PRP (It)))(VP (VBZ ('s))(NP (NP (DT (a))(NN (fairy))(NN (tale)))(SBAR (WHNP (WDT (that)))(S (VP (VBZ (comes))(PP (IN (from))(NP (NP (DT (a))(JJ (renowned))(JJ (Indian))(NN (film))(NN (culture)))(SBAR (WHNP (WDT (that)))(S (VP (VBZ (allows))(NP (NNPS (Americans)))(S (VP (TO (to))(ADVP (RB (finally)))(VP (VB (revel))(PP (IN (in))(NP (PRP$ (its))(NN (splendor)))))))))))))))))(. (.)))) |ET| 
1  |BT| (ROOT (S (NP (DT (A))(JJ (quirky))(NN (comedy)))(VP (VBN (set))(PP (IN (in))(NP (NP (NNP (Newfoundland)))(SBAR (WHNP (WDT (that)))(S (ADVP (RB (cleverly)))(VP (VBZ (captures))(NP (NP (DT (the))(JJ (dry))(NN (wit)))(SBAR (WHNP (WDT (that)))(S (VP (VBZ ('s))(ADJP (RB (so))(JJ (prevalent))(PP (IN (on))(NP (DT (The))(NNP (Rock)))))))))))))))(. (.)))) |ET| 
1  |BT| (ROOT (NP (NP (DT (The))(JJ (first))(NN (Bond))(NN (movie)))(PP (IN (in))(NP (NP (NNS (ages)))(SBAR (WHNP (WDT (that)))(S (VP (VBZ (is))(RB (n't))(NP (JJ (fake))(NN (fun))))))))(. (.)))) |ET| 
-0.47263757950939078167351681258879  |BT| (ROOT (NP (NP (DT (An))(JJ (awkward))(NN (hybrid)))(PP (IN (of))(NP (NP (NNS (genres)))(SBAR (WHNP (WDT (that)))(S (ADVP (RB (just)))(VP (VBZ (does))(RB (n't))(VP (VB (work))))))))(. (.)))) |ET| 
-0.52545184401402877938380697742105  |BT| (ROOT (NP (NP (CD (One)))(PP (IN (of))(NP (NP (DT (those))(ADJP (RB (so))(HYPH (-))(RB (so)))(NNS (films)))(SBAR (WHNP (WDT (that)))(S (VP (MD (could))(VP (VB (have))(VP (VBN (been))(ADJP (RB (much))(JJR (better))))))))))(. (.)))) |ET| 
-1  |BT| (ROOT (NP (NP (JJ (Dull)))(, (,))(NP (NP (DT (a))(NML (NN (road))(HYPH (-))(NN (trip)))(NN (movie)))(SBAR (WHNP (WDT (that)))(S (VP (VBZ ('s))(ADJP (RB (surprisingly))(JJ (short))(PP (IN (of))(NP (DT (both))(NN (adventure))(CC (and))(NN (song)))))))))(. (.)))) |ET| 
1  |BT| (ROOT (S (NP (PRP (They)))(VP (VBP (are))(NP (SBAR (WHNP (WP (what)))(S (VP (VBZ (makes))(S (NP (PRP (it)))(ADJP (JJ (worth)))))))(NP (NP (DT (the))(NN (trip)))(PP (IN (to))(NP (DT (the))(NN (theatre)))))))(. (.)))) |ET| 
1  |BT| (ROOT (S (NP (PRP (You)))(VP (VP (VBP (live))(NP (DT (the))(NN (mood))))(CONJP (RB (rather))(IN (than)))(VP (VB (savour))(NP (DT (the))(NN (story)))))(. (.)))) |ET| 
1  |BT| (ROOT (S (VP (VB (See))(NP (PRP (it))))(. (.)))) |ET| 
-1  |BT| (ROOT (S (NP (PRP (I)))(VP (MD (ca))(RB (n't))(VP (VB (recommend))(NP (PRP (it)))))(. (.)))) |ET| 
-1  |BT| (ROOT (S (NP (NNP (Enigma)))(VP (VBZ (lacks))(NP (PRP (it))))(. (.)))) |ET| 
-1  |BT| (ROOT (S (NP (PRP (It)))(VP (VBD (sucked)))(. (.)))) |ET| 
1  |BT| (ROOT (NP (NP (DT (An))(JJ (entertaining))(NN (mix)))(PP (IN (of))(NP (NP (NN (period))(NN (drama)))(CC (and))(NP (NP (ADJP (JJ (flat))(HYPH (-))(JJ (out)))(NN (farce)))(SBAR (WHNP (WDT (that)))(S (VP (MD (should))(VP (VB (please))(NP (NN (history))(NNS (fans))))))))))(. (.)))) |ET| 
1  |BT| (ROOT (NP (NP (DT (A))(JJ (heroic))(NN (tale)))(PP (IN (of))(NP (NP (NN (persistence)))(SBAR (WHNP (WDT (that)))(S (VP (VBZ (is))(ADJP (JJ (sure))(S (VP (TO (to))(VP (VB (win))(NP (NP (NNS (viewers))(POS (')))(NNS (hearts))))))))))))(. (.)))) |ET| 
1  |BT| (ROOT (NP (NP (DT (The))(NN (kind)))(PP (IN (of))(NP (NP (ADJP (JJ (sweet))(HYPH (-))(CC (and))(HYPH (-))(JJ (sour)))(NN (insider))(NN (movie)))(SBAR (WHNP (WDT (that)))(S (NP (NN (film))(NNS (buffs)))(VP (MD (will))(VP (VB (eat))(PRT (RP (up)))(PP (IN (like))(NP (ADJP (RB (so))(JJ (much)))(NN (gelati))))))))))(. (.)))) |ET| 
-1  |BT| (ROOT (NP (NP (DT (A))(JJ (cautionary))(NN (tale)))(PP (IN (about))(NP (NP (DT (the))(NN (folly)))(PP (IN (of))(NP (NP (NN (superficiality)))(SBAR (WHNP (WDT (that)))(S (VP (VBZ (is))(NP (PRP (itself)))(ADVP (RB (endlessly)))(NP (JJ (superficial))))))))))(. (.)))) |ET| 
-1  |BT| (ROOT (NP (NP (DT (The))(NN (kind)))(PP (IN (of))(NP (NP (NN (movie)))(SBAR (WHNP (WDT (that)))(S (VP (VBZ (leaves))(NP (NP (NP (JJ (vague))(NNS (impressions)))(CC (and))(NP (DT (a))(JJ (nasty))(NN (aftertaste))))(CC (but))(NP (NP (JJ (little))(JJ (clear))(NN (memory)))(PP (IN (of))(NP (PRP$ (its))(JJ (operational))(NNS (mechanics)))))))))))(. (.)))) |ET| 
-0.52089075580295696177302033902379  |BT| (ROOT (NP (NP (DT (A))(JJ (soulless))(NN (jumble)))(PP (IN (of))(NP (NP (ADJP (RB (ineptly))(VBN (assembled)))(NNS (cliches)))(CC (and))(NP (NP (NN (pabulum)))(SBAR (WHNP (WDT (that)))(S (VP (VBZ (plays))(PP (IN (like))(NP (NP (DT (a))(NML (CD (95))(HYPH (-))(NN (minute)))(NN (commercial)))(PP (IN (for))(NP (NNP (NBA))(NNS (properties))))))))))))(. (.)))) |ET| 
1  |BT| (ROOT (S (NP (PRP (I)))(VP (VBP (like))(NP (PRP (it))))(. (.)))) |ET| 
1  |BT| (ROOT (S (NP (PRP (I)))(VP (VBD (liked))(NP (PRP (it)))(ADVP (RB (just))(RB (enough))))(. (.)))) |ET| 
-1  |BT| (ROOT (S (INTJ (UH (No)))(, (,))(NP (PRP (I)))(VP (VBP (hate))(NP (PRP (it))))(. (.)))) |ET| 
-1  |BT| (ROOT (S (SBAR (IN (If))(S (NP (PRP (I)))(VP (VBP (want))(NP (NN (music))))))(, (,))(NP (PRP (I)))(VP (MD ('ll))(VP (VB (buy))(NP (DT (the))(NN (soundtrack)))))(. (.)))) |ET| 
-1  |BT| (ROOT (S (S (`` (``))(S (VP (VB (Abandon))))('' (''))(VP (MD (will))(VP (VB (leave))(NP (PRP (you))))))(S (VP (VBG (wanting))(S (VP (TO (to))(VP (VB (abandon))(NP (DT (the))(NN (theater))))))))(. (.)))) |ET| 
0.34903264007159207071850914871902  |BT| (ROOT (S (SBAR (IN (If))(S (NP (PRP (you)))(VP (VBP (are))(PP (IN (into))(NP (NN (splatter))(NNS (movies)))))))(, (,))(ADVP (RB (then)))(NP (PRP (you)))(VP (MD (will))(ADVP (RB (probably)))(VP (VB (have))(NP (NP (DT (a))(ADJP (RB (reasonably))(JJ (good)))(NN (time)))(PP (IN (with))(NP (DT (The))(NNP (Salton))(NNP (Sea)))))))(. (.)))) |ET| 
1  |BT| (ROOT (S (NP (CD (One)))(VP (MD (ca))(RB (n't))(VP (VB (deny))(NP (PRP$ (its))(NN (seriousness))(CC (and))(NN (quality)))))(. (.)))) |ET| 
0.59301641395002380185985657590209  |BT| (ROOT (S (NP (DT (This)))(VP (VBZ (is))(NP (NP (CD (one)))(PP (IN (of))(NP (NP (DT (the))(NN (year))(POS ('s)))(JJS (best))(NNS (films))))))(. (.)))) |ET| 
1  |BT| (ROOT (S (NP (PRP (I)))(VP (VBP (like))(NP (PRP (it))))(. (.)))) |ET| 
-1  |BT| (ROOT (S (NP (DT (This)))(VP (VBZ (is))(NP (NP (CD (one)))(PP (IN (of))(NP (NP (DT (the))(JJS (biggest))(NNS (disappointments)))(PP (IN (of))(NP (DT (the))(NN (year))))))))(. (.)))) |ET| 
-1  |BT| (ROOT (S (NP (DT (This)))(VP (VBZ (is))(NP (CD (one))(NN (baaaaaaaaad))(NN (movie))))(. (.)))) |ET| 
-1  |BT| (ROOT (S (NP (DT (This)))(VP (VBZ (is))(NP (ADJP (RB (just))(JJ (lazy)))(NN (writing))))(. (.)))) |ET| 
1  |BT| (ROOT (S (SBAR (IN (If))(S (NP (PRP (you)))(PP (IN (like))(NP (NN (peace))))))(, (,))(NP (PRP (you)))(VP (MD ('ll))(VP (VB (like))(SBAR (S (VP (VBZ (Promises)))))))(. (.)))) |ET| 
0.28416836850893395505224248154263  |BT| (ROOT (S (SBAR (IN (If))(S (NP (PRP (you)))(VP (VBP (love))(NP (PRP (him))))))(, (,))(NP (PRP (you)))(VP (MD ('ll))(VP (VB (like))(NP (PRP (it)))))(. (.)))) |ET| 
1  |BT| (ROOT (S (SBAR (WHNP (WP (What)))(S (NP (PRP (I)))(VP (VBD (saw)))))(, (,))(NP (PRP (I)))(VP (VBD (enjoyed)))(. (.)))) |ET| 
-1  |BT| (ROOT (S (SBAR (NP (QP (DT (A))(JJ (few)))(NNS (hours)))(IN (after))(S (NP (PRP (you)))(VP (VBP ('ve))(VP (VBN (seen))(NP (PRP (it)))))))(, (,))(NP (PRP (you)))(VP (VBP (forget))(SBAR (S (NP (PRP (you)))(VP (VBP ('ve))(VP (VBN (been))(PP (IN (to))(NP (DT (the))(NNS (movies)))))))))(. (.)))) |ET| 
-1  |BT| (ROOT (S (SBAR (IN (If))(S (NP (PRP (you)))(VP (VBD (saw))(NP (PRP (it)))(PP (IN (on))(NP (NN (TV)))))))(, (,))(NP (PRP (you)))(VP (MD ('d))(ADVP (RB (probably)))(VP (VB (turn))(NP (PRP (it)))(PRT (RP (off)))(, (,))(S (VP (VBN (convinced))(SBAR (IN (that))(S (NP (PRP (you)))(VP (VBD (had))(ADVP (RB (already)))(VP (VBN (seen))(SBAR (IN (that))(FRAG (NP (NN (movie)))))))))))))(. (.)))) |ET| 
-1  |BT| (ROOT (S (SBAR (IN (If))(S (NP (PRP (I)))(VP (VBP (want))(NP (DT (a))(JJ (real))(NN (movie))))))(, (,))(NP (PRP (I)))(VP (MD ('ll))(VP (VB (buy))(NP (DT (the))(NNP (Criterion))(NNP (DVD)))))(. (.)))) |ET| 
1  |BT| (ROOT (S (NP (DT (This)))(VP (VBZ (is))(NP (ADJP (JJ (pure))(, (,))(JJ (exciting)))(NN (moviemaking))))(. (.)))) |ET| 
1  |BT| (ROOT (S (NP (DT (This)))(VP (VBZ (is))(NP (DT (a))(JJ (superior))(NN (horror))(NN (flick))))(. (.)))) |ET| 
1  |BT| (ROOT (S (NP (DT (This)))(VP (VBZ (is))(NP (NP (DT (a))(NN (film)))(SBAR (WHNP (WDT (that)))(S (VP (VBZ (manages))(S (VP (TO (to))(VP (VB (find))(NP (NN (greatness)))(PP (IN (in))(NP (NP (DT (the))(NN (hue)))(PP (IN (of))(NP (PRP$ (its))(JJ (drastic))(NN (iconography))))))))))))))(. (.)))) |ET| 
-1  |BT| (ROOT (S (NP (DT (The))(NN (film)))(VP (VBZ (is))(ADJP (JJ (flat))))(. (.)))) |ET| 
-1  |BT| (ROOT (S (NP (DT (The))(NN (film)))(VP (VBZ (is))(ADJP (RB (strictly))(JJ (routine))))(. (.)))) |ET| 
0.056231574841089190797127628229646  |BT| (ROOT (NP (NP (NP (DT (A))(ADJP (JJ (beautiful))(, (,))(JJ (timeless))(CC (and))(JJ (universal)))(NN (tale)))(PP (IN (of))(NP (JJ (heated))(NNS (passions)))))(: (--))(NP (NP (NN (jealousy)))(, (,))(NP (NN (betrayal))(, (,))(NN (forgiveness))(CC (and))(NN (murder))))(. (.)))) |ET| 
1  |BT| (ROOT (S (SBAR (IN (If))(S (NP (PRP (you)))(VP (VBP ('re))(VP (VBN (burnt))(PRT (RP (out)))(PP (IN (on))(S (S (NP (PRP (It)))(VP (VBZ ('s))(NP (DT (a))(JJ (Wonderful))(NN (Life))(NNS (marathons)))))(CC (and))(S (ADJP (JJ (bored)))(PP (IN (with))(NP (DT (A))(NNP (Christmas))(NNP (Carol)))))))))))(, (,))(NP (PRP (it)))(VP (MD (might))(ADVP (RB (just)))(VP (VB (be))(NP (NP (DT (the))(NN (movie)))(SBAR (S (NP (PRP (you)))(VP (VBP ('re))(VP (VBG (looking))(PP (IN (for))))))))))(. (.)))) |ET| 
1  |BT| (ROOT (S (S (NP (PRP (I)))(VP (VBD (liked))(NP (DT (the))(NN (movie)))))(, (,))(CC (but))(S (NP (PRP (I)))(VP (VBP (know))(SBAR (S (NP (PRP (I)))(VP (MD (would))(VP (VB (have))(VP (VBN (liked))(NP (PRP (it)))(ADVP (ADVP (RBR (more)))(SBAR (IN (if))(S (NP (PRP (it)))(VP (VBD (had))(ADVP (RB (just)))(VP (VBN (gone))(NP (DT (that))(CD (one))(NN (step)))(ADVP (RBR (further)))))))))))))))(. (.)))) |ET| 
1  |BT| (ROOT (S (SBAR (IN (If))(S (NP (PRP (you)))(VP (VBP ('re))(VP (VBG (looking))(PP (IN (for))(NP (NP (DT (an))(JJ (intelligent))(NN (movie)))(SBAR (WHPP (IN (in))(WHNP (WDT (which))))(S (NP (PRP (you)))(VP (MD (can))(VP (VB (release))(NP (PRP$ (your))(ADJP (VBN (pent))(RP (up)))(NN (anger)))))))))))))(, (,))(NP (JJ (ENOUGH)))(VP (VBZ (is))(ADVP (RB (just)))(NP (NP (DT (the))(NN (ticket)))(SBAR (S (NP (PRP (you)))(VP (VBP (need)))))))(. (.)))) |ET| 
-1  |BT| (ROOT (FRAG (RB (Not))(PP (IN (at))(NP (DT (all))(JJ (clear))))(SBAR (SBAR (WHNP (WP (what)))(S (NP (PRP (it)))(VP (VBZ ('s))(VP (VBG (trying))(S (VP (TO (to))(VP (VB (say)))))))))(CC (and))(SBAR (RB (even))(IN (if))(S (NP (PRP (it)))(VP (VBD (were))(: (--))(S (NP (PRP (I)))(VP (VBP (doubt))(SBAR (S (NP (PRP (it)))(VP (MD (would))(VP (VB (be))(NP (PDT (all))(DT (that))(JJ (interesting)))))))))))))(. (.)))) |ET| 
-1  |BT| (ROOT (S (S (NP (PRP (You)))(VP (MD (can))(VP (VB (taste))(NP (PRP (it))))))(, (,))(CC (but))(S (NP (EX (there)))(VP (VBZ ('s))(NP (DT (no))(NN (fizz)))))(. (.)))) |ET| 
-1  |BT| (ROOT (S (NP (PRP (I)))(VP (VP (VBP (admire))(NP (PRP (it))))(CC (and))(ADVP (RB (yet)))(VP (MD (can))(RB (not))(VP (VB (recommend))(NP (PRP (it)))(, (,))(SBAR (IN (because))(S (NP (PRP (it)))(VP (VBZ (overstays))(NP (PRP$ (its))(NML (JJ (natural))(NN (running)))(NN (time)))))))))(. (.)))) |ET| 
1  |BT| (ROOT (S (NP (DT (The))(NN (film)))(VP (VBZ (is))(ADJP (JJ (full))(PP (IN (of))(NP (NN (charm))))))(. (.)))) |ET| 
1  |BT| (ROOT (S (NP (DT (The))(NN (film)))(VP (VBZ (oozes))(NP (NN (craft))))(. (.)))) |ET| 
1  |BT| (ROOT (S (NP (DT (The))(NN (formula)))(VP (VBZ (is))(ADJP (JJ (familiar))(CC (but))(JJ (enjoyable))))(. (.)))) |ET| 
-0.97986535626487136774187547416659  |BT| (ROOT (S (NP (DT (The))(NN (crap)))(VP (VBZ (continues)))(. (.)))) |ET| 
-1  |BT| (ROOT (S (NP (DT (The))(NN (movie)))(VP (VBZ (is))(NP (DT (a))(NN (dud))))(. (.)))) |ET| 
-1  |BT| (ROOT (S (NP (DT (The))(NN (drama)))(VP (VBZ (discloses))(NP (RB (almost))(NN (nothing))))(. (.)))) |ET| 
0.5341502340320808395190965711663  |BT| (ROOT (S (S (NP (PRP (It)))(VP (VBZ ('s))(ADJP (JJ (tough))(S (VP (TO (to))(VP (VB (watch))))))))(, (,))(CC (but))(S (NP (PRP (it)))(VP (VBZ ('s))(NP (DT (a))(JJ (fantastic))(NN (movie)))))(. (.)))) |ET| 
0.57431365370373144152438271703431  |BT| (ROOT (S (S (NP (PRP (It)))(VP (MD (may))(VP (VB (be))(NP (DT (a))(NML (RB (no))(HYPH (-))(NN (brainer)))))))(, (,))(CC (but))(S (ADVP (IN (at))(RBS (least)))(NP (PRP (it)))(VP (VBZ ('s))(NP (DT (a))(JJ (funny))(NN (no))(HYPH (-))(NN (brainer)))))(. (.)))) |ET| 
1  |BT| (ROOT (S (S (NP (PRP (It)))(VP (VBZ (is))(ADJP (RB (about))(JJ (irrational)))(, (,))(NP (JJ (unexplainable))(NN (life)))))(CC (and))(S (NP (PRP (it)))(VP (VBZ (seems))(ADJP (RB (so))(JJ (real)))(SBAR (IN (because))(S (NP (PRP (it)))(VP (VBZ (does))(RB (not))(VP (VB (attempt))(S (VP (TO (to))(VP (VB (filter))(PRT (RP (out)))(NP (DT (the))(NN (complexity))))))))))))(. (.)))) |ET| 
-1  |BT| (ROOT (S (S (NP (PRP (It)))(VP (VBZ (looks))(ADJP (JJ (good)))))(, (,))(CC (but))(S (NP (PRP (it)))(VP (VBZ (is))(ADJP (RB (essentially))(JJ (empty)))))(. (.)))) |ET| 
-1  |BT| (ROOT (S (S (NP (PRP (It)))(VP (VBZ ('s))(NP (NP (DT (a))(JJ (bad))(NN (sign)))(SBAR (WHADVP (WRB (when)))(S (NP (PRP (you)))(VP (VBP ('re))(VP (VBG (rooting))(PP (IN (for))(NP (DT (the))(NN (film))))(S (VP (TO (to))(VP (VP (VB (hurry))(PRT (RP (up))))(CC (and))(VP (VB (get))(PP (IN (to))(NP (NP (PRP$ (its))(NNS (subjects))(POS (')))(NNS (deaths))))(ADVP (ADVP (RB (just))(RB (so)))(SBAR (S (NP (DT (the))(NN (documentary)))(VP (MD (will))(VP (VB (be))(ADJP (RB (over)))))))))))))))))))(, (,))(CC (but))(S (NP (PRP (it)))(VP (VBZ ('s))(ADJP (JJ (indicative))(PP (IN (of))(SBAR (WHADVP (WRB (how)))(S (NP (JJ (uncompelling))(DT (the))(NN (movie)))(VP (VBZ (is))(SBAR (IN (unless))(S (NP (PRP (it)))(VP (VBZ (happens))(S (VP (TO (to))(VP (VB (cover))(NP (NP (PRP$ (your))(JJ (particular))(NN (area)))(PP (IN (of))(NP (NN (interest))))))))))))))))))(. (.)))) |ET| 
-1  |BT| (ROOT (S (SBAR (IN (If))(S (NP (PRP (you)))(VP (VBP ('re))(VP (VBG (looking))(S (VP (TO (to))(VP (VB (rekindle))(NP (NP (DT (the))(NN (magic)))(PP (IN (of))(NP (DT (the))(JJ (first))(NN (film))))))))))))(, (,))(NP (PRP (you)))(VP (MD ('ll))(VP (VB (need))(NP (DT (a))(JJR (stronger))(NN (stomach)))(PP (IN (than))(NP (PRP (us))))))(. (.)))) |ET| 
1  |BT| (ROOT (S (NP (DT (The))(NN (concept)))(VP (VBZ (is))(NP (DT (a))(NN (hoot))))(. (.)))) |ET| 
1  |BT| (ROOT (S (NP (DT (The))(NN (trailer)))(VP (VBZ (is))(NP (DT (a))(NN (riot))))(. (.)))) |ET| 
1  |BT| (ROOT (S (NP (DT (The))(NN (movie)))(VP (VBZ (is))(NP (JJ (ingenious))(NN (fun))))(. (.)))) |ET| 
-1  |BT| (ROOT (S (NP (DT (The))(NN (movie)))(VP (VBZ (is))(NP (DT (a))(JJ (desperate))(NN (miscalculation))))(. (.)))) |ET| 
-1  |BT| (ROOT (S (VP (VBZ (is))(NP (DT (a))(NN (mess))))(. (.)))) |ET| 
-1  |BT| (ROOT (S (NP (PRP (I)))(VP (VBD (wanted))(ADVP (RBR (more))))(. (.)))) |ET| 
1  |BT| (ROOT (S (NP (NN (Wonder))(, (,))(NN (hope))(CC (and))(NN (magic)))(VP (MD (can))(ADVP (RB (never)))(VP (VB (escape))(NP (NP (DT (the))(NN (heart)))(PP (IN (of))(NP (NP (DT (the))(NN (boy)))(SBAR (WHADVP (WRB (when)))(S (NP (DT (the))(JJ (right))(NN (movie)))(VP (VBZ (comes))(ADVP (RB (along)))(, (,))(SBAR (ADVP (RB (especially)))(IN (if))(S (NP (PRP (it)))(VP (VBZ (begins))(PP (IN (with))(NP (NP (DT (the))(NN (name)))(PP (IN (of))(NP (NNP (Star))(NNPS (Wars))))))))))))))))))) |ET| 
0.85575018046097350854495289240731  |BT| (ROOT (NP (DT (A))(NML (S (VP (MD (must))(VP (VB (see))(PP (IN (for))(NP (NP (DT (all))(NNS (sides)))(PP (IN (of))(NP (DT (the))(JJ (political))))))))))(NN (spectrum)))) |ET| 
0.64495455002114820963754482363584  |BT| (ROOT (NP (NP (DT (A))(ADJP (NN (soul))(HYPH (-))(VBG (stirring)))(NN (documentary)))(PP (IN (about))(NP (NP (DT (the))(NML (NN (Israeli\))(HYPH (/))(JJ (Palestinian)))(NN (conflict)))(SBAR (IN (as))(S (VP (VBN (revealed))(PP (IN (through))(NP (NP (DT (the))(NNS (eyes)))(PP (IN (of))(NP (NP (DT (some))(NNS (children)))(SBAR (WHNP (WP (who)))(S (VP (VBP (remain))(ADJP (JJ (curious))(PP (IN (about))(NP (NP (DT (each))(JJ (other)))(PP (IN (against))(NP (DT (all))(NNS (odds)))))))))))))))))))(. (.)))) |ET| 
-1  |BT| (ROOT (S (S (VP (VP (VBN (Derailed))(PP (IN (by))(NP (JJ (bad))(NN (writing)))))(CC (and))(VP (ADVP (RB (possibly)))(PP (ADVP (RB (also)))(IN (by))(NP (NP (DT (some)))(PP (IN (of))(NP (DT (that))(JJ (extensive))(NN (post-production))(NN (reworking))))))(PP (IN (to))))))(VP (VB (aim))(NP (DT (the))(NN (film)))(PP (IN (at))(NP (NP (JJ (young))(NNS (males)))(PP (IN (in))(NP (NP (DT (the))(NNS (throes)))(PP (IN (of))(NP (NP (PRP$ (their))(JJ (first))(JJ (full))(NN (flush)))(PP (IN (of))(NP (NN (testosterone)))))))))))(. (.)))) |ET| 
-1  |BT| (ROOT (S (NP (NP (NN (Time)))(PP (IN (of))(NP (NNP (Favor)))))(VP (MD (could))(VP (VB (have))(VP (VBN (given))(NP (NNS (audiences)))(NP (NP (DT (the))(NN (time)))(PP (IN (of))(NP (NP (NN (day)))(PP (IN (by))(S (VP (VBG (concentrating))(PP (IN (on))(NP (NP (DT (the))(NNS (elements)))(PP (IN (of))(NP (DT (a))(JJ (revealing))(NN (alienation))))))(PP (IN (among))(NP (NP (DT (a))(NN (culture)))(PP (IN (of))(NP (NP (NNS (people)))(SBAR (WHNP (WP (who)))(S (ADVP (RB (sadly)))(VP (VBP (are))(PP (IN (at))(NP (NP (JJ (hostile))(NNS (odds)))(PP (IN (with))(NP (CD (one))(DT (another))))))(PP (IN (through))(NP (NN (recklessness))(CC (and))(NN (retaliation))))))))))))))))))))(. (.)))) |ET| 
-1  |BT| (ROOT (S (NP (NP (ADJP (RB (Too))(JJ (much))))(PP (IN (of))(NP (NN (Storytelling)))))(VP (VBZ (moves))(ADVP (RB (away)))(PP (IN (from))(NP (NP (NNP (Solondz))(POS ('s)))(JJ (social))(NN (critique))))(, (,))(S (VP (VBG (casting))(NP (PRP$ (its))(NN (audience)))(PP (IN (as))(NP (NP (DT (that)))(PP (IN (of))(NP (NP (JJ (intellectual))(NN (lector)))(PP (IN (in))(NP (NP (NN (contemplation)))(PP (IN (of))(NP (NP (DT (the))(NN (auteur))(POS ('s)))(JJ (professional))(NNS (injuries)))))))))))))(. (.)))) |ET| 
1  |BT| (ROOT (S (NP (NNP (Simone)))(VP (VBZ (is))(RB (not))(NP (DT (a))(JJ (bad))(NN (film))))(. (.)))) |ET| 
1  |BT| (ROOT (S (NP (PRP (I)))(VP (MD (could))(RB (n't))(VP (VB (recommend))(ADVP (NP (DT (this))(NN (film)))(RBR (more)))))(. (.)))) |ET| 
0.2689011983832295116236821286293  |BT| (ROOT (S (NP (PRP (He)))(VP (VBZ (has))(NP (NP (DT (a))(JJ (great))(NN (cast)))(CC (and))(NP (DT (a))(JJ (great))(NN (idea)))))(. (.)))) |ET| 
-1  |BT| (ROOT (S (NP (PRP (They)))(VP (VBP (cheapen))(NP (DT (the))(JJ (overall))(NN (effect))))(. (.)))) |ET| 
-0.19091487309111088155333391114254  |BT| (ROOT (S (NP (PRP (It)))(VP (VBZ ('s))(RB (not))(NP (DT (a))(JJ (great))(NN (monster))(NN (movie))))(. (.)))) |ET| 
-0.64640189728261510104800890985643  |BT| (ROOT (S (NP (DT (The))(NN (Piano))(NN (Teacher)))(VP (VBZ (is))(RB (not))(NP (DT (an))(JJ (easy))(NN (film))))(. (.)))) |ET| 
1  |BT| (ROOT (S (NP (NP (NNP (Uplifting)))(PP (IN (as))(NP (NP (RB (only))(DT (a))(NN (document)))(PP (IN (of))(NP (NP (DT (the))(JJS (worst))(NNS (possibilities)))(PP (IN (of))(NP (NN (mankind)))))))))(VP (MD (can))(VP (VP (VB (be)))(, (,))(CC (and))(VP (PP (IN (among))(NP (NP (DT (the))(JJS (best))(NNS (films)))(PP (IN (of))(NP (DT (the))(NN (year)))))))))(. (.)))) |ET| 
1  |BT| (ROOT (FRAG (NP (NP (DT (An))(ADJP (JJ (old))(HYPH (-))(JJ (fashioned)))(NN (drama)))(PP (IN (of))(NP (NP (NN (substance)))(PP (IN (about))(NP (NP (DT (a))(NN (teacher))(POS ('s)))(NN (slide)))))))(PP (IN (down))(NP (NP (NP (DT (the))(JJ (slippery))(NN (slope)))(PP (IN (of))(NP (NP (NN (dishonesty)))(PP (IN (after))(NP (NP (DT (an))(NN (encounter)))(PP (IN (with))(NP (DT (the))(JJ (rich)))))))))(CC (and))(NP (NP (DT (the))(JJ (powerful)))(SBAR (WHNP (WP (who)))(S (VP (VBP (have))(NP (NP (NN (nothing)))(PP (IN (but))(NP (NP (NN (disdain)))(PP (IN (for))(NP (NN (virtue)))))))))))))(. (.)))) |ET| 
1  |BT| (ROOT (S (S (VP (VBG (Beating))(NP (DT (the))(NNP (Austin))(NNP (Powers))(NNS (films)))(PP (IN (at))(NP (PRP$ (their))(JJ (own))(NN (game))))))(, (,))(NP (DT (this))(NN (blaxploitation))(NN (spoof)))(VP (VBZ (downplays))(NP (NP (DT (the))(NN (raunch)))(PP (IN (in))(NP (NP (NN (favor)))(PP (IN (of))(NP (NP (NNS (gags)))(SBAR (WHNP (WDT (that)))(S (VP (VBP (rely))(PP (IN (on))(NP (NP (DT (the))(NN (strength)))(PP (IN (of))(NP (PRP$ (their))(JJ (own))(NN (cleverness))))))(SBAR (IN (as))(S (VP (VBN (opposed))(PP (IN (to))(NP (NP (DT (the))(NN (extent)))(PP (IN (of))(NP (PRP$ (their))(NN (outrageousness))))))))))))))))))(. (.)))) |ET| 
-1  |BT| (ROOT (S (NP (`` (`))(NNP (Butterfingered))('' (')))(VP (VBZ (is))(NP (NP (DT (the))(NN (word)))(PP (IN (for))(NP (NP (DT (the))(ADJP (JJ (big))(HYPH (-))(JJ (fisted)))(NN (direction)))(PP (IN (of))(NP (NP (NNP (Jez))(NNP (Butterworth)))(, (,))(SBAR (WHNP (WP (who)))(S (VP (VBZ (manages))(PP (IN (to))(NP (NN (blast))))(NP (NP (RB (even))(DT (the))(JJS (smallest))(NNS (sensitivities)))(PP (IN (from))(NP (NP (DT (the))(NN (romance)))(PP (IN (with))(NP (PRP$ (his))(JJ (clamorous))(NN (approach))))))))))))))))(. (.)))) |ET| 
-1  |BT| (ROOT (S (NP (NP (JJS (Most)))(PP (IN (of))(NP (NP (DT (the))(NNS (problems)))(PP (IN (with))(NP (DT (the))(NN (film)))))))(VP (VBP (do))(RB (n't))(VP (VB (derive))(PP (IN (from))(NP (NP (DT (the))(NN (screenplay)))(, (,))(CONJP (CC (but))(RB (rather)))(NP (NP (DT (the))(JJ (mediocre))(NNS (performances)))(PP (IN (by))(NP (NP (JJS (most)))(PP (IN (of))(NP (NP (DT (the))(NNS (actors)))(VP (VBN (involved)))))))))))))) |ET| 
-1  |BT| (ROOT (FRAG (ADVP (RB (Never)))(NP (NP (NP (NNS (capitalizes)))(PP (IN (on))(NP (DT (this))(NN (concept)))))(CC (and))(NP (NP (NNS (opts)))(PP (IN (for))(NP (NP (DT (the))(ADJP (JJ (breezy))(CC (and))(JJ (amateurish)))(NN (feel)))(PP (IN (of))(NP (DT (an))(NML (IN (after))(NN (school)))(JJ (special))))))))(PP (IN (on))(NP (NP (DT (the))(NN (subject)))(PP (IN (of))(NP (NN (tolerance))))))(. (.)))) |ET| 
1  |BT| (ROOT (S (NP (PRP (It)))(VP (VBZ ('s))(ADJP (JJ (funny))))(. (.)))) |ET| 
1  |BT| (ROOT (S (NP (PRP (It)))(VP (VBZ ('s))(SBAR (IN (that))(FRAG (ADJP (JJ (good))))))(. (.)))) |ET| 
1  |BT| (ROOT (S (NP (PRP (It)))(VP (VBZ ('s))(ADJP (JJ (sweet))))(. (.)))) |ET| 
-1  |BT| (ROOT (S (NP (PRP (It)))(VP (VBZ ('s))(ADJP (JJ (drab))))(. (.)))) |ET| 
-1  |BT| (ROOT (S (NP (PRP (It)))(VP (VBZ ('s))(ADJP (JJ (uninteresting))))(. (.)))) |ET| 
-1  |BT| (ROOT (S (NP (PRP (It)))(VP (VBZ ('s))(SBAR (IN (that))(FRAG (ADJP (JJ (painful))))))(. (.)))) |ET| 
1  |BT| (ROOT (S (SBAR (IN (As))(S (NP (NP (ADJP (JJ (broad))(CC (and))(JJ (cartoonish))))(PP (IN (as))(NP (DT (the))(NN (screenplay)))))(VP (VBZ (is))(, (,))(SBAR (S (NP (EX (there)))(VP (VBZ (is))(NP (NP (DT (an))(NN (accuracy)))(PP (IN (of))(NP (NP (NN (observation)))(PP (IN (in))(NP (NP (DT (the))(NN (work)))(PP (IN (of))(NP (NP (DT (the))(NN (director)))(, (,))(NP (NNP (Frank))(NNP (Novak))))))))))))))))(, (,))(NP (DT (that)))(VP (VBZ (keeps))(NP (NP (DT (the))(NN (film)))(VP (VBN (grounded))(PP (IN (in))(NP (DT (an))(JJ (undeniable))(JJ (social))(NN (realism)))))))(. (.)))) |ET| 
0.83681996918081680281176204516669  |BT| (ROOT (NP (NP (NNS (Kudos)))(PP (IN (to))(NP (NP (DT (the))(RBS (most))(JJ (enchanting))(NN (film)))(PP (IN (of))(NP (DT (the))(NN (year))))))(. (.)))) |ET| 
1  |BT| (ROOT (S (NP (DT (The))(ADJP (VBG (ending))))(VP (VBZ (feels))(PP (IN (at))(NP (NP (NNS (odds)))(PP (IN (with))(NP (NP (DT (the))(NN (rest)))(PP (IN (of))(NP (DT (the))(NN (film)))))))))(. (.)))) |ET| 
-1  |BT| (ROOT (NP (NP (CD (One)))(PP (IN (of))(NP (NP (DT (the))(JJS (worst))(NNS (movies)))(PP (IN (of))(NP (DT (the))(NN (year))))))(. (.)))) |ET| 
-1  |BT| (ROOT (NP (NP (DT (A))(NN (clash)))(PP (IN (between))(NP (NP (NP (DT (the))(JJ (artificial))(NN (structure)))(PP (IN (of))(NP (DT (the))(NN (story)))))(CC (and))(NP (NP (DT (the))(ADJP (RBR (more))(JJ (contemporary)))(, (,))(JJ (naturalistic))(NN (tone)))(PP (IN (of))(NP (DT (the))(NN (film)))))))(. (...)))) |ET| 
1  |BT| (ROOT (S (NP (PRP (It)))(VP (VBZ ('s))(ADVP (RB (always)))(ADJP (JJ (enthralling))))(. (.)))) |ET| 
1  |BT| (ROOT (S (NP (PRP (It)))(VP (VBZ ('s))(RB (not))(ADJP (ADJP (RB (too))(JJ (fast)))(CC (and))(ADJP (RB (not))(RB (too))(JJ (slow)))))(. (.)))) |ET| 
0.65689539093440807437929152001743  |BT| (ROOT (S (NP (PRP (It)))(VP (VP (VBZ (is)))(ADVP (RB (also)))(ADVP (RB (beautifully)))(VP (VBD (acted))))(. (.)))) |ET| 
-1  |BT| (ROOT (NP (NP (CD (One)))(PP (IN (of))(NP (NP (DT (the))(JJS (worst))(NNS (movies)))(PP (IN (of))(NP (DT (the))(NN (year))))))(. (.)))) |ET| 
-1  |BT| (ROOT (S (NP (PRP (It)))(VP (VBZ ('s))(ADVP (RB (still)))(ADJP (JJ (terrible))))(. (!)))) |ET| 
0.63971509552076344373716665359098  |BT| (ROOT (S (NP (NNP (-LRB-))(NNP (Taymor))(NNP (-RRB-)))(VP (VBZ (utilizes))(NP (NP (DT (the))(NN (idea)))(PP (IN (of))(S (VP (VP (VBG (making))(NP (NP (NP (NNP (Kahlo))(POS ('s)))(NN (art)))(NP (DT (a))(NN (living)))))(, (,))(VP (VBG (breathing))(NP (NP (NN (part)))(PP (IN (of))(NP (DT (the))(NN (movie))))))(, (,))(ADVP (RB (often)))(VP (VBG (catapulting))(NP (DT (the))(NN (artist)))(PP (IN (into))(NP (PRP$ (her))(JJ (own))(NN (work))))))))))(. (.)))) |ET| 
-1  |BT| (ROOT (S (NP (PRP (It)))(VP (VBZ ('s))(RB (not))(ADJP (JJ (original))(RB (enough))))(. (.)))) |ET| 
1  |BT| (ROOT (NP (NP (CD (One)))(PP (IN (of))(NP (NP (DT (the))(JJS (best))(NNS (movies)))(PP (IN (of))(NP (DT (the))(NN (year))))))(. (.)))) |ET| 
1  |BT| (ROOT (NP (NP (CD (One)))(PP (IN (of))(NP (NP (DT (the))(ADJP (JJR (funnier)))(NNS (movies)))(PP (IN (in))(NP (NN (town))))))(. (.)))) |ET| 
1  |BT| (ROOT (NP (NP (DT (A))(NN (gem)))(PP (IN (of))(NP (DT (a))(NN (movie))))(. (.)))) |ET| 
-1  |BT| (ROOT (NP (NP (DT (A))(NN (waste)))(PP (IN (of))(NP (NP (JJ (fearless))(NN (purity)))(PP (IN (in))(NP (DT (the))(VBG (acting))(NN (craft))))))(. (.)))) |ET| 
-1  |BT| (ROOT (NP (NP (DT (A))(NN (selection)))(PP (IN (of))(NP (NP (NNS (scenes)))(PP (IN (in))(NP (NN (search))))))(PP (IN (of))(NP (DT (a))(NN (movie))))(. (.)))) |ET| 
-1  |BT| (ROOT (ADVP (RB (Only))(PP (IN (about))(PP (IN (as))(NP (ADJP (JJ (sexy))(CC (and))(JJ (dangerous))(PP (IN (as))(NP (NP (DT (an))(NN (actress)))(PP (IN (in))(NP (NP (DT (a))(NN (role)))(SBAR (WHNP (WDT (that)))(S (VP (VBZ (reminds))(PP (IN (at))(NP (NP (DT (every))(NN (turn)))(PP (IN (of))(NP (NP (NNP (Elizabeth))(NNP (Berkley))(POS ('s)))(NN (flopping))))))))))))))(NML (NN (dolphin))(HYPH (-))(NN (gasm))))))(. (.)))) |ET| 
1  |BT| (ROOT (S (NP (PRP (It)))(VP (VBZ ('s))(ADJP (JJ (worth)))(S (VP (VBG (taking))(NP (DT (the))(NNS (kids)))(PP (IN (to))))))(. (.)))) |ET| 
0.53721254829360554072792410806869  |BT| (ROOT (S (NP (PRP (It)))(VP (VBZ ('s))(ADVP (RB (endlessly)))(ADJP (ADJP (JJ (inventive)))(, (,))(ADJP (RB (consistently))(JJ (intelligent)))(CC (and))(ADJP (RB (sickeningly))(JJ (savage)))))(. (.)))) |ET| 
1  |BT| (ROOT (S (NP (PRP (It)))(VP (VBZ (deserves))(S (VP (TO (to))(VP (VB (be))(VP (VBN (seen))(ADVP (RB (everywhere))))))))(. (.)))) |ET| 
-0.24379096423818880090550464956323  |BT| (ROOT (S (NP (NN (Everyone)))(VP (VBZ ('s))(S (VP (TO (to))(VP (VB (blame))(ADVP (RB (here)))))))(. (.)))) |ET| 
-1  |BT| (ROOT (S (NP (PRP (It)))(VP (VBZ ('s))(NP (DT (all))(NN (surface))(NNS (psychodramatics))))(. (.)))) |ET| 
-1  |BT| (ROOT (S (NP (PRP (It)))(VP (VBZ ('s))(NP (ADJP (RB (quite))(VBG (diverting)))(NN (nonsense))))(. (.)))) |ET| 
1  |BT| (ROOT (S (PP (IN (At))(ADVP (RB (once))))(NP (NP (DT (a))(NN (testament)))(PP (IN (to))(NP (NP (NP (DT (the))(JJ (divine))(NN (calling)))(PP (IN (of))(NP (NN (education)))))(CC (and))(NP (NP (DT (a))(NN (demonstration)))(PP (IN (of))(NP (NP (DT (the))(JJ (painstaking))(NN (process)))(PP (IN (of))(NP (VBG (imparting))(NN (knowledge))))))))))(. (.)))) |ET| 
0.28152334167548687116067185343127  |BT| (ROOT (FRAG (NP (NP (DT (A))(NN (film)))(PP (IN (of))(NP (NP (JJ (epic))(NN (scale)))(PP (IN (with))(NP (DT (an))(JJ (intimate))(NN (feeling)))))))(, (,))(NP (NP (DT (a))(NN (saga)))(PP (IN (of))(NP (NP (DT (the))(NNS (ups))(CC (and))(NNS (downs)))(PP (IN (of))(NP (NNS (friendships)))))))(. (.)))) |ET| 
0.24683473092914451352264393335645  |BT| (ROOT (NP (NP (NP (DT (A))(JJ (chilling))(NN (tale)))(PP (IN (of))(NP (NP (CD (one)))(PP (IN (of))(NP (NP (DT (the))(JJ (great))(NNS (crimes)))(PP (IN (of))(NP (JJ (20th))(NNP (Century))(NNP (France)))))))))(: (:))(NP (NP (DT (the))(NN (murder)))(PP (IN (of))(NP (NP (CD (two))(JJ (rich))(NNS (women)))(PP (IN (by))(NP (NP (PRP$ (their))(NNS (servants)))(PP (IN (in))(NP (CD (1933)))))))))(. (.)))) |ET| 
-1  |BT| (ROOT (NP (NP (NP (DT (A))(NN (collage)))(PP (IN (of))(NP (NNS (clichés)))))(CC (and))(NP (NP (DT (a))(JJ (dim))(NN (echo)))(PP (IN (of))(NP (NP (NNS (allusions)))(PP (IN (to))(NP (JJ (other))(NNS (films)))))))(. (.)))) |ET| 
-1  |BT| (ROOT (S (SBAR (RB (Even))(IN (if))(S (NP (NP (DT (the))(JJ (enticing))(NN (prospect)))(PP (IN (of))(NP (NP (DT (a))(NN (lot)))(PP (IN (of))(NP (NP (JJ (nubile))(JJ (young))(NNS (actors)))(PP (IN (in))(NP (NP (DT (a))(NN (film)))(PP (IN (about))(NP (NN (campus))(NN (depravity)))))))))))(VP (VBD (did))(RB (n't))(VP (VB (fade))(PP (IN (amid))(NP (DT (the))(JJ (deliberate))(, (,))(JJ (tiresome))(NN (ugliness))))))))(, (,))(NP (PRP (it)))(VP (MD (would))(VP (VB (be))(VP (VBN (rendered))(S (ADJP (JJ (tedious))))(PP (IN (by))(NP (NP (NNP (Avary))(POS ('s)))(NN (failure))(S (VP (TO (to))(VP (VB (construct))(NP (DT (a))(NN (story)))(PP (IN (with))(NP (NP (RB (even))(DT (a))(NN (trace)))(PP (IN (of))(NP (JJ (dramatic))(NN (interest))))))))))))))(. (.)))) |ET| 
-1  |BT| (ROOT (S (VP (VP (VBZ (Tries))(S (VP (TO (to))(VP (VB (work))(PP (IN (in))(NP (NP (DT (the))(JJ (same))(NN (vein)))(PP (IN (as))(NP (NP (DT (the))(NN (brilliance)))(PP (IN (of))(NP (NNP (Animal))(NNP (House))))))))))))(CC (but))(ADVP (RB (instead)))(VP (VBZ (comes))(ADJP (ADJP (JJR (closer)))(PP (IN (to))(NP (NP (DT (the))(NN (failure)))(PP (IN (of))(NP (NP (DT (the))(JJ (third))(NN (Revenge)))(PP (IN (of))(NP (DT (the))(NNS (Nerds))(NN (sequel)))))))))))(. (.)))) |ET| 
1  |BT| (ROOT (S (NP (PRP (It)))(VP (VBZ ('s))(NP (DT (a))(NN (masterpeice))))(. (.)))) |ET| 
1  |BT| (ROOT (S (NP (PRP (It)))(VP (VBZ ('s))(NP (DT (a))(NN (scorcher))))(. (.)))) |ET| 
0.40695272599573378835557946331392  |BT| (ROOT (S (NP (PRP (It)))(VP (VBZ ('s))(NP (DT (a))(NN (masterpiece))))(. (.)))) |ET| 
-1  |BT| (ROOT (S (NP (PRP (It)))(VP (VBZ ('s))(NP (CD (one))(NML (JJ (long))(NN (bore)))))(. (.)))) |ET| 
-1  |BT| (ROOT (S (NP (PRP (It)))(VP (VBZ (hates))(NP (PRP$ (its))(NNS (characters))))(. (.)))) |ET| 
-1  |BT| (ROOT (S (NP (PRP (It)))(VP (MD (would))(VP (VB (be))(ADJP (JJ (great))(S (VP (TO (to))(VP (VB (see))(S (NP (DT (this))(NN (turd)))(ADJP (JJ (squashed))(PP (IN (under))(NP (NP (DT (a))(NN (truck)))(, (,))(RB (preferably))(NP (DT (a))(NN (semi)))))))))))))(. (.)))) |ET| 
0.38826723804703716647068745260185  |BT| (ROOT (NP (NP (NP (DT (A))(ADJP (RB (surprisingly))(`` (`))(JJ (solid))('' (')))(NN (achievement)))(PP (IN (by))(NP (NN (director)))))(NP (NP (NNP (Malcolm))(NNP (D.))(NNP (Lee)))(CC (and))(NP (NN (writer))(NNP (John))(NNP (Ridley))))(. (.)))) |ET| 
1  |BT| (ROOT (S (VP (VBZ (Brings))(ADVP (RB (together)))(NP (NP (DT (some)))(PP (IN (of))(NP (NP (DT (the))(JJS (biggest))(NNS (names)))(PP (IN (in))(NP (JJ (Japanese))(NN (anime)))))))(, (,))(PP (IN (with))(NP (JJ (impressive))(NNS (results)))))(. (.)))) |ET| 
1  |BT| (ROOT (S (PP (IN (Like))(NP (NP (JJ (blended))(NNS (shades)))(PP (IN (of))(NP (NN (lipstick))))))(, (,))(NP (DT (these))(NNS (components)))(VP (VBP (combine))(PP (IN (into))(NP (NP (CD (one))(JJ (terrific))(NN (story)))(PP (IN (with))(NP (NP (NNS (lots)))(PP (IN (of))(NP (NNS (laughs)))))))))(. (.)))) |ET| 
-1  |BT| (ROOT (S (PP (RB (Instead))(PP (IN (of))(NP (NP (NN (building)))(PP (IN (to))(NP (DT (a))(NN (laugh))(NN (riot)))))))(NP (PRP (we)))(VP (VBP (are))(VP (VBN (left))(PP (IN (with))(NP (NP (DT (a))(NN (handful)))(PP (IN (of))(NP (NP (JJ (disparate))(JJ (funny))(NNS (moments)))(PP (IN (of))(NP (DT (no))(JJ (real))(NN (consequence))))))))))(. (.)))) |ET| 
-1  |BT| (ROOT (SBARQ (WHNP (WP (What)))(SQ (VBZ ('s))(NP (NP (JJS (most))(NN (offensive)))(SBAR (S (VP (VBZ (is))(RB (n't))(NP (NP (NP (DT (the))(NN (waste)))(PP (IN (of))(NP (DT (a))(JJ (good))(NN (cast)))))(, (,))(CC (but))(NP (NP (NP (DT (the))(NN (film))(POS ('s)))(NN (denial)))(PP (IN (of))(NP (NP (JJ (sincere))(NN (grief))(CC (and))(NN (mourning)))(PP (IN (in))(NP (NP (NN (favor)))(PP (IN (of))(NP (JJ (bogus))(NN (spiritualism)))))))))))))))(. (.)))) |ET| 
-1  |BT| (ROOT (S (NP (NP (DT (This))(NN (mess)))(PP (IN (of))(NP (DT (a))(NN (movie)))))(VP (VBZ (is))(NP (NP (NN (nothing))(JJ (short)))(PP (IN (of))(NP (NP (DT (a))(NN (travesty)))(PP (IN (of))(NP (DT (a))(NN (transvestite))(NN (comedy))))))))(. (.)))) |ET| 
1  |BT| (ROOT (S (NP (DT (This))(NN (movie)))(VP (VBZ (is))(S (VP (TO (to))(VP (VB (be))(ADJP (VBN (cherished)))))))(. (.)))) |ET| 
1  |BT| (ROOT (S (NP (PRP (You)))(VP (VBP (have))(S (VP (TO (to))(VP (VB (see))(NP (PRP (it)))))))(. (.)))) |ET| 
1  |BT| (ROOT (S (NP (DT (These))(NNS (people)))(VP (VBP (are))(ADVP (RB (really)))(VP (VBG (going))(S (VP (TO (to))(VP (VB (love))(NP (DT (The))(NN (Piano))(NN (Teacher))))))))(. (.)))) |ET| 
-1  |BT| (ROOT (S (NP (NNP (Paul))(NNP (Cox)))(VP (VBD (needed))(S (VP (TO (to))(VP (VB (show))(NP (PRP (it)))))))(. (.)))) |ET| 
-1  |BT| (ROOT (S (NP (NP (DT (The))(JJ (only))(NN (thing)))(SBAR (S (NP (PRP (I)))(VP (VBD (laughed))(PP (IN (at)))))))(VP (VBD (were))(NP (NP (DT (the))(NNS (people)))(SBAR (WHNP (WP (who)))(S (VP (VBD (paid))(S (VP (TO (to))(VP (VB (see))(NP (PRP (it)))))))))))(. (.)))) |ET| 
-1  |BT| (ROOT (S (NP (PRP (It)))(VP (VBZ ('s))(NP (NP (NP (PDT (such))(DT (a))(JJ (mechanical))(NN (endeavor)))(NP (NNP (-LRB-))))(SBAR (WHNP (WDT (that)))(S (VP (VBZ (-RRB-))(SBAR (S (NP (PRP (it)))(ADVP (RB (never)))(VP (VBZ (bothers))(S (VP (TO (to))(VP (VB (question))(SBAR (WHADVP (WRB (why)))(S (NP (NN (somebody)))(VP (MD (might))(VP (VB (devote))(NP (NN (time)))(S (VP (TO (to))(VP (VB (see))(NP (PRP (it)))))))))))))))))))))(. (.)))) |ET| 
1  |BT| (ROOT (S (NP (DT (The))(CD (Four))(NNS (Feathers)))(VP (VBZ (has))(NP (NNS (rewards)))(, (,))(PP (IN (from))(NP (NP (DT (the))(NN (exoticism)))(PP (IN (of))(NP (NP (PRP$ (its))(NNS (seas)))(PP (IN (of))(NP (NP (NN (sand)))(PP (IN (to))(NP (NP (DT (the))(JJ (fierce))(NN (grandeur)))(PP (IN (of))(NP (PRP$ (its))(JJ (sweeping))(NN (battle))(NNS (scenes)))))))))))))(. (.)))) |ET| 
1  |BT| (ROOT (S (VP (VBZ (Generates))(NP (NP (DT (an))(JJ (enormous))(NN (feeling)))(PP (IN (of))(NP (NP (NN (empathy)))(PP (IN (for))(NP (PRP$ (its))(NNS (characters))))))))(. (.)))) |ET| 
1  |BT| (ROOT (NP (NP (ADJP (JJR (Less)))(DT (an))(NN (examination)))(PP (IN (of))(NP (NN (neo-Nazism))))(PP (IN (than))(NP (NP (DT (a))(NN (probe)))(PP (IN (into))(NP (NP (DT (the))(NN (nature)))(PP (IN (of))(NP (NP (NN (faith)))(ADVP (PRP (itself)))))))))(. (.)))) |ET| 
-1  |BT| (ROOT (S (VP (VBZ (Plays))(PP (IN (like))(NP (NP (NNP (John))(NNP (Le))(NNP (Carré)))(PP (IN (with))(NP (NP (DT (a))(NN (couple)))(PP (IN (of))(NP (ADJP (VBN (burnt))(HYPH (-))(RP (out)))(NNS (cylinders)))))))))(. (.)))) |ET| 
-1  |BT| (ROOT (S (NP (NP (DT (The))(NN (film))(POS ('s)))(NN (desire))(S (VP (TO (to))(VP (VB (be))(VP (VBN (liked))(ADVP (RB (sometimes))))))))(VP (VBZ (undermines))(NP (NP (DT (the))(NN (possibility)))(PP (IN (for))(NP (NP (DT (an))(NN (exploration)))(PP (IN (of))(NP (NP (DT (the))(JJR (thornier))(NNS (aspects)))(PP (IN (of))(NP (NP (DT (the))(NML (NN (nature\))(HYPH (/))(NN (nurture)))(NN (argument)))(PP (IN (in))(NP (NNS (regards)))))))))))(PP (IN (to))(NP (NN (homosexuality)))))(. (.)))) |ET| 
-1  |BT| (ROOT (S (NP (NNP (Eisenstein)))(VP (VBZ (lacks))(NP (JJ (considerable))(NN (brio)))(PP (IN (for))(NP (NP (DT (a))(NN (film)))(PP (IN (about))(NP (NP (CD (one)))(PP (IN (of))(NP (NP (NN (cinema))(POS ('s)))(JJ (directorial))(NNS (giants)))))))))(. (.)))) |ET| 
1  |BT| (ROOT (S (SBAR (WHADVP (RB (Even))(WRB (when)))(S (NP (PRP (it)))(VP (VBZ (drags)))))(, (,))(NP (PRP (we)))(VP (VBP (are))(VP (VBN (forced))(S (VP (TO (to))(VP (VB (reflect))(SBAR (IN (that))(S (NP (PRP$ (its))(JJ (visual))(NN (imagination)))(VP (VBZ (is))(ADJP (JJ (breathtaking))))))))))))) |ET| 
1  |BT| (ROOT (NP (NP (DT (An))(JJ (inventive))(, (,))(ADJP (VBG (absorbing)))(NN (movie)))(SBAR (WHNP (WDT (that)))(S (VP (VBZ ('s))(ADJP (RB (as))(JJ (hard)))(S (VP (TO (to))(VP (VB (classify))(SBAR (IN (as))(S (NP (PRP (it)))(VP (VBZ (is))(ADJP (JJ (hard))(S (VP (TO (to))(VP (VB (resist)))))))))))))))(. (.)))) |ET| 
1  |BT| (ROOT (S (NP (PRP (It)))(VP (VBZ (trusts))(NP (NP (DT (the))(NN (story)))(SBAR (S (NP (PRP (it)))(VP (VBZ (sets))(PRT (RP (out)))(S (VP (TO (to))(VP (VB (tell))))))))))(. (.)))) |ET| 
-1  |BT| (ROOT (S (S (NP (PRP (You)))(VP (VBP (see))(NP (DT (the))(NN (movie)))))(CC (and))(S (NP (PRP (you)))(VP (VBP (think))(, (,))(ADVP (RB (zzzzzzzzz)))))(. (.)))) |ET| 
-1  |BT| (ROOT (S (S (NP (NNP (Rollerball)))(VP (VBZ (IS))(ADJP (RB (as))(JJ (bad)))(SBAR (IN (as))(S (NP (PRP (you)))(VP (VBP (think)))))))(, (,))(CC (and))(S (ADJP (JJR (worse))(SBAR (IN (than))(S (NP (PRP (you)))(VP (MD (can))(VP (VB (imagine))))))))(. (.)))) |ET| 
-0.5897113100629376436501161151682  |BT| (ROOT (S (NP (PRP (I)))(VP (VBP ('m))(ADJP (JJ (sorry))(S (VP (TO (to))(VP (VB (say))(SBAR (IN (that))(S (NP (DT (this)))(VP (MD (should))(VP (VB (seal))(NP (NP (DT (the))(NN (deal)))(HYPH (-))(SBAR (S (NP (NNP (Arnold)))(VP (VP (VBZ (is))(RB (not)))(, (,))(CC (nor))(SINV (MD (will))(NP (PRP (he)))(VP (VB (be))))))))))))))))(, (,))(ADVP (RB (back))))(. (.)))) |ET| 
1  |BT| (ROOT (S (NP (NNP (Arteta)))(VP (VBZ (paints))(NP (NP (DT (a))(NN (picture)))(PP (IN (of))(NP (NP (NNS (lives)))(VP (VBN (lived))(PP (IN (in))(NP (NP (DT (a))(NN (state)))(PP (IN (of))(NP (JJ (quiet))(NN (desperation)))))))))))(. (.)))) |ET| 
1  |BT| (ROOT (S (PP (IN (With))(NP (NP (DT (the))(NN (prospect)))(PP (IN (of))(NP (NP (NNS (films)))(PP (IN (like))(NP (NP (NNP (Kangaroo))(NNP (Jack)))(PP (IN (about))(NP (S (VP (TO (to))(VP (VB (burst))(PP (IN (across))(NP (NP (NNP (America))(POS ('s)))(NN (winter))(NN (movie)))))))(NNS (screens))))))))))(NP (PRP (it)))(VP (VBZ ('s))(NP (DT (a))(NN (pleasure))(S (VP (TO (to))(VP (VB (have))(NP (NP (DT (a))(NN (film)))(PP (IN (like))(NP (NP (DT (The))(NNS (Hours)))(PP (IN (as))(NP (DT (an))(NN (alternative))))))))))))(. (.)))) |ET| 
1  |BT| (ROOT (NP (NP (DT (A))(JJ (wild))(NN (ride)))(PP (IN (with))(NP (NP (CD (eight))(NNS (boarders)))(PP (IN (from))(NP (NP (NNP (Venice))(NNP (Beach)))(SBAR (WHNP (WDT (that)))(S (VP (VBD (was))(NP (NP (DT (a))(JJ (deserved))(NN (co-winner)))(PP (IN (of))(NP (NP (DT (the))(NN (Audience))(NN (Award)))(PP (IN (for))(NP (NP (NNS (documentaries)))(PP (IN (at))(NP (DT (the))(NNP (Sundance))(NNP (Film))(NNP (Festival))))))))))))))))(. (.)))) |ET| 
-1  |BT| (ROOT (S (NP (NN (Sex)))(VP (VBZ (is))(NP (NP (CD (one)))(PP (IN (of))(NP (NP (DT (those))(NNS (films)))(SBAR (WHNP (WDT (that)))(S (VP (VBZ (aims))(S (VP (TO (to))(VP (VB (confuse))))))))))))(. (.)))) |ET| 
-1  |BT| (ROOT (NP (NP (NP (DT (A))(NML (S (VP (VBD (decided)))))(NN (lack)))(PP (IN (of))(NP (NP (NP (NN (spontaneity)))(PP (IN (in))(NP (PRP$ (its))(NN (execution)))))(CC (and))(NP (NP (DT (a))(NN (dearth)))(PP (IN (of))(NP (JJ (real))(NN (poignancy))))))))(PP (IN (in))(NP (PRP$ (its))(NNS (epiphanies))))(. (.)))) |ET| 
-1  |BT| (ROOT (S (NP (NP (DT (The))(NNS (Adventures)))(PP (IN (of))(NP (NNP (Pluto))(NNP (Nash)))))(VP (VBZ (is))(NP (NP (DT (a))(JJ (whole))(NN (lot)))(PP (IN (of))(NP (NN (nada))))))(. (.)))) |ET| 
1  |BT| (ROOT (S (S (NP (PRP (We)))(VP (VBP (want))(NP (DT (the))(NN (funk))(HYPH (-)))))(CC (and))(S (NP (DT (this))(NN (movie)))(VP (VBZ ('s))(VP (VBN (got))(NP (PRP (it))))))(. (.)))) |ET| 
1  |BT| (ROOT (S (INTJ (UH (Yes)))(, (,))(NP (PRP (it)))(VP (VBZ ('s))(ADJP (RB (as))(JJ (good)))(SBAR (IN (as))(S (NP (PRP (you)))(VP (VBP (remember))))))(. (.)))) |ET| 
0.65825070781731143121362492820481  |BT| (ROOT (S (NP (DT (Some))(NN (Body)))(VP (MD (will))(VP (VB (take))(NP (PRP (you)))(NP (NP (NNS (places)))(SBAR (S (NP (PRP (you)))(VP (VP (VBP (have))(RB (n't))(VP (VBN (been))))(, (,))(CC (and))(ADVP (RB (also)))(VP (VBZ (places))(SBAR (S (NP (PRP (you)))(VP (VBP (have))))))))))))(. (.)))) |ET| 
-1  |BT| (ROOT (S (SBAR (IN (While))(S (NP (PRP (you)))(VP (VBP (have))(S (VP (TO (to))(VP (VB (admit))(SBAR (S (NP (PRP (it)))(VP (VBZ ('s))(VP (VBG (semi-amusing))(S (VP (TO (to))(VP (VB (watch))(NP (NML (NNP (Robert))(NNP (DeNiro)))(NN (belt)))(PP (IN (out))(S (`` (``))(S (SBAR (WHADVP (WRB (When)))(S (NP (PRP (you)))(VP (VBP ('re))(NP (DT (a))(NN (Jet))))))(, (,))(NP (PRP (you)))(VP (VBP ('re))(NP (NP (DT (a))(NN (Jet)))(NP (PDT (all))(DT (the))(NN (way))))))(, (,))('' ('')))))))))))))))))(NP (PRP (it)))(VP (VBZ ('s))(ADJP (RB (equally))(JJ (distasteful)))(S (VP (TO (to))(VP (VB (watch))(S (NP (PRP (him)))(VP (VB (sing))(NP (DT (the))(NNS (lyrics)))(PP (IN (to))(`` (``))(NP (NN (Tonight))))))))))(. (.))('' ('')))) |ET| 
-1  |BT| (ROOT (S (VP (VB (Hate))(NP (PRP (it)))(SBAR (IN (because))(S (NP (PRP (it)))(VP (VBZ ('s))(ADJP (JJ (lousy)))))))(. (.)))) |ET| 
-1  |BT| (ROOT (S (CC (Yet))(NP (PRP (it)))(VP (VBZ ('s))(RB (not))(NP (NP (PDT (quite))(DT (the))(ADJP (NN (genre))(HYPH (-))(VBG (busting)))(NN (film)))(SBAR (S (NP (PRP (it)))(VP (VBZ ('s))(VP (VBN (been))(VP (VBN (hyped))(S (VP (TO (to))(VP (VB (be))(SBAR (IN (because))(S (NP (PRP (it)))(VP (VBZ (plays))(NP (NP (NN (everything)))(ADJP (RB (too))(JJ (safe)))))))))))))))))(. (.)))) |ET| 
0.86854782845478972763686442704056  |BT| (ROOT (S (S (NP (NP (NN (Death)))(PP (IN (to))(NP (NNP (Smoochy)))))(VP (VBZ (is))(ADVP (RB (often)))(ADJP (RB (very))(JJ (funny)))))(, (,))(CC (but))(S (SBAR (WHNP (WP (what)))(S (VP (VBZ ('s))(ADJP (ADVP (RB (even))(RBR (more)))(JJ (remarkable))))))(VP (VBZ (is))(NP (NP (DT (the))(NN (integrity)))(PP (IN (of))(NP (NP (NNP (DeVito))(POS ('s)))(JJ (misanthropic))(NN (vision)))))))(. (.)))) |ET| 
1  |BT| (ROOT (S (NP (DT (A))(JJ (fine))(NN (documentary)))(VP (MD (can))(VP (VB (be))(VP (VBN (distinguished))(PP (IN (from))(NP (DT (a))(JJ (mediocre))(NN (one))))(PP (IN (by))(NP (NP (DT (the))(JJR (better))(NN (film))(POS ('s)))(NN (ability))(S (VP (TO (to))(VP (VB (make))(NP (PRP$ (its))(ADJP (JJ (subject))(JJ (interesting))(PP (IN (to))(NP (NP (DT (those)))(SBAR (WHNP (WP (who)))(S (VP (VBP (are))(RB (n't))(NP (NP (NN (part)))(PP (IN (of))(NP (PRP$ (its))(VBN (supposed))(NN (target)))))))))))(NN (audience)))))))))))(. (.)))) |ET| 
0.96877897910018173632806792738847  |BT| (ROOT (S (NP (NP (JJ (Much)))(PP (IN (of))(NP (NP (DT (the))(NN (movie))(POS ('s)))(NN (charm)))))(VP (VBZ (lies))(PP (IN (in))(NP (NP (DT (the))(JJ (utter))(NN (cuteness)))(PP (IN (of))(NP (NNP (Stuart))(CC (and))(NNP (Margolo)))))))(. (.)))) |ET| 
-1  |BT| (ROOT (S (NP (NP (CD (One))(NN (scene)))(PP (IN (after))(NP (NP (DT (another)))(PP (IN (in))(NP (DT (this))(ADJP (RB (supposedly))(JJ (funny)))(NN (movie)))))))(VP (VBZ (falls))(PP (IN (to))(NP (NP (DT (the))(NN (floor)))(PP (IN (with))(NP (DT (a))(JJ (sickening))(NN (thud)))))))(. (.)))) |ET| 
-1  |BT| (ROOT (S (NP (NP (DT (An))(JJ (excruciating))(NN (demonstration)))(PP (IN (of))(NP (NP (DT (the))(NN (unsalvageability)))(PP (IN (of))(NP (DT (a))(NN (movie)))))))(VP (VBN (saddled))(PP (IN (with))(NP (DT (an))(ADJP (JJ (amateurish)))(NN (screenplay)))))(. (.)))) |ET| 
-1  |BT| (ROOT (PP (IN (Like))(S (VP (VBG (leafing))(PP (IN (through))(NP (NP (DT (an))(NN (album)))(PP (IN (of))(NP (NP (NNS (photos)))(VP (VBN (accompanied))(PP (IN (by))(NP (NP (DT (the))(JJS (sketchiest)))(PP (IN (of))(NP (NNS (captions)))))))))))))(. (.)))) |ET| 
0.011096945359011527523773743553193  |BT| (ROOT (S (VP (VB (Catch))(NP (PRP (it)))(: (...))(SBAR (IN (if))(S (NP (PRP (you)))(VP (MD (can))))))(. (!)))) |ET| 
1  |BT| (ROOT (S (S (NP (PRP (It)))(VP (VBZ (falls))(ADJP (RB (far))(JJ (short))(PP (IN (of))(NP (NN (poetry)))))))(, (,))(CC (but))(S (NP (PRP (it)))(VP (VBZ ('s))(RB (not))(NP (JJ (bad))(NN (prose)))))(. (.)))) |ET| 
1  |BT| (ROOT (S (S (VP (MD (May))(VP (VB (take))(NP (PRP$ (its))(JJ (sweet))(NN (time)))(S (VP (TO (to))(VP (VB (get))(SBAR (SBAR (WHADVP (WRB (wherever)))(S (NP (PRP (it)))(VP (VBZ ('s))(VP (VBG (going))))))(, (,))(CC (but))(SBAR (IN (if))(S (NP (PRP (you)))(VP (VBP (have))(NP (NP (DT (the))(NN (patience)))(PP (IN (for))(NP (PRP (it)))))))))))))))(, (,))(NP (PRP (you)))(VP (MD (wo))(RB (n't))(VP (VB (feel))(SBAR (IN (like))(S (NP (PRP (it)))(VP (VBZ ('s))(VP (VBN (wasted))(NP (PRP (yours)))))))))(. (.)))) |ET| 
-1  |BT| (ROOT (S (S (NP (PRP (It)))(VP (VBZ ('s))(ADJP (JJ (leaden))(CC (and))(JJ (predictable)))))(, (,))(CC (and))(S (NP (NNS (laughs)))(VP (VBP (are))(VP (VBG (lacking)))))(. (.)))) |ET| 
-1  |BT| (ROOT (S (S (NP (NNP (Showtime)))(VP (VBZ (is))(RB (n't))(ADJP (RB (particularly))(JJ (assaultive)))))(, (,))(CC (but))(S (NP (PRP (it)))(VP (MD (can))(ADVP (RB (still)))(VP (VB (make))(S (NP (PRP (you)))(VP (VB (feel))(SBAR (IN (that))(S (NP (PRP (you)))(ADVP (RB (never)))(VP (VBP (want))(S (VP (TO (to))(VP (VB (see))(NP (DT (another))(NML (NN (car))(NN (chase)))(, (,))(NN (explosion))(CC (or))(NN (gunfight)))(ADVP (RB (again))))))))))))))(. (.)))) |ET| 
-1  |BT| (ROOT (S (SBAR (IN (If))(S (NP (PRP (you)))(VP (VBP (go)))))(, (,))(VP (VB (pack))(NP (PRP$ (your))(NN (knitting))(NNS (needles))))(. (.)))) |ET| 
1  |BT| (ROOT (NP (NP (DT (An))(JJ (effective))(NN (portrait)))(PP (IN (of))(NP (NP (DT (a))(NN (life)))(PP (IN (in))(NP (NP (NN (stasis)))(: (--))(PP (IN (of))(NP (NP (DT (the))(NN (power)))(PP (IN (of))(NP (NN (inertia))(S (VP (TO (to))(VP (VB (arrest))(NP (NN (development)))(PP (IN (in))(NP (DT (a))(NML (JJ (dead))(HYPH (-))(NN (end)))(NN (existence)))))))))))))))(. (.)))) |ET| 
1  |BT| (ROOT (S (NP (NP (DT (The))(NN (heat)))(PP (IN (of))(NP (DT (the))(NN (moment)))))(VP (VBZ (prevails)))(. (.)))) |ET| 
1  |BT| (ROOT (S (NP (NP (JJS (Best)))(VP (VBN (enjoyed))(PP (IN (as))(NP (NP (DT (a))(NN (work)))(PP (IN (of))(NP (NN (fiction))))))))(VP (VBN (inspired))(PP (IN (by))(NP (NML (JJ (real))(HYPH (-))(NN (life)))(NNS (events)))))(. (.)))) |ET| 
-1  |BT| (ROOT (NP (NP (DT (A))(JJ (sub-formulaic))(NN (slap)))(PP (IN (in))(NP (NP (DT (the))(NN (face)))(PP (IN (to))(NP (JJ (seasonal))(NN (cheer))))))(. (.)))) |ET| 
-1  |BT| (ROOT (S (NP (NN (Pap)))(VP (VBN (invested))(PP (IN (in))(NP (NP (JJ (undergraduate))(NN (doubling))(NNS (subtexts)))(CC (and))(NP (JJ (ridiculous))(NNS (stabs)))))(PP (IN (at))(NP (NP (NN (existentialism))(NN (reminding)))(PP (IN (of))(NP (NP (DT (the))(NN (discovery)))(PP (IN (of))(NP (NP (DT (the))(NN (wizard)))(PP (IN (of))(NP (NNP (God))))))))))(PP (IN (in))(NP (DT (the))(JJ (fifth))(NNP (Trek))(NN (flick)))))(. (.)))) |ET| 
-1  |BT| (ROOT (S (PP (IN (With))(NP (NP (DT (the))(NN (dog))(NNS (days)))(PP (IN (of))(NP (NP (NNP (August)))(PP (IN (upon))(NP (PRP (us))))))))(, (,))(VP (VB (think))(PP (IN (of))(NP (NP (DT (this))(NN (dog)))(PP (IN (of))(NP (DT (a))(NN (movie))))))(PP (IN (as))(NP (NP (DT (the))(JJ (cinematic))(NN (equivalent)))(PP (IN (of))(NP (JJ (high))(NN (humidity)))))))(. (.)))) |ET| 
1  |BT| (ROOT (S (S (NP (PRP (It)))(VP (VBZ ('s))(ADJP (ADJP (RBR (more))(JJ (enjoyable)))(SBAR (IN (than))(S (NP (PRP (I)))(VP (VBD (expected))))))(, (,))(ADVP (RB (though)))))(, (,))(CC (and))(S (NP (DT (that)))(VP (VBZ ('s))(SBAR (IN (because))(S (NP (DT (the))(NNS (laughs)))(VP (VBP (come))(PP (IN (from))(NP (ADJP (RB (fairly))(JJ (basic)))(JJ (comedic))(NNS (constructs)))))))))(. (.)))) |ET| 
1  |BT| (ROOT (S (S (NP (NP (NN (S1M0NE))(POS ('s)))(NN (satire)))(VP (VBZ (is))(RB (not))(ADJP (JJ (subtle)))))(, (,))(CC (but))(S (NP (PRP (it)))(VP (VBZ (is))(ADJP (JJ (effective)))))(. (.)))) |ET| 
1  |BT| (ROOT (S (S (NP (NNP (Leigh)))(VP (VBZ (is))(RB (n't))(VP (VBG (breaking))(NP (JJ (new))(NN (ground))))))(, (,))(CC (but))(S (NP (PRP (he)))(VP (VBZ (knows))(SBAR (WHADVP (WRB (how)))(S (NP (DT (a))(RB (daily)))(VP (VBP (grind))(SBAR (S (VP (MD (can))(VP (VB (kill))(NP (NN (love))))))))))))(. (.)))) |ET| 
-1  |BT| (ROOT (S (S (NP (DT (This))(NNP (Orange)))(VP (VBZ (has))(NP (DT (some))(NN (juice)))))(, (,))(CC (but))(S (NP (PRP (it)))(VP (VBZ ('s))(ADVP (RB (far))(PP (IN (from))(ADJP (JJ (fresh)))))(HYPH (-))(VP (VBN (squeezed)))))(. (.)))) |ET| 
-1  |BT| (ROOT (S (S (NP (DT (The))(NN (film)))(VP (VBZ (has))(VP (VBN (-LRB-))(NP (PRP$ (its))(JJ (-RRB-))(NNS (moments))))))(, (,))(CC (but))(S (NP (PRP (they)))(VP (VBP (are))(ADJP (JJ (few)))(ADVP (CC (and))(RB (far))(IN (between)))))(. (.)))) |ET| 
-1  |BT| (ROOT (S (S (NP (NN (Collateral))(NN (Damage)))(VP (VBZ (is))(NP (NN (trash)))))(, (,))(CC (but))(S (NP (PRP (it)))(VP (VBZ (earns))(NP (JJ (extra))(NNS (points)))(PP (IN (by))(S (VP (VBG (acting))(SBAR (IN (as))(IN (if))(S (NP (PRP (it)))(VP (VBD (were))(RB (n't))))))))))(. (.)))) |ET| 
1  |BT| (ROOT (NP (NP (NP (DT (A))(NN (movie)))(PP (IN (of))(NP (JJ (technical))(NN (skill)))))(CC (and))(NP (NP (JJ (rare))(NN (depth)))(PP (IN (of))(NP (NN (intellect))(CC (and))(NN (feeling)))))(. (.)))) |ET| 
1  |BT| (ROOT (NP (NP (DT (A))(NML (ADVP (RB (realistically))))(JJ (terrifying))(NN (movie)))(SBAR (WHNP (WDT (that)))(S (VP (VBZ (puts))(NP (NP (DT (another))(NN (notch)))(PP (IN (in))(NP (NP (DT (the))(NN (belt)))(PP (IN (of))(NP (NP (DT (the))(JJ (long))(NN (list)))(PP (IN (of))(NP (NML (NN (renegade))(HYPH (-))(NN (cop)))(NNS (tales))))))))))))(. (.)))) |ET| 
1  |BT| (ROOT (NP (NP (DT (The))(JJS (closest))(NN (thing)))(PP (IN (to))(NP (NP (DT (the))(NN (experience)))(PP (IN (of))(NP (NN (space))(NN (travel)))))))) |ET| 
-1  |BT| (ROOT (NP (NP (NP (DT (A))(JJ (sustained))(JJS (fest)))(PP (IN (of))(NP (NP (NN (self))(HYPH (-))(NN (congratulation)))(PP (IN (between))(NP (NN (actor))(CC (and))(NN (director)))))))(SBAR (WHNP (WDT (that)))(S (VP (VBZ (leaves))(NP (NP (JJ (scant))(NN (place)))(PP (IN (for))(NP (DT (the))(NN (viewer))))))))(. (.)))) |ET| 
-1  |BT| (ROOT (NP (NP (DT (A))(NN (film)))(SBAR (WHNP (WDT (that)))(S (VP (VBZ (loses))(NP (NP (NN (sight)))(PP (IN (of))(NP (PRP$ (its))(JJ (own))(NN (story))))))))(. (.)))) |ET| 
-1  |BT| (ROOT (S (NP (NP (DT (All)))(PP (IN (of))(NP (NP (DT (the))(NNS (filmmakers))(POS (')))(NNS (calculations)))))(VP (MD (ca))(RB (n't))(VP (VB (rescue))(NP (NP (NNP (Brown))(NNP (Sugar)))(PP (IN (from))(NP (NP (DT (the))(NN (curse)))(PP (IN (of))(NP (NN (blandness)))))))))(. (.)))) |ET| 
1  |BT| (ROOT (S (S (NP (PRP (It)))(VP (VBZ ('s))(ADVP (RB (up))(PP (IN (to))(NP (NNP (-LRB-))(NNP (Watts))(NNP (-RRB-)))))(S (VP (TO (to))(VP (VB (lend))(NP (NN (credibility)))(PP (IN (to))(NP (DT (this))(JJ (strange))(NN (scenario)))))))))(, (,))(CC (and))(S (NP (PRP$ (her))(NN (presence)))(VP (VBZ (succeeds))(PP (IN (in))(S (VP (VBG (making))(S (NP (PRP (us)))(VP (VB (believe)))))))))(. (.)))) |ET| 
0.66718236674737596558770746923983  |BT| (ROOT (FRAG (NP (DT (Both))(ADJP (JJ (heartbreaking))(CC (and))(JJ (heartwarming))))(, (...))(FRAG (NP (RB (just))(DT (a))(JJ (simple))(NN (fable)))(VP (VBN (done))(PP (IN (in))(NP (DT (an))(JJ (artless))(NN (sytle))))))(, (,))(CC (but))(S (NP (PRP (it)))(VP (VBZ ('s))(ADVP (RB (tremendously)))(VP (VBG (moving)))))(. (.)))) |ET| 
0.82508334190281151787615954162902  |BT| (ROOT (S (S (INTJ (UH (Sure)))(, (,))(NP (PRP (it)))(VP (VBZ ('s))(ADJP (JJ (contrived))(CC (and))(JJ (predictable)))))(, (,))(CC (but))(S (NP (PRP$ (its))(NNS (performances)))(VP (VBP (are))(ADJP (ADVP (RB (so))(RB (well)))(VBN (tuned))(SBAR (IN (that))(S (NP (DT (the))(NN (film)))(VP (VBZ (comes))(PRT (RP (off)))(ADVP (RB (winningly)))(, (,))(SBAR (RB (even))(IN (though))(S (NP (PRP (it)))(VP (VBZ ('s))(ADVP (RB (never)))(ADJP (IN (as))(JJ (solid)))(SBAR (IN (as))(S (NP (PRP (you)))(VP (VBP (want))(S (NP (PRP (it)))(VP (TO (to))(VP (VB (be)))))))))))))))))(. (.)))) |ET| 
-1  |BT| (ROOT (S (S (NP (NP (NNP (Ritchie))(POS ('s)))(NN (film)))(VP (VBZ (is))(ADJP (JJR (easier)))(S (VP (TO (to))(VP (VB (swallow))(PP (IN (than))(NP (NP (NNP (Wertmuller))(POS ('s)))(JJ (polemical))(NN (allegory)))))))))(, (,))(CC (but))(S (NP (PRP (it)))(VP (VBZ ('s))(NP (NP (ADJP (NN (self))(HYPH (-))))(ADJP (RB (defeatingly))(JJ (decorous))))))(. (.)))) |ET| 
-1  |BT| (ROOT (S (S (NP (PRP (It)))(VP (VBZ ('s))(NP (DT (a))(JJ (big))(NN (idea)))))(, (,))(CC (but))(S (NP (DT (the))(NN (film)))(NP (PRP (itself)))(VP (VBZ (is))(ADJP (JJ (small))(CC (and))(JJ (shriveled)))))(. (.)))) |ET| 
-1  |BT| (ROOT (FRAG (ADJP (JJR (Less))(JJ (funny)))(SBAR (IN (than))(S (NP (PRP (it)))(VP (MD (should))(VP (VB (be))(ADJP (ADVP (QP (CC (and))(JJR (less))))(JJ (funny)))(SBAR (IN (than))(S (NP (PRP (it)))(VP (VBZ (thinks))(SBAR (S (NP (PRP (it)))(VP (VBZ (is))))))))))))(. (.)))) |ET| 
0.21740366064398380929745258072217  |BT| (ROOT (S (NP (NP (DT (The))(NN (footage)))(PP (IN (of))(NP (NP (NP (DT (the))(NNS (rappers)))(PP (IN (at))(NP (NN (play)))))(CC (and))(NP (NP (DT (the))(NN (prison))(NN (interview)))(PP (IN (with))(NP (NNP (Suge))(NNP (Knight))))))))(VP (VBP (are))(ADVP (RB (just)))(NP (NP (CD (two)))(PP (IN (of))(NP (NP (DT (the))(NNS (elements)))(SBAR (WHNP (WDT (that)))(S (VP (MD (will))(VP (VB (grab))(NP (PRP (you)))))))))))(. (.)))) |ET| 
0.75757986787513265092286474100547  |BT| (ROOT (S (NP (NP (NNP (Eric))(NNP (Schweig)))(CC (and))(NP (NNP (Graham))(NNP (Greene))))(DT (both))(VP (VBP (exude))(NP (NP (DT (an))(NN (air)))(PP (IN (of))(NP (NP (NN (dignity)))(SBAR (WHNP (WDT (that)))(S (VP (VBZ ('s))(ADJP (JJ (perfect))(PP (IN (for))(NP (NP (DT (the))(JJ (proud))(NN (warrior)))(SBAR (WHNP (WDT (that)))(S (ADVP (RB (still)))(VP (VBZ (lingers))(PP (IN (in))(NP (NP (DT (the))(NNS (souls)))(PP (IN (of))(NP (DT (these))(NNS (characters)))))))))))))))))))(. (.)))) |ET| 
1  |BT| (ROOT (NP (NP (DT (A))(ADJP (JJ (sweet))(HYPH (-))(JJ (tempered)))(NN (comedy)))(SBAR (WHNP (WDT (that)))(S (VP (VBZ (forgoes))(NP (NP (DT (the))(NML (NN (knee))(HYPH (-))(NN (jerk)))(NN (misogyny)))(SBAR (WHNP (WDT (that)))(S (VP (VBZ (passes))(PP (IN (for))(NP (NP (NN (humor)))(PP (IN (in))(NP (ADJP (RB (so))(JJ (many)))(JJ (teenage))(NNS (comedies)))))))))))))(. (.)))) |ET| 
-1  |BT| (ROOT (NP (NP (DT (An))(JJ (uneven))(NN (look)))(PP (IN (into))(NP (NP (DT (a))(JJ (grim))(NN (future)))(SBAR (WHNP (WDT (that)))(S (VP (VBZ (does))(RB (n't))(VP (VB (come))(ADVP (RB (close))(PP (IN (to))(NP (NP (NP (DT (the))(NN (level)))(PP (IN (of))(NP (NN (intelligence)))))(CC (and))(NP (NP (JJ (visual))(NN (splendour)))(SBAR (WHNP (WDT (that)))(S (VP (MD (can))(VP (VB (be))(VP (VBN (seen))(PP (IN (in))(NP (JJ (other))(NNS (films))))(PP (VBN (based))(PP (IN (on))(NP (NML (NNP (Philip))(NNP (K.))(NNP (Dick)))(NNS (stories))))))))))))))))))))(. (.)))) |ET| 
-1  |BT| (ROOT (S (NP (NP (DT (The))(NN (director))(POS ('s)))(JJ (many))(NNS (dodges)))(VP (VP (CC (and))(VP (VBZ (turns))))(VP (VB (add))(PRT (RP (up)))(PP (IN (to))(NP (NP (RB (little))(JJR (more)))(PP (IN (than))(NP (NP (DT (a))(NN (screenful)))(PP (IN (of))(NP (NP (NN (gamesmanship)))(SBAR (WHNP (WDT (that)))(S (VP (VBZ ('s))(ADJP (JJ (low))(PP (IN (on))(NP (DT (both))(NN (suspense))(CC (and))(NN (payoff))))))))))))))))(. (.)))) |ET| 
-1  |BT| (ROOT (S (NP (NP (DT (A))(NN (series)))(PP (IN (of))(NP (NP (NNS (escapades)))(VP (VBG (demonstrating))(NP (NP (DT (the))(NN (adage)))(SBAR (WHNP (WDT (that)))(S (NP (WP (what)))(VP (VBZ (is))(ADJP (JJ (good))(PP (IN (for))(NP (DT (the))(NN (goose)))))))))))))(VP (VBZ (is))(ADVP (RB (also)))(ADJP (JJ (good))(PP (IN (for))(NP (NP (DT (the))(NN (gander)))(, (,))(SBAR (WHNP (NP (DT (some)))(WHPP (IN (of))(WHNP (WDT (which)))))(S (ADVP (RB (occasionally)))(VP (VBZ (amuses))(CC (but))(NP (NP (NN (none)))(PP (IN (of))(SBAR (WHNP (WDT (which)))(S (VP (VBZ (amounts))(PP (IN (to))(NP (NP (JJ (much)))(PP (IN (of))(NP (DT (a))(NN (story))))))))))))))))))(. (.)))) |ET| 
1  |BT| (ROOT (S (CC (But))(NP (PRP (it)))(VP (VBZ ('s))(ADJP (RB (surprisingly))(JJ (harmless))))(. (.)))) |ET| 
1  |BT| (ROOT (S (VP (VBZ (Makes))(NP (NP (CD (one))(NN (thing)))(ADJP (RB (abundantly))(JJ (clear)))))(. (.)))) |ET| 
1  |BT| (ROOT (S (CC (But))(SBAR (IN (that))(S (NP (PRP (they)))(VP (VBP (are))(VP (VBG (doing))(NP (PRP (it)))))))(VP (VBZ (is))(VP (VBN (thought))(, (-))(S (VP (VBG (provoking))))))(. (.)))) |ET| 
-1  |BT| (ROOT (S (CC (But))(NP (PRP (it)))(VP (VBZ ('s))(ADVP (RB (hardly)))(NP (DT (a))(JJ (necessary))(NN (enterprise))))(. (.)))) |ET| 
-1  |BT| (ROOT (S (NP (PRP (He)))(VP (VBZ (fails)))(. (.)))) |ET| 
-0.0496210967030450075809788756942  |BT| (ROOT (S (ADVP (RB (Frankly)))(, (,))(NP (PRP (it)))(VP (VBZ ('s))(ADJP (RB (pretty))(JJ (stupid))))(. (.)))) |ET| 
1  |BT| (ROOT (NP (NP (ADJP (JJ (Weighty))(CC (and))(JJ (ponderous))))(PP (CC (but))(NP (NP (DT (every))(NN (bit)))(PP (IN (as))(S (VP (VBG (filling))(PP (IN (as))(NP (NP (DT (the))(NN (treat)))(PP (IN (of))(NP (DT (the))(NN (title)))))))))))(. (.)))) |ET| 
0.85966103894996914736026383252465  |BT| (ROOT (NP (NP (DT (A))(JJ (graceful))(, (,))(VBG (moving))(NN (tribute)))(PP (IN (to))(NP (DT (the))(NN (courage))))(PP (IN (of))(NP (NP (NP (NNP (New))(NNP (York))(POS ('s)))(JJS (finest)))(CC (and))(NP (NP (DT (a))(ADJP (RB (nicely))(VBN (understated)))(NN (expression)))(PP (IN (of))(NP (NP (DT (the))(NN (grief)))(VP (VBN (shared))(PP (IN (by))(NP (NP (DT (the))(NN (nation)))(PP (IN (at))(NP (PRP$ (their))(NN (sacrifice))))))))))))(. (.)))) |ET| 
1  |BT| (ROOT (S (NP (NP (DT (A))(NN (lot)))(PP (IN (of))(NP (NP (DT (the))(NN (credit)))(PP (IN (for))(NP (NP (DT (the))(NN (film))(POS ('s)))(VBG (winning))(NN (tone)))))))(VP (MD (must))(VP (VB (go))(PP (IN (to))(NP (NP (NNP (Grant)))(, (,))(SBAR (WHNP (WP (who)))(S (VP (VBZ (has))(RB (n't))(VP (VBN (lost))(NP (NP (DT (a))(NN (bit)))(PP (IN (of))(NP (NP (DT (the))(JJ (dry))(NN (humor)))(SBAR (WHNP (WDT (that)))(S (ADVP (RB (first)))(VP (VBD (made))(SBAR (S (NP (NP (NNS (audiences)))(PP (IN (on))(NP (NP (DT (both))(NNS (sides)))(PP (IN (of))(NP (DT (the))(NNP (Atlantic)))))))(VP (VBP (love))(NP (PRP (him))))))))))))))))))))(. (.)))) |ET| 
-1  |BT| (ROOT (FRAG (NP (NP (DT (A))(NN (word)))(PP (IN (of))(NP (NP (NN (advice)))(PP (IN (to))(NP (NP (DT (the))(NNS (makers)))(PP (IN (of))(NP (DT (The))(NNPS (Singles))(NNP (Ward)))))))))(: (:))(S (NP (NNP (Celebrity))(NNS (cameos)))(VP (VBP (do))(NP (RB (not))(ADJP (RB (automatically))(JJ (equal)))(NNS (laughs)))))(. (.)))) |ET| 
-1  |BT| (ROOT (S (NP (NP (DT (A))(JJ (sluggish))(NN (pace))(CC (and))(NN (lack)))(PP (IN (of))(NP (JJ (genuine))(NN (narrative)))))(VP (VB (hem))(NP (NP (NP (DT (the))(NN (movie)))(PP (IN (in))(NP (DT (every))(NN (bit)))))(CONJP (RB (as))(RB (much))(IN (as)))(NP (NP (NN (life))(NNS (hems)))(PP (IN (in))(NP (NP (DT (the))(NNS (spirits)))(PP (IN (of))(NP (DT (these))(JJ (young))(NNS (women)))))))))(. (.)))) |ET| 
-1  |BT| (ROOT (S (PP (IN (With))(NP (NP (DT (the))(NN (exception)))(PP (IN (of))(NP (NNP (McCoist))))))(, (,))(NP (DT (the))(NNS (players)))(VP (VBP (do))(RB (n't))(VP (VB (have))(NP (NP (DT (a))(NN (clue)))(PP (IN (on))(NP (DT (the))(NN (park)))))))(. (.)))) |ET| 
1  |BT| (ROOT (S (NP (NN (Adaptation)))(VP (VBZ (is))(ADVP (RB (simply)))(ADJP (JJ (brilliant))))(. (.)))) |ET| 
1  |BT| (ROOT (S (NP (PRP (I)))(VP (MD (will))(VP (VB (be))))(. (.)))) |ET| 
1  |BT| (ROOT (S (NP (PRP (I)))(ADVP (RB (simply)))(VP (MD (ca))(RB (n't))(VP (VB (recommend))(NP (PRP (it)))(ADVP (RB (enough)))))(. (.)))) |ET| 
0.583470386344896452257557939447  |BT| (ROOT (FRAG (NP (NP (DT (A))(JJ (strong))(JJ (first))(NN (act)))(CC (and))(NP (ADJP (RB (absolutely))(, (,))(RB (inescapably))(JJ (gorgeous)))))(, (,))(NP (NP (NN (skyscraper))(HYPH (-))(NN (trapeze))(NN (motion)))(PP (IN (of))(NP (DT (the))(JJ (amazing))(NN (Spider))(HYPH (-))(NN (Man)))))(. (.)))) |ET| 
-1  |BT| (ROOT (S (NP (PRP (I)))(ADVP (RB (still)))(VP (VBP (want))(NP (PRP$ (my))(NN (money)))(ADVP (RB (back))))(. (.)))) |ET| 
-1  |BT| (ROOT (S (NP (PRP (I)))(ADVP (RB (also)))(VP (VBP (believe))(SBAR (IN (that))(S (NP (NNP (Resident))(NNP (Evil)))(VP (VBZ (is))(RB (not))(NP (PRP (it)))))))(. (.)))) |ET| 
0.84815143107185175797013698684168  |BT| (ROOT (FRAG (NP (`` (`))(NP (NN (Stock))(RP (up)))(PP (IN (on))(NP (NP (NN (silver))(NNS (bullets)))(PP (IN (for))(NP (NP (NP (NN (director))(NNP (Neil))(NNP (Marshall))(POS ('s)))(JJ (intense))(NN (freight))(NN (train)))(PP (IN (of))(NP (DT (a))(NN (film)))))))))(. (.))('' (')))) |ET| 
0.50456620077663494328135129762813  |BT| (ROOT (NP (NP (NP (DT (A))(JJ (compelling))(NML (NML (NN (coming)))(HYPH (-))(PP (IN (of))(HYPH (-))(NP (NN (age)))))(NN (drama)))(PP (IN (about))(NP (NP (DT (the))(JJ (arduous))(NN (journey)))(PP (IN (of))(NP (NP (DT (a))(JJ (sensitive))(JJ (young))(NN (girl)))(PP (IN (through))(NP (NP (DT (a))(NN (series)))(PP (IN (of))(NP (NP (JJ (foster))(NNS (homes)))(CC (and))(NP (DT (a))(JJ (fierce))(NN (struggle))))))))))))(SBAR (S (VP (TO (to))(VP (VB (pull))(ADJP (JJ (free))(PP (IN (from))(NP (NP (NP (PRP$ (her))(ADJP (JJ (dangerous))(CC (and))(JJ (domineering)))(NN (mother))(POS ('s)))(NN (hold)))(PP (IN (over))(NP (PRP (her)))))))))))(. (.)))) |ET| 
1  |BT| (ROOT (FRAG (NP (`` (`))(NP (NN (Stock))(RP (up)))(PP (IN (on))(NP (NP (NN (silver))(NNS (bullets)))(PP (IN (for))(NP (NP (NP (NN (director))(NNP (Neil))(NNP (Marshall))(POS ('s)))(JJ (intense))(NN (freight))(NN (train)))(PP (IN (of))(NP (DT (a))(NN (film)))))))))(. (.))('' (')))) |ET| 
-1  |BT| (ROOT (S (NP (NNP (Equlibrium)))(VP (MD (could))(VP (VB (pass))(PP (IN (for))(NP (NP (NP (DT (a))(ADJP (NP (CD (thirteen))(HYPH (-))(NN (year)))(HYPH (-))(JJ (old)))(POS ('s)))(NN (book))(NN (report)))(PP (IN (on))(NP (NP (DT (the))(JJ (totalitarian))(NNS (themes)))(PP (IN (of))(NP (NP (CD (1984)))(CC (and))(NP (NNP (Farenheit))(CD (451)))))))))))(. (.)))) |ET| 
0.73252865718980419984518448472954  |BT| (ROOT (S (NP (NP (CD (One)))(PP (IN (of))(NP (DT (the))(JJS (best))(NNS (films)))))(NP (PRP (I)))(VP (VBP (have))(ADVP (RB (ever)))(VP (VBN (seen))(, (,))(S (ADVP (RB (constantly)))(VP (VP (VBG (pulling))(NP (DT (the))(NN (rug)))(PP (IN (from))(PP (IN (underneath))(NP (PRP (us))))))(, (,))(VP (VBG (seeing))(NP (NNS (things)))(PP (IN (from))(NP (JJ (new))(NNS (sides)))))(, (,))(VP (VBG (plunging))(NP (JJR (deeper))))(, (,))(VP (VBG (getting))(NP (JJR (more)))(S (ADJP (JJ (intense)))))))))(. (.)))) |ET| 
-0.91116780716171485998700063646538  |BT| (ROOT (NP (NP (NP (NNS (Feels)))(PP (IN (like))(NP (DT (a))(JJ (cold))(JJ (old))(NN (man)))))(VP (VBG (going))(PP (IN (through))(NP (DT (the))(NNS (motions)))))(. (.)))) |ET| 
1  |BT| (ROOT (S (SBAR (IN (If))(S (NP (PRP (you)))(VP (VBP ('re))(RB (not))(ADVP (RB (deeply)))(VP (VBN (touched))(PP (IN (by))(NP (DT (this))(NN (movie))))))))(, (,))(VP (VB (check))(NP (PRP$ (your))(NN (pulse))))(. (.)))) |ET| 
1  |BT| (ROOT (SBAR (IN (Except))(S (NP (PRP (it)))(VP (VBZ ('s))(ADJP (RB (much))(, (,))(RB (much))(JJR (better)))))(. (.)))) |ET| 
1  |BT| (ROOT (S (S (NP (DT (The))(NN (picture)))(VP (VBZ (runs))(NP-TMP (DT (a))(JJ (mere))(CD (84))(NNS (minutes)))))(, (,))(CC (but))(S (NP (PRP (it)))(VP (VBZ ('s))(NP (DT (no))(NN (glance)))))(. (.)))) |ET| 
-1  |BT| (ROOT (S (NP (PRP (We)))(VP (MD (can))(VP (VB (tell))(SBAR (WHNP (WP (what)))(S (NP (PRP (it)))(VP (VP (VBZ (is))(VP (VBN (supposed))(S (VP (TO (to))(VP (VB (be)))))))(, (,))(CC (but))(VP (MD (ca))(RB (n't))(ADVP (RB (really)))(VP (VB (call))(NP (PRP (it)))(NP (NP (DT (a))(NN (work)))(PP (IN (of))(NP (NN (art))))))))))))(. (.)))) |ET| 
-1  |BT| (ROOT (S (S (S (NP (DT (The))(NN (effort)))(VP (VBZ (is))(ADJP (JJ (sincere)))))(CC (and))(S (NP (DT (the))(NNS (results)))(VP (VBP (are))(ADJP (JJ (honest))))))(, (,))(CC (but))(S (NP (DT (the))(NN (film)))(VP (VBZ (is))(ADJP (RB (so))(JJ (bleak)))(SBAR (IN (that))(S (NP (PRP (it)))(VP (VBZ ('s))(ADJP (RB (hardly))(JJ (watchable))))))))(. (.)))) |ET| 
-1  |BT| (ROOT (S (NP (PRP (We)))(VP (VBP (get))(NP (NP (DT (the))(NN (comedy)))(SBAR (S (NP (PRP (we)))(VP (VBP (settle))(PP (IN (for))))))))(. (.)))) |ET| 
1  |BT| (ROOT (S (NP (NP (JJS (Most)))(PP (IN (of))(NP (NP (DT (the))(NNS (things)))(SBAR (WHNP (WDT (that)))(S (VP (VBD (made))(NP (DT (the))(JJ (original))(NN (Men)))(PP (IN (in))(NP (NP (NNP (Black)))(NP (PDT (such))(DT (a))(NN (pleasure)))))))))))(VP (VBP (are))(ADVP (RB (still)))(ADVP (RB (there))))(. (.)))) |ET| 
0.63734979463169472158057260458008  |BT| (ROOT (NP (NP (DT (A))(NN (touching)))(, (,))(NP (NP (NML (JJ (small))(HYPH (-))(NN (scale)))(NN (story)))(PP (IN (of))(NP (NN (family))(NN (responsibility))(CC (and))(NN (care))))(PP (IN (in))(NP (DT (the))(NN (community)))))(. (.)))) |ET| 
0.36497679413013844884616787567211  |BT| (ROOT (S (NP (JJ (Murderous))(NNPS (Maids)))(VP (VBZ (pulls))(NP (NP (DT (no))(NNS (punches)))(PP (IN (in))(NP (NP (NP (PRP$ (its))(NN (depiction)))(PP (IN (of))(NP (NP (DT (the))(NNS (lives)))(PP (IN (of))(NP (DT (the))(NNP (Papin))(NN (sister)))))))(CC (and))(NP (NP (DT (the))(NNS (events)))(SBAR (WHNP (WDT (that)))(S (VP (VBD (led))(PP (IN (to))(NP (PRP$ (their))(JJ (notorious))(NN (rise))))(PP (IN (to))(NP (NN (infamy))))))))))))(. (...)))) |ET| 
-1  |BT| (ROOT (S (VP (VBZ (Has))(VP (VBN (lost))(NP (NP (DT (some)))(PP (IN (of))(NP (NP (DT (the))(JJ (dramatic))(NN (conviction)))(SBAR (WHNP (WDT (that)))(S (VP (VBZ (underlies))(NP (NP (DT (the))(JJS (best)))(PP (IN (of))(NP (NNS (comedies)))))))))))))(. (...)))) |ET| 
-1  |BT| (ROOT (NP (NP (NP (DT (A))(JJ (waterlogged))(NN (version)))(PP (IN (of))(NP (NP (`` (`))(JJ (Fatal))(NN (Attraction))('' (')))(PP (IN (for))(NP (DT (the))(NML (NN (teeny))(HYPH (-))(NN (bopper)))(NN (set)))))))(: (...))(NP (NP (DT (a))(JJ (sad))(, (,))(JJ (soggy))(NN (potboiler)))(SBAR (WHNP (WDT (that)))(S (VP (VBZ (wastes))(NP (NP (DT (the))(NNS (talents)))(PP (IN (of))(NP (PRP$ (its))(JJ (attractive))(JJ (young))(NNS (leads)))))))))(. (.)))) |ET| 
-1  |BT| (ROOT (S (NP (NP (JJ (Full)))(PP (IN (of))(NP (NP (NP (JJ (bland))(NNS (hotels)))(, (,))(NP (NNS (highways)))(, (,))(NP (NN (parking))(NNS (lots)))(, (,))(PP (IN (with))(NP (NP (DT (some))(NNS (glimpses)))(PP (IN (of))(NP (NN (nature)))))))(CC (and))(NP (NP (NN (family))(NN (warmth)))(, (,))(NP (NNP (Time))(NNP (Out)))))))(VP (VBZ (is))(NP (DT (a))(NN (discreet))(S (VP (VB (moan))(PP (IN (of))(NP (NN (despair))))(PP (IN (about))(NP (NP (NN (entrapment)))(PP (IN (in))(NP (NP (DT (the))(NN (maze)))(PP (IN (of))(NP (JJ (modern))(NN (life))))))))))))(. (.)))) |ET| 
1  |BT| (ROOT (S (NP (PRP (It)))(VP (VBZ ('s))(ADJP (JJ (unlikely))(SBAR (S (NP (PRP (we)))(VP (MD ('ll))(VP (VB (see))(NP (DT (a))(JJR (better))(NN (thriller)))(NP-TMP (DT (this))(NN (year)))))))))(. (.)))) |ET| 
1  |BT| (ROOT (S (NP (PRP (It)))(VP (VBZ (does))(RB (n't))(VP (VB (matter))(SBAR (IN (that))(S (NP (DT (the))(NN (film)))(VP (VBZ (is))(NP (QP (JJR (less))(IN (than))(CD (90)))(NNS (minutes))))))))(. (.)))) |ET| 
1  |BT| (ROOT (S (S (NP (NNP (Fessenden)))(VP (VBZ (continues))(S (VP (TO (to))(VP (VB (do))(NP (JJ (interesting))(NN (work))))))))(, (,))(CC (and))(S (NP (PRP (it)))(VP (MD (would))(VP (VB (be))(ADJP (JJ (nice))(S (VP (TO (to))(VP (VB (see))(SBAR (WHNP (WP (what)))(S (NP (PRP (he)))(VP (MD (could))(VP (VB (make))(PP (IN (with))(NP (DT (a))(JJ (decent))(NN (budget)))))))))))))))(. (.)))) |ET| 
0.77584905552174809884036221774295  |BT| (ROOT (S (NP (NP (DT (A))(ADJP (RB (well))(HYPH (-))(VBN (done)))(NN (film)))(PP (IN (of))(NP (DT (a))(ADJP (NN (self))(HYPH (-))(JJ (reflexive)))(, (,))(JJ (philosophical))(NN (nature)))))(. (.)))) |ET| 
0.10477764113661174050218249931277  |BT| (ROOT (S (NP (NNP (Samuel))(NNP (L.))(NNP (Jackson)))(VP (VBZ (is))(NP (NP (CD (one)))(PP (IN (of))(NP (NP (DT (the))(JJS (best))(NNS (actors)))(SBAR (S (NP (EX (there)))(VP (VBZ (is)))))))))(. (.)))) |ET| 
-1  |BT| (ROOT (S (NP (PRP (It)))(VP (VBZ ('s))(ADJP (NP (NNP (Pauly))(NNP (Shore)))(JJ (awful))))(. (.)))) |ET| 
1  |BT| (ROOT (S (NP (NP (DT (All)))(PP (IN (of))(NP (PRP (it)))))(VP (VBZ (works))(ADVP (RB (smoothly)))(PP (IN (under))(NP (NP (NP (DT (the))(NN (direction)))(PP (IN (of))(NP (NNP (Spielberg)))))(, (,))(SBAR (WHNP (WP (who)))(S (VP (VBZ (does))(NP (NP (DT (a))(JJ (convincing))(NN (impersonation)))(PP (ADVP (RB (here)))(IN (of))(NP (NP (DT (a))(NN (director)))(VP (VBG (enjoying))(NP (PRP (himself)))(ADVP (RB (immensely)))))))))))))(. (.)))) |ET| 
1  |BT| (ROOT (S (PP (VBN (Based))(PP (IN (on))(NP (NP (NP (NNP (Dave))(NNP (Barry))(POS ('s)))(JJ (popular))(NN (book)))(PP (IN (of))(NP (DT (the))(JJ (same))(NN (name)))))))(, (,))(NP (NP (NP (DT (the))(NN (movie))(NNS (benefits)))(PP (IN (from))(S (VP (VBG (having))(NP (DT (a))(JJ (real))(NN (writer))(NN (plot)))(PP (RB (out))(NP (NP (DT (all)))(PP (IN (of))(NP (NP (DT (the))(NNS (characters))(POS (')))(NNS (moves))))))))))(CC (and))(NP (VBG (overlapping))(NN (story))))(. (.)))) |ET| 
0.79126888252696170322764146476402  |BT| (ROOT (S (PP (IN (Between))(NP (NP (NNS (bursts)))(PP (IN (of))(NP (JJ (automatic))(NN (gunfire))))))(, (,))(NP (DT (the))(NN (story)))(VP (VBZ (offers))(NP (NP (DT (a))(JJ (trenchant))(NN (critique)))(PP (IN (of))(NP (NN (capitalism))))))(. (.)))) |ET| 
-1  |BT| (ROOT (S (S (NP (NNP (Goldmember)))(VP (VBZ (has))(NP (NP (NN (none)))(PP (IN (of))(NP (NP (DT (the))(JJ (visual))(NN (wit)))(PP (IN (of))(NP (DT (the))(JJ (previous))(NNS (pictures)))))))))(, (,))(CC (and))(S (NP (PRP (it)))(VP (VBZ (looks))(SBAR (IN (as))(IN (though))(S (NP (NNP (Jay))(NNP (Roach)))(VP (VBD (directed))(NP (DT (the))(NN (film)))(PP (IN (from))(NP (NP (DT (the))(NN (back)))(PP (IN (of))(NP (DT (a))(NN (taxicab)))))))))))(. (.)))) |ET| 
-1  |BT| (ROOT (S (VP (VBZ (Loses))(NP (NP (PRP$ (its))(NN (sense)))(PP (IN (of))(NP (NN (humor)))))(PP (IN (in))(NP (NP (DT (a))(NN (vat)))(PP (IN (of))(NP (NP (VBN (failed))(NNS (jokes)))(, (,))(NP (JJ (twitchy))(NN (acting)))(, (,))(CC (and))(NP (JJ (general))(NN (boorishness))))))))(. (.)))) |ET| 
-1  |BT| (ROOT (S (SBAR (IN (Although))(S (S (VP (VBN (made))(PP (IN (on))(NP (DT (a))(NN (shoestring))))))(CC (and))(S (ADVP (RB (unevenly)))(VP (VBD (acted))))))(, (,))(VP (VBZ (conjures))(NP (NP (DT (a))(ADJP (NP (NNP (Lynch)))(HYPH (-))(JJ (like)))(NN (vision)))(PP (IN (of))(NP (NP (DT (the))(ADJP (VBG (rotting)))(NN (underbelly)))(PP (IN (of))(NP (NNP (Middle))(NNP (America))))))))(. (.)))) |ET| 
0.79893058292103236173176128431805  |BT| (ROOT (S (NP (NNP (Paul))(NNP (Bettany)))(VP (VBZ (is))(ADJP (JJ (cool))))(. (.)))) |ET| 
1  |BT| (ROOT (S (NP (PRP (It)))(VP (VBZ ('s))(ADJP (ADJP (RB (technically))(JJ (sumptuous)))(CONJP (CC (but))(RB (also)))(ADJP (RB (almost))(RB (wildly))(JJ (alive)))))(. (.)))) |ET| 
0.29977112536054600910873091379472  |BT| (ROOT (S (NP (NNP (Malcolm))(NNP (McDowell)))(VP (VBZ (is))(ADJP (JJ (cool))))(. (.)))) |ET| 
-1  |BT| (ROOT (S (NP (DT (The))(NN (comedy)))(VP (VBZ (is))(ADJP (JJ (nonexistent))))(. (.)))) |ET| 
-1  |BT| (ROOT (S (NP (DT (The))(NN (movie)))(VP (VBZ (is))(ADJP (ADJP (RB (well))(VBN (done)))(, (,))(CC (but))(ADJP (JJ (slow)))))(. (.)))) |ET| 
-1  |BT| (ROOT (S (NP (DT (These))(NNS (characters)))(VP (VBP (become))(ADJP (JJ (wearisome))))(. (.)))) |ET| 
1  |BT| (ROOT (S (NP (PRP (Me)))(PP (IN (Without))(NP (PRP (You))))(VP (VBZ (has))(NP (NP (DT (a))(NML (S (VP (VBG (bracing))(NP (NP (NN (truth)))(SBAR (WHNP (WDT (that)))(S (VP (VBZ ('s))(NP (NP (VBG (refreshing)))(PP (IN (after))(NP (NP (DT (the))(NN (phoniness)))(PP (IN (of))(NP (JJ (female))(HYPH (-))(NN (bonding))))))))))))))(NNS (pictures)))(PP (IN (like))(NP (NML (NML (NNP (Divine))(NNPS (Secrets)))(PP (IN (of))(NP (DT (the))(NNP (Ya))(HYPH (-))(NNP (Ya)))))(NNP (Sisterhood))))))(. (.)))) |ET| 
1  |BT| (ROOT (SBAR (IN (that))(S (S (NP (PRP (it)))(VP (MD ('ll))(ADVP (RB (probably)))(VP (VB (be))(NP (DT (the))(JJS (best))))))(CC (and))(S (NP (NP (ADJP (RBS (most))(JJ (mature)))(NN (comedy)))(PP (IN (of))(NP (DT (the))(CD (2002))(NN (summer))(NN (season)))))(VP (VBZ (speaks))(NP (NP (JJR (more)))(PP (IN (of))(NP (NP (DT (the))(NN (season)))(PP (IN (than))(NP (DT (the))(NN (picture)))))))))))) |ET| 
1  |BT| (ROOT (S (SBAR (WHNP (WDT (What)))(S (VP (VP (VBZ (saves))(NP (PRP (it))))(: (...))(CC (and))(VP (VBZ (makes))(NP (PRP (it)))))))(NP (NP (CD (one)))(PP (IN (of))(NP (ADJP (NP (NP (DT (the))(JJR (better))(NN (video)))(HYPH (-))(NP (NN (game))))(HYPH (-))(VBN (based)))(NNS (flicks)))))(, (,))(VP (VBZ (is))(SBAR (IN (that))(S (NP (DT (the))(NN (film)))(VP (VBZ (acknowledges))(NP (JJ (upfront)))(SBAR (IN (that))(S (NP (DT (the))(NN (plot)))(VP (VBZ (makes))(NP (DT (no))(NN (sense)))(, (,))(SBAR (JJ (such))(IN (that))(S (NP (NP (DT (the))(NN (lack)))(PP (IN (of))(NP (NN (linearity)))))(VP (VBZ (is))(NP (NP (DT (the))(NN (point)))(PP (IN (of))(NP (NP (ADJP (JJ (emotional))(CC (and))(JJ (moral)))(NN (departure)))(PP (IN (for))(NP (NN (protagonist))(NNP (Alice)))))))))))))))))(. (.)))) |ET| 
-1  |BT| (ROOT (S (NP (EX (There)))(VP (VBZ ('s))(NP (NP (DT (a))(JJ (persistent))(JJ (theatrical))(NN (sentiment)))(CC (and))(NP (NP (DT (a))(JJ (woozy))(NN (quality)))(PP (IN (to))(NP (NP (DT (the))(NN (manner)))(PP (IN (of))(NP (NP (DT (the))(NN (storytelling)))(, (,))(SBAR (WHNP (WDT (which)))(S (VP (VBZ (undercuts))(ADVP (DT (the))(RB (devastatingly)))(S (VP (VBG (telling))(NP (NP (NN (impact)))(PP (IN (of))(NP (NP (JJ (utter))(NN (loss)))(VP (VBN (personified))(PP (IN (in))(NP (NP (DT (the))(NN (film))(POS ('s)))(JJ (simple))(NN (title))))))))))))))))))))(. (.)))) |ET| 
-1  |BT| (ROOT (S (SBAR (IN (If))(S (NP (PRP (you)))(VP (VBP ('re))(NP (NP (DT (the))(NN (kind)))(PP (IN (of))(NP (NP (NN (parent)))(SBAR (WHNP (WP (who)))(S (VP (VBZ (enjoys))(S (ADVP (RB (intentionally)))(VP (VBG (introducing))(NP (PRP$ (your))(NNS (kids)))(PP (IN (to))(NP (NP (NNS (films)))(SBAR (WHNP (WDT (which)))(S (VP (MD (will))(VP (VB (cause))(NP (NP (NNS (loads)))(PP (IN (of))(NP (NP (JJ (irreparable))(NN (damage)))(SBAR (WHNP (WDT (that)))(S (NP (NP (NNS (years))(CC (and))(NNS (years)))(PP (IN (of))(NP (JJ (costly))(NN (analysis)))))(VP (MD (could))(ADVP (RB (never)))(VP (VB (fix))))))))))))))))))))))))))(, (,))(NP (PRP (I)))(VP (VBP (have))(NP (NP (RB (just))(CD (one))(NN (word)))(PP (IN (for))(NP (ADJP (NP (PRP (you)))(HYPH (-))(: (--)))(NNP (Decasia)))))))) |ET| 
-1  |BT| (ROOT (S (S (NP (NP (NNP (Director))(NNP (Elie))(NNP (Chouraqui)))(, (,))(SBAR (WHNP (WP (who)))(S (VP (VBD (co-wrote))(NP (DT (the))(NN (script))))))(, (,)))(VP (VBZ (catches))(NP (NP (DT (the))(JJ (chaotic))(NN (horror)))(PP (IN (of))(NP (NN (war)))))))(, (,))(CC (but))(SBARQ (WHADVP (WRB (why)))(SQ (VP (VB (bother))(SBAR (IN (if))(S (NP (PRP (you)))(VP (VBP ('re))(VP (VBG (going))(S (VP (TO (to))(VP (VB (subjugate))(NP (NN (truth)))(PP (IN (to))(NP (NP (DT (the))(ADJP (NN (tear))(HYPH (-))(VBG (jerking)))(NNS (demands)))(PP (IN (of))(NP (NN (soap))(NN (opera))))))))))))))(. (?)))))) |ET| 
1  |BT| (ROOT (S (NP (DT (The))(NNS (actors)))(VP (VBP (are))(ADJP (JJ (fantastic))))(. (.)))) |ET| 
1  |BT| (ROOT (S (NP (DT (The))(NNS (performances)))(VP (VBP (are))(ADJP (JJ (remarkable))))(. (.)))) |ET| 
1  |BT| (ROOT (S (NP (DT (The))(NN (film)))(VP (VBZ (proves))(ADJP (ADJP (RB (unrelentingly))(JJ (grim)))(: (--))(CC (and))(ADJP (RB (equally))(JJ (engrossing)))))(. (.)))) |ET| 
-1  |BT| (ROOT (S (NP (DT (The))(NNS (results)))(VP (VBP (are))(ADJP (ADVP (RB (far))(RBR (more)))(JJ (alienating))(PP (IN (than))(S (VP (VBG (involving)))))))(. (.)))) |ET| 
-0.46314831061145605994866514265595  |BT| (ROOT (S (NP (NP (DT (The))(NN (plot))(POS ('s)))(NNS (contrivances)))(VP (VBP (are))(ADJP (RB (uncomfortably))(VBN (strained))))(. (.)))) |ET| 
-1  |BT| (ROOT (S (NP (EX (There)))(VP (VBZ ('s))(NP (DT (no))(NN (energy))))(. (.)))) |ET| 
1  |BT| (ROOT (S (NP (NP (DT (This))(NN (rush)))(PP (IN (to))(NP (NNS (profits)))))(VP (VBZ (has))(VP (VBN (created))(NP (NP (DT (a))(ADJP (ADVP (RB (predictably)))(JJ (efficient)))(NN (piece)))(PP (IN (of))(NP (NN (business)))))(S (ADJP (JJ (notable))(RB (largely))(PP (PP (IN (for))(NP (PRP$ (its))(JJ (overwhelming))(NN (creepiness))))(, (,))(PP (IN (for))(NP (DT (an))(NN (eagerness)))))(S (VP (TO (to))(VP (VB (create))(NP (NP (NP (NNS (images)))(SBAR (S (NP (PRP (you)))(VP (VBP (wish))(SBAR (S (NP (PRP (you)))(VP (VBD (had))(RB (n't))(VP (VBN (seen))))))))))(, (,))(SBAR (WHNP (WDT (which)))(S (, (,))(PP (IN (in))(NP (DT (this))(NN (day))(CC (and))(NN (age))))(, (,))(VP (VBZ (is))(PP (IN (of))(NP (NP (NN (course)))(NP (DT (the))(NN (point))))))))))))))))(. (.)))) |ET| 
1  |BT| (ROOT (S (NP (NNS (Nicks)))(VP (VBZ (refuses))(S (VP (TO (to))(VP (VB (let))(S (NP (NNS (Slackers)))(VP (VB (be))(VP (VBN (seen))(PP (IN (as))(NP (NP (RB (just))(DT (another))(NN (teen))(NN (movie)))(, (,))(SBAR (WHNP (WDT (which)))(S (VP (VBZ (means))(SBAR (S (NP (PRP (he)))(VP (MD (can))(VP (VB (be))(VP (VBN (forgiven))(PP (IN (for))(S (ADVP (RB (frequently)))(VP (VBG (pandering))(PP (IN (to))(NP (NP (NNS (fans)))(PP (IN (of))(NP (DT (the))(ADJP (JJ (gross))(HYPH (-))(JJ (out)))(NN (comedy))))))))))))))))))))))))))(. (.)))) |ET| 
1  |BT| (ROOT (S (S (NP (EX (There)))(VP (VBZ (has))(VP (VBN (been))(NP (NP (DT (a))(NN (string)))(PP (IN (of))(NP (NN (ensemble))(NN (cast))(NNS (romances)))))(ADVP (RB (recently))))))(: (...))(CC (but))(S (NP (NP (NP (NNP (Peter))(NNP (Mattei))(POS ('s)))(NN (Love)))(PP (IN (in))(NP (NP (DT (the))(NN (Time)))(PP (IN (of))(NP (NN (Money)))))))(VP (VBZ (sets))(NP (PRP (itself)))(PP (RB (apart))(IN (by))(S (VP (VBG (forming))(NP (NP (DT (a))(NN (chain)))(PP (IN (of))(NP (NP (NNS (relationships)))(SBAR (WHNP (WDT (that)))(S (VP (VBP (come))(NP (JJ (full))(NN (circle)))(S (VP (TO (to))(VP (VB (end))(PP (IN (on))(NP (DT (a))(JJ (positive))(NN (-LRB-))))(PP (IN (if))(NP (JJ (tragic))(JJ (-RRB-))(NN (note))))))))))))))))))(. (.)))) |ET| 
-1  |BT| (ROOT (S (S (ADVP (RB (Apparently)))(VP (VBN (designed))(PP (IN (as))(NP (NP (DT (a))(NN (reverie)))(PP (IN (about))(NP (NN (memory))(CC (and))(NN (regret))))))))(, (,))(CC (but))(S (NP (NP (DT (the))(JJ (only))(NN (thing)))(SBAR (S (NP (PRP (you)))(VP (MD ('ll))(VP (VB (regret)))))))(VP (VBZ (is))(VP (VBG (remembering))(NP (NP (DT (the))(NN (experience)))(PP (IN (of))(S (VP (VBG (sitting))(PP (IN (through))(NP (PRP (it)))))))))))(. (.)))) |ET| 
-1  |BT| (ROOT (S (SBAR (IN (Though))(S (NP (NNP (Harris)))(VP (VBZ (is))(VP (VBG (affecting))(PP (IN (at))(NP (NNS (times))))))))(, (,))(NP (PRP (he)))(VP (MD (can))(RB (not))(VP (VB (overcome))(NP (NP (DT (the))(NN (sense)))(SBAR (WHNP (WDT (that)))(S (NP (NNP (Pumpkin)))(VP (VBZ (is))(NP (NP (DT (a))(JJ (mere))(NN (plot))(NN (pawn)))(PP (IN (for))(NP (NP (CD (two))(NNS (directors)))(PP (IN (with))(NP (ADJP (ADVP (RB (far))(JJR (less)))(JJ (endearing)))(NNS (disabilities)))))))))))))(. (.)))) |ET| 
-0.94330668486047808407590764545603  |BT| (ROOT (NP (NP (DT (An))(RRC (ADVP (RB (unintentionally)))(NP (NP (JJ (surreal))(NN (kid))(POS ('s)))(NN (picture)))))(: (...))(SBAR (WHPP (IN (in))(WHNP (WDT (which))))(S (NP (NP (NNS (actors)))(PP (IN (in))(NP (JJ (bad))(NN (bear))(NNS (suits)))))(VP (VBP (enact))(NP (NP (DT (a))(NN (sort)))(PP (IN (of))(NP (NP (NNS (inter-species))(NN (parody)))(PP (IN (of))(NP (NP (DT (a))(NN (VH1)))(PP (IN (Behind))(NP (DT (the))(NN (Music))(NN (episode))))))))))))(. (.)))) |ET| 
1  |BT| (ROOT (S (NP (EX (There)))(VP (VBZ ('s))(NP (DT (a))(NN (lot))(S (VP (TO (to))(VP (VB (recommend))(NP (NNP (Read)))(NP (PRP$ (My))(NNS (Lips))))))))(. (.)))) |ET| 
1  |BT| (ROOT (S (NP (EX (There)))(VP (VBP (are))(NP (NP (DT (no))(JJ (special))(NNS (effects)))(, (,))(CC (and))(NP (DT (no))(NNP (Hollywood))(NNS (endings)))))(. (.)))) |ET| 
1  |BT| (ROOT (S (VP (VB (Prepare))(S (VP (TO (to))(VP (VB (marvel))(ADVP (RB (again)))))))(. (.)))) |ET| 
-1  |BT| (ROOT (S (VP (VB (Wait))(S (VP (TO (to))(VP (VB (see))(NP (PRP (it)))(ADVP (RB (then)))))))(. (.)))) |ET| 
-1  |BT| (ROOT (S (VP (VBZ (Tends))(S (VP (TO (to))(VP (VB (plod))))))(. (.)))) |ET| 
-0.77987447796299391722385507819126  |BT| (ROOT (S (NP (PRP (It)))(VP (VBZ (finds))(NP (DT (no))(NN (way))(S (VP (TO (to))(VP (VB (entertain))(CC (or))(VB (inspire))(NP (PRP$ (its))(NNS (viewers))))))))(. (.)))) |ET| 
1  |BT| (ROOT (S (SBAR (IN (While))(S (NP (EX (there)))(VP (VBZ ('s))(ADVP (RB (likely))(RB (very)))(NP (NP (JJ (little))(NN (crossover))(NN (appeal)))(PP (IN (to))(NP (NP (NP (DT (those)))(PP (IN (without))(NP (NP (JJ (much))(NN (interest)))(PP (IN (in))(NP (DT (the))(NNPS (Elizabethans))(NNP (-LRB-)))))))(CONJP (RB (as))(RB (well))(IN (as)))(NP (NP (NP (NN (rank))(NN (frustration)))(PP (IN (from))(NP (NP (DT (those)))(PP (IN (in))(NP (NP (DT (the))(NN (know)))(PP (IN (about))(NP (NNP (Rubbo))(POS ('s)))))))))(VP (VBN (dumbed))(PRT (HYPH (-))(RP (down)))(NP (NNS (tactics)))(S (VP (VB (-RRB-))))))))))))(, (,))(NP (NP (JJ (Much))(NN (Ado)))(NP (RB (About))(NN (Something))))(VP (VBZ (is))(NP (DT (an))(JJ (amicable))(NN (endeavor))))(. (.)))) |ET| 
1  |BT| (ROOT (NP (NP (NP (NNP (Mazel))(NNP (tov)))(PP (IN (to))(NP (NP (DT (a))(NN (film)))(PP (IN (about))(NP (NP (DT (a))(NN (family))(POS ('s)))(JJ (joyous))(NN (life)))))))(VP (VBG (acting))(PP (IN (on))(NP (DT (the))(JJ (Yiddish))(NN (stage)))))(. (.)))) |ET| 
0.76459051424150259457235279114684  |BT| (ROOT (NP (NP (DT (A))(NN (touching)))(, (,))(NP (NP (JJ (sophisticated))(NN (film)))(SBAR (WHNP (WDT (that)))(S (ADVP (RB (almost)))(VP (VBZ (seems))(PP (IN (like))(NP (NP (DT (a))(NN (documentary)))(PP (IN (in))(NP (NP (DT (the))(NN (way)))(SBAR (S (NP (PRP (it)))(VP (VBZ (captures))(NP (DT (an))(JJ (Italian))(NN (immigrant))(NN (family)))(PP (IN (on))(NP (NP (DT (the))(NN (brink)))(PP (IN (of))(NP (JJ (major))(NNS (changes)))))))))))))))))(. (.)))) |ET| 
-1  |BT| (ROOT (S (NP (NP (NNP (Bears)))(PP (IN (about))(NP (NP (ADJP (RB (as))(JJ (much)))(NN (resemblance)))(PP (IN (to))(NP (NP (DT (the))(NNS (experiences)))(PP (IN (of))(NP (JJS (most))(JJ (battered))(NNS (women))))))))(PP (IN (as))(NP (NN (Spider))(HYPH (-))(NN (Man)))))(VP (VBZ (does))(PP (IN (to))(NP (NP (DT (the))(NNS (experiences)))(PP (IN (of))(NP (JJS (most))(NNS (teenagers)))))))(. (.)))) |ET| 
-1  |BT| (ROOT (S (PP (IN (To))(NP (DT (the))(JJ (civilized))(NN (mind))))(, (,))(NP (NP (DT (a))(NN (movie)))(PP (IN (like))(NP (NP (NNP (Ballistic)))(: (:))(NP (NNP (Ecks))(NNP (Vs.))(NNP (Sever))))))(VP (VBZ (is))(NP (NP (JJR (more)))(PP (IN (of))(NP (NP (DT (an))(NN (ordeal)))(PP (IN (than))(NP (DT (an))(NN (amusement))))))))(. (.)))) |ET| 
-1  |BT| (ROOT (S (SBAR (IN (If))(S (NP (NML (NML (NNP (Divine))(NNPS (Secrets)))(PP (IN (of))(NP (DT (the))(NNP (Ya))(HYPH (-))(NNP (Ya)))))(NNP (Sisterhood)))(VP (VBZ (suffers))(PP (IN (from))(NP (DT (a))(ADJP (RB (ploddingly))(JJ (melodramatic)))(NN (structure)))))))(, (,))(NP (PRP (it)))(VP (VBZ (comes))(PP (IN (to))(NP (NP (NN (life)))(PP (IN (in))(NP (DT (the))(NNS (performances)))))))(. (.)))) |ET| 
1  |BT| (ROOT (S (NP (PRP (I)))(ADVP (RB (firmly)))(VP (VBP (believe))(SBAR (IN (that))(S (NP (DT (a))(JJ (good))(NML (NN (video))(NN (game)))(NN (movie)))(VP (VBZ (is))(VP (VBG (going))(S (VP (TO (to))(VP (VB (show))(PRT (RP (up)))(ADVP (RB (soon)))))))))))(. (.)))) |ET| 
1  |BT| (ROOT (S (NP (PRP (It)))(VP (VBZ ('s))(VP (VBG (refreshing))(S (VP (TO (to))(VP (VB (see))(S (NP (DT (a))(NN (romance)))(ADJP (DT (this))(JJ (smart)))))))))(. (.)))) |ET| 
1  |BT| (ROOT (S (VP (VBZ (Contradicts))(NP (NP (NN (everything)))(SBAR (S (NP (PRP (we)))(VP (VBP ('ve))(VP (VBN (come))(S (VP (TO (to))(VP (VB (expect))(PP (IN (from))(NP (NNS (movies))))(ADVP (RB (nowadays))))))))))))(. (.)))) |ET| 
-0.7317798597585395414810705005948  |BT| (ROOT (S (NP (NP (JJ (-LRB-))(NN (T))(NN (-RRB-)))(NP (PRP (he))(NN (film))))(VP (VBZ (is))(ADVP (RB (never)))(ADJP (JJ (sure))(S (VP (TO (to))(VP (VB (make))(NP (DT (a))(JJ (clear))(NN (point)))(: (--))(ADVP (RB (even)))(SBAR (IN (if))(S (NP (PRP (it)))(VP (VBZ (seeks))(S (VP (TO (to))(VP (VB (rely))(PP (IN (on))(NP (DT (an))(JJ (ambiguous))(NN (presentation)))))))))))))))(. (.)))) |ET| 
-1  |BT| (ROOT (S (NP (PRP (You)))(VP (MD (might))(VP (VB (want))(S (VP (TO (to))(VP (VB (take))(NP (DT (a))(NN (reality))(NN (check)))(SBAR (IN (before))(S (NP (PRP (you)))(VP (VBP (pay))(NP (DT (the))(JJ (full))(NN (ticket))(NN (price)))(S (VP (TO (to))(VP (VP (VB (see))(S (`` (``))(NP (NNP (Simone)))(, (,))('' (''))))(CC (and))(VP (VB (consider))(NP (DT (a))(NN (DVD))(NN (rental)))(ADVP (RB (instead)))))))))))))))(. (.)))) |ET| 
-1  |BT| (ROOT (S (NP (PRP (It)))(VP (VBZ ('s))(NP (NP (DT (a))(NN (shame)))(SBAR (S (NP (DT (the))(JJ (marvelous))(JJ (first))(CD (101))(NNS (minutes)))(VP (VBP (have))(S (VP (TO (to))(VP (VB (be))(VP (VBN (combined))(PP (IN (with))(NP (DT (the))(ADJP (JJ (misconceived))(JJ (final)))(CD (5)))))))))))))(. (.)))) |ET| 
1  |BT| (ROOT (S (NP (DT (The))(NN (movie)))(VP (VP (VBZ (is)))(, (...))(VP (ADJP (RB (very))(JJ (funny))(PP (IN (as))(NP (NP (PRP$ (you))(NN (peek)))(PP (IN (at))(NP (PRP (it)))))))(PP (IN (through))(NP (NP (DT (the))(NNS (fingers)))(PP (IN (in))(NP (NP (NN (front)))(PP (IN (of))(NP (PRP$ (your))(NNS (eyes))))))))))(. (.)))) |ET| 
0.73542108661199923069773376482772  |BT| (ROOT (S (NP (NP (DT (A))(ADJP (RB (well))(VBN (made)))(NN (indieflick)))(PP (IN (in))(NP (NP (NN (need)))(PP (IN (of))(NP (DT (some)))))))(VP (VP (VBZ (trims)))(CC (and))(NP (NP (DT (a))(RBR (more))(NN (chemistry)))(PP (IN (between))(NP (PRP$ (its))(NNS (stars))))))(. (.)))) |ET| 
0.37953443139097720049335293879267  |BT| (ROOT (S (S (VP (VBN (Left))(NP (PRP (me)))(PP (IN (with))(NP (NP (DT (the))(JJ (visceral))(NN (sensation)))(PP (IN (of))(NP (NN (longing))))))))(, (,))(S (VP (VBG (lasting))(NP (NP (NNS (traces)))(PP (IN (of))(NP (NP (NP (NNP (Charlotte))(POS ('s)))(NN (web)))(PP (IN (of))(NP (NN (desire))(CC (and))(NN (desperation)))))))))(. (.)))) |ET| 
-1  |BT| (ROOT (S (NP (PRP (I)))(VP (VBP (am))(ADJP (ADJP (RBR (more))(JJ (offended))(PP (IN (by))(NP (NP (PRP$ (his))(NN (lack)))(PP (IN (of))(NP (NP (NN (faith)))(PP (IN (in))(NP (PRP$ (his))(NN (audience)))))))))(PP (IN (than))(PP (IN (by))(NP (NP (NN (anything)))(PP (IN (on))(NP (NN (display))))))))(ADVP (RB (here))))(. (.)))) |ET| 
-1  |BT| (ROOT (NP (NP (CD (One))(NNS (sloughs)))(NP (NP (NP (CD (one))(POS ('s)))(NN (way)))(PP (IN (through))(NP (NP (DT (the))(NN (mire)))(PP (IN (of))(NP (NP (DT (this))(JJ (alleged))(JJ (psychological))(NN (thriller)))(PP (IN (in))(NP (NP (NN (search)))(PP (IN (of))(NP (NN (purpose)))))))))))(CC (or))(RB (even))(NP (DT (a))(NN (plot)))(. (.)))) |ET| 
-1  |BT| (ROOT (S (S (NP (NP (NP (NNP (Godard))(POS ('s)))(NN (ode)))(PP (IN (to))(S (VP (VBG (tackling))(NP (NP (NN (life))(POS ('s)))(NN (wonderment)))))))(VP (VBZ (is))(NP (NP (DT (a))(ADJP (JJ (rambling))(CC (and))(JJ (incoherent)))(NN (manifesto)))(PP (IN (about))(NP (NP (DT (the))(NN (vagueness)))(PP (IN (of))(NP (JJ (topical))(NN (excess)))))))))(, (...))(S (PP (IN (In))(NP (NP (NN (Praise)))(PP (IN (of))(NP (NN (Love))))))(VP (VBZ (remains))(NP (NP (DT (a))(ADJP (JJ (ponderous))(CC (and))(JJ (pretentious)))(NN (endeavor)))(SBAR (WHNP (WDT (that)))(S (VP (VBZ ('s))(UCP (ADJP (JJ (unfocused)))(CC (and))(VP (ADVP (RB (tediously)))(VBG (exasperating))))))))))(. (.)))) |ET| 
1  |BT| (ROOT (S (SBAR (IN (If))(S (NP (PRP (you)))(VP (VBP ('re))(NP (DT (a))(JJ (comic))(NN (fan))))))(, (,))(NP (PRP (you)))(VP (MD (ca))(RB (n't))(VP (VB (miss))(NP (PRP (it)))))(. (.)))) |ET| 
1  |BT| (ROOT (S (SBAR (IN (If))(S (NP (PRP (it)))(VP (VBZ ('s))(RB (not))(ADJP (RB (entirely))(JJ (memorable))))))(, (,))(NP (DT (the))(NN (movie)))(VP (VBZ (is))(ADVP (RB (certainly)))(ADJP (JJ (easy))(S (VP (TO (to))(VP (VB (watch)))))))(. (.)))) |ET| 
1  |BT| (ROOT (S (NP (DT (The))(NN (film)))(VP (VBZ (is))(ADJP (RB (reasonably))(JJ (entertaining)))(, (,))(SBAR (IN (though))(S (NP (PRP (it)))(VP (VBZ (begins))(S (VP (TO (to))(VP (VB (drag))(NP (QP (CD (two))(HYPH (-))(NNS (thirds))))(PP (IN (through)))(, (,))(SBAR (WHADVP (WRB (when)))(S (NP (DT (the))(JJ (melodramatic))(NNS (aspects)))(VP (VBP (start))(S (VP (TO (to))(VP (VB (overtake))(NP (DT (the))(NN (comedy))))))))))))))))(. (.)))) |ET| 
-0.55091402388600452244560301551246  |BT| (ROOT (S (NP (NNP (Steven))(NNP (Soderbergh)))(VP (VBZ (does))(RB (n't))(VP (VP (VB (remake))(NP (NP (NNP (Andrei))(NNP (Tarkovsky))(POS ('s)))(NNP (Solaris))))(CONJP (RB (so))(RB (much))(IN (as)))(VP (VB (distill))(NP (PRP (it))))))(. (.)))) |ET| 
-0.81384630490859322105023920812528  |BT| (ROOT (S (S (VP (VB (Slap))(NP (PRP (me)))))(, (,))(NP (PRP (I)))(VP (VBD (saw))(NP (DT (this))(NN (movie))))(. (.)))) |ET| 
-1  |BT| (ROOT (S (S (NP (NNP (Nijinsky)))(VP (VBZ (says))(, (,))(`` ('))(S (NP (PRP (I)))(VP (VBP (know))(SBAR (WHADVP (WRB (how)))(S (VP (TO (to))(VP (VB (suffer))))))))('' ('))))(CC (and))(S (SBAR (IN (if))(S (NP (PRP (you)))(VP (VBP (see))(NP (DT (this))(NN (film))))))(NP (PRP (you)))(VP (MD ('ll))(VP (VB (know))(ADVP (RB (too))))))(. (.)))) |ET| 
1  |BT| (ROOT (S (VP (VBZ (Manages))(S (VP (TO (to))(VP (VB (delight))(PP (IN (without))(NP (NP (JJ (much)))(PP (IN (of))(NP (DT (a))(NN (story))))))))))(. (.)))) |ET| 
0.63234067781123270979293238269747  |BT| (ROOT (S (PP (VBN (Compared))(PP (IN (to))(NP (NP (PRP$ (his))(NN (series)))(PP (IN (of))(NP (NP (JJ (spectacular))(NN (belly)))(SBAR (S (VP (VBZ (flops))(PP (DT (both))(IN (on))(CC (and))(IN (off))(NP (DT (the))(NN (screen))))))))))))(, (,))(NP (NNP (RunTelDat)))(VP (VBZ (is))(NP (NP (NN (something)))(PP (IN (of))(NP (DT (a))(NN (triumph))))))(. (.)))) |ET| 
1  |BT| (ROOT (S (NP (NP (`` (`))(NN (Possession))(, (,))('' (')))(VP (VBN (based))(PP (IN (on))(NP (DT (the))(NN (book))))(PP (IN (by))(NP (NNP (A.S.))(NNP (Byatt))))))(, (,))(VP (VBZ (demands))(SBAR (IN (that))(FRAG (NP (NNP (LaBute)))(NP (NP (NP (NN (deal)))(PP (IN (with))(NP (NP (DT (the))(NN (subject)))(PP (IN (of))(NP (NN (love))(NN (head))(HYPH (-))(NN (on)))))))(: (;))(NP (NP (NN (trading)))(PP (IN (in))(NP (PRP$ (his))(NN (cynicism))))))(PP (IN (for))(NP (NP (NN (reverence)))(CC (and))(NP (DT (a))(JJ (little))(NN (wit)))))))))) |ET| 
-1  |BT| (ROOT (S (PP (IN (For))(NP (NP (DT (a))(NN (movie)))(PP (IN (about))(NP (NP (DT (the))(NN (power)))(PP (IN (of))(NP (NN (poetry))(CC (and))(NN (passion))))))))(, (,))(NP (EX (there)))(VP (VBZ (is))(NP (NP (JJ (precious))(JJ (little)))(PP (IN (of))(NP (DT (either))))))(. (.)))) |ET| 
-1  |BT| (ROOT (S (SBAR (IN (While))(S (NP (NP (NNP (Hollywood)))(VP (VBG (Ending))(SBAR (S (VP (VBZ (has))(NP (NP (PRP$ (its))(NN (share)))(PP (IN (of))(NP (NN (belly))))))))))(VP (VBZ (laughs))(NP (NP (JJ (-LRB-)))(PP (VBG (including))(NP (NP (DT (a))(NN (knockout)))(PP (IN (of))(NP (DT (a))(NN (closing))(NN (line))(NN (-RRB-))))))))))(, (,))(NP (DT (the))(NN (movie)))(VP (VBZ (winds))(PRT (RP (up)))(S (VP (VBG (feeling))(PP (IN (like))(NP (DT (a))(JJ (great))(VBN (missed))(NN (opportunity)))))))(. (.)))) |ET| 
-1  |BT| (ROOT (S (NP (NP (DT (The))(NN (problem)))(PP (IN (with))(NP (NP (NNS (movies)))(PP (IN (about))(NP (NNS (angels)))))))(VP (VBZ (is))(SBAR (S (NP (PRP (they)))(VP (VBP (have))(NP (DT (a))(NN (tendency))(S (VP (TO (to))(VP (VB (slip))(PP (IN (into))(NP (NN (hokum))))))))))))(. (.)))) |ET| 
0.0039433489546648525445049493498573  |BT| (ROOT (S (NP (NNP (Tadpole)))(VP (MD (may))(VP (VB (be))(NP (NP (CD (one)))(PP (IN (of))(NP (NP (DT (the))(ADJP (RBS (most))(JJ (appealing)))(NNS (movies)))(VP (ADVP (RB (ever)))(VBN (made))(PP (IN (about))(NP (DT (an))(ADJP (ADJP (RB (otherwise))(JJ (appalling)))(, (,))(CC (and))(ADJP (ADJP (RB (downright))(JJ (creepy)))(, (,))(ADJP (JJ (subject))))(: (--)))(NP (NP (DT (a))(JJ (teenage))(NN (boy)))(PP (IN (in))(NP (NN (love)))))))(PP (IN (with))(NP (PRP$ (his))(NN (stepmother))))))))))(. (.)))) |ET| 
1  |BT| (ROOT (S (S (NP (PRP (It)))(VP (VBZ ('s))(RB (not))(ADJP (RB (particularly))(RB (well))(VBN (made)))))(, (,))(CC (but))(S (SBAR (IN (since))(S (NP (PRP (I)))(VP (VBD (found))(NP (PRP (myself)))(S (VP (VBG (howling))(NP (JJR (more)))(PP (IN (than))(S (VP (VBG (cringing))))))))))(, (,))(NP (PRP (I)))(VP (MD ('d))(VP (VB (say))(SBAR (S (NP (DT (the))(NN (film)))(VP (VBZ (works))))))))(. (.)))) |ET| 
1  |BT| (ROOT (S (NP (PRP (You)))(VP (MD ('ll))(VP (VB (know))(NP (DT (a))(NN (star)))(SBAR (WHADVP (WRB (when)))(S (NP (PRP (you)))(VP (VBP (see))(NP (CD (one))))))))(. (.)))) |ET| 
-1  |BT| (ROOT (S (S (NP (PRP (It)))(VP (VBZ (forces))(S (NP (PRP (you)))(VP (TO (to))(VP (VB (watch))(NP (NNS (people)))(S (VP (VBG (doing))(NP (JJ (unpleasant))(NNS (things)))(PP (IN (to))(NP (NP (DT (each))(JJ (other)))(CC (and))(NP (PRP (themselves))))))))))))(, (,))(CC (and))(S (NP (PRP (it)))(VP (VBZ (maintains))(NP (DT (a))(JJ (cool))(NN (distance)))(PP (IN (from))(NP (NP (PRP$ (its))(NN (material)))(SBAR (WHNP (WDT (that)))(S (VP (VBZ (is))(ADJP (RB (deliberately))(JJ (unsettling))))))))))(. (.)))) |ET| 
-1  |BT| (ROOT (S (NP (PRP (It)))(VP (VBZ ('s))(ADJP (JJ (tough))(S (VP (TO (to))(VP (VB (be))(ADJP (JJ (startled)))(SBAR (WHADVP (WRB (when)))(S (NP (PRP (you)))(VP (VBP ('re))(ADVP (RB (almost)))(VP (VBG (dozing)))))))))))(. (.)))) |ET| 
-1  |BT| (ROOT (S (NP (DT (The))(NN (satire)))(VP (VBZ (is))(ADJP (JJ (unfocused)))(, (,))(SBAR (IN (while))(S (NP (DT (the))(NN (story)))(VP (VBZ (goes))(ADVP (RB (nowhere)))))))(. (.)))) |ET| 
0.057665268266226664406470803214688  |BT| (ROOT (S (NP (NP (DT (The))(NNS (Trials)))(PP (IN (of))(NP (NNP (Henry))(NNP (Kissinger)))))(VP (VBZ (is))(NP (NP (DT (a))(JJ (remarkable))(NN (piece)))(PP (IN (of))(NP (NN (filmmaking)))))(: (...))(SBAR (IN (because))(S (NP (PRP (you)))(VP (VBP (get))(NP (PRP (it)))))))(. (.)))) |ET| 
1  |BT| (ROOT (FRAG (NP (NP (NP (DT (A))(VBG (moving))(NN (essay)))(PP (IN (about))(NP (NP (DT (the))(NN (specter)))(PP (IN (of))(NP (NN (death)))))))(, (,))(RB (especially))(NP (NN (suicide))))(. (.)))) |ET| 
0.86175467196509780709590131664299  |BT| (ROOT (S (NP (EX (There)))(VP (VBZ (is))(ADVP (RB (simply)))(NP (DT (no))(NN (doubt)))(SBAR (IN (that))(S (NP (DT (this))(NN (film)))(VP (VBZ (asks))(NP (DT (the))(JJ (right))(NNS (questions)))(PP (IN (at))(NP (NP (DT (the))(JJ (right))(NN (time)))(PP (IN (in))(NP (NP (DT (the))(NN (history)))(PP (IN (of))(NP (PRP$ (our))(NN (country))))))))))))(. (.)))) |ET| 
-1  |BT| (ROOT (NP (NP (IN (As))(JJ (plain)))(CC (and))(NP (NP (NN (pedestrian)))(PP (IN (as))(NP (NN (catsup)))))(. (--)))) |ET| 
