SVM-light Version V5.01-TK-1.5
5 # kernel type
3 # kernel parameter -d 
1 # kernel parameter -g 
1 # kernel parameter -s 
1 # kernel parameter -r 
empty# kernel parameter -u 
0.4 # kernel parameter -L 
1 # kernel parameter -T 
T # kernel parameter -C 
1 # kernel parameter -F 
1 # kernel parameter -S 
0.400000 # kernel parameter -M 
3 # kernel parameter -N 
S # kernel parameter -V 
S # kernel parameter -W 
0 # kernel parameter -U 
10 # highest feature index 
155019 # number of training documents 
9740 # number of support vectors plus 1 
1.4047169 # threshold b, each following line is a SV (starting with alpha*y)
1  |BT| (4 (2 (2 (2 (2 (2 (Westbrook))(2 ('s)))(2 (foundation)))(2 (and)))(2 (2 (2 (Dalrymple))(2 ('s)))(2 (film))))(3 (2 (earn))(2 (2 (their))(3 (uplift))))) |ET| 
-0.0047004655243061783595481806230509  |BT| (ROOT (2 (2 (2 (2 (2 (2 (Your))(2 (response)))(2 (2 (to))(2 (2 (its))(3 (3 (new))(2 (sequel))))))(2 (,)))(2 (2 (Analyze))(2 (That))))(2 (,)))(2 (2 (2 (may))(2 (2 (hinge))(2 (2 (on))(2 (2 (what))(2 (2 (you))(2 (2 (thought))(2 (2 (of))(2 (2 (the))(2 (2 (first))(2 (film)))))))))))(2 (.)))) |ET| 
-1  |BT| (3 (2 (that))(3 (2 (was))(4 (3 (2 (a))(3 (2 (deserved))(3 (co-winner))))(3 (2 (of))(3 (3 (2 (the))(3 (2 (Audience))(2 (Award))))(2 (2 (for))(2 (2 (documentaries))(2 (2 (at))(2 (2 (the))(2 (2 (Sundance))(3 (2 (Film))(3 (Festival))))))))))))) |ET| 
0.99565698886715647830669695395045  |BT| (4 (3 (2 (2 (,))(2 (but)))(3 (2 (I))(3 (2 (suspect))(3 (2 (it))(3 (2 (might))(4 (3 (deliver))(2 (2 (2 (again))(2 (and)))(2 (again)))))))))(2 (.))) |ET| 
-0.25614130102084387008432031507255  |BT| (3 (4 (2 (left))(4 (3 (me))(3 (2 (feeling))(3 (3 (3 (refreshed))(2 (and)))(2 (hopeful))))))(2 (.))) |ET| 
1  |BT| (4 (3 (2 (make))(3 (3 (2 (a))(3 (splash)))(2 (2 (even))(3 (greater)))))(2 (2 (than))(2 (2 (2 (2 (1 (2 (Arnold))(2 (Schwarzenegger)))(2 (,)))(2 (2 (Jean-Claud))(2 (2 (Van))(2 (Damme)))))(2 (or)))(2 (2 (Steven))(2 (Segal)))))) |ET| 
1  |BT| (4 (2 (destined))(2 (2 (2 (2 (2 (to))(2 (2 (be))(2 (2 (the))(2 (2 (21st))(2 (2 (2 (Century))(2 ('s)))(2 (3 (new))(2 (2 (``))(2 (Conan)))))))))(2 ('')))(2 (and)))(3 (2 (that))(3 (2 (he))(3 (2 ('s))(3 (2 (going))(3 (2 (to))(4 (3 (2 (make))(3 (3 (2 (a))(3 (splash)))(2 (2 (even))(3 (greater)))))(2 (2 (than))(2 (2 (2 (2 (1 (2 (Arnold))(2 (Schwarzenegger)))(2 (,)))(2 (2 (Jean-Claud))(2 (2 (Van))(2 (Damme)))))(2 (or)))(2 (2 (Steven))(2 (Segal))))))))))))) |ET| 
1  |BT| (4 (3 (2 (is))(4 (2 (destined))(2 (2 (2 (2 (2 (to))(2 (2 (be))(2 (2 (the))(2 (2 (21st))(2 (2 (2 (Century))(2 ('s)))(2 (3 (new))(2 (2 (``))(2 (Conan)))))))))(2 ('')))(2 (and)))(3 (2 (that))(3 (2 (he))(3 (2 ('s))(3 (2 (going))(3 (2 (to))(4 (3 (2 (make))(3 (3 (2 (a))(3 (splash)))(2 (2 (even))(3 (greater)))))(2 (2 (than))(2 (2 (2 (2 (1 (2 (Arnold))(2 (Schwarzenegger)))(2 (,)))(2 (2 (Jean-Claud))(2 (2 (Van))(2 (Damme)))))(2 (or)))(2 (2 (Steven))(2 (Segal))))))))))))))(2 (.))) |ET| 
0.26888930022603418912297001952538  |BT| (4 (3 (2 (what))(2 (2 ('s))(3 (4 (best))(2 (about)))))(3 (2 (Drumline))(3 (2 (is))(2 (2 (its))(3 (energy)))))) |ET| 
-0.91261526231967193822924855339807  |BT| (3 (4 (3 (2 (2 (The))(4 (2 (Sweetest))(2 (Thing))))(2 (,)))(3 (3 (2 (a))(2 (2 (romantic))(3 (comedy))))(1 (2 (with))(1 (2 (outrageous))(2 (tendencies))))))(2 (,))) |ET| 
-1  |BT| (3 (2 (that))(3 (2 (he))(3 (2 ('s))(3 (2 (going))(3 (2 (to))(4 (3 (2 (make))(3 (3 (2 (a))(3 (splash)))(2 (2 (even))(3 (greater)))))(2 (2 (than))(2 (2 (2 (2 (1 (2 (Arnold))(2 (Schwarzenegger)))(2 (,)))(2 (2 (Jean-Claud))(2 (2 (Van))(2 (Damme)))))(2 (or)))(2 (2 (Steven))(2 (Segal))))))))))) |ET| 
1  |BT| (4 (2 (to))(3 (3 (3 (3 (recommend))(2 (SECRETARY)))(2 (,)))(4 (2 (based))(4 (2 (on))(4 (2 (2 (the))(3 (3 (wonderful))(2 (2 (acting))(2 (clinic)))))(2 (2 (2 (put))(2 (on)))(2 (2 (by))(2 (2 (2 (Spader))(2 (and)))(2 (Gyllenhaal)))))))))) |ET| 
0.5467421917685006960141436138656  |BT| (4 (2 (is))(3 (3 (well-acted))(2 (2 (by))(2 (2 (3 (2 (James))(2 (Spader)))(2 (and)))(3 (2 (Maggie))(2 (Gyllenhaal))))))) |ET| 
-0.71586947886498697446455707904533  |BT| (3 (2 (2 (García))(2 (2 (2 (Bernal))(2 (and)))(2 (Talancón))))(4 (2 (are))(3 (2 (an))(4 (4 (3 (immensely))(3 (appealing)))(2 (couple)))))) |ET| 
-0.41058272704684101173100430060003  |BT| (ROOT (3 (3 (3 (3 (2 (2 (2 (2 (2 (Phillip))(2 (Noyce)))(2 (and)))(2 (2 (all))(2 (2 (of))(2 (2 (his))(2 (actors))))))(2 (2 (2 (2 (--))(2 (2 (as))(2 (3 (well))(2 (as)))))(2 (2 (2 (2 (his))(2 (cinematographer)))(2 (,)))(2 (2 (Christopher))(2 (Doyle)))))(2 (--))))(2 (2 (understand))(3 (3 (2 (the))(2 (3 (delicate))(2 (forcefulness))))(2 (2 (of))(2 (2 (2 (Greene))(2 ('s)))(2 (prose)))))))(2 (,)))(2 (and)))(2 (2 (it))(2 (2 (2 ('s))(2 (there)))(2 (2 (on))(2 (2 (2 (the))(2 (screen)))(2 (2 (in))(2 (2 (2 (their))(2 (version)))(2 (2 (of))(2 (2 (The))(2 (1 (Quiet))(2 (American))))))))))))(2 (.))) |ET| 
-0.32123153712846869156649631804612  |BT| (3 (2 (he))(3 (2 ('s))(3 (2 (going))(3 (2 (to))(4 (3 (2 (make))(3 (3 (2 (a))(3 (splash)))(2 (2 (even))(3 (greater)))))(2 (2 (than))(2 (2 (2 (2 (1 (2 (Arnold))(2 (Schwarzenegger)))(2 (,)))(2 (2 (Jean-Claud))(2 (2 (Van))(2 (Damme)))))(2 (or)))(2 (2 (Steven))(2 (Segal)))))))))) |ET| 
1  |BT| (4 (4 (3 (3 (3 (3 (2 (2 (2 (knows))(2 (everything)))(2 (and)))(2 (2 (answers))(2 (2 (all))(2 (questions)))))(2 (,)))(4 (3 (3 (2 (is))(3 (3 (visually))(4 (smart))))(2 (,)))(3 (3 (cleverly))(3 (written)))))(2 (,)))(2 (and)))(3 (nicely))) |ET| 
0.67528499059594448983290249088896  |BT| (4 (2 (you))(2 (2 (crave))(2 (2 (3 (Chris))(2 (2 (Smith))(2 ('s))))(1 (2 (next))(2 (movie)))))) |ET| 
-0.2929779576780562333482293979614  |BT| (3 (3 (4 (2 (an))(3 (3 (inspired))(2 (portrait))))(1 (2 (of))(2 (2 (male-ridden))(2 (angst)))))(2 (and))) |ET| 
-0.38544740683017564286672040907433  |BT| (3 (2 (to))(4 (3 (2 (make))(3 (3 (2 (a))(3 (splash)))(2 (2 (even))(3 (greater)))))(2 (2 (than))(2 (2 (2 (2 (1 (2 (Arnold))(2 (Schwarzenegger)))(2 (,)))(2 (2 (Jean-Claud))(2 (2 (Van))(2 (Damme)))))(2 (or)))(2 (2 (Steven))(2 (Segal))))))) |ET| 
-0.010453863656808618648463848899155  |BT| (2 (3 (Simply))(2 (and))) |ET| 
1  |BT| (4 (2 ('s))(3 (3 (2 (a))(4 (4 (3 (4 (well-written))(2 (and)))(2 (2 (occasionally))(2 (challenging))))(2 (2 (social))(1 (drama)))))(4 (2 (that))(3 (2 (actually))(3 (2 (has))(2 (2 (something))(2 (3 (interesting))(2 (2 (to))(2 (say)))))))))) |ET| 
1  |BT| (4 (3 (2 ('s))(4 (brilliant)))(2 (`))) |ET| 
1  |BT| (4 (3 (2 (the))(4 (2 (most))(3 (3 (accomplished))(2 (work)))))(2 (2 (to))(2 (2 (date))(2 (2 (from))(2 (2 (2 (Hong))(2 (2 (Kong))(2 ('s))))(3 (2 (versatile))(2 (2 (Stanley))(2 (Kwan))))))))) |ET| 
1  |BT| (4 (2 (to))(3 (2 (watch))(4 (2 (2 (2 (2 (Jackson))(2 (,)))(2 (2 (who))(2 (2 (also))(2 (3 (served))(2 (2 (as))(2 (2 (executive))(2 (producer))))))))(2 (,)))(3 (3 (2 (take))(4 (2 (his))(3 (2 (smooth))(3 (2 (,))(3 (2 (shrewd))(3 (2 (,))(3 (4 (powerful))(2 (act)))))))))(2 (abroad)))))) |ET| 
-0.7031657892139069332415601820685  |BT| (ROOT (3 (3 (3 (3 (2 (2 (2 (Berling))(2 (and)))(2 (Béart)))(3 (2 (...))(3 (2 (continue))(2 (2 (to))(3 (impress))))))(2 (,)))(2 (and)))(3 (2 (2 (Isabelle))(2 (Huppert)))(3 (2 (...))(2 (2 (again))(3 (2 (shows))(3 (2 (3 (uncanny))(2 (skill)))(3 (2 (in))(2 (2 (getting))(3 (2 (under))(2 (2 (2 (the))(2 (skin)))(2 (2 (of))(2 (2 (her))(2 (characters))))))))))))))(2 (.))) |ET| 
-0.95694882030017336393967752883327  |BT| (3 (3 (3 (3 (3 (4 (2 (hugely))(3 (3 (enjoyable))(2 (2 (in))(2 (2 (its))(2 (2 (own))(3 (right)))))))(2 (though)))(2 (1 (not))(2 (really))))(3 (faithful)))(2 (to)))(3 (2 (2 (its))(2 (2 (source))(2 ('s))))(3 (complexity)))) |ET| 
1  |BT| (4 (2 (Some))(3 (2 (of))(3 (3 (2 (2 (the))(3 (2 (most))(2 (ravaging))))(2 (,)))(3 (2 (3 (gut-wrenching))(1 (2 (,))(1 (2 (frightening))(2 (1 (war))(2 (scenes))))))(2 (2 (2 (2 (since))(2 (``)))(2 (2 (Saving))(2 (2 (Private))(2 (Ryan)))))(2 (''))))))) |ET| 
1  |BT| (4 (4 (3 (2 (brings))(3 (2 (a))(3 (3 (beguiling))(3 (freshness)))))(4 (2 (to))(3 (2 (2 (a))(2 (2 (coming-of-age))(2 (story))))(3 (2 (with))(3 (2 (such))(3 (3 (2 (a))(3 (3 (2 (buoyant))(2 (2 (,))(3 (expressive))))(2 (flow))))(2 (2 (of))(2 (images)))))))))(3 (2 (that))(3 (2 (it))(4 (3 (2 (emerges))(3 (2 (as))(3 (2 (another))(2 (2 (key))(2 (contribution))))))(3 (2 (to))(3 (2 (2 (the))(3 (flowering)))(2 (2 (of))(2 (2 (the))(2 (2 (2 (South))(2 (Korean)))(2 (cinema))))))))))) |ET| 
1  |BT| (4 (3 (2 (is))(3 (2 (2 (2 (so))(2 (2 (different))(2 (2 (from))(2 (2 (The))(2 (Apple))))))(2 (and)))(3 (2 (so))(3 (striking)))))(3 (2 (that))(3 (2 (it))(3 (2 (2 (can))(2 (only)))(2 (4 (encourage))(3 (3 (us))(3 (2 (to))(3 (2 (see))(4 (2 (2 (Samira))(2 (Makhmalbaf)))(3 (2 (as))(3 (3 (3 (2 (a))(3 (3 (2 (very))(3 (distinctive)))(2 (sensibility))))(2 (,)))(3 (2 (working))(3 (2 (to))(3 (3 (2 (develop))(2 (2 (her))(2 (2 (own))(2 (2 (film))(2 (language))))))(3 (2 (with))(3 (1 (conspicuous))(3 (success)))))))))))))))))) |ET| 
1  |BT| (4 (3 (3 (2 (2 (2 (The))(2 (script)))(2 (2 (by))(2 (2 (David))(2 (Koepp)))))(3 (2 (is))(3 (3 (3 (4 (perfectly))(2 (serviceable)))(2 (and)))(3 (2 (because))(3 (2 (he))(3 (2 (2 (gives))(2 (2 (the))(2 (story))))(3 (2 (some))(2 (soul)))))))))(2 (...)))(2 (2 (he))(3 (3 (2 (elevates))(2 (2 (the))(2 (experience))))(3 (2 (to))(3 (2 (a))(2 (2 (more))(2 (2 (mythic))(2 (level))))))))) |ET| 
-1  |BT| (3 (4 (3 (2 (is))(3 (2 (2 (2 (so))(2 (2 (different))(2 (2 (from))(2 (2 (The))(2 (Apple))))))(2 (and)))(3 (2 (so))(3 (striking)))))(3 (2 (that))(3 (2 (it))(3 (2 (2 (can))(2 (only)))(2 (4 (encourage))(3 (3 (us))(3 (2 (to))(3 (2 (see))(4 (2 (2 (Samira))(2 (Makhmalbaf)))(3 (2 (as))(3 (3 (3 (2 (a))(3 (3 (2 (very))(3 (distinctive)))(2 (sensibility))))(2 (,)))(3 (2 (working))(3 (2 (to))(3 (3 (2 (develop))(2 (2 (her))(2 (2 (own))(2 (2 (film))(2 (language))))))(3 (2 (with))(3 (1 (conspicuous))(3 (success))))))))))))))))))(2 (.))) |ET| 
-1  |BT| (3 (4 (4 (3 (2 (brings))(3 (2 (a))(3 (3 (beguiling))(3 (freshness)))))(4 (2 (to))(3 (2 (2 (a))(2 (2 (coming-of-age))(2 (story))))(3 (2 (with))(3 (2 (such))(3 (3 (2 (a))(3 (3 (2 (buoyant))(2 (2 (,))(3 (expressive))))(2 (flow))))(2 (2 (of))(2 (images)))))))))(3 (2 (that))(3 (2 (it))(4 (3 (2 (emerges))(3 (2 (as))(3 (2 (another))(2 (2 (key))(2 (contribution))))))(3 (2 (to))(3 (2 (2 (the))(3 (flowering)))(2 (2 (of))(2 (2 (the))(2 (2 (2 (South))(2 (Korean)))(2 (cinema)))))))))))(2 (.))) |ET| 
0.082261192790177850575616957939928  |BT| (ROOT (3 (2 (2 (2 (Meeting))(2 (,)))(2 (even)))(4 (2 (exceeding))(2 (expectations))))(4 (2 (,))(4 (2 (it))(4 (4 (2 ('s))(4 (4 (2 (the))(4 (4 (best))(2 (sequel))))(3 (2 (since))(3 (2 (2 (The))(2 (Empire)))(3 (2 (2 (2 (Strikes))(2 (Back)))(2 (...)))(4 (4 (4 (4 (4 (2 (a))(4 (4 (majestic))(3 (achievement))))(2 (,)))(3 (3 (2 (an))(3 (epic)))(4 (2 (of))(4 (4 (astonishing))(2 (grandeur))))))(2 (and)))(3 (2 (surprising))(3 (2 (emotional))(2 (depth))))))))))(2 (.)))))) |ET| 
1  |BT| (ROOT (2 (2 (The))(2 (Pianist)))(3 (4 (2 (is))(4 (2 (2 (Polanski))(2 ('s)))(4 (4 (best))(2 (film)))))(2 (.)))) |ET| 
-1  |BT| (ROOT (2 (2 (This))(2 (film)))(3 (4 (3 (2 (is))(3 (2 (2 (2 (so))(2 (2 (different))(2 (2 (from))(2 (2 (The))(2 (Apple))))))(2 (and)))(3 (2 (so))(3 (striking)))))(3 (2 (that))(3 (2 (it))(3 (2 (2 (can))(2 (only)))(2 (4 (encourage))(3 (3 (us))(3 (2 (to))(3 (2 (see))(4 (2 (2 (Samira))(2 (Makhmalbaf)))(3 (2 (as))(3 (3 (3 (2 (a))(3 (3 (2 (very))(3 (distinctive)))(2 (sensibility))))(2 (,)))(3 (2 (working))(3 (2 (to))(3 (3 (2 (develop))(2 (2 (her))(2 (2 (own))(2 (2 (film))(2 (language))))))(3 (2 (with))(3 (1 (conspicuous))(3 (success))))))))))))))))))(2 (.)))) |ET| 
-1  |BT| (ROOT (2 (2 (2 (2 (Jae-eun))(2 (2 (Jeong))(2 ('s))))(2 (2 (Take))(3 (Care))))(2 (2 (of))(2 (2 (My))(2 (Cat)))))(3 (4 (4 (3 (2 (brings))(3 (2 (a))(3 (3 (beguiling))(3 (freshness)))))(4 (2 (to))(3 (2 (2 (a))(2 (2 (coming-of-age))(2 (story))))(3 (2 (with))(3 (2 (such))(3 (3 (2 (a))(3 (3 (2 (buoyant))(2 (2 (,))(3 (expressive))))(2 (flow))))(2 (2 (of))(2 (images)))))))))(3 (2 (that))(3 (2 (it))(4 (3 (2 (emerges))(3 (2 (as))(3 (2 (another))(2 (2 (key))(2 (contribution))))))(3 (2 (to))(3 (2 (2 (the))(3 (flowering)))(2 (2 (of))(2 (2 (the))(2 (2 (2 (South))(2 (Korean)))(2 (cinema)))))))))))(2 (.)))) |ET| 
-0.56811060221946607651233307478833  |BT| (3 (2 (actually))(3 (2 (seem))(3 (2 (to))(3 (2 (understand))(3 (2 (what))(4 (2 (made))(3 (2 (2 (2 (Allen))(2 ('s)))(2 (2 (romantic))(2 (comedies))))(4 (2 (so))(4 (2 (2 (pertinent))(2 (and)))(3 (enduring))))))))))) |ET| 
1  |BT| (4 (2 (with))(2 (2 (4 (4 (4 (4 (terrific))(2 (2 (computer))(2 (graphics))))(2 (,)))(4 (3 (inventive))(2 (2 (action))(2 (sequences)))))(2 (and)))(2 (1 (2 (a))(2 (2 (droll))(2 (sense))))(2 (2 (of))(4 (humor)))))) |ET| 
1  |BT| (4 (2 (to))(3 (2 (2 (a))(2 (2 (coming-of-age))(2 (story))))(3 (2 (with))(3 (2 (such))(3 (3 (2 (a))(3 (3 (2 (buoyant))(2 (2 (,))(3 (expressive))))(2 (flow))))(2 (2 (of))(2 (images)))))))) |ET| 
-0.29721098420598235367862116618198  |BT| (3 (2 (is))(3 (2 (how))(3 (2 (2 (the))(2 (film)))(2 (2 (knows))(2 (2 (what))(3 (2 (2 ('s))(3 (3 (3 (unique))(2 (and)))(2 (quirky))))(2 (2 (about))(2 (Canadians))))))))) |ET| 
-1  |BT| (3 (2 (Sometimes))(4 (4 (2 (is))(4 (2 (a))(4 (4 (brilliant))(2 (movie)))))(2 (.)))) |ET| 
0.15705666360176506746171298800618  |BT| (4 (2 (...))(4 (2 (is))(4 (magnificent)))) |ET| 
1  |BT| (4 (3 (2 (brings))(3 (2 (a))(3 (3 (beguiling))(3 (freshness)))))(4 (2 (to))(3 (2 (2 (a))(2 (2 (coming-of-age))(2 (story))))(3 (2 (with))(3 (2 (such))(3 (3 (2 (a))(3 (3 (2 (buoyant))(2 (2 (,))(3 (expressive))))(2 (flow))))(2 (2 (of))(2 (images))))))))) |ET| 
1  |BT| (ROOT (2 (3 (2 (The))(2 (2 (universal))(2 (theme))))(3 (2 (of))(3 (2 (3 (becoming))(3 (2 (a))(3 (4 (better))(2 (person)))))(3 (2 (through))(4 (love))))))(3 (4 (3 (1 (2 (has))(2 (never)))(3 (2 (been))(3 (2 (filmed))(3 (2 (more))(3 (3 (irresistibly))(2 (2 (than))(2 (2 (2 (in))(2 (`)))(2 (Baran)))))))))(2 (.)))(2 (')))) |ET| 
-0.21791798239329443487299897697085  |BT| (2 (2 (the))(4 (3 (wondrous))(2 (beats)))) |ET| 
-1  |BT| (3 (2 (2 (a))(2 (2 (coming-of-age))(2 (story))))(3 (2 (with))(3 (2 (such))(3 (3 (2 (a))(3 (3 (2 (buoyant))(2 (2 (,))(3 (expressive))))(2 (flow))))(2 (2 (of))(2 (images))))))) |ET| 
-0.17102567425632819730907385746832  |BT| (3 (2 (with))(3 (2 (such))(3 (3 (2 (a))(3 (3 (2 (buoyant))(2 (2 (,))(3 (expressive))))(2 (flow))))(2 (2 (of))(2 (images)))))) |ET| 
-0.10303794153513419484813340432083  |BT| (2 (2 (immediate))(2 (2 (as))(2 (2 (2 (the))(2 (2 (latest))(2 (2 (news))(2 (footage)))))(2 (2 (from))(2 (Gaza)))))) |ET| 
1  |BT| (ROOT (2 (Charlotte))(3 (2 (Sometimes))(4 (4 (2 (is))(4 (2 (a))(4 (4 (brilliant))(2 (movie)))))(2 (.))))) |ET| 
0.58721667418379053238197684549959  |BT| (4 (1 (Drop))(3 (0 (Dead))(4 (Gorgeous)))) |ET| 
1  |BT| (4 (2 (to))(3 (3 (warm))(3 (2 (2 (the))(3 (hearts)))(3 (2 (of))(3 (3 (2 (animation))(2 (enthusiasts)))(3 (2 (of))(2 (2 (all))(2 (ages))))))))) |ET| 
1  |BT| (4 (4 (2 (an))(4 (3 (astounding))(2 (performance))))(3 (4 (2 (2 (2 (2 (that))(2 (deftly)))(2 (,)))(2 (gradually)))(3 (2 (reveals))(2 (3 (2 (a))(3 (3 (real))(2 (2 (human))(2 (soul)))))(2 (2 (buried))(2 (2 (beneath))(2 (2 (2 (a))(3 (4 (spellbinding))(2 (2 (serpent))(2 ('s)))))(1 (smirk))))))))(2 (.)))) |ET| 
0.20303700697473017755534385742067  |BT| (4 (2 (such))(4 (2 (a))(4 (delight)))) |ET| 
-1  |BT| (3 (2 (this))(4 (4 (2 (is))(4 (2 (a))(4 (3 (3 (remarkably))(2 (3 (3 (accessible))(2 (and)))(2 (haunting))))(2 (film)))))(2 (.)))) |ET| 
1  |BT| (4 (2 (2 (Samira))(2 (Makhmalbaf)))(3 (2 (as))(3 (3 (3 (2 (a))(3 (3 (2 (very))(3 (distinctive)))(2 (sensibility))))(2 (,)))(3 (2 (working))(3 (2 (to))(3 (3 (2 (develop))(2 (2 (her))(2 (2 (own))(2 (2 (film))(2 (language))))))(3 (2 (with))(3 (1 (conspicuous))(3 (success)))))))))) |ET| 
1  |BT| (4 (2 (2 (2 (Lilo))(2 (&)))(2 (Stitch)))(3 (2 (''))(3 (2 (reach))(3 (3 (3 (3 (4 (2 (2 (the))(2 (2 (2 (emotion))(2 (or)))(3 (timelessness))))(3 (2 (of))(3 (2 (3 (Disney))(2 ('s)))(3 (4 (great))(2 (past))))))(2 (,)))(2 (or)))(2 (even)))(2 (2 (that))(2 (2 (of))(2 (3 (2 (more))(3 (2 (recent))(3 (successes))))(2 (2 (such))(2 (2 (as))(2 (2 (``))(2 (2 (2 (2 (2 (Mulan))(2 ('')))(2 (or)))(2 (``)))(2 (Tarzan))))))))))))) |ET| 
1  |BT| (4 (3 (3 (2 (The))(3 (3 (enjoyable))(2 (2 (Undercover))(2 (Brother)))))(2 (,)))(3 (3 (3 (2 (a))(3 (2 (zany))(2 (mix))))(2 (2 (of))(3 (2 (2 (2 (2 (2 (Saturday))(2 (2 (Night))(2 (2 (Live-style))(2 (parody)))))(2 (,)))(2 (2 ('70s))(2 (2 (Blaxploitation))(2 (films)))))(2 (and)))(3 (2 (goofball))(2 (2 (action))(3 (comedy)))))))(2 (2 (gone))(2 (wild))))) |ET| 
1  |BT| (4 (4 (Great))(4 (fun))) |ET| 
-0.21391431452163822690692995820427  |BT| (3 (3 (3 (2 (A))(1 (3 (chilling))(2 (tale))))(2 (2 (of))(2 (one))))(1 (2 (of))(2 (2 (the))(3 (4 (great))(0 (crimes)))))) |ET| 
-0.028038857324008920751667872650614  |BT| (3 (3 (2 (2 (2 (The))(2 (script)))(2 (2 (by))(2 (2 (David))(2 (Koepp)))))(3 (2 (is))(3 (3 (3 (4 (perfectly))(2 (serviceable)))(2 (and)))(3 (2 (because))(3 (2 (he))(3 (2 (2 (gives))(2 (2 (the))(2 (story))))(3 (2 (some))(2 (soul)))))))))(2 (...))) |ET| 
-1  |BT| (ROOT (2 (2 (As))(2 (2 (2 (2 (broad))(2 (and)))(2 (2 (cartoonish))(2 (2 (as))(2 (2 (the))(2 (screenplay))))))(2 (is))))(3 (2 (,))(3 (2 (there))(3 (3 (2 (is))(3 (3 (2 (an))(3 (accuracy)))(3 (2 (of))(3 (2 (observation))(3 (2 (in))(3 (2 (2 (the))(2 (work)))(3 (2 (of))(3 (2 (2 (2 (2 (2 (the))(2 (director)))(2 (,)))(2 (2 (Frank))(2 (Novak))))(2 (,)))(3 (2 (that))(3 (2 (keeps))(3 (2 (2 (the))(2 (film)))(3 (3 (grounded))(2 (2 (in))(2 (2 (an))(3 (2 (undeniable))(2 (2 (social))(2 (realism))))))))))))))))))(2 (.)))))) |ET| 
0.71344772855583493686992824223125  |BT| (4 (4 (beautiful))(2 (2 (movement))(2 (2 (and))(3 (2 (inside))(2 (information)))))) |ET| 
0.6849386721470329675298671645578  |BT| (4 (4 (2 (the))(4 (4 (best))(2 (3 (sex))(3 (comedy)))))(2 (2 (about))(1 (1 (2 (environmental))(1 (pollution)))(2 (2 (ever))(2 (made)))))) |ET| 
-0.069620724405896533548698812410294  |BT| (2 (2 (A))(4 (3 (2 (very))(3 (capable)))(2 (nailbiter)))) |ET| 
-1  |BT| (3 (2 (,))(4 (2 (2 (2 (2 (Wendigo))(2 (,)))(3 (2 (2 (Larry))(2 (2 (Fessenden))(2 ('s))))(3 (2 (spooky))(2 (3 (new))(3 (thriller))))))(2 (,)))(3 (4 (2 (is))(4 (3 (2 (a))(3 (4 (3 (refreshingly))(3 (3 (4 (smart))(2 (and)))(2 (newfangled))))(2 (variation))))(2 (2 (on))(2 (2 (2 (several))(2 (themes)))(1 (2 (derived))(2 (2 (from))(2 (1 (1 (1 (2 (far))(2 (less)))(3 (sophisticated)))(2 (and)))(2 (2 (knowing))(2 (1 (horror))(2 (films)))))))))))(2 (.))))) |ET| 
-1  |BT| (0 (2 (2 ('s))(1 (not)))(4 (2 (a))(4 (4 (2 (particularly))(3 (good)))(2 (film))))) |ET| 
-1  |BT| (1 (2 (It))(0 (2 (2 ('s))(1 (not)))(4 (2 (a))(4 (4 (2 (particularly))(3 (good)))(2 (film)))))) |ET| 
-1  |BT| (3 (4 (2 (An))(4 (4 (2 (undeniably))(3 (moving)))(2 (film))))(2 (2 (to))(2 (experience)))) |ET| 
1  |BT| (ROOT (3 (2 (Throws))(3 (2 (in))(3 (2 (enough))(4 (3 (4 (clever))(2 (and)))(2 (unexpected))))))(3 (2 (2 (twists))(3 (2 (to))(3 (2 (make))(3 (2 (2 (the))(2 (formula)))(3 (2 (feel))(4 (fresh)))))))(2 (.)))) |ET| 
1  |BT| (4 (3 (2 (try))(3 (2 (to))(4 (3 (3 (2 (balance))(3 (2 (pointed))(3 (2 (,))(3 (2 (2 (often))(2 (incisive)))(3 (2 (satire))(3 (2 (and))(3 (2 (unabashed))(3 (sweetness)))))))))(2 (,)))(4 (3 (3 (2 (with))(2 (2 (2 (3 (2 (results))(2 (2 (that))(3 (2 (2 (are))(2 (sometimes)))(3 (bracing)))))(2 (,)))(2 (2 (2 (2 (sometimes))(2 (baffling)))(2 (and)))(2 (2 (quite))(2 (often)))))(2 (,))))(2 (and)))(3 (2 (in))(3 (2 (2 (2 (unexpected))(2 (ways)))(2 (,)))(3 (touching))))))))(2 (.))) |ET| 
1  |BT| (4 (3 (2 (2 (2 (2 (2 (the))(2 (tale)))(2 (2 (has))(2 (2 (2 (turned))(2 (2 (from))(4 (sweet))))(2 (2 (to))(3 (bittersweet))))))(2 (,)))(2 (and)))(4 (3 (2 (when))(3 (2 (2 (the))(1 (tears)))(3 (2 (come))(3 (2 (during))(3 (2 (that))(3 (2 (final))(3 (2 (,))(3 (4 (beautiful))(2 (scene))))))))))(3 (2 (,))(3 (2 (they))(2 (2 (finally))(3 (3 (2 (feel))(3 (absolutely)))(2 (earned))))))))(2 (.))) |ET| 
-1  |BT| (3 (4 (3 (1 (2 (has))(2 (never)))(3 (2 (been))(3 (2 (filmed))(3 (2 (more))(3 (3 (irresistibly))(2 (2 (than))(2 (2 (2 (in))(2 (`)))(2 (Baran)))))))))(2 (.)))(2 ('))) |ET| 
-1  |BT| (3 (1 (2 (has))(2 (never)))(3 (2 (been))(3 (2 (filmed))(3 (2 (more))(3 (3 (irresistibly))(2 (2 (than))(2 (2 (2 (in))(2 (`)))(2 (Baran))))))))) |ET| 
-1  |BT| (ROOT (2 (2 (The))(2 (filmmakers)))(4 (3 (2 (try))(3 (2 (to))(4 (3 (3 (2 (balance))(3 (2 (pointed))(3 (2 (,))(3 (2 (2 (often))(2 (incisive)))(3 (2 (satire))(3 (2 (and))(3 (2 (unabashed))(3 (sweetness)))))))))(2 (,)))(4 (3 (3 (2 (with))(2 (2 (2 (3 (2 (results))(2 (2 (that))(3 (2 (2 (are))(2 (sometimes)))(3 (bracing)))))(2 (,)))(2 (2 (2 (2 (sometimes))(2 (baffling)))(2 (and)))(2 (2 (quite))(2 (often)))))(2 (,))))(2 (and)))(3 (2 (in))(3 (2 (2 (2 (unexpected))(2 (ways)))(2 (,)))(3 (touching))))))))(2 (.)))) |ET| 
0.83440560034021205026988354802597  |BT| (4 (2 (a))(4 (must-see))) |ET| 
1  |BT| (4 (3 (2 (2 (shedding))(2 (light)))(4 (2 (on))(3 (2 (2 (a))(2 (group)))(3 (2 (of))(4 (4 (2 (extremely))(3 (talented)))(2 (musicians)))))))(3 (2 (who))(2 (2 (2 (might))(2 (otherwise)))(1 (3 (2 (go))(1 (2 (1 (unnoticed))(2 (and)))(2 (underappreciated))))(2 (2 (by))(3 (2 (music))(3 (fans)))))))) |ET| 
-0.37283967764582037762721711260383  |BT| (3 (2 (,))(4 (2 (2 (Rabbit-Proof))(2 (Fence)))(2 (2 (is))(4 (2 (2 (a))(2 (2 (quest))(2 (story))))(3 (2 (as))(3 (4 (grand))(2 (2 (as))(3 (2 (2 (The))(2 (Lord)))(2 (2 (of))(2 (2 (the))(2 (Rings)))))))))))) |ET| 
-1  |BT| (3 (4 (4 (4 (best))(2 (and)))(2 (2 (most))(3 (mature))))(3 (comedy))) |ET| 
-1  |BT| (1 (2 (never))(4 (4 (2 (seems))(3 (4 (4 (fresh))(2 (and)))(3 (vital))))(2 (.)))) |ET| 
-1  |BT| (1 (2 (2 (the))(2 (opposite)))(4 (2 (of))(4 (2 (a))(4 (4 (3 (truly))(3 (magical)))(2 (movie)))))) |ET| 
1  |BT| (4 (3 (1 (2 (has))(2 (never)))(3 (2 (been))(3 (2 (filmed))(3 (2 (more))(3 (3 (irresistibly))(2 (2 (than))(2 (2 (2 (in))(2 (`)))(2 (Baran)))))))))(2 (.))) |ET| 
1  |BT| (4 (3 (3 (2 (balance))(3 (2 (pointed))(3 (2 (,))(3 (2 (2 (often))(2 (incisive)))(3 (2 (satire))(3 (2 (and))(3 (2 (unabashed))(3 (sweetness)))))))))(2 (,)))(4 (3 (3 (2 (with))(2 (2 (2 (3 (2 (results))(2 (2 (that))(3 (2 (2 (are))(2 (sometimes)))(3 (bracing)))))(2 (,)))(2 (2 (2 (2 (sometimes))(2 (baffling)))(2 (and)))(2 (2 (quite))(2 (often)))))(2 (,))))(2 (and)))(3 (2 (in))(3 (2 (2 (2 (unexpected))(2 (ways)))(2 (,)))(3 (touching)))))) |ET| 
1  |BT| (ROOT (2 (2 (That))(2 (2 (Jack))(2 (Nicholson))))(4 (3 (2 (makes))(3 (3 (2 (2 (this))(2 (man)))(3 (2 (so))(3 (watchable))))(3 (3 (2 (is))(3 (2 (a))(3 (tribute))))(3 (2 (1 (not))(2 (only)))(3 (2 (2 (to))(3 (2 (his))(2 (craft))))(3 (2 (2 (,))(2 (but)))(2 (2 (to))(2 (2 (his))(2 (legend))))))))))(2 (.)))) |ET| 
-1  |BT| (3 (2 (try))(3 (2 (to))(4 (3 (3 (2 (balance))(3 (2 (pointed))(3 (2 (,))(3 (2 (2 (often))(2 (incisive)))(3 (2 (satire))(3 (2 (and))(3 (2 (unabashed))(3 (sweetness)))))))))(2 (,)))(4 (3 (3 (2 (with))(2 (2 (2 (3 (2 (results))(2 (2 (that))(3 (2 (2 (are))(2 (sometimes)))(3 (bracing)))))(2 (,)))(2 (2 (2 (2 (sometimes))(2 (baffling)))(2 (and)))(2 (2 (quite))(2 (often)))))(2 (,))))(2 (and)))(3 (2 (in))(3 (2 (2 (2 (unexpected))(2 (ways)))(2 (,)))(3 (touching)))))))) |ET| 
-1  |BT| (3 (2 (to))(4 (3 (3 (2 (balance))(3 (2 (pointed))(3 (2 (,))(3 (2 (2 (often))(2 (incisive)))(3 (2 (satire))(3 (2 (and))(3 (2 (unabashed))(3 (sweetness)))))))))(2 (,)))(4 (3 (3 (2 (with))(2 (2 (2 (3 (2 (results))(2 (2 (that))(3 (2 (2 (are))(2 (sometimes)))(3 (bracing)))))(2 (,)))(2 (2 (2 (2 (sometimes))(2 (baffling)))(2 (and)))(2 (2 (quite))(2 (often)))))(2 (,))))(2 (and)))(3 (2 (in))(3 (2 (2 (2 (unexpected))(2 (ways)))(2 (,)))(3 (touching))))))) |ET| 
-1  |BT| (3 (2 (2 (2 (2 (2 (the))(2 (tale)))(2 (2 (has))(2 (2 (2 (turned))(2 (2 (from))(4 (sweet))))(2 (2 (to))(3 (bittersweet))))))(2 (,)))(2 (and)))(4 (3 (2 (when))(3 (2 (2 (the))(1 (tears)))(3 (2 (come))(3 (2 (during))(3 (2 (that))(3 (2 (final))(3 (2 (,))(3 (4 (beautiful))(2 (scene))))))))))(3 (2 (,))(3 (2 (they))(2 (2 (finally))(3 (3 (2 (feel))(3 (absolutely)))(2 (earned)))))))) |ET| 
-0.11003212386023908386789571522968  |BT| (3 (3 (delightfully))(1 (dour))) |ET| 
1  |BT| (4 (3 (2 ('s))(4 (3 (refreshing))(3 (2 (to))(3 (3 (2 (see))(2 (2 (a))(2 (movie))))(3 (3 (3 (2 (that))(3 (2 (embraces))(2 (2 (its))(3 (2 (old-fashioned))(2 (themes))))))(2 (and)))(3 (2 (in))(3 (2 (2 (the))(2 (process)))(4 (2 (3 (comes))(1 (out)))(3 (2 (looking))(4 (2 (like))(3 (2 (something))(2 (3 (wholly))(3 (original))))))))))))))(2 (.))) |ET| 
-1  |BT| (3 (3 (2 (2 (can))(2 (only)))(4 (4 (love))(3 (2 (2 (the))(2 (players)))(4 (2 (it))(3 (2 (brings))(3 (2 (2 (to))(2 (2 (2 (the))(2 (fore)))(2 (2 (for))(2 (2 (the))(3 (gifted))))))(3 (3 (2 (2 (but))(2 (2 (2 (no-nonsense))(2 (2 (human))(2 (beings))))(2 (2 (they))(2 (are)))))(2 (and)))(4 (2 (for))(4 (3 (2 (the))(4 (2 (still-inestimable))(2 (contribution))))(2 (2 (they))(2 (2 (have))(2 (2 (made))(2 (2 (to))(2 (2 (our))(2 (2 (shared))(2 (history)))))))))))))))))(2 (.))) |ET| 
-0.97796014728811708760503051962587  |BT| (3 (3 (3 (2 (Bertrand))(2 (2 (Tavernier))(2 ('s))))(3 (3 (oft-brilliant))(2 (2 (Safe))(2 (2 (Conduct))(1 (1 (-LRB-))(2 (2 (``))(2 (2 (2 (Laissez-passer))(2 ('')))(3 (-RRB-)))))))))(2 (3 (1 (wears))(3 (2 (its))(2 (heart))))(2 (2 (on))(2 (2 (its))(2 (sleeve)))))) |ET| 
-0.14108192634031163636976202724327  |BT| (1 (2 (it))(1 (2 (never))(4 (4 (2 (seems))(3 (4 (4 (fresh))(2 (and)))(3 (vital))))(2 (.))))) |ET| 
-1  |BT| (2 (2 (Rain))(4 (4 (2 (is))(3 (2 (the))(3 (4 (2 (far))(3 (superior)))(2 (film)))))(2 (.)))) |ET| 
1  |BT| (4 (3 (4 (3 (2 (assembles))(4 (3 (2 (a))(3 (3 (fascinating))(2 (profile))))(3 (2 (of))(3 (3 (2 (a))(3 (3 (2 (deeply))(3 (humanistic)))(2 (artist))))(3 (2 (who))(3 (2 (,))(3 (2 (2 (in))(2 (2 (spite))(2 (2 (of))(2 (2 (all))(2 (2 (that))(2 (2 (he))(2 (2 ('s))(2 (witnessed)))))))))(3 (2 (,))(3 (1 (remains))(3 (3 (surprisingly))(2 (idealistic))))))))))))(2 (,)))(2 (and)))(4 (3 (2 (retains))(3 (3 (2 (an))(3 (4 (extraordinary))(2 (faith))))(2 (2 (in))(2 (2 (2 (the))(2 (ability)))(2 (2 (of))(2 (images)))))))(2 (2 (to))(3 (3 (2 (communicate))(2 (2 (2 (the))(3 (truth)))(2 (2 (of))(2 (2 (the))(2 (world))))))(2 (2 (around))(2 (him))))))) |ET| 
1  |BT| (4 (3 (2 (a))(3 (3 (fascinating))(2 (profile))))(3 (2 (of))(3 (3 (2 (a))(3 (3 (2 (deeply))(3 (humanistic)))(2 (artist))))(3 (2 (who))(3 (2 (,))(3 (2 (2 (in))(2 (2 (spite))(2 (2 (of))(2 (2 (all))(2 (2 (that))(2 (2 (he))(2 (2 ('s))(2 (witnessed)))))))))(3 (2 (,))(3 (1 (remains))(3 (3 (surprisingly))(2 (idealistic))))))))))) |ET| 
1  |BT| (4 (3 (2 (assembles))(4 (3 (2 (a))(3 (3 (fascinating))(2 (profile))))(3 (2 (of))(3 (3 (2 (a))(3 (3 (2 (deeply))(3 (humanistic)))(2 (artist))))(3 (2 (who))(3 (2 (,))(3 (2 (2 (in))(2 (2 (spite))(2 (2 (of))(2 (2 (all))(2 (2 (that))(2 (2 (he))(2 (2 ('s))(2 (witnessed)))))))))(3 (2 (,))(3 (1 (remains))(3 (3 (surprisingly))(2 (idealistic))))))))))))(2 (,))) |ET| 
-1  |BT| (3 (4 (3 (2 (assembles))(4 (3 (2 (a))(3 (3 (fascinating))(2 (profile))))(3 (2 (of))(3 (3 (2 (a))(3 (3 (2 (deeply))(3 (humanistic)))(2 (artist))))(3 (2 (who))(3 (2 (,))(3 (2 (2 (in))(2 (2 (spite))(2 (2 (of))(2 (2 (all))(2 (2 (that))(2 (2 (he))(2 (2 ('s))(2 (witnessed)))))))))(3 (2 (,))(3 (1 (remains))(3 (3 (surprisingly))(2 (idealistic))))))))))))(2 (,)))(2 (and))) |ET| 
-1  |BT| (3 (2 (assembles))(4 (3 (2 (a))(3 (3 (fascinating))(2 (profile))))(3 (2 (of))(3 (3 (2 (a))(3 (3 (2 (deeply))(3 (humanistic)))(2 (artist))))(3 (2 (who))(3 (2 (,))(3 (2 (2 (in))(2 (2 (spite))(2 (2 (of))(2 (2 (all))(2 (2 (that))(2 (2 (he))(2 (2 ('s))(2 (witnessed)))))))))(3 (2 (,))(3 (1 (remains))(3 (3 (surprisingly))(2 (idealistic)))))))))))) |ET| 
-0.27717191307335353744889516747207  |BT| (3 (2 (of))(3 (3 (2 (a))(3 (3 (2 (deeply))(3 (humanistic)))(2 (artist))))(3 (2 (who))(3 (2 (,))(3 (2 (2 (in))(2 (2 (spite))(2 (2 (of))(2 (2 (all))(2 (2 (that))(2 (2 (he))(2 (2 ('s))(2 (witnessed)))))))))(3 (2 (,))(3 (1 (remains))(3 (3 (surprisingly))(2 (idealistic)))))))))) |ET| 
0.7104499281271319244268624970573  |BT| (4 (3 (2 (2 (Kline))(2 ('s)))(2 (3 (superbly))(3 (2 (nuanced))(2 (performance)))))(2 (,))) |ET| 
1  |BT| (4 (4 (fresh))(2 (and))) |ET| 
1  |BT| (4 (2 (2 (The))(2 (2 (art))(2 (direction))))(4 (2 (is))(3 (2 (often))(4 (exquisite))))) |ET| 
-0.87765535377465164756927151756827  |BT| (3 (4 (4 (4 (fresh))(2 (and)))(3 (absorbing)))(2 (look))) |ET| 
1  |BT| (4 (2 (1 (0 (2 (It))(1 (2 ('s))(1 (2 (tough))(2 (2 (to))(2 (watch))))))(2 (,)))(2 (but)))(4 (2 (it))(4 (2 ('s))(4 (2 (a))(4 (3 (fantastic))(2 (movie))))))) |ET| 
1  |BT| (ROOT (3 (2 (With))(3 (2 (2 (a))(2 (cast)))(3 (2 (of))(3 (3 (A-list))(2 (2 (Brit))(2 (actors)))))))(3 (2 (,))(3 (2 (it))(3 (3 (2 (2 (is))(2 (worth)))(2 (2 (searching))(1 (out))))(2 (.)))))) |ET| 
1  |BT| (4 (3 (3 (2 (has))(3 (rewards)))(2 (,)))(3 (2 (from))(3 (2 (2 (the))(2 (exoticism)))(3 (2 (of))(3 (2 (2 (its))(2 (seas)))(3 (2 (of))(3 (2 (sand))(3 (2 (to))(3 (3 (2 (the))(3 (3 (fierce))(2 (grandeur))))(3 (2 (of))(3 (2 (its))(3 (3 (sweeping))(2 (2 (battle))(2 (scenes))))))))))))))) |ET| 
1  |BT| (4 (3 (2 (when))(3 (2 (2 (the))(1 (tears)))(3 (2 (come))(3 (2 (during))(3 (2 (that))(3 (2 (final))(3 (2 (,))(3 (4 (beautiful))(2 (scene))))))))))(3 (2 (,))(3 (2 (they))(2 (2 (finally))(3 (3 (2 (feel))(3 (absolutely)))(2 (earned))))))) |ET| 
-0.62588397595260159000929434114369  |BT| (2 (2 (have))(3 (2 (been))(4 (3 (2 (a))(4 (3 (good))(2 (film))))(2 (2 (2 (in))(2 (``)))(2 (1 (Trouble))(2 (2 (Every))(2 (Day)))))))) |ET| 
-0.83752585769607912347112232964719  |BT| (3 (2 (makes))(3 (3 (2 (2 (this))(2 (man)))(3 (2 (so))(3 (watchable))))(3 (3 (2 (is))(3 (2 (a))(3 (tribute))))(3 (2 (1 (not))(2 (only)))(3 (2 (2 (to))(3 (2 (his))(2 (craft))))(3 (2 (2 (,))(2 (but)))(2 (2 (to))(2 (2 (his))(2 (legend)))))))))) |ET| 
1  |BT| (4 (3 (4 (worthy))(2 (and)))(0 (devastating))) |ET| 
1  |BT| (4 (3 (4 (entertaining))(2 (and)))(4 (informative))) |ET| 
1  |BT| (4 (3 (4 (remarkable))(2 (and)))(4 (memorable))) |ET| 
-1  |BT| (ROOT (2 (1 (Unlike))(2 (2 (most))(2 (2 (surf))(2 (movies)))))(4 (2 (,))(3 (2 (2 (Blue))(2 (Crush)))(4 (3 (thrillingly))(3 (4 (2 (uses))(2 (2 (modern))(2 (2 (technology))(2 (2 (to))(3 (2 (take))(2 (2 (2 (the))(2 (viewer)))(3 (2 (inside))(2 (2 (the))(2 (wave))))))))))(2 (.))))))) |ET| 
1  |BT| (4 (2 (could))(4 (2 (be))(3 (3 (2 (looking))(3 (2 (at))(2 (2 (his))(4 (2 (12th))(3 (3 (Oscar))(2 (nomination)))))))(3 (2 (by))(3 (2 (proving))(3 (2 (that))(3 (2 (he))(3 (2 (2 (2 (2 (2 ('s))(2 (now)))(2 (,)))(2 (2 (more))(2 (2 (than))(2 (ever)))))(2 (,)))(3 (2 (2 (choosing))(2 (2 (his))(2 (roles))))(3 (2 (with))(3 (2 (2 (the))(3 (precision)))(3 (2 (of))(2 (2 (the))(2 (3 (insurance))(2 (actuary)))))))))))))))) |ET| 
0.4350804973474035608482779480255  |BT| (4 (3 (3 (3 (Intensely))(2 (romantic)))(2 (,)))(3 (3 (3 (thought-provoking))(2 (and)))(2 (2 (even))(3 (2 (an))(3 (4 (engaging))(2 (mystery))))))) |ET| 
1  |BT| (ROOT (1 (3 (2 (Unfolds))(3 (2 (with))(3 (2 (2 (such))(2 (2 (a))(2 (wallop))))(3 (2 (of))(3 (2 (you-are-there))(2 (immediacy)))))))(2 (2 (that))(3 (2 (2 (when))(2 (2 (2 (the))(2 (bullets)))(2 (2 (start))(2 (2 (to))(2 (fly))))))(2 (2 (,))(1 (3 (2 (your))(2 (2 (first))(2 (instinct))))(2 (2 (is))(2 (2 (to))(2 (duck)))))))))(2 (.))) |ET| 
1  |BT| (ROOT (3 (2 (2 (2 (Director))(2 (2 (Nancy))(2 (2 (Savoca))(2 ('s)))))(2 (2 (no-frills))(2 (record))))(2 (2 (of))(4 (2 (2 (a))(2 (show)))(3 (2 (forged))(2 (2 (in))(3 (2 (still-raw))(2 (emotions))))))))(3 (3 (3 (2 (captures))(3 (2 (1 (2 (the))(2 (1 (unsettled))(2 (tenor))))(2 (2 (of))(2 (2 (that))(2 (2 (post))(2 (2 (9-11))(2 (period)))))))(3 (2 (far))(4 (better)))))(3 (2 (than))(3 (3 (2 (a))(3 (2 (2 (more))(3 (2 (2 (measured))(2 (or)))(4 (polished))))(2 (production))))(2 (2 (ever))(2 (could))))))(2 (.)))) |ET| 
1  |BT| (4 (3 (2 (emerges))(3 (2 (as))(3 (2 (another))(2 (2 (key))(2 (contribution))))))(3 (2 (to))(3 (2 (2 (the))(3 (flowering)))(2 (2 (of))(2 (2 (the))(2 (2 (2 (South))(2 (Korean)))(2 (cinema)))))))) |ET| 
-1  |BT| (ROOT (2 (It))(3 (3 (3 (2 (2 ('s))(2 (...)))(3 (2 (worth))(3 (2 (the))(3 (2 (extra))(3 (2 (effort))(2 (2 (to))(3 (2 (4 (2 (2 (2 (see))(2 (2 (an))(2 (artist))))(2 (,)))(3 (2 (still))(3 (3 (committed))(2 (2 (to))(2 (3 (growth))(2 (2 (in))(3 (2 (his))(2 (2 (ninth))(2 (decade))))))))))(2 (,)))(2 (2 (change))(3 (2 (while))(2 (2 (remaining))(3 (3 (true))(2 (2 (to))(2 (2 (his))(2 (principles)))))))))))))))(2 (2 (with))(2 (2 (2 (a))(2 (film)))(2 (2 (whose))(2 (2 (2 (very))(2 (subject)))(2 (3 (2 (2 (2 (is))(2 (,)))(2 (2 (quite))(2 (pointedly))))(2 (,)))(2 (2 (about))(2 (2 (2 (the))(3 (peril)))(2 (2 (of))(2 (2 (such))(2 (efforts))))))))))))(2 (.)))) |ET| 
-0.40837649594196723246142255447921  |BT| (2 (3 (2 (does))(3 (2 (all))(2 (2 (of))(2 (2 (2 (2 (this))(2 (,)))(2 (and)))(2 (more))))))(2 (,))) |ET| 
0.025309412091270962891220719370722  |BT| (4 (4 (enjoyably))(2 (over-the-top))) |ET| 
-0.94965998930887562945457602836541  |BT| (2 (4 (3 (2 (very))(3 (interesting)))(2 (and)))(2 (2 (odd))(2 (that)))) |ET| 
-1  |BT| (ROOT (3 (3 (4 (4 (2 (A))(3 (2 (sobering))(4 (2 (and))(4 (4 (powerful))(2 (documentary))))))(2 (2 (about))(2 (1 (2 (the))(2 (1 (2 (most))(2 (severe)))(3 (kind))))(2 (2 (of))(1 (3 (personal))(1 (loss)))))))(2 (:)))(1 (2 (rejection))(2 (2 (by))(2 (2 (2 (one))(2 ('s)))(2 (mother))))))(2 (.))) |ET| 
-0.018150191500129100874438847768033  |BT| (3 (3 (2 (2 (2 (Light))(2 (2 (the))(2 (candles))))(2 (,)))(3 (2 (3 (bring))(1 (out)))(2 (2 (the))(2 (cake)))))(2 (and))) |ET| 
-1  |BT| (3 (1 (devastatingly))(4 (4 (3 (4 (powerful))(2 (and)))(4 (3 (astonishingly))(3 (vivid))))(2 (2 (Holocaust))(1 (drama))))) |ET| 
-0.14341903862238938871520588236308  |BT| (2 (3 (win))(2 (2 (the))(2 (band)))) |ET| 
-1  |BT| (ROOT (2 (Charlotte))(4 (2 (Sometimes))(4 (3 (2 (is))(4 (2 (a))(3 (gem))))(2 (.))))) |ET| 
1  |BT| (ROOT (2 (It))(3 (3 (2 ('s))(3 (3 (2 (a))(2 (hoot)))(2 (2 (watching))(2 (2 (2 (The))(2 (Rock)))(2 (1 (2 (1 (2 (2 (2 (chomp))(2 (2 (on))(2 (2 (jumbo))(2 (ants)))))(2 (,)))(2 (2 (2 (2 (pull))(2 (2 (an))(2 (arrow))))(1 (out)))(2 (2 (of))(2 (2 (his))(2 (back))))))(2 (,)))(2 (and)))(2 (2 (leap))(2 (2 (unscathed))(2 (2 (through))(2 (2 (raging))(2 (fire)))))))))))(2 (!)))) |ET| 
1  |BT| (ROOT (2 (2 (Most))(2 (2 (haunting))(2 (2 (2 (2 (about))(2 (``)))(2 (Fence)))(2 ('')))))(2 (2 (2 (is))(3 (2 (2 (2 (its))(2 (conclusion)))(2 (,)))(3 (2 (when))(2 (2 (we))(2 (2 (2 (2 (hear))(2 (2 (2 (the))(2 (3 (ultimate))(2 (fate))))(2 (2 (of))(2 (2 (these))(2 (girls))))))(2 (and)))(1 (1 (1 (2 (2 (realize))(2 (,)))(1 (2 (much))(1 (2 (to))(1 (2 (our))(1 (dismay))))))(2 (,)))(2 (2 (that))(2 (2 (this))(2 (2 (really))(2 (2 (did))(2 (happen))))))))))))(2 (.)))) |ET| 
1  |BT| (4 (2 (3 (2 (1 (1 (Leave))(2 (it)))(2 (2 (to))(2 (2 (John))(2 (Sayles)))))(2 (2 (to))(2 (2 (take))(2 (2 (on))(2 (2 (2 (developers))(2 (,)))(2 (2 (2 (the))(2 (Chamber)))(2 (2 (of))(2 (2 (2 (2 (Commerce))(2 (,)))(2 (2 (2 (tourism))(2 (,)))(2 (2 (historical))(2 (pageants)))))(2 (,))))))))))(2 (and)))(3 (2 (1 (2 (commercialism))(2 (2 (all))(2 (2 (in))(2 (2 (the))(2 (2 (same))(2 (movie)))))))(2 (...)))(3 (2 (without))(2 (0 (2 (neglecting))(2 (2 (character))(2 (development))))(2 (2 (for))(2 (2 (even))(2 (2 (one))(2 (minute))))))))) |ET| 
-0.4523013959337852663011858567188  |BT| (3 (4 (4 (4 (Beautifully))(2 (2 (reclaiming))(2 (2 (2 (the))(2 (story)))(2 (2 (of))(2 (Carmen))))))(2 (and)))(3 (2 (2 (recreating))(2 (2 (it))(2 (an))))(2 (2 (in))(2 (2 (an))(2 (2 (African))(2 (idiom))))))) |ET| 
1  |BT| (ROOT (4 (4 (Spectacular))(2 (2 (in))(2 (2 (2 (every))(2 (sense)))(2 (2 (of))(2 (2 (2 (2 (2 (the))(2 (word)))(2 (,)))(2 (2 (even))(2 (2 (if))(2 (you)))))(2 (2 (2 (don))(2 (')))(2 (t))))))))(2 (2 (2 (2 (know))(2 (2 (an))(2 (Orc))))(2 (2 (from))(2 (2 (a))(2 (Uruk-Hai)))))(2 (.)))) |ET| 
-0.15544726280543771923525753209105  |BT| (ROOT (2 (2 (Those))(2 (2 (who))(3 (2 (want))(2 (2 (to))(2 (2 (be))(2 (2 (2 (jolted))(1 (out)))(2 (2 (of))(2 (2 (their))(2 (gourd))))))))))(3 (3 (2 (should))(3 (2 (2 (2 (drop))(2 (everything)))(2 (and)))(2 (2 (run))(2 (2 (to))(2 (Ichi))))))(2 (.)))) |ET| 
1  |BT| (ROOT (4 (2 (This))(3 (2 (comic))(3 (gem))))(3 (4 (3 (2 (is))(3 (2 (as))(4 (delightful))))(2 (2 (as))(1 (2 (it))(1 (2 (is))(3 (derivative))))))(2 (.)))) |ET| 
0.39329372007954904733040280007117  |BT| (4 (3 (2 (compassion))(2 (2 (,))(3 (good-natured))))(4 (humor))) |ET| 
1  |BT| (4 (3 (3 (4 (2 (3 (2 (offbeat))(4 (humor)))(2 (,)))(4 (4 (amusing))(2 (characters))))(2 (,)))(2 (and)))(3 (2 (a))(3 (4 (happy))(2 (ending))))) |ET| 
-0.048282334944736562953870873116102  |BT| (3 (2 (be))(4 (3 (funny))(4 (2 (,))(4 (3 (3 (uplifting))(2 (and)))(3 (moving)))))) |ET| 
-1  |BT| (ROOT (4 (3 (Pure))(4 (3 (3 (4 (4 (2 (3 (3 (cinematic))(2 (intoxication)))(2 (,)))(3 (4 (2 (a))(4 (3 (2 (wildly))(3 (inventive)))(2 (mixture))))(2 (2 (of))(3 (3 (3 (comedy))(2 (and)))(2 (melodrama))))))(2 (,)))(1 (tastelessness)))(2 (and)))(3 (2 (swooning))(3 (elegance)))))(2 (.))) |ET| 
1  |BT| (4 (3 (2 ('s))(3 (3 (2 (so))(2 (2 (much))(2 (2 (to))(2 (look)))))(4 (2 (at))(3 (2 (in))(4 (2 (Metropolis))(4 (2 (you))(3 (3 (0 (hate))(3 (2 (to))(3 (1 (3 (2 (tear))(2 (2 (your))(2 (eyes))))(2 (away)))(2 (2 (from))(2 (2 (the))(2 (images)))))))(3 (2 (long))(2 (2 (enough))(2 (2 (to))(2 (2 (read))(2 (2 (the))(2 (subtitles))))))))))))))(2 (.))) |ET| 
1  |BT| (ROOT (2 (It))(4 (3 (2 (2 ('s))(2 (2 (2 (the))(3 (kind)))(2 (2 (of))(2 (movie)))))(2 (2 (that))(2 (2 (2 (,))(2 (2 (aside))(2 (2 (2 (from))(2 (2 (2 (2 (2 (2 (2 (2 (Robert))(2 (Altman)))(2 (,)))(2 (2 (Spike))(2 (Lee))))(2 (,)))(2 (2 (the))(3 (2 (Coen))(2 (Brothers)))))(2 (and)))(2 (2 (a))(2 (2 (few))(2 (others))))))(2 (,)))))(2 (3 (2 (our))(2 (moviemakers)))(2 (2 (2 (do))(2 (n't)))(2 (2 (make))(2 (2 (often))(2 (enough)))))))))(2 (.)))) |ET| 
1  |BT| (4 (3 (2 (2 ('s))(2 (2 (2 (the))(3 (kind)))(2 (2 (of))(2 (movie)))))(2 (2 (that))(2 (2 (2 (,))(2 (2 (aside))(2 (2 (2 (from))(2 (2 (2 (2 (2 (2 (2 (2 (Robert))(2 (Altman)))(2 (,)))(2 (2 (Spike))(2 (Lee))))(2 (,)))(2 (2 (the))(3 (2 (Coen))(2 (Brothers)))))(2 (and)))(2 (2 (a))(2 (2 (few))(2 (others))))))(2 (,)))))(2 (3 (2 (our))(2 (moviemakers)))(2 (2 (2 (do))(2 (n't)))(2 (2 (make))(2 (2 (often))(2 (enough)))))))))(2 (.))) |ET| 
-0.10798561180838193995779050737838  |BT| (3 (2 (aided))(3 (2 (by))(4 (2 (2 (a))(2 (cast)))(2 (2 (that))(3 (2 (seems))(1 (2 (to))(3 (2 (include))(2 (4 (2 (every))(4 (4 (top-notch))(2 (2 (British))(2 (actor)))))(2 (2 (who))(2 (2 (2 (did))(1 (not)))(2 (2 (appear))(2 (2 (in))(2 (2 (2 (Gosford))(2 (Park)))(2 (1 (-LRB-))(2 (2 (2 (2 (as))(3 (well)))(2 (2 (as))(2 (2 (2 (2 (2 (one))(2 (,)))(2 (2 (Ms.))(2 (Mirren))))(2 (,)))(2 (2 (who))(2 (did))))))(3 (-RRB-))))))))))))))))) |ET| 
1  |BT| (4 (2 (about))(3 (3 (telling))(2 (2 (what))(4 (2 (2 (at))(2 (heart)))(2 (2 (is))(3 (2 (a))(2 (4 (sweet))(2 (2 (little))(2 (girl)))))))))) |ET| 
0.20233379103702026080568998622766  |BT| (4 (4 (2 (the))(3 (4 (4 (4 (best))(2 (and)))(2 (2 (most))(3 (mature))))(3 (comedy))))(2 (2 (of))(2 (2 (the))(2 (2 (2002))(3 (2 (summer))(3 (season))))))) |ET| 
1  |BT| (4 (2 (be))(3 (3 (3 (moved))(3 (2 (to))(4 (3 (2 (the))(3 (edge)))(2 (2 (of))(3 (2 (their))(2 (seats)))))))(3 (2 (by))(4 (2 (the))(4 (3 (dynamic))(2 (2 (first))(2 (act)))))))) |ET| 
-0.37862910297237484247290240091388  |BT| (3 (4 (2 (a))(4 (3 (fine))(3 (2 (,))(3 (2 (old-fashioned-movie))(2 (movie))))))(2 (,))) |ET| 
1  |BT| (4 (4 (2 (3 (3 (cinematic))(2 (intoxication)))(2 (,)))(3 (4 (2 (a))(4 (3 (2 (wildly))(3 (inventive)))(2 (mixture))))(2 (2 (of))(3 (3 (3 (comedy))(2 (and)))(2 (melodrama))))))(2 (,))) |ET| 
-1  |BT| (3 (4 (4 (2 (3 (3 (cinematic))(2 (intoxication)))(2 (,)))(3 (4 (2 (a))(4 (3 (2 (wildly))(3 (inventive)))(2 (mixture))))(2 (2 (of))(3 (3 (3 (comedy))(2 (and)))(2 (melodrama))))))(2 (,)))(1 (tastelessness))) |ET| 
-1  |BT| (3 (3 (4 (4 (2 (3 (3 (cinematic))(2 (intoxication)))(2 (,)))(3 (4 (2 (a))(4 (3 (2 (wildly))(3 (inventive)))(2 (mixture))))(2 (2 (of))(3 (3 (3 (comedy))(2 (and)))(2 (melodrama))))))(2 (,)))(1 (tastelessness)))(2 (and))) |ET| 
-0.62598077174787136733868919691304  |BT| (3 (2 (showcase))(4 (2 (that))(3 (4 (3 (accomplishes))(2 (2 (its))(2 (2 (primary))(3 (goal)))))(3 (2 (2 (without))(2 (2 (2 (the))(2 (use)))(2 (2 (of))(2 (3 (special))(2 (effects))))))(3 (2 (,))(2 (2 (but))(2 (2 (rather))(2 (2 (by))(2 (3 (emphasizing))(2 (2 (the))(2 (characters)))))))))))) |ET| 
1  |BT| (4 (2 (2 (2 (2 (2 (Mamet))(2 ('s)))(2 (2 (``))(2 (2 (2 (House))(2 (2 (of))(2 (Games))))(2 ('')))))(2 (and)))(2 (2 (2 (last))(3 (2 (fall))(2 ('s))))(2 (2 (``))(2 (2 (Heist))(2 (''))))))(4 (2 (2 (so))(2 (much)))(4 (fun)))) |ET| 
1  |BT| (4 (2 (that))(3 (2 (made))(4 (2 (2 (2 (2 (2 (Mamet))(2 ('s)))(2 (2 (``))(2 (2 (2 (House))(2 (2 (of))(2 (Games))))(2 ('')))))(2 (and)))(2 (2 (2 (last))(3 (2 (fall))(2 ('s))))(2 (2 (``))(2 (2 (Heist))(2 (''))))))(4 (2 (2 (so))(2 (much)))(4 (fun)))))) |ET| 
1  |BT| (4 (3 (2 (re-create))(3 (3 (2 (the))(3 (excitement)))(2 (2 (of))(2 (2 (such))(2 (2 ('50s))(2 (flicks)))))))(2 (2 (as))(2 (2 (2 (Jules))(2 (2 (Verne))(2 (2 ('s))(2 (')))))(2 (2 (20,000))(2 (2 (2 (Leagues))(2 (2 (Under))(2 (2 (2 (2 (the))(2 (2 (Sea))(2 ('))))(2 (and)))(2 (2 (2 (the))(2 (2 (George))(2 (2 (Pal))(2 (version)))))(2 (2 (of))(2 (2 (2 (H.G.))(2 (2 (Wells))(2 ('))))(2 (2 (`))(2 (2 (The))(2 (Time))))))))))(2 (Machine))))))) |ET| 
-0.39126982451973263410494041636412  |BT| (ROOT (2 (`))(2 (2 (3 (Christian))(2 (Bale)))(3 (1 (2 (2 ('s))(2 (2 (2 (Quinn))(2 (1 (-LRB-))(2 (2 (is))(3 (-RRB-)))))(2 (2 (2 (a))(2 (leather)))(2 (2 (2 (clad))(2 (2 (grunge-pirate))(2 (2 (with))(2 (2 (2 (a))(2 (hairdo)))(2 (2 (like))(2 (Gandalf)))))))(3 (2 (in))(3 (2 (2 (2 (a))(2 (wind-tunnel)))(2 (and)))(4 (2 (a))(2 (4 (2 (simply))(3 (astounding)))(2 (2 (cor-blimey-luv-a-duck))(2 (2 (cockney))(2 (accent))))))))))))(2 (.)))(2 ('))))) |ET| 
1  |BT| (4 (2 (3 (original))(2 (2 (in))(2 (2 (2 (its))(2 (2 (base))(2 (concept))))(2 (2 (that))(2 (2 (you))(2 (2 (2 (2 (2 (can))(1 (not)))(2 (help)))(2 (but)))(2 (get))))))))(2 (2 (2 (caught))(2 (up)))(2 (.)))) |ET| 
-0.6406683056823123667555819338304  |BT| (ROOT (2 (2 (2 (Austin))(2 (Powers)))(2 (2 (in))(2 (Goldmember))))(3 (1 (2 (is))(2 (0 (2 (2 (a))(1 (3 (cinematic))(1 (2 (car))(1 (wreck)))))(2 (,)))(2 (0 (1 (2 (a))(1 (2 (catastrophic))(1 (collision))))(1 (2 (of))(1 (0 (1 (tastelessness))(2 (and)))(2 (gall)))))(4 (2 (that))(3 (2 (nevertheless))(3 (2 (will))(3 (1 (leave))(3 (3 (fans))(3 (2 (clamoring))(2 (2 (for))(2 (2 (another))(2 (ride)))))))))))))(2 (.)))) |ET| 
0.46464629982645577754851728968788  |BT| (4 (2 (3 (3 (cinematic))(2 (intoxication)))(2 (,)))(3 (4 (2 (a))(4 (3 (2 (wildly))(3 (inventive)))(2 (mixture))))(2 (2 (of))(3 (3 (3 (comedy))(2 (and)))(2 (melodrama)))))) |ET| 
1  |BT| (4 (4 (elegant))(3 (2 (,))(3 (3 (3 (witty))(2 (and)))(2 (beneath))))) |ET| 
1  |BT| (4 (3 (3 (3 (3 (funny))(2 (and)))(2 (human)))(2 (and)))(2 (really))) |ET| 
-0.6095646785968710235081857717887  |BT| (3 (3 (bittersweet))(3 (2 (dialogue))(3 (2 (that))(3 (2 (cuts))(2 (2 (to))(2 (2 (2 (the))(2 (chase)))(2 (2 (of))(2 (2 (2 (the))(2 (2 (modern))(2 (2 (girl))(2 ('s)))))(2 (dilemma)))))))))) |ET| 
-0.61368761707998542576092404488008  |BT| (3 (3 (3 (2 (Starts))(3 (1 (off))(4 (3 (3 (witty))(2 (and)))(3 (sophisticated)))))(2 (and)))(2 (you))) |ET| 
1  |BT| (ROOT (2 (I))(1 (2 (2 (2 (am))(2 (2 (highly))(2 (3 (3 (amused))(2 (2 (by))(2 (2 (the))(2 (idea)))))(2 (2 (that))(2 (2 (we))(2 (2 (have))(2 (2 (come))(2 (2 (to))(2 (2 (2 (a))(2 (point)))(2 (2 (in))(2 (society))))))))))))(2 (2 (where))(3 (2 (it))(2 (2 (has))(3 (2 (been))(3 (2 (deemed))(2 (2 (2 (important))(2 (enough)))(1 (2 (to))(1 (2 (make))(2 (2 (2 (a))(2 (film)))(2 (2 (2 (in))(2 (which)))(2 (2 (someone))(2 (2 (has))(2 (2 (to))(2 (2 (be))(2 (2 (hired))(2 (2 (to))(2 (2 (portray))(2 (2 (Richard))(2 (Dawson)))))))))))))))))))))(2 (.)))) |ET| 
1  |BT| (4 (1 (2 (could))(2 (n't)))(2 (2 (have))(3 (2 (2 (done))(2 (2 (any))(4 (better))))(2 (2 (in))(2 (2 (2 (bringing))(2 (2 (2 (the))(2 (story)))(2 (2 (of))(3 (Spider-Man)))))(2 (2 (to))(2 (2 (the))(2 (2 (big))(2 (screen)))))))))) |ET| 
1  |BT| (4 (2 (2 (2 (2 (2 (Sitting))(2 (2 (in))(2 (2 (2 (the))(2 (2 (third))(2 (row))))(2 (2 (of))(2 (2 (the))(3 (2 (IMAX))(2 (cinema))))))))(2 (2 (at))(2 (2 (2 (Sydney))(2 ('s)))(2 (4 (Darling))(2 (Harbour))))))(2 (,)))(3 (2 (but))(2 (2 (I))(3 (2 (sometimes))(2 (2 (felt))(4 (2 (as))(2 (2 (though))(2 (2 (I))(2 (2 (was))(2 (2 (in))(2 (2 (2 (2 (2 (the))(2 (2 (tiny))(2 (2 (two))(2 (2 (seater))(2 (plane))))))(2 (2 (that))(2 (2 (2 (2 (2 (carried))(2 (2 (the))(2 (2 (giant))(2 (camera)))))(2 (2 (around))(2 (Australia))))(2 (,)))(3 (2 (3 (sweeping))(2 (and)))(2 (gliding))))))(2 (,)))(2 (banking)))))))))))))(2 (and))) |ET| 
-0.5503697086405849869805706475745  |BT| (2 (2 (much))(3 (2 (to))(3 (2 (2 (Fatale))(2 (,)))(2 (2 (outside))(4 (2 (of))(3 (2 (its))(3 (3 (stylish))(3 (surprises))))))))) |ET| 
-0.6374884285204774903021984755469  |BT| (2 (2 (channel))(3 (2 (one))(3 (2 (of))(4 (4 (3 (2 (my))(3 (3 (greatest))(2 (pictures))))(2 (,)))(2 (2 (Drunken))(2 (Master))))))) |ET| 
-0.18117829656054407205800771407667  |BT| (ROOT (3 (2 (A))(3 (2 (heady))(2 (2 (,))(2 (2 (biting))(2 (2 (,))(2 (be-bop)))))))(3 (3 (2 (ride))(2 (2 (through))(3 (3 (2 (2 (2 (2 (nighttime))(2 (Manhattan)))(2 (,)))(2 (2 (2 (a))(2 (3 (loquacious))(2 (videologue))))(2 (2 (of))(2 (2 (the))(2 (2 (modern))(2 (male)))))))(2 (and)))(0 (3 (2 (the))(2 (lengths)))(2 (2 (2 (to))(2 (which)))(1 (2 (he))(2 (2 ('ll))(2 (2 (go))(2 (2 (to))(1 (2 (2 (weave))(2 (2 (a))(3 (2 (protective))(2 (cocoon)))))(2 (2 (around))(2 (2 (his))(2 (2 (own))(2 (ego)))))))))))))))(2 (.)))) |ET| 
1  |BT| (ROOT (3 (3 (3 (Fun))(2 (and)))(2 (nimble)))(2 (.))) |ET| 
1  |BT| (ROOT (3 (3 (3 (Smart))(2 (and)))(2 (taut)))(2 (.))) |ET| 
1  |BT| (ROOT (3 (4 (Remarkable))(3 (2 (for))(3 (2 (its))(3 (3 (3 (intelligence))(2 (and)))(2 (intensity))))))(2 (.))) |ET| 
-1  |BT| (3 (2 (proving))(3 (2 (that))(3 (2 (he))(3 (2 (2 (2 (2 (2 ('s))(2 (now)))(2 (,)))(2 (2 (more))(2 (2 (than))(2 (ever)))))(2 (,)))(3 (2 (2 (choosing))(2 (2 (his))(2 (roles))))(3 (2 (with))(3 (2 (2 (the))(3 (precision)))(3 (2 (of))(2 (2 (the))(2 (3 (insurance))(2 (actuary)))))))))))) |ET| 
-0.010629598847497027935826707789602  |BT| (3 (2 (A))(4 (4 (3 (3 (3 (surprisingly))(4 (charming)))(2 (and)))(3 (2 (even))(3 (witty))))(2 (match)))) |ET| 
1  |BT| (ROOT (4 (2 (2 (2 (2 (3 (Real))(2 (Women)))(3 (2 (may))(2 (2 (have))(2 (2 (many))(2 (agendas))))))(2 (,)))(2 (but)))(4 (2 (it))(3 (2 (also))(3 (2 (will))(4 (3 (3 (2 (3 (win))(2 (you)))(2 (over)))(2 (,)))(3 (2 (in))(2 (2 (a))(2 (2 (big))(2 (way))))))))))(2 (.))) |ET| 
0.25562649438842199867139015623252  |BT| (4 (2 (of))(3 (3 (3 (4 (pure))(2 (craft)))(2 (and)))(3 (3 (passionate))(2 (heart))))) |ET| 
1  |BT| (4 (2 (as))(2 (2 (though))(2 (2 (I))(2 (2 (was))(2 (2 (in))(2 (2 (2 (2 (2 (the))(2 (2 (tiny))(2 (2 (two))(2 (2 (seater))(2 (plane))))))(2 (2 (that))(2 (2 (2 (2 (2 (carried))(2 (2 (the))(2 (2 (giant))(2 (camera)))))(2 (2 (around))(2 (Australia))))(2 (,)))(3 (2 (3 (sweeping))(2 (and)))(2 (gliding))))))(2 (,)))(2 (banking)))))))) |ET| 
1  |BT| (4 (2 (2 (a))(2 (2 (serious))(2 (work))))(4 (2 (by))(2 (3 (2 (an))(3 (2 (important))(2 (director))))(2 (2 (who))(3 (2 (has))(2 (2 (something))(2 (3 (new))(2 (2 (to))(2 (2 (say))(2 (2 (about))(2 (2 (how))(2 (2 (,))(2 (2 (2 (in))(2 (2 (2 (the))(2 (flip-flop)))(2 (2 (of))(2 (courtship)))))(2 (2 (,))(1 (2 (we))(2 (2 (often))(1 (2 (reel))(2 (2 (in))(2 (2 (when))(2 (2 (we))(2 (2 (should))(2 (2 (be))(2 (2 (playing))(1 (out))))))))))))))))))))))))) |ET| 
1  |BT| (4 (4 (4 (4 (2 (2 (The))(2 (3 (fluid))(2 (motion))))(3 (2 (is))(4 (3 (astounding))(2 (2 (on))(2 (2 (2 (any))(2 (number)))(2 (2 (of))(2 (levels))))))))(2 (2 (--))(2 (2 (2 (including))(2 (2 (2 (the))(2 (2 (physical))(2 (demands))))(2 (2 (made))(2 (2 (on))(2 (Büttner))))))(2 (--)))))(2 (and)))(2 (2 (it))(3 (2 (2 (implies))(2 (2 (in))(2 (2 (its))(2 (wake)))))(2 (2 (2 (the))(2 (2 (intractable))(2 (2 (,))(2 (2 (irreversible))(2 (flow))))))(2 (2 (of))(2 (history))))))) |ET| 
-0.17318443953905729437714455798414  |BT| (2 (3 (New))(2 (2 (Zealand))(2 (2 (and))(2 (2 (Cook))(2 (2 (Island))(2 (locations))))))) |ET| 
-0.32235989119682528780685970559716  |BT| (2 (2 (about))(3 (3 (2 (the))(2 (power)))(3 (2 (of))(3 (2 (3 (poetry))(2 (and)))(2 (passion)))))) |ET| 
0.23365708402870991045041648703773  |BT| (4 (4 (2 (the))(3 (4 (magnificent))(2 (2 (swooping))(2 (2 (aerial))(2 (shots))))))(4 (2 (are))(4 (breathtaking)))) |ET| 
1  |BT| (4 (3 (3 (3 (2 (Perry))(3 (2 ('s))(3 (good))))(2 (and)))(3 (2 (his))(3 (2 (is))(3 (2 (an))(3 (3 (interesting))(2 (character)))))))(2 (,))) |ET| 
0.66282398376911999537952624450554  |BT| (4 (3 (3 (2 (a))(3 (3 (sharp))(2 (script))))(2 (and)))(3 (3 (strong))(2 (performances)))) |ET| 
-0.50217438265725344859191636714968  |BT| (ROOT (2 (It))(3 (2 (2 (2 (uses))(2 (2 (some))(2 (2 (of))(2 (2 (the))(2 (figures))))))(3 (2 (from))(2 (2 (the))(2 (2 (real-life))(2 (2 (story))(2 (2 (to))(2 (3 (2 (portray))(2 (themselves)))(2 (2 (in))(2 (2 (the))(2 (film)))))))))))(2 (.)))) |ET| 
-1  |BT| (2 (4 (3 (3 (3 (2 (Perry))(3 (2 ('s))(3 (good))))(2 (and)))(3 (2 (his))(3 (2 (is))(3 (2 (an))(3 (3 (interesting))(2 (character)))))))(2 (,)))(2 (but))) |ET| 
-1  |BT| (ROOT (4 (3 (2 (Yes))(3 (2 (,))(3 (2 (but))(3 (2 (also))(4 (3 (3 (3 (intriguing))(2 (and)))(2 (honorable)))(2 (,)))))))(3 (3 (2 (a))(3 (3 (worthwhile))(2 (addition))))(2 (2 (to))(3 (2 (a))(4 (3 (distinguished))(3 (2 (film))(2 (legacy))))))))(2 (.))) |ET| 
-1  |BT| (ROOT (4 (2 (Its))(3 (2 (sheer))(3 (dynamism))))(3 (3 (2 (is))(3 (infectious)))(2 (.)))) |ET| 
1  |BT| (4 (2 (2 (2 (2 (2 (The))(2 (2 (story))(2 (line))))(2 (2 (may))(2 (2 (be))(2 (2 (2 (127))(2 (years)))(2 (old))))))(2 (,)))(2 (but)))(2 (2 (2 (2 (El))(2 (Crimen)))(2 (3 (del))(2 (2 (Padre))(2 (Amaro)))))(2 (2 (...))(3 (1 (2 (could))(2 (n't)))(2 (1 (2 (be))(3 (2 (more))(2 (2 (timely))(2 (2 (in))(2 (2 (2 (its))(2 (2 (despairing))(2 (vision))))(2 (2 (of))(1 (corruption))))))))(2 (2 (within))(2 (2 (the))(2 (2 (Catholic))(2 (establishment)))))))))) |ET| 
1  |BT| (4 (3 (3 (admire))(2 (2 (2 (the))(2 (2 (closing))(2 (scenes))))(2 (2 (of))(2 (2 (2 (2 (the))(2 (film)))(2 (,)))(2 (2 (which))(2 (2 (seem))(2 (2 (to))(2 (2 (ask))(2 (2 (whether))(2 (2 (2 (our))(2 (civilization)))(2 (2 (offers))(2 (2 (2 (a))(2 (cure)))(2 (2 (for))(2 (2 (2 (Vincent))(2 ('s)))(1 (complaint))))))))))))))))(2 (.))) |ET| 
-1  |BT| (ROOT (4 (2 (2 (2 (2 (2 (The))(2 (2 (story))(2 (line))))(2 (2 (may))(2 (2 (be))(2 (2 (2 (127))(2 (years)))(2 (old))))))(2 (,)))(2 (but)))(2 (2 (2 (2 (El))(2 (Crimen)))(2 (3 (del))(2 (2 (Padre))(2 (Amaro)))))(2 (2 (...))(3 (1 (2 (could))(2 (n't)))(2 (1 (2 (be))(3 (2 (more))(2 (2 (timely))(2 (2 (in))(2 (2 (2 (its))(2 (2 (despairing))(2 (vision))))(2 (2 (of))(1 (corruption))))))))(2 (2 (within))(2 (2 (the))(2 (2 (Catholic))(2 (establishment))))))))))(2 (.))) |ET| 
-1  |BT| (ROOT (2 (I))(4 (3 (3 (admire))(2 (2 (2 (the))(2 (2 (closing))(2 (scenes))))(2 (2 (of))(2 (2 (2 (2 (the))(2 (film)))(2 (,)))(2 (2 (which))(2 (2 (seem))(2 (2 (to))(2 (2 (ask))(2 (2 (whether))(2 (2 (2 (our))(2 (civilization)))(2 (2 (offers))(2 (2 (2 (a))(2 (cure)))(2 (2 (for))(2 (2 (2 (Vincent))(2 ('s)))(1 (complaint))))))))))))))))(2 (.)))) |ET| 
-1  |BT| (2 (2 (felt))(4 (2 (as))(2 (2 (though))(2 (2 (I))(2 (2 (was))(2 (2 (in))(2 (2 (2 (2 (2 (the))(2 (2 (tiny))(2 (2 (two))(2 (2 (seater))(2 (plane))))))(2 (2 (that))(2 (2 (2 (2 (2 (carried))(2 (2 (the))(2 (2 (giant))(2 (camera)))))(2 (2 (around))(2 (Australia))))(2 (,)))(3 (2 (3 (sweeping))(2 (and)))(2 (gliding))))))(2 (,)))(2 (banking))))))))) |ET| 
1  |BT| (4 (3 (2 (Yes))(3 (2 (,))(3 (2 (but))(3 (2 (also))(4 (3 (3 (3 (intriguing))(2 (and)))(2 (honorable)))(2 (,)))))))(3 (3 (2 (a))(3 (3 (worthwhile))(2 (addition))))(2 (2 (to))(3 (2 (a))(4 (3 (distinguished))(3 (2 (film))(2 (legacy)))))))) |ET| 
1  |BT| (ROOT (2 (He))(3 (3 (2 (makes))(3 (2 (you))(3 (2 (realize))(3 (2 (that))(3 (3 (2 (deep))(3 (2 (inside))(2 (righteousness))))(2 (2 (can))(3 (2 (be))(3 (2 (found))(2 (2 (a))(3 (2 (tough))(3 (beauty))))))))))))(2 (.)))) |ET| 
1  |BT| (ROOT (2 (``))(3 (2 (2 (Red))(3 (Dragon)))(3 (2 (''))(3 (3 (2 (is))(4 (entertaining)))(2 (.)))))) |ET| 
0.31425404100295617482174748147372  |BT| (4 (2 (ability))(3 (2 (to))(3 (2 (2 (pull))(2 (together)))(3 (3 (2 (3 (easily))(3 (accessible)))(2 (stories)))(3 (2 (that))(2 (2 (resonate))(2 (2 (with))(3 (profundity))))))))) |ET| 
1  |BT| (4 (2 (to))(3 (3 (2 (be))(3 (2 (2 (3 (smarter))(2 (and)))(2 (more)))(2 (diabolical))))(3 (2 (than))(2 (2 (you))(1 (2 (could))(2 (2 (have))(2 (2 (guessed))(2 (2 (at))(2 (2 (the))(2 (beginning))))))))))) |ET| 
-0.71440544112537607279733720133663  |BT| (3 (2 (makes))(3 (2 (you))(3 (2 (realize))(3 (2 (that))(3 (3 (2 (deep))(3 (2 (inside))(2 (righteousness))))(2 (2 (can))(3 (2 (be))(3 (2 (found))(2 (2 (a))(3 (2 (tough))(3 (beauty)))))))))))) |ET| 
1  |BT| (4 (2 (please))(2 (2 (1 (not))(2 (only)))(2 (2 (2 (2 (2 (2 (the))(2 (2 (fanatical))(2 (adherents))))(2 (2 (on))(2 (2 (either))(2 (side)))))(2 (,)))(2 (2 (but))(2 (also))))(2 (2 (people))(1 (2 (who))(2 (2 (know))(2 (1 (nothing))(2 (2 (about))(2 (2 (the))(2 (subject))))))))))) |ET| 
1  |BT| (ROOT (3 (2 (The))(2 (way)))(3 (2 (2 (2 (2 (2 (2 (2 (2 (the))(2 (roundelay)))(2 (2 (of))(2 (2 (partners))(2 (functions)))))(2 (,)))(2 (and)))(2 (2 (2 (the))(2 (interplay)))(2 (2 (2 (2 (within))(2 (partnerships)))(2 (and)))(2 (2 (among))(2 (partnerships))))))(2 (and)))(2 (2 (2 (the))(2 (2 (general))(2 (air))))(2 (2 (of))(2 (Gator-bashing)))))(3 (4 (2 (2 (are))(2 (consistently)))(4 (delightful)))(2 (.))))) |ET| 
-0.012766671653899813038135491183311  |BT| (2 (2 (2 (2 (2 (2 (2 (2 (the))(2 (roundelay)))(2 (2 (of))(2 (2 (partners))(2 (functions)))))(2 (,)))(2 (and)))(2 (2 (2 (the))(2 (interplay)))(2 (2 (2 (2 (within))(2 (partnerships)))(2 (and)))(2 (2 (among))(2 (partnerships))))))(2 (and)))(2 (2 (2 (the))(2 (2 (general))(2 (air))))(2 (2 (of))(2 (Gator-bashing))))) |ET| 
-0.13514824694996013798586886878184  |BT| (2 (3 (2 (2 (does))(2 (Dickens)))(2 (2 (as))(3 (2 (it))(2 (2 (should))(2 (2 (be))(3 (2 (done))(2 (cinematically))))))))(2 (.))) |ET| 
-0.24359250696334078245541832075105  |BT| (3 (4 (3 (3 (Kids))(3 (2 (will))(3 (4 (love))(2 (2 (its))(3 (2 (3 (fantasy))(2 (and)))(3 (adventure)))))))(2 (,)))(2 (and))) |ET| 
1  |BT| (ROOT (3 (2 (If))(2 (2 (you))(3 (2 ('re))(3 (2 (1 (2 (looking))(3 (2 (for))(3 (2 (something))(3 (new)))))(2 (and)))(2 (2 (hoping))(3 (2 (for))(3 (2 (something))(4 (entertaining)))))))))(3 (2 (,))(3 (2 (you))(3 (3 (2 ('re))(3 (2 (in))(2 (luck))))(2 (.)))))) |ET| 
0.72474932045636208943761857881327  |BT| (4 (2 (to))(3 (2 (classify))(3 (2 (as))(3 (2 (it))(3 (2 (is))(3 (2 (hard))(2 (2 (to))(1 (resist))))))))) |ET| 
1  |BT| (ROOT (2 (Hartley))(3 (3 (3 (2 (adds))(3 (2 (enough))(3 (2 (quirky))(3 (2 (and))(3 (2 (satirical))(2 (touches)))))))(3 (2 (in))(3 (2 (the))(3 (2 (screenplay))(3 (2 (to))(3 (2 (keep))(2 (2 (2 (the))(2 (film)))(4 (entertaining)))))))))(2 (.)))) |ET| 
-1  |BT| (ROOT (2 (2 (A))(3 (tasty)))(3 (4 (2 (appetizer))(3 (2 (that))(3 (2 (leaves))(3 (2 (you))(3 (2 (wanting))(2 (more)))))))(2 (.)))) |ET| 
-1  |BT| (3 (2 (,))(4 (2 (you))(3 (3 (2 (2 (feel))(3 (alive)))(2 (-)))(2 (2 (which))(2 (2 (is))(2 (2 (what))(2 (2 (they))(2 (did))))))))) |ET| 
-0.0032529682932568425995922822835382  |BT| (3 (3 (2 (turning))(4 (4 (2 (2 (one))(2 (2 (man))(2 ('s))))(3 (triumph)))(2 (2 (of))(2 (will)))))(3 (2 (into))(3 (2 (2 (everyman))(2 ('s)))(2 (3 (romance))(3 (comedy)))))) |ET| 
1  |BT| (4 (3 (2 (2 (is))(2 (...)))(2 (2 (determined))(3 (3 (2 (2 (2 (to))(3 (2 (3 (treat))(2 (1 (2 (2 (2 (its))(2 (characters)))(2 (,)))(3 (1 (1 (weak))(2 (and)))(3 (strong))))(2 (,))))(2 (2 (as))(2 (2 (2 (2 (2 (fallible))(2 (2 (human))(2 (beings))))(2 (,)))(1 (not)))(2 (caricatures))))))(2 (,)))(2 (and)))(2 (2 (to))(2 (2 (carefully))(1 (2 (delineate))(2 (2 (2 (the))(2 (cost)))(2 (2 (of))(2 (2 (2 (2 (2 (the))(2 (2 (inevitable))(1 (conflicts))))(2 (2 (between))(2 (2 (human))(2 (urges)))))(2 (and)))(2 (2 (2 (an))(2 (institution)))(2 (2 (concerned))(2 (2 (with))(2 (self-preservation))))))))))))))(2 (.))) |ET| 
1  |BT| (ROOT (4 (4 (2 (The))(3 (4 (2 (most))(4 (brilliant)))(2 (work))))(2 (2 (in))(2 (2 (2 (this))(2 (genre)))(2 (2 (since))(2 (2 (2 (the))(2 (2 (1984))(2 (2 (uncut))(2 (version)))))(2 (2 (of))(2 (2 (Sergio))(2 (Leone)))))))))(2 (2 (2 (2 ('s))(2 (1 (1 (flawed))(2 (but)))(2 (staggering))))(2 (2 (Once))(2 (2 (Upon))(2 (2 (2 (a))(2 (Time)))(2 (2 (in))(2 (America)))))))(2 (.)))) |ET| 
1  |BT| (4 (3 (3 (2 (A))(4 (3 (4 (smart))(2 (and)))(3 (funny))))(2 (2 (,))(2 (2 (2 (albeit))(2 (sometimes)))(2 (2 (2 (superficial))(2 (2 (,))(2 (2 (cautionary))(2 (tale)))))(2 (2 (of))(2 (2 (2 (a))(2 (technology)))(2 (2 (in))(2 (search)))))))))(2 (2 (of))(2 (2 (an))(2 (artist))))) |ET| 
-0.48526428229887924592489412134455  |BT| (2 (3 (new))(2 (2 (to))(2 (2 (say))(2 (2 (about))(2 (2 (how))(2 (2 (,))(2 (2 (2 (in))(2 (2 (2 (the))(2 (flip-flop)))(2 (2 (of))(2 (courtship)))))(2 (2 (,))(1 (2 (we))(2 (2 (often))(1 (2 (reel))(2 (2 (in))(2 (2 (when))(2 (2 (we))(2 (2 (should))(2 (2 (be))(2 (2 (playing))(1 (out))))))))))))))))))) |ET| 
-0.57508858863718570475498381711077  |BT| (3 (3 (3 (2 (3 (filling))(2 (2 (nearly))(2 (2 (every))(2 (minute)))))(2 (...)))(3 (2 (with))(3 (2 (2 (2 (3 (3 (2 (a))(3 (3 (lighthearted))(3 (glow))))(2 (,)))(2 (2 (some))(2 (1 (impudent))(2 (snickers)))))(2 (,)))(2 (and)))(3 (4 (2 (a))(2 (4 (glorious))(2 (dose))))(3 (2 (of))(3 (2 (2 (humankind))(2 ('s)))(3 (3 (liberating))(2 (ability)))))))))(3 (2 (to))(3 (3 (triumph))(2 (2 (over))(1 (2 (a))(2 (2 (2 (Scrooge))(2 (or)))(2 (two)))))))) |ET| 
-1  |BT| (ROOT (4 (3 (3 (2 (A))(4 (3 (4 (smart))(2 (and)))(3 (funny))))(2 (2 (,))(2 (2 (2 (albeit))(2 (sometimes)))(2 (2 (2 (superficial))(2 (2 (,))(2 (2 (cautionary))(2 (tale)))))(2 (2 (of))(2 (2 (2 (a))(2 (technology)))(2 (2 (in))(2 (search)))))))))(2 (2 (of))(2 (2 (an))(2 (artist)))))(2 (.))) |ET| 
-0.12351882044750647771103047034558  |BT| (3 (2 (moviemaking))(3 (2 (for))(3 (3 (3 (2 (a))(3 (2 (larger-than-life))(2 (figure))))(2 (,)))(4 (2 (2 (an))(2 (artist)))(3 (2 (who))(3 (2 (has))(3 (2 (been))(4 (3 (2 (awarded))(3 (2 (mythic))(3 (status))))(2 (2 (in))(2 (3 (contemporary))(2 (culture)))))))))))) |ET| 
1  |BT| (4 (2 (it))(3 (2 (transporting))(3 (2 (is))(3 (2 (that))(3 (2 (it))(3 (2 (2 ('s))(2 (also)))(4 (2 (one))(3 (2 (of))(3 (2 (the))(3 (smartest))))))))))) |ET| 
-1  |BT| (2 (2 (makes))(4 (2 (it))(3 (2 (transporting))(3 (2 (is))(3 (2 (that))(3 (2 (it))(3 (2 (2 ('s))(2 (also)))(4 (2 (one))(3 (2 (of))(3 (2 (the))(3 (smartest)))))))))))) |ET| 
-1  |BT| (3 (4 (2 (one))(4 (4 (terrific))(2 (story))))(4 (2 (with))(3 (2 (lots))(3 (2 (of))(3 (laughs)))))) |ET| 
1  |BT| (4 (2 (2 (3 (new))(2 (2 (,))(2 (2 (fervently))(2 (2 (held))(2 (ideas))))))(2 (and)))(3 (3 (fanciful))(2 (thinkers)))) |ET| 
1  |BT| (4 (2 (by))(2 (3 (2 (an))(3 (2 (important))(2 (director))))(2 (2 (who))(3 (2 (has))(2 (2 (something))(2 (3 (new))(2 (2 (to))(2 (2 (say))(2 (2 (about))(2 (2 (how))(2 (2 (,))(2 (2 (2 (in))(2 (2 (2 (the))(2 (flip-flop)))(2 (2 (of))(2 (courtship)))))(2 (2 (,))(1 (2 (we))(2 (2 (often))(1 (2 (reel))(2 (2 (in))(2 (2 (when))(2 (2 (we))(2 (2 (should))(2 (2 (be))(2 (2 (playing))(1 (out)))))))))))))))))))))))) |ET| 
1  |BT| (4 (2 (2 (3 (2 (Take))(2 (2 (any))(2 (2 (12-year-old))(2 (2 (boy))(2 (2 (to))(2 (2 (see))(2 (2 (this))(2 (picture)))))))))(2 (,)))(2 (and)))(2 (2 (he))(2 (2 ('ll))(2 (2 (be))(2 (2 (2 (your))(2 (slave)))(2 (2 (for))(2 (2 (a))(2 (year))))))))) |ET| 
1  |BT| (4 (2 ('ve))(3 (3 (3 (marveled))(2 (2 (at))(2 (2 (2 (3 (Disney))(2 ('s)))(2 (rendering)))(2 (2 (of))(2 (2 (water))(2 (2 (,))(2 (2 (snow))(2 (2 (,))(2 (2 (2 (flames))(2 (and)))(2 (shadows)))))))))))(2 (2 (in))(2 (2 (a))(2 (2 (hand-drawn))(2 (2 (animated))(2 (world)))))))) |ET| 
-1  |BT| (ROOT (4 (2 (2 (3 (2 (Take))(2 (2 (any))(2 (2 (12-year-old))(2 (2 (boy))(2 (2 (to))(2 (2 (see))(2 (2 (this))(2 (picture)))))))))(2 (,)))(2 (and)))(2 (2 (he))(2 (2 ('ll))(2 (2 (be))(2 (2 (2 (your))(2 (slave)))(2 (2 (for))(2 (2 (a))(2 (year)))))))))(2 (.))) |ET| 
-1  |BT| (ROOT (2 (2 (The))(2 (film)))(4 (3 (2 (2 (is))(2 (...)))(2 (2 (determined))(3 (3 (2 (2 (2 (to))(3 (2 (3 (treat))(2 (1 (2 (2 (2 (its))(2 (characters)))(2 (,)))(3 (1 (1 (weak))(2 (and)))(3 (strong))))(2 (,))))(2 (2 (as))(2 (2 (2 (2 (2 (fallible))(2 (2 (human))(2 (beings))))(2 (,)))(1 (not)))(2 (caricatures))))))(2 (,)))(2 (and)))(2 (2 (to))(2 (2 (carefully))(1 (2 (delineate))(2 (2 (2 (the))(2 (cost)))(2 (2 (of))(2 (2 (2 (2 (2 (the))(2 (2 (inevitable))(1 (conflicts))))(2 (2 (between))(2 (2 (human))(2 (urges)))))(2 (and)))(2 (2 (2 (an))(2 (institution)))(2 (2 (concerned))(2 (2 (with))(2 (self-preservation))))))))))))))(2 (.)))) |ET| 
-0.093436185084136175182933925498219  |BT| (ROOT (2 (2 (For))(2 (decades)))(3 (2 (we))(3 (4 (2 ('ve))(3 (3 (3 (marveled))(2 (2 (at))(2 (2 (2 (3 (Disney))(2 ('s)))(2 (rendering)))(2 (2 (of))(2 (2 (water))(2 (2 (,))(2 (2 (snow))(2 (2 (,))(2 (2 (2 (flames))(2 (and)))(2 (shadows)))))))))))(2 (2 (in))(2 (2 (a))(2 (2 (hand-drawn))(2 (2 (animated))(2 (world))))))))(2 (.))))) |ET| 
1  |BT| (4 (3 (3 (2 (an))(2 (3 (accessible))(2 (introduction))))(2 (2 (as))(2 (3 (well))(2 (as)))))(4 (3 (2 (some))(3 (3 (intelligent))(2 (observations))))(3 (2 (on))(2 (2 (2 (the))(3 (success)))(2 (2 (of))(2 (Bollywood))))))) |ET| 
1  |BT| (4 (2 (what))(2 (2 (makes))(4 (2 (it))(3 (2 (transporting))(3 (2 (is))(3 (2 (that))(3 (2 (it))(3 (2 (2 ('s))(2 (also)))(4 (2 (one))(3 (2 (of))(3 (2 (the))(3 (smartest))))))))))))) |ET| 
1  |BT| (4 (2 (one))(3 (2 (of))(3 (3 (2 (the))(3 (4 (great))(2 (films))))(3 (2 (about))(3 (2 (movie))(4 (love))))))) |ET| 
0.78194238644856772779689890739974  |BT| (4 (2 (via))(3 (2 (2 (Kirsten))(2 (2 (Dunst))(2 ('s))))(4 (4 (remarkable))(2 (performance))))) |ET| 
-1  |BT| (3 (2 (you))(4 (4 (2 (2 ('ll))(2 (still)))(3 (2 (be))(4 (3 (glued))(2 (2 (to))(2 (2 (the))(2 (screen)))))))(2 (.)))) |ET| 
-1  |BT| (ROOT (4 (4 (3 (3 (1 (-LRB-))(3 (2 (2 (Jeff))(2 ('s)))(4 (3 (-RRB-))(3 (gorgeous)))))(2 (,)))(2 (3 (fluid))(2 (compositions))))(2 (,)))(2 (2 (2 (2 (underlined))(2 (2 (by))(2 (2 (Neil))(2 (2 (3 (Finn))(2 (and)))(2 (Edmund))))))(2 (2 (3 (2 (2 (2 (2 (McWilliams))(2 ('s)))(2 (1 (melancholy))(2 (music))))(2 (2 (,))(2 (2 (are))(2 (3 (charged))(2 (2 (with))(3 (metaphor)))))))(2 (,)))(2 (but)))(3 (2 (rarely))(2 (2 (easy))(2 (2 (,))(1 (2 (1 (obvious))(2 (or)))(1 (self-indulgent))))))))(2 (.)))) |ET| 
1  |BT| (ROOT (3 (4 (2 (A))(4 (3 (fascinating))(2 (2 (literary))(2 (2 (mystery))(2 (story))))))(2 (2 (with))(2 (multiple))))(2 (2 (2 (strands))(2 (2 (about))(2 (2 (2 (the))(1 (controversy)))(2 (2 (of))(2 (2 (who))(2 (2 (really))(2 (2 (wrote))(2 (2 (1 (Shakespeare))(2 ('s)))(2 (plays))))))))))(2 (.)))) |ET| 
1  |BT| (4 (3 (gloriously))(2 (2 (flippant))(2 (2 (as))(2 (2 (2 (2 (2 (Lock))(2 (,)))(2 (Stock)))(2 (and)))(2 (2 (Two))(2 (2 (Smoking))(2 (Barrels)))))))) |ET| 
1  |BT| (ROOT (2 (2 (2 (See))(2 (Scratch)))(2 (2 (for))(2 (2 (the))(2 (history)))))(4 (2 (,))(4 (2 (2 (see))(2 (2 (Scratch))(2 (2 (for))(2 (2 (the))(2 (music))))))(2 (2 (,))(3 (2 (2 (2 (2 (2 (2 (2 (2 (see))(1 (2 (Scratch))(2 (2 (for))(2 (2 (2 (a))(2 (lesson)))(2 (2 (in))(2 (scratching)))))))(2 (,)))(2 (but)))(2 (,)))(2 (2 (most))(2 (2 (of))(2 (all)))))(2 (,)))(3 (3 (2 (see))(2 (it)))(2 (2 (for))(2 (2 (the))(2 (passion))))))(2 (.))))))) |ET| 
-1  |BT| (ROOT (4 (4 (4 (4 (2 (2 (The))(2 (3 (fluid))(2 (motion))))(3 (2 (is))(4 (3 (astounding))(2 (2 (on))(2 (2 (2 (any))(2 (number)))(2 (2 (of))(2 (levels))))))))(2 (2 (--))(2 (2 (2 (including))(2 (2 (2 (the))(2 (2 (physical))(2 (demands))))(2 (2 (made))(2 (2 (on))(2 (Büttner))))))(2 (--)))))(2 (and)))(2 (2 (it))(3 (2 (2 (implies))(2 (2 (in))(2 (2 (its))(2 (wake)))))(2 (2 (2 (the))(2 (2 (intractable))(2 (2 (,))(2 (2 (irreversible))(2 (flow))))))(2 (2 (of))(2 (history)))))))(2 (.))) |ET| 
-1  |BT| (ROOT (3 (4 (2 (A))(4 (3 (good))(2 (film))))(4 (2 (with))(4 (3 (2 (a))(3 (3 (solid))(2 (pedigree))))(2 (2 (both))(2 (2 (2 (in))(2 (2 (front))(2 (of))))(2 (2 (and))(2 (2 (2 (,))(2 (2 (2 (more))(2 (specifically)))(2 (,))))(2 (2 (behind))(2 (2 (the))(2 (camera)))))))))))(2 (.))) |ET| 
-1  |BT| (ROOT (2 (2 (The))(2 (2 (first))(2 (2 (five))(2 (minutes)))))(4 (4 (2 (will))(4 (2 (have))(2 (2 (you))(2 (2 (talking))(2 (2 ('til))(2 (2 (2 (the))(2 (end)))(2 (2 (of))(2 (2 (the))(2 (year))))))))))(2 (!)))) |ET| 
1  |BT| (4 (3 (2 (has))(3 (2 (enough))(3 (2 (moments))(2 (2 (to))(3 (2 (keep))(3 (2 (it))(4 (entertaining))))))))(2 (.))) |ET| 
1  |BT| (4 (2 (2 (only))(3 (2 (the))(2 (3 (2 (most))(2 (practiced)))(2 (curmudgeon)))))(1 (2 (could))(1 (1 (fail))(3 (2 (to))(3 (3 (2 (crack))(3 (2 (a))(4 (smile))))(2 (at))))))) |ET| 
1  |BT| (ROOT (2 (It))(3 (3 (2 ('s))(3 (2 (that))(3 (good))))(2 (.)))) |ET| 
1  |BT| (4 (2 (,))(4 (2 (there))(4 (3 (2 (is))(3 (3 (3 (2 (a))(3 (3 (2 (really))(3 (cool)))(2 (bit))))(2 (--)))(3 (2 (2 (2 (the))(2 (2 (movie))(2 ('s))))(2 (conception)))(3 (2 (of))(3 (2 (a))(4 (3 (future-world))(4 (2 (holographic))(3 (2 (2 (librarian))(1 (1 (-LRB-))(2 (2 (2 (Orlando))(2 (Jones)))(3 (-RRB-)))))(4 (2 (who))(4 (4 (4 (3 (3 (3 (3 (2 (2 (2 (knows))(2 (everything)))(2 (and)))(2 (2 (answers))(2 (2 (all))(2 (questions)))))(2 (,)))(4 (3 (3 (2 (is))(3 (3 (visually))(4 (smart))))(2 (,)))(3 (3 (cleverly))(3 (written)))))(2 (,)))(2 (and)))(3 (nicely)))(2 (realized))))))))))))(2 (.))))) |ET| 
1  |BT| (4 (2 (with))(4 (3 (2 (a))(3 (3 (solid))(2 (pedigree))))(2 (2 (both))(2 (2 (2 (in))(2 (2 (front))(2 (of))))(2 (2 (and))(2 (2 (2 (,))(2 (2 (2 (more))(2 (specifically)))(2 (,))))(2 (2 (behind))(2 (2 (the))(2 (camera)))))))))) |ET| 
-0.021639385432988492846684280834779  |BT| (1 (1 (2 (It))(0 (2 (2 ('s))(1 (not)))(4 (2 (a))(4 (4 (2 (particularly))(3 (good)))(2 (film))))))(2 (,))) |ET| 
-0.94525686396567354385922499204753  |BT| (ROOT (3 (2 (Able))(3 (2 (to))(3 (3 (2 (provide))(2 (insight)))(4 (2 (into))(4 (3 (2 (a))(3 (3 (fascinating))(2 (part))))(3 (2 (of))(2 (3 (theater))(2 (history)))))))))(2 (.))) |ET| 
-1  |BT| (3 (3 (3 (give))(4 (2 (performances))(3 (2 (of))(3 (3 (exceptional))(3 (honesty))))))(2 (.))) |ET| 
-1  |BT| (ROOT (2 (works))(4 (2 (,))(3 (2 (it))(3 (3 (2 ('s))(3 (3 (thanks))(4 (2 (to))(3 (2 (2 (Huston))(2 ('s)))(3 (3 (revelatory))(2 (performance)))))))(2 (.)))))) |ET| 
-1  |BT| (ROOT (3 (4 (2 (2 (2 (Director-writer))(2 (2 (Bille))(2 (August))))(2 (...)))(3 (4 (2 (2 (2 (depicts))(2 (2 (this))(2 (relationship))))(3 (2 (with))(3 (3 (economical))(3 (grace)))))(2 (,)))(2 (2 (letting))(4 (4 (2 (his))(4 (4 (superb))(2 (actors))))(2 (2 (convey))(3 (2 (2 (2 (2 (2 (2 (2 (2 (Martin))(2 ('s)))(2 (deterioration)))(2 (and)))(2 (2 (2 (Barbara))(2 ('s)))(2 (sadness))))(2 (--)))(2 (and)))(2 (,)))(2 (occasionally))))))))(2 (,)))(1 (1 (anger))(2 (.)))) |ET| 
1  |BT| (ROOT (2 (2 (One))(2 (2 (of))(2 (2 (the))(2 (year)))))(2 (3 (2 (2 ('s))(2 (most)))(3 (1 (weirdly))(3 (4 (engaging))(2 (2 (and))(2 (2 (unpredictable))(2 (2 (character))(2 (pieces))))))))(2 (.)))) |ET| 
1  |BT| (ROOT (4 (4 (4 (2 (2 (2 (Leguizamo))(2 (and)))(2 (Jones)))(4 (2 (2 (are))(2 (both)))(4 (excellent))))(2 (and)))(3 (2 (2 (2 (the))(2 (rest)))(2 (2 (of))(2 (2 (the))(2 (cast)))))(4 (2 (is))(4 (2 (uniformly))(4 (superb))))))(2 (.))) |ET| 
1  |BT| (4 (4 (4 (Great))(4 (fun)))(2 (2 (both))(2 (2 (2 (2 (for))(3 (2 (sports))(2 (aficionados))))(2 (and)))(1 (2 (for))(2 (2 (1 (ordinary))(2 (louts)))(2 (2 (2 (2 (whose))(2 (idea)))(2 (2 (of))(2 (exercise))))(2 (2 (is))(2 (2 (climbing))(2 (2 (2 (the))(2 (steps)))(2 (2 (of))(3 (2 (a))(2 (2 (stadium-seat))(2 (megaplex)))))))))))))) |ET| 
-0.064417192925604799258465504863125  |BT| (2 (2 (in))(2 (2 (2 (every))(2 (sense)))(2 (2 (of))(2 (2 (2 (2 (2 (the))(2 (word)))(2 (,)))(2 (2 (even))(2 (2 (if))(2 (you)))))(2 (2 (2 (don))(2 (')))(2 (t))))))) |ET| 
-1  |BT| (1 (4 (2 (please))(2 (2 (1 (not))(2 (only)))(2 (2 (2 (2 (2 (2 (the))(2 (2 (fanatical))(2 (adherents))))(2 (2 (on))(2 (2 (either))(2 (side)))))(2 (,)))(2 (2 (but))(2 (also))))(2 (2 (people))(1 (2 (who))(2 (2 (know))(2 (1 (nothing))(2 (2 (about))(2 (2 (the))(2 (subject)))))))))))(2 (and))) |ET| 
0.19233873474852347662533702532528  |BT| (4 (3 (entertainment))(2 (2 (that))(4 (2 (parents))(3 (4 (love))(3 (2 (to))(2 (2 (have))(2 (2 (their))(2 (kids))))))))) |ET| 
1  |BT| (4 (2 (you))(3 (3 (2 (like))(3 (2 (an))(3 (2 (extreme))(3 (3 (action-packed))(2 (film))))))(2 (2 (with))(3 (3 (2 (a))(3 (hint)))(2 (2 (of))(4 (humor))))))) |ET| 
1  |BT| (4 (2 (there))(3 (3 (2 ('s))(3 (3 (2 (a))(3 (3 (certain))(3 (robustness))))(3 (2 (to))(3 (3 (2 (this))(3 (4 (engaging))(2 (mix))))(2 (2 (of))(3 (3 (4 (love))(2 (and)))(2 (bloodletting))))))))(2 (.)))) |ET| 
1  |BT| (ROOT (4 (2 (A))(3 (3 (2 (3 (moving))(2 (and)))(3 (1 (not))(3 (2 (infrequently))(4 (breathtaking)))))(2 (film))))(2 (.))) |ET| 
-0.0069408840874769540951749746682253  |BT| (3 (2 (presents))(4 (4 (3 (3 (2 (a))(3 (3 (fascinating))(2 (glimpse))))(2 (2 (of))(2 (2 (urban))(3 (life)))))(2 (and)))(2 (1 (2 (the))(1 (2 (class))(2 (warfare))))(2 (2 (that))(2 (2 (embroils))(2 (2 (two))(2 (2 (young))(2 (men))))))))) |ET| 
-1  |BT| (ROOT (1 (2 (Though))(0 (2 (it))(1 (1 (lacks))(3 (2 (2 (the))(1 (2 (utter))(2 (authority))))(3 (2 (of))(3 (2 (a))(3 (2 (genre))(3 (gem)))))))))(4 (2 (,))(4 (2 (there))(3 (3 (2 ('s))(3 (3 (2 (a))(3 (3 (certain))(3 (robustness))))(3 (2 (to))(3 (3 (2 (this))(3 (4 (engaging))(2 (mix))))(2 (2 (of))(3 (3 (4 (love))(2 (and)))(2 (bloodletting))))))))(2 (.)))))) |ET| 
-0.4126409163257963585991205945902  |BT| (3 (3 (2 ('s))(3 (3 (2 (a))(3 (3 (certain))(3 (robustness))))(3 (2 (to))(3 (3 (2 (this))(3 (4 (engaging))(2 (mix))))(2 (2 (of))(3 (3 (4 (love))(2 (and)))(2 (bloodletting))))))))(2 (.))) |ET| 
1  |BT| (4 (4 (Spectacular))(2 (2 (in))(2 (2 (2 (every))(2 (sense)))(2 (2 (of))(2 (2 (2 (2 (2 (the))(2 (word)))(2 (,)))(2 (2 (even))(2 (2 (if))(2 (you)))))(2 (2 (2 (don))(2 (')))(2 (t)))))))) |ET| 
1  |BT| (4 (4 (2 (2 (The))(2 (3 (fluid))(2 (motion))))(3 (2 (is))(4 (3 (astounding))(2 (2 (on))(2 (2 (2 (any))(2 (number)))(2 (2 (of))(2 (levels))))))))(2 (2 (--))(2 (2 (2 (including))(2 (2 (2 (the))(2 (2 (physical))(2 (demands))))(2 (2 (made))(2 (2 (on))(2 (Büttner))))))(2 (--))))) |ET| 
-0.21993526361314155725956709375168  |BT| (2 (3 (ample))(2 (2 (opportunity))(2 (2 (to))(2 (2 (2 (use))(2 (2 (that))(2 (term))))(2 (2 (2 (as))(2 (often)))(2 (2 (as))(2 (possible)))))))) |ET| 
-0.85655421239976714531394463847391  |BT| (3 (3 (2 (Has))(4 (3 (2 (an))(2 (1 (uppity))(2 (musical))))(3 (2 (beat))(3 (2 (that))(3 (2 (you))(2 (2 (can))(2 (2 (dance))(2 (to)))))))))(2 (,))) |ET| 
0.35737124286224786207100123647251  |BT| (4 (2 (of))(4 (4 (breathtaking))(3 (2 (,))(4 (4 (awe-inspiring))(3 (2 (visual))(3 (poetry))))))) |ET| 
1  |BT| (4 (2 (,))(4 (2 (there))(3 (3 (2 ('s))(3 (3 (2 (a))(3 (3 (certain))(3 (robustness))))(3 (2 (to))(3 (3 (2 (this))(3 (4 (engaging))(2 (mix))))(2 (2 (of))(3 (3 (4 (love))(2 (and)))(2 (bloodletting))))))))(2 (.))))) |ET| 
1  |BT| (4 (2 (a))(3 (2 (2 (far))(3 (bigger)))(3 (2 (,))(3 (3 (2 (far))(3 (2 (more))(3 (meaningful))))(2 (story)))))) |ET| 
1  |BT| (ROOT (2 (It))(3 (3 (2 ('s))(3 (3 (2 (a))(3 (3 (cool))(2 (event))))(3 (2 (for))(2 (2 (the))(3 (2 (whole))(3 (family)))))))(2 (.)))) |ET| 
-0.11504778561181536189472751630092  |BT| (3 (3 (2 ('s))(3 (3 (2 (a))(3 (3 (cool))(2 (event))))(3 (2 (for))(2 (2 (the))(3 (2 (whole))(3 (family)))))))(2 (.))) |ET| 
-0.010669120149541440681351112118591  |BT| (3 (2 ('s))(3 (3 (2 (a))(3 (3 (cool))(2 (event))))(3 (2 (for))(2 (2 (the))(3 (2 (whole))(3 (family))))))) |ET| 
-0.077794496394337261935270078083704  |BT| (3 (2 ('s))(3 (3 (2 (a))(3 (3 (certain))(3 (robustness))))(3 (2 (to))(3 (3 (2 (this))(3 (4 (engaging))(2 (mix))))(2 (2 (of))(3 (3 (4 (love))(2 (and)))(2 (bloodletting)))))))) |ET| 
1  |BT| (4 (2 (have))(2 (2 (you))(2 (2 (talking))(2 (2 ('til))(2 (2 (2 (the))(2 (end)))(2 (2 (of))(2 (2 (the))(2 (year))))))))) |ET| 
1  |BT| (4 (0 (avoid))(1 (2 (many))(1 (2 (of))(1 (1 (2 (the))(1 (1 (condescending))(1 (stereotypes))))(2 (2 (that))(2 (2 (2 (so))(2 (often)))(2 (2 (plague))(2 (2 (films))(2 (2 (dealing))(2 (2 (with))(2 (2 (the))(2 (2 (mentally))(2 (ill)))))))))))))) |ET| 
1  |BT| (4 (2 (will))(4 (2 (have))(2 (2 (you))(2 (2 (talking))(2 (2 ('til))(2 (2 (2 (the))(2 (end)))(2 (2 (of))(2 (2 (the))(2 (year)))))))))) |ET| 
-0.039893051992049163856357552049303  |BT| (3 (3 (2 (a))(3 (3 (cute))(2 (partnership))))(2 (2 (in))(2 (2 (I))(2 (Spy))))) |ET| 
-1  |BT| (3 (2 (,))(4 (3 (3 (2 (2 (Nolan))(2 ('s)))(2 (3 (penetrating))(2 (undercurrent))))(4 (2 (of))(4 (3 (cerebral))(3 (2 (and))(4 (2 (cinemantic))(2 (flair)))))))(2 (2 (2 (2 (lends))(2 (1 (-LRB-))(2 (2 (it))(3 (-RRB-)))))(2 (3 (stimulating))(2 (depth))))(2 (.))))) |ET| 
0.62751547308983002260163175378693  |BT| (4 (3 (3 (4 (2 (2 (2 (Miyazaki))(2 ('s)))(2 (2 (nonstop))(2 (images))))(3 (2 (are))(3 (2 (so))(4 (stunning)))))(2 (,)))(2 (and)))(4 (2 (2 (his))(3 (imagination)))(3 (2 (so))(3 (vivid))))) |ET| 
1  |BT| (4 (3 (able))(3 (2 (to))(3 (3 (share))(3 (2 (2 (his))(2 (story)))(3 (3 (2 (so))(3 (compellingly)))(3 (2 (with))(3 (3 (us))(2 (2 (is))(3 (2 (a))(3 (2 (minor))(3 (miracle)))))))))))) |ET| 
1  |BT| (4 (2 (never))(0 (0 (fails))(3 (2 (to))(3 (entertain))))) |ET| 
1  |BT| (4 (2 (,))(3 (2 (it))(3 (3 (2 ('s))(3 (3 (thanks))(4 (2 (to))(3 (2 (2 (Huston))(2 ('s)))(3 (3 (revelatory))(2 (performance)))))))(2 (.))))) |ET| 
1  |BT| (4 (3 (2 (a))(3 (3 (solid))(2 (pedigree))))(2 (2 (both))(2 (2 (2 (in))(2 (2 (front))(2 (of))))(2 (2 (and))(2 (2 (2 (,))(2 (2 (2 (more))(2 (specifically)))(2 (,))))(2 (2 (behind))(2 (2 (the))(2 (camera))))))))) |ET| 
-1  |BT| (ROOT (4 (2 (A))(3 (4 (2 (thoroughly))(3 (enjoyable)))(3 (2 (,))(3 (heartfelt)))))(3 (2 (2 (coming-of-age))(3 (comedy)))(2 (.)))) |ET| 
0.88610386571736343697125448670704  |BT| (4 (2 (2 (the))(2 (film)))(3 (3 (2 (has))(3 (3 (2 (a))(3 (2 (3 (gentle))(3 (2 (,))(3 (unforced))))(2 (intimacy))))(2 (2 (that))(3 (2 (never))(1 (2 (becomes))(1 (claustrophobic)))))))(2 (.)))) |ET| 
-1  |BT| (3 (2 (Hence))(3 (2 (,))(4 (3 (Storytelling))(4 (2 (is))(3 (2 (far))(3 (2 (more))(3 (appealing)))))))) |ET| 
1  |BT| (ROOT (3 (3 (3 (2 (An))(4 (energizing)))(2 (,)))(3 (3 (3 (intoxicating))(2 (documentary)))(3 (2 (charting))(2 (2 (2 (the))(2 (rise)))(2 (2 (of))(2 (2 (2 (2 (2 (hip-hop))(2 (culture)))(2 (2 (in))(2 (general))))(2 (and)))(2 (2 (2 (the))(2 (art)))(2 (2 (of))(2 (2 (scratching))(2 (2 (1 (-LRB-))(2 (2 (2 (or))(3 (turntablism)))(3 (-RRB-))))(2 (2 (in))(2 (particular)))))))))))))(2 (.))) |ET| 
1  |BT| (4 (3 (cleverly))(3 (2 (captures))(2 (2 (2 (the))(2 (1 (dry))(2 (wit))))(2 (2 (that))(2 (2 ('s))(2 (2 (so))(2 (2 (prevalent))(2 (2 (on))(2 (2 (The))(2 (Rock))))))))))) |ET| 
1  |BT| (4 (3 (2 ('s))(4 (better)))(3 (2 (than))(2 (2 (one))(2 (2 (might))(2 (2 (expect))(2 (2 (when))(2 (2 (you))(1 (2 (look))(2 (2 (at))(2 (2 (2 (the))(1 (list)))(2 (2 (of))(2 (2 (movies))(2 (2 (starring))(2 (2 (Ice-T))(2 (2 (in))(2 (2 (a))(2 (2 (major))(2 (role))))))))))))))))))) |ET| 
-1  |BT| (3 (4 (2 (A))(4 (3 (good))(2 (film))))(4 (2 (with))(4 (3 (2 (a))(3 (3 (solid))(2 (pedigree))))(2 (2 (both))(2 (2 (2 (in))(2 (2 (front))(2 (of))))(2 (2 (and))(2 (2 (2 (,))(2 (2 (2 (more))(2 (specifically)))(2 (,))))(2 (2 (behind))(2 (2 (the))(2 (camera))))))))))) |ET| 
-0.39014746491540985839918675992521  |BT| (3 (3 (3 (intoxicating))(2 (documentary)))(3 (2 (charting))(2 (2 (2 (the))(2 (rise)))(2 (2 (of))(2 (2 (2 (2 (2 (hip-hop))(2 (culture)))(2 (2 (in))(2 (general))))(2 (and)))(2 (2 (2 (the))(2 (art)))(2 (2 (of))(2 (2 (scratching))(2 (2 (1 (-LRB-))(2 (2 (2 (or))(3 (turntablism)))(3 (-RRB-))))(2 (2 (in))(2 (particular)))))))))))) |ET| 
-0.29733580927630376411485713106231  |BT| (ROOT (3 (2 (A))(4 (4 (3 (wonderfully))(2 (speculative)))(2 (character))))(3 (3 (2 (study))(3 (2 (that))(2 (3 (2 (2 (made))(2 (up)))(1 (2 (for))(1 (2 (its))(1 (1 (2 (rather))(1 (slow)))(2 (beginning))))))(3 (2 (by))(2 (2 (2 (drawing))(3 (me)))(2 (2 (into))(2 (2 (the))(2 (picture)))))))))(2 (.)))) |ET| 
1  |BT| (ROOT (2 (4 (unpretentious))(2 (,)))(4 (4 (charming))(3 (2 (,))(3 (2 (quirky))(3 (2 (,))(3 (original))))))) |ET| 
0.81472668937020387147640576586127  |BT| (4 (4 (charming))(3 (2 (,))(3 (2 (quirky))(3 (2 (,))(3 (original)))))) |ET| 
1  |BT| (4 (4 (2 (works))(3 (smoothly)))(3 (2 (under))(3 (2 (3 (2 (2 (the))(2 (direction)))(2 (2 (of))(2 (Spielberg))))(2 (,)))(3 (2 (who))(3 (2 (does))(4 (3 (2 (a))(3 (3 (convincing))(2 (impersonation))))(3 (2 (here))(3 (2 (of))(3 (2 (2 (a))(2 (director)))(3 (3 (enjoying))(2 (2 (himself))(3 (immensely))))))))))))) |ET| 
-0.37787260361251812090799262477958  |BT| (ROOT (3 (2 (Whether))(4 (2 (Quitting))(3 (2 (will))(3 (2 (prove))(3 (3 (absorbing))(2 (2 (to))(2 (2 (American))(2 (audiences)))))))))(2 (2 (2 (is))(2 (debatable)))(2 (.)))) |ET| 
1  |BT| (4 (4 (2 (a))(4 (4 (stunning))(2 (2 (,))(2 (2 (Taxi))(2 (2 (Driver-esque))(2 (portrayal)))))))(2 (2 (of))(2 (2 (2 (a))(2 (man)))(1 (2 (teetering))(2 (2 (on))(1 (3 (2 (the))(3 (edge)))(2 (2 (of))(2 (sanity))))))))) |ET| 
-0.084998371117301366184371147483034  |BT| (3 (2 (2 (if))(3 (2 (you))(3 (2 ('ve))(3 (2 (2 (a))(2 (taste)))(3 (2 (for))(3 (2 (the))(2 (quirky))))))))(2 (2 (,))(2 (1 (steal))(2 (2 (a))(2 (glimpse)))))) |ET| 
1  |BT| (ROOT (2 (2 (Barry))(2 (2 (convinces))(3 (us))))(1 (2 (he))(1 (2 (2 ('s))(2 (2 (2 (a))(2 (2 (2 (dangerous))(2 (2 (,))(2 (2 (secretly))(2 (unhinged)))))(2 (guy))))(2 (2 (who))(2 (2 (2 (could))(3 (easily)))(2 (2 (have))(2 (2 (2 (killed))(2 (2 (a))(2 (president))))(3 (2 (because))(2 (2 (it))(3 (2 (made))(2 (2 (him))(2 (2 (feel))(4 (powerful)))))))))))))(2 (.))))) |ET| 
1  |BT| (4 (3 (2 (A))(3 (3 (compelling))(2 (2 (French))(2 (3 (psychological))(1 (drama))))))(2 (2 (2 (examining))(2 (2 (2 (the))(2 (encounter)))(2 (2 (of))(2 (2 (2 (2 (an))(2 (1 (aloof))(2 (father))))(2 (and)))(2 (2 (his))(2 (2 (chilly))(2 (son))))))))(2 (2 (after))(3 (2 (2 (20))(2 (years)))(2 (apart)))))) |ET| 
1  |BT| (ROOT (2 (2 (Many))(2 (2 (2 (2 (a))(2 (parent)))(2 (and)))(2 (2 (2 (2 (their))(2 (teen)))(2 (2 (2 (1 (-LRB-))(2 (or)))(2 (preteen)))(3 (-RRB-))))(2 (kid)))))(3 (2 (2 (2 (could))(2 (2 (bond))(2 (while))))(3 (2 (watching))(2 (2 (A))(2 (2 (Walk))(3 (2 (To))(2 (Remember)))))))(2 (.)))) |ET| 
-1  |BT| (ROOT (3 (2 (4 (2 (You))(2 (2 (never))(2 (2 (know))(2 (2 (where))(2 (2 (2 (Changing))(2 (Lanes)))(2 (2 (is))(3 (2 (going))(2 (2 (to))(2 (2 (take))(2 (you)))))))))))(2 (but)))(4 (2 (it))(4 (2 ('s))(3 (2 (2 (a))(2 (heck)))(2 (2 (of))(2 (2 (a))(2 (ride))))))))(2 (.))) |ET| 
-1  |BT| (ROOT (4 (4 (4 (Great))(4 (fun)))(2 (2 (both))(2 (2 (2 (2 (for))(3 (2 (sports))(2 (aficionados))))(2 (and)))(1 (2 (for))(2 (2 (1 (ordinary))(2 (louts)))(2 (2 (2 (2 (whose))(2 (idea)))(2 (2 (of))(2 (exercise))))(2 (2 (is))(2 (2 (climbing))(2 (2 (2 (the))(2 (steps)))(2 (2 (of))(3 (2 (a))(2 (2 (stadium-seat))(2 (megaplex))))))))))))))(2 (.))) |ET| 
-1  |BT| (3 (3 (thanks))(4 (2 (to))(3 (2 (2 (Huston))(2 ('s)))(3 (3 (revelatory))(2 (performance)))))) |ET| 
1  |BT| (4 (2 (action))(3 (2 (to))(3 (2 (keep))(3 (2 (things))(3 (1 (3 (moving))(2 (along)))(3 (2 (at))(3 (2 (a))(3 (4 (3 (brisk))(3 (2 (,))(4 (amusing))))(2 (pace)))))))))) |ET| 
1  |BT| (4 (2 (his))(3 (2 (smooth))(3 (2 (,))(3 (2 (shrewd))(3 (2 (,))(3 (4 (powerful))(2 (act)))))))) |ET| 
0.3090786156502317583161243419454  |BT| (4 (3 (2 (the))(3 (2 (visceral))(3 (excitement))))(3 (2 (of))(3 (2 (a))(3 (2 (sports))(3 (extravaganza)))))) |ET| 
-1  |BT| (3 (1 (secondary))(4 (2 (action))(3 (2 (to))(3 (2 (keep))(3 (2 (things))(3 (1 (3 (moving))(2 (along)))(3 (2 (at))(3 (2 (a))(3 (4 (3 (brisk))(3 (2 (,))(4 (amusing))))(2 (pace))))))))))) |ET| 
-1  |BT| (3 (2 (enough))(3 (1 (secondary))(4 (2 (action))(3 (2 (to))(3 (2 (keep))(3 (2 (things))(3 (1 (3 (moving))(2 (along)))(3 (2 (at))(3 (2 (a))(3 (4 (3 (brisk))(3 (2 (,))(4 (amusing))))(2 (pace)))))))))))) |ET| 
1  |BT| (4 (2 (You))(2 (2 (never))(2 (2 (know))(2 (2 (where))(2 (2 (2 (Changing))(2 (Lanes)))(2 (2 (is))(3 (2 (going))(2 (2 (to))(2 (2 (take))(2 (you))))))))))) |ET| 
1  |BT| (ROOT (2 (2 (2 (2 (You))(2 (2 (can))(3 (2 (2 (2 (sip))(2 (2 (your))(2 (2 (vintage))(2 (wines)))))(2 (and)))(3 (2 (watch))(2 (2 (your))(3 (2 (Merchant))(2 (2 (Ivory))(2 (productions)))))))))(2 (;)))(3 (3 (2 (2 (I))(2 (2 ('ll))(2 (2 (settle))(2 (2 (for))(3 (2 (2 (a))(2 (3 (nice))(2 (3 (cool))(2 (glass)))))(2 (2 (of))(2 (2 (iced))(2 (tea)))))))))(2 (and)))(3 (2 (2 (a))(2 (2 (Jerry))(2 (Bruckheimer))))(2 (2 (flick))(2 (2 (2 (any))(2 (day)))(2 (2 (of))(2 (2 (the))(2 (week)))))))))(2 (.))) |ET| 
-1  |BT| (ROOT (4 (3 (2 (A))(3 (3 (compelling))(2 (2 (French))(2 (3 (psychological))(1 (drama))))))(2 (2 (2 (examining))(2 (2 (2 (the))(2 (encounter)))(2 (2 (of))(2 (2 (2 (2 (an))(2 (1 (aloof))(2 (father))))(2 (and)))(2 (2 (his))(2 (2 (chilly))(2 (son))))))))(2 (2 (after))(3 (2 (2 (20))(2 (years)))(2 (apart))))))(2 (.))) |ET| 
-0.026797001615241150540569492477516  |BT| (2 (2 (is))(3 (3 (3 (3 (2 (2 (2 (uncomfortably))(2 (timely)))(2 (,)))(2 (relevant)))(2 (,)))(2 (and)))(3 (1 (sickeningly))(3 (real))))) |ET| 
-0.96953225662561681730267082457431  |BT| (2 (2 (2 (2 (You))(2 (2 (can))(3 (2 (2 (2 (sip))(2 (2 (your))(2 (2 (vintage))(2 (wines)))))(2 (and)))(3 (2 (watch))(2 (2 (your))(3 (2 (Merchant))(2 (2 (Ivory))(2 (productions)))))))))(2 (;)))(3 (3 (2 (2 (I))(2 (2 ('ll))(2 (2 (settle))(2 (2 (for))(3 (2 (2 (a))(2 (3 (nice))(2 (3 (cool))(2 (glass)))))(2 (2 (of))(2 (2 (iced))(2 (tea)))))))))(2 (and)))(3 (2 (2 (a))(2 (2 (Jerry))(2 (Bruckheimer))))(2 (2 (flick))(2 (2 (2 (any))(2 (day)))(2 (2 (of))(2 (2 (the))(2 (week))))))))) |ET| 
1  |BT| (4 (2 (but))(3 (2 (very))(3 (4 (pleasing))(3 (2 (at))(3 (2 (its))(3 (4 (best))(2 (moments)))))))) |ET| 
1  |BT| (ROOT (3 (2 (Works))(3 (2 (as))(3 (2 (4 (pretty))(2 (contagious)))(4 (fun)))))(2 (.))) |ET| 
1  |BT| (4 (2 (which))(3 (2 (I))(3 (2 (thought))(3 (2 (was))(3 (2 (rather))(4 (clever))))))) |ET| 
1  |BT| (4 (2 (as))(3 (2 (2 (2 (before))(1 (2 (,))(1 (2 (2 (2 (from))(2 (2 (the))(1 (incongruous))))(2 (but)))(2 (chemically)))))(3 (4 (perfect))(3 (teaming))))(2 (2 (of))(2 (2 (Crystal))(2 (2 (and))(2 (2 (De))(2 (Niro)))))))) |ET| 
-0.52886110918879380982104976283154  |BT| (3 (2 (2 (a))(2 (2 (young))(2 (woman))))(2 (2 (who))(2 (2 (2 (2 (2 (3 (wants))(2 (2 (many))(2 (things))))(2 (2 (in))(3 (life))))(2 (,)))(2 (but)))(2 (1 (fears))(2 (2 (she))(2 (2 ('ll))(2 (2 (2 (become))(2 (2 (her))(2 (mother))))(2 (2 (before))(3 (2 (she))(2 (2 (gets))(2 (2 (to))(2 (3 (fulfill))(2 (2 (her))(2 (dreams))))))))))))))) |ET| 
-0.46082431378533411647779871600505  |BT| (3 (1 (2 (1 (devastated))(2 (2 (by))(2 (1 (war))(2 (2 (,))(2 (2 (2 (famine))(2 (and)))(1 (poverty)))))))(2 (and)))(4 (2 (documented))(3 (1 (2 (the))(1 (2 (2 (cruelty))(2 (and)))(1 (suffering))))(3 (2 (he))(3 (2 (has))(3 (2 (found))(2 (2 (with))(2 (2 (an))(3 (0 (devastating))(2 (2 (,))(4 (4 (eloquent))(3 (clarity))))))))))))) |ET| 
1  |BT| (ROOT (2 (A))(3 (3 (2 (must))(3 (2 (2 (for))(2 (2 (2 (3 (fans))(2 (2 (of))(2 (2 (British))(2 (cinema)))))(2 (,)))(2 (2 (if))(2 (only)))))(2 (2 (because))(2 (2 (2 (2 (2 (so))(2 (many)))(2 (titans)))(2 (2 (of))(2 (2 (the))(2 (industry)))))(2 (2 (2 (are))(2 (along)))(2 (2 (for))(2 (2 (the))(2 (ride)))))))))(2 (.)))) |ET| 
1  |BT| (4 (3 (2 (Captures))(2 (2 (2 (2 (2 (2 (2 (2 (all))(2 (2 (the))(2 (longing))))(2 (,)))(2 (2 (1 (anguish))(2 (and)))(1 (ache))))(2 (,)))(1 (2 (the))(1 (1 (confusing))(2 (2 (sexual))(2 (messages))))))(2 (and)))(2 (2 (the))(2 (wish)))))(3 (2 (to))(2 (2 (be))(2 (2 (2 (a))(2 (part)))(2 (2 (of))(2 (2 (that))(2 (2 (elusive))(3 (2 (adult))(2 (world)))))))))) |ET| 
1  |BT| (4 (3 (2 (2 (2 (Glover))(2 (,)))(3 (2 (2 (the))(2 (2 (irrepressible))(2 (eccentric))))(2 (2 (2 (of))(2 (2 (2 (River))(2 ('s)))(2 (2 (Edge))(2 (2 (,))(1 (0 (Dead))(2 (Man)))))))(2 (2 (and))(2 (2 (Back))(2 (2 (to))(2 (2 (the))(2 (Future)))))))))(2 (,)))(3 (3 (2 (is))(4 (perfect)))(3 (2 (casting))(2 (2 (for))(2 (2 (the))(2 (role))))))) |ET| 
-0.41320900746003735859446237554948  |BT| (3 (3 (2 ('s))(3 (2 (2 (an))(2 (2 (actor))(2 ('s))))(3 (2 (showcase))(4 (2 (that))(3 (4 (3 (accomplishes))(2 (2 (its))(2 (2 (primary))(3 (goal)))))(3 (2 (2 (without))(2 (2 (2 (the))(2 (use)))(2 (2 (of))(2 (3 (special))(2 (effects))))))(3 (2 (,))(2 (2 (but))(2 (2 (rather))(2 (2 (by))(2 (3 (emphasizing))(2 (2 (the))(2 (characters))))))))))))))(2 (--))) |ET| 
-1  |BT| (ROOT (4 (3 (2 (Captures))(2 (2 (2 (2 (2 (2 (2 (2 (all))(2 (2 (the))(2 (longing))))(2 (,)))(2 (2 (1 (anguish))(2 (and)))(1 (ache))))(2 (,)))(1 (2 (the))(1 (1 (confusing))(2 (2 (sexual))(2 (messages))))))(2 (and)))(2 (2 (the))(2 (wish)))))(3 (2 (to))(2 (2 (be))(2 (2 (2 (a))(2 (part)))(2 (2 (of))(2 (2 (that))(2 (2 (elusive))(3 (2 (adult))(2 (world))))))))))(2 (.))) |ET| 
-1  |BT| (2 (2 (makes))(3 (2 (a))(4 (3 (valiant))(2 (2 (attempt))(2 (2 (to))(3 (2 (2 (tell))(2 (2 (2 (a))(2 (story)))(2 (2 (about))(2 (2 (the))(1 (2 (Vietnam))(1 (War)))))))(2 (2 (before))(2 (2 (2 (the))(2 (pathology)))(2 (2 (set))(2 (in))))))))))) |ET| 
1  |BT| (4 (3 (2 (emerges))(3 (2 (with))(3 (2 (yet))(3 (2 (another))(4 (3 (3 (4 (remarkable))(2 (yet)))(2 (shockingly)))(1 (2 (little-known))(2 (perspective))))))))(2 (.))) |ET| 
1  |BT| (ROOT (3 (3 (3 (2 (Brutally))(4 (honest)))(2 (and)))(4 (2 (told))(3 (2 (with))(3 (3 (4 (humor))(2 (and)))(1 (poignancy))))))(2 (2 (,))(3 (2 (which))(3 (3 (2 (makes))(2 (2 (its))(3 (2 (message))(2 (resonate)))))(2 (.)))))) |ET| 
0.70753805051281914995087163333665  |BT| (4 (2 (it))(2 (2 ('s))(3 (2 (more))(3 (2 (than))(3 (2 (a))(3 (3 (worthwhile))(2 (effort)))))))) |ET| 
0.15983680110323036926978090832563  |BT| (4 (3 (2 (It))(4 (2 ('s))(4 (2 (packed))(4 (2 (with))(3 (2 (3 (adventure))(2 (and)))(3 (2 (a))(3 (3 (worthwhile))(2 (2 (environmental))(2 (message))))))))))(2 (,))) |ET| 
-1  |BT| (3 (2 (I))(3 (2 (Spy))(3 (4 (3 (2 (is))(3 (3 (3 (2 (still))(4 (3 (4 (fun))(2 (and)))(3 (enjoyable))))(2 (and)))(2 (2 (so))(1 (2 (aggressively))(3 (silly))))))(3 (2 (that))(4 (2 (it))(2 (2 ('s))(3 (2 (more))(3 (2 (than))(3 (2 (a))(3 (3 (worthwhile))(2 (effort))))))))))(2 (.))))) |ET| 
-0.93744225715126650033681698914734  |BT| (3 (4 (3 (2 (is))(3 (3 (3 (2 (still))(4 (3 (4 (fun))(2 (and)))(3 (enjoyable))))(2 (and)))(2 (2 (so))(1 (2 (aggressively))(3 (silly))))))(3 (2 (that))(4 (2 (it))(2 (2 ('s))(3 (2 (more))(3 (2 (than))(3 (2 (a))(3 (3 (worthwhile))(2 (effort))))))))))(2 (.))) |ET| 
1  |BT| (4 (3 (2 (the))(3 (3 (potential))(3 (success))))(1 (2 (inherent))(2 (2 (in))(2 (2 (2 (the))(2 (mixture)))(2 (2 (of))(2 (2 (2 (2 (Bullock))(2 (Bubble)))(2 (and)))(2 (2 (Hugh))(2 (Goo))))))))) |ET| 
1  |BT| (4 (3 (2 (2 (2 (catch))(2 (2 (2 (the))(2 (pitch)))(2 (2 (of))(2 (2 (his))(2 (poetics))))))(2 (,)))(3 (3 (savor))(3 (3 (2 (the))(4 (pleasure)))(2 (2 (of))(2 (2 (his))(2 (2 (2 (sounds))(2 (and)))(2 (images))))))))(2 (,))) |ET| 
1  |BT| (4 (3 (2 (a))(3 (treat)))(2 (2 (watching))(2 (2 (2 (2 (2 (Shaw))(2 (,)))(2 (2 (a))(3 (2 (British))(2 (2 (stage))(2 (icon))))))(2 (,)))(2 (2 (melting))(2 (2 (under))(2 (2 (2 (the))(2 (heat)))(2 (2 (of))(2 (2 (2 (Phocion))(2 ('s)))(2 (attentions)))))))))) |ET| 
-0.25627065039883406560861089928949  |BT| (3 (2 (2 (made))(3 (2 (infinitely))(1 (2 (more))(2 (wrenching)))))(2 (2 (by))(2 (2 (2 (the))(2 (performances)))(2 (2 (of))(2 (2 (real-life))(2 (2 (spouses))(2 (2 (2 (Seldahl))(2 (and)))(2 (Wollter))))))))) |ET| 
-0.57432081395106682197848613213864  |BT| (2 (2 (you))(2 (2 (talking))(2 (2 ('til))(2 (2 (2 (the))(2 (end)))(2 (2 (of))(2 (2 (the))(2 (year)))))))) |ET| 
-0.056543102476032627845548006462195  |BT| (1 (2 (inherent))(2 (2 (in))(2 (2 (2 (the))(2 (mixture)))(2 (2 (of))(2 (2 (2 (2 (Bullock))(2 (Bubble)))(2 (and)))(2 (2 (Hugh))(2 (Goo)))))))) |ET| 
1  |BT| (4 (3 (2 (is))(3 (3 (3 (2 (still))(4 (3 (4 (fun))(2 (and)))(3 (enjoyable))))(2 (and)))(2 (2 (so))(1 (2 (aggressively))(3 (silly))))))(3 (2 (that))(4 (2 (it))(2 (2 ('s))(3 (2 (more))(3 (2 (than))(3 (2 (a))(3 (3 (worthwhile))(2 (effort)))))))))) |ET| 
1  |BT| (4 (2 (,))(3 (2 (I))(3 (2 (Spy))(3 (4 (3 (2 (is))(3 (3 (3 (2 (still))(4 (3 (4 (fun))(2 (and)))(3 (enjoyable))))(2 (and)))(2 (2 (so))(1 (2 (aggressively))(3 (silly))))))(3 (2 (that))(4 (2 (it))(2 (2 ('s))(3 (2 (more))(3 (2 (than))(3 (2 (a))(3 (3 (worthwhile))(2 (effort))))))))))(2 (.)))))) |ET| 
0.40437529233861363442414926794299  |BT| (ROOT (4 (3 (2 (Offers))(3 (2 (a))(3 (3 (guilt-free))(2 (trip)))))(3 (2 (into))(3 (3 (feel-good))(2 (territory)))))(2 (.))) |ET| 
-1  |BT| (ROOT (2 (Enigma))(4 (3 (2 (looks))(4 (4 (great))(3 (2 (,))(3 (2 (has))(4 (3 (3 (3 (solid))(2 (acting)))(2 (and)))(3 (2 (a))(3 (3 (neat))(2 (premise)))))))))(2 (.)))) |ET| 
-1  |BT| (3 (2 (,))(3 (2 (somehow))(3 (2 (it))(3 (2 (all))(3 (3 (3 (comes))(2 (together)))(4 (2 (to))(3 (3 (create))(4 (4 (2 (a))(4 (3 (4 (4 (4 (3 (4 (3 (2 (very))(3 (compelling)))(2 (,)))(2 (sensitive)))(2 (,)))(3 (intelligent)))(2 (and)))(2 (2 (almost))(3 (cohesive))))(2 (piece))))(3 (2 (of))(2 (2 (film))(3 (entertainment)))))))))))) |ET| 
-1  |BT| (3 (2 (somehow))(3 (2 (it))(3 (2 (all))(3 (3 (3 (comes))(2 (together)))(4 (2 (to))(3 (3 (create))(4 (4 (2 (a))(4 (3 (4 (4 (4 (3 (4 (3 (2 (very))(3 (compelling)))(2 (,)))(2 (sensitive)))(2 (,)))(3 (intelligent)))(2 (and)))(2 (2 (almost))(3 (cohesive))))(2 (piece))))(3 (2 (of))(2 (2 (film))(3 (entertainment))))))))))) |ET| 
1  |BT| (4 (2 (exude))(3 (2 (2 (2 (an))(2 (air)))(2 (2 (of))(2 (dignity))))(2 (2 (that))(3 (2 ('s))(3 (4 (perfect))(2 (2 (for))(3 (2 (2 (the))(3 (4 (proud))(2 (warrior))))(2 (2 (that))(2 (2 (still))(2 (2 (lingers))(2 (2 (in))(2 (2 (2 (the))(2 (souls)))(2 (2 (of))(2 (2 (these))(2 (characters)))))))))))))))) |ET| 
1  |BT| (4 (2 (this))(4 (3 (2 (is))(3 (2 (2 (a))(2 (movie)))(3 (2 (that))(2 (2 (will))(3 (3 (stimulate))(2 (2 (hours))(2 (2 (of))(2 (2 (2 (2 (post))(2 (2 (viewing))(2 (discussion))))(2 (,)))(2 (2 (if))(2 (2 (only))(2 (2 (to))(2 (2 (be))(2 (2 (reminded))(2 (2 (of))(2 (2 (who))(2 (2 (did))(2 (2 (2 (2 (what))(2 (2 (to))(2 (whom))))(2 (and)))(2 (why)))))))))))))))))))(2 (.)))) |ET| 
1  |BT| (4 (3 (2 (is))(3 (2 (2 (a))(2 (movie)))(3 (2 (that))(2 (2 (will))(3 (3 (stimulate))(2 (2 (hours))(2 (2 (of))(2 (2 (2 (2 (post))(2 (2 (viewing))(2 (discussion))))(2 (,)))(2 (2 (if))(2 (2 (only))(2 (2 (to))(2 (2 (be))(2 (2 (reminded))(2 (2 (of))(2 (2 (who))(2 (2 (did))(2 (2 (2 (2 (what))(2 (2 (to))(2 (whom))))(2 (and)))(2 (why)))))))))))))))))))(2 (.))) |ET| 
-0.34296789371822106184950484930596  |BT| (3 (1 (Narc))(3 (3 (2 (2 (2 (takes))(2 (2 (a))(2 (2 (walking-dead))(2 (2 (,))(2 (2 (cop-flick))(2 (subgenre)))))))(2 (and)))(3 (3 (2 (beats))(2 (3 (new))(3 (life))))(2 (2 (into))(2 (it)))))(2 (.)))) |ET| 
0.75807973467489830898813352177967  |BT| (4 (2 (is))(3 (2 (2 (the))(2 (2 (2 (heart))(2 (and)))(2 (soul))))(2 (2 (of))(2 (cinema))))) |ET| 
-0.35408577963877374550349941273453  |BT| (2 (2 (who))(3 (2 (are))(4 (2 (so))(3 (3 (believable))(3 (2 (that))(3 (2 (you))(2 (2 (feel))(2 (2 (what))(2 (2 (they))(2 (feel))))))))))) |ET| 
1  |BT| (4 (4 (great))(3 (2 (,))(3 (2 (has))(4 (3 (3 (3 (solid))(2 (acting)))(2 (and)))(3 (2 (a))(3 (3 (neat))(2 (premise)))))))) |ET| 
1  |BT| (4 (1 (creepy))(3 (2 (,))(4 (3 (2 (intermittently))(4 (powerful)))(2 (study))))) |ET| 
-0.13470761521107552094456139002432  |BT| (2 (3 (prime))(2 (2 (escapist))(2 (fare)))) |ET| 
-0.58460536558715781030315383759444  |BT| (ROOT (2 (It))(3 (3 (2 (is))(4 (3 (3 (2 (a))(3 (3 (likable))(2 (story))))(2 (,)))(3 (2 (told))(2 (2 (with))(3 (competence))))))(2 (.)))) |ET| 
0.81618883144387333050673305478995  |BT| (4 (3 (2 (2 (dressed))(2 (up)))(2 (2 (this))(2 (2 (little))(2 (parable)))))(4 (2 (in))(4 (3 (2 (a))(4 (2 (fairly))(3 (3 (irresistible))(2 (package)))))(4 (3 (full))(3 (2 (of))(3 (3 (2 (2 (privileged))(2 (moments)))(2 (and)))(3 (4 (memorable))(2 (performances))))))))) |ET| 
1  |BT| (4 (4 (2 (a))(3 (4 (terrific))(2 (role))))(1 (2 (for))(2 (2 (2 (2 (someone))(2 (2 (like))(2 (Judd))))(2 (,)))(2 (2 (who))(2 (2 (really))(2 (2 (ought))(2 (2 (to))(2 (2 (be))(2 (2 (playing))(1 (villains))))))))))) |ET| 
1  |BT| (4 (2 (2 (2 (2 (can))(1 (not)))(2 (help)))(2 (but)))(4 (4 (love))(2 (2 (2 (2 (2 (2 (Cinema))(2 (Paradiso)))(2 (,)))(2 (2 (whether))(2 (2 (the))(2 (3 (original))(2 (version))))))(2 (or)))(2 (2 (3 (new))(2 (2 (Director))(2 ('s))))(2 (Cut)))))) |ET| 
1  |BT| (4 (4 (4 (4 (2 (Such))(2 (2 (master))(2 (screenwriting))))(2 (3 (comes))(3 (2 (courtesy))(2 (2 (of))(2 (2 (2 (2 (John))(2 (Pogue)))(2 (,)))(2 (2 (2 (the))(3 (2 (Yale))(2 (grad))))(2 (2 (who))(2 (2 (previously))(2 (2 (2 (gave))(3 (us)))(2 (2 (``))(2 (2 (The))(2 (2 (Skulls))(2 (''))))))))))))))(2 (and)))(2 (2 (2 (last))(2 (year)))(2 (2 (2 ('s))(2 (``)))(2 (Rollerball))))) |ET| 
0.62930641486555527475132976178429  |BT| (4 (2 (Still))(2 (1 (rapturous))(2 (2 (after))(2 (2 (all))(2 (2 (these))(2 (years))))))) |ET| 
-0.42725920508849929424499691776873  |BT| (3 (3 (4 (4 (elegant))(3 (2 (,))(3 (3 (3 (witty))(2 (and)))(2 (beneath)))))(2 (2 (a))(2 (2 (prim))(2 (exterior)))))(3 (2 (unabashedly))(2 (romantic)))) |ET| 
-1  |BT| (ROOT (2 (`))(3 (2 (2 (Film))(2 (aficionados)))(4 (3 (4 (2 (2 (2 (2 (can))(1 (not)))(2 (help)))(2 (but)))(4 (4 (love))(2 (2 (2 (2 (2 (2 (Cinema))(2 (Paradiso)))(2 (,)))(2 (2 (whether))(2 (2 (the))(2 (3 (original))(2 (version))))))(2 (or)))(2 (2 (3 (new))(2 (2 (Director))(2 ('s))))(2 (Cut))))))(2 (.)))(2 ('))))) |ET| 
-1  |BT| (ROOT (4 (2 (2 (2 (2 (We))(2 (2 (want))(2 (2 (the))(2 (funk)))))(2 (-)))(2 (and)))(3 (2 (2 (this))(2 (movie)))(2 (2 ('s))(2 (2 (got))(2 (it))))))(2 (.))) |ET| 
0.15581426800957354217302963661496  |BT| (4 (4 (ingenious))(4 (fun))) |ET| 
-0.3970854667900537426916685035394  |BT| (3 (2 (though))(4 (2 (2 (2 (Wen))(2 ('s)))(2 (messages)))(4 (2 (are))(4 (3 (3 (profound))(2 (and)))(3 (2 (thoughtfully))(2 (delivered))))))) |ET| 
1  |BT| (4 (4 (2 (a))(4 (3 (4 (powerful))(3 (2 (,))(3 (2 (naturally))(3 (dramatic)))))(2 (piece))))(1 (2 (of))(1 (1 (low-budget))(2 (filmmaking))))) |ET| 
-1  |BT| (3 (4 (2 (is))(4 (4 (2 (a))(4 (3 (4 (powerful))(3 (2 (,))(3 (2 (naturally))(3 (dramatic)))))(2 (piece))))(1 (2 (of))(1 (1 (low-budget))(2 (filmmaking))))))(2 (.))) |ET| 
-0.016505066720211923614325399967129  |BT| (3 (2 (in))(3 (2 (2 (how))(2 (much)))(3 (2 (they))(3 (2 (3 (engage))(2 (and)))(3 (2 (even))(2 (3 (touch))(3 (us)))))))) |ET| 
-1  |BT| (1 (1 (not))(4 (2 (a))(3 (3 (good))(2 (movie))))) |ET| 
1  |BT| (4 (2 (2 (2 (2 (We))(2 (2 (want))(2 (2 (the))(2 (funk)))))(2 (-)))(2 (and)))(3 (2 (2 (this))(2 (movie)))(2 (2 ('s))(2 (2 (got))(2 (it)))))) |ET| 
1  |BT| (4 (3 (4 (2 (2 (2 (2 (can))(1 (not)))(2 (help)))(2 (but)))(4 (4 (love))(2 (2 (2 (2 (2 (2 (Cinema))(2 (Paradiso)))(2 (,)))(2 (2 (whether))(2 (2 (the))(2 (3 (original))(2 (version))))))(2 (or)))(2 (2 (3 (new))(2 (2 (Director))(2 ('s))))(2 (Cut))))))(2 (.)))(2 ('))) |ET| 
1  |BT| (4 (4 (love))(2 (2 (2 (2 (2 (2 (Cinema))(2 (Paradiso)))(2 (,)))(2 (2 (whether))(2 (2 (the))(2 (3 (original))(2 (version))))))(2 (or)))(2 (2 (3 (new))(2 (2 (Director))(2 ('s))))(2 (Cut))))) |ET| 
-1  |BT| (3 (4 (4 (4 (4 (2 (Such))(2 (2 (master))(2 (screenwriting))))(2 (3 (comes))(3 (2 (courtesy))(2 (2 (of))(2 (2 (2 (2 (John))(2 (Pogue)))(2 (,)))(2 (2 (2 (the))(3 (2 (Yale))(2 (grad))))(2 (2 (who))(2 (2 (previously))(2 (2 (2 (gave))(3 (us)))(2 (2 (``))(2 (2 (The))(2 (2 (Skulls))(2 (''))))))))))))))(2 (and)))(2 (2 (2 (last))(2 (year)))(2 (2 (2 ('s))(2 (``)))(2 (Rollerball)))))(2 (.))) |ET| 
-0.44985226559514962518804281899065  |BT| (2 (2 (2 (2 (2 (2 (Cinema))(2 (Paradiso)))(2 (,)))(2 (2 (whether))(2 (2 (the))(2 (3 (original))(2 (version))))))(2 (or)))(2 (2 (3 (new))(2 (2 (Director))(2 ('s))))(2 (Cut)))) |ET| 
-1  |BT| (3 (2 (as))(2 (2 (I))(3 (3 (2 (2 (was))(2 (,)))(2 (2 (2 (by))(2 (2 (its))(2 (moods))))(2 (3 (2 (,))(2 (and)))(2 (2 (by))(2 (2 (its))(2 (subtly)))))))(3 (2 (transformed))(2 (star)))))) |ET| 
0.58808882365035686223819766382803  |BT| (4 (2 (3 (crafted))(2 (here)))(3 (2 (a))(4 (3 (2 (2 (worldly-wise))(2 (and)))(4 (2 (very))(3 (funny))))(2 (script))))) |ET| 
1  |BT| (ROOT (2 (Delirious))(3 (4 (fun))(2 (.)))) |ET| 
0.077334858421860289134919241860189  |BT| (4 (2 (a))(4 (4 (smart))(3 (2 (,))(3 (3 (solid))(3 (2 (,))(4 (2 (kinetically-charged))(3 (2 (spy))(3 (2 (flick))(4 (worthy)))))))))) |ET| 
-1  |BT| (3 (2 (it))(4 (3 (2 (is))(4 (2 (a))(3 (4 (3 (remarkably))(3 (original)))(2 (work)))))(2 (.)))) |ET| 
-1  |BT| (ROOT (2 (...))(3 (2 (quite))(4 (3 (endearing))(2 (.))))) |ET| 
-0.70869516275414923267561562170158  |BT| (3 (2 (,))(4 (2 (you))(4 (3 (2 ('ll))(4 (2 (be))(3 (3 (rewarded))(3 (2 (with))(3 (2 (some))(4 (3 (fine))(2 (acting))))))))(2 (.))))) |ET| 
1  |BT| (4 (1 (2 (slovenly))(3 (life)))(2 (2 (in))(2 (3 (2 (this))(1 (1 (self-deprecating))(3 (2 (,))(3 (2 (biting))(3 (2 (and))(3 (3 (witty))(2 (feature))))))))(2 (2 (2 (3 (written))(2 (2 (by))(2 (2 (2 (2 (Charlie))(2 (Kaufman)))(2 (and)))(2 (2 (2 (2 (2 (his))(2 (2 (twin))(2 (brother))))(2 (,)))(2 (Donald)))(2 (,))))))(2 (and)))(2 (2 (directed))(2 (2 (by))(2 (2 (Spike))(2 (Jonze))))))))) |ET| 
1  |BT| (ROOT (3 (2 (2 (The))(2 (2 (movie))(2 ('s))))(3 (4 (captivating))(2 (details))))(3 (3 (2 (2 (2 (2 (are))(2 (all)))(2 (2 (in))(2 (2 (the))(2 (performances)))))(2 (,)))(2 (2 (from))(3 (2 (2 (2 (2 (2 (2 (Foreman))(2 ('s)))(2 (2 (barking-mad))(2 (Taylor))))(2 (to)))(2 (2 (2 (Thewlis))(2 ('s)))(3 (3 (smoothly))(2 (1 (sinister))(2 (Freddie))))))(2 (and)))(2 (2 (2 (Bettany\/McDowell))(2 ('s)))(2 (2 (hard-eyed))(1 (gangster)))))))(2 (.)))) |ET| 
1  |BT| (4 (2 (2 (3 (3 (2 (2 (What))(2 (2 (John))(2 (does))))(4 (2 (is))(4 (heroic))))(2 (,)))(2 (but)))(2 (2 (we))(2 (2 (2 (do))(2 (n't)))(2 (2 (condone))(2 (it))))))(2 (2 (,))(0 (2 (''))(0 (2 (2 (one))(2 (2 (of))(2 (2 (2 (the))(2 (2 (film))(2 ('s))))(2 (stars)))))(1 (1 (2 (2 (2 (recently))(2 (said)))(2 (,)))(1 (2 (2 (a))(2 (0 (tortuous))(2 (comment))))(1 (2 (that))(2 (4 (perfectly))(1 (3 (illustrates))(2 (2 (2 (the))(2 (2 (picture))(2 ('s))))(1 (2 (moral))(2 (schizophrenia)))))))))(2 (.))))))) |ET| 
-0.10464889717304581839840693646693  |BT| (ROOT (3 (3 (2 (A))(3 (2 (wild))(2 (ride))))(3 (2 (of))(3 (2 (2 (a))(2 (movie)))(2 (2 (that))(3 (2 (keeps))(2 (2 (throwing))(2 (fastballs))))))))(2 (.))) |ET| 
-0.091770689511325276299658071366139  |BT| (ROOT (2 (Bigelow))(3 (3 (3 (3 (2 (offers))(3 (2 (some))(3 (3 (flashy))(2 (twists)))))(2 (and)))(2 (2 (3 (2 (turns))(2 (that)))(2 (occasionally)))(1 (2 (fortify))(1 (2 (this))(1 (1 (turgid))(2 (fable)))))))(2 (.)))) |ET| 
-0.32130237406162187596692092483863  |BT| (2 (2 (offers))(3 (2 (2 (Tsai))(2 ('s)))(2 (2 (usual))(2 (3 (2 (style))(2 (and)))(2 (themes)))))) |ET| 
1  |BT| (4 (3 (2 (the))(3 (3 (heart-pounding))(2 (suspense))))(3 (2 (of))(4 (2 (a))(3 (3 (3 (stylish))(3 (psychological)))(3 (thriller)))))) |ET| 
1  |BT| (4 (2 (``))(3 (2 (2 (Bowling))(2 (2 (for))(2 (Columbine))))(3 (2 (''))(2 (3 (1 (remains))(3 (2 (a))(3 (1 (disquieting))(4 (2 (and))(3 (3 (thought-provoking))(2 (film)))))))(2 (...)))))) |ET| 
1  |BT| (ROOT (4 (3 (2 (an))(4 (admirable)))(2 (,)))(3 (2 (sometimes))(4 (3 (exceptional))(2 (film))))) |ET| 
-0.35744413741140329543455322891532  |BT| (ROOT (2 (It))(3 (3 (2 ('s))(3 (3 (3 (2 (a))(4 (3 (4 (satisfying))(2 (summer)))(3 (blockbuster))))(2 (and)))(3 (2 (worth))(2 (2 (a))(2 (look))))))(2 (.)))) |ET| 
1  |BT| (4 (3 (2 (2 (keep))(2 (2 (you))(2 (watching))))(2 (,)))(2 (2 (as))(2 (2 (will))(2 (2 (the))(2 (2 (fight))(2 (scenes))))))) |ET| 
-0.71097355418134322579959416543716  |BT| (3 (3 (2 (see))(2 (2 (a))(2 (movie))))(3 (3 (3 (2 (that))(3 (2 (embraces))(2 (2 (its))(3 (2 (old-fashioned))(2 (themes))))))(2 (and)))(3 (2 (in))(3 (2 (2 (the))(2 (process)))(4 (2 (3 (comes))(1 (out)))(3 (2 (looking))(4 (2 (like))(3 (2 (something))(2 (3 (wholly))(3 (original))))))))))) |ET| 
1  |BT| (ROOT (2 (2 (a))(2 (2 (screenplay))(2 (more))))(3 (4 (ingeniously))(2 (2 (constructed))(2 (2 (2 (2 (than))(2 (``)))(2 (Memento)))(2 ('')))))) |ET| 
1  |BT| (ROOT (4 (2 (3 (2 (1 (1 (Leave))(2 (it)))(2 (2 (to))(2 (2 (John))(2 (Sayles)))))(2 (2 (to))(2 (2 (take))(2 (2 (on))(2 (2 (2 (developers))(2 (,)))(2 (2 (2 (the))(2 (Chamber)))(2 (2 (of))(2 (2 (2 (2 (Commerce))(2 (,)))(2 (2 (2 (tourism))(2 (,)))(2 (2 (historical))(2 (pageants)))))(2 (,))))))))))(2 (and)))(3 (2 (1 (2 (commercialism))(2 (2 (all))(2 (2 (in))(2 (2 (the))(2 (2 (same))(2 (movie)))))))(2 (...)))(3 (2 (without))(2 (0 (2 (neglecting))(2 (2 (character))(2 (development))))(2 (2 (for))(2 (2 (even))(2 (2 (one))(2 (minute)))))))))(2 (.))) |ET| 
1  |BT| (ROOT (2 (3 (3 (2 (A))(3 (4 (thoughtful))(2 (movie))))(2 (,)))(3 (2 (2 (a))(2 (movie)))(2 (2 (that))(3 (2 (is))(2 (2 (concerned))(2 (2 (with))(2 (2 (2 (2 (2 (souls))(2 (and)))(2 (2 (2 (risk))(2 (and)))(2 (schemes))))(2 (and)))(2 (1 (2 (the))(2 (consequences)))(2 (2 (of))(2 (2 (2 (one))(2 ('s)))(2 (actions))))))))))))(2 (.))) |ET| 
