SVM-light Version V5.01-TK-1.5
5 # kernel type
3 # kernel parameter -d 
1 # kernel parameter -g 
1 # kernel parameter -s 
1 # kernel parameter -r 
empty# kernel parameter -u 
0.5 # kernel parameter -L 
1 # kernel parameter -T 
T # kernel parameter -C 
2 # kernel parameter -F 
1 # kernel parameter -S 
0.400000 # kernel parameter -M 
0 # kernel parameter -N 
S # kernel parameter -V 
A # kernel parameter -W 
0 # kernel parameter -U 
10 # highest feature index 
8544 # number of training documents 
6041 # number of support vectors plus 1 
1.029965 # threshold b, each following line is a SV (starting with alpha*y)
-0.0023978859408768332488193220086714  |BT| (ROOT (2 (2 (The))(2 (Rock)))(4 (3 (2 (is))(4 (2 (destined))(2 (2 (2 (2 (2 (to))(2 (2 (be))(2 (2 (the))(2 (2 (21st))(2 (2 (2 (Century))(2 ('s)))(2 (3 (new))(2 (2 (``))(2 (Conan)))))))))(2 ('')))(2 (and)))(3 (2 (that))(3 (2 (he))(3 (2 ('s))(3 (2 (going))(3 (2 (to))(4 (3 (2 (make))(3 (3 (2 (a))(3 (splash)))(2 (2 (even))(3 (greater)))))(2 (2 (than))(2 (2 (2 (2 (1 (2 (Arnold))(2 (Schwarzenegger)))(2 (,)))(2 (2 (Jean-Claud))(2 (2 (Van))(2 (Damme)))))(2 (or)))(2 (2 (Steven))(2 (Segal))))))))))))))(2 (.)))) |ET| 
-0.0014007970271376274980917875367936  |BT| (ROOT (4 (4 (2 (The))(4 (3 (gorgeously))(3 (2 (elaborate))(2 (continuation)))))(2 (2 (2 (of))(2 (``)))(2 (2 (The))(2 (2 (2 (Lord))(2 (2 (of))(2 (2 (the))(2 (Rings)))))(2 (2 (''))(2 (trilogy)))))))(2 (3 (2 (2 (is))(2 (2 (so))(2 (huge))))(2 (2 (that))(3 (2 (2 (2 (a))(2 (column)))(2 (2 (of))(2 (words))))(2 (2 (2 (2 (can))(1 (not)))(3 (adequately)))(2 (2 (describe))(2 (3 (2 (2 (co-writer\/director))(2 (2 (Peter))(3 (2 (Jackson))(2 ('s)))))(3 (2 (expanded))(2 (vision))))(2 (2 (of))(2 (2 (2 (J.R.R.))(2 (2 (Tolkien))(2 ('s))))(2 (Middle-earth))))))))))(2 (.)))) |ET| 
-0.0021434255300291152335212530033459  |BT| (ROOT (3 (2 (2 (2 (2 (2 (Singer\/composer))(2 (2 (Bryan))(2 (Adams))))(2 (2 (contributes))(2 (2 (2 (a))(2 (slew)))(2 (2 (of))(2 (songs))))))(2 (2 (--))(2 (2 (2 (2 (a))(2 (2 (few))(3 (potential))))(2 (2 (2 (hits))(2 (,)))(2 (2 (2 (a))(2 (few)))(1 (1 (2 (more))(1 (2 (simply))(2 (intrusive))))(2 (2 (to))(2 (2 (the))(2 (story))))))))(2 (--)))))(2 (but)))(3 (4 (2 (the))(3 (2 (whole))(2 (package))))(2 (3 (certainly))(3 (2 (captures))(2 (1 (2 (the))(2 (2 (2 (intended))(2 (2 (,))(2 (2 (er))(2 (,)))))(3 (spirit))))(2 (2 (of))(2 (2 (the))(2 (piece)))))))))(2 (.))) |ET| 
-0.0014583748537044314945443357345312  |BT| (ROOT (2 (Yet))(3 (2 (2 (the))(2 (act)))(3 (4 (3 (2 (is))(3 (2 (still))(4 (charming))))(2 (here)))(2 (.))))) |ET| 
-0.0016399741784535847976406186532472  |BT| (ROOT (2 (2 (Whether))(2 (2 (2 (2 (or))(1 (not)))(3 (2 (you))(2 (2 ('re))(3 (3 (enlightened))(2 (2 (by))(2 (2 (any))(2 (2 (of))(2 (2 (Derrida))(2 ('s))))))))))(2 (2 (lectures))(2 (2 (on))(2 (2 (``))(2 (2 (2 (2 (2 (2 (the))(2 (other)))(2 ('')))(2 (and)))(2 (``)))(2 (2 (the))(2 (self)))))))))(3 (2 (,))(3 (2 (''))(3 (2 (Derrida))(3 (3 (2 (is))(4 (2 (an))(4 (4 (2 (undeniably))(3 (4 (3 (fascinating))(2 (and)))(4 (playful))))(2 (fellow)))))(2 (.))))))) |ET| 
0.0094472334068832295589368541754993  |BT| (ROOT (2 (2 (You))(2 (2 ('d))(2 (2 (think))(2 (2 (by))(2 (now))))))(2 (2 (America))(2 (2 (2 (would))(1 (2 (have))(2 (2 (2 (had))(1 (2 (enough))(2 (2 (of))(2 (2 (plucky))(2 (2 (British))(1 (eccentrics)))))))(4 (2 (with))(4 (3 (hearts))(3 (2 (of))(3 (gold))))))))(2 (.))))) |ET| 
0.0094472334068832295589368541754993  |BT| (ROOT (2 (You))(2 (1 (2 (Should))(2 (2 (1 (2 (Pay))(2 (2 (2 (Nine))(2 (Bucks)))(2 (2 (for))(2 (This)))))(2 (:)))(1 (2 (Because))(2 (2 (you))(2 (2 (can))(2 (2 (2 (2 (2 (hear))(2 (2 (about))(1 (1 (1 (suffering))(2 (2 (Afghan))(2 (refugees))))(2 (2 (on))(2 (2 (the))(2 (news)))))))(2 (and)))(2 (still)))(1 (2 (be))(2 (unaffected)))))))))(2 (.)))) |ET| 
0.0094472334068832295589368541754993  |BT| (ROOT (2 (3 (2 (3 (3 (2 (A))(3 (3 (thunderous))(2 (ride))))(3 (2 (at))(3 (3 (2 (first))(2 (2 (,))(2 (2 (quiet))(2 (cadences)))))(3 (2 (of))(4 (4 (pure))(3 (finesse)))))))(2 (2 (2 (are))(2 (few)))(2 (2 (and))(2 (2 (far))(2 (between))))))(2 (;)))(1 (2 (2 (their))(1 (shortage)))(3 (2 (dilutes))(2 (2 (2 (the))(2 (potency)))(2 (2 (of))(3 (3 (2 (otherwise))(3 (respectable)))(2 (action))))))))(2 (.))) |ET| 
0.0094472334068832295589368541754993  |BT| (ROOT (2 (2 (2 (2 (Post))(2 (9\/11)))(2 (2 (the))(2 (3 (philosophical))(2 (message)))))(2 (2 (2 (2 (of))(2 (``)))(2 (2 (Personal))(2 (4 (Freedom))(3 (First)))))(2 (''))))(1 (1 (2 (2 (might))(1 (not)))(2 (2 (be))(2 (2 (as))(2 (2 (palatable))(2 (2 (as))(2 (intended)))))))(2 (.)))) |ET| 
0.0094472334068832295589368541754993  |BT| (ROOT (2 (2 (near))(2 (2 (the))(2 (end))))(3 (3 (2 (takes))(2 (2 (on))(2 (2 (a))(2 (2 (whole))(2 (2 (other))(2 (meaning)))))))(2 (.)))) |ET| 
-0.0089432401844660898426742079436735  |BT| (ROOT (2 (It))(1 (2 (all))(1 (1 (3 (comes))(1 (2 (down))(2 (2 (to))(1 (2 (whether))(2 (2 (you))(1 (2 (can))(1 (2 (tolerate))(2 (3 (Leon))(1 (Barlow))))))))))(2 (.))))) |ET| 
-0.0017183486855708739095977000133075  |BT| (ROOT (2 (Overall))(4 (2 (,))(4 (2 (2 (Cletis))(2 (Tout)))(4 (3 (2 (is))(4 (4 (2 (a))(3 (3 (winning))(3 (comedy))))(3 (2 (that))(4 (3 (3 (4 (excites))(3 (2 (the))(3 (imagination))))(2 (and)))(4 (3 (tickles))(3 (2 (the))(3 (3 (funny))(2 (bone)))))))))(2 (.)))))) |ET| 
-0.00030834397789208776606215134385991  |BT| (ROOT (2 (It))(1 (1 (1 (2 (gets))(2 (old)))(2 (quickly)))(2 (.)))) |ET| 
0.0094472334068832295589368541754993  |BT| (ROOT (2 (2 (2 (Would))(2 (you)))(1 (3 (laugh))(2 (2 (if))(1 (2 (2 (a))(2 (2 (tuba-playing))(2 (dwarf))))(1 (2 (2 (rolled))(2 (down)))(2 (2 (2 (a))(2 (hill)))(1 (2 (in))(2 (2 (a))(1 (0 (trash))(2 (can)))))))))))(2 (?))) |ET| 
-0.002057520143676380870723097160635  |BT| (ROOT (2 (2 (2 (2 (2 (The))(2 (director)))(2 (,)))(2 (2 (Mark))(2 (Pellington))))(2 (,)))(2 (1 (2 (does))(2 (4 (2 (a))(3 (4 (terrific))(2 (job))))(0 (2 (2 (2 (conjuring))(2 (up)))(2 (2 (a))(2 (1 (sinister))(2 (2 (,))(1 (1 (menacing))(2 (atmosphere)))))))(1 (2 (though))(0 (1 (unfortunately))(0 (2 (2 (all))(2 (2 (the))(2 (story))))(2 (2 (gives))(2 (3 (us))(2 (2 (is))(2 (2 (flashing))(2 (2 (2 (1 (2 (2 (2 (red))(2 (lights)))(2 (,)))(2 (2 (a))(2 (2 (rattling))(2 (noise)))))(2 (,)))(2 (and)))(1 (2 (2 (a))(2 (bump)))(2 (2 (on))(2 (2 (the))(2 (head))))))))))))))))(2 (.)))) |ET| 
0.0040815925686315847331631090355586  |BT| (ROOT (2 (It))(3 (2 (1 (2 (may))(1 (not)))(2 (2 (3 (2 (be))(3 (2 (3 (3 (2 (2 (2 (as))(2 (cutting)))(2 (,)))(3 (2 (as))(3 (witty))))(2 (or)))(2 (2 (as))(3 (true))))(2 (2 (as))(2 (back)))))(2 (2 (in))(3 (2 (2 (2 (2 (the))(3 (2 (glory))(2 (days))))(2 (2 (of))(3 (Weekend))))(2 (and)))(2 (2 (2 (Two))(2 (or)))(2 (2 (Three))(2 (Things)))))))(1 (2 (2 (2 (2 (I))(2 (2 (Know))(2 (2 (About))(2 (Her)))))(2 (,)))(2 (but)))(2 (2 (who))(2 (2 (else))(2 (3 (engaged))(2 (2 (in))(2 (2 (filmmaking))(2 (2 (today))(3 (2 (is))(3 (2 (so))(2 (2 (cognizant))(2 (2 (of))(2 (2 (2 (the))(2 (2 (2 (3 (cultural))(2 (and)))(2 (moral)))(2 (issues))))(2 (2 (involved))(2 (2 (in))(2 (2 (the))(2 (process)))))))))))))))))))(2 (?)))) |ET| 
-0.0004180783036127990229778583763931  |BT| (ROOT (3 (2 (Old-fashioned))(4 (2 (but))(4 (4 (2 (thoroughly))(4 (satisfying)))(3 (entertainment)))))(2 (.))) |ET| 
0.0094472334068832295589368541754993  |BT| (ROOT (3 (2 (One))(3 (2 (of))(3 (2 (2 (the))(3 (pleasures)))(2 (2 (in))(2 (2 (2 (Walter))(2 ('s)))(2 (documentary)))))))(1 (2 (...))(2 (2 (2 (is))(2 (2 (2 (2 (2 (2 (3 (2 (the))(2 (parade)))(2 (2 (of))(2 (3 (veteran))(3 (painters)))))(2 (,)))(2 (2 (confounded))(2 (dealers))))(2 (,)))(2 (and)))(1 (1 (2 (miscellaneous))(2 (bohos)))(2 (2 (who))(2 (2 (2 (expound))(2 (2 (upon))(2 (2 (2 (the))(2 (2 (subject))(2 ('s))))(3 (3 (mysterious))(3 (personality))))))(2 (2 (without))(2 (2 (ever))(2 (2 (explaining))(2 (him))))))))))(2 (.))))) |ET| 
0.0073460474520099404080464289279462  |BT| (ROOT (3 (3 (3 (Colorful))(2 (2 (and))(3 (2 (deceptively))(2 (buoyant)))))(2 (2 (until))(2 (2 (it))(3 (2 (suddenly))(3 (2 (2 (2 (pulls))(2 (2 (the))(2 (rug))))(1 (out)))(2 (2 (from))(2 (2 (under))(2 (you)))))))))(3 (2 (,))(3 (2 (2 (2 (2 (Burkinabe))(2 (2 (filmmaker))(2 (2 (Dani))(2 (2 (Kouyate))(2 ('s))))))(2 (reworking)))(2 (2 (of))(2 (2 (2 (a))(2 (2 (folk))(2 (story))))(2 (2 (2 (whose))(2 (roots)))(2 (2 (2 (go))(2 (back)))(2 (2 (to))(2 (2 (7th-century))(2 (2 (oral))(2 (traditions))))))))))(1 (3 (2 (2 (is))(2 (also)))(3 (2 (a))(2 (2 (pointed))(2 (2 (political))(2 (allegory))))))(2 (.)))))) |ET| 
0.0094472334068832295589368541754993  |BT| (ROOT (1 (3 (4 (3 (2 (There))(3 (2 (2 ('s))(2 (1 (no))(1 (doubting))))(3 (2 (that))(3 (2 (this))(3 (2 (is))(2 (3 (2 (a))(3 (3 (2 (highly))(3 (3 (3 (ambitious))(2 (and)))(3 (personal))))(2 (project))))(2 (2 (for))(2 (Egoyan)))))))))(2 (,)))(2 (but)))(1 (2 (it))(1 (2 (2 ('s))(2 (also)))(1 (2 (one))(1 (2 (that))(2 (2 (,))(0 (2 (2 (next))(3 (2 (to))(4 (2 (his))(4 (4 (best))(2 (work))))))(1 (2 (,))(0 (2 (feels))(2 (1 (1 (clumsy))(2 (and)))(0 (convoluted))))))))))))(2 (.))) |ET| 
0.0094472334068832295589368541754993  |BT| (ROOT (2 (It))(2 (2 (2 ('s))(2 (2 (hard))(2 (2 (to))(2 (2 (fairly))(2 (2 (judge))(2 (2 (2 (2 (a))(2 (film)))(2 (2 (like))(1 (RINGU))))(2 (2 (when))(2 (2 (you))(2 (2 ('ve))(2 (2 (2 (seen))(2 (2 (the))(2 (remake))))(2 (first))))))))))))(2 (.)))) |ET| 
0.0094472334068832295589368541754993  |BT| (ROOT (2 (It))(3 (3 (2 (is))(3 (2 (there))(3 (2 (to))(3 (2 (3 (give))(2 (them)))(3 (2 (a))(3 (3 (good))(2 (time))))))))(2 (.)))) |ET| 
-0.0025413060480337949439966216402809  |BT| (ROOT (3 (3 (3 (3 (2 (This))(3 (2 (is))(3 (3 (2 (a))(3 (3 (2 (very))(3 (ambitious)))(2 (project))))(1 (2 (for))(1 (2 (a))(2 (2 (2 (fairly))(1 (inexperienced)))(2 (filmmaker))))))))(2 (,)))(2 (but)))(3 (4 (4 (3 (3 (3 (3 (good))(2 (actors)))(2 (,)))(3 (3 (good))(3 (poetry))))(2 (and)))(3 (3 (good))(2 (music))))(3 (2 (help))(2 (2 (sustain))(2 (it))))))(2 (.))) |ET| 
-0.0019580692063757795286227381126309  |BT| (ROOT (1 (2 (Despite))(3 (3 (2 (its))(3 (3 (promising))(2 (cast))))(2 (2 (of))(2 (characters)))))(1 (2 (,))(0 (2 (2 (Big))(1 (Trouble)))(0 (1 (2 (1 (remains))(0 (2 (2 (a))(1 (1 (2 (loosely))(2 (tied)))(2 (series))))(1 (2 (of))(0 (2 (vignettes))(2 (2 (which))(1 (2 (only))(1 (2 (prove))(2 (2 (that))(1 (2 (2 (`))(3 (2 (zany))(2 ('))))(2 (1 (1 (2 (does))(2 (n't)))(2 (necessarily)))(2 (1 (mean))(3 (2 (`))(3 (funny))))))))))))))(2 (.)))(2 (')))))) |ET| 
-0.0020264889412936332169223874188901  |BT| (ROOT (3 (2 (3 (2 (A))(2 (2 (mischievous))(3 (2 (visual))(2 (style)))))(2 (and)))(3 (2 (oodles))(3 (2 (of))(3 (charm)))))(3 (3 (2 (2 (make))(3 (2 (`))(3 (3 (Cherish))(2 (')))))(3 (2 (a))(2 (3 (3 (2 (very))(3 (good)))(2 (1 (-LRB-))(1 (2 (2 (but))(1 (1 (not))(4 (great))))(3 (-RRB-)))))(2 (movie)))))(2 (.)))) |ET| 
0.0094472334068832295589368541754993  |BT| (ROOT (2 (2 (If))(2 (2 (there))(2 (2 ('s))(2 (2 (2 (one))(2 (2 (big))(2 (point))))(2 (2 (to))(3 (Promises)))))))(2 (2 (,))(2 (2 (it))(2 (2 (2 ('s))(2 (2 (that))(2 (1 (nothing))(2 (2 (can))(2 (2 (change))(2 (2 (while))(2 (2 (2 (physical))(2 (2 (and))(2 (3 (psychological))(2 (barriers)))))(2 (2 (2 (keep))(2 (2 (the))(2 (sides))))(2 (2 (from))(2 (2 (2 (speaking))(2 (2 (even))(2 (2 (one))(2 (word)))))(2 (2 (to))(2 (2 (each))(2 (other))))))))))))))(2 (.)))))) |ET| 
0.0094472334068832295589368541754993  |BT| (ROOT (2 (2 (At))(2 (2 (2 (the))(2 (end)))(2 (2 (of))(2 (2 (the))(2 (movie))))))(2 (2 (2 (,))(2 (2 (2 (2 (my))(2 (2 (6-year-old))(2 (nephew))))(2 (said)))(2 (,))))(2 (2 (``))(2 (2 (2 (1 (2 (2 (2 (I))(2 (2 (guess))(2 (2 (I))(2 (2 (come))(2 (2 (from))(2 (2 (a))(2 (2 (broken))(3 (family)))))))))(2 (,)))(2 (and)))(2 (2 (2 (my))(2 (uncles)))(2 (2 (2 (2 (are))(1 (2 (all))(2 (aliens))))(2 (,)))(2 (too)))))(2 (.)))(2 ('')))))) |ET| 
0.0094472334068832295589368541754993  |BT| (ROOT (2 (3 (Super))(2 (Troopers)))(2 (3 (2 (is))(2 (3 (2 (2 (2 (2 (2 (2 (an))(2 (2 (odd))(2 (amalgam))))(2 (2 (of))(2 (3 (comedy))(2 (genres)))))(2 (,)))(2 (2 (existing))(2 (2 (somewhere))(2 (2 (between))(2 (2 (2 (the))(2 (2 (often))(2 (3 (literal))(2 (riffs)))))(2 (2 (of))(2 (2 (early))(2 (2 (Zucker))(2 (2 (Brothers\/Abrahams))(2 (films)))))))))))(2 (,)))(2 (and)))(2 (1 (2 (the))(1 (1 (2 (decidedly))(1 (foul)))(2 (stylings))))(2 (2 (of))(2 (2 (2 (2 (their))(2 (2 (post-modern))(2 (contemporaries))))(2 (,)))(2 (2 (The))(2 (2 (Farrelly))(2 (Brothers)))))))))(2 (.)))) |ET| 
0.0094472334068832295589368541754993  |BT| (ROOT (1 (-LRB-))(2 (2 (2 (Javier))(2 (Bardem)))(2 (3 (2 (2 (is))(3 (-RRB-)))(2 (2 (2 (one))(2 (2 (of))(2 (2 (the))(2 (few)))))(3 (2 (reasons))(2 (2 (to))(3 (2 (watch))(3 (2 (2 (2 (the))(2 (film)))(2 (,)))(2 (2 (which))(2 (2 (2 (director))(2 (2 (Gerardo))(2 (Vera))))(1 (2 (has))(1 (2 (drenched))(2 (2 (in))(3 (2 (2 (1 (swoony))(2 (music)))(2 (and)))(3 (2 (fever-pitched))(2 (melodrama)))))))))))))))(2 (.))))) |ET| 
-0.0023786702029513604080002142637795  |BT| (ROOT (1 (2 (While))(0 (2 (2 (the))(2 (film)))(1 (1 (2 (is))(1 (not)))(4 (2 (entirely))(4 (successful))))))(3 (2 (,))(2 (2 (it))(3 (2 (still))(3 (3 (2 (manages))(3 (2 (to))(3 (3 (2 (3 (string))(2 (together)))(3 (2 (2 (enough))(4 (charming)))(2 (moments))))(2 (2 (to))(2 (work))))))(2 (.))))))) |ET| 
0.0094472334068832295589368541754993  |BT| (ROOT (2 (2 (2 (2 (2 (Sometimes))(2 (3 (2 (this))(2 (3 (modest))(2 (2 (little))(2 (number)))))(2 (clicks))))(2 (,)))(2 (and)))(2 (2 (sometimes))(2 (2 (it))(1 (2 (does))(2 (n't))))))(2 (.))) |ET| 
0.0094472334068832295589368541754993  |BT| (ROOT (3 (3 (Saved))(3 (2 (from))(2 (2 (being))(3 (2 (merely))(3 (4 (way-cool))(3 (2 (by))(3 (2 (a))(2 (2 (basic))(3 (2 (,))(3 (3 (credible))(2 (compassion))))))))))))(2 (.))) |ET| 
0.0094472334068832295589368541754993  |BT| (ROOT (3 (3 (1 (2 (1 (Insomnia))(2 (2 (2 (does))(1 (not)))(3 (2 (2 (become))(3 (2 (one))(3 (2 (of))(2 (2 (those))(3 (3 (rare))(2 (remakes)))))))(2 (2 (to))(3 (2 (eclipse))(3 (2 (the))(3 (original))))))))(2 (,)))(2 (but)))(2 (2 (it))(2 (1 (2 (does))(2 (n't)))(2 (1 (1 (1 (disgrace))(2 (it)))(2 (,)))(2 (either))))))(2 (.))) |ET| 
0.0094472334068832295589368541754993  |BT| (ROOT (4 (1 (1 (2 (I))(1 (2 (3 (2 ('m))(1 (not)))(2 (generally)))(2 (3 (2 (a))(3 (fan)))(3 (2 (of))(2 (vegetables))))))(2 (but)))(4 (2 (2 (this))(3 (batch)))(3 (2 (is))(3 (4 (pretty))(3 (cute))))))(2 (.))) |ET| 
-0.0094472334068832295589368541754993  |BT| (ROOT (2 (3 (2 (A))(3 (2 (haunting))(2 (tale))))(2 (2 (of))(1 (2 (1 (murder))(2 (and)))(2 (mayhem)))))(2 (.))) |ET| 
-0.0020598282766396678634956973752423  |BT| (ROOT (2 (3 (2 (A))(2 (3 (sharp))(2 (satire))))(2 (2 (of))(1 (1 (desperation))(1 (2 (and))(1 (3 (cinematic))(1 (deception)))))))(2 (.))) |ET| 
-0.0022269070619321523069045198894855  |BT| (ROOT (2 (It))(1 (1 (2 ('s))(1 (2 (hard))(1 (2 (to))(1 (2 (believe))(1 (2 (2 (these))(2 (jokers)))(2 (2 (are))(2 (2 (supposed))(2 (2 (to))(1 (2 (have))(2 (2 (2 (pulled))(1 (off)))(2 (2 (2 (four))(2 (2 (similar))(2 (kidnappings))))(2 (before)))))))))))))(2 (.)))) |ET| 
0.0094472334068832295589368541754993  |BT| (ROOT (2 (2 (When))(1 (1 (Seagal))(2 (2 (appeared))(2 (2 (in))(2 (2 (an))(2 (2 (orange))(2 (2 (prison))(2 (jumpsuit)))))))))(2 (2 (,))(3 (2 (I))(2 (2 (2 (2 (wanted))(2 (2 (to))(2 (2 (3 (2 (2 (stand))(2 (up)))(2 (2 (in))(2 (2 (the))(3 (theater)))))(2 (and)))(2 (2 (2 (2 (2 (2 (shout))(2 (,)))(2 (`)))(2 (Hey)))(2 (,)))(2 (Kool-Aid))))))(2 (!)))(2 (')))))) |ET| 
0.0094472334068832295589368541754993  |BT| (ROOT (2 (It))(1 (1 (2 (2 (3 (comes))(1 (off)))(2 (2 (as))(2 (2 (so))(3 (silly)))))(2 (2 (that))(2 (2 (you))(2 (2 (2 (would))(2 (n't)))(2 (2 (2 (be))(3 (surprised)))(2 (2 (if))(2 (2 (2 (2 (BA))(2 (2 (,))(2 (2 (2 (Murdock))(2 (and)))(2 (rest)))))(2 (2 (of))(2 (2 (the))(2 (A-Team)))))(2 (2 (were))(2 (2 (seen))(2 (2 (2 (giving))(2 (chase)))(2 (2 (in))(2 (2 (a))(2 (2 (black))(2 (2 (and))(2 (2 (red))(2 (van)))))))))))))))))(2 (.)))) |ET| 
0.0094472334068832295589368541754993  |BT| (ROOT (4 (2 (A))(3 (4 (2 (really))(3 (funny)))(2 (fifteen-minute))))(1 (2 (short))(1 (1 (2 (2 (stretched))(2 (2 (beyond))(2 (2 (its))(2 (limits)))))(2 (2 (to))(2 (2 (fill))(2 (2 (an))(2 (2 (almost))(2 (3 (feature-length))(2 (film))))))))(2 (.))))) |ET| 
0.0094472334068832295589368541754993  |BT| (ROOT (2 (But))(2 (2 (it))(2 (1 (1 (2 (does))(2 (n't)))(2 (2 (need))(2 (2 (Gangs))(2 (2 (of))(2 (3 (New))(2 (York)))))))(2 (.))))) |ET| 
0.0094472334068832295589368541754993  |BT| (ROOT (1 (1 (2 (1 (2 (You))(1 (2 (can))(1 (2 (see))(1 (2 (2 (the))(2 (2 (would-be))(3 (surprises))))(2 (2 (2 (coming))(2 (2 (a))(2 (mile))))(2 (away)))))))(2 (,)))(2 (and)))(2 (2 (1 (2 (the))(2 (execution)))(2 (2 (of))(2 (2 (these))(2 (twists)))))(2 (2 (is))(2 (2 (delivered))(2 (2 (with))(2 (2 (a))(2 (hammer))))))))(2 (.))) |ET| 
0.0094472334068832295589368541754993  |BT| (ROOT (4 (4 (3 (2 (Simultaneously))(4 (2 (heartbreakingly))(4 (beautiful))))(2 (and)))(2 (4 (exquisitely))(1 (sad))))(2 (.))) |ET| 
0.0094472334068832295589368541754993  |BT| (ROOT (0 (1 (0 (1 (Smug))(0 (2 (,))(1 (1 (artificial))(1 (2 (,))(0 (0 (ill-constructed))(1 (2 (and))(0 (2 (fatally))(1 (overlong)))))))))(2 (...)))(0 (2 (it))(0 (2 (never))(1 (1 (1 (3 (3 (3 (2 (finds))(3 (2 (a))(2 (3 (consistent))(2 (tone)))))(2 (and)))(1 (lacks)))(1 (bite)))(2 (,)))(0 (1 (degenerating))(1 (2 (into))(1 (2 (a))(0 (2 (pious))(1 (2 (,))(1 (1 (preachy))(1 (2 (soap))(2 (opera)))))))))))))(2 (.))) |ET| 
0.0094472334068832295589368541754993  |BT| (ROOT (3 (2 (Has))(2 (3 (4 (2 (its))(3 (4 (charming))(2 (quirks))))(2 (and)))(1 (2 (its))(1 (0 (dull))(2 (spots))))))(2 (.))) |ET| 
-0.0064222165371993255103544306905405  |BT| (ROOT (2 (1 (2 (Overcomes))(2 (2 (its))(0 (2 (visual))(1 (hideousness)))))(4 (2 (with))(4 (3 (3 (2 (a))(3 (3 (sharp))(2 (script))))(2 (and)))(3 (3 (strong))(2 (performances))))))(2 (.))) |ET| 
-0.0017948411252675655624955197708914  |BT| (ROOT (2 (2 (Director))(1 (2 (Jay))(2 (Russell))))(0 (1 (2 (stomps))(2 (2 (in))(2 (2 (2 (hobnail))(2 (boots)))(2 (2 (over))(3 (2 (2 (Natalie))(2 (2 (Babbitt))(2 ('s))))(3 (3 (3 (gentle))(3 (2 (,))(3 (endearing))))(2 (2 (1975))(2 (2 (3 (children))(2 ('s)))(3 (novel))))))))))(2 (.)))) |ET| 
-0.0030166993284748643520953859109568  |BT| (ROOT (3 (2 (To))(3 (2 (2 (paraphrase))(2 (2 (a))(2 (line))))(2 (2 (from))(2 (2 (2 (another))(2 (2 (Dickens))(2 ('))))(3 (novel))))))(1 (2 (,))(1 (2 (2 (Nicholas))(2 (Nickleby)))(1 (1 (2 (is))(0 (2 (too))(1 (2 (much))(0 (2 (like))(1 (2 (2 (a))(2 (fragment)))(1 (2 (of))(1 (2 (an))(1 (1 (underdone))(2 (potato))))))))))(2 (.)))))) |ET| 
0.0062040141353964786338770487361671  |BT| (ROOT (2 (You))(2 (1 (2 (2 (come))(2 (away)))(1 (3 (2 (2 (2 (wishing))(2 (,)))(2 (though)))(2 (,)))(1 (2 (that))(1 (2 (2 (the))(2 (movie)))(2 (2 (spent))(2 (2 (2 (a))(3 (2 (2 (lot))(2 (less)))(2 (time))))(2 (2 (trying))(2 (2 (to))(3 (2 (2 (make))(3 (3 (2 (a))(3 (3 (credible))(2 (case))))(2 (2 (for))(2 (reports)))))(2 (2 (from))(2 (2 (2 (the))(2 (2 (1 (3 (afterlife))(2 (and)))(3 (2 (2 (a))(2 (lot)))(2 (more))))(2 (time))))(2 (2 (on))(2 (2 (2 (the))(3 (2 (romantic))(2 (urgency))))(2 (2 (that))(2 (2 ('s))(2 (2 (at))(2 (2 (2 (the))(2 (center)))(2 (2 (of))(2 (2 (the))(2 (story)))))))))))))))))))))(2 (.)))) |ET| 
0.0094472334068832295589368541754993  |BT| (ROOT (1 (2 (2 (Were))(2 (it)))(1 (1 (not))(2 (2 (for))(2 (2 (2 (a))(2 (3 (sentimental))(2 (resolution))))(2 (2 (that))(2 (2 (2 (explains))(2 (2 (2 (way))(2 (more)))(2 (2 (about))(2 (Cal)))))(2 (2 (than))(2 (2 (does))(2 (2 (2 (2 (2 (the))(2 (movie)))(2 (or)))(2 (2 (the))(2 (character))))(2 (2 (any))(3 (good))))))))))))(3 (2 (,))(3 (3 (2 (2 (Freundlich))(2 ('s)))(2 (2 (World))(2 (Traveler))))(4 (4 (2 (might))(4 (2 (have))(4 (2 (been))(3 (2 (one))(3 (2 (of))(3 (3 (2 (the))(3 (3 (2 (more))(3 (2 (2 (daring))(2 (and)))(2 (surprising))))(2 (2 (American))(2 (movies)))))(2 (2 (of))(2 (2 (the))(2 (year))))))))))(2 (.)))))) |ET| 
0.0094472334068832295589368541754993  |BT| (ROOT (2 (2 (As))(2 (2 (we))(2 (2 (have))(2 (2 (come))(2 (2 (to))(2 (learn)))))))(2 (2 (2 (--))(2 (2 (2 (as))(2 (2 (2 (many))(2 (times)))(2 (2 (as))(2 (2 (we))(2 (2 (have))(2 (2 (fingers))(3 (2 (to))(3 (2 (count))(2 (on))))))))))(2 (--))))(2 (2 (Jason))(2 (2 (2 (2 (is))(2 (2 (2 (a))(1 (killer)))(2 (2 (who))(2 (1 (2 (does))(2 (n't)))(1 (2 (know))(1 (2 (2 (the))(2 (meaning)))(2 (2 (of))(2 (2 (2 (2 (the))(2 (word)))(2 (`)))(2 (quit))))))))))(2 (.)))(2 (')))))) |ET| 
0.0094472334068832295589368541754993  |BT| (ROOT (1 (2 (If))(1 (2 (you))(3 (2 (can))(1 (2 (2 (tolerate))(2 (2 (the))(2 (2 (redneck-versus-blueblood))(2 (cliches)))))(2 (2 (that))(2 (2 (2 (the))(2 (film)))(2 (2 (trades))(2 (in)))))))))(2 (2 (,))(2 (2 (3 (Sweet))(4 (3 (Home))(2 (Alabama))))(2 (2 (2 (is))(2 (2 (diverting))(2 (2 (in))(2 (2 (2 (the))(2 (manner)))(2 (2 (of))(2 (2 (2 (Jeff))(2 (2 (Foxworthy))(2 ('s))))(2 (2 (stand-up))(2 (act)))))))))(2 (.)))))) |ET| 
0.0094472334068832295589368541754993  |BT| (ROOT (2 (It))(2 (2 (2 (2 (2 (2 (2 (1 (2 (may))(1 (not)))(2 (2 (be))(2 (history))))(2 (--)))(2 (but)))(2 (2 (then))(2 (again))))(2 (,)))(2 (2 (what))(2 (2 (if))(3 (2 (it))(2 (is))))))(2 (?)))) |ET| 
-0.0094472334068832295589368541754993  |BT| (ROOT (3 (Wedding))(1 (2 (2 (feels))(1 (2 (2 (a))(2 (bit)))(2 (anachronistic))))(2 (.)))) |ET| 
-0.0010693306210120456702789004665988  |BT| (ROOT (2 (But))(3 (2 (it))(3 (3 (2 (2 (does))(2 (somehow)))(3 (2 (manage))(2 (2 (to))(2 (3 (2 (get))(2 (you)))(2 (2 (under))(2 (2 (its))(2 (spell))))))))(2 (.))))) |ET| 
0.0094472334068832295589368541754993  |BT| (ROOT (4 (2 (Some))(3 (4 (stunning))(2 (visuals))))(1 (2 (--))(2 (0 (2 (and))(0 (2 (some))(2 (0 (2 (staggeringly))(0 (boring)))(2 (cinema)))))(2 (.))))) |ET| 
0.0094472334068832295589368541754993  |BT| (ROOT (3 (4 (4 (3 (2 (The))(3 (good)))(4 (2 (is))(4 (2 (very))(3 (2 (,))(3 (2 (very))(3 (good)))))))(2 (...)))(0 (2 (2 (The))(2 (rest)))(0 (2 (runs))(0 (2 (from))(0 (1 (2 (mildly))(1 (unimpressive)))(0 (2 (to))(0 (2 (despairingly))(2 (awful)))))))))(2 (.))) |ET| 
0.0094472334068832295589368541754993  |BT| (ROOT (2 (Basically))(1 (2 (,))(2 (2 (it))(1 (1 (2 ('s))(1 (3 (4 (pretty))(2 (but)))(1 (dumb))))(2 (.)))))) |ET| 
-0.0014418041778552213080105692810662  |BT| (ROOT (2 (2 (The))(2 (film)))(3 (3 (3 (3 (2 (feels))(3 (2 (uncomfortably))(3 (real))))(2 (,)))(2 (2 (2 (its))(3 (2 (2 (language))(2 (and)))(2 (locations))))(3 (2 (bearing))(3 (2 (2 (the))(2 (2 (unmistakable))(2 (stamp))))(2 (2 (of))(2 (authority)))))))(2 (.)))) |ET| 
-0.0048915774998341370050081167164535  |BT| (ROOT (2 (Rarely))(2 (1 (2 (has))(1 (3 (sex))(1 (2 (on))(1 (2 (screen))(1 (2 (been))(1 (2 (so))(1 (2 (aggressively))(2 (anti-erotic)))))))))(2 (.)))) |ET| 
-0.00068317544051584759914885758291803  |BT| (ROOT (3 (3 (2 (A))(3 (3 (feel-good))(2 (movie))))(2 (that)))(1 (1 (1 (2 (does))(2 (n't)))(3 (3 (give))(3 (2 (you))(3 (2 (enough))(3 (2 (to))(3 (2 (feel))(2 (3 (good))(2 (about)))))))))(2 (.)))) |ET| 
0.0094472334068832295589368541754993  |BT| (ROOT (3 (3 (3 (2 (2 (2 (2 (2 (2 (Reno))(2 (2 (does))(2 (2 (what))(2 (2 (he))(2 (2 (can))(2 (2 (in))(2 (2 (a))(1 (1 (thankless))(2 (situation))))))))))(2 (,)))(2 (2 (2 (the))(2 (film)))(2 (2 (2 (ricochets))(3 (2 (from))(4 (humor))))(2 (2 (to))(0 (violence))))))(2 (and)))(2 (2 (back))(2 (again))))(2 (,)))(2 (and)))(2 (2 (2 (Ryoko))(2 (Hirosue)))(2 (2 (makes))(2 (3 (us))(2 (3 (wonder))(2 (2 (if))(2 (2 (she))(2 (2 (2 (is))(2 (always)))(2 (2 (like))(2 (that)))))))))))(2 (.))) |ET| 
0.0060963482184037548483601653970254  |BT| (ROOT (3 (2 (For))(4 (2 (95))(3 (4 (2 (often))(4 (hilarious)))(2 (minutes)))))(2 (2 (,))(2 (2 (1 (-LRB-))(2 (2 (Cho))(3 (-RRB-))))(2 (2 (2 (2 (2 (riffs))(2 (2 (on))(2 (2 (2 (the))(2 (diciness)))(2 (2 (of))(2 (colonics))))))(2 (,)))(3 (2 (on))(2 (2 (2 (2 (straight))(2 (2 (versus))(1 (2 (gay))(2 (3 (personal))(2 (ads))))))(2 (,)))(2 (2 (2 (on))(2 (2 (how))(2 (2 (men))(2 (2 (would))(2 (2 (act))(3 (2 (if))(2 (2 (they))(2 (2 (had))(2 (periods))))))))))(2 (3 (2 (,))(2 (and)))(2 (2 (on))(2 (2 (2 (the))(2 (perils)))(3 (2 (of))(2 (2 (a))(2 (3 (certain))(2 (2 (outré))(2 (2 (sexual))(2 (practice))))))))))))))(2 (.)))))) |ET| 
0.0094472334068832295589368541754993  |BT| (ROOT (2 (3 (2 (2 (It))(1 (2 ('s))(1 (2 (like))(2 (2 (2 (an))(2 (2 (old))(2 (2 (Warner))(2 (2 (Bros.))(2 (costumer))))))(2 (2 (jived))(2 (2 (with))(3 (sex))))))))(2 (--)))(2 (2 (this))(2 (2 (could))(2 (2 (be))(2 (2 (2 (the))(2 (movie)))(2 (2 (2 (Errol))(2 (Flynn)))(2 (2 (always))(1 (2 (2 (2 (wanted))(2 (2 (to))(2 (make))))(2 (,)))(1 (2 (though))(3 (3 (2 (2 (2 (2 (Bette))(3 (Davis)))(2 (,)))(2 (2 (cast))(2 (2 (as))(2 (Joan)))))(2 (,)))(2 (2 (would))(2 (2 (have))(2 (2 (killed))(2 (him)))))))))))))))(2 (.))) |ET| 
0.0094472334068832295589368541754993  |BT| (ROOT (2 (2 (Though))(3 (2 (2 (2 (Haynes))(2 (')))(2 (style)))(2 (2 (2 (apes))(2 (films)))(2 (2 (from))(2 (2 (the))(2 (period)))))))(2 (2 (...))(2 (2 (2 (its))(2 (message)))(2 (3 (1 (2 (is))(1 (not)))(2 (3 (rooted))(2 (2 (in))(2 (2 (that))(2 (decade))))))(2 (.)))))) |ET| 
0.0094472334068832295589368541754993  |BT| (ROOT (2 (This))(2 (2 (1 (2 (2 (is))(2 (more)))(2 (2 (2 (a))(2 (case)))(2 (2 (2 (of))(2 (`)))(2 (2 (Sacre))(2 (bleu))))))(2 (!)))(2 (')))) |ET| 
0.0094472334068832295589368541754993  |BT| (ROOT (2 (2 (Even))(1 (2 (more))(2 (baffling))))(3 (3 (2 (is))(3 (2 (that))(4 (2 (it))(2 (2 ('s))(3 (funny))))))(2 (.)))) |ET| 
0.0094472334068832295589368541754993  |BT| (ROOT (3 (2 (A))(3 (2 (2 (3 (fascinating))(2 (but)))(0 (choppy)))(2 (documentary))))(2 (.))) |ET| 
0.0094472334068832295589368541754993  |BT| (ROOT (2 (Sometimes))(2 (2 (shorter))(3 (3 (2 (is))(4 (better)))(2 (.))))) |ET| 
-0.0011309729343804448154636732581935  |BT| (ROOT (3 (2 (0 (2 (2 (2 (White))(2 (Oleander)))(1 (2 (may))(2 (1 (leave))(2 (2 (you))(1 (1 (2 (rolling))(2 (2 (your))(2 (eyes))))(2 (2 (in))(1 (2 (the))(2 (dark)))))))))(2 (,)))(2 (but)))(2 (2 (that))(3 (1 (2 (does))(2 (n't)))(2 (1 (mean))(0 (2 (you))(1 (2 (2 (wo))(2 (n't)))(2 (2 (like))(2 (2 (looking))(2 (2 (at))(2 (it)))))))))))(2 (.))) |ET| 
-0.0017495173406718573898277480083152  |BT| (ROOT (2 (2 (One))(0 (2 (of))(1 (2 (the))(2 (2 (most))(1 (3 (highly-praised))(1 (0 (disappointments))(2 (I))))))))(1 (1 (2 ('ve))(1 (2 (2 (had))(2 (2 (the))(2 (misfortune))))(2 (2 (to))(2 (2 (watch))(2 (2 (in))(2 (2 (quite))(2 (2 (some))(2 (time)))))))))(2 (.)))) |ET| 
-0.0014752675833987101416955312060963  |BT| (ROOT (2 (2 (The))(2 (2 (overall))(2 (effect))))(4 (2 (2 (is))(3 (4 (3 (3 (2 (2 (awe))(2 (and)))(3 (affection)))(2 (--)))(2 (and)))(3 (2 (a))(2 (1 (strange))(2 (2 (urge))(3 (2 (to))(2 (1 (2 (2 (2 (get))(3 (2 (on))(2 (2 (a))(2 (board)))))(2 (and)))(2 (2 (,))(1 (2 (2 (2 (uh))(2 (,)))(2 (shred)))(2 (,)))))(2 (dude)))))))))(2 (.)))) |ET| 
0.0094472334068832295589368541754993  |BT| (ROOT (3 (2 (2 (2 (2 (2 (2 (The))(2 (sight)))(2 (2 (of))(2 (2 (the))(2 (2 (name))(2 (2 (Bruce))(2 (Willis)))))))(2 (2 (brings))(2 (2 (to))(2 (2 (mind))(2 (2 (images))(2 (2 (of))(2 (2 (a))(2 (1 (violent))(2 (2 (battlefield))(2 (2 (action))(2 (picture))))))))))))(2 (,)))(2 (but)))(2 (2 (2 (the))(2 (film)))(2 (2 (has))(1 (3 (2 (2 (a))(2 (lot)))(2 (more)))(2 (2 (on))(1 (3 (2 (its))(2 (mind)))(1 (2 (--))(1 (2 (maybe))(1 (2 (too))(2 (much)))))))))))(2 (.))) |ET| 
0.0094472334068832295589368541754993  |BT| (ROOT (2 (2 (The))(2 (members)))(2 (2 (2 (2 (2 (manage))(2 (2 (to))(2 (2 (2 (2 (pronounce))(2 (KOK)))(2 (exactly)))(2 (2 (as))(2 (2 (you))(2 (2 (think))(2 (2 (they))(2 (might)))))))))(2 (,)))(2 (3 (thus))(2 (2 (2 (giving))(2 (2 (the))(2 (cast))))(2 (3 (ample))(2 (2 (opportunity))(2 (2 (to))(2 (2 (2 (use))(2 (2 (that))(2 (term))))(2 (2 (2 (as))(2 (often)))(2 (2 (as))(2 (possible)))))))))))(2 (.)))) |ET| 
-0.0063578012427981459020465138110012  |BT| (ROOT (2 (2 (What))(2 (2 (might))(2 (2 (have))(2 (2 (been))(2 (3 (acceptable))(2 (2 (on))(2 (2 (2 (the))(2 (2 (printed))(2 (page))))(2 (2 (of))(2 (2 (3 (Iles))(2 (')))(2 (book)))))))))))(2 (1 (2 (2 (does))(1 (not)))(3 (3 (2 (translate))(3 (well)))(2 (2 (to))(2 (2 (the))(2 (screen))))))(2 (.)))) |ET| 
-0.0022625511045583210009701780052183  |BT| (ROOT (2 (2 (2 (2 (Whether))(2 (or)))(1 (not)))(2 (2 (you))(2 (2 (buy))(2 (2 (2 (Mr.))(2 (2 (Broomfield))(2 ('s))))(2 (findings))))))(3 (2 (,))(3 (2 (2 (the))(2 (film)))(3 (3 (4 (2 (acquires))(3 (2 (an))(3 (2 (undeniable))(2 (3 (entertainment))(2 (value))))))(3 (2 (as))(2 (2 (2 (the))(2 (2 (slight))(2 (2 (,))(2 (1 (pale))(2 (2 (Mr.))(2 (Broomfield)))))))(2 (2 (continues))(2 (2 (to))(3 (2 (2 (force))(2 (himself)))(2 (2 (2 (2 (on))(2 (people)))(2 (and)))(2 (2 (into))(2 (2 (situations))(2 (2 (that))(2 (2 (would))(2 (2 (make))(2 (2 (2 (lesser))(2 (men)))(1 (2 (run))(2 (2 (for))(2 (cover)))))))))))))))))(2 (.)))))) |ET| 
0.0094472334068832295589368541754993  |BT| (ROOT (2 (Fubar))(3 (3 (3 (2 (is))(3 (3 (4 (4 (2 (very))(3 (funny)))(2 (,)))(2 (but)))(2 (1 (not))(2 (always)))))(3 (2 (in))(3 (2 (a))(3 (3 (laugh-out-loud))(2 (way))))))(2 (.)))) |ET| 
0.0094472334068832295589368541754993  |BT| (ROOT (3 (2 (The))(2 (2 (directive))(2 (2 (to))(2 (2 (2 (2 (protect))(2 (2 (the))(2 (code))))(2 (2 (at))(2 (2 (all))(2 (costs)))))(2 (also))))))(2 (2 (begins))(2 (2 (to))(2 (2 (blur))(2 (2 (as))(3 (2 (2 (2 (the))(2 (importance)))(2 (2 (of))(2 (3 (3 (2 (the))(2 (man)))(2 (and)))(2 (2 (the))(2 (code))))))(2 (merge)))))))) |ET| 
0.0094472334068832295589368541754993  |BT| (ROOT (2 (2 (This))(3 (2 (sci-fi))(2 (2 (techno-sex))(3 (thriller)))))(1 (1 (1 (2 (1 (2 (starts))(2 (1 (out))(1 (bizarre))))(2 (and)))(2 (just)))(2 (2 (keeps))(1 (2 (getting))(2 (weirder)))))(2 (.)))) |ET| 
-0.0094472334068832295589368541754993  |BT| (ROOT (2 (2 (3 (Decent))(2 (but)))(0 (dull)))(2 (.))) |ET| 
-0.0094472334068832295589368541754993  |BT| (ROOT (2 (2 (This))(2 (one)))(2 (2 (1 (2 (is))(1 (not)))(0 (0 (2 (nearly))(1 (2 (as))(0 (dreadful))))(2 (2 (as))(1 (expected)))))(2 (.)))) |ET| 
-0.0094472334068832295589368541754993  |BT| (ROOT (2 (2 (Too))(0 (bad)))(2 (.))) |ET| 
0.0094472334068832295589368541754993  |BT| (ROOT (2 (2 (If))(2 (2 (2 (A))(2 (2 (Few))(2 (3 (Good))(3 (Men)))))(2 (3 (2 (told))(3 (us)))(2 (2 (that))(2 (2 (we))(2 (2 (``))(2 (2 (2 (ca))(2 (n't)))(2 (2 (2 (2 (handle))(2 (2 (the))(3 (truth))))(2 ('')))(2 (2 (than))(2 (2 (High))(2 (Crimes))))))))))))(2 (1 (2 (3 (poetically))(2 (2 (2 (states))(2 (2 (at))(2 (2 (2 (one))(2 (point)))(2 (2 (in))(2 (2 (this))(2 (movie)))))))(2 (2 (that))(1 (2 (we))(2 (2 (``))(1 (2 (2 (do))(2 (n't)))(3 (3 (care))(2 (2 (about))(2 (2 (the))(3 (truth)))))))))))(2 (.)))(2 ('')))) |ET| 
-0.0083070035061460992947823811505259  |BT| (ROOT (2 (2 (If))(2 (2 (Welles))(2 (2 (was))(1 (1 (unhappy))(2 (2 (at))(2 (2 (2 (the))(2 (prospect)))(2 (2 (of))(1 (2 (2 (the))(2 (2 (human))(3 (2 (race))(2 (splitting)))))(2 (2 (in))(2 (two)))))))))))(2 (2 (,))(1 (2 (he))(2 (2 (probably))(3 (2 (2 (2 (would))(2 (n't)))(2 (2 (be))(2 (2 (too))(2 (2 (crazy))(2 (2 (with))(2 (2 (2 (his))(2 (2 (great-grandson))(2 ('s))))(2 (2 (movie))(2 (2 (2 (splitting))(2 (up)))(2 (2 (in))(2 (2 (4 (pretty))(2 (much)))(2 (2 (the))(2 (2 (same))(2 (way))))))))))))))(2 (.))))))) |ET| 
-0.0022792264477873489490755698483326  |BT| (ROOT (3 (3 (1 (2 (A))(2 (2 (2 (2 (different))(2 (and)))(2 (2 (emotionally))(2 (reserved))))(2 (type))))(2 (2 (of))(2 (2 (survival))(2 (story)))))(3 (2 (--))(2 (1 (2 (2 (a))(2 (film)))(2 (less)))(3 (2 (2 (about))(1 (2 (1 (refracting))(2 (2 (all))(2 (2 (of))(3 (2 (World))(2 (1 (War))(2 (II)))))))(2 (2 (through))(2 (2 (2 (the))(2 (2 (specific))(2 (conditions))))(2 (2 (of))(2 (2 (one))(2 (man))))))))(2 (2 (,))(2 (2 (and))(2 (2 (more))(2 (2 (about))(2 (2 (that))(2 (man)))))))))))(2 (2 (2 (lost))(2 (2 (in))(2 (2 (its))(2 (midst)))))(2 (.)))) |ET| 
0.0094472334068832295589368541754993  |BT| (ROOT (2 (3 (2 (Just))(4 (entertaining)))(3 (2 (enough))(2 (1 (not))(1 (2 (to))(0 (hate))))))(0 (2 (,))(1 (1 (2 (too))(1 (mediocre)))(3 (2 (2 (to))(4 (love)))(2 (.)))))) |ET| 
0.0094472334068832295589368541754993  |BT| (ROOT (2 (Ah))(1 (2 (,))(1 (1 (2 (what))(1 (2 (the))(0 (hell))))(2 (.))))) |ET| 
0.0094472334068832295589368541754993  |BT| (ROOT (2 (1 (0 (0 (2 (There))(0 (2 ('s))(1 (1 (no))(3 (3 (real))(3 (2 (reason))(2 (2 (to))(3 (2 (see))(2 (it)))))))))(2 (,)))(2 (and)))(2 (3 (1 (no))(2 (3 (real))(2 (reason))))(2 (1 (not))(2 (to)))))(2 (.))) |ET| 
-0.0018539068880099140827766301953261  |BT| (ROOT (3 (4 (4 (4 (3 (2 (Executed))(2 (2 (with))(2 (2 (such))(3 (3 (3 (3 (gentle))(2 (but)))(2 (insistent)))(3 (sincerity))))))(2 (,)))(3 (2 (with))(3 (2 (such))(4 (3 (good))(4 (humor))))))(2 (and)))(3 (3 (3 (appreciation))(2 (2 (of))(2 (2 (the))(2 (daily)))))(3 (2 (grind))(2 (2 (that))(3 (2 (2 (only))(2 (2 (the))(2 (2 (most))(1 (2 (hardhearted))(2 (Scrooge))))))(1 (2 (could))(2 (1 (fail))(2 (2 (to))(2 (respond))))))))))(2 (.))) |ET| 
-0.0057778626290871954590544490315551  |BT| (ROOT (2 (`))(2 (2 (2 (Blue))(2 (Crush)))(3 (2 ('))(2 (1 (2 (2 (swims))(2 (away)))(2 (2 (with))(2 (2 (2 (the))(2 (1 (Sleeper))(2 (Movie))))(2 (2 (of))(2 (2 (the))(2 (2 (Summer))(3 (award))))))))(2 (.)))))) |ET| 
-0.0038065582580603181568623671893192  |BT| (ROOT (2 (Solondz))(1 (3 (2 (may))(3 (well)))(1 (2 (be))(1 (2 (2 (the))(2 (2 (only))(2 (one))))(1 (4 (laughing))(2 (2 (at))(2 (2 (his))(2 (2 (own))(1 (joke)))))))))) |ET| 
-0.001061188433433533006775006946043  |BT| (ROOT (0 (0 (1 (1 (1 (2 (2 (2 (2 (Some))(2 (2 (of))(2 (2 (the))(2 (characters)))))(0 (die)))(2 (and)))(2 (2 (3 (2 (2 (others))(2 (2 (do))(2 (n't))))(2 (,)))(2 (and)))(2 (2 (2 (the))(2 (film)))(2 (2 (pretends))(2 (2 (that))(2 (2 (2 (those))(2 (living)))(2 (2 (have))(2 (2 (learned))(2 (2 (2 (some))(2 (sort)))(2 (2 (of))(2 (lesson))))))))))))(2 (,)))(2 (and)))(2 (2 (,))(2 (2 (really))(2 (,)))))(1 (2 (2 (nobody))(2 (2 (in))(2 (2 (the))(2 (2 (viewing))(2 (audience))))))(3 (cares))))(2 (.))) |ET| 
-0.0046281104871906866143893566345469  |BT| (ROOT (3 (2 (With))(4 (4 (amazing))(3 (finesse))))(2 (2 (,))(2 (2 (2 (the))(2 (film)))(2 (2 (2 (2 (2 (shadows))(2 (2 (2 (Heidi))(2 ('s)))(2 (trip))))(2 (2 (back))(2 (2 (to))(2 (2 (2 (Vietnam))(2 (and)))(2 (2 (the))(2 (city)))))))(2 (2 (where))(2 (2 (2 (2 (2 (2 (her))(2 (mother)))(2 (,)))(2 (2 (Mai))(2 (2 (Thi))(2 (Kim)))))(2 (,)))(2 (2 (still))(2 (lives))))))(2 (.)))))) |ET| 
0.0094472334068832295589368541754993  |BT| (ROOT (2 (It))(1 (1 (3 (3 (3 (2 ('s))(3 (2 (fitfully))(3 (funny))))(2 (but)))(2 (never)))(3 (2 (really))(2 (2 (takes))(1 (off)))))(2 (.)))) |ET| 
-0.0026847467534523426248294075691092  |BT| (ROOT (2 (There))(3 (2 (2 ('s))(2 (2 (2 (1 (1 (back-stabbing))(2 (2 (,))(2 (2 (inter-racial))(2 (desire)))))(2 (and)))(2 (2 (,))(3 (3 (2 (most))(2 (importantly)))(2 (,)))))(2 (2 (2 (singing))(2 (and)))(3 (dancing)))))(2 (.)))) |ET| 
0.0094472334068832295589368541754993  |BT| (ROOT (3 (2 (Consider))(3 (2 (this))(2 (2 (review))(3 (life-affirming)))))(2 (.))) |ET| 
-0.0021657529763072884410046725633947  |BT| (ROOT (1 (3 (1 (1 (2 (3 (Devotees))(2 (2 (of))(2 (2 (2 (3 (Star))(2 (2 (Trek))(2 (II))))(2 (:)))(2 (2 (2 (The))(2 (Wrath)))(2 (2 (of))(2 (Khan)))))))(2 (2 (will))(3 (2 (feel))(2 (1 (2 (a))(2 (1 (nagging))(2 (sense))))(1 (2 (of))(2 (2 (deja))(2 (vu))))))))(2 (,)))(2 (and)))(1 (3 (3 (2 (the))(2 (grandeur)))(3 (2 (of))(3 (2 (the))(2 (4 (best))(2 (2 (Next))(2 (2 (Generation))(2 (episodes))))))))(1 (2 (is))(1 (lacking)))))(2 (.))) |ET| 
-0.0026605619277013481220606205823742  |BT| (ROOT (3 (2 (What))(3 (2 ('s))(3 (4 (invigorating))(2 (about)))))(1 (2 (it))(2 (1 (2 (is))(1 (2 (that))(1 (2 (it))(2 (1 (2 (does))(2 (n't)))(2 (3 (give))(2 (2 (a))(1 (damn))))))))(2 (.))))) |ET| 
-0.00050852869344466340630755984975053  |BT| (ROOT (3 (3 (Witty))(3 (2 (dialog))(3 (2 (between))(3 (2 (realistic))(2 (characters))))))(3 (3 (2 (showing))(3 (4 (honest))(2 (emotions))))(2 (.)))) |ET| 
0.0094472334068832295589368541754993  |BT| (ROOT (2 (2 (Most))(2 (2 (of))(2 (2 (the))(2 (film)))))(1 (1 (2 (feels))(1 (2 (2 (2 (conceived))(2 (and)))(2 (shot)))(2 (2 (on))(2 (2 (2 (2 (2 (2 (the))(2 (fly)))(2 (--)))(2 (2 (like))(2 (2 (between))(2 (2 (2 (lunch))(2 (breaks)))(2 (2 (for))(2 (2 (2 (Shearer))(2 ('s)))(2 (2 (radio))(2 (show)))))))))(2 (and)))(2 (2 (his))(2 (2 (Simpson))(2 (voice-overs))))))))(2 (.)))) |ET| 
0.0094111026452370384609569242684302  |BT| (ROOT (2 (Sensitively))(3 (3 (1 (2 (2 (2 (2 (examines))(2 (2 (2 (general))(2 (issues)))(2 (2 (of))(2 (2 (2 (race))(2 (and)))(2 (justice))))))(2 (2 (among))(2 (2 (the))(1 (poor)))))(2 (,)))(2 (and)))(2 (2 (specifically))(2 (2 (2 (1 (2 (raises))(2 (2 (serious))(2 (questions))))(2 (2 (about))(1 (2 (the))(1 (2 (death))(2 (penalty))))))(2 (and)))(2 (2 (asks))(1 (2 (what))(3 (2 (3 (3 (good))(1 (2 (the))(2 (execution))))(2 (2 (of))(2 (2 (a))(2 (2 (2 (mentally))(2 (challenged)))(2 (woman))))))(2 (2 (2 (could))(2 (possibly)))(2 (do)))))))))(2 (.)))) |ET| 
0.0094472334068832295589368541754993  |BT| (ROOT (1 (-LRB-))(2 (2 (2 (The))(2 (2 (digital))(2 (effects))))(2 (3 (-RRB-))(2 (2 (2 (reminded))(2 (2 (2 (3 (me))(2 (2 (of))(2 (2 (2 (Terry))(2 (2 (Gilliam))(2 ('s))))(2 (2 (rudimentary))(3 (2 (old))(2 (2 (Monty))(2 (3 (Python))(2 (cartoons)))))))))(2 (,)))(3 (2 (2 (in))(2 (which)))(2 (2 (he))(2 (2 (would))(2 (2 (2 (1 (2 (2 (cut))(1 (out)))(2 (figures)))(2 (2 (from))(2 (2 (2 (drawings))(2 (and)))(2 (photographs)))))(2 (and)))(2 (2 (2 (paste))(2 (them)))(2 (together)))))))))(2 (.)))))) |ET| 
-0.0012158192079707611996108873597677  |BT| (ROOT (2 (2 (More))(3 (2 (intimate))(2 (2 (than))(3 (spectacular)))))(4 (2 (,))(3 (2 (E.T.))(3 (3 (2 (is))(3 (2 (carried))(3 (2 (2 (less))(2 (2 (by))(3 (3 (wow))(2 (factors)))))(3 (2 (than))(4 (2 (by))(3 (4 (2 (its))(3 (3 (3 (funny))(3 (2 (,))(3 (moving))))(2 (yarn))))(3 (2 (that))(3 (3 (2 (holds))(2 (2 (up))(3 (well))))(2 (2 (after))(2 (2 (two))(2 (decades))))))))))))(2 (.)))))) |ET| 
0.0094472334068832295589368541754993  |BT| (ROOT (2 (2 (1 (Self-congratulatory))(2 (,)))(1 (1 (1 (2 (1 (2 (0 (misguided))(2 (,)))(2 (and)))(1 (ill-informed)))(2 (,)))(2 (if)))(3 (2 (nonetheless))(3 (2 (compulsively))(3 (watchable))))))(2 (.))) |ET| 
0.0094472334068832295589368541754993  |BT| (ROOT (2 (2 (What))(0 (2 (1 (Bloody))(2 (Sunday)))(1 (1 (lacks))(3 (2 (in))(3 (clarity))))))(4 (2 (,))(4 (2 (it))(3 (3 (2 (2 (makes))(2 (up)))(3 (2 (for))(3 (2 (with))(3 (2 (a))(4 (4 (great))(3 (2 (,))(4 (4 (fiery))(2 (passion)))))))))(2 (.)))))) |ET| 
0.0094472334068832295589368541754993  |BT| (ROOT (3 (3 (3 (2 (An))(3 (uplifting)))(2 (,)))(0 (2 (largely))(0 (1 (bogus))(2 (story)))))(2 (.))) |ET| 
-0.00031961878157267200771182724672315  |BT| (ROOT (1 (2 (Though))(0 (2 (it))(1 (1 (lacks))(3 (2 (2 (the))(1 (2 (utter))(2 (authority))))(3 (2 (of))(3 (2 (a))(3 (2 (genre))(3 (gem)))))))))(4 (2 (,))(4 (2 (there))(3 (3 (2 ('s))(3 (3 (2 (a))(3 (3 (certain))(3 (robustness))))(3 (2 (to))(3 (3 (2 (this))(3 (4 (engaging))(2 (mix))))(2 (2 (of))(3 (3 (4 (love))(2 (and)))(2 (bloodletting))))))))(2 (.)))))) |ET| 
-0.00035467477512350897026274787471323  |BT| (ROOT (2 (1 (-LRB-))(2 (2 (Ramsay))(3 (-RRB-))))(4 (3 (visually))(3 (3 (2 (transforms))(1 (1 (2 (2 (the))(1 (1 (dreary))(2 (expanse))))(1 (2 (of))(0 (1 (dead-end))(1 (distaste)))))(3 (2 (2 (the))(2 (characters)))(3 (2 (inhabit))(3 (2 (into))(3 (2 (2 (a))(2 (poem)))(2 (2 (of))(2 (2 (art))(2 (2 (,))(2 (2 (2 (music))(2 (and)))(3 (metaphor))))))))))))(2 (.))))) |ET| 
-0.00092649313791999434852114658767164  |BT| (ROOT (2 (1 (-LRB-))(2 (2 (Lee))(3 (-RRB-))))(0 (0 (2 (2 (treats))(2 (2 (his))(2 (audience))))(1 (2 (2 (the))(2 (2 (same))(2 (way))))(0 (2 (that))(0 (3 (2 (Jim))(2 (Brown)))(1 (2 (2 (2 (treats))(2 (2 (his))(2 (women))))(2 (--)))(1 (2 (as))(0 (0 (1 (dumb))(2 (2 (,))(1 (3 (credulous))(1 (2 (,))(1 (1 (unassuming))(2 (2 (,))(2 (subordinate))))))))(2 (subjects)))))))))(2 (.)))) |ET| 
0.0087065102784458000412248779298352  |BT| (ROOT (2 (2 (2 (2 (2 (There))(3 (2 (3 (2 ('s))(3 (2 (2 (a))(2 (bit)))(2 (2 (of))(2 (2 (2 (thematic))(2 (meat)))(2 (2 (on))(3 (2 (2 (the))(2 (bones)))(2 (2 (of))(2 (2 (Queen))(2 (2 (of))(2 (2 (the))(1 (Damned))))))))))))(2 (,)))(3 (2 (as))(2 (2 (2 (2 (its))(2 (origins)))(2 (2 (in))(2 (2 (an))(2 (2 (Anne))(2 (2 (Rice))(3 (novel)))))))(2 (dictate))))))(2 (,)))(2 (but)))(2 (2 (generally))(1 (2 (,))(2 (2 (it))(1 (2 ('s))(2 (2 (2 (a))(2 (movie)))(2 (2 (that))(1 (2 (emphasizes))(1 (2 (style))(2 (2 (over))(2 (2 (2 (character))(2 (and)))(2 (substance)))))))))))))(2 (.))) |ET| 
0.0094472334068832295589368541754993  |BT| (ROOT (2 (2 (2 (This))(2 (2 (heist))(2 (flick))))(2 (2 (about))(2 (2 (young))(2 (2 (Brooklyn))(2 (hoods))))))(2 (2 (2 (2 (is))(2 (3 (1 (off))(2 (2 (the))(2 (shelf))))(2 (2 (after))(2 (2 (two))(2 (years))))))(2 (2 (to))(2 (2 (capitalize))(2 (2 (on))(3 (2 (2 (the))(2 (popularity)))(2 (2 (of))(2 (2 (2 (2 (2 (2 (Vin))(2 (Diesel)))(2 (,)))(2 (2 (Seth))(2 (Green))))(2 (and)))(2 (2 (Barry))(2 (Pepper))))))))))(2 (.)))) |ET| 
-0.0024820941179253884316391332021112  |BT| (ROOT (2 (2 (As))(2 (2 (it))(2 (stands))))(1 (2 (,))(0 (2 (2 (Crocodile))(2 (Hunter)))(2 (2 (2 (has))(0 (1 (2 (the))(1 (2 (hurried))(1 (2 (,))(1 (1 (2 (badly))(2 (cobbled)))(2 (look))))))(2 (2 (of))(2 (2 (2 (2 (the))(2 (2 (1959))(2 (Godzilla))))(2 (,)))(2 (2 (which))(1 (2 (2 (2 (combined))(2 (scenes)))(2 (2 (of))(2 (2 (a))(2 (2 (Japanese))(2 (monster))))))(2 (2 (flick))(2 (2 (with))(2 (2 (2 (canned))(2 (shots)))(2 (2 (of))(2 (2 (2 (Raymond))(2 (Burr)))(2 (2 (commenting))(1 (2 (on))(2 (2 (2 (2 (the))(2 (2 (monster))(2 ('s))))(2 (path)))(1 (2 (of))(1 (destruction)))))))))))))))))(2 (.)))))) |ET| 
0.0094472334068832295589368541754993  |BT| (ROOT (2 (Yet))(0 (2 (another))(0 (1 (weepy))(1 (2 (Southern))(0 (1 (bore-athon))(2 (.))))))) |ET| 
0.0094472334068832295589368541754993  |BT| (ROOT (3 (Bond-inspired))(2 (?))) |ET| 
0.0094472334068832295589368541754993  |BT| (ROOT (0 (1 (1 (1 (Muddled))(2 (,)))(1 (trashy)))(2 (and)))(1 (incompetent))) |ET| 
-0.0094472334068832295589368541754993  |BT| (ROOT (2 (3 (4 (2 (Thoroughly))(4 (engrossing)))(2 (and)))(1 (2 (ultimately))(2 (tragic))))(2 (.))) |ET| 
-8.7724602974454006574893394354575e-05  |BT| (ROOT (2 (...))(0 (1 (1 (1 (1 (2 (2 (familiar))(2 (and)))(2 (predictable)))(2 (,)))(2 (and)))(2 (2 (4\/5ths))(2 (2 (of))(2 (it)))))(0 (1 (2 (2 (might))(2 (2 (as))(3 (well))))(1 (2 (have))(0 (2 (come))(1 (2 (from))(1 (2 (1 (2 (a))(2 (2 (Xerox))(2 (machine))))(2 (2 (rather))(2 (than))))(2 (1 (-LRB-))(2 (2 (writer-director))(2 (3 (-RRB-))(2 (Franc))))))))))(2 (.))))) |ET| 
-0.0042496268796066083081597319903722  |BT| (ROOT (2 (0 (Lame))(2 (3 (Sweet))(3 (Home))))(2 (1 (2 (leaves))(2 (2 (1 (no))(2 (2 (Southern))(2 (stereotype))))(1 (unturned))))(2 (.)))) |ET| 
0.0094472334068832295589368541754993  |BT| (ROOT (3 (2 (3 (3 (2 (2 (Twenty))(2 (2 (years))(2 (later))))(4 (2 (,))(3 (2 (Reggio))(2 (2 (still))(3 (2 (knows))(2 (2 (how))(3 (2 (to))(3 (2 (2 (make))(2 (2 (a))(2 (point))))(3 (2 (with))(4 (3 (poetic))(2 (imagery))))))))))))(2 (,)))(2 (but)))(2 (3 (2 (his))(3 (2 (ability))(2 (2 (to))(2 (startle)))))(2 (2 (has))(2 (2 (been))(1 (2 (1 (stifled))(2 (2 (by))(2 (2 (2 (the))(2 (2 (very))(2 (prevalence))))(2 (2 (of))(2 (2 (the))(2 (1 (fast-forward))(2 (technology))))))))(2 (2 (that))(2 (2 (he))(2 (2 (so))(2 (2 (stringently))(2 (2 (takes))(2 (2 (to))(2 (task)))))))))))))(2 (.))) |ET| 
0.0094472334068832295589368541754993  |BT| (ROOT (3 (1 (1 (0 (2 (2 (Another))(2 (2 (in))(2 (2 (2 (a))(2 (2 (long))(2 (line))))(2 (2 (of))(2 (2 (2 (1 (ultra-violent))(1 (1 (war))(2 (movies))))(2 (,)))(2 (2 (this))(2 (one))))))))(1 (2 (is))(1 (1 (1 (not))(2 (quite)))(2 (2 (what))(2 (2 (it))(2 (2 (could))(2 (2 (have))(2 (2 (been))(2 (2 (as))(2 (2 (a))(2 (film))))))))))))(2 (,)))(2 (but)))(3 (3 (2 (the))(3 (2 (2 (story))(2 (and)))(2 (theme))))(2 (2 (2 (make))(2 (up)))(2 (2 (for))(2 (it))))))(2 (.))) |ET| 
0.0074716116992755423828476146752564  |BT| (ROOT (2 (2 (2 (Alain))(2 (2 (Choquart))(2 ('s))))(2 (camera)))(3 (2 (barely))(3 (2 (2 (stops))(2 (3 (3 (2 (3 (moving))(2 (,)))(2 (2 (portraying))(2 (2 (2 (both))(1 (2 (the))(1 (turmoil))))(2 (2 (of))(2 (2 (the))(2 (time)))))))(2 (and)))(2 (2 (2 (giving))(2 (Conduct)))(3 (2 (2 (a))(3 (2 (perpetual))(2 (sense))))(2 (2 (of))(2 (2 (2 (urgency))(2 (,)))(2 (2 (which))(2 (2 (,))(2 (1 (2 (for))(1 (2 (2 (a))(2 (film)))(1 (2 (that))(1 (2 (2 (takes))(2 (2 (2 (nearly))(2 (three)))(2 (hours))))(2 (2 (to))(2 (unspool)))))))(3 (2 (,))(2 (2 (is))(3 (2 (both))(2 (3 (3 (funny))(2 (and)))(0 (irritating)))))))))))))))(2 (.))))) |ET| 
0.0094472334068832295589368541754993  |BT| (ROOT (2 (Otherwise))(2 (2 (,))(2 (2 (maybe))(2 (.))))) |ET| 
0.0094472334068832295589368541754993  |BT| (ROOT (2 (A))(2 (1 (drama))(2 (?)))) |ET| 
0.0094472334068832295589368541754993  |BT| (ROOT (1 (2 (1 (Thin))(2 (period)))(2 (piece)))(2 (.))) |ET| 
0.0094472334068832295589368541754993  |BT| (ROOT (2 (A))(1 (1 (dreary))(2 (1 (indulgence))(2 (.))))) |ET| 
-0.0035431769424189201236896629154671  |BT| (ROOT (2 (...))(4 (4 (2 (very))(3 (funny)))(4 (2 (,))(3 (2 (very))(3 (3 (enjoyable))(2 (...))))))) |ET| 
-0.0041343701623354532984078169022268  |BT| (ROOT (3 (2 (A))(3 (2 (3 (moving))(1 (2 (,))(3 (2 (if))(1 (1 (uneven))(2 (,))))))(3 (success))))(2 (.))) |ET| 
-0.0094472334068832295589368541754993  |BT| (ROOT (2 (So))(2 (3 (2 (could))(2 (4 (2 (young))(3 (romantics)))(2 (1 (out))(2 (2 (on))(3 (2 (a))(2 (date)))))))(2 (.)))) |ET| 
0.0094472334068832295589368541754993  |BT| (ROOT (2 (I))(2 (2 (2 (have))(2 (2 (2 (2 (1 (1 (no))(1 (problem)))(2 (2 (with))(2 (2 (``))(1 (1 (difficult))(2 (2 (''))(2 (movies)))))))(2 (,)))(2 (or)))(2 (2 (movies))(2 (2 (that))(2 (2 (ask))(3 (2 (2 (the))(2 (audience)))(1 (2 (to))(2 (2 (2 (2 (2 (meet))(2 (them)))(2 (halfway)))(2 (and)))(2 (2 (2 (connect))(2 (2 (the))(2 (dots))))(2 (2 (instead))(2 (2 (of))(2 (2 (2 (having))(2 (2 (things))(2 (all))))(2 (2 (spelled))(1 (out)))))))))))))))(2 (.)))) |ET| 
0.0061183415070702896337850873464959  |BT| (ROOT (2 (2 (2 (Jarecki))(2 (and)))(2 (Gibney)))(2 (2 (2 (do))(2 (2 (2 (find))(2 (2 (enough))(2 (material))))(2 (2 (to))(3 (2 (2 (2 (3 (bring))(2 (2 (2 (Kissinger))(2 ('s)))(2 (record))))(2 (2 (into))(2 (question))))(2 (and)))(3 (2 (explain))(0 (2 (how))(1 (2 (2 (2 (2 (the))(2 (2 (diplomat))(2 ('s))))(2 (2 (tweaked))(2 (version))))(2 (2 (of))(2 (statecraft))))(2 (2 (may))(1 (2 (have))(2 (2 (2 (2 (2 (cost))(2 (thousands)))(2 (and)))(2 (possibly)))(2 (2 (millions))(3 (2 (of))(2 (lives))))))))))))))(2 (.)))) |ET| 
-0.0017664414783956530578812316178983  |BT| (ROOT (2 (2 (The))(2 (film)))(4 (3 (2 (2 (is))(2 (...)))(2 (2 (determined))(3 (3 (2 (2 (2 (to))(3 (2 (3 (treat))(2 (1 (2 (2 (2 (its))(2 (characters)))(2 (,)))(3 (1 (1 (weak))(2 (and)))(3 (strong))))(2 (,))))(2 (2 (as))(2 (2 (2 (2 (2 (fallible))(2 (2 (human))(2 (beings))))(2 (,)))(1 (not)))(2 (caricatures))))))(2 (,)))(2 (and)))(2 (2 (to))(2 (2 (carefully))(1 (2 (delineate))(2 (2 (2 (the))(2 (cost)))(2 (2 (of))(2 (2 (2 (2 (2 (the))(2 (2 (inevitable))(1 (conflicts))))(2 (2 (between))(2 (2 (human))(2 (urges)))))(2 (and)))(2 (2 (2 (an))(2 (institution)))(2 (2 (concerned))(2 (2 (with))(2 (self-preservation))))))))))))))(2 (.)))) |ET| 
-0.0037002141251698014538795700190121  |BT| (ROOT (2 (A))(3 (2 (2 (chronicle))(3 (1 (not))(3 (2 (only))(2 (3 (2 (of))(2 (2 (2 (one))(2 (2 (man))(2 ('s))))(2 (2 (quest))(2 (2 (to))(2 (2 (be))(2 (president)))))))(2 (2 (2 (,))(2 (but)))(2 (2 (of))(2 (2 (how))(2 (2 (2 (that))(2 (man)))(3 (2 (single-handedly))(2 (2 (2 (turned))(2 (2 (2 (a))(2 (plane)))(2 (3 (full))(1 (2 (of))(2 (2 (2 (hard-bitten))(1 (2 (,))(1 (cynical))))(2 (journalists)))))))(1 (2 (into))(2 (2 (what))(2 (2 (2 (3 (2 (2 (was))(2 (essentially)))(2 (,)))(2 (2 (by))(2 (2 (2 (campaign))(2 ('s)))(2 (end)))))(2 (,)))(2 (2 (an))(2 (2 (extended))(2 (2 (publicity))(2 (department))))))))))))))))))(2 (.)))) |ET| 
0.0094472334068832295589368541754993  |BT| (ROOT (2 (Overall))(1 (2 (,))(1 (2 (it))(1 (1 (2 ('s))(1 (2 (a))(2 (1 (4 (pretty))(1 (mediocre)))(2 (3 (family))(2 (film))))))(2 (.)))))) |ET| 
0.0094472334068832295589368541754993  |BT| (ROOT (2 (So-so))(3 (3 (entertainment))(2 (.)))) |ET| 
0.0094472334068832295589368541754993  |BT| (ROOT (3 (2 (A))(3 (3 (3 (4 (perfectly))(3 (respectable)))(2 (,)))(3 (4 (perfectly))(1 (inoffensive)))))(1 (2 (,))(0 (0 (3 (easily))(0 (0 (forgettable))(2 (film))))(2 (.))))) |ET| 
-0.0094472334068832295589368541754993  |BT| (ROOT (2 (A))(2 (1 (reality-snubbing))(1 (1 (hodgepodge))(2 (.))))) |ET| 
-0.0011287744038229097134212741693204  |BT| (ROOT (2 (2 (2 (Allen))(2 ('s)))(3 (3 (underestimated))(3 (charm))))(3 (3 (3 (2 (delivers))(3 (2 (more))(4 (goodies))))(2 (2 (than))(1 (2 (lumps))(2 (2 (of))(2 (coal))))))(2 (.)))) |ET| 
-0.0094472334068832295589368541754993  |BT| (ROOT (2 (Eight))(2 (1 (2 (Legged))(2 (Freaks)))(2 (?)))) |ET| 
0.0094472334068832295589368541754993  |BT| (ROOT (3 (2 (It))(3 (2 (pulls))(2 (2 (2 (2 (the))(2 (rug)))(1 (out)))(2 (2 (from))(2 (2 (under))(2 (2 (2 (you))(2 (,)))(2 (2 (2 (just))(2 (when)))(2 (2 (you))(3 (2 (1 (2 (2 ('re))(1 (2 (ready))(2 (2 (to))(1 (0 (hate))(2 (2 (one))(2 (character)))))))(2 (,)))(2 (or)))(2 (2 (really))(2 (2 (sympathize))(2 (2 (with))(3 (2 (another))(2 (character)))))))))))))))(2 (2 (,))(2 (2 (something))(2 (2 (2 (happens))(2 (2 (to))(2 (2 (2 (2 (send))(2 (you)))(1 (off)))(2 (2 (in))(2 (2 (different))(2 (direction)))))))(2 (.)))))) |ET| 
0.0094472334068832295589368541754993  |BT| (ROOT (2 (2 (2 (The))(2 (path)))(2 (2 (2 (Ice))(2 (Age)))(2 (2 (follows))(3 (2 (most))(2 (closely))))))(2 (2 (,))(2 (2 (though))(2 (2 (,))(2 (2 (2 (is))(2 (2 (2 (the))(2 (one)))(2 (2 (established))(2 (2 (by))(2 (2 (2 (2 (Warner))(2 (2 (Bros.))(3 (2 (giant))(2 (2 (Chuck))(2 (Jones))))))(2 (,)))(1 (2 (who))(1 (1 (1 (died))(2 (2 (2 (a))(2 (matter)))(3 (2 (of))(2 (weeks)))))(2 (2 (before))(2 (2 (2 (the))(2 (2 (movie))(2 ('s))))(2 (release)))))))))))(2 (.))))))) |ET| 
0.0094472334068832295589368541754993  |BT| (ROOT (2 (2 (Well-meaning))(2 (2 (to))(1 (2 (a))(2 (fault)))))(2 (2 (,))(4 (2 (2 (Antwone))(2 (Fisher)))(3 (3 (2 (manages))(3 (2 (2 (the))(2 (1 (dubious))(2 (feat))))(3 (2 (of))(3 (3 (2 (turning))(4 (4 (2 (2 (one))(2 (2 (man))(2 ('s))))(3 (triumph)))(2 (2 (of))(2 (will)))))(3 (2 (into))(3 (2 (2 (everyman))(2 ('s)))(2 (3 (romance))(3 (comedy)))))))))(2 (.)))))) |ET| 
-0.0094472334068832295589368541754993  |BT| (ROOT (2 (2 (2 (2 (2 (Much))(2 (2 (has))(2 (2 (been))(2 (2 (3 (written))(2 (2 (about))(2 (2 (those))(2 (years)))))(2 (2 (when))(2 (2 (2 (the))(2 (2 (psychedelic))(2 ('60s))))(2 (2 (2 (grooved))(2 (over)))(2 (2 (into))(3 (2 (the))(2 (2 (gay))(2 ('70s))))))))))))(2 (,)))(2 (but)))(2 (2 (words))(2 (2 (2 (2 (do))(2 (n't)))(2 (really)))(2 (2 (do))(2 (2 (the))(2 (2 (era))(2 (justice))))))))(2 (.))) |ET| 
0.0094472334068832295589368541754993  |BT| (ROOT (1 (2 (A))(2 (1 (2 (somewhat))(0 (1 (0 (disappointing))(2 (and)))(1 (meandering))))(2 (saga))))(2 (.))) |ET| 
0.0094472334068832295589368541754993  |BT| (ROOT (2 (A))(2 (1 (2 (movie))(1 (2 (that))(1 (1 (1 (falls))(1 (victim)))(2 (2 (to))(1 (1 (2 (2 (frazzled))(3 (wackiness)))(2 (and)))(1 (2 (frayed))(2 (satire))))))))(2 (.)))) |ET| 
0.0094472334068832295589368541754993  |BT| (ROOT (4 (3 (4 (Charming))(2 (and)))(2 (3 (funny))(2 (1 (1 (2 (1 (-LRB-))(2 (but)))(2 (2 (ultimately))(3 (silly))))(3 (-RRB-)))(2 (movie)))))(2 (.))) |ET| 
-0.0094472334068832295589368541754993  |BT| (ROOT (2 (I))(2 (2 (also))(1 (1 (2 (believe))(1 (2 (that))(1 (3 (3 (Resident))(2 (Evil)))(1 (1 (2 (is))(1 (not)))(2 (it))))))(2 (.))))) |ET| 
-0.0048249222946883168691711851749915  |BT| (ROOT (2 (Ararat))(1 (2 (feels))(1 (2 (like))(2 (2 (a))(1 (2 (book))(2 (report))))))) |ET| 
-0.002137068538675788217234829957647  |BT| (ROOT (2 (2 (Qualities))(1 (2 (that))(1 (2 (were))(1 (2 (once))(4 (amusing))))))(1 (1 (2 (are))(1 (3 (becoming))(0 (irritating))))(2 (.)))) |ET| 
0.0094472334068832295589368541754993  |BT| (ROOT (2 (2 (3 (3 (2 (2 (The))(2 (actresses)))(3 (2 (may))(3 (2 (have))(2 (2 (2 (3 (worked))(2 (up)))(2 (2 (2 (a))(2 (2 (back))(2 (story))))(2 (2 (for))(2 (2 (the))(2 (women))))))(4 (2 (they))(3 (2 (portray))(3 (2 (so))(2 (convincingly)))))))))(2 (,)))(2 (but)))(2 (2 (viewers))(1 (2 (2 (do))(2 (n't)))(3 (2 (2 (get))(2 (2 (enough))(2 (2 (of))(2 (2 (2 (that))(2 (background)))(2 (2 (for))(2 (2 (the))(2 (characters))))))))(3 (2 (to))(2 (2 (be))(2 (2 (involving))(2 (2 (as))(2 (2 (2 (individuals))(2 (2 (rather))(2 (than))))(2 (types)))))))))))(2 (.))) |ET| 
0.0094472334068832295589368541754993  |BT| (ROOT (2 (2 (2 (A))(2 (2 (life-size))(2 (reenactment))))(2 (2 (of))(2 (2 (2 (those))(2 (2 (Jack))(2 (2 (Chick))(2 (2 (cartoon))(2 (tracts))))))(2 (2 (that))(2 (2 (always))(2 (2 (ended))(2 (2 (with))(2 (2 (2 (some))(2 (hippie)))(2 (getting))))))))))(2 (2 (2 (tossed))(2 (2 (into))(2 (2 (2 (the))(2 (lake)))(2 (2 (of))(2 (fire))))))(2 (.)))) |ET| 
-0.0031072958759873758882719130269834  |BT| (ROOT (3 (2 (2 (3 (2 (2 (Some))(2 (people)))(2 (2 (march))(2 (2 (to))(3 (2 (2 (the))(2 (beat)))(2 (2 (of))(2 (2 (a))(2 (2 (different))(2 (drum)))))))))(2 (,)))(2 (and)))(2 (2 (2 (if))(2 (2 (you))(2 (2 (ever))(2 (2 (wondered))(2 (2 (2 (2 (what))(3 (kind)))(2 (2 (of))(2 (houses))))(2 (2 (2 (those))(2 (people)))(2 (2 (live))(2 (in)))))))))(2 (2 (,))(2 (2 (2 (this))(2 (documentary)))(1 (2 (takes))(2 (2 (2 (a))(2 (look)))(2 (2 (at))(2 (2 (5))(3 (2 (alternative))(2 (2 (housing))(2 (options))))))))))))(2 (.))) |ET| 
-6.2951134950316533860602274952356e-05  |BT| (ROOT (4 (2 (3 (2 (1 (1 (Leave))(2 (it)))(2 (2 (to))(2 (2 (John))(2 (Sayles)))))(2 (2 (to))(2 (2 (take))(2 (2 (on))(2 (2 (2 (developers))(2 (,)))(2 (2 (2 (the))(2 (Chamber)))(2 (2 (of))(2 (2 (2 (2 (Commerce))(2 (,)))(2 (2 (2 (tourism))(2 (,)))(2 (2 (historical))(2 (pageants)))))(2 (,))))))))))(2 (and)))(3 (2 (1 (2 (commercialism))(2 (2 (all))(2 (2 (in))(2 (2 (the))(2 (2 (same))(2 (movie)))))))(2 (...)))(3 (2 (without))(2 (0 (2 (neglecting))(2 (2 (character))(2 (development))))(2 (2 (for))(2 (2 (even))(2 (2 (one))(2 (minute)))))))))(2 (.))) |ET| 
0.0094472334068832295589368541754993  |BT| (ROOT (1 (1 (1 (2 (So))(1 (2 (verbally))(1 (flatfooted))))(2 (and)))(1 (2 (so))(1 (2 (emotionally))(1 (1 (2 (predictable))(2 (or)))(1 (bland))))))(1 (2 (2 (that))(1 (2 (it))(1 (2 (plays))(1 (2 (like))(1 (2 (the))(2 (1 (standard))(1 (1 (made-for-TV))(2 (movie)))))))))(2 (.)))) |ET| 
0.0094472334068832295589368541754993  |BT| (ROOT (2 (0 (0 (0 (2 (It))(0 (1 (1 (2 (1 (2 ('s))(1 (1 (not))(3 (life-affirming))))(2 (--)))(1 (2 (its))(0 (vulgar))))(2 (and)))(1 (mean))))(2 (,)))(2 (but)))(3 (2 (I))(3 (3 (liked))(2 (it)))))(2 (.))) |ET| 
0.0094472334068832295589368541754993  |BT| (ROOT (2 (...))(3 (3 (3 (2 (a))(3 (3 (1 (0 (2 (fairly))(1 (disposable)))(2 (yet)))(2 (2 (still))(4 (entertaining))))(2 (B))))(2 (picture)))(2 (.)))) |ET| 
-0.0026764295927932295685036656607281  |BT| (ROOT (3 (1 (1 (1 (2 (May))(2 (2 (lack))(1 (1 (2 (the))(3 (0 (pungent))(1 (bite))))(2 (2 (of))(2 (2 (its))(2 (title)))))))(2 (,)))(2 (but)))(3 (2 (it))(3 (2 (2 ('s))(3 (2 (an))(3 (3 (enjoyable))(2 (trifle)))))(2 (nonetheless)))))(2 (.))) |ET| 
-0.0023915019322425334728776658010929  |BT| (ROOT (3 (3 (3 (3 (2 (It))(3 (3 (3 (2 ('s))(3 (3 (2 (more))(3 (enjoyable)))(2 (2 (than))(2 (2 (I))(1 (expected))))))(2 (,)))(2 (though))))(2 (,)))(2 (and)))(2 (2 (that))(3 (2 ('s))(2 (2 (because))(2 (3 (2 (the))(3 (laughs)))(2 (2 (come))(2 (2 (from))(3 (2 (2 (fairly))(2 (basic)))(2 (3 (comedic))(3 (constructs)))))))))))(2 (.))) |ET| 
-0.0094472334068832295589368541754993  |BT| (ROOT (2 (Why))(2 (?))) |ET| 
0.0094472334068832295589368541754993  |BT| (ROOT (4 (2 (While))(4 (3 (2 (2 (2 (Glover))(2 (,)))(3 (2 (2 (the))(2 (2 (irrepressible))(2 (eccentric))))(2 (2 (2 (of))(2 (2 (2 (River))(2 ('s)))(2 (2 (Edge))(2 (2 (,))(1 (0 (Dead))(2 (Man)))))))(2 (2 (and))(2 (2 (Back))(2 (2 (to))(2 (2 (the))(2 (Future)))))))))(2 (,)))(3 (3 (2 (is))(4 (perfect)))(3 (2 (casting))(2 (2 (for))(2 (2 (the))(2 (role))))))))(2 (2 (,))(2 (2 (he))(1 (2 (2 (represents))(2 (2 (2 (Bartleby))(2 ('s)))(2 (2 (main))(1 (2 (overall))(2 (flaw))))))(2 (.)))))) |ET| 
-0.0048117101424964498282421665464881  |BT| (ROOT (2 (2 (2 (Were))(3 (2 (2 (Dylan))(2 (Thomas)))(2 (3 (alive))(2 (2 (to))(2 (2 (witness))(2 (2 (first-time))(2 (director))))))))(1 (2 (2 (Ethan))(2 (2 (Hawke))(2 ('s))))(2 (2 (strained))(2 (2 (Chelsea))(2 (Walls))))))(1 (2 (2 (,))(2 (2 (2 (he))(2 (2 (might))(2 (2 (have))(2 (2 (been))(2 (2 (tempted))(2 (2 (to))(2 (2 (2 (change))(2 (2 (his))(2 (3 (landmark))(2 (poem)))))(2 (to)))))))))(2 (,))))(2 (2 (`))(1 (2 (2 (2 (2 (Do))(2 (Not)))(2 (2 (Go))(2 (2 (Gentle))(2 (2 (Into))(3 (2 (That))(3 (3 (Good))(2 (Theatre))))))))(2 (.)))(2 (')))))) |ET| 
-0.0010598767569363789879666182258688  |BT| (ROOT (0 (1 (1 (2 (1 (Contrived))(2 (,)))(1 (awkward)))(2 (and)))(2 (2 (filled))(2 (2 (with))(2 (2 (unintended))(3 (laughs))))))(1 (2 (,))(1 (2 (2 (the))(2 (film)))(2 (2 (2 (2 (shows))(2 (signs)))(1 (2 (that))(1 (1 (2 (2 (someone))(2 (other)))(2 (2 (than))(2 (2 (the))(2 (director)))))(2 (2 (2 (2 (got))(2 (2 (into))(2 (2 (the))(2 (2 (editing))(2 (room))))))(2 (and)))(2 (2 (tried))(2 (2 (to))(2 (2 (2 (improve))(2 (things)))(2 (2 (by))(2 (2 (making))(2 (2 (2 (the))(2 (movie)))(2 (2 (go))(2 (faster)))))))))))))(2 (.)))))) |ET| 
0.0094472334068832295589368541754993  |BT| (ROOT (2 (Calculated))(1 (1 (swill))(2 (.)))) |ET| 
0.0094472334068832295589368541754993  |BT| (ROOT (2 (Lavishly))(1 (2 (,))(1 (1 (3 (exhilaratingly))(2 (tasteless)))(2 (.))))) |ET| 
0.0094472334068832295589368541754993  |BT| (ROOT (3 (2 (Mildly))(4 (amusing)))(2 (.))) |ET| 
-0.0058031742255067750649311086874604  |BT| (ROOT (2 (It))(2 (3 (3 (2 (2 (2 (looks))(2 (closely)))(2 (,)))(4 (insightfully)))(2 (2 (at))(2 (2 (fragile))(2 (2 (,))(2 (3 (complex))(2 (relationships)))))))(2 (.)))) |ET| 
-0.0031774672927867373545263163236996  |BT| (ROOT (3 (2 (2 (A))(2 (lot)))(3 (2 (2 (2 (more))(2 (dimensional)))(2 (and)))(3 (3 (complex))(3 (2 (than))(3 (2 (its))(3 (2 (sunny))(2 (disposition))))))))(2 (2 (2 (would))(2 (2 (lead))(2 (2 (you))(2 (2 (to))(2 (believe))))))(2 (.)))) |ET| 
-0.0056876597024564743559915669379734  |BT| (ROOT (1 (2 (Contains))(1 (2 (2 (all))(2 (2 (the))(2 (substance))))(2 (2 (of))(2 (2 (2 (a))(2 (Twinkie)))(2 (2 (--))(1 (2 (3 (2 (2 (easy))(2 (2 (to))(2 (swallow))))(2 (,)))(2 (but)))(2 (2 (scarcely))(3 (nourishing)))))))))(2 (.))) |ET| 
0.0094472334068832295589368541754993  |BT| (ROOT (2 (2 (While))(2 (2 (we))(2 (2 (want))(2 (2 (2 (MacDowell))(2 ('s)))(2 (2 (character))(2 (2 (to))(2 (2 (retrieve))(2 (2 (her))(2 (husband))))))))))(2 (2 (,))(2 (2 (we))(1 (2 (2 (have))(2 (2 (to))(2 (2 (ask))(2 (2 (whether))(3 (2 (2 (her))(2 (3 (personal))(2 (odyssey))))(2 (4 (trumps))(1 (2 (2 (the))(2 (carnage)))(2 (2 (that))(2 (2 (claims))(2 (2 (2 (2 (so))(2 (many)))(2 (lives)))(2 (2 (around))(2 (her)))))))))))))(2 (.)))))) |ET| 
-0.0019474008725837356915261411316465  |BT| (ROOT (2 (2 (With))(2 (2 (2 (the))(2 (prospect)))(2 (2 (of))(2 (2 (films))(2 (2 (like))(2 (2 (2 (Kangaroo))(2 (Jack)))(2 (2 (about))(2 (2 (to))(2 (2 (burst))(2 (2 (across))(2 (2 (2 (America))(2 ('s)))(2 (2 (winter))(2 (2 (movie))(2 (screens)))))))))))))))(4 (2 (it))(3 (3 (2 ('s))(4 (2 (a))(3 (4 (pleasure))(2 (2 (to))(2 (2 (have))(2 (2 (2 (a))(2 (film)))(3 (2 (like))(2 (2 (2 (The))(2 (Hours)))(2 (2 (as))(2 (2 (an))(2 (alternative))))))))))))(2 (.))))) |ET| 
0.0094472334068832295589368541754993  |BT| (ROOT (2 (Meyjes))(1 (1 (1 (1 (2 (focuses))(2 (2 (too))(1 (2 (much))(1 (2 (on))(2 (2 (Max))(1 (2 (when))(1 (2 (he))(1 (2 (should))(1 (2 (be))(1 (3 (3 (filling))(2 (2 (the))(2 (screen))))(0 (2 (with))(2 (2 (0 (2 (this))(1 (1 (0 (tortured))(2 (2 (,))(0 (dull))))(2 (artist))))(2 (and)))(1 (monster-in-the))))))))))))))(2 (-)))(2 (making)))(2 (.)))) |ET| 
0.0094472334068832295589368541754993  |BT| (ROOT (2 (2 (If))(1 (2 (2 (this))(2 (movie)))(3 (2 (leaves))(2 (2 (you))(3 (cool))))))(3 (2 (,))(3 (2 (it))(3 (2 (also))(3 (3 (2 (leaves))(2 (2 (you))(3 (2 (intriguingly))(3 (contemplative)))))(2 (.))))))) |ET| 
0.0094472334068832295589368541754993  |BT| (ROOT (3 (2 (3 (2 (DeMeo))(3 (1 (2 (is))(1 (not)))(2 (2 (without))(3 (talent)))))(2 (;)))(1 (2 (he))(1 (2 (just))(1 (2 (needs))(2 (4 (better))(2 (material)))))))(2 (.))) |ET| 
-0.0014786899570790805295839032140748  |BT| (ROOT (4 (3 (2 (A))(2 (4 (fun))(3 (3 (family))(2 (movie)))))(4 (2 (that))(3 (2 ('s))(3 (3 (suitable))(3 (2 (for))(4 (2 (2 (2 (all))(2 (ages)))(2 (--)))(3 (2 (2 (a))(2 (movie)))(2 (2 (that))(3 (2 (will))(3 (2 (make))(3 (2 (you))(3 (laugh)))))))))))))(3 (1 (2 (,))(2 (2 (2 (2 (cry))(2 (and)))(2 (realize)))(2 (,))))(2 (2 (`))(3 (2 (It))(2 (3 (2 (2 (2 (2 ('s))(2 (never)))(1 (2 (too))(2 (late))))(3 (2 (to))(2 (2 (believe))(2 (2 (in))(2 (2 (your))(2 (dreams)))))))(2 (.)))(2 ('))))))) |ET| 
-0.0024360421707328326276775776193517  |BT| (ROOT (1 (2 (1 (1 (2 (You))(1 (2 (can))(1 (3 (2 (fire))(2 (2 (a))(2 (torpedo))))(3 (2 (through))(2 (2 (some))(2 (2 (of))(2 (2 (2 (Clancy))(2 ('s)))(2 (holes)))))))))(2 (,)))(2 (and)))(0 (2 (2 (the))(2 (scripters)))(1 (2 (2 (do))(2 (n't)))(2 (2 (deserve))(2 (2 (any))(2 (Oscars)))))))(2 (.))) |ET| 
-0.0094472334068832295589368541754993  |BT| (ROOT (0 (2 (1 (2 (Slap))(2 (her)))(2 (-)))(1 (2 (she))(1 (2 (2 ('s))(1 (not)))(3 (funny)))))(2 (!))) |ET| 
0.0094472334068832295589368541754993  |BT| (ROOT (2 (`))(2 (2 (2 (2 (2 (2 (2 (Tadpole))(2 (')))(2 (2 (was))(2 (2 (one))(2 (2 (of))(2 (2 (2 (the))(2 (films)))(2 (2 (so))(2 (2 (declared))(2 (2 (this))(2 (year))))))))))(2 (,)))(2 (but)))(2 (2 (it))(2 (2 ('s))(2 (2 (2 (really))(2 (more)))(2 (2 (of))(2 (2 (The))(3 (2 (Next))(3 (3 (Pretty))(3 (3 (Good))(2 (Thing)))))))))))(2 (.)))) |ET| 
-0.0025000692906801277003159267309229  |BT| (ROOT (2 (It))(4 (3 (2 (2 ('s))(2 (2 (2 (the))(3 (kind)))(2 (2 (of))(2 (movie)))))(2 (2 (that))(2 (2 (2 (,))(2 (2 (aside))(2 (2 (2 (from))(2 (2 (2 (2 (2 (2 (2 (2 (Robert))(2 (Altman)))(2 (,)))(2 (2 (Spike))(2 (Lee))))(2 (,)))(2 (2 (the))(3 (2 (Coen))(2 (Brothers)))))(2 (and)))(2 (2 (a))(2 (2 (few))(2 (others))))))(2 (,)))))(2 (3 (2 (our))(2 (moviemakers)))(2 (2 (2 (do))(2 (n't)))(2 (2 (make))(2 (2 (often))(2 (enough)))))))))(2 (.)))) |ET| 
0.0094472334068832295589368541754993  |BT| (ROOT (2 (Gere))(2 (1 (2 (gives))(1 (4 (2 (a))(3 (3 (good))(2 (performance))))(1 (2 (in))(0 (2 (2 (a))(2 (film)))(1 (2 (that))(1 (1 (2 (does))(2 (n't)))(3 (2 (merit))(2 (it)))))))))(2 (.)))) |ET| 
0.0094472334068832295589368541754993  |BT| (ROOT (3 (3 (Visually))(4 (exciting)))(1 (1 (2 (sci-fi))(1 (2 (film))(1 (2 (which))(2 (2 (suffers))(1 (2 (from))(0 (2 (a))(1 (1 (lackluster))(2 (screenplay)))))))))(2 (.)))) |ET| 
0.0094472334068832295589368541754993  |BT| (ROOT (0 (2 (Viewing))(1 (2 (this))(2 (1 (2 (1 (underdramatized))(2 (but)))(1 (overstated)))(2 (film)))))(1 (1 (2 (is))(1 (2 (like))(0 (2 (watching))(1 (2 (2 (a))(2 (transcript)))(1 (2 (of))(1 (1 (2 (a))(2 (2 (therapy))(2 (session))))(1 (2 (brought))(2 (2 (to))(1 (2 (1 (humdrum))(3 (life)))(1 (2 (by))(2 (2 (some))(1 (2 (Freudian))(2 (puppet))))))))))))))(2 (.)))) |ET| 
-0.0031486088558918341913372973550622  |BT| (ROOT (2 (There))(2 (0 (2 (2 (are))(2 (just)))(1 (1 (2 (1 (2 (too))(2 (2 (many))(2 (characters))))(2 (2 (saying))(1 (1 (2 (too))(2 (many)))(2 (4 (clever))(2 (things))))))(2 (and)))(1 (2 (getting))(1 (2 (into))(1 (2 (2 (too))(1 (2 (many))(0 (pointless))))(2 (situations)))))))(2 (.)))) |ET| 
-0.0029899857540897300210713805057594  |BT| (ROOT (2 (One))(3 (3 (2 (2 (ca))(2 (n't)))(1 (2 (deny))(3 (2 (its))(3 (2 (2 (seriousness))(2 (and)))(3 (quality))))))(2 (.)))) |ET| 
-0.00036924448195766899558090123889542  |BT| (ROOT (2 (Yet))(1 (1 (2 (why))(0 (2 (it))(0 (fails))))(2 (2 (2 (is))(3 (2 (2 (a))(2 (riddle)))(2 (2 (wrapped))(2 (2 (in))(2 (2 (2 (a))(2 (mystery)))(3 (2 (inside))(2 (2 (an))(2 (enigma)))))))))(2 (.))))) |ET| 
0.0057664969236050894058065452441042  |BT| (ROOT (3 (2 (A))(3 (3 (sterling))(2 (film))))(2 (2 (-))(2 (1 (2 (3 (2 (a))(2 (cross)))(2 (2 (between))(2 (Boys))))(2 (1 (2 (Do))(2 (n't)))(2 (1 (2 (2 (2 (2 (Cry))(2 (,)))(2 (Deliverance)))(2 (,)))(2 (and)))(2 (2 (2 (2 (Ode))(2 (2 (to))(2 (2 (Billy))(2 (Joe)))))(2 (-)))(3 (2 (2 (2 (2 (lies))(3 (2 (somewhere))(2 (2 (in))(2 (2 (2 (the))(2 (story)))(3 (2 (of))(2 (2 (Matthew))(2 (Shepard))))))))(2 (,)))(2 (but)))(2 (2 (that))(1 (2 (film))(2 (2 (2 (is))(2 (yet)))(2 (2 (to))(2 (2 (be))(2 (made))))))))))))(2 (.))))) |ET| 
-0.0027597043959795113099442431803254  |BT| (ROOT (3 (3 (3 (3 (3 (2 (A))(2 (journey)))(3 (2 (spanning))(2 (2 (3 (2 (2 (2 (nearly))(2 (three)))(2 (decades)))(3 (2 (of))(3 (3 (bittersweet))(2 (2 (3 (camaraderie))(2 (and)))(2 (history))))))(2 (,)))(2 (2 (2 (in))(2 (which)))(3 (2 (we))(3 (2 (feel))(2 (2 (that))(2 (2 (we))(2 (3 (truly))(2 (2 (know))(2 (2 (what))(2 (2 (makes))(2 (2 (2 (2 (Holly))(2 (and)))(2 (Marina)))(2 (tick)))))))))))))))(2 (,)))(2 (and)))(2 (2 (2 (our))(3 (hearts)))(2 (2 (2 (2 (go))(1 (out)))(2 (2 (to))(2 (them))))(2 (2 (as))(2 (2 (both))(2 (2 (continue))(2 (2 (to))(1 (2 (negotiate))(2 (2 (their))(1 (2 (1 (imperfect))(2 (2 (,))(2 (love-hate))))(2 (relationship))))))))))))(2 (.))) |ET| 
-0.0028204065516734409986565612626919  |BT| (ROOT (0 (2 (As))(2 (2 (2 (if))(2 (2 (trying))(2 (2 (to))(2 (2 (grab))(3 (2 (2 (a))(2 (lump)))(2 (2 (of))(2 (Play-Doh))))))))(2 (2 (,))(2 (2 (2 (the))(2 (harder)))(2 (2 (2 (that))(2 (Liman)))(2 (2 (tries))(2 (2 (to))(2 (2 (squeeze))(2 (2 (his))(2 (story)))))))))))(1 (2 (,))(2 (2 (2 (the))(2 (2 (more))(2 (details))))(2 (2 (2 (2 (slip))(1 (out)))(2 (2 (between))(2 (2 (his))(2 (fingers)))))(2 (.)))))) |ET| 
0.0094472334068832295589368541754993  |BT| (ROOT (2 (Possession))(1 (1 (2 (is))(1 (2 (in))(1 (2 (2 (the))(2 (end)))(1 (2 (an))(1 (2 (honorable))(1 (2 (,))(1 (3 (interesting))(0 (failure)))))))))(2 (.)))) |ET| 
0.0094472334068832295589368541754993  |BT| (ROOT (2 (2 (A))(2 (3 (2 (relatively))(3 (effective)))(2 (little))))(0 (0 (2 (potboiler))(0 (2 (until))(0 (2 (its))(0 (1 (1 (absurd))(0 (2 (,))(1 (2 (contrived))(1 (2 (,))(1 (1 (overblown))(1 (2 (,))(1 (2 (and))(1 (2 (entirely))(1 (implausible))))))))))(2 (finale))))))(2 (.)))) |ET| 
0.0094472334068832295589368541754993  |BT| (ROOT (1 (1 (2 (A))(1 (1 (dopey))(2 (movie))))(1 (2 (clothed))(1 (2 (in))(1 (1 (2 (excess))(3 (layers)))(2 (2 (of))(3 (hipness)))))))(2 (.))) |ET| 
-0.00040486645364262984500905440121699  |BT| (ROOT (3 (4 (3 (3 (2 (2 (O))(2 (Fantasma)))(3 (2 (is))(4 (2 (boldly))(3 (2 (,))(3 (4 (3 (confidently))(2 (orchestrated)))(2 (2 (,))(3 (2 (2 (aesthetically))(2 (and)))(2 (sexually)))))))))(2 (,)))(2 (and)))(3 (2 (2 (its))(2 (impact)))(2 (2 (2 (is))(4 (2 (2 (deeply))(2 (and)))(3 (rightly))))(1 (disturbing)))))(2 (.))) |ET| 
-0.0070402951884988140135446244016748  |BT| (ROOT (3 (1 (1 (1 (2 (It))(1 (0 (1 (falls))(1 (2 (far))(2 (short))))(2 (2 (of))(3 (poetry)))))(2 (,)))(2 (but)))(3 (2 (it))(3 (2 (2 ('s))(1 (not)))(1 (0 (bad))(2 (prose))))))(2 (.))) |ET| 
-0.0011097780188498987050116362240715  |BT| (ROOT (1 (1 (No))(3 (3 (cute))(2 (factor))))(1 (2 (here))(1 (2 (...))(1 (2 (2 (Not))(2 (2 (that))(1 (2 (I))(1 (2 (mind))(1 (ugly))))))(1 (2 (;))(0 (1 (2 (the))(1 (problem)))(1 (0 (2 (is))(0 (2 (he))(0 (2 (has))(0 (0 (1 (1 (no))(2 (character)))(2 (,)))(3 (2 (3 (loveable))(2 (or)))(2 (otherwise)))))))(2 (.))))))))) |ET| 
0.0094472334068832295589368541754993  |BT| (ROOT (3 (3 (2 (Works))(2 (2 (because))(2 (2 (we))(2 (2 (2 ('re))(2 (never)))(2 (2 (sure))(2 (2 (if))(2 (2 (Ohlinger))(2 (2 ('s))(2 (2 (2 (2 (on))(2 (2 (the))(2 (level))))(2 (or)))(2 (merely)))))))))))(2 (2 (2 (a))(2 (1 (dying))(1 (2 (,))(1 (1 (delusional))(2 (man))))))(2 (2 (trying))(2 (2 (to))(1 (2 (2 (get))(2 (2 (into))(2 (2 (the))(2 (2 (history))(2 (books))))))(2 (2 (before))(1 (2 (he))(2 (croaks)))))))))(2 (.))) |ET| 
0.0094472334068832295589368541754993  |BT| (ROOT (2 (2 (Suffice))(2 (2 (to))(1 (2 (say))(2 (2 (that))(3 (2 (2 (after))(2 (2 (2 (seeing))(2 (2 (this))(2 (movie))))(2 (2 (in))(2 (2 (IMAX))(2 (form))))))(3 (2 (,))(2 (2 (you))(1 (2 ('ll))(2 (2 (be))(2 (2 (2 (more))(3 (2 (acquainted))(2 (2 (with))(2 (2 (2 (the))(2 (2 (tiniest))(2 (details))))(2 (2 (of))(2 (2 (2 (Tom))(2 (2 (Hanks))(2 ('))))(2 (face))))))))(2 (2 (than))(2 (2 (2 (his))(2 (wife)))(2 (is))))))))))))))(2 (.))) |ET| 
0.008249249737180584102214098152217  |BT| (ROOT (2 (2 (About))(2 (2 (a))(2 (Boy))))(3 (3 (vividly))(3 (3 (2 (2 (3 (1 (recalls))(2 (2 (2 (the))(2 (2 (Cary))(2 (Grant))))(2 (2 (of))(2 (Room)))))(2 (2 (for))(2 (2 (One))(2 (More)))))(2 (,)))(3 (2 (2 (Houseboat))(2 (2 (and))(2 (2 (Father))(2 (Goose)))))(3 (2 (in))(2 (3 (2 (its))(2 (2 (affectionate))(2 (depiction))))(2 (2 (of))(2 (2 (2 (the))(2 (3 (gentle))(1 (war))))(2 (2 (between))(1 (1 (2 (2 (a))(1 (1 (1 (reluctant))(1 (2 (,))(1 (irresponsible))))(2 (man))))(2 (and)))(2 (2 (2 (the))(2 (kid)))(2 (2 (who))(2 (2 (latches))(2 (2 (onto))(2 (him))))))))))))))(2 (.))))) |ET| 
-0.0034391747343733578348712320860159  |BT| (ROOT (2 (2 (Amidst))(2 (2 (the))(2 (action))))(2 (2 (,))(3 (2 (2 (the))(2 (script)))(3 (2 (2 (2 (2 (2 (carries))(2 (Arnold)))(2 (1 (-LRB-))(2 (2 (2 (and))(2 (2 (the))(2 (viewers))))(3 (-RRB-)))))(2 (2 (into))(2 (2 (2 (the))(2 (2 (forbidden))(2 (zone))))(1 (2 (of))(2 (1 (3 (sympathizing))(2 (2 (with))(2 (1 (terrorist))(2 (motivations)))))(2 (2 (by))(2 (2 (presenting))(2 (2 (2 (the))(2 (2 (``))(2 (2 (other))(2 (side)))))(2 (2 (of))(2 (2 (the))(2 (story))))))))))))(2 (.)))(2 ('')))))) |ET| 
-0.0016676275374126700058730055076239  |BT| (ROOT (2 (2 (Even))(2 (2 (though))(2 (2 (we))(2 (2 (know))(2 (2 (the))(2 (outcome)))))))(3 (2 (,))(3 (2 (2 (2 (the))(2 (seesawing)))(2 (2 (of))(2 (2 (3 (2 (the))(2 (2 (general))(2 ('s))))(2 (fate)))(3 (2 (in))(2 (3 (2 (the))(2 (arguments)))(2 (2 (of))(2 (2 (competing))(2 (lawyers)))))))))(3 (3 (3 (3 (2 (has))(3 (3 (2 (the))(3 (2 (stomach-knotting))(2 (suspense))))(1 (2 (of))(3 (2 (a))(2 (2 (legal))(3 (thriller)))))))(2 (,)))(2 (2 (while))(2 (2 (2 (2 (the))(2 (testimony)))(2 (2 (of))(2 (witnesses))))(2 (2 (2 (lends))(2 (2 (the))(2 (film))))(2 (2 (2 (a))(2 (3 (resonant))(2 (undertone))))(2 (2 (of))(1 (tragedy))))))))(2 (.)))))) |ET| 
0.0094472334068832295589368541754993  |BT| (ROOT (0 (3 (Eckstraordinarily))(1 (1 (0 (lame))(2 (and)))(2 (Severely))))(2 (0 (boring))(2 (.)))) |ET| 
0.0094472334068832295589368541754993  |BT| (ROOT (3 (1 (2 (1 (2 (B))(2 (picture)))(2 (,)))(2 (and)))(3 (2 (I))(3 (1 (mean))(2 (2 (that))(3 (2 (as))(3 (2 (a))(3 (compliment))))))))(2 (.))) |ET| 
-0.0021954882370416170175864145619471  |BT| (ROOT (3 (2 (A))(3 (beautifully)))(1 (1 (2 (2 (shot))(1 (1 (2 (but))(1 (1 (0 (dull))(2 (and)))(2 (ankle-deep))))(4 (2 (`))(3 (epic)))))(2 (.)))(2 (')))) |ET| 
-0.0094472334068832295589368541754993  |BT| (ROOT (2 (Friday))(2 (3 (2 (After))(2 (Next)))(1 (1 (2 (is))(1 (2 (2 (2 (a))(2 (lot)))(1 (2 (more))(2 (bluster))))(2 (2 (than))(1 (bite)))))(2 (.))))) |ET| 
-3.6767726816082412291675218796172e-05  |BT| (ROOT (4 (2 (2 (The))(3 (kind)))(3 (2 (of))(4 (2 (movie))(3 (2 (that))(4 (3 (3 (2 (3 (2 (3 (comes))(2 (2 (along))(2 (only))))(2 (occasionally)))(2 (,)))(2 (2 (one))(2 (2 (so))(2 (unconventional)))))(2 (,)))(3 (3 (3 (gutsy))(2 (and)))(4 (perfectly))))))))(4 (3 (2 (executed))(4 (2 (it))(4 (3 (2 (takes))(2 (2 (your))(2 (breath))))(2 (away)))))(2 (.)))) |ET| 
0.0054553090175687001667226283529999  |BT| (ROOT (3 (2 (The))(2 (2 (70-year-old))(2 (Godard))))(1 (2 (2 (has))(2 (1 (2 (2 (become))(2 (,)))(1 (2 (2 (to))(2 (judge)))(1 (2 (from))(1 (2 (In))(1 (3 (Praise))(1 (2 (of))(1 (1 (4 (Love))(2 (,)))(1 (1 (2 (2 (the))(2 (sort)))(1 (2 (of))(1 (0 (bitter))(2 (2 (old))(2 (crank))))))(2 (2 (who))(1 (2 (2 (sits))(2 (2 (behind))(2 (2 (2 (2 (his))(2 (2 (light))(2 (meter))))(2 (and)))(2 (harangues)))))(1 (1 (2 (the))(1 (2 (supposed))(2 (injustices))))(2 (2 (of))(2 (2 (the))(2 (3 (artistic))(2 (world-at-large))))))))))))))))(1 (2 (without))(2 (2 (2 (doing))(2 (2 (all))(2 (2 (that))(2 (much)))))(2 (2 (to))(2 (2 (correct))(2 (them))))))))(2 (.)))) |ET| 
0.0094472334068832295589368541754993  |BT| (ROOT (2 (2 (In))(3 (3 (capturing))(2 (2 (2 (the))(2 (2 (understated))(1 (3 (comedic))(1 (agony)))))(1 (2 (of))(2 (2 (an))(2 (2 (ever-ruminating))(2 (2 (,))(2 (3 (2 (2 (genteel))(2 (yet)))(2 (decadent)))(2 (2 (aristocracy))(2 (2 (that))(2 (1 (2 (can))(2 (1 (no))(2 (longer))))(2 (2 (pay))(2 (2 (its))(3 (bills)))))))))))))))(2 (2 (,))(3 (2 (2 (the))(2 (film)))(2 (2 (2 (2 (could))(2 (2 (just))(2 (2 (as))(3 (well)))))(2 (2 (be))(3 (2 (2 (addressing))(2 (2 (2 (the))(2 (turn)))(2 (2 (of))(2 (2 (the))(2 (3 (20th))(2 (century)))))))(3 (2 (into))(2 (2 (the))(2 (21st)))))))(2 (.)))))) |ET| 
0.0071391491469480735168606777563127  |BT| (ROOT (1 (1 (0 (2 (LaBute))(2 (2 (2 (ca))(2 (n't)))(2 (2 (0 (avoid))(1 (2 (a))(1 (2 (fatal))(2 (mistake)))))(2 (2 (in))(2 (2 (the))(2 (2 (modern))(2 (era))))))))(2 (:)))(1 (2 (He))(1 (2 ('s))(1 (2 (2 (2 (changed))(2 (2 (the))(2 (2 (male))(3 (academic)))))(2 (2 (from))(2 (2 (a))(2 (2 (lower-class))(2 (Brit))))))(2 (2 (to))(1 (3 (3 (2 (an))(2 (American)))(2 (,)))(1 (2 (2 (a))(2 (choice)))(1 (2 (that))(2 (1 (2 (1 (upsets))(2 (2 (2 (the))(2 (3 (novel))(2 ('s))))(3 (4 (exquisite))(2 (balance)))))(2 (and)))(1 (2 (shreds))(3 (2 (2 (the))(2 (fabric)))(2 (2 (of))(2 (2 (the))(2 (film)))))))))))))))(2 (.))) |ET| 
-0.0018819490006299975214804076628639  |BT| (ROOT (1 (2 (After))(2 (2 (2 (2 (an))(2 (hour)))(2 (and)))(2 (2 (2 (a))(2 (half)))(2 (2 (of))(1 (2 (2 (wondering))(2 (2 (--))(2 (2 (sometimes))(2 (2 (2 (3 (3 (amusedly))(2 (,)))(2 (sometimes)))(2 (impatiently)))(2 (--))))))(3 (2 (2 (just))(2 (what)))(2 (1 (2 (this))(2 (2 (2 (strenuously))(2 (unconventional)))(2 (movie))))(2 (2 (is))(2 (2 (supposed))(2 (2 (to))(2 (be))))))))))))(1 (2 (,))(2 (2 (you))(2 (1 (2 (discover))(1 (2 (that))(1 (2 (2 (the))(2 (answer)))(1 (2 (2 (is))(2 (2 (as))(2 (conventional))))(2 (2 (as))(2 (2 (can))(2 (be))))))))(2 (.)))))) |ET| 
-0.0016909441119668103866574560001368  |BT| (ROOT (1 (2 (2 (A))(2 (2 (small))(2 (fortune))))(2 (2 (in))(2 (2 (salaries))(2 (2 (and))(2 (2 (stunt))(2 (cars)))))))(0 (1 (2 (might))(1 (2 (have))(1 (2 (been))(1 (2 (saved))(1 (2 (if))(3 (2 (2 (2 (2 (2 (the))(2 (director)))(2 (,)))(2 (2 (Tom))(2 (Dey))))(2 (,)))(2 (2 (had))(1 (2 (2 (spliced))(2 (together)))(2 (2 (2 (2 (2 (bits))(2 (and)))(2 (pieces)))(2 (2 (of))(2 (2 (2 (2 (Midnight))(2 (Run)))(2 (and)))(2 (2 (48))(2 (Hours))))))(2 (1 (-LRB-))(2 (2 (and))(3 (2 (,))(3 (2 (2 (for))(2 (2 (that))(2 (matter))))(3 (2 (,))(2 (3 (Shrek))(3 (-RRB-)))))))))))))))))(2 (.)))) |ET| 
-0.0015752998409761800272660403621217  |BT| (ROOT (2 (0 (0 (1 (1 (0 (Soulless))(2 (and)))(1 (2 (--))(1 (2 (even))(2 (3 (2 (more))(2 (damning)))(2 (--))))))(0 (2 (virtually))(0 (joyless))))(2 (,)))(1 (XXX)))(2 (1 (2 (achieves))(0 (2 (2 (near))(3 (virtuosity)))(0 (2 (in))(1 (2 (its))(1 (crapulence))))))(2 (.)))) |ET| 
0.0094472334068832295589368541754993  |BT| (ROOT (3 (Certainly))(2 (.))) |ET| 
0.0094472334068832295589368541754993  |BT| (ROOT (2 (C'mon))(2 (!))) |ET| 
-0.00019911542812327932090374349449746  |BT| (ROOT (3 (3 (4 (Blessed))(4 (2 (with))(4 (2 (a))(4 (2 (searing))(2 (2 (lead))(2 (performance)))))))(2 (2 (by))(2 (2 (2 (Ryan))(2 (Gosling)))(2 (1 (-LRB-))(2 (2 (2 (Murder))(2 (2 (by))(2 (Numbers))))(3 (-RRB-)))))))(4 (2 (,))(4 (2 (2 (the))(2 (movie)))(4 (4 (2 (is))(4 (3 (4 (powerful))(2 (and)))(3 (provocative))))(2 (.)))))) |ET| 
-0.0047134124149328200312214498524099  |BT| (ROOT (4 (2 (One))(3 (2 (of))(3 (3 (4 (2 (the))(4 (best)))(2 (,)))(2 (most)))))(3 (1 (2 (understated))(3 (2 (performances))(2 (2 (of))(2 (2 (1 (-LRB-))(2 (2 (2 (Jack))(2 (2 (Nicholson))(2 ('s))))(3 (-RRB-))))(3 (career))))))(2 (.)))) |ET| 
-0.001983763164266539973101810545586  |BT| (ROOT (2 (2 (Even))(1 (2 (though))(1 (2 (2 (many))(2 (2 (of))(2 (2 (these))(2 (guys)))))(0 (2 (are))(1 (1 (2 (less))(2 (than)))(4 (adorable)))))))(3 (2 (1 (-LRB-))(1 (1 (2 (2 (their))(2 (lamentations)))(2 (2 (are))(1 (4 (pretty))(1 (2 (much))(1 (self-centered))))))(3 (-RRB-))))(3 (2 (,))(3 (2 (there))(3 (3 (2 ('s))(3 (3 (2 (something))(3 (vital)))(2 (2 (about))(2 (2 (the))(2 (movie))))))(2 (.))))))) |ET| 
0.0094472334068832295589368541754993  |BT| (ROOT (3 (3 (3 (2 (2 (2 (Kaufman))(2 (and)))(2 (Jonze)))(3 (2 (take))(2 (2 (2 (huge))(2 (risks)))(3 (2 (to))(3 (2 (ponder))(2 (2 (2 (the))(2 (2 (whole))(2 (notion))))(3 (2 (of))(2 (passion)))))))))(2 (--)))(2 (2 (2 (2 (our))(2 (desire)))(2 (2 (as))(2 (2 (2 (human))(2 (beings)))(2 (2 (for))(2 (2 (passion))(2 (2 (in))(2 (2 (2 (2 (our))(2 (lives)))(2 (and)))(2 (2 (the))(2 (1 (emptiness))(2 (one)))))))))))(2 (2 (feels))(2 (2 (when))(1 (2 (it))(2 (2 (is))(2 (missing))))))))(2 (.))) |ET| 
-0.0020527505996007756015886425160488  |BT| (ROOT (3 (2 (In))(3 (2 (painting))(4 (3 (2 (an))(3 (3 (2 (unabashedly))(2 (romantic)))(2 (picture))))(2 (2 (of))(3 (2 (2 (a))(2 (nation)))(2 (2 (2 (whose))(2 (songs)))(2 (2 (2 (spring))(2 (directly)))(2 (2 (from))(2 (2 (2 (the))(2 (lives)))(2 (2 (of))(2 (2 (the))(2 (people)))))))))))))(2 (2 (,))(2 (2 (2 (the))(2 (movie)))(3 (2 (2 (3 (3 (2 (exalts))(2 (2 (2 (the))(2 (2 (Marxian))(3 (dream))))(3 (2 (of))(2 (4 (honest))(2 (2 (working))(2 (folk)))))))(2 (,)))(2 (2 (with))(2 (little))))(3 (2 (to))(3 (2 (show))(2 (2 (for))(2 (2 (2 (2 (2 (2 (their))(2 (labor)))(2 (,)))(3 (2 (living))(3 (harmoniously))))(2 (,)))(2 (2 (joined))(2 (2 (in))(2 (song)))))))))(2 (.)))))) |ET| 
-0.0094248695865072583399690842043128  |BT| (ROOT (2 (2 (2 (One))(2 (thing)))(2 (2 (you))(3 (2 (have))(3 (2 (to))(3 (2 (3 (give))(2 (them)))(2 (2 (credit))(2 (2 (2 (for))(2 (:)))(2 (2 (2 (The))(2 (message)))(2 (2 (of))(2 (2 (the))(2 (movie))))))))))))(2 (2 (2 (is))(3 (3 (consistent))(2 (2 (with))(2 (2 (2 (the))(2 (messages)))(2 (2 (espoused))(2 (2 (in))(2 (2 (2 (the))(2 (2 (company))(2 ('s))))(2 (2 (previous))(2 (2 (video))(2 (work)))))))))))(2 (.)))) |ET| 
0.0094472334068832295589368541754993  |BT| (ROOT (1 (2 (Trades))(1 (0 (1 (run-of-the-mill))(0 (revulsion)))(1 (2 (for))(1 (2 (extreme))(1 (unease))))))(2 (.))) |ET| 
0.0094472334068832295589368541754993  |BT| (ROOT (2 (3 (4 (Charming))(2 (,)))(2 (2 (if))(1 (2 (overly))(2 (complicated)))))(2 (...))) |ET| 
-0.002344910402661861282408439777214  |BT| (ROOT (3 (3 (Neatly))(2 (2 (constructed))(3 (thriller))))(2 (.))) |ET| 
-0.00068070046050265078062257995128448  |BT| (ROOT (2 (2 (The))(2 (movie)))(1 (1 (2 (2 (weighs))(1 (1 (no))(2 (more))))(2 (2 (than))(1 (2 (2 (a))(2 (glass)))(1 (2 (of))(1 (1 (flat))(2 (champagne)))))))(2 (.)))) |ET| 
-0.0017473448636536573382038728396992  |BT| (ROOT (3 (3 (3 (3 (2 (2 (The))(2 (production)))(3 (2 (has))(4 (2 (been))(3 (2 (made))(4 (2 (with))(3 (2 (2 (an))(2 (3 (enormous))(2 (amount))))(2 (2 (of))(3 (affection)))))))))(2 (,)))(2 (so)))(2 (2 (we))(2 (2 (believe))(3 (2 (2 (these))(2 (characters)))(2 (4 (love))(2 (2 (each))(2 (other))))))))(2 (.))) |ET| 
-0.0076803723513005931963770755999121  |BT| (ROOT (1 (1 (3 (Well-meant))(2 (but)))(1 (unoriginal)))(2 (.))) |ET| 
0.0094472334068832295589368541754993  |BT| (ROOT (3 (3 (2 (2 (Seeing))(2 (Seinfeld)))(2 (2 (at))(2 (home))))(2 (2 (as))(2 (2 (he))(1 (2 (2 (watches))(2 (2 (his))(2 (2 (own))(2 (appearance)))))(2 (2 (on))(3 (2 (Letterman))(2 (2 (with))(2 (2 (a))(2 (2 (clinical))(2 (eye)))))))))))(3 (3 (2 (2 (reminds))(2 (you)))(2 (2 (that))(3 (2 (2 (2 (the))(2 (key)))(2 (2 (to))(2 (stand-up))))(3 (2 (is))(3 (2 (to))(3 (2 (always))(3 (2 (make))(2 (2 (it))(3 (2 (3 (2 (look))(2 (easy)))(2 (,)))(1 (2 (even))(2 (2 (though))(2 (2 (2 (the))(2 (reality)))(2 (2 (2 (is))(2 (anything)))(2 (but)))))))))))))))(2 (.)))) |ET| 
0.0081165598221041856952240323153092  |BT| (ROOT (2 (2 (Because))(2 (2 (2 (Eight))(1 (2 (Legged))(2 (Freaks))))(2 (2 (2 (is))(2 (partly)))(3 (2 (3 (2 (2 (an))(3 (homage)))(2 (2 (to))(2 (2 (2 (2 (2 (Them))(2 (,)))(2 (Tarantula)))(2 (and)))(2 (2 (other))(2 (low))))))(2 (-)))(2 (2 (2 (budget))(3 (1 (B-movie))(2 (thrillers))))(2 (2 (of))(2 (2 (the))(2 (2 (2 (1950s))(2 (and)))(2 ('60s))))))))))(3 (2 (,))(3 (2 (2 (the))(2 (movie)))(2 (2 (2 (is))(2 (3 (2 (a))(3 (2 (3 (silly))(2 (1 (-LRB-))(3 (2 (2 (but))(3 (1 (not))(1 (sophomoric))))(3 (-RRB-)))))(2 (romp))))(1 (2 (through))(1 (1 (horror))(1 (2 (and))(1 (1 (hellish))(2 (conditions))))))))(2 (.)))))) |ET| 
-0.002293136796428086546933977629692  |BT| (ROOT (2 (2 (Watching))(2 (2 (this))(2 (film))))(2 (2 (,))(2 (2 (one))(2 (3 (2 (is))(2 (2 (2 (left))(3 (2 (with))(2 (2 (the))(2 (2 (inescapable))(2 (conclusion))))))(3 (2 (that))(3 (2 (2 (2 (2 (Hitchens))(2 (')))(2 (obsession)))(2 (2 (with))(2 (Kissinger))))(3 (2 (2 (2 (2 (is))(2 (,)))(2 (2 (at))(1 (bottom))))(2 (,)))(2 (3 (2 (a))(2 (3 (sophisticated))(2 (2 (flower))(2 (2 (child))(2 ('s))))))(2 (2 (desire))(2 (2 (to))(2 (2 (purge))(2 (2 (2 (the))(2 (world)))(3 (2 (of))(3 (2 (2 (the))(2 (2 (2 (tooth))(2 (and)))(2 (claw))))(2 (2 (of))(3 (2 (human))(2 (power))))))))))))))))(2 (.)))))) |ET| 
-0.00073281013724826600096856621391339  |BT| (ROOT (1 (2 (3 (2 (It))(2 (2 ('s))(3 (2 (all))(3 (3 (2 (arty))(2 (and)))(2 (jazzy))))))(2 (and)))(1 (2 (people))(1 (1 (1 (2 (2 (2 (2 (sit))(2 (and)))(2 (stare)))(2 (and)))(1 (1 (2 (2 (turn))(2 (away)))(2 (2 (from))(2 (one))))(2 (2 (another))(2 (2 (instead))(2 (2 (of))(2 (talking)))))))(2 (and)))(2 (2 (2 (2 (2 (it))(2 (2 ('s))(2 (2 (all))(2 (2 (about))(2 (2 (the))(1 (silences)))))))(2 (and)))(2 (2 (if))(2 (2 (you))(2 (2 ('re))(2 (2 (into))(2 (that)))))))(2 (2 (,))(3 (2 (have))(2 (2 (at))(2 (it)))))))))(2 (.))) |ET| 
0.0094472334068832295589368541754993  |BT| (ROOT (2 (It))(1 (2 (1 (2 (gets))(1 (2 (bogged))(1 (2 (down))(2 (2 (by))(2 (2 (hit-and-miss))(3 (2 (topical))(3 (humour))))))))(3 (2 (before))(3 (2 (getting))(3 (2 (to))(3 (2 (the))(4 (4 (3 (truly))(3 (good)))(2 (stuff))))))))(2 (.)))) |ET| 
0.0094472334068832295589368541754993  |BT| (ROOT (2 (2 (The))(2 (thing)))(1 (1 (2 (looks))(0 (2 (like))(1 (2 (a))(0 (2 (made-for-home-video))(2 (quickie))))))(2 (.)))) |ET| 
0.0094472334068832295589368541754993  |BT| (ROOT (1 (Eh))(2 (.))) |ET| 
-0.0029957664562263851965040473146473  |BT| (ROOT (2 (...))(3 (3 (3 (2 (a))(4 (3 (good))(2 (film))))(2 (2 (that))(1 (2 (must))(2 (2 (have))(1 (2 (2 (baffled))(2 (2 (the))(2 (folks))))(2 (2 (in))(2 (2 (the))(2 (2 (marketing))(2 (department))))))))))(2 (.)))) |ET| 
-0.004354999388795282450059787038299  |BT| (ROOT (2 (Everything))(1 (2 (2 (is))(1 (off)))(2 (.)))) |ET| 
-0.003586384782155687192539694763127  |BT| (ROOT (4 (2 (2 (2 (2 (2 (The))(2 (2 (story))(2 (line))))(2 (2 (may))(2 (2 (be))(2 (2 (2 (127))(2 (years)))(2 (old))))))(2 (,)))(2 (but)))(2 (2 (2 (2 (El))(2 (Crimen)))(2 (3 (del))(2 (2 (Padre))(2 (Amaro)))))(2 (2 (...))(3 (1 (2 (could))(2 (n't)))(2 (1 (2 (be))(3 (2 (more))(2 (2 (timely))(2 (2 (in))(2 (2 (2 (its))(2 (2 (despairing))(2 (vision))))(2 (2 (of))(1 (corruption))))))))(2 (2 (within))(2 (2 (the))(2 (2 (Catholic))(2 (establishment))))))))))(2 (.))) |ET| 
-0.0023927264902720646669309623177924  |BT| (ROOT (2 (2 (As))(2 (2 (2 (underwater))(2 (2 (ghost))(2 (stories))))(2 (go))))(3 (2 (,))(3 (2 (Below))(2 (2 (2 (2 (3 (2 (2 (2 (2 (3 (2 (casts))(2 (2 (its))(2 (2 (spooky))(2 (net)))))(1 (out)))(2 (2 (into))(2 (2 (the))(2 (2 (Atlantic))(2 (Ocean))))))(2 (and)))(2 (2 (2 (spits))(2 (it)))(2 (back))))(2 (,)))(2 (grizzled)))(2 (and)))(1 (2 (2 (2 (charred))(2 (,)))(2 (2 (somewhere))(2 (northwest))))(2 (2 (of))(2 (2 (the))(2 (2 (Bermuda))(2 (Triangle)))))))(2 (.)))))) |ET| 
0.0094472334068832295589368541754993  |BT| (ROOT (1 (1 (Crikey))(2 (indeed)))(2 (.))) |ET| 
0.0094472334068832295589368541754993  |BT| (ROOT (2 (Ruh-roh))(2 (!))) |ET| 
-0.0073019276166497613586581216793547  |BT| (ROOT (2 (You))(3 (3 (2 (have))(2 (2 (to))(3 (2 (see))(2 (it)))))(2 (.)))) |ET| 
-0.0021280357517587545485016065072159  |BT| (ROOT (2 (But))(1 (1 (2 (unless))(1 (2 (you))(2 (2 ('re))(2 (2 (an))(2 (2 (absolute))(2 (2 (raving))(2 (3 (Star))(2 (2 (Wars))(1 (junkie))))))))))(1 (2 (,))(1 (2 (it))(1 (1 (1 (2 (is))(2 (n't)))(4 (2 (much))(4 (fun))))(2 (.))))))) |ET| 
-0.0094472334068832295589368541754993  |BT| (ROOT (2 (--))(2 (3 (2 (but))(3 (2 (3 (certainly))(2 (hard)))(1 (2 (to))(0 (hate)))))(2 (.)))) |ET| 
0.0094472334068832295589368541754993  |BT| (ROOT (2 (2 (If))(2 (2 (2 (2 (Mr.))(2 (2 (Zhang))(2 ('s))))(2 (2 (subject))(2 (matter))))(3 (2 (2 (2 (2 (2 (is))(2 (,)))(2 (2 (to))(2 (2 (some))(2 (degree)))))(2 (2 (at))(1 (least))))(2 (,)))(3 (2 (quintessentially))(2 (American))))))(1 (2 (,))(2 (2 (2 (2 (his))(2 (approach)))(2 (2 (to))(2 (storytelling))))(2 (2 (2 (might))(2 (2 (be))(2 (2 (called))(2 (Iranian)))))(2 (.)))))) |ET| 
0.0094472334068832295589368541754993  |BT| (ROOT (2 (2 (As))(2 (2 (2 (2 (Allen))(2 ('s)))(2 (2 (execution))(2 (date))))(2 (2 (closes))(2 (in)))))(3 (2 (,))(4 (2 (2 (the))(2 (documentary)))(3 (4 (3 (2 (gives))(3 (3 (2 (an))(3 (2 (especially))(3 (4 (poignant))(2 (portrait)))))(2 (2 (of))(2 (2 (her))(2 (friendship))))))(2 (2 (with))(2 (2 (2 (the))(2 (2 (2 (never))(2 (flagging)))(2 (2 (legal))(2 (investigator)))))(2 (2 (David))(2 (Presson))))))(2 (.)))))) |ET| 
0.0094472334068832295589368541754993  |BT| (ROOT (1 (2 (If))(2 (2 (2 (2 (Sinise))(2 ('s)))(2 (character)))(1 (2 (had))(2 (2 (2 (a))(2 (brain)))(2 (1 (2 (his))(2 (ordeal)))(0 (2 (would))(2 (2 (be))(2 (2 (over))(2 (2 (in))(2 (3 (2 (2 (five))(2 (minutes)))(2 (2 (but))(2 (instead))))(2 (2 (the))(2 (plot)))))))))))))(2 (1 (2 (2 (goes))(1 (out)))(2 (2 (of))(2 (2 (its))(2 (2 (way))(2 (2 (to))(2 (2 (2 (introduce))(2 (1 (obstacles))(2 (2 (for))(2 (him)))))(2 (2 (to))(2 (2 (stumble))(2 (over))))))))))(2 (.)))) |ET| 
0.0094472334068832295589368541754993  |BT| (ROOT (2 (`))(2 (2 (2 (Would))(2 (n't)))(2 (3 (3 (2 (it))(2 (2 (2 (be))(3 (nice)))(2 (2 (if))(2 (2 (2 (all))(2 (guys)))(2 (2 (got))(2 (2 (2 (a))(2 (taste)))(2 (2 (of))(2 (2 (what))(2 (2 (it))(2 (2 ('s))(2 (2 (like))(2 (2 (on))(2 (2 (2 (the))(2 (2 (other))(2 (side))))(3 (2 (of))(2 (2 (the))(2 (bra)))))))))))))))))(2 (?)))(2 ('))))) |ET| 
-0.0031412043630888839169934545481055  |BT| (ROOT (2 (But))(0 (2 (2 (the))(2 (cinematography)))(1 (2 (2 (2 (2 (is))(2 (cloudy)))(2 (,)))(2 (2 (2 (the))(2 (picture)))(2 (2 (making))(3 (becalmed)))))(2 (.))))) |ET| 
0.0094472334068832295589368541754993  |BT| (ROOT (2 (2 (3 (2 (A))(3 (2 (sly))(2 (dissection))))(2 (2 (of))(1 (2 (1 (2 (2 (the))(1 (inanities)))(2 (2 (of))(3 (2 (the))(2 (3 (contemporary))(2 (2 (music))(2 (business)))))))(2 (and)))(1 (1 (2 (a))(2 (1 (2 (rather))(1 (sad)))(2 (story))))(2 (2 (of))(1 (2 (the))(1 (difficulties))))))))(3 (2 (of))(2 (3 (artistic))(2 (collaboration)))))(2 (.))) |ET| 
0.0094472334068832295589368541754993  |BT| (ROOT (2 (...))(0 (1 (2 (2 (delivers))(3 (2 (2 (few))(2 (moments)))(3 (2 (of))(4 (inspiration)))))(1 (2 (amid))(1 (1 (1 (2 (the))(1 (1 (bland))(2 (animation))))(2 (and)))(1 (2 (simplistic))(2 (story))))))(2 (.)))) |ET| 
0.0094472334068832295589368541754993  |BT| (ROOT (3 (3 (2 (A))(3 (3 (tasty))(2 (slice))))(2 (2 (of))(1 (2 (droll))(3 (whimsy)))))(2 (.))) |ET| 
-0.00025407251499334288164302919632576  |BT| (ROOT (1 (2 (2 (Is))(2 (there)))(1 (2 (2 (a))(2 (group)))(1 (2 (of))(2 (1 (2 (2 (2 (more))(2 (1 (self-absorbed))(2 (women))))(2 (2 (than))(2 (2 (the))(2 (mother)))))(2 (and)))(2 (2 (daughters))(2 (2 (featured))(2 (2 (in))(2 (2 (this))(2 (film))))))))))(2 (?))) |ET| 
-0.00017234527616971439352086536977993  |BT| (ROOT (1 (2 (Not))(1 (2 (only))(1 (2 (are))(2 (1 (2 (2 (the))(2 (2 (film))(2 ('s))))(2 (2 (Sopranos))(2 (gags))))(0 (3 (incredibly))(0 (2 (1 (dated))(2 (and)))(1 (unfunny))))))))(2 (2 (,))(0 (2 (they))(0 (2 (also))(1 (0 (2 (demonstrate))(1 (2 (2 (how))(1 (desperate)))(0 (0 (2 (2 (the))(2 (makers)))(1 (2 (of))(0 (2 (this))(2 (2 (`))(2 (2 (2 (we))(1 (2 (2 ('re))(2 (-)))(2 (2 (2 (doing-it-for))(2 (-)))(2 (the-cash)))))(2 (2 ('))(2 (sequel))))))))(2 (were)))))(2 (.))))))) |ET| 
-0.0094472334068832295589368541754993  |BT| (ROOT (2 (3 (2 (A))(3 (2 (hypnotic))(2 (portrait))))(1 (2 (of))(1 (2 (this))(2 (1 (sad))(1 (2 (,))(2 (2 (compulsive))(3 (life))))))))(2 (.))) |ET| 
-0.0027945875211725364033188423462661  |BT| (ROOT (2 (2 (2 (2 (You))(2 (2 (can))(3 (2 (2 (2 (sip))(2 (2 (your))(2 (2 (vintage))(2 (wines)))))(2 (and)))(3 (2 (watch))(2 (2 (your))(3 (2 (Merchant))(2 (2 (Ivory))(2 (productions)))))))))(2 (;)))(3 (3 (2 (2 (I))(2 (2 ('ll))(2 (2 (settle))(2 (2 (for))(3 (2 (2 (a))(2 (3 (nice))(2 (3 (cool))(2 (glass)))))(2 (2 (of))(2 (2 (iced))(2 (tea)))))))))(2 (and)))(3 (2 (2 (a))(2 (2 (Jerry))(2 (Bruckheimer))))(2 (2 (flick))(2 (2 (2 (any))(2 (day)))(2 (2 (of))(2 (2 (the))(2 (week)))))))))(2 (.))) |ET| 
-0.0015617419463786071619215700678751  |BT| (ROOT (3 (3 (2 (A))(4 (3 (compelling))(3 (2 (coming-of-age))(1 (drama)))))(2 (2 (about))(2 (3 (2 (2 (2 (the))(1 (1 (arduous))(2 (journey))))(2 (2 (of))(2 (2 (2 (a))(2 (2 (sensitive))(2 (2 (young))(2 (girl)))))(2 (2 (through))(2 (2 (2 (a))(2 (series)))(2 (2 (of))(2 (2 (foster))(2 (homes)))))))))(2 (and)))(2 (2 (a))(2 (3 (fierce))(2 (1 (struggle))(2 (2 (to))(2 (2 (2 (pull))(3 (free)))(2 (2 (from))(2 (2 (her))(2 (1 (2 (2 (dangerous))(2 (and)))(2 (domineering)))(2 (mother)))))))))))))(2 (2 (2 ('s))(2 (2 (2 (hold))(2 (over)))(2 (her))))(2 (.)))) |ET| 
0.0094472334068832295589368541754993  |BT| (ROOT (2 (3 (Like))(2 (2 (the))(2 (series))))(4 (2 (,))(4 (2 (2 (the))(2 (movie)))(4 (3 (4 (4 (4 (2 (is))(3 (4 (4 (3 (3 (4 (3 (3 (funny))(2 (,)))(4 (smart)))(2 (,)))(3 (3 (visually))(3 (inventive))))(2 (,)))(2 (and)))(2 (most))))(2 (2 (of))(2 (all))))(2 (,)))(3 (alive)))(2 (.)))))) |ET| 
0.0094472334068832295589368541754993  |BT| (ROOT (3 (3 (2 (A))(3 (3 (subtle))(3 (2 (,))(3 (4 (poignant))(2 (picture))))))(3 (2 (of))(1 (3 (goodness))(1 (2 (that))(1 (2 (is))(0 (1 (flawed))(1 (2 (,))(1 (3 (2 (compromised))(2 (and)))(1 (sad))))))))))(2 (.))) |ET| 
0.0094472334068832295589368541754993  |BT| (ROOT (2 (It))(4 (3 (2 ('s))(4 (3 (2 (an))(3 (3 (2 (unusual))(2 (2 (,))(4 (thoughtful))))(2 (bio-drama))))(4 (2 (with))(3 (3 (3 (2 (a))(3 (3 (rich))(2 (subject))))(2 (and)))(4 (2 (some))(4 (3 (fantastic))(2 (2 (2 (moments))(2 (and)))(2 (scenes)))))))))(2 (.)))) |ET| 
-0.00018818124602030205077402014168797  |BT| (ROOT (3 (3 (Good))(4 (fun)))(4 (2 (,))(4 (4 (4 (4 (4 (4 (4 (4 (4 (3 (3 (good))(2 (action)))(2 (,)))(3 (3 (good))(2 (acting))))(2 (,)))(3 (3 (good))(2 (dialogue))))(2 (,)))(4 (3 (good))(2 (pace))))(2 (,)))(3 (3 (good))(2 (cinematography))))(2 (.))))) |ET| 
-0.0020742482253164121197563929399621  |BT| (ROOT (2 (2 (With))(2 (2 (a))(2 (2 (``))(2 (2 (Spy))(2 (3 (Kids))(2 (2 (''))(2 (2 (sequel))(2 (opening)))))))))(0 (2 (2 (next))(2 (week)))(1 (2 (,))(1 (2 (why))(1 (1 (2 (bother))(0 (2 (with))(1 (2 (2 (a))(1 (1 (contemptible))(2 (imitator))))(1 (2 (starring))(1 (1 (2 (a))(1 (2 (``))(1 (2 (SNL))(1 (2 (''))(1 (has-been))))))(0 (2 (acting))(2 (2 (like))(1 (2 (an))(2 (2 (8-year-old))(2 (2 (channeling))(2 (2 (Roberto))(2 (Benigni)))))))))))))(2 (?))))))) |ET| 
-0.0049008580302790701738180345614637  |BT| (ROOT (3 (3 (4 (3 (3 (Inventive))(2 (,)))(4 (fun)))(2 (,)))(3 (2 (intoxicatingly))(1 (4 (sexy))(1 (2 (,))(1 (1 (violent))(1 (2 (,))(1 (1 (1 (self-indulgent))(2 (and)))(1 (maddening)))))))))(2 (.))) |ET| 
-0.0015515121145860688318257603057759  |BT| (ROOT (1 (1 (1 (1 (2 (2 (2 (The))(2 (film)))(2 (2 (would))(1 (2 (have))(2 (2 (been))(2 (3 (2 (more))(3 (enjoyable)))(1 (2 (had))(2 (2 (2 (the))(2 (balance)))(2 (2 (2 (shifted))(2 (2 (in))(2 (2 (favor))(2 (2 (of))(2 (2 (water-bound))(2 (action)))))))(2 (2 (over))(2 (2 (the))(2 (2 (land-based))(2 (2 (`))(1 (drama))))))))))))))(2 (,)))(2 (')))(2 (but)))(1 (2 (2 (2 (the))(3 (emphasis)))(2 (2 (on))(2 (2 (the))(2 (latter)))))(1 (2 (leaves))(2 (2 (2 (Blue))(2 (Crush)))(2 (waterlogged))))))(2 (.))) |ET| 
-0.0051102103571976260909526246223322  |BT| (ROOT (2 (3 (2 (Sheds))(2 (light)))(2 (2 (on))(2 (2 (a))(2 (2 (subject))(2 (few))))))(3 (3 (2 (2 (2 (2 (are))(2 (2 (familiar))(2 (with))))(2 (,)))(2 (and)))(4 (2 (makes))(2 (2 (you))(2 (3 (care))(2 (2 (about))(3 (2 (music))(2 (2 (you))(2 (1 (2 (may))(1 (not)))(2 (2 (have))(3 (2 (heard))(2 (before))))))))))))(2 (.)))) |ET| 
0.0094472334068832295589368541754993  |BT| (ROOT (3 (3 (3 (2 (Photographed))(3 (2 (with))(2 (1 (melancholy))(2 (richness)))))(2 (and)))(3 (3 (eloquently))(2 (2 (performed))(1 (2 (yet))(1 (2 (also))(1 (2 (decidedly))(1 (uncinematic))))))))(2 (.))) |ET| 
0.0094472334068832295589368541754993  |BT| (ROOT (3 (2 (As))(2 (2 (a))(2 (movie))))(2 (2 (,))(1 (2 (it))(1 (2 (never))(4 (4 (2 (seems))(3 (4 (4 (fresh))(2 (and)))(3 (vital))))(2 (.))))))) |ET| 
0.0094472334068832295589368541754993  |BT| (ROOT (3 (3 (2 (A))(2 (3 (2 (very))(4 (pretty)))(2 (after-school))))(3 (special)))(2 (.))) |ET| 
-0.0078059662871631119857029901254464  |BT| (ROOT (2 (1 (2 (an))(1 (2 (essentially))(1 (1 (awkward))(2 (version)))))(1 (2 (of))(2 (2 (the))(1 (2 (lightweight))(3 (2 (female))(3 (empowerment)))))))(2 (2 (picture))(2 (2 (we))(2 (2 ('ve))(2 (2 (been))(2 (2 (watching))(2 (2 (for))(2 (decades))))))))) |ET| 
-0.0079113340526902175414702966804725  |BT| (ROOT (2 (I))(2 (3 (2 (like))(2 (it)))(2 (.)))) |ET| 
0.0094472334068832295589368541754993  |BT| (ROOT (2 (2 (1 (2 (Jonah))(1 (2 (is))(2 (2 (only))(2 (so-so)))))(2 (...)))(1 (2 (2 (2 (2 (2 (2 (the))(2 (addition)))(2 (2 (of))(2 (2 (a))(2 (2 (biblical))(2 (message))))))(2 (2 (2 (will))(2 (either)))(2 (2 (improve))(2 (2 (2 (the))(2 (film)))(2 (2 (for))(2 (you)))))))(2 (,)))(2 (or)))(2 (2 (it))(2 (2 (will))(2 (2 (lessen))(2 (it)))))))(2 (.))) |ET| 
0.0094472334068832295589368541754993  |BT| (ROOT (2 (...))(3 (2 (2 (2 (the))(2 (2 (one))(2 (thing))))(3 (2 (this))(3 (3 (Wild))(2 (film)))))(1 (2 (2 (has))(1 (2 (2 (that))(2 (2 (2 (other))(2 (2 (Imax))(2 (films))))(2 (2 (do))(2 (n't)))))(2 (2 (:))(2 (2 (2 (chimps))(2 (,)))(2 (2 (lots))(2 (2 (of))(2 (2 (2 (chimps))(2 (,)))(1 (2 (all))(3 (2 (1 (blown))(2 (up)))(2 (2 (to))(2 (2 (2 (the))(2 (size)))(2 (2 (of))(2 (2 (a))(2 (house)))))))))))))))(2 (.))))) |ET| 
-0.0025182627478517421830417344352782  |BT| (ROOT (0 (1 (0 (2 (2 (The))(2 (2 (following))(2 (things))))(0 (2 (2 (2 (are))(1 (not)))(2 (2 (at))(2 (all))))(4 (entertaining))))(2 (:)))(0 (1 (0 (1 (1 (2 (The))(1 (0 (bad))(2 (sound))))(2 (,)))(1 (2 (2 (the))(2 (lack)))(2 (2 (of))(1 (2 (2 (3 (climax))(2 (and)))(2 (,)))(2 (0 (worst))(2 (2 (of))(2 (all))))))))(2 (,)))(3 (2 (watching))(2 (2 (2 (Seinfeld))(2 (1 (-LRB-))(2 (2 (2 (who))(2 (2 (2 (is))(2 (also)))(2 (2 (one))(2 (2 (of))(2 (2 (2 (the))(2 (2 (film))(2 ('s))))(2 (producers)))))))(3 (-RRB-)))))(2 (2 (do))(2 (2 (everything))(2 (2 (he))(2 (2 (can))(2 (2 (to))(2 (2 (look))(3 (2 (like))(3 (2 (a))(3 (3 (good))(2 (guy)))))))))))))))(2 (.))) |ET| 
-0.007428600335635476489826167778574  |BT| (ROOT (2 (2 (Director))(2 (2 (Todd))(2 (Solondz))))(2 (2 (2 (has))(2 (2 (2 (2 (made))(2 (2 (2 (a))(2 (movie)))(2 (2 (about))(2 (2 (critical))(3 (reaction))))))(2 (2 (2 (to))(2 (2 (his))(2 (2 (two))(2 (2 (previous))(2 (movies))))))(2 (2 (,))(2 (2 (and))(2 (2 (2 (about))(2 (2 (his))(2 (responsibility))))(2 (2 (to))(2 (2 (the))(2 (characters)))))))))(2 (2 (that))(3 (2 (he))(2 (creates))))))(2 (.)))) |ET| 
0.0094472334068832295589368541754993  |BT| (ROOT (2 (Feels))(2 (3 (1 (untidily))(4 (honest)))(2 (.)))) |ET| 
0.0094472334068832295589368541754993  |BT| (ROOT (2 (A))(2 (4 (glorious))(1 (1 (mess))(2 (.))))) |ET| 
0.0094472334068832295589368541754993  |BT| (ROOT (2 (I))(2 (2 (2 (was))(2 (2 (2 (sent))(2 (2 (a))(1 (copyof))))(2 (2 (this))(2 (2 (film))(1 (2 (to))(2 (2 (review))(2 (2 (on))(2 (DVD)))))))))(2 (.)))) |ET| 
-0.0059107381178064178489650615233586  |BT| (ROOT (2 (Yet))(1 (2 (it))(1 (2 (2 (2 ('s))(1 (not)))(2 (3 (2 (quite))(2 (2 (the))(4 (4 (genre-busting))(2 (film)))))(1 (2 (it))(1 (2 ('s))(1 (2 (been))(2 (2 (hyped))(1 (2 (to))(2 (2 (be))(1 (2 (because))(1 (2 (it))(2 (2 (plays))(1 (2 (everything))(1 (2 (too))(3 (safe)))))))))))))))(2 (.))))) |ET| 
-5.6455408687962311360328260256836e-05  |BT| (ROOT (1 (1 (1 (2 (2 (Every))(1 (joke)))(2 (2 (is))(2 (1 (repeated))(2 (2 (at))(1 (least))))))(2 (--)))(1 (1 (0 (annoying))(2 (,)))(2 (1 (2 (is))(2 (n't)))(2 (it)))))(2 (?))) |ET| 
-0.0011446029190213279948251656747971  |BT| (ROOT (2 (We))(1 (2 (just))(1 (1 (2 (2 (2 (do))(2 (n't)))(2 (really)))(3 (2 (3 (care))(1 (2 (too))(2 (much))))(3 (2 (about))(2 (2 (this))(2 (4 (love))(2 (story)))))))(2 (.))))) |ET| 
0.0094472334068832295589368541754993  |BT| (ROOT (1 (2 (2 (The))(2 (1 (messy))(2 (emotions))))(1 (2 (raging))(2 (2 (throughout))(2 (2 (this))(2 (2 (three-hour))(2 (effort)))))))(4 (3 (3 (3 (2 (are))(2 (2 (instantly))(3 (recognizable))))(2 (,)))(2 (2 (allowing))(2 (2 (the))(2 (2 (film))(2 (2 (2 (to))(2 (paradoxically)))(2 (2 (2 (feel))(2 (2 (2 (familiar))(2 (and)))(2 (foreign))))(2 (2 (at))(2 (2 (the))(2 (2 (same))(2 (time)))))))))))(2 (.)))) |ET| 
0.0094472334068832295589368541754993  |BT| (ROOT (2 (2 (2 (2 (Made))(2 (2 (for))(2 (teens))))(2 (and)))(2 (2 (reviewed))(2 (2 (as))(2 (such)))))(2 (2 (,))(2 (2 (2 (2 (this))(1 (2 (is))(2 (2 (4 (recommended))(2 (only)))(2 (2 (for))(2 (2 (those))(2 (2 (under))(2 (2 (2 (20))(2 (years)))(2 (2 (of))(2 (age))))))))))(1 (2 (...))(1 (2 (and))(2 (2 (then))(2 (2 (only))(2 (2 (as))(2 (2 (a))(2 (3 (2 (very))(2 (mild)))(2 (rental))))))))))(2 (.))))) |ET| 
-0.0087585873426540405278784007236936  |BT| (ROOT (2 (By))(2 (2 (2 (turns))(1 (1 (1 (pretentious))(2 (,)))(3 (3 (fascinating))(1 (2 (,))(2 (0 (ludicrous))(1 (2 (,))(2 (3 (3 (provocative))(2 (and)))(2 (vainglorious)))))))))(2 (.)))) |ET| 
0.0094472334068832295589368541754993  |BT| (ROOT (2 (1 (2 (A))(1 (1 (2 (3 (good-looking))(2 (but)))(0 (2 (ultimately))(0 (pointless))))(2 (2 (political))(3 (thriller)))))(1 (2 (with))(2 (2 (plenty))(1 (2 (of))(1 (3 (2 (action))(2 (and)))(1 (2 (almost))(0 (1 (no))(2 (substance)))))))))(2 (.))) |ET| 
-0.00082790839382937105386806031503966  |BT| (ROOT (2 (1 (-LRB-))(2 (2 (Swimfan))(3 (-RRB-))))(1 (0 (1 (falls))(2 (0 (2 (1 (0 (1 (victim))(0 (2 (to))(1 (0 (sloppy))(3 (plotting)))))(2 (,)))(0 (2 (an))(0 (1 (1 (insultingly))(3 (unbelievable)))(3 (2 (final))(2 (act))))))(2 (and)))(2 (2 (2 (a))(2 (villainess)))(1 (2 (who))(1 (2 (2 (is))(1 (2 (too))(2 (crazy))))(3 (2 (to))(2 (2 (be))(3 (interesting)))))))))(2 (.)))) |ET| 
-0.0015498139027126144398605056551332  |BT| (ROOT (2 (2 (When))(2 (2 (2 (the))(2 (movie)))(2 (2 (mixes))(2 (2 (2 (2 (the))(2 (cornpone)))(2 (and)))(2 (2 (the))(2 (2 (Cosa))(2 (Nostra))))))))(3 (2 (,))(3 (2 (it))(3 (3 (2 (finds))(2 (2 (a))(3 (3 (nice))(2 (rhythm)))))(2 (.)))))) |ET| 
-0.0013603302833726626640958867753284  |BT| (ROOT (3 (2 (1 (-LRB-))(2 (1 (Reaches))(3 (-RRB-))))(3 (3 (3 (3 (wholly))(3 (3 (3 (believable))(2 (and)))(2 (heart-wrenching))))(2 (depths)))(1 (2 (of))(1 (despair)))))(2 (.))) |ET| 
-0.0094472334068832295589368541754993  |BT| (ROOT (2 (1 (Death))(2 (2 (to))(3 (Smoochy))))(2 (1 (2 (tells))(1 (2 (1 (2 (a))(1 (2 (moldy-oldie))(1 (2 (,))(2 (2 (1 (not-nearly))(1 (2 (-))(1 (2 (as-nasty))(2 (-)))))(2 (as-it))))))(2 (-)))(1 (2 (thinks-it-is))(1 (joke)))))(2 (.)))) |ET| 
0.0094472334068832295589368541754993  |BT| (ROOT (2 (2 (2 (2 (2 (Last))(2 (Dance)))(2 (,)))(2 (1 (whatever))(1 (2 (its))(1 (flaws)))))(2 (,)))(2 (2 (3 (2 (fulfills))(2 (2 (2 (one))(2 (facet)))(2 (2 (of))(2 (2 (its))(2 (mission))))))(2 (2 (in))(2 (2 (making))(2 (3 (me))(2 (2 (want))(2 (2 (to))(2 (2 (2 (find))(1 (out)))(2 (2 (whether))(2 (2 (,))(2 (2 (2 (in))(2 (2 (this))(2 (case))))(2 (2 (,))(3 (2 (that))(2 (2 ('s))(3 (true)))))))))))))))(2 (.)))) |ET| 
0.0094472334068832295589368541754993  |BT| (ROOT (2 (...))(2 (1 (1 (2 (a))(1 (trashy)))(2 (little)))(2 (3 (3 (2 (bit))(3 (2 (of))(3 (1 (2 (fluff))(2 (stuffed)))(3 (2 (with))(4 (3 (enjoyable))(2 (performances)))))))(2 (and)))(2 (1 (2 (a))(2 (1 (bewildering))(2 (sense))))(1 (2 (of))(3 (self-importance))))))) |ET| 
0.0094472334068832295589368541754993  |BT| (ROOT (2 (It))(1 (1 (2 (2 ('s))(1 (2 (too))(0 (bad))))(1 (2 (that))(1 (2 (2 (the))(2 (rest)))(1 (1 (2 (is))(2 (n't)))(3 (2 (more))(3 (compelling)))))))(2 (.)))) |ET| 
0.0043893929076126237190380585673211  |BT| (ROOT (2 (2 (2 (2 (A))(2 (2 (very))(2 (2 (familiar))(2 (tale)))))(2 (,)))(2 (2 (2 (1 (2 (3 (2 (2 (one))(2 (2 (that))(2 (2 ('s))(2 (2 (been))(1 (2 (told))(2 (2 (by))(2 (2 (countless))(2 (filmmakers)))))))))(2 (2 (2 (2 (2 (2 (about))(2 (Italian)))(2 (2 (-))(2 (2 (2 (2 (,))(2 (Chinese)))(3 (2 (-))(2 (2 (,))(2 (Irish)))))(2 (-)))))(2 (,)))(2 (Latin)))(2 (-))))(2 (,)))(2 (2 (2 (2 (Indian))(2 (-)))(2 (,)))(2 (Russian))))(2 (-)))(2 (and)))(1 (2 (2 (other))(2 (2 (hyphenate))(2 (2 (American))(2 (2 (young))(2 (men))))))(1 (1 (struggling))(2 (2 (to))(2 (2 (balance))(2 (1 (conflicting))(2 (3 (cultural))(2 (messages))))))))))(2 (.))) |ET| 
-0.0059820770413017247679743348953707  |BT| (ROOT (3 (2 (For))(4 (2 (all))(4 (2 (its))(3 (4 (brilliant))(2 (touches))))))(1 (2 (,))(1 (3 (Dragon))(1 (1 (1 (2 (1 (1 (loses))(2 (2 (its))(2 (fire))))(2 (midway)))(2 (,)))(3 (2 (nearly))(1 (2 (2 (flickering))(1 (out)))(2 (2 (by))(1 (2 (its))(1 (2 (perfunctory))(2 (conclusion))))))))(2 (.)))))) |ET| 
-0.0094472334068832295589368541754993  |BT| (ROOT (2 (Zoom))(2 (!))) |ET| 
