SVM-light Version V5.01-TK-1.5
5 # kernel type
3 # kernel parameter -d 
1 # kernel parameter -g 
1 # kernel parameter -s 
1 # kernel parameter -r 
empty# kernel parameter -u 
0.5 # kernel parameter -L 
1 # kernel parameter -T 
T # kernel parameter -C 
1 # kernel parameter -F 
1 # kernel parameter -S 
0.400000 # kernel parameter -M 
0 # kernel parameter -N 
S # kernel parameter -V 
A # kernel parameter -W 
0 # kernel parameter -U 
10 # highest feature index 
8544 # number of training documents 
3176 # number of support vectors plus 1 
0.94383444 # threshold b, each following line is a SV (starting with alpha*y)
-0.0043775288343749496622336891960003  |BT| (ROOT (2 (2 (The))(2 (Rock)))(4 (3 (2 (is))(4 (2 (destined))(2 (2 (2 (2 (2 (to))(2 (2 (be))(2 (2 (the))(2 (2 (21st))(2 (2 (2 (Century))(2 ('s)))(2 (3 (new))(2 (2 (``))(2 (Conan)))))))))(2 ('')))(2 (and)))(3 (2 (that))(3 (2 (he))(3 (2 ('s))(3 (2 (going))(3 (2 (to))(4 (3 (2 (make))(3 (3 (2 (a))(3 (splash)))(2 (2 (even))(3 (greater)))))(2 (2 (than))(2 (2 (2 (2 (1 (2 (Arnold))(2 (Schwarzenegger)))(2 (,)))(2 (2 (Jean-Claud))(2 (2 (Van))(2 (Damme)))))(2 (or)))(2 (2 (Steven))(2 (Segal))))))))))))))(2 (.)))) |ET| 
-0.00039398390829515755060322157454777  |BT| (ROOT (2 (And))(3 (2 (that))(3 (3 (2 (makes))(2 (2 (all))(2 (2 (the))(2 (difference)))))(2 (.))))) |ET| 
-0.0024885952419529014205401562520592  |BT| (ROOT (2 (2 (You))(2 (2 ('d))(2 (2 (think))(2 (2 (by))(2 (now))))))(2 (2 (America))(2 (2 (2 (would))(1 (2 (have))(2 (2 (2 (had))(1 (2 (enough))(2 (2 (of))(2 (2 (plucky))(2 (2 (British))(1 (eccentrics)))))))(4 (2 (with))(4 (3 (hearts))(3 (2 (of))(3 (gold))))))))(2 (.))))) |ET| 
-0.010509175240264383849320140029704  |BT| (ROOT (2 (Yet))(3 (2 (2 (the))(2 (act)))(3 (4 (3 (2 (is))(3 (2 (still))(4 (charming))))(2 (here)))(2 (.))))) |ET| 
-0.010509175240264383849320140029704  |BT| (ROOT (3 (2 (Part))(3 (2 (of))(4 (2 (2 (the))(3 (charm)))(2 (2 (of))(2 (2 (Satin))(2 (Rouge)))))))(3 (3 (2 (is))(3 (2 (that))(3 (2 (it))(2 (1 (2 (avoids))(2 (2 (the))(1 (obvious))))(3 (2 (with))(3 (3 (3 (humour))(2 (and)))(2 (lightness))))))))(2 (.)))) |ET| 
0.0061464137382696562225681269353572  |BT| (ROOT (4 (4 (2 (The))(4 (3 (gorgeously))(3 (2 (elaborate))(2 (continuation)))))(2 (2 (2 (of))(2 (``)))(2 (2 (The))(2 (2 (2 (Lord))(2 (2 (of))(2 (2 (the))(2 (Rings)))))(2 (2 (''))(2 (trilogy)))))))(2 (3 (2 (2 (is))(2 (2 (so))(2 (huge))))(2 (2 (that))(3 (2 (2 (2 (a))(2 (column)))(2 (2 (of))(2 (words))))(2 (2 (2 (2 (can))(1 (not)))(3 (adequately)))(2 (2 (describe))(2 (3 (2 (2 (co-writer\/director))(2 (2 (Peter))(3 (2 (Jackson))(2 ('s)))))(3 (2 (expanded))(2 (vision))))(2 (2 (of))(2 (2 (2 (J.R.R.))(2 (2 (Tolkien))(2 ('s))))(2 (Middle-earth))))))))))(2 (.)))) |ET| 
0.010509175240264383849320140029704  |BT| (ROOT (2 (2 (Whether))(2 (2 (2 (2 (or))(1 (not)))(3 (2 (you))(2 (2 ('re))(3 (3 (enlightened))(2 (2 (by))(2 (2 (any))(2 (2 (of))(2 (2 (Derrida))(2 ('s))))))))))(2 (2 (lectures))(2 (2 (on))(2 (2 (``))(2 (2 (2 (2 (2 (2 (the))(2 (other)))(2 ('')))(2 (and)))(2 (``)))(2 (2 (the))(2 (self)))))))))(3 (2 (,))(3 (2 (''))(3 (2 (Derrida))(3 (3 (2 (is))(4 (2 (an))(4 (4 (2 (undeniably))(3 (4 (3 (fascinating))(2 (and)))(4 (playful))))(2 (fellow)))))(2 (.))))))) |ET| 
0.010509175240264383849320140029704  |BT| (ROOT (3 (2 (2 (Just))(2 (2 (the))(2 (labour))))(3 (2 (involved))(3 (2 (in))(4 (2 (creating))(3 (3 (2 (the))(3 (3 (layered))(2 (richness))))(3 (2 (of))(3 (2 (2 (the))(2 (imagery)))(2 (2 (in))(3 (2 (2 (this))(2 (chiaroscuro)))(2 (2 (of))(2 (2 (2 (madness))(2 (and)))(2 (light)))))))))))))(3 (3 (2 (is))(4 (astonishing)))(2 (.)))) |ET| 
0.010509175240264383849320140029704  |BT| (ROOT (2 (2 (a))(2 (2 (screenplay))(2 (more))))(3 (4 (ingeniously))(2 (2 (constructed))(2 (2 (2 (2 (than))(2 (``)))(2 (Memento)))(2 ('')))))) |ET| 
-0.0015903556911280650448120566053944  |BT| (ROOT (2 (2 (Despite))(2 (2 (2 (the))(2 (2 (film))(2 ('s))))(3 (1 (bizarre))(2 (developments)))))(3 (2 (,))(4 (2 (Hoffman))(4 (3 (2 (keeps))(3 (3 (us))(3 (4 (riveted))(3 (2 (with))(2 (2 (3 (1 (2 (2 (every))(1 (1 (painful))(2 (nuance))))(2 (,)))(3 (2 (2 (unexpected))(2 (flashes)))(2 (2 (of))(3 (2 (dark))(3 (comedy))))))(2 (and)))(3 (2 (2 (the))(2 (2 (character))(2 ('s))))(3 (3 (gripping))(2 (humanity)))))))))(2 (.)))))) |ET| 
-0.010509175240264383849320140029704  |BT| (ROOT (2 (...))(4 (4 (4 (4 (4 (4 (4 (4 (4 (3 (3 (4 (4 (2 (flat-out))(4 (amusing)))(2 (,)))(3 (2 (sometimes))(3 (endearing))))(2 (and)))(2 (2 (often))(4 (fabulous))))(3 (2 (,))(3 (2 (2 (with))(4 (2 (a))(3 (3 (solid))(2 (cast)))))(2 (,)))))(3 (3 (noteworthy))(2 (characters))))(2 (,)))(3 (3 (delicious))(2 (dialogue))))(2 (and)))(2 (2 (a))(2 (2 (wide))(2 (supply)))))(2 (2 (of))(2 (3 (effective))(1 (2 (sight))(2 (gags))))))(2 (.)))) |ET| 
-0.00034269002187340352012442923346214  |BT| (ROOT (3 (3 (3 (4 (2 (2 (2 (Screenwriter))(2 (3 (Chris))(2 (2 (ver))(2 (2 (Weil))(2 ('s))))))(2 (2 (directing))(2 (debut))))(3 (2 (is))(3 (4 (3 (good-natured))(2 (and)))(3 (2 (never))(0 (dull))))))(2 (,)))(2 (but)))(1 (2 (2 (its))(2 (virtues)))(1 (2 (are))(0 (2 (2 (small))(2 (and)))(2 (3 (easily))(1 (1 (overshadowed))(1 (2 (by))(1 (2 (its))(2 (predictability))))))))))(2 (.))) |ET| 
-0.0039345074125216993737863546698463  |BT| (ROOT (2 (There))(3 (3 (2 (has))(2 (2 (to))(2 (2 (be))(3 (3 (2 (a))(2 (2 (few))(2 (advantages))))(2 (2 (to))(3 (2 (never))(1 (2 (growing))(2 (old)))))))))(2 (.)))) |ET| 
0.010509175240264383849320140029704  |BT| (ROOT (3 (2 (At))(3 (2 (its))(4 (best))))(3 (2 (,))(3 (2 (this))(3 (4 (3 (2 (is))(3 (grand-scale)))(3 (2 (moviemaking))(3 (2 (for))(3 (3 (3 (2 (a))(3 (2 (larger-than-life))(2 (figure))))(2 (,)))(4 (2 (2 (an))(2 (artist)))(3 (2 (who))(3 (2 (has))(3 (2 (been))(4 (3 (2 (awarded))(3 (2 (mythic))(3 (status))))(2 (2 (in))(2 (3 (contemporary))(2 (culture)))))))))))))(2 (.)))))) |ET| 
0.010509175240264383849320140029704  |BT| (ROOT (2 (This))(4 (3 (2 (is))(3 (4 (4 (2 (an))(4 (3 (elegantly))(2 (2 (balanced))(2 (movie)))))(3 (2 (--))(3 (4 (3 (2 (every))(3 (member)))(2 (2 (of))(3 (2 (2 (the))(2 (ensemble)))(3 (3 (2 (has))(3 (2 (something))(3 (fascinating))))(2 (2 (to))(2 (do)))))))(2 (--)))))(1 (2 (that))(1 (1 (2 (does))(2 (n't)))(2 (2 (reveal))(2 (2 (2 (even))(3 (2 (a))(3 (hint))))(2 (2 (of))(2 (artifice)))))))))(2 (.)))) |ET| 
0.010509175240264383849320140029704  |BT| (ROOT (4 (2 (Hugely))(4 (4 (entertaining))(3 (2 (from))(3 (2 (start))(3 (2 (to))(2 (2 (2 (finish))(2 (,)))(2 (2 (2 (featuring))(1 (2 (a))(2 (fall))))(3 (2 (from))(3 (3 (grace))(2 (2 (that))(3 (2 (still))(3 (2 (leaves))(2 (shockwaves))))))))))))))(2 (2 (,))(3 (2 (it))(3 (2 (2 (will))(3 (2 (gratify))(1 (2 (anyone))(2 (2 (who))(1 (2 (2 (has))(2 (ever)))(2 (2 (suspected))(2 (2 (Hollywood))(0 (2 (of))(2 (2 (being))(1 (1 (overrun))(1 (2 (by))(1 (2 (2 (1 (corrupt))(2 (and)))(1 (hedonistic)))(2 (weasels))))))))))))))(2 (.)))))) |ET| 
-0.0087483929894044808878161845200339  |BT| (ROOT (2 (``))(3 (2 (2 (Brown))(3 (2 (Sugar))(3 (2 (''))(3 (admirably)))))(3 (3 (3 (aspires))(3 (2 (to))(3 (2 (be))(3 (2 (more))(2 (2 (than))(2 (3 (2 (another))(2 (2 (``))(3 (4 (Best))(2 (2 (Man))(2 (''))))))(2 (2 (clone))(3 (2 (by))(4 (3 (2 (weaving))(2 (2 (a))(2 (theme))))(3 (2 (throughout))(3 (2 (this))(3 (3 (funny))(2 (film))))))))))))))(2 (.))))) |ET| 
-0.00011250901922204861141819237646544  |BT| (ROOT (3 (2 (3 (2 (A))(2 (2 (mischievous))(3 (2 (visual))(2 (style)))))(2 (and)))(3 (2 (oodles))(3 (2 (of))(3 (charm)))))(3 (3 (2 (2 (make))(3 (2 (`))(3 (3 (Cherish))(2 (')))))(3 (2 (a))(2 (3 (3 (2 (very))(3 (good)))(2 (1 (-LRB-))(1 (2 (2 (but))(1 (1 (not))(4 (great))))(3 (-RRB-)))))(2 (movie)))))(2 (.)))) |ET| 
-0.0037988406449098758785321017228398  |BT| (ROOT (2 (`))(3 (2 (2 (All))(2 (2 (in))(2 (2 (2 (all))(2 (,)))(2 (3 (Reign))(2 (2 (of))(1 (Fire)))))))(2 (3 (3 (2 (will))(2 (2 (be))(3 (2 (a))(3 (4 (3 (good))(3 (1 (-LRB-))(3 (4 (successful))(3 (-RRB-)))))(2 (rental))))))(2 (.)))(2 ('))))) |ET| 
0.010509175240264383849320140029704  |BT| (ROOT (3 (2 (3 (Sweet))(2 (and)))(4 (4 (memorable))(2 (film))))(2 (.))) |ET| 
0.010509175240264383849320140029704  |BT| (ROOT (4 (2 (3 (2 (1 (1 (Leave))(2 (it)))(2 (2 (to))(2 (2 (John))(2 (Sayles)))))(2 (2 (to))(2 (2 (take))(2 (2 (on))(2 (2 (2 (developers))(2 (,)))(2 (2 (2 (the))(2 (Chamber)))(2 (2 (of))(2 (2 (2 (2 (Commerce))(2 (,)))(2 (2 (2 (tourism))(2 (,)))(2 (2 (historical))(2 (pageants)))))(2 (,))))))))))(2 (and)))(3 (2 (1 (2 (commercialism))(2 (2 (all))(2 (2 (in))(2 (2 (the))(2 (2 (same))(2 (movie)))))))(2 (...)))(3 (2 (without))(2 (0 (2 (neglecting))(2 (2 (character))(2 (development))))(2 (2 (for))(2 (2 (even))(2 (2 (one))(2 (minute)))))))))(2 (.))) |ET| 
0.010509175240264383849320140029704  |BT| (ROOT (2 (It))(4 (3 (2 (2 ('s))(2 (2 (2 (the))(3 (kind)))(2 (2 (of))(2 (movie)))))(2 (2 (that))(2 (2 (2 (,))(2 (2 (aside))(2 (2 (2 (from))(2 (2 (2 (2 (2 (2 (2 (2 (Robert))(2 (Altman)))(2 (,)))(2 (2 (Spike))(2 (Lee))))(2 (,)))(2 (2 (the))(3 (2 (Coen))(2 (Brothers)))))(2 (and)))(2 (2 (a))(2 (2 (few))(2 (others))))))(2 (,)))))(2 (3 (2 (our))(2 (moviemakers)))(2 (2 (2 (do))(2 (n't)))(2 (2 (make))(2 (2 (often))(2 (enough)))))))))(2 (.)))) |ET| 
0.010509175240264383849320140029704  |BT| (ROOT (2 (3 (Like))(4 (2 (2 (all))(3 (4 (great))(2 (films))))(2 (2 (about))(2 (2 (2 (a))(3 (life)))(2 (2 (you))(2 (2 (never))(2 (2 (knew))(2 (existed)))))))))(3 (2 (,))(3 (2 (it))(3 (3 (2 (offers))(3 (2 (2 (2 (much))(2 (2 (to))(2 (absorb))))(2 (and)))(3 (2 (even))(3 (2 (more))(2 (2 (to))(2 (2 (2 (think))(2 (about)))(2 (2 (after))(2 (2 (the))(2 (2 (final))(2 (frame)))))))))))(2 (.)))))) |ET| 
0.010509175240264383849320140029704  |BT| (ROOT (2 (2 (When))(2 (2 (2 (2 (2 (cowering))(2 (and)))(2 (begging)))(2 (2 (at))(2 (2 (the))(2 (feet)))))(2 (1 (2 (a))(2 (scruffy)))(2 (Giannini)))))(3 (2 (,))(3 (2 (Madonna))(3 (4 (2 (3 (2 (gives))(3 (2 (her))(4 (best))))(2 (performance)))(2 (2 (since))(2 (2 (2 (Abel))(2 (Ferrara)))(2 (2 (had))(1 (2 (her))(1 (1 (beaten))(2 (2 (to))(2 (2 (2 (a))(2 (pulp)))(2 (2 (in))(2 (2 (his))(2 (1 (Dangerous))(2 (Game)))))))))))))(2 (.)))))) |ET| 
-0.010509175240264383849320140029704  |BT| (ROOT (2 (Elling))(3 (4 (2 (2 (builds))(2 (gradually)))(3 (2 (until))(3 (2 (you))(4 (3 (2 (feel))(2 (fully)))(4 (3 (embraced))(3 (2 (by))(3 (2 (this))(3 (3 (gentle))(3 (comedy))))))))))(2 (.)))) |ET| 
0.010509175240264383849320140029704  |BT| (ROOT (3 (3 (2 (A))(4 (3 (compelling))(2 (2 (pre-WWII))(1 (drama)))))(4 (2 (with))(4 (3 (3 (3 (vivid))(2 (characters)))(2 (and)))(3 (2 (a))(3 (3 (3 (warm))(3 (2 (,))(3 (moving))))(2 (message)))))))(2 (.))) |ET| 
0.009560705752466090376340268619515  |BT| (ROOT (4 (4 (Spectacularly))(4 (beautiful)))(4 (2 (,))(3 (4 (1 (not))(3 (2 (to))(4 (3 (2 (mention))(3 (3 (4 (4 (3 (3 (3 (3 (mysterious))(2 (,)))(3 (sensual)))(2 (,)))(3 (2 (emotionally))(3 (intense))))(2 (,)))(2 (and)))(2 (replete))))(3 (2 (with))(3 (3 (virtuoso))(2 (throat-singing)))))))(2 (.))))) |ET| 
0.010509175240264383849320140029704  |BT| (ROOT (3 (4 (Enriched))(3 (2 (by))(3 (2 (a))(3 (4 (3 (3 (strong))(2 (and)))(3 (unforced)))(2 (3 (supporting))(2 (cast)))))))(2 (.))) |ET| 
-0.002561934522953676109102705282794  |BT| (ROOT (1 (4 (2 (A))(4 (3 (3 (3 (strong))(2 (and)))(4 (confident)))(2 (work))))(1 (2 (which))(1 (1 (3 (3 (3 (2 (works))(3 (2 (so))(3 (well))))(2 (2 (for))(2 (2 (the))(2 (2 (first))(2 (2 (89))(2 (minutes)))))))(2 (,)))(2 (but)))(0 (2 (ends))(0 (2 (so))(0 (0 (horrendously))(1 (confusing))))))))(2 (2 (in))(2 (2 (the))(2 (2 (final))(2 (two)))))) |ET| 
-0.0028151003135545491461166900393209  |BT| (ROOT (2 (Cattaneo))(2 (2 (2 (should))(2 (2 (have))(2 (3 (2 (followed))(4 (4 (2 (the))(3 (2 (runaway))(3 (success))))(1 (2 (of))(2 (2 (2 (2 (2 (his))(2 (2 (first))(2 (film))))(2 (,)))(2 (2 (The))(2 (3 (Full))(2 (Monty)))))(2 (,))))))(2 (2 (with))(3 (2 (something))(2 (different)))))))(2 (.)))) |ET| 
-0.010509175240264383849320140029704  |BT| (ROOT (2 (2 (Even))(1 (2 (when))(1 (2 (it))(1 (drags)))))(4 (2 (,))(3 (2 (we))(4 (2 (are))(4 (1 (forced))(3 (2 (to))(3 (3 (reflect))(4 (2 (that))(4 (3 (2 (its))(2 (2 (visual))(3 (imagination))))(4 (2 (is))(4 (breathtaking)))))))))))) |ET| 
0.010509175240264383849320140029704  |BT| (ROOT (2 (This))(4 (4 (2 (is))(3 (2 (a))(4 (3 (superior))(2 (1 (horror))(2 (flick))))))(2 (.)))) |ET| 
0.0026565373699235211163438563630734  |BT| (ROOT (2 (2 (2 (2 (3 (3 (2 (Writer-director))(2 (2 (David))(2 (Jacobson))))(2 (and)))(2 (2 (his))(2 (star))))(2 (,)))(2 (2 (Jeremy))(2 (Renner))))(2 (,)))(4 (4 (2 (have))(4 (2 (made))(4 (4 (2 (a))(4 (4 (remarkable))(2 (film))))(3 (2 (that))(2 (2 (explores))(2 (2 (2 (the))(2 (2 (monster))(2 ('s))))(2 (2 (psychology))(1 (2 (1 (not))(2 (2 (in))(2 (order))))(2 (2 (2 (2 (to))(2 (2 (excuse))(2 (him))))(2 (2 (but))(2 (rather))))(2 (2 (to))(1 (2 (demonstrate))(2 (2 (that))(2 (2 (2 (his))(2 (pathology)))(2 (2 (evolved))(1 (2 (from))(1 (2 (2 (human))(2 (impulses)))(0 (2 (that))(1 (2 (grew))(1 (0 (hideously))(1 (twisted)))))))))))))))))))))(2 (.)))) |ET| 
0.010509175240264383849320140029704  |BT| (ROOT (3 (2 (The))(2 (way)))(3 (2 (2 (2 (2 (2 (2 (2 (2 (the))(2 (roundelay)))(2 (2 (of))(2 (2 (partners))(2 (functions)))))(2 (,)))(2 (and)))(2 (2 (2 (the))(2 (interplay)))(2 (2 (2 (2 (within))(2 (partnerships)))(2 (and)))(2 (2 (among))(2 (partnerships))))))(2 (and)))(2 (2 (2 (the))(2 (2 (general))(2 (air))))(2 (2 (of))(2 (Gator-bashing)))))(3 (4 (2 (2 (are))(2 (consistently)))(4 (delightful)))(2 (.))))) |ET| 
-0.010509175240264383849320140029704  |BT| (ROOT (3 (Certainly))(4 (2 (2 (the))(2 (performances)))(3 (3 (2 (are))(3 (worthwhile)))(2 (.))))) |ET| 
-0.0061348569675095891012839288691794  |BT| (ROOT (2 (Oh))(2 (2 (,))(3 (3 (2 (and))(3 (3 (3 (2 (more))(4 (entertaining)))(2 (,)))(2 (too))))(2 (.))))) |ET| 
0.010509175240264383849320140029704  |BT| (ROOT (4 (4 (2 (2 (A))(4 (3 (funny))(4 (2 (,))(3 (3 (triumphant))(2 (,))))))(2 (and)))(3 (3 (moving))(2 (documentary))))(2 (.))) |ET| 
0.010509175240264383849320140029704  |BT| (ROOT (3 (3 (3 (2 (Darkly))(3 (funny)))(2 (and)))(2 (2 (frequently))(3 (insightful))))(2 (.))) |ET| 
0.010509175240264383849320140029704  |BT| (ROOT (2 (2 (Secret))(3 (Ballot)))(4 (3 (2 (is))(4 (4 (2 (a))(3 (2 (3 (funny))(2 (2 (,))(1 (puzzling))))(2 (movie))))(3 (3 (3 (2 (3 (ambiguous))(2 (enough)))(3 (2 (to))(3 (2 (be))(4 (engaging)))))(2 (and)))(3 (2 (oddly))(3 (moving))))))(2 (.)))) |ET| 
-0.010509175240264383849320140029704  |BT| (ROOT (2 (A))(4 (4 (2 (film))(4 (2 (that))(4 (2 (will))(4 (3 (enthrall))(2 (2 (the))(3 (2 (whole))(3 (family))))))))(2 (.)))) |ET| 
-0.010509175240264383849320140029704  |BT| (ROOT (4 (2 (A))(4 (4 (3 (surprisingly))(3 (3 (4 (sweet))(2 (and)))(3 (gentle))))(3 (comedy))))(2 (.))) |ET| 
-0.010509175240264383849320140029704  |BT| (ROOT (3 (3 (2 (The))(4 (3 (4 (humor))(2 (and)))(2 (humanity))))(2 (2 (of))(3 (2 (Monsoon))(3 (Wedding)))))(4 (4 (2 (are))(3 (2 (in))(3 (4 (perfect))(2 (balance)))))(2 (.)))) |ET| 
0.010509175240264383849320140029704  |BT| (ROOT (2 (2 (2 (2 (A))(2 (reminder)))(2 (that)))(2 (2 (beyond))(2 (2 (2 (2 (all))(1 (2 (the))(2 (hype))))(2 (and)))(2 (2 (recent))(2 (2 (digital))(3 (glitz)))))))(3 (2 (,))(4 (2 (Spielberg))(3 (3 (2 (knows))(2 (2 (how))(2 (2 (to))(2 (2 (2 (tell))(3 (us)))(2 (2 (about))(2 (people)))))))(2 (.)))))) |ET| 
0.0024167656432813209785304131571593  |BT| (ROOT (2 (...))(4 (4 (4 (3 (1 (2 (2 (2 (by))(2 (2 (the))(2 (time))))(2 (2 (it))(2 (2 ('s))(2 (2 (done))(3 (2 (with))(3 (us)))))))(2 (,)))(3 (2 (2 (2 (Mira))(2 (2 (Nair))(2 ('s))))(2 (3 (new))(2 (movie))))(3 (2 (has))(3 (3 (2 (its))(2 (2 (audience))(2 (giddy))))(3 (2 (with))(3 (2 (2 (the))(4 (delight)))(3 (2 (of))(2 (discovery)))))))))(2 (,)))(2 (2 (of))(2 (2 (having))(3 (2 (been))(2 (3 (3 (immersed))(2 (2 (in))(2 (2 (a))(1 (2 (foreign))(2 (2 (culture))(2 (only)))))))(2 (2 (to))(2 (2 (find))(2 (2 (that))(2 (3 (2 (human))(2 (nature)))(1 (2 (2 (is))(2 (4 (pretty))(2 (much))))(2 (2 (2 (the))(2 (same)))(2 (2 (all))(2 (over))))))))))))))(2 (.)))) |ET| 
0.010509175240264383849320140029704  |BT| (ROOT (2 (2 (Most))(2 (2 (haunting))(2 (2 (2 (2 (about))(2 (``)))(2 (Fence)))(2 ('')))))(2 (2 (2 (is))(3 (2 (2 (2 (its))(2 (conclusion)))(2 (,)))(3 (2 (when))(2 (2 (we))(2 (2 (2 (2 (hear))(2 (2 (2 (the))(2 (3 (ultimate))(2 (fate))))(2 (2 (of))(2 (2 (these))(2 (girls))))))(2 (and)))(1 (1 (1 (2 (2 (realize))(2 (,)))(1 (2 (much))(1 (2 (to))(1 (2 (our))(1 (dismay))))))(2 (,)))(2 (2 (that))(2 (2 (this))(2 (2 (really))(2 (2 (did))(2 (happen))))))))))))(2 (.)))) |ET| 
-0.00012914596971681988860254641782177  |BT| (ROOT (2 (2 (2 (2 (2 (4 (Enchanted))(2 (2 (with))(1 (1 (low-life))(1 (tragedy)))))(2 (and)))(3 (2 (2 (liberally))(2 (seasoned)))(2 (2 (with))(2 (2 (emotional))(2 (outbursts))))))(2 (...)))(1 (1 (2 (What))(1 (2 (2 (is))(2 (sorely)))(2 (missing))))(3 (2 (,))(2 (2 (however))(3 (2 (,))(3 (2 (2 (is))(3 (3 (2 (the))(3 (edge)))(2 (2 (of))(1 (2 (wild))(2 (2 (,))(2 (2 (lunatic))(2 (invention))))))))(3 (2 (that))(3 (2 (we))(3 (2 (associate))(3 (2 (with))(4 (2 (2 (Cage))(2 ('s)))(3 (4 (best))(2 (acting))))))))))))))(2 (.))) |ET| 
-0.0064044436847921848779408016127945  |BT| (ROOT (3 (1 (-LRB-))(3 (2 (2 (The))(2 (film)))(2 (3 (-RRB-))(4 (2 (tackles))(3 (2 (2 (the))(3 (topic)))(4 (2 (of))(3 (2 (relationships))(3 (2 (in))(4 (2 (such))(3 (3 (2 (a))(3 (4 (3 (straightforward))(3 (2 (,))(3 (2 (emotionally))(4 (honest)))))(2 (manner))))(2 (2 (that))(2 (2 (by))(2 (2 (the))(2 (end)))))))))))))))(2 (2 (,))(2 (2 (it))(2 (2 (2 ('s))(2 (0 (impossible))(2 (2 (to))(2 (2 (ascertain))(2 (2 (whether))(3 (2 (2 (the))(2 (film)))(2 (2 (2 (2 (2 (is))(2 (,)))(2 (2 (at))(3 (2 (its))(2 (core)))))(2 (,)))(2 (3 (1 (2 (deeply))(2 (pessimistic)))(2 (or)))(3 (2 (quietly))(2 (hopeful)))))))))))(2 (.)))))) |ET| 
0.010509175240264383849320140029704  |BT| (ROOT (3 (2 (A))(4 (4 (3 (truly))(3 (wonderful)))(2 (tale))))(4 (4 (2 (combined))(4 (2 (with))(4 (4 (stunning))(2 (animation)))))(2 (.)))) |ET| 
-0.010509175240264383849320140029704  |BT| (ROOT (2 (It))(4 (3 (2 (has))(3 (2 (plenty))(3 (2 (of))(3 (laughs)))))(2 (.)))) |ET| 
0.0022165417071744113013120891508834  |BT| (ROOT (4 (3 (2 (The))(4 (3 (2 (most))(4 (4 (4 (brilliant))(2 (and)))(2 (brutal))))(2 (2 (UK))(2 (1 (crime))(2 (film))))))(2 (2 (since))(2 (2 (Jack))(2 (Carter)))))(3 (3 (3 (2 (went))(2 (back)))(3 (2 (to))(4 (4 (3 (3 (2 (2 (Newcastle))(2 (,)))(3 (2 (2 (2 (the))(2 (2 (first))(2 (half))))(2 (2 (of))(1 (2 (Gangster))(2 (1 (No.))(2 (2 (1))(2 (drips)))))))(3 (2 (with))(2 (style)))))(2 (and)))(2 (2 (,))(2 (2 (2 (at))(2 (times)))(2 (,)))))(1 (blood)))))(2 (.)))) |ET| 
-0.00016323450459172374042184083808849  |BT| (ROOT (2 (Ultimately))(3 (3 (2 (3 (engages))(2 (3 (2 (less))(3 (2 (for))(3 (2 (2 (its))(2 (story)))(2 (2 (of))(3 (2 (2 (2 (actorly))(2 (existential)))(1 (despair)))(2 (2 (2 (than))(3 (2 (for))(3 (2 (its))(3 (2 (boundary-hopping))(2 (2 (formal))(3 (3 (2 (innovations))(2 (and)))(2 (glimpse))))))))(2 (2 (into))(2 (2 (2 (another))(3 (kind)))(2 (2 (of))(2 (Chinese)))))))))))(3 (2 (`))(2 (3 (cultural))(2 (revolution))))))(2 (.)))(2 (')))) |ET| 
0.0043719251679382904740567283852215  |BT| (ROOT (3 (2 (2 (2 (Schepisi))(2 (,)))(3 (2 (aided))(3 (2 (by))(4 (2 (2 (a))(2 (cast)))(2 (2 (that))(3 (2 (seems))(1 (2 (to))(3 (2 (include))(2 (4 (2 (every))(4 (4 (top-notch))(2 (2 (British))(2 (actor)))))(2 (2 (who))(2 (2 (2 (did))(1 (not)))(2 (2 (appear))(2 (2 (in))(2 (2 (2 (Gosford))(2 (Park)))(2 (1 (-LRB-))(2 (2 (2 (2 (as))(3 (well)))(2 (2 (as))(2 (2 (2 (2 (2 (one))(2 (,)))(2 (2 (Ms.))(2 (Mirren))))(2 (,)))(2 (2 (who))(2 (did))))))(3 (-RRB-))))))))))))))))))(2 (,)))(4 (4 (2 (has))(4 (3 (succeeded))(3 (2 (beyond))(2 (2 (all))(2 (expectation))))))(2 (.)))) |ET| 
0.010509175240264383849320140029704  |BT| (ROOT (4 (4 (2 (The))(3 (4 (2 (most))(4 (brilliant)))(2 (work))))(2 (2 (in))(2 (2 (2 (this))(2 (genre)))(2 (2 (since))(2 (2 (2 (the))(2 (2 (1984))(2 (2 (uncut))(2 (version)))))(2 (2 (of))(2 (2 (Sergio))(2 (Leone)))))))))(2 (2 (2 (2 ('s))(2 (1 (1 (flawed))(2 (but)))(2 (staggering))))(2 (2 (Once))(2 (2 (Upon))(2 (2 (2 (a))(2 (Time)))(2 (2 (in))(2 (America)))))))(2 (.)))) |ET| 
0.010509175240264383849320140029704  |BT| (ROOT (4 (4 (Spectacular))(2 (2 (in))(2 (2 (2 (every))(2 (sense)))(2 (2 (of))(2 (2 (2 (2 (2 (the))(2 (word)))(2 (,)))(2 (2 (even))(2 (2 (if))(2 (you)))))(2 (2 (2 (don))(2 (')))(2 (t))))))))(2 (2 (2 (2 (know))(2 (2 (an))(2 (Orc))))(2 (2 (from))(2 (2 (a))(2 (Uruk-Hai)))))(2 (.)))) |ET| 
-0.0068021788354851462146677398834527  |BT| (ROOT (3 (3 (3 (Efficient))(2 (,)))(3 (2 (suitably))(3 (2 (anonymous))(2 (chiller)))))(2 (.))) |ET| 
-0.00146488033874401829721734191736  |BT| (ROOT (2 (2 (2 (A))(2 (Meatballs)))(2 (2 (for))(2 (2 (the))(3 (2 (bare-midriff))(2 (generation))))))(2 (.))) |ET| 
0.010509175240264383849320140029704  |BT| (ROOT (2 (He))(3 (3 (2 (makes))(3 (2 (you))(3 (2 (realize))(3 (2 (that))(3 (3 (2 (deep))(3 (2 (inside))(2 (righteousness))))(2 (2 (can))(3 (2 (be))(3 (2 (found))(2 (2 (a))(3 (2 (tough))(3 (beauty))))))))))))(2 (.)))) |ET| 
0.010509175240264383849320140029704  |BT| (ROOT (3 (3 (4 (3 (3 (Kids))(3 (2 (will))(3 (4 (love))(2 (2 (its))(3 (2 (3 (fantasy))(2 (and)))(3 (adventure)))))))(2 (,)))(2 (and)))(3 (3 (grownups))(4 (2 (should))(2 (3 (appreciate))(3 (2 (its))(4 (3 (whimsical))(4 (humor))))))))(2 (.))) |ET| 
0.010509175240264383849320140029704  |BT| (ROOT (4 (2 (This))(3 (2 (comic))(3 (gem))))(3 (4 (3 (2 (is))(3 (2 (as))(4 (delightful))))(2 (2 (as))(1 (2 (it))(1 (2 (is))(3 (derivative))))))(2 (.)))) |ET| 
0.010509175240264383849320140029704  |BT| (ROOT (3 (3 (4 (2 (It))(4 (2 ('s))(3 (3 (crafty))(3 (2 (,))(3 (3 (3 (energetic))(2 (and)))(4 (smart)))))))(2 (--)))(2 (2 (2 (the))(2 (kid)))(2 (2 (2 (is))(2 (2 (sort))(2 (of))))(2 (2 (like))(2 (2 (a))(2 (2 (fourteen-year))(2 (2 (old))(2 (2 (Ferris))(2 (Bueller))))))))))(2 (.))) |ET| 
-0.010509175240264383849320140029704  |BT| (ROOT (4 (2 (1 (Tense))(2 (,)))(3 (4 (terrific))(4 (2 (,))(4 (2 (sweaty-palmed))(4 (fun))))))(2 (.))) |ET| 
-0.010509175240264383849320140029704  |BT| (ROOT (2 (Fubar))(3 (3 (3 (2 (is))(3 (3 (4 (4 (2 (very))(3 (funny)))(2 (,)))(2 (but)))(2 (1 (not))(2 (always)))))(3 (2 (in))(3 (2 (a))(3 (3 (laugh-out-loud))(2 (way))))))(2 (.)))) |ET| 
-0.010509175240264383849320140029704  |BT| (ROOT (3 (3 (4 (3 (Wonderful))(2 (2 (fencing))(2 (scenes))))(2 (and)))(4 (2 (an))(3 (4 (exciting))(2 (plot)))))(4 (4 (2 (make))(4 (2 (this))(4 (2 (an))(3 (2 (eminently))(3 (4 (engrossing))(2 (film)))))))(2 (.)))) |ET| 
0.0098477442512770012317258050416058  |BT| (ROOT (2 (Others))(2 (2 (,))(3 (2 (2 (2 (3 (2 (more))(2 (3 (attuned))(2 (2 (to))(1 (2 (2 (the))(1 (2 (anarchist))(2 (maxim))))(2 (2 (2 (2 (that))(2 (`)))(2 (2 (the))(2 (2 (urge))(2 (2 (to))(1 (1 (destroy))(3 (2 (2 (is))(2 (also)))(3 (2 (a))(3 (4 (creative))(2 (urge))))))))))(2 (')))))))(2 (,)))(2 (or)))(2 (2 (more))(2 (2 (willing))(2 (2 (to))(2 (2 (see))(2 (2 (with))(2 (2 (their))(2 (2 (own))(2 (eyes))))))))))(3 (2 (,))(3 (4 (2 (will))(4 (3 (2 (find))(2 (2 (2 (2 (Morrison))(2 ('s)))(3 (2 (iconoclastic))(2 (uses))))(2 (2 (of))(2 (technology)))))(3 (2 (to))(3 (2 (be))(3 (liberating))))))(2 (.))))))) |ET| 
0.010509175240264383849320140029704  |BT| (ROOT (3 (2 (While))(3 (3 (2 (3 (2 (2 (Parker))(2 (2 (and))(2 (2 (co-writer))(2 (2 (Catherine))(2 (2 (di))(2 (Napoli)))))))(3 (2 (2 (2 (are))(3 (3 (faithful))(2 (2 (to))(2 (2 (2 (Melville))(2 ('s)))(2 (plotline))))))(2 (,)))(2 (they))))(2 (and)))(3 (2 (a))(3 (2 (2 (fully))(3 (engaged)))(2 (3 (supporting))(2 (cast))))))(3 (2 (...))(3 (2 (have))(3 (2 (made))(3 (2 (2 (2 (the))(2 (2 (old))(2 (2 (boy))(2 ('s)))))(2 (characters)))(3 (2 (more))(3 (3 (quick-witted))(2 (2 (than))(2 (2 (any))(2 (2 (English))(2 (Lit)))))))))))))(2 (2 (major))(2 (2 (2 (would))(3 (2 (have))(2 (2 (thought))(2 (possible)))))(2 (.))))) |ET| 
-0.0031250585051329350487481217868435  |BT| (ROOT (1 (2 (Too))(1 (1 (damn))(1 (weird))))(2 (3 (2 (2 (2 (2 (to))(1 (2 (pass))(2 (up))))(2 (,)))(2 (and)))(2 (3 (2 (for))(3 (2 (2 (2 (the))(2 (2 (blacklight))(2 (crowd))))(2 (,)))(3 (2 (way))(2 (2 (cheaper))(3 (3 (2 (1 (-LRB-))(2 (and)))(4 (better)))(3 (-RRB-)))))))(2 (2 (than))(3 (2 (Pink))(2 (2 (Floyd))(2 (tickets)))))))(2 (.)))) |ET| 
0.010509175240264383849320140029704  |BT| (ROOT (2 (2 (The))(2 (world)))(3 (3 (2 (2 (needs))(2 (2 (more))(2 (filmmakers))))(3 (2 (with))(3 (3 (3 (passionate))(2 (enthusiasms)))(2 (2 (like))(2 (2 (Martin))(2 (Scorsese)))))))(2 (.)))) |ET| 
0.010509175240264383849320140029704  |BT| (ROOT (2 (1 (-LRB-))(2 (2 (Ramsay))(3 (-RRB-))))(4 (3 (visually))(3 (3 (2 (transforms))(1 (1 (2 (2 (the))(1 (1 (dreary))(2 (expanse))))(1 (2 (of))(0 (1 (dead-end))(1 (distaste)))))(3 (2 (2 (the))(2 (characters)))(3 (2 (inhabit))(3 (2 (into))(3 (2 (2 (a))(2 (poem)))(2 (2 (of))(2 (2 (art))(2 (2 (,))(2 (2 (2 (music))(2 (and)))(3 (metaphor))))))))))))(2 (.))))) |ET| 
0.010509175240264383849320140029704  |BT| (ROOT (2 (It))(4 (3 (2 ('s))(3 (3 (3 (3 (3 (technically))(3 (sumptuous)))(2 (but)))(2 (also)))(3 (2 (almost))(4 (2 (wildly))(3 (alive))))))(2 (.)))) |ET| 
0.010509175240264383849320140029704  |BT| (ROOT (2 (Adaptation))(4 (4 (2 (2 (is))(2 (simply)))(4 (brilliant)))(2 (.)))) |ET| 
0.010509175240264383849320140029704  |BT| (ROOT (3 (3 (3 (Fun))(2 (and)))(2 (nimble)))(2 (.))) |ET| 
-0.0020778447905610000420728589176633  |BT| (ROOT (1 (2 (Though))(0 (2 (it))(1 (1 (lacks))(3 (2 (2 (the))(1 (2 (utter))(2 (authority))))(3 (2 (of))(3 (2 (a))(3 (2 (genre))(3 (gem)))))))))(4 (2 (,))(4 (2 (there))(3 (3 (2 ('s))(3 (3 (2 (a))(3 (3 (certain))(3 (robustness))))(3 (2 (to))(3 (3 (2 (this))(3 (4 (engaging))(2 (mix))))(2 (2 (of))(3 (3 (4 (love))(2 (and)))(2 (bloodletting))))))))(2 (.)))))) |ET| 
-0.010509175240264383849320140029704  |BT| (ROOT (2 (2 (2 (The))(3 (4 (best))(2 (part))))(2 (2 (about))(2 (2 (``))(2 (2 (Gangs))(2 (''))))))(3 (2 (2 (was))(2 (2 (Daniel))(2 (Day-Lewis))))(2 (.)))) |ET| 
-0.010509175240264383849320140029704  |BT| (ROOT (3 (2 (Able))(3 (2 (to))(3 (3 (2 (provide))(2 (insight)))(4 (2 (into))(4 (3 (2 (a))(3 (3 (fascinating))(2 (part))))(3 (2 (of))(2 (3 (theater))(2 (history)))))))))(2 (.))) |ET| 
0.010509175240264383849320140029704  |BT| (ROOT (2 (2 (2 (2 (You))(2 (2 (can))(3 (2 (2 (2 (sip))(2 (2 (your))(2 (2 (vintage))(2 (wines)))))(2 (and)))(3 (2 (watch))(2 (2 (your))(3 (2 (Merchant))(2 (2 (Ivory))(2 (productions)))))))))(2 (;)))(3 (3 (2 (2 (I))(2 (2 ('ll))(2 (2 (settle))(2 (2 (for))(3 (2 (2 (a))(2 (3 (nice))(2 (3 (cool))(2 (glass)))))(2 (2 (of))(2 (2 (iced))(2 (tea)))))))))(2 (and)))(3 (2 (2 (a))(2 (2 (Jerry))(2 (Bruckheimer))))(2 (2 (flick))(2 (2 (2 (any))(2 (day)))(2 (2 (of))(2 (2 (the))(2 (week)))))))))(2 (.))) |ET| 
0.0038310477306567293151462472167168  |BT| (ROOT (2 (2 (While))(2 (2 (centered))(2 (2 (on))(2 (2 (2 (the))(2 (3 (life))(2 (experiences))))(3 (2 (of))(2 (2 (a))(2 (2 (particular))(2 (2 (theatrical))(3 (family))))))))))(4 (2 (,))(4 (2 (this))(4 (3 (3 (4 (4 (marvelous))(2 (2 (documentary))(2 (touches))))(3 (2 (--))(3 (3 (2 (ever))(4 (2 (so))(3 (gracefully))))(2 (--)))))(2 (2 (2 (on))(2 (2 (2 (the))(2 (2 (entire))(2 (history))))(2 (2 (of))(2 (2 (the))(2 (2 (Yiddish))(3 (theater)))))))(2 (2 (2 (,))(2 (both)))(2 (2 (in))(2 (2 (2 (America))(2 (and)))(2 (Israel)))))))(2 (.)))))) |ET| 
0.010509175240264383849320140029704  |BT| (ROOT (3 (2 (Director))(2 (2 (Juan))(2 (2 (Jose))(2 (Campanella)))))(3 (4 (2 (2 (2 (2 (1 (2 (2 (could))(2 (2 (have))(2 (3 (2 (turned))(2 (this)))(1 (2 (into))(2 (1 (2 (an))(1 (2 (Argentine))(2 (retread))))(2 (2 (of))(2 (2 (``))(2 (2 (2 (2 (2 (Iris))(2 ('')))(2 (or)))(2 (``)))(2 (2 (American))(3 (Beauty)))))))))))(2 (,)))(2 ('')))(2 (but)))(2 (2 (instead))(2 (2 (2 (pulls))(2 (2 (a))(2 (little))))(3 (2 (from))(2 (2 (each))(2 (film)))))))(2 (and)))(3 (2 (creates))(3 (2 (something))(4 (2 (more))(3 (4 (beautiful))(1 (2 (than))(2 (2 (either))(2 (2 (of))(2 (2 (those))(2 (films)))))))))))(2 (.)))) |ET| 
-0.0031758158882502049609464211954446  |BT| (ROOT (2 (2 (If))(2 (2 (you))(2 (2 (2 (have))(2 (n't)))(2 (2 (2 (seen))(2 (2 (the))(2 (film))))(2 (lately))))))(3 (2 (,))(3 (2 (you))(3 (3 (2 (may))(3 (2 (be))(4 (3 (surprised))(3 (2 (at))(3 (2 (2 (the))(2 (variety)))(2 (2 (of))(2 (2 (tones))(2 (2 (in))(2 (2 (2 (Spielberg))(2 ('s)))(2 (work)))))))))))(2 (.)))))) |ET| 
-0.010509175240264383849320140029704  |BT| (ROOT (2 (It))(4 (4 (2 ('s))(4 (2 (2 (a))(2 (movie)))(3 (2 (that))(4 (3 (accomplishes))(4 (2 (2 (so))(2 (much)))(3 (2 (that))(3 (2 (2 (one))(2 (viewing)))(1 (2 (2 (2 (ca))(2 (n't)))(2 (possibly)))(2 (2 (be))(2 (enough)))))))))))(2 (.)))) |ET| 
-0.010509175240264383849320140029704  |BT| (ROOT (4 (3 (3 (Elegant))(2 (,)))(2 (2 (3 (mannered))(2 (and)))(1 (teasing))))(2 (.))) |ET| 
0.010509175240264383849320140029704  |BT| (ROOT (2 (4 (unpretentious))(2 (,)))(4 (4 (charming))(3 (2 (,))(3 (2 (quirky))(3 (2 (,))(3 (original))))))) |ET| 
0.010509175240264383849320140029704  |BT| (ROOT (2 (It))(3 (3 (2 ('s))(3 (2 (that))(3 (good))))(2 (.)))) |ET| 
0.010509175240264383849320140029704  |BT| (ROOT (3 (2 (A))(3 (3 (3 (surprisingly))(3 (funny)))(2 (movie))))(2 (.))) |ET| 
-0.00090276649937985576840904222706286  |BT| (ROOT (3 (3 (Saved))(3 (2 (from))(2 (2 (being))(3 (2 (merely))(3 (4 (way-cool))(3 (2 (by))(3 (2 (a))(2 (2 (basic))(3 (2 (,))(3 (3 (credible))(2 (compassion))))))))))))(2 (.))) |ET| 
-0.0010742675202804910592618847786639  |BT| (ROOT (2 (Strangely))(1 (3 (2 (3 (comes))(1 (off)))(2 (2 (as))(1 (3 (2 (a))(2 (kingdom)))(2 (2 (2 (2 (more))(2 (mild)))(2 (than)))(2 (wild))))))(2 (.)))) |ET| 
-0.010509175240264383849320140029704  |BT| (ROOT (2 (It))(3 (4 (2 ('s))(3 (3 (refreshing))(4 (2 (to))(3 (2 (see))(3 (2 (2 (a))(3 (romance)))(3 (2 (this))(4 (smart))))))))(2 (.)))) |ET| 
0.0047673348145999003624972978343521  |BT| (ROOT (4 (3 (4 (4 (2 (2 (The))(2 (2 (art))(2 (direction))))(4 (2 (is))(3 (2 (often))(4 (exquisite)))))(2 (,)))(2 (and)))(3 (2 (2 (the))(2 (3 (anthropomorphic))(2 (3 (animal))(2 (characters)))))(3 (3 (2 (are))(3 (beautifully)))(2 (3 (3 (2 (realized))(3 (2 (through))(3 (4 (clever))(2 (2 (makeup))(2 (design))))))(2 (,)))(2 (2 (2 (leaving))(2 (one)))(2 (2 (to))(2 (4 (hope))(2 (2 (that))(2 (2 (2 (the))(2 (2 (eventual))(2 (2 (DVD))(2 (release)))))(2 (2 (will))(2 (2 (offer))(2 (2 (2 (subtitles))(2 (and)))(2 (2 (the))(2 (3 (original))(2 (2 (Italian-language))(2 (soundtrack)))))))))))))))))(2 (.))) |ET| 
0.0093722916882977864300174886125205  |BT| (ROOT (4 (2 (2 (2 (2 (2 (2 (The))(2 (determination)))(2 (2 (of))(1 (2 (1 (Pinochet))(2 ('s)))(1 (victims)))))(2 (2 (to))(2 (2 (seek))(2 (justice)))))(2 (,)))(2 (and)))(4 (3 (3 (2 (2 (2 (their))(2 (1 (2 (often))(2 (heartbreaking)))(2 (testimony))))(2 (,)))(2 (2 (2 (spoken))(2 (directly)))(2 (2 (into))(2 (2 (2 (director))(2 (2 (Patricio))(2 (2 (Guzman))(2 ('s)))))(2 (camera))))))(2 (,)))(4 (2 (pack))(3 (2 (a))(4 (4 (powerful))(2 (2 (emotional))(2 (wallop))))))))(2 (.))) |ET| 
0.0077558965733144583781788483634045  |BT| (ROOT (2 (2 (If))(2 (2 (``))(1 (2 (2 (2 (Lilo))(2 (&)))(2 (Stitch)))(2 (2 (''))(2 (1 (1 (2 (is))(2 (n't)))(3 (3 (2 (the))(3 (3 (2 (most))(2 (edgy)))(2 (piece))))(2 (2 (of))(2 (3 (Disney))(2 (animation))))))(2 (2 (to))(2 (3 (hit))(3 (2 (the))(2 (2 (silver))(2 (screen)))))))))))(3 (2 (,))(4 (2 (2 (2 (then))(2 (2 (this))(2 (2 (first))(2 (film)))))(2 (2 (to))(2 (2 (2 (use))(2 (2 (a))(2 (2 (watercolor))(2 (background)))))(2 (2 (2 (2 (since))(2 (``)))(2 (Dumbo)))(2 (''))))))(3 (3 (certainly))(4 (4 (2 (ranks))(3 (2 (as))(3 (4 (2 (the))(3 (2 (most))(3 (original))))(2 (2 (in))(2 (years))))))(2 (.))))))) |ET| 
-0.010509175240264383849320140029704  |BT| (ROOT (0 (3 (Stay))(2 (away)))(2 (.))) |ET| 
-0.010509175240264383849320140029704  |BT| (ROOT (2 (Maintains))(3 (4 (3 (2 (2 (2 (your))(2 (interest)))(2 (2 (until))(2 (2 (the))(2 (end)))))(2 (and)))(3 (2 (even))(3 (2 (2 (leaves))(2 (you)))(3 (2 (with))(2 (2 (a))(2 (2 (2 (few))(2 (lingering)))(3 (2 (animated))(2 (thoughts)))))))))(2 (.)))) |ET| 
0.010509175240264383849320140029704  |BT| (ROOT (3 (Refreshing))(2 (.))) |ET| 
0.010509175240264383849320140029704  |BT| (ROOT (3 (2 (See))(2 (it)))(2 (.))) |ET| 
-0.010509175240264383849320140029704  |BT| (ROOT (2 (Everyone))(3 (3 (2 (should))(4 (2 (be))(4 (3 (able))(4 (2 (to))(4 (3 (appreciate))(4 (4 (4 (2 (the))(3 (3 (wonderful))(2 (cinematography))))(2 (and)))(3 (3 (naturalistic))(2 (acting)))))))))(2 (.)))) |ET| 
-0.010509175240264383849320140029704  |BT| (ROOT (3 (4 (2 (Demonstrates))(4 (3 (3 (2 (a))(4 (3 (vivid))(3 (imagination))))(2 (and)))(4 (2 (an))(3 (4 (impressive))(2 (style))))))(2 (2 (2 (that))(2 (result)))(3 (2 (in))(3 (2 (some))(4 (4 (terrific))(2 (setpieces)))))))(2 (.))) |ET| 
-0.010509175240264383849320140029704  |BT| (ROOT (3 (2 (By))(2 (2 (turns))(4 (3 (gripping))(4 (2 (,))(4 (4 (amusing))(3 (2 (,))(3 (3 (2 (tender))(2 (and)))(2 (heart-wrenching)))))))))(4 (2 (,))(3 (2 (Laissez-passer))(3 (4 (2 (has))(3 (2 (2 (all))(3 (2 (the))(2 (earmarks))))(4 (2 (of))(4 (2 (2 (French))(2 (cinema)))(4 (2 (at))(3 (2 (its))(4 (best))))))))(2 (.)))))) |ET| 
0.010509175240264383849320140029704  |BT| (ROOT (1 (2 (Impossible))(2 (2 (as))(2 (2 (it))(2 (2 (may))(2 (sound))))))(3 (2 (,))(3 (2 (2 (2 (this))(2 (2 (film))(2 ('s))))(2 (heart)))(3 (3 (3 (2 (2 (2 (is))(2 (2 (even))(2 (more))))(3 (4 (embracing))(2 (2 (than))(2 (Monty)))))(2 (,)))(1 (2 (if))(2 (2 (only))(2 (2 (because))(1 (2 (it))(2 (2 (accepts))(2 (2 (0 (nasty))(0 (2 (behavior))(2 (2 (and))(0 (2 (severe))(1 (flaws))))))(2 (2 (as))(2 (2 (part))(2 (2 (of))(2 (2 (the))(2 (2 (human))(2 (condition))))))))))))))(2 (.)))))) |ET| 
0.010509175240264383849320140029704  |BT| (ROOT (3 (3 (2 (3 (2 (It))(3 (2 ('s))(3 (2 (a))(3 (3 (4 (3 (compelling))(2 (and)))(1 (horrifying)))(2 (story))))))(2 (,)))(2 (and)))(3 (2 (2 (The))(2 (2 (Laramie))(2 (Project))))(3 (2 (is))(3 (3 (worthwhile))(2 (2 (for))(2 (2 (2 (reminding))(3 (us)))(2 (2 (that))(2 (2 (2 (2 (this))(2 (sort)))(2 (2 (of))(2 (thing))))(2 (2 (2 (2 (2 (does))(2 (,)))(2 (2 (in))(2 (fact))))(2 (,)))(2 (2 (still))(2 (2 (happen))(2 (2 (in))(2 (America))))))))))))))(2 (.))) |ET| 
0.010509175240264383849320140029704  |BT| (ROOT (3 (2 (If))(2 (2 (you))(2 (2 (ever))(2 (2 (wondered))(3 (2 (what))(3 (2 (it))(3 (2 (would))(3 (2 (be))(2 (2 (like))(2 (2 (to))(2 (2 (be))(2 (2 (2 (smack))(2 (2 (in))(2 (2 (2 (the))(2 (middle)))(1 (2 (of))(2 (2 (a))(2 (1 (war))(2 (zone))))))))(2 (2 (armed))(2 (2 (with))(2 (1 (nothing))(2 (2 (but))(2 (2 (a))(2 (camera)))))))))))))))))))(3 (2 (,))(3 (4 (2 (this))(4 (4 (Oscar-nominated))(2 (documentary))))(2 (2 (2 (takes))(2 (2 (you))(2 (there))))(2 (.)))))) |ET| 
0.010509175240264383849320140029704  |BT| (ROOT (3 (2 (Samuel))(2 (2 (L.))(2 (Jackson))))(4 (4 (2 (is))(4 (2 (one))(3 (2 (of))(3 (4 (2 (the))(3 (4 (best))(2 (actors))))(2 (2 (there))(2 (is)))))))(2 (.)))) |ET| 
0.010509175240264383849320140029704  |BT| (ROOT (4 (Best))(3 (4 (3 (3 (2 (indie))(2 (2 (of))(2 (2 (the))(2 (year)))))(2 (,)))(2 (2 (so))(2 (far))))(2 (.)))) |ET| 
0.010509175240264383849320140029704  |BT| (ROOT (3 (2 (2 (2 (A))(2 (wry)))(2 (,)))(3 (2 (affectionate))(4 (delight))))(2 (.))) |ET| 
0.010509175240264383849320140029704  |BT| (ROOT (2 (A))(3 (3 (stylish))(2 (3 (thriller))(2 (.))))) |ET| 
-0.0027806778470234072044020567915368  |BT| (ROOT (2 (Smith))(3 (3 (2 (finds))(2 (3 (4 (amusing))(3 (juxtapositions)))(2 (2 (that))(1 (2 (justify))(2 (2 (his))(2 (exercise)))))))(2 (.)))) |ET| 
-0.010509175240264383849320140029704  |BT| (ROOT (4 (2 (1 (Dense))(2 (,)))(4 (4 (exhilarating))(2 (documentary))))(2 (.))) |ET| 
-0.010509175240264383849320140029704  |BT| (ROOT (4 (4 (3 (2 (Simultaneously))(4 (2 (heartbreakingly))(4 (beautiful))))(2 (and)))(2 (4 (exquisitely))(1 (sad))))(2 (.))) |ET| 
-0.010509175240264383849320140029704  |BT| (ROOT (3 (2 (All))(3 (2 (in))(3 (2 (2 (all))(2 (,)))(3 (2 (a))(3 (4 (great))(2 (party)))))))(2 (.))) |ET| 
0.0093143070321306271203143367642951  |BT| (ROOT (3 (3 (2 (A))(3 (3 (stirring))(3 (tribute))))(3 (2 (to))(2 (2 (3 (2 (the))(3 (2 (3 (bravery))(2 (and)))(3 (dedication))))(2 (2 (of))(2 (2 (2 (the))(2 (2 (world))(2 ('s))))(2 (reporters)))))(3 (2 (who))(2 (2 (willingly))(2 (2 (2 (walk))(2 (2 (into))(1 (1 (2 (the))(0 (nightmare)))(1 (2 (of))(1 (war))))))(3 (1 (not))(2 (3 (2 (2 (2 (only))(2 (2 (to))(2 (2 (2 (record))(2 (2 (the))(2 (events))))(2 (2 (for))(2 (posterity))))))(2 (,)))(2 (but)))(2 (2 (to))(2 (2 (help))(3 (us))))))))))))(3 (2 (clearly))(2 (2 (2 (see))(2 (2 (2 (the))(2 (world)))(3 (2 (of))(2 (2 (our))(2 (making))))))(2 (.))))) |ET| 
0.010509175240264383849320140029704  |BT| (ROOT (3 (3 (3 (Rich))(2 (2 (in))(2 (1 (shadowy))(3 (metaphor)))))(2 (2 (and))(4 (2 (as))(3 (3 (sharp))(2 (2 (as))(2 (2 (a))(2 (2 (samurai))(2 (sword)))))))))(2 (2 (,))(3 (2 (2 (2 (2 (Jiang))(2 (2 (Wen))(2 ('s))))(2 (Devils)))(2 (2 (on))(2 (2 (the))(2 (Doorstep)))))(3 (3 (2 (is))(2 (3 (2 (2 (2 (a))(2 (1 (wartime))(1 (farce))))(2 (2 (in))(2 (2 (the))(2 (2 (alternately))(2 (comic))))))(2 (and)))(3 (2 (3 (gut-wrenching))(2 (style)))(2 (2 (of))(2 (2 (2 (2 (Joseph))(2 (Heller)))(2 (or)))(2 (2 (Kurt))(3 (Vonnegut))))))))(2 (.)))))) |ET| 
0.0035478242502027888122251297886578  |BT| (ROOT (2 (2 (Nicole))(2 (Holofcener)))(3 (4 (4 (4 (2 ('s))(3 (3 (3 (Lovely))(2 (and)))(4 (Amazing))))(2 (,)))(3 (2 (from))(4 (2 (2 (2 (her))(2 (2 (own))(2 (screenplay))))(2 (,)))(3 (4 (2 (jumps))(4 (2 (to))(4 (2 (2 (the))(2 (head)))(2 (2 (of))(2 (2 (2 (the))(2 (class)))(2 (2 (of))(2 (2 (2 (women))(2 ('s)))(2 (films)))))))))(3 (2 (that))(2 (2 (manage))(2 (2 (to))(1 (1 (0 (avoid))(2 (2 (2 (the))(1 (ghetto)))(2 (2 (of))(3 (3 (sentimental))(2 (chick-flicks))))))(2 (2 (by))(2 (3 (2 (treating))(2 (2 (female))(2 (follies))))(2 (2 (with))(2 (2 (a))(2 (2 (satirical))(2 (style)))))))))))))))(2 (.)))) |ET| 
-0.0014149713264552477107877104245404  |BT| (ROOT (1 (1 (1 (1 (2 (It))(0 (2 ('s))(1 (2 (hard))(0 (2 (to))(0 (2 (2 (2 (imagine))(2 (anybody)))(2 (ever)))(1 (1 (2 (2 (2 (2 (2 (being))(2 (``)))(2 (2 (in))(2 (2 (the))(2 (mood)))))(2 ('')))(2 (2 (to))(2 (2 (2 (view))(2 (2 (a))(2 (movie))))(2 (2 (as))(2 (harrowing))))))(2 (and)))(1 (1 (painful))(2 (2 (as))(2 (2 (The))(1 (2 (Grey))(2 (Zone))))))))))))(2 (,)))(2 (but)))(4 (2 (it))(4 (4 (2 (2 ('s))(2 (2 (equally))(2 (hard))))(2 (2 (to))(3 (2 (2 (imagine))(2 (anybody)))(3 (2 (being))(3 (3 (able))(2 (2 (to))(3 (3 (2 (2 (tear))(2 (2 (their))(2 (eyes))))(2 (away)))(2 (2 (from))(2 (2 (the))(2 (screen)))))))))))(2 (2 (once))(2 (2 (it))(2 (2 ('s))(2 (started))))))))(2 (.))) |ET| 
0.010509175240264383849320140029704  |BT| (ROOT (2 (2 (While))(3 (2 (maintaining))(2 (2 (2 (the))(2 (appearance)))(2 (2 (of))(2 (2 (clinical))(2 (objectivity)))))))(4 (2 (,))(3 (4 (2 (this))(3 (1 (sad))(3 (2 (,))(2 (3 (2 (2 (2 (occasionally))(1 (horrifying)))(2 (but)))(3 (2 (often))(3 (inspiring))))(2 (film))))))(3 (3 (2 (is))(2 (2 (among))(3 (2 (2 (Wiseman))(2 ('s)))(3 (warmest)))))(2 (.)))))) |ET| 
0.010509175240264383849320140029704  |BT| (ROOT (3 (2 (Works))(3 (2 (as))(3 (2 (4 (pretty))(2 (contagious)))(4 (fun)))))(2 (.))) |ET| 
0.010509175240264383849320140029704  |BT| (ROOT (2 (Goofy))(3 (2 (,))(3 (2 (nutty))(4 (2 (,))(4 (3 (2 (consistently))(3 (funny)))(2 (.))))))) |ET| 
0.010509175240264383849320140029704  |BT| (ROOT (4 (3 (2 (A))(3 (3 (slam-bang))(3 (extravaganza))))(2 (that)))(4 (3 (2 (is))(3 (2 (all))(4 (2 (about))(4 (2 (a))(3 (3 (wild-and-woolly))(4 (2 (,))(4 (2 (wall-to-wall))(3 (3 (good))(2 (time))))))))))(2 (.)))) |ET| 
-0.010509175240264383849320140029704  |BT| (ROOT (4 (3 (2 (Poignant))(2 (and)))(2 (delicately)))(2 (3 (complex))(2 (.)))) |ET| 
-0.010509175240264383849320140029704  |BT| (ROOT (4 (3 (2 (Poignant))(2 (and)))(3 (funny)))(2 (.))) |ET| 
-0.010509175240264383849320140029704  |BT| (ROOT (3 (2 (3 (Wise))(2 (and)))(2 (deadpan)))(3 (3 (humorous))(2 (.)))) |ET| 
0.010509175240264383849320140029704  |BT| (ROOT (3 (2 (2 (2 (The))(2 (story)))(2 (itself)))(2 (2 (it))(3 (2 (mostly))(4 (2 (2 (told))(2 (2 (through))(2 (2 (on-camera))(2 (interviews)))))(3 (2 (with))(4 (3 (2 (2 (several))(2 (survivors)))(2 (,)))(3 (2 (whose))(4 (3 (4 (riveting))(2 (memories)))(3 (2 (are))(4 (4 (2 (rendered))(3 (2 (with))(3 (2 (such))(3 (clarity)))))(2 (2 (that))(2 (2 (it))(2 (2 ('s))(2 (2 (as))(2 (2 (if))(2 (2 (it))(2 (2 (all))(2 (2 (happened))(2 (2 (only))(2 (yesterday)))))))))))))))))))))(2 (.))) |ET| 
0.010509175240264383849320140029704  |BT| (ROOT (2 (2 (Not))(2 (only)))(3 (4 (2 (2 (is))(2 (it)))(3 (2 (a))(4 (4 (4 (charming))(3 (2 (,))(2 (3 (3 (funny))(2 (and)))(3 (beautifully)))))(3 (3 (crafted))(2 (import))))))(3 (2 (,))(3 (2 (2 (it))(2 (2 (1 (2 (uses))(2 (2 (2 (very))(2 (little)))(2 (dialogue))))(2 (,)))(3 (2 (making))(2 (2 (it))(2 (2 (2 (relatively))(4 (effortless)))(2 (2 (to))(2 (2 (2 (2 (2 (read))(2 (and)))(2 (follow)))(2 (2 (the))(2 (action))))(2 (2 (at))(2 (2 (the))(2 (2 (same))(2 (time))))))))))))(2 (.)))))) |ET| 
0.010312522058831397400724405599703  |BT| (ROOT (4 (2 (3 (3 (2 (2 (Every))(2 (individual)))(2 (2 (will))(3 (3 (2 (see))(2 (2 (the))(2 (movie))))(2 (2 (through))(2 (2 (2 (the))(2 (prism)))(2 (2 (of))(2 (2 (2 (2 (2 (2 (his))(2 (or)))(2 (her)))(2 (2 (own))(2 (beliefs))))(2 (and)))(1 (prejudices)))))))))(2 (,)))(2 (but)))(3 (2 (2 (2 (the))(2 (2 (one))(2 (thing))))(2 (2 (most))(2 (2 (will))(2 (2 (take))(2 (away))))))(3 (2 (2 (is))(2 (2 (the))(2 (sense))))(3 (2 (that))(3 (2 (peace))(2 (2 (is))(2 (possible))))))))(2 (.))) |ET| 
0.010509175240264383849320140029704  |BT| (ROOT (2 (...))(3 (3 (3 (2 (a))(3 (4 (thoughtful))(2 (what-if))))(3 (2 (for))(2 (3 (2 (2 (the))(2 (heart)))(2 (2 (as))(2 (3 (well))(2 (as)))))(2 (2 (the))(2 (mind))))))(2 (.)))) |ET| 
0.010509175240264383849320140029704  |BT| (ROOT (4 (2 (One))(3 (2 (of))(4 (2 (the))(3 (finest)))))(4 (2 (,))(3 (3 (3 (2 (most))(4 (2 (3 (humane))(2 (and)))(2 (important))))(2 (2 (Holocaust))(2 (movies))))(2 (2 (2 (ever))(2 (made)))(2 (.)))))) |ET| 
0.010509175240264383849320140029704  |BT| (ROOT (2 (Highly))(3 (3 (3 (watchable))(2 (stuff)))(2 (.)))) |ET| 
0.010509175240264383849320140029704  |BT| (ROOT (3 (Visually))(4 (4 (captivating))(2 (.)))) |ET| 
0.0005723476814529311531426492010155  |BT| (ROOT (2 (It))(4 (3 (2 ('s))(4 (2 (hard))(3 (2 (to))(3 (2 (imagine))(4 (2 (anyone))(3 (2 (managing))(4 (2 (to))(4 (2 (1 (steal))(2 (2 (a))(2 (movie))))(3 (2 (1 (not))(2 (only)))(4 (3 (3 (2 (from))(3 (3 (charismatic))(3 (3 (rising))(2 (2 (star))(2 (2 (Jake))(2 (Gyllenhaal)))))))(2 (2 (but))(2 (also))))(3 (2 (from))(4 (3 (3 (accomplished))(3 (3 (Oscar))(2 (winners))))(4 (3 (2 (2 (3 (3 (Susan))(2 (Sarandon)))(2 (,)))(2 (2 (2 (2 (Dustin))(2 (Hoffman)))(2 (and)))(2 (2 (Holly))(2 (Hunter)))))(2 (,)))(3 (2 (yet))(3 (2 (newcomer))(3 (2 (2 (Ellen))(2 (Pompeo)))(3 (2 (2 (pulls))(1 (off)))(3 (2 (2 (the))(2 (feat)))(3 (2 (with))(2 (aplomb)))))))))))))))))))))(2 (.)))) |ET| 
-0.010509175240264383849320140029704  |BT| (ROOT (2 (It))(3 (3 (2 ('s))(3 (2 (2 (an))(2 (experience)))(3 (2 (in))(3 (2 (understanding))(4 (3 (2 (a))(3 (3 (unique))(2 (culture))))(3 (2 (that))(3 (2 (is))(3 (2 (presented))(4 (2 (with))(3 (2 (universal))(3 (appeal))))))))))))(2 (.)))) |ET| 
-0.010509175240264383849320140029704  |BT| (ROOT (4 (4 (4 (3 (4 (2 (An))(4 (4 (2 (undeniably))(3 (moving)))(2 (film))))(2 (2 (to))(2 (experience))))(2 (,)))(2 (and)))(3 (2 (ultimately))(4 (2 (that))(3 (2 ('s))(3 (2 (what))(3 (2 (2 (makes))(2 (it)))(3 (2 (worth))(3 (2 (a))(2 (recommendation))))))))))(2 (.))) |ET| 
-0.010509175240264383849320140029704  |BT| (ROOT (2 (2 (What))(0 (2 (1 (Bloody))(2 (Sunday)))(1 (1 (lacks))(3 (2 (in))(3 (clarity))))))(4 (2 (,))(4 (2 (it))(3 (3 (2 (2 (makes))(2 (up)))(3 (2 (for))(3 (2 (with))(3 (2 (a))(4 (4 (great))(3 (2 (,))(4 (4 (fiery))(2 (passion)))))))))(2 (.)))))) |ET| 
0.010135726689438321820868615930067  |BT| (ROOT (2 (E.T.))(2 (3 (2 (works))(3 (2 (because))(3 (2 (2 (2 (2 (2 (its))(1 (2 (flabbergasting))(2 (principals))))(2 (,)))(2 (2 (2 (2 (2 (2 (14-year-old))(2 (2 (Robert))(2 (MacNaughton))))(2 (,)))(2 (2 (6-year-old))(2 (2 (Drew))(2 (Barrymore)))))(2 (and)))(2 (2 (10-year-old))(2 (2 (Henry))(2 (Thomas))))))(2 (,)))(2 (2 (2 (convince))(3 (us)))(2 (2 (of))(2 (2 (2 (the))(2 (existence)))(3 (2 (of))(2 (3 (2 (the))(2 (3 (3 (wise))(2 (2 (,))(3 (wizened))))(2 (visitor))))(3 (2 (from))(2 (2 (a))(2 (2 (faraway))(2 (planet)))))))))))))(2 (.)))) |ET| 
0.010509175240264383849320140029704  |BT| (ROOT (2 (2 (As))(3 (1 (1 (improbable))(2 (2 (as))(2 (2 (2 (this))(2 (premise)))(2 (2 (may))(2 (seem))))))(2 (2 (,))(3 (2 (Abbass))(2 (2 ('s))(2 (understated)))))))(3 (2 (,))(4 (4 (3 (shining))(2 (performance)))(3 (3 (2 (2 (2 (offers))(3 (us)))(2 (2 (the))(2 (sense))))(2 (2 (that))(2 (2 (2 (on))(2 (2 (some))(2 (2 (elemental))(2 (level)))))(2 (2 (,))(2 (2 (Lilia))(2 (2 (deeply))(3 (3 (wants))(4 (2 (to))(3 (2 (break))(2 (3 (free))(2 (2 (of))(2 (2 (her))(2 (2 (old))(3 (life)))))))))))))))(2 (.)))))) |ET| 
0.010509175240264383849320140029704  |BT| (ROOT (2 (It))(3 (3 (2 ('s))(3 (3 (2 (a))(2 (hoot)))(2 (2 (watching))(2 (2 (2 (The))(2 (Rock)))(2 (1 (2 (1 (2 (2 (2 (chomp))(2 (2 (on))(2 (2 (jumbo))(2 (ants)))))(2 (,)))(2 (2 (2 (2 (pull))(2 (2 (an))(2 (arrow))))(1 (out)))(2 (2 (of))(2 (2 (his))(2 (back))))))(2 (,)))(2 (and)))(2 (2 (leap))(2 (2 (unscathed))(2 (2 (through))(2 (2 (raging))(2 (fire)))))))))))(2 (!)))) |ET| 
-0.002455349043225301709780783454562  |BT| (ROOT (3 (4 (2 (A))(3 (3 (real))(3 (audience-pleaser))))(3 (2 (that))(3 (2 (will))(3 (3 (2 (strike))(2 (2 (a))(2 (chord))))(2 (2 (with))(2 (2 (anyone))(2 (2 (who))(2 (2 ('s))(2 (ever))))))))))(2 (2 (2 (waited))(1 (2 (in))(3 (2 (2 (a))(2 (2 (doctor))(2 ('s))))(2 (2 (office))(2 (2 (,))(2 (2 (emergency))(2 (2 (room))(2 (2 (,))(2 (2 (hospital))(2 (2 (bed))(2 (2 (or))(3 (3 (insurance))(2 (2 (company))(2 (office)))))))))))))))(2 (.)))) |ET| 
-0.0013672699292073848143652670117376  |BT| (ROOT (2 (2 (The))(2 (film)))(4 (3 (2 (2 (is))(2 (...)))(2 (2 (determined))(3 (3 (2 (2 (2 (to))(3 (2 (3 (treat))(2 (1 (2 (2 (2 (its))(2 (characters)))(2 (,)))(3 (1 (1 (weak))(2 (and)))(3 (strong))))(2 (,))))(2 (2 (as))(2 (2 (2 (2 (2 (fallible))(2 (2 (human))(2 (beings))))(2 (,)))(1 (not)))(2 (caricatures))))))(2 (,)))(2 (and)))(2 (2 (to))(2 (2 (carefully))(1 (2 (delineate))(2 (2 (2 (the))(2 (cost)))(2 (2 (of))(2 (2 (2 (2 (2 (the))(2 (2 (inevitable))(1 (conflicts))))(2 (2 (between))(2 (2 (human))(2 (urges)))))(2 (and)))(2 (2 (2 (an))(2 (institution)))(2 (2 (concerned))(2 (2 (with))(2 (self-preservation))))))))))))))(2 (.)))) |ET| 
0.010509175240264383849320140029704  |BT| (ROOT (4 (3 (2 (A))(3 (gem)))(4 (2 (of))(3 (3 (2 (a))(3 (2 (romantic))(2 (1 (crime))(3 (comedy)))))(4 (2 (that))(3 (2 (2 (turns))(1 (out)))(4 (2 (to))(3 (2 (be))(3 (4 (clever))(3 (2 (,))(4 (4 (4 (amusing))(2 (and)))(2 (unpredictable))))))))))))(2 (.))) |ET| 
0.010509175240264383849320140029704  |BT| (ROOT (4 (2 (Peppered))(4 (2 (with))(4 (3 (witty))(3 (2 (dialogue))(3 (2 (and))(3 (3 (inventive))(2 (moments))))))))(2 (.))) |ET| 
0.010509175240264383849320140029704  |BT| (ROOT (4 (3 (2 (Offers))(3 (2 (a))(3 (3 (guilt-free))(2 (trip)))))(3 (2 (into))(3 (3 (feel-good))(2 (territory)))))(2 (.))) |ET| 
-0.010509175240264383849320140029704  |BT| (ROOT (2 (It))(3 (3 (2 (is))(4 (3 (3 (2 (a))(3 (3 (likable))(2 (story))))(2 (,)))(3 (2 (told))(2 (2 (with))(3 (competence))))))(2 (.)))) |ET| 
-0.010509175240264383849320140029704  |BT| (ROOT (4 (3 (Pure))(4 (3 (3 (4 (4 (2 (3 (3 (cinematic))(2 (intoxication)))(2 (,)))(3 (4 (2 (a))(4 (3 (2 (wildly))(3 (inventive)))(2 (mixture))))(2 (2 (of))(3 (3 (3 (comedy))(2 (and)))(2 (melodrama))))))(2 (,)))(1 (tastelessness)))(2 (and)))(3 (2 (swooning))(3 (elegance)))))(2 (.))) |ET| 
-0.010509175240264383849320140029704  |BT| (ROOT (4 (3 (4 (2 (A))(3 (3 (compelling))(2 (story))))(3 (2 (of))(3 (2 (musical))(2 (passion)))))(1 (2 (against))(3 (2 (governmental))(2 (odds)))))(2 (.))) |ET| 
0.010509175240264383849320140029704  |BT| (ROOT (3 (2 (What))(4 (2 (makes))(3 (2 (this))(2 (2 (film))(3 (special))))))(3 (3 (2 (is))(3 (2 (2 (Serry))(2 ('s)))(3 (2 (ability))(2 (2 (to))(2 (2 (2 (2 (take))(2 (2 (what))(2 (2 (2 (is))(2 (essentially)))(2 (2 (a))(2 (2 (contained))(2 (3 (family))(1 (conflict))))))))(2 (and)))(2 (2 (2 (put))(2 (it)))(2 (2 (into))(3 (2 (a))(2 (2 (2 (much))(2 (larger)))(2 (2 (historical))(2 (context))))))))))))(2 (.)))) |ET| 
0.010509175240264383849320140029704  |BT| (ROOT (3 (3 (3 (2 (2 (2 (Its))(2 (use)))(2 (2 (of))(3 (2 (the))(3 (3 (thriller))(3 (2 (form))(2 (2 (to))(2 (2 (examine))(2 (1 (2 (the))(2 (3 (labyrinthine))(2 (ways))))(2 (2 (2 (in))(2 (which)))(2 (2 (2 (2 (people))(2 ('s)))(2 (lives)))(2 (2 (2 (cross))(2 (and)))(2 (change)))))))))))))(2 (,)))(2 (2 (buffeted))(2 (2 (by))(2 (2 (2 (events))(2 (2 (seemingly))(1 (out))))(2 (2 (of))(2 (2 (their))(2 (control))))))))(2 (,)))(3 (3 (2 (is))(3 (3 (3 (intriguing))(3 (2 (,))(3 (provocative))))(2 (stuff))))(2 (.)))) |ET| 
-0.010509175240264383849320140029704  |BT| (ROOT (3 (2 (3 (Does))(4 (4 (2 (an))(4 (4 (impressive))(2 (job))))(2 (2 (of))(2 (2 (relating))(2 (2 (2 (the))(2 (2 (complicated))(2 (history))))(1 (2 (of))(2 (2 (the))(1 (war)))))))))(2 (and)))(2 (2 (2 (of))(2 (3 (filling))(2 (2 (in))(2 (2 (the))(2 (background))))))(2 (.)))) |ET| 
0.00028065096211600071111902376941316  |BT| (ROOT (2 (It))(4 (4 (2 ('s))(4 (4 (3 (4 (3 (3 (4 (4 (sweet))(2 (,)))(3 (funny)))(2 (,)))(4 (charming)))(2 (,)))(2 (and)))(4 (2 (completely))(4 (delightful)))))(2 (.)))) |ET| 
0.010509175240264383849320140029704  |BT| (ROOT (4 (3 (2 (A))(3 (4 (3 (4 (captivating))(2 (and)))(2 (intimate)))(2 (study))))(2 (2 (about))(3 (1 (1 (dying))(2 (and)))(2 (loving)))))(2 (...))) |ET| 
0.010509175240264383849320140029704  |BT| (ROOT (4 (2 (3 (Serious))(2 (and)))(4 (thoughtful)))(2 (.))) |ET| 
-0.010509175240264383849320140029704  |BT| (ROOT (2 (This))(3 (3 (2 (is))(3 (2 (a))(3 (3 (2 (dark))(3 (2 (,))(3 (3 (gritty))(3 (2 (,))(3 (2 (sometimes))(3 (funny)))))))(4 (2 (little))(3 (gem))))))(2 (.)))) |ET| 
-0.010509175240264383849320140029704  |BT| (ROOT (3 (3 (Witty))(3 (2 (dialog))(3 (2 (between))(3 (2 (realistic))(2 (characters))))))(3 (3 (2 (showing))(3 (4 (honest))(2 (emotions))))(2 (.)))) |ET| 
-0.010509175240264383849320140029704  |BT| (ROOT (3 (2 (This))(3 (3 (2 (4 (charming))(2 (but)))(2 (slight)))(2 (tale))))(4 (4 (2 (has))(3 (3 (4 (warmth))(3 (2 (,))(3 (2 (wit))(3 (2 (and))(3 (3 (interesting))(2 (characters)))))))(3 (3 (compassionately))(2 (portrayed)))))(2 (.)))) |ET| 
0.010509175240264383849320140029704  |BT| (ROOT (3 (3 (3 (3 (2 (2 (The))(2 (2 (urban))(2 (landscapes))))(2 (2 (are))(3 (2 (3 (detailed))(2 (down)))(2 (2 (to))(2 (2 (2 (the))(2 (signs)))(2 (2 (on))(2 (2 (the))(2 (kiosks)))))))))(2 (,)))(2 (and)))(3 (2 (2 (2 (2 (2 (the))(2 (2 (color))(2 (palette))))(2 (,)))(1 (2 (with))(2 (2 (lots))(2 (2 (of))(2 (2 (somber))(2 (2 (1 (blues))(2 (and)))(2 (pinks))))))))(2 (,)))(4 (2 (is))(4 (4 (3 (dreamy))(2 (and)))(3 (evocative))))))(2 (.))) |ET| 
0.010509175240264383849320140029704  |BT| (ROOT (2 (A))(3 (3 (2 (must))(3 (2 (2 (for))(2 (2 (2 (3 (fans))(2 (2 (of))(2 (2 (British))(2 (cinema)))))(2 (,)))(2 (2 (if))(2 (only)))))(2 (2 (because))(2 (2 (2 (2 (2 (so))(2 (many)))(2 (titans)))(2 (2 (of))(2 (2 (the))(2 (industry)))))(2 (2 (2 (are))(2 (along)))(2 (2 (for))(2 (2 (the))(2 (ride)))))))))(2 (.)))) |ET| 
-0.0077766499410741500922239488602372  |BT| (ROOT (2 (2 (As))(2 (2 (played))(3 (2 (by))(2 (2 (Ryan))(2 (Gosling))))))(3 (2 (,))(2 (2 (Danny))(3 (3 (2 (is))(3 (2 (a))(3 (4 (2 (frighteningly))(3 (fascinating)))(1 (contradiction)))))(2 (.)))))) |ET| 
0.010509175240264383849320140029704  |BT| (ROOT (2 (It))(4 (4 (2 ('s))(4 (2 (a))(3 (3 (wonderful))(3 (2 (,))(3 (2 (sobering))(3 (2 (,))(3 (3 (heart-felt))(1 (drama)))))))))(2 (.)))) |ET| 
0.010509175240264383849320140029704  |BT| (ROOT (3 (2 (If))(2 (2 (you))(3 (2 ('re))(3 (2 (1 (2 (looking))(3 (2 (for))(3 (2 (something))(3 (new)))))(2 (and)))(2 (2 (hoping))(3 (2 (for))(3 (2 (something))(4 (entertaining)))))))))(3 (2 (,))(3 (2 (you))(3 (3 (2 ('re))(3 (2 (in))(2 (luck))))(2 (.)))))) |ET| 
0.010509175240264383849320140029704  |BT| (ROOT (2 (...))(4 (3 (2 (a))(3 (true)))(3 (4 (delight))(2 (.))))) |ET| 
-0.010509175240264383849320140029704  |BT| (ROOT (3 (2 (2 (Evelyn))(2 ('s)))(4 (3 (strong))(3 (2 (cast))(4 (2 (and))(3 (3 (surehanded))(2 (direction)))))))(3 (4 (2 (make))(3 (2 (for))(4 (2 (a))(4 (3 (winning))(3 (2 (,))(3 (3 (heartwarming))(2 (yarn))))))))(2 (.)))) |ET| 
-0.010509175240264383849320140029704  |BT| (ROOT (3 (3 (2 (A))(3 (2 (huge))(2 (box-office))))(2 (3 (hit))(2 (2 (in))(2 (Korea)))))(3 (2 (,))(4 (2 (Shiri))(3 (3 (4 (2 (is))(3 (2 (a))(2 (must))))(3 (2 (for))(2 (2 (genre))(3 (fans)))))(2 (.)))))) |ET| 
-0.010509175240264383849320140029704  |BT| (ROOT (2 (...))(4 (4 (3 (3 (2 (begins))(3 (2 (on))(4 (2 (a))(3 (3 (high))(2 (note))))))(2 (and)))(4 (3 (3 (sustains))(2 (it)))(3 (beautifully))))(2 (.)))) |ET| 
0.010509175240264383849320140029704  |BT| (ROOT (2 (2 (Barry))(2 (2 (convinces))(3 (us))))(1 (2 (he))(1 (2 (2 ('s))(2 (2 (2 (a))(2 (2 (2 (dangerous))(2 (2 (,))(2 (2 (secretly))(2 (unhinged)))))(2 (guy))))(2 (2 (who))(2 (2 (2 (could))(3 (easily)))(2 (2 (have))(2 (2 (2 (killed))(2 (2 (a))(2 (president))))(3 (2 (because))(2 (2 (it))(3 (2 (made))(2 (2 (him))(2 (2 (feel))(4 (powerful)))))))))))))(2 (.))))) |ET| 
0.010509175240264383849320140029704  |BT| (ROOT (2 (2 (3 (Special))(2 (2 (P.O.V.))(2 (2 (camera))(2 (mounts)))))(2 (2 (on))(2 (2 (bikes))(2 (2 (,))(2 (2 (skateboards))(3 (3 (2 (,))(2 (and)))(2 (motorcycles))))))))(4 (3 (3 (2 (provide))(3 (2 (an))(3 (3 (intense))(2 (experience)))))(2 (2 (when))(2 (2 (splashed))(2 (2 (across))(2 (2 (the))(3 (3 (immense))(2 (2 (IMAX))(2 (screen)))))))))(2 (.)))) |ET| 
0.010509175240264383849320140029704  |BT| (ROOT (2 (2 (Australian))(2 (2 (filmmaker))(2 (2 (David))(2 (Flatman)))))(4 (3 (2 (uses))(3 (2 (the))(3 (3 (huge-screen))(3 (2 (format))(3 (2 (to))(3 (2 (make))(4 (2 (2 (an))(2 (2 (old-fashioned))(2 (2 (nature))(2 (film)))))(3 (2 (that))(4 (3 (3 (3 (educates))(2 (viewers)))(2 (2 (with))(2 (3 (2 (words))(2 (and)))(2 (pictures)))))(2 (2 (while))(2 (4 (entertaining))(2 (them)))))))))))))(2 (.)))) |ET| 
-0.0037894127159267994298108561679328  |BT| (ROOT (3 (2 (Either))(3 (3 (4 (3 (2 (a))(4 (3 (fascinating))(2 (study))))(2 (2 (of))(3 (2 (2 (the))(2 (relationship)))(2 (2 (between))(3 (mothers))))))(2 (and)))(1 (2 (3 (2 (their))(3 (children)))(2 (or)))(3 (2 (2 (a))(1 (1 (disturbing))(2 (story))))(2 (2 (about))(2 (2 (1 (sociopaths))(2 (and)))(2 (2 (their))(2 (marks)))))))))(2 (.))) |ET| 
0.010509175240264383849320140029704  |BT| (ROOT (4 (2 (Provides))(3 (3 (2 (a))(3 (3 (2 (very))(4 (2 (3 (moving))(2 (and)))(3 (revelatory))))(2 (footnote))))(2 (2 (to))(1 (2 (the))(2 (Holocaust))))))(2 (.))) |ET| 
0.010509175240264383849320140029704  |BT| (ROOT (3 (4 (Remarkable))(3 (2 (for))(3 (2 (its))(3 (3 (3 (intelligence))(2 (and)))(2 (intensity))))))(2 (.))) |ET| 
0.010509175240264383849320140029704  |BT| (ROOT (2 (It))(2 (4 (2 (2 ('s))(1 (endlessly)))(3 (3 (4 (3 (3 (inventive))(2 (,)))(3 (2 (consistently))(3 (intelligent))))(2 (and)))(1 (1 (sickeningly))(2 (savage)))))(2 (.)))) |ET| 
-0.010509175240264383849320140029704  |BT| (ROOT (3 (2 (Old-fashioned))(4 (2 (but))(4 (4 (2 (thoroughly))(4 (satisfying)))(3 (entertainment)))))(2 (.))) |ET| 
-0.010509175240264383849320140029704  |BT| (ROOT (2 (Charlotte))(4 (2 (Sometimes))(4 (3 (2 (is))(4 (2 (a))(3 (gem))))(2 (.))))) |ET| 
-0.0013904815922402837761323590726192  |BT| (ROOT (0 (2 (2 (3 (2 (1 (-LRB-))(2 (3 (Davis))(3 (-RRB-))))(2 (3 (wants))(2 (2 (to))(2 (2 (cause))(3 (2 (2 (his))(2 (audience)))(4 (2 (an))(3 (epiphany))))))))(2 (,)))(2 (yet)))(1 (2 (he))(2 (1 (refuses))(2 (2 (to))(3 (2 (3 (give))(3 (us)))(3 (3 (real))(2 (2 (2 (situations))(2 (and)))(2 (characters)))))))))(2 (.))) |ET| 
0.008819006938385489866027988625774  |BT| (ROOT (3 (3 (2 (3 (2 (2 (The))(2 (1 (3-D))(2 (vistas))))(2 (2 (from))(2 (orbit))))(2 (,)))(2 (2 (with))(2 (2 (2 (the))(2 (2 (space))(2 (station))))(2 (2 (2 (suspended))(2 (2 (like))(2 (2 (2 (a))(2 (2 (huge))(2 (set))))(2 (2 (of))(3 (3 (wind))(2 (chimes)))))))(2 (2 (over))(2 (2 (the))(2 (4 (great))(2 (2 (blue))(2 (globe))))))))))(2 (,)))(4 (4 (2 (are))(3 (2 (stanzas))(4 (2 (of))(4 (4 (breathtaking))(3 (2 (,))(4 (4 (awe-inspiring))(3 (2 (visual))(3 (poetry)))))))))(2 (.)))) |ET| 
0.010509175240264383849320140029704  |BT| (ROOT (3 (3 (3 (2 (An))(4 (energizing)))(2 (,)))(3 (3 (3 (intoxicating))(2 (documentary)))(3 (2 (charting))(2 (2 (2 (the))(2 (rise)))(2 (2 (of))(2 (2 (2 (2 (2 (hip-hop))(2 (culture)))(2 (2 (in))(2 (general))))(2 (and)))(2 (2 (2 (the))(2 (art)))(2 (2 (of))(2 (2 (scratching))(2 (2 (1 (-LRB-))(2 (2 (2 (or))(3 (turntablism)))(3 (-RRB-))))(2 (2 (in))(2 (particular)))))))))))))(2 (.))) |ET| 
-0.010509175240264383849320140029704  |BT| (ROOT (3 (2 (A))(3 (3 (3 (3 (gentle))(2 (and)))(4 (engrossing)))(2 (character))))(2 (2 (study))(2 (.)))) |ET| 
0.010509175240264383849320140029704  |BT| (ROOT (2 (Morvern))(3 (2 (rocks))(2 (.)))) |ET| 
0.010509175240264383849320140029704  |BT| (ROOT (2 (2 (Both))(3 (2 (lead))(2 (performances))))(2 (3 (2 (are))(2 (Oscar-size)))(2 (.)))) |ET| 
0.010509175240264383849320140029704  |BT| (ROOT (3 (Witty))(3 (2 (,))(4 (4 (3 (2 (3 (contemplative))(2 (,)))(2 (and)))(4 (2 (sublimely))(4 (beautiful))))(2 (.))))) |ET| 
-0.010509175240264383849320140029704  |BT| (ROOT (3 (3 (4 (Uplifting))(2 (,)))(3 (3 (3 (funny))(2 (and)))(3 (wise))))(2 (.))) |ET| 
-0.0008740629379680328820204082695966  |BT| (ROOT (1 (2 (What))(2 (2 (might))(3 (2 ('ve))(4 (2 (been))(3 (3 (2 (an))(4 (4 (exhilarating))(2 (exploration))))(2 (2 (of))(2 (2 (an))(2 (2 (odd))(2 (4 (love))(2 (triangle)))))))))))(1 (1 (2 (becomes))(1 (2 (2 (a))(2 (sprawl)))(1 (2 (of))(2 (1 (uncoordinated))(2 (vectors))))))(2 (.)))) |ET| 
-0.010509175240264383849320140029704  |BT| (ROOT (2 (2 (An))(3 (3 (2 (alternately))(2 (4 (3 (fascinating))(2 (and)))(0 (frustrating))))(2 (documentary))))(2 (.))) |ET| 
0.0036410291884666858876207218287391  |BT| (ROOT (3 (3 (Flamboyant))(2 (2 (in))(3 (2 (2 (2 (some))(2 (movies)))(2 (and)))(3 (2 (4 (artfully))(2 (2 (restrained))(2 (2 (in))(2 (others)))))(2 (2 (,))(2 (2 (65-year-old))(2 (2 (Jack))(2 (Nicholson)))))))))(3 (4 (2 (could))(4 (2 (be))(3 (3 (2 (looking))(3 (2 (at))(2 (2 (his))(4 (2 (12th))(3 (3 (Oscar))(2 (nomination)))))))(3 (2 (by))(3 (2 (proving))(3 (2 (that))(3 (2 (he))(3 (2 (2 (2 (2 (2 ('s))(2 (now)))(2 (,)))(2 (2 (more))(2 (2 (than))(2 (ever)))))(2 (,)))(3 (2 (2 (choosing))(2 (2 (his))(2 (roles))))(3 (2 (with))(3 (2 (2 (the))(3 (precision)))(3 (2 (of))(2 (2 (the))(2 (3 (insurance))(2 (actuary))))))))))))))))(2 (.)))) |ET| 
0.007652095822563802045290781705944  |BT| (ROOT (3 (2 (When))(3 (2 (2 (compared))(2 (2 (to))(2 (2 (2 (2 (the))(2 (usual)))(2 (,)))(2 (2 (more))(2 (2 (somber))(2 (3 (festival))(2 (entries))))))))(3 (2 (,))(4 (3 (2 (2 (3 (Davis))(2 (')))(2 (2 (2 (highly))(3 (personal)))(2 (brand))))(2 (2 (of))(2 (2 (romantic))(3 (comedy)))))(3 (2 (is))(3 (2 (2 (a))(2 (3 (tart))(2 (2 (,))(2 (4 (smart))(2 (breath))))))(3 (2 (of))(3 (4 (fresh))(2 (air))))))))))(2 (2 (that))(3 (2 (3 (3 (2 (stands))(1 (out)))(2 (2 (from))(2 (2 (the))(2 (pack)))))(1 (2 (even))(2 (2 (if))(1 (2 (2 (the))(2 (picture)))(2 (2 (itself))(3 (2 (is))(1 (2 (somewhat))(1 (problematic)))))))))(2 (.))))) |ET| 
-0.0032623014217659004193583527353439  |BT| (ROOT (3 (3 (2 (Its))(2 (story)))(2 (2 (about))(2 (2 (2 (2 (2 (2 (a))(2 (2 (young))(2 (2 (Chinese))(2 (woman)))))(2 (,)))(2 (2 (Ah))(2 (Na))))(2 (,)))(3 (2 (who))(3 (2 (has))(2 (2 (2 (come))(2 (2 (to))(2 (3 (New))(2 (2 (York))(2 (City))))))(2 (2 (to))(2 (2 (2 (replace))(2 (2 (past))(1 (tragedy))))(3 (2 (with))(2 (2 (the))(2 (2 (American))(3 (Dream)))))))))))))(3 (3 (2 (2 (is))(2 (one)))(4 (2 (that))(3 (3 (2 (any))(2 (2 (art-house))(2 (moviegoer))))(3 (2 (is))(3 (2 (likely))(2 (2 (to))(3 (2 (find))(3 (compelling)))))))))(2 (.)))) |ET| 
-0.0086282321898640979701555764336263  |BT| (ROOT (2 (4 (3 (3 (Interesting))(2 (and)))(2 (thoroughly)))(2 (1 (unfaithful))(2 (version))))(2 (2 (of))(2 (Carmen)))) |ET| 
0.010509175240264383849320140029704  |BT| (ROOT (2 (Highly))(4 (4 (engaging))(2 (.)))) |ET| 
0.010509175240264383849320140029704  |BT| (ROOT (2 (A))(4 (3 (gripping))(3 (1 (drama))(2 (.))))) |ET| 
0.010509175240264383849320140029704  |BT| (ROOT (4 (One-of-a-kind))(4 (4 (near-masterpiece))(2 (.)))) |ET| 
-0.010509175240264383849320140029704  |BT| (ROOT (3 (3 (3 (2 (An))(4 (engaging)))(2 (,)))(3 (2 (1 (formulaic))(2 (2 (sports))(1 (drama))))(3 (2 (that))(3 (2 (carries))(4 (2 (2 (a))(2 (charge)))(4 (2 (of))(4 (4 (genuine))(3 (excitement)))))))))(2 (.))) |ET| 
-0.010509175240264383849320140029704  |BT| (ROOT (4 (4 (2 (2 (A))(4 (2 (technical))(3 (triumph))))(2 (and)))(3 (2 (an))(4 (extraordinary))))(1 (0 (bore))(2 (.)))) |ET| 
-0.010509175240264383849320140029704  |BT| (ROOT (2 (Familiar))(3 (2 (but))(4 (2 (utterly))(4 (4 (delightful))(2 (.)))))) |ET| 
0.010140541571073101445588093838523  |BT| (ROOT (3 (2 (More))(3 (2 (timely))(2 (2 (than))(3 (2 (2 (its))(2 (director)))(2 (2 (2 (could))(2 (ever)))(2 (2 (have))(2 (dreamed))))))))(3 (2 (,))(3 (2 (this))(2 (2 (quietly))(3 (3 (2 (lyrical))(2 (2 (2 (tale))(2 (probes)))(3 (3 (2 (the))(2 (3 (ambiguous))(2 (welcome))))(2 (2 (2 (extended))(2 (2 (by))(2 (Iran))))(3 (2 (to))(2 (2 (2 (the))(2 (2 (Afghani))(2 (refugees))))(2 (2 (who))(2 (2 (3 (2 (streamed))(2 (2 (across))(2 (2 (its))(2 (borders)))))(2 (,)))(1 (1 (desperate))(2 (2 (for))(2 (2 (2 (work))(2 (and)))(2 (food)))))))))))))(2 (.))))))) |ET| 
0.010509175240264383849320140029704  |BT| (ROOT (2 (3 (2 (The))(2 (gags)))(3 (2 (that))(3 (3 (2 (fly))(3 (2 (at))(2 (2 (such))(2 (2 (a))(3 (1 (furiously))(3 (3 (funny))(2 (pace))))))))(1 (2 (that))(2 (2 (2 (the))(2 (only)))(1 (1 (2 (rip))(1 (off)))(2 (2 (that))(2 (2 (we))(2 (2 (were))(2 (2 (aware))(2 (of))))))))))))(2 (2 (2 (was))(2 (2 (2 (the))(2 (one)))(2 (2 (we))(2 (2 (felt))(1 (2 (when))(2 (2 (2 (the))(2 (movie)))(1 (1 (2 (ended))(2 (2 (so))(1 (damned))))(2 (soon)))))))))(2 (.)))) |ET| 
-0.0065286477798859304105816292462805  |BT| (ROOT (2 (2 (A))(4 (3 (2 (very))(3 (capable)))(2 (nailbiter))))(2 (.))) |ET| 
0.010509175240264383849320140029704  |BT| (ROOT (4 (4 (4 (3 (Brilliantly))(3 (written)))(2 (and)))(3 (well-acted)))(3 (2 (,))(4 (2 (2 (Yellow))(2 (Asphalt)))(3 (3 (2 (is))(3 (2 (an))(3 (3 (uncompromising))(2 (film)))))(2 (.)))))) |ET| 
0.010509175240264383849320140029704  |BT| (ROOT (4 (2 (A))(4 (4 (2 (wild))(4 (2 (,))(4 (3 (endearing))(3 (2 (,))(4 (masterful))))))(2 (documentary))))(2 (.))) |ET| 
0.010509175240264383849320140029704  |BT| (ROOT (3 (2 (Tells))(4 (2 (a))(4 (3 (fascinating))(3 (2 (,))(3 (3 (compelling))(2 (story)))))))(2 (.))) |ET| 
0.010509175240264383849320140029704  |BT| (ROOT (4 (4 (2 (Consider))(4 (2 (it))(4 (2 (`))(4 (perfection)))))(2 (.)))(2 ('))) |ET| 
0.010509175240264383849320140029704  |BT| (ROOT (3 (2 (3 (Boisterous))(2 (,)))(4 (3 (heartfelt))(3 (comedy))))(2 (.))) |ET| 
-0.010509175240264383849320140029704  |BT| (ROOT (2 (This))(4 (4 (2 (is))(4 (3 (2 (unusual))(3 (2 (,))(3 (2 (food-for-thought))(2 (cinema)))))(4 (2 (that))(4 (3 (2 ('s))(2 (2 (as))(4 (entertaining))))(3 (2 (as))(3 (2 (it))(3 (2 (is))(3 (instructive)))))))))(2 (.)))) |ET| 
-0.0088542052405568526241008697752477  |BT| (ROOT (2 (Quitting))(3 (3 (2 (offers))(2 (3 (3 (piercing))(2 (2 (domestic))(1 (drama))))(3 (2 (with))(3 (2 (spikes))(3 (2 (of))(3 (2 (sly))(4 (humor))))))))(2 (.)))) |ET| 
-0.0098323931532525304932690346504387  |BT| (ROOT (3 (3 (3 (3 (2 (Buy))(3 (2 (is))(3 (2 (an))(4 (3 (accomplished))(2 (actress))))))(2 (,)))(2 (and)))(3 (2 (this))(3 (2 (is))(3 (2 (a))(3 (2 (big))(2 (2 (,))(3 (3 (juicy))(2 (role)))))))))(2 (.))) |ET| 
0.010509175240264383849320140029704  |BT| (ROOT (3 (3 (Perfectly))(2 (2 (pitched))(2 (2 (between))(2 (3 (3 (comedy))(2 (and)))(2 (1 (tragedy))(2 (2 (,))(2 (2 (4 (hope))(2 (and)))(1 (despair)))))))))(2 (2 (,))(2 (2 (2 (About))(2 (Schmidt)))(3 (2 (instead))(3 (4 (3 (3 (comes))(3 (2 (far))(3 (2 (2 (closer))(2 (2 (than))(2 (many))))(2 (movies)))))(2 (2 (to))(1 (2 (2 (2 (expressing))(2 (2 (2 (2 (2 (the))(2 (way)))(2 (2 (2 (many))(2 (2 (of))(3 (us))))(2 (live))))(2 (--)))(2 (2 (someplace))(2 (2 (between))(1 (2 (consuming))(2 (self-absorption)))))))(2 (and)))(2 (2 (insistently))(2 (1 (demanding))(2 (otherness)))))))(2 (.))))))) |ET| 
0.010061180033233909844603282124353  |BT| (ROOT (3 (4 (4 (4 (4 (2 (2 (Brash))(2 (,)))(3 (intelligent)))(2 (and)))(2 (1 (erotically))(2 (perplexing))))(2 (2 (,))(2 (2 (2 (2 (2 (2 (Haneke))(2 ('s)))(2 (portrait)))(3 (2 (of))(2 (2 (an))(2 (2 (upper))(2 (2 (class))(2 (2 (Austrian))(2 (society))))))))(2 (and)))(2 (2 (2 (the))(2 (suppression)))(2 (2 (of))(2 (2 (2 (its))(2 (tucked)))(2 (away))))))))(1 (demons)))(3 (3 (2 (is))(3 (3 (uniquely))(1 (2 (felt))(2 (2 (with))(3 (2 (a))(1 (2 (sardonic))(2 (jolt))))))))(2 (.)))) |ET| 
-0.0064775549185136366281412279022334  |BT| (ROOT (2 (And))(4 (2 (it))(3 (3 (2 (sees))(3 (2 (2 (2 (those))(2 (relationships)))(2 (,)))(3 (2 (including))(4 (3 (3 (2 (2 (2 (2 (2 (2 (2 (that))(2 (2 (between))(2 (2 (2 (2 (the))(2 (son)))(2 (and)))(2 (2 (his))(2 (wife))))))(2 (,)))(2 (and)))(2 (2 (2 (2 (the))(2 (wife)))(2 (and)))(2 (2 (the))(2 (father)))))(2 (,)))(2 (and)))(2 (2 (between))(2 (2 (the))(2 (2 (two))(2 (brothers))))))(2 (,)))(3 (2 (with))(3 (3 (incredible))(3 (2 (2 (subtlety))(2 (and)))(3 (acumen)))))))))(2 (.))))) |ET| 
-0.00053551873483625739985614089277988  |BT| (ROOT (2 (3 (2 (A))(3 (2 (haunting))(2 (tale))))(2 (2 (of))(1 (2 (1 (murder))(2 (and)))(2 (mayhem)))))(2 (.))) |ET| 
0.010509175240264383849320140029704  |BT| (ROOT (4 (3 (2 (an))(4 (admirable)))(2 (,)))(3 (2 (sometimes))(4 (3 (exceptional))(2 (film))))) |ET| 
-0.010509175240264383849320140029704  |BT| (ROOT (4 (2 (When))(3 (2 (it))(3 (2 ('s))(3 (2 (this))(3 (3 (3 (rich))(2 (and)))(3 (luscious)))))))(2 (2 (,))(1 (2 (who))(2 (3 (cares))(2 (?)))))) |ET| 
-0.010509175240264383849320140029704  |BT| (ROOT (4 (3 (4 (Charming))(2 (and)))(2 (3 (funny))(2 (1 (1 (2 (1 (-LRB-))(2 (but)))(2 (2 (ultimately))(3 (silly))))(3 (-RRB-)))(2 (movie)))))(2 (.))) |ET| 
-0.00070700635710502441125258066279002  |BT| (ROOT (3 (2 (2 (A))(1 (drama)))(2 (2 (of))(3 (3 (3 (3 (4 (great))(2 (power)))(2 (,)))(2 (yet)))(2 (2 (2 (some))(2 (members)))(2 (2 (of))(2 (2 (the))(2 (audience))))))))(3 (3 (2 (will))(2 (1 (1 (leave))(2 (2 (the))(3 (theater))))(2 (2 (believing))(2 (2 (they))(3 (2 (have))(2 (2 (seen))(2 (2 (a))(3 (comedy)))))))))(2 (.)))) |ET| 
-0.010509175240264383849320140029704  |BT| (ROOT (2 (2 (1 (-LRB-))(2 (2 (2 (At))(1 (least)))(3 (-RRB-))))(2 (Moore)))(3 (3 (2 (is))(4 (2 (a))(2 (3 (real))(3 (charmer)))))(2 (.)))) |ET| 
0.0018254240399530879002815142442273  |BT| (ROOT (4 (3 (Like))(3 (2 (2 (2 (2 (Vardalos))(2 (and)))(2 (Corbett)))(2 (,)))(4 (2 (who))(4 (2 (2 (play))(2 (2 (their))(2 (roles))))(3 (2 (with))(3 (3 (vibrant))(3 (charm))))))))(3 (2 (,))(4 (2 (2 (2 (2 (2 (the))(2 (film)))(2 (,)))(2 (2 (directed))(2 (2 (by))(2 (2 (Joel))(2 (Zwick))))))(2 (,)))(4 (4 (4 (2 (is))(4 (3 (3 (heartfelt))(2 (and)))(4 (hilarious))))(2 (2 (in))(2 (2 (ways))(2 (2 (you))(2 (2 (2 (ca))(2 (n't)))(1 (fake)))))))(2 (.)))))) |ET| 
0.0054970314622213977545639451705028  |BT| (ROOT (4 (3 (2 (Directed))(3 (2 (with))(3 (2 (3 (purpose))(2 (and)))(3 (finesse)))))(3 (2 (by))(3 (2 (2 (2 (2 (England))(2 ('s)))(2 (2 (Roger))(2 (Mitchell))))(2 (,)))(3 (2 (who))(2 (3 (handily))(3 (2 (2 (makes))(2 (2 (the))(2 (move))))(3 (2 (from))(4 (pleasing)))))))))(3 (2 (,))(3 (3 (2 (2 (2 (relatively))(2 (lightweight)))(2 (2 (commercial))(2 (fare))))(2 (2 (such))(2 (2 (as))(2 (2 (2 (Notting))(2 (Hill)))(2 (2 (to))(2 (commercial)))))))(3 (4 (2 (fare))(3 (2 (with))(2 (3 (real))(2 (2 (thematic))(2 (heft))))))(2 (.)))))) |ET| 
-0.0049362934512436956388525821637359  |BT| (ROOT (2 (2 (Though))(1 (2 (2 (2 (Frodo))(2 ('s)))(2 (quest)))(1 (1 (remains))(1 (unfulfilled)))))(4 (2 (,))(4 (2 (2 (2 (a))(3 (2 (hardy))(2 (group))))(2 (2 (of))(3 (2 (determined))(2 (3 (New))(2 (Zealanders))))))(3 (3 (2 (has))(3 (2 (proved))(3 (2 (its))(3 (4 (creative))(3 (mettle))))))(2 (.)))))) |ET| 
-0.0072478775456561840909164295965184  |BT| (ROOT (2 (2 (2 (The))(2 (2 (pain))(2 (2 (,))(1 (2 (1 (loneliness))(2 (and)))(2 (insecurity))))))(2 (2 (of))(2 (2 (the))(2 (2 (screenwriting))(2 (process))))))(4 (4 (2 (2 (are))(2 (3 (3 (vividly))(2 (and)))(0 (painfully))))(2 (2 (brought))(3 (2 (to))(4 (1 (2 (slovenly))(3 (life)))(2 (2 (in))(2 (3 (2 (this))(1 (1 (self-deprecating))(3 (2 (,))(3 (2 (biting))(3 (2 (and))(3 (3 (witty))(2 (feature))))))))(2 (2 (2 (3 (written))(2 (2 (by))(2 (2 (2 (2 (Charlie))(2 (Kaufman)))(2 (and)))(2 (2 (2 (2 (2 (his))(2 (2 (twin))(2 (brother))))(2 (,)))(2 (Donald)))(2 (,))))))(2 (and)))(2 (2 (directed))(2 (2 (by))(2 (2 (Spike))(2 (Jonze))))))))))))(2 (.)))) |ET| 
0.010509175240264383849320140029704  |BT| (ROOT (2 (Spiderman))(3 (ROCKS))) |ET| 
0.010509175240264383849320140029704  |BT| (ROOT (2 (a))(3 (3 (joyous))(1 (occasion)))) |ET| 
0.010509175240264383849320140029704  |BT| (ROOT (2 (You))(3 (3 (2 (have))(2 (2 (to))(3 (2 (see))(2 (it)))))(2 (.)))) |ET| 
-0.010509175240264383849320140029704  |BT| (ROOT (4 (3 (2 (A))(3 (2 (3 (dashing))(2 (and)))(3 (absorbing))))(3 (2 (outing))(4 (2 (with))(4 (2 (one))(3 (2 (of))(4 (2 (2 (France))(2 ('s)))(3 (2 (most))(3 (3 (inventive))(2 (directors))))))))))(2 (.))) |ET| 
-0.010509175240264383849320140029704  |BT| (ROOT (4 (2 (What))(3 (2 (makes))(2 (2 (the))(3 (2 (movie))(3 (special))))))(3 (4 (2 (is))(3 (2 (its))(3 (2 (utter))(3 (sincerity)))))(2 (.)))) |ET| 
-0.0033032992980447230084439791397699  |BT| (ROOT (3 (3 (2 (The))(2 (4 (ingenious))(2 (construction))))(2 (1 (-LRB-))(2 (2 (2 (adapted))(2 (2 (by))(2 (2 (2 (David))(2 (Hare)))(2 (2 (from))(2 (2 (2 (Michael))(2 (2 (Cunningham))(2 ('s))))(3 (novel)))))))(3 (-RRB-)))))(3 (2 (constantly))(3 (2 (2 (2 (flows))(2 (2 (2 (forwards))(2 (and)))(2 (back))))(2 (,)))(3 (2 (2 (weaving))(2 (themes)))(3 (2 (among))(2 (2 (2 (three))(2 (strands)))(2 (2 (which))(2 (2 (2 (allow))(3 (us)))(2 (2 (2 (2 (to))(2 (2 (view))(2 (events))))(2 (2 (as))(2 (if))))(1 (2 (through))(2 (2 (a))(2 (prism))))))))))))) |ET| 
-0.001031214842356898992586922148007  |BT| (ROOT (3 (2 (2 (3 (2 (2 (2 (Almost))(2 (everyone)))(2 (2 (growing))(2 (up))))(2 (2 (believes))(2 (2 (2 (their))(3 (family)))(2 (2 (must))(2 (2 (2 (look))(2 (2 (2 (2 (like))(2 (``)))(2 (2 (The))(2 (2 (Addams))(3 (Family)))))(2 (''))))(2 (2 (to))(2 (2 (everyone))(2 (2 (looking))(2 (in))))))))))(2 (...)))(2 (``)))(3 (2 (2 (My))(2 (2 (Big))(2 (1 (Fat))(2 (2 (Greek))(3 (Wedding))))))(3 (2 (''))(3 (3 (comes))(2 (2 (from))(2 (2 (the))(2 (heart))))))))(2 (...))) |ET| 
0.010509175240264383849320140029704  |BT| (ROOT (4 (4 (2 (A))(3 (triumph)))(4 (2 (of))(3 (3 (3 (4 (pure))(2 (craft)))(2 (and)))(3 (3 (passionate))(2 (heart))))))(2 (.))) |ET| 
0.010509175240264383849320140029704  |BT| (ROOT (4 (3 (3 (Exciting))(2 (and)))(3 (well-paced)))(2 (.))) |ET| 
0.010509175240264383849320140029704  |BT| (ROOT (3 (3 (3 (Smart))(2 (and)))(2 (taut)))(2 (.))) |ET| 
0.010509175240264383849320140029704  |BT| (ROOT (4 (3 (4 (2 (A))(3 (2 (backstage))(4 (must-see))))(3 (2 (for))(3 (3 (true))(3 (fans)))))(2 (2 (of))(3 (comedy))))(2 (.))) |ET| 
-0.010509175240264383849320140029704  |BT| (ROOT (3 (Harmless))(3 (4 (fun))(2 (.)))) |ET| 
-0.010509175240264383849320140029704  |BT| (ROOT (2 (It))(3 (3 (2 ('s))(4 (4 (fun))(3 (2 (,))(3 (3 (2 (splashy))(2 (and)))(3 (3 (entertainingly))(0 (nasty)))))))(2 (.)))) |ET| 
-0.0018364881328424861959419667201132  |BT| (ROOT (3 (2 (Those))(3 (2 (who))(2 (4 (love))(2 (3 (3 (3 (2 (2 (Cinema))(2 (Paradiso)))(3 (2 (will))(3 (2 (find))(3 (2 (2 (the))(2 (3 (new))(2 (scenes))))(3 (interesting))))))(2 (,)))(2 (but)))(1 (2 (few))(3 (2 (will))(2 (2 (find))(2 (2 (the))(2 (movie))))))))))(3 (3 (improved))(2 (.)))) |ET| 
0.010509175240264383849320140029704  |BT| (ROOT (4 (3 (3 (2 (2 (The))(2 (2 (film))(2 ('s))))(2 (2 (intimate))(2 (2 (camera))(2 (work)))))(2 (and)))(3 (2 (searing))(2 (performances))))(3 (3 (2 (pull))(3 (3 (us))(1 (2 (2 (deep))(2 (2 (into))(2 (2 (2 (the))(2 (2 (girls))(2 ('))))(0 (1 (2 (confusion))(2 (and)))(2 (pain))))))(2 (2 (as))(2 (2 (they))(3 (1 (1 (struggle))(1 (tragically)))(2 (2 (to))(3 (2 (comprehend))(2 (2 (2 (2 (the))(2 (chasm)))(2 (2 (of))(2 (knowledge))))(2 (2 (that))(2 (2 ('s))(2 (2 (opened))(2 (2 (between))(2 (them)))))))))))))))(2 (.)))) |ET| 
0.0087690046198349615169664872382782  |BT| (ROOT (3 (4 (4 (4 (4 (2 (Such))(2 (2 (master))(2 (screenwriting))))(2 (3 (comes))(3 (2 (courtesy))(2 (2 (of))(2 (2 (2 (2 (John))(2 (Pogue)))(2 (,)))(2 (2 (2 (the))(3 (2 (Yale))(2 (grad))))(2 (2 (who))(2 (2 (previously))(2 (2 (2 (gave))(3 (us)))(2 (2 (``))(2 (2 (The))(2 (2 (Skulls))(2 (''))))))))))))))(2 (and)))(2 (2 (2 (last))(2 (year)))(2 (2 (2 ('s))(2 (``)))(2 (Rollerball)))))(2 (.)))(2 (''))) |ET| 
0.010509175240264383849320140029704  |BT| (ROOT (3 (3 (4 (3 (Sparkling))(4 (2 (,))(3 (4 (2 (often))(4 (hilarious)))(2 (2 (romantic))(2 (1 (jealousy))(3 (comedy)))))))(2 (...)))(2 (2 (Attal))(2 (2 (2 (looks))(3 (2 (so))(3 (2 (much))(2 (2 (like))(3 (2 (a))(2 (2 (young))(2 (2 (Robert))(2 (DeNiro)))))))))(1 (2 (that))(2 (2 (it))(1 (2 (seems))(1 (2 (2 (the))(2 (film)))(2 (2 (2 (should))(2 (instead)))(2 (2 (be))(2 (2 (2 (2 (called))(2 (`)))(2 (2 (2 (My))(2 (Husband)))(2 (2 (Is))(2 (2 (Travis))(2 (Bickle))))))(2 ('))))))))))))(2 (.))) |ET| 
-0.010509175240264383849320140029704  |BT| (ROOT (3 (3 (2 (Simple))(3 (2 (,))(3 (3 (4 (poignant))(2 (and)))(2 (leavened)))))(3 (2 (with))(4 (humor))))(4 (2 (,))(4 (2 (it))(4 (3 (2 ('s))(4 (2 (2 (a))(2 (film)))(4 (2 (that))(3 (3 (affirms))(3 (2 (2 (the))(3 (3 (nourishing))(2 (aspects))))(3 (2 (of))(2 (3 (4 (love))(2 (and)))(3 (companionship)))))))))(2 (.)))))) |ET| 
0.010509175240264383849320140029704  |BT| (ROOT (3 (2 (With))(3 (2 (2 (the))(2 (2 (same))(2 (sort))))(3 (2 (of))(4 (3 (3 (good-natured))(4 (fun)))(2 (2 (found))(2 (2 (in))(2 (2 (films))(2 (2 (like))(2 (Tremors))))))))))(3 (2 (,))(2 (2 (2 (Eight))(1 (2 (Legged))(2 (Freaks))))(3 (3 (2 (is))(2 (3 (prime))(2 (2 (escapist))(2 (fare)))))(2 (.)))))) |ET| 
0.010509175240264383849320140029704  |BT| (ROOT (4 (2 (2 (2 (3 (3 (Full))(2 (2 (of))(3 (detail))))(2 (2 (about))(2 (3 (3 (2 (the))(2 (man)))(2 (and)))(2 (2 (his))(2 (country))))))(2 (,)))(2 (and)))(4 (3 (2 (is))(3 (well)))(3 (2 (worth))(2 (seeing)))))(2 (.))) |ET| 
0.010509175240264383849320140029704  |BT| (ROOT (2 (...))(4 (4 (2 (very))(3 (funny)))(4 (2 (,))(3 (2 (very))(3 (3 (enjoyable))(2 (...))))))) |ET| 
0.010509175240264383849320140029704  |BT| (ROOT (3 (Promises))(4 (3 (2 (is))(4 (3 (2 (one))(2 (film)))(4 (2 (that))(3 (2 ('s))(4 (3 (truly))(4 (2 (deserving))(3 (2 (of))(3 (2 (its))(3 (3 (Oscar))(2 (nomination)))))))))))(2 (.)))) |ET| 
-0.0029365914137257443164430448234725  |BT| (ROOT (2 (2 (Featherweight))(2 (2 (romantic))(3 (comedy))))(3 (3 (2 (has))(3 (3 (3 (3 (2 (a))(3 (2 (few))(3 (3 (nice))(2 (twists)))))(1 (2 (in))(2 (2 (a))(2 (1 (standard))(2 (plot))))))(2 (and)))(3 (3 (2 (the))(3 (charisma)))(2 (2 (of))(2 (2 (2 (2 (Hugh))(2 (Grant)))(2 (and)))(2 (2 (Sandra))(2 (Bullock))))))))(2 (.)))) |ET| 
-0.010509175240264383849320140029704  |BT| (ROOT (4 (Great))(3 (1 (dragons))(2 (!)))) |ET| 
-0.010509175240264383849320140029704  |BT| (ROOT (4 (3 (2 (A))(4 (3 (thought-provoking))(3 (2 (and))(3 (3 (often-funny))(1 (drama))))))(2 (2 (about))(1 (isolation))))(2 (.))) |ET| 
0.010509175240264383849320140029704  |BT| (ROOT (2 (2 (3 (1 (2 (2 (Each))(2 (2 (of))(2 (2 (these))(2 (stories)))))(1 (3 (2 (2 (has))(2 (2 (2 (the))(3 (potential)))(3 (2 (for))(2 (3 (Touched))(3 (2 (by))(3 (2 (an))(2 (3 (Angel))(2 (simplicity)))))))))(2 (and)))(1 (sappiness))))(2 (,)))(2 (but)))(3 (3 (2 (2 (2 (2 (2 (Thirteen))(2 (Conversations)))(2 (2 (About))(2 (2 (One))(2 (Thing)))))(2 (,)))(2 (2 (for))(2 (2 (all))(2 (2 (2 (2 (its))(3 (generosity)))(2 (and)))(3 (optimism))))))(2 (,)))(2 (2 (never))(3 (2 (resorts))(3 (2 (to))(4 (2 (easy))(3 (3 (feel-good))(2 (sentiments)))))))))(2 (.))) |ET| 
0.0085107771541188832059576796496003  |BT| (ROOT (2 (2 (2 (2 (Lux))(2 (,)))(2 (2 (now))(2 (2 (in))(2 (2 (her))(3 (eighties))))))(2 (,)))(3 (4 (4 (3 (4 (2 (does))(3 (2 (a))(3 (4 (great))(2 (2 (combination))(2 (act))))))(2 (2 (as))(2 (2 (2 (2 (2 (narrator))(2 (,)))(2 (2 (Jewish))(2 (grandmother))))(2 (and)))(2 (subject)))))(2 (--)))(3 (2 (2 (taking))(3 (us)))(2 (2 (through))(3 (2 (2 (a))(2 (film)))(3 (2 (that))(2 (2 (is))(3 (3 (3 (2 (2 (2 (part))(2 (biography)))(2 (,)))(2 (2 (part))(3 (entertainment))))(2 (and)))(2 (2 (part))(2 (history))))))))))(2 (.)))) |ET| 
-0.0019629361895863585256438721415861  |BT| (ROOT (2 (It))(3 (3 (3 (2 (2 ('s))(2 (...)))(3 (2 (worth))(3 (2 (the))(3 (2 (extra))(3 (2 (effort))(2 (2 (to))(3 (2 (4 (2 (2 (2 (see))(2 (2 (an))(2 (artist))))(2 (,)))(3 (2 (still))(3 (3 (committed))(2 (2 (to))(2 (3 (growth))(2 (2 (in))(3 (2 (his))(2 (2 (ninth))(2 (decade))))))))))(2 (,)))(2 (2 (change))(3 (2 (while))(2 (2 (remaining))(3 (3 (true))(2 (2 (to))(2 (2 (his))(2 (principles)))))))))))))))(2 (2 (with))(2 (2 (2 (a))(2 (film)))(2 (2 (whose))(2 (2 (2 (very))(2 (subject)))(2 (3 (2 (2 (2 (is))(2 (,)))(2 (2 (quite))(2 (pointedly))))(2 (,)))(2 (2 (about))(2 (2 (2 (the))(3 (peril)))(2 (2 (of))(2 (2 (such))(2 (efforts))))))))))))(2 (.)))) |ET| 
0.010509175240264383849320140029704  |BT| (ROOT (2 (2 (2 (,))(2 (2 (The))(2 (Sum))))(2 (2 (of))(2 (2 (All))(1 (Fears)))))(4 (4 (2 (2 (is))(2 (simply)))(4 (2 (a))(4 (4 (3 (4 (well-made))(2 (and)))(4 (satisfying)))(3 (thriller)))))(2 (.)))) |ET| 
0.010509175240264383849320140029704  |BT| (ROOT (3 (delightfully))(2 (rendered))) |ET| 
0.010509175240264383849320140029704  |BT| (ROOT (4 (Fantastic))(2 (!))) |ET| 
0.010509175240264383849320140029704  |BT| (ROOT (4 (Amazing))(2 (!))) |ET| 
0.010509175240264383849320140029704  |BT| (ROOT (2 (It))(3 (3 (2 (makes))(4 (3 (3 (compelling))(3 (2 (,))(4 (3 (3 (provocative))(2 (and)))(2 (prescient)))))(2 (viewing))))(2 (.)))) |ET| 
-0.0087689392015659547996442313433363  |BT| (ROOT (3 (2 (Has))(2 (3 (4 (2 (its))(3 (4 (charming))(2 (quirks))))(2 (and)))(1 (2 (its))(1 (0 (dull))(2 (spots))))))(2 (.))) |ET| 
0.010509175240264383849320140029704  |BT| (ROOT (3 (3 (2 (Sexy))(2 (and)))(2 (romantic)))(2 (.))) |ET| 
-0.010509175240264383849320140029704  |BT| (ROOT (3 (3 (3 (2 (2 (The))(2 (performances)))(2 (2 (2 (are))(2 (all)))(3 (solid))))(2 (;)))(1 (2 (it))(1 (2 (merely))(1 (1 (lacks))(4 (3 (originality))(3 (2 (to))(4 (2 (make))(3 (2 (it))(4 (2 (a))(4 (4 (great))(2 (movie))))))))))))(2 (.))) |ET| 
0.010509175240264383849320140029704  |BT| (ROOT (2 (3 (1 (-LRB-))(2 (2 (2 (Breheny))(2 ('s)))(2 (3 (-RRB-))(2 (lensing)))))(2 (2 (of))(2 (2 (the))(2 (3 (New))(2 (2 (Zealand))(2 (2 (and))(2 (2 (Cook))(2 (2 (Island))(2 (locations))))))))))(3 (3 (2 (captures))(3 (3 (2 (both))(3 (2 (the))(3 (beauty))))(2 (2 (of))(2 (2 (3 (2 (the))(2 (land)))(2 (and)))(2 (2 (the))(2 (people)))))))(2 (.)))) |ET| 
0.0090370416383971988172341127665277  |BT| (ROOT (3 (2 (2 (A))(2 (film)))(4 (2 (that))(4 (3 (2 (2 (2 (begins))(2 (2 (with))(2 (3 (2 (the))(2 (2 (everyday))(2 (lives))))(2 (2 (of))(2 (2 (2 (naval))(2 (personnel)))(2 (2 (in))(2 (2 (San))(2 (Diego)))))))))(2 (and)))(4 (3 (2 (ends))(3 (2 (with))(3 (2 (scenes))(4 (2 (so))(3 (3 (3 (true))(2 (and)))(2 (heartbreaking)))))))(3 (2 (that))(3 (1 (tears))(3 (2 (2 (2 (welled))(2 (up)))(2 (2 (in))(2 (2 (my))(2 (eyes)))))(3 (2 (both))(2 (times))))))))(2 (I)))))(2 (3 (2 (saw))(2 (2 (the))(2 (film))))(2 (.)))) |ET| 
-0.0051280776183480168695094647546284  |BT| (ROOT (2 (2 (2 (The))(2 (trick)))(2 (2 (when))(2 (2 (watching))(2 (Godard)))))(3 (3 (2 (is))(3 (2 (to))(3 (3 (4 (3 (2 (2 (2 (catch))(2 (2 (2 (the))(2 (pitch)))(2 (2 (of))(2 (2 (his))(2 (poetics))))))(2 (,)))(3 (3 (savor))(3 (3 (2 (the))(4 (pleasure)))(2 (2 (of))(2 (2 (his))(2 (2 (2 (sounds))(2 (and)))(2 (images))))))))(2 (,)))(2 (and)))(2 (2 (ponder))(2 (3 (2 (3 (2 (2 (2 (the))(2 (historical)))(2 (,)))(3 (philosophical)))(2 (,)))(2 (and)))(2 (2 (2 (ethical))(2 (issues)))(2 (2 (that))(2 (2 (intersect))(2 (2 (with))(2 (them)))))))))))(2 (.)))) |ET| 
-0.0001052573220960767241089969803447  |BT| (ROOT (2 (2 (About))(2 (2 (a))(2 (Boy))))(3 (3 (vividly))(3 (3 (2 (2 (3 (1 (recalls))(2 (2 (2 (the))(2 (2 (Cary))(2 (Grant))))(2 (2 (of))(2 (Room)))))(2 (2 (for))(2 (2 (One))(2 (More)))))(2 (,)))(3 (2 (2 (Houseboat))(2 (2 (and))(2 (2 (Father))(2 (Goose)))))(3 (2 (in))(2 (3 (2 (its))(2 (2 (affectionate))(2 (depiction))))(2 (2 (of))(2 (2 (2 (the))(2 (3 (gentle))(1 (war))))(2 (2 (between))(1 (1 (2 (2 (a))(1 (1 (1 (reluctant))(1 (2 (,))(1 (irresponsible))))(2 (man))))(2 (and)))(2 (2 (2 (the))(2 (kid)))(2 (2 (who))(2 (2 (latches))(2 (2 (onto))(2 (him))))))))))))))(2 (.))))) |ET| 
0.010509175240264383849320140029704  |BT| (ROOT (3 (3 (2 (2 (A))(3 (slick)))(2 (,)))(3 (4 (engrossing))(2 (melodrama))))(2 (.))) |ET| 
0.010509175240264383849320140029704  |BT| (ROOT (4 (2 (1 (0 (2 (It))(1 (2 ('s))(1 (2 (tough))(2 (2 (to))(2 (watch))))))(2 (,)))(2 (but)))(4 (2 (it))(4 (2 ('s))(4 (2 (a))(4 (3 (fantastic))(2 (movie)))))))(2 (.))) |ET| 
-0.0040182686515636105439863712263104  |BT| (ROOT (2 (She))(3 (3 (2 (2 (boxes))(3 (2 (3 (2 (these))(2 (2 (women))(2 ('s))))(2 (souls)))(2 (3 (right))(3 (open)))))(3 (2 (for))(3 (us))))(2 (.)))) |ET| 
-0.0032039439071860392922730387255115  |BT| (ROOT (1 (Never))(2 (3 (3 (4 (inspires))(2 (more)))(2 (2 (than))(3 (2 (an))(2 (3 (interested))(2 (detachment))))))(2 (.)))) |ET| 
0.010509175240264383849320140029704  |BT| (ROOT (3 (2 (2 (An))(2 (example)))(4 (2 (of))(4 (3 (3 (2 (quiet))(3 (2 (,))(4 (confident))))(2 (craftsmanship)))(3 (2 (that))(4 (2 (tells))(4 (4 (2 (a))(3 (4 (4 (sweet))(3 (2 (,))(4 (charming))))(2 (tale))))(3 (2 (of))(2 (2 (intergalactic))(2 (friendship))))))))))(2 (.))) |ET| 
-0.0080674367093792765520676724122495  |BT| (ROOT (4 (4 (4 (4 (2 (2 (The))(2 (3 (fluid))(2 (motion))))(3 (2 (is))(4 (3 (astounding))(2 (2 (on))(2 (2 (2 (any))(2 (number)))(2 (2 (of))(2 (levels))))))))(2 (2 (--))(2 (2 (2 (including))(2 (2 (2 (the))(2 (2 (physical))(2 (demands))))(2 (2 (made))(2 (2 (on))(2 (Bttner))))))(2 (--)))))(2 (and)))(2 (2 (it))(3 (2 (2 (implies))(2 (2 (in))(2 (2 (its))(2 (wake)))))(2 (2 (2 (the))(2 (2 (intractable))(2 (2 (,))(2 (2 (irreversible))(2 (flow))))))(2 (2 (of))(2 (history)))))))(2 (.))) |ET| 
0.010509175240264383849320140029704  |BT| (ROOT (4 (3 (3 (2 (An))(3 (uplifting)))(2 (,)))(4 (near-masterpiece)))(2 (.))) |ET| 
0.010509175240264383849320140029704  |BT| (ROOT (3 (Reassuring))(3 (2 (,))(3 (2 (retro))(4 (3 (uplifter))(2 (.)))))) |ET| 
-0.010509175240264383849320140029704  |BT| (ROOT (3 (3 (2 (A))(4 (2 (cutesy))(3 (2 (romantic))(2 (tale)))))(2 (2 (with))(3 (2 (a))(2 (twist)))))(2 (.))) |ET| 
-0.010509175240264383849320140029704  |BT| (ROOT (2 (She))(4 (2 (nearly))(3 (4 (3 (glows))(4 (2 (with))(3 (3 (3 (enthusiasm))(2 (,)))(3 (2 (3 (sensuality))(2 (and)))(2 (2 (a))(3 (2 (conniving))(2 (wit))))))))(2 (.))))) |ET| 
-0.010509175240264383849320140029704  |BT| (ROOT (2 (Rarely))(2 (3 (2 (does))(3 (4 (2 (such))(4 (3 (high-profile))(3 (talent))))(2 (2 (serve))(2 (2 (such))(3 (4 (literate))(2 (material)))))))(2 (.)))) |ET| 
0.010509175240264383849320140029704  |BT| (ROOT (3 (2 (Stands))(3 (2 (as))(4 (2 (one))(4 (2 (of))(4 (2 (2 (the))(2 (2 (year))(2 ('s))))(4 (2 (most))(3 (3 (intriguing))(2 (2 (movie))(2 (experiences))))))))))(3 (2 (,))(3 (2 (2 (letting))(2 (2 (its))(2 (imagery))))(4 (3 (2 (2 (speak))(2 (2 (for))(2 (it))))(3 (2 (while))(4 (2 (it))(3 (2 (forces))(2 (2 (you))(2 (2 (to))(2 (2 (2 (ponder))(2 (anew)))(2 (2 (what))(2 (2 (2 (a))(2 (movie)))(2 (2 (can))(2 (be))))))))))))(2 (.)))))) |ET| 
0.010509175240264383849320140029704  |BT| (ROOT (2 (It))(2 (3 (2 ('s))(3 (3 (2 (2 (the))(3 (kind)))(2 (2 (of))(4 (2 (effectively))(3 (3 (creepy-scary))(3 (thriller))))))(2 (2 (that))(1 (2 (has))(2 (2 (you))(1 (3 (3 (fixating))(2 (2 (on))(2 (2 (2 (a))(2 (2 (far))(2 (corner))))(2 (2 (of))(2 (2 (2 (the))(2 (screen)))(2 (2 (at))(2 (times))))))))(1 (2 (because))(2 (2 (2 (your))(2 (nerves)))(1 (2 (just))(2 (2 (2 (ca))(2 (n't)))(2 (3 (2 (take))(2 (it)))(2 (2 (any))(2 (more))))))))))))))(2 (.)))) |ET| 
-0.0020194931838507031336693575696017  |BT| (ROOT (2 (2 (Even))(2 (2 (though))(3 (2 (it))(2 (2 (2 ('s))(2 (2 (common))(2 (knowledge))))(2 (2 (that))(2 (2 (2 (2 (Park))(2 (and)))(2 (2 (2 (2 (2 (his))(2 (2 (founding))(2 (partner))))(2 (,)))(3 (2 (Yong))(2 (Kang))))(2 (,))))(2 (2 (lost))(2 (2 (Kozmo))(2 (2 (in))(2 (2 (the))(2 (end))))))))))))(4 (2 (,))(3 (2 (you))(3 (3 (2 (2 (2 (2 (ca))(2 (n't)))(2 (help)))(2 (but)))(3 (2 (get))(2 (2 (2 (caught))(2 (up)))(3 (2 (in))(3 (3 (2 (the))(3 (thrill)))(3 (2 (of))(3 (2 (2 (the))(2 (2 (company))(2 ('s))))(4 (4 (astonishing))(3 (growth))))))))))(2 (.)))))) |ET| 
-0.0098673238320980630883250128704276  |BT| (ROOT (2 (2 (Despite))(1 (2 (its))(1 (flaws))))(3 (2 (...))(3 (2 (Belinsky))(3 (4 (2 (2 (is))(2 (still)))(4 (3 (able))(4 (2 (to))(4 (3 (create))(4 (3 (2 (an))(3 (4 (engaging))(2 (story))))(3 (2 (that))(3 (2 (keeps))(2 (2 (you))(3 (2 (guessing))(2 (2 (at))(2 (2 (almost))(2 (2 (every))(2 (turn))))))))))))))(2 (.)))))) |ET| 
0.010509175240264383849320140029704  |BT| (ROOT (2 (Delirious))(3 (4 (fun))(2 (.)))) |ET| 
0.010509175240264383849320140029704  |BT| (ROOT (2 (...))(4 (4 (3 (4 (4 (spellbinding))(4 (fun)))(2 (and)))(3 (3 (deliciously))(0 (exploitative))))(2 (.)))) |ET| 
0.010509175240264383849320140029704  |BT| (ROOT (2 (This))(4 (4 (2 (is))(4 (3 (3 (2 (a))(4 (3 (finely))(3 (written))))(2 (,)))(4 (3 (superbly))(3 (2 (acted))(3 (2 (offbeat))(3 (thriller)))))))(2 (.)))) |ET| 
-0.010509175240264383849320140029704  |BT| (ROOT (2 (2 (Even))(1 (2 (with))(2 (2 (all))(1 (2 (its))(0 (botches))))))(3 (2 (,))(4 (2 (Enigma))(4 (3 (2 (offers))(3 (2 (2 (all))(3 (2 (the))(4 (pleasure))))(4 (2 (of))(4 (2 (a))(4 (2 (handsome))(4 (2 (and))(3 (4 (well-made))(3 (entertainment)))))))))(2 (.)))))) |ET| 
-0.0049529962094728681790134494633548  |BT| (ROOT (2 (Hardly))(1 (2 (a))(2 (2 (2 (film))(2 (2 (that))(3 (3 (comes))(2 (2 (along))(2 (2 (every))(2 (day)))))))(2 (.))))) |ET| 
-0.0045937700951982794392303155461832  |BT| (ROOT (2 (2 (Even))(1 (2 (more))(2 (baffling))))(3 (3 (2 (is))(3 (2 (that))(4 (2 (it))(2 (2 ('s))(3 (funny))))))(2 (.)))) |ET| 
0.010509175240264383849320140029704  |BT| (ROOT (3 (2 (With))(3 (2 (2 (an))(2 (2 (3 (admirably))(2 (dark)))(2 (2 (first))(2 (script)))))(2 (2 (by))(2 (2 (Brent))(2 (Hanley))))))(3 (2 (,))(4 (2 (2 (2 (2 (Paxton))(2 (,)))(2 (2 (making))(2 (2 (his))(2 (2 (directorial))(2 (2 (feature))(2 (debut)))))))(2 (,)))(3 (3 (2 (does))(3 (3 (strong))(2 (2 (,))(2 (2 (measured))(2 (work))))))(2 (.)))))) |ET| 
-0.0057863125776345235989905901874408  |BT| (ROOT (1 (Ludicrous))(3 (3 (2 (2 (,))(2 (but)))(3 (2 (2 (director))(2 (3 (Carl))(2 (Franklin))))(3 (2 (adds))(3 (1 (2 (enough))(2 (3 (3 (flourishes))(2 (and)))(2 (freak-outs))))(2 (2 (to))(2 (2 (make))(3 (2 (it))(4 (entertaining)))))))))(2 (.)))) |ET| 
-0.0012989561906920994629327514857664  |BT| (ROOT (3 (2 (While))(3 (2 (2 (the))(4 (humor)))(3 (2 (is))(2 (2 (recognizably))(2 (Plympton))))))(2 (2 (,))(3 (2 (he))(3 (3 (2 (2 (has))(2 (actually)))(3 (2 (bothered))(2 (2 (to))(2 (2 (2 (construct))(3 (2 (a))(2 (3 (real))(2 (story)))))(2 (2 (this))(2 (time)))))))(2 (.)))))) |ET| 
0.010509175240264383849320140029704  |BT| (ROOT (3 (2 (1 (-LRB-))(2 (2 (A))(3 (-RRB-))))(3 (3 (3 (real))(4 (pleasure)))(3 (2 (in))(3 (2 (its))(2 (3 (laid-back))(2 (way)))))))(2 (.))) |ET| 
0.010509175240264383849320140029704  |BT| (ROOT (2 (1 (-LRB-))(2 (2 (A))(3 (-RRB-))))(4 (3 (1 (devastatingly))(4 (4 (3 (4 (powerful))(2 (and)))(4 (3 (astonishingly))(3 (vivid))))(2 (2 (Holocaust))(1 (drama)))))(2 (.)))) |ET| 
0.010509175240264383849320140029704  |BT| (ROOT (4 (4 (2 (One))(2 (2 (of))(3 (2 (the))(2 (3 (funnier))(2 (movies))))))(2 (2 (in))(3 (town))))(2 (.))) |ET| 
-0.010509175240264383849320140029704  |BT| (ROOT (1 (2 (As))(2 (1 (2 (literary))(2 (desecrations)))(2 (go))))(3 (2 (,))(4 (2 (this))(3 (3 (2 (makes))(3 (2 (for))(3 (4 (3 (4 (perfectly))(3 (3 (3 (acceptable))(2 (,)))(3 (2 (occasionally))(4 (2 (very))(3 (enjoyable))))))(2 (3 (children))(2 ('s))))(3 (entertainment)))))(2 (.)))))) |ET| 
-0.010509175240264383849320140029704  |BT| (ROOT (4 (3 (3 (Polished))(2 (,)))(4 (4 (well-structured))(2 (film))))(2 (.))) |ET| 
-0.010509175240264383849320140029704  |BT| (ROOT (3 (3 (2 (A))(3 (3 (straight-ahead))(3 (thriller))))(2 (that)))(0 (2 (never))(4 (3 (2 (rises))(3 (2 (above))(1 (superficiality))))(2 (.))))) |ET| 
0.010509175240264383849320140029704  |BT| (ROOT (2 (1 (2 (The))(2 (2 (wanton))(2 (slipperiness))))(2 (2 (of))(3 (2 (1 (2 (2 (2 (\*))(2 (Corpus)))(2 (and)))(1 (2 (its))(2 (3 (amiable))(2 (jerking)))))(2 (and)))(2 (2 (reshaping))(2 (2 (of))(2 (2 (physical))(2 (2 (2 (time))(2 (and)))(2 (space)))))))))(4 (3 (2 (would))(4 (2 (2 (make))(2 (it)))(4 (2 (a))(4 (4 (great))(4 (2 (piece))(3 (2 (to))(3 (2 (2 (2 (watch))(2 (2 (with))(2 (kids))))(2 (and)))(2 (2 (use))(2 (2 (to))(3 (2 (2 (introduce))(2 (video)))(2 (2 (as))(2 (art)))))))))))))(2 (.)))) |ET| 
-0.0026571459488191210077112636156471  |BT| (ROOT (2 (2 (2 (2 (3 (2 (The))(2 (gags)))(2 (,)))(2 (and)))(2 (2 (the))(2 (script))))(2 (,)))(2 (2 (2 (are))(2 (2 (a))(2 (2 (mixed))(2 (bag)))))(2 (.)))) |ET| 
-0.0014571449738409992212540000622312  |BT| (ROOT (3 (3 (3 (3 (3 (2 (A))(2 (journey)))(3 (2 (spanning))(2 (2 (3 (2 (2 (2 (nearly))(2 (three)))(2 (decades)))(3 (2 (of))(3 (3 (bittersweet))(2 (2 (3 (camaraderie))(2 (and)))(2 (history))))))(2 (,)))(2 (2 (2 (in))(2 (which)))(3 (2 (we))(3 (2 (feel))(2 (2 (that))(2 (2 (we))(2 (3 (truly))(2 (2 (know))(2 (2 (what))(2 (2 (makes))(2 (2 (2 (2 (Holly))(2 (and)))(2 (Marina)))(2 (tick)))))))))))))))(2 (,)))(2 (and)))(2 (2 (2 (our))(3 (hearts)))(2 (2 (2 (2 (go))(1 (out)))(2 (2 (to))(2 (them))))(2 (2 (as))(2 (2 (both))(2 (2 (continue))(2 (2 (to))(1 (2 (negotiate))(2 (2 (their))(1 (2 (1 (imperfect))(2 (2 (,))(2 (love-hate))))(2 (relationship))))))))))))(2 (.))) |ET| 
-0.0082444787047701445503733452824235  |BT| (ROOT (3 (3 (2 (A))(3 (3 (subtle))(3 (2 (,))(3 (4 (poignant))(2 (picture))))))(3 (2 (of))(1 (3 (goodness))(1 (2 (that))(1 (2 (is))(0 (1 (flawed))(1 (2 (,))(1 (3 (2 (compromised))(2 (and)))(1 (sad))))))))))(2 (.))) |ET| 
0.010509175240264383849320140029704  |BT| (ROOT (2 (It))(3 (3 (2 ('s))(3 (3 (2 (a))(3 (3 (cool))(2 (event))))(3 (2 (for))(2 (2 (the))(3 (2 (whole))(3 (family)))))))(2 (.)))) |ET| 
-0.010509175240264383849320140029704  |BT| (ROOT (2 (``))(4 (2 (Barbershop))(4 (2 (''))(4 (4 (2 (is))(3 (4 (2 (a))(4 (3 (good-hearted))(2 (2 (ensemble))(3 (comedy)))))(4 (2 (with))(3 (2 (2 (a))(2 (variety)))(4 (2 (of))(4 (2 (2 (2 (quirky))(2 (characters)))(2 (and)))(3 (2 (an))(3 (4 (engaging))(2 (story))))))))))(2 (.)))))) |ET| 
-0.010509175240264383849320140029704  |BT| (ROOT (2 (3 (Reign))(2 (2 (of))(1 (Fire))))(4 (2 (just))(4 (4 (2 (might))(4 (2 (2 (go))(2 (down)))(4 (2 (as))(4 (2 (one))(3 (2 (of))(4 (2 (the))(4 (2 (all-time))(2 (4 (great))(2 (2 (apocalypse))(2 (movies)))))))))))(2 (.))))) |ET| 
0.010509175240264383849320140029704  |BT| (ROOT (4 (4 (4 (2 (A))(3 (3 (good))(2 (2 (music))(2 (documentary)))))(2 (,)))(4 (2 (2 (probably))(2 (one)))(3 (2 (of))(3 (4 (2 (the))(4 (best)))(2 (2 (since))(2 (2 (The))(2 (2 (Last))(2 (Waltz)))))))))(2 (.))) |ET| 
0.010509175240264383849320140029704  |BT| (ROOT (2 (2 (2 (Pacino))(2 (and)))(2 (Williams)))(3 (3 (2 (seem))(3 (2 (to))(2 (3 (2 (2 (keep))(2 (3 (2 (upping))(2 (2 (the))(2 (ante))))(2 (2 (on))(2 (2 (each))(2 (other))))))(2 (,)))(2 (2 (just))(2 (2 (as))(2 (2 (2 (their))(2 (characters)))(2 (2 (do))(2 (2 (in))(2 (2 (the))(2 (film)))))))))))(2 (.)))) |ET| 
0.010509175240264383849320140029704  |BT| (ROOT (4 (3 (2 (2 (Writer))(2 (2 (and))(2 (2 (director))(2 (2 (Otar))(2 (3 (Iosseliani))(2 ('s)))))))(3 (4 (pleasant))(2 (tale))))(2 (2 (about))(2 (2 (2 (a))(2 (2 (factory))(2 (worker))))(2 (2 (who))(2 (2 (escapes))(2 (2 (for))(2 (2 (2 (a))(2 (holiday)))(3 (2 (in))(2 (Venice))))))))))(3 (3 (2 (reveals))(3 (2 (how))(3 (2 (we))(2 (2 (all))(2 (3 (2 (need))(3 (2 (a))(3 (4 (playful))(2 (respite)))))(2 (2 (from))(3 (2 (the))(2 (2 (grind))(3 (2 (to))(3 (3 (refresh))(2 (2 (our))(2 (souls)))))))))))))(2 (.)))) |ET| 
-0.0098759947775252290153025214181071  |BT| (ROOT (1 (2 (Though))(2 (2 (Jackson))(2 (2 (1 (2 (does))(2 (n't)))(2 (always)))(4 (3 (succeed))(3 (2 (in))(4 (3 (3 (2 (integrating))(2 (2 (the))(2 (characters))))(2 (2 (in))(2 (2 (the))(2 (foreground)))))(3 (2 (into))(4 (2 (the))(4 (3 (4 (extraordinarily))(3 (rich)))(2 (landscape)))))))))))(3 (2 (,))(3 (2 (it))(3 (3 (2 (must))(4 (2 (be))(3 (2 (said))(4 (2 (that))(3 (2 (he))(4 (2 (is))(4 (3 (2 (an))(3 (4 (imaginative))(2 (filmmaker))))(2 (2 (who))(3 (2 (can))(3 (2 (see))(2 (3 (2 (the))(2 (forest)))(2 (2 (for))(2 (2 (the))(2 (trees)))))))))))))))(2 (.)))))) |ET| 
-0.0010847512480852148156196257389183  |BT| (ROOT (3 (3 (2 (The))(2 (3 (gentle))(2 (2 (comic))(2 (treatment)))))(1 (2 (of))(2 (2 (adolescent))(2 (2 (sturm))(2 (2 (und))(2 (drang)))))))(3 (3 (2 (should))(3 (2 (please))(2 (3 (fans))(2 (2 (of))(2 (2 (3 (Chris))(2 (2 (Fuhrman))(2 ('s))))(2 (2 (2 (posthumously))(2 (published)))(2 (1 (cult))(3 (novel)))))))))(2 (.)))) |ET| 
0.0097048737323061455561923338564156  |BT| (ROOT (4 (2 (This))(4 (3 (gorgeous))(3 (epic))))(4 (4 (2 (is))(4 (2 (guaranteed))(4 (2 (to))(4 (3 (lift))(2 (2 (2 (the))(2 (spirits)))(2 (2 (of))(2 (2 (the))(3 (2 (whole))(3 (family))))))))))(2 (.)))) |ET| 
0.010509175240264383849320140029704  |BT| (ROOT (2 (This))(4 (4 (2 (is))(4 (2 (4 (pure))(2 (,)))(4 (4 (exciting))(2 (moviemaking)))))(2 (.)))) |ET| 
-0.0045340910357239017774988454334562  |BT| (ROOT (2 (Broomfield))(3 (3 (2 (has))(3 (3 (2 (a))(3 (3 (2 (rather))(3 (unique)))(2 (approach))))(2 (2 (to))(2 (documentary)))))(2 (.)))) |ET| 
-0.0046829054367259065339013091033848  |BT| (ROOT (2 (2 (2 (A))(2 (2 (seriocomic))(2 (debut))))(3 (2 (of))(4 (extravagant))))(2 (3 (3 (promise))(2 (2 (by))(2 (2 (Georgian-Israeli))(2 (2 (director))(2 (2 (Dover))(2 (Kosashvili)))))))(2 (.)))) |ET| 
-0.010509175240264383849320140029704  |BT| (ROOT (2 (Enigma))(4 (3 (2 (looks))(4 (4 (great))(3 (2 (,))(3 (2 (has))(4 (3 (3 (3 (solid))(2 (acting)))(2 (and)))(3 (2 (a))(3 (3 (neat))(2 (premise)))))))))(2 (.)))) |ET| 
0.010509175240264383849320140029704  |BT| (ROOT (1 (3 (3 (2 (2 (2 (The))(2 (2 (Emperor))(2 ('s))))(2 (Club)))(2 (,)))(1 (2 (ruthless))(2 (2 (in))(2 (2 (its))(1 (2 (own))(2 (2 (placid))(2 (way))))))))(2 (,)))(3 (3 (2 (2 (2 (finds))(2 (2 (one))(1 (2 (of))(3 (2 (our))(2 (2 (2 (most))(2 (2 (2 (conservative))(2 (and)))(2 (hidebound))))(2 (2 (movie-making))(2 (traditions))))))))(2 (and)))(3 (2 (2 (gives))(2 (it)))(3 (2 (2 (3 (new))(2 (texture)))(2 (,)))(2 (3 (2 (3 (new))(2 (relevance)))(2 (,)))(2 (3 (new))(2 (reality)))))))(2 (.)))) |ET| 
0.0088956612988643907202757077357091  |BT| (ROOT (3 (1 (1 (1 (2 (2 (This))(2 (movie)))(1 (1 (2 (may))(1 (not)))(4 (2 (have))(4 (4 (2 (the))(4 (2 (highest))(2 (2 (production))(2 (values)))))(3 (2 (you))(2 (2 (2 ('ve))(2 (ever)))(2 (seen))))))))(2 (,)))(2 (but)))(4 (2 (it))(3 (2 ('s))(3 (2 (2 (the))(2 (work)))(3 (2 (of))(3 (2 (2 (2 (an))(2 (artist)))(2 (,)))(3 (2 (one))(3 (2 (2 (whose))(2 (2 (view))(3 (2 (of))(2 (2 (3 (2 (2 (America))(2 (,)))(2 (history)))(2 (and)))(2 (2 (2 (the))(2 (awkwardness)))(2 (2 (of))(2 (2 (human))(3 (life)))))))))(4 (2 (is))(3 (3 (3 (generous))(2 (and)))(2 (deep))))))))))))(2 (.))) |ET| 
0.0090729903823449763872188711388844  |BT| (ROOT (4 (2 (2 (2 (2 (There))(2 (2 ('s))(1 (2 (none))(2 (2 (of))(2 (2 (the))(2 (happily-ever)))))))(2 (2 (-))(2 (2 (2 (after))(2 (2 (spangle))(2 (2 (of))(2 (3 (2 (Monsoon))(3 (Wedding)))(2 (2 (in))(2 (2 (Late))(2 (Marriage))))))))(2 (--)))))(2 (and)))(3 (2 (that))(4 (2 ('s))(3 (2 (part))(4 (2 (of))(3 (2 (what))(4 (2 (makes))(3 (3 (2 (2 (Dover))(2 (2 (Kosashvili))(2 ('s))))(4 (4 (outstanding))(2 (2 (feature))(2 (debut)))))(4 (2 (so))(3 (potent)))))))))))(2 (.))) |ET| 
0.010509175240264383849320140029704  |BT| (ROOT (3 (3 (2 (An))(2 (action\/thriller)))(3 (2 (of))(3 (2 (the))(3 (3 (finest))(3 (kind))))))(3 (2 (,))(2 (3 (2 (evoking))(2 (2 (memories))(2 (2 (of))(2 (2 (Day))(2 (2 (of))(2 (2 (2 (2 (2 (2 (2 (the))(2 (Jackal)))(2 (,)))(2 (2 (The))(2 (2 (French))(2 (Connection)))))(2 (,)))(2 (and)))(2 (Heat))))))))(2 (.))))) |ET| 
-0.010509175240264383849320140029704  |BT| (ROOT (2 (Overall))(3 (2 (,))(4 (2 (it))(3 (4 (2 ('s))(3 (3 (2 (a))(3 (3 (3 (2 (wacky))(2 (and)))(3 (inspired)))(2 (2 (little))(2 (film)))))(4 (2 (that))(3 (3 (2 (works))(3 (effortlessly)))(3 (2 (at))(3 (2 (delivering))(4 (4 (genuine))(3 (2 (,))(2 (2 (acerbic))(3 (laughs)))))))))))(2 (.)))))) |ET| 
-0.003686674463362653395709367387667  |BT| (ROOT (2 (2 (Blade))(2 (II)))(2 (3 (2 (2 (merges))(2 (2 (2 (bits))(2 (and)))(2 (pieces))))(3 (2 (from))(3 (2 (2 (fighting))(2 (2 (2 (2 (2 (2 (2 (2 (2 (2 (2 (2 (2 (2 (2 (games))(2 (,)))(2 (2 (wire))(1 (fu))))(2 (,)))(2 (1 (horror))(2 (movies))))(2 (,)))(2 (mystery)))(2 (,)))(2 (2 (James))(2 (Bond))))(2 (,)))(2 (wrestling)))(2 (,)))(2 (sci-fi)))(2 (and)))(2 (anime))))(2 (2 (into))(2 (2 (one))(1 (2 (big))(2 (1 (bloody))(2 (stew)))))))))(2 (.)))) |ET| 
-0.0010915854418376107204391445293368  |BT| (ROOT (1 (2 (2 (A))(2 (2 (small))(2 (fortune))))(2 (2 (in))(2 (2 (salaries))(2 (2 (and))(2 (2 (stunt))(2 (cars)))))))(0 (1 (2 (might))(1 (2 (have))(1 (2 (been))(1 (2 (saved))(1 (2 (if))(3 (2 (2 (2 (2 (2 (the))(2 (director)))(2 (,)))(2 (2 (Tom))(2 (Dey))))(2 (,)))(2 (2 (had))(1 (2 (2 (spliced))(2 (together)))(2 (2 (2 (2 (2 (bits))(2 (and)))(2 (pieces)))(2 (2 (of))(2 (2 (2 (2 (Midnight))(2 (Run)))(2 (and)))(2 (2 (48))(2 (Hours))))))(2 (1 (-LRB-))(2 (2 (and))(3 (2 (,))(3 (2 (2 (for))(2 (2 (that))(2 (matter))))(3 (2 (,))(2 (3 (Shrek))(3 (-RRB-)))))))))))))))))(2 (.)))) |ET| 
0.010509175240264383849320140029704  |BT| (ROOT (2 (Not))(3 (3 (2 (to))(2 (2 (mention))(3 (3 (absolutely))(3 (refreshed)))))(2 (.)))) |ET| 
0.010509175240264383849320140029704  |BT| (ROOT (4 (3 (2 (2 (A))(3 (3 (modestly))(2 (made))))(2 (but)))(4 (3 (profoundly))(3 (3 (moving))(2 (documentary)))))(2 (.))) |ET| 
0.010509175240264383849320140029704  |BT| (ROOT (2 (It))(4 (3 (3 (2 (2 (is))(3 (definitely)))(2 (worth)))(2 (seeing)))(2 (.)))) |ET| 
0.010509175240264383849320140029704  |BT| (ROOT (2 (A))(3 (4 (3 (comedy))(4 (2 (that))(3 (2 (is))(4 (4 (3 (3 (3 (3 (warm))(2 (,)))(3 (inviting)))(2 (,)))(2 (and)))(2 (surprising))))))(2 (.)))) |ET| 
-0.010509175240264383849320140029704  |BT| (ROOT (2 (...))(3 (2 (there))(4 (4 (2 ('s))(3 (3 (4 (3 (2 (enough))(3 (cool)))(4 (fun)))(2 (here)))(4 (2 (to))(3 (3 (warm))(3 (2 (2 (the))(3 (hearts)))(3 (2 (of))(3 (3 (2 (animation))(2 (enthusiasts)))(3 (2 (of))(2 (2 (all))(2 (ages)))))))))))(2 (.))))) |ET| 
-0.0010982724424459825926514433547254  |BT| (ROOT (3 (3 (2 (A))(4 (3 (compelling))(3 (2 (coming-of-age))(1 (drama)))))(2 (2 (about))(2 (3 (2 (2 (2 (the))(1 (1 (arduous))(2 (journey))))(2 (2 (of))(2 (2 (2 (a))(2 (2 (sensitive))(2 (2 (young))(2 (girl)))))(2 (2 (through))(2 (2 (2 (a))(2 (series)))(2 (2 (of))(2 (2 (foster))(2 (homes)))))))))(2 (and)))(2 (2 (a))(2 (3 (fierce))(2 (1 (struggle))(2 (2 (to))(2 (2 (2 (pull))(3 (free)))(2 (2 (from))(2 (2 (her))(2 (1 (2 (2 (dangerous))(2 (and)))(2 (domineering)))(2 (mother)))))))))))))(2 (2 (2 ('s))(2 (2 (2 (hold))(2 (over)))(2 (her))))(2 (.)))) |ET| 
-0.010509175240264383849320140029704  |BT| (ROOT (3 (2 (Can))(3 (2 (be))(3 (2 (viewed))(3 (2 (as))(2 (3 (3 (3 (4 (pure))(2 (composition)))(2 (and)))(2 (form)))(2 (--)))))))(2 (2 (film))(2 (2 (as))(2 (music))))) |ET| 
0.010509175240264383849320140029704  |BT| (ROOT (2 (``))(3 (2 (2 (Red))(3 (Dragon)))(3 (2 (''))(3 (3 (2 (is))(4 (entertaining)))(2 (.)))))) |ET| 
-0.010509175240264383849320140029704  |BT| (ROOT (2 (2 (If))(3 (2 (you))(4 (4 (love))(2 (him)))))(4 (2 (,))(3 (2 (you))(2 (3 (2 ('ll))(3 (2 (like))(2 (it))))(2 (.)))))) |ET| 
-0.010509175240264383849320140029704  |BT| (ROOT (4 (2 (Something))(3 (2 (for))(2 (everyone))))(2 (.))) |ET| 
-0.010509175240264383849320140029704  |BT| (ROOT (4 (2 (An))(3 (3 (3 (4 (elegant))(2 (and)))(2 (sly)))(2 (deadpan))))(2 (3 (comedy))(2 (.)))) |ET| 
0.010509175240264383849320140029704  |BT| (ROOT (2 (2 (2 (The))(2 (2 (2 (byplay))(2 (and)))(2 (bickering))))(2 (2 (between))(2 (2 (2 (2 (2 (the))(2 (2 (now))(3 (2 (spy-savvy))(2 (siblings)))))(2 (,)))(2 (3 (2 (2 (Carmen))(2 (1 (-LRB-))(2 (2 (Vega))(3 (-RRB-)))))(2 (and)))(2 (2 (Juni))(2 (2 (1 (-LRB-))(2 (2 (Sabara))(3 (-RRB-))))(2 (Cortez))))))(2 (,)))))(3 (3 (2 (anchor))(3 (2 (2 (the))(2 (film)))(3 (2 (in))(4 (2 (a))(3 (4 (2 (very))(3 (3 (3 (real))(2 (and)))(4 (amusing))))(2 (give-and-take)))))))(2 (.)))) |ET| 
