SVM-light Version V5.01-TK-1.5
5 # kernel type
3 # kernel parameter -d 
1 # kernel parameter -g 
1 # kernel parameter -s 
1 # kernel parameter -r 
empty# kernel parameter -u 
0.35 # kernel parameter -L 
1 # kernel parameter -T 
T # kernel parameter -C 
0 # kernel parameter -F 
1 # kernel parameter -S 
0.400000 # kernel parameter -M 
0 # kernel parameter -N 
S # kernel parameter -V 
A # kernel parameter -W 
0 # kernel parameter -U 
10 # highest feature index 
8544 # number of training documents 
5403 # number of support vectors plus 1 
0.97154935 # threshold b, each following line is a SV (starting with alpha*y)
-0.01756053052933040370398032337107  |BT| (ROOT (2 (2 (The))(2 (Rock)))(4 (3 (2 (is))(4 (2 (destined))(2 (2 (2 (2 (2 (to))(2 (2 (be))(2 (2 (the))(2 (2 (21st))(2 (2 (2 (Century))(2 ('s)))(2 (3 (new))(2 (2 (``))(2 (Conan)))))))))(2 ('')))(2 (and)))(3 (2 (that))(3 (2 (he))(3 (2 ('s))(3 (2 (going))(3 (2 (to))(4 (3 (2 (make))(3 (3 (2 (a))(3 (splash)))(2 (2 (even))(3 (greater)))))(2 (2 (than))(2 (2 (2 (2 (1 (2 (Arnold))(2 (Schwarzenegger)))(2 (,)))(2 (2 (Jean-Claud))(2 (2 (Van))(2 (Damme)))))(2 (or)))(2 (2 (Steven))(2 (Segal))))))))))))))(2 (.)))) |ET| 
-0.033570192653919195269196507069864  |BT| (ROOT (2 (2 (If))(2 (2 (you))(2 (2 ('re))(2 (2 (looking))(2 (2 (to))(3 (2 (rekindle))(2 (2 (2 (the))(2 (magic)))(2 (2 (of))(2 (2 (the))(2 (2 (first))(2 (film))))))))))))(2 (2 (,))(0 (2 (you))(2 (1 (2 ('ll))(1 (2 (2 (need))(2 (2 (a))(2 (3 (stronger))(2 (stomach)))))(2 (2 (than))(3 (us)))))(2 (.)))))) |ET| 
-0.071474296286011387846492937114817  |BT| (ROOT (3 (2 (2 (2 (2 (2 (Singer\/composer))(2 (2 (Bryan))(2 (Adams))))(2 (2 (contributes))(2 (2 (2 (a))(2 (slew)))(2 (2 (of))(2 (songs))))))(2 (2 (--))(2 (2 (2 (2 (a))(2 (2 (few))(3 (potential))))(2 (2 (2 (hits))(2 (,)))(2 (2 (2 (a))(2 (few)))(1 (1 (2 (more))(1 (2 (simply))(2 (intrusive))))(2 (2 (to))(2 (2 (the))(2 (story))))))))(2 (--)))))(2 (but)))(3 (4 (2 (the))(3 (2 (whole))(2 (package))))(2 (3 (certainly))(3 (2 (captures))(2 (1 (2 (the))(2 (2 (2 (intended))(2 (2 (,))(2 (2 (er))(2 (,)))))(3 (spirit))))(2 (2 (of))(2 (2 (the))(2 (piece)))))))))(2 (.))) |ET| 
-0.13435614093810108182758256134548  |BT| (ROOT (2 (Yet))(3 (2 (2 (the))(2 (act)))(3 (4 (3 (2 (is))(3 (2 (still))(4 (charming))))(2 (here)))(2 (.))))) |ET| 
-0.014500254428958140456851211297362  |BT| (ROOT (4 (2 (2 (3 (3 (Good))(2 (actors)))(3 (2 (have))(2 (2 (2 (a))(2 (radar)))(3 (2 (for))(2 (3 (juicy))(2 (roles)))))))(2 (--)))(3 (2 (3 (3 (2 (2 (there))(2 (2 ('s))(2 (2 (2 (a))(2 (plethora)))(3 (2 (of))(2 (2 (characters))(2 (2 (in))(2 (2 (this))(2 (picture)))))))))(2 (,)))(2 (and)))(1 (not)))(2 (1 (2 (one))(2 (2 (of))(2 (them))))(1 (2 (is))(1 (flat))))))(2 (.))) |ET| 
0.13435614093810108182758256134548  |BT| (ROOT (2 (2 (You))(2 (2 ('d))(2 (2 (think))(2 (2 (by))(2 (now))))))(2 (2 (America))(2 (2 (2 (would))(1 (2 (have))(2 (2 (2 (had))(1 (2 (enough))(2 (2 (of))(2 (2 (plucky))(2 (2 (British))(1 (eccentrics)))))))(4 (2 (with))(4 (3 (hearts))(3 (2 (of))(3 (gold))))))))(2 (.))))) |ET| 
0.13435614093810108182758256134548  |BT| (ROOT (2 (You))(2 (1 (2 (Should))(2 (2 (1 (2 (Pay))(2 (2 (2 (Nine))(2 (Bucks)))(2 (2 (for))(2 (This)))))(2 (:)))(1 (2 (Because))(2 (2 (you))(2 (2 (can))(2 (2 (2 (2 (2 (hear))(2 (2 (about))(1 (1 (1 (suffering))(2 (2 (Afghan))(2 (refugees))))(2 (2 (on))(2 (2 (the))(2 (news)))))))(2 (and)))(2 (still)))(1 (2 (be))(2 (unaffected)))))))))(2 (.)))) |ET| 
0.13435614093810108182758256134548  |BT| (ROOT (2 (3 (2 (3 (3 (2 (A))(3 (3 (thunderous))(2 (ride))))(3 (2 (at))(3 (3 (2 (first))(2 (2 (,))(2 (2 (quiet))(2 (cadences)))))(3 (2 (of))(4 (4 (pure))(3 (finesse)))))))(2 (2 (2 (are))(2 (few)))(2 (2 (and))(2 (2 (far))(2 (between))))))(2 (;)))(1 (2 (2 (their))(1 (shortage)))(3 (2 (dilutes))(2 (2 (2 (the))(2 (potency)))(2 (2 (of))(3 (3 (2 (otherwise))(3 (respectable)))(2 (action))))))))(2 (.))) |ET| 
0.13435614093810108182758256134548  |BT| (ROOT (2 (2 (2 (2 (Post))(2 (9\/11)))(2 (2 (the))(2 (3 (philosophical))(2 (message)))))(2 (2 (2 (2 (of))(2 (``)))(2 (2 (Personal))(2 (4 (Freedom))(3 (First)))))(2 (''))))(1 (1 (2 (2 (might))(1 (not)))(2 (2 (be))(2 (2 (as))(2 (2 (palatable))(2 (2 (as))(2 (intended)))))))(2 (.)))) |ET| 
0.13435614093810108182758256134548  |BT| (ROOT (2 (2 (near))(2 (2 (the))(2 (end))))(3 (3 (2 (takes))(2 (2 (on))(2 (2 (a))(2 (2 (whole))(2 (2 (other))(2 (meaning)))))))(2 (.)))) |ET| 
-0.032298166555805495059328080742489  |BT| (ROOT (2 (2 (Every))(2 (2 (2 (now))(2 (and)))(2 (again))))(0 (2 (,))(0 (2 (2 (a))(2 (movie)))(0 (0 (2 (3 (comes))(2 (along)))(0 (2 (to))(0 (3 (2 (remind))(3 (us)))(0 (2 (of))(0 (0 (2 (how))(2 (2 (very))(0 (bad))))(2 (2 (2 (a))(2 (2 (motion))(2 (picture))))(3 (2 (2 (can))(3 (truly)))(2 (be)))))))))(2 (.)))))) |ET| 
-0.0036502246396307208749221207000346  |BT| (ROOT (2 (There))(1 (2 (2 (2 ('s))(2 (1 (nothing))(1 (2 (remotely))(2 (2 (2 (topical))(2 (or)))(4 (sexy))))))(2 (here)))(2 (.)))) |ET| 
-0.0055626887758364910660513480422651  |BT| (ROOT (2 (2 (The))(2 (movie)))(2 (1 (1 (2 (is))(2 (2 (too))(3 (4 (impressed))(3 (2 (with))(2 (2 (its))(3 (2 (own))(3 (2 (solemn))(2 (insights)))))))))(2 (2 (to))(3 (3 (2 (work))(2 (up)))(3 (2 (much))(2 (3 (entertainment))(2 (value)))))))(2 (.)))) |ET| 
0.13435614093810108182758256134548  |BT| (ROOT (1 (2 (1 (1 (1 (Disappointingly))(1 (2 (,))(1 (2 (2 (the))(2 (characters)))(1 (2 (1 (2 (are))(1 (2 (too))(2 (2 (1 (strange))(2 (and)))(1 (dysfunctional)))))(2 (2 (,))(2 (2 (2 (Tom))(2 (included)))(2 (,)))))(1 (2 (to))(2 (2 (ever))(3 (2 (get))(1 (2 (under))(2 (2 (the))(2 (skin)))))))))))(2 (,)))(2 (but)))(3 (2 (this))(3 (2 (is))(3 (2 (2 (compensated))(2 (2 (in))(2 (2 (large))(2 (part)))))(4 (2 (by))(3 (3 (3 (2 (2 (2 (the))(2 (2 (off-the-wall))(2 (dialogue))))(2 (,)))(3 (2 (visual))(2 (playfulness))))(2 (and)))(3 (2 (2 (the))(2 (outlandishness)))(2 (2 (of))(2 (2 (2 (the))(2 (idea)))(2 (itself)))))))))))(2 (.))) |ET| 
0.13435614093810108182758256134548  |BT| (ROOT (1 (1 (0 (2 (LaBute))(2 (2 (2 (ca))(2 (n't)))(2 (2 (0 (avoid))(1 (2 (a))(1 (2 (fatal))(2 (mistake)))))(2 (2 (in))(2 (2 (the))(2 (2 (modern))(2 (era))))))))(2 (:)))(1 (2 (He))(1 (2 ('s))(1 (2 (2 (2 (changed))(2 (2 (the))(2 (2 (male))(3 (academic)))))(2 (2 (from))(2 (2 (a))(2 (2 (lower-class))(2 (Brit))))))(2 (2 (to))(1 (3 (3 (2 (an))(2 (American)))(2 (,)))(1 (2 (2 (a))(2 (choice)))(1 (2 (that))(2 (1 (2 (1 (upsets))(2 (2 (2 (the))(2 (3 (novel))(2 ('s))))(3 (4 (exquisite))(2 (balance)))))(2 (and)))(1 (2 (shreds))(3 (2 (2 (the))(2 (fabric)))(2 (2 (of))(2 (2 (the))(2 (film)))))))))))))))(2 (.))) |ET| 
0.13435614093810108182758256134548  |BT| (ROOT (2 (You))(2 (1 (2 (2 (come))(2 (away)))(1 (3 (2 (2 (2 (wishing))(2 (,)))(2 (though)))(2 (,)))(1 (2 (that))(1 (2 (2 (the))(2 (movie)))(2 (2 (spent))(2 (2 (2 (a))(3 (2 (2 (lot))(2 (less)))(2 (time))))(2 (2 (trying))(2 (2 (to))(3 (2 (2 (make))(3 (3 (2 (a))(3 (3 (credible))(2 (case))))(2 (2 (for))(2 (reports)))))(2 (2 (from))(2 (2 (2 (the))(2 (2 (1 (3 (afterlife))(2 (and)))(3 (2 (2 (a))(2 (lot)))(2 (more))))(2 (time))))(2 (2 (on))(2 (2 (2 (the))(3 (2 (romantic))(2 (urgency))))(2 (2 (that))(2 (2 ('s))(2 (2 (at))(2 (2 (2 (the))(2 (center)))(2 (2 (of))(2 (2 (the))(2 (story)))))))))))))))))))))(2 (.)))) |ET| 
0.13435614093810108182758256134548  |BT| (ROOT (1 (2 (If))(1 (2 (you))(3 (2 (can))(1 (2 (2 (tolerate))(2 (2 (the))(2 (2 (redneck-versus-blueblood))(2 (cliches)))))(2 (2 (that))(2 (2 (2 (the))(2 (film)))(2 (2 (trades))(2 (in)))))))))(2 (2 (,))(2 (2 (3 (Sweet))(4 (3 (Home))(2 (Alabama))))(2 (2 (2 (is))(2 (2 (diverting))(2 (2 (in))(2 (2 (2 (the))(2 (manner)))(2 (2 (of))(2 (2 (2 (Jeff))(2 (2 (Foxworthy))(2 ('s))))(2 (2 (stand-up))(2 (act)))))))))(2 (.)))))) |ET| 
0.13435614093810108182758256134548  |BT| (ROOT (2 (Touché))(2 (!))) |ET| 
-0.10132102287695744780027240494746  |BT| (ROOT (4 (4 (3 (2 (a))(4 (4 (delightful))(2 (2 (romantic))(3 (comedy)))))(2 (2 (with))(2 (plenty))))(2 (2 (of))(1 (bite))))(2 (.))) |ET| 
0.13435614093810108182758256134548  |BT| (ROOT (2 (2 (The))(2 (movie)))(3 (2 (2 (2 (is))(2 (2 (our))(2 (story))))(2 (2 (2 (as))(2 (much)))(3 (2 (as))(3 (2 (it))(2 (2 (is))(2 (2 (2 (2 (Schmidt))(2 ('s)))(2 (,)))(2 (2 (1 (no))(2 (matter)))(2 (2 (if))(2 (2 (it))(3 (2 ('s))(3 (2 (viewed))(2 (2 (as))(2 (2 (a))(2 (2 (self-reflection))(2 (2 (or))(2 (2 (cautionary))(2 (tale))))))))))))))))))(2 (.)))) |ET| 
0.13435614093810108182758256134548  |BT| (ROOT (1 (0 (3 (4 (2 (2 (2 (The))(2 (Master)))(2 (2 (of))(2 (Disguise))))(3 (2 (is))(3 (funny))))(2 (--)))(1 (not)))(2 (2 (2 (``))(2 (3 (ha))(2 (3 (ha))(2 ('')))))(3 (3 (funny))(1 (2 (,))(2 (2 (``))(2 (1 (dead))(2 (2 (circus))(3 (2 (performer))(4 (2 (''))(3 (funny)))))))))))(2 (.))) |ET| 
0.13435614093810108182758256134548  |BT| (ROOT (2 (2 (Despite))(2 (2 (its))(2 (2 (raucous))(2 (intent)))))(3 (2 (,))(2 (1 (XXX))(2 (2 (2 (2 (is))(2 (2 (1 (2 (as))(1 (2 (conventional))(2 (2 (as))(2 (2 (a))(2 (2 (Nike))(2 (ad)))))))(2 (and)))(1 (2 (as))(1 (rebellious)))))(2 (2 (as))(2 (2 (spring))(2 (break)))))(2 (.)))))) |ET| 
-0.0016574201783716743623109390881609  |BT| (ROOT (1 (1 (2 (2 (2 (Human))(2 (Nature)))(1 (2 (,))(1 (1 (2 (in))(2 (short)))(0 (2 (,))(1 (1 (1 (2 (is))(2 (n't)))(2 (2 (nearly))(3 (2 (as))(3 (funny)))))(2 (2 (as))(2 (2 (it))(2 (2 (thinks))(3 (2 (it))(2 (is)))))))))))(2 (;)))(1 (2 (neither))(3 (2 (2 (is))(2 (it)))(2 (2 (as))(4 (smart))))))(2 (.))) |ET| 
-0.070408349485683391355550497792137  |BT| (ROOT (0 (1 (2 (1 (2 (Less))(3 (funny)))(2 (2 (than))(2 (2 (it))(2 (2 (should))(2 (be))))))(2 (and)))(1 (1 (2 (less))(3 (funny)))(2 (2 (than))(2 (2 (it))(2 (2 (thinks))(3 (2 (it))(2 (is))))))))(2 (.))) |ET| 
-0.041949893576177794962678291312841  |BT| (ROOT (2 (You))(1 (0 (2 (2 (ca))(2 (n't)))(0 (2 (believe))(2 (2 (anyone))(2 (2 (2 (would))(2 (really)))(3 (2 (buy))(2 (2 (this))(2 (stuff))))))))(2 (.)))) |ET| 
0.13435614093810108182758256134548  |BT| (ROOT (1 (1 (2 (To))(2 (2 (2 (2 (2 (show))(2 (2 (these))(2 (characters))))(2 (2 (in))(2 (2 (the))(2 (act)))))(2 (and)))(2 (2 (3 (give))(2 (them)))(2 (1 (1 (no))(2 (feelings)))(2 (2 (of))(2 (remorse)))))))(2 (2 (2 (2 (--))(2 (and)))(1 (2 (to))(2 (2 (2 (cut))(2 (repeatedly)))(2 (2 (to))(1 (2 (2 (the))(2 (flashback)))(2 (2 (of))(2 (2 (the))(1 (3 (original))(2 (rape))))))))))(2 (--))))(0 (0 (2 (is))(0 (2 (overkill))(3 (2 (to))(3 (2 (the))(2 (2 (highest))(2 (degree)))))))(2 (.)))) |ET| 
0.13435614093810108182758256134548  |BT| (ROOT (1 (2 (2 (3 (2 (2 (A))(2 (2 (few))(3 (3 (energetic))(2 (2 (stunt))(2 (sequences))))))(3 (3 (briefly))(2 (2 (enliven))(2 (2 (the))(2 (film))))))(2 (,)))(2 (but)))(1 (0 (2 (1 (1 (2 (the))(1 (1 (wheezing))(2 (1 (terrorist))(2 (subplot)))))(1 (2 (2 (has))(2 (n't)))(2 (3 (2 (the))(2 (stamina)))(2 (2 (for))(2 (2 (the))(2 (2 (100-minute))(2 (2 (running))(2 (time)))))))))(2 (,)))(2 (and)))(1 (1 (2 (2 (the))(2 (3 (protagonists))(2 ('))))(1 (2 (bohemian))(1 (boorishness))))(2 (2 (mars))(3 (3 (2 (the))(3 (spirit)))(3 (2 (of))(4 (3 (good))(3 (3 (clean))(4 (fun))))))))))(2 (.))) |ET| 
0.13435614093810108182758256134548  |BT| (ROOT (2 (2 (The))(2 (movie)))(2 (2 (1 (strains))(2 (2 (to))(3 (2 (2 (2 (stay))(2 (2 (on))(3 (3 (2 (the))(2 (2 (light))(2 (2 (,))(2 (2 (comic))(2 (side))))))(2 (2 (of))(2 (2 (the))(2 (issue)))))))(2 (,)))(2 (2 (despite))(2 (2 (2 (the))(1 (difficulty)))(2 (2 (of))(2 (2 (doing))(2 (2 (so))(2 (2 (when))(3 (2 (2 (dealing))(3 (2 (2 (with))(1 (2 (2 (the))(1 (destruction)))(2 (2 (of))(2 (property)))))(3 (2 (and))(2 (2 (2 (,))(2 (2 (potentially))(2 (,))))(2 (2 (of))(3 (life)))))))(2 (itself))))))))))))(2 (.)))) |ET| 
0.13435614093810108182758256134548  |BT| (ROOT (2 (Almost))(2 (.))) |ET| 
0.13435614093810108182758256134548  |BT| (ROOT (2 (2 (The))(2 (film)))(1 (2 (virtually))(1 (1 (1 (chokes))(2 (2 (on))(2 (2 (its))(2 (2 (own))(2 (self-consciousness))))))(2 (.))))) |ET| 
-0.021183767267682077073409629974776  |BT| (ROOT (2 (2 (Although))(2 (2 (2 (the))(2 (sequel)))(3 (2 (has))(3 (2 (2 (all))(2 (2 (the))(2 (2 (outward))(2 (elements)))))(2 (2 (of))(3 (2 (the))(3 (original))))))))(1 (2 (,))(2 (2 (2 (2 (the))(2 (2 (first))(2 (2 (film))(2 ('s)))))(3 (3 (lovely))(1 (flakiness))))(0 (1 (2 (is))(0 (2 (2 (gone))(2 (,)))(0 (2 (replaced))(1 (2 (by))(1 (2 (2 (the))(1 (1 (forced))(3 (funniness))))(2 (2 (found))(1 (2 (in))(0 (2 (the))(0 (1 (dullest))(2 (2 (kiddie))(2 (flicks))))))))))))(2 (.)))))) |ET| 
0.13435614093810108182758256134548  |BT| (ROOT (2 (It))(1 (2 (2 ('s))(1 (2 (2 (almost))(2 (as)))(1 (2 (if))(2 (2 (it))(2 (2 ('s))(2 (2 (2 (2 (an))(2 (2 (elaborate))(2 (dare))))(2 (more)))(2 (2 (than))(3 (2 (a))(2 (3 (full-blooded))(2 (film)))))))))))(2 (.)))) |ET| 
0.13435614093810108182758256134548  |BT| (ROOT (3 (2 (2 (2 (But))(2 (2 (this))(2 (1 (2 (is))(1 (not)))(2 (2 (2 (a))(2 (movie)))(2 (2 (about))(1 (2 (an))(1 (1 (inhuman))(2 (monster)))))))))(2 (;)))(3 (2 (it))(3 (2 ('s))(2 (2 (about))(2 (2 (a))(2 (2 (2 (very))(2 (human)))(2 (one))))))))(2 (.))) |ET| 
0.13435614093810108182758256134548  |BT| (ROOT (3 (3 (2 (A))(3 (2 (1 (0 (frustrating))(2 (yet)))(4 (2 (deeply))(3 (watchable))))(2 (melodrama))))(2 (2 (that))(2 (2 (makes))(2 (you)))))(1 (1 (2 (think))(2 (2 (it))(2 (2 (2 ('s))(3 (2 (a))(2 (2 (tougher))(2 (picture)))))(2 (2 (than))(3 (2 (it))(2 (is)))))))(2 (.)))) |ET| 
-0.042110696410170934955718990977402  |BT| (ROOT (2 (What))(0 (2 (an))(0 (2 (embarrassment))(2 (.))))) |ET| 
-0.11758353230889229124045414209832  |BT| (ROOT (1 (2 (1 (2 (It))(1 (2 ('s))(1 (2 (supposed))(2 (2 (to))(2 (2 (be))(3 (2 (a))(2 (2 (romantic))(3 (comedy)))))))))(2 (-)))(1 (2 (it))(1 (2 (suffers))(1 (2 (from))(1 (2 (1 (1 (2 (too))(2 (much)))(2 (2 (Norma))(3 (Rae))))(2 (and)))(2 (1 (not))(2 (2 (enough))(2 (3 (Pretty))(2 (Woman))))))))))(2 (.))) |ET| 
-0.068061297855111363430680171404674  |BT| (ROOT (0 (1 (0 (2 (3 (Like))(2 (2 (a))(2 (2 (soft))(2 (drink)))))(2 (2 (that))(2 (2 ('s))(2 (2 (been))(1 (2 (2 (sitting))(3 (open)))(1 (2 (too))(2 (long))))))))(2 (:)))(1 (2 (it))(1 (2 ('s))(2 (2 (1 (2 (too))(2 (2 (much))(2 (syrup))))(2 (and)))(1 (1 (not))(2 (2 (enough))(2 (fizz))))))))(2 (.))) |ET| 
0.13435614093810108182758256134548  |BT| (ROOT (2 (2 (After))(2 (2 (all))(2 (2 (the))(2 (2 (big))(2 (build-up))))))(1 (2 (,))(0 (3 (2 (3 (2 (3 (3 (2 (the))(2 (payoff)))(2 (2 (for))(2 (2 (the))(2 (audience)))))(2 (,)))(2 (2 (as))(2 (3 (well))(2 (as)))))(2 (2 (the))(2 (characters))))(2 (,)))(0 (0 (2 (is))(0 (0 (0 (1 (1 (messy))(2 (,)))(1 (murky)))(2 (,)))(0 (unsatisfying))))(2 (.)))))) |ET| 
0.13435614093810108182758256134548  |BT| (ROOT (1 (2 (4 (4 (2 (2 (The))(2 (filmmaker)))(3 (2 (2 (2 (2 (ascends))(2 (,)))(3 (literally)))(2 (,)))(2 (2 (to))(3 (2 (2 (the))(2 (Olympus)))(2 (2 (of))(2 (2 (the))(2 (2 (art))(2 (world)))))))))(2 (,)))(2 (but)))(1 (2 (he))(0 (2 (would))(2 (2 (have))(0 (3 (2 (done))(3 (well)))(2 (2 (to))(1 (3 (1 (2 (end))(2 (2 (this))(2 (2 (1 (flawed))(3 (2 (,))(4 (dazzling))))(2 (series)))))(2 (2 (with))(2 (2 (2 (the))(2 (raising)))(2 (2 (of))(2 (2 (something))(2 (other)))))))(2 (2 (than))(2 (2 (his))(3 (2 (own))(2 (cremaster))))))))))))(2 (.))) |ET| 
0.13435614093810108182758256134548  |BT| (ROOT (2 (3 (Like))(2 (2 (the))(2 (series))))(4 (2 (,))(4 (2 (2 (the))(2 (movie)))(4 (3 (4 (4 (4 (2 (is))(3 (4 (4 (3 (3 (4 (3 (3 (funny))(2 (,)))(4 (smart)))(2 (,)))(3 (3 (visually))(3 (inventive))))(2 (,)))(2 (and)))(2 (most))))(2 (2 (of))(2 (all))))(2 (,)))(3 (alive)))(2 (.)))))) |ET| 
0.13435614093810108182758256134548  |BT| (ROOT (4 (3 (Hilarious))(2 (2 (musical))(3 (comedy))))(2 (2 (though))(1 (1 (2 (stymied))(1 (2 (by))(1 (2 (accents))(1 (2 (thick))(2 (2 (as))(2 (mud)))))))(2 (.))))) |ET| 
0.13435614093810108182758256134548  |BT| (ROOT (2 (2 (While))(2 (1 (not))(3 (2 (quite))(2 (2 (a))(3 (comedy))))))(4 (2 (,))(3 (2 (2 (the))(2 (film)))(3 (4 (4 (3 (3 (2 (2 (tackles))(2 (2 (its))(2 (2 (2 (relatively))(2 (serious)))(2 (subject)))))(3 (2 (with))(4 (2 (3 (2 (an))(2 (3 (open))(2 (mind))))(2 (and)))(4 (3 (considerable))(3 (3 (good))(2 (cheer)))))))(2 (,)))(2 (and)))(3 (2 (2 (2 (is))(2 (never)))(1 (2 (less))(2 (than))))(4 (engaging))))(2 (.)))))) |ET| 
0.13435614093810108182758256134548  |BT| (ROOT (2 (2 (1 (cynical))(2 (and)))(2 (serious)))(3 (2 (2 (2 (look))(2 (2 (at))(2 (2 (teenage))(2 (boys)))))(2 (2 (doing))(2 (2 (what))(3 (2 (they))(2 (3 (2 (2 (do))(4 (best)))(2 (-)))(2 (2 (being))(2 (teenagers))))))))(2 (.)))) |ET| 
0.13435614093810108182758256134548  |BT| (ROOT (1 (1 (0 (2 (2 (2 (2 (Gambling))(2 (and)))(2 (throwing)))(3 (3 (2 (a))(2 (2 (basketball))(2 (game))))(2 (2 (for))(2 (money)))))(1 (1 (2 (is))(2 (n't)))(2 (2 (a))(2 (3 (new))(2 (plot))))))(2 (--)))(2 (2 (2 (in))(2 (2 (fact))(2 (Toback))))(2 (2 (himself))(2 (2 (2 (used))(2 (it)))(2 (2 (in))(2 (2 (2 (Black))(2 (and)))(2 (White))))))))(2 (.))) |ET| 
0.13435614093810108182758256134548  |BT| (ROOT (2 (2 (The))(2 (2 (first))(2 (half))))(3 (3 (3 (2 (bursts))(3 (2 (with))(3 (2 (a))(2 (2 (goofy))(3 (energy))))))(2 (3 (2 (previous))(3 (3 (Disney))(2 (films))))(2 (2 (only))(2 (2 (used))(2 (2 (for))(2 (2 (2 (a))(2 (2 (few))(2 (minutes))))(2 (2 (2 (here))(2 (and)))(2 (there)))))))))(2 (.)))) |ET| 
0.13435614093810108182758256134548  |BT| (ROOT (3 (3 (2 (2 (2 (1 (Die))(2 (2 (Another))(2 (Day))))(3 (1 (2 (2 (is))(2 (only)))(2 (2 (intermittently))(4 (entertaining))))(2 (2 (but))(3 (2 (it))(3 (2 (2 ('s))(2 (hard)))(1 (1 (not))(2 (2 (to))(2 (2 (be))(2 (1 (2 (a))(0 (sucker)))(2 (2 (for))(3 (2 (its))(3 (charms)))))))))))))(2 (,)))(2 (or)))(2 (2 (perhaps))(2 (2 (it))(3 (2 (2 ('s))(1 (2 (just))(0 (impossible))))(2 (1 (not))(2 (2 (to))(3 (2 (2 (feel))(2 (nostalgia)))(2 (2 (for))(2 (2 (movies))(2 (2 (you))(2 (2 (2 (grew))(2 (up)))(2 (with)))))))))))))(2 (.))) |ET| 
-0.0069351345473871398722431891314955  |BT| (ROOT (2 (It))(4 (3 (2 (2 (treats))(2 (2 (2 (Ana))(2 ('s)))(2 (journey))))(3 (2 (with))(4 (3 (honesty))(2 (2 (that))(1 (1 (2 (is))(1 (tragically)))(3 (3 (rare))(2 (2 (in))(2 (2 (2 (the))(2 (depiction)))(2 (2 (of))(2 (2 (2 (young))(2 (women)))(2 (2 (in))(2 (film)))))))))))))(2 (.)))) |ET| 
-0.047746295278859811339611241010061  |BT| (ROOT (1 (2 (2 (A))(1 (2 (2 (2 (handsome))(2 (but)))(0 (unfulfilling)))(2 (2 (suspense))(1 (drama)))))(2 (more)))(1 (1 (2 (1 (3 (suited))(2 (2 (to))(2 (2 (2 (a))(2 (2 (quiet))(2 (evening))))(2 (2 (on))(2 (PBS))))))(2 (2 (than))(2 (2 (a))(3 (2 (night))(1 (out))))))(2 (2 (at))(2 (2 (an))(2 (AMC)))))(2 (.)))) |ET| 
-0.13435614093810108182758256134548  |BT| (ROOT (2 (A))(3 (3 (3 (3 (treat))(2 (2 (for))(2 (2 (its))(2 (depiction)))))(2 (2 (on))(2 (1 (not))(2 (1 (2 (giving))(2 (up)))(2 (2 (on))(2 (2 (dreams))(1 (2 (when))(1 (2 (you))(2 (2 ('re))(1 (2 (a))(1 (1 (struggling))(2 (nobody)))))))))))))(2 (.)))) |ET| 
0.13435614093810108182758256134548  |BT| (ROOT (2 (2 (2 (2 (A))(2 (2 (very))(2 (2 (familiar))(2 (tale)))))(2 (,)))(2 (2 (2 (1 (2 (3 (2 (2 (one))(2 (2 (that))(2 (2 ('s))(2 (2 (been))(1 (2 (told))(2 (2 (by))(2 (2 (countless))(2 (filmmakers)))))))))(2 (2 (2 (2 (2 (2 (about))(2 (Italian)))(2 (2 (-))(2 (2 (2 (2 (,))(2 (Chinese)))(3 (2 (-))(2 (2 (,))(2 (Irish)))))(2 (-)))))(2 (,)))(2 (Latin)))(2 (-))))(2 (,)))(2 (2 (2 (2 (Indian))(2 (-)))(2 (,)))(2 (Russian))))(2 (-)))(2 (and)))(1 (2 (2 (other))(2 (2 (hyphenate))(2 (2 (American))(2 (2 (young))(2 (men))))))(1 (1 (struggling))(2 (2 (to))(2 (2 (balance))(2 (1 (conflicting))(2 (3 (cultural))(2 (messages))))))))))(2 (.))) |ET| 
0.13435614093810108182758256134548  |BT| (ROOT (2 (2 (3 (2 (2 (Critics))(3 (3 (3 (2 (need))(3 (2 (a))(4 (3 (good))(3 (laugh)))))(2 (,)))(2 (too))))(2 (,)))(2 (and)))(2 (2 (2 (2 (this))(2 (1 (too-extreme-for-TV))(2 (rendition))))(2 (2 (of))(1 (2 (the))(2 (2 (notorious))(2 (2 (MTV))(2 (show)))))))(2 (2 (delivers))(2 (3 (2 (the))(3 (2 (2 (outrageous))(2 (2 (,))(1 (2 (sickening))(3 (2 (,))(3 (sidesplitting))))))(2 (goods))))(2 (2 (in))(1 (2 (steaming))(2 (2 (,))(2 (2 (visceral))(3 (heaps))))))))))(2 (.))) |ET| 
0.13435614093810108182758256134548  |BT| (ROOT (3 (4 (2 (A))(4 (3 (fantastic))(2 (2 (premise))(2 (anchors)))))(1 (2 (2 (this))(2 (movie)))(2 (2 (2 (,))(2 (but)))(2 (2 (what))(1 (2 (it))(2 (needs)))))))(2 (3 (2 (2 (2 (is))(2 (either)))(3 (1 (2 (2 (2 (2 (a))(2 (2 (2 (more))(1 (rigid)))(3 (2 (,))(3 (2 (Blair))(2 (2 (Witch-style))(2 (commitment)))))))(2 (2 (to))(2 (2 (its))(2 (2 (mockumentary))(2 (format))))))(2 (,)))(2 (or)))(3 (3 (2 (2 (a))(3 (3 (2 (more))(3 (straightforward)))(3 (2 (,))(3 (3 (dramatic))(2 (treatment))))))(2 (,)))(1 (2 (with))(2 (2 (all))(2 (2 (the))(3 (grandiosity))))))))(2 (2 (that))(2 (2 (that))(2 (implies)))))(2 (.)))) |ET| 
0.13435614093810108182758256134548  |BT| (ROOT (2 (C'mon))(2 (!))) |ET| 
-0.030040945149871035174671263234814  |BT| (ROOT (1 (1 (2 (An))(1 (0 (unencouraging))(3 (2 (threefold))(2 (expansion)))))(2 (2 (on))(2 (2 (the))(2 (2 (former))(2 (2 (MTV))(2 (series)))))))(1 (2 (,))(1 (1 (1 (2 (accompanying))(1 (2 (the))(1 (2 (stunt-hungry))(0 (dimwits)))))(1 (2 (in))(1 (2 (2 (a))(2 (2 (random))(2 (series))))(2 (2 (of))(2 (2 (collected))(2 (2 (gags))(1 (2 (,))(2 (2 (pranks))(1 (2 (,))(2 (2 (pratfalls))(2 (2 (,))(2 (2 (dares))(2 (2 (,))(2 (2 (2 (injuries))(2 (,)))(2 (etc.))))))))))))))))(2 (.))))) |ET| 
-0.07794673676484120683483070024522  |BT| (ROOT (3 (2 (Director))(2 (3 (Claude))(2 (Chabrol))))(3 (3 (2 (has))(3 (2 (become))(3 (2 (2 (the))(2 (master)))(2 (2 (of))(1 (innuendo))))))(2 (.)))) |ET| 
0.13435614093810108182758256134548  |BT| (ROOT (3 (2 (2 (A))(2 (movie)))(3 (2 (that))(3 (2 (will))(3 (1 (1 (2 (2 (wear))(2 (you)))(1 (out)))(2 (and)))(3 (2 (make))(3 (2 (you))(2 (2 (misty))(2 (2 (even))(2 (2 (when))(2 (2 (you))(2 (2 (do))(2 (n't)))))))))))))(2 (2 (2 (want))(2 (2 (to))(2 (be))))(2 (.)))) |ET| 
0.13435614093810108182758256134548  |BT| (ROOT (1 (2 (Although))(2 (2 (it))(1 (2 (1 (2 (does))(2 (n't)))(2 (always)))(2 (2 (hang))(2 (together))))))(3 (1 (2 (--))(2 (1 (2 (2 (0 (violence))(2 (and)))(3 (whimsy)))(1 (2 (2 (do))(2 (n't)))(2 (2 (combine))(3 (easily)))))(2 (--))))(3 (2 (``))(3 (3 (Cherish))(3 (2 (''))(3 (3 (certainly))(3 (2 (1 (2 (is))(2 (n't)))(0 (dull)))(2 (.))))))))) |ET| 
0.13435614093810108182758256134548  |BT| (ROOT (2 (There))(1 (2 (2 (2 (ai))(2 (n't)))(0 (2 (2 (2 (a))(2 (lot)))(1 (2 (more))(1 (painful))))(1 (2 (than))(1 (0 (2 (an))(1 (1 (unfunny))(2 (movie))))(2 (2 (that))(3 (2 (thinks))(3 (2 (it))(4 (2 ('s))(4 (hilarious))))))))))(2 (.)))) |ET| 
-0.040090517623981303252378438628512  |BT| (ROOT (2 (2 (2 (About))(2 (2 (the))(2 (2 (only))(2 (thing)))))(2 (2 (to))(3 (2 (2 (3 (give))(2 (2 (the))(2 (movie))))(2 (points)))(2 (for)))))(2 (1 (2 (is))(1 (2 (3 (bravado))(2 (--)))(0 (2 (to))(1 (1 (2 (2 (take))(1 (2 (an))(0 (1 (2 (entirely))(2 (stale)))(2 (concept)))))(2 (and)))(1 (2 (2 (2 (push))(2 (it)))(1 (2 (2 (through))(2 (2 (2 (the))(2 (2 (audience))(2 ('s))))(2 (2 (meat))(2 (grinder)))))(2 (2 (one))(2 (more)))))(2 (time)))))))(2 (.)))) |ET| 
-0.072183204473184020555365236759826  |BT| (ROOT (3 (1 (1 (1 (2 (2 (2 (The))(2 (2 (film))(2 ('s))))(2 (plot)))(1 (2 (may))(1 (2 (be))(2 (shallow)))))(2 (,)))(2 (but)))(3 (2 (you))(3 (2 (2 ('ve))(2 (never)))(3 (2 (2 (seen))(2 (2 (the))(2 (deep))))(2 (2 (like))(3 (2 (you))(2 (3 (2 (see))(2 (it)))(2 (2 (in))(2 (2 (these))(2 (2 (harrowing))(2 (2 (surf))(2 (shots)))))))))))))(2 (.))) |ET| 
-0.079002191417442843568430532741331  |BT| (ROOT (3 (1 (1 (1 (1 (1 (2 (2 (The))(2 (film)))(2 (2 (2 (runs))(2 (2 (on))(2 (2 (2 (a))(2 (little)))(2 (longer)))))(2 (2 (than))(2 (2 (it))(2 (2 (needs))(2 (to)))))))(2 (--)))(1 (2 (Muccino))(2 (2 (either))(2 (1 (2 (does))(2 (n't)))(2 (2 (notice))(4 (2 (when))(3 (2 (2 (his))(2 (story)))(3 (2 (2 (ends))(2 (or)))(3 (2 (just))(2 (2 (2 (ca))(2 (n't)))(2 (2 (2 (2 (tear))(2 (himself)))(2 (away)))(3 (2 (from))(2 (2 (the))(2 (characters)))))))))))))))(2 (--)))(2 (but)))(3 (2 (it))(3 (2 ('s))(3 (2 (2 (smooth))(2 (and)))(3 (professional))))))(2 (.))) |ET| 
0.13435614093810108182758256134548  |BT| (ROOT (3 (Authentic))(1 (2 (,))(3 (3 (2 (2 (2 (and))(2 (at)))(2 (times)))(3 (endearing)))(1 (2 (,))(3 (3 (humorous))(1 (2 (,))(2 (2 (spooky))(1 (2 (,))(1 (2 (educational))(1 (2 (2 (,))(2 (but)))(1 (1 (2 (at))(1 (2 (2 (other))(2 (times)))(2 (2 (as))(1 (1 (bland))(1 (2 (as))(2 (2 (2 (a))(2 (block)))(2 (2 (of))(2 (snow)))))))))(2 (.))))))))))))) |ET| 
0.13435614093810108182758256134548  |BT| (ROOT (3 (3 (4 (Humorous))(2 (,)))(3 (3 (4 (3 (artsy))(2 (,)))(2 (and)))(3 (2 (even))(3 (cute)))))(3 (2 (,))(1 (1 (2 (in))(1 (2 (an))(2 (2 (off-kilter))(2 (2 (,))(1 (2 (dark))(2 (2 (,))(2 (2 (vaguely))(1 (1 (disturbing))(2 (way))))))))))(2 (.))))) |ET| 
0.13435614093810108182758256134548  |BT| (ROOT (3 (2 (Viewed))(3 (2 (as))(2 (2 (3 (3 (3 (3 (2 (2 (2 (a))(3 (comedy)))(2 (,)))(2 (2 (a))(3 (romance))))(2 (,)))(3 (2 (a))(2 (2 (fairy))(2 (tale)))))(2 (,)))(2 (or)))(2 (2 (a))(1 (drama))))))(0 (2 (,))(0 (2 (there))(0 (2 (2 (2 ('s))(1 (nothing)))(3 (2 (remotely))(3 (3 (triumphant))(2 (2 (about))(2 (2 (this))(2 (2 (motion))(2 (picture))))))))(2 (.)))))) |ET| 
0.13435614093810108182758256134548  |BT| (ROOT (2 (You))(2 (2 (2 ('ll))(3 (2 (get))(2 (2 (the))(3 (3 (3 (enjoyable))(2 (basic)))(2 (minimum))))))(2 (.)))) |ET| 
-0.0070307474893780913874352656023348  |BT| (ROOT (2 (2 (Blade))(2 (II)))(2 (3 (2 (2 (merges))(2 (2 (2 (bits))(2 (and)))(2 (pieces))))(3 (2 (from))(3 (2 (2 (fighting))(2 (2 (2 (2 (2 (2 (2 (2 (2 (2 (2 (2 (2 (2 (2 (games))(2 (,)))(2 (2 (wire))(1 (fu))))(2 (,)))(2 (1 (horror))(2 (movies))))(2 (,)))(2 (mystery)))(2 (,)))(2 (2 (James))(2 (Bond))))(2 (,)))(2 (wrestling)))(2 (,)))(2 (sci-fi)))(2 (and)))(2 (anime))))(2 (2 (into))(2 (2 (one))(1 (2 (big))(2 (1 (bloody))(2 (stew)))))))))(2 (.)))) |ET| 
0.13435614093810108182758256134548  |BT| (ROOT (2 (`))(1 (2 (2 (Rare))(2 (Birds)))(1 (2 ('))(1 (1 (2 (tries))(2 (2 (to))(2 (1 (2 (force))(2 (2 (its))(2 (quirkiness))))(2 (2 (upon))(2 (2 (the))(2 (audience)))))))(2 (.)))))) |ET| 
0.13435614093810108182758256134548  |BT| (ROOT (2 (...))(2 (2 (2 (the))(2 (implication)))(2 (2 (2 (is))(2 (2 (Kissinger))(2 (2 (may))(2 (2 (have))(2 (2 (decided))(2 (2 (2 (that))(2 (2 (--))(1 (2 (2 (when))(2 (2 (it))(2 (3 (comes))(2 (2 (to))(2 (truncheoning))))))(2 (--)))))(2 (2 (it))(2 (3 (2 ('s))(4 (better)))(2 (2 (to))(2 (3 (give))(2 (2 (than))(2 (2 (to))(3 (receive))))))))))))))(2 (.))))) |ET| 
0.13435614093810108182758256134548  |BT| (ROOT (2 (2 (Director))(2 (2 (Roger))(2 (Michell))))(2 (1 (4 (2 (does))(2 (2 (so))(2 (2 (many))(2 (2 (of))(2 (2 (2 (the))(2 (2 (little))(2 (things))))(3 (right)))))))(1 (2 (that))(1 (2 (it))(1 (2 (2 ('s))(1 (difficult)))(2 (1 (not))(1 (2 (to))(1 (2 (2 (2 (2 (cuss))(2 (him)))(1 (out)))(2 (severely)))(1 (2 (for))(1 (1 (bungling))(2 (2 (the))(2 (2 (big))(2 (stuff)))))))))))))(2 (.)))) |ET| 
0.13435614093810108182758256134548  |BT| (ROOT (2 (It))(2 (2 (2 (2 ('s))(2 (clear)))(2 (2 (that))(2 (2 (Mehta))(1 (2 (simply))(2 (2 (wanted))(2 (2 (to))(3 (2 (2 (update))(2 (2 (her))(3 (3 (beloved))(2 (genre)))))(1 (2 (for))(2 (2 (2 (2 (the))(2 (thousands)))(2 (2 (of))(2 (Indians))))(2 (2 (who))(1 (3 (fancy))(1 (2 (themselves))(2 (2 (too))(3 (3 (sophisticated))(2 (2 (for))(3 (2 (2 (the))(1 (2 (cheese-laced))(2 (spectacles))))(2 (2 (that))(3 (2 (2 (pack))(2 ('em)))(2 (2 (in))(2 (2 (on))(2 (2 (the))(2 (subcontinent)))))))))))))))))))))))(2 (.)))) |ET| 
-0.13435614093810108182758256134548  |BT| (ROOT (3 (2 (1 (1 (3 (2 (A))(2 (journey)))(1 (2 (that))(1 (1 (2 (is))(2 (2 (as))(1 (1 (difficult))(2 (2 (for))(2 (2 (the))(2 (audience)))))))(2 (2 (to))(2 (2 (take))(2 (2 (as))(2 (it))))))))(2 (2 (is))(2 (2 (for))(2 (2 (the))(1 (protagonist))))))(2 (--)))(3 (2 (yet))(3 (2 (it))(3 (2 ('s))(3 (2 (potentially))(3 (2 (just))(3 (2 (as))(3 (rewarding)))))))))(2 (.))) |ET| 
-0.0024569521836077532275788293247842  |BT| (ROOT (0 (2 (2 (2 (2 (One))(2 (thing)))(2 (2 ('s))(3 (2 (for))(2 (sure)))))(2 (--)))(1 (2 (2 (if))(2 (2 (2 (George))(2 (Romero)))(2 (2 (had))(2 (2 (directed))(2 (2 (this))(2 (movie)))))))(1 (2 (,))(1 (2 (it))(0 (2 (2 (would))(2 (n't)))(1 (2 (have))(1 (0 (1 (taken))(2 (2 (2 (the))(3 (protagonists)))(2 (2 (a))(2 (3 (full))(2 (hour))))))(2 (2 (to))(2 (2 (determine))(2 (2 (that))(2 (2 (2 (2 (in))(2 (order)))(2 (2 (to))(2 (2 (kill))(2 (2 (a))(2 (zombie))))))(1 (2 (you))(0 (2 (must))(0 (2 (1 (shoot))(2 (it)))(2 (2 (in))(2 (2 (the))(2 (head))))))))))))))))))(2 (.))) |ET| 
-0.020185398153286893824231995608898  |BT| (ROOT (2 (Well))(2 (4 (2 (2 (2 (cast))(2 (and)))(3 (well)))(3 (2 (2 (directed))(2 (-)))(3 (3 (3 (2 (a))(4 (4 (powerful))(1 (drama))))(3 (2 (with))(2 (1 (2 (enough))(2 (sardonic)))(2 (wit)))))(1 (2 (to))(2 (2 (2 (keep))(2 (it)))(2 (2 (from))(2 (2 (being))(2 (maudlin)))))))))(2 (.)))) |ET| 
0.13435614093810108182758256134548  |BT| (ROOT (3 (2 (If))(2 (2 (I))(2 (2 (have))(2 (2 (to))(2 (2 (choose))(2 (2 (between))(2 (2 (1 (2 (3 (3 (3 (gorgeous))(2 (animation)))(2 (and)))(1 (2 (a))(0 (0 (lame))(2 (story)))))(2 (1 (-LRB-))(2 (2 (2 (2 (2 (2 (like))(2 (,)))(2 (say)))(2 (,)))(2 (3 (Treasure))(2 (Planet))))(3 (-RRB-)))))(2 (or)))(3 (2 (1 (2 (so-so))(2 (animation)))(2 (and)))(3 (4 (2 (an))(3 (4 (4 (exciting))(3 (2 (,))(4 (clever))))(2 (story))))(3 (2 (with))(3 (2 (2 (a))(3 (batch)))(3 (2 (of))(3 (3 (appealing))(2 (characters)))))))))))))))(2 (2 (,))(2 (2 (I))(2 (3 (2 ('ll))(2 (2 (2 (take))(2 (2 (the))(2 (latter))))(2 (2 (every))(2 (time)))))(2 (.)))))) |ET| 
0.13435614093810108182758256134548  |BT| (ROOT (0 (1 (0 (1 (Smug))(0 (2 (,))(1 (1 (artificial))(1 (2 (,))(0 (0 (ill-constructed))(1 (2 (and))(0 (2 (fatally))(1 (overlong)))))))))(2 (...)))(0 (2 (it))(0 (2 (never))(1 (1 (1 (3 (3 (3 (2 (finds))(3 (2 (a))(2 (3 (consistent))(2 (tone)))))(2 (and)))(1 (lacks)))(1 (bite)))(2 (,)))(0 (1 (degenerating))(1 (2 (into))(1 (2 (a))(0 (2 (pious))(1 (2 (,))(1 (1 (preachy))(1 (2 (soap))(2 (opera)))))))))))))(2 (.))) |ET| 
0.13435614093810108182758256134548  |BT| (ROOT (2 (2 (At))(2 (2 (2 (the))(2 (end)))(2 (2 (of))(2 (2 (the))(2 (movie))))))(2 (2 (2 (,))(2 (2 (2 (2 (my))(2 (2 (6-year-old))(2 (nephew))))(2 (said)))(2 (,))))(2 (2 (``))(2 (2 (2 (1 (2 (2 (2 (I))(2 (2 (guess))(2 (2 (I))(2 (2 (come))(2 (2 (from))(2 (2 (a))(2 (2 (broken))(3 (family)))))))))(2 (,)))(2 (and)))(2 (2 (2 (my))(2 (uncles)))(2 (2 (2 (2 (are))(1 (2 (all))(2 (aliens))))(2 (,)))(2 (too)))))(2 (.)))(2 ('')))))) |ET| 
0.13435614093810108182758256134548  |BT| (ROOT (2 (Chomp))(2 (2 (chomp))(2 (!)))) |ET| 
0.13435614093810108182758256134548  |BT| (ROOT (2 (2 (2 (Was))(2 (I)))(2 (scared)))(2 (?))) |ET| 
0.13435614093810108182758256134548  |BT| (ROOT (2 (They))(2 (2 (2 (should))(2 (2 (have))(2 (2 (found))(2 (2 (2 (Orson))(2 (2 (Welles))(2 ('))))(2 (great-grandson))))))(2 (.)))) |ET| 
0.13435614093810108182758256134548  |BT| (ROOT (2 (2 (will))(2 (2 (2 (be))(2 (3 (2 (far))(3 (2 (more))(3 (interesting))))(2 (2 (to))(2 (2 (the))(3 (2 (Soderbergh))(3 (faithful)))))))(2 (2 (than))(2 (2 (it))(2 (2 (will))(2 (2 (be))(2 (2 (to))(3 (2 (2 (the))(3 (2 (casual))(2 (moviegoer))))(2 (2 (who))(2 (2 (might))(3 (2 (be))(3 (2 (lured))(2 (2 (in))(3 (2 (by))(2 (2 (Julia))(2 (Roberts)))))))))))))))))(2 (...))) |ET| 
0.13435614093810108182758256134548  |BT| (ROOT (2 (It))(2 (2 (2 (2 (is))(2 (2 (up))(2 (2 (to))(2 (you)))))(2 (2 (to))(1 (2 (decide))(2 (2 (if))(3 (2 (you))(3 (2 (need))(2 (2 (to))(3 (2 (see))(2 (it))))))))))(2 (.)))) |ET| 
0.13435614093810108182758256134548  |BT| (ROOT (2 (2 (2 (All))(2 (Analyze)))(2 (2 (That))(2 (proves))))(1 (2 (2 (is))(2 (2 (that))(1 (2 (there))(1 (3 (2 (2 (is))(2 (really)))(2 (2 (2 (2 (only))(2 (2 (one))(2 (2 (movie))(2 ('s)))))(2 (worth)))(3 (2 (of))(3 (3 (decent))(2 (gags))))))(2 (2 (to))(2 (2 (be))(2 (2 (gleaned))(2 (2 (from))(2 (2 (the))(2 (premise)))))))))))(2 (.)))) |ET| 
-0.019236170927905464622664766238813  |BT| (ROOT (2 (I))(3 (3 (2 ('d))(4 (2 (be))(3 (1 (lying))(3 (2 (if))(3 (2 (I))(2 (2 (said))(1 (3 (2 (my))(2 (ribcage)))(2 (2 (2 (did))(2 (n't)))(1 (1 (ache))(2 (2 (by))(2 (2 (2 (the))(2 (end)))(2 (2 (of))(2 (2 (Kung))(3 (Pow)))))))))))))))(2 (.)))) |ET| 
-0.011107080846134360571642041293217  |BT| (ROOT (2 (It))(0 (1 (2 ('s))(1 (3 (rare))(0 (2 (to))(0 (1 (3 (0 (2 (see))(1 (2 (2 (a))(2 (movie)))(1 (2 (that))(1 (3 (2 (takes))(2 (2 (such))(1 (2 (a))(2 (2 (speedy))(2 (2 (swan))(2 (dive)))))))(3 (3 (2 (2 (from))(2 (``)))(3 (promising)))(2 ('')))))))(3 (2 (to))(3 (2 (``))(3 (3 (interesting))(2 (''))))))(2 (2 (to))(2 (2 (``))(2 (2 (familiar))(2 (''))))))(0 (2 (before))(1 (2 (2 (landing))(2 (squarely)))(1 (1 (2 (2 (on))(2 (``)))(0 (stupid)))(2 ('')))))))))(2 (.)))) |ET| 
-0.072336046617506769007555078587757  |BT| (ROOT (1 (Hmmm))(1 (2 (...))(1 (0 (2 (might))(1 (2 (I))(1 (2 (suggest))(0 (2 (that))(1 (2 (2 (the))(1 (1 (wayward))(2 (2 (wooden))(2 (one)))))(1 (2 (2 (end))(2 (it)))(1 (2 (all))(2 (2 (by))(1 (2 (2 (stuffing))(2 (himself)))(2 (2 (into))(3 (2 (an))(2 (3 (electric))(2 (2 (pencil))(2 (sharpener)))))))))))))))(2 (?))))) |ET| 
0.13435614093810108182758256134548  |BT| (ROOT (3 (2 (For))(4 (2 (95))(3 (4 (2 (often))(4 (hilarious)))(2 (minutes)))))(2 (2 (,))(2 (2 (1 (-LRB-))(2 (2 (Cho))(3 (-RRB-))))(2 (2 (2 (2 (2 (riffs))(2 (2 (on))(2 (2 (2 (the))(2 (diciness)))(2 (2 (of))(2 (colonics))))))(2 (,)))(3 (2 (on))(2 (2 (2 (2 (straight))(2 (2 (versus))(1 (2 (gay))(2 (3 (personal))(2 (ads))))))(2 (,)))(2 (2 (2 (on))(2 (2 (how))(2 (2 (men))(2 (2 (would))(2 (2 (act))(3 (2 (if))(2 (2 (they))(2 (2 (had))(2 (periods))))))))))(2 (3 (2 (,))(2 (and)))(2 (2 (on))(2 (2 (2 (the))(2 (perils)))(3 (2 (of))(2 (2 (a))(2 (3 (certain))(2 (2 (outré))(2 (2 (sexual))(2 (practice))))))))))))))(2 (.)))))) |ET| 
0.13435614093810108182758256134548  |BT| (ROOT (2 (2 (Though))(0 (2 (excessively))(1 (tiresome))))(2 (2 (,))(2 (2 (1 (2 (2 (2 (The))(1 (2 (Uncertainty))(2 (Principle))))(2 (,)))(2 (2 (as))(1 (2 (verbally))(1 (1 (pretentious))(2 (2 (as))(2 (2 (2 (the))(2 (title)))(2 (2 (may))(2 (be)))))))))(2 (,)))(1 (2 (2 (2 (2 (has))(3 (2 (2 (its))(2 (handful)))(2 (2 (of))(3 (2 (redeeming))(2 (features))))))(2 (,)))(2 (2 (2 (as))(2 (long)))(1 (2 (as))(1 (2 (you))(2 (2 (2 (discount))(2 (2 (its))(2 (ability))))(1 (2 (to))(0 (bore))))))))(2 (.)))))) |ET| 
0.13435614093810108182758256134548  |BT| (ROOT (1 (3 (4 (3 (2 (There))(3 (2 (2 ('s))(2 (1 (no))(1 (doubting))))(3 (2 (that))(3 (2 (this))(3 (2 (is))(2 (3 (2 (a))(3 (3 (2 (highly))(3 (3 (3 (ambitious))(2 (and)))(3 (personal))))(2 (project))))(2 (2 (for))(2 (Egoyan)))))))))(2 (,)))(2 (but)))(1 (2 (it))(1 (2 (2 ('s))(2 (also)))(1 (2 (one))(1 (2 (that))(2 (2 (,))(0 (2 (2 (next))(3 (2 (to))(4 (2 (his))(4 (4 (best))(2 (work))))))(1 (2 (,))(0 (2 (feels))(2 (1 (1 (clumsy))(2 (and)))(0 (convoluted))))))))))))(2 (.))) |ET| 
-0.0024294815018269127517014371875348  |BT| (ROOT (1 (2 (For))(1 (2 (every))(2 (1 (cheesy))(2 (scene)))))(3 (2 (,))(4 (2 (though))(4 (2 (,))(4 (2 (there))(4 (3 (2 (is))(3 (3 (3 (2 (a))(3 (3 (2 (really))(3 (cool)))(2 (bit))))(2 (--)))(3 (2 (2 (2 (the))(2 (2 (movie))(2 ('s))))(2 (conception)))(3 (2 (of))(3 (2 (a))(4 (3 (future-world))(4 (2 (holographic))(3 (2 (2 (librarian))(1 (1 (-LRB-))(2 (2 (2 (Orlando))(2 (Jones)))(3 (-RRB-)))))(4 (2 (who))(4 (4 (4 (3 (3 (3 (3 (2 (2 (2 (knows))(2 (everything)))(2 (and)))(2 (2 (answers))(2 (2 (all))(2 (questions)))))(2 (,)))(4 (3 (3 (2 (is))(3 (3 (visually))(4 (smart))))(2 (,)))(3 (3 (cleverly))(3 (written)))))(2 (,)))(2 (and)))(3 (nicely)))(2 (realized))))))))))))(2 (.)))))))) |ET| 
-0.083054589529520217450198060760158  |BT| (ROOT (2 (2 (3 (2 (Jeffrey))(2 (2 (Tambor))(2 ('s))))(2 (performance)))(2 (2 (as))(2 (2 (the))(3 (3 (intelligent))(2 (2 (jazz-playing))(2 (exterminator)))))))(4 (4 (2 (is))(4 (Oscar-worthy)))(2 (.)))) |ET| 
-0.0062100065550347097187433575982141  |BT| (ROOT (1 (1 (2 (The))(2 (3 (biggest))(1 (problem))))(2 (2 (with))(2 (2 (2 (2 (Roger))(2 (2 (Avary))(2 ('s))))(2 (uproar)))(2 (2 (against))(2 (2 (the))(2 (MPAA)))))))(0 (0 (2 (is))(0 (2 (that))(1 (2 (2 (,))(2 (2 (even))(3 (3 (2 (in))(2 (2 (all))(3 (2 (2 (its))(2 (2 (director))(2 ('s))))(2 (2 (cut))(2 (glory))))))(2 (,)))))(0 (2 (he))(1 (2 ('s))(0 (2 (made))(0 (2 (2 (a))(2 (film)))(0 (2 (that))(0 (2 ('s))(1 (1 (1 (1 (0 (2 (1 (1 (1 (2 (barely))(2 (shocking)))(2 (,)))(1 (2 (barely))(3 (interesting))))(2 (and)))(2 (most)))(2 (2 (of))(2 (all))))(2 (,)))(2 (barely)))(2 (anything))))))))))))(2 (.)))) |ET| 
0.13435614093810108182758256134548  |BT| (ROOT (2 (Now))(2 (2 (I))(2 (1 (2 (can))(1 (2 (see))(2 (2 (why))(1 (2 (people))(2 (2 (thought))(2 (2 (I))(2 (2 (was))(2 (2 (too))(2 (2 (hard))(2 (2 (2 (2 (on))(2 (``)))(2 (2 (The))(2 (2 (Mothman))(2 (Prophecies)))))(2 (''))))))))))))(2 (.))))) |ET| 
0.13435614093810108182758256134548  |BT| (ROOT (2 (Possibly))(3 (2 (1 (not))(2 (2 (since))(2 (2 (Grumpy))(2 (1 (Old))(3 (Men))))))(2 (2 (2 (2 (have))(2 (I)))(2 (2 (heard))(3 (2 (2 (a))(2 (film)))(1 (3 (2 (so))(3 (3 (solidly))(3 (2 (connect))(2 (2 (with))(2 (2 (one))(3 (2 (demographic))(2 (while))))))))(2 (1 (3 (striking))(1 (out)))(2 (2 (with))(2 (another))))))))(2 (.))))) |ET| 
0.13435614093810108182758256134548  |BT| (ROOT (0 (1 (2 (Do))(2 (n't)))(1 (2 (2 (expect))(2 (2 (any))(2 (subtlety))))(1 (2 (from))(2 (2 (2 (this))(2 (2 (latest))(2 (entry))))(2 (2 (in))(2 (2 (the))(2 (1 (2 (increasingly))(2 (threadbare)))(2 (2 (gross-out))(2 (3 (comedy))(2 (cycle)))))))))))(2 (.))) |ET| 
-0.073232296194044949055879101251776  |BT| (ROOT (2 (...))(0 (0 (0 (2 (about))(0 (1 (2 (as))(1 (4 (exciting))(2 (2 (to))(2 (2 (watch))(2 (2 (as))(2 (2 (two))(1 (2 (last-place))(2 (basketball)))))))))(2 (teams))))(2 (2 (2 (playing))(2 (2 (one))(2 (another))))(2 (2 (on))(3 (2 (2 (the))(2 (2 (final))(2 (day))))(2 (2 (of))(2 (2 (the))(3 (season))))))))(2 (.)))) |ET| 
-0.1100366352816475185028011196664  |BT| (ROOT (0 (1 (1 (1 (1 (3 (2 (2 (2 (The))(2 (2 (young))(2 (stars))))(3 (2 (are))(2 (2 (too))(3 (cute)))))(2 (;)))(1 (2 (2 (2 (2 (the))(2 (story)))(2 (and)))(2 (2 (ensuing))(1 (complications))))(2 (2 (are))(1 (2 (too))(2 (manipulative))))))(2 (;)))(1 (2 (2 (the))(2 (message)))(1 (2 (is))(1 (2 (too))(2 (blatant))))))(2 (;)))(2 (1 (2 (the))(2 (resolutions)))(2 (2 (are))(1 (2 (too))(3 (convenient))))))(2 (.))) |ET| 
-0.048582990114824919913871781318448  |BT| (ROOT (2 (There))(1 (0 (2 (2 ('s))(2 (2 (only))(2 (2 (one))(2 (way)))))(1 (2 (to))(0 (2 (3 (2 (kill))(3 (2 (2 (Michael))(3 (Myers)))(3 (2 (for))(3 (good)))))(2 (:)))(1 (0 (2 (stop))(2 (2 (buying))(2 (tickets))))(2 (2 (to))(2 (2 (these))(2 (movies))))))))(2 (.)))) |ET| 
0.13435614093810108182758256134548  |BT| (ROOT (2 (2 (2 (Alain))(2 (2 (Choquart))(2 ('s))))(2 (camera)))(3 (2 (barely))(3 (2 (2 (stops))(2 (3 (3 (2 (3 (moving))(2 (,)))(2 (2 (portraying))(2 (2 (2 (both))(1 (2 (the))(1 (turmoil))))(2 (2 (of))(2 (2 (the))(2 (time)))))))(2 (and)))(2 (2 (2 (giving))(2 (Conduct)))(3 (2 (2 (a))(3 (2 (perpetual))(2 (sense))))(2 (2 (of))(2 (2 (2 (urgency))(2 (,)))(2 (2 (which))(2 (2 (,))(2 (1 (2 (for))(1 (2 (2 (a))(2 (film)))(1 (2 (that))(1 (2 (2 (takes))(2 (2 (2 (nearly))(2 (three)))(2 (hours))))(2 (2 (to))(2 (unspool)))))))(3 (2 (,))(2 (2 (is))(3 (2 (both))(2 (3 (3 (funny))(2 (and)))(0 (irritating)))))))))))))))(2 (.))))) |ET| 
0.13435614093810108182758256134548  |BT| (ROOT (3 (2 (2 (2 (2 (Quitting))(2 (2 (delivers))(1 (2 (a))(2 (sucker-punch)))))(2 (,)))(2 (and)))(3 (2 (2 (its))(2 (impact)))(3 (2 (2 (is))(2 (all)))(3 (3 (2 (the))(3 (3 (greater))(2 (2 (beause))(2 (director)))))(2 (3 (2 (2 (1 (2 (2 (Zhang))(2 ('s)))(2 (2 (last))(2 (film))))(2 (,)))(3 (2 (the))(2 (3 (cuddly))(2 (Shower)))))(2 (,)))(2 (2 (was))(2 (3 (2 (a))(2 (2 (non-threatening))(2 (2 (multi-character))(2 (piece)))))(2 (2 (centered))(2 (2 (around))(2 (2 (a))(2 (2 (public))(2 (2 (bath))(2 (house))))))))))))))(2 (.))) |ET| 
0.13435614093810108182758256134548  |BT| (ROOT (4 (2 (While))(4 (3 (2 (2 (2 (Glover))(2 (,)))(3 (2 (2 (the))(2 (2 (irrepressible))(2 (eccentric))))(2 (2 (2 (of))(2 (2 (2 (River))(2 ('s)))(2 (2 (Edge))(2 (2 (,))(1 (0 (Dead))(2 (Man)))))))(2 (2 (and))(2 (2 (Back))(2 (2 (to))(2 (2 (the))(2 (Future)))))))))(2 (,)))(3 (3 (2 (is))(4 (perfect)))(3 (2 (casting))(2 (2 (for))(2 (2 (the))(2 (role))))))))(2 (2 (,))(2 (2 (he))(1 (2 (2 (represents))(2 (2 (2 (Bartleby))(2 ('s)))(2 (2 (main))(1 (2 (overall))(2 (flaw))))))(2 (.)))))) |ET| 
0.13435614093810108182758256134548  |BT| (ROOT (2 (Acting))(1 (2 (2 (2 (can))(1 (not)))(2 (2 (be))(2 (acted))))(2 (.)))) |ET| 
-0.13368676531726539358224670195341  |BT| (ROOT (2 (2 (With))(2 (2 (each))(2 (2 (of))(2 (2 (her))(2 (2 (three))(3 (protagonists)))))))(3 (2 (,))(4 (2 (2 (Miller))(3 (eloquently)))(3 (3 (2 (captures))(3 (2 (2 (the))(3 (moment)))(3 (2 (when))(2 (2 (2 (2 (2 (2 (2 (a))(2 (2 (woman))(2 ('s))))(3 (life)))(2 (,)))(2 (1 (out))(2 (2 (of))(2 (2 (a))(3 (3 (2 (deep-seated))(2 (2 (,))(2 (emotional))))(2 (need)))))))(2 (,)))(3 (2 (is))(2 (2 (about))(2 (2 (to))(2 (2 (turn))(3 (2 (onto))(2 (2 (a))(2 (2 (different))(2 (path)))))))))))))(2 (.)))))) |ET| 
-0.04946612979726208725317349035322  |BT| (ROOT (2 (2 (2 (See))(2 (Scratch)))(2 (2 (for))(2 (2 (the))(2 (history)))))(4 (2 (,))(4 (2 (2 (see))(2 (2 (Scratch))(2 (2 (for))(2 (2 (the))(2 (music))))))(2 (2 (,))(3 (2 (2 (2 (2 (2 (2 (2 (2 (see))(1 (2 (Scratch))(2 (2 (for))(2 (2 (2 (a))(2 (lesson)))(2 (2 (in))(2 (scratching)))))))(2 (,)))(2 (but)))(2 (,)))(2 (2 (most))(2 (2 (of))(2 (all)))))(2 (,)))(3 (3 (2 (see))(2 (it)))(2 (2 (for))(2 (2 (the))(2 (passion))))))(2 (.))))))) |ET| 
0.13435614093810108182758256134548  |BT| (ROOT (2 (...))(2 (2 (2 (1 (2 (either))(2 (2 (you))(2 (2 ('re))(1 (2 (willing))(1 (2 (to))(1 (2 (go))(2 (2 (with))(1 (2 (this))(1 (1 (claustrophobic))(2 (concept)))))))))))(2 (or)))(1 (2 (you))(2 (2 ('re))(1 (not)))))(2 (.)))) |ET| 
0.13435614093810108182758256134548  |BT| (ROOT (2 (1 (-LRB-))(3 (2 (2 (2 (Crystal))(2 (and)))(2 (2 (De))(2 (Niro))))(3 (-RRB-))))(2 (2 (2 (manage))(1 (2 (to))(2 (2 (2 (2 (squeeze))(1 (out)))(2 (2 (3 (2 (some))(3 (3 (good))(3 (laughs))))(2 (2 (but))(1 (not))))(2 (enough))))(2 (2 (to))(3 (2 (make))(2 (1 (2 (this))(1 (3 (silly))(1 (1 (con))(2 (job)))))(2 (sing))))))))(2 (.)))) |ET| 
0.13435614093810108182758256134548  |BT| (ROOT (3 (3 (3 (2 (2 (The))(2 (performances)))(2 (2 (2 (are))(2 (all)))(3 (solid))))(2 (;)))(1 (2 (it))(1 (2 (merely))(1 (1 (lacks))(4 (3 (originality))(3 (2 (to))(4 (2 (make))(3 (2 (it))(4 (2 (a))(4 (4 (great))(2 (movie))))))))))))(2 (.))) |ET| 
-0.091337825133869093852112541753741  |BT| (ROOT (2 (...))(1 (2 (2 (The))(2 (movie)))(1 (0 (2 (feels))(1 (1 (2 (2 (stitched))(2 (together)))(2 (2 (from))(1 (2 (stock))(2 (2 (2 (situations))(2 (and)))(2 (characters))))))(2 (2 (from))(2 (2 (other))(2 (movies))))))(2 (.))))) |ET| 
-0.031120151874418192777804748061499  |BT| (ROOT (2 (2 (Viveka))(2 (2 (Seldahl))(2 (2 (and))(2 (2 (Sven))(2 (Wollter))))))(4 (4 (2 (will))(4 (2 (3 (touch))(2 (you)))(4 (2 (to))(3 (2 (2 (the))(2 (core)))(4 (2 (in))(4 (4 (2 (2 (a))(2 (film)))(3 (2 (you))(2 (2 (2 (will))(2 (never)))(1 (forget)))))(3 (2 (--))(2 (2 (that))(2 (2 (you))(3 (2 (2 (should))(2 (never)))(1 (forget))))))))))))(2 (.)))) |ET| 
-0.12304136426626985367782651792368  |BT| (ROOT (2 (There))(1 (0 (2 (is))(1 (0 (0 (1 (1 (nothing))(3 (funny)))(0 (2 (in))(1 (2 (this))(1 (2 (every-joke-has))(2 (2 (-))(2 (been-told-a)))))))(2 (-)))(2 (2 (2 (thousand-times))(2 (-)))(2 (2 (before))(2 (movie))))))(2 (.)))) |ET| 
0.13435614093810108182758256134548  |BT| (ROOT (2 (It))(3 (2 (1 (2 (may))(1 (not)))(2 (2 (3 (2 (be))(3 (2 (3 (3 (2 (2 (2 (as))(2 (cutting)))(2 (,)))(3 (2 (as))(3 (witty))))(2 (or)))(2 (2 (as))(3 (true))))(2 (2 (as))(2 (back)))))(2 (2 (in))(3 (2 (2 (2 (2 (the))(3 (2 (glory))(2 (days))))(2 (2 (of))(3 (Weekend))))(2 (and)))(2 (2 (2 (Two))(2 (or)))(2 (2 (Three))(2 (Things)))))))(1 (2 (2 (2 (2 (I))(2 (2 (Know))(2 (2 (About))(2 (Her)))))(2 (,)))(2 (but)))(2 (2 (who))(2 (2 (else))(2 (3 (engaged))(2 (2 (in))(2 (2 (filmmaking))(2 (2 (today))(3 (2 (is))(3 (2 (so))(2 (2 (cognizant))(2 (2 (of))(2 (2 (2 (the))(2 (2 (2 (3 (cultural))(2 (and)))(2 (moral)))(2 (issues))))(2 (2 (involved))(2 (2 (in))(2 (2 (the))(2 (process)))))))))))))))))))(2 (?)))) |ET| 
0.13435614093810108182758256134548  |BT| (ROOT (2 (2 (2 (2 (2 (There))(3 (2 (3 (2 ('s))(3 (2 (2 (a))(2 (bit)))(2 (2 (of))(2 (2 (2 (thematic))(2 (meat)))(2 (2 (on))(3 (2 (2 (the))(2 (bones)))(2 (2 (of))(2 (2 (Queen))(2 (2 (of))(2 (2 (the))(1 (Damned))))))))))))(2 (,)))(3 (2 (as))(2 (2 (2 (2 (its))(2 (origins)))(2 (2 (in))(2 (2 (an))(2 (2 (Anne))(2 (2 (Rice))(3 (novel)))))))(2 (dictate))))))(2 (,)))(2 (but)))(2 (2 (generally))(1 (2 (,))(2 (2 (it))(1 (2 ('s))(2 (2 (2 (a))(2 (movie)))(2 (2 (that))(1 (2 (emphasizes))(1 (2 (style))(2 (2 (over))(2 (2 (2 (character))(2 (and)))(2 (substance)))))))))))))(2 (.))) |ET| 
0.13435614093810108182758256134548  |BT| (ROOT (2 (1 (1 (2 (1 (2 (The))(2 (4 (2 (most))(4 (remarkable)))(2 (2 (1 (2 (1 (-LRB-))(2 (and)))(0 (frustrating)))(3 (-RRB-)))(2 (thing)))))(2 (2 (about))(2 (2 (World))(2 (Traveler)))))(2 (,)))(2 (2 (which))(2 (2 (opens))(2 (2 (today))(2 (2 (in))(2 (Manhattan)))))))(2 (,)))(1 (0 (2 (is))(0 (2 (that))(1 (2 (2 (its))(1 (protagonist)))(1 (2 (,))(1 (2 (2 (after))(2 (2 (being))(2 (2 (2 (an))(2 (object)))(1 (2 (of))(1 (2 (3 (intense))(1 (scrutiny)))(2 (2 (for))(2 (2 (104))(2 (minutes)))))))))(3 (2 (,))(1 (1 (remains))(2 (2 (a))(1 (3 (complete))(2 (blank)))))))))))(2 (.)))) |ET| 
0.13435614093810108182758256134548  |BT| (ROOT (2 (...))(2 (1 (1 (1 (2 (a))(1 (2 (ho-hum))(1 (affair))))(2 (,)))(2 (always)))(1 (2 (3 (watchable))(1 (2 (yet))(1 (2 (hardly))(4 (memorable)))))(2 (.))))) |ET| 
0.13435614093810108182758256134548  |BT| (ROOT (2 (Ruh-roh))(2 (!))) |ET| 
0.13435614093810108182758256134548  |BT| (ROOT (2 (2 (2 (Paul))(2 (Bettany)))(2 (2 (playing))(2 (2 (Malcolm))(2 (McDowell)))))(2 (?))) |ET| 
0.13435614093810108182758256134548  |BT| (ROOT (2 (2 (2 (2 (2 (One))(2 (thing)))(2 (2 (is))(3 (2 (for))(2 (sure)))))(2 (:)))(2 (2 (2 (This))(2 (movie)))(2 (2 (2 (does))(1 (not)))(2 (3 (2 (tell))(2 (you)))(2 (3 (2 (a))(2 (2 (whole))(2 (lot))))(2 (2 (about))(2 (2 (Lily))(2 (Chou-Chou)))))))))(2 (.))) |ET| 
0.13435614093810108182758256134548  |BT| (ROOT (2 (2 (The))(2 (plot)))(2 (3 (2 (is))(2 (2 (1 (2 (romantic))(2 (3 (comedy))(2 (boilerplate))))(2 (2 (from))(2 (start))))(2 (2 (to))(2 (finish)))))(2 (.)))) |ET| 
0.13435614093810108182758256134548  |BT| (ROOT (3 (2 (Observant))(3 (intelligence)))(2 (2 (constantly))(1 (2 (1 (2 (vies))(1 (2 (with))(2 (2 (pretension))(2 (2 (--))(2 (2 (and))(2 (2 (sometimes))(1 (1 (2 (plain))(1 (2 (wacky))(2 (implausibility))))(2 (--)))))))))(2 (2 (throughout))(2 (Maelstrom))))(2 (.))))) |ET| 
-0.028165174882327642658097488492785  |BT| (ROOT (2 (2 (At))(2 (times)))(1 (2 (2 (Auto))(3 (Focus)))(2 (0 (2 (feels))(1 (1 (2 (so))(1 (distant)))(1 (2 (you))(1 (2 (2 (might))(2 (2 (as))(3 (well))))(2 (2 (be))(2 (2 (2 (watching))(2 (it)))(2 (2 (through))(2 (2 (a))(2 (telescope))))))))))(2 (.))))) |ET| 
-0.017963261089335238324116161834354  |BT| (ROOT (2 (Ultimately))(1 (2 (this))(0 (1 (2 (is))(1 (1 (2 (0 (1 (2 (a))(1 (0 (frustrating))(2 (patchwork))))(2 (:)))(1 (1 (2 (an))(2 (1 (uneasy))(2 (marriage))))(2 (2 (of))(2 (2 (2 (2 (Louis))(2 (2 (Begley))(2 ('s))))(2 (2 (source))(3 (novel))))(2 (1 (-LRB-))(2 (2 (2 (About))(2 (Schmidt)))(3 (-RRB-))))))))(2 (and)))(2 (2 (an))(2 (2 (old))(2 (2 (Payne))(2 (screenplay)))))))(2 (.))))) |ET| 
-0.053870226113435344672542015587169  |BT| (ROOT (4 (3 (3 (4 (2 (2 (Every))(3 (moment)))(2 (3 (crackles))(1 (2 (with))(2 (tension)))))(2 (,)))(2 (and)))(4 (2 (2 (by))(2 (2 (2 (the))(2 (end)))(2 (2 (of))(2 (2 (the))(2 (flick))))))(3 (2 (,))(3 (2 (you))(3 (2 ('re))(4 (2 (on))(4 (3 (2 (the))(3 (edge)))(2 (2 (of))(2 (2 (your))(3 (seat)))))))))))(2 (.))) |ET| 
0.13435614093810108182758256134548  |BT| (ROOT (2 (2 (Despite))(4 (2 (2 (a))(2 (performance)))(4 (2 (of))(2 (2 (3 (2 (2 (sustained))(3 (intelligence)))(2 (2 (from))(2 (Stanford))))(2 (and)))(3 (2 (another))(3 (2 (of))(3 (3 (3 (subtle))(3 (humour)))(2 (2 (from))(2 (2 (Bebe))(2 (Neuwirth)))))))))))(1 (2 (,))(1 (2 (2 (as))(2 (2 (2 (an))(2 (1 (older))(2 (woman))))(2 (2 (who))(2 (2 (seduces))(3 (Oscar))))))(1 (2 (,))(1 (2 (2 (the))(2 (film)))(2 (1 (2 (founders))(1 (2 (on))(1 (2 (2 (its))(2 (lack)))(1 (2 (of))(3 (empathy))))))(2 (2 (for))(2 (2 (3 (2 (2 (2 (2 (the))(2 (2 (social))(2 (milieu))))(2 (-)))(2 (3 (rich))(2 (3 (New))(3 (2 (York))(3 (intelligentsia))))))(2 (-)))(2 (and)))(2 (2 (its))(1 (off))))))))))) |ET| 
0.13435614093810108182758256134548  |BT| (ROOT (2 (2 (In))(3 (3 (capturing))(2 (2 (2 (the))(2 (2 (understated))(1 (3 (comedic))(1 (agony)))))(1 (2 (of))(2 (2 (an))(2 (2 (ever-ruminating))(2 (2 (,))(2 (3 (2 (2 (genteel))(2 (yet)))(2 (decadent)))(2 (2 (aristocracy))(2 (2 (that))(2 (1 (2 (can))(2 (1 (no))(2 (longer))))(2 (2 (pay))(2 (2 (its))(3 (bills)))))))))))))))(2 (2 (,))(3 (2 (2 (the))(2 (film)))(2 (2 (2 (2 (could))(2 (2 (just))(2 (2 (as))(3 (well)))))(2 (2 (be))(3 (2 (2 (addressing))(2 (2 (2 (the))(2 (turn)))(2 (2 (of))(2 (2 (the))(2 (3 (20th))(2 (century)))))))(3 (2 (into))(2 (2 (the))(2 (21st)))))))(2 (.)))))) |ET| 
0.13435614093810108182758256134548  |BT| (ROOT (1 (1 (2 (3 (2 (Jackson))(2 (2 (tries))(2 (2 (to))(2 (2 (keep))(2 (2 (2 (the))(2 (plates)))(2 (2 (spinning))(2 (2 (as))(2 (4 (best))(2 (2 (he))(2 (can)))))))))))(2 (,)))(2 (but)))(1 (1 (2 (all))(2 (2 (the))(2 (bouncing))))(2 (1 (1 (2 (2 (2 (2 (2 (back))(2 (and)))(2 (forth)))(2 (2 (2 (ca))(2 (n't)))(2 (help))))(2 (but)))(2 (2 (become))(1 (2 (2 (a))(2 (bit)))(1 (tedious)))))(2 (--)))(2 (2 (even))(3 (2 (with))(2 (3 (3 (3 (2 (the))(4 (4 (breathtaking))(2 (landscapes))))(2 (and)))(1 (villainous)))(2 (1 (varmints))(2 (2 (there))(1 (2 (to))(1 (1 (1 (distract))(2 (you)))(2 (2 (from))(2 (2 (the))(2 (ricocheting))))))))))))))(2 (.))) |ET| 
-0.038658793339500951979914589173859  |BT| (ROOT (2 (2 (In))(2 (2 (questioning))(2 (2 (the))(2 (2 (election))(2 (process))))))(3 (2 (,))(3 (2 (Payami))(3 (2 (graphically))(2 (3 (3 (illustrates))(2 (2 (2 (1 (1 (2 (the))(2 (problems)))(2 (2 (of))(2 (2 (fledgling))(2 (democracies)))))(2 (,)))(2 (2 (but))(2 (also))))(3 (2 (2 (the))(3 (2 (3 (strength))(2 (and)))(2 (sense))))(2 (2 (of))(3 (3 (freedom))(2 (2 (2 (the))(2 (2 (Iranian))(2 (people))))(2 (2 (already))(2 (2 (2 (2 (possess))(2 (,)))(2 (2 (2 (2 (with))(2 (or)))(2 (without)))(2 (access))))(2 (2 (to))(2 (2 (the))(2 (2 (ballot))(2 (box)))))))))))))(2 (.))))))) |ET| 
-0.0003309857274524499520448883593815  |BT| (ROOT (3 (4 (4 (2 (A))(4 (4 (2 (fiercely))(4 (3 (4 (clever))(2 (and)))(3 (subtle))))(2 (film))))(2 (,)))(3 (3 (capturing))(3 (2 (2 (the))(2 (1 (precarious))(2 (balance))))(2 (2 (between))(2 (2 (3 (3 (2 (the))(3 (4 (extravagant))(3 (confidence))))(2 (2 (of))(2 (2 (the))(2 (2 (exiled))(2 (aristocracy))))))(2 (and)))(3 (2 (2 (the))(2 (1 (cruel))(3 (earnestness))))(3 (2 (of))(2 (2 (the))(3 (3 (victorious))(2 (revolutionaries)))))))))))(2 (.))) |ET| 
0.13435614093810108182758256134548  |BT| (ROOT (2 (It))(2 (2 (2 (2 ('s))(2 (just)))(2 (2 (2 (a))(2 (little)))(1 (2 (too))(2 (self-satisfied)))))(2 (.)))) |ET| 
0.13435614093810108182758256134548  |BT| (ROOT (2 (2 (Newcomer))(2 (3 (helmer))(2 (2 (Kevin))(2 (Donovan)))))(0 (2 (2 (is))(1 (1 (hamstrung))(1 (2 (by))(1 (0 (2 (a))(0 (1 (2 (badly))(2 (handled)))(2 (screenplay))))(3 (2 (of))(3 (3 (2 (what))(3 (2 (2 (is))(2 (really)))(3 (2 (an))(3 (4 (amusing))(2 (concept))))))(2 (2 (--))(2 (2 (2 (a))(2 (2 (high-tech))(2 (tux))))(3 (2 (that))(3 (3 (2 (transforms))(2 (2 (its))(2 (wearer))))(2 (2 (into))(2 (2 (a))(2 (superman))))))))))))))(2 (.)))) |ET| 
0.13435614093810108182758256134548  |BT| (ROOT (2 (3 (2 (3 (2 (2 (This))(2 (movie)))(4 (2 (has))(3 (3 (2 (a))(3 (3 (strong))(2 (message))))(3 (2 (about))(2 (2 (never))(2 (1 (2 (giving))(2 (up)))(2 (2 (on))(3 (2 (a))(3 (4 (loved))(2 (one)))))))))))(2 (,)))(2 (but)))(1 (2 (it))(1 (1 (2 (2 (2 ('s))(1 (not)))(3 (2 (2 (an))(2 (2 (easy))(2 (movie))))(2 (2 (to))(2 (watch)))))(2 (and)))(1 (3 (2 (will))(2 (probably)))(1 (1 (disturb))(2 (2 (many))(2 (2 (who))(3 (2 (see))(2 (it))))))))))(2 (.))) |ET| 
0.13435614093810108182758256134548  |BT| (ROOT (2 (It))(1 (2 (2 ('s))(1 (2 (2 (a))(2 (2 (100-year))(2 (2 (old))(2 (mystery)))))(2 (2 (that))(1 (3 (2 (is))(2 (constantly)))(2 (2 (being))(2 (1 (interrupted))(2 (2 (by))(2 (2 (2 (Elizabeth))(2 (Hurley)))(2 (2 (in))(2 (2 (a))(2 (2 (bathing))(2 (suit)))))))))))))(2 (.)))) |ET| 
-0.023474990343971598866223970958345  |BT| (ROOT (3 (2 (2 (An))(2 (example)))(4 (2 (of))(4 (3 (3 (2 (quiet))(3 (2 (,))(4 (confident))))(2 (craftsmanship)))(3 (2 (that))(4 (2 (tells))(4 (4 (2 (a))(3 (4 (4 (sweet))(3 (2 (,))(4 (charming))))(2 (tale))))(3 (2 (of))(2 (2 (intergalactic))(2 (friendship))))))))))(2 (.))) |ET| 
-0.017089592466370751716597808922415  |BT| (ROOT (2 (2 (If))(4 (2 (2 (3 (Disney))(2 ('s)))(3 (Cinderella)))(2 (2 (proved))(2 (2 (2 (that))(2 (')))(3 (3 (2 (a))(3 (dream)))(2 (2 (is))(3 (2 (2 (a))(2 (wish)))(2 (2 (2 (your))(2 (heart)))(2 (makes))))))))))(2 (2 (,))(2 (2 ('))(2 (2 (2 (then))(2 (3 (Cinderella))(2 (II))))(1 (2 (2 (proves))(1 (2 (that))(2 (1 (2 (a))(0 (nightmare)))(4 (2 (is))(2 (2 (2 (a))(2 (wish)))(2 (2 (2 (2 (a))(2 (2 (studio))(2 ('s))))(2 (wallet)))(2 (makes))))))))(2 (.))))))) |ET| 
-0.038914706288386273491664013590707  |BT| (ROOT (2 (It))(4 (4 (2 ('s))(4 (3 (2 (a))(2 (2 (fairy))(2 (tale))))(2 (2 (that))(3 (3 (comes))(4 (2 (from))(3 (3 (2 (a))(2 (3 (renowned))(2 (2 (Indian))(2 (2 (film))(2 (culture))))))(3 (2 (that))(3 (2 (allows))(3 (3 (Americans))(3 (2 (to))(3 (2 (finally))(3 (2 (revel))(3 (2 (in))(4 (2 (its))(3 (splendor))))))))))))))))(2 (.)))) |ET| 
0.13435614093810108182758256134548  |BT| (ROOT (2 (Lohman))(1 (3 (adapts))(1 (2 (to))(2 (2 (2 (the))(2 (changes)))(1 (2 (2 (2 (2 (required))(2 (2 (of))(2 (her))))(2 (,)))(2 (but)))(2 (2 (2 (the))(2 (2 (2 (actress))(2 (and)))(2 (director))))(1 (2 (2 (Peter))(2 (Kosminsky)))(1 (2 (never))(3 (2 (get))(2 (2 (2 (the))(2 (audience)))(2 (2 (to))(2 (2 (2 (break))(3 (2 (through))(2 (2 (the))(3 (wall)))))(3 (2 (her))(2 (2 (character))(2 (erects)))))))))))))))) |ET| 
0.13435614093810108182758256134548  |BT| (ROOT (2 (2 (Though))(2 (2 (it))(1 (2 (2 (flirts))(1 (2 (with))(2 (2 (2 (2 (2 (bathos))(2 (and)))(2 (pathos)))(2 (and)))(1 (2 (2 (the))(1 (2 (further))(1 (Oprahfication))))(2 (2 (of))(2 (2 (the))(2 (world))))))))(2 (2 (as))(2 (2 (we))(2 (2 (know))(2 (it))))))))(1 (2 (,))(1 (2 (it))(3 (1 (2 (still))(2 (2 (2 (2 (cuts))(3 (2 (all))(2 (2 (the))(2 (way)))))(2 (down)))(2 (2 (to))(2 (2 (broken))(2 (bone))))))(2 (.)))))) |ET| 
0.13435614093810108182758256134548  |BT| (ROOT (1 (1 (3 (3 (2 (``))(3 (2 (Feardotcom))(3 (2 (''))(2 (2 (has))(3 (3 (2 (2 (the))(2 (makings)))(3 (2 (of))(3 (4 (2 (an))(3 (3 (interesting))(2 (meditation))))(3 (2 (on))(2 (2 (2 (the))(2 (3 (ethereal))(2 (nature))))(2 (2 (of))(2 (2 (2 (2 (the))(2 (internet)))(2 (and)))(2 (2 (the))(2 (3 (otherworldly))(2 (energies)))))))))))(3 (2 (it))(3 (2 (could))(2 (channel)))))))))(2 (,)))(2 (but)))(2 (2 (it))(1 (2 (simply))(2 (2 (becomes))(1 (2 (a))(2 (2 (routine))(2 (shocker))))))))(2 (.))) |ET| 
0.13435614093810108182758256134548  |BT| (ROOT (2 (2 (In))(2 (2 (a))(2 (1 (strange))(2 (way)))))(1 (2 (,))(1 (2 (Egoyan))(2 (1 (2 (has))(2 (2 (done))(1 (2 (too))(2 (much)))))(2 (.)))))) |ET| 
0.13435614093810108182758256134548  |BT| (ROOT (2 (2 (Yo))(2 (2 (,))(2 (2 (it))(2 (2 ('s))(2 (2 (2 (The))(2 (Days)))(2 (2 (Of))(2 (2 (Our))(2 (Lives)))))))))(2 (2 (2 (meets))(2 (4 (Electric))(2 (Boogaloo))))(2 (.)))) |ET| 
-0.027181514989379779861922159511778  |BT| (ROOT (3 (3 (2 (A))(3 (3 (stirring))(3 (tribute))))(3 (2 (to))(2 (2 (3 (2 (the))(3 (2 (3 (bravery))(2 (and)))(3 (dedication))))(2 (2 (of))(2 (2 (2 (the))(2 (2 (world))(2 ('s))))(2 (reporters)))))(3 (2 (who))(2 (2 (willingly))(2 (2 (2 (walk))(2 (2 (into))(1 (1 (2 (the))(0 (nightmare)))(1 (2 (of))(1 (war))))))(3 (1 (not))(2 (3 (2 (2 (2 (only))(2 (2 (to))(2 (2 (2 (record))(2 (2 (the))(2 (events))))(2 (2 (for))(2 (posterity))))))(2 (,)))(2 (but)))(2 (2 (to))(2 (2 (help))(3 (us))))))))))))(3 (2 (clearly))(2 (2 (2 (see))(2 (2 (2 (the))(2 (world)))(3 (2 (of))(2 (2 (our))(2 (making))))))(2 (.))))) |ET| 
0.13435614093810108182758256134548  |BT| (ROOT (2 (2 (When))(2 (2 (2 (Mr.))(2 (Hundert)))(2 (2 (2 (2 (tells))(3 (us)))(2 (2 (in))(2 (2 (his))(2 (narration)))))(1 (2 (that))(1 (2 (`))(1 (2 (this))(2 (2 (is))(1 (2 (2 (a))(2 (story)))(2 (2 (without))(3 (surprises)))))))))))(2 (2 (,))(2 (2 ('))(2 (2 (we))(2 (3 (2 (nod))(2 (2 (in))(2 (agreement))))(2 (.))))))) |ET| 
0.13435614093810108182758256134548  |BT| (ROOT (2 (Gere))(2 (1 (2 (gives))(1 (4 (2 (a))(3 (3 (good))(2 (performance))))(1 (2 (in))(0 (2 (2 (a))(2 (film)))(1 (2 (that))(1 (1 (2 (does))(2 (n't)))(3 (2 (merit))(2 (it)))))))))(2 (.)))) |ET| 
0.13435614093810108182758256134548  |BT| (ROOT (3 (2 (A))(3 (thriller)))(1 (1 (2 (made))(1 (2 (2 (2 (from))(2 (2 (2 (a))(2 (2 (completist))(2 ('s))))(2 (checklist))))(2 (2 (rather))(2 (than))))(3 (2 (with))(2 (2 (2 (a))(2 (2 (cultist))(2 ('s))))(2 (passion))))))(2 (.)))) |ET| 
-0.065931998433554378502563508845924  |BT| (ROOT (2 (2 (1 (2 (2 (2 (The))(2 (picture)))(2 (2 (runs))(2 (2 (a))(2 (2 (mere))(2 (2 (84))(2 (minutes)))))))(2 (,)))(2 (but)))(2 (2 (it))(2 (2 ('s))(2 (1 (no))(2 (glance))))))(2 (.))) |ET| 
-0.039841270359144996537903438138528  |BT| (ROOT (1 (-LRB-))(3 (2 (2 (The))(2 (Cockettes)))(2 (3 (-RRB-))(3 (3 (3 (2 (3 (provides))(2 (2 (a))(2 (window))))(2 (2 (into))(3 (2 (2 (a))(2 (2 (subculture))(1 (hell-bent))))(3 (2 (on))(3 (2 (2 (expressing))(2 (itself)))(2 (2 (in))(2 (2 (every))(2 (2 (way))(3 (imaginable))))))))))(2 (.)))(2 (')))))) |ET| 
-0.13435614093810108182758256134548  |BT| (ROOT (3 (1 (1 (1 (2 (Could))(2 (2 (use))(3 (2 (a))(2 (2 (2 (little))(2 (more)))(2 (humanity))))))(2 (,)))(2 (but)))(4 (2 (it))(3 (2 (never))(1 (1 (lacks))(4 (2 (in))(3 (4 (eye-popping))(2 (visuals))))))))(2 (.))) |ET| 
0.13435614093810108182758256134548  |BT| (ROOT (1 (2 (2 (Were))(2 (it)))(1 (1 (not))(2 (2 (for))(2 (2 (2 (a))(2 (3 (sentimental))(2 (resolution))))(2 (2 (that))(2 (2 (2 (explains))(2 (2 (2 (way))(2 (more)))(2 (2 (about))(2 (Cal)))))(2 (2 (than))(2 (2 (does))(2 (2 (2 (2 (2 (the))(2 (movie)))(2 (or)))(2 (2 (the))(2 (character))))(2 (2 (any))(3 (good))))))))))))(3 (2 (,))(3 (3 (2 (2 (Freundlich))(2 ('s)))(2 (2 (World))(2 (Traveler))))(4 (4 (2 (might))(4 (2 (have))(4 (2 (been))(3 (2 (one))(3 (2 (of))(3 (3 (2 (the))(3 (3 (2 (more))(3 (2 (2 (daring))(2 (and)))(2 (surprising))))(2 (2 (American))(2 (movies)))))(2 (2 (of))(2 (2 (the))(2 (year))))))))))(2 (.)))))) |ET| 
0.13435614093810108182758256134548  |BT| (ROOT (2 (2 (2 (Leigh))(2 ('s)))(2 (daring)))(3 (2 (here))(2 (2 (2 (is))(3 (2 (that))(3 (3 (2 (without))(2 (2 (once))(2 (1 (denying))(2 (2 (2 (the))(1 (2 (hardscrabble))(2 (lives))))(2 (2 (of))(1 (2 (people))(2 (2 (on))(2 (1 (2 (the))(2 (2 (economic))(2 (fringes))))(2 (2 (of))(1 (2 (2 (Margaret))(2 (2 (Thatcher))(2 ('s))))(2 (2 (ruinous))(2 (legacy)))))))))))))(3 (2 (,))(2 (2 (he))(4 (3 (2 (insists))(3 (2 (on))(2 (2 (2 (the))(2 (importance)))(2 (2 (of))(2 (2 (those))(2 (moments)))))))(4 (2 (when))(3 (2 (people))(2 (2 (can))(2 (3 (2 (2 (2 (connect))(2 (and)))(2 (express)))(2 (2 (their))(4 (love))))(3 (2 (for))(2 (2 (each))(2 (other))))))))))))))(2 (.))))) |ET| 
0.13435614093810108182758256134548  |BT| (ROOT (3 (2 (2 (1 (2 (2 (Maid))(2 (2 (in))(2 (Manhattan))))(1 (2 (2 (might))(1 (not)))(2 (3 (2 (look))(4 (2 (so))(2 (3 (appealing))(2 (2 (on))(3 (2 (third))(2 (2 (or))(2 (2 (fourth))(2 (viewing)))))))))(2 (2 (down))(2 (2 (the))(1 (road)))))))(2 (...)))(2 (But)))(4 (4 (2 (as))(3 (2 (2 (a))(3 (3 (high))(2 (2 (concept))(2 (vehicle)))))(3 (2 (for))(3 (3 (2 (two))(3 (3 (bright))(2 (stars))))(3 (2 (of))(3 (2 (2 (the))(3 (moment)))(4 (2 (who))(3 (2 (can))(3 (2 (rise))(2 (2 (to))(2 (2 (3 (fans))(2 (')))(2 (3 (lofty))(2 (expectations))))))))))))))(3 (2 (,))(3 (2 (2 (the))(2 (movie)))(2 (2 (passes))(2 (inspection)))))))(2 (.))) |ET| 
-0.024784358262741664619133175051502  |BT| (ROOT (2 (Feels))(1 (1 (2 (like))(2 (2 (2 (the))(2 (work)))(1 (2 (of))(1 (2 (2 (2 (2 (1 (1 (2 (2 (an))(2 (artist)))(1 (2 (who))(1 (2 (2 (is))(2 (simply)))(1 (tired)))))(2 (--)))(2 (2 (of))(1 (2 (fighting))(2 (2 (the))(2 (2 (same))(1 (fights)))))))(2 (,)))(2 (2 (of))(2 (2 (putting))(2 (2 (2 (the))(2 (weight)))(2 (2 (of))(2 (2 (2 (the))(2 (world)))(2 (2 (on))(2 (2 (his))(2 (shoulders))))))))))(2 (,)))(3 (2 (of))(2 (2 (playing))(2 (2 (with))(2 (2 (narrative))(2 (form))))))))))(2 (.)))) |ET| 
0.13435614093810108182758256134548  |BT| (ROOT (2 (...))(2 (1 (1 (generically))(2 (2 (,))(3 (1 (forgettably))(3 (4 (4 (pleasant))(2 (2 (from))(2 (start))))(2 (2 (to))(2 (finish)))))))(2 (.)))) |ET| 
-0.056220424658786849470004653994692  |BT| (ROOT (3 (3 (3 (3 (2 (2 (The))(3 (fascination)))(4 (3 (comes))(3 (2 (in))(3 (3 (3 (3 (2 (the))(2 (power)))(2 (2 (of))(2 (2 (the))(3 (2 (Huston))(2 (performance))))))(2 (,)))(3 (2 (which))(3 (2 (seems))(2 (3 (3 (2 (so))(3 (2 (larger))(2 (2 (than))(3 (life)))))(2 (and)))(2 (2 (yet))(2 (2 (so))(2 (fragile)))))))))))(2 (,)))(2 (and)))(1 (2 (2 (in))(2 (2 (the))(2 (way))))(2 (2 (2 (the))(2 (2 (Ivan))(2 (character))))(2 (2 (2 (2 (2 (2 (accepts))(2 (2 (2 (the))(2 (news)))(2 (2 (of))(2 (2 (his))(0 (illness))))))(2 (2 (so))(2 (quickly))))(2 (but)))(2 (2 (still))(2 (2 (finds))(2 (himself)))))(2 (1 (unable))(2 (2 (to))(2 (react))))))))(2 (.))) |ET| 
0.13435614093810108182758256134548  |BT| (ROOT (3 (2 (2 (The))(2 (4 (best))(2 (drug))))(2 (2 (addition))(2 (movies))))(2 (2 (3 (2 (are))(2 (usually)))(3 (1 (0 (depressing))(2 (but)))(3 (rewarding))))(2 (.)))) |ET| 
0.13435614093810108182758256134548  |BT| (ROOT (3 (2 (2 (3 (2 (2 (The))(2 (film)))(2 (2 (sometimes))(2 (flags))))(2 (...)))(2 (but)))(3 (2 (there))(3 (2 (is))(3 (2 (enough))(3 (1 (secondary))(4 (2 (action))(3 (2 (to))(3 (2 (keep))(3 (2 (things))(3 (1 (3 (moving))(2 (along)))(3 (2 (at))(3 (2 (a))(3 (4 (3 (brisk))(3 (2 (,))(4 (amusing))))(2 (pace)))))))))))))))(2 (.))) |ET| 
0.13435614093810108182758256134548  |BT| (ROOT (2 (2 (The))(2 (pitch)))(2 (2 (2 (must))(2 (2 (have))(3 (2 (read))(1 (2 (like))(2 (2 (a))(2 (1 (discarded))(2 (2 (House))(3 (4 (Beautiful))(2 (spread))))))))))(2 (.)))) |ET| 
-0.059457140567418340082461725160101  |BT| (ROOT (1 (3 (Jaw-droppingly))(2 (superficial)))(1 (2 (,))(1 (1 (2 (straining))(1 (2 (to))(1 (2 (get))(0 (2 (by))(1 (2 (on))(2 (4 (humor))(1 (2 (that))(2 (1 (2 (1 (2 (is))(1 (not)))(2 (even)))(3 (2 (as))(3 (2 (daring))(3 (2 (as))(2 (2 (2 (John))(2 (2 (Ritter))(2 ('s))))(3 (2 (glory))(2 (days))))))))(2 (2 (on))(2 (2 (2 (Three))(2 ('s)))(2 (Company))))))))))))(2 (.))))) |ET| 
-0.012732135301362714624451299982866  |BT| (ROOT (2 (...))(0 (2 (2 (2 (an))(2 (hour-and-a-half)))(2 (2 (of))(1 (inoffensive))))(0 (2 (,))(1 (1 (0 (unmemorable))(2 (filler)))(2 (.)))))) |ET| 
-0.0087081613679145623840849310681733  |BT| (ROOT (2 (2 (This))(2 (Tuxedo)))(1 (2 (...))(2 (1 (2 (should))(2 (2 (have))(1 (2 (been))(1 (1 (2 (sent))(2 (back)))(1 (2 (to))(2 (2 (2 (the))(2 (tailor)))(3 (2 (for))(3 (2 (some))(2 (2 (major))(2 (alterations)))))))))))(2 (.))))) |ET| 
0.13435614093810108182758256134548  |BT| (ROOT (2 (2 (3 (2 (A))(3 (2 (sly))(2 (dissection))))(2 (2 (of))(1 (2 (1 (2 (2 (the))(1 (inanities)))(2 (2 (of))(3 (2 (the))(2 (3 (contemporary))(2 (2 (music))(2 (business)))))))(2 (and)))(1 (1 (2 (a))(2 (1 (2 (rather))(1 (sad)))(2 (story))))(2 (2 (of))(1 (2 (the))(1 (difficulties))))))))(3 (2 (of))(2 (3 (artistic))(2 (collaboration)))))(2 (.))) |ET| 
0.13435614093810108182758256134548  |BT| (ROOT (2 (2 (2 (Massoud))(2 ('s)))(2 (story)))(3 (3 (2 (is))(3 (3 (2 (3 (2 (an))(3 (epic)))(2 (,)))(2 (2 (but))(2 (also))))(2 (2 (1 (2 (a))(1 (tragedy)))(2 (,)))(3 (2 (2 (the))(2 (record)))(2 (2 (of))(3 (3 (2 (a))(2 (3 (tenacious))(2 (2 (,))(3 (3 (humane))(2 (fighter))))))(2 (2 (who))(2 (2 (2 (was))(2 (also)))(2 (2 (2 (2 (the))(1 (prisoner)))(2 (1 (-LRB-))(1 (2 (and))(2 (2 (ultimately))(1 (2 (2 (the))(1 (victim)))(3 (-RRB-)))))))(2 (2 (of))(2 (history))))))))))))(2 (.)))) |ET| 
0.13435614093810108182758256134548  |BT| (ROOT (2 (2 (About))(2 (2 (a))(2 (Boy))))(3 (3 (vividly))(3 (3 (2 (2 (3 (1 (recalls))(2 (2 (2 (the))(2 (2 (Cary))(2 (Grant))))(2 (2 (of))(2 (Room)))))(2 (2 (for))(2 (2 (One))(2 (More)))))(2 (,)))(3 (2 (2 (Houseboat))(2 (2 (and))(2 (2 (Father))(2 (Goose)))))(3 (2 (in))(2 (3 (2 (its))(2 (2 (affectionate))(2 (depiction))))(2 (2 (of))(2 (2 (2 (the))(2 (3 (gentle))(1 (war))))(2 (2 (between))(1 (1 (2 (2 (a))(1 (1 (1 (reluctant))(1 (2 (,))(1 (irresponsible))))(2 (man))))(2 (and)))(2 (2 (2 (the))(2 (kid)))(2 (2 (who))(2 (2 (latches))(2 (2 (onto))(2 (him))))))))))))))(2 (.))))) |ET| 
-0.1127445701161472191298429379458  |BT| (ROOT (2 (2 (What))(1 (remains)))(1 (1 (1 (1 (2 (is))(1 (2 (2 (a))(2 (variant)))(1 (2 (of))(2 (2 (the))(1 (1 (nincompoop))(2 (2 (Benigni))(2 (persona))))))))(2 (,)))(1 (1 (2 (here))(1 (1 (2 (0 (2 (a))(0 (2 (more))(0 (annoying))))(2 (,)))(2 (though)))(2 (2 (less))(1 (angry)))))(1 (2 (2 (version))(2 (2 (of))(2 (2 (the))(1 (1 (irresponsible))(2 (Sandlerian))))))(2 (2 (2 (manchild))(2 (,)))(1 (1 (undercut))(2 (2 (by))(2 (2 (2 (the))(2 (voice)))(2 (2 (of))(2 (2 (2 (the))(2 (star)))(2 (2 (of))(3 (2 (Road))(2 (Trip)))))))))))))(2 (.)))) |ET| 
-0.037109566941647020854588845395483  |BT| (ROOT (2 (Frei))(4 (4 (3 (4 (3 (2 (assembles))(4 (3 (2 (a))(3 (3 (fascinating))(2 (profile))))(3 (2 (of))(3 (3 (2 (a))(3 (3 (2 (deeply))(3 (humanistic)))(2 (artist))))(3 (2 (who))(3 (2 (,))(3 (2 (2 (in))(2 (2 (spite))(2 (2 (of))(2 (2 (all))(2 (2 (that))(2 (2 (he))(2 (2 ('s))(2 (witnessed)))))))))(3 (2 (,))(3 (1 (remains))(3 (3 (surprisingly))(2 (idealistic))))))))))))(2 (,)))(2 (and)))(4 (3 (2 (retains))(3 (3 (2 (an))(3 (4 (extraordinary))(2 (faith))))(2 (2 (in))(2 (2 (2 (the))(2 (ability)))(2 (2 (of))(2 (images)))))))(2 (2 (to))(3 (3 (2 (communicate))(2 (2 (2 (the))(3 (truth)))(2 (2 (of))(2 (2 (the))(2 (world))))))(2 (2 (around))(2 (him)))))))(2 (.)))) |ET| 
-0.059796986388158265834924520731875  |BT| (ROOT (3 (1 (1 (1 (1 (-LRB-))(1 (2 (2 (Clooney))(2 ('s)))(1 (3 (-RRB-))(1 (2 (debut))(1 (2 (can))(2 (2 (be))(1 (2 (accused))(1 (2 (of))(2 (2 (being))(2 (2 (2 (a))(2 (bit)))(0 (undisciplined))))))))))))(2 (,)))(2 (but)))(4 (2 (it))(4 (2 (has))(3 (4 (3 (2 (a))(3 (4 (tremendous))(2 (2 (,))(2 (2 (offbeat))(2 (sense))))))(2 (2 (of))(3 (3 (2 (style))(2 (and)))(4 (humor)))))(2 (2 (that))(2 (2 (suggests))(2 (2 (he))(3 (2 (was))(3 (2 (influenced))(2 (2 (by))(3 (2 (some))(3 (2 (of))(2 (2 (2 (2 (2 (2 (the))(2 (filmmakers)))(2 (2 (who))(2 (2 (have))(2 (2 (directed))(2 (him))))))(2 (,)))(2 (especially)))(2 (3 (2 (2 (the))(2 (2 (Coen))(2 (brothers))))(2 (and)))(2 (2 (Steven))(2 (Soderbergh)))))))))))))))))(2 (.))) |ET| 
0.13435614093810108182758256134548  |BT| (ROOT (2 (It))(2 (2 (2 (2 (is))(1 (2 (2 (2 (2 (2 (so))(2 (earnest)))(2 (,)))(1 (2 (so))(1 (overwrought))))(2 (and)))(2 (2 (so))(1 (2 (wildly))(1 (implausible))))))(1 (2 (that))(2 (2 (it))(1 (2 (begs))(2 (2 (to))(2 (2 (be))(2 (parodied))))))))(2 (.)))) |ET| 
0.13435614093810108182758256134548  |BT| (ROOT (2 (Feels))(2 (1 (2 (like))(1 (2 (2 (1 (nothing))(2 (2 (quite))(2 (so))))(2 (much)))(2 (2 (as))(1 (2 (2 (a))(2 (2 (middle-aged))(2 (2 (moviemaker))(2 ('s)))))(2 (2 (attempt))(2 (2 (to))(2 (2 (2 (surround))(2 (himself)))(3 (2 (with))(2 (4 (beautiful))(2 (2 (,))(2 (2 (half-naked))(2 (women)))))))))))))(2 (.)))) |ET| 
0.13435614093810108182758256134548  |BT| (ROOT (3 (2 (With))(2 (2 (this))(2 (3 (new))(2 (Rollerball)))))(0 (2 (,))(1 (2 (2 (2 (sense))(2 (and)))(2 (sensibility)))(1 (1 (2 (have))(1 (2 (been))(2 (1 (overrun))(1 (2 (by))(1 (2 (what))(2 (2 (2 (can))(2 (only)))(1 (2 (be))(1 (2 (characterized))(2 (2 (as))(2 (2 (robotic))(2 (sentiment))))))))))))(2 (.)))))) |ET| 
-0.13435614093810108182758256134548  |BT| (ROOT (2 (But))(1 (1 (1 (1 (2 (they))(1 (2 (2 (do))(2 (n't)))(3 (3 (fit))(3 (3 (well))(2 (together))))))(2 (and)))(1 (2 (neither))(4 (3 (2 (is))(3 (well)))(2 (told)))))(2 (.)))) |ET| 
-0.13435614093810108182758256134548  |BT| (ROOT (3 (2 (2 (2 (A))(3 (2 (2 (keep))(2 (-)))(2 ('em))))(2 (-)))(3 (3 (3 (2 (2 (guessing))(2 (plot)))(2 (and)))(3 (2 (an))(2 (affectionate))))(2 (2 (take))(2 (2 (on))(1 (2 (its))(1 (1 (screwed-up))(2 (characters))))))))(2 (.))) |ET| 
-0.0049078131023764289680988426312069  |BT| (ROOT (1 (2 (If))(2 (1 (1 (2 (the))(2 (predictability)))(1 (2 (of))(2 (1 (bland))(3 (3 (comfort))(2 (food))))))(3 (3 (appeals))(2 (2 (to))(2 (you))))))(3 (2 (,))(3 (2 (then))(3 (2 (2 (the))(2 (film)))(3 (3 (2 (is))(3 (2 (a))(3 (4 (pleasant))(2 (2 (enough))(2 (dish))))))(2 (.))))))) |ET| 
0.13435614093810108182758256134548  |BT| (ROOT (2 (3 (Greengrass))(2 (1 (-LRB-))(2 (2 (2 (working))(2 (2 (from))(2 (2 (3 (Don))(2 (2 (Mullan))(2 ('s))))(2 (script)))))(3 (-RRB-)))))(2 (3 (2 (forgoes))(3 (2 (2 (2 (the))(2 (2 (larger))(2 (2 (socio-political))(2 (picture)))))(2 (2 (of))(2 (2 (2 (the))(2 (situation)))(3 (2 (in))(2 (2 (2 (Northern))(2 (Ireland)))(2 (2 (in))(2 (3 (favour))(2 (2 (of))(2 (2 (an))(2 (approach)))))))))))(3 (2 (that))(2 (2 (2 (throws))(2 (one)))(3 (2 (in))(2 (2 (2 (the))(2 (2 (pulsating))(2 (thick))))(1 (2 (of))(1 (2 (a))(3 (2 (3 (truly))(2 (frightening)))(2 (situation)))))))))))(2 (.)))) |ET| 
0.13435614093810108182758256134548  |BT| (ROOT (2 (Hardman))(1 (1 (2 (is))(2 (1 (2 (2 (a))(1 (2 (1 (grating))(2 (2 (,))(3 (mannered))))(2 (2 (onscreen))(2 (presence)))))(2 (,)))(1 (2 (which))(1 (2 (is))(1 (2 (especially))(1 (2 (unfortunate))(2 (2 (in))(2 (2 (light))(3 (2 (of))(3 (3 (2 (the))(4 (3 (fine))(2 (work))))(2 (2 (done))(2 (2 (by))(2 (2 (most))(2 (2 (of))(2 (2 (2 (the))(2 (rest)))(2 (2 (of))(2 (2 (her))(2 (cast)))))))))))))))))))(2 (.)))) |ET| 
0.13435614093810108182758256134548  |BT| (ROOT (1 (2 (1 (2 (Trailer))(2 (2 (park))(2 (Magnolia))))(2 (:)))(0 (1 (0 (0 (0 (2 (0 (0 (1 (2 (too))(2 (long)))(2 (,)))(2 (2 (too))(2 (cutesy))))(2 (,)))(2 (2 (too))(2 (2 (sure))(2 (2 (of))(2 (2 (its))(2 (2 (own))(2 (importance))))))))(2 (,)))(2 (and)))(2 (possessed)))(1 (2 (of))(1 (3 (2 (that))(2 (2 (peculiar))(2 (tension))))(1 (2 (of))(1 (2 (being))(1 (1 (1 (2 (2 (too))(1 (dense)))(2 (&)))(2 (about)))(1 (1 (nothing))(2 (2 (at))(2 (all)))))))))))(2 (.))) |ET| 
0.13435614093810108182758256134548  |BT| (ROOT (2 (2 (The))(2 (2 (party))(2 (scenes))))(2 (3 (3 (deliver))(2 (2 (some))(2 (1 (tawdry))(2 (kicks)))))(2 (.)))) |ET| 
0.13435614093810108182758256134548  |BT| (ROOT (2 (2 (A))(2 (2 (Sha-Na-Na))(2 (sketch))))(1 (2 (2 (punctuated))(2 (2 (with))(1 (2 (graphic))(0 (violence)))))(2 (.)))) |ET| 
-0.047063862806457232301760029713478  |BT| (ROOT (3 (2 (When))(3 (2 (2 (compared))(2 (2 (to))(2 (2 (2 (2 (the))(2 (usual)))(2 (,)))(2 (2 (more))(2 (2 (somber))(2 (3 (festival))(2 (entries))))))))(3 (2 (,))(4 (3 (2 (2 (3 (Davis))(2 (')))(2 (2 (2 (highly))(3 (personal)))(2 (brand))))(2 (2 (of))(2 (2 (romantic))(3 (comedy)))))(3 (2 (is))(3 (2 (2 (a))(2 (3 (tart))(2 (2 (,))(2 (4 (smart))(2 (breath))))))(3 (2 (of))(3 (4 (fresh))(2 (air))))))))))(2 (2 (that))(3 (2 (3 (3 (2 (stands))(1 (out)))(2 (2 (from))(2 (2 (the))(2 (pack)))))(1 (2 (even))(2 (2 (if))(1 (2 (2 (the))(2 (picture)))(2 (2 (itself))(3 (2 (is))(1 (2 (somewhat))(1 (problematic)))))))))(2 (.))))) |ET| 
0.13435614093810108182758256134548  |BT| (ROOT (2 (It))(2 (0 (2 (depends))(2 (2 (on))(1 (2 (2 (how))(3 (well)))(2 (2 (1 (flatulence))(2 (gags)))(2 (3 (fit))(2 (2 (into))(2 (2 (your))(3 (2 (holiday))(2 (concept))))))))))(2 (.)))) |ET| 
0.13435614093810108182758256134548  |BT| (ROOT (0 (1 (2 (2 (2 (I))(2 (2 (was))(3 (2 (hoping))(2 (2 (that))(3 (2 (it))(2 (2 (would))(2 (2 (be))(3 (1 (1 (sleazy))(2 (and)))(4 (fun))))))))))(2 (,)))(2 (but)))(2 (2 (it))(2 (2 (was))(2 (neither)))))(2 (.))) |ET| 
0.13435614093810108182758256134548  |BT| (ROOT (2 (2 (The))(2 (movie)))(2 (2 (2 (should))(1 (2 (be))(2 (2 (credited))(2 (2 (with))(2 (2 (remembering))(1 (2 (his))(1 (victims))))))))(2 (.)))) |ET| 
-0.058901487789782450144038250527956  |BT| (ROOT (1 (1 (2 (A))(2 (1 (slow-moving))(2 (2 (police-procedural))(3 (thriller)))))(2 (that)))(1 (1 (2 (2 (takes))(2 (2 (its))(2 (title))))(1 (2 (all))(1 (2 (too))(3 (literally)))))(2 (.)))) |ET| 
-0.059223526213544333551830334272381  |BT| (ROOT (2 (3 (Happy))(2 (Times)))(3 (3 (3 (2 (maintains))(3 (2 (an))(3 (3 (appealing))(2 (veneer)))))(2 (2 (without))(1 (2 (3 (becoming))(2 (2 (too))(3 (cute))))(2 (2 (about))(2 (it))))))(2 (.)))) |ET| 
-0.099106288635512296281149247079156  |BT| (ROOT (2 (It))(3 (2 (2 (2 ('s))(1 (not)))(2 (2 (1 (2 (too))(2 (fast)))(2 (and)))(2 (1 (not))(1 (2 (too))(1 (slow))))))(2 (.)))) |ET| 
0.13435614093810108182758256134548  |BT| (ROOT (2 (2 (If))(2 (2 (Reno))(2 (2 (is))(2 (2 (to))(2 (2 (2 (the))(2 (left)))(2 (2 (of))(2 (2 (liberal))(2 (2 (on))(2 (2 (the))(2 (2 (political))(2 (spectrum))))))))))))(2 (2 (,))(3 (3 (2 (her))(4 (3 (2 (tough))(3 (2 (,))(3 (3 (funny))(1 (2 (,))(1 (2 (rather))(1 (chaotic)))))))(2 (show))))(2 (1 (2 (1 (2 (is))(2 (n't)))(1 (subversive)))(2 (2 (2 (so))(2 (much)))(2 (2 (as))(1 (2 (it))(2 (2 (is))(2 (1 (nit-picky))(3 (2 (about))(2 (2 (2 (the))(2 (hypocrisies)))(2 (2 (of))(2 (2 (our))(2 (time))))))))))))(2 (.)))))) |ET| 
-0.13435614093810108182758256134548  |BT| (ROOT (2 (1 (1 (1 (1 (0 (1 (2 (2 (None))(2 (2 (of))(2 (this))))(3 (2 (is))(2 (2 (3 (meaningful))(2 (or)))(4 (memorable)))))(2 (,)))(2 (but)))(2 (3 (frosting))(2 (2 (1 (2 (is))(2 (n't)))(2 (,)))(2 (either)))))(2 (,)))(2 (and)))(4 (2 (you))(4 (2 (2 (would))(2 (n't)))(1 (1 (2 (turn))(2 (down)))(2 (2 (2 (a))(2 (2 (big))(2 (bowl))))(3 (2 (of))(2 (that))))))))(2 (2 (,))(2 (2 (2 (would))(2 (you)))(2 (?))))) |ET| 
-0.13435614093810108182758256134548  |BT| (ROOT (0 (1 (0 (2 (2 (The))(2 (2 (following))(2 (things))))(0 (2 (2 (2 (are))(1 (not)))(2 (2 (at))(2 (all))))(4 (entertaining))))(2 (:)))(0 (1 (0 (1 (1 (2 (The))(1 (0 (bad))(2 (sound))))(2 (,)))(1 (2 (2 (the))(2 (lack)))(2 (2 (of))(1 (2 (2 (3 (climax))(2 (and)))(2 (,)))(2 (0 (worst))(2 (2 (of))(2 (all))))))))(2 (,)))(3 (2 (watching))(2 (2 (2 (Seinfeld))(2 (1 (-LRB-))(2 (2 (2 (who))(2 (2 (2 (is))(2 (also)))(2 (2 (one))(2 (2 (of))(2 (2 (2 (the))(2 (2 (film))(2 ('s))))(2 (producers)))))))(3 (-RRB-)))))(2 (2 (do))(2 (2 (everything))(2 (2 (he))(2 (2 (can))(2 (2 (to))(2 (2 (look))(3 (2 (like))(3 (2 (a))(3 (3 (good))(2 (guy)))))))))))))))(2 (.))) |ET| 
-0.060042106615940414593435292545109  |BT| (ROOT (2 (2 (As))(2 (2 (it))(2 (stands))))(1 (2 (,))(0 (2 (2 (Crocodile))(2 (Hunter)))(2 (2 (2 (has))(0 (1 (2 (the))(1 (2 (hurried))(1 (2 (,))(1 (1 (2 (badly))(2 (cobbled)))(2 (look))))))(2 (2 (of))(2 (2 (2 (2 (the))(2 (2 (1959))(2 (Godzilla))))(2 (,)))(2 (2 (which))(1 (2 (2 (2 (combined))(2 (scenes)))(2 (2 (of))(2 (2 (a))(2 (2 (Japanese))(2 (monster))))))(2 (2 (flick))(2 (2 (with))(2 (2 (2 (canned))(2 (shots)))(2 (2 (of))(2 (2 (2 (Raymond))(2 (Burr)))(2 (2 (commenting))(1 (2 (on))(2 (2 (2 (2 (the))(2 (2 (monster))(2 ('s))))(2 (path)))(1 (2 (of))(1 (destruction)))))))))))))))))(2 (.)))))) |ET| 
0.13435614093810108182758256134548  |BT| (ROOT (3 (3 (2 (A))(3 (3 (family-friendly))(3 (fantasy))))(2 (that)))(1 (1 (2 (2 (ends))(2 (up)))(1 (1 (2 (doing))(2 (2 (very))(2 (little))))(3 (2 (with))(3 (2 (its))(3 (4 (imaginative))(2 (premise)))))))(2 (.)))) |ET| 
0.13435614093810108182758256134548  |BT| (ROOT (2 (2 (Some))(2 (movies)))(3 (2 (2 (2 (blend))(2 (together)))(2 (2 (as))(2 (2 (they))(2 (2 (become))(2 (1 (distant))(2 (memories)))))))(2 (.)))) |ET| 
0.13435614093810108182758256134548  |BT| (ROOT (3 (2 (2 (A))(2 (film)))(3 (2 (that))(3 (2 (presents))(4 (2 (an))(3 (3 (3 (interesting))(2 (2 (,))(3 (2 (even))(4 (sexy)))))(2 (premise)))))))(1 (2 (then))(0 (1 (1 (2 (ruins))(2 (itself)))(1 (2 (with))(1 (1 (1 (2 (too))(2 (2 (many))(2 (contrivances))))(2 (and)))(2 (2 (goofy))(2 (situations))))))(2 (.))))) |ET| 
-0.061000924242800687313792451504924  |BT| (ROOT (2 (...))(2 (2 (2 (too))(3 (2 (contrived))(3 (2 (to))(3 (2 (be))(3 (3 (2 (as))(4 (2 (naturally))(4 (charming))))(2 (2 (as))(2 (2 (it))(2 (2 (needs))(2 (2 (to))(2 (be)))))))))))(2 (.)))) |ET| 
-0.00053887633346968110380215133403681  |BT| (ROOT (1 (2 (0 (1 (2 (2 (2 (To))(2 (4 (better))(1 (2 (understand))(1 (2 (why))(1 (2 (this))(1 (2 (2 (did))(2 (n't)))(2 (2 (connect))(2 (2 (with))(2 (3 (me))(2 (2 (would))(2 (2 (require))(2 (2 (another))(2 (viewing))))))))))))))(2 (,)))(2 (and)))(1 (2 (I))(0 (2 (2 (wo))(2 (n't)))(2 (2 (be))(2 (1 (2 (sitting))(2 (2 (through))(2 (2 (this))(2 (one)))))(2 (again)))))))(2 (...)))(2 (2 (2 (that))(2 (2 (in))(2 (itself))))(3 (2 (is))(2 (2 (commentary))(2 (enough))))))(2 (.))) |ET| 
-0.059785017562350856179520519617654  |BT| (ROOT (2 (It))(0 (2 (never))(2 (2 (3 (2 (plays))(2 (2 (as))(3 (dramatic))))(2 (2 (even))(2 (2 (when))(1 (2 (3 (dramatic))(2 (things)))(2 (2 (happen))(2 (2 (to))(2 (people))))))))(2 (.))))) |ET| 
0.13435614093810108182758256134548  |BT| (ROOT (2 (2 (Although))(4 (2 (Barbershop))(3 (2 (boasts))(3 (2 (some))(3 (2 (of))(3 (3 (3 (2 (2 (today))(2 ('s)))(2 (hottest)))(2 (and)))(2 (2 (3 (hippest))(2 (acts)))(3 (2 (from))(2 (2 (2 (the))(2 (world)))(2 (2 (of))(2 (2 (2 (2 (2 (television))(2 (,)))(2 (music)))(2 (and)))(2 (2 (stand-up))(3 (comedy))))))))))))))(1 (2 (,))(1 (2 (2 (2 (this))(2 (movie)))(2 (1 (strangely))(2 (enough))))(1 (0 (2 (has))(1 (1 (2 (the))(1 (1 (outdated))(2 (swagger))))(1 (2 (of))(0 (2 (a))(1 (1 (shameless))(2 (2 (`))(2 (2 (70s))(1 (1 (blaxploitation))(2 (2 (shuck-and-jive))(2 (sitcom)))))))))))(2 (.)))))) |ET| 
0.13435614093810108182758256134548  |BT| (ROOT (2 (3 (Super))(2 (Troopers)))(2 (3 (2 (is))(2 (3 (2 (2 (2 (2 (2 (2 (an))(2 (2 (odd))(2 (amalgam))))(2 (2 (of))(2 (3 (comedy))(2 (genres)))))(2 (,)))(2 (2 (existing))(2 (2 (somewhere))(2 (2 (between))(2 (2 (2 (the))(2 (2 (often))(2 (3 (literal))(2 (riffs)))))(2 (2 (of))(2 (2 (early))(2 (2 (Zucker))(2 (2 (Brothers\/Abrahams))(2 (films)))))))))))(2 (,)))(2 (and)))(2 (1 (2 (the))(1 (1 (2 (decidedly))(1 (foul)))(2 (stylings))))(2 (2 (of))(2 (2 (2 (2 (their))(2 (2 (post-modern))(2 (contemporaries))))(2 (,)))(2 (2 (The))(2 (2 (Farrelly))(2 (Brothers)))))))))(2 (.)))) |ET| 
0.13435614093810108182758256134548  |BT| (ROOT (2 (2 (Because))(2 (2 (2 (Eight))(1 (2 (Legged))(2 (Freaks))))(2 (2 (2 (is))(2 (partly)))(3 (2 (3 (2 (2 (an))(3 (homage)))(2 (2 (to))(2 (2 (2 (2 (2 (Them))(2 (,)))(2 (Tarantula)))(2 (and)))(2 (2 (other))(2 (low))))))(2 (-)))(2 (2 (2 (budget))(3 (1 (B-movie))(2 (thrillers))))(2 (2 (of))(2 (2 (the))(2 (2 (2 (1950s))(2 (and)))(2 ('60s))))))))))(3 (2 (,))(3 (2 (2 (the))(2 (movie)))(2 (2 (2 (is))(2 (3 (2 (a))(3 (2 (3 (silly))(2 (1 (-LRB-))(3 (2 (2 (but))(3 (1 (not))(1 (sophomoric))))(3 (-RRB-)))))(2 (romp))))(1 (2 (through))(1 (1 (horror))(1 (2 (and))(1 (1 (hellish))(2 (conditions))))))))(2 (.)))))) |ET| 
-0.059825986220706756091303191169573  |BT| (ROOT (2 (And))(4 (2 (it))(3 (3 (2 (sees))(3 (2 (2 (2 (those))(2 (relationships)))(2 (,)))(3 (2 (including))(4 (3 (3 (2 (2 (2 (2 (2 (2 (2 (that))(2 (2 (between))(2 (2 (2 (2 (the))(2 (son)))(2 (and)))(2 (2 (his))(2 (wife))))))(2 (,)))(2 (and)))(2 (2 (2 (2 (the))(2 (wife)))(2 (and)))(2 (2 (the))(2 (father)))))(2 (,)))(2 (and)))(2 (2 (between))(2 (2 (the))(2 (2 (two))(2 (brothers))))))(2 (,)))(3 (2 (with))(3 (3 (incredible))(3 (2 (2 (subtlety))(2 (and)))(3 (acumen)))))))))(2 (.))))) |ET| 
0.13435614093810108182758256134548  |BT| (ROOT (2 (Bang))(2 (!))) |ET| 
0.13435614093810108182758256134548  |BT| (ROOT (2 (2 (A))(2 (creaky)))(2 (2 (2 (staircase))(2 (gothic)))(2 (.)))) |ET| 
0.13435614093810108182758256134548  |BT| (ROOT (1 (3 (2 (`))(2 (3 (Sophisticated))(2 (2 ('))(2 (viewers)))))(1 (2 (who))(1 (2 (refuse))(2 (2 (to))(2 (2 (admit))(2 (2 (that))(1 (2 (they))(1 (2 (2 (do))(2 (n't)))(3 (2 (like))(2 (it)))))))))))(2 (2 (3 (2 (will))(2 (likely)))(2 (2 (call))(2 (2 (it))(2 (2 (`))(2 (2 (2 (challenging))(2 (')))(2 (2 (to))(2 (2 (their))(3 (2 (fellow))(2 (sophisticates))))))))))(2 (.)))) |ET| 
0.13435614093810108182758256134548  |BT| (ROOT (1 (3 (2 (2 (2 (Let))(2 ('s)))(2 (2 (face))(2 (it))))(2 (--)))(0 (2 (there))(0 (1 (2 (are))(2 (n't)))(2 (2 (2 (many))(2 (reasons)))(2 (2 (anyone))(1 (2 (would))(2 (2 (want))(2 (2 (to))(1 (3 (2 (see))(2 (Crossroads)))(1 (2 (if))(2 (2 (they))(1 (2 (2 ('re))(1 (not)))(2 (3 (2 (big))(3 (fans)))(2 (2 (of))(2 (2 (teen))(2 (2 (pop))(2 (2 (kitten))(2 (2 (Britney))(2 (Spears))))))))))))))))))))(2 (.))) |ET| 
0.13435614093810108182758256134548  |BT| (ROOT (2 (I))(0 (1 (2 (2 (saw))(3 (2 (Juwanna))(2 (Mann))))(2 (2 (so))(2 (2 (you))(2 (2 (2 (do))(2 (n't)))(2 (2 (have))(2 (to)))))))(2 (.)))) |ET| 
-0.12290675167742731721531868060993  |BT| (ROOT (4 (2 (Though))(3 (2 (2 (her))(3 (fans)))(4 (3 (2 (will))(3 (assuredly)))(3 (2 (have))(3 (2 (their))(3 (3 (funny))(3 (2 (bones))(3 (tickled)))))))))(0 (2 (,))(1 (2 (others))(2 (0 (2 (will))(1 (2 (2 (find))(2 (2 (their))(2 (2 (humor-seeking))(3 (dollars)))))(1 (4 (best))(1 (2 (spent))(2 (elsewhere))))))(2 (.)))))) |ET| 
-0.0029474528259485280323737299568165  |BT| (ROOT (4 (2 (A))(3 (4 (2 (thoroughly))(4 (entertaining)))(2 (3 (comedy))(2 (that)))))(2 (3 (3 (2 (uses))(2 (2 (2 (2 (Grant))(2 ('s)))(2 (2 (own))(2 (twist))))(2 (2 (of))(1 (acidity)))))(2 (2 (to))(2 (2 (2 (prevent))(2 (itself)))(2 (2 (from))(1 (2 (succumbing))(2 (2 (to))(2 (2 (its))(2 (2 (own))(2 (bathos))))))))))(2 (.)))) |ET| 
-0.13435614093810108182758256134548  |BT| (ROOT (2 (2 (The))(2 (movie)))(1 (1 (1 (2 (does))(2 (n't)))(4 (2 (generate))(3 (2 (2 (a))(2 (lot)))(2 (2 (of))(3 (energy))))))(2 (.)))) |ET| 
0.13435614093810108182758256134548  |BT| (ROOT (2 (2 (A))(2 (2 (behind))(2 (2 (the))(2 (scenes)))))(2 (2 (2 (look))(2 (2 (at))(2 (2 (3 (3 (2 (the))(2 (2 (3 (training))(2 (and)))(3 (dedication))))(3 (2 (that))(2 (2 (goes))(3 (2 (into))(2 (3 (becoming))(3 (2 (a))(2 (3 (world-class))(2 (fencer)))))))))(2 (and)))(3 (2 (2 (the))(3 (champion)))(2 (2 (that))(2 (2 ('s))(2 (3 (2 (made))(2 (2 (a))(2 (difference))))(2 (2 (to))(2 (2 (NYC))(2 (2 (inner-city))(2 (youth))))))))))))(2 (.)))) |ET| 
0.13435614093810108182758256134548  |BT| (ROOT (2 (2 (2 (Bartlett))(2 ('s)))(3 (hero)))(2 (1 (1 (remains))(2 (2 (2 (2 (a))(2 (2 (reactive))(2 (cipher))))(2 (,)))(2 (2 (when))(1 (2 (2 (opening))(2 (2 (2 (the))(2 (2 (man))(2 ('s))))(3 (2 (2 (head))(2 (and)))(2 (heart)))))(2 (2 (is))(1 (2 (2 (the))(2 (2 (2 (only))(3 (imaginable)))(2 (reason))))(2 (2 (for))(2 (2 (the))(2 (2 (film))(2 (2 (to))(2 (2 (be))(2 (made)))))))))))))(2 (.)))) |ET| 
0.13435614093810108182758256134548  |BT| (ROOT (2 (2 (In))(2 (2 (the))(2 (end))))(2 (2 (,))(1 (2 (2 (all))(2 (2 (you))(2 (2 (can))(2 (do)))))(2 (1 (2 (is))(1 (3 (3 (3 (admire))(2 (2 (the))(2 (2 (ensemble))(2 (players)))))(2 (and)))(1 (3 (wonder))(2 (2 (what))(2 (2 (2 (2 (the))(2 (point)))(2 (2 (of))(2 (it))))(2 (is)))))))(2 (.)))))) |ET| 
-0.064293707814194661631645999477769  |BT| (ROOT (3 (2 (While))(2 (2 (2 (the))(2 (transgressive)))(3 (2 (trappings))(3 (1 (-LRB-))(4 (2 (2 (especially))(2 (2 (the))(2 (2 (frank))(2 (3 (sex))(2 (scenes))))))(3 (3 (-RRB-))(3 (2 (ensure))(3 (2 (that))(4 (2 (2 (the))(2 (film)))(3 (2 (2 (is))(2 (never)))(0 (dull))))))))))))(1 (2 (,))(1 (2 (3 (2 (Rodrigues))(2 ('s)))(2 (2 (beast-within))(3 (metaphor))))(0 (1 (1 (2 (3 (2 (is))(2 (ultimately)))(2 (2 (rather))(1 (1 (3 (silly))(2 (and)))(1 (overwrought)))))(2 (,)))(0 (2 (making))(1 (2 (2 (the))(1 (3 (ambiguous))(2 (ending))))(1 (1 (2 (seem))(2 (goofy)))(1 (2 (rather))(2 (2 (than))(3 (provocative))))))))(2 (.)))))) |ET| 
-0.04048935997746536813446383007431  |BT| (ROOT (2 (1 (2 (2 (Inherently))(2 (caustic)))(2 (and)))(3 (2 (oddly))(3 (whimsical))))(3 (2 (,))(3 (2 (2 (the))(2 (film)))(3 (3 (3 (2 (2 (2 (chimes))(2 (in)))(2 (2 (on))(1 (2 (the))(2 (2 (grieving))(2 (process))))))(2 (and)))(3 (1 (strangely))(3 (3 (2 (draws))(2 (2 (the))(2 (audience))))(2 (2 (into))(2 (2 (1 (2 (the))(1 (1 (unexplainable))(2 (pain))))(2 (and)))(3 (2 (eccentricities))(2 (2 (that))(1 (2 (are))(2 (2 (attached))(1 (2 (to))(1 (2 (2 (the))(2 (concept)))(1 (2 (of))(1 (loss))))))))))))))(2 (.)))))) |ET| 
-0.0066877807711712769500600472838414  |BT| (ROOT (0 (1 (1 (1 (Lacks))(3 (3 (2 (the))(4 (inspiration)))(2 (2 (of))(3 (2 (the))(3 (original))))))(2 (and)))(0 (1 (2 (has))(0 (1 (2 (a))(1 (1 (bloated))(2 (plot))))(1 (2 (that))(2 (2 (2 (stretches))(2 (2 (the))(2 (2 (running))(2 (time)))))(2 (2 (2 (about))(3 (10)))(2 (minutes)))))))(1 (2 (past))(1 (3 (2 (2 (2 (a))(2 (2 (child))(2 ('s))))(2 (interest)))(2 (and)))(2 (2 (2 (an))(2 (2 (adult))(2 ('s))))(3 (patience)))))))(2 (.))) |ET| 
0.13435614093810108182758256134548  |BT| (ROOT (2 (2 (The))(2 (2 (2 (2 (2 (1 (2 (3 (2 (2 (smash))(2 ('em)))(2 (-)))(2 (up)))(2 (,)))(2 (3 (1 (2 (crash))(2 ('em)))(2 (-)))(2 (up))))(2 (,)))(2 (1 (shoot))(2 ('em))))(2 (-)))(2 (2 (up))(2 (ending)))))(2 (2 (2 (3 (comes))(1 (out)))(2 (2 (of))(2 (2 (nowhere))(2 (2 (3 (substituting))(2 (mayhem)))(2 (2 (for))(2 (suspense)))))))(2 (.)))) |ET| 
0.13435614093810108182758256134548  |BT| (ROOT (2 (``))(2 (2 (What))(2 (2 (2 (2 (really))(2 (happened)))(2 (?)))(2 (''))))) |ET| 
0.13435614093810108182758256134548  |BT| (ROOT (3 (4 (4 (3 (2 (The))(3 (good)))(4 (2 (is))(4 (2 (very))(3 (2 (,))(3 (2 (very))(3 (good)))))))(2 (...)))(0 (2 (2 (The))(2 (rest)))(0 (2 (runs))(0 (2 (from))(0 (1 (2 (mildly))(1 (unimpressive)))(0 (2 (to))(0 (2 (despairingly))(2 (awful)))))))))(2 (.))) |ET| 
-0.13435614093810108182758256134548  |BT| (ROOT (4 (2 (A))(3 (3 (good))(2 (documentary))))(2 (3 (2 (can))(3 (3 (2 (make))(3 (interesting)))(2 (2 (2 (a))(2 (subject)))(1 (2 (you))(1 (2 (thought))(1 (2 (would))(1 (1 (leave))(2 (2 (you))(1 (cold))))))))))(2 (.)))) |ET| 
-0.096530771229901668473161180372699  |BT| (ROOT (2 (2 (If))(2 (2 (you))(2 (2 (2 (grew))(2 (up)))(2 (2 (on))(2 (Scooby))))))(4 (2 (--))(4 (2 (you))(4 (4 (2 ('ll))(3 (4 (love))(2 (2 (this))(2 (movie)))))(2 (.)))))) |ET| 
-0.051584033836401255168624402358546  |BT| (ROOT (0 (1 (2 (2 (The))(2 (2 (very))(2 (definition))))(0 (2 (of))(0 (2 (what))(1 (2 (critics))(1 (2 (have))(0 (2 (come))(0 (2 (to))(0 (2 (term))(0 (2 (an))(1 (2 (``))(1 (3 (ambitious))(0 (failure)))))))))))))(2 (.)))(2 (''))) |ET| 
0.13435614093810108182758256134548  |BT| (ROOT (1 (3 (4 (3 (4 (3 (2 (The))(3 (3 (wonderful))(2 (combination))))(4 (2 (of))(4 (2 (3 (2 (the))(3 (sweetness)))(2 (and)))(4 (4 (2 (the))(4 (4 (extraordinary))(3 (2 (technical))(2 (accomplishments)))))(2 (2 (of))(2 (2 (the))(2 (2 (first))(2 (film)))))))))(2 (2 (are))(3 (maintained))))(2 (,)))(2 (but)))(1 (2 (2 (its))(2 (2 (overall))(2 (impact))))(1 (1 (1 (falls))(1 (2 (2 (a))(2 (little)))(1 (flat))))(1 (2 (with))(1 (2 (2 (a))(2 (storyline)))(2 (2 (that))(1 (1 (2 (never))(2 (quite)))(3 (2 (delivers))(2 (2 (the))(3 (3 (original))(2 (magic))))))))))))(2 (.))) |ET| 
0.13435614093810108182758256134548  |BT| (ROOT (1 (2 (2 (2 (2 (Hope))(3 (2 (keeps))(3 (2 (arising))(4 (2 (that))(3 (2 (2 (the))(2 (movie)))(3 (2 (will))(3 (2 (2 (live))(2 (up)))(3 (2 (to))(3 (2 (2 (3 (2 (the))(2 (2 (apparent))(2 (skills))))(2 (2 (of))(2 (2 (its))(2 (makers)))))(2 (and)))(2 (2 (2 (the))(3 (talents)))(3 (2 (of))(2 (2 (its))(2 (actors))))))))))))))(2 (,)))(2 (but)))(2 (2 (it))(1 (2 (does))(2 (n't)))))(2 (.))) |ET| 
0.13435614093810108182758256134548  |BT| (ROOT (2 (It))(3 (3 (3 (3 (2 ('s))(3 (2 (2 (an))(2 (2 (actor))(2 ('s))))(3 (2 (showcase))(4 (2 (that))(3 (4 (3 (accomplishes))(2 (2 (its))(2 (2 (primary))(3 (goal)))))(3 (2 (2 (without))(2 (2 (2 (the))(2 (use)))(2 (2 (of))(2 (3 (special))(2 (effects))))))(3 (2 (,))(2 (2 (but))(2 (2 (rather))(2 (2 (by))(2 (3 (emphasizing))(2 (2 (the))(2 (characters))))))))))))))(2 (--)))(2 (2 (including))(2 (2 (the))(2 (3 (supporting))(2 (ones))))))(2 (.)))) |ET| 
-0.051575272630099477932930085444241  |BT| (ROOT (2 (It))(2 (2 (may))(3 (2 (be))(4 (2 (a))(3 (1 (2 (somewhat))(2 (backhanded)))(3 (3 (compliment))(3 (2 (to))(2 (2 (say))(3 (2 (that))(3 (2 (2 (the))(2 (film)))(3 (2 (makes))(2 (2 (2 (1 (2 (2 (the))(2 (viewer)))(1 (2 (feel))(1 (2 (like))(1 (0 (2 (2 (the))(2 (2 (movie))(2 ('s))))(1 (2 (various))(2 (1 (victimized))(2 (2 (audience))(2 (members))))))(2 (2 (after))(2 (2 (a))(2 (while))))))))(2 (,)))(2 (but)))(3 (2 (it))(3 (2 (also))(3 (2 (happens))(3 (2 (to))(2 (2 (be))(3 (2 (2 (the))(2 (2 (movie))(2 ('s))))(4 (2 (most))(3 (4 (admirable))(3 (quality)))))))))))))))))))))) |ET| 
0.13435614093810108182758256134548  |BT| (ROOT (2 (It))(2 (2 (2 (2 (2 (2 (2 (1 (2 (may))(1 (not)))(2 (2 (be))(2 (history))))(2 (--)))(2 (but)))(2 (2 (then))(2 (again))))(2 (,)))(2 (2 (what))(2 (2 (if))(3 (2 (it))(2 (is))))))(2 (?)))) |ET| 
-0.13435614093810108182758256134548  |BT| (ROOT (1 (2 (Most))(1 (2 (of))(1 (1 (2 (the))(2 (problems)))(2 (2 (with))(2 (2 (the))(2 (film)))))))(1 (2 (2 (do))(2 (n't)))(1 (2 (2 (derive))(1 (2 (from))(2 (3 (2 (2 (2 (the))(2 (screenplay)))(2 (,)))(2 (2 (but))(2 (rather))))(2 (2 (the))(2 (1 (mediocre))(2 (performances)))))))(2 (2 (by))(2 (2 (most))(2 (2 (of))(2 (2 (2 (the))(2 (actors)))(2 (involved))))))))) |ET| 
0.13435614093810108182758256134548  |BT| (ROOT (0 (2 (If))(1 (2 (you))(1 (2 (2 ('re))(2 (really)))(1 (3 (renting))(2 (2 (this))(1 (2 (you))(1 (2 (2 (2 ('re))(1 (not)))(2 (3 (interested))(2 (2 (in))(2 (discretion)))))(2 (2 (in))(3 (2 (your))(2 (3 (entertainment))(2 (choices))))))))))))(2 (2 (,))(2 (2 (you))(2 (2 (2 ('re))(4 (3 (interested))(2 (2 (in))(1 (2 (2 (2 (2 (2 (2 (Anne))(2 (Geddes)))(2 (,)))(2 (2 (John))(2 (Grisham))))(2 (,)))(2 (and)))(2 (2 (Thomas))(2 (Kincaid)))))))(2 (.)))))) |ET| 
0.13435614093810108182758256134548  |BT| (ROOT (0 (2 (2 (About))(3 (2 (as))(3 (original))))(2 (2 (as))(2 (2 (a))(2 (1 (gangster))(2 (sweating))))))(2 (2 (2 (bullets))(2 (2 (while))(2 (2 (worrying))(2 (2 (about))(2 (2 (2 (a))(2 (contract)))(2 (2 (on))(2 (2 (his))(3 (life)))))))))(2 (.)))) |ET| 
0.13435614093810108182758256134548  |BT| (ROOT (2 (2 (The))(2 (3 (Country))(2 (Bears))))(2 (3 (2 (has))(3 (2 (1 (no))(2 (scenes)))(1 (2 (that))(1 (2 (will))(2 (2 (2 (2 (upset))(2 (or)))(2 (frighten)))(2 (2 (young))(2 (viewers))))))))(2 (.)))) |ET| 
-0.13435614093810108182758256134548  |BT| (ROOT (2 (2 (The))(1 (1 (uneven))(2 (movie))))(2 (2 (2 (does))(2 (2 (have))(2 (2 (3 (3 (3 (2 (its))(3 (charms)))(2 (and)))(3 (2 (its))(3 (3 (funny))(2 (moments)))))(2 (2 (but))(1 (not))))(3 (2 (2 (quite))(2 (enough)))(2 (2 (of))(2 (them)))))))(2 (.)))) |ET| 
-0.1021650703035985319200307230858  |BT| (ROOT (2 (Drowning))(2 (2 (2 ('s))(2 (2 (too))(3 (3 (good))(2 (2 (for))(1 (2 (this))(0 (sucker)))))))(2 (.)))) |ET| 
-0.13435614093810108182758256134548  |BT| (ROOT (2 (So))(4 (2 (3 (original))(2 (2 (in))(2 (2 (2 (its))(2 (2 (base))(2 (concept))))(2 (2 (that))(2 (2 (you))(2 (2 (2 (2 (2 (can))(1 (not)))(2 (help)))(2 (but)))(2 (get))))))))(2 (2 (2 (caught))(2 (up)))(2 (.))))) |ET| 
0.13435614093810108182758256134548  |BT| (ROOT (2 (2 (3 (4 (2 (Parker))(3 (2 (should))(3 (2 (be))(3 (2 (commended))(3 (2 (for))(3 (3 (2 (taking))(3 (2 (a))(3 (4 (fresh))(2 (approach)))))(2 (2 (to))(2 (2 (familiar))(2 (material))))))))))(2 (,)))(2 (but)))(1 (3 (2 (his))(2 (2 (determination))(3 (2 (to))(2 (2 (remain))(2 (3 (true))(2 (2 (to))(2 (2 (the))(2 (3 (original))(2 (text))))))))))(1 (2 (leads))(2 (2 (him))(1 (2 (to))(1 (2 (adopt))(2 (2 (2 (2 (a))(2 (3 (2 (somewhat))(3 (mannered)))(2 (tone))))(2 (...)))(0 (2 (that))(1 (2 (ultimately))(2 (1 (dulls))(2 (2 (2 (the))(2 (2 (human))(1 (tragedy))))(2 (2 (at))(2 (2 (2 (the))(2 (2 (story))(2 ('s))))(2 (core)))))))))))))))(2 (.))) |ET| 
0.13435614093810108182758256134548  |BT| (ROOT (2 (2 (Despite))(1 (2 (2 (the))(2 (holes)))(1 (2 (in))(1 (2 (2 (2 (the))(2 (story)))(2 (and)))(1 (2 (the))(1 (1 (2 (somewhat))(2 (predictable)))(2 (plot))))))))(3 (2 (,))(3 (2 (2 (moments))(2 (2 (of))(2 (2 (the))(2 (movie)))))(3 (2 (3 (caused))(2 (3 (me))(3 (2 (to))(2 (2 (jump))(2 (2 (in))(2 (2 (my))(2 (chair))))))))(2 (...)))))) |ET| 
0.13435614093810108182758256134548  |BT| (ROOT (2 (2 (2 (Almost))(2 (everything)))(2 (2 (about))(2 (2 (the))(2 (film)))))(2 (0 (2 (1 (2 (is))(2 (unsettling)))(2 (,)))(1 (2 (from))(1 (1 (2 (the))(1 (0 (preposterous))(2 (hairpiece))))(1 (2 (1 (worn))(2 (2 (by))(2 (2 (2 (Lai))(2 ('s)))(1 (1 (villainous))(2 (father))))))(1 (2 (to))(0 (2 (the))(2 (1 (endless))(2 (2 (action))(2 (sequences))))))))))(2 (.)))) |ET| 
-0.033469755149409856354036918446582  |BT| (ROOT (2 (Parker))(1 (1 (2 (updates))(1 (2 (2 (the))(2 (setting)))(1 (2 (in))(1 (2 (an))(2 (2 (attempt))(1 (2 (to))(2 (3 (3 (2 (2 (make))(2 (2 (the))(2 (film))))(3 (2 (relevant))(2 (today))))(2 (,)))(1 (2 (without))(2 (2 (fully))(2 (2 (understanding))(1 (2 (what))(2 (2 (it))(2 (2 (was))(2 (2 (that))(2 (2 (made))(3 (2 (2 (the))(2 (story)))(2 (2 (relevant))(2 (2 (in))(3 (2 (the))(3 (2 (first))(2 (place))))))))))))))))))))))(2 (.)))) |ET| 
-0.1037555314617923107878283417449  |BT| (ROOT (1 (2 (Though))(2 (2 (Jackson))(2 (2 (1 (2 (does))(2 (n't)))(2 (always)))(4 (3 (succeed))(3 (2 (in))(4 (3 (3 (2 (integrating))(2 (2 (the))(2 (characters))))(2 (2 (in))(2 (2 (the))(2 (foreground)))))(3 (2 (into))(4 (2 (the))(4 (3 (4 (extraordinarily))(3 (rich)))(2 (landscape)))))))))))(3 (2 (,))(3 (2 (it))(3 (3 (2 (must))(4 (2 (be))(3 (2 (said))(4 (2 (that))(3 (2 (he))(4 (2 (is))(4 (3 (2 (an))(3 (4 (imaginative))(2 (filmmaker))))(2 (2 (who))(3 (2 (can))(3 (2 (see))(2 (3 (2 (the))(2 (forest)))(2 (2 (for))(2 (2 (the))(2 (trees)))))))))))))))(2 (.)))))) |ET| 
-0.041864860024548110339903672638684  |BT| (ROOT (3 (3 (3 (3 (2 (2 (Even))(2 (2 (if))(2 (2 (you))(2 (2 (2 (do))(2 (n't)))(3 (2 (2 (know))(2 (2 (2 (2 (the))(2 (band)))(2 (or)))(2 (2 (2 (the))(2 (2 (album))(2 ('s))))(2 (songs)))))(2 (2 (by))(2 (heart))))))))(3 (2 (,))(3 (2 (you))(3 (2 (will))(4 (4 (enjoy))(2 (2 (seeing))(3 (2 (how))(2 (2 (both))(3 (evolve))))))))))(2 (,)))(2 (and)))(3 (2 (you))(2 (2 (2 (will))(2 (also)))(2 (3 (2 (learn))(3 (2 (a))(3 (3 (good))(2 (deal)))))(2 (2 (about))(2 (2 (2 (the))(2 (state)))(2 (2 (of))(2 (2 (2 (the))(2 (2 (music))(2 (business))))(2 (2 (in))(2 (2 (the))(2 (2 (21st))(2 (Century)))))))))))))(2 (.))) |ET| 
0.13435614093810108182758256134548  |BT| (ROOT (1 (2 (3 (3 (2 (There))(3 (2 (2 (are))(2 (2 (many))(2 (things))))(3 (2 (that))(3 (3 (3 (solid))(2 (acting)))(2 (2 (can))(2 (2 (do))(2 (2 (for))(2 (2 (a))(2 (movie))))))))))(2 (,)))(2 (but)))(1 (2 (3 (crafting))(2 (2 (something))(2 (3 (promising))(2 (2 (from))(1 (2 (a))(1 (1 (mediocre))(2 (screenplay))))))))(1 (1 (2 (is))(1 (not)))(1 (2 (one))(2 (2 (of))(2 (them)))))))(2 (.))) |ET| 
0.13435614093810108182758256134548  |BT| (ROOT (0 (2 (2 (2 (2 (Takes))(2 (2 (one))(2 (character))))(1 (2 (we))(0 (2 (2 (do))(2 (n't)))(2 (like)))))(2 (and)))(0 (2 (2 (another))(2 (we)))(1 (2 (2 (2 (2 (2 (do))(2 (n't)))(2 (believe)))(2 (,)))(2 (and)))(1 (2 (2 (puts))(2 (them)))(1 (2 (into))(1 (2 (2 (a))(2 (battle)))(2 (2 (of))(1 (2 (wills))(1 (2 (that))(0 (1 (1 (2 (is))(1 (0 (impossible))(3 (2 (to))(2 (3 (care))(2 (about))))))(2 (and)))(1 (1 (2 (is))(2 (n't)))(4 (2 (very))(3 (funny))))))))))))))(2 (.))) |ET| 
0.13435614093810108182758256134548  |BT| (ROOT (3 (2 (A))(3 (2 (3 (3 (3 (2 (2 (typically))(2 (observant)))(2 (,)))(3 (2 (carefully))(2 (nuanced))))(2 (and)))(2 (2 (intimate))(2 (French))))(2 (2 (coming-of-age))(2 (2 (film))(2 (2 (that))(3 (3 (3 (2 (is))(3 (2 (an))(3 (3 (encouraging))(2 (2 (debut))(2 (feature))))))(2 (but)))(1 (1 (2 (has))(1 (2 (2 (a))(1 (needlessly)))(1 (downbeat))))(2 (2 (ending))(2 (that))))))))))(1 (1 (2 (is))(2 (2 (too))(3 (2 (heavy))(2 (2 (for))(2 (2 (all))(2 (2 (that))(2 (2 (has))(2 (2 (preceded))(2 (it))))))))))(2 (.)))) |ET| 
-0.039517798953901818459488737289576  |BT| (ROOT (0 (2 (Even))(1 (2 (as))(0 (2 (I))(1 (3 (valiantly))(0 (1 (struggled))(2 (2 (to))(1 (2 (remain))(2 (2 (2 (3 (interested))(2 (,)))(2 (or)))(2 (2 (2 (at))(1 (least)))(2 (conscious)))))))))))(0 (2 (,))(0 (2 (I))(2 (1 (2 (could))(0 (0 (1 (2 (2 (2 (feel))(1 (2 (2 (2 (my))(2 (eyelids)))(2 (...)))(2 (getting))))(2 (...)))(2 (very)))(2 (...)))(2 (heavy))))(2 (...)))))) |ET| 
-0.11838743634233893364804401926449  |BT| (ROOT (3 (2 (What))(3 (2 ('s))(2 (2 (so))(3 (3 (striking))(2 (2 (about))(2 (2 (2 (Jolie))(2 ('s)))(2 (performance))))))))(3 (3 (2 (is))(2 (2 (that))(3 (2 (she))(2 (2 (never))(1 (2 (lets))(0 (2 (2 (her))(2 (character)))(1 (2 (become))(3 (2 (2 (a))(1 (caricature)))(2 (2 (--))(2 (1 (not))(2 (2 (even))(2 (2 (with))(2 (2 (that))(3 (2 (radioactive))(2 (hair))))))))))))))))(2 (.)))) |ET| 
-0.099294960986417990511654352303594  |BT| (ROOT (2 (2 (That))(2 (2 (Jack))(2 (Nicholson))))(4 (3 (2 (makes))(3 (3 (2 (2 (this))(2 (man)))(3 (2 (so))(3 (watchable))))(3 (3 (2 (is))(3 (2 (a))(3 (tribute))))(3 (2 (1 (not))(2 (only)))(3 (2 (2 (to))(3 (2 (his))(2 (craft))))(3 (2 (2 (,))(2 (but)))(2 (2 (to))(2 (2 (his))(2 (legend))))))))))(2 (.)))) |ET| 
0.13435614093810108182758256134548  |BT| (ROOT (2 (2 (When))(2 (2 (you))(3 (2 (think))(2 (2 (you))(1 (2 ('ve))(2 (2 (figured))(2 (1 (out))(3 (2 (3 (2 (2 (Bielinsky))(2 ('s)))(3 (4 (great))(2 (game))))(2 (,)))(1 (2 (that))(1 (2 ('s))(2 (2 (when))(2 (2 (you))(2 (2 ('re))(2 (2 (in))(2 (2 (the))(1 (2 (most))(2 (trouble))))))))))))))))))(1 (2 (:))(2 (2 (2 (2 (1 (2 (He))(2 (2 ('s))(1 (2 (the))(1 (con)))))(2 (,)))(2 (and)))(2 (2 (you))(2 (2 (2 ('re))(2 (just)))(3 (2 (the))(2 (mark))))))(2 (.))))) |ET| 
0.13435614093810108182758256134548  |BT| (ROOT (2 (2 (When))(3 (2 (in))(2 (doubt))))(0 (2 (,))(2 (2 (2 (the))(2 (film)))(2 (1 (2 (3 (3 (2 (2 (3 (ratchets))(2 (up)))(3 (2 (the))(2 (3 (stirring))(2 (soundtrack)))))(2 (,)))(1 (2 (throws))(2 (2 (in))(1 (2 (a))(1 (2 (fish-out-of-water))(1 (gag)))))))(2 (and)))(1 (2 (lets))(1 (2 (the))(1 (1 (cliched))(2 (2 (dialogue))(2 (rip)))))))(2 (.)))))) |ET| 
-0.078348426855893202325198387825367  |BT| (ROOT (1 (1 (1 (2 (The))(1 (1 (obnoxious))(2 (3 (special))(2 (effects)))))(2 (,)))(0 (1 (2 (2 (2 (the))(2 (2 (obligatory))(2 (outbursts))))(2 (2 (of))(1 (flatulence))))(2 (and)))(2 (1 (2 (the))(1 (1 (incessant))(2 (2 (,))(1 (2 (so-five-minutes-ago))(2 (2 (pop))(2 (music)))))))(2 (2 (on))(2 (2 (the))(2 (soundtrack)))))))(1 (1 (2 (overwhelm))(2 (2 (what))(2 (2 (is))(2 (2 (left))(2 (2 (of))(2 (2 (the))(3 (1 (2 (scruffy))(1 (2 (,))(1 (1 (dopey))(2 (old)))))(3 (2 (Hanna-Barbera))(3 (charm))))))))))(2 (.)))) |ET| 
-0.0085567920061542703663581832529417  |BT| (ROOT (2 (1 (2 (A))(1 (3 (loquacious))(1 (2 (and))(1 (1 (dreary))(2 (piece))))))(2 (2 (of))(2 (business))))(2 (.))) |ET| 
-0.010903033328607454957581701648905  |BT| (ROOT (2 (Something))(0 (1 (2 (has))(1 (2 (been))(0 (2 (lost))(1 (2 (in))(0 (2 (2 (2 (the))(2 (translation)))(2 (...)))(1 (1 (2 (another))(2 (2 (routine))(1 (2 (Hollywood))(3 (frightfest)))))(1 (2 (2 (in))(2 (which)))(1 (2 (2 (the))(1 (2 (slack))(2 (execution))))(2 (2 (italicizes))(1 (1 (2 (the))(1 (absurdity)))(2 (2 (of))(2 (2 (the))(2 (premise))))))))))))))(2 (.)))) |ET| 
0.13435614093810108182758256134548  |BT| (ROOT (3 (1 (0 (2 (2 (Going))(2 (2 (to))(2 (2 (this))(2 (movie)))))(0 (2 (is))(1 (2 (2 (a))(2 (little)))(1 (2 (like))(2 (2 (chewing))(2 (2 (whale))(1 (blubber))))))))(2 (-)))(3 (3 (3 (1 (2 (it))(3 (2 ('s))(2 (2 (2 (an))(2 (2 (acquired))(2 (taste))))(2 (2 (that))(2 (2 (2 (takes))(2 (time)))(3 (2 (to))(4 (enjoy))))))))(2 (,)))(2 (but)))(3 (2 (it))(2 (3 (3 (2 ('s))(2 (2 (worth))(2 (it))))(2 (,)))(2 (2 (even))(2 (2 (if))(2 (2 (it))(2 (2 (does))(1 (2 (2 (take))(2 (2 (3))(2 (hours))))(2 (2 (to))(2 (2 (get))(2 (through)))))))))))))(2 (.))) |ET| 
0.13435614093810108182758256134548  |BT| (ROOT (1 (1 (1 (1 (2 (3 (2 (2 (2 (The))(2 (story)))(2 (,)))(2 (3 (touching))(2 (2 (though))(3 (2 (it))(2 (is))))))(2 (,)))(2 (2 (2 (2 (does))(1 (not)))(2 (quite)))(2 (2 (2 (have))(1 (2 (2 (2 (2 (enough))(2 (emotional)))(3 (resonance)))(2 (or)))(2 (2 (variety))(2 (2 (of))(2 (incident))))))(2 (2 (to))(2 (2 (sustain))(2 (2 (a))(2 (feature))))))))(2 (,)))(2 (and)))(1 (2 (even))(2 (2 (2 (at))(2 (2 (85))(2 (minutes))))(1 (2 (it))(2 (2 (2 (feels))(2 (2 (a))(2 (bit))))(2 (long)))))))(2 (.))) |ET| 
0.13435614093810108182758256134548  |BT| (ROOT (2 (2 (Wiser))(2 (souls)))(1 (2 (would))(2 (2 (2 (have))(3 (tactfully)))(2 (1 (1 (1 (pretended))(1 (1 (not))(2 (2 (to))(3 (2 (see))(2 (it))))))(2 (and)))(2 (2 (left))(2 (2 (it))(2 (1 (lying))(2 (there))))))))) |ET| 
-0.034343211426081050874348221668697  |BT| (ROOT (2 (2 (If))(1 (2 (you))(2 (2 (2 ('re))(1 (not)))(3 (2 (a))(3 (fan))))))(1 (2 (,))(1 (2 (it))(1 (1 (2 (might))(1 (2 (be))(1 (2 (like))(2 (2 (trying))(2 (2 (to))(2 (2 (eat))(2 (3 (Brussels))(2 (sprouts)))))))))(2 (.)))))) |ET| 
-0.040799852980502177013377718139964  |BT| (ROOT (2 (2 (2 (Whole))(2 (stretches)))(2 (2 (of))(2 (2 (the))(2 (film)))))(1 (1 (2 (may))(3 (2 (be))(2 (1 (incomprehensible))(2 (2 (to))(1 (2 (moviegoers))(2 (1 (not))(2 (2 (already))(2 (2 (clad))(2 (2 (in))(2 (2 (basic))(2 (black))))))))))))(2 (.)))) |ET| 
-0.10170533883813512310290150253422  |BT| (ROOT (2 (3 (How))(1 (inept)))(2 (2 (2 (is))(2 (2 (Serving))(2 (Sara))))(2 (?)))) |ET| 
